2.972329207320573152e-02
-4.262940361858088417e-02
7.121876617779118734e-02
8.497564286419523327e-02
-6.718887468648505890e-02
-4.605261928006500194e-02
-5.123332301612456424e-02
-6.357906225166803926e-02
-3.730809297253462331e-02
-5.243819750142298362e-03
4.146786672780605060e-02
9.145279183652944843e-02
7.315449810200562453e-02
-5.089623978432417095e-02
-1.089482340679854555e-01
-6.992911099666271335e-02
-3.954102924201403219e-02
1.656404166686107141e-02
-7.987827790923578142e-02
-1.165620431593033038e-02
-6.204814004066708244e-02
7.562063446316155679e-02
7.874034674975424752e-03
-3.601621198215543274e-02
2.010750159717224900e-02
-8.945319058773486265e-02
-7.239929811388813585e-02
7.281938507734415922e-02
8.246926843972481047e-02
4.844351062965463611e-02
6.416769656664043919e-02
9.345853706675488412e-03
2.711980342815344461e-02
-4.865690653919581277e-02
-7.607148006125614981e-02
6.452360524191365354e-02
4.799367822815289036e-02
-4.040418943028086657e-02
8.235413735393427859e-02
-7.396106826404261377e-03
7.393833589316538973e-03
-2.477251776340380976e-02
-4.926941666623316923e-02
-2.202571122786223246e-02
-6.585887002445563188e-02
3.327053505470049105e-02
-2.897817602185456462e-02
3.949120545577712756e-03
-5.303862982988409580e-02
5.327440095658872443e-02
1.522952692653474320e-02
-8.670621074531979777e-02
-8.096630980302489677e-02
6.087323980955405833e-02
-9.353982567096627565e-02
3.809640835538904285e-02
-8.539046061182486991e-02
-7.685426611984330636e-02
6.106651717941973673e-02
-7.426014280650690413e-02
1.478399159683675820e-03
4.519183411439138369e-03
2.056414709519895426e-02
-4.651178133353548599e-02
-1.124419337300608113e-01
6.429412010002365924e-03
4.149872430280411584e-02
-4.778628781621253180e-02
-5.996985510690518162e-02
3.215919583875686411e-02
-3.728851474403196281e-02
-8.967864285822460188e-03
-7.931771212942556604e-03
5.470728224539741363e-02
-6.191330515586316446e-02
-4.948677826913460559e-02
-5.173885130990679270e-04
1.648991082901907906e-02
-3.467903938528522217e-02
-1.564750259085646508e-02
-2.521498763961114303e-02
-6.783987231091928582e-02
-4.806267845582434806e-02
-5.345153703355538105e-02
-7.467165971351356901e-02
4.254460101315080817e-02
-7.217160902267352740e-02
-7.517795653523821897e-02
-7.540879016613973029e-02
-9.086156087894771416e-02
1.855991500521712856e-02
-6.999420898361866095e-02
1.649029612806312758e-02
-3.778313832917392506e-02
-9.083697116122375773e-04
-6.469749886052170162e-02
2.843154140570308339e-02
-2.363540075053553735e-02
5.741318072746575719e-03
5.607332442037405405e-03
-9.288125420220154360e-02
-6.336968645519301321e-03
-5.057842599461188915e-02
5.113239945581084245e-03
-7.593756629904817312e-02
-7.297454786194638998e-02
5.591754420422687111e-02
5.916199053225552201e-02
-3.161653976548488721e-03
5.940176280898683964e-02
3.726573651154950484e-02
5.836862425325419629e-02
-2.883558209136629844e-02
-1.345752628387997642e-03
5.355467874399716388e-02
7.677709257368434126e-02
-4.060598622285941511e-02
5.227304932987945213e-02
4.573294166395483473e-02
5.283288888105677761e-02
5.826908903790176120e-02
3.425835396314598491e-02
6.094798142020225323e-02
4.719071510464558500e-02
-2.481737384403551877e-02
1.998733357352579579e-02
7.562122892514008821e-02
-7.355517553643944884e-02
-2.067234975212117742e-02
9.300213806423597920e-03
-9.515659274543979140e-02
-7.042325866820368929e-02
8.841999109905381363e-03
2.177235266773699246e-02
6.638161696205331641e-02
6.270559135408161448e-03
8.048555494954034994e-02
-3.964608640102930404e-02
-8.814285429415961992e-02
3.262795972629869284e-02
-2.634418687853273822e-02
-9.602998195659544212e-02
3.294451831690346083e-02
-8.917918599177854233e-02
-9.262148974077920316e-03
4.264468824717067286e-02
-3.536818001242750253e-02
-9.357096095289506310e-02
-6.452949972349211749e-02
-5.436160354051565446e-02
2.343760934554836584e-02
1.859320319065624859e-03
-2.532713196830132726e-02
-5.125752179777978701e-02
-2.221007997779763515e-02
5.094113832177714352e-02
-9.081221419366682091e-02
2.725058538221870885e-02
4.224359856202013902e-02
-1.194928215703414641e-02
6.154662228098937288e-02
-3.920421345872317220e-02
6.370217943351912104e-02
7.749482853606376453e-02
2.412116459583294251e-02
-2.134803943015018551e-02
5.747900959148038134e-03
-2.625346300249095308e-02
-4.395438779847905819e-02
-5.239709790215582585e-02
3.190082788121335888e-02
-3.932838156971794896e-02
9.843294193863703564e-03
-8.460081008449926721e-02
-6.412341151074650580e-02
5.400901572913564125e-02
-4.552545278748775653e-02
-7.015418238450189803e-02
4.611253368720857199e-02
6.977458302934805290e-02
-5.218718577138946324e-02
1.958966474917446174e-02
-4.650229239041120399e-02
-9.227454355534407682e-02
-7.805919207193567563e-03
-8.909945039505623443e-03
-2.490288547293755331e-02
-5.327354407259136254e-02
-9.196471121786177483e-02
3.588239561512889669e-02
-2.116823579080373899e-02
7.099399351878013520e-02
1.853389071450126449e-02
-6.356339047800727005e-02
4.830341723175211183e-02
8.588434871539218918e-02
4.061701102278478942e-02
6.167265987327281984e-02
-7.939072551824391533e-02
-3.041664134887771438e-03
-2.576040787894333731e-02
-7.389475765518279358e-03
-4.062947384102242113e-03
-2.552653979614030733e-02
-9.504978682209348773e-02
-2.706071678737735284e-02
-4.302578592288011650e-02
3.327871981769164184e-02
-4.469199452914891096e-02
-2.753698936571651740e-02
4.603538401604660713e-02
-2.115341467512293558e-02
-1.917957616600319062e-02
3.598301484310282433e-02
-5.078209225626369866e-02
-4.473547513989117180e-02
-1.976463630027266993e-02
-4.350839794305020464e-02
1.576111029589696497e-02
-2.608268132614805640e-02
-7.488355649682286452e-02
4.149538980076610678e-02
-9.262785541944017209e-02
-8.674914798715209485e-02
3.577074308983003992e-02
-5.934403612925055055e-02
-8.916025315345116331e-02
-1.833517059599018562e-02
-1.852310810077282752e-02
-6.821462602139992393e-02
-7.004195662063376904e-02
-2.987352378617392709e-02
2.635241058559842017e-02
1.035229178788385149e-02
1.558532044660927013e-02
1.922808327122037947e-02
-1.565005259234542034e-02
-5.066919539905830744e-02
1.348300732260770615e-02
-4.899685301195786519e-02
-1.713373799035931150e-02
-1.590292966069952255e-02
1.297322708265129416e-02
-1.851248212078987834e-02
-7.575833726377947941e-02
-2.678606920967276789e-02
5.449911904993180040e-02
-2.184992015291315620e-02
-3.202605973237772352e-02
5.909345749659785513e-02
-6.433100450150788796e-02
-4.651146487250899103e-02
-5.916196559681580203e-02
-4.681858064861648717e-03
-9.566972268397887225e-02
5.251057808589506409e-02
-4.357848591998710747e-02
-2.552562514951078280e-03
5.543276700907175808e-02
-1.799460455280419563e-02
6.929802116629373010e-02
-5.795450261416641019e-02
1.076700420469722981e-02
4.373132002240700394e-02
4.271296698108168616e-02
3.032897764631273599e-02
-7.899121459623266450e-02
-2.807909062410216330e-02
-4.388463286462585683e-02
2.429718614136076524e-02
-1.054678926510592418e-02
1.991243226666568333e-02
5.461862311325898361e-02
1.497224231271350979e-02
2.754258842043276131e-02
-2.609794546497385542e-02
5.791472280778812293e-02
8.082933185059996972e-02
1.357259066833531530e-03
-6.342775570916348200e-03
-8.374121945874846151e-02
5.935729188407849050e-02
-8.604059713489336028e-03
7.099336431663619273e-02
6.008791740420812294e-02
-3.671035114219518142e-02
3.587816624858116560e-02
2.114277372995983575e-02
-7.763183141913307383e-02
-5.868659406895871539e-02
-1.592020166067136325e-02
5.900394641068678475e-02
6.034333773647457266e-02
-1.158330812878330222e-02
-1.732551647090443958e-02
2.396602485794010681e-02
-1.184214904305382898e-01
-8.682095870941361482e-02
1.011163091666921702e-03
-3.262111655062714666e-02
-9.477127005422625317e-02
3.169219083115923374e-02
4.438631253867025145e-02
-8.266188468402411798e-05
5.083676845989222592e-02
5.327960058700324797e-02
-6.889029064302135130e-02
5.428222184225255098e-02
2.083338151979085250e-03
-3.169634745490750721e-02
-5.939567033619977399e-02
6.791193313000389031e-02
6.774596139475361212e-02
-6.416680275903755004e-02
8.132960221987832472e-03
-1.662377485121424234e-02
4.521421434267641065e-02
-6.107445611927442980e-02
-3.403449794637984638e-02
7.846237498665845425e-04
-3.272305917252418123e-02
-2.798439454889368322e-02
-4.547074794652488511e-02
-3.066223822960154749e-03
-5.603220184637118517e-02
-6.921111472252380187e-03
1.014570719115813653e-02
3.327440036442044780e-02
2.718774314423647726e-02
1.571930087030022974e-02
-8.557693421584307292e-02
2.815442821382365887e-02
4.093482807088610204e-04
5.416184640291690083e-02
-1.001168913711554115e-01
-8.584911081569313041e-02
1.808859432398940556e-03
4.755207750677166272e-03
-3.011004660975754102e-02
-5.752553532914852358e-02
-6.296243034930212867e-02
2.582568361977463645e-02
-6.261320239939295595e-02
5.884330211437838187e-02
-7.900919500072858814e-02
-6.686213190490451416e-03
4.145983021863575146e-02
-1.499697766105795131e-02
4.398015950140999469e-02
7.213526902189951705e-03
-3.205346078579540681e-02
-2.524073985895884404e-03
-5.515083163685487178e-02
-9.287734349580614723e-02
3.432061990236507515e-03
-5.379777678246307898e-02
-6.445917293020217431e-02
5.785640662186285199e-02
-5.809040237819315666e-02
9.820443274506623910e-03
1.855838536884424567e-03
2.933559390942805031e-02
-1.230853450513854849e-02
-8.390875829972462008e-02
8.173744954681491648e-02
1.179727680837756344e-02
8.779701674512725706e-02
-1.762489781956321985e-02
-4.232248975180121636e-02
3.004404196350379114e-02
-4.953135954017644921e-02
-7.085287607157272904e-02
2.829278786208891741e-02
-8.885290113696008019e-03
-5.738269657071545793e-02
-8.396402486759246830e-02
-9.932576594247477519e-02
-6.135439478812009656e-02
-4.610336411109022814e-02
-7.879196341021710293e-02
-6.606997580354173616e-02
2.737976864232011948e-02
-1.002841781396787285e-01
8.585405913376763232e-02
-9.732252491918465254e-02
-5.479594128259916014e-02
-6.613119875908356898e-03
-4.762437911648466360e-02
7.988485162635710485e-03
-7.480459007466291887e-02
-5.431964902298601350e-02
-8.942926233197277808e-02
5.885847411528397077e-02
1.097121878546753089e-03
-1.074835909538841838e-02
7.006535788964506073e-02
1.877468771846153590e-03
-4.564428065552041808e-02
3.281457297369764353e-02
-2.472495913903243261e-02
7.802652731547373224e-03
7.251439402195974937e-02
2.444340083309046174e-02
-5.542150528301349743e-02
-6.177830197271532570e-02
-4.944987920793509489e-02
-1.008998621198685663e-01
-8.010150068483842811e-02
-7.457856353162775620e-02
4.577271129064836019e-02
3.802367056606927725e-02
-5.224800780577568832e-02
2.786804934956745375e-02
2.899743557946721229e-02
1.164033348647656486e-02
-1.746557915055009860e-02
6.356269173908110637e-02
5.466054776734592668e-02
-1.650427874587514013e-02
-5.203400330697848832e-03
-9.611566936136290221e-03
-5.153592796151564709e-02
-8.981103125229319972e-02
-5.698754104309730617e-02
3.145953709826158212e-02
-5.245552889029001659e-02
5.483558239413816732e-02
3.908416026589625961e-03
1.010273975700776428e-01
-3.767515848110934013e-02
-5.171122769420641307e-02
-1.071113661201209856e-02
5.738905124401263991e-02
8.910880111026253658e-02
1.960988390947783835e-02
-4.618709913413283907e-02
-8.663809494356680685e-02
-8.579875362124303462e-03
5.086496389031208015e-02
-8.422977107361082072e-02
-9.328848164348477190e-02
2.639039546832823088e-03
6.513752655586346751e-02
-9.814234389427137217e-02
2.912786642704914136e-03
-5.589313129768623545e-02
4.170151505804701314e-02
2.786356855168593827e-02
3.733776344265921782e-02
-1.469678657190504750e-02
-6.531227064663992776e-02
4.631117500999761688e-02
-1.961058438772285070e-02
-1.569135076605545145e-02
3.931653669787765759e-02
-7.400894342755710842e-02
5.973047006978937645e-02
-3.090198857152436779e-02
4.221131305052375216e-02
-7.817283703048585886e-02
6.630720526423845157e-03
1.145099807132989207e-02
-7.385043808811111998e-02
-5.316070356689873988e-02
4.726947834505147022e-02
-8.315989116157779248e-02
-1.907052654944001516e-02
-4.315202674438002595e-02
-5.221874929904200824e-02
-3.276020760315655200e-02
-3.149876943107361021e-02
2.662489131891258853e-02
6.194247712920634974e-02
5.160256951007022481e-03
-5.024817058683806598e-02
2.728637910770551414e-02
-4.640664885714962384e-02
-8.679685787715742812e-03
-2.746023942338345764e-02
-1.844658000603960346e-02
4.294313112873220095e-02
-9.145325445545689907e-03
-4.641727865219325011e-02
-8.161489482293732278e-02
-3.056661292542828604e-02
-3.950598965442550514e-02
-2.054983037544297342e-02
-5.741460928396451696e-02
2.621940798240912987e-02
-1.103904703369540802e-01
-2.440911905910473842e-02
2.506018036582733158e-02
3.579357978091134151e-02
-4.000630478487433861e-02
-6.349093056675905733e-02
5.192161937795237991e-02
-2.771673179957368296e-02
8.630248495903648787e-02
3.533172844281758096e-02
3.892583355421914970e-02
6.470426625928128728e-02
-5.276869094054797982e-02
2.599996022801085924e-02
7.272579569121118137e-02
-2.468500403213581829e-02
-1.362731235753834522e-02
5.513640685169883537e-02
2.694639438194757278e-02
-2.391890973447082652e-02
2.017162097740825624e-02
5.086798230848800506e-02
-1.614821100846155003e-02
-6.246959125503156324e-02
7.220832533453382107e-03
-7.511401788488134001e-02
1.898628622707510677e-02
-8.383187839704910049e-02
5.012550239736993790e-02
-7.551119688291359905e-03
-8.643677276399151788e-02
-4.713356164859875894e-03
3.088963815601000057e-02
-7.835946854490256214e-03
-4.408116253571586762e-02
7.942667606727862872e-02
-3.579747707515375243e-02
-4.820793680151300858e-02
4.217066919713109013e-02
-7.665476044548312495e-02
2.164797269846958222e-02
-4.470069781365584340e-03
-2.533579487767472632e-02
7.098765086491325149e-02
1.700157346772965955e-02
-7.574545422955798746e-02
5.473230109576526087e-02
5.974836305268143438e-02
-6.559893751391498995e-02
-4.461088440322497767e-02
3.773032150141237412e-02
-2.976255817890412214e-02
2.798634908510288632e-03
-3.675499589446547255e-02
-4.293674589034375544e-02
-4.785333238846931070e-03
-8.424620826326233158e-02
-8.556267269189043664e-03
3.783535593682929576e-02
-6.540826806686872441e-02
-9.320276135231514436e-02
7.687028474013084256e-02
2.134817780680665564e-02
-6.575637720107090078e-02
3.743658972115918721e-02
2.342763685861251610e-02
-6.207390633781256772e-02
-2.682371972998774320e-02
-1.459414997232411429e-02
3.812945877327521965e-02
5.364479778556782708e-02
-5.002960106319656944e-03
6.119597884971519908e-02
6.016792637897985102e-02
-1.835094599286086689e-02
1.572356166748783632e-02
5.778387324696105526e-02
2.611762890582029067e-02
-7.542471057056172878e-02
1.393268099458229870e-03
2.525147031859798982e-02
-5.545005426867548326e-02
-1.080050641528621652e-02
-3.801321967577478422e-02
-7.862574036569314195e-02
5.427176049533820323e-02
-4.272938148552382631e-02
5.986892687575347261e-02
-4.032124085636073357e-02
-5.396557833323185199e-02
2.629816246688277195e-02
-1.076676748574796616e-01
-8.482223459277490885e-02
-6.856747487352825299e-02
1.439068592392193230e-02
2.002317524937126739e-02
2.596932779055913590e-02
6.589275115962103802e-02
1.496351165562374678e-02
8.050606447149684375e-02
-4.898423836438096229e-02
-2.788619979334348506e-02
4.503170122694852284e-02
-6.873042183330248245e-02
-6.729006579326200777e-02
-5.221659342033133783e-02
4.991501515097620557e-03
5.680824879058780918e-02
2.022716986525624483e-02
3.209027619804236120e-02
2.971051208768327179e-02
-1.567614954917405726e-02
-6.691320434131532713e-02
3.436457991942423740e-02
-5.954276069840404306e-02
-1.855135289299976106e-02
-4.534838535956958044e-02
4.183056586259501636e-02
-2.650501436716544423e-02
-6.837806030502467658e-02
-4.273320308879281076e-02
6.725544924406046121e-02
-2.262089214837174553e-02
-8.897378241206695126e-02
1.243074279666664568e-02
-3.729018069351663911e-02
-6.980911768282298258e-02
-5.862108904519043595e-02
-5.210043771231583770e-02
-1.360799507098774119e-02
-9.952049792041192319e-03
3.799174503341502807e-02
-4.680961201121369014e-02
2.167792348236189867e-02
-5.987625927485677041e-02
-7.148793389927785014e-03
9.431480195609133477e-02
6.389749566538562020e-02
-6.997137268295820778e-02
4.185556823857886771e-02
3.462426565127886546e-02
5.541075441358439936e-04
3.194141188177965218e-02
4.961077935391639687e-02
-1.352201239033171479e-02
2.946168356783403913e-02
4.090558820331719608e-02
-8.194282761732937792e-02
-2.780045833716951811e-02
-2.162663290119089254e-02
1.219804871811081166e-02
-1.441901317684930565e-02
3.229326530496406250e-02
3.570382221903340564e-02
3.417672755844885363e-02
3.559664374043446100e-02
4.153183127560047122e-02
5.021125261295587144e-02
1.081862214517575332e-02
1.280761400048899441e-03
-5.875607108933299932e-02
1.431649838851922719e-03
-2.042371468947526414e-02
-6.466048672733758218e-02
-2.921814346351970029e-02
6.843810760890282896e-02
3.361642740478001240e-02
-3.623775363689937801e-02
-6.716821096339165020e-02
2.655271728862976244e-02
-1.342868302858730468e-02
-6.906421112890916147e-02
-7.589345141089640090e-02
-5.795904141167203261e-02
8.480769349998060203e-02
-1.517119290268433007e-02
3.265763907578506098e-02
-5.395872611257091639e-02
5.267886120969150071e-02
6.530870138313123185e-02
6.102509120630464357e-02
-8.329528789211303186e-02
-3.217696224745338063e-02
1.122673340105835756e-02
6.753198612709260251e-02
8.343475121629347069e-02
6.178835213327318887e-02
-6.077906182407131347e-02
8.596567221445454432e-02
-1.437530980446020609e-02
-4.027967872499074731e-02
1.154725376263190592e-02
3.969941846461232104e-03
-8.876988462930904267e-02
2.580453695880246048e-02
-8.804301664456479215e-02
-4.687118499193302680e-03
1.473503288033756187e-02
5.359452023422615202e-02
-4.478106436634978621e-02
-1.857033529928647092e-02
3.714154832555739694e-02
6.276784755117314693e-03
-7.279184998275990692e-02
3.612990347178802325e-02
5.113795929693099734e-02
1.813829230813187449e-03
1.379199128329303657e-02
-9.115234794695045717e-02
8.545033333179445634e-02
4.740015456100524736e-03
1.804350971086209196e-03
-8.503084818572420600e-02
4.367419282336631320e-02
6.125202847170932961e-03
-3.524752231498669980e-03
1.655812988074411088e-02
-4.268328367280829760e-02
-1.349460304212522256e-02
5.858254604910179131e-02
-3.900226746945813228e-02
-1.226512491100178147e-02
3.858400627320820314e-02
-1.976842862228579689e-02
-4.995926027629152971e-02
-8.312515245890225724e-02
-3.737871582405672549e-02
3.267623559501098979e-02
-7.379511044844237755e-03
-3.772318145082528135e-02
-4.976783742711683722e-02
-1.161625134762693350e-02
5.106616334565001331e-02
-6.168177567469095013e-02
5.979717815670625852e-02
2.917240106663986435e-02
-1.937953469384862430e-03
-6.917952204488826695e-02
-3.996148182545571775e-02
-6.494045558716950162e-02
-3.485116594534584666e-02
-4.973707639007300674e-02
1.948936883732489689e-02
-1.607888217530757669e-02
-9.452635364300680798e-03
-4.307703435199339292e-02
-6.876563494533412257e-02
-2.178743106688171144e-02
8.518667218873260394e-02
-4.139673135306581875e-02
1.759038424846691082e-02
-2.382000462547892786e-03
-6.695901804363744644e-03
2.492422079752087960e-02
5.809921772653047628e-02
4.736203191138935002e-03
5.699202211934677187e-02
1.676474971110240852e-02
2.295593432387347047e-02
6.568953364471483147e-02
1.820680962124541363e-02
2.769782956310021596e-02
7.943635861006508037e-02
-3.663634737367634647e-02
-7.600930554861533295e-02
-8.832458961349978765e-02
-4.880021672558917945e-02
2.545433514560377017e-02
5.358181215895859578e-02
-8.873087280499090956e-02
-8.789497252979454334e-02
-8.519613149076203651e-02
-4.012119374219810797e-02
7.970221817615061322e-02
-8.173155434681776688e-02
-7.041249354416052875e-02
-5.919294554966875177e-02
-4.354325291075308163e-02
6.934198053157961117e-02
-1.918292375176851305e-02
-5.785853545228082651e-02
-1.840791331474846831e-02
1.014946224142266283e-02
8.519692769709472091e-02
-2.152553215389686053e-02
-1.349058502632779176e-02
6.405824417476251031e-02
8.011805625717725865e-02
5.342938499628770155e-02
-2.058155695673562907e-02
2.644801973156509813e-03
-7.013956754191208454e-02
-4.892498013714216554e-02
8.120889782958337633e-02
2.117994159248094005e-02
