1.050438561075286714e-01
-3.562215414746586900e-02
-5.327472690897216978e-02
2.898466140824920712e-02
-1.809459882979562451e-02
6.477861290055608734e-02
-2.449562353406086607e-02
7.137152022054095435e-02
1.257184569595529711e-01
3.928732480506944014e-02
2.373438503420320991e-02
7.896795378378271280e-03
-3.696679581181867846e-02
7.929501064210310590e-02
6.917342590911099154e-02
5.891941476769185088e-02
1.309135265255110918e-02
-3.129597569602161899e-02
1.401118316238293970e-01
-6.322441607041218159e-02
4.238743636873654186e-02
-9.391872192183699231e-02
-4.160811285538950494e-02
5.611277604038337335e-02
-8.903295278350358694e-03
4.378460808734482845e-02
-5.309801053065323767e-02
3.984123309835897742e-02
4.770122598233430405e-02
-3.111914457890489327e-03
-5.022861490532825463e-02
-2.162989884592767670e-02
4.036971954709707433e-03
-9.302215195308599985e-03
-2.475145309186141396e-02
-3.294670279698470872e-02
-9.549602105923424289e-02
5.281174814031917852e-02
1.191844429473776362e-01
4.232765053713280490e-02
7.846873479075955338e-02
2.098334071693480889e-03
-3.858791938531744379e-03
-7.127315453960950120e-02
-6.924138357796692789e-02
5.316727051706376939e-02
2.379941319608850497e-02
6.347786009940721216e-03
-8.673184466275222007e-03
2.899713957092968364e-02
6.981522795702400919e-02
1.591221264648187347e-02
-1.321152284011032491e-02
-7.858716956080402660e-02
-9.101213512634381483e-03
5.324211731867930369e-02
1.747615099078076925e-02
1.437000054247616621e-01
-3.596539747873310489e-02
-1.986005370607642900e-02
-6.919453812653909852e-02
4.098301000249264525e-02
-2.766870266042664728e-02
8.069410956822134495e-02
-9.177998960100700043e-02
1.066445380393101355e-01
2.502590510980280333e-02
-5.665253691256651181e-02
9.461197392430687955e-03
8.897512580915043282e-03
1.219066623287066164e-01
-2.525194597426642235e-02
-4.325440070009384241e-02
8.185284513766054315e-02
-1.596974993663924716e-02
9.611494791290699571e-03
-9.373194998932876665e-02
-3.350498350695080285e-02
1.396191858291821394e-02
6.630749315113937392e-02
5.319329574406793382e-02
-2.298218401351015405e-02
-7.580290032951791934e-02
-1.786551215438784979e-02
2.950882869191048460e-02
2.009677871635273585e-03
3.101967428244990863e-03
2.736553869119287899e-02
2.937744254115150569e-02
-3.820727725585651435e-02
-4.680693170897438221e-02
-2.605072979471476785e-02
4.983525882696015173e-03
-5.975572463049123179e-02
6.388256389922596090e-02
7.094044756093820236e-02
-4.495588237455423741e-02
-4.181772893303004057e-02
-4.534873322249177718e-02
1.058127683247065270e-01
-2.904811247387425674e-02
2.811980337487577850e-02
3.371863281192847422e-02
3.885064946430141081e-02
-6.970494574925686915e-02
-3.200237169760862532e-02
2.782923703985089271e-04
-2.717694005509153216e-02
-7.372833810610637806e-02
5.948393966087870029e-03
-5.261875314248955909e-02
5.778869580903567282e-02
-7.915101188805093169e-02
2.938098320957061721e-02
7.141687469194066273e-02
4.603285481826498160e-02
1.862158686806458796e-02
2.503473294071804911e-02
3.641537822936331131e-02
2.640988605150819792e-04
-4.527737575821077359e-02
1.947306189844843355e-02
4.441295050329178290e-02
8.686242599803439823e-02
6.097429021134219938e-03
5.831544184549195941e-04
-9.426496549863738750e-02
6.426561906646544031e-02
-2.332648325393830296e-02
3.562270632157164135e-02
4.611275338837595578e-02
3.867761807332179003e-02
2.953731180219888730e-02
5.930546022489970037e-02
-6.706787569923279568e-02
-8.312926450115695753e-02
6.961177808440299764e-02
-1.512669254106623930e-02
-2.581684393147363338e-02
-7.725312964531470816e-02
-1.129591879141872250e-02
6.455272418113207344e-02
-9.255648827125818878e-02
4.702731861117244450e-02
2.529455289914248409e-02
-1.798490101589461654e-02
-2.702357312238723441e-02
3.795246249851817050e-02
1.606796010528980731e-02
6.591969349223618380e-02
-3.967146361084351175e-03
5.614819688366090578e-02
8.300126561964904504e-02
-7.059063585311400879e-02
7.337135454468647622e-02
3.161801004678391896e-03
1.140260132843104500e-03
7.106127818360064019e-02
-1.522319465628122100e-02
8.407901540818085717e-02
7.458531830145656571e-02
5.562605196284938630e-02
5.535240101912609206e-02
1.107607952272588597e-02
-1.615229422962343462e-03
-3.146880238197704953e-03
-8.509375156671405982e-02
-6.805153401682987636e-03
-9.247532989221060595e-02
1.840396638073049998e-02
-5.851248798181848954e-02
5.497949785715378068e-02
-2.491116818621848944e-02
5.878694711923494742e-02
1.903573434650814239e-03
-5.347055809079050148e-02
-7.576451764775002373e-02
1.619409067264905924e-02
4.585409284949071296e-02
-5.750143583361690819e-02
-6.779282181080964476e-02
-7.040930876768931868e-02
-1.382622494455360354e-02
-3.465344650664194115e-02
4.697459956690477195e-02
4.942515368437499362e-02
3.700222867288956857e-02
-6.332064260716920023e-02
-6.649451249167286082e-02
-2.975511146005126173e-02
-8.032434273535646319e-02
3.717744584272011932e-02
-4.859372437575232989e-02
6.665220838580972196e-02
-6.698027022339651804e-02
-8.614695764733981687e-02
6.119151237226290452e-02
-5.909627549373989291e-02
2.257550851245476373e-02
-2.486342642484095158e-02
2.165324303935709654e-03
-8.011457535084835421e-03
4.980023412061033300e-02
-5.029885743453857416e-02
3.861886334441072544e-02
-3.620137189764862078e-03
6.390502638892328613e-02
-2.964142917052811632e-02
2.117662743308396794e-02
-9.871771378024717103e-02
5.297699954319184945e-02
-6.167737061271724025e-02
7.895065641872937856e-02
1.067387525792921898e-01
-1.567428952291450087e-02
5.648627259947132384e-02
-7.743562623977787163e-02
-8.584263950961847078e-02
3.210624771414380407e-02
3.971822881629722204e-03
-3.660918910800266268e-02
-4.401349152292134692e-02
-2.010255129107261368e-02
5.697774519813657984e-02
-1.822400126923743929e-03
3.629344452891978320e-03
1.129015515722284063e-01
-7.916445616381077854e-02
-4.678371439905811696e-02
-2.894043317889701677e-02
8.305369577555500593e-02
-2.044371589169073633e-02
9.808143566561877344e-03
2.332043283695809516e-02
5.800505985426972211e-02
8.066939465836725498e-02
2.728933364539493089e-02
-1.736939328230613757e-03
6.341581063257931139e-02
-5.679145047626005249e-02
6.649718135149051967e-02
6.606723177483794784e-02
-6.098584833782099562e-02
-9.810367020596191812e-03
-7.944544816802120990e-02
2.688002255466192397e-02
-2.146033149831936063e-02
4.677981616211565608e-02
8.734458953625920050e-03
5.406697235489880266e-02
1.565118294443661878e-02
4.346170691505713696e-02
5.214701973218630049e-02
2.818327492699982534e-02
1.213832296171140496e-01
-2.905114166024054534e-02
-1.392867740291415385e-02
6.841255130979843890e-02
-2.727495458550620311e-02
-7.916883139258173996e-02
-7.746320735872590235e-02
4.617977147598444077e-02
-5.526476291515738937e-02
9.034776970871087609e-02
-8.423912855939702515e-02
3.142741659107631215e-04
7.886006898033464524e-03
6.424996425550261181e-02
7.262324800254761625e-02
-3.175518214527407734e-02
-6.468025338359745247e-02
-6.914536720482800103e-02
-5.523861786595966189e-02
1.744520751210367274e-02
7.992389946415109914e-02
-7.490551382851597106e-02
-1.780750895979258189e-02
-8.139367121111881764e-02
-8.756504527363234702e-02
-2.493499611410816830e-02
3.648790952008793692e-02
8.993130132410255551e-02
7.167097057599781940e-02
5.227620944264787378e-02
1.817437766005707694e-02
-6.741191010407271422e-02
-6.696603876852109949e-02
-2.057221854497617505e-02
8.217097510017126738e-02
-1.228609810969970729e-03
5.404274880735139563e-02
3.880481867990717010e-02
2.232478064389999822e-03
-5.888995979356093091e-02
5.249779555856137064e-02
3.428047581531875471e-02
6.457727357595952544e-04
7.731437402718716045e-02
1.993443979687955017e-02
6.261617243541280076e-02
3.391586558951778345e-03
4.771159960830616970e-02
-2.775086168085502333e-02
7.105581264749917872e-03
-8.491331103475154019e-02
3.296327042799169355e-02
-3.162012437756495098e-02
2.566397526322079445e-02
-3.303896884818007668e-02
-9.179786550516806296e-03
-7.968222765370282235e-02
1.294487931022420268e-01
5.775533370988020221e-02
3.151228712261653492e-02
2.471970354570122291e-02
1.075661985058280062e-01
9.692821601307074347e-03
-6.461585501344835336e-02
7.279236819820925075e-02
6.123312886233417407e-02
5.363877836361671120e-02
5.088114105844572521e-02
1.243080052458736678e-01
1.601142393798653946e-02
1.340781344430930049e-02
4.319844954001425541e-02
1.367448224596219154e-02
3.587283749811479711e-02
6.729530612728028272e-02
-4.668817834471843814e-02
3.025984442494020557e-02
-8.824061902072943267e-04
1.884091711783393228e-02
-7.045921449834542660e-02
6.276095840722183128e-02
4.312560878317830970e-02
1.992114427003816371e-02
7.520532840367345762e-02
-6.004619733273186544e-02
9.934040709669042513e-02
1.506006713375069965e-02
-4.998401057459844754e-02
-1.849151468794096517e-02
2.659164026131304384e-02
1.475029424084345689e-02
-8.888796963211288704e-02
7.151032821199289347e-02
5.011292900130679545e-02
3.244475366305455549e-02
-5.210341471659466622e-02
-5.226577343315025326e-02
-4.415304618912741647e-02
-2.236795475008608938e-02
5.532432271088331792e-03
-5.829624208289450882e-02
1.554759496501806164e-02
1.122030904621740266e-02
1.847674702871829680e-02
7.582469356779260317e-02
3.841266872890357342e-02
4.153505208855746977e-02
-3.341195036457703105e-02
-8.520276095005305250e-02
2.936441377124219751e-02
2.581043827596988735e-02
-4.629627488668595914e-02
5.053534283503822999e-02
-1.878171238257582767e-02
-3.351143368111653142e-02
-3.464065514010287571e-03
-4.035076650898804240e-02
-6.239092835232332851e-02
-8.887783101350245352e-02
1.883979096118222846e-04
-6.099690867110914294e-02
-7.128238610143654286e-02
3.546079395688226527e-02
1.386338665518093913e-02
-2.754762445023048109e-02
1.045756066907926711e-02
3.540223250447293440e-02
6.750798824639121787e-02
8.896779970677611005e-02
4.987995233177620197e-02
-5.867817516486566187e-02
-6.053381376071302611e-02
-3.519175294954110522e-02
7.155268916419556258e-02
7.908674948819097161e-03
2.701705157534441126e-02
6.892030353463624026e-02
9.246928601891037103e-02
1.072940040191146388e-01
8.275085945434773604e-02
1.459868804710245764e-02
-4.386724350154550672e-02
1.716472387584541334e-02
1.639100007863401659e-03
-9.810019225482634331e-02
1.893025519312713548e-04
-9.415204451768646732e-03
-1.794512798342275117e-02
7.218255535261439149e-02
2.063883642480297473e-02
3.386987892919739868e-02
-1.190426380211282234e-02
4.898393377149369045e-03
4.375506436934534227e-02
2.918706610693216907e-02
6.204662234854244063e-02
-4.413727366787803530e-02
-6.542188143169408443e-02
3.669256540615247614e-02
-6.105759347648457430e-03
3.603366487860399509e-02
-3.990909347525622292e-02
-2.268310628172635901e-02
5.559432625810224737e-02
-8.568731093109040187e-02
9.727023272811713417e-02
6.129459282642526216e-04
-6.204167084314233388e-02
2.171975010605688497e-02
6.920148370775372308e-03
-4.022832010575498433e-03
-8.229475071782768603e-02
-8.353892469252702235e-02
-3.310001351578705647e-02
8.233045743944827910e-02
-9.323035021801585887e-02
1.038800025379699524e-02
1.128774094092064861e-01
1.082617632749185016e-01
2.631820565306601523e-02
-3.904719769169161161e-03
-4.016254835399266088e-02
9.652904699498872365e-03
-2.746223008837188687e-02
-6.837607798683908999e-02
-7.052119482363333747e-02
8.108502658447844236e-02
-9.068976945209316493e-03
9.266898079082706852e-02
5.060167069900557008e-02
5.091180850053871748e-02
1.104320056070400569e-01
-7.132827098609202665e-02
-6.444258985509547510e-02
-1.988144131830408418e-03
7.306622759029014758e-02
-6.706279694172602446e-02
-3.022253031693127642e-03
8.324366402694014996e-03
-3.655411767861561217e-02
-4.365858332474070042e-02
-4.383323424839404014e-02
8.391206280994583516e-03
7.462880231936898368e-02
-4.304763136916503474e-02
-4.706506214389617054e-02
3.575822067964316842e-02
-1.101001718313487920e-01
-8.921599030742891068e-02
9.955984711386260677e-02
6.706288372987596891e-02
2.249745773599144336e-02
9.478462492518173813e-03
7.256136073187517688e-02
-5.110808834441571413e-02
6.377977726508327061e-02
-8.179383977709576981e-02
2.550338387776628427e-02
1.155116563627981568e-01
3.690663254710602192e-02
-8.759221504530245034e-03
8.093381312759841129e-02
-9.043605177020178076e-02
-1.371589060088961032e-02
-1.044842921953515469e-01
-6.714776637958490280e-02
-7.019474451017106154e-02
4.434691153848532852e-02
-3.679105088157139797e-02
-5.235031794683259188e-02
7.858564114507703841e-03
-7.894397105394654335e-02
3.579150417295971082e-02
-3.101735713093402638e-02
-3.231256951441539155e-02
5.002198834325613519e-02
4.226804312013907050e-02
2.358799207595590683e-02
1.528818358531841559e-02
2.313936807702103582e-02
-5.746570046029598339e-02
-5.910384714374486426e-02
-2.673012312901927590e-02
-2.795350127152747624e-02
-3.522032401080085751e-02
-9.368033139671831655e-02
7.553631915994443377e-03
2.676794983475494841e-02
3.435458345782083783e-02
1.445364752386487338e-02
3.707038603399769733e-02
5.617040404353594585e-02
4.098747806774251379e-02
2.125498340502798497e-02
2.902528896181707108e-03
2.010033665245044079e-02
-2.052133261399155181e-02
1.366205425895686970e-02
7.706434798311237455e-02
3.572814875851588329e-02
-3.885877851375502817e-02
-7.096436209050778487e-02
1.914065432960142255e-02
6.083832548800337248e-02
8.979175733685224037e-02
-1.760212102407272133e-02
-9.350715974078604997e-03
6.077887050114971074e-02
-2.397124628104137581e-02
6.286949663412871869e-02
1.327365524480667719e-02
-9.697589113029429775e-02
-7.469418394409119144e-02
-2.595320829534724510e-02
-4.634116496258377377e-02
8.173863867628301805e-02
2.121133352845896297e-02
1.178023561300550748e-01
-4.401158694647212127e-02
-4.721725377302076268e-03
-2.532346090641348149e-02
1.266731466240283294e-02
-3.025051063429215828e-02
1.360900233106998938e-02
-4.038454445685741266e-03
-5.427687413482110840e-02
-7.561190207376625172e-03
-4.101334039675545717e-02
1.746552702603359694e-02
7.106191709708596649e-02
-4.556897351540828423e-02
8.087884691900848466e-02
8.920308554734424078e-02
4.551981025531810082e-02
-4.402069486418006689e-02
2.865027472633255041e-03
4.167969676554402619e-02
8.931895064918390914e-02
8.714072186320903635e-02
-2.318117992251260417e-02
-6.775652981289313759e-02
-6.708930893652766125e-02
3.137865394274585995e-02
-6.031999907789291349e-02
-2.645228117704131673e-02
2.633627603973787146e-02
-8.453125790780825766e-02
-2.545290811289461705e-02
-1.772830367385962516e-02
2.305468735746419445e-02
1.497534628852166755e-03
-3.926820680070227526e-02
-3.555770400855806646e-02
4.816189841582136505e-02
-1.014494849798021694e-02
-9.554486758845605332e-02
-9.487884783650588072e-02
-1.903188444725928755e-02
-4.657410600916376403e-02
6.125444040077991648e-02
3.395282078780571811e-02
3.133941046107124873e-02
-7.987362613467915984e-02
9.683299264513826887e-02
9.695023186522670755e-02
-3.149587776590041105e-02
2.024189823518531342e-02
-2.557654147633232553e-02
2.752359085486521736e-02
-6.977739243553221504e-02
1.099161847634512745e-01
9.092820870185976123e-02
-1.859419676164248553e-02
-5.906297144711035452e-02
2.534041372220538144e-02
-4.719783007755547211e-02
5.596762872406032402e-02
-3.042869580562193935e-02
3.425948270429748227e-02
5.855206967274430990e-02
1.891822660436274367e-02
1.411895571509760861e-02
-6.097557577033195508e-03
-2.706751232521979397e-02
-1.573483684655227477e-02
5.717408525930108704e-03
-2.145141156261583248e-02
1.248567412387122273e-02
6.090611665426706733e-02
4.100327640732576856e-02
-2.195476601788250506e-02
-9.252422634440309046e-02
2.761935583097601191e-02
5.033316580066395790e-02
-5.288629196556898088e-02
-4.517396232693005748e-02
-1.926552283281408526e-02
-1.057634199143317882e-01
3.509601654007447370e-03
7.141924734370033723e-02
2.431439438459747152e-02
6.630694876673610960e-02
-1.050763154272215533e-01
-4.255459552403002138e-02
9.374243085519477769e-02
-6.899599265968792139e-02
5.531746294977808037e-02
5.607174879677506718e-02
2.167401753290963337e-02
9.107446588930166731e-02
-9.202409829474354763e-02
-7.410942280479813904e-02
-3.358193730087918882e-02
1.034588680940022078e-02
-2.038036014033207596e-02
-3.896895806056714651e-02
-4.235386008188152251e-02
4.386867277481426748e-03
3.677526978291857651e-02
-5.263205520630840489e-02
-1.626771438386787061e-02
2.115052987581735391e-02
2.976806257787021834e-02
-1.028504549038102983e-01
5.763137909259291765e-03
-7.695298917691907603e-02
1.855729739174115725e-02
-3.245165385200047149e-03
-8.843248649958365681e-02
7.733823442322720898e-02
5.527441275337174192e-02
8.558721405327737730e-02
-6.231836806127546979e-02
3.666209737092890331e-02
4.022149620639203782e-02
8.609961195153358060e-02
-1.088572067231987142e-02
1.063538605220607641e-01
9.696719171128473716e-03
-1.205343120921877204e-01
4.589201445132876783e-02
-9.310606187988253180e-02
2.088399363042580184e-02
-6.520577057122907416e-02
-7.924107833273753843e-02
-4.760062769166877039e-02
1.826911666477858132e-02
4.238147074669062347e-02
5.828243406360433115e-02
-5.774330432104298610e-02
-4.984450003366623638e-02
-2.416172833209943860e-02
-6.645528824371066401e-02
-6.604135570478691757e-03
1.234744586605431155e-01
8.580779600622621961e-02
3.906356759494205959e-03
6.865205451796406455e-02
9.117815218485864071e-02
-8.565194632189739032e-02
5.667862389173368431e-02
-4.963475553600946860e-02
5.516313459814101844e-02
-6.951986077912146456e-02
-6.499419464725340878e-02
7.212156312697350080e-02
-2.139081813760766726e-02
2.423001494975501706e-03
8.365412512241912624e-02
-5.756478752960309669e-02
-9.168271038148223528e-02
-7.104782572007085906e-02
-2.744660904623597714e-02
-7.719641739344884623e-02
-1.234945096623383002e-03
-1.144883098695188839e-01
7.305044037326349597e-03
6.306709639778239340e-02
1.128699907942487882e-02
6.348037952902703396e-02
1.043316434544432347e-01
-7.549341408842839829e-02
7.673177261932014048e-02
2.150198280666817778e-03
-9.316493954008990205e-03
6.597008405545881637e-02
6.938436394710598143e-02
-7.415560968541487497e-02
-8.782135007967446783e-02
5.330379212248989584e-02
1.388810734915219523e-02
3.515079365425451130e-02
6.164808069088970575e-03
5.807015022066979587e-02
-9.454057231456185206e-02
4.485511532875992996e-02
-3.872276015192982479e-02
1.278261414351496671e-02
2.681679540764222297e-02
-7.065907009747776635e-02
7.966157330379304569e-02
6.189824443026405165e-02
5.106227349907753454e-03
-6.075709294285244061e-03
-1.124505824143022178e-02
7.620693852449607862e-03
-9.734840909158541666e-02
-3.759964855678064877e-02
3.688235205223356489e-02
2.483588188812690944e-02
-1.849739394286079378e-02
1.454746860541714613e-02
2.229191606657297473e-03
-3.073728578588223737e-02
1.972741309458947434e-02
-2.248796145481854122e-02
-2.557721313329440471e-02
7.104158813013330444e-03
5.170794452838328725e-03
1.433635628240444160e-02
-6.584437617234638329e-02
2.080376307456984885e-03
-4.470127456867242083e-02
6.050046937840596051e-02
4.648692173494249624e-02
-1.941044280914573303e-02
4.476105037540560605e-02
3.644815498745117982e-02
8.596536425209108656e-02
6.502697868017241756e-02
5.590832672023791222e-02
1.832304602370508906e-02
1.507726688652532600e-02
3.390137746675200153e-02
-6.605272498268617565e-02
9.002705427409797567e-02
2.732424934120047597e-02
3.180469884025064614e-02
9.944567322685068933e-02
-7.245849422444554377e-02
1.280657085905451478e-02
-2.165932860028870963e-02
9.649042290980107406e-02
1.023523452767933530e-02
3.661104763712173804e-02
5.799597346471454260e-04
6.707178219873582981e-02
2.455604433900358471e-02
4.885821924558537283e-02
1.121378169453734891e-01
-4.591395285475571159e-02
-1.010192550129434541e-01
2.921407144508190654e-02
-5.655436510764819125e-02
-6.810079327331867473e-03
-7.313300125154388598e-03
4.112876794459979779e-02
2.628085289222826040e-02
8.138419579988788455e-02
5.460336451831882822e-05
7.988824419822820877e-03
2.281879432742446936e-02
3.235688381196618474e-02
2.036515638017065075e-02
4.565353394830615197e-02
8.710936642435590516e-02
4.879491848129621084e-02
-1.147868654974151456e-02
2.593937387397356881e-02
-1.010725326630281112e-01
