-3.399158771451341043e-02
7.912466282571022080e-02
-2.695300818850082658e-02
-5.570197349048910951e-02
-1.003064031145945861e-01
4.051381275767807627e-03
3.030092813820144462e-02
-1.911762894238426400e-05
4.490122086528548252e-03
2.605972515807262330e-02
7.546928981557501914e-02
4.860588158850360357e-02
-4.012689369896128844e-02
-9.280886411392576252e-02
-4.846903782760252077e-03
-2.055194289296528778e-03
2.681126840242706658e-02
-6.528723100755856601e-02
-4.225186875276056020e-02
6.795184458834416241e-02
-3.477078439538171944e-02
4.133436911772406935e-02
-6.857083756406619213e-02
1.560403125982560112e-02
3.260594097176283679e-02
-5.699310692544323070e-02
-7.843966037099428523e-02
-5.383848353949279714e-02
1.037247250002171911e-01
-8.234253832811234963e-02
-1.549401417691270710e-02
9.954732644313009360e-02
-3.455955036130196195e-02
5.412807002006373575e-02
3.664679793260924162e-02
-8.669074880451903276e-02
-9.618479704181767675e-02
-1.420519426973036910e-02
-4.793541679270194034e-03
-2.763107318775749610e-02
5.583550833581533285e-02
-1.046296468291413664e-02
9.087226141165853643e-02
1.607016112499033006e-02
7.516978033541292514e-02
-4.108353842960667246e-02
-5.141123967929683847e-02
3.083712357316429481e-02
2.486103999087835650e-02
-4.427322992233530263e-02
6.321205471019518407e-02
5.455702894963114502e-02
2.599828395131992612e-02
-4.649843411531272286e-02
2.231447990011809282e-02
-4.646510161819842472e-02
-7.080696291969573730e-02
-4.831678339195429051e-02
1.805929408028682931e-02
6.168186517683817149e-02
-2.694708091797474656e-02
4.687262510800709742e-02
1.274534815396622528e-02
-4.642968262983836192e-02
-6.380521703371974662e-02
7.724731263086855038e-02
-5.661187156040387719e-02
1.224635135035703620e-01
-4.567583066869756320e-02
2.303943379379868456e-02
-2.155098643906111153e-02
5.637506168821771607e-02
1.615257124995730237e-02
-1.534909437843417655e-03
-7.732470642133007499e-02
2.213738908970103517e-02
9.506060657181847340e-02
-7.343202611472143815e-02
1.679394358297319964e-02
4.428126562618486806e-02
2.781871559802817986e-02
-7.714486193940620073e-02
4.851976962542201705e-02
-2.284579184007923952e-02
8.217798058537868766e-02
2.156561822563737591e-03
1.022184808116513577e-01
7.472423389237448088e-02
6.294050504796772083e-02
-7.580627756864014022e-02
3.722023895699293899e-02
-5.210330048455076579e-02
-7.197578718442206036e-02
2.276154221303898842e-02
-4.124428362384573166e-02
4.637780622251414658e-03
-3.789841878082435278e-02
5.939770797897986863e-03
-5.853523969602716925e-02
-2.258857225388134424e-02
4.384521930130515915e-02
4.606141113330561310e-02
1.254757102482870375e-02
-8.423574964410204813e-02
6.346337599306399457e-02
1.205587190481949289e-01
3.000894418528946006e-02
-2.942406843738541657e-04
-3.019627807195915392e-02
9.141985084053970423e-02
-4.413886088156415699e-02
1.934002834660683220e-02
-8.867250401716052222e-02
2.004830211336301043e-02
4.239378419658616087e-02
-6.549471482388961874e-02
-5.993551033843566578e-02
-1.570729498226785051e-02
2.218041639231235068e-02
-2.473279608736931798e-02
1.167708242257792656e-01
-7.287466845271747817e-02
-3.365409529655645493e-02
3.970602379310183422e-02
7.346527122302851098e-02
1.784150986940762768e-02
6.495889043661719209e-02
-4.500263656475924495e-02
-5.106169334275734856e-02
-6.929345152771838878e-02
-1.308750553331790821e-02
5.165269806875179975e-02
2.646156992670550129e-02
-1.015046929686159137e-02
-1.783942561103285876e-02
-3.798613438108284363e-02
-6.847734881179461282e-03
-7.793531237391730648e-02
-5.290597412269650718e-02
5.788504466876569915e-02
5.325363390555363369e-02
3.600565973632181144e-02
3.222386180663543154e-02
-8.330400516845108683e-02
-9.789563796147636790e-03
2.820921577108830708e-02
-5.866564152869206336e-03
5.577789761661645744e-03
5.313353749435576791e-03
1.236065152488723638e-02
-2.430510521385338338e-02
1.149787291504129026e-02
5.859473822738524296e-02
-4.128170464752901891e-02
5.567891403522188046e-03
-7.363910637404130766e-02
5.943859609463545551e-02
2.894271091622137998e-02
6.380954372805425212e-02
3.113057163721440548e-02
-5.419145773107165998e-02
-1.254784128601128985e-02
-8.734352839038106442e-02
4.064659404597467662e-02
-6.907496717194268332e-02
4.870515814471495196e-03
7.935359715079973175e-02
-7.811254125719132918e-04
5.571383844737578563e-03
-6.978919614710733799e-02
2.312882928106717393e-03
-7.160489100443490074e-02
3.428592585697373685e-03
-6.386963758798359925e-02
-5.464235375715991577e-02
-5.229074201718086901e-02
-6.819748026992149270e-02
6.898193667312672861e-02
2.363803109646312947e-02
4.823271963319301914e-02
6.362425300972583686e-02
-5.472560098087464811e-03
-1.110168417846071898e-02
2.887707796949819106e-02
-1.801136276922897517e-02
9.849964643040928780e-02
-2.457892345312351345e-02
5.590114122054178070e-02
7.757492432386208165e-04
-6.778690204899108507e-02
1.063271792661237003e-02
-6.060438654385449930e-02
5.489166125087446141e-02
-4.165886655267617145e-02
-7.519782677582487196e-02
-5.468863627615037915e-02
-5.055240631342244190e-02
-8.743568260028167227e-02
-7.604526829624656814e-02
-1.951015130472453715e-02
-9.785788393970049071e-02
8.949050774798458785e-02
-3.375183342392233665e-02
9.531480342054177157e-02
2.366771048392793397e-02
5.430297590117065532e-02
-4.551901889113585398e-02
1.128814286972007475e-01
3.306916632031671466e-02
2.664307709673671698e-02
2.085807699313401917e-02
-4.886932837598034068e-02
-7.381943245804969966e-02
-4.133122808580175396e-03
8.161593734674295331e-02
-4.006441445913472288e-02
5.262766045772559326e-02
2.861181388736359563e-02
1.108665215462078107e-01
-3.039307604319000516e-02
-5.192593798684860817e-02
-5.164214769103488839e-02
5.568726079755699845e-03
1.661140781953473339e-02
8.925303125136790916e-02
-5.650700459225390521e-02
3.881515202775779466e-02
3.848792206573826286e-02
5.378535122132378776e-02
6.749371879107300513e-03
1.232053179798597714e-01
3.063767810988717380e-02
-9.577806547125242154e-02
-6.672335349404877325e-02
-8.241733091136152489e-02
4.018337429138308520e-02
8.270786100583069067e-02
5.422195676433335223e-04
-3.764845459589950122e-02
-3.998050239623149836e-03
1.216658840843056269e-02
4.598074017347296948e-03
6.242158416242216123e-02
4.155090579642044257e-02
-3.763305819529032953e-02
6.242859884130606135e-02
1.136469617067804860e-02
1.278348788021650348e-02
-4.961155406092435105e-02
2.349810629829551713e-03
-8.247701599550183449e-02
1.734433980457552454e-02
-8.716278264490537331e-02
8.859961772270565084e-02
-1.761417429549643398e-03
-5.237987648315373806e-02
-5.151818863491125673e-03
8.602819695348792872e-02
7.843604258318752354e-02
3.648660262356279160e-02
-7.244536168003205823e-02
-1.298871487028428230e-02
-1.235854339234804082e-02
-3.702194560641412779e-02
-5.771189238990980658e-02
-3.320868504880160332e-02
-2.781555272839719359e-02
-6.451528387000939058e-02
-4.959065623502252607e-02
1.492749645488922194e-02
3.247423997942189278e-02
2.911913583128254365e-02
-8.484188755693525263e-02
-6.742776446100473553e-02
-4.182309321428455406e-02
3.386225906653138936e-03
2.087369025118987823e-02
-2.219420223496552588e-02
-9.452012331537572309e-02
-3.980079461009049940e-02
8.439604325822035180e-02
4.996114830112512867e-02
-7.102045309801380268e-02
-1.132059617666832975e-02
-2.198983819639124121e-02
1.584229330827912133e-02
-2.806924224585896632e-02
4.599021127766202838e-02
4.416787892855834896e-02
-2.396505722700565874e-02
-5.035875053418020081e-02
2.310045910213929035e-02
2.078872933696145758e-02
6.658728557470088016e-02
6.490204767285721876e-02
1.006778107524400057e-01
-2.420560395498372319e-02
-7.640708321170416178e-03
3.591148437187190179e-02
-7.278625007730249452e-02
-9.907573584524199256e-03
7.138281039778110459e-02
-7.169224609914977286e-02
-3.239488037051065084e-02
6.409639752744186736e-02
9.796408933850801748e-03
-2.938163426391023417e-02
1.227729995454100026e-02
-5.757445406848295255e-02
9.067611806351745518e-02
9.823157243614745460e-02
3.242049349265534175e-02
7.567669683873889941e-02
6.023149953154013220e-02
6.947914176252485696e-02
-7.571965919423188918e-02
-1.451973184858593863e-02
-1.089484421906142253e-01
1.099902298871073894e-02
3.198095807320928269e-02
1.972682285492188131e-02
7.783250315580526879e-02
-2.991678651161827976e-02
2.029743832915359425e-02
-2.311952674681037531e-02
-3.086731662287298464e-02
1.246784715205775662e-01
4.136460207259652633e-02
-9.008968425302289751e-02
-3.679508355698082878e-02
4.194955381675755102e-02
1.539986970892062712e-02
3.523737719526087719e-02
-5.220819324495737379e-02
7.902386900468948150e-02
4.745333194230107882e-02
1.417274045066856288e-02
3.071766568467789935e-02
1.164507130836597848e-02
3.080807307568110553e-02
-5.709530134892909330e-03
-6.622963768357051362e-02
-6.472067387250911297e-02
-4.284120583942446076e-02
-5.346205005423680656e-02
-4.178824928623003920e-02
4.286768646445509451e-02
-8.880501622789659100e-02
7.179021969667812031e-02
-1.985371767003957580e-02
8.611819958852498860e-03
-8.539627681164674300e-02
-2.541812785695476279e-02
8.404065988936192111e-02
2.391512065368114198e-02
1.370583146325153037e-03
3.815404554936811798e-02
-1.825197507316202866e-02
-6.041940431826945540e-02
-1.861957169620218717e-03
7.145376315996668226e-02
-4.233158694156750890e-02
3.802697808437134619e-02
4.232971886939203982e-02
-7.981512660878288534e-02
-3.254823760425819279e-02
-6.080538275170165735e-02
5.122798134568631867e-02
-7.219790993954702807e-02
7.864753965343035391e-02
5.602701354376540127e-02
-8.501800951130902839e-02
-8.231912718619066593e-02
-3.164164958767903130e-02
-7.758015373360785394e-02
4.266909501180993908e-02
1.255067319451809525e-03
4.118592308855039547e-02
4.955277695319674353e-02
-2.264060740905569913e-02
1.452881194111524943e-01
-6.145797658428771987e-02
-4.330697751710791375e-03
-2.217560964096170623e-02
1.720297550018378210e-02
3.896084750119020723e-02
5.934205953143904116e-02
-7.781536501419944983e-03
-4.283295345982257585e-02
-4.849509392887674936e-02
8.684432782756995248e-03
-9.641196624627802747e-02
-6.788457255913682431e-02
7.024810315777278713e-02
4.751524670233568670e-02
-1.347112886147664064e-02
-6.278688093092178735e-02
3.693275139169977656e-02
-5.308935856833948974e-02
-7.009529547769927094e-02
6.260552066749522360e-02
-5.251989429648158680e-02
-1.324287503841759840e-02
3.540999711620717444e-02
3.394432802953467609e-02
6.011957844336384945e-04
2.685689167286190934e-02
6.865465723736169368e-02
1.205741353631262364e-01
1.231783248053606866e-01
1.303551560870161614e-02
-7.312070135735257437e-02
-7.991519224635248997e-02
-2.271566647477740730e-02
8.801533781111165822e-04
7.964586400533431310e-02
-1.722810424464373772e-03
7.738581507025016348e-02
5.047215766169727003e-02
1.351582653248956656e-01
-6.159123400562642459e-02
-9.786660993214305049e-03
-3.487879598947092596e-02
2.938819178562758830e-02
6.170632645481207573e-02
7.557064384721223771e-02
2.695465802555899529e-02
-2.196501982221703633e-02
-2.403235303522298014e-02
2.788817016852305347e-02
3.380730749687922004e-02
1.544828768096861288e-02
5.981425598365825574e-02
1.599843586581557785e-04
-4.830867394364638662e-02
1.009703397390885882e-01
-5.743343853821618154e-03
-5.775411428618262670e-03
1.356535795169979963e-01
-3.887283263920400522e-02
7.450884175255906294e-02
1.381053323080020691e-02
7.771121171239640801e-02
2.248146476233279720e-02
2.688934599838770437e-02
8.697772106832427075e-02
1.428185090599161100e-01
-6.413137563900202232e-02
9.207361602722871630e-02
7.547065446499373609e-02
-9.004392268381668230e-02
-9.570957245865489155e-03
9.323468597030776239e-02
1.990017554484933143e-02
-6.606101004473970140e-02
-3.226102112455191129e-02
3.468485898063678602e-02
4.831428560457143306e-02
-6.328040429257059118e-02
2.004129366033000417e-02
-3.469480319485998554e-02
6.124330301660951131e-02
2.618543569159271361e-02
6.773820879976805154e-02
-9.489262991827636384e-02
8.588027844097657904e-03
2.457742251012824675e-02
-7.822219885752283719e-02
4.629314121840519963e-02
3.580453897760971227e-02
-3.357382056294649919e-02
2.229338947393906881e-02
3.743434087258976778e-02
1.367038538915010815e-02
-7.822779885390086785e-02
6.008300029509557050e-02
5.292028544377092719e-03
1.729865253553839952e-02
7.409510417763418271e-04
2.228277265758142958e-02
1.018110662840044783e-01
2.018539159501293867e-02
7.289551495082692567e-02
7.296765949383127170e-02
-1.062942843183572843e-02
-3.898637849130812821e-02
5.099808872783161140e-02
-6.989581988717598338e-02
-5.780482233981693030e-02
5.313727765593793950e-02
6.104999623710371387e-02
2.275475543870914778e-03
-6.326565194819122606e-02
1.032344269552499666e-01
-9.451284480185847365e-04
8.011322351910504791e-02
-4.671556549578722434e-02
6.873161276601716385e-02
7.574460034477058235e-02
1.105954786329486211e-02
-5.294964077493818921e-02
4.720669492680927559e-02
6.109254324223498123e-02
1.456081147286481317e-03
-1.762963466515618527e-02
4.035442062686489528e-02
-3.222948507002192792e-02
-2.543338931783580004e-03
1.657985267132229372e-03
4.739800729059559514e-02
1.029800058835732002e-01
2.760759892948578056e-02
5.682096034094186870e-02
-5.511650432140630801e-02
7.272998526662557972e-02
-4.273718161909315777e-02
-1.185194949603443453e-02
1.288612863925188146e-01
8.921169075610187182e-02
2.144688185671477648e-02
4.029834858765642125e-02
3.549981183469884394e-02
-2.047326667139067261e-02
4.968289400942409173e-02
-1.263912556554697315e-02
1.177070397663574630e-01
3.525635782084420022e-02
7.229494579903471274e-02
-3.217738819022918778e-02
1.438854324695654392e-02
5.825779832749807680e-02
4.253372595409028734e-02
-8.660229373500596961e-02
-5.964834228811528166e-02
6.638633881238412138e-02
5.592746682493464350e-02
4.432022540775582692e-02
7.447053471750293696e-02
4.312864191199160258e-02
-6.467925295442486511e-02
5.036034663931009125e-02
2.349603044386080336e-02
-1.217359333596894702e-02
3.643186374061445354e-02
-3.390215520727640763e-02
-4.065899278229912622e-02
2.656709438053080075e-02
-3.311248537546301191e-02
8.811508786863260501e-02
3.667617229380339822e-02
5.385744733133238094e-02
2.702034622029741637e-02
7.702614802999173393e-02
6.334220556847081074e-02
-1.678646190579134029e-02
-3.780459885770209860e-02
-5.154700542242406786e-02
3.559074464106529168e-02
-2.464678920934004758e-02
1.323687359500491934e-01
2.952767160272017771e-02
-5.375380457810618323e-02
-4.530129603333644256e-02
-3.426664368325690185e-02
-2.784587233924500776e-02
3.938418154389436432e-02
-2.364820011792053561e-02
-5.929795558309972764e-02
4.143877547792110955e-03
1.067979196662328066e-02
7.335640429079864563e-03
-5.624947491342619649e-02
3.539772102213679938e-02
4.316600939334829662e-02
-3.161848567546158423e-02
2.958676504425656467e-02
-4.772821084253301566e-02
5.661360117997817076e-02
-9.133068350560108462e-02
-5.263289021239266063e-02
1.201293594520401855e-03
1.441827208251668900e-02
6.154419034269413558e-02
-1.469820169219214837e-02
-2.516161669171707721e-02
-4.740176802803589690e-02
-2.736247438958069877e-02
-5.162883015105942941e-02
-9.380304062628228023e-02
7.690852565553824016e-02
8.160534770696403761e-02
-7.834047008445639559e-02
-4.492644013790876578e-02
5.959484653926346021e-02
5.206938231175190640e-02
3.512829006382643671e-02
6.184361324720479003e-02
2.384633835011262457e-02
-7.447853727957451375e-02
3.795686831925462051e-03
1.132859949712565345e-01
-4.086217682614230046e-02
-2.865241965867577206e-02
5.643495636967108681e-02
-3.178043408007874548e-02
-3.290082319188813997e-02
1.183758151571091266e-01
-5.447462940833055350e-02
4.228728939332331016e-02
6.718589353701583111e-02
7.005215130372031973e-02
-1.018125688811131677e-02
1.194368548875142239e-01
-3.823518525751972569e-02
8.106124737902015154e-02
7.722222516325270847e-02
-5.122562994268845676e-02
-6.314857667606132985e-02
1.016612048470683233e-01
-4.147495829057448041e-02
-3.857233234482442680e-02
3.946476419605605274e-02
-6.507069178643233587e-02
-7.314366029366273399e-03
-9.743332768911219799e-02
-3.311578365686233122e-02
1.100610239749834698e-02
-5.261310624691468291e-02
-2.300595896126802001e-03
-2.879506071711992674e-03
1.329970130924984333e-02
-3.345612421456667374e-02
-1.148830598868041432e-02
7.816217228875143100e-03
-5.159791981734758448e-02
5.525336361810570529e-02
-4.280465206290933605e-02
3.558876578418666836e-02
-2.282910175452813883e-02
9.234545837170182736e-02
-6.883048726132459660e-02
7.357902638862911723e-03
2.521742125549117711e-02
-2.502574903509134641e-02
-2.060882696624175003e-02
-4.359567368665949461e-02
3.212662578959359430e-03
-2.121652267971229494e-02
3.156487867461256480e-02
9.456197548966566169e-02
1.083097199986201575e-01
-4.254834160563954887e-02
7.547652176967542537e-02
-6.537353963467945617e-02
-2.688045033784676116e-02
7.069198955654192561e-03
4.530732657187375861e-02
1.062741173766630631e-01
2.631850951661084126e-02
1.049157225628607193e-01
-2.310897847188519288e-02
-3.252107944122357725e-03
-6.039999939272402800e-03
2.593212442089270695e-02
-2.151335525633821591e-02
7.982042754949363050e-02
-8.222199420240011714e-02
5.942047039884683010e-04
5.441133424908010247e-02
-6.873355484675112981e-02
7.457864376974109033e-02
-6.194624070139811284e-02
-6.324891663889856130e-02
1.386580933156778550e-01
3.301623298709480819e-02
-1.695787846040261448e-02
-7.644620915544629580e-02
3.902676037173918779e-03
1.845997763115140439e-02
-3.794244948647945703e-02
9.233564380021615225e-02
-2.024604346270671845e-02
-1.510600772290523683e-02
-6.738151071356954236e-02
2.780439803419916880e-02
4.592401360490765833e-02
-6.274748415408035185e-02
3.121633571876688759e-03
-4.642815913138625267e-02
2.657918251591780134e-02
-1.596859133878539977e-02
-7.267705892707645998e-02
-3.786757865506987925e-02
-2.480713408512191104e-02
-7.662592036054080569e-02
9.183303906443993081e-02
6.224515101106618126e-02
-8.713001002344143708e-02
6.641015192585668359e-02
3.965092561648468107e-03
1.704241790129011960e-02
-3.508851600153906763e-02
-5.140924566930640295e-03
4.990880102485974190e-02
-7.066497404946965599e-02
-3.570254787349859404e-02
5.231568882574946788e-02
9.683788101268965554e-02
-6.043671133861489020e-02
2.697616084481855095e-02
-6.643115009118864822e-02
4.618776695610616462e-02
-6.809509711520400632e-02
3.731125601002736880e-02
-8.434167171885115222e-02
-2.804549710763577092e-02
-2.423208105580493960e-02
6.393071320681886771e-02
-8.110459748994786056e-02
7.886840405911478558e-02
1.754241756655804813e-02
4.783280225692933263e-02
4.019634850130059806e-02
-6.182880061497365159e-02
8.836567303279364849e-02
5.266115306610945866e-03
-3.441822314053946674e-02
-6.739124816077964042e-02
5.499339485805160299e-02
-1.049672652500537873e-01
5.249916812412321748e-02
3.548454773391064576e-02
7.487078231415641993e-02
7.787814567626985540e-02
9.160369475213771262e-02
2.790216431077530840e-02
-7.453323371567512068e-02
1.194258836809750507e-01
5.133536906016512857e-02
6.965183280498975227e-02
-1.036875008596948623e-02
5.486448758993410328e-03
-7.472123537820524186e-02
1.240509047767219541e-01
9.030452094132250529e-02
1.562969143648206601e-03
-1.055368370089300283e-02
-3.074391795195248814e-02
9.173853572373735776e-02
6.830606097261791854e-02
-9.724440088123009751e-03
-2.897539096793377497e-02
7.493366138618375027e-02
5.171279978040739522e-02
8.018313055043438387e-02
-4.458865953850953828e-02
-1.378711738010452196e-04
-5.224358507460096640e-02
-2.699366390496404661e-03
-2.942299368408033233e-05
-4.778723841280965723e-02
3.561069704182943333e-03
3.058122216122672633e-03
8.947195684784877909e-04
-6.448304387984500619e-02
8.278850367065979316e-04
1.413506721310308495e-02
1.168546408594594785e-02
-7.787432053997342396e-02
6.504799367468716564e-02
5.727109644208530637e-02
5.486543462676914812e-02
5.435785283084156039e-02
-8.226853708980738644e-02
-9.306343732105136490e-02
-7.107293775980336181e-02
1.244641060610452744e-02
5.095974476146404586e-02
3.293809874459381615e-04
-8.764194893890981525e-03
-6.312158263814950099e-02
1.096433305356538657e-01
-3.186468548199412193e-02
6.388302731677672486e-02
