-4.341937055451607352e-01
5.989916935876128390e-01
2.482413656409702685e-01
6.586339115904452646e-01
3.722077697814736852e-01
1.509467718273405090e-01
-3.870558900031548788e-01
4.032800978913080314e-01
1.568398405616630020e-01
-5.431131921959295727e-01
-4.690488232488133624e-01
2.635426221100067301e-01
-1.114610178455594132e-02
1.796393670577481616e-01
1.488962694731757741e-01
-4.802473626098948123e-01
6.573513845624221474e-01
3.218510570530963566e-01
7.578313823094049440e-01
3.448549363014317692e-01
1.984746977098516274e-01
-8.085202491265742752e-01
2.996387007737049205e-02
5.094490181123876305e-01
-3.302038137435737153e-01
-6.402321671234103562e-01
-3.707459286027563888e-02
2.652727401962140519e-01
-4.629446064878446898e-01
6.598537897650627038e-01
1.831964279059412060e-01
-4.660171138130406177e-02
-5.412586057991768396e-01
-6.040355550749523239e-01
4.846724963414384413e-01
-6.495064893053141830e-01
-5.077330878206796072e-01
1.188157343466591104e-01
-7.236141743667711124e-01
6.453903363325708131e-01
-2.960703536459225460e-01
2.223983234169387979e-01
4.895954213200966187e-02
2.821356781527363244e-01
2.764402666177358525e-01
-3.240818718364162354e-01
1.912510312161213866e-01
-4.079094816289752234e-01
5.251392212742832521e-01
2.814144607468061499e-01
-1.231310176234961667e-01
3.909068790751348832e-01
4.721469747118127447e-02
-1.786658490909131536e-01
-2.762138811705056596e-01
6.122049605406084671e-01
4.188684684391490998e-01
-6.195927474965112758e-01
5.919957047553658924e-01
2.197509918931885575e-01
5.982614254692225630e-01
6.142637396042508469e-01
6.730516077640696926e-02
4.503070170901294911e-01
3.044759252997233934e-01
7.895939746946492033e-01
4.316852073475668794e-01
-2.460087483693339516e-01
-7.485525621215201042e-01
-6.656317186057186808e-01
-6.261078876320362863e-01
-8.696832616005119310e-02
5.196865821620814119e-01
-3.492221300712041732e-01
2.405663870049446762e-01
-6.283607005095953602e-01
-6.979997664490518172e-01
1.502423641510939045e-01
5.134667684390893383e-01
2.762445863566616033e-01
-7.294230538939651121e-01
6.770924932982592681e-01
2.431770156837334274e-01
4.348314274522674938e-01
7.779760765727260219e-02
-2.820730966402583695e-01
6.566145123108197978e-01
-2.907067787107172618e-01
7.157746298660709883e-01
1.526025079671492479e-01
-5.035331736231006827e-01
-4.695495638788275139e-01
-4.129437050783371643e-01
-3.611427442157074674e-01
4.320617915945215159e-01
-7.787662551817967072e-02
6.042266461377755749e-02
-5.230130020281208159e-02
-6.384642705551400732e-02
-4.634477483799598896e-01
7.910847323691436728e-01
-7.262521499107232881e-01
-6.941432835462311157e-01
-4.419449993146057354e-01
-6.758022662174645312e-02
-6.367529237760912730e-01
5.722026429660039826e-01
-2.977541671040621618e-01
3.253646124726684574e-01
-3.219397044506687178e-01
-6.756180577514565577e-01
8.727435202837895145e-02
-2.784188956471242982e-01
-6.452008830893507518e-01
-3.022260441282360044e-01
4.452373027577491427e-01
3.187153772046025929e-02
-1.479648172649297710e-01
1.708641897915049723e-01
-1.137543322261463652e-01
3.265860530418708829e-01
-5.541583789612579691e-01
4.741565308891989572e-01
1.231770647176266137e-02
2.375890522956437545e-01
-1.955915042765138390e-01
-5.806823529855502652e-01
5.585452637803116627e-01
4.696098676083264034e-01
-5.272361717880640342e-01
-1.424846310748276723e-01
-1.070622478648949744e-01
4.517180317814505353e-01
-9.394145239905939138e-02
-6.291861330388286433e-01
-6.894604703553435243e-01
-6.965683203181329830e-01
-4.958567540031505461e-02
5.120265868803488551e-01
6.947462898605184511e-01
-3.564431349968356921e-02
6.603483558828781019e-01
-7.431270556029428986e-01
-1.755717526705246820e-02
-3.954542564317754805e-02
6.686651270815560100e-01
2.385313077593929354e-01
8.731134946025090326e-02
7.302798032182847843e-01
-5.883035426104220589e-01
-6.013465651824300151e-01
3.164457546189233805e-01
5.670754055739327670e-01
1.206409856523689983e-01
-2.867216801972145013e-01
5.166378721919023809e-01
-3.792930167476246117e-01
-5.833180154839437970e-01
-2.783823236714699778e-01
-2.780520735268414700e-01
7.055181142415201112e-01
4.886452140798440702e-01
-1.085705041460938020e-01
6.820301120603051992e-02
8.769118884821775969e-03
-4.156116845445362862e-01
9.715494077393994898e-02
-3.301247025935078461e-01
-1.233588553815727490e-01
6.190030583081345128e-01
1.175618121707355107e-01
7.668866508694983930e-02
-2.900114638449085343e-03
6.757983144127711617e-01
5.214076171257066017e-01
3.424251170583102449e-03
6.716667563323383550e-02
5.194607655589237316e-01
-6.494197823396037350e-01
2.161164311418058703e-01
4.241906813054636682e-01
5.476234015085599260e-01
-6.292291795047134650e-01
2.427779813276634557e-01
-2.348054246568343217e-01
-2.931334994617186829e-01
2.356962148228547715e-01
-1.478023892141337725e-01
2.990996007438492255e-01
6.245767720646584475e-01
7.353268594227436727e-01
-5.243444011106510594e-01
-6.837618462889982762e-01
4.908393406100754475e-01
7.953379062417813283e-02
-4.638564404031480515e-01
-2.205804988372084552e-01
-2.451729448934978073e-01
-1.558397283876141459e-01
-5.338624315058549952e-01
-1.451178208294783556e-01
6.836977384537972213e-01
6.193526700007397912e-01
1.536440984294568657e-01
-3.320034991062765228e-01
-7.624090549647967174e-01
-2.881235287397108935e-02
2.334363849551464865e-01
1.302934298476277897e-01
4.746800288224127529e-02
-2.929086466978739201e-01
-2.676588505328328926e-01
1.992539773959847438e-01
-2.850091882129766191e-02
6.200780673590623460e-01
-5.997998731399208916e-01
-3.133445807159245811e-01
-5.038297604395179929e-01
3.540151234685942061e-01
-2.290658444066699662e-01
3.719139728269291734e-01
-3.282444597522812257e-01
6.447124575676516089e-01
-2.263838895144501193e-02
1.077093130311069374e-01
-4.941746690067693182e-01
5.852302991425235579e-01
-6.038337966357957276e-01
6.917749216419513125e-01
-7.706901822884877629e-02
2.079513160354946877e-01
9.056512227081728317e-02
4.109183149879851865e-02
-5.586908014300645542e-01
1.825380107962592813e-01
-3.096079577422619078e-01
-6.722827772594494045e-01
2.201759550903861218e-01
-5.502316277588413795e-01
-3.839515263745085227e-01
-7.693833442079311968e-01
2.368305099574119499e-01
6.169556899733832367e-01
-2.868053215279484092e-01
2.948363337259155004e-01
-2.906134843911629684e-01
-7.356346594248132087e-01
-6.390146968511498660e-01
3.497965676334922613e-01
-4.724313921557222740e-01
-6.885243045097075854e-01
1.733063578038923358e-01
1.658995309962525977e-01
-4.606608926026349304e-01
6.308872469430697461e-01
-1.608264381626819395e-01
5.734394261108518576e-01
-1.309153406277033804e-01
-8.756280988126080578e-02
6.867113995614481103e-01
-1.559811418642293723e-01
-4.728852460420963078e-01
2.056212439014633575e-01
-1.097440634183955432e-01
2.306444703088623427e-01
1.191556912984409189e-01
-1.929395136223901186e-01
5.223201938125350274e-01
2.596475259079826792e-01
-1.172622004069154705e-01
-4.249428744503930822e-01
7.224713147047806538e-01
-6.952662426985297683e-01
-4.345137217182715728e-01
4.196865040650483158e-01
-5.850503573626009840e-02
2.231157235959863316e-01
6.169090284104419286e-01
5.026312277951572316e-01
5.068710678059235725e-02
5.600661156452055867e-01
-4.929134141161377602e-01
6.688964498144475135e-01
6.835642692816805699e-01
-2.614514412847263047e-01
7.502406264353476129e-01
-6.812533092935471046e-01
-3.059749633261539814e-01
-4.814283231723132106e-01
-7.654351153459819646e-01
5.849901751336221700e-01
-4.926615747396129869e-02
5.994766537773678072e-01
5.204538770713784679e-01
8.976241870679359247e-02
7.528081563435192747e-01
-3.458579367231582324e-01
6.006973523625332989e-01
6.490324781201687321e-01
-7.147385661633408604e-01
2.990128960416773007e-01
2.028814648556196421e-01
4.828156622738235537e-01
4.365786928294566049e-01
1.815889661308455749e-01
1.226853910258104557e-01
-4.419747171485920167e-02
-2.734607479299742683e-01
-2.109676720012265694e-01
-4.613799845173374159e-01
-5.883567196172898583e-01
7.245035612105374945e-01
-7.760047626239603424e-01
-1.351981036010209691e-01
3.209823970443691915e-02
6.727379334519567600e-02
1.082429585107536341e-01
-6.566888647411606161e-01
3.555289761216234301e-01
-8.311925880232161334e-02
-2.338502239392742654e-01
1.694890804111569282e-01
-6.935510667460725864e-01
-6.010698493999000643e-03
-6.751080262075637162e-02
-1.554219639478919279e-01
-1.375756487584786636e-01
-3.959256301288075486e-01
2.713074949104800071e-01
7.586475437895039420e-01
4.457976211518652893e-02
5.505811444830193135e-01
-1.222689369643317342e-01
-2.300310660280454333e-01
-7.079947249109400653e-01
-4.495034775971792906e-01
-2.311244674698116064e-01
-5.883352480139318885e-01
-2.975343712900394566e-01
2.723354400460777924e-01
-2.207423860943652782e-01
-2.044052830771254659e-01
-3.511411543634550547e-01
-7.388518690969875236e-01
-4.390274343688256864e-01
5.839814900941059372e-01
3.966329488195335928e-01
2.885950326036867963e-01
6.856512102832373889e-01
-3.318923004351338468e-01
4.650902170455772922e-02
-8.025094642434751901e-02
5.125559047698391435e-01
-1.250793092112997308e-02
-7.517516430826296503e-01
2.028333507383403289e-01
-6.768744184550827825e-01
2.616739989701574731e-01
-4.223463437943400511e-01
1.565175349009453876e-01
4.050332334176088844e-01
-3.103615637956185780e-01
4.197833401723832791e-01
1.438469938885229005e-01
-4.133328555264190740e-01
-1.298528987140531443e-01
5.335510615514539312e-01
3.376207607845382319e-01
-6.214483402447741334e-01
4.238774847498226750e-01
-1.462686207922826442e-01
3.681613109209289081e-01
2.960109934393776454e-01
5.165204064019309760e-01
-1.731101397732255354e-01
1.215255641612069532e-01
5.607566048466504707e-03
5.785313195062372627e-01
7.637194233502294649e-01
-4.338763740706256256e-01
2.214124245703651406e-01
-5.063054935995415784e-01
-5.407125678655524403e-01
-6.419471103583440641e-01
-6.102549744067551352e-01
7.208713913193266487e-01
-3.910584762640963996e-01
6.732618145522972775e-02
8.905449470782555998e-02
5.494758707971376249e-02
5.490215633892285840e-01
6.685712537296170099e-01
-4.006517439861791985e-01
-6.281659463316245917e-01
-4.941138299815670543e-01
2.361108467204960093e-01
7.728328613289213722e-01
4.321350740324064049e-02
1.057374980299312373e-01
-1.240011621442474871e-01
4.274480285572070382e-01
-1.419318626220900104e-01
4.182322052321196804e-01
-3.317842792722577872e-02
1.206116393001538667e-01
6.029070164674374954e-01
-7.227552978713193133e-01
-3.174165315831572465e-01
5.327996608028761072e-01
-5.397395987563723407e-01
1.367035189977726644e-03
-2.081437322897253528e-01
-7.215248184027212019e-01
6.518148499343776603e-01
-3.857953306481869404e-01
2.147587813470261398e-01
3.990861214857922556e-01
3.618021289270743901e-02
-2.389274900627212650e-01
-6.645293528410106676e-01
6.031076502055837674e-01
-4.419303197306429509e-01
4.105728279065671837e-01
7.089275506278575056e-01
-1.261795762962806267e-01
-6.352892903133916525e-01
-5.255637381036595279e-01
-5.038877662559101411e-01
7.777768360153790583e-01
1.685714753406236111e-01
-7.097025477067538946e-01
-1.608755845680686358e-01
4.507041348971509431e-01
-4.737653515907815915e-01
-5.663276713758579745e-02
-1.895405809113209494e-01
-3.019581722867231699e-01
4.680882518695061445e-01
-7.882579685275084014e-01
-7.069268065450565741e-01
4.764769953241980160e-01
-4.540396865728111297e-01
-7.588677948817001973e-01
1.128178097293416199e-01
-5.082026235295801220e-01
6.601150334338216075e-01
-2.001332707173828773e-01
6.851064741547310821e-02
5.072169847461179826e-01
-4.761697322505087371e-01
1.767703704876047166e-01
1.100956444188879724e-01
5.519803493483814716e-01
-7.868970158775562274e-01
-7.740293888164172520e-01
-5.846499866160608239e-01
1.326225305690955925e-01
1.893461810758354305e-02
-5.666706684292828200e-01
1.465114537810706385e-01
-4.097876301223921103e-02
-4.171691797628149789e-01
6.727448340582222741e-01
-1.792678941462323150e-01
-5.907961829061066927e-01
-5.403788440595082010e-01
3.130638218950641538e-01
-6.715297299223123018e-01
-6.872852613701270208e-01
-8.074128780641071090e-02
-5.099096633315870486e-01
7.596124473205038141e-01
2.690874415791341678e-01
1.721163525811346129e-01
-8.485930313741803233e-02
-6.014709069578907386e-01
-1.642645084186171722e-01
-1.423583122449908200e-01
3.103237491161070505e-01
-4.860903901831217788e-01
4.538627947673785079e-01
-4.153664495349158187e-02
-2.837619219195053888e-01
-6.301136058175544896e-01
-1.785522821575237229e-01
3.054386847101936073e-02
3.766444757874052446e-03
-5.576911657853496074e-01
3.329142060854666796e-01
-3.066132306490297332e-01
-4.909292361535305682e-01
7.076084224181911075e-01
6.808970933249708368e-01
-3.894629303711103496e-01
-1.972751332952210335e-01
4.016363735854888706e-01
6.153685486037704377e-01
4.639865348415775914e-01
-4.752955116698199256e-01
3.341648501351921485e-01
-6.786968960216073488e-02
4.624930179607193437e-01
2.766939493095729174e-01
-5.649313374117342912e-01
-5.299820269858577237e-01
-3.805534171597060866e-01
-1.518911855869384819e-01
-3.827611061514928914e-01
-2.835399069418462203e-01
-1.306815213863922187e-01
-1.034010859338350824e-01
-4.830978997233032479e-01
-1.838538080617390658e-01
-8.944384222421614128e-02
2.488222263915455534e-01
2.125993561375755514e-01
5.981877643095961927e-01
-2.011812010534933248e-01
7.076137125528465521e-01
-1.264857250617056894e-01
5.464029107439448696e-01
-2.036385379254758154e-01
-2.293046365595811931e-01
3.060609883776665430e-01
6.261751767255808732e-01
-4.038989048980403535e-02
1.475999772626445383e-01
-2.454540086232411822e-01
-6.222834983627577587e-01
5.405581176779885588e-01
4.398034824853042091e-01
2.124844931793566094e-01
-5.746262976291209856e-01
-5.697941811076975283e-01
3.671871448890713374e-01
2.461595130433055501e-01
6.359366203606726664e-01
2.142320509696044734e-02
7.010662493714361343e-01
5.966953178974691019e-01
5.314238616573767615e-01
-7.522362071338076772e-01
-2.216471838323601229e-02
-4.041130345813290226e-01
-6.758642360799448356e-01
-5.583223674783353019e-01
-1.791415388703193334e-01
6.029398355273434262e-01
-7.387978919546200895e-01
-4.164475545359618280e-01
7.041647336675479485e-01
-6.143829322088554257e-01
-8.733001958807107279e-02
-4.072384486692975369e-01
1.488446078125616190e-01
-3.483249057897274681e-01
2.433906320462590755e-01
-1.024821427207776026e-01
-1.997696992487906775e-01
7.094514870543220386e-01
-7.071958735610521796e-01
-1.745700444031568488e-01
5.697905042093038830e-01
-5.841895373248428003e-01
-2.714867280092752785e-02
-6.143428047959488270e-01
-5.306472589272228646e-01
6.154597678096946911e-01
2.125337234058023717e-01
3.415716707830367405e-01
4.091410133023207218e-01
8.271478705929385944e-02
5.090338557089851834e-01
-6.178469942838912266e-01
2.354355314800997689e-01
-3.538513680989627957e-02
5.398913539755082480e-01
-2.193946766947256211e-01
-4.629654968359441791e-01
4.426331437875217212e-01
7.158286932826064541e-01
7.361119244937902595e-01
3.640857737836751817e-01
6.122587791575824223e-01
-6.675077087236828133e-01
-2.160663323955775705e-01
-3.776012461172819634e-01
-3.907802312564047642e-01
6.885470500173481063e-03
-6.029019736075869051e-01
-7.117576409289768646e-01
-4.721574216881790353e-01
-3.069611042571846471e-01
-1.018170131745990553e-01
4.833899406104065211e-01
-7.522340931321414015e-01
-4.812400265877323502e-01
-6.380140432155954056e-01
-6.538339361716799525e-01
3.813440509789919886e-02
-4.295569726328549859e-02
7.174462444119760196e-01
-7.022737740099714854e-01
-4.401418112013826267e-01
-5.296356857639770155e-01
-2.311579355075409625e-01
-8.853495527987026437e-02
-3.067199448627832004e-01
2.900069013298968157e-01
-1.671815859400285764e-01
7.591476927308454803e-01
7.035428120271961516e-01
5.094013183243986109e-01
-1.226278177345548198e-01
5.872416699826870090e-01
-5.333021807559871208e-01
-6.719058023148783976e-01
5.220697221095065288e-01
5.604345484042181358e-01
-1.936902051859674956e-01
4.374009259228089919e-01
4.760301932257653967e-01
1.547751444715098901e-01
-3.838371521750836290e-01
-5.661439591361046020e-01
-5.056461778830166898e-01
2.583206680380821796e-01
-6.218326518271182213e-01
5.080947782642738497e-01
2.951278117766248377e-01
-4.081690432978770655e-01
5.389533104574536493e-01
5.203795916659551546e-01
3.459184027221396951e-01
-5.650621564415189146e-01
3.574986071318188019e-01
5.478827440114238945e-01
6.713931412499093421e-01
9.538352758378819407e-02
-8.928328347877181881e-02
-3.066829942841850509e-01
4.698690826772870532e-01
3.445428434351959640e-02
3.729432475446661788e-01
-6.476227661770639354e-01
6.775766340990698744e-01
6.085739430740423339e-01
4.862116582523095393e-02
-7.347390437417676556e-02
-3.895194417606884785e-01
5.321081310239478279e-01
-6.682504593689639893e-01
-4.115638478305858050e-01
1.457573570542887165e-01
-2.450078575355897070e-01
-5.609838117438643579e-01
6.103152182467370263e-02
2.916698112697886994e-02
5.122321136685680232e-01
6.030175117034818066e-02
6.456692652010778133e-01
3.156370877840384837e-01
-3.587849471803905010e-01
5.895763484493476980e-01
-7.892296940534331284e-01
-6.597653546466358820e-01
-2.099710365642690757e-01
3.900019292574082863e-01
-6.122560677649733218e-01
2.608830833053874532e-01
-2.563416155323890444e-01
-1.211854369808378490e-01
7.133011255831145370e-01
-3.770242044711031304e-01
6.995004377950714280e-01
5.549966862240346410e-01
-3.530969989785225083e-02
1.107236718583244489e-01
6.287487078279621056e-01
2.599625637444734072e-01
-5.661414193791737270e-01
-3.495584976252714693e-01
-2.199824686883068148e-01
-5.620202371475878644e-01
4.399613911969122992e-01
-1.679337359750900371e-01
-6.646807052371145330e-01
5.422097543223851623e-01
3.313151847671754746e-01
-7.218473365701407740e-01
2.640780622610292561e-01
6.654996177778236266e-01
6.435697884862147111e-01
-4.178643356241604212e-01
-2.465977361226096010e-01
4.611244944418727010e-01
-4.803037119472686745e-01
-4.628082647375572067e-01
6.397198730338289341e-01
3.061541444100407405e-01
2.476651926496491740e-01
1.174763404388196597e-01
6.820537822981540543e-01
6.324475112072259764e-01
1.896039498660987421e-01
1.815593307144763857e-01
-2.512443359885813132e-01
-3.249382159618691146e-01
6.891591040874558427e-01
3.547594070630344931e-01
-2.005067458239656875e-01
4.177696312948486201e-01
-7.822615361714868598e-02
-1.686858883948246235e-01
-1.321206592933860946e-01
-5.954876593144650121e-01
-2.027487090506567280e-01
-6.784056005144430967e-01
-3.712970015570634108e-01
-3.657439224713791015e-01
7.312984710419675460e-01
3.817386243404324309e-01
5.441485066011074734e-01
1.351281734650357225e-01
3.627041521176472272e-01
4.682785207294655194e-01
1.123126807000435073e-01
7.600380221937917957e-01
1.955459021014086252e-01
-1.050086904408267935e-01
5.869716413415432266e-01
-4.687495485523687777e-01
-7.315908627695929534e-01
6.895321624444179509e-01
-6.497807311603530644e-01
3.848256501183029976e-01
4.030352912086554995e-01
-3.282183752215561690e-01
-5.027347939662191179e-01
4.344346101122652515e-01
3.812530068855878307e-01
2.930367616729266655e-02
-9.550884333421427730e-02
-6.095934198469631776e-02
3.938239580992618505e-01
6.933392922895028621e-01
6.340399310754700757e-01
-4.052469431940513012e-01
-2.240430398942969970e-01
5.404457101484784198e-01
-2.779385375945405134e-01
3.171308939333737642e-02
-2.346726617987796859e-01
1.268238528356121879e-02
6.232682762290970846e-01
6.439765624896315321e-01
-5.615521604074994455e-01
5.339361517396999657e-02
4.499110139788990437e-01
5.678597569575104531e-01
4.525299414130699582e-01
5.090735313357775960e-01
-2.025264043879571041e-02
-7.228271629789614350e-01
-1.703075998821793752e-02
2.422298628065931436e-01
4.948518868890972033e-01
-7.276794431855407308e-02
3.273347212502181747e-01
3.486475393986110394e-01
3.621070493680236813e-01
9.490973175441244636e-02
3.703573344928881572e-01
5.300199053372186553e-01
5.832103264071432092e-01
8.007479538746175018e-01
3.252907263711842800e-01
-3.929365004891483687e-02
-2.107207524618288919e-02
-2.926053254308614432e-02
-7.513412284026219634e-01
-3.638683941514692655e-01
-6.070169103257210264e-01
-2.383918979178548947e-01
