-3.233171933017064958e-02
-7.495990225098982107e-03
8.617800167193755481e-03
-2.090606293987975085e-03
2.418364960156526439e-02
1.888813092007691000e-02
2.743416698936637643e-02
-2.517418335446138748e-03
-1.551748447347626146e-02
-5.475526892453361303e-04
-6.607033467192538999e-03
2.324160978840208308e-02
-3.860109480227655321e-02
-5.055380653739141757e-03
-3.950169956966693985e-02
-7.137194843636488276e-03
2.483397089637394070e-02
5.680589385600669922e-02
1.842385753147257610e-02
9.074991226404956549e-03
1.931232625142663764e-02
-3.477701999028835061e-02
-1.398991930386599136e-02
-1.177400508402883482e-02
3.521252777858208290e-03
2.816967870541927516e-02
-2.081962676786383581e-02
2.130414578639763107e-02
-1.129790836691548644e-02
-2.549130720327897129e-02
-1.379956876575770368e-02
1.154365261773771141e-02
2.277893477130949959e-02
-3.399933183632813938e-02
2.808108656763858707e-02
-1.916091570860276733e-02
-7.349946701605409617e-03
2.608316930818884230e-02
8.770386807328748799e-03
-1.576872128701609435e-02
-2.490757863556857660e-02
2.944356618449208568e-02
1.506110105211489955e-02
2.231368776054709711e-03
-1.381210327103819281e-02
8.093362566957909218e-03
-1.009934130178837160e-02
-2.708295137833722360e-02
-3.287236948902283462e-02
3.499336050657581715e-02
-4.063692169298573076e-02
-3.494461819736733449e-02
8.229306351890018027e-04
-2.876884192742798843e-02
-1.546171144490068525e-02
-2.374270523652758161e-02
6.244917564442589025e-02
1.863966895296633591e-02
-8.113759753570200933e-03
6.839958642213250610e-03
-1.146160845645050573e-02
-3.149456781008155414e-03
-1.533259901030663806e-02
2.214286427880590019e-02
7.794983879782085845e-03
-3.405528679249618385e-02
2.324960505777928094e-02
4.663791773587864370e-03
-3.296037403712457486e-02
-3.490474818674315499e-02
4.176645188350969901e-02
5.192422247768228166e-03
3.305493421848821473e-02
-1.584904373403385816e-02
3.863402827425341246e-02
-1.357713870748850603e-02
-4.082949392044152997e-02
2.893469827085143678e-02
-3.081296476791112182e-02
-2.837964301518985238e-02
1.798831547034757117e-02
-2.329740522273694627e-03
2.868765812543726257e-02
-6.721535781452570024e-03
-2.024204156732849549e-02
-3.955270713993298826e-02
1.614232966295300192e-02
3.569228791864675204e-02
2.565347282660907988e-02
7.073180158894768962e-03
1.834118357009758074e-02
-1.455504493127817746e-02
-1.738367285896399994e-02
-1.307213815743095420e-02
1.376680221359177086e-02
-3.771034353470216482e-02
-2.897804191312196298e-02
-1.994917422519288525e-02
-1.614377973780817613e-02
3.417612404223913797e-02
3.861171860084865876e-02
-5.109861628244887800e-03
-2.963644924655475799e-02
-2.188684463493077367e-02
1.058997642315416023e-02
6.207436477848512482e-04
-2.380663517604151777e-02
2.354672957588508416e-03
1.787346113177700271e-02
-1.552351156668713324e-02
-1.214340196358823162e-02
-2.048841207416658011e-02
-3.473137928321972517e-02
4.230859926050647979e-02
-7.368294081007726627e-03
3.427192281752233435e-03
1.413285546460620219e-02
3.360254145800747796e-03
1.767279796175562356e-02
3.789098629078067881e-02
2.459203149288550702e-02
2.598602462804466134e-02
-2.836077128297640609e-02
3.629263817132237502e-02
-2.868743685387761116e-02
7.641242662204303891e-03
-2.546359488810772537e-02
2.709370885282379182e-02
1.734714777449774745e-02
-2.762386665060553859e-02
-2.399952138352637321e-02
-1.177675310310807855e-02
-2.858629716038674218e-02
1.379677757864521126e-02
2.502404374002546728e-02
7.439382922359996132e-03
-1.669157479835458799e-02
2.356921309539544360e-02
-2.371095926034103712e-02
-1.484749814332202503e-02
-3.704158507553695356e-02
-1.894843729513877306e-02
-3.753347443680495055e-02
4.069281306335172099e-02
4.409174535818715518e-02
2.209641514100570484e-02
-2.388543225383659568e-02
-1.322848071940205608e-02
-3.032879079662983979e-02
6.608301857442374500e-03
8.842815788814691047e-03
2.756252440054488342e-02
1.088582520805385714e-02
5.449160761971945377e-03
2.641614315666032317e-02
-5.051061103361975148e-03
2.984274002045429752e-02
-7.630208321585615211e-03
1.100423465048483949e-02
7.200920916811333859e-03
-2.604520209240862236e-02
3.507374685038391893e-02
1.918443383209110162e-02
-1.983735801952879810e-02
1.082936749494005368e-02
1.680511580944438893e-02
-1.862139741454045538e-02
-4.447675383900440843e-02
-2.381382088037065775e-02
3.227013793089729410e-02
-7.479885459329426410e-03
2.798360976688847156e-03
6.383377170554569574e-03
-1.920358486995046160e-02
4.890807188925224043e-03
1.599538737782675579e-02
3.158555495084151149e-03
-2.999810777659781078e-03
-2.485307770991037821e-02
1.938914344414150934e-02
-2.525178623986494564e-02
1.744942560031254725e-02
2.904461885906123655e-02
-8.326364762460703242e-03
1.800994838486955204e-03
4.312124407623142003e-02
1.060154411526232840e-02
-1.761737756581923178e-02
-4.888502312958463263e-03
1.092234548884496101e-02
-1.360515697983063176e-02
1.455310650808637127e-02
-3.264804940054205629e-02
4.336077221261990661e-02
2.547831483584339987e-02
6.890118983980074267e-03
2.224890556334676792e-02
1.176749079397363534e-02
-1.894739153787529037e-02
-2.988738741505645585e-02
1.414970489249092571e-02
1.502389645687740756e-02
-2.285059052726299417e-02
4.207439213621613772e-02
1.060106750469567635e-02
3.604072718309862811e-03
1.573991856653543173e-02
3.238976209312746657e-02
1.034213891582745279e-02
2.617390335153495576e-02
3.056147070874096899e-02
2.561463336655407652e-02
1.587807577786443103e-02
-4.774482761162650302e-03
-3.920385639169222253e-02
-1.188653179681615872e-02
1.108562858030488589e-02
5.230681313459327117e-03
2.385029634305378503e-03
-2.948055597066181859e-03
7.496759350593394135e-03
4.040073934256301069e-02
-2.036228894420119215e-02
-2.764901349475414050e-02
1.397124723789321815e-02
-9.243309878936210172e-03
-1.443198739534690828e-02
-2.280513403936326386e-02
-2.347774792315586098e-02
4.795602477281113440e-02
1.891880039226258997e-02
5.431727218205670456e-04
2.096900315885133828e-02
-2.330148398655409667e-02
-2.390247004647819140e-02
-1.365925410139083758e-02
-3.834203063657444510e-02
-6.658676765057172653e-03
-1.984875106205007469e-02
9.342925386012968306e-03
-5.498270289298089371e-03
3.129219098003597349e-02
3.475528312039764117e-02
-8.854015573175590343e-04
-3.831152465694847437e-02
-2.299014415066133465e-02
3.187195244286741141e-02
1.020688428401032161e-02
8.946711741568363560e-03
-1.170454070871288117e-02
3.844043185159316377e-03
2.985992545194923395e-02
1.530009569734824999e-03
-5.237550392475340960e-03
2.547564444305874809e-02
4.550524126158325341e-03
7.971420121452745325e-03
-9.935817158052981726e-03
1.981469203951113575e-02
3.696572901067873840e-02
-1.497366349252703469e-02
2.397685761048264780e-02
3.295174979855976238e-02
2.413901986880508457e-02
-9.122978712714228250e-03
2.520361897739968604e-02
2.876276340302099527e-02
-4.934599799156055150e-03
-9.093051896910142942e-03
-3.069019032839044245e-02
-1.698687348109441733e-02
-3.216078289770644971e-02
-5.692955404592940074e-04
9.449480858221765908e-03
-1.127197495912169237e-02
-6.132957883883165739e-04
2.567053229184420096e-02
-2.485785855475561301e-02
-1.716351308856649271e-02
1.544772985693467285e-02
-2.498678199285650492e-02
-1.612109730713591135e-02
1.991795651865856109e-02
-1.552474325843320249e-02
2.832265878195494233e-03
-1.787148002717180509e-02
5.932984831007634755e-03
-2.855550593187451344e-02
2.515442439078244274e-02
-1.509029893121743501e-02
-2.971203534430698345e-02
-2.419257673563076846e-02
3.572451965562198350e-02
-8.181557334504669082e-04
1.431493478860160207e-02
-7.797296990281947157e-03
3.335718205235035927e-02
-3.876460399475038961e-03
1.570194129154953155e-02
-2.508659973251155771e-03
-3.685822011470204357e-02
8.401288886459135075e-03
3.566616323784633103e-03
-1.731752048025693783e-02
1.480454080808867815e-03
2.992142455682315384e-03
-8.408278153054715102e-04
1.420489292609144680e-02
6.411126841410793101e-03
-1.878906185007562027e-02
9.252013703226818694e-03
2.366561918991730643e-02
-3.766780990107203211e-03
-4.735033070588700287e-03
-7.337423028024172645e-05
-1.779924981432808029e-02
2.070947675283592998e-02
2.121407353211289190e-02
1.165435485601322430e-03
2.845333214761970944e-02
-3.507037780292480283e-02
-1.004475470076332576e-03
-3.784211115693729335e-03
2.070992683535367862e-02
3.341743848389851917e-02
-3.072770932190613258e-02
2.002202435317119653e-02
4.179290077546841259e-02
4.730409373015144470e-03
-3.610235450501246817e-03
1.136052357342909325e-02
-8.814547557399623687e-03
-3.108791688365709210e-02
2.209207974810505765e-02
9.543989743442022472e-03
1.617169598995774060e-02
-3.307298374795692580e-02
1.954359262120669918e-02
2.083444728514078845e-02
5.761891846958999697e-02
-1.520211503631403900e-02
7.840232914783954246e-03
4.313961150163899555e-02
1.061995584437747456e-02
5.089975019131676159e-02
2.420021719237810606e-02
8.404071401642823971e-03
-5.691062911929172657e-02
-1.877106532878826742e-02
1.441765213695023196e-02
2.505499082781355996e-02
1.818203295367954581e-02
-3.695529718936903241e-02
-3.616153994570116791e-03
-2.038248142564823284e-02
1.536179348345948110e-02
2.427573259633470249e-03
-8.394240197737295474e-05
-3.997562862258458027e-02
3.940376551877515510e-02
-2.374810329165665413e-03
-1.760764736998510216e-02
2.690454238525111230e-02
2.302149926180069306e-02
-8.108357394932003831e-03
1.319061554276680474e-02
2.367123374219079826e-02
-3.299005888864173230e-02
4.038586242470951562e-03
-1.567561202336873946e-02
-2.130539328177806849e-02
5.414879526255165360e-02
-3.763469030017281385e-03
1.441590891545410126e-02
4.340539274086174099e-02
-2.408033988894628039e-02
-2.169387444423432482e-02
2.254548548553699904e-04
-4.870195693109620472e-02
-1.033162469063710065e-02
-3.871288689880642703e-02
-1.307565462542334238e-02
2.886735932122058354e-02
-8.029979535651859263e-03
3.381854878155734351e-02
4.470416646816457659e-03
1.485988718653105710e-03
3.025565922298169286e-02
-2.540464208891240333e-02
1.841520907464066700e-02
-4.170534536117463664e-02
-1.397864196396329806e-02
-3.631217714132967816e-02
1.536170439995875915e-02
-1.679631387877242310e-02
-1.524428075107388605e-03
-3.354642462723865515e-02
-1.092356539432637851e-02
-2.565884294851640893e-02
-3.671531289276059457e-02
3.395982811596243850e-02
-1.524653413393619455e-02
-1.976387336252861081e-03
4.623468810861656314e-02
-4.269000991075457170e-03
1.350604193583673958e-02
3.162490331797814663e-02
1.914220651394342790e-02
-2.094934046725819773e-02
2.291062722292910338e-03
1.220592771391727956e-02
-9.009702224249070343e-03
5.262700924156765801e-04
-3.111833072192651470e-02
-2.588311647730191789e-02
-3.562397572385321565e-02
-3.472504825141146251e-02
5.106345924807413790e-03
1.210490784674381551e-02
3.037274938938318639e-02
-2.945588422090365116e-02
3.439326106163095170e-02
-4.001703719856128383e-02
-1.451533681187459164e-03
-4.641782812232979338e-03
-1.438827599916355643e-02
5.772273373185608791e-03
1.208409744766738864e-03
-5.106915244238484537e-03
3.433469860141252772e-02
-2.727492905837808346e-02
-2.154159487943912640e-02
-1.347684006753836934e-02
5.021309696722512511e-02
2.302438124468094566e-02
2.436622292651162772e-02
-1.073270722759407658e-02
-5.177818454417997852e-03
-4.900198143723695499e-02
2.532047602565405935e-04
-1.573087684570353625e-02
-1.978417087150048659e-02
-3.328518970053195684e-03
-4.985254394165058826e-04
2.061336395541477160e-03
1.835884701276965097e-02
5.419574327741620220e-03
5.613042353950822849e-02
1.107809580002219046e-02
2.448027904288609807e-02
-2.385118337137575109e-02
4.049507950877688153e-03
-1.099397357895833156e-02
-1.142675070657646515e-02
4.343556728089024294e-02
4.193722228941693282e-03
-1.246420257681762379e-02
-2.711444765502804728e-03
2.791668262553034102e-02
1.706826468031490129e-02
2.124503831432954931e-02
-3.381618915047123614e-02
-1.839421276136731301e-02
-7.789439930232456601e-03
1.898901117911206207e-02
5.878174781030839728e-03
-1.289837371871134421e-03
-1.210354275519890527e-02
-1.551680954434405540e-02
3.914127078441060475e-02
1.294056905872318849e-02
2.339881803141668354e-02
-1.406301982469222028e-02
-3.386449122648161475e-02
-6.481679241715699279e-03
-3.171652793621997091e-02
-2.639867156921760563e-02
1.334856227151384918e-02
-6.343423340184991231e-03
-1.642778827377547671e-02
3.322690243968508044e-04
-2.579984299947740353e-02
1.056811584802506629e-02
-3.285040037165461863e-02
-2.619695384972199267e-02
-3.200998499203584757e-03
-1.568349652800418714e-02
1.179109602837198102e-02
4.316818521310208240e-02
-4.417514682751683304e-03
2.941262935343682758e-04
7.895689471684608912e-03
-3.388925578709169745e-02
-3.800087828341752738e-02
-3.137605993157485673e-02
-1.886149803405569661e-02
2.839681199793050309e-02
-3.858812018624840218e-02
-3.653394103907586093e-02
2.942201842532674028e-02
-2.861724180095840103e-03
3.036290824716249975e-02
3.773099729076126972e-03
4.073061249457561595e-02
-3.752520781895860719e-02
-2.680519430347550955e-02
-1.091593446935802680e-02
8.981839938099830814e-04
3.293504162312677064e-02
-1.472898288524430652e-02
2.008480797114660724e-02
2.395735735915114836e-02
5.860559276578915146e-04
4.369652455276486908e-02
-1.600410713795281242e-02
-9.279695911230075034e-03
-8.988178016769699658e-03
-1.865101356400361565e-02
1.551923858367206324e-02
-4.020793670479459216e-03
3.658151636643240667e-02
7.495842216649674719e-03
4.005147224396917414e-03
1.041090723763470928e-02
1.455168137416022571e-02
2.827364597564057877e-02
-3.807313347614284943e-02
-9.814509501334528485e-03
1.320916780651149904e-02
1.430829731735646683e-02
-2.506293634967518905e-02
-1.017599218899948102e-02
2.666289748829258482e-02
-4.431912896036650784e-02
1.688605741803796134e-02
-3.207936333637399079e-02
2.062662407253965449e-02
-3.926510455682471167e-03
-3.510341357252569350e-02
-3.826257803091801662e-02
4.003805047724079413e-02
4.238577936146088743e-02
-1.634498648256762360e-03
6.568358904475579338e-03
-2.747613826771835160e-02
-4.505660809704582076e-02
1.379172010179621592e-02
-1.352679220835930306e-02
2.608461131895837420e-02
-1.563406129642267578e-02
-2.443405599504688483e-02
-2.543607768647832348e-02
2.101905032184445479e-03
1.301129870392757175e-02
3.552568922159287518e-02
-2.504856198819249702e-02
-1.746467424422092768e-02
1.557394643006341714e-02
5.702275683575917797e-02
2.436296484173504709e-02
-1.139145512768021231e-03
-5.845511032998544632e-02
-6.746610721325971283e-03
-1.605130318746819662e-02
6.402240984776920614e-03
-1.480421920045446940e-02
9.899662935002448774e-03
2.218986078552557042e-02
-4.419405762898370726e-02
-5.896377606002698064e-03
6.616076172878337870e-05
2.187836617343059953e-02
8.438057397022150075e-03
6.970375982222384165e-03
2.622714696793035719e-02
-3.273766205773648123e-03
-2.987219491195619928e-02
3.320280642805850668e-02
-2.708310880105903665e-02
4.460019173032450657e-02
-1.701645872857500408e-02
-1.808239899591966571e-02
1.896215322555527480e-02
2.675811717160719166e-02
2.582983721327459202e-03
4.668756571775919267e-02
1.482566183126413431e-02
2.412540490076302627e-02
-2.646877813811304020e-02
1.025849185330036765e-02
7.065903176020476954e-03
2.072704879627843694e-02
-6.763508632107969806e-03
-2.837834177539303240e-02
-1.413159958733395220e-02
-2.028860150180267566e-02
2.449836506077799139e-02
-6.740973684372215079e-03
-1.563042550227571048e-02
-5.170911863244222889e-02
8.269259923038455723e-03
4.349097475359826187e-02
-2.219080336858705177e-02
4.149277728671373761e-02
1.196531598156973415e-02
-1.982971602646314835e-02
-1.951728303699854644e-02
8.149104453210992069e-03
-2.562126365522145177e-02
1.676878308917395533e-02
1.921434775607156614e-02
2.213922038017163314e-03
-1.937549699922761284e-02
1.054259641306555181e-02
-2.612205157685079313e-02
-2.700400875184218868e-02
2.206722727299348027e-02
8.081227331918464790e-03
5.107614361431613015e-02
-3.599877512257416284e-02
4.584139710221229319e-02
4.682627484576892124e-02
2.410309462043892098e-02
8.446332333476438275e-03
1.065497267670886469e-02
-1.284352129616038451e-02
-2.140105861084587446e-02
9.745593063971018030e-03
1.081925565307763869e-02
-3.746329655679379173e-02
-1.654705591300642195e-02
-1.441021789658742183e-02
-5.804331319288215385e-02
2.162394016162007271e-02
-1.935532323759578052e-02
-2.648192112167993204e-02
1.112273610786366704e-02
-1.634152771626210324e-02
-2.075530774402381106e-03
-1.119308139363921380e-02
3.332340638937857785e-02
-1.316948361313262719e-02
-1.324746828507866736e-02
2.332369970329196962e-02
1.747941980158012124e-02
-2.922459434227235413e-03
2.603687265329294315e-02
9.531752858936690109e-03
-2.581948399023937038e-02
-1.182108206986422737e-02
-2.982826955182097881e-02
-1.758799300525329054e-02
-2.150429247672082031e-02
9.956475707652130691e-03
-4.194643716896613583e-02
1.113031133263501539e-02
-3.070814929929490192e-02
2.791796804718282930e-03
-4.290758141578482343e-02
3.861861065280954713e-02
2.620412329301660334e-02
-3.223102129027970858e-02
8.828544517242395417e-03
2.572573554763129058e-02
-4.475502415215462833e-03
-2.587661846788769093e-02
2.511671775968696285e-02
-1.598468659777596210e-02
6.520707166157631643e-03
2.662492862562391635e-02
2.139687852483244598e-02
1.290052895913131915e-02
3.344579678875404111e-02
-1.047205618108926553e-02
-2.401637733532519664e-02
-3.895482978793256973e-02
1.971961063067112149e-02
-2.416985227985753160e-02
-2.813119849315980081e-02
4.252178485084044668e-03
1.902731839055701868e-02
4.519580445348612974e-02
-1.325097271332488329e-02
2.287622224674302346e-02
4.385031141256473530e-02
2.153495525537618346e-02
-3.880913422980843651e-03
-2.406720506210587723e-02
-1.964098904447542787e-02
-3.956854830875481538e-02
-1.650204517085008399e-02
-1.183349309743253822e-02
7.919664003123147444e-03
-3.156488180681365358e-02
4.566269016907132348e-03
-4.789772003225971006e-03
-6.959573170549702113e-03
-2.817098766939331658e-02
-2.732456172371002748e-03
1.058098349501302056e-02
2.440029436027288303e-03
3.320344756431340555e-02
3.916435129368246032e-02
4.339539652578981721e-02
2.219592584094386839e-03
-8.006419564181384632e-03
-2.348233593866757077e-02
-3.207765720616497646e-02
-1.682380617871799891e-02
-1.320250957474724228e-02
-1.382136764255061968e-02
-2.608863871464633249e-02
-5.777193542193927167e-02
4.947060252740113212e-02
1.133493861157987628e-02
2.272401086429876038e-02
4.387259163390043806e-03
-3.405276676840970213e-02
3.507225486853834256e-02
-1.279631893321653106e-02
-2.757696585160891375e-02
1.096215229234708682e-02
1.987247553869773975e-02
-8.702458794977089088e-03
-2.944517919169789902e-02
4.446007739888481469e-02
-1.296150488816125504e-02
2.045670823161652510e-02
-1.306754889042606796e-02
-1.934307678890856072e-02
-1.122062264346628674e-02
-2.857387889089318413e-04
-2.256507679056411406e-02
2.190157516371465246e-02
-8.604613344837344982e-03
1.204478478997800597e-02
2.223135677730849608e-02
-3.638170744406471480e-02
3.852826622323502360e-03
-2.272039686657751495e-02
-3.328990038362873022e-02
1.714679775753351343e-02
-2.230574610651689729e-02
2.277905923606361044e-02
2.215053774494335232e-03
-1.454971629300303750e-02
-6.308582753382298465e-03
-1.192523375476697844e-02
-1.572467557341067704e-02
-2.411520451594157191e-02
-1.338035370219225334e-02
3.685090551627459988e-04
-2.326025979432786578e-02
3.933463915731101601e-02
5.030151268810589306e-03
1.783161549578080388e-02
2.826094953101260937e-02
-1.162968952874703782e-02
-1.513790317678255330e-02
-2.406063211522610837e-02
-2.828487003038878192e-02
-3.469861758922419825e-02
-1.323975220874378921e-03
-3.041503940659286490e-02
-1.418310078502746201e-02
1.068336819218287589e-02
-9.357412250407971116e-03
-2.378032426948710823e-02
4.731060092047797809e-03
-2.883780152587214762e-02
2.514443554875004511e-02
-1.238394343417757552e-02
7.724423639651186412e-03
-1.079905428881011882e-02
-3.661548789320417940e-02
1.189397028746939401e-02
3.464380919894389371e-02
3.000690359729266468e-02
-1.767319405758175505e-02
-3.578047344224907778e-02
3.425369874613920615e-04
-2.442391481460471150e-02
-6.559746050544865148e-03
3.519784894640913542e-02
