-5.337078740017128092e-02
5.380765794486033066e-02
4.684492626446211394e-02
8.887243494778782060e-02
-5.268797230483302126e-03
1.134926656818866300e-02
4.629681385077449168e-02
-7.673512090062308000e-02
-3.710924910663939563e-02
-8.573027201580382672e-02
-3.438434519952159735e-02
4.226319941029795663e-02
-2.291900801652678107e-02
4.171895184419376762e-02
-6.370098028650132693e-02
-2.418732152684294895e-02
-4.374080210389975215e-02
1.020985043866807912e-01
-1.582834612445438785e-02
-3.757393064021014722e-02
-6.153088752292803360e-02
-2.665072831413406972e-03
1.146806510844718927e-04
-1.186760755996012391e-02
-6.635211444488890720e-02
4.651163268748090968e-02
-9.915579765041193649e-02
4.033048812055665261e-02
-5.269188927656255628e-02
-8.649229766906033068e-02
1.040512161058082252e-01
-6.861494478938186259e-02
-2.939648301427673360e-02
4.135710741505926880e-02
-6.680853138263971591e-02
1.907550690308537286e-02
-6.598043741676859475e-02
7.525183108069181948e-02
-8.430066832234062862e-03
-5.906893093680885831e-02
8.911138098908842620e-02
7.530974184178372555e-02
4.036233543197947915e-02
-4.676467976406118582e-02
6.505808850563346568e-02
-3.410444144625852936e-02
7.889833567416920657e-02
-5.174461245171718682e-02
-3.432571645648813813e-02
-5.158066887471406819e-02
7.848621277233573668e-02
-1.460992406317249484e-02
-2.646379026419682159e-02
-3.913592355950228086e-02
5.933152686401369641e-02
3.463124450857147513e-02
-3.503357213196040681e-02
-8.636696803590618310e-02
-4.236388712708634950e-03
-1.655852522521336634e-02
-3.954269509414637916e-03
1.603674015896678316e-03
6.995958530361034988e-02
-1.903447574749406179e-02
-1.895025677978524892e-02
6.896903545057643352e-03
-2.832908536693126353e-02
7.288756987729018422e-02
-1.178051296038410134e-01
-8.867627984974871258e-02
-2.335535741272968396e-02
6.256801397166891765e-02
6.909562783044463641e-02
-3.044073631935305391e-02
8.112450387356319459e-02
-5.026424765231378433e-02
-7.383353421150502804e-02
3.539701843580572022e-02
-2.748984630450286917e-02
4.444351312406337462e-02
-2.968298346314695961e-03
-2.040087106012617932e-02
-1.106045842108106282e-02
3.068876161993019241e-02
-3.295372280504415413e-02
3.584322478558311931e-02
1.157556151290444618e-02
-3.003361980538879657e-04
5.200066634277385885e-02
-7.198195384840152915e-03
2.895248326329307766e-03
-2.202139969062959571e-02
8.539362431600711068e-02
2.136643415881261249e-02
5.909720723604668102e-02
9.835684914997018524e-02
6.140796599429839547e-02
-6.827349706128030271e-02
-1.789559127706226785e-02
-2.813986077217824067e-02
5.773308796344104460e-02
-6.316486388545144992e-02
4.795440345417089495e-02
2.513138449235979410e-03
-6.232253613595752778e-02
-6.303682770175432493e-02
-7.696608863153714050e-03
-7.075748170293620631e-02
-8.869616250243088362e-02
7.813252901157444197e-02
2.717270986819712505e-02
-6.359175813944317746e-02
-7.811915617103251663e-02
-8.864113489282034186e-02
1.618204490598736806e-02
-2.602717317636238977e-03
2.517569323003649752e-03
-5.179104814351313119e-02
-2.883585454666444392e-02
-4.813580221500825956e-02
8.923817076901857659e-02
2.212973134770711628e-02
-6.789054645772814311e-02
3.961890597080130333e-02
3.335332867735662371e-02
6.717197612427322495e-02
-6.702503446445506885e-02
-8.091472987921304039e-02
-8.929251684619952945e-02
4.875494259367308195e-03
-8.678796738602376215e-02
-5.722277883331020748e-02
2.773571061971545279e-02
-6.325740447273586753e-02
-8.142923998702795985e-02
-1.152697788662521497e-02
1.815649659111149075e-02
7.911171139095461713e-02
-8.695541558835119533e-02
4.901981203365912004e-02
5.213870793970101086e-02
-9.431630194734690054e-02
-6.415126175253296759e-02
-6.660271289448621568e-02
-3.562767872739402986e-02
3.158203922569649547e-02
3.509152759636949281e-02
4.556634871052919061e-02
-4.844846603948444602e-02
-8.769492221576584423e-02
-9.047683101287781748e-02
5.733248897988344611e-02
-7.135955308038285927e-02
-1.659044726501118436e-02
7.693990685610624380e-02
-6.187584962201395089e-02
6.682170273617711598e-02
1.046655844507756936e-02
3.454734947003574447e-02
3.430638202036376955e-02
8.790664755323711679e-03
7.274704145559623969e-02
6.855978615706234680e-02
1.624157479207869598e-02
1.715717413173954969e-03
-2.197914014123096560e-02
2.255737485212919516e-02
4.503267135352295031e-02
6.442548694622943564e-03
-3.877962181084348287e-02
4.296176941874651697e-03
-9.672151871544013013e-02
-8.751611649316090591e-02
6.072788115321015728e-02
-6.266040387827158387e-02
-7.580403863741522197e-02
5.789476807265034330e-02
2.318356250794203349e-02
5.848636961828872216e-02
6.256995934749018384e-02
5.860888820276526079e-02
5.100845782071901369e-02
5.092079868240562135e-02
5.065497232270377292e-02
-3.814168755567268893e-02
-3.332752534638711711e-02
4.955057982657513210e-02
-2.555253049691321929e-02
-4.633144497286704327e-02
-9.321810912781844718e-03
-4.477805773882161111e-02
5.267040862534574930e-02
1.089919726295055825e-02
-5.172383461973682067e-02
8.455983407559974907e-02
-8.016934496735718396e-02
-1.296709195132030902e-02
-3.959245386258055527e-02
-6.146131512748260334e-02
5.987291724432147744e-02
-3.196151403304025446e-02
-1.934821585708040859e-02
1.463551549276881705e-02
-6.483385647627808168e-02
5.081108786643872416e-02
-7.987844597376445033e-02
8.971993781992634864e-02
-3.055747641556247687e-02
6.997656800067643401e-02
-5.559719242227355307e-02
-3.808484140978589394e-02
2.095469857636476224e-02
7.091769411986359462e-02
1.855024160533646008e-02
2.532520589723382537e-02
5.742157731391694248e-02
3.076789841274841023e-02
-4.165125257882375948e-02
4.161989097161172824e-02
1.160524663409140747e-02
8.577909233048484905e-02
-3.042933932103281114e-02
-7.399739578017565378e-02
1.731080969827047088e-03
5.150878570376524884e-02
1.902695233449744686e-02
-1.681595296435265535e-02
1.360847436666940205e-02
3.364566794203645989e-02
4.248674556203023422e-02
6.069846694156524891e-02
-3.951523179325536206e-02
7.954559615346391832e-02
-3.523116451864934801e-02
2.415831513344846027e-02
-8.780919846490073399e-02
2.325165704602429051e-02
8.861542347098086414e-02
-6.645269298306959171e-02
5.041891644942252115e-02
-6.027093129470501714e-02
6.138551452615561427e-02
9.970498350186104974e-02
8.797003450400698362e-04
-8.790067735484510814e-02
1.946578798268044919e-02
2.814115237558678650e-02
-7.318120080505677305e-02
7.142854659993662370e-02
-3.128095488795853193e-03
-2.640221857765142136e-02
7.342433775749136748e-02
-5.308659563394408504e-02
-6.129778670069694832e-03
-3.407881851545897789e-02
7.632401598711284485e-02
7.910422097009248144e-02
-4.592182322269910966e-02
4.179138866743161568e-02
4.695702093493293872e-02
-6.781990219047716317e-02
-2.950787439937339884e-03
3.371498451333122814e-02
3.232829257963538289e-02
2.177349598440365963e-02
-7.126375647066909846e-02
1.281808345220497754e-02
-8.094918473919546220e-02
9.044264078823975594e-02
2.854738384104171540e-03
6.981824602070188512e-02
6.188155389160065328e-02
-6.878564113409629116e-03
3.555333434983578168e-03
-8.913222817172368473e-02
6.711359830589826159e-02
1.428457914009063044e-02
6.469533205482479177e-02
-9.016168560029946821e-02
7.281078623230571867e-02
-1.032838105520108712e-01
-8.177320895379999732e-02
6.280590290733811809e-02
6.046463783850084678e-02
1.990156079220817970e-02
2.846714311722201365e-02
-5.317273467507316331e-02
-3.935074825578017965e-02
5.351607372434451226e-02
8.150366508638258456e-02
8.002571419504457551e-02
8.774709873118793912e-02
4.319279397670702098e-02
5.301299646882119687e-02
5.943281889207401025e-02
-6.118788311286019535e-03
6.394480943875667511e-02
9.508586543684972858e-02
-7.824244858178371065e-02
-8.354318211613443249e-03
5.170641357587928144e-02
4.319471967685909776e-03
-2.269010691929617546e-02
6.535344412824427296e-02
-6.099215309846905964e-02
8.404533176311809739e-02
2.254516211694875677e-02
-2.427986624845030611e-02
3.005025218130974451e-02
-8.567541613228916997e-02
7.788771762731135084e-02
-6.432378389362221338e-02
7.358554821148398373e-02
5.877690340476738468e-02
-4.235661077868885238e-02
7.883873854840536821e-02
4.678700372390651348e-03
8.599905476945134131e-02
1.129961208563505688e-02
-8.438285542672330219e-02
8.373767060811038165e-02
-8.612941673632640294e-02
7.522853223108676157e-02
-4.810409622159596277e-03
3.972697361443010278e-02
-1.366565857634061782e-03
-4.923909809057765846e-02
2.761211426651918877e-02
7.165764399887195046e-02
-2.126727727467220275e-02
-6.055856667017028155e-02
5.707612488309130039e-03
-7.604462424457197889e-02
2.159772142557539465e-02
-3.163032004210604431e-02
3.380455255187052310e-02
1.617008467563816471e-02
8.333034918792754653e-02
-4.173000083122029025e-02
8.872442074555569880e-02
1.109771432510371983e-02
-9.780637869958364039e-02
6.688307022622773379e-02
-3.256377099776937983e-02
-8.764128967820902782e-02
-5.650352391248759931e-02
9.229628859501828875e-02
-8.410442130701589747e-02
-3.993078952992753367e-02
-7.430334555322505585e-02
4.006750733646310958e-02
-7.695670991425375418e-02
-7.350639004807114907e-02
3.094557058598785063e-02
-6.960793661679287592e-02
-1.113248366575907838e-02
-7.083156092010592375e-02
9.932782259713972273e-02
-7.433182152768913475e-02
3.572365523218105215e-02
1.082388464073072154e-01
2.698634796801023181e-02
5.702171814832697472e-02
-1.104541652978689031e-02
-5.524959158460277658e-02
-5.099488495127391108e-02
-1.178398583387668024e-03
2.214002569797951861e-02
2.576038782417503989e-02
-3.056261808230631427e-02
1.713759853239549269e-02
-7.552703719331092802e-02
2.635270841452085067e-02
2.363323626934349039e-02
-1.471455816692147922e-02
-7.294139260387459689e-02
-4.399734473477416585e-02
5.096428123337708171e-02
-8.823469277335436317e-03
8.072251213448521784e-03
-6.721892725265657398e-02
3.682061685709308446e-02
-3.908061339603040307e-02
-8.511856315995189326e-02
7.060478178124246496e-02
5.401341251681409522e-02
8.545440453211901322e-02
1.320338357408640945e-02
8.145814205985376462e-04
-5.508314508272398741e-02
6.350343819542611512e-02
-6.524353056451927257e-02
-1.772788755332463384e-02
-4.731343423493276218e-02
-8.557517343998491399e-02
4.088458142697295322e-02
-4.506604935384634497e-02
4.561963488677375084e-02
6.841888290077625945e-02
1.560843648874777299e-02
5.219490474687484005e-02
8.332642590177043174e-02
8.542349048712047366e-02
-2.788491192653748396e-02
-6.108170088847317963e-02
-1.052879590614133089e-02
7.295206460106126722e-02
9.930964232412758941e-02
-6.872922578174999256e-04
-1.029040167880898166e-01
2.992724851698615879e-02
-7.056786755245636478e-02
1.682329437572657738e-02
-2.067462963649054422e-02
2.857023348191747338e-03
4.598097551724758536e-03
8.986917675159541985e-02
3.547821409094607803e-02
7.803437960625779490e-02
2.249939518098402480e-02
5.470202847103420446e-02
7.331273730035525217e-03
-7.125026560385287755e-02
-5.227004468711679563e-02
-7.302572690071428008e-02
-5.308638370450492402e-03
-4.944175583164910764e-02
1.911233764072902200e-02
2.153500427565587308e-02
-3.162034897018457975e-03
4.163309317006656796e-02
2.494896322599617425e-02
-6.849651800192780096e-03
6.345552066989110229e-02
-4.721519429802104040e-02
-7.557957452652074026e-02
1.268468510072993244e-02
3.685245681693053582e-02
5.069349901067330029e-03
-8.050076173195558349e-02
3.044603349863975530e-02
-2.231610227011687764e-02
4.709657976114180189e-02
-1.067503699491646578e-02
-1.822264509497327012e-03
7.459763242205634526e-02
-5.085389746781498674e-03
-5.618851021210448382e-02
-3.375484521251397030e-02
8.323379832493009445e-02
-3.819421785643508510e-02
7.672211214172526550e-02
-6.044482736568035364e-02
-4.883098366543545815e-02
-6.378443368594149954e-02
5.774867425858401515e-02
4.744546353986579812e-02
1.024414507581791756e-01
4.869951818048261910e-02
-5.158440924284836415e-02
2.490171721588470245e-05
2.295548524620849573e-02
2.155690436908028890e-02
-6.013934537019523935e-02
3.484434638052923833e-02
9.675213206066462721e-03
-2.654869155935309782e-02
2.112546938472499580e-02
-2.519615116486813300e-02
5.391626566367646589e-02
-1.439330913795563820e-02
-1.722730336518617233e-02
-3.307440451564606226e-02
2.717222709776846018e-02
-6.672611828480407015e-02
5.138798402941852778e-02
3.264272157809025576e-02
-4.801901060953218947e-02
-3.422969439650128815e-02
3.481185476811932827e-02
3.572426701454979592e-02
3.597011987603908334e-02
-3.251430130254392287e-02
5.675952447079835039e-02
-4.791959535676454385e-02
-2.487594637762572530e-02
5.317943582732802439e-03
-7.090379074888483735e-02
3.331713485119323914e-02
-5.288421093003513318e-02
-2.895340577621553432e-02
-4.217722964036017819e-02
-3.421598279674743781e-02
3.271294402292498904e-02
6.538629065043823074e-02
-8.764847800256189703e-02
1.341853873718708637e-02
-6.927649450993718372e-02
4.831370497290975174e-02
9.997460727362390831e-02
1.044679569945280127e-02
2.328809392259690702e-03
-7.078723024437735822e-02
7.102806652742699178e-02
-1.183209164614638410e-02
-5.296310537931133572e-02
7.532428238786209596e-02
8.398140603935556892e-02
2.732057812480975095e-02
3.888813531923000083e-02
4.729221788724533720e-02
-5.050256052615950675e-02
-3.681207781150778319e-02
4.698454001772376515e-02
-5.101709227259222657e-02
-4.618489115422871188e-02
6.548684290213517556e-02
-2.486889795735891528e-02
7.936321220325751047e-02
7.115217515537849979e-02
1.063101302716585976e-02
2.532542109410248696e-02
-6.954955404890453274e-02
-6.136177030164167989e-02
-1.702165233665134739e-02
-4.447322792397359614e-02
-5.349010791468940262e-02
8.889533924686596200e-02
-7.446452780883730527e-02
3.805084667685144223e-02
-7.306322688661182410e-03
6.950926257566726607e-02
-1.050308888631279816e-02
-7.684873692773565301e-02
8.393069616055709448e-02
4.916473276293364253e-02
-8.486942514264396442e-02
6.022837341899160007e-02
1.038149102565273929e-01
5.860022916835898321e-02
-2.455205897071917852e-03
3.121017771966116613e-02
-4.233251303755673073e-02
-8.516755022392535901e-02
9.665462550752904058e-02
-6.696849996928430637e-02
-8.991151356926185834e-02
-2.791931730404327225e-02
3.499204018873233041e-02
-5.622283817280304685e-02
1.459977205269807378e-02
-1.117126851336112808e-01
8.629867776459654305e-02
8.425818475286810105e-02
2.318289616003000805e-02
8.061512631849972188e-02
2.328524488619561350e-02
9.083822313002578794e-03
3.431710706846927139e-02
-2.291754275837094845e-02
9.459442031358919478e-02
3.500446307217337794e-02
-4.971682057034514796e-02
1.455218755467832699e-02
4.520145776498925988e-02
8.110903402504093807e-02
5.091479870162617105e-02
6.443226576249641568e-02
-6.211973569554921082e-02
1.319518444469972886e-02
-6.263639124981820738e-02
-2.429632188496758712e-03
-5.908190276982579897e-02
1.292727116339715057e-02
7.067903913856725395e-02
-6.781177606417211623e-02
-1.162577496478645403e-02
9.535550100356038339e-02
-4.352735669144743719e-02
3.137878790522542066e-02
-8.166421856673806989e-02
-3.901835753399277018e-02
2.012286240481681726e-02
-8.550587793511418150e-03
6.322105982350614828e-02
-6.866760467795933465e-02
6.093785311617531952e-02
1.893646178007485359e-02
1.033985754135791357e-01
-5.446553775314606771e-02
-3.425992321537586760e-02
-8.877467194113898563e-02
5.735829960262073257e-02
-5.015248365458563340e-02
7.133242877491180467e-02
-3.684691021225736107e-02
7.928024098513264048e-03
-7.538101704076791143e-02
8.416428355571528921e-03
-1.028686576147400389e-01
4.887043015370990534e-02
5.280253447293829089e-02
-1.440422249156912693e-02
-1.745040678878813020e-02
-8.589268221138331161e-02
-7.904196741486181621e-02
5.744887059487568948e-02
7.663688541521174180e-02
3.763777061425858245e-02
-7.980435550800922540e-02
9.840645003016179615e-03
2.660053634144649015e-02
-2.600248128229258604e-02
-8.353832179633741140e-02
6.626955641681399334e-02
-9.938280470513779705e-03
-9.082214759330162202e-02
-1.170694988205586533e-02
1.509167614148906184e-02
-4.929220113151032423e-02
-7.470814475150144851e-02
3.845533834261583017e-02
-6.031741940458804768e-03
4.250705695471808376e-02
-8.560601745788922953e-03
4.356340317785027672e-02
7.645237761248661890e-02
6.137504465191282593e-02
3.073631927854419618e-02
-1.379656270869308865e-02
-3.181766577206129182e-02
-5.100212793988552484e-02
-7.670674576255508137e-02
7.738117402852694171e-02
4.039153847137842701e-02
1.198738253286450815e-03
-2.438499062469652937e-02
2.893471152767021493e-02
6.896018140013965292e-02
1.429994867177911480e-03
-6.623055406267125411e-02
-7.291129550556409156e-02
1.746734185192446928e-02
2.288180105699131814e-02
5.164179257116192912e-02
-6.019520881942057138e-03
-1.475133081837654882e-02
-7.308079290079284862e-02
-6.320556590571688171e-02
-6.863781553532954938e-03
2.422709513612571891e-02
-8.794808742184061223e-02
-7.425806653587097711e-03
3.461379822597239475e-02
5.676122554839627826e-02
-6.171663612069985122e-02
7.572064647115035740e-02
3.841712397017729708e-02
-5.503870923383938352e-02
-6.362271823859828868e-02
-7.050252963329149691e-02
5.593778455171676683e-02
4.251128910585156434e-02
2.325364534495437396e-02
-2.024111708264520609e-02
-4.006369365684093325e-03
9.035218626878978310e-02
-4.022070350154164503e-02
-5.118924863127436581e-02
7.509227259065745681e-03
5.966528084803272847e-02
2.925308240892952535e-02
-9.373313118166631819e-02
1.182394809073803767e-02
-8.941440505273032247e-02
-7.951360761219579409e-02
4.661276722944707879e-02
-3.184141892024001941e-02
7.393536134595583842e-02
-7.858492029580665950e-02
6.695563460425629776e-02
-8.907801172498992781e-02
-5.463534368023433702e-02
7.571426072319518974e-02
8.322812774771698452e-02
-5.122774766109596846e-04
9.640473539147291493e-02
3.423098532118609705e-02
-7.241795227014166669e-02
1.407153624457586211e-02
3.734869303280086844e-02
-2.833704850908943390e-02
-6.399823344779423384e-02
-2.641649227791462509e-02
3.728411044160945351e-03
-4.330529718255035632e-02
-3.676349773005641031e-02
-5.778398549375942522e-02
7.329191077381699837e-02
3.357435723865570976e-03
4.574690208914985318e-03
-5.068391573626989527e-02
9.125424712564253471e-02
-5.968155855308136110e-02
7.200566754919690560e-02
7.237243395584873860e-03
5.862633202128539334e-02
9.154883308826992916e-02
-4.504869545434353473e-02
-7.890571992153258551e-02
5.093137106613664089e-02
-5.921887294411058711e-02
9.032388700917169666e-02
-9.349836700893453256e-02
-6.370610471082303883e-02
-7.327572163849312148e-02
-1.018698859523049505e-01
-2.709310610390450874e-02
-2.967681879838506530e-03
-5.748069818346418502e-02
7.208978745271242723e-03
-5.497769880012016303e-02
-7.332220650716009258e-02
-7.964555398392091090e-02
-4.295971128525942484e-02
-6.888037676935342135e-02
-1.788714854352374539e-02
-5.126044478391827974e-02
2.498960022804190551e-02
-9.132453681150390010e-03
-3.390817274812560345e-02
8.333153028714475330e-02
-8.952678738720213844e-03
4.289300845296949161e-02
-1.502312796165913367e-03
-5.094405423871872091e-02
2.195315310246546622e-02
7.031496085005013719e-02
9.544330422770534728e-02
-1.396121461779999649e-02
7.929932774874004497e-02
4.430094733940697499e-02
2.049761015775738299e-02
-2.792703827404697040e-02
7.041297382142999717e-02
9.870139979013953235e-02
6.172235930516804803e-02
4.875538262978969251e-02
-6.895576778425002717e-02
-4.259730166188404471e-02
-3.865807995140566056e-02
3.747183866102825334e-02
-7.110251664606170863e-02
-6.863138652580065037e-03
-5.942469660688177308e-02
6.752834170318786078e-02
-4.766011579922286440e-02
1.300164955487391645e-02
8.950216975365195282e-02
2.780591676489936256e-02
-4.476604957051417283e-02
4.109270152863364611e-02
8.548848222436182531e-02
1.497639007053599806e-02
-5.127448854426739505e-02
-3.937044418845708077e-02
-5.969055066967202854e-04
4.579768452254879933e-03
8.371305824296734754e-02
6.464670218998490314e-02
7.749880399440774170e-02
-5.843460640628724695e-02
1.407226112624442894e-02
8.071879998083915375e-02
-3.109749685666638591e-02
6.278385238612747832e-02
7.713085863867547021e-02
2.833315262496427858e-02
4.791507501294335614e-02
8.016961552470323882e-02
6.337511790398558942e-02
-4.333170982286127515e-02
3.398418935783333039e-02
-6.284677906412582116e-02
