-1.038304444115501456e-02
6.850723934336155896e-02
9.845525058346565883e-02
-5.463497534828357094e-02
-4.915865414483691631e-02
-9.441262746817880025e-02
-5.300107742628665936e-02
-4.723366735712044434e-02
-4.614873693244975206e-02
-7.462831789170289165e-02
-3.326322869740380023e-02
-7.460264884450733269e-02
-6.598835258637104906e-02
5.460464134327515373e-02
-3.907739799351972465e-02
1.338745716035599602e-02
6.927294672427312949e-02
2.330075390652359274e-02
-9.482997192600855357e-03
6.405116046331889301e-02
6.830212907371406572e-02
-2.090866424017395059e-02
6.214194292256413482e-02
-6.274954991095956077e-04
4.336820751179414762e-02
-5.151773126134913394e-02
-2.737464364821562066e-02
-3.705692762511402644e-02
4.080549071513759479e-02
3.280681842687846461e-02
4.499740768770173899e-02
-1.488524061486209971e-02
-6.982363406206622269e-02
7.302055130233522755e-03
6.900822219615142250e-02
7.554914354156760936e-02
-3.882467989156145050e-02
-5.911220480533883187e-02
7.111442160593750561e-02
-2.948756682028070772e-02
5.490595451587397535e-02
-6.854478064083853461e-02
-9.982063481870345062e-03
8.135431862226132071e-02
1.909707178895882901e-02
1.707800957972379491e-02
5.639354937271581769e-02
-8.735645101620271441e-03
1.196603768413899080e-02
-5.209149293101948686e-02
6.330491501403208432e-02
-2.047393729763952869e-02
-5.639397389050028464e-02
-6.542449916090509188e-02
-3.695087652132612865e-02
-9.259266894636418443e-02
4.684635470196402834e-02
7.975772291703897565e-02
-4.478646392341994326e-02
6.253536158517711621e-03
2.765091199627916357e-02
1.699159697736619956e-02
-2.180026275543500355e-02
3.757560011247289972e-02
-7.785865000393586699e-02
4.463070484222970979e-02
-2.632051989747597256e-02
4.394751021291075366e-02
-4.051333966453109225e-02
1.483412555184369323e-03
-3.358041369744164950e-02
4.491029784779420470e-02
-3.560219786196237163e-02
-7.640215690110574442e-02
-7.190070059709786909e-02
4.643417916577492061e-02
-8.477343509942314448e-02
-2.757528242422560560e-02
-7.380244313839777470e-02
-2.833537009908101284e-02
2.233723040779814206e-02
-5.692143428645141806e-02
-2.855176351212602992e-02
-1.490005101094657620e-02
-5.861932417082469510e-02
2.911325893553137409e-02
-6.467003986498535972e-02
-2.061861710213628435e-02
7.264625746666229789e-02
5.212465321862524981e-02
3.001828640776986121e-02
-4.662249872491656261e-02
4.181615496630271267e-02
7.289000551194174671e-02
7.100355187827307735e-02
-8.759711165698400026e-02
-8.011534676193149407e-02
5.282318864251780988e-02
-3.948976013405950530e-02
-1.830548727008776341e-02
-2.113593576374705671e-02
2.016479506194642033e-03
-2.445068555399786472e-02
9.209822471424762569e-02
1.167897344147159067e-02
6.063348841716217907e-02
-9.005676525501399299e-02
4.847881512907942919e-02
-3.106106352805748649e-02
-1.511512466130414574e-02
-9.080729236140011595e-02
-6.689198589464263878e-02
-7.011330642602732477e-02
-4.885057427895336118e-02
-4.452195870001290218e-02
-8.632406892080328464e-02
-2.235820048292761625e-02
-2.469907525000766477e-02
3.468522844462958860e-02
8.188657735833700102e-02
-2.527340327350195009e-03
-5.361421109477923497e-02
4.321483524378529062e-02
-8.604428794407921466e-02
-3.867312480833338256e-02
-8.030316822426013246e-02
5.099913857049075822e-02
-3.289403383265114555e-02
-4.232240913969513747e-03
1.167648795252738091e-02
-3.179383858565621584e-02
-4.049540075028777025e-02
5.426836432533527210e-02
-4.211121841792923176e-02
-5.426884027603948862e-02
-3.668240410599400009e-02
-3.585003994663511079e-03
4.967863574022480903e-03
4.440395779150898420e-02
-6.054042984434458013e-02
1.874920977678718598e-02
-6.146898419480636283e-02
2.381426089790220774e-02
-5.285288048141108252e-02
-3.808001841781863406e-02
1.765940931333261771e-02
3.264885346601884009e-02
-6.861032039803695304e-02
-1.057489460349200251e-02
5.179886489804461092e-02
7.523222994560838095e-02
-4.608486272017298623e-03
-8.369947547061726278e-02
3.718649087872413078e-02
-2.420297002986405294e-02
-2.253422086605913997e-03
3.422431991399962903e-02
7.435950905180217785e-02
-5.140371534887487603e-02
7.095879598482243700e-02
-7.259851302754731332e-03
2.088948748433513275e-02
5.644302059355808115e-02
5.864234100211321299e-02
-7.748000767051148839e-03
3.193248583891763331e-02
-7.042095884702122277e-02
-4.218286467655326527e-02
1.346736388535046437e-02
-1.511409441916897536e-02
-3.737286814886051772e-02
-1.544063046908876295e-02
-5.913900232291640496e-02
-6.353643682173400198e-02
-6.316001668872399388e-02
4.927249321219140388e-02
-3.920459784332060854e-02
-4.512675965849232557e-02
-2.976727906435121598e-02
1.823609114359124291e-03
-8.311097106192620598e-02
-7.642805105377309394e-02
-6.925159971061008168e-02
-7.163049529542557699e-03
1.008779161118439349e-02
3.438481960960284439e-02
-2.241022163013198232e-02
3.695880758429855029e-02
1.400595096951379789e-03
6.080638880826268883e-02
-7.156411425713561647e-02
-5.711076493965466794e-02
9.932865069287366566e-02
1.566572908257022820e-02
-5.232605788953699488e-02
2.310135009959417285e-02
6.205678779175215903e-02
-2.044330029244188773e-02
1.117307379847386900e-02
-5.794687270395072060e-02
2.435329788296941578e-02
7.899199412269275120e-03
8.458300465110962785e-02
7.809767693582121695e-02
6.816695393267543923e-02
-7.321706358418079985e-02
4.063477953748332455e-02
7.373670569115292617e-02
3.410660612717904272e-02
9.663624608860647835e-02
-7.236389684757944807e-02
-7.663948376953867714e-02
-7.640775013287942619e-02
9.013894428898232281e-02
-9.664697372265866615e-02
-5.627573312743468920e-02
-2.663024308653491948e-02
5.483288120639841223e-02
-6.460400481895606228e-02
-6.303199191852795757e-02
-8.858114747726697491e-02
-6.619616694751290220e-02
-1.967220910246298901e-02
7.857563844936878844e-03
9.145846778059867066e-02
-5.156665694996226401e-02
1.147738148943393439e-02
2.629105890355881107e-03
-2.815075219564138354e-03
-3.356255237049392270e-02
-6.989166754268499870e-02
1.366372795915106464e-02
7.583526421408420815e-02
7.978012238933075706e-02
4.401673783284900526e-03
3.502168629760371577e-02
-7.707935691361333941e-02
-3.116581412721016603e-02
5.341355512123160260e-02
-5.166923770828497908e-02
2.850748120379649475e-02
1.129814023122371718e-02
-2.071489642911743603e-02
-4.085489161049873919e-02
3.278871168638561318e-02
4.770034007853406893e-02
-8.661704642731136994e-02
-9.515582545159025421e-03
-7.751096429738674187e-02
2.810537470583464661e-02
-5.624504791272537732e-03
-9.473292072361989835e-02
2.972080196868357935e-02
-3.189201992179994255e-02
3.324346050408760050e-02
-3.218474129975049808e-02
3.650160909767973666e-02
-7.074040980474194384e-02
6.838997970920890346e-02
3.377752991721941211e-02
6.295363088838476506e-02
4.333595551357235370e-02
7.413916868086727063e-02
7.920649778408960645e-03
4.169961370973566256e-02
-4.433824132141544333e-02
2.955591580608046484e-02
5.317538025830125664e-02
-9.624132331635398829e-02
-1.134299441803389083e-02
-5.539415943607341186e-02
1.113965588242257429e-02
-7.666115950674942670e-02
-2.157361215770533386e-02
-2.865162245522214282e-02
-8.347405859433788822e-02
-6.060931286853320915e-02
2.423714585417358069e-02
6.522412406672759011e-02
6.036938176268410311e-02
-3.470311918597005635e-02
1.444523837292899064e-02
3.071375517395519283e-02
-8.625964618669261508e-03
4.081486098783593253e-02
-7.572803788694304483e-02
4.094368006551856592e-02
5.321496570997315267e-02
5.063558253498581796e-02
-7.497640672967872955e-02
8.620086695379973116e-03
-2.056704991302663044e-02
-8.908142734690484852e-05
-8.786059863062083142e-02
3.749048886151735375e-04
-9.375958792421212884e-02
2.413346221170136613e-02
-7.679976734632702751e-02
2.608267317478820194e-02
7.857297783055361418e-02
-4.920037910561082112e-02
-3.866326642129279401e-02
-1.465410127200052030e-02
4.097451375676983143e-02
1.650400662025471379e-02
-9.376536780423856687e-02
-6.600345776467569925e-02
6.456461399478827246e-02
4.316615591327278845e-02
3.300388093604171569e-02
4.496544264801016072e-02
7.846426608492619234e-03
-1.697953162711645161e-02
8.149118759741640072e-02
1.430147372544488329e-02
3.153146001154844696e-02
-6.195533855947369002e-03
6.921937715470480312e-02
5.978305472240751095e-02
6.475219229652483255e-02
1.909186901238432363e-02
1.890552855750144215e-02
7.223137782945493468e-02
-4.326154320630812289e-02
4.227911003495998625e-03
-3.450083533264924895e-02
-8.785633055017086357e-02
5.660420954536701799e-02
-3.580743064522994706e-02
-4.165614209680010283e-02
3.183505400151328407e-02
-7.715308459006396669e-02
3.048243880881203530e-02
-8.507754441329856698e-02
4.076032005739588238e-02
1.804782632914478380e-02
-2.478072567703742610e-02
-6.932500164445087876e-02
3.996231815612331928e-02
6.081459401746674293e-02
6.589307584502421267e-02
3.821282055201549038e-02
2.507897593979147716e-02
4.852019226711275918e-02
2.582886966778141433e-03
-7.368700585565199357e-02
6.911980646460356981e-02
5.150904888007963589e-02
1.716517252253788733e-02
-7.381619981114775214e-03
7.018273101347688447e-02
-6.009967103915412473e-02
2.488740571892277334e-02
-5.681826704651244536e-03
1.053523818776297416e-01
-5.645915581783753079e-02
-6.955094866024154332e-02
5.674179781932462557e-02
-1.217691453679270973e-02
6.358897106983796288e-02
-6.299073454765101443e-02
5.491998068509134495e-02
4.367645261095105119e-02
7.987045011495662317e-02
-8.259942147687033762e-03
-7.364517980206189418e-02
-1.467653518364762759e-02
5.005143193916414962e-02
3.966948850012244621e-02
-5.798441337449149191e-02
-1.321734710157551791e-02
6.203836208810539071e-02
5.030291914743387043e-03
5.001121201397153854e-02
-3.831774972097603399e-02
3.184534616902629390e-03
3.087297624946144792e-02
8.098083727844238022e-02
-6.743448148529995745e-02
7.485582570759514998e-02
2.608434836786775735e-02
-2.647130948508347528e-02
2.729764966251036189e-03
-4.404339055637743064e-04
4.506555732780989296e-03
-3.869412892200863041e-02
6.466612067848784284e-02
3.543779847611926853e-02
-6.570718079550441626e-02
-4.005094760388402952e-02
3.192355610354852269e-02
3.620301876787940937e-02
7.797724608164445514e-02
-8.307153101101517889e-02
2.879231047154197365e-02
2.474156228636593263e-02
2.378359688366271998e-02
-1.858739207299893448e-02
-7.968307658471934785e-02
8.281793947677103251e-02
4.560523187531165951e-02
7.488496013959194952e-02
4.472536857089991907e-03
7.915763312461437939e-02
-6.216207281859704309e-02
7.562434190747423235e-02
6.149767558180897764e-02
1.818567333209185691e-02
-1.533172136913883883e-02
9.466016919375668318e-03
8.287704059060138628e-03
-5.595320482505212328e-02
-1.338897010825218677e-02
-5.660395604419801024e-02
1.950305753898388256e-02
-3.447916778950599337e-02
-6.984968600354399260e-02
5.264737012432234298e-02
-4.273585426406135979e-03
1.511354363456746119e-02
-6.073292980536328101e-02
-5.895453040018607677e-02
-3.323506008626620628e-02
9.384010891332573642e-04
-1.312367082933698845e-02
3.423425833167516308e-02
4.455136292698045480e-02
4.927635009073464550e-02
2.562362768025968837e-02
1.743776241426512469e-02
-6.313217463754138004e-02
-3.252129668341117302e-02
-3.106035331508742031e-02
4.273403995242332221e-02
2.469076128469717760e-02
-1.527692431578806485e-02
-4.326372636931324900e-02
-2.666262247636886837e-02
-6.878008728318173171e-02
4.038082040876887768e-02
-2.114138984286718578e-02
-6.592376596624384411e-02
4.159562845769085998e-02
-6.232932866714852721e-02
-7.013323637200143124e-02
6.405347859549931702e-03
-2.273147142862708484e-02
4.867708965414188627e-02
-7.082746163854554411e-02
-4.418626924983994064e-02
5.352268505504339385e-02
4.401748018627495845e-02
6.854714664102839160e-03
3.948924318843360926e-02
-5.106191780084133602e-02
-5.047722475527365027e-02
3.030949520751840057e-02
-2.628755403660206283e-02
-2.891141021123395938e-02
-3.048272648987183919e-02
5.379359929304645266e-02
5.348526423275930947e-02
3.358557712690246957e-03
-7.566307603435674933e-02
7.236755115747198208e-02
-2.098208905032042382e-02
7.839144427840138984e-02
-5.842909874709169282e-02
5.866683970804289355e-02
-1.370872894220494242e-02
-6.524405443227633550e-02
4.360210023571724908e-02
-6.176689713258305681e-02
-8.798439218723970445e-02
-3.756333423856408893e-02
-2.111967142262043129e-02
1.972363923995303775e-02
-5.160967506858771259e-02
4.830123937733858674e-02
7.689881150059862946e-02
5.859202789021102781e-02
4.834841038676933322e-02
7.289740764781788007e-02
-6.612095225308241286e-02
2.576040991241229303e-02
7.137208945559304907e-02
7.370871282459297291e-02
-6.064106967421196287e-02
7.554739062224247875e-03
3.107549367409614960e-02
6.263970739504538809e-02
4.607474823579689460e-02
2.674536240625388292e-02
-6.821225150020931993e-02
7.635732290645051712e-02
2.316025971390256455e-02
6.073921887935301162e-02
7.133664576725369522e-02
6.463231449328672197e-03
-1.514636620031906654e-02
-6.175435303847534585e-02
-3.257166868487096356e-02
6.507842904778053661e-02
1.059305161004561908e-02
-2.437555843867678963e-03
-2.288657780332954347e-02
4.903898199341592129e-02
-1.400601307135156300e-03
-7.753277773671107820e-02
6.099017887929660681e-02
7.954931153553668199e-02
6.240065495034233245e-02
3.461248359645521799e-02
-8.700005045565621653e-02
-2.410105922686591601e-02
-7.490134047945724849e-02
5.359304385422055533e-02
1.615243626584461287e-02
-6.404361450725792881e-02
8.212896495136508268e-02
3.509398267830127899e-02
-2.797317187981976719e-02
-8.488533051647752237e-02
7.769863779090718792e-02
8.587715756118684263e-02
-3.209144210511952894e-02
5.698446754785322504e-02
-5.014193745589847623e-02
-8.526670831248206461e-02
2.336804420253828229e-02
-5.606156075047868254e-02
5.333460181187513194e-02
-8.508585439284396812e-02
-7.949719939383656508e-02
4.486611560589844755e-02
-5.408718533857000133e-02
-4.985402211271480755e-02
-3.739098215396433056e-02
-3.036732225026562634e-02
-3.138494995326002179e-02
1.280829177295821249e-02
-1.072655436161238166e-02
2.780196798165812319e-02
2.876722411146363442e-02
2.415177343056615009e-02
1.438657776806006802e-02
-2.022628896292284068e-02
6.901879817137186734e-02
-6.739834571370546812e-02
3.945787174651412682e-02
4.597438949652467299e-02
6.448990957743461205e-02
4.996041440399232383e-03
-1.914099524866400004e-02
7.265503190743194395e-02
-3.657157959832714467e-02
9.045232168327392575e-02
6.438807011235077316e-02
7.687103803972798743e-03
-5.071073647545887991e-02
-4.135103714965025073e-02
-7.850791938337953191e-02
2.126872384343769795e-02
1.899038381796826908e-02
-6.776990206039304465e-02
-9.074975638948779011e-02
3.002771291885721755e-02
4.591901023771212398e-02
-8.082757587079637818e-02
1.101228957782561350e-02
7.686353228901880719e-02
-5.850134738558985387e-02
-1.632806583454712163e-02
-4.717204341853709071e-02
1.874889742930072045e-02
2.586639008812903484e-02
3.903026842167331423e-02
1.402638995970497023e-02
5.386321098013546749e-02
-5.099969091859948844e-02
-6.892091716338862029e-02
-1.636617116004684264e-02
-3.059969101155824919e-02
-1.541079656825935715e-02
5.484910520925846689e-02
3.465778328154286991e-02
1.053299120731381218e-03
4.747137433633980691e-02
-5.440809724035641087e-02
3.740627903298225643e-02
-7.887792293992591797e-02
-4.478226254388536359e-03
6.846819300006078655e-03
-8.533642999419548125e-02
-8.171485903813818091e-03
3.652432524869031472e-02
3.177655454291634929e-02
-4.467530562273992756e-02
3.417502960884342966e-02
-3.512684960072575552e-03
4.708235374552703634e-02
3.689922926825958682e-02
-3.092673591085662657e-02
-3.269129351687604518e-02
4.684182101154408390e-02
-8.271792125569196741e-02
-3.055762315300600274e-02
8.559383964352403756e-03
4.829160981282147602e-02
4.775223912418058089e-03
-7.464839740173473751e-03
-9.779620060701159356e-02
6.643755006698484622e-02
-7.947963697283993295e-03
-3.272431986053492281e-02
6.832966379476494712e-02
-4.653876218886623256e-02
3.281274287482293522e-02
-5.927404705032061905e-02
-3.242201786713214129e-02
-7.790327471281675853e-02
4.613948686782338299e-02
-6.926532013057173399e-03
2.172284915257658225e-02
7.517374133326455710e-02
8.731585945425340486e-03
4.734287202222316887e-02
-2.708205472717123766e-02
-3.959788180570194757e-03
-6.135157080824769904e-02
7.554277422462055136e-02
-7.032264516543838828e-02
-1.899814149456711954e-02
-4.263784053729131884e-02
-4.222071760940290797e-02
-5.353543664275856734e-02
7.755704379905492551e-02
2.924666804401869491e-02
1.691619028950415036e-05
-8.346499550363254381e-04
-2.527685085231970788e-02
2.148867973067016685e-02
-3.494524493296882750e-02
7.016721624570051779e-04
-7.842109902448705927e-02
6.189608862224149632e-02
-7.436649673415722528e-02
4.161731987510065844e-02
-9.198887105192075919e-02
6.034925138919666754e-02
-6.561973232323423111e-02
8.604390581141898448e-03
7.027226712472053882e-02
-4.184835551847253254e-02
-2.270106357587629246e-03
7.494861761215372564e-02
3.263692735362047626e-02
9.059761104546537602e-02
1.155262531612843806e-02
-1.588392040625758589e-02
2.903492791179614757e-02
-1.458172985078718883e-02
-8.624448351601879392e-02
5.969903996766295906e-02
-3.018349036554824130e-02
-1.062185485497292754e-02
1.853937112602553616e-02
-7.164535167036087393e-02
7.328995582570622946e-02
7.609609574110411112e-02
6.197069747769861497e-02
4.237065840218362522e-02
7.158646306066945852e-02
6.415151050548852096e-02
6.532234366033465300e-02
-6.681294031299084279e-02
-6.982428154344344495e-02
1.503981773807220104e-02
-8.087887028972377823e-02
3.918753546702255508e-02
-2.483348271614505345e-02
-7.485316114430119738e-02
-6.706364509343407110e-02
-2.569274542047775972e-02
-1.631176115203217952e-02
-5.931751374844452390e-02
6.193602796458539533e-02
3.362738827638696304e-02
8.352761447835319042e-02
5.032968110383150701e-02
-5.636744400234067198e-02
-4.480260854430665601e-02
-7.330304444456500756e-02
6.853743348380797462e-02
8.819704859661893492e-02
-8.873503670702881721e-03
6.072214452174030941e-02
2.805822176049345418e-02
8.196304983507302078e-02
-1.043863028972626117e-02
-6.446200414989723682e-02
7.814970476473803718e-02
3.643780650616701422e-02
1.000518685872786064e-02
-4.874313539498402459e-03
-2.971243877850373444e-02
-4.712944816475034271e-02
4.835505267994452683e-02
-7.857718543151170909e-02
-2.661835322829608080e-02
-4.862448755852080695e-02
-5.723722331648270142e-03
3.945136749937527831e-02
3.074209117387874043e-02
-7.787124442874492070e-02
6.550384305522220611e-03
-1.447214371675722804e-02
5.989913191750446952e-02
8.624555913865664114e-02
7.692178293699374059e-02
4.801369240413563139e-02
-4.321737837511667457e-02
4.877926532469917947e-02
-6.462563557248419965e-02
8.232471302370623217e-03
-2.413291633392103397e-02
2.744482673360776684e-02
-6.692947317693179188e-02
-5.720340704146044397e-02
-1.793864508944122138e-02
-4.195424368096738188e-02
1.598382192294656515e-03
4.662655170212478412e-02
-8.784711298481065467e-02
-4.132425164180317939e-02
-6.296472158393877014e-03
-1.854637723291567911e-02
-2.540066078414255843e-02
-2.879896208572932728e-02
5.589413776758133529e-02
-5.845174523823826879e-02
-6.093485283498803473e-02
-4.468417023516155218e-02
-1.373708052312500212e-02
1.028109477705122475e-02
6.075671176637813947e-02
-5.122147987540951602e-02
-1.527560409558201228e-03
7.114144191665082440e-02
-8.443584165615332371e-02
1.369523962285381508e-02
7.142543695016202732e-02
-4.381630940004185154e-02
5.989097920367651012e-02
-4.904358639014171073e-02
6.140199777068565401e-02
-6.050856642150431036e-02
8.394767515881899900e-02
-7.270630112102781373e-02
2.594356468971438859e-02
-8.087538426832657779e-02
-8.930085052997659145e-03
-7.447834332285194203e-02
2.777875523938100333e-02
1.595996850709441306e-02
-7.415115021526562378e-02
-1.141772280487418330e-03
7.720512441898852440e-02
-1.716306334425110602e-02
-2.465555762992139785e-02
-4.106782331323588497e-02
-6.732957394161945275e-02
2.404831843753836226e-02
3.593594560116727260e-02
-5.318060677295782107e-02
-3.065820119914124120e-02
-4.150606416695794970e-02
-2.065130421557049342e-03
-2.943461623328101889e-03
2.022427627404545930e-02
2.249719394883855500e-02
-4.937423920084372218e-03
-4.398220965068711658e-02
-2.823272329252285440e-02
