-7.062114555045486547e-03
9.180968643989505240e-02
-9.609641891475861897e-02
-1.080763037835150431e-01
-6.382802972182205492e-02
-9.342537628833339283e-03
-1.599049720248827411e-01
4.294959013075931066e-03
-1.177362339633696159e-01
6.627845758086667316e-02
-4.293676662575360292e-02
1.172652844203398437e-01
-3.840488914816069660e-02
-2.617944269706467403e-02
9.605336073340076108e-02
-7.438608393280349285e-02
1.080190600840425785e-01
-1.398828348159908697e-01
-1.980296092802024538e-02
5.202997269293992144e-02
-1.876933181260586128e-02
1.327323571888195108e-01
2.185904183689512115e-01
1.633050309633703734e-01
-8.210661562645353573e-02
2.089147385806616186e-01
-9.848012808713287047e-02
5.807300279646231134e-02
3.900889264323301187e-02
-2.769840806543038061e-02
6.346787839777730256e-02
4.730970890054364553e-02
-2.955431521938165981e-02
-9.452870531019917644e-02
1.189499417995966979e-01
1.028045595681861962e-01
-6.468087473210752669e-02
1.010125784803803384e-01
1.376018724391441794e-01
-1.797147505228649800e-01
6.168739891056005363e-03
1.106960122621370307e-01
-1.441861484662986803e-01
4.918860452626207247e-02
1.147598527415741587e-01
7.412115909639423184e-02
1.481844198168579263e-01
2.032867134756077138e-02
1.768760273399803684e-01
9.779702964706763618e-03
-4.965734763387966849e-02
9.262309802082650811e-02
6.119454761114396374e-02
5.999870259604325046e-02
7.372113161255020204e-03
-6.713437912048474121e-02
2.890068410795230275e-02
-4.353634231138729660e-02
1.806103283246696667e-01
-1.392576886370804762e-02
2.706550019269158835e-01
-7.135098689696370289e-02
6.504051267917573820e-02
3.952602672482499746e-02
9.729274504141227631e-02
1.232499322453233480e-02
-4.640863690191632945e-02
1.914182379846240262e-02
2.756216315562986033e-02
-9.923957338907149484e-02
2.561529389549044994e-02
-3.668669485683119513e-02
1.259910827539881539e-01
1.151120043459180203e-01
-4.455870605237699511e-02
1.096554900048475195e-01
1.572941380749223461e-01
1.386726004995152139e-01
-4.387009171126022428e-02
1.652572872642244506e-01
-8.196185319791170210e-02
6.315712267653399159e-02
-6.226543053907280384e-02
-2.006972637740994658e-01
1.794838528683803669e-01
-5.762350093660050659e-02
-1.065283074312975420e-01
-4.603870048386878022e-02
-1.852056110383538123e-01
8.813724002463885210e-02
3.616595388334395422e-02
-5.653629598982177346e-02
1.579848577660195041e-01
1.592107298152183603e-01
-4.993162754506080131e-02
-1.526517634852379013e-01
-3.407604119343979332e-02
-8.611732871918204024e-02
1.252421138537072182e-02
4.062693310463376395e-02
-8.513875081803443101e-02
3.128398478503287283e-02
-1.279161609623327978e-01
4.943338679168648303e-02
1.649222964925636803e-01
-7.078078248613188517e-02
-6.260768636303282175e-02
4.237584498847877384e-02
3.803718289971639438e-02
2.110344245668558522e-02
3.966183599959088174e-02
2.213059169436406570e-01
-8.804751633490127960e-02
1.623823960654509624e-01
-2.126202287877034802e-01
9.963849521792333963e-02
8.600473372914162196e-02
2.161423772211940042e-01
-9.810873204511202580e-03
5.829680739999630601e-02
3.177845537134534049e-02
7.833042767671934831e-03
-7.065636139063453947e-02
1.528541904028562215e-01
1.317959235345537161e-01
-1.167360321885526908e-01
1.504756502596861223e-01
9.839025141757794246e-02
-1.544280590665925990e-01
-4.713086024242646443e-02
7.862662274574151733e-02
1.292930206946555916e-01
-1.512355820097234238e-01
1.866570044501881798e-01
-1.028386526777447796e-01
-1.257577215522572844e-01
-2.765371798425511965e-02
2.016092775932409181e-02
-3.005370197234662547e-02
-9.472531077184422055e-02
1.396845800629838430e-01
-1.288286876825648630e-01
1.441900186587744513e-02
3.021186391732634535e-02
2.216064569136173001e-01
-4.971421335466345848e-03
-8.028278958056229986e-02
-9.337237296339297166e-02
1.061418293109005623e-01
2.027474756285115864e-01
1.251962167512172541e-01
1.620350390698574450e-01
7.887756306708412768e-02
-4.470360717166167036e-02
7.398180059774649153e-02
1.917988585152024736e-02
-2.294289341324808051e-02
-1.373234704284177210e-01
-5.018252124434285227e-02
1.744908666369179018e-01
-1.051401209684878074e-01
1.209765941186000532e-01
1.217662978829485571e-01
-7.421590420932355769e-02
-1.231233236868650438e-01
-3.657820215531148306e-02
-1.295390807975347613e-01
8.966443375420332651e-02
-1.314810916818329456e-01
2.424876366594676952e-02
3.025168477190570693e-02
3.009887412587088085e-02
-1.201586641227670171e-01
-6.653126899350095269e-02
1.077061375698901563e-01
-1.161132980393740077e-01
5.303715726710781647e-02
4.605645914262317120e-02
2.091925778442306483e-02
-8.882273003219565144e-02
4.214163673139369182e-02
-6.186951222034308556e-02
6.020606902116998338e-02
1.088738601441316955e-01
-9.923794407644478954e-02
1.944692544658169764e-01
1.913878866869195838e-01
-1.896710048107586866e-01
1.957819439677289663e-01
-5.746817982653758955e-02
7.920306561991861949e-02
-1.419464167341812910e-01
1.122914708483877672e-01
8.975250789319043354e-02
-9.106788363184743773e-02
-4.298848321455955163e-02
-4.524814487651212386e-02
2.586525439815508254e-02
-1.050959565311865018e-01
3.778524788759844016e-02
1.972051406535801632e-01
-6.504906174996145582e-03
5.444706235515284903e-02
9.776860407835682998e-02
-4.439104488440565044e-02
1.043172218723170674e-02
-8.640698462130291108e-03
-6.778678829121635718e-02
-1.524906703654919926e-01
-3.070176907740375383e-02
-1.184049474048218670e-01
2.847040146394382715e-02
7.885609717275754438e-02
9.504794966682662827e-02
8.278495955876064016e-02
-1.019098224986808993e-01
8.265850271484109779e-02
9.644780627708250675e-02
-1.495821473578828331e-01
3.418004217366692882e-02
-2.740148096652406454e-02
-1.833102247946196642e-03
2.830640569160536649e-02
1.378988493877970067e-01
6.301913541100129246e-02
-7.095721704249444151e-02
1.005899424632519384e-01
4.932109146355927176e-02
6.157139990592305073e-03
9.247092907068449330e-02
-3.411791246773773767e-02
5.968192809164746954e-02
-7.564994236051796050e-02
1.177551190217087079e-03
2.451242231071150759e-02
5.292225009968974658e-02
1.892667083619098412e-01
-5.982724090283902257e-02
1.961298881226205409e-02
-1.964058779258489318e-01
-4.037388795208488729e-02
-1.187467825515293590e-01
1.427418849177720384e-01
-1.932014614466326663e-01
2.241469411177098858e-01
-8.071964786155325089e-02
1.534667355231808805e-01
5.412559131933203371e-02
1.493896009469679320e-01
-3.279640761182427144e-02
-1.699154610668141552e-01
7.157407478210460472e-02
3.835523657814397802e-02
2.038068563895838181e-01
1.323962108310172969e-01
-1.469783745701654792e-02
2.145527548675190688e-01
4.480534668236251655e-02
4.951395240030493500e-02
-1.016659606055966003e-01
1.846152192116513602e-01
-6.270925491580131572e-02
-9.323745823444921921e-02
-1.942894209300800590e-01
-2.292908949203751878e-01
9.760200933804867585e-02
1.620890698098317872e-01
1.617118970735844097e-01
8.389318634211638537e-02
-1.718247586276292205e-01
2.414158075052037777e-01
1.703213495694721677e-02
7.309968568562928704e-02
-2.222017292926131357e-02
1.779900454874074056e-02
-1.195252291929754795e-01
1.721973615635959132e-01
-5.146705402351279407e-02
-4.321277664430007992e-02
1.939300798011213689e-01
6.368138561865514802e-02
-2.226986156329197331e-01
-1.265505116355479798e-01
2.207523755444179003e-01
-2.698200545650076762e-03
-7.318911149795730153e-02
1.694692197541606549e-01
1.248844616650104794e-01
-6.768488785983685363e-02
4.431303072922981173e-02
-1.266181998084670579e-01
-3.782905902525775244e-02
-6.317129925464035067e-02
5.500200404321852615e-02
-9.489080942633311422e-02
6.546517039551250083e-02
-1.411945385333402136e-01
1.892908902883188790e-02
1.087829108243518611e-01
-1.960115369291073606e-01
9.577061774588792320e-02
-1.067537331616104923e-01
2.578173948369615401e-02
-2.442093762399635271e-01
-9.069029223275386353e-02
-6.685867301601569612e-02
5.329296127908093178e-02
-1.196810488624985291e-01
-3.999255188047714377e-02
1.247454574175044240e-01
1.602733242306161321e-01
1.188791173352044539e-01
-1.150032708238865886e-01
-1.478615223348187513e-01
8.781302134150220651e-02
1.280812653899844056e-01
-2.864633911991899540e-01
-1.869479041578966938e-01
7.181877939096792396e-02
4.223805886672812177e-02
2.284614954535451603e-01
9.804591679233987112e-02
-8.683981851781279529e-03
6.781074351956546675e-02
1.648101781542461175e-01
6.859301264655949526e-02
1.704169870459478209e-01
-7.483786835835666562e-02
1.991773931700663303e-02
3.862740187751396992e-02
7.015332041054539447e-02
-1.288481578486626311e-01
-3.966834786613211011e-02
2.561739849631578664e-02
2.582741115735361775e-02
-1.383325067892914317e-01
7.122615156379039081e-02
-1.238607707127826196e-01
1.733389882757591094e-01
7.559749757862629926e-02
-3.199957811092088433e-02
9.584923158302324775e-02
-6.120746422609318026e-03
-1.346519750760521994e-01
-7.413928460928644049e-02
2.975848646907443967e-02
-7.484923540503729544e-02
4.565442005244452900e-02
-1.247559238031071063e-02
-7.503770356111318096e-02
1.055890656998264981e-01
2.571119498219975319e-01
-3.439936089337352482e-02
6.247071897778872646e-02
-3.924556097467687271e-02
-8.830905446496400968e-02
5.159345832910752078e-02
-4.461246823798194205e-02
7.248608112002602466e-02
1.363540438632918073e-01
2.093103057848735155e-02
3.488838614707818336e-02
4.203700270026036745e-02
-8.251622855260435513e-03
5.398788414097779181e-02
-1.284681415736793342e-01
-2.950470384281760894e-01
1.469958596205432622e-01
5.758258801889716560e-02
7.219347982797606755e-02
3.372123980471403853e-02
6.787462892711089435e-02
-2.105759347953448379e-01
5.161177196616596047e-02
1.607886123694702088e-02
-6.533616043272848228e-02
-6.200441630960239897e-02
-1.571564617415409093e-01
2.124083659215204867e-01
2.349738275902994444e-01
-6.070906919635957188e-02
-1.688320834618280974e-01
6.401236210704951135e-02
2.959245315294651082e-02
1.470775584644754691e-02
-1.555583561824777639e-01
5.224354649097513043e-02
2.269896047709475118e-01
-1.614480854475447424e-01
1.771724221018629031e-01
-1.061989548030550096e-01
-1.509626701891807199e-02
1.683735612727358666e-01
1.311248886284579196e-01
4.330905519537903495e-03
-1.590958604417674338e-01
-1.294756745863402947e-01
1.596810020947862507e-01
1.043061161831105310e-01
3.937743825826603428e-02
-1.933469676410508042e-01
7.590429777655847803e-03
-1.075794007623979281e-01
-1.581294306714346731e-01
-2.385027520885001778e-02
1.081726788088637481e-01
-1.923501399382205879e-01
-1.841002522949406195e-01
2.029640092709571338e-04
-7.615191772508911328e-02
7.266596901780931128e-04
4.094005258100866934e-02
7.911666881324244671e-02
8.373533721089382320e-02
4.218648305815082128e-02
4.754168894001669157e-03
6.299239079110844491e-03
-1.138021768963271563e-01
7.738231079823411351e-02
-1.349227835412717402e-01
1.995550984996883326e-01
-2.249632925789267837e-02
7.466930606400519477e-02
2.010324258366566388e-03
-2.816568631484314342e-02
1.325443648961643073e-01
1.148694563021197268e-01
-1.669529720280877594e-01
2.147023997161789932e-01
1.313136308572180333e-01
-3.364728673606314641e-02
-5.238949434697774687e-02
-2.306344425099881440e-02
-6.994744940623764951e-02
-1.250977481085964182e-01
-5.704252093466508078e-02
-2.311629790424262615e-02
1.690772111356320107e-01
1.007542518827535954e-01
-1.225468956132706733e-01
-8.900364892531829886e-02
-1.415984905408630701e-01
-9.038681091498257381e-02
3.811292929323380207e-02
6.302118369209611104e-02
1.047629474414513984e-01
9.857069619407407557e-02
-2.480185255085813611e-02
-9.146758233917813563e-02
4.598634263133848793e-02
1.185625231494895210e-01
1.893039776871972002e-01
-7.639665680765818367e-02
-1.872409141789579262e-02
-1.523154571550061342e-01
1.413546956670606314e-01
8.902905912024547397e-02
-1.647468089132658464e-01
8.398547150711653531e-02
2.534471225556017213e-02
-1.678641140661785991e-01
-9.069758544586579985e-02
-8.564003544284318203e-02
-1.083250733160992215e-03
-1.128018552190971219e-01
9.439823394605427465e-02
-2.025173398188069573e-02
-7.318613152058085769e-02
8.963741588701074070e-02
1.350426248492319903e-01
-6.012368027802098003e-02
-1.286869543976774943e-01
5.242145164379262423e-02
-1.035101035785232076e-01
-8.610677459852721094e-02
9.320109495511620656e-02
-1.189574986970942383e-01
-2.165063861079299240e-02
5.805157383047390707e-02
-2.386113261083928211e-02
6.059878870508321469e-02
-1.773584565031602334e-01
5.068276395162009396e-02
6.134103296467605104e-02
1.435967597971317400e-01
2.630390587025735472e-01
1.526769644147317750e-01
-1.572841149356487278e-01
5.840107921904928029e-03
-9.948614164029276341e-02
6.600842987039787788e-04
1.586989241986503374e-01
-1.854146984630965778e-01
-1.921540616977250940e-02
7.327723867688974713e-02
1.292234833812946904e-02
7.418571650870828260e-02
-1.174849370465360782e-01
6.700033243203644406e-02
1.973597096416718766e-01
3.183709591468376725e-03
-1.787093036483588804e-01
1.311403830484164090e-01
-1.050263513271148114e-01
-7.984442871100420544e-03
-1.593498327224421585e-01
4.886424955205718318e-02
2.236963527565800913e-01
9.728164198608281465e-02
-5.561087989655457559e-03
1.161373119161850445e-02
4.750646969434676493e-03
1.273238927168041101e-01
2.058963610808247635e-01
-1.072590919561051126e-01
-7.784076926068395075e-02
-2.838263935222983328e-02
-1.014549551075933365e-01
7.557851303083328032e-02
-4.351738462698217375e-02
2.682793603804258797e-01
1.639146813155260285e-01
-7.797330827782987528e-02
-2.571900146993991165e-01
-8.057919326938188520e-02
-1.028696014838347272e-01
-2.165621517606781399e-01
-1.224360642532378030e-01
-8.543602936055004482e-02
5.402028409329637931e-02
-6.756597890728549549e-02
-1.995066063731149308e-01
-7.591126683055655910e-02
-1.399878998177347122e-01
-5.740328986731348115e-02
-1.068052729073522278e-01
-1.494192400754452144e-01
1.211903173640455494e-01
1.715068859015690672e-01
-6.454391300671810661e-02
9.494191320178067828e-02
-5.613937580265804250e-02
-1.278681334825728932e-01
-1.647751250841873738e-01
1.055981219857316245e-01
8.728719058775572318e-03
1.187262824919375070e-01
1.065602174461087182e-01
7.888370131984967504e-02
-2.479596166134000468e-01
-1.118597402154422257e-02
-1.350485920527620676e-02
-1.943374418227724609e-01
-1.002289036653827986e-01
7.507884213773777238e-02
-1.381754864932788762e-01
-9.909625377432443316e-02
4.895724370188619945e-03
3.406435421036736744e-02
2.198631119843673931e-01
-1.185994983051396612e-01
-4.357075165984544002e-02
-1.834088117915507465e-01
-1.420253272967722247e-01
-3.538280669145215523e-02
1.179598247656424154e-01
1.446888786450196973e-01
1.956717245326119736e-01
-6.307587466694481587e-03
-9.386137865201217567e-02
-1.669150965441656628e-02
-1.690057014648766939e-02
-2.034060252891818077e-01
-4.466617136499800855e-02
-1.822122678943052521e-01
1.221323936521151177e-01
1.860887939546213565e-01
-1.823856562923482638e-01
1.291712670093091986e-01
-1.445458917619496346e-02
1.336688907746981791e-01
-1.918595348218398167e-01
1.081425673538426030e-01
-9.244078009271679275e-02
-1.945502817898125403e-01
1.299739194486617677e-01
9.591134714705104591e-02
-4.654094230907840357e-02
-3.860846215009929722e-02
-1.359965753294297974e-01
-5.620339714985049528e-02
1.002145922382051135e-01
-4.324258288833000147e-02
-7.227678204626908354e-02
6.415844305860710084e-02
-1.015195494296392831e-01
3.511134020904391456e-03
9.687034727700576109e-02
-1.266227896907256567e-01
-2.354550704874120923e-02
8.698734203930034992e-02
-1.635641024620839434e-01
7.522417758068547511e-02
-1.457183280182687002e-01
1.048069140628983958e-01
-1.693261275284141665e-01
2.151262699753869190e-01
-2.343682561175769175e-01
3.834980817964294547e-02
5.452680135921156301e-02
-1.285287774052652210e-01
8.928508871276988335e-02
8.214628427249619225e-02
-1.344757173406332662e-01
1.022437654676406904e-01
3.131915936024593644e-02
4.654014695205837410e-02
5.395485859308154358e-02
1.533440693429425072e-01
-1.978400508177514672e-01
6.851455388915876632e-02
8.063054852051332322e-03
-1.274236861476767402e-01
-1.120081444804065657e-01
-4.104932830548925493e-02
1.399501319265587795e-01
1.506832321651507822e-01
-1.954979668864295916e-01
-1.070583035656023918e-01
-2.913545556534295755e-02
9.444372451353158504e-02
1.830078178128701286e-02
-7.338434192295445468e-02
-7.330996357309722822e-02
-1.962245364976641926e-01
1.813640547661073965e-01
1.033234621005018755e-01
4.557850512613367822e-02
-3.587561158258199129e-02
6.320831198752627222e-02
6.627169613018837890e-02
1.335835240141094449e-01
6.470675760032172652e-02
-2.088786360119849767e-03
2.903469099852474481e-03
7.307382978169429943e-02
-1.722485472215055380e-01
-9.124646617355747225e-02
7.378292279324372149e-02
1.207706710679675444e-01
-7.420961459432988405e-02
-1.150945298954373225e-01
-9.295161244061490857e-02
-1.039371788144444197e-02
-4.705216983465328878e-02
8.965077745265966069e-02
-2.872279594588802651e-02
-3.855381531807439144e-02
2.808080036780631833e-04
4.764806154004764399e-02
-2.949023266319158315e-02
-8.123483037204905222e-02
4.342743564870140717e-03
-1.343549048843423466e-01
-9.080465222674415082e-02
7.402409579465327183e-02
-2.753411674656046637e-01
3.073181200977621527e-02
1.559884249508471377e-01
3.835827369424061467e-02
4.543244470287325504e-02
-7.784897890656634900e-02
1.160913291563111238e-01
1.171866145941280746e-01
-7.889906264076806952e-02
1.361567552107697809e-01
4.453854920235551795e-02
-1.228345519877938469e-01
1.665585782095878320e-01
-2.164434164491043852e-02
-1.414378542900632529e-01
-6.587248741436857458e-02
8.678039269220731711e-02
-1.440800598499001883e-01
-1.191033188024932243e-01
3.664034694394178483e-03
-8.531136661420492262e-02
4.078883009473494026e-02
-1.599480369198549301e-01
-7.993793495008409689e-02
-1.523962667389056058e-01
4.059755916909797008e-02
8.122461001461932228e-02
-1.332216670233208611e-01
2.708350232882890049e-02
5.657185830553482231e-02
2.062356318321429682e-01
-2.067439248683748954e-01
-6.764501561656802164e-02
-1.178709608642800923e-02
-2.069243034660631919e-01
-3.871668266051233459e-02
1.247926556549868587e-01
1.221243536042402045e-01
-1.265582692922481989e-01
1.738861366674615549e-02
-6.069447024215020303e-02
1.065632238838923190e-01
-1.266441359826846469e-01
-1.289429773427069881e-01
-1.025180591685413561e-01
1.418773554857354902e-01
3.520525147070013849e-02
-1.758525240473675089e-01
3.734265213198712657e-02
-9.207704941423522360e-02
7.081100439158383164e-02
5.645819247042620920e-02
-7.828735943911563355e-02
-1.081859579243729524e-01
-3.872866732220647812e-02
-1.058112309652565891e-01
1.428100770684147813e-01
-6.372074061821537960e-02
-2.615484548985468755e-02
-9.093977661642108079e-02
7.698216477035714489e-02
-1.454247341270714644e-01
1.476188754875006615e-01
-5.026522820474860209e-02
2.107804284152151042e-02
-1.420156559160537790e-01
-8.331204318663397446e-02
1.448304261429076978e-01
8.826688068095556172e-02
4.883426050344646246e-02
-1.835998286553057468e-01
-3.432779065359717330e-02
-1.586879583555955708e-01
2.818016957472243428e-03
-2.326995720638904905e-02
-7.149940455199815803e-02
1.900152008224914868e-01
-7.336363838093788725e-02
-1.258449370890026009e-01
4.789376678122342704e-03
8.021770271395839424e-02
-6.022380914395384505e-02
-9.631722463412496771e-02
2.087975163675443585e-02
1.157835477630996673e-01
-2.800328001004983441e-02
-8.995175038234869136e-02
1.316928430710027631e-01
-1.496432461107744805e-01
6.780205626130986207e-02
2.901310823569795000e-02
4.392137593287786038e-04
3.349933754115986401e-02
-3.225249960790048387e-02
-1.168944693084575243e-01
-2.059825987040954029e-02
-1.371510850375084467e-01
-1.216344454728258972e-01
1.716292700137532212e-01
1.414267733013828132e-01
4.953745006324575956e-02
8.264855668059524485e-02
2.213168054217043781e-02
2.670663549461557151e-01
-5.660059950263560818e-02
6.750356851149633131e-02
2.130202613345275400e-02
-3.282082711712720757e-02
-1.576716295640194498e-02
7.713196635343252949e-02
-1.580168230856057177e-01
2.157344335594229556e-01
-8.405805594682540238e-02
-3.535272391715387624e-02
-1.213097037843142295e-02
9.155620901197293604e-02
-1.305825046170335513e-01
-8.143863872450483876e-02
