6.225775064129370449e-03
-2.864566647558453028e-02
9.365266164205099733e-03
2.517023214601016301e-02
4.163607118040586058e-02
1.628944680573667439e-02
-2.819099440072565799e-02
3.505026031437113304e-02
-4.535063113710129622e-03
-2.880741678886971843e-02
-1.201832054820163587e-02
2.528438824199367996e-02
3.020139718882473845e-02
7.649292953274656505e-03
-2.483313415658814499e-02
-2.351978172877017617e-03
3.149990362833793300e-02
-1.783925972148793504e-02
3.028666661506425675e-02
-2.332534351552556506e-02
-1.447780452716977001e-02
6.725616201594585876e-03
1.673093294735633271e-02
2.406237666614494813e-02
2.760722732552475453e-02
-1.388450626861987419e-02
2.621617952825754799e-02
-4.640256514510689850e-03
-1.772086025105307910e-02
1.073626981618391527e-02
2.424050988519694042e-02
2.427345298384584599e-02
-1.221506539060377046e-02
-1.991514596667346912e-02
2.988986062898835562e-04
-1.745124246952541730e-02
9.442335322802761569e-03
-2.277255774683734774e-02
-3.014838689117596213e-02
7.159981721007573248e-03
-5.031111823641467098e-03
6.820681422411143703e-03
2.429932888980234143e-02
-1.512183938912684510e-02
-1.619393024181115014e-03
-2.872263334513237149e-02
-3.356043860390089256e-02
1.143131208116836446e-02
-1.664470924302907315e-02
-6.336452659716983182e-02
3.494688590470525907e-02
1.987591633488595272e-02
-1.518741672305779812e-02
5.290395475169114986e-02
4.260721960541525438e-02
5.332673200008809442e-03
1.832172758786169975e-02
4.840372634407208441e-02
2.619149853251474813e-02
-2.435374502925471280e-02
-7.908305983353508886e-03
-2.932816841262770799e-02
3.863784843381750517e-02
-2.117053765850258895e-02
-2.191869147240522661e-02
-2.006706100554033617e-02
-1.615747434350252656e-02
1.005673003568862377e-02
7.859734451419084569e-03
-4.333263189706663271e-02
6.420912310545905111e-02
3.026952740678272302e-02
1.778215500938009133e-02
-1.232001740864773279e-02
1.878321517815406683e-02
2.938684272326573532e-02
2.746628280232178265e-03
4.741587123794198388e-02
-1.738672948435793578e-02
-3.121837917732333406e-02
-2.136589708986607813e-02
-1.040484655092589403e-02
-7.643143650513707383e-04
-2.542741788739148051e-02
-3.459753105658874145e-02
-4.393171966749125708e-04
5.243455468640801677e-03
1.996459825356598078e-02
-2.928402715493347991e-02
2.008790666120043554e-03
2.113305222782042858e-02
9.447451787389036723e-03
-2.105697520879873733e-02
7.267710802588638053e-03
1.929630246235982879e-02
-1.287384392365181936e-02
2.592950111229196802e-02
4.126208506173847240e-02
8.582256167887132928e-03
-2.351413981031974521e-02
-1.552850150450281984e-02
4.235141037924122082e-02
3.276240073646497896e-03
-1.897818282244504232e-02
3.012973752351712220e-02
5.293311968191873745e-02
-1.958151397336198654e-02
1.516335052123663103e-02
1.546423024373562091e-02
2.789336543037031213e-02
4.204832745100135598e-03
2.621984980513246497e-03
2.619736581922084070e-02
9.761718219954029774e-03
1.687529413900560118e-02
7.675204820757335067e-03
-8.588215611761079032e-03
-1.819713324929994255e-02
1.973862907405007309e-03
2.500325009716179020e-02
-7.904363708359445073e-03
7.852213541379817960e-03
-2.306610606260087182e-02
3.338415331736210162e-02
3.212082734831487457e-02
-2.879434723591927509e-02
-3.837098079488890888e-04
1.873402247269643009e-02
-1.345191759403781316e-03
-1.236025258081012608e-02
-3.436483035227757415e-02
-1.231746455712486206e-02
-3.376504246485364461e-03
2.246681740678269437e-02
-2.490462518979026305e-02
-2.630099937584238004e-02
-1.639090085829343277e-02
2.069182178999587340e-02
2.010881114008955528e-02
-2.605554027248180651e-02
5.261278126603883068e-03
1.269030219691080243e-02
-1.223802529142542332e-02
-3.305688069333071605e-02
2.192295582789067360e-02
1.676492215514339273e-02
3.417288932455275763e-02
1.231865786920024498e-02
1.086935563174522452e-02
2.463697679060783755e-02
3.260625446196966509e-02
5.820532352614855159e-02
4.062975611332949460e-02
1.684719509003242827e-02
-3.211230236864852372e-02
1.785523650915971441e-02
9.272801939362484286e-03
3.670246583509675919e-02
-3.329261382743661096e-02
2.119568780670545716e-02
4.434831344004085130e-02
-3.341685771910014174e-02
-2.692128096076089674e-02
9.895192094670124741e-03
-2.317392265877676188e-02
-7.247085705805034542e-03
5.723023233689853578e-02
4.459454992139388896e-02
-7.109993141947083643e-03
5.034551983078974779e-02
-7.668204152672089893e-03
-2.723763055233108157e-03
-3.308029279686483526e-02
1.689499075319520274e-02
3.244269880099805159e-02
4.037736943863128730e-02
4.450244130038564366e-02
3.035177833095465544e-02
-1.805398718914457898e-02
1.904949099675726579e-02
3.469652746648738129e-02
3.410144371422280107e-02
-4.048363149311094006e-02
-9.900480611890567426e-03
5.356634198491095483e-02
-1.425175024692658908e-02
-1.781771972064788087e-02
4.670405377504980443e-02
4.258472846901207275e-03
3.183862613782103418e-02
-4.906596347000324355e-03
3.470748129460966835e-02
-4.947811955433725761e-02
2.874120439572955960e-02
-1.534275625236310734e-03
4.778921542101449010e-03
2.523196065370481370e-02
4.329679371708572422e-02
-2.813106559529717984e-02
-2.885334416720162359e-02
-6.253865262194249763e-03
2.793311479359352617e-02
7.322623375251781364e-03
5.722719095187088923e-04
-1.611058185839056578e-02
-3.026813656956356749e-02
1.000437810619636547e-02
-6.982471634744654918e-03
1.233298276879135277e-02
1.937056523448727613e-02
-9.102186830350553898e-03
-8.442266275634623118e-03
6.125310726705843201e-03
-1.156464058139637912e-03
2.643518970816234603e-02
1.778290954143373417e-02
-3.112978499598748842e-03
-8.792622034664734562e-03
-6.627770352244502505e-03
-8.018997584626954417e-03
-5.444412875326208254e-03
9.922288213264449531e-04
1.497641222796368236e-02
-1.415295447315897438e-02
4.352976937006532848e-03
1.605857994542397166e-02
2.970147847324915505e-02
-7.589841319140143948e-03
-9.699119092509398549e-03
-2.497716191178277895e-02
-7.202663143302241375e-03
-9.562858292426614643e-03
-1.224194340446544717e-02
1.459776290355612946e-02
-9.372191127487288290e-03
2.183358129514847285e-02
-3.114663612834112777e-02
2.434834522522323630e-02
5.230948061338152461e-03
-5.751922631863662545e-03
-2.444243768052932475e-02
-2.020486453030719345e-02
2.806827732469855535e-02
-2.212205481967533319e-02
-1.424675527766962324e-02
-1.652681503995184764e-02
-3.539570447231431272e-02
1.128338879684594523e-02
-1.039214754797739004e-02
3.971615000472844548e-02
-3.926503117345300081e-02
2.640745977078663015e-02
-1.399202194331160796e-02
-2.074465368283356231e-02
-5.884515062854342926e-04
-5.566547223441679904e-03
-1.060961330123090171e-02
-1.863439382223058827e-02
1.611957673087555110e-02
-1.878472789532718845e-02
-1.922862215938430167e-02
-4.558183302816399066e-03
-1.887573235941797378e-02
1.542619050582659350e-02
-6.944647672321031286e-03
-1.975108827154156352e-02
1.071706112510413186e-02
-4.785676340898652875e-02
-3.918524929074735513e-02
-9.271078206155714332e-03
-2.847972433076037188e-02
-1.643960560063925311e-02
4.601105014042097818e-02
2.081342548812949861e-02
-3.548568774983482804e-02
-5.730201093016525776e-03
-1.233713908170733231e-02
6.003166563924117877e-02
-3.389528870399719646e-02
4.995901140497525234e-02
3.357048513623852454e-02
3.407710479039038898e-02
1.967388110633183293e-02
-3.670298501400884577e-03
-3.357823070937635684e-02
2.319235516980154913e-02
6.027128939287705644e-04
-2.780614587621366499e-02
-3.204025118927022846e-03
3.007423107136947271e-02
6.620361685015042040e-03
-2.568041244347342780e-02
3.269771771649998549e-02
3.977481382674245836e-02
2.036378557722768115e-02
-1.441740314119107497e-02
2.647582297574653867e-02
4.506726626421207402e-03
3.793554476248506974e-02
-1.786964979325293690e-02
1.024139388745520796e-02
1.416897435910698805e-02
-1.639995640368566154e-02
-2.473073223081156957e-02
-1.602156404738494175e-02
-4.592598511529353417e-02
-5.794699973714183446e-03
1.321287435132771117e-02
3.265841393952475039e-03
-1.951926870761674926e-02
1.484727264628210239e-02
2.420369039556483429e-02
-1.008666998400572709e-02
4.113970461966415942e-02
4.619748176502626313e-02
1.514800230575377021e-02
-2.175749541188470165e-02
1.854421897672767910e-02
-3.149623727216218499e-02
-7.870229817483392898e-03
-4.513623279274031445e-03
-2.992878268419330370e-02
3.141242762093966051e-02
-7.021231370471536434e-03
1.222488495363105096e-02
4.333273239217420858e-02
2.626931373858320401e-02
1.743647444095157428e-02
1.640485708793188585e-02
-1.590497567645986557e-02
1.884756633319738944e-02
2.427090162796943784e-02
-3.094229983919664917e-03
1.324262095552211204e-03
-3.115915650974153406e-02
-3.632814780679385208e-02
-6.695886539706124262e-03
-1.812511041071948256e-02
3.294368131289286683e-02
-3.849704644984761146e-03
-3.363001364002638632e-02
-2.988643802135970695e-02
-2.178763582515449992e-02
-7.614006704214379504e-04
-4.116654065499447679e-02
-3.433159348304361952e-02
7.652697117625836994e-03
9.381246829847578877e-03
8.890294438584507228e-03
9.263510863922934033e-03
1.949815404539829988e-02
2.856610877048756589e-02
-2.910208968654220962e-02
-5.059248628311749331e-04
3.233511293856223753e-03
4.992870156398192955e-02
2.039796123170123029e-02
-1.007155012189463010e-02
-6.957247365347692591e-04
-1.572371807584024145e-02
-1.899440694085934023e-02
-3.761008828220715680e-03
-2.950414680499829218e-02
4.426505377879808890e-03
-2.741797472461600729e-02
1.307840010453074561e-02
-4.813244576381869866e-02
-2.684075837814588195e-02
1.726798228681971151e-02
3.873093612508100858e-02
-5.977869853545612899e-03
-1.356208275143126578e-02
-1.838835337509846929e-02
3.172095011522170493e-02
-2.795783006123032238e-02
1.517383040640339631e-02
-1.584914182789897916e-02
-1.675140001393991829e-02
-2.632555741639403674e-02
2.608588064324077194e-02
-2.270888134476354084e-02
-5.009778685908090196e-03
2.658940176709514644e-02
1.864755585225324683e-02
-1.094529602212057466e-03
2.266129812451351394e-02
2.418484379868759970e-02
-3.171519271335689755e-02
-1.125617884125013762e-02
1.542043952940946351e-02
1.014180145552833617e-02
-3.782073933560444606e-02
7.619329372770244349e-04
1.196667580402599115e-02
1.440141667313115520e-02
2.829055029891907550e-03
-3.893996014231006393e-03
-8.337655975135294800e-03
1.046551785631554161e-02
1.207868278231033314e-02
3.355175867651086913e-02
2.930907460289195604e-02
-1.524879030405156509e-02
-9.458490692404812258e-03
4.017885328629858949e-02
2.088406777032847383e-02
7.403643907758090600e-03
-7.887397260125560833e-03
-6.350103680412502553e-03
-2.095029766661491918e-02
-4.416995112410114499e-02
5.169229271656033964e-02
-1.499443562056959785e-02
-1.663813273614142899e-02
-2.484372439619329798e-02
1.786631191417004322e-03
-3.621108087963115230e-02
6.445204981888372209e-03
-1.191779094878020386e-03
3.410801969125059480e-03
-1.720258288521167925e-02
-4.824254367213639746e-03
4.545559165213099162e-02
-2.923529189418476795e-03
8.195478292468194592e-03
-2.492338478956566961e-02
-2.466446649455380710e-02
1.751816044759733904e-02
3.110436568723513873e-02
9.954151684432093958e-03
1.414283153878631225e-02
-3.569013934856949538e-02
1.505324751095825711e-02
-1.158460291683549234e-02
-1.899841641645978046e-02
-8.238408149370237549e-03
-1.452683147321579861e-02
-1.780139473095991923e-02
8.061253391440608004e-04
-1.473689968346913494e-02
1.594500505359355835e-02
-8.039846105678144852e-03
2.849995764846984317e-02
-2.161174801490283945e-02
2.392447269555422057e-02
3.663554004416935683e-02
5.412226651655409337e-03
4.443466428505716236e-03
7.991186332188733067e-04
8.462980317578593786e-03
-5.983709002408084399e-03
2.275370563424352136e-02
2.426634762426496672e-02
-1.720378670275089436e-02
3.922733928071481940e-03
-6.379424950520378411e-03
-2.830802657081478739e-04
1.714580262614250061e-02
-5.301303339950268721e-03
-2.015784779264364820e-02
-5.161155050621285545e-04
2.415856800615200084e-02
3.557735712848483778e-02
-7.419410127056256556e-03
4.901614228809615670e-02
3.104402679643715902e-03
-3.383687438267039219e-03
3.209402825146970284e-02
2.877024831840878025e-02
-2.751824241231735566e-02
4.153635609404831425e-03
-3.375917634694449864e-04
-5.751719066021294957e-02
6.040327258604851791e-03
-1.494516344457146560e-02
-3.578898455235211828e-02
1.360663151188098736e-03
-5.062298728901975034e-03
2.564415255235020716e-02
-1.017606373583109132e-02
-7.129711285941490485e-03
2.897472256055076342e-02
7.323254173377880590e-04
5.737138781189560915e-02
1.841151935693236680e-02
-1.765266924390074266e-02
3.694188126218073825e-02
9.169571961097610843e-03
-1.597318944798207727e-02
-9.905387596324935484e-03
-2.848403552593969587e-02
-1.686964471613589325e-02
-2.612707173388524248e-02
1.158107511504116206e-02
1.402684681216805757e-02
-1.457198407792828325e-02
-5.625550525202013602e-04
9.425901577768468903e-03
-6.436307272180555490e-03
-9.881178469500822778e-03
5.355527613063579967e-02
2.400194644623489942e-02
5.375066876884693721e-03
2.521145418532350427e-02
-3.044127319038515342e-02
2.991110241206404105e-02
-2.820597311710732261e-02
-2.007658560753952312e-02
7.898939332264553331e-03
1.424452792641878879e-03
-1.692445898923676181e-02
3.226479739636255173e-02
2.327279366718222955e-02
3.452131908584785830e-02
-1.248075899407249251e-02
-7.376219027220804435e-03
3.501902740778787583e-03
1.631610989046696630e-02
3.527097487110276292e-02
2.469552014880050869e-02
6.060314485044996161e-03
-1.845808672065641851e-02
-5.777457138917957598e-03
2.420482818396222854e-02
-2.034246098168053171e-02
2.340649509336691081e-02
-2.336068096200420415e-04
-7.687782945155920318e-03
1.713209120298023885e-02
-7.349510597996855230e-03
-2.742770706955750468e-02
1.413248498261387986e-02
6.292199056483034625e-02
-2.817191730782546075e-02
1.432885211081856396e-02
-8.155145263906451308e-03
1.582717326578841899e-02
4.066724597830718296e-02
9.565992030382415925e-03
1.457631365823646927e-02
3.764585811557286804e-02
2.324293622289649169e-02
6.394075410525749611e-03
-1.328509228823285780e-02
-2.429598572324633693e-02
7.933653709229361584e-03
3.077199997840817866e-02
-2.733886329142337299e-02
3.172366266361191511e-02
-2.651849869434505253e-03
2.997675566210959014e-02
1.985241844853348134e-02
2.447345047087172432e-02
2.830193399988917974e-02
2.596114491260370985e-02
-3.816514954310909393e-03
3.975423759079432795e-02
4.345240722655523830e-02
1.809905401523928536e-02
5.049629304609293441e-03
-1.930655387609202245e-02
-2.389134506078043063e-02
-2.209623041224978088e-02
-2.381382735502282286e-02
3.916214665936796377e-04
1.456042519496430869e-02
-1.644951841456649604e-04
-2.564035684838402579e-02
-2.338949851692667670e-02
1.921618080715276761e-02
-8.804421089240387424e-03
-2.856461508024523083e-04
3.805930783014635239e-03
2.887431736470895405e-02
-8.001845064013786077e-03
-3.978502466724308240e-02
-1.986627033244878562e-02
-9.277206377217914537e-03
-1.013972236297773499e-02
-1.359502509076869481e-02
-1.080653132775229869e-02
-1.606042289033425552e-02
5.380597848917631487e-02
1.956281018239456205e-03
4.946448509970810536e-02
-2.478636176883191808e-02
3.563956255193780065e-02
-1.727504784406275196e-02
-3.957163237482275858e-02
2.163114696997012545e-02
-1.240073740552641822e-02
-9.777090893150170575e-03
2.223107950748050982e-02
-1.417463225512934771e-02
-6.353304671523353139e-03
-1.770453331141726497e-02
-2.091647406098949905e-02
7.033110068714019253e-03
5.513353908557926293e-03
1.167245228198957561e-02
3.382235080111374928e-03
-2.153552224690293698e-02
1.207034477309978059e-02
-9.017784976417876283e-03
2.990939315337919763e-02
2.212725739750438098e-02
-2.316328235891400994e-02
-7.017408396721252356e-03
-7.076861042946998651e-03
-2.811148808627228143e-02
1.825934288807010489e-02
-4.396336038136373220e-03
-1.510079983548536821e-02
1.059902570823168487e-02
-3.407986716445195879e-02
3.507756942738837758e-02
2.536186399718786885e-02
3.046008667921605833e-03
-4.593542738678643364e-03
6.609882988088214284e-02
6.099949413308647199e-03
-2.092056575144212935e-02
-2.805338621428703216e-02
-1.226290242587632293e-02
-2.947615997394199567e-03
-3.146242920145651129e-02
-1.689746485589653860e-02
2.740992978281925774e-03
-5.310194797551594063e-03
-2.339922648832062912e-02
5.863909801317836352e-03
9.309935607611768277e-03
-6.174801526947869615e-03
4.576312986404830127e-03
-2.325540112476754198e-02
-2.658985196860581129e-02
4.119286810380813624e-02
2.078328973949727931e-02
-8.273727905659146453e-03
1.251145352538987274e-02
-1.727442165825109066e-02
-4.432992880956708806e-03
-1.022607897465418504e-02
1.022271048299246490e-03
7.581689741530613785e-03
-4.790547230707188631e-02
1.920280355028993954e-02
-1.188795564721457747e-02
-1.272269298381669377e-02
4.645730011800192766e-02
2.327895594376963237e-02
-2.672275889605748439e-02
-1.570091404019184969e-02
-5.761576087808740337e-03
1.983715621096862614e-02
-3.699237890230961529e-02
4.786676643583080010e-02
3.646639705069365522e-02
1.118423931327104486e-02
2.740887794759850823e-02
-1.278523475698054197e-02
-3.532296579697025846e-02
-5.955264624483802560e-02
1.009107689914410947e-03
-2.547662037646578059e-02
2.881837444700647774e-02
-3.301802042125872444e-02
3.943938686850082670e-02
2.511498228730817822e-02
-1.163073180280844825e-02
-4.694834388509898371e-02
2.321573639605950534e-02
4.266881197318470736e-02
-2.315460241394810045e-03
-1.112877090825253185e-02
-1.274511040277928088e-02
2.449089489330653902e-03
2.284655891145271484e-02
-2.468334835725263798e-02
-3.827708526320051236e-02
-5.863328106183026030e-03
1.477651033007019478e-02
-1.299806877394636684e-02
1.360843627329927190e-02
-9.784361052175236453e-03
-2.407502969628612377e-02
-3.365470276676827549e-02
1.562724285121769655e-02
-1.267654801327237554e-02
-1.175668448892360461e-02
-2.498389343311745170e-02
2.775110670018302028e-02
2.847872900778421895e-02
-5.102301313863162949e-03
2.556591810879598262e-02
9.957853927171640696e-03
3.696142750328364895e-02
-3.008581703246297062e-02
2.586529058869835307e-02
-2.325399954299899041e-02
2.054371030156703498e-02
-3.069147763056895295e-02
-3.111111713675096535e-02
7.564477037271061244e-03
-2.117829427437702486e-02
5.026905031169840582e-02
-3.179260145297642132e-03
1.465876800581782623e-02
3.261337007279056788e-02
-2.600893888538950011e-02
-1.996984232613406227e-02
2.272406461855292978e-02
-3.253099731750331430e-02
-1.675090057349355038e-02
4.276416564751396587e-02
1.867923458391850325e-02
3.308846425261660618e-02
-4.513843569369394709e-02
7.342015860457613841e-02
2.968782221484771514e-02
1.321919664352770238e-02
-2.708707671883697765e-02
-3.233916955846823094e-02
1.367218324887960190e-02
-8.385432876525104190e-03
5.808540843191736976e-03
-1.672707937433478079e-02
-1.390955868170109036e-02
3.374196824671934353e-02
-2.241320764387088812e-02
1.969404725968998404e-02
-1.998323590611650671e-02
-1.805191336662954546e-02
1.343377370436085651e-03
-1.609546605777769507e-02
-1.716758464600363692e-03
1.897338592900028485e-03
1.342286551503112449e-02
5.259081206286427002e-02
-1.402722718345036750e-02
-8.331636424919360018e-03
4.159444780609655029e-02
4.194950578827394416e-02
-2.707740439819673450e-03
9.148274676529091071e-03
-1.178671653382991694e-02
2.370892358987337911e-02
-3.888818106141229275e-02
-6.702987605791199850e-03
3.979258547837824511e-02
4.336877007514231691e-03
1.076088574525637873e-02
2.840030020203945793e-02
-2.310374316159708938e-02
-1.568710890888625614e-02
3.066523528002512190e-03
2.339392856304487942e-02
-1.415923197425855012e-02
-1.223158129053947100e-02
2.773756302826516432e-02
-1.629963260495757155e-02
3.390236659839495140e-03
1.461906245437333794e-02
-1.727775882371525643e-03
-2.670866886991278208e-02
4.295751724412599781e-02
-3.784120441103108745e-02
-5.657092890358563636e-02
-9.726558507139566184e-03
-2.341293609786224833e-02
-3.747372896492546981e-03
-9.845799142235649171e-03
-2.561193132145227550e-02
2.668516716277466450e-02
2.289452482219095364e-02
-3.838127291617137588e-02
-2.852959340583231806e-02
4.048346570866159788e-02
-3.042190589675871151e-02
-3.194183995543085214e-02
-2.914576434003836661e-02
-3.039105103454325940e-02
1.513247359027595097e-03
-3.097795923326045892e-02
