-6.027454288512511943e-02
7.839599828125354275e-02
-9.161403426942636707e-02
-1.741357332042028569e-02
-5.060219301521149543e-02
3.071692100780533050e-02
5.807850633519343747e-02
-1.166370744271321347e-03
4.685632353914037651e-02
-2.324362855432833205e-02
-2.401172607937768211e-02
-3.257229956571146279e-02
-1.052143845800794369e-01
-7.548174082942761542e-02
9.816566245194580098e-02
7.883911321488387691e-02
-1.019939280457525937e-01
6.957423204320396792e-02
1.515706757318679813e-02
-6.753228065233418675e-02
1.133796108018727405e-01
-4.600317472456084966e-02
9.422714189990413769e-02
6.298918825514338016e-02
7.071973163495659520e-02
-5.889395712242269029e-03
-9.579896085571591724e-02
3.665675364876420927e-02
5.803350752484743007e-04
4.376370885393681548e-02
8.269198424213340670e-02
-4.293663483941221465e-02
-6.662427575352392051e-02
-6.024004683613716320e-03
3.539453119764789102e-02
-5.344532606276652074e-03
-3.768756125422024345e-02
5.264325583238536888e-02
-5.584312125123060133e-02
-9.563502886138015857e-02
4.566462978437744319e-02
1.694311699923866515e-02
4.686375141966081515e-02
1.063401948395797103e-01
8.274301375132227243e-02
1.021639894413541999e-01
1.557425333996145626e-02
-6.130089517152341461e-02
-3.433640155951493689e-02
-2.747808256654991205e-02
3.441613475868469940e-02
2.462347499028321937e-02
2.059219027952029907e-02
-3.275097369149848614e-02
-5.081349271635370729e-02
1.991416390184973934e-02
-4.566449915473046878e-02
-1.401334687427116706e-02
2.200230875573571526e-02
-4.274959158384465663e-02
1.616002030065364107e-03
-2.514779181661497970e-02
6.044451879860513605e-02
1.095697748499240426e-01
6.214826940407115752e-02
1.181839506754594205e-01
-4.903989149794755337e-02
-5.251812243121113666e-02
-5.179321436176256843e-02
-6.730292138593911566e-02
6.751321425251209651e-02
8.944025876621393423e-02
1.699104343052833949e-02
3.499635091831749742e-03
5.142927250342198969e-02
-1.346077402250290059e-02
1.553367478276573843e-02
3.968062228626405979e-02
2.270317172803674316e-02
7.226784344320996700e-02
-3.029224852080676308e-02
-2.694378865250666132e-03
9.562629140049828946e-02
7.477782123953111149e-02
5.623537380582112333e-03
-6.588220028715850718e-02
-1.868154747160108865e-03
9.825363497451515549e-02
5.326974855747425991e-02
-1.763163067916644067e-02
2.234630467515977964e-02
5.439563449814202589e-02
5.446287546290369541e-02
-7.426832981682411974e-03
-9.067315158070998748e-02
5.726651819342374466e-02
-5.195429399546885700e-03
4.201690245231813614e-02
4.359917507319484645e-03
-8.677987502022536936e-02
3.502382863540619284e-02
1.068134017107111658e-02
9.461295706662738517e-03
5.716973031226611768e-02
-4.793403332366072411e-02
1.065730194261629848e-01
-5.203059660532113190e-02
-7.010691978711774963e-02
1.053975926953348574e-01
4.964179133951484441e-02
8.431213390505457039e-02
-6.852168816294733344e-02
-4.565950465781231510e-02
-8.285350772428309862e-02
-7.843986954169414327e-02
-6.549992856361253057e-02
8.322659329991602406e-02
-6.332721498284971801e-03
6.703094937184883584e-02
7.098406927432342195e-02
-4.033516780894322307e-02
5.889796966429386438e-02
7.474469903148853178e-02
6.093956312211604165e-02
-2.841964460209575605e-02
1.668871959089235704e-02
-1.002413746751114887e-01
2.828418418285046781e-02
9.547300818683429960e-03
-8.090615322206728965e-02
-6.801482345506441873e-02
-9.830716773393714802e-02
7.843352157551045090e-02
7.664433704045099140e-03
-3.426927758246954992e-03
-8.355664541740356888e-02
5.720406947369212521e-03
1.660456645457654076e-02
2.901549296691543003e-02
-5.394027217391470647e-02
1.842322587037874271e-02
6.069722858193874609e-02
4.174057960896337266e-02
-9.406061320205491572e-02
1.716390486570191012e-02
-6.954809144613209593e-02
2.212776489865566146e-02
-2.306372462546825083e-02
-9.786247305391057583e-02
-8.380120290231997393e-02
6.508382113568034200e-02
7.232759274594005583e-02
6.532441811459828440e-02
-8.291049765212497868e-02
6.963710464770724029e-02
-6.966727376758875823e-02
-3.997922889750056552e-02
5.572107346811434186e-02
1.566006997221859945e-02
7.912142476805388014e-02
-8.381975994058497859e-02
8.970792971789130765e-02
2.045131766742032398e-02
-1.638233352105121846e-02
1.187707178718356779e-02
1.703426253228254583e-02
-1.079532929563261912e-01
4.607364259538737801e-03
3.466327163223997809e-02
-6.431480915291201694e-02
-8.327838999339476356e-02
6.743673347312148514e-02
2.460854708573459448e-02
9.898194413232856703e-02
7.917950001568821450e-02
-9.296166848972507724e-02
-6.172901899509415646e-02
-3.953579355963848796e-02
-5.449702024803777106e-02
-6.835682735428387502e-02
-6.740199709407962425e-02
7.237283187291285169e-02
4.456017773574745544e-02
-7.392850425641556145e-02
-2.552948686755185381e-02
2.408208998599289247e-02
4.442940182997650450e-02
-9.872895203715259527e-02
-6.678126899022530927e-02
-3.722316839926233245e-02
1.005556458244363446e-02
7.583785185827750241e-02
-9.069623702200359239e-04
1.087503093348602401e-01
9.482219337696637385e-02
4.256270071885703832e-02
6.005670625662885148e-02
3.700847767143777833e-02
-5.151194690476596644e-02
7.966224309218186694e-03
3.041815795754643920e-02
4.052752103537687195e-02
-1.911014617285314819e-03
3.263175487590405655e-02
1.458588031673178041e-02
-3.772683107145278353e-02
1.932927376581092260e-02
-5.979715345487823103e-02
-6.549127324753742374e-02
-2.239623158563179214e-02
6.265763966874490776e-02
3.855833418474021584e-02
3.063231170437261553e-03
4.640489018276717365e-02
4.397338701616984591e-02
-4.421186710992483504e-02
-4.309449899334623357e-02
9.317138048947193329e-02
-6.812741848318583371e-02
4.496848196981261675e-02
8.921439735964314943e-02
1.978495194602728630e-02
7.585301304707103842e-02
4.756533283477670099e-02
3.622283503717206414e-03
3.511162203444528201e-02
9.721397423983832095e-03
-6.946391125781593845e-02
-3.191561183034427596e-02
-4.190100433256412071e-02
-4.249759172267177088e-02
-1.114020375967698789e-01
8.535230648902422668e-02
7.457938112829159971e-02
1.252720273196631096e-01
6.482419207393642739e-03
-8.802014045137890319e-02
5.975675783572642619e-02
4.690467772333201807e-02
8.465581353053147629e-02
-1.822739569363783854e-02
-4.826814642343766476e-02
5.152517524862306950e-03
1.120816602188393213e-01
4.596376443712485438e-02
-5.696682956669701231e-02
-4.050271824174004470e-02
1.804369035649201064e-02
-7.802413082018555546e-02
3.169032300319980788e-02
-9.175631482848009557e-02
1.601014608483097845e-02
3.897824428111545253e-02
-2.932285151879685664e-02
-3.153091670144855807e-02
-4.365444854748735948e-02
-3.670735325669796743e-03
6.330874378598792818e-02
4.423108275223476549e-02
4.156084642267184742e-02
-2.243241325075685452e-02
5.298329513670992780e-02
5.125803303399609212e-02
1.324172056475928227e-01
-1.515153699576871939e-02
-3.080878139555499884e-02
-3.641926733546311124e-03
4.764489158346633252e-02
8.807612287974481147e-02
-7.913220016282633551e-02
3.143518580282556908e-03
-8.281237576416120016e-02
2.282332997476305830e-02
5.592160957796259851e-02
-2.622478036153459702e-02
3.608754972177045245e-02
5.446899348123201978e-02
-3.140870039060954244e-02
-1.140909622296154557e-02
-4.472981336216211301e-02
4.170369855130018344e-02
-2.040521955331588491e-02
4.691014486678676820e-02
-3.585080709515730407e-02
-6.589042403153223815e-02
-1.123221144777438243e-02
-8.150126947691371804e-02
-8.133997708590941234e-02
-5.609324877503465284e-02
5.854088754859079063e-02
-3.027084069339760694e-02
4.728994770273404341e-02
1.146019844082580424e-01
7.501654337433034947e-02
6.660058365626025934e-02
-7.282958356525638666e-02
-4.747014827657772317e-04
-9.264674496019827121e-02
-3.774577429356590352e-02
-5.865391897169491831e-02
3.181487817872869633e-02
2.745799490289039732e-02
3.200150911927637787e-02
-6.471835556014113311e-02
-6.262258711416908430e-02
-1.096596575949757013e-02
-5.626501277450088323e-02
7.725019066212095165e-02
-9.311940269098609169e-02
-8.002759032445820597e-02
2.751109006346270230e-02
5.423783001373323753e-02
-6.606009518051963016e-04
-7.971563109360615962e-02
-4.936618171864740057e-02
2.414336087037769613e-02
-8.316164301818808335e-02
4.329820627347252815e-02
-6.504829821458332773e-02
-8.780223578495681414e-02
-8.834218190444181884e-02
8.118991180883261549e-02
-7.094542163994112249e-02
-4.788362196329282866e-02
5.696076985843924467e-02
3.306522581764451824e-02
-7.144391012646122974e-02
-1.809612089827112788e-02
7.283393925476502884e-02
6.168272561570842943e-02
9.280816257455036522e-02
9.359695630790527965e-02
7.560535498757610384e-02
3.569225371182053325e-02
-1.351533777211346918e-02
-2.646873389536210514e-02
1.185682165463804866e-02
-1.010649766514787468e-01
7.110792865536560980e-02
9.559648335764933669e-02
4.426910768009615499e-02
-9.678966243226444846e-03
1.218203256550721980e-02
-3.907767502344212940e-02
-7.878014984500243678e-02
2.283589044443931626e-02
-1.344999398741066748e-02
-9.073011422784407753e-02
-7.684291792788534858e-02
-7.311896139836501773e-02
-1.667985894057199756e-02
4.839361086956814328e-02
-8.765042727427048430e-02
-8.675404176482448548e-02
-5.819685073136869613e-02
1.458822157404495237e-02
-7.530850954691493959e-02
6.002286359959858181e-02
3.275634247445789043e-02
1.127200072467120506e-01
-8.347332272766622152e-02
7.429115697740776292e-02
-7.166542713183968183e-02
9.131440673477722592e-02
-5.487411880709601453e-02
-2.314233101875787582e-02
-3.114701258175601659e-02
-1.065379556304248271e-01
5.614164839646212414e-03
-1.008004727983364546e-01
-5.859110539471774383e-03
-3.258526944840704070e-02
-7.892994940921613245e-02
9.785672509787805839e-02
-2.224228667077950486e-02
-5.010196939574993076e-03
8.386679359534330441e-03
-7.476471657292654838e-02
-8.684559273469848184e-02
-3.840261893808365190e-02
8.436127210587046621e-02
4.943834978097843419e-02
2.480303564249661946e-02
-4.193601865945949247e-02
7.821121687746290796e-02
-1.949303388798692693e-02
8.274920328341524300e-02
4.302150083930977864e-02
-7.210883484494441664e-02
9.004934185309443340e-02
-7.296691558897713814e-02
1.268617627702938420e-02
5.093372043734532839e-02
-1.001252079214405392e-02
-2.195124070555264442e-02
5.492098741575459492e-02
3.286181492248810981e-02
-1.051347415105588351e-01
-1.881820879609735417e-02
7.531228559976245462e-02
7.640359587961192966e-02
1.315246319759863156e-02
-7.176375781568275838e-03
9.816321957358506434e-02
-7.220234301199318638e-02
4.896358913687284998e-05
-1.157591847279268622e-02
-8.611965268606422419e-02
2.320457212429013344e-02
-3.221672531104342180e-02
3.117227859468297071e-02
7.402802969693571267e-02
8.829087799981445717e-02
9.055491097807405465e-02
-7.863373131749970546e-02
-1.488481318392376011e-02
6.550157766033865014e-02
9.769950238435717860e-02
3.950358286809205199e-02
-9.578700299138084850e-02
-1.438859390612829553e-02
1.293883061099203591e-01
4.596682076887070173e-02
-1.196083268899516064e-02
3.580184764942880016e-02
-4.711611591068103760e-02
-9.765088511660546811e-02
6.880490844724229671e-02
7.858583415525038918e-02
4.739720452306214749e-02
-8.029818719777161162e-02
7.087660984823905552e-02
3.290582248718663255e-02
5.768748810958208850e-02
-7.819231515935423649e-02
-6.046784103559219720e-02
6.797774968208085411e-02
4.023863456387573312e-02
1.176337012352183034e-02
-5.372107556602061240e-02
1.141461322471152423e-02
-4.385023549680325955e-02
1.146230890175173184e-01
-1.086192451706591011e-01
6.407091968134026594e-02
-6.083871579808427209e-03
5.690621038563178219e-02
3.837186071428286965e-02
-3.385796492073218228e-02
6.489959545949626485e-02
8.369369273398628850e-02
4.988479751679673196e-02
-9.480114592387788031e-02
1.062958677579538685e-01
7.266297766237410881e-03
3.599083055136204773e-02
4.880608041384244117e-02
-3.658232948549288571e-02
-9.701488533092743338e-02
-7.085514172038857861e-02
8.523579746358744824e-02
7.603159780261739553e-02
-1.095197419231277829e-02
3.759710833556994397e-02
-2.352756469890828622e-02
-1.465328087305821890e-02
-1.054793260947979039e-01
-2.849604624669071357e-02
4.179130708540935296e-02
3.845534596311610959e-02
9.202610248099699075e-02
8.290126628880170601e-02
-5.482706720302204378e-02
-5.406361735506826777e-02
-6.662578812260008809e-02
-6.986877246715357537e-02
-9.411003671777549984e-02
8.908197774955561865e-02
-5.963684475636710919e-02
5.028710466996939854e-02
-5.054218984937530745e-02
7.369827996418734650e-02
3.174811630006293267e-02
5.305018843933461542e-02
2.230778783704434956e-02
5.526162941913699556e-02
-4.484315494269066477e-02
1.991124602111882941e-02
3.268268281833604932e-02
1.784689087506478866e-02
-7.244169577413515915e-02
7.548855020422363948e-02
-2.061556483394786851e-02
-8.769986175305841125e-02
4.020430545312029397e-02
1.258391470145340807e-01
1.123960570631967471e-01
-3.121351757317256462e-02
-9.396243042539956236e-02
-6.681937876981307312e-02
-6.827729831065577903e-02
7.781951052397327422e-03
-4.032895249413678135e-02
4.693918716353613629e-03
-4.483082529143190414e-02
7.156968540968526582e-02
7.201267178521557344e-02
2.378969610791735814e-02
5.563866483648574092e-03
-3.240868429188183131e-02
2.576103083702836402e-02
-9.305492995423769731e-02
-5.417343706094115974e-02
6.774648226172524934e-02
1.035220331741424915e-01
-3.458105887674428613e-02
-3.525948171238719314e-02
-3.278609891329078985e-02
5.929382192166574722e-02
5.683199197593703095e-02
3.522550371399322394e-02
-5.133263162222218403e-04
-1.023562404848896677e-02
7.259443463241142033e-04
8.066472516338417387e-02
2.535048199948879144e-02
1.539724328434305270e-03
-1.116267109309758698e-01
5.991972152729304821e-03
-9.732465342258395102e-02
-9.799195112618507009e-02
-5.267828702150430947e-02
6.875408644175219630e-02
-2.428089583037003688e-02
9.634738064782412403e-03
2.803894570047201287e-02
9.093324665561584863e-02
-4.082675765823839259e-02
5.457124700427436886e-02
-1.275027472117646471e-02
7.530555878446260065e-02
-2.465111509371806231e-02
-3.002954283315685535e-02
6.468710521055633100e-02
-4.345018113154728440e-02
9.051394106158171249e-02
1.510391219687915593e-02
6.597766657725395723e-02
2.990575373505716811e-02
1.638267819728115790e-02
3.140076821237691024e-02
2.133818580817052959e-02
3.302626711037099511e-02
4.682801102916316766e-02
-6.093844712880102515e-02
-7.557975586359920450e-02
6.257037002974849549e-02
-6.129091855257241817e-02
4.950869814824376824e-02
7.370425546215479684e-02
-8.711364343528593679e-02
-6.550489910176415798e-02
-9.826961451402586867e-02
1.077030184304077209e-01
6.764401433443437139e-02
9.205158795627842172e-02
-6.011445272447983601e-02
-4.120060459235914269e-02
9.168101920128651772e-02
4.592099551680101782e-02
1.493170728337649350e-03
5.700754971841796165e-02
-1.229652361993862318e-02
-2.017025599967491728e-02
2.307175174258313186e-02
9.051739411620246534e-02
-1.363900578744405836e-03
-1.740122440655803709e-03
-4.213823888581703231e-02
-5.985183221417948035e-02
-4.672329103208291284e-02
-3.364842957140253693e-02
-1.154171067055400311e-02
-6.706389639551733894e-02
-8.469345299408471972e-02
-7.901799978019863335e-02
-8.199049429490742891e-02
-3.966221919816627361e-02
-5.559519828546976433e-04
7.941574784689300892e-02
-3.062419830947965896e-02
4.765796110307297939e-02
5.133570436762829176e-02
1.208895330048460337e-01
7.316824385245354612e-02
-7.581608202490439097e-02
4.870069781849960949e-02
2.452709971971444441e-02
-4.320458107767904260e-02
2.140311047259369631e-02
7.170596649760598018e-02
-2.060573327619649037e-02
-1.397378536844151239e-02
3.962030545277211990e-02
1.258171554878468115e-02
8.250361976856258883e-02
8.555022398039434373e-02
3.143275162112409843e-02
2.853510630723647343e-02
9.674991106653182960e-02
6.467695513358209802e-02
-1.198610514228996282e-01
-2.503244481495998236e-02
-4.703562393526613400e-02
6.792589270414112895e-03
-2.210854376086941395e-02
-9.571359917363241043e-02
-3.616558845473852313e-02
1.036363953454661202e-01
-6.435143591131174678e-02
-3.223710291543248341e-02
4.247009022785227378e-02
9.312134505940175555e-02
-4.059841652104676651e-02
2.540375638562466717e-02
-2.614007359284103299e-02
6.981547281826103180e-02
1.730712540740412392e-02
2.184970543043582639e-02
-2.391885710024662607e-03
1.181431168695134225e-02
-2.087603203141439462e-02
-6.837150023750666883e-02
3.489733825995375467e-03
-7.733298628650805973e-02
-2.274854643469207544e-02
-1.445506256039045742e-02
-2.404368741900892240e-02
-9.289767209816654492e-02
5.345217268752201073e-02
-7.142130688493768254e-02
3.022118350869019976e-02
-8.833395684123872271e-02
6.186201718026093643e-02
-9.634145022655271617e-02
9.560225672811821507e-02
-3.305026657635878190e-02
7.304893612944737824e-02
4.957569094357244799e-02
4.874022067882629455e-02
-9.825916711791567171e-02
3.242431705953420507e-02
-7.896926775671790633e-02
-8.250149286882318966e-02
2.973722512379911587e-02
3.481867791007717261e-02
7.116241498107599150e-02
8.046461526385734198e-02
-6.645211828294562972e-02
-5.593612022099264669e-02
6.373081964930723056e-03
-6.516209556323346308e-02
2.434297553901056815e-02
3.211687390334325154e-02
-2.511451920661879680e-02
-4.202360305295216314e-02
-1.694156287651660568e-03
-7.367977937614801631e-02
6.253338855044472677e-02
4.182265027256641676e-02
-1.056014591649753476e-01
-5.480054908648920864e-02
8.059770510869390669e-02
3.767930173041347808e-02
9.910392217287088135e-02
-3.944823622039581729e-02
4.345180008409293276e-02
-4.839600670178369202e-02
6.550016264817909439e-02
4.543410744851314464e-02
8.144595030207436859e-02
-1.045060004231624096e-01
-9.239801888301447941e-02
5.247082534620941402e-02
-7.738312620239838624e-02
5.277207566900270902e-02
6.130089106798730647e-02
1.387060935356983617e-04
-1.471045877198099740e-02
-2.528585940675969271e-02
-3.534193980346363867e-02
1.366547031036153062e-02
9.810911068201691454e-02
1.124840120226983445e-02
-2.565461967593008971e-02
5.505444195480520969e-02
6.324731781226348992e-02
-7.446016160892926505e-02
-3.017684598314845923e-02
8.245222472736890573e-02
-3.096165332264497888e-02
6.111643550909499206e-02
7.837247932486221536e-02
-8.240672472083553080e-02
3.536305942764404742e-02
-1.551196080644436093e-02
5.948935819243191675e-02
3.939556626334907163e-02
-7.546550522864252375e-02
8.992062215657754820e-02
1.715045240411022798e-02
-2.948015435678461721e-02
-1.944454966654808950e-02
7.700891998628478508e-02
-7.807497487106751510e-02
-8.205472206987478312e-02
1.310345557306321490e-02
-2.607034443100091775e-02
-4.573094026081066937e-02
5.086581050371408175e-02
2.508811205708050621e-02
4.787502901974988873e-02
-1.727874243118930273e-02
-2.426134151309327844e-02
-4.433759783556074502e-02
2.612142267305668855e-02
-2.330441754723757558e-02
-4.082442381410218007e-02
3.212269287473907414e-02
7.445959683334744950e-03
-4.472629057886100268e-02
-6.363898700074258064e-02
-7.474470169593714491e-03
9.298133312764789160e-02
-2.370691506122689710e-02
1.816984019718736326e-02
-1.879090215157169785e-02
-1.325748280894964611e-02
-3.537258277083990890e-03
1.005901850621978948e-02
7.538548603414896299e-02
7.576742892434711052e-02
-3.824025256420835600e-02
-2.578167349852315132e-02
-9.010598154783533431e-02
-5.352991393633706185e-02
1.247202698250544570e-02
4.174230943339612282e-02
7.098227437553022989e-02
-2.042686315300958240e-03
-7.323002368468881085e-02
5.164572409324701130e-02
2.595264988752309099e-02
-7.069300082030466337e-02
1.046573860618439100e-01
3.353900878844016248e-02
1.378551482503260692e-02
4.455629161709018932e-02
-5.519679089851270079e-03
9.729314644370792159e-03
-9.416529939189174220e-03
-4.175136286955086901e-02
-5.611159460679714106e-02
-6.653871712642796254e-02
-6.795068793145674080e-02
1.593230844808706317e-02
1.139620785057610802e-02
4.844929866789799561e-02
-2.129440972053029194e-02
-7.354770631432801242e-02
-1.069703171675993048e-01
-9.403818871012611935e-02
1.565338943529041502e-02
8.647335321715719780e-02
-5.042549713508653192e-02
-2.160673865116226680e-02
8.570591239604670453e-02
-3.345916947593826490e-02
5.230341958820165088e-02
-9.140379089087774522e-02
7.308569398899968095e-02
1.012334544628903758e-02
4.027579959648295432e-02
7.343152271251904978e-03
