9.669671772533482840e-03
-1.273702184051416636e-02
-1.988106380471638124e-02
2.665535115375199798e-02
4.191075281819234277e-02
-5.471616280159100065e-02
-2.974129142465519599e-02
5.944685326368147685e-03
1.446905602314542232e-02
2.002010037287660013e-02
-1.428473284897873244e-02
-1.709271594135570657e-03
1.072603995451937992e-02
3.238672151961304729e-02
-2.920785478408827879e-02
-1.233527237119381526e-03
-2.268933396817079604e-02
-2.249231233138560687e-02
3.337003962102493004e-02
1.685417917304983179e-02
3.731473976996772801e-02
-1.448298865401589572e-02
-3.674178978278438285e-02
-1.950719144067278310e-02
4.526645894710252215e-03
4.104435318730114551e-02
5.935993891545908799e-03
1.110788242741135058e-02
-2.862414330780080687e-02
1.081570248472156666e-02
3.703827030020819672e-02
5.837428724996275575e-02
2.053896682006109398e-04
-2.688285416516221840e-02
-1.542750116272738163e-02
1.719412449933595960e-02
-3.659519464826232332e-02
1.793165507983973022e-03
2.380334045640930540e-02
6.547433155987114790e-03
-1.073081989158642356e-02
2.772424141450310214e-02
3.309308815971279821e-02
9.353601951697210204e-03
-5.320893607767469315e-03
2.219327185067964878e-02
3.028935228875954261e-02
-2.936133658681720771e-02
1.919014295713894827e-02
-2.537834323287818661e-02
2.795864582609506113e-02
7.150075837671548105e-03
-1.701355358297123796e-02
2.808591206557144171e-02
5.450119479093462616e-03
-2.639497794347761377e-03
6.450189807714298840e-02
3.796209628264341635e-02
-3.289352497304804529e-02
2.593480683974617659e-02
1.805967434557319284e-02
1.373222837249755274e-02
1.049380927393558233e-02
6.359011658861579361e-03
-2.859215254819932883e-02
-3.821990783803837850e-04
4.356849047856942853e-02
8.424149816444155905e-03
-2.952585305108571673e-02
2.749341020081311898e-02
3.453891701288964305e-02
-2.273889278934201116e-03
-3.943308610875295023e-02
2.832755831507315775e-02
-2.655592097150766620e-03
-1.543144258918515560e-02
-2.541944113610325115e-02
-2.230559495903395445e-02
-4.488105658428981522e-03
1.040872076129444566e-02
2.560945708386066708e-02
-4.582178943217334738e-02
1.715324835877604648e-02
1.143024923101780381e-02
-3.482798133329283868e-02
1.343231669250044037e-02
1.389817228586575498e-02
2.302671041466032575e-02
-2.932017851144996107e-02
-2.484375787717218315e-02
2.567972122699795079e-02
-8.972772489250376710e-03
2.006152643533581220e-02
-3.842432386070684328e-03
-8.089505119562360319e-03
1.297333082806244146e-02
-3.131575662661892356e-02
-1.892106062583707310e-02
1.138631532237369647e-02
2.406853175881834908e-02
-3.320293198005619395e-02
-3.309401602772733819e-02
9.676122625255410489e-03
2.641837909406192023e-02
9.214027168829054537e-03
2.237597025885926239e-02
1.835079957065583259e-02
-2.680539242189708838e-03
1.887618480510155211e-02
4.031830078988610927e-02
1.656925983464252808e-02
-4.069790031495248289e-02
-1.467272999360641310e-02
7.278174700632003037e-03
-3.963083034570714230e-02
-1.179143724026751952e-02
-2.079168688685860411e-02
-6.388956336910772173e-03
9.296816971578856711e-03
3.099359117521435086e-02
-2.548069215883088517e-02
-5.480255337430272808e-03
-3.824657553537322979e-02
1.347698586622107439e-02
1.269889407331431519e-02
-1.905036552528493327e-02
-3.525505742934570419e-02
3.153039521409325280e-02
-5.311023352717704656e-03
-6.776623001076190851e-04
8.893197086022810874e-04
-2.339903197090675152e-02
2.029179561659677847e-02
1.414328738711622714e-02
2.222454161568200234e-02
1.682096318530435300e-02
2.954945626443029882e-04
-3.062600317832225513e-02
4.032528530904742198e-02
-2.436933045478977336e-02
9.564863418593735900e-03
-1.757701865513864800e-02
-3.179565341766286968e-02
1.309812524584436436e-02
4.141035480248816784e-03
3.711850438379191847e-02
-4.712455440594769812e-02
-1.386230937795883064e-02
-2.135152662987586936e-02
2.752728425079848176e-02
-2.151363837162699813e-02
4.782147268480496996e-03
2.223582118376541544e-02
4.501554480470098402e-02
-3.492239570076421940e-02
2.544517224900762903e-02
-2.715058793811727950e-03
1.619835113693350939e-02
-3.538522874564857534e-02
1.511080870482866927e-02
2.972266895644947587e-02
1.628298548686454850e-02
-1.018056989076686044e-03
2.196606011041019046e-03
-3.354109477625207697e-03
2.170052746989776724e-02
-1.663672388209982977e-02
1.911681163454628015e-04
-2.080762764366040490e-02
-1.353099563316250212e-02
-1.399716484163633472e-02
9.848599791298907891e-03
3.799206740689010930e-02
-1.034851129130491543e-02
2.859399365575353638e-02
4.150119716388823293e-02
-2.629372606716921801e-02
1.576413271876302841e-02
-5.395559229423325248e-03
-4.483641007590925820e-02
3.361615214130343754e-02
2.161324691507394979e-02
-1.578067460194198732e-02
1.922963003409431867e-02
-1.151612055116947933e-02
2.510555345450115119e-02
-2.182381196758179098e-02
-8.568214235874617793e-03
-1.350129651215088884e-02
-4.019086791916050977e-02
-1.567221759337722800e-02
-1.302924552496152397e-02
-2.127453523245572548e-02
1.579620539153994002e-02
-3.882750921612442962e-03
1.669674776023230382e-03
1.804822427416411662e-02
2.559870909648666662e-02
-1.786250571070065879e-02
-3.156154883381667720e-02
3.084515816657048062e-02
-2.653910016170701533e-02
-3.616017856011741107e-03
-2.888023412810514917e-02
3.157106545366530209e-02
-3.021121218891811844e-02
1.816756554802049020e-02
1.182167948256450905e-02
-3.018879925570404354e-02
2.630392272154277386e-02
4.906067621070270973e-02
-3.205271050182968706e-02
1.113002054024355043e-02
-1.691149613301578397e-02
1.691904538629373372e-02
-2.846063652500526245e-02
-3.345467679123764748e-02
6.780502177130197546e-03
-1.965456552724320280e-02
4.431038569996413601e-02
1.381441302056445747e-02
-7.195482913485916690e-03
-1.162846410962483160e-02
-4.056330876926830115e-02
2.699338424669680062e-02
2.655376646244616418e-02
-2.155844689728744074e-02
1.000978912841439181e-03
-1.827566337815883513e-02
1.969090812126103249e-02
-7.540798595135505579e-03
-2.110017164821926389e-02
2.027730626682254511e-02
1.054069714126142955e-02
3.231996050128670139e-02
-1.862990222955077102e-02
-1.775417165864748639e-02
-6.340822837947859836e-02
3.067424707787616556e-02
2.488659361737842468e-02
2.286631853392514721e-02
-2.050001818766027800e-02
4.188684225626472177e-03
3.599922274328551386e-02
-3.212113818072816207e-02
4.314986149644160079e-02
-3.561497348415156722e-02
2.447433160846080799e-02
3.297678218971532987e-02
-2.483558255615616814e-02
1.368840661609352534e-02
5.727785487761892502e-03
-3.135481637421073248e-02
1.316312365082918621e-02
1.013548197077847671e-02
1.015410711753326339e-02
3.880778542066728315e-02
-3.220091177424801859e-02
-9.801714632947584535e-03
-2.432657154938021316e-02
-4.194786975757948400e-02
1.546821269429222469e-02
2.136643545020938673e-02
3.379412206626193627e-02
1.243756464048460450e-02
1.826028594514024841e-02
3.250518835804930978e-02
-1.725746307702247240e-02
-3.422578572856476570e-02
-5.186419556423523848e-03
-6.277173323995109862e-03
-1.661629892879526796e-02
-6.603687352351433199e-03
-2.890338498496529754e-02
-2.557000244840968231e-02
1.079817015852295101e-02
4.969888047569372136e-02
2.267844258653639936e-02
1.260793072614670163e-02
-3.644031122250032673e-02
-2.601429991632021876e-02
5.760309932073060142e-03
-1.500141822216164052e-02
-1.578344360240133267e-03
-2.693072453157827756e-02
-3.473472298752258713e-02
4.011251359660213470e-03
3.823213348631290809e-02
-2.049021373890671377e-02
-4.733779939806764120e-03
3.046367313833176632e-02
3.228947791196252332e-02
2.866595086217937211e-02
-3.335220030623186997e-03
1.943125959183912566e-02
-2.779434040351939569e-02
-1.421327083891040996e-02
3.019008053218178583e-02
6.832583343419532974e-03
-1.577428124237394494e-02
1.474854910551100066e-02
-2.282406729839317732e-03
4.780509834530598245e-02
-2.599029299075964264e-02
8.874527492157885736e-03
-1.925031636694876647e-02
-3.599696047806304200e-02
2.286183686823573327e-02
-8.432302385186359397e-03
1.006243311818871659e-02
-2.698914733090818086e-02
-2.395564147107058159e-02
-2.314481550413438962e-02
1.191059021056832361e-02
-1.733960220098334365e-02
5.824245570004275840e-02
-9.885755641216657438e-03
-5.013089202739944711e-03
-5.750674486174289779e-02
-1.816065293040397544e-02
-1.221519252376069946e-02
-1.157942472890564380e-02
2.786601164126657130e-04
1.347583226795732829e-02
1.480528640229617984e-02
4.982379026749358258e-02
2.639273964256729291e-02
3.023071111119818299e-02
3.255181012491006887e-02
2.019508632158004482e-02
2.404993804751717756e-02
-2.892054434751218511e-02
3.989309267053512895e-03
1.317899855432143287e-03
-5.735117115689244288e-03
-2.315589228483578774e-02
1.744806449612179219e-02
3.509898680255915671e-02
-7.654093602045379530e-03
3.611320468652865108e-03
-2.072847972774276553e-03
3.135315085919017364e-02
2.802586791847599262e-02
6.391904062148474203e-03
-2.766636723720031568e-02
7.054114857510747350e-02
-1.379806879944890131e-02
-1.172470320253451298e-02
-7.285151212049917899e-04
1.511743480360356814e-02
2.142353001487370262e-02
-2.791347986017356231e-02
-1.196357742374060638e-02
2.658878468827343897e-02
2.714064092324214306e-02
-3.928420141849926078e-02
1.968544954825774199e-02
-2.982063215170655240e-03
-1.938394084286588093e-03
4.686994795884810022e-02
-2.794899181652632514e-02
1.123311398081637026e-02
1.501149872396091017e-02
-2.360450060102430372e-02
-2.919462871592578331e-03
2.590102603103710578e-03
1.726085348525033952e-02
8.648867476453110659e-03
-5.583755422486566273e-04
4.670987928517836112e-03
1.734556191697239277e-02
-3.979310891014247592e-02
2.207491426810339469e-02
-3.119002860868561391e-02
-4.481602438556483124e-03
3.808438520833606206e-02
2.020761654444559741e-02
3.948478465650108460e-02
-2.667414236048636783e-02
8.926034245310139614e-03
1.835012140738339487e-02
-6.527794433510168692e-03
-2.005640810791797790e-02
2.848755524050170657e-02
-2.408251463782973278e-02
-2.059012596339645368e-02
-7.623490316465907860e-04
2.468266190145120345e-02
-3.427961687514546798e-03
-1.486549555239962024e-02
-3.947563785834257329e-03
-2.231712414500668443e-02
-1.451975785163245151e-02
-3.251412723315628278e-02
2.352380419485881197e-03
-2.322299025001806939e-03
-1.864603262656498034e-02
5.688700108482457052e-02
-1.878812852763341729e-02
1.995908538390500642e-02
-1.404101938266130202e-02
1.240657809830744349e-02
-1.202113218629965487e-02
1.815795488969791779e-03
1.712998151079331635e-02
8.345356935098769205e-03
1.298175399274706897e-02
-1.725614501275095315e-03
-3.262361322917243373e-02
2.154052287037423047e-02
6.177358579600111810e-02
-2.089724255250172830e-02
-2.027927972318243829e-02
2.641625438922612021e-02
3.276269929756012167e-02
2.602623931127219514e-02
-3.060983374056570200e-02
-3.391770697590758710e-03
2.041076282762734409e-02
-3.960035238653391437e-02
-1.233322704565478420e-02
2.120544325732524535e-02
2.712359019383740397e-03
-3.189208520114531625e-02
-1.044988828845780024e-02
-4.125144991404884609e-02
3.198363277596191073e-02
3.755286277738893730e-02
9.335145712341803154e-03
2.440818296373165747e-02
5.440403117768532679e-03
-4.955382856920875767e-03
-3.902961355684091919e-03
4.809347958695246728e-02
-3.144037576698466979e-02
1.399260636828577285e-02
4.120530465662222697e-02
-3.140138170871373952e-02
7.769225570365688102e-03
1.110557825345705879e-02
1.670868985362633161e-02
-2.611330570338985056e-03
-2.549953626863310160e-02
2.005131641619517513e-02
2.375734357133029578e-02
1.993691874279709259e-02
-2.823811790467381164e-02
2.262724276613719068e-02
-4.080623876881443041e-02
7.090161866025707950e-03
-4.395323533047471205e-03
-4.900973150079381523e-03
9.334255674538411741e-04
-1.876715349355109882e-03
2.427561809072467658e-02
1.516847166930425719e-02
-7.800510585441036010e-03
3.108895080690768364e-02
3.611798297800945107e-02
-3.728560638029851382e-02
-3.167396234988691106e-02
4.884811617557360125e-02
-1.835610145819721855e-03
9.212298195436868786e-03
-7.870856906917097703e-03
-1.290726564710972801e-02
8.263824231664218534e-03
-7.060170797015337570e-03
-1.749061243534159957e-03
2.052567528918683437e-02
7.099024459388575577e-03
-3.521601692752394236e-02
3.756895542078166061e-02
1.338066096148955502e-03
8.042086782039142747e-05
-5.649294322232838519e-03
-6.377974932105684447e-02
5.135096396211234759e-02
-1.632859215782683435e-02
4.937516910434205930e-02
3.063528938599349369e-02
-1.531246034216972307e-02
-2.866145395458863723e-02
-1.022934291071958719e-02
-2.741957787253307410e-03
-3.768855672243973803e-02
3.508013275055011509e-02
2.344537596807927393e-02
7.562291579513337123e-03
-1.676860400341816451e-02
-3.496703592652060377e-02
-3.576272964937779551e-03
6.261555869059799197e-03
-2.815946667616687354e-02
-1.934499092972312038e-03
3.194023923641742951e-02
-3.371026265386601467e-02
-4.138552584089585235e-02
2.362549599581421217e-02
1.098903771277760962e-02
-3.175533823615860063e-02
3.417217291820568575e-02
2.902992069691439150e-02
-2.641813282069182395e-02
-2.990969083390134994e-02
-2.607802396589381858e-02
-4.903888101150454676e-03
-2.134915977837454834e-02
2.463191161033329024e-02
-2.558457376800138752e-02
4.005149325945098898e-02
3.398156586280750430e-02
3.374970126061298259e-02
2.974472835235736010e-02
-3.444709703529048178e-02
2.764673933885694601e-02
-2.984733509889454794e-02
1.672620970918222566e-02
-3.146656888505812433e-02
-1.198705505865027728e-02
-3.987851752617114359e-02
4.427140940587197260e-02
-2.896769683279086516e-02
-2.432143736085427138e-02
5.849670649162629424e-03
4.152437349888426360e-02
1.652237668018817843e-02
-1.760685345957856487e-02
1.909384041804525201e-02
6.914889177579933849e-03
-1.456715636240946306e-02
2.177533884164675401e-02
9.996043567182449907e-03
-5.025073465418190659e-03
-3.027596766396863787e-02
-1.357987336145700420e-02
7.279910542180621259e-03
-1.826941037828907002e-02
-2.336218024020983788e-02
7.582408187784275659e-03
1.455493185858978446e-02
-3.444489924147101784e-02
5.208522494690089044e-02
6.510199730737089262e-03
2.600194816908988141e-02
6.539699371528243446e-03
3.982852206685728869e-02
-1.629930097266616904e-02
3.227498808988027434e-02
3.398383223864553937e-02
2.846726253665130685e-02
-2.302558374979250463e-02
-3.540923786044306021e-02
2.708011537600803209e-02
-1.754525696517717295e-02
1.719301552765562652e-02
3.325818548598612201e-02
1.483056960064015224e-02
-1.174957721243926126e-02
-2.316755994131418361e-02
-3.105868537919309613e-02
-3.146521589092288185e-02
2.016085998136973173e-02
2.342035769399825745e-02
3.652746012350552296e-02
2.096865398150160598e-02
-1.257920313808755068e-02
1.553597053391328996e-02
-3.185732568187601976e-02
1.412414458308975697e-02
3.197256387873633615e-02
-1.231204365504835578e-02
-1.917407302241523614e-02
-4.942830478337825739e-02
4.532673381573327359e-02
2.849200097580074920e-02
2.084425758645407079e-02
2.982720636284531129e-02
-3.405879814333457462e-02
-1.250413769677512221e-02
1.327270501314587424e-02
-1.047124208015926157e-02
-1.897499175989331155e-02
4.053096848315150547e-02
2.894209381639738492e-03
1.941497106583444862e-02
-1.045346454037924568e-02
-5.538515502814394219e-03
-7.483111129186561378e-03
-5.483480798616380270e-03
3.207374008157890671e-02
1.491495905572687124e-02
-1.443609186977794223e-02
1.876727239220424628e-03
1.162489426469057348e-02
-1.080439109165918198e-02
-5.958124540046343814e-02
1.822415395691520321e-03
-8.479019349230587990e-03
-5.302714338715141043e-03
-8.519823475926592560e-03
-8.561238498531685212e-03
4.948303802695876163e-02
1.390563381214764485e-02
-2.257228365877425244e-02
-4.663421333759705523e-02
1.012556064935673551e-02
-1.623027865067579872e-02
5.072610066793366984e-02
7.088465835172152313e-03
2.161264046365998434e-02
-1.460420586810700673e-02
1.524328685707401765e-02
5.149141296481979900e-03
-2.024297555224350773e-02
5.967714170237461979e-03
4.595673395929440914e-03
-3.604245833858800430e-02
4.450356889901078972e-02
3.428304844414501590e-02
6.133327213685077495e-03
-2.541289865725959024e-02
5.809344818259625648e-02
-2.943454062246057476e-02
-1.750305955512341735e-02
1.129717181594365807e-02
-1.771263286119016331e-02
-8.594820996604524144e-03
-1.371753204198881970e-02
-5.166984925157330419e-03
-9.766757896333697411e-03
4.681328487328979479e-03
-3.515829484769023017e-02
3.147686140255039912e-04
3.460693737436345424e-02
5.595906838938816824e-02
9.906434475463887432e-03
-6.959606565671050925e-03
-1.454351657549817801e-02
-4.008501900699590337e-02
1.045565925555138991e-02
-1.145082484804628258e-02
2.666666152720268204e-02
3.566930890359883144e-02
-2.540921403503544618e-02
1.128264314571511898e-02
-2.851611820548262052e-02
2.087241558408147596e-02
7.640590446138905388e-03
2.415209679224572525e-02
-3.775955137936264083e-02
-2.899620307782416542e-02
-1.006375033884372890e-02
6.951824327711558955e-03
-9.481619625511632232e-04
-2.020047629944354828e-02
1.398080599899584678e-02
9.088670843510181924e-03
3.529099457979115173e-02
1.148278282345562874e-02
2.247176141495046617e-02
1.850534010817974154e-02
2.047660814684263558e-02
2.915891117984448222e-02
6.322586647167460945e-03
1.955661923731330173e-02
1.599183625094722366e-02
-4.814314949106342917e-02
-1.541544449222459956e-03
5.704799708392218130e-03
4.123009557726185076e-02
1.534671283386437185e-02
-2.157528985787503240e-02
-1.953128237635283135e-02
6.453217677971006400e-03
-3.249933088282608643e-03
4.933721040493842941e-02
-3.301295504069214765e-02
-3.302760074614673885e-02
2.890180098888879296e-03
1.977907004626748219e-02
1.601529065083262884e-02
1.846170233880068540e-02
2.811796398465084279e-02
-2.844184675744638319e-02
-2.784510346130210021e-02
-3.606804034996502484e-02
-8.101358703847370488e-03
-1.723282853603964535e-02
2.072862330312253906e-02
-1.215270911719473594e-02
-2.074858034675867990e-02
-5.542740375010237266e-03
-2.789895792862524468e-02
-1.460221743194628323e-02
3.125302058455246834e-02
9.695603023020868752e-03
5.865152791698186388e-03
-1.571880838185224852e-02
3.714804264166007147e-02
4.230333722419470782e-02
3.658042470470136004e-02
2.768888887297349692e-04
-1.234061465915990870e-02
-2.672260246037257495e-02
-3.038241233373982844e-02
3.803803408979706396e-02
-1.231988294172814587e-02
-2.770572172411563464e-02
-3.741251493127883271e-02
-1.590180752539132117e-02
-1.890130716177347223e-02
-1.259508026335117749e-02
3.946217085235331073e-03
-5.004117111548612128e-03
-6.667751365307344677e-03
5.319106915460925476e-03
-3.907714122621343267e-02
-2.311264900923459473e-02
7.323647333003086880e-03
-2.791648764418161455e-02
-1.435762421686005708e-03
1.553126850239354255e-02
-1.494926383475822518e-02
-2.821649780289618020e-02
-8.726708069672335297e-03
3.211033694695934748e-02
2.084988645528140783e-02
1.351304568402021851e-02
5.016300502163554415e-02
3.033897234911082236e-02
4.093432533821038735e-03
1.838318853615501097e-02
-3.133397773017801251e-03
-1.527681812269411372e-03
1.433409696554054091e-02
2.732008259479848031e-02
-2.536916064052944716e-02
1.589179891296590985e-02
-1.674709929536645145e-02
-1.640844388608795820e-02
3.036057467544018076e-02
-1.844640308635471168e-02
-8.368717597316931503e-03
5.524877983332933395e-03
-1.460432380622729391e-02
-5.864141879481736801e-04
4.304041534630952820e-02
2.336160971982768203e-02
2.533595483725463796e-02
2.316076023365512895e-02
-1.067019254989821746e-02
-2.916498933792655360e-02
2.694776807137787278e-02
-6.396904974504149383e-03
2.556226971524097266e-02
1.215812024635404102e-02
-2.963800242310741032e-02
1.040632883758968626e-02
1.621553351150996011e-02
2.583094799781232229e-02
2.846354782995926327e-02
2.879276049587117109e-02
2.469905598349653522e-02
1.722623506942497218e-02
1.819600189257200226e-02
1.876161190650054279e-04
-2.134360673636568478e-02
-3.268543703995101246e-02
1.613397393246863293e-02
-7.349363398079282461e-03
-4.969451427873393997e-04
2.602284309175704330e-02
-1.396332682199577513e-02
2.664094635319854895e-02
-3.299334105903345415e-02
1.718093437374438801e-02
-2.524912235643658048e-02
3.608854586901624056e-02
2.555273395299904535e-02
3.544944780986414995e-02
4.087667600397884744e-03
1.313416684327907077e-02
4.518230478646909770e-02
