1.417634749072544699e-02
4.075135137384473805e-02
4.474672457030029471e-02
6.805957773542102400e-03
-1.044899057428213228e-02
2.359623940287346525e-02
-7.937384498668603391e-03
-1.781256297923688656e-02
-1.619461991782714105e-02
1.740205764841801575e-02
-2.446599934388892644e-02
-1.625232077512979087e-02
-1.538276742411195767e-02
-1.424487079164783038e-02
-1.265609680269143625e-02
-1.857617302080827315e-02
2.586625181152717775e-03
-1.681267458581834837e-02
-2.296404889267511171e-02
8.541954343349453943e-03
1.653397519932793894e-02
2.215240646630007790e-02
4.010284322868567369e-02
2.181284757491896813e-03
3.105073495313221202e-02
9.726494562415137490e-03
5.798498218153169161e-03
-1.834302422348163888e-02
1.750286293618932495e-02
-1.624797683496354006e-02
1.083939216635293121e-02
3.125857633634563509e-02
-1.086378838660463642e-02
8.657020743550300837e-03
-3.067246427804752595e-02
3.076989955689828776e-02
2.570178098311951334e-02
3.910850941940966635e-02
1.058170296134748438e-02
3.024234195288505195e-03
-6.762341479660551567e-03
4.090494772702433363e-03
-2.680952060377342350e-02
-1.710286567187482148e-02
-2.915974196507667079e-02
2.374109432201490857e-02
2.076345742475514330e-02
-3.577717719142531339e-03
-8.730789116586852236e-03
-2.356036998607441771e-02
1.777858705530376351e-02
6.794508968564675830e-03
-1.833774892354558816e-02
2.449210204978382634e-03
-1.885781176773571391e-02
1.639819487742649740e-02
-3.039473825508603663e-02
1.164934601653968595e-02
-3.985327021239703366e-02
-3.425478600292222037e-02
3.335891863027365400e-02
-2.385297179783607904e-02
5.844457994515109105e-03
-3.055583936714707100e-02
-2.719481091369635450e-02
3.789355135893782839e-02
-1.977224976089966488e-02
-2.752640347438391200e-02
6.358342760271482388e-03
-2.830085395885601623e-02
2.896312104071687571e-02
-2.899909853996551420e-02
-1.707539830334371331e-02
6.837023734442540870e-03
6.363243951936293011e-03
-1.417195382671946821e-02
3.852377225772304903e-02
1.587366064781947292e-02
-2.362172755887408104e-02
4.276456685376985728e-02
-1.823373328830673462e-02
-2.955005026894898940e-02
-1.157990554248622753e-02
2.509608760439654973e-02
-2.521670093261812670e-02
4.071034648766953812e-02
-1.047703522693337400e-02
-6.013584117703292195e-03
-3.759536968076245683e-02
-8.281434190587917687e-03
-1.240154414468364399e-02
2.446152242669066487e-02
-2.708459073530651226e-02
1.754136645953887144e-02
-2.452641750059381467e-02
3.888018027269421559e-03
-1.515438123960560941e-02
-1.717293898337053648e-02
2.385757877569234797e-02
-2.361813925877246506e-02
-1.076077695782929645e-02
-3.089765811997838632e-02
1.775097169852410568e-03
2.420312345024789105e-02
2.125496306438018693e-02
-1.260277210092297130e-02
-2.627161484745497641e-02
2.224729173840543986e-02
2.428455272223295491e-02
-2.877826697244626180e-03
2.603903191066587325e-02
-1.597444839406179234e-02
2.609139018610749650e-02
3.319698845506193624e-02
3.180470164737484590e-02
4.878657077942930541e-03
4.543439180134099115e-02
1.218049289202131338e-03
-2.698922854296268575e-02
2.517637023634131457e-02
1.320669929319621960e-02
1.682773476167469945e-02
-3.612684015945077931e-02
1.184556079801551975e-02
3.352082723684417231e-02
1.937292049105488953e-02
6.160864464322700351e-03
-3.105914874398062187e-02
-3.559523313485926654e-02
3.429824148894063118e-02
-2.469358495100267697e-02
-3.911436856009698620e-02
-2.684640216499796159e-02
1.137364762458220081e-02
1.452017930524551748e-02
1.983273306144173621e-03
4.619997439941894019e-02
-1.088954418438009726e-02
-9.113213788800839099e-03
-1.909231949869747563e-02
-3.275356032252368932e-02
1.742209904503617957e-02
-8.343955571158077553e-03
-2.919081227347386509e-02
-1.275668488995398107e-02
-1.327418101784168421e-02
-3.915740654556130670e-03
-2.793081720054753879e-03
-1.329294305154691061e-02
2.343347173244546278e-02
2.350201921821279058e-02
2.146157001378177706e-02
-1.927190648509587850e-02
-9.201365010786886553e-03
1.559002427870415271e-02
3.790950853387527186e-02
3.585072117815639448e-02
-2.587983066370216911e-02
-1.913229185072998217e-02
4.922531453074328878e-03
-1.597658840684761669e-03
6.417569364986135637e-03
-4.036831122782487142e-04
2.171319915992324032e-02
1.967813696512389285e-02
2.127555012921318687e-03
3.457636440884772309e-03
-5.986902832733440906e-03
2.216197477762856666e-02
2.661714778193926406e-02
4.415368261513118869e-02
-1.302690651017469371e-02
2.233098698760766637e-02
-5.713489286827187416e-03
-2.266180435659740158e-02
2.712132585582644612e-02
-1.777457849441255872e-02
-2.686367307300853782e-02
3.462877546349961422e-02
-9.185775170973421375e-03
2.190677926205057344e-02
2.261323249104658581e-02
1.143824502125880861e-02
-3.102072855510641658e-02
2.685286926437380206e-03
-3.594987561960883565e-02
9.504924688676165455e-04
8.669276659215640474e-03
-1.646556617886653362e-02
-1.858665809097754737e-02
9.012715706109401120e-03
7.411947626739216408e-03
-2.874868031509342226e-02
2.425253618315134641e-02
1.895496964642778143e-02
-3.442119461719825996e-02
1.933822256171354934e-02
2.211685863591527842e-02
-2.254434563790258528e-02
2.832318385181229262e-02
-5.610836497477384496e-04
-1.192133081022370665e-02
1.516304005791162951e-02
-3.023507970826453534e-02
2.089459234990304753e-02
2.944314297519579071e-02
2.641870949519720818e-02
2.318141108760741424e-03
-2.199868722698257797e-02
-5.623121199553518697e-03
4.373850227073201868e-02
-1.083212913810663661e-02
2.581677579683188534e-02
-8.785410619210568678e-03
2.822226128083497529e-02
3.723181156262235503e-02
-1.006483292938558857e-02
-1.833748238246958942e-02
2.086540889812115232e-02
1.212468497365903376e-02
4.081492625529085927e-02
3.279716407759841745e-02
5.360085569106548022e-03
-5.395932134425565282e-03
8.186447225924802645e-03
-1.171201118605221317e-02
3.228300992370680689e-02
2.645024030864739917e-02
-9.917586197857083518e-04
3.134305433886696093e-03
-2.613468239380658739e-02
2.349758787628355994e-02
-3.626536174440667809e-02
-1.683512504461655290e-02
3.781620717434676371e-02
2.104456093276264525e-02
6.520711602485233793e-03
8.800149301379255051e-03
1.548520484863460077e-02
3.087019128579042773e-02
3.084712507517859900e-02
-3.566923991304835756e-02
-1.369678809950436102e-02
3.815175958949944268e-02
-4.927444225126922754e-03
2.630038655551578813e-02
2.006662148981682228e-02
2.850208429476274938e-02
2.901372414428752058e-02
1.288420131043018814e-02
3.296073265151711063e-02
3.799325556695474365e-02
1.855102718000544576e-02
-8.700618150576136869e-03
-1.812861938014957014e-02
7.527329386913803218e-03
1.762788735667969106e-02
2.949839963989258143e-02
3.385751862990992594e-02
-3.047206770085851210e-02
4.943016386137735231e-03
-2.524494032446885500e-02
-8.822538477020089656e-03
1.944243200531737409e-02
1.624561556222779007e-02
3.280123674785014737e-02
3.408535498620252069e-02
-1.357168235548412657e-04
-9.778276416979677158e-03
6.547709722011312364e-03
7.498116879977225618e-03
-3.581460606385087828e-03
3.527685455271096365e-02
6.741020841003642072e-03
-3.239465536606468687e-02
-1.892137066155816227e-02
1.112053990521847703e-03
3.017956687583502745e-03
1.007075917160656260e-02
2.888787656787500033e-02
1.824347067026728386e-02
2.714847349295630360e-02
-6.139585097149590810e-03
2.065715467575259673e-02
-9.132137387660192382e-03
-1.255833283662245725e-02
-4.001563740971124383e-03
6.268675694922650268e-03
-1.472125185502293210e-02
4.060079805385057028e-02
3.817099885852157787e-02
1.851100777614241369e-02
-1.923645579872662603e-02
1.150916584456844124e-02
3.232210734553914860e-02
2.749162545902069515e-02
-1.405683235784555338e-05
-2.806138433644305569e-02
3.182757089801833972e-02
-1.578069645208656988e-02
-2.104893620225239698e-03
-1.389633230015998623e-02
-1.095827288603111287e-02
-6.990514040577848129e-03
-8.032437732753097692e-03
-2.528984506772587529e-02
-1.587958168158368558e-02
-1.125247117720396504e-02
1.714314722884154735e-02
2.244756344385037683e-02
3.562172557397070422e-02
-2.387020552427963557e-02
-2.742743392363789293e-02
3.459981853230063159e-02
2.031704059123715794e-02
3.438883136056936768e-02
-2.024167246104196030e-02
2.589641612467041658e-03
2.913594394412265601e-02
1.895135877354940310e-02
-1.872601952161995903e-02
1.442290036138839729e-02
-1.472927083001369236e-02
2.808516517765714468e-02
-2.271260957026571131e-02
4.503164230775624777e-02
-4.428047157689087542e-03
-1.005666190117341340e-02
-1.196751316575869056e-02
1.050753640649697805e-02
1.957991470640242648e-02
-2.103144726158460640e-02
1.522466381299344453e-02
-2.208369542007399683e-02
2.377104701220789443e-02
5.893106565356106066e-03
-2.682127584913661378e-02
8.525487936703605302e-03
-1.956153311552025209e-02
9.194214890610070967e-03
-1.117911693257618924e-02
-3.034242430180850505e-02
2.730052692642771783e-02
3.089528233459109402e-02
3.676515408201919133e-02
1.870501347440426537e-02
2.882056307504075074e-04
3.578857435632375877e-02
7.403625978304204623e-03
1.684370579395750092e-02
-2.243679968369608965e-02
-2.410474030398235962e-02
-2.851538241246919653e-02
-2.099856325290457015e-02
-1.057194801784311529e-02
3.442221299154448605e-02
-3.411675166140882599e-03
9.861955609076348758e-03
8.278224308783169866e-03
2.458933743203888661e-02
3.767796956376521372e-02
-1.221568238226197365e-03
1.463761101165165189e-02
1.893337497476768258e-02
-1.657097752209519019e-03
-6.502708823087059720e-03
-1.415816776664138854e-02
3.889961200256838308e-02
1.175995644278454016e-02
1.706314323855686460e-02
-1.531513472296961408e-02
-2.261699019500407193e-02
2.076601389395583280e-02
3.706717909622463114e-02
-1.460400161023435624e-02
5.095336728102002610e-02
2.425793688995022540e-02
-2.878490181923340496e-02
-2.797894661974735520e-02
-3.573080682883626041e-02
-2.856149126614444811e-02
1.289619024586872997e-03
3.890639409427996270e-02
-1.980360016938898307e-02
-4.219315499382507093e-03
-5.194570631790196031e-04
3.207439814399612454e-02
-9.875729492625759387e-03
3.041878937992679652e-02
1.745710133484063356e-02
-1.590764728236515732e-03
1.033966394562423931e-02
-7.030889517636586608e-03
-1.231472844653331167e-03
-3.275297895155548922e-02
-8.970350274317563655e-03
-2.767088027158601596e-02
3.259102721097167921e-02
4.181740105004391056e-02
-1.110593154072241247e-02
3.654202082810408675e-02
6.394288047972355830e-03
-1.247294087035922226e-02
5.768025976000966219e-03
2.611445833392183127e-02
2.371042131250857346e-02
8.365072028608340829e-03
-2.173005792552367560e-02
3.138234783482903717e-02
-3.121586393019416816e-02
2.099814321570885045e-02
-1.620225436959303253e-02
2.472703539619418647e-02
-1.962518679685842579e-02
-7.611303895349549094e-04
6.205564973600604002e-03
-2.711026826460380401e-02
3.637803593548995240e-02
3.303651930193017561e-02
3.212413883733878511e-03
-6.901514660126644406e-03
-7.197485904139391821e-03
-3.125634552226440321e-02
-2.061289932109141437e-02
3.594261957368965641e-04
2.703636341199348175e-02
-2.704021735018770009e-02
1.134281220025313598e-02
-1.902384125443435867e-02
-2.227288076401067948e-02
-1.505819054674230849e-02
2.104379028781937222e-02
2.766708193347568179e-02
3.081681194149267847e-02
3.734192410752604219e-02
4.301586170376069107e-02
-7.095868124841455717e-03
-2.382100903586394786e-02
-1.634427452581790202e-02
2.245632070957932075e-02
9.055130988460668995e-03
2.593457616391489987e-02
6.236711964184793672e-04
2.672533397087061696e-02
2.167551199130119538e-02
-1.891925296858858532e-02
2.835716115663546727e-02
-1.202668944885304167e-02
-1.180465446083022764e-02
-2.040612186749002355e-02
5.064062288336718121e-02
2.768595499528577267e-02
-4.275033875101382982e-03
-1.182731699405697653e-02
-2.387490971743701923e-02
3.571107327011514149e-02
1.302251349091115493e-02
-2.341077070192894988e-02
-1.546798941871008713e-02
2.654974526108728333e-02
1.269990990370265492e-02
-2.635196806057432672e-02
2.634864638151295305e-02
-2.434453934825156788e-04
-1.256585770207346506e-02
2.974798085988014304e-02
5.238331017825413605e-03
2.105121245541505953e-02
-1.504951143266587688e-02
3.519102517274400044e-02
-1.725620458074554261e-02
3.828685507864879045e-02
-2.117373438734457703e-03
1.528538767661449457e-02
-2.322117758380485859e-03
2.835409968132446626e-02
-4.245351710078807891e-03
1.443524116991940984e-02
-3.618979226101049634e-02
3.522464724936365948e-02
1.858463227694412022e-03
-4.565054267095560760e-03
-2.363005306470520803e-02
-3.107954713454731070e-03
5.681130824779309467e-03
1.416890252735337162e-02
2.409023087798667362e-02
4.603686181286264709e-03
2.171429460700666225e-02
-2.494329547895736410e-02
-2.063399819859822442e-03
4.182606042102011285e-03
2.983331621298120420e-02
2.066691418735234001e-02
-1.854162581114976449e-02
2.122372179111277693e-02
-2.963860082359320164e-02
2.702615132058054648e-02
-1.260475174765217192e-02
6.992226105600664321e-03
-1.765426304594221868e-03
1.179338502573595501e-02
2.499784885824426345e-02
1.897115090513126073e-03
3.400990390650090837e-03
-5.078034211660401379e-03
3.311331500531590477e-02
4.355194835098258332e-02
2.161997669558222285e-02
2.815225671564259083e-02
7.784825772878191559e-03
-5.046627475000045951e-03
3.399866046422607424e-02
6.217255014039898241e-03
2.629717852405967851e-02
3.797589523852989979e-02
3.098589513102784077e-02
-2.011029424606904873e-03
2.360492421348978770e-02
3.151526418065460355e-02
-2.193639744697828062e-02
2.409924981974228761e-02
3.557662617947691258e-02
1.181374334976719939e-02
-1.448491140479215601e-03
-2.369495279792711850e-02
-2.914730342774906821e-02
-1.834997564135580281e-02
2.882229053124033338e-02
-1.959722275054020385e-02
6.923082470779678803e-03
-1.869570984257670418e-02
2.804323209492330226e-03
3.053541027110155681e-02
2.627428277774606497e-02
1.298581197422678420e-02
-1.314965462650593241e-02
-3.318327910955869153e-02
-1.936986742113554769e-03
-6.400492456114486271e-03
1.986331219278853269e-02
-1.171917007423324379e-02
-2.197708112500704192e-02
-2.378066488899721956e-02
2.149442202298800994e-02
-5.718276772072946809e-03
-2.371913026736182858e-02
5.004413024753487545e-03
-3.050848152675551817e-02
4.560097822241853858e-04
2.374685569238289481e-02
3.261880837229732405e-02
-2.567910423774994594e-02
9.559876760952629171e-03
-3.495555441200831615e-02
1.230440617343981496e-02
3.793143485418252331e-02
3.357952366514894982e-02
-2.094536576376182166e-02
-5.929351556476131256e-04
-1.693362806761692730e-03
1.071873821209848136e-02
-1.846530362546134826e-02
2.981965092373202453e-02
-1.358250744019713803e-02
4.746252093476485516e-03
1.305097347348173689e-02
-5.131713805722231542e-03
-7.918105065099583645e-03
4.014890227272214368e-02
9.948564048710650115e-03
2.013142533590169328e-02
4.362843285931498893e-02
2.426407881671515179e-02
-2.046013436035252001e-02
7.305737908875373915e-03
-3.491650605507550659e-02
-2.505614616785102611e-02
3.219980869591579364e-02
2.486325554820978390e-02
-3.755036160936875596e-03
2.707722151767801358e-02
-1.428656463875848520e-02
2.751493117622788240e-02
7.340886299042022507e-03
-3.137433705693810221e-02
-2.420730439496656533e-02
-9.020092050914503903e-03
-1.896672967904545343e-02
1.195088944126943171e-02
-2.423192166230799319e-02
-9.922459313920628868e-03
3.934745721566222654e-02
1.030013256935384709e-02
1.113055241860123890e-02
-3.218793260035257564e-02
-2.075110471073329799e-02
-3.141525731656682335e-02
1.822631163447309063e-02
7.359946061597985416e-03
3.689272269233180579e-02
-3.146135478987386463e-02
-2.874819127641776648e-02
-1.491829982101611565e-02
1.611371940073863529e-02
-1.652054810065129928e-02
1.810116811130020945e-02
2.880805143569476964e-02
-2.304407624239313002e-02
-2.404788997154157573e-03
2.773959984581297541e-02
4.360268578461504174e-02
-1.275383609619112554e-02
-1.044308644413581739e-02
-1.027467032126175642e-02
-2.609309601252957425e-02
-7.868628105795329869e-03
-1.689801230944044594e-02
6.068256499748809346e-03
-1.066083195049179026e-02
3.150319889847741361e-02
-1.256765914423298332e-02
2.529934746576155413e-02
-2.976434784500429920e-02
1.875754167371272967e-03
-6.652731219225092342e-03
1.253513833181352927e-02
-2.293396598396291522e-02
-1.233382405936566187e-02
-2.275044507795270440e-02
-2.298405909384881873e-02
9.199043709688787401e-03
5.979500287141071777e-03
-2.152872077237936999e-02
3.365346453791981818e-03
1.756756067988764908e-02
-2.098231979546402726e-02
-2.809159491204719222e-02
-2.658349851752360438e-02
-8.626412201227000309e-03
1.503988429964853331e-02
-1.362822517503368622e-02
-1.087771732441512353e-02
-9.473311759439442424e-04
4.846247814474446795e-03
6.070691663053511856e-03
1.637705781704939037e-02
-5.488967056828710986e-03
1.647170509023153720e-02
2.782895016324861415e-02
1.635564604116113846e-02
8.026670385257651807e-03
3.788882533479704523e-02
-1.276443483382514420e-02
1.957611189222410036e-02
1.743962344002930598e-02
2.481309705625716830e-03
3.533480879934877868e-04
-2.349793346089933122e-02
3.301988213100335440e-02
3.196663150990070794e-04
-9.578496065159708070e-03
3.249112548927930721e-02
3.371076893364413629e-02
-2.934493429013099175e-02
-2.560848230606486628e-02
1.672295551152200993e-02
-3.485974127975711989e-02
-2.173906228587104209e-02
2.339202408948080208e-02
-9.573319760603176201e-03
-9.867914296118858800e-03
1.503371951690925939e-02
3.512199781802449045e-02
4.171145197371346064e-02
3.119934104551749104e-02
7.661180673619239455e-03
1.498323002840076454e-02
3.554947453718528688e-02
-3.023582396839097353e-02
-2.544659130835843011e-02
8.597904533049509010e-04
-2.261452811265946689e-02
3.488903562275264686e-02
2.593038391667815482e-02
3.544690108918848587e-02
1.440669173942257276e-02
-8.307545622105535002e-03
3.441255259684814719e-03
2.032834920221413683e-02
4.199180310875819111e-02
-1.433930812799379985e-02
2.488262548146348563e-02
2.552395020188460290e-02
-1.300726008984912606e-02
-1.108973882780280723e-02
3.639277976647368323e-02
1.000236372930398375e-02
-1.835409109210365750e-02
-2.202786534489390227e-02
-2.274205202828169167e-02
2.743906724483465356e-02
3.398112599705064435e-02
-6.431385177168145138e-03
3.743790748875382851e-02
-1.556828545951596116e-02
-1.643655276832119497e-02
-5.214193277067265611e-03
-3.267792120064404865e-02
3.728350860870889572e-02
-1.987174684208283318e-02
-2.509424934348559316e-02
-2.500453067757445191e-02
5.679374165745712348e-03
1.202968317492134065e-02
9.888836313998394800e-03
-1.312587504107551664e-02
2.235820457181830062e-03
-8.665419635711357413e-03
-3.078874069901971905e-02
2.481292469089953559e-02
3.208871262216206333e-02
3.238329736092389333e-02
3.797605031498098305e-02
2.886547776811596369e-02
-1.280804093388198187e-02
5.436114795118888836e-03
4.846429699631751810e-04
-2.714481420692312422e-02
-2.821637382264126706e-02
2.354058425751989411e-02
-1.490793451407193375e-02
-2.273806786664960000e-02
3.340897986996170521e-02
-2.245920257274326010e-02
-7.559976849608730093e-03
-6.833940135857231868e-03
2.327959604690535769e-02
4.162538723299349236e-02
-8.078418858943689366e-04
-2.890085177588268620e-02
1.461190961676905875e-02
-2.578126241268832025e-02
2.099278733942560801e-02
3.040431393917347649e-03
3.146772585088938173e-02
3.827360180869814055e-02
5.873390892735461111e-03
1.292234278484309835e-02
-1.983290664616326263e-02
-2.836089439533077614e-02
-7.374370016845995836e-03
-2.305338763273496669e-02
3.112296490737309802e-03
-8.727882261651985843e-03
-3.059667914678618900e-02
-8.478598682479184662e-03
8.616547216365446835e-03
2.654461272766858032e-02
-2.725894797427100974e-02
9.552804859271575577e-03
3.045629010254144974e-03
1.470460825467196503e-02
-2.695953941946637941e-03
-2.001828194636451688e-02
3.183821181617836615e-02
-3.701618832024242307e-03
2.748790300981593469e-03
-1.548048349782576473e-02
-3.103548998315544885e-02
1.057338174994607244e-03
2.546934432093363176e-02
5.364019405919289753e-03
-4.203122663450854259e-03
2.499607100058678227e-02
2.737214301157604029e-02
-1.357478408141663982e-03
9.992383303042097140e-03
2.160317521445038330e-02
1.035551298657001913e-02
3.471700478489862102e-02
-1.310680467438023709e-02
2.866479458062227981e-02
-5.325540428504470757e-03
