-2.852214815638800041e-03
-2.816652935415802153e-02
-2.348274077143109109e-02
2.885149232625738511e-02
-2.295067091884273741e-02
1.158601599458424988e-02
-3.030029350151086133e-03
3.006579605017740270e-02
-7.441075426409523262e-03
6.667138701970918430e-03
5.243858261855954134e-02
1.370718173888524002e-02
3.810142084779973015e-02
5.154419233665479688e-02
-3.526956501005624328e-02
1.641318148538965793e-02
8.670935130874628249e-03
8.142716266525889396e-03
-1.149485826432608201e-02
-1.503370677972618377e-02
-7.336711166637505110e-03
2.814066971726614935e-02
2.241663905894845585e-02
-3.186240444872637939e-02
1.334943656615476468e-02
-3.440347414519229208e-02
-9.092658362720667728e-03
1.609494207456196521e-02
2.112893399231053487e-02
-1.996261539181162434e-02
-2.877989666146928832e-02
-1.870555198154908935e-02
3.002452532501679108e-02
-2.079745070450007491e-02
-7.156863583746484597e-03
-3.046196863435400928e-02
-3.218927123715948409e-03
-2.522262988037374254e-02
9.277869046899067315e-03
5.654534094542825601e-02
-6.570912105625983587e-03
7.396877517058482454e-02
-1.426805636329538975e-02
-1.891658294922947056e-02
1.197095285873907636e-02
1.600718564714289152e-02
-9.646733577956360939e-03
-1.614515660951657688e-02
1.331914966315707154e-02
-2.101571571778112699e-02
-2.856288497802830090e-02
1.673586666255363941e-03
-3.448844666618243460e-02
-8.926156888498590000e-03
-1.918027451372249920e-02
-2.652495610581964355e-02
-1.943169698007981075e-02
-5.915771694994885650e-03
-3.086676583723230519e-02
2.058013799898221127e-02
-2.654255020554778174e-02
-2.197295371251027987e-02
1.894762220527091909e-02
-1.929510921742651555e-02
-4.606027882648457833e-02
1.779219328708456227e-02
-1.169961146340521563e-02
-5.005828093699332508e-03
3.793334371304943331e-02
-1.245872139650997489e-02
4.493458259225300427e-02
2.522678353370223087e-02
1.747880864020191771e-02
2.317276050734131537e-02
1.042528861333012064e-02
-3.028839582663439556e-02
-1.846680812315917505e-02
-4.571274321726544881e-03
7.028679641573136981e-03
1.958806002460904139e-02
-3.181782935278941460e-02
-1.568983213904297930e-02
-1.808541075871762660e-02
3.508981754910619338e-02
3.939398890003498188e-03
-1.396779187448092020e-02
-3.172672971358497102e-02
-3.105925063222839816e-02
1.958278152094365329e-02
-3.599247975389432974e-02
-1.421841817638961128e-02
-1.390799928898218268e-02
9.447429702844919661e-03
-5.145674792202166448e-02
-3.716253703808992948e-02
-2.332605124699697538e-02
3.918475712875289091e-02
8.685707451820361483e-03
4.905266842792643106e-02
3.414901168333536741e-02
-1.953991509169833440e-02
-1.538373524833080638e-02
-2.043650807925050106e-02
-6.906280300376570723e-03
5.323967636660546093e-03
-1.310143804345162248e-02
-3.498149899916265515e-03
1.865351324377789374e-02
3.205343936676107591e-03
-1.754677374285731548e-02
1.794920396949285443e-02
-2.726472457300362084e-02
4.108895825779584031e-03
3.210869336536151947e-02
1.814703196624527226e-02
4.093810653097104853e-03
9.823476438044837639e-03
-3.124595260048212628e-02
1.554757742218206527e-02
-1.775089142505639414e-02
-5.493157333412169432e-04
-1.448446037439041038e-02
-2.776942373743510051e-02
-1.802374360929609801e-02
8.704947746547810755e-03
-1.683997979075118473e-02
-2.002263722510176994e-02
-1.203306067152190746e-02
1.045063635176866380e-02
-3.844008694643540752e-02
-2.943790001238288934e-03
-2.972023696275455373e-02
-1.954752994638218194e-02
-9.013691501265356371e-03
2.489165180463778250e-03
-9.755821071189009139e-03
-1.799300874164707145e-02
-1.295921222492075510e-02
-4.486861421512176873e-02
1.224285011810920818e-03
9.875376634233863291e-03
-3.599115854070450427e-02
6.045625641251646185e-03
1.954365045400578010e-02
-1.140583284642497988e-02
-2.773671872058208407e-02
4.541533962496163875e-03
-3.890011476719336392e-02
-2.531177858355616525e-02
3.374114740899489869e-03
-4.055037728362389376e-02
-7.481880699547830901e-03
2.701458791673085058e-03
-1.390232526239275866e-02
1.426747174197369114e-02
1.269067113462811003e-03
-3.505923494456882061e-02
-1.962170860986608631e-02
1.258790397594339305e-02
-4.571035350770721872e-02
3.314062571311966049e-02
-1.071737055581896414e-02
-3.562462537579572791e-02
-3.530086605429066937e-02
1.311384311150952907e-02
-3.433935505016637302e-02
-9.707462000343487427e-03
8.832768408299317489e-03
2.939600826681403739e-02
-3.807372408649714601e-02
3.219179416595906867e-02
-1.413655964048375104e-02
4.895648211736647153e-03
1.490262074646157842e-02
-1.317040709140265137e-02
1.725852563956952260e-02
-8.970080947674301947e-03
8.220973829672231434e-03
-3.795655969697946802e-02
6.984439886327743242e-03
2.112459659745210411e-03
1.683169804239463552e-02
-6.595001765701741236e-03
-3.653903655746349594e-02
-8.701740151199206493e-04
-4.916950656898728261e-02
-3.871897126399603123e-02
-4.166296350166839857e-02
-2.959334125841036472e-02
-2.396402369406565661e-02
8.145608556783900597e-03
-3.308983289568529634e-02
-6.410049051026679538e-03
-2.032783439504140879e-02
-4.101674666664712615e-02
1.027746662646017092e-02
-2.468731329890492057e-02
-3.026374571582148357e-02
4.647540860182516713e-03
-6.959350366146132942e-03
-1.823654074341556769e-02
-2.847127689746484572e-02
-1.661624472576722286e-02
-8.589662987670252520e-03
-7.508183886360024310e-03
-8.466436628387344690e-03
3.167856655618800713e-03
7.006475977321735549e-03
-1.374405134472658600e-02
1.055907271594810903e-02
9.616429699963431957e-03
-1.274557193773009217e-02
-5.246126745038232758e-03
-1.556853606118447503e-02
-4.115536981208322426e-02
8.120435190852393417e-03
-3.821992231751436802e-03
-1.108948961194268154e-02
1.911020688881424814e-03
-3.280705313291031738e-02
1.269878738320139380e-02
-5.853418876302669827e-02
1.211775402483174831e-03
-9.921106440331317264e-03
-2.252050490499299742e-02
-1.846505110857477733e-02
-1.602675157633836819e-02
-1.239646092016740038e-02
-1.729925160966808498e-02
1.304128211831660257e-02
-3.177926634641533524e-03
-1.163422195090085820e-02
-1.495677379305471177e-02
-1.811421556266192955e-03
-4.215198873189694023e-03
-1.238822838998370271e-02
-6.463016445913918884e-03
-3.529910220357933281e-02
1.286132930838225844e-02
-1.988764684276448161e-02
-1.552980878400872511e-02
-3.524057853254625866e-02
-5.505541334954280885e-02
-3.611022331234988586e-02
-3.884242483477486768e-02
-2.021266218037612999e-02
1.640489016295183095e-02
-3.246609001445369819e-02
1.184862784717570332e-02
-2.817236037017821146e-02
5.085219746654787674e-03
5.377562503309826769e-03
-1.105820073008185848e-03
-2.239584118316102768e-02
-1.123971843445529650e-03
-1.296360093404397458e-02
1.526314447647327162e-02
-4.513624806582859639e-02
-2.977986454932357585e-02
2.683361948924154264e-02
2.480752835433176328e-03
1.160805171035362952e-02
-2.299515362111422337e-02
8.322692198065015368e-03
1.156298365367150818e-02
-1.734868698967904563e-02
2.817959451308240867e-02
-7.219095542847896001e-03
3.432902072172304420e-02
-1.425791481958087843e-03
7.289900245439977569e-03
2.358105101048901808e-02
1.340709188053781226e-02
2.430051264335953906e-02
-3.437802810624938227e-02
-1.445237135770078944e-02
-1.084843357253246175e-02
-7.272909083826353122e-03
-5.908589821969962479e-04
-9.065110851472245931e-04
-1.303541399281256136e-03
-9.142172855832303088e-03
-1.389588297156716962e-03
-4.507996633330192335e-03
-3.048214501027112638e-02
-1.308445873775937289e-02
-1.575336374422443148e-02
2.056332795608714278e-02
-2.076844459844698343e-02
2.682755784872053843e-03
2.261781476401909796e-02
2.029547257024270912e-02
3.120713556743010333e-02
1.135723522870216683e-02
4.117696568815203823e-03
3.593258188206423925e-02
6.968499135947333646e-03
4.856525414293207479e-04
-2.923288106616188722e-02
-3.453401402997464259e-02
-2.200770667848080467e-02
1.230520591481344336e-02
5.638389414820951621e-03
2.474071101588023319e-02
-1.543177568205029646e-02
-1.428141456472197153e-02
7.627934944309069584e-03
2.650894570397270555e-02
-2.584442924297795582e-02
2.099660968157032737e-02
-2.345571448081071667e-02
-1.479196462169128645e-02
-1.344013742894473000e-02
-3.261669901993449749e-02
3.003436402630807467e-02
3.187301063594295131e-02
1.663653908331131498e-02
-1.526659850153842118e-02
-7.724720352731704980e-03
3.384391078631998964e-03
9.567860225578908931e-03
-1.351222311397153215e-02
-1.740501978735444627e-02
3.833613524534543876e-02
6.850312500601952147e-03
2.103136615084478384e-02
5.126213831609060384e-02
-7.660758870397802378e-04
3.534751275053771985e-02
3.369359977600575734e-02
-2.463720992851742980e-02
2.561489430517239606e-03
-3.660517260712591123e-03
2.924202326437200586e-02
6.421340439069223027e-03
2.476436661565788871e-02
-2.950529802660949857e-02
1.694044861398295160e-02
-9.909299229882873039e-03
1.167844801942174299e-02
7.981541143753011214e-03
2.253237367288572768e-03
2.211761236779764481e-02
3.776255919359123442e-02
4.387172853888018920e-02
3.896619172115105972e-02
2.162185790611971178e-02
3.026112186266612797e-02
-1.521819842430878825e-02
1.183859925004951581e-02
-2.894883297233269773e-02
-6.169074775437210188e-04
3.140803935147894882e-02
-1.384663423823894769e-02
3.735961909977621176e-02
-1.533394410191486062e-02
3.125562153530361299e-03
4.376952462967182572e-02
3.574662231189486977e-02
-9.281263456544389741e-05
-1.176983117072428163e-02
-3.145879861520513299e-02
2.815270082205567972e-02
-1.075152938436097980e-02
-3.966785981656238691e-02
5.172621554766496273e-03
-1.269087318428854458e-02
2.686800314381418420e-02
1.301365072284394429e-02
2.014774872734043445e-02
4.870129620061911663e-02
2.962507936704699557e-02
-1.866434125051092893e-02
2.698904967474506297e-02
3.007253207177286794e-02
5.021430123517901974e-03
1.407460837281576671e-02
3.268747686600708552e-02
-2.090599910943969839e-02
2.561606287274634589e-02
3.900613865626583604e-02
1.358480448251101445e-02
-1.464171150415808156e-02
3.326620466417901101e-02
2.895092069369247303e-02
2.354968254636675626e-02
5.194385236232649389e-02
2.829807894779644978e-02
2.887346194633951327e-02
-1.407060180303259384e-02
5.670240731384770111e-02
4.003203409809148738e-02
-7.653351171619342079e-03
1.905493543199052175e-02
-1.057394858330793289e-03
-3.666854845241585004e-02
-3.312075476129850565e-02
-7.425581586407839496e-03
2.205886454197483748e-02
1.229214285635493904e-02
-7.212676590618064768e-04
4.506134371221239693e-02
1.081165734822363798e-02
1.286840296978392778e-02
4.953803765810393944e-03
6.805824548085036806e-03
4.185133265298529581e-02
1.028931406636238513e-02
-4.138438278040953468e-03
-3.339801648555053293e-02
-1.496540532189790176e-02
5.902401873706455276e-02
-1.190992565948347480e-02
4.786702311012926148e-02
1.281988964873448204e-02
2.789352768655676759e-02
-8.146109807594609578e-03
2.807887325475506152e-02
2.611819683329276096e-02
-2.935134605571394079e-02
2.843203529135705787e-02
-1.876874836347752415e-02
-1.333404788299634826e-03
2.047484965476971397e-02
1.931894024552264014e-02
-2.524042283606449735e-02
5.385572290611994467e-02
1.908043315466874390e-02
5.375485352125519700e-02
2.157661529975594267e-02
1.890722942485700483e-02
1.863231185384442629e-04
3.795088940235102903e-02
-2.110686057420722503e-02
4.031531277072162439e-02
7.789030519108077442e-03
6.418467476119313342e-02
-3.738047387835555929e-02
-1.805102571547331086e-02
-2.789361147357281075e-03
-3.749044155235610378e-03
4.392941611083817782e-02
3.358417406721283388e-02
2.961870249256691370e-03
-1.983093926110457428e-02
3.487230411159655125e-02
6.179282206628992913e-02
2.350540473221714166e-02
-1.338168158806507697e-02
9.702094894371652775e-03
-2.820987816765613623e-02
-3.386367290474739944e-02
-2.650618753009704662e-02
3.150089610539445750e-02
4.034660305064928509e-02
-5.776811579497795855e-03
-9.640200253686011245e-03
5.805659007142785488e-02
-2.445682995460995643e-02
3.412004393501575500e-02
-1.448843095656304758e-02
-5.426689152992004647e-03
-2.593420674098737347e-02
2.680877607451056729e-02
9.238693515212259219e-03
4.670595073701744315e-02
5.044169896890433880e-02
1.935297072980363478e-02
5.291145996911111177e-02
5.849768275320401875e-03
3.098126452039351442e-02
-1.254751321676280144e-03
-1.416453564661326187e-02
2.699251365179586998e-02
5.150340465912014998e-02
3.248029630061929907e-02
-8.224810295973383756e-03
1.903282451728365021e-02
-3.344813141980656351e-02
8.332158501077701132e-03
-1.059374270508729905e-02
5.760291986122362956e-02
3.091758962151067505e-02
1.022685108719992297e-02
3.134050765326849407e-03
-1.550558559933671622e-02
4.434333347228893579e-02
1.464421256533507756e-02
-2.224228891222218216e-02
-1.302741276082739971e-02
5.449597334683056911e-03
4.116595800919737452e-02
2.749599388472395364e-02
1.715013617048397748e-02
2.377135202348251708e-02
4.174196694760406307e-02
2.017418011601385813e-02
1.773823442318601560e-03
3.220353894478774487e-02
1.713151375299872556e-03
5.466312345088912387e-03
5.458927899024661884e-02
4.985392936587103307e-02
-1.773318471536036028e-02
1.637385231548049366e-02
-1.890315388872969293e-02
-2.838340979625752700e-02
1.313910584900982630e-03
-2.115642421014793731e-02
2.392102982372714542e-03
3.974927206370366950e-02
1.321982348214905019e-02
2.578163288394010044e-02
3.930071676776840384e-02
2.544995474679478606e-02
-6.523388843105507907e-03
1.223112933470003189e-02
3.005651036946490121e-02
-1.574713292154145822e-02
2.698792459957535458e-02
-2.980672633309231281e-02
3.956847496169223211e-02
2.964887361172933652e-02
9.036336372346881474e-03
2.572125995697353146e-02
1.597705153250077170e-02
4.792858323885149097e-02
2.268428210770325609e-02
9.109513928193738522e-03
-9.081687368336806981e-03
2.773475698091107042e-02
4.395090786439073520e-03
-1.060680139947134740e-02
-4.596447456790550730e-03
9.299976876083469388e-03
-9.236210905570694726e-03
1.700056225510681446e-02
1.471133475085915909e-02
2.043112940447751671e-02
2.993689894533712106e-02
-2.507441184653452781e-02
-2.375946740922467090e-02
1.353888963787873087e-02
-4.578831956127436993e-03
3.641683939477257520e-02
-2.153260173523466672e-02
1.286033514401783290e-02
-2.030359249938410229e-02
2.757762389586866300e-02
-8.534259215673469304e-03
7.577291068925752146e-03
1.469226827672720330e-02
-2.356493173203005539e-02
-1.551501620726786559e-02
1.419358253971149571e-02
-2.302808422102992081e-02
3.908353682403236523e-02
9.173460336853072813e-03
-3.405808754471393966e-03
-2.798067284630526615e-03
-2.568402555318545152e-02
-3.334674255469756432e-02
-1.709072348647982728e-02
-3.421115768533775081e-02
-1.288969191874280058e-02
-3.340415192399104338e-02
-3.197236631123748316e-03
-2.467374705448075866e-03
7.603391716005475321e-04
-6.813915750764343304e-03
-1.606047480398813815e-03
-1.052599318028008858e-02
-4.146394425917843823e-03
-1.495964254777234874e-02
3.261200930656821956e-02
4.801558989646919143e-03
-3.184927118020661543e-03
2.986875643538190565e-03
-2.140817983116258608e-02
6.277470154165311214e-04
-2.425462276743724482e-03
-1.261124073236733270e-02
-8.876247681589599300e-03
1.799234691226608493e-02
-3.260404940853005307e-02
-7.115893587752128088e-03
-6.379255689051004097e-03
2.107160899771361000e-03
1.631425699433300402e-02
-1.085231983113796837e-02
-4.332593731946352000e-02
1.083377541827427494e-02
-2.953304199887601261e-02
3.888644246680153429e-03
-2.405576240566499255e-02
-3.430410934841748860e-02
1.862008334794171965e-02
6.222795522102431316e-03
2.071247652346919557e-02
-1.347628013965426232e-02
2.548458689336544764e-02
1.673736019369878938e-02
1.773880065692669608e-02
3.261475449806112287e-02
1.340595998146225203e-02
-3.810412470114508260e-02
2.681237213936135677e-02
1.957840061164325962e-03
1.388936674295210456e-02
4.557948129820779161e-03
1.823399937753826701e-03
-3.794637485847224267e-02
3.043059609624926797e-03
-3.521473736389690162e-02
-1.413641726140040487e-02
-2.954649056311284619e-02
-6.626834671965670456e-03
2.301307804664115206e-02
1.185237359143175928e-03
-3.162025852301902223e-02
-2.475578595004232843e-02
1.518851343419568706e-02
4.029363260305746791e-02
-4.257199802330598366e-03
1.750436020670199239e-02
-2.615821668413982615e-02
7.948111279717440941e-03
-1.418800001473604668e-02
2.849161649658476722e-02
2.484231102580173461e-02
3.031197547087889632e-02
2.450175489538368792e-02
1.126643591275735060e-02
3.547655639535230582e-02
-3.783826416608400411e-02
-1.992025150342738998e-02
1.616464200006787616e-02
3.424642219776271451e-02
-2.220889241967615994e-05
3.769985383285132108e-02
-2.397634358727819548e-02
-1.351766169739733806e-02
7.710675735494070329e-03
2.141706053487785893e-02
-2.643474813076319291e-02
1.662929795689469317e-02
-2.239215967656674102e-03
1.115062728010987950e-02
-2.093887511823067007e-04
-1.597696188502386021e-03
3.176633645803605965e-02
2.369011451610688809e-02
5.160557985534940627e-03
-2.157008806100886231e-02
4.156443692456139594e-02
-1.166477696132767715e-02
1.620094054996061572e-02
2.278855533314411846e-02
3.424186306598016316e-02
3.375329940968427311e-02
1.638079683738583731e-02
-3.224025119727210505e-03
1.036866702844321288e-02
-2.851472533781851740e-02
1.209550269209784708e-02
3.066725683142345477e-02
-1.232147068320186417e-02
1.924117055897670708e-02
2.640792285241647455e-02
1.403431393170688664e-02
-3.084033810845588849e-02
-1.122975283947493137e-02
-1.785099264126787559e-03
3.324025093319094709e-02
-3.216629895899423153e-03
-4.391422329063358887e-02
2.548631706199739472e-02
-1.745382309791777484e-02
2.144727330926268945e-03
1.252411791707352950e-02
5.578227132190651666e-02
2.805520847650212063e-02
1.162241482485675166e-02
2.591065318499215578e-02
-9.159867778589120615e-03
3.119050180556039165e-02
3.035477485436656117e-02
-2.142471433199016548e-02
-2.409530293105545395e-02
3.271101978911595230e-03
2.644618324521356457e-03
-1.314288907004284787e-02
1.917174249474114982e-03
2.996503310354435914e-02
-2.049105028807692366e-02
-2.771377392739799231e-03
-2.942685263287325020e-02
2.950126089222914610e-02
-1.498338961370770071e-02
9.382106589920611792e-03
7.423909530426394884e-03
1.028763841586959223e-02
1.429205134433720464e-02
-2.426812314861554604e-02
8.732812972881958541e-03
1.897176924905535217e-02
1.788691297457651805e-02
9.494110629681624600e-03
-6.089528065581658028e-04
-1.003587971321582856e-03
9.828315456481182509e-04
1.288377149157073423e-02
-5.902231311360577048e-03
4.526920537229446595e-02
4.554981935101853202e-02
-3.126196004620599572e-02
1.957725409518904294e-02
1.791274228702400759e-02
-2.572430054429891352e-02
-8.520588342210536764e-03
1.573895077851516361e-02
1.781743080422981337e-02
2.768159021569760112e-02
3.412325058666671601e-02
5.930306149575730046e-03
2.730680812234657223e-02
2.741873483646241685e-02
-6.711246859159651981e-03
2.618816525724790290e-02
1.813640675332378605e-02
2.050326424897903899e-02
-2.949436790629904326e-02
7.612342864669227951e-03
-2.924225851466356971e-03
2.328770685945030089e-02
3.884328009279320454e-02
3.830032730296911714e-02
3.676429752598349421e-02
1.915259151020666560e-03
5.035868797391993695e-02
-5.778334411907697608e-03
-8.882965934269414915e-03
-3.266778681777986193e-02
-1.981926102163140274e-02
2.963914767583515283e-02
1.566501477573155679e-02
-2.900345476823883162e-02
3.557739198764407057e-02
3.296277083642271295e-03
-1.288782300919828370e-03
1.859520134486159632e-02
-2.812883088467817150e-02
-9.830317154903343499e-03
1.722972178389580236e-02
-8.803137745143491122e-03
1.829788494880330019e-02
-6.790300933195088026e-03
-2.424165126482679192e-03
-3.394182286074682448e-02
-1.972078956204328937e-02
7.128568145939120221e-03
2.872535055359489841e-03
3.520536595673239011e-02
1.463610303448874446e-02
-6.548955289313885750e-03
8.534181521688369645e-03
5.318710307940369315e-03
6.990234480512322324e-03
2.047723139571987205e-02
2.369930964560089046e-02
4.560519458209261190e-02
2.922877659673087450e-02
3.009193170518951674e-02
2.178564282444726830e-02
-1.475329957196281142e-02
-2.249893490371879246e-02
-1.928069734073117880e-02
-1.307833692205837006e-02
-1.648540810815129695e-02
-2.567573466892695416e-02
6.893028662059852082e-03
-1.582232454820614587e-02
-1.642974150998907125e-03
2.450569085457193763e-02
