2.232353664527703119e-02
-5.187945961794588473e-02
4.838701411516703466e-02
3.229369561204497446e-02
3.729330026088089906e-03
1.701781356533281497e-03
-3.720431138771736201e-02
2.814739740429224139e-03
-1.552375453080875184e-02
4.049997458437038823e-03
5.734664052298667214e-02
-3.370010771652909298e-02
8.391895752762272565e-03
-3.684803642364493925e-02
5.080338975371714860e-02
7.970931937239361317e-03
1.116764375755568972e-02
3.188277126696166790e-03
2.761991685294297449e-02
-1.492009142668881093e-02
1.473326549150125869e-02
-4.197232258947122818e-03
-1.004808419134171731e-02
3.652565099393789011e-02
9.786652665267863219e-03
1.554486516088315635e-03
-3.220237746684237456e-02
-3.838073644973377663e-02
2.635311840882137782e-02
-3.749697717680063047e-02
-1.251207531605322753e-03
-1.534280901113947368e-02
-6.987693143409811486e-03
-3.155211603897538353e-02
1.879891915529331367e-02
1.941780752779541375e-02
-1.051711993301402380e-02
1.540986462728547758e-02
1.066108157166918875e-02
1.294883849574971456e-02
1.021238200932620029e-02
-2.870205946168152486e-02
-1.207755698748647077e-02
4.239011704504430655e-02
-2.782113463517308510e-02
-6.244269622180548610e-03
-2.865290192123714011e-02
-2.232411867511111328e-02
-3.353287223276279344e-02
6.994422326475449592e-02
3.860707060902465043e-02
-3.015245785363588130e-03
-1.401350027233803919e-02
-1.274355089396498296e-02
5.803012572623180397e-03
-1.023294831860788005e-02
-4.627659689350244188e-02
1.593727939469912272e-02
1.045217013027008660e-02
-1.259126244906622408e-02
1.814639901428059116e-02
-3.375429296569936594e-02
-3.627428362159629358e-03
-1.742241896842978977e-02
1.115958507363592686e-02
-4.542214625589043389e-03
-5.433574975864179438e-03
2.453826537557607032e-02
2.167770427518260837e-02
-7.017372493209280727e-03
-3.467313608737237346e-02
1.166445834246941822e-03
-2.494432318463673387e-02
-2.078032710081149925e-02
4.133366494660584145e-02
6.800449070901387703e-04
-7.107030982436321823e-03
2.323485940361116539e-02
1.271950186067440786e-02
1.246524744733759626e-02
-6.646899701679928954e-03
-1.627496241480843459e-02
1.168451770634235456e-02
-3.572510647804010009e-02
1.908748596305090764e-02
2.556169078410007803e-02
-4.051125073889903089e-02
3.123960465132029005e-02
-1.229943779221126347e-02
1.062081208310278711e-02
2.436837356683972319e-02
1.027545453573935029e-02
7.152679251147291140e-02
-1.868414105480723300e-02
1.340303916400393223e-02
-1.968401832755277067e-02
-4.101148073063477784e-02
-1.131692517373543948e-02
-1.697950882562813610e-02
2.070156062557519314e-02
5.321473284491590183e-03
-3.685713233289791314e-03
5.770949544271978225e-03
-2.174326851934870602e-02
-3.363365864149149564e-02
2.167980240076809902e-03
1.547624930694782054e-02
-1.233592954914198257e-02
3.469542941764013066e-02
3.266834548452293707e-02
3.803414056347766137e-02
6.058153046152023324e-03
1.079356695808239737e-02
-2.270924957552632878e-02
2.191626743081184596e-03
2.480274860545390175e-02
5.615137901094931216e-02
-2.819020347795038114e-02
3.499059539041929345e-02
4.478167623252547053e-02
1.647110363484574971e-02
-1.821700267563578293e-02
-2.711542459829498902e-02
-1.872154783850963310e-03
2.126714600514974587e-02
1.734247689345806351e-02
-3.353870812873725737e-02
-2.291925280742825727e-02
-1.384483790443170360e-02
7.396722613807883533e-03
-1.428678717155424868e-02
-2.374223505709322293e-02
7.719309326074972949e-04
1.806237018574182590e-02
4.261166051227581464e-02
-1.908038385981764354e-02
3.181179858368565760e-02
2.992505895190007009e-02
-2.460237800539143843e-02
-3.743329262476668279e-02
-8.630257947454763906e-05
3.482108237625330949e-02
1.473006047088909996e-02
3.554018530809305298e-02
-2.056940582872269704e-02
4.987459506352822161e-03
3.084786561397184421e-02
3.736453571781172406e-02
4.101126352639217904e-02
3.489537971921186782e-02
-7.351635232209368515e-03
1.578135659047592149e-02
3.149880909974127341e-02
-1.224345654584857099e-02
-3.040640251513623132e-02
-3.443590180683632485e-02
3.014403513264730244e-02
-3.202121277082642901e-03
-2.084382291412105112e-02
5.270126119316659308e-02
-3.306851536751367719e-03
-2.200261498228569743e-02
3.113768334194111018e-02
-1.685869770596840067e-02
2.799941292157731229e-02
4.734184595931421879e-02
4.300110361851946193e-03
2.008639560376299094e-02
5.376380833403865932e-03
2.599395316276540010e-04
3.644682280509989325e-02
-4.345399379023883596e-02
-1.016175406224803816e-03
2.061218767470412647e-02
-1.627296004313224381e-02
-1.636777873048083504e-02
-1.135967443047182328e-02
3.696569369509850739e-02
3.148306832654293452e-02
2.711998883919173806e-02
1.113624315063737290e-02
2.344767516491104431e-02
5.504271654727502239e-02
1.854280111391952771e-02
3.799140422116414895e-02
3.858125042455953259e-03
-3.264956630428556689e-02
-5.045416694356669000e-03
-1.755372935630427483e-02
-2.074381195459117436e-02
2.514017971832368734e-02
8.083226299346215130e-03
-2.912053566849247613e-02
2.874815210872320656e-02
3.251973603834535514e-02
-2.214569015992394474e-02
-1.857498776991525422e-02
7.604196605400189747e-03
-1.676171603915302746e-02
-7.929653851852947605e-03
2.404524456329001567e-02
-3.482545485880424955e-03
1.555229554563804933e-02
3.182039865392326944e-02
3.145953190181664805e-02
-2.379162314054645427e-02
-2.043454943894289569e-02
3.941527119766623059e-03
4.668744381191835408e-02
-2.752946151837933064e-02
1.506638972646544630e-02
5.861785442254308781e-02
-7.601634286455201915e-03
1.812751201368030182e-02
-3.706263017558073664e-02
2.500125042154031745e-03
-6.140870565117975514e-03
2.123340240646257385e-02
-3.940683553311666830e-03
-2.731639037864201647e-02
6.881146018054147030e-03
-1.332615266765381674e-02
-2.658042472855891639e-02
-1.937227931193360618e-03
-2.689228939679911765e-02
8.164711170929726813e-03
1.562228113710973504e-02
-1.311341523791279343e-02
4.766401732609937963e-02
3.878086986744559966e-03
3.335887079155702706e-02
-1.700981590370044885e-02
-1.206530834415573544e-02
1.519707681498756388e-02
1.322484307605568433e-02
-3.799169578581141574e-03
3.254641384908405627e-02
2.134883033274799155e-02
3.422447014180903663e-02
3.368090943679097338e-02
1.507120881926906839e-02
2.098479531554799105e-02
4.092973905547651892e-02
-2.302009507421095766e-02
-2.360620730632220429e-02
5.695439450617741095e-03
1.196094499809423860e-02
1.631494082413882185e-03
6.250143238621473814e-03
6.214315037476026392e-03
-9.387277272495169952e-03
3.373443141403026369e-02
3.667307381960942247e-02
5.707891149799414069e-04
1.686358473579835371e-02
2.899569584206439579e-02
-1.241739060331120475e-03
3.761082591675083547e-02
2.556145165617788526e-02
-6.567138098423725909e-03
3.727791281079433864e-03
2.038464118302654379e-02
-3.265258268273126419e-03
-1.411956933322664094e-02
4.704977050014447389e-03
8.837063728629163117e-03
2.858197908398735568e-02
-9.687703704670558649e-03
-3.020481067399325564e-02
-3.599523234761006774e-02
-1.605615236826670594e-02
3.580923363039405227e-02
-1.725746610739489068e-02
-2.470941189205452804e-02
-9.870341813416481230e-03
-4.085057931058194702e-02
-4.219619083350724734e-03
3.786501720167845947e-02
1.011495636151595219e-02
1.673893017803279593e-02
-4.498774421149907832e-02
2.640638518788473998e-02
-2.519138889886449531e-02
-1.190633859274146424e-02
-3.337431282070031646e-02
-3.262384483133419499e-02
-1.281298930437431427e-02
3.710232711625174179e-02
1.639673384284079513e-03
4.588621958663422276e-03
-1.663522735508345812e-02
-7.266932138110846796e-03
6.954821593266618043e-03
6.798250909395985205e-03
8.099439559641851902e-03
1.768258876074222177e-02
-2.462003581128775764e-02
-1.321497598226362841e-02
1.638524629501756855e-02
-6.640048904469377823e-03
1.497259215933858210e-02
-2.119194291597424964e-02
1.345475057403313496e-02
-1.000346686782033027e-02
4.208453424739042742e-02
2.377149077816193695e-02
1.815742323537935035e-02
-1.442708235659356970e-02
-1.478282950763204831e-02
7.880875765656773085e-03
-1.456355206791962078e-04
1.733305948255092419e-02
-2.242288169656820435e-04
-2.600528971540779985e-02
-1.948770102903042353e-02
-1.602907832863811194e-02
-4.600436514660781288e-03
2.671474274599272645e-03
5.115462447720641598e-02
2.510144576728606455e-02
-2.829799930532003738e-02
-4.784555219340227289e-02
-1.608628755312709394e-02
-1.113401203199932896e-02
-1.037509154338267688e-02
2.873076810715251284e-02
3.671023529871064728e-02
1.941350067579879560e-02
2.048069724445216074e-03
2.835156875762629564e-02
-2.698036712896621780e-02
2.133013622708736581e-03
-1.490930005362292414e-02
2.121791963410142243e-02
4.333631971963385759e-02
5.003191772953365091e-02
2.999589962059442082e-03
-4.674773559204779133e-02
-3.822619249820764092e-02
1.881159647728488857e-02
4.460145129185664331e-02
-8.926762787054613735e-03
-3.801629811833194799e-03
6.455820865822710537e-03
-8.770837857824653402e-03
9.341116922297072050e-03
3.232007965760264750e-02
4.131394157479266471e-02
3.295867729172100025e-02
-2.461948095743897100e-02
-7.277957961563824921e-03
3.518240379926378114e-02
2.644490809079706045e-02
3.981034770506002018e-02
2.661989223626286261e-02
-7.512096173661969578e-03
2.713578485968544396e-02
-2.298281699608061002e-02
5.995939794339238960e-02
-1.175286996108605188e-02
-1.867992454553069406e-03
-1.830461012612535909e-02
5.493665491886096965e-03
-1.202334971227564039e-02
2.792379420199488441e-02
-2.357803580809982036e-02
3.197183227829133306e-02
4.532233546152064640e-03
-1.791746475319666576e-02
-1.292916125850231482e-02
-1.866415020830622731e-02
-8.373596890396971942e-03
3.382551612979511901e-02
3.173122000854581432e-02
3.262640639587938846e-02
1.499903664652084238e-02
-1.914275547145862302e-02
-2.443766113204670978e-02
-2.916340431674082148e-02
8.764899571315237781e-03
4.204926795732571304e-02
-3.886465920804467369e-03
2.621658608299835130e-02
-1.073177766921290174e-02
-3.626329660976505831e-02
-4.560729552331303782e-02
6.230683918470308891e-02
4.274212871635678021e-03
2.273289410279689254e-02
3.434637769495446462e-03
-3.504276298324438682e-03
-3.459333944367007536e-03
-4.240328310836758915e-03
1.794780606949617288e-02
-1.106126278389724799e-02
2.599359106926791077e-02
9.487378854221076990e-03
2.340747346994880972e-03
8.929888183929904702e-03
6.061504858333146423e-03
-1.517364054768707490e-02
3.162209264152744670e-02
1.299119791595886378e-02
-5.449328231487021723e-02
5.685717065056932612e-02
-1.449987099954873175e-02
1.090959793744053670e-02
3.307260082529631801e-02
1.740640834828041661e-02
2.550761884160929541e-02
-4.328285266558241917e-02
-1.581236476131166885e-02
-8.270956253182035547e-03
2.802522025608525022e-02
1.651191872316630917e-04
4.768073690666026210e-02
-4.386266408756844121e-02
-2.175216132114134865e-02
-9.926501966780130679e-03
-2.459590042611438029e-02
1.703957149135542151e-02
1.798288555817485757e-02
-1.440769943883797068e-02
2.643708610844879014e-02
-1.385048273726889254e-02
9.551000998442941634e-03
-2.901221625038891139e-02
2.341197043007142362e-02
1.888505216293365208e-02
1.389372171959387878e-02
-2.800857552829917954e-02
3.065652655340613333e-02
-3.004516449197622979e-02
-4.714007871215607562e-03
-1.046364461295265155e-02
1.256933778481336315e-04
-9.695178933849742803e-03
2.282552044089393786e-02
-2.462352068649549183e-02
-3.061169939098190920e-02
1.832825171385131860e-02
2.588775168813085489e-02
6.576708044900580336e-03
9.519581749466881834e-03
-1.405598413315292498e-02
2.748127292318136659e-03
-3.707543337305534148e-02
-1.774704154828577948e-02
-1.314155764312053241e-02
-2.029493087519924563e-02
-1.302165680746491389e-02
2.512778664753844565e-02
-2.618322001511227525e-03
-1.012126378589096008e-02
4.595143411405864381e-02
-1.821361996067552731e-03
-6.623056537646706231e-03
-2.547472679021487926e-02
-3.201404906656108579e-02
3.139252022025001282e-02
-4.915638059959341610e-02
-3.288471086371521496e-02
4.297584258111430966e-02
-1.018319063233730053e-02
-4.936656666732279486e-02
-5.035446332619685980e-03
-2.955209220034530834e-02
-3.165456522653332938e-02
-2.144739455589654911e-02
-1.653548534386311414e-02
1.093669291735473170e-02
-2.892140106145690837e-03
-3.541312698164750944e-02
6.329716011123925901e-02
2.091167052834946166e-02
-3.045567188966872858e-03
4.268515801984534147e-02
3.915469645466052029e-02
1.166921572505527117e-02
-1.226231389482542074e-02
-3.178975840629283400e-02
-3.326118325699487649e-03
-3.315907046609313513e-02
-9.783333760213105100e-04
-4.269356051337552804e-02
-1.678712649696944854e-03
2.009814404146283845e-02
-2.071382079884264218e-02
-1.146935915086215972e-02
4.189795597163298475e-03
-7.529691084459079302e-03
-6.060845162195100701e-04
1.103416231929399069e-02
1.731358813834264071e-02
1.493158410406494885e-02
-2.422836754217127381e-02
3.090995021537071958e-04
3.399535827424782913e-02
-1.306618000468853964e-02
1.131913994052952122e-02
3.904097986399675257e-02
-2.171687048129979786e-02
2.260784394943416570e-02
-4.957643451359213319e-03
1.532061567042830585e-02
2.499405567620360553e-03
-1.155252698513036316e-02
3.754066613157120563e-02
-1.399844178714501099e-02
-3.324618294612940311e-02
4.171946764790501923e-03
-4.518895983122941246e-02
5.006159285070070457e-03
-3.480027402720205221e-02
4.464806379759245908e-02
4.250998381687474265e-02
-3.141443262694561256e-02
-1.401350126686621775e-02
3.879148177716668783e-02
-1.578164580087111635e-02
-4.500938814462637771e-02
2.314537809499244564e-02
5.299621469693597403e-02
-1.531605499613900544e-02
7.362018576107077529e-03
-2.830144372658207480e-02
2.360548891417481310e-02
-5.034109655915343373e-02
2.353536545541914590e-02
2.330138445214605461e-02
3.091563149990845388e-02
-2.731297749785286527e-02
3.205232893740733030e-03
1.771074403463472960e-02
-3.709129313799202580e-03
2.346287135526377646e-02
-3.510333350320807289e-02
-2.289836645831094808e-02
1.028689556365238768e-03
-6.773509846206495974e-03
2.606779387900182935e-03
-1.661735522779379803e-02
2.549941949162346996e-02
1.937297757034585691e-02
-2.867770539601726884e-02
1.401163556860220670e-02
-4.716167632373488919e-03
-1.828999644614180339e-02
2.046500396213071088e-02
-1.584800885910691778e-02
4.674016650563003056e-02
-3.527838808131932707e-02
-3.054271338337978189e-02
-4.036596402429543790e-02
-3.279465846871745544e-03
-1.907557861540673701e-03
-1.459629507058742004e-02
-1.586061900733095123e-02
4.325031682625175150e-02
5.221053788584829186e-02
1.806671420717473678e-02
1.759973045854005061e-02
1.781945209109257744e-03
-2.813917341574460537e-02
4.339345918659485296e-02
-1.703589421554034230e-03
-2.921745865798232658e-02
2.530267446408880974e-02
1.159798522766613063e-02
3.908818269765748643e-02
-1.023078602065132132e-02
-2.076840529057489421e-02
4.667005010362031830e-02
4.873769973880182245e-03
-3.112289866552237286e-02
-1.215618787033715537e-02
-3.077145279672150249e-02
5.761520582044438697e-03
2.773081354616168531e-02
1.302222701927158860e-02
3.590714523208145270e-02
-2.216316053301962529e-03
2.539124874007038166e-02
3.644066299129290060e-02
-1.847270809837335548e-02
2.060767837123564372e-02
-6.801727848832721593e-03
-2.095636902360855855e-03
-4.140574726349501543e-03
-1.605926921920395462e-02
-3.021266632780880701e-02
-2.485105489527453249e-02
2.588057412134897334e-03
-3.813425871776993104e-03
1.090539489293203441e-02
1.473974981000982648e-02
-3.435965206301904579e-02
-1.507246815828721005e-02
-8.063156779104768690e-03
-2.364425130907823937e-03
2.916697846886000603e-02
-7.404190924707301780e-03
1.215427612503559331e-02
6.092848139466146631e-03
1.045608172288287931e-02
-4.615049489181012946e-03
-1.672483892116645790e-02
-2.949313777552949392e-02
8.794584639744971663e-03
8.622718244034050915e-04
2.851617199228082336e-02
3.441998707897291065e-02
-3.288165759265558596e-02
-9.712165140607575964e-03
3.721254914360416083e-02
-2.081587022151354036e-02
2.724121912931904907e-02
-1.907727567813973305e-02
-1.076226089873336643e-02
3.481038985119721575e-03
4.261298168995561464e-02
1.397559401295613533e-02
-2.405183870713764951e-02
-1.900028458078385080e-02
-3.710206516163579160e-02
1.794480070898641852e-02
1.794073114653368939e-02
3.172422479733027351e-02
3.501609637945142517e-02
-2.585098116546110519e-02
3.199399865212939481e-02
-3.401208311763514493e-03
5.266421035717749367e-03
-1.479929223542597594e-02
1.763827265159255767e-02
-3.738721241334270334e-02
-1.614529345531379861e-02
1.110470537456964037e-02
4.122649687271603969e-02
-5.648810549812118996e-04
6.401861006572310414e-03
-1.376556798402579426e-02
1.049278322651281056e-02
4.918561592765928470e-03
-1.708127413288779151e-02
3.014405385098576154e-02
-1.591224570821739293e-02
2.594966673411776281e-02
1.339078878738920661e-02
3.121332193090189445e-04
-2.030164512513295966e-02
6.225898158492855668e-03
4.984943368264476565e-02
-2.918781137311488721e-02
-4.442833131225249615e-02
8.295993176939115907e-03
3.521179721067600743e-02
2.421952733824197720e-02
2.227416528733123548e-03
-2.801336321587177824e-02
-2.235656785830377608e-02
2.801386348258081208e-02
3.580781447409375068e-02
-1.298091338404456369e-02
4.185012694622975565e-02
1.298324902398735776e-02
2.256571630760198163e-02
8.347286851008118777e-03
-3.217717676089523748e-02
-3.851817921066372219e-02
1.559277619686334423e-02
-5.503962807265737160e-03
-2.557181353681626731e-02
1.921892392468413369e-02
3.902191917949921537e-03
3.884423854758060901e-02
7.927065767530048698e-03
1.120275089949099301e-02
3.317137684523639111e-03
3.487633930290169604e-02
8.841377792666398755e-03
-1.241743411733038822e-02
3.750327649172948558e-02
1.011953510929051829e-02
7.964314643766094368e-03
1.488178158921759330e-02
-3.665142450991728390e-02
1.226462039606178965e-02
-1.605488703518203079e-03
-3.175217414036656666e-02
7.367521719443636749e-03
-8.703422517425385679e-04
1.469614466865900443e-02
2.951133387598189883e-02
-3.698253642454073231e-02
1.015233898179763138e-03
6.072100346526818765e-02
8.477193674718507682e-03
-1.519389190969790311e-02
-5.654105841069909447e-03
2.846236031610858627e-02
-3.659664784894329365e-02
-5.782921663502558346e-02
1.404067648712812970e-02
9.008947584140107601e-03
-1.648897635046662688e-02
1.938624411211451598e-02
3.920590265167039207e-02
4.460282655031455601e-02
1.968906966335932582e-02
3.758295819768424622e-03
3.570591965067687612e-02
-4.634890645251391744e-02
3.119535755416008582e-02
1.472142210896494434e-02
-2.421963249710405372e-02
-1.575315624692364205e-02
2.742369566241268861e-02
3.649991465623256270e-02
-3.478834433190810399e-02
-1.132470465384051092e-02
-1.374139508377875997e-02
-2.287098045316486930e-02
-2.911348262928609154e-02
-3.500219502575607159e-03
-1.337093986162680298e-02
-3.241503920812234540e-02
5.805701275190209946e-03
9.560170225066041971e-03
2.955887935965355665e-02
4.759132134556529753e-02
2.562648649426535821e-02
-2.295786383769050573e-02
-7.586910936667624200e-03
-4.177247203001616810e-02
2.419093062100103469e-02
-8.238742879227968496e-03
-1.809992310150862482e-02
-5.457736085985711097e-03
2.504614668144231060e-02
1.446479004669115956e-02
5.518940669441170857e-03
2.614302813169869233e-02
-1.000736088489503212e-02
-2.244518867734416820e-02
-2.282601126060393795e-02
-9.736343649443835249e-03
-2.713979844567142308e-02
1.643311095109076247e-02
-9.379865180663207735e-03
-7.654090151261422337e-03
-3.719461827834605328e-02
-2.507912443695704818e-02
3.067666516263186163e-02
-2.336604599834430501e-02
4.192162476963888496e-02
-1.871732251486622062e-02
-2.665723681597297751e-02
4.575640149145314764e-03
-2.869606292533510503e-02
2.236815222664370953e-02
2.136448898104747682e-02
-1.487442229986891962e-02
1.500803503557619593e-02
2.056700177355607825e-02
3.136320663847739360e-02
7.509383456834176941e-04
-9.568972825217573336e-03
1.453065709048169570e-02
3.265495104382501543e-03
2.795589832647092654e-02
-5.516481623772453990e-03
2.814502078501315840e-02
2.032745308214507080e-02
-3.319483367719115036e-02
1.702364869731469096e-02
-5.838800162809562599e-02
1.346375377353284039e-02
1.913835799075947267e-02
-1.159592092159497830e-02
6.115307917172059168e-03
3.015288742060961633e-02
-2.579385492205150954e-02
-2.309165762983842948e-02
