-9.360598203321478933e-03
2.441713997499280267e-02
-3.249911519292460194e-02
-1.531349511662728063e-02
6.480468274792500899e-03
-2.752893491208101631e-02
1.080085366411551520e-02
8.481168633267671675e-03
-1.554648178487079598e-02
8.112746676444621344e-03
-1.716087683522147730e-02
3.647306376647098392e-02
-4.734807794301095982e-03
3.063053783194055052e-02
1.472021427559190229e-02
-9.275381442553494796e-03
7.707961035136703595e-03
-2.519515342957014820e-02
-1.768506529230864585e-02
-1.854311350589259166e-02
-7.774003402485503075e-03
-3.714704403293030144e-02
8.755387567801134344e-04
-2.995101218750904556e-02
-4.736691981671130140e-03
-2.730574745489670191e-02
-4.532970954168817623e-03
-2.180900397590422937e-02
1.544117966659026321e-02
-2.351592540415178151e-02
-1.673674227741666146e-02
1.961439290929190699e-02
-6.461309238470473552e-03
-3.782082927605591709e-03
-6.724455483945657695e-03
-1.145994569738779424e-02
-6.594745629760478955e-04
1.378832923561096151e-02
2.347869627006312840e-02
1.057969786198350529e-03
7.614194168381466232e-03
-2.251933049975699333e-02
1.081143493336437084e-01
6.471647751925259373e-02
5.249921906401304461e-02
9.053753327638093193e-03
1.909329210394690142e-03
-1.921597727559137001e-03
-6.631570683770330980e-03
5.483811200448854457e-03
9.522703365299657260e-03
-5.702251381700945351e-03
-3.477348261863474899e-02
9.160392156373332526e-03
-3.493654906457629300e-02
-2.738403501633530218e-02
-3.056215224608268416e-02
1.881839108889753545e-02
2.751610695088241298e-02
-7.914374830564412447e-03
2.139351887294642027e-02
3.360723793798089942e-02
-2.824405781946210184e-02
-1.360166942293749431e-03
-2.335019296645007847e-02
-3.603487758100760996e-02
1.314554199322373260e-02
-1.057240248409660986e-02
-1.406129278167602206e-02
2.592020277526017533e-02
6.855115815927508016e-02
-5.514098960440711600e-03
4.257654159933058589e-03
-8.129377450713464945e-03
2.426571938073155809e-03
-3.420801787150550000e-02
-7.591132783356742755e-03
1.533555131531743991e-02
-3.461792591582411177e-02
-1.847137340688918133e-02
1.070308535260765248e-02
-1.063384291090656818e-02
-2.569263893053926745e-02
-9.170240822093302796e-03
1.117140993210431928e-02
-1.067755992349742056e-02
-1.735898348045420911e-02
-3.022405120359312677e-02
1.071551175668073765e-02
-8.194649064290539936e-03
-2.194315450361369185e-02
-1.839525516642548375e-02
-4.641537746616693216e-02
-1.018903964174623818e-02
-2.305465100735883816e-02
1.820233961978009009e-04
-2.505641426342641864e-02
3.294847339868554881e-02
1.898742132745599026e-02
-4.735199160567992761e-03
-3.350446995328907468e-02
-3.508545499635554784e-03
-4.299157148189776401e-02
1.294547756486374122e-02
-3.118075629177176344e-02
2.271581050494183088e-02
2.176828644774509228e-02
1.765355516371147626e-02
-2.702310351041500511e-02
-3.503136080514808459e-02
-1.821594276474346880e-02
-3.354044654711855339e-02
-3.229108383662041698e-02
2.000290977460546932e-02
1.948193972358995552e-02
1.804732396417350893e-02
-2.189204130725240158e-02
-1.720902313153236177e-02
-2.004451844180622083e-03
-8.055693808214643703e-03
-1.512402315408873515e-02
-2.651507377098820482e-03
7.814648085955319678e-03
3.298736462341314134e-03
-2.983267607278976188e-03
-3.514391358924264658e-02
-8.496676149964918837e-03
-2.194556459223391889e-02
1.059191187205345795e-02
8.750718490889345877e-03
-2.085130110577039855e-02
-2.795719062069825650e-02
-1.089104275369078521e-02
-3.204472826719063222e-02
2.910582362238795309e-02
-1.755824177552579510e-02
-3.259330485127120980e-02
-3.427350375573300079e-02
-1.793576287871346750e-02
6.828678001492503521e-03
-1.074867148197738119e-02
-8.690635898591786423e-03
4.222358680830354608e-03
-1.676610826014332490e-03
-3.472048566918927576e-02
-4.601284317517932709e-02
-3.606564584283403208e-02
-3.293268553249686925e-02
-1.684879294977600570e-02
4.000683416072552817e-03
-1.415032764457180292e-02
-1.455335460404579787e-03
-1.872269503050303860e-02
3.347335938136822286e-02
1.530086605953623433e-04
2.698547293410602857e-02
2.326859214690194660e-02
2.331617868401957352e-03
-2.921483046414572599e-03
-2.788947722437600148e-03
-1.622690639604423141e-02
-9.909349251234369702e-03
-3.524829930284566898e-02
6.477508690136994304e-03
3.721591783062130551e-03
-2.015987916220892892e-02
-2.182950364637206361e-02
1.520188859840425344e-02
3.480588818952405628e-02
1.594591195187104737e-02
-3.042339592532867024e-02
-3.030965866470555076e-02
-2.507787958582104529e-02
-3.380826449196715211e-02
4.568855715885858544e-03
-8.486180104697321411e-03
-4.141520130391663362e-02
-2.248423578138545112e-02
-1.221186853401272192e-02
-3.705228558293286595e-02
-2.784721833017616763e-02
-2.628739057328058695e-03
3.458343273091809417e-02
-3.290331955215285153e-02
5.136799240512221303e-03
-2.792391372513679249e-02
-2.358362388026937102e-03
-3.177217866986898481e-02
-1.521927089995338787e-02
-2.772849253172027933e-02
1.236531309795880704e-02
-8.854749616549232108e-03
4.971776711848240743e-03
3.789878402245995537e-02
-2.152628077667158996e-02
-8.639529458822913649e-03
-1.791683821295119231e-02
-1.454643358077375818e-02
-1.873371901573286577e-02
-2.054120972968939349e-02
3.598264137726810141e-02
-3.329059591253855088e-02
-3.849460776825624347e-02
-1.654233755887759075e-02
-1.101369941577297167e-02
-1.123106675786678457e-02
7.554409364449003739e-03
-4.733052170700166421e-03
1.507368450549005472e-03
-7.855859488422559100e-03
2.815141142603666199e-02
-7.016042335366266987e-03
1.921231841135027929e-02
-2.442884807981247214e-02
-3.834133412196238239e-02
-1.106908866828337258e-02
-2.066569844540674591e-02
-5.534284938978427382e-02
-3.355841374076051070e-02
4.298949948445558028e-03
7.818337432785775823e-04
-2.749224971000417336e-02
-2.863530840838860933e-02
5.699622644524760494e-03
2.082618549977048247e-02
3.280265207799957887e-03
-1.951822667282539225e-02
-8.172788988015520367e-03
-3.162379355667980368e-02
-4.179791835657292037e-02
-3.827813336972449298e-02
-2.393816135433976533e-03
-3.736193275346163384e-02
-3.130254557992358938e-02
-2.147708193776544025e-02
-2.341089279733175876e-02
-2.149141745310983662e-02
3.186141481852533541e-03
-2.964222206047546077e-02
2.746983921033356937e-02
2.904104143586192649e-02
4.270569159890947805e-03
-2.484863598895913420e-02
8.245955201455950137e-03
-2.658847668839715156e-02
-1.032509457881890073e-02
1.509612538608950645e-03
-9.438848336728606486e-03
-3.525534831976777361e-02
-2.989743573232548149e-02
3.034294577891335359e-02
-2.388506175344068134e-03
1.541099277053962005e-02
2.385248244244944638e-02
-2.440978702076337589e-02
-1.364619770832004725e-02
-3.704170535482940313e-02
-9.575553028082531629e-03
-3.444864638837753269e-03
1.996359485675787415e-02
1.274557686926747549e-02
-9.201507454379434514e-03
2.581230022873057250e-02
-1.788004468821655091e-02
-2.520882336516543087e-02
2.747051009712973488e-02
1.411096812404319563e-02
-1.528458611690479071e-02
1.397228220382188205e-02
4.548797676627575406e-03
-1.098142493415652995e-02
-7.837624026500653734e-03
9.311295685628700330e-03
-4.514433382358419219e-03
-3.273072135455293991e-02
-2.166630468331566528e-02
-1.949049462750006984e-02
-7.436297274586703768e-03
7.103157054460121442e-04
-3.272885364376671314e-03
-2.569344675529993544e-02
-1.972215854734507903e-02
1.924630560892955436e-02
3.008970065766340338e-02
-4.188647576129503336e-02
-3.266690439384717370e-02
-1.954374680633112413e-02
1.111252767578349565e-02
3.572447240283704167e-02
3.720219239085203761e-03
1.452973455364400292e-02
2.627717159058196375e-02
2.742151452281239854e-02
6.787328270531247168e-03
9.563115082994929142e-03
3.091351282302266454e-02
-2.076819506605888724e-02
1.149943170051447895e-02
-1.066704157297248060e-02
1.628902945438317346e-02
-1.426998845167677318e-02
2.743971215320769111e-02
2.536156558610455983e-03
-2.614165333769572983e-02
1.800591741566167844e-02
-9.880229449164843261e-03
4.383736533029466975e-02
1.026748093474772074e-04
3.081360356151007299e-02
-1.061945521287070357e-02
-9.288144676477014944e-03
-3.086141725671077193e-03
-5.001133774116964595e-03
-4.017228237181429823e-02
2.969958035980497634e-03
5.882462426000702356e-03
-2.226886227387110846e-03
-6.035188829463317833e-03
-7.719495655178276045e-03
-7.920877349369906048e-03
1.645265930679200295e-02
3.340272483287837907e-02
-2.591301425842237535e-02
-1.362302901921797794e-02
-2.538440578635348457e-02
2.254068633915305361e-02
-6.811490985397805793e-03
2.122310515482652218e-02
6.605813478693253749e-02
6.558894171426069009e-02
1.799953874364400644e-02
4.628170257131743875e-02
-6.870391977258047053e-03
3.422051122422885370e-03
-1.424723005878822737e-02
4.415176230713975525e-02
-3.263626869690395421e-02
-1.035181997371440073e-02
-8.011713675884053754e-03
-3.558349006703164646e-02
-3.466807619189832268e-02
-4.496801780792725189e-02
2.991082827813643097e-02
5.145165098437389645e-02
-7.539240131110902521e-03
2.618206301633393268e-03
-4.946730944831708408e-03
3.787765267510349865e-02
1.418361864742972815e-02
1.703721727938459218e-02
-1.232726651414231198e-02
2.056171039871062395e-02
2.352797401289018903e-02
-2.972302609894452580e-02
3.096800227536638736e-02
-2.504269368152620742e-03
-6.369219374367070946e-03
-2.494106764970745529e-02
3.725369159376212824e-02
1.068979847094810379e-02
4.034143558139040298e-02
7.391546730803429631e-03
3.648635655009303119e-02
3.168524041422914744e-02
2.376542977583910934e-02
6.532915160212138077e-03
1.964020343759252663e-02
-1.586133105452713563e-02
-3.107372600813766705e-02
7.837448412188278632e-03
-1.346934172657806769e-04
2.071773727857895153e-02
2.282014970810824356e-02
2.036399750421481747e-02
-1.439559182316310984e-02
7.951467154966911088e-03
-7.105903082664156122e-03
2.348892402406422067e-02
-2.266089371889364046e-02
1.780304498477739902e-02
-4.710727874318767182e-03
-1.091436420442220938e-02
1.880537122933317526e-02
3.154815131846636523e-03
1.269741402875887437e-02
1.259008014475612378e-03
3.152015866313767622e-02
2.142769167650846601e-02
-1.500759089773740645e-02
2.732060682166590967e-02
2.531589073228052850e-02
-2.535535969462108900e-03
1.843121608369032924e-02
1.416658128107656060e-02
1.776952767948334136e-02
-1.542303178615733218e-02
-1.416201580933628031e-02
2.486501760560438576e-02
3.043667650903487606e-02
-1.402353723162437157e-02
-6.898013371914098191e-03
2.315527629516225122e-02
1.934127848060430586e-03
2.446030397213111440e-02
-1.160591843461428185e-02
3.511844813613887450e-02
8.250116021302178818e-03
4.313267280002760530e-03
-9.245988007439759002e-03
3.585853663497924615e-02
2.525880278357755127e-03
4.625343498379169693e-02
3.636261428287036052e-02
-3.842559002554709214e-03
2.238185798850758981e-02
-2.771486758666788855e-02
-9.407503912909682964e-03
-1.099060665778188884e-03
9.033134420193258615e-03
1.493994933424671982e-02
-6.511025595631916331e-03
-2.238252745393293219e-02
-2.518257637980400240e-02
3.716452437529367634e-03
-2.929379454426692814e-02
6.259386002762417495e-03
2.078456280377190615e-02
2.568555026287530629e-02
-1.576046173283682239e-02
-4.545181877513486055e-03
9.477594424245519567e-03
2.872047005872903347e-02
-7.790909839047757864e-03
-3.303322933299997904e-02
1.894620314141618952e-02
2.036158083575653061e-02
3.930663910344202316e-02
2.303576610217422313e-02
5.663666542850200047e-02
-6.857816797487361390e-04
4.198619292353521215e-02
4.438215205129699553e-02
4.595522378769233141e-02
3.915961139408605934e-02
2.597326385201412235e-02
2.409665037826192596e-02
-1.664502481768531661e-02
-3.231391151884294762e-03
-1.786473169368541294e-02
3.604238762521629752e-02
-1.643587789914940922e-02
1.035106091652827735e-02
1.120317722476839653e-02
3.118196575232661666e-02
4.606645435641717329e-02
5.378444755914264103e-02
3.074362697973220121e-02
-3.320003690172143151e-03
-3.722537980029704680e-02
2.647464983626932750e-02
2.000183865583344059e-02
-2.053867054328947089e-02
7.087698741036221016e-03
-1.918356587281876482e-02
2.068113282474898576e-02
4.017631324940187237e-02
8.808899268863574768e-05
1.852322186172454879e-02
3.587060599537554573e-02
3.071369865806157853e-02
2.981698027602638218e-02
2.786474687514095203e-02
1.194382636075054169e-02
2.225717290586641875e-02
3.226921201010977958e-02
1.657264296598179656e-02
-5.203413512121168871e-03
2.559604268854218795e-02
1.421035241712562992e-02
-3.063556455327868036e-02
-1.792466604698357557e-02
-1.247704107231359036e-02
3.926087498659113634e-02
-2.418558925559133582e-03
3.586005475605234111e-02
1.069051120024647715e-02
2.348981015739539518e-02
2.849782184146103237e-02
2.557126303711317397e-02
-2.846919949120602436e-02
3.696992829908343769e-02
1.965415508703692582e-02
1.871656478609747681e-02
3.846052999181059917e-02
4.709911988563484329e-03
3.432381666189344288e-02
5.062165483400732184e-03
9.090689128621570747e-03
-6.309044964564868713e-03
-8.225039783765505583e-03
4.225555406608160619e-02
1.774433491780247341e-02
4.646316090349685360e-03
3.233894427284791234e-02
2.546017542960760452e-02
-3.319748233309396945e-02
1.872134887973705281e-02
8.280791443561981435e-03
-5.316168972994412927e-03
2.244586284257519063e-02
3.442258559977837834e-02
2.049700725009143479e-02
2.309102463484197926e-02
-1.310203455759977043e-02
-1.014442088635343978e-02
-2.841806578790826918e-02
1.793646410023790050e-02
5.050255446168614229e-03
4.571070952023118319e-03
-7.974764190818472639e-03
-3.117691320092165572e-03
1.689126861790360206e-03
-3.338759776199591318e-03
6.515180506272073499e-03
8.593947658303516951e-03
3.034936885109248625e-02
5.723907257362517015e-02
2.070621322894116573e-02
1.570516105831240572e-02
7.283373900839562771e-03
3.929123502759285930e-02
5.043447967296910833e-02
5.956402049203864471e-03
8.334816079762191743e-03
-1.246398695155890093e-02
-3.751739067911939989e-03
-8.019616307059660928e-03
1.498630538702202565e-02
5.144319914146456077e-03
3.921324799986490584e-02
1.051478805593753126e-02
-4.183141026220774279e-03
-1.254346448654214581e-02
-1.210802716213815571e-02
1.703961337801053813e-02
-2.549569442808495914e-02
7.162372545798504665e-03
-2.178742633196072143e-02
4.809081417689555632e-02
-5.871210518323352959e-03
2.990295241341124947e-04
-3.636995187508858945e-02
-1.643414309647960383e-02
-1.334740607596533561e-02
3.282584593001688922e-02
1.017830421137293218e-02
-2.685936222722950031e-02
-1.456627351071010899e-02
-3.502221235841551390e-03
-1.734360325905134892e-02
1.234470500598720995e-02
1.938649495254277447e-02
-2.472049745252600031e-02
5.519003916477732002e-03
-1.744174408411985205e-02
-8.088839365578930421e-03
-1.685339217320857078e-02
-1.238776607258501063e-02
-2.568202860608482380e-02
-7.437329280236036969e-03
4.628077297207853352e-03
-4.149709918941443809e-02
-1.852584852221026562e-02
-3.174334809253123724e-02
-1.869720914185949920e-02
-7.940207955878462662e-03
-2.069824568061221989e-02
1.320669470132793816e-02
-4.223114750044081045e-02
-3.170236779494249590e-02
7.887970202552282029e-04
1.376824855261567573e-02
1.319574093216636761e-02
2.168313751343076828e-02
3.834098369419813856e-02
-1.448297124223182041e-02
-4.244014438935624078e-02
-1.288370168107761879e-02
-5.541596284169190978e-03
-2.064145825076573251e-02
-2.310490485244982156e-02
-9.255250207479153238e-03
-2.373000089033362823e-03
5.014135417311569275e-03
-2.269434273143400987e-02
6.206261952549137900e-03
-1.734427845122618952e-02
-1.759648186162701342e-02
-2.178649543944974690e-02
-1.603513222649249892e-02
-1.249681221198419880e-02
-3.822044276654238716e-03
1.434970551137889141e-02
4.939434163230533442e-02
1.499305946877094783e-03
-6.231699475743531641e-03
-3.630194534139134094e-02
-1.705820453226170735e-02
1.855863341129629016e-02
-4.400821235650331786e-03
1.908352606641324986e-02
5.180248606730537483e-03
-1.551255490360833530e-02
6.351720087394668694e-04
5.865956179982131924e-03
2.259093695087130080e-02
-1.403088532623413855e-02
1.336536612611078333e-02
-1.334219709713095788e-02
-1.693900564309539294e-02
-1.182977876587120759e-02
-1.087215885193885088e-02
-6.870144448222995949e-03
1.702058631603070929e-02
4.498308819153968088e-03
2.044756311534324036e-02
-3.082017256431643371e-02
1.312442608677461507e-02
8.373377030547994463e-04
1.022931831788937394e-02
7.064987493250009416e-03
2.295937185880763884e-02
1.979825905173944467e-02
-6.548271062021706820e-03
-4.420689233356196041e-02
-2.798680622066293013e-03
-2.464649295303296059e-02
-3.400869697338145675e-02
1.713197000860656669e-02
-2.470669399627789878e-02
-4.966752749854008372e-03
-1.717822720541432521e-02
-1.472518530101053248e-02
-1.432073998849133899e-03
-3.205701360081648216e-02
-3.566409043494386116e-02
5.090084690802641580e-03
-1.220860909561354880e-02
-8.534016991278852576e-03
-3.491126376160980788e-02
-1.861866464164826582e-02
-1.451904755381555265e-02
-2.208969761099955059e-03
2.612795731953472186e-02
3.540920532366031992e-02
3.552149105362163977e-03
2.754776107019594328e-02
1.271879022861851539e-02
-1.672995441490179522e-02
2.919531140938815255e-03
-1.438490633860273031e-02
2.483221930314010936e-02
-2.113531546512344150e-02
-1.369559183848379803e-02
-3.101219063368550210e-04
2.492413814936371083e-02
-1.945326871775853589e-02
-1.300596123455163302e-04
7.319976909494966925e-03
-1.477707400789539903e-02
7.470096862412478307e-04
-1.289201004975770205e-02
-2.982886460705915302e-02
-5.872890029727804821e-03
-1.110518201882487385e-02
-3.068264038164266946e-02
-1.180500207453909732e-02
-5.350792365317620820e-03
-1.568868510349552504e-04
4.100931002993931512e-02
2.914210927415221072e-02
-1.504697456337711348e-02
9.271999448160006888e-03
-9.647464675825041455e-03
4.058458328764738554e-02
3.511491377153239894e-03
9.656675844395721728e-03
1.005967696474632626e-02
-2.692483017728350067e-02
1.693108491328464832e-02
4.912884696426503446e-03
-2.077419752542730008e-02
-8.337260821480148645e-03
-3.900599507328252145e-03
2.211812324352437423e-02
-3.097448499845381620e-02
4.042073143952189772e-03
-1.555344680421822355e-02
1.513334904043762801e-02
2.609907252492482330e-02
1.417290483784191223e-02
1.399397724740334553e-02
-3.094055248873535391e-02
2.648729728099166389e-02
2.281061125848347221e-02
-2.585318432836307759e-02
-1.624869938231491770e-02
8.046197861218403607e-03
3.967881490986250453e-02
1.376240926286882195e-03
-1.298664395192501188e-02
-2.957635082210413255e-02
5.478813594094517764e-02
3.858568422580536950e-02
5.757473361141067503e-02
-1.453022066254929141e-02
-9.643341721202047453e-03
-3.129423579959333956e-02
-1.585567645894143257e-02
-1.160819938591407460e-02
-1.612204820889570622e-02
8.168815362445666639e-03
-7.488141348127075152e-03
-5.421682620980157463e-02
-8.517400731261380933e-03
-3.868379947190257132e-03
1.419643710314993576e-02
-1.415015638754403733e-02
-5.111007140770356186e-03
6.215525694812787556e-03
-2.666658872311659934e-02
5.820081669666711359e-03
-1.141002214172849930e-02
2.369575536609129507e-02
-2.478960104053409830e-02
-3.373539231895287399e-02
2.347968322159763380e-02
-4.387970843209535766e-03
4.123707069216550614e-02
4.693308132364868573e-02
1.447919816903206827e-02
1.640185903427550038e-02
1.609690221996999682e-02
1.246689921839599230e-02
-3.526165921345900123e-02
3.321896493770494507e-02
-2.697936021038656318e-02
-1.119949905000836889e-02
-1.594636209854383146e-02
-2.424724673467641700e-02
1.952431752916064869e-02
-2.896505843983706013e-03
8.398740529160883539e-03
-9.951336273238462968e-03
1.980233949041070377e-02
3.016973888362585454e-02
2.563462709386613372e-02
-1.979863710392745779e-02
-3.051978885569320288e-02
-1.646041966221021766e-02
-4.338508296721454299e-03
1.475916360455144238e-02
4.116958015558198208e-02
1.447305946703052876e-02
2.468551189760908628e-03
1.741954484672138259e-02
4.222470094415332192e-03
4.199234344025844744e-03
4.150219657611713478e-03
1.398895327489492642e-02
-4.800889801925166460e-05
4.076693437738058631e-03
-1.930404770598219714e-03
-2.442863909724259097e-02
-1.127135432234660853e-02
-3.428821708525410733e-04
1.922412007230879516e-02
-1.430143441719395302e-02
-1.993889178648818039e-02
3.611517715093195968e-02
1.427355975486470710e-02
6.451149740482886585e-04
-5.642529626363743285e-03
-2.490028147376447190e-02
