-9.581635172811549250e-02
-1.347799678288791880e-01
1.014257413614803455e-01
-7.832908184938791596e-02
-1.364781419168271670e-01
8.566055551650050837e-02
4.165362039346052342e-02
-1.246375247089214072e-01
1.298027996687897700e-01
3.478438541380007160e-02
7.403003283036430071e-02
4.468858240075454513e-02
9.520980271774261150e-02
-1.244326284696902277e-02
-2.977255806917169026e-02
-1.707165666062326198e-02
5.330976009454048425e-02
5.054642965765094448e-02
-2.232871804604499022e-01
5.809373511873195534e-02
3.880626592344022657e-02
7.135611613523428279e-03
-1.158143221373706955e-01
-4.967873198020885533e-02
-3.533491356887698796e-03
-6.645168006330037791e-02
1.530204280788756248e-02
3.935698676547702557e-02
-9.803030440271011392e-03
-8.776753772240106222e-02
-6.538759368556018581e-02
4.435689238454955906e-03
-7.291452514273148722e-02
-1.576964064479988159e-01
-5.813310334238852572e-02
4.204350546401442595e-02
-2.011874597949191504e-02
5.146239846312302725e-03
3.583805670089535572e-02
7.433994665521290179e-03
1.329581063413604047e-02
-1.543156958527160949e-01
8.831616747138225365e-02
-9.245155518964075225e-02
1.071982106873360790e-01
-2.886171538864042430e-01
1.215023762604739710e-01
6.196697063090325641e-02
5.260279942228576755e-02
4.978766650993600440e-02
-2.000011610757068074e-03
-5.493355650161221154e-02
-1.040490884807577510e-01
-1.093469939926022955e-01
1.099744068872322289e-01
3.816355099119329852e-02
7.818468475771002402e-02
6.599068223479960527e-02
1.741160748030534319e-02
-6.746775385713037199e-02
1.258956493870484195e-01
4.886131152468460581e-02
1.280424155860475366e-01
-2.311952655634480491e-01
2.534141262588811630e-02
2.209089245653843986e-02
-1.486931823022915045e-01
5.394266329338579663e-02
-2.163248049994566033e-02
8.647941648847773388e-02
-1.234594789359273609e-01
9.052599666169253156e-02
2.614950760744544182e-03
2.479518975576730511e-02
1.245340416690347007e-01
-3.106921941521724809e-02
3.968719092987835206e-02
-1.433029397142833172e-01
2.271221607038715002e-04
-3.846563713469867279e-03
4.524793862202471095e-02
-6.993736871788241993e-02
4.894790320781439857e-02
2.706429189753514764e-03
2.051883443376666949e-01
1.630990990495258600e-02
3.721892737119555233e-02
1.094261386677402095e-02
5.792179331923958535e-02
-2.150142558014511013e-02
-1.841790792089910700e-01
1.299407798462554331e-01
7.731642231006187471e-02
6.611842287570644794e-02
-2.426624227507348519e-01
3.399219546726762325e-02
4.123836505354561838e-02
-1.956234901773822310e-01
-2.750505731434627066e-02
2.572695722790301412e-02
1.103198115386327255e-01
6.617949655968475425e-03
-2.095352053642081103e-01
-2.925479530373126594e-02
3.179283878780730238e-02
8.720065862451095717e-03
-1.870493547907801646e-01
6.366304921655069338e-02
4.900619572415172709e-02
8.591572364920446736e-02
3.648113492460572371e-02
-2.472499156817263843e-01
-5.849887993393553670e-02
1.000811133905144673e-01
4.622976765907126778e-02
1.952965640170671591e-02
-8.212779745965957667e-02
-7.883729100312095173e-02
8.691691307738406980e-02
6.456138888099452466e-02
-1.068656521788733105e-01
-3.490371454424604641e-02
-6.867827164907110149e-02
-1.578825137834944659e-01
1.088875547575369473e-01
-7.977433002447470098e-03
9.586889265698653184e-02
7.684706517818779524e-03
-3.580895548515597993e-01
2.514643627072751450e-02
-3.669285904605282950e-02
1.447597995074382804e-01
-9.731621680898483451e-02
1.703651087721821250e-02
-4.192973148229117708e-02
6.562634554276666754e-02
1.110553216403485366e-01
7.176149205663687192e-02
-1.178571603931630879e-02
3.854919677239566911e-02
-8.885120583657443727e-02
-2.655866005371682916e-03
-3.872328304812680533e-02
6.683720543634608449e-03
8.885873425314169682e-02
1.269666215076382110e-01
-2.570976066866564359e-03
9.960217051614171646e-02
5.346507864772012675e-02
-2.193456588439196830e-01
1.132513779308517293e-01
-8.273324643862028926e-02
-1.371995131786735711e-01
1.226671178033175158e-01
-9.203830174600950709e-02
-8.543082480068477091e-02
-1.626416981647875737e-01
1.314760454488395347e-01
4.014959877715452985e-02
4.850177908111972386e-02
-5.144439250785389633e-02
-3.268861397808942582e-01
-7.860097704761019599e-02
-1.706698545231382091e-01
3.726811512252440478e-02
-1.419999509804856230e-01
-6.476458576681181148e-03
-6.828518475648608609e-03
-1.750198012507410972e-01
-6.431857068479666928e-02
-2.381199020017288684e-02
-4.688768517049363149e-02
-3.690246021952912209e-02
-6.780825152275397893e-02
-9.523084317169001889e-02
1.078082024675223322e-01
-1.525623973260078203e-01
1.188800517417370334e-01
-2.842425095246365468e-02
1.281244609973319556e-02
5.493986219687769894e-03
-6.495250310971505125e-02
-4.310253333662856373e-02
-1.248768580180094068e-01
-3.431431062129058907e-02
-9.791397219424646803e-02
-5.117327221737591469e-03
-2.364166980403002438e-01
5.129221453483551706e-03
1.492838873587057080e-01
-1.732061863828706083e-01
-2.071371234865418062e-02
1.119731990203787046e-02
-1.337628484460412839e-02
8.282609832995811022e-03
-1.663250807084974692e-01
6.873591794937450317e-02
-6.147329360884062899e-02
-8.523879418334032176e-02
1.646533746945351984e-01
-9.258170452483062418e-02
4.798912044683829869e-02
2.297404833700270738e-02
-8.003610162669867745e-02
-1.088142347674498772e-01
-6.557812001294231752e-02
-1.686130082898479876e-01
2.720251354414729775e-02
4.262018079942143239e-02
1.609662393027789240e-01
4.489108535477590728e-02
3.284345688761610565e-02
6.351224607121055965e-02
7.045182913070249797e-02
-3.208106719562572873e-02
1.120156798616230714e-01
-4.086948833485254395e-02
-1.422928182199872764e-02
-7.830322465128150555e-02
1.915590389648208144e-02
-2.235130726180568038e-03
-1.006011681493360344e-01
1.177771199917052036e-01
-3.857563144662935761e-02
7.665959156026821986e-02
5.278883402211338727e-03
-1.781760770738257116e-01
-1.961518679784701180e-01
1.384873148200151290e-02
-1.854343756662465148e-01
5.078256638449887839e-02
-1.548185278986607405e-01
-3.755529024532102550e-02
4.005037710319517275e-02
5.451343815058905945e-02
6.494250126999591421e-02
1.255755147894189842e-02
4.830993080812943236e-02
4.666017561566545430e-02
-1.029286750580813981e-01
-1.606369078908584380e-01
-6.642122265462506447e-02
1.076393158531644967e-01
-2.974008209693583815e-01
-1.754733309837977762e-01
-2.719122368361354125e-01
-7.347894319215141079e-02
-8.406715121669275717e-03
1.061654969056335072e-02
-2.046307734671520481e-02
1.005374032258939260e-01
4.251652074496967831e-02
2.628331308743691794e-02
6.244938871887704968e-02
-1.535934954037074529e-01
5.529788006592917943e-02
9.240498506145299051e-02
4.190979692385465166e-02
6.414600197079342592e-02
-8.015394360898699111e-02
-4.662234308543789646e-02
-1.340529967525326159e-03
-7.182746704364749435e-02
-9.334927582764485088e-02
7.011064135500127970e-02
-1.936323471714548189e-02
4.875446751885272045e-02
-1.385577772381205719e-01
1.690042107584253939e-02
1.063557931800690470e-01
1.288813547609455323e-01
-1.522776777672570636e-01
7.410496956779255573e-02
-1.467965559380853824e-01
-1.247261519111756145e-01
1.338881981208900687e-02
-4.136952576877476334e-02
-5.580517392945329169e-02
-4.584161858061658323e-02
-1.891675721933119489e-02
1.110388041605907955e-01
-3.269154342472459923e-02
2.692880869503391436e-02
-1.244436069753006129e-02
-7.966976514440028689e-02
-2.492330545889998028e-01
1.349137129096583121e-01
-1.888791906344066129e-01
6.823585479636533335e-02
-1.538458233567907840e-01
-7.310631368018510878e-02
-1.263781072301257136e-01
2.976233969041192431e-02
8.965431829342974945e-02
-8.202347033716043956e-02
-2.783845248258834740e-02
-6.271784057138690693e-02
3.103413549940980606e-02
6.371664483590429306e-02
-4.443280743100832403e-02
-1.919731078430172710e-01
1.878229529886893678e-01
9.770479152470813722e-02
-4.287896138707367188e-01
-8.083401677635793092e-02
6.429331188668511998e-02
-2.506453554535374717e-02
1.018714623155281135e-01
-4.472215830640191570e-02
-3.105368807193239697e-02
-6.866184083462813226e-02
5.733293257954531069e-02
2.054752178824892361e-02
-3.078956078362857923e-02
2.184829721020190366e-02
-1.213561094392667621e-02
4.239198482545004226e-02
5.259879220944432832e-02
-1.152563435505222500e-01
-1.500415556216607993e-01
-1.044783178475400115e-01
-5.312985994008279783e-02
-1.698112777589049216e-01
-8.439749087775499925e-02
6.462014713591933412e-02
3.310388376853577730e-02
-2.072080638114491211e-02
-2.750502654352532383e-02
-2.160414754449364524e-02
4.967955899617716026e-02
1.980860538331713147e-02
-4.342545174278759218e-02
-1.539165216730216945e-01
1.138748498983148949e-01
8.804532580310325818e-02
5.776743848036542534e-02
2.122132902372237794e-03
-5.204814295053859091e-02
-1.137075555279255940e-01
-1.816604429557942268e-01
-1.393744883407717627e-01
-1.487668167651507445e-01
-3.712066469528044893e-03
-1.560566905856139996e-01
-1.025266272796880179e-01
-5.409567227292948893e-02
-1.944084912527832831e-01
2.121214249955458708e-01
6.593557981199912876e-02
6.391090215066926039e-02
3.794005338661091825e-03
1.188302072813404581e-01
2.091647734196675490e-01
7.669216240485152158e-02
-7.868333615904927678e-03
1.381940826018976387e-01
-8.917283211487575523e-03
-2.125610157785208509e-02
-6.993971968136651618e-02
-1.751676649883195658e-01
9.872949515090533035e-02
-1.186808384578122849e-01
-4.872219313782061995e-02
1.311933417822971903e-01
-8.575593960123152268e-03
-4.339105109099267860e-02
-1.655144458631051252e-01
1.056062346921061990e-02
-1.446618259251839511e-01
-6.438631078327110291e-02
4.823695466028044693e-02
1.220216654970888437e-01
2.367690081466682084e-02
-4.365183592751681330e-01
-1.036569847535619843e-02
1.092654244847029825e-02
4.594914651772458863e-02
2.171654239512796000e-02
1.830064325825690383e-02
-1.090493408527124092e-01
1.010434374792446802e-03
-6.722872754306406795e-02
1.582367714355595659e-02
5.445620023299689583e-02
-1.443219787408230037e-01
-1.232223927375386135e-01
-1.292216656217982061e-02
-2.661755579517412814e-03
-6.772077147916460982e-02
1.911413281208904080e-01
3.670839914539562876e-02
-1.089166244461982486e-01
-1.927519051621915877e-02
4.183852269870758089e-02
-3.183368335756616568e-02
-1.580498062699970396e-01
1.301052470464476030e-01
2.178472816292095077e-02
1.173454335147492734e-02
3.063948099036381133e-04
1.368331639768315955e-01
1.858232104115035976e-02
7.064195889733991540e-02
9.883545695967613925e-03
-1.560282291384685049e-01
8.796201883758259302e-03
-1.967473874740050532e-01
7.201786634383071373e-02
2.433222852731565730e-02
-8.686468397910171446e-02
5.866058138471396538e-02
-1.132072567311241951e-01
2.046047832570725700e-01
-2.094195168935644724e-01
-6.410239377681559159e-02
-7.829348801940347324e-02
-4.152562993196299429e-02
5.731603129757650156e-02
1.076838107316076543e-01
5.014538595977419827e-02
3.686838033016474198e-02
4.056677502127552237e-02
5.825767415250200643e-02
-1.060635670983224865e-01
-3.204564048547760002e-01
-1.294021742634624168e-02
1.855755344933317230e-02
6.562555529009268807e-02
-6.428140343870511475e-02
-2.375855495540357964e-01
-1.325014381152385123e-01
-5.861203402768801196e-02
-1.967581384616489404e-01
-1.317254701342088496e-01
-4.322138783721778121e-02
-5.731267811526392919e-02
-4.284623915923368304e-02
-3.337706463847038563e-02
-4.514587500523838809e-02
9.458469842672267980e-02
1.606039158455443983e-01
4.538049532503837802e-02
-1.034780563958094257e-01
3.641637509897839575e-02
1.701425003962566199e-02
-1.601417815086990729e-02
8.060941685163176829e-02
-3.041739030443720362e-02
3.597018456240620721e-02
2.597269342799276778e-02
2.978447869484429286e-02
-8.465923978131864591e-02
-1.206128509456515924e-02
8.423059120841049074e-02
-2.121512559470533632e-01
-1.047449695297733713e-01
1.813969688278722903e-02
7.257553732268423770e-03
-3.538290392490563152e-02
1.373936201989959527e-01
-4.858955909004044650e-03
-7.772271101143878036e-02
1.077726052071046742e-01
5.334117612208581771e-02
4.755347686679060014e-03
2.526232855185092316e-02
-1.033301660690865986e-01
5.401684261190262473e-03
-3.722867700431909538e-02
3.710457901387417823e-02
-3.131582471228793775e-03
5.532783432787317240e-02
-1.305508128894159771e-02
-8.170882069067951503e-02
4.981994445238646305e-03
2.095778072944904855e-02
8.198722836829366867e-02
1.044076671671423785e-04
-1.843129686135138723e-01
3.271715999934141639e-01
-4.780171481102013509e-02
-3.390759259170333939e-01
3.258041558378015762e-02
-1.341365808870805254e-01
-1.574611129930655884e-01
-1.318855302999173973e-01
-9.592792572889153810e-03
-8.913416877899099644e-02
-7.168389432858641996e-03
1.451521560140351698e-02
-1.950888941066926119e-01
6.281245566069594555e-02
-1.402252009910298081e-01
-1.997491834762351592e-01
-1.558054321875897430e-01
-9.977303941467237369e-02
7.284448990092385473e-03
-7.240111982226397902e-02
-1.704200891109925176e-01
-9.445210079952869042e-02
5.169050054464491284e-02
9.265373216163198811e-03
-2.821088457162962762e-02
1.684520563025971862e-01
-2.901927420206994093e-03
3.903841471193464363e-02
-2.925591263839578127e-01
1.187376638050452321e-01
-1.125262769815784103e-01
-2.834431353872424522e-02
-2.717110761366997584e-02
9.280543310551163383e-02
-8.929945668788695501e-02
6.407262633318576428e-02
-4.908624835341010226e-03
-1.420967185536592681e-01
7.163508219675991662e-02
5.211329638330119279e-02
-2.721989964630393971e-02
8.210913210142919971e-02
9.304274076141672012e-02
-1.660924402289621626e-01
-2.057171403283538924e-01
-8.510971601000451303e-02
-2.798048964616287396e-02
-1.794437863590510329e-01
-9.644313933064127542e-02
1.502713923000536730e-02
1.490567704192500252e-03
-4.484228404845005955e-02
-3.260943238805599515e-03
8.161388631024684218e-03
1.131471642692215701e-01
3.016093917653295264e-02
2.168493278266973509e-02
-1.992495509163685341e-01
5.640423262805051297e-02
1.506024934867918885e-01
-6.328082903687318184e-02
-6.107275549037329693e-02
4.034808047016890352e-03
2.297289991666444653e-01
-1.808942680596769270e-01
5.236691471867967879e-02
-2.382350606832028470e-02
3.760196964681027793e-02
5.175208672522723513e-02
-2.376753945298552828e-01
9.379612041239375475e-02
-1.974984803396251376e-01
4.900888592973826063e-02
-1.291371603283365255e-01
6.191554438319240433e-02
-4.343408440068823040e-02
-2.113456159836100412e-01
-2.912191067705355643e-02
-7.904598484257743807e-02
-8.945989932518591536e-02
1.095422675068700724e-01
-1.634337886370581389e-02
3.322231246462140769e-02
-1.094161941088238194e-01
-8.094369820733521292e-02
-6.833865025089137790e-02
-7.288245572804837036e-02
-1.227135604899317334e-01
-3.043491635604260101e-02
4.251840820827081785e-02
1.921497478166609568e-02
-1.388246311110879865e-02
2.748036332717334052e-01
-1.010439662918559368e-03
-1.064501797000898392e-01
-5.511342864999253799e-02
-2.190512505888908001e-01
-1.579861827494076221e-01
-5.638509099499099814e-02
-4.121959533085146621e-01
6.173082897733316032e-02
1.080535966853087004e-01
-9.181385913724538980e-03
6.785003866095477842e-02
-7.791605653659275377e-02
3.229122260029182456e-02
-9.057695012437166904e-03
3.073354502543560948e-02
-7.224765549958027389e-02
-4.178240095236305796e-01
-2.064192883349849905e-01
-1.413234617569378813e-02
-1.053781153208585702e-01
-4.508174154344792711e-02
-3.247441858396489522e-02
6.087092441419326289e-02
-1.745541573998851959e-01
3.280003172548921070e-02
-1.486844104799302235e-01
-1.134705282238441804e-01
-1.603033959609646286e-01
6.793945212367932807e-02
5.152983891534614882e-04
-7.868510206202000354e-03
3.866240973293818411e-02
-8.366514596169725981e-02
8.354675521670594518e-02
-1.571484894917199449e-02
1.360816012506475547e-01
1.272364808726684782e-01
-6.104828116978398833e-02
8.961951741471772814e-02
-1.613202024643900223e-01
-3.429091293331278101e-02
1.093074215772676522e-01
-1.298560072809988308e-01
-1.189571033911540204e-01
7.392800952384388780e-02
8.289049293235281266e-03
-4.494425106858465635e-02
8.089935010158991191e-02
-1.781552713933774040e-02
3.636643884786646547e-02
5.553362633135292686e-02
-1.367315521418568103e-01
3.687660618287096070e-02
-4.573650830295120095e-02
-8.373897656202747286e-02
-2.285778932801919155e-02
-4.556544486295575035e-03
-1.871121615119640813e-01
2.189876109745983110e-02
-3.557789312166920875e-02
1.601559519003674936e-01
-1.038461301604892972e-01
-1.849712445420547691e-01
-2.074469055027652054e-01
7.311015013500893334e-02
-2.449527278530618801e-01
-1.072150375048086662e-01
1.002307127731517922e-01
3.514097470190887668e-02
1.882881864806111305e-01
-1.037376404157210746e-01
2.366631407659434624e-02
-2.069920080142626743e-03
1.074830125628072064e-01
-7.016235167459526634e-02
4.525956709569182307e-02
-2.483977185559608225e-01
-1.658738815805291603e-02
8.477960710872979588e-02
-1.318452694322367058e-01
4.650905832798638527e-03
-1.229597434622470113e-02
1.344733137182107796e-01
4.576902632096182394e-02
2.195010307437898420e-02
1.266908783353284662e-01
3.326597420533866645e-02
-2.918140401555004149e-02
1.528044497490907080e-02
4.936044674499133478e-02
-1.995800500401526470e-02
-3.204760276339145286e-01
-2.821093030167360141e-03
6.501055074176569082e-02
2.214156439270608279e-03
-1.290608640932383762e-02
-1.890444890249149551e-02
-7.010580512630518180e-02
7.636113597804596032e-02
-1.239225161329350483e-01
-9.137164410874465403e-02
1.309276963627936489e-02
-4.567868637512350304e-03
5.160450268393011394e-03
3.260851782255994730e-02
-1.369069994998083906e-01
3.996919563982302692e-02
-1.612508403850222982e-01
-2.228140317959744279e-02
-2.565840539344274585e-01
-1.047248655641111990e-02
-1.262753485416327238e-02
-3.430536969722981777e-02
-2.825648117380373872e-02
6.322644147530973036e-02
-7.528681137372732202e-02
2.190981094080842601e-02
-3.212727158120598503e-01
-6.108950266030609144e-02
-1.032911522534188560e-02
-1.258160431710552696e-01
7.326763241095932307e-03
-1.780552756400318459e-01
4.330112650600655838e-02
1.150637453672956889e-01
8.714912855196323138e-02
-4.504256919966252021e-02
9.549370928087198840e-03
-1.796404888571898339e-01
-1.841563513883736070e-01
-5.334509250371725908e-02
-2.408848519361160567e-02
3.648425300664756565e-02
1.812263334067023002e-01
-5.847589689913532812e-02
3.117727696845211047e-02
-3.965031200889950619e-02
2.458948954310372428e-02
-2.327248100915782769e-01
-6.911067864421090168e-02
7.750564766611521550e-02
-1.963337535882018758e-01
4.405980870975168689e-02
-8.760100342557831932e-02
-3.179863927399962514e-02
9.366663363283936339e-02
5.526310950249848503e-02
3.249696837817196010e-02
-2.008002208591434107e-02
-5.163682051624988306e-02
8.817958720191542560e-03
6.591272554397505090e-02
-1.201670003123398306e-01
-1.260586391875851697e-01
9.882363707617188020e-02
5.099037319612723280e-03
-2.070365178812571400e-02
-1.239698054887224121e-01
2.764236038444247562e-02
1.872629796950546210e-01
-1.712523457665885984e-01
5.160739324871389117e-02
3.346489189679831278e-02
-9.816667772364067943e-03
-5.434086012133236554e-02
-2.932797905739750743e-02
7.710203410516444644e-02
4.399501906013738445e-02
-9.555311821997827804e-02
4.333048818161774202e-02
7.981411047458673858e-02
-1.540548888172482422e-01
-3.163985222739431058e-01
-5.612124845629937880e-02
1.128817718065996539e-01
-2.469929844476163039e-01
2.223390750712486361e-02
1.411667464185990262e-01
-3.069303208275919181e-01
1.054386957938535790e-01
2.806950364761243502e-02
-4.569812614589908312e-02
-6.689263717121655961e-02
8.840384332312818672e-02
-3.415806339946447084e-02
5.760423244368360896e-02
5.155435904702018908e-03
6.650583202394838578e-02
-5.085353389166390181e-02
-2.265509919190056565e-01
3.434454241072285030e-02
-4.633160727796258906e-03
2.187950449607582171e-01
6.479395886895368550e-02
9.309451034166622840e-02
7.433445049382175762e-02
-4.306443666026885629e-03
3.604840105328021432e-02
-2.129902371632524938e-01
-3.538711534880738530e-01
2.686442059289007121e-03
1.053195125752432737e-01
-2.129641994097020846e-02
-1.128177938565623067e-01
1.814844874041972866e-01
4.389025638894505921e-02
-1.952233011127603099e-02
1.264251723965907626e-01
-1.163904901910512157e-01
-1.024245592100264668e-02
-8.793056097052256992e-02
-1.399021119161432958e-01
-3.771385387650356275e-02
