-5.175859061393257576e-01
-2.313859289147136289e-01
7.734445224720268852e-01
-7.757000929691629798e-01
3.287410699967703298e-01
1.646506376184925513e-01
-5.097234677503906797e-01
6.800646019600521397e-01
-1.494412611138931646e-02
4.323018187687592828e-01
6.784568747940113997e-01
-7.923638345515993109e-02
6.529438048705699105e-01
-1.822429832722007384e-02
-1.284671509121403099e-01
6.680967427454558294e-01
4.153963839778857525e-01
-6.521922354927304211e-01
-5.418790652133282926e-01
-1.202192974796359032e-01
-2.095755179356561249e-01
3.251565204952067689e-01
4.035882504299067586e-01
2.576535622161092998e-01
1.669690420026811728e-01
-1.153906230475892081e-01
2.171633031639676747e-01
6.799239638612175618e-01
-5.991633709849374378e-01
-2.706278620097676280e-01
7.808968097304828937e-02
2.126882192191076049e-01
-5.700651697856810030e-01
5.862206175640100048e-01
-4.701719909798555697e-01
6.029548114499765354e-01
4.151002304650145414e-01
-5.143740901580809988e-01
-5.800664949373084411e-01
-2.501883079760373885e-02
2.562219715012028498e-01
-6.849793578668682548e-01
-9.025685439717089087e-02
6.907645063677939623e-01
-9.867284675155940654e-02
3.315401365196591343e-01
-3.954074128505175589e-01
-4.588551235547360108e-01
7.533048649414766373e-01
7.548154262406243653e-01
-4.974784179153053931e-01
-3.700011000346138945e-01
-3.983869938939496591e-02
-1.083483677421653024e-01
6.689456107870050960e-01
-2.194779286210906399e-01
-9.294465107660145053e-02
-5.800789644993173955e-01
3.620283039993432705e-01
-1.600898758223572582e-01
-4.244129028077801569e-01
-4.180201945678987951e-01
-2.702499087600553906e-01
1.755409661566078305e-01
2.556125468189546224e-01
-4.571642395249650992e-01
-2.552380628113052885e-01
-2.411256419619499103e-01
-8.452850541608793178e-02
4.003986571082121526e-01
-1.100682786798415913e-01
6.361212786608956282e-01
6.025625910742974378e-01
6.822909137193844398e-01
-3.223006534624467401e-01
6.660838642521496045e-01
3.791803278285515999e-01
5.742120087259404704e-01
6.362529356224576604e-01
-2.395220203037037518e-02
6.336869374061375459e-02
-1.846825184964992206e-01
-5.611422051766275232e-02
-1.116222034047200801e-01
6.218587393495175197e-01
5.159574354351632586e-01
1.695176464508906522e-01
2.073983318839851819e-01
2.922139821829227158e-01
-6.518253591874108022e-01
-4.461127310927810452e-01
-3.585500569034625884e-01
-4.520416623755443286e-01
-5.072875861100426542e-01
1.590044030210834292e-01
5.268567827583025415e-02
6.329125819300165379e-01
-6.732177021378779047e-01
-4.259931528425962843e-02
4.248290573001510251e-01
1.172174617187741880e-01
-1.683679690285549979e-01
-7.940214600918222843e-01
-5.308050080582120689e-01
-2.701721741149577527e-01
4.512157475687412767e-01
-1.983072523924103714e-01
4.254814055055829852e-02
2.320391731825297565e-01
4.844771426670150261e-01
-4.210810380548037912e-01
-2.895161325928401475e-01
7.135412461020842478e-01
-7.278057453012469757e-01
-2.028095631636079310e-01
-4.856688773315011587e-01
2.618123730046232334e-01
4.446639391955221621e-01
-2.567032767190433606e-01
1.420084723723616382e-01
4.357260929429835894e-01
1.478026512540789594e-01
3.195099658282050670e-01
3.517754665413257431e-01
-5.203041129120000718e-01
5.765597881211309561e-01
3.199505875223394580e-01
-1.945222489212074246e-01
3.530605669510556988e-01
-4.219397707219069149e-01
5.935881594470404643e-01
-4.011992819707224101e-01
7.113235580227812438e-01
1.074863896461502322e-01
3.417938612752742245e-01
3.626121607132018476e-02
1.486256754023893012e-02
-6.335083088404858120e-01
5.311074225951969430e-01
1.092478498371729362e-01
1.460974939600198919e-01
-8.502119072594574445e-02
-2.826177062951911179e-01
4.465148821192708173e-01
-6.555480658040135911e-01
5.367141231032812598e-01
-4.537601623268271989e-01
-3.563442190332810622e-01
2.290506044352180748e-01
-1.152702776539478030e-01
6.922714578409443487e-01
4.833950547139965748e-01
-7.542820705806733139e-01
3.753591686103432967e-01
-1.101437647506318257e-01
-4.745420101652499945e-01
2.742929182766377094e-01
7.068367541793344477e-01
2.058884624323267520e-01
2.574015750668023350e-01
-5.616924839362145150e-01
-6.269299140196681330e-01
2.245858391152251721e-01
-2.385359498526343561e-02
-1.669006451773837330e-01
-3.464113654515720842e-01
5.187529920107502024e-01
-2.417663422898840564e-01
3.210309802631554632e-01
3.593491305455889240e-01
2.696979011151546257e-01
7.276988255100411696e-01
-1.427213015818843689e-01
-7.868878323330009694e-01
-1.505284616924857377e-01
-6.422005061646101076e-01
-2.429740455808734045e-01
6.014660749523564887e-01
5.370688472006628356e-01
-5.972271474382855327e-01
4.519001972577157411e-01
-1.313854965223246463e-01
-4.388267404913440140e-01
-1.635157641806681550e-01
-1.405967349904562458e-01
3.900917374106818158e-01
-6.758010107624876639e-01
7.145148535027744385e-01
-1.006507370175209609e-01
-1.208072681580558694e-01
-2.892281558583623680e-01
-2.262924263144694692e-01
-5.357242194111856426e-01
-3.810485138933491500e-01
6.042638996297394760e-01
-6.021358083529280147e-01
5.567871134313819859e-01
7.365729051032864350e-01
3.891167965513548932e-01
1.110784869418582690e-02
3.078630364183263662e-02
-6.375543014318347801e-01
5.611644693511637083e-01
-1.361115056645019750e-01
5.431436857201591417e-01
-4.089166087097013680e-01
7.615204365429792954e-01
5.684014836257463843e-01
-3.288650229603625741e-01
4.340125204183254426e-01
-5.955135405342004695e-01
5.361558396925116821e-01
3.908200056978212711e-01
-6.484267143544747425e-01
-3.685465866261402046e-01
1.345932496975329740e-01
4.970329316424167421e-01
3.104644594149464851e-02
2.554272064852438628e-01
-4.747482134140172394e-01
-4.169047145223800377e-01
-1.467667929955483452e-01
-5.658175433887384642e-01
5.194235565599025078e-02
4.161247700050545867e-02
-3.808587284052629696e-01
-3.821659669494375522e-01
5.874177517323885267e-01
4.695707505441121254e-01
-7.331469029621028310e-01
6.476589760391593398e-01
-5.626240548720343876e-02
6.842146759186507055e-01
-2.490116998251129810e-01
1.130763506021475739e-01
-2.184793315330181285e-01
2.599375439046452962e-01
-3.383574080497974701e-01
2.781691207472402061e-01
-1.640175034368577811e-01
6.885377725410641858e-01
6.009897435653196451e-01
-4.610451323050652750e-01
-7.243652398645987756e-01
3.933748235599214826e-01
-5.371603175208824466e-01
4.635651759691155477e-02
-2.944568424739290036e-01
-5.994516478664236869e-01
6.179822130309600148e-01
-1.414251915985272612e-01
-2.249232083701283857e-01
3.065144568542270687e-01
-2.082286824890753063e-01
-4.161438339415152732e-01
-2.888266609591820244e-01
3.926118564440757575e-01
-3.720374212900918742e-01
-6.257537229517095012e-01
-7.237285806349845751e-01
2.209214727831507533e-02
-6.356084232399555889e-01
3.774039809461268713e-01
-7.760493292701661217e-01
-8.556148810946731520e-02
-3.655594053176268732e-01
1.768742422228295474e-01
-2.266420550443656867e-01
6.716352914910977967e-02
-3.628628216908204029e-01
-7.190933093332199100e-01
-5.556372158575314524e-01
-5.491878107538583631e-01
-6.456394711378151685e-01
-4.402115321502314549e-01
1.019906967238059514e-01
-3.673921111476026180e-01
5.601664703201395534e-01
-4.286634568226917186e-02
-5.492796998157928323e-01
1.917405680611180274e-01
3.565126607669393821e-01
1.360807176678112962e-01
-1.454174615823075056e-01
-5.983512673728529768e-02
4.213749961042055625e-02
-4.085394106915664625e-01
-3.103988368615257509e-01
-1.980518400824412550e-01
-6.806853823596575870e-01
5.492183192425977856e-01
-6.129495101274661240e-01
-2.055124477004277861e-01
2.382326386321277911e-01
6.450702336449879448e-01
4.074720488192725143e-01
-4.328294354298645730e-01
-3.941177440595859949e-01
-4.560106428644443155e-01
-1.886537973681856606e-01
-3.556547860626319557e-01
5.832703124988597443e-01
-3.930092728843371797e-01
1.084904432525742451e-01
2.921808159177178288e-01
5.283216659886339484e-01
2.728295189509543639e-01
1.966970962985370719e-01
3.669242812849537461e-01
6.480448833286983623e-01
-3.215169836661547209e-01
2.810201923984779193e-01
-1.464980810835108671e-01
3.820388988792066676e-01
2.461440140939011034e-01
-6.684632311867710897e-01
7.611204379482576776e-01
2.094173159790602146e-01
1.398080346764232207e-01
1.473075287230022623e-01
-1.182328739294096209e-01
6.016496722055242330e-01
4.348213150716746522e-01
6.131334802794971006e-01
-1.372130738329676580e-01
3.731262570878868257e-01
6.165595723950314522e-01
-2.931983853461326284e-01
1.027999408687332861e-01
3.325358022183811935e-01
-3.174526577604523947e-01
2.785914872594015823e-01
2.396714276847196692e-02
2.787524283235195965e-01
-1.604426705688718202e-01
3.438451224939085282e-01
-3.885700220063712518e-01
3.505496942394590865e-01
-6.062156410027095266e-01
3.505726369985171509e-01
2.339220239098555310e-01
-5.028795726317021320e-01
4.054610695298792589e-01
-3.350230864066421760e-02
4.260041163095498740e-01
3.206553995961587411e-01
4.228526451100572681e-01
-3.849758978208813187e-01
-4.191694456000701896e-01
-7.329666865036492673e-01
-5.917530946333713349e-01
3.622329357872048489e-02
5.269066945212125264e-01
2.103693454994899348e-01
-7.534524161638608275e-01
7.315683951373418425e-01
3.915099561415997798e-01
-3.195590111994575655e-01
6.637361627836437794e-01
7.256060514154673013e-01
-2.238757145881879740e-01
-3.938958740220999122e-01
-6.632170858683091863e-01
8.695470027475006580e-02
5.025515273468810218e-01
-1.155216655516444757e-01
-1.132582409953704211e-01
-6.102188798172385464e-01
7.596294934685937639e-01
6.847040302037370463e-01
-3.138513471963987056e-02
-4.696908351588837682e-01
-5.634476027334652665e-02
6.291073533586132305e-01
-2.308624801994871578e-01
-2.756655896468343525e-01
-2.651664734950888169e-01
7.501052243496776351e-01
4.979792623675535768e-01
-4.015638999705641726e-02
-6.192256694893037983e-01
-3.079348803791855382e-01
8.021086192180616747e-02
1.049408333038739788e-01
1.185933304996940156e-02
-1.736199215742475210e-01
-6.824848186349196100e-01
-4.106713746090791539e-01
-3.072346166241320953e-01
-1.647230953231023642e-01
-7.120309808478911817e-01
-4.828552298976551138e-01
-3.000656042429970527e-01
-6.424949417427953113e-01
-3.387362494681179781e-01
-5.167814856626090636e-01
5.008437914590616602e-01
6.926856584229053038e-01
-1.078188963505977149e-01
-6.188622790866991075e-01
5.347096214502823353e-01
2.585225065235052452e-02
4.513112034073334389e-01
-2.470929033548047715e-01
6.875986342422055753e-01
1.782107330543609980e-01
-3.013234804362194819e-01
-3.445019457667313767e-01
-9.905654358648412205e-02
-1.950004604203131320e-01
8.026054623218793482e-01
-1.046900524760570189e-01
4.218649325065951250e-01
4.269848069418193948e-01
5.714875811247347448e-01
6.894229416398082178e-01
2.993603902320672305e-01
7.546064400885513779e-01
-2.689137137757697804e-01
3.131215312578635168e-01
3.062232500300364202e-01
-6.611937755415369100e-01
-6.796442853594545364e-01
4.960353321194188037e-01
4.157030297623638404e-01
8.712132978185233023e-02
3.716483932653469324e-01
-4.651005528321361382e-01
3.362431223364668043e-01
4.974640012732016725e-01
-5.860043821623673876e-01
-8.949299872547143708e-02
2.639704649405608811e-02
6.681028396138176673e-01
-2.115377878632622444e-01
1.454791561865709515e-01
1.527450227105946468e-01
-6.517780693018355720e-01
-6.169938910210809313e-01
-5.509257702444513294e-01
6.260163606779830525e-01
7.353221920480907947e-01
6.309282222644442273e-01
2.341875355060262787e-01
-5.717970280553835716e-01
-4.877181164252439860e-01
4.698198274688327181e-01
2.124523721312859825e-01
4.832328604780185555e-01
2.815619866530529036e-02
-8.588650771288538002e-03
7.783694600485724369e-01
3.846378205358774172e-01
2.228635728059049914e-01
3.554032987478684125e-01
1.402227263910955091e-01
3.565440901368944759e-01
3.693957259331032139e-01
-1.155522225476667969e-01
-6.327539135531004000e-01
-8.042332937800079629e-01
-2.846339787289917100e-01
5.081431124056136062e-01
3.819484811804393365e-01
4.579383659922039440e-01
2.409742569712486904e-01
3.149442797163854446e-01
-7.411949121376371075e-01
-6.184380956181850797e-01
-7.423878320883526838e-01
4.033583051471263947e-01
-3.340193668651673664e-01
3.123534806033768096e-01
1.133994684720454615e-01
-4.938438650081109493e-01
6.802093937586787264e-01
6.554434932912437395e-01
5.531799850833206689e-01
5.698442151735485517e-01
2.048783930531080932e-01
4.700657289246461534e-01
-5.057889760764713305e-01
1.246717002995063051e-01
3.324149518803046210e-01
-5.117233195655717104e-01
-6.931972508303293479e-01
7.191744282501185692e-01
-5.185806319948998988e-01
7.711504822888507471e-01
-2.538844992423057167e-01
1.867807338657668237e-01
6.484374631668274880e-01
-1.840679182977650319e-01
-1.907254365027360177e-01
-8.740721219674274511e-02
-3.211742584672038214e-01
3.798046795040330714e-01
-7.259581944927762098e-01
7.408315000165742736e-01
4.235017415842342037e-01
2.679810570909935685e-01
6.041961998712430670e-01
3.471754427570902801e-01
-3.860919629871715220e-01
1.549845721366191476e-01
2.414323440547777588e-02
6.792828635698002770e-01
-6.466604678856363586e-01
1.468864372080964653e-01
-5.651011800061497281e-01
3.749955091144190344e-01
7.596843091986402730e-01
1.320416488224395446e-01
-4.211538473352138823e-01
3.344988193634765850e-01
5.187558851933914833e-02
-7.842158070578950646e-01
4.503687864990265077e-01
2.662258384984356185e-01
-1.319930444719989715e-02
-6.961985997632069711e-01
-7.222651802831274448e-02
5.369761181433376773e-01
1.781740558307069178e-01
-1.402064722887420567e-01
-6.776650094425726856e-01
4.640305572426616787e-01
2.183264801304852232e-01
4.695101468267554035e-01
-3.233113534465842931e-01
-5.023279281550576680e-01
-3.196220583360385725e-01
-5.210751242948791218e-01
4.077377016172704094e-01
6.619007453664609297e-01
2.297561790434100026e-01
4.385370099151337797e-01
-3.502306557223889838e-01
1.926612576628085327e-01
6.513413702299034047e-02
-2.544025931534761309e-01
3.573572562167613986e-01
-7.217674612184108440e-01
6.743721704764539249e-01
8.756789126743625210e-03
4.466776993075271401e-02
3.188726470012527847e-01
-7.536575198510714335e-01
5.233503456165605749e-01
6.012686645796665452e-01
7.208182479893671113e-01
3.875087671251831734e-01
-1.514287968783432393e-02
-2.094509624474951426e-01
-6.987833964230241723e-02
7.729396208093534115e-01
5.166569470823528798e-01
-4.528279566039262183e-01
4.271889580684746224e-01
5.623771148465912528e-01
4.217797153746404015e-02
6.025788037787701557e-01
-2.406979658041936421e-01
-4.292504437277379070e-01
-9.538161585503675266e-02
3.280858350764170872e-02
3.151843448545866289e-01
-7.912223345204263403e-01
-4.890367820561814516e-01
-4.372248398446721418e-01
-5.657940102768982404e-01
-4.467974717179459265e-01
-1.575558541711894189e-01
6.786373656547886046e-01
7.936953465812569553e-01
4.577772079484731527e-01
-6.065359945996390278e-01
-5.763624719126250184e-01
5.202622154646278085e-01
-2.185517933352485453e-01
-6.692523381731007026e-01
5.379133354477314555e-01
4.047424354071769148e-01
2.331984956659581554e-01
-7.264294792682588486e-01
-7.254537304002551812e-01
3.839754964242263480e-01
-3.898681759702083971e-01
6.119254729487826339e-01
4.655044929795297826e-01
5.382530681218682389e-01
-2.394423253052250511e-01
-1.778955769635422179e-02
-5.457734637503380837e-01
2.372546252474248656e-03
-2.205834758347061664e-01
-1.558664831917856985e-01
-5.756438246251135427e-01
1.878839947044071979e-01
9.905158010060384488e-02
4.422708077165357632e-01
3.693541467630971353e-01
-5.844359723691180397e-01
-2.727925901171808221e-01
-1.726647458646866085e-01
5.547961951007818193e-01
7.110500112696778174e-01
9.554131443921110023e-02
2.503193810425808907e-01
2.804345532684517917e-01
4.587448664441282631e-01
-3.854017716395081727e-01
-7.851313767609702232e-01
6.243643376435034087e-01
2.566692892370961432e-02
2.869880835706761224e-01
-3.781297986709827863e-01
-5.436833561641966073e-01
3.745219823576459439e-01
-1.082389293078264980e-01
-5.818659291861527638e-01
-2.942025700527255427e-01
7.921738563850238002e-01
6.165826709121958737e-01
-3.202751719156043952e-01
3.939660001824862867e-01
6.403280288315134072e-01
5.934551847019141624e-01
2.564333621932915475e-01
-3.513648100783844375e-01
-5.702952369583917935e-01
5.370613484365504009e-01
5.642685178633383147e-01
2.077778456473749480e-01
-1.517709518444730343e-01
3.987024266088573521e-01
2.613803767897183716e-01
4.896201205394412614e-01
-6.165024494242901110e-01
5.834364117425043794e-01
-5.252688797971642731e-02
-7.332496836614775526e-02
-1.808139182470795692e-01
-3.878001531645128841e-01
-7.136779077501991253e-01
-4.925615662054868560e-01
7.680005936124756349e-01
7.255464082080551602e-01
3.563830678823156628e-01
-7.421720527582722493e-01
5.560113525011275426e-01
-7.339253961426554784e-02
-7.690927904185844710e-01
-7.674506444844454434e-01
-5.357458519081281789e-02
2.019805851795136442e-01
-7.256551078674298993e-02
6.041424667041672691e-01
-2.230749932616606923e-01
6.237448647947235747e-01
-7.850197932473790274e-01
5.240577785500791785e-01
-3.911672350011513033e-01
-6.079552655783914128e-01
-7.730710878306771283e-01
-6.162485561539897683e-01
-5.801658900822572740e-01
2.658135764342239304e-01
7.775794748465331141e-01
-4.653665574409767691e-01
-6.754364794531557414e-02
7.380487800438806367e-01
-3.685296753948713033e-01
2.162878327646137744e-01
-2.260459094763220822e-01
5.962986476357716725e-01
-4.772766955094743802e-01
4.037399896231300689e-01
-4.911615322005466466e-01
2.093638483335875933e-01
4.500628560940781453e-01
-9.500944032476768553e-03
1.004157514834466414e-01
2.245676469263357955e-01
1.144966855831501540e-01
-6.678691753097825146e-01
-8.987215309065579860e-02
4.307871777865491247e-01
-7.334798418608570181e-01
5.256182935210622631e-01
-1.070978419382471736e-01
5.638660970431087494e-01
2.857792248515566569e-01
2.893334444799905078e-02
1.791786539288215963e-01
-4.214421388536906399e-01
-8.809007446531016972e-02
-5.866502678290669293e-01
-1.235120804443732567e-01
2.990799659225495399e-01
4.656054335960717050e-01
-1.003735159469827665e-01
3.848790922381035151e-01
1.675749466075653615e-01
1.830037719642858135e-02
3.064499740731667643e-01
7.561525178665194913e-01
8.036661567321849997e-01
5.360245097315728957e-01
1.747320691051701402e-01
5.716390653188913040e-01
7.141973298534076697e-01
-6.812214005693764118e-01
3.639857429594903770e-01
6.225108408294965923e-01
-2.308629528274820930e-01
-2.242011842846978742e-01
6.580867332760098609e-01
2.922471796942918698e-01
-1.234630023985667201e-02
-7.060245103646786147e-01
2.439446379456250702e-01
6.262930106976576372e-01
-2.116553990146614328e-01
2.756457177503974232e-01
-1.920307906839338885e-01
1.770243645680006639e-01
5.401901350038228883e-02
2.653775651309059347e-01
3.805724698784965221e-02
6.235316467669365093e-01
1.205533415600831826e-01
2.849127140635952515e-01
-3.932951362224007541e-01
-1.296870737901701931e-01
4.850233818136127223e-02
2.133104394009350258e-01
3.178972383291069903e-01
4.928628877260995411e-01
-5.099167702004372416e-01
-1.030143890699938003e-01
-2.209725953281757582e-01
-3.256511500871103748e-01
2.977434676583483597e-01
-2.385750712511726379e-01
5.595547962914251272e-01
3.656042116454978341e-01
-4.256164522330748157e-01
-6.898659964818864010e-01
5.817079952041324109e-01
-2.304886478321804821e-01
-2.010274703718856748e-01
-5.541920346465165625e-01
1.510260085434683985e-01
-5.496157355866994054e-01
-1.741241529496752316e-01
-2.387499659061295132e-01
2.077938307599948853e-01
-2.422518006260156453e-01
-2.144624375723163390e-01
-1.391809148975929056e-01
-3.098263504273390812e-01
-6.463968652667773096e-01
-6.052660819090268651e-01
-6.267450440390475164e-01
-1.756002859272171868e-01
-9.649539642201650225e-02
5.496423457231613963e-01
7.605983219820031671e-01
-3.764638552632219026e-01
6.745500746959541827e-01
-6.275451845568069675e-02
-3.756154693882745588e-01
2.788340328203220975e-01
6.885213056727711445e-01
3.406963695733079556e-01
1.339779759164376124e-02
5.558039381809312118e-01
5.142501485899683145e-01
-6.061081951592687256e-01
-3.894579872643785801e-01
-5.168983725722672840e-02
-6.675931346838498426e-02
-4.319127018932249484e-01
