-6.260050128446588424e-02
7.160499603311934469e-02
-2.174321323672333620e-02
-2.371341962877939955e-02
-1.956741901302446948e-02
3.532889800088458848e-02
-2.052489930102297314e-02
-9.419021837946713396e-03
-3.460522466801344704e-02
-7.860985900239758628e-03
-2.544779421463593330e-02
-2.284609388829764512e-02
7.652016050319927765e-02
-8.406780460128839005e-02
5.534107464014440501e-03
1.729393090142420514e-02
-5.667587802210239528e-02
-8.888002028754500572e-02
-3.544811934092802208e-02
-6.940583589288884525e-02
-1.070649621719733241e-02
-4.637162059178887019e-02
1.636441502657763614e-02
2.803561697585547907e-02
-3.561830144119601006e-03
-1.398970873446988075e-02
-9.013243253453259024e-03
-6.224720224132369861e-02
-4.946742837685998324e-04
-4.825149397096408638e-02
-1.539693325300241916e-02
3.189256193865751265e-02
4.129042311228607598e-02
-8.978013525978895126e-02
3.130656448335931291e-02
-9.088518552501582970e-03
-1.253661521696840427e-02
-3.495877835453967131e-02
-2.755879830732414076e-02
-2.013369895992664360e-02
2.272350018520876216e-02
-2.592930152224331639e-02
-1.221957971899732646e-02
-1.386642079099677759e-03
-6.032455158061245104e-02
1.476848440849259578e-02
1.742890848043723157e-02
-6.263985615371896187e-02
3.186001891956616316e-02
-4.276363431831326639e-02
-9.029293785645228776e-02
-8.248237619336337700e-02
2.051161643564472850e-02
8.031041626186227744e-02
9.031418980564280205e-03
-7.712506952451322895e-02
5.533761584532559397e-02
1.839082427971835618e-02
-8.595786914675354606e-02
3.438210310002749737e-02
7.973963468881792305e-02
-6.220985719949908427e-02
2.443313482797777533e-02
4.698662630338742291e-03
-3.128761485080183008e-02
7.209115868905266455e-02
5.942194957793046906e-02
-4.685299147605895970e-02
-1.414134398812165808e-02
-2.529790671422858361e-03
8.659863464825588719e-02
5.076904497785782872e-02
-8.222247727913953308e-02
6.194039015991708447e-02
-3.804406772950848920e-02
-6.608721699189430698e-02
7.754292481420856087e-02
5.155583442376024395e-02
-2.112473073675630308e-02
5.650876509794745123e-02
-8.730195258589462659e-02
1.555400666080744392e-02
4.112550956326098406e-02
7.382383470415582183e-02
2.824264593070110671e-02
-1.707790121025034094e-02
-1.325583526384059921e-02
-3.651206855448843602e-02
1.868508065721747810e-02
-4.371295906193406466e-02
-2.313637077846828621e-02
6.134163471201607709e-02
-3.965193935444010637e-02
3.620847668011976939e-02
5.383909705908945798e-02
7.482951351531111350e-02
6.419831754403201862e-02
1.034877412971711881e-02
-2.335593254217281645e-02
-9.003743128031281573e-03
6.524119130874334038e-02
-8.830274343097144207e-02
-1.211761629736617628e-02
-4.233744448033913838e-02
-3.684483351754989228e-02
-6.045774036467461976e-02
2.921218147332301646e-02
9.562497774341259527e-02
8.551227770455617494e-02
1.036479958152530453e-02
4.752431734482987641e-02
4.613159959355684486e-02
-2.139593243909804904e-02
9.171902582694458879e-04
-3.378963599689518288e-02
-8.925574032144965864e-03
-3.191718636016035310e-02
-2.823903620634396483e-02
3.034917449280890439e-02
-5.667269454878017670e-02
-7.739926097265481530e-02
-7.171024314176351402e-03
4.419612167948956671e-02
-7.430207206822198041e-02
3.155913930211942664e-02
-7.572291509577951107e-02
6.683997488700585410e-02
-2.812443921976720898e-02
-3.298011254992062879e-02
-9.046077892285948885e-02
4.807113881408082295e-02
4.774426934030696207e-02
1.032773137535992515e-02
5.614584893162398449e-02
3.153097724383853440e-02
7.902433289026558616e-02
-8.799067915854658084e-02
7.995653486901815876e-02
7.746102747518336662e-02
2.016873685491646709e-02
-3.512773042066862084e-02
-7.306164240564755157e-03
7.840625313046417633e-02
-4.606411439787120449e-02
-5.039287358159321578e-02
6.979206266172852807e-03
7.441482599752438643e-02
1.922438178279057067e-02
-1.299532198317961650e-02
-5.631592655190612723e-02
-2.669891987087773255e-03
4.374518296752816920e-02
-4.215680062589945674e-03
-7.123946763851420061e-02
-9.121924733097778668e-03
-7.261349022212508497e-02
-2.288967186944710491e-02
5.190399748795499618e-02
-1.627003005355319096e-02
-7.087906817724676234e-02
6.051063360201879016e-02
2.569585873229750239e-02
-5.844860008377463639e-02
5.030964767582155051e-02
3.170035481362102475e-02
-3.707503241303142932e-02
4.494468468911567982e-02
-8.273330118738493610e-02
4.460660434356941229e-04
3.500153027291726809e-02
-6.077451372484864861e-02
-4.684725403199472421e-02
-8.597830481889935650e-02
-4.172893501319906856e-02
-7.688531101344710239e-02
7.543161374771091554e-02
-3.969417705695025417e-02
4.713752658478762708e-02
-6.696572481033026547e-02
5.659596242868877164e-02
-1.690719206230911764e-02
7.508598176107567079e-02
-8.092307194454341490e-03
-6.003290018933454125e-02
-3.520850795332718802e-02
4.400467036997433856e-02
-6.082268961249416572e-02
4.844714597338170559e-02
7.576916159711329091e-02
-4.815988939247019957e-02
7.308685228673077530e-03
-3.074938277882219295e-02
-6.439431513522574091e-02
7.969017674080014491e-02
-3.801733703590042673e-02
6.828549532780719966e-02
2.359774177268133058e-02
-6.429759192390076261e-02
-3.637837044039433920e-02
6.707522510714990227e-02
9.715849991222498538e-03
7.692143732923388544e-02
-2.107884919640247781e-02
6.706671142415582265e-02
2.669324367447409654e-02
-3.064138008220108900e-02
-5.611945288105586738e-02
7.016087201794152239e-02
-1.184399304414666433e-02
4.620471556035469357e-02
3.666851844075141170e-02
9.722733589587685861e-04
-8.771063417158662945e-02
4.539998386460881302e-02
-5.889124987533146671e-02
-5.422583287160717691e-02
3.382988499783355727e-03
-1.412505064581620270e-02
3.751536773260068236e-02
-9.218511567483428371e-02
4.329173985734025704e-02
-2.915016147399400112e-02
6.294795097386560179e-02
9.066967958852204662e-03
3.810712626206210624e-02
-3.275687248798565127e-02
-2.384989086574960948e-02
1.152025605881380060e-02
-9.351753907918214370e-02
3.102495514708752001e-03
1.178130741342152225e-02
4.076417450134993403e-02
-7.446319657462015240e-02
-4.777146746615028305e-02
3.118608503004084362e-02
6.509871263584639245e-02
-8.398972062671612726e-02
9.592421442122252284e-03
6.292671406536758105e-02
3.633276934094840926e-02
5.785544142919478439e-02
2.328539016155382196e-02
-5.983289152025234731e-02
-8.205024612647346394e-02
3.079322175420546454e-02
-4.567082085333963593e-02
2.428996302084205500e-02
-1.378896181418219104e-03
-6.898482798570819419e-02
-8.887670144260813657e-03
5.408743826029140805e-02
-6.223723437620614501e-02
2.794197685130818398e-03
7.555813945871389659e-02
4.497843144379311264e-02
-1.501213477044566896e-02
-3.151214870334823059e-02
4.836622196814759078e-02
-2.256191673063940445e-02
2.872684905232365804e-02
-8.044334974416678108e-02
-3.829698794769366421e-02
-5.865481181116098328e-03
6.002981570540349282e-02
-6.136839516616299922e-02
5.620485556642770830e-02
6.624850666677112310e-02
6.463026051329386068e-02
-8.671585960475138022e-02
2.641508012820449960e-02
-3.285814055507001868e-02
-7.017203670657609638e-02
-6.385036249226633438e-03
-2.297206828192557837e-02
-4.942287755428221435e-02
-6.183285636901243720e-02
6.261061631215619760e-02
9.080027214771030364e-02
-6.157104048863896312e-02
5.655939235724926489e-02
-1.804441483068448121e-02
5.671683253949739989e-02
1.078858415220522449e-02
3.994442460069233536e-03
5.847096613399033888e-02
-3.333920500563553740e-02
-3.109804661117981234e-02
6.099682709162462108e-02
2.874316836797520189e-02
-5.546277892823274491e-02
-4.377346978349772738e-02
3.656589309395034959e-02
-1.542544246265426661e-02
3.312240304816743003e-02
7.163540914284496908e-02
-7.562541974372623266e-02
2.264041063633700362e-02
-3.001073743391624582e-02
-5.718197157833716099e-02
8.186076959545295073e-02
-4.981141029620043265e-02
5.541214010914565641e-02
-1.052077189656460826e-01
7.801695747418713189e-02
-8.313314193969907617e-02
4.710908876815997348e-02
6.970511678507018694e-02
1.390922457840482879e-02
-1.147286782670129367e-02
-6.904284350510446477e-02
-8.014404832100692488e-02
1.750477308604457896e-02
3.588710129292343315e-02
4.311010110971021103e-02
7.237524107357087844e-02
-3.848770465459545875e-02
3.992723645141511846e-02
-7.411298379563631411e-02
-9.716411916626695872e-03
-1.603301277116944354e-02
-8.504329478393035657e-02
2.783629753069136181e-02
3.124658932438093700e-02
4.024163230029627336e-02
-1.454790245596898797e-02
-4.951963793577241618e-02
-1.562548400586721495e-02
4.366536626327951337e-02
-5.668285279152459472e-02
8.775018692096120398e-02
6.150618844947938757e-02
-3.639083576588317444e-03
1.757245882274058660e-02
-6.717299492135400674e-02
-2.605223586551520462e-02
-7.383379600809572563e-02
5.061348382804924800e-02
-5.685506459474903157e-02
-4.027472795574763703e-02
-3.690672355827558787e-02
-6.692934486891351231e-02
2.168284807000808723e-02
2.365587608364243255e-03
-7.327693235699067609e-03
4.105282888874467462e-02
2.597384594739050173e-02
1.017276950929772855e-01
8.803220712713240304e-02
-8.955001442099454201e-02
-4.401890112709372360e-02
8.829097821030649010e-03
6.579519095853504640e-02
-1.763768247816239337e-02
-3.756315419653823151e-02
-8.282006333339418658e-02
-6.892094574772847371e-02
-2.652712447759417321e-04
4.277774239324185282e-03
-8.026107919783980957e-03
-2.777690969389721900e-03
-3.212527900363791600e-02
-5.601211443852874283e-02
3.515791140557385924e-02
8.638141750229914873e-02
5.399933312885036446e-02
-8.144863965984858178e-02
-4.734083598562583567e-02
4.433390783393643259e-02
6.082449239518348399e-02
6.404790014812136723e-02
1.662080640312795995e-02
3.321218114201612837e-02
-3.319057155714123103e-02
-7.188312897214064849e-03
2.155887250609598432e-02
-1.890999005809703218e-02
-3.666004992273760865e-02
3.609785350768819276e-03
-1.831859756241602244e-02
-8.044146213801840750e-02
-7.351992482640584692e-02
4.182933125347321895e-02
-1.758495864975382142e-02
9.819455127439985151e-03
8.705599015516892955e-03
-4.614148540857219982e-02
-5.917719692672131909e-02
-3.953420252326510231e-02
-9.309809017787935848e-02
-5.377469298663137970e-02
-7.139123026180081710e-02
-6.197429633410641431e-02
2.899575056340421633e-02
-7.742476763217327751e-02
3.521090180566687627e-02
-6.195201027679707317e-02
-7.795574234294611049e-02
8.445537644966012725e-02
5.112604337117850756e-02
-8.998206982438072821e-02
-5.272055803281549408e-02
2.772033111459257237e-02
-5.947549831860866887e-02
5.792978247339795883e-02
2.792632410277110303e-02
4.983069332755344499e-02
4.392635747970576737e-02
-2.311560985880645180e-02
5.396325358824220764e-02
-4.174332666328868166e-03
8.136408431721406376e-02
-5.348250882287849256e-02
4.883001891191672550e-02
-1.896419685764121760e-02
1.310855931447601694e-02
-2.336602117128665917e-02
1.709292507646558226e-02
-4.723580992132544315e-02
2.219341955350195850e-02
-8.243047162865528577e-02
5.919965374809726261e-02
-7.773378437854885914e-02
-4.689566267439956859e-02
-3.446119435758793897e-02
-9.387964636852084988e-02
-5.602283441019686311e-02
-5.455801136542575563e-02
-5.808538569431010400e-03
-6.296441912368755389e-02
-8.162270278927569178e-02
6.309438502557515593e-02
-5.698410782538468333e-02
7.792441628365292736e-03
6.984845108015731718e-02
-6.920911291542875855e-03
8.064336863999183036e-03
-1.152419764122261311e-02
-5.236108794350493451e-02
2.306530842256723779e-02
-7.773699909366818539e-02
-6.260867094749494877e-02
-6.176395638503370117e-02
-3.884609206736282933e-02
-1.119391219638234472e-02
7.802439707514262357e-02
-2.801109526949564082e-02
2.090835494914682763e-02
1.098284484110894840e-02
-5.072141829589867784e-02
-1.207411900345471169e-02
-8.723915793978600369e-03
-5.889083832757652237e-02
-5.859865805715813725e-02
-7.546922995487027885e-02
4.384295522384239197e-02
-8.065362549509107193e-02
-3.792479688264548121e-02
-7.471816354538972360e-02
2.381400668938314646e-02
1.692098701526641505e-02
7.265901656541079272e-03
5.323890091852154227e-02
4.186044317734292745e-03
2.301550497027658043e-02
-3.927573317470524003e-03
-6.183790381795819385e-02
4.707509722649606126e-02
8.142144920997590463e-02
2.844071663796693059e-02
-2.921255661917770280e-02
-5.297502005015871512e-02
1.179063495344909347e-02
-7.131028473995601469e-02
-3.522679696847069025e-02
-5.017098808689934158e-02
1.463515772681076889e-02
-3.364048074031524699e-02
-5.259245438495201846e-02
-2.981002209485704782e-02
1.595789895712958683e-03
-5.659965990825734095e-02
2.409461631906109624e-02
2.490536920313564037e-02
-1.913126470953728162e-02
6.782932164887034432e-02
-7.847404882326949882e-02
8.386028262989549120e-02
-9.085396376801001261e-02
-3.781260259160331566e-02
-2.236686687196028089e-02
-4.383692751880475386e-02
-9.780231696603566838e-02
3.050254538879838394e-03
-7.861951458226223988e-02
-4.027667762169610810e-02
5.080679888635956237e-02
-7.351449526515863031e-02
2.206023881589280408e-03
3.180213741592456678e-02
-5.157947977984486329e-03
7.711115103440654983e-02
-5.242452269692831485e-02
-1.573922646165064679e-02
7.297733639651160509e-02
-2.601507428250224210e-03
5.397845472421475971e-02
-4.652195720486505121e-02
3.916304505290868487e-02
4.899763944622933382e-03
8.188022777349410197e-02
-2.128761671133984693e-02
-4.931374255806050128e-02
-5.636423178772430320e-02
-6.060943034610515034e-02
-3.893143105062630421e-02
9.904157429949928329e-03
1.883692673958393612e-02
-1.007043440856054267e-01
-9.080765609596967280e-04
4.884493608594675691e-03
-4.580392004967035434e-03
-2.071612819964403079e-02
8.292606228844586619e-03
2.423405053324449721e-02
-6.517399845999251318e-02
5.423925123790954844e-02
-7.084422648964770752e-02
-1.569200421802401796e-02
1.699847166813915275e-02
-8.144599128956535317e-02
1.017109536201724757e-02
-7.160838478964630383e-02
6.803779596890070780e-02
3.289216927344377345e-02
-7.198263138909451186e-02
-6.892909121639076431e-02
-2.053485530976459361e-02
-4.019040764248812264e-02
6.016166512408896438e-02
4.419744775389124192e-02
5.836050289884971154e-02
-1.589239701080350994e-02
4.817291788524094565e-02
-6.718772613202032840e-02
2.815635522721366552e-02
-2.374327542747603145e-02
-8.928857995785960400e-02
-8.686573380807255385e-02
2.300588465187620741e-03
2.685645546591265004e-02
6.828227474763783056e-02
1.948392993501503814e-02
-7.057233566192194774e-02
-3.119100597717151119e-02
1.323228600559408531e-02
3.954078050741261646e-02
1.955224866908523984e-02
-4.965348719761697449e-02
-2.411060111781027776e-02
3.698748171472036189e-02
2.004004435268663328e-03
-3.287526921168779787e-02
5.523283485942287636e-03
-8.510467926076260847e-02
8.414580791778102087e-02
7.201128245667690053e-02
6.867548645344564474e-03
3.767777066301042713e-03
-2.276089281269324388e-02
-2.511469974881700568e-02
-5.811760303419689910e-02
-2.147064159415237178e-02
-7.532291474287605704e-02
-8.525174381341854568e-02
1.467880080819962581e-02
6.125990146708334971e-02
3.267305798961982199e-02
-1.487408921874558768e-02
-1.908730063818604369e-02
6.511081942671007039e-02
5.488140789081778076e-02
-6.852076122783003209e-02
4.539909179903303671e-02
3.454190722250571736e-04
3.288325126459885894e-02
-1.254724589154022386e-02
4.639307341374145077e-02
-8.776662826172469678e-02
-6.321316592532476297e-02
-3.243022263292480445e-02
-7.964407164444657627e-02
2.042841319731190930e-02
-2.740704434046179264e-03
1.620317198098578451e-02
1.978231587275114389e-02
3.276700070216898714e-02
1.141072141491606545e-02
-3.339556251517687788e-03
-7.824424254236651832e-02
5.244269714396705175e-03
-5.371835533977791649e-02
-5.625127028236501237e-02
-6.580274331109627062e-02
3.820299141307722992e-03
7.621387288994067866e-02
-3.368779683086238486e-02
-6.142142751157986247e-02
1.973889159267529659e-03
3.125778267345389466e-02
4.049127985557069570e-02
-3.374719103434162260e-02
2.697792366044149404e-02
5.808982040141676129e-02
6.970984192929693957e-02
3.041619361442606320e-02
2.384042224038552399e-02
4.714113024885779879e-02
-2.989170250208310689e-02
3.283933338841207861e-02
-1.150334598364773780e-02
6.130036526115123507e-02
2.492649736794828874e-02
2.334133129622408681e-02
-8.485466555447078452e-02
1.183834810063359201e-02
-3.396999526408988473e-02
-2.673912440923953415e-02
-6.333605980079597131e-02
-5.269706701815232014e-02
-9.041854849129801752e-02
-8.087449787838204424e-03
5.161967155028038962e-03
1.676278306276333258e-02
5.080123007298452398e-02
-1.565865000842254356e-02
6.399364959650370721e-02
5.522884870817941494e-02
6.672999703638454738e-02
-6.745257018051606379e-02
4.631674849859714060e-02
6.116479853605370776e-02
1.953359679558822407e-02
9.656404917636061264e-03
8.404880662384542345e-02
3.810634094551201834e-02
5.552824397914552651e-02
-6.923581613234683352e-02
8.379122185225723347e-04
-3.951014266113522105e-02
-6.802130828863037215e-02
1.993400450714432823e-02
-3.119631118702992020e-02
7.583576787656651566e-03
-5.886332644220193533e-02
7.142038733884965851e-02
-3.038038517560038773e-02
-6.077413966419732000e-02
-5.004126643805680008e-02
9.742316005359914766e-03
-6.685308933043901392e-02
-2.184548808362574146e-02
4.407239112473074552e-03
1.168737667042010937e-02
-5.579529526506313286e-02
4.547340570265290954e-02
2.784101816308418194e-03
7.593081400721234109e-02
9.094664218416622162e-03
-7.069768666760399556e-02
-4.118572014457812930e-02
-1.492297462385403471e-02
4.988497344436979009e-02
-5.020331360363125680e-04
-7.093422085880650430e-02
-5.991897417073791671e-02
-5.841272257222559355e-02
8.688579034731820638e-02
-6.524540146688447007e-02
-6.538872612457304057e-02
1.475036281855205723e-02
3.125204325369995706e-02
-9.280782305829930398e-03
-5.617285964296287598e-02
3.366598689434773667e-02
-2.724407008593394616e-02
-1.999166286188048744e-02
-8.654784875138181455e-02
3.971280127331311936e-03
-7.253698386342866122e-02
6.791419371637294478e-02
8.650572227912568801e-02
3.613617636047219278e-02
5.519814078958644454e-02
1.739602169760148809e-02
-7.522087121083592676e-02
4.207112744423155415e-02
3.709191119572202711e-02
-5.397470605575541147e-02
1.674081857521385330e-02
-7.018865993808942605e-02
-8.862359050374021829e-02
-2.172017424926927717e-02
-5.123978058424640686e-02
-1.707141929389107901e-03
7.560384384642272748e-02
-7.717462552206398596e-02
-4.866242373376266500e-02
-6.037676996143381825e-03
4.378428206994124106e-02
-6.335482414776147375e-02
-8.623500288925965707e-02
4.761071777917476495e-03
-4.035390668527535224e-02
-1.568613660360075254e-02
-3.542964153538685768e-02
-8.004102985129861458e-02
-4.653122020517800987e-03
3.250658172795645173e-02
-6.978963174316224483e-02
1.469759752156730298e-02
2.370725218910751941e-02
-7.200591506058917970e-04
2.286490705538877372e-02
5.910446171022523676e-02
-1.324387942076402959e-02
4.618523435028358548e-02
3.745852716193688592e-02
7.117617433710638278e-03
-6.625576610246179665e-02
-2.951990701016751761e-02
-5.204325623127344091e-02
-6.861939744323501678e-02
4.650449683331087103e-02
4.726850479487246237e-02
-4.772437883980336359e-02
5.986215571334177477e-02
3.626414335640310016e-02
-7.429024831601481471e-02
2.392885756106247902e-02
-9.161380434268218825e-03
-2.324885120020730653e-02
-4.898889254860463484e-03
-4.943992648615550684e-02
2.698564886003722990e-02
-6.713288320169386036e-02
-2.278318012815660695e-02
4.378969432198735051e-02
-3.636607500689665456e-02
-5.219172876074975459e-02
4.607859760685594636e-02
3.367092698521960133e-04
-3.153035329726965735e-02
-8.468204700170466059e-02
-2.461613012376284021e-02
-7.416440856570102880e-02
1.167977154200488914e-02
-7.637208553573074377e-02
-4.706184623707296288e-03
1.332592930681849273e-02
6.051200726164990967e-02
-1.816528413875916764e-02
9.727140893534899635e-02
-4.411978855870096750e-02
-2.969357386322383358e-02
-9.220322429135974218e-02
-4.379798827162375424e-02
-1.016653461678343057e-01
-6.029022605779215532e-02
-8.014986765733497429e-04
3.218593209519085563e-02
1.054091013130631707e-02
-1.063441255385329381e-01
1.532791348526071212e-02
7.100193741726527896e-02
-1.636367612193082022e-02
-1.324808155971051848e-04
4.143249159287817202e-02
-9.193727963073103360e-02
-3.439289174800178039e-02
5.075496191485384667e-02
2.041093858561678076e-02
-3.434730526335932899e-02
7.256428398541307258e-03
5.439139113501991613e-02
