-9.786620298293872977e-02
-2.798851372447227776e-03
-7.851216365613411519e-02
1.504239797565542353e-02
1.035410911001490714e-01
-7.469592521555533382e-02
3.418871575648207983e-02
5.564411712768923407e-02
-4.810908515549695147e-02
-7.496995404468310975e-02
-8.172946546426221315e-02
1.101313780866652048e-01
2.633430994861574864e-02
-1.793545968372841914e-01
-1.730541161732406658e-02
1.900178428243584974e-02
-7.010301512236150057e-02
-6.300529782365214826e-02
-1.062393417037688498e-01
-6.400533633163092706e-02
4.157566901223469502e-02
-2.667600432548015207e-03
-1.182099224338304388e-01
-3.255576936588987919e-02
-6.978034393397118673e-02
3.407109221656779569e-02
-7.160255981397659064e-02
-3.977239768083236093e-01
3.259346475109790170e-02
-9.848360757490236261e-02
1.824084201384530918e-03
1.643988838801715702e-01
-1.124834735416532262e-02
-2.610267246034517208e-01
-7.067531507427463056e-02
-3.079844474194837894e-02
-4.319282401078310407e-01
2.559185063361155144e-02
-7.204414278366323698e-02
6.127137798433556631e-03
-5.189719347820902218e-02
1.318307803577072057e-01
-1.090249251397972796e-01
1.184501563456975132e-02
4.952049414903977181e-02
-2.192523194168368994e-01
6.035555006844704751e-02
-1.348440856326052310e-02
6.089397998213143953e-02
-2.892838552239263561e-01
6.104489473293047558e-02
-7.572470073100424914e-02
2.230335087608775399e-02
-4.414563150385360235e-02
-4.638181163905440857e-02
-8.971602597941305546e-02
-1.628883265354082177e-02
-3.929442289261573379e-02
1.469902939355180738e-01
-1.081372207144948722e-01
-4.112876957692743890e-02
-1.214356196436880593e-02
1.241949402607794434e-01
1.637551988207002207e-01
2.748815396706149813e-02
1.637175782870227414e-01
-5.709291973998911057e-02
-1.463895962162028441e-01
-2.233325934911778096e-02
-2.729741271953222900e-02
-8.888665331117413804e-02
-5.284882865281128467e-02
-3.122134899651705237e-02
-3.133205932992703946e-02
-4.142656882867373769e-02
-3.861716051418623286e-02
-6.991924165113388989e-02
-8.421764353545826975e-02
-2.330636008640473919e-02
9.319225282709200919e-02
1.297306628822388341e-01
9.116863280427996152e-03
-2.098066416396771328e-01
-8.754306034865086406e-02
3.201558802110119391e-03
3.802589946603360943e-02
2.715908642201096679e-02
-7.121239185642574965e-02
-9.017361097294972205e-03
7.646575616905959549e-02
7.285178504774579566e-02
8.883971295428222392e-02
4.393912769735875551e-02
4.276155093059523515e-02
-3.435173775384485484e-02
-1.029037352781775744e-01
-3.768484122386309143e-02
7.373195183616913784e-02
-7.757834012417529068e-02
-6.259331622400110540e-02
-3.008233989278214990e-02
-1.367193537262049452e-01
-9.510919985261459542e-02
-7.445864000148130768e-02
5.855989668914051566e-02
-1.672211033125438340e-01
-2.055619009441112324e-02
-1.407977043044612298e-01
-1.030121192788588658e-01
-1.402177247672114178e-02
-5.150256640527596893e-05
-1.787162190449776561e-02
3.646334578087338102e-02
6.142694599822514333e-03
1.145344274885946034e-01
7.078240352675996272e-02
2.633368068436356749e-02
-1.033399029422959157e-02
5.768322437144906417e-02
-7.257155282812612074e-02
-1.154164900105743907e+00
-3.331938028548488417e-01
-1.213185783375600457e-01
-1.478961100282078778e-01
3.642760123369122999e-02
-2.343371937004961464e-02
-4.334917603262349733e-02
-1.041705090080208423e-01
-1.373825533545191277e-03
1.598660208787093806e-01
-1.192288395461661432e-01
-6.063350641252505252e-02
-7.102996698042873813e-02
-4.423564500357635848e-02
-9.138261374237260926e-02
1.256787791846963598e-01
4.258044803235672832e-02
2.064467991104279240e-02
-2.537316296253690553e-02
-5.046939005376244874e-03
2.080193334628782920e-01
-1.028784882970312231e-01
1.712304419558490637e-02
-1.060557199899934550e-01
-7.986672785188271562e-02
-1.783291302702465220e-01
4.230326224163460935e-02
7.840377577308355050e-02
-7.859295687156971078e-02
-1.778802666282762457e-01
-1.004590230474358865e-03
8.647366609778224522e-03
3.061255176023505026e-02
-3.345353059696730760e-03
4.170471380396769540e-02
-1.659074094585822612e-01
-9.906577711146878976e-03
-1.080426230442803476e-01
-2.284294271896063905e-02
-1.293019151446145321e-01
4.432812362736117395e-02
3.176529678760736664e-02
-6.355568339518032073e-02
4.616146523007770563e-02
-4.543394637146005305e-02
-5.431006345554508646e-02
-1.958758306482771827e-01
-4.250799894914485122e-02
-4.428501889128709512e-03
2.067501636960502320e-01
5.516739990302508938e-03
2.139137985011711068e-02
9.267394982757951385e-03
-1.237993866830321490e-02
-1.279605387130454686e-01
-8.732394479485619532e-02
5.518728885603575718e-02
1.097306842620622558e-01
-1.344991010405526266e-01
5.442310417859026056e-02
5.616920285228346743e-02
-3.763392690087666997e-02
1.756288888545121454e-02
-7.809023756937495675e-02
-2.002089488796884170e-02
1.475513905693087279e-03
2.118476046828513537e-01
1.208666507524346068e-01
-5.757335416430019170e-02
-5.881909957509615094e-02
9.391148301741936155e-02
-5.241907372265341980e-02
-8.801027265939186106e-02
-5.252316311527433640e-02
1.359576256956203377e-01
-1.074158084182322559e-01
-4.001156953200685901e-02
-9.813187588732039807e-03
6.904068673967493630e-02
-3.651538327862605127e-01
1.999373347564081457e-02
-2.007641828899329496e-03
-5.603475021218980168e-02
5.746425737089700531e-02
1.795487783471734489e-01
-7.048488237463591821e-02
-7.945930843850161629e-02
-7.735216428985330905e-02
9.035111225899981890e-02
1.099938193407736520e-01
-1.112296213857903553e-02
-1.957599353076996257e-02
-4.825178279486414673e-02
1.735351800661138685e-02
-9.848067111336246404e-02
-8.246699007900938280e-03
2.487433392472311426e-03
-9.577635071690901447e-02
2.662477757125416428e-02
-8.354307409043185140e-02
3.299531979535873932e-02
2.168608088342434750e-02
3.737013277537559047e-02
-1.284554225237779200e-02
-9.107290404588637422e-02
4.142148817643328401e-02
-3.638795335487036986e-02
-1.145578178502958677e-01
-8.569063249001146465e-02
1.428616536529179193e-01
1.387917726064059366e-02
7.556019440619898830e-02
-3.720870503902030252e-02
-1.376559137377718171e-02
4.971476421531480228e-02
-6.792189554163922949e-02
-7.221381015562930959e-03
-6.543933353379149942e-02
8.906922419628347798e-02
-5.533673578904297480e-02
6.977833786749622347e-02
5.353898631436594668e-02
-8.574562271964843163e-02
-7.647601963637394584e-02
-7.656879254290542558e-02
-9.670864746256190025e-02
4.377251681188292810e-03
7.338764962331066621e-03
7.927731284089915842e-02
6.387583170388328076e-03
-1.046791079693457638e-01
3.896248536182544270e-02
-2.738089974469231497e-02
8.043553667682180885e-02
-3.448424068221055822e-02
-2.657274605003599396e-02
-4.108392491407099681e-03
-6.632978536685425752e-02
9.311921656633267985e-02
1.408044636711316133e-01
-1.182648995761818589e-01
-2.507923268517690818e-02
1.169534460846945872e-01
6.104393319996165995e-02
8.451781178127709682e-02
-4.970756382249966188e-02
2.348406755014368907e-01
-2.707292765192305731e-02
4.849767591303797559e-02
5.179556088041280260e-02
-6.157759554825640441e-02
-6.871692179428824654e-02
1.613309507060097306e-02
4.052654236400417276e-02
8.096518433149638150e-02
-4.805327378252020193e-02
-5.217359496894068832e-02
-7.490740667975302747e-02
-3.637052155671288700e-02
-7.005645065630235202e-02
1.756777711018558952e-02
1.830015232407369574e-01
-2.128939863204908078e-02
1.199172356317784599e-01
4.010961128242512830e-02
-3.409796786542740321e-02
-8.672660186030024809e-02
8.841085803547575617e-02
4.983147511350304731e-02
-8.969327549157748991e-02
-1.514487121510998124e-01
2.433732305151767999e-02
4.821188172495449037e-02
-2.762654350776968526e-01
3.680015605324182121e-02
-8.474133403821956789e-02
-4.787988215407569526e-02
1.230205832858565218e-01
2.257499855296051655e-02
3.811724567582033818e-02
-9.849592939902226951e-02
-1.644521540464200654e-02
9.452071957738729380e-02
-1.021952938636540992e-01
-4.479268965334649161e-02
-1.224963769466202168e-01
-9.443543947902667546e-02
7.009546547304086606e-02
3.950871675499012525e-02
-8.663487403463951408e-02
-3.579193339733560686e-02
3.386524676727194899e-02
6.640125559447684900e-02
1.430165429015836931e-01
1.269524496028037464e-01
-1.643031107334138041e-01
2.672372326869918574e-02
-2.189222400078430150e-02
1.292731094983002316e-01
-1.415405308041083610e-01
-1.167369632544877356e-01
3.386929330586918412e-03
3.888598903038781307e-02
1.864214985387119272e-01
1.373403131607216776e-01
-3.408271030900045240e-02
-4.941463385755930776e-02
-9.888174135435487400e-02
7.279114538538243584e-02
1.197987057871060940e-01
5.690192752124097197e-02
7.260315687538983209e-02
1.355263816742605931e-01
2.258867395265501442e-04
-1.137034753012561572e-01
-6.451121935520396367e-01
2.640706005938996473e-02
-5.470060855555859414e-01
3.069205967923939460e-02
1.259346406088840235e-02
3.583632059369449424e-02
-4.034687828138611154e-02
-1.634758533109410480e-02
-8.953896886264317567e-02
-8.883400449006666200e-02
6.947879521481506448e-02
3.628403718633375907e-02
-4.941517299063251378e-02
-4.981329636406495176e-02
-4.531993800198279992e-02
-4.975088367736928141e-02
-3.395182914148901776e-02
-1.505954848483796182e-01
9.876521261747513158e-02
5.938639880878063965e-02
5.905092768452754881e-02
1.208199316400731041e-02
4.971666928032629496e-02
-4.069403734492484104e-02
5.112016487497869632e-02
2.839884293950116489e-02
-2.423101455060177462e-03
-3.768327446357000107e-03
-1.908798260408995501e-02
-7.002143401302200754e-02
-1.755998208256634996e-01
9.794819263438288293e-03
7.856044629246951294e-02
1.663732609911796334e-01
7.844667060977955630e-02
1.673653155741548423e-02
1.182483000601302486e-02
3.319175818665075217e-02
-4.172260165204241117e-02
-7.297724860394852464e-02
-3.942783018158410591e-02
3.471559562455099352e-03
7.004868944954974197e-02
7.967215686981399259e-02
2.718594499145976506e-02
1.498754984451412531e-01
-4.640384315437436069e-02
2.737171622035093187e-03
-7.089832016601303744e-02
-4.972976247025776009e-02
6.313320572147639032e-02
1.101550967710587248e-01
-9.214211709994078736e-02
-7.268954336701842489e-02
-2.001879545023785845e-01
-3.307783126031942078e-02
1.205098138304378647e-02
-8.191212427927518913e-02
-2.818871814380876847e-02
-1.759974493668757176e-02
-2.822894491471837283e-02
-5.279459255686142632e-02
-5.063406404745723205e-02
-1.025038121613931763e-01
5.066445042646013086e-02
-2.331090917663107553e-02
-2.836756765008776465e-02
-2.709652232090778087e-02
-7.857473689235508485e-02
6.670068978906165680e-02
-4.020358733642238197e-02
9.161536798596843501e-02
-4.986298882928314607e-02
-6.620761714973785739e-02
-5.619728782529061217e-02
-6.866033776112245857e-02
-5.507513167538289484e-02
-8.666595480322264455e-02
7.474147405879463801e-02
-1.025355873518204591e-01
-5.942385155485158110e-02
-6.162119715684294396e-02
5.909861332398294413e-03
-1.762507971792966199e-01
-3.173668379317765714e-02
2.955794225060518962e-02
-4.881888722577663875e-02
1.938582011708295250e-01
-6.510892872693296862e-02
-4.958737116929001765e-02
-4.893401091929192731e-02
7.493736826417701780e-02
2.980615888263395824e-02
6.154991128702007319e-02
2.800327737938276482e-02
-4.728941347407354667e-02
5.101031638655311590e-02
5.394579592586283556e-02
-1.242618847850489039e-01
5.402282900067488514e-02
6.333873282518756587e-02
1.256612366801195424e-04
-6.717739096992658698e-02
-1.755487868212312619e-01
-8.352470601079978185e-02
8.577929483911250763e-02
1.269510742049842489e-01
-8.659594853796959146e-02
-8.210271871632421337e-02
-2.432651375763451862e-02
-5.471505298193485300e-02
-6.134032414715465814e-02
-3.503010592311388977e-02
-3.319100260446541939e-02
-7.824354651113879511e-02
4.142273787687789088e-02
3.598798120677686174e-02
2.387071364807505369e-02
8.432011383305727109e-03
4.915891347502701625e-02
-2.471991694206403245e-01
-3.012547508591937196e-03
6.940821807399409626e-02
2.637458218031133450e-01
-4.571102882410452845e-02
-1.037048252045006808e-01
5.442451949348930257e-02
-1.001677698987670923e-01
-7.957698833470344679e-02
1.342882443460359163e-02
5.322309290994071268e-02
-1.067412837530615638e-01
-8.761308230529896157e-02
-6.311909074319822788e-02
-9.377803888127633769e-02
3.958228711338235284e-02
-7.410983344149249530e-02
-1.302975941203660115e-01
2.599780734949641570e-02
-7.930802145149026816e-02
-7.416424655247341735e-02
1.127946017973165127e-01
6.148790338561168495e-02
7.622302185577897304e-04
-7.264877469802395737e-02
-8.366904376366368634e-02
5.797830719003980310e-02
8.073961992692689493e-02
-6.392052880125877190e-02
-1.342162365898130760e-01
4.791847461030251942e-02
-1.335683875825433020e-01
-8.462169034687939961e-02
7.518401289572325397e-02
8.182383288848556202e-02
2.264954596013758759e-01
3.732385835924819512e-02
-8.511554299211446240e-02
1.040880276743866434e-01
-5.218783860926472923e-02
-9.486694202891196581e-02
6.131357876341955032e-02
1.645204042506846764e-02
-1.697738473482008834e-02
2.897975335950865594e-02
4.628607380828832739e-03
-1.101543815115272121e-02
8.916120406716233904e-02
-9.203176513719704688e-02
-6.283307071244478847e-02
2.928013366908693502e-02
1.085621038212920830e-01
6.060090306776644287e-02
-6.900177495223180912e-02
8.723697600529239926e-02
-3.229639038222192893e-02
-6.752950454143065440e-02
2.574897217340995845e-02
8.326348166105156448e-03
-1.669736105835043782e-01
-1.148746262087316228e-01
3.474523912527519715e-02
-7.306295699257154760e-03
-9.630043170514843154e-03
-1.072496021864882861e-02
-5.807520581494235445e-02
-2.560728028193595129e-01
-9.261190862486111397e-02
7.574563870071922278e-02
3.378193783278755913e-02
-3.494055180479248290e-02
-1.164050047554774925e-01
-9.530080624170342296e-02
3.531735805694517089e-02
6.686759832072214534e-03
7.523504323524329157e-03
-1.077331958078387997e-01
-6.847814618016358212e-02
-7.843202392536488543e-02
-1.807795769147096943e-01
1.875918465116675204e-01
-2.372194553544538370e-02
-9.717404102601390203e-02
-1.290658567035227189e-01
5.791900261122187588e-02
1.074853684939261478e-01
-1.924372578650073232e-02
3.037304644415255231e-02
-4.968357552776967584e-02
-1.438051446577708059e-02
-1.205421848977994426e-02
-1.531983046107309454e-01
-1.024581515967377121e-01
5.024993703812644097e-02
7.503447166844771921e-02
-2.298162382685674243e-01
2.503553358820376565e-02
-4.659234485615998400e-02
-3.877237471328776747e-02
1.749796166009150861e-02
-7.312749912333194047e-02
3.082806103740737616e-02
-6.548210907322499219e-02
4.739768478232782301e-02
-6.397450572226007215e-02
-1.695429128391400322e-02
-9.650194637725713342e-02
-5.604853209916069168e-02
-7.306274673667542685e-02
-8.568967002813812628e-02
2.220629292845016992e-02
-7.622190452056962218e-02
-3.582790029267818310e-02
-7.909491869261124630e-02
5.638754617752791964e-02
-3.117742509901432271e-02
1.044023237662817516e-01
1.755552577474042350e-02
-4.143857621996492602e-02
-1.832427732881350760e-02
-9.466553192620261181e-02
-2.177667714594884452e-02
-3.349789317437753405e-02
2.655646808358141236e-02
7.099176039806182059e-02
-7.177180255214994989e-03
-7.320758904475449524e-02
-8.979375738620444525e-02
-3.866253400643226285e-02
3.550249090089578619e-02
-4.254770019288180161e-02
1.519008000977082641e-02
-1.212815079569645599e-01
-1.518892748882064159e-01
1.581862221517816858e-01
-3.290249587711550072e-01
-4.451679562175529792e-02
-2.123657958687996325e-02
1.327082937896499060e-01
2.348495651135473414e-02
5.206523101151745193e-03
-4.185346352102708480e-03
8.895066580790650379e-02
-4.790655535163161616e-02
-1.294559454069495359e-02
-1.854615225569301168e-02
-2.295010830421138209e-02
-1.149799853218436002e-01
-1.233556542620556917e-01
1.665567225754434055e-01
9.345735111234819426e-02
3.593646786952286315e-02
-7.012370032156348132e-02
-2.982527468687178884e-01
-1.494426907575138568e-02
-8.517803257396724947e-02
-2.193050973679096932e-02
9.178201310132954455e-04
-1.437610588352410124e-01
-2.701671082324184903e-02
-4.025308377246942793e-01
4.960586657830889923e-02
-4.091401973201030939e-02
-3.667081055590343253e-02
-9.079532319123562178e-02
-6.803813622198841282e-02
-1.096056796177138776e-01
-8.677280840717704891e-02
-7.196925204979523483e-02
-5.420208267340098640e-02
-9.800238110510556613e-03
8.748328734388410854e-02
-8.226951738951183979e-02
-4.408046665932585650e-02
-1.630819191969714449e-02
-2.637843798729798753e-02
-4.243458180124766443e-02
-6.292913574226156881e-02
-2.281252843436649969e-02
-6.941315114964985433e-02
4.971972709939041085e-02
4.022791126979791132e-02
2.089407556226582224e-02
3.706176564437696497e-02
-5.808892914511967764e-02
-5.161823987529087776e-02
-1.602162956632363633e-02
-4.181595640164777888e-02
8.064309323596390022e-02
-2.389465530314765357e-02
-5.468165069083477658e-02
-1.611100279832917981e-02
-5.186518776002434911e-02
-6.541529615592742153e-02
1.836221725886871547e-01
-8.662759617471631202e-02
-5.009416813216836101e-02
-1.168396832827973686e-01
-7.416559752755713664e-02
-8.197583251272688720e-02
-1.996401887733166569e-03
-8.315448420962923137e-02
-4.444696556570660456e-02
2.845029102483272957e-03
3.746416622673551852e-03
5.882093668462860109e-02
-5.000504135227262087e-02
-5.241842781455724465e-02
-1.917498315431637457e-01
-2.219612106519124398e-02
3.624334974026392764e-02
1.437022261248836474e-01
-2.281594068585441337e-01
-6.410027616564152597e-02
-5.075298338260934849e-02
-2.485559764393588111e-01
-7.273629572115463716e-03
2.015359732497769840e-01
1.768575866839112651e-02
2.057242936237557718e-02
-1.042420699960275865e-01
-3.560490507928403686e-02
7.375316613354533429e-04
-8.637556957570863281e-02
-6.639588427869573539e-02
2.307317519641117198e-01
2.389668846301417141e-02
-7.334423853227323500e-03
-3.867336674729217327e-02
1.475757616970451921e-02
-5.602353464619587442e-02
5.908584426869983169e-02
8.277770018496687088e-02
-8.257467487894126768e-02
-1.009261966366955393e-02
1.672006753418563488e-02
-2.826578939261250797e-02
-1.396670411724814653e-01
6.276859788727282355e-03
-3.443119763923677829e-02
-5.844954974477589021e-02
-4.808734327723707125e-02
-7.570866004813202321e-02
-9.195948834418371520e-02
-8.170449470645621548e-02
7.870007831540415388e-02
-3.975607831131307973e-02
-3.563385661383053436e-03
-1.007890906735006697e-01
-5.048611970929736681e-02
8.310135297048963643e-02
7.475858729059770003e-02
5.166320691441177865e-02
-1.045351197298554358e-01
-2.943909024518622311e-02
-2.479429867909866553e-02
6.881407351683056783e-02
-2.669229944241941280e-02
2.354165069038794897e-02
1.413560249637317856e-01
-3.451311244580984594e-02
-1.997347642210959076e-02
2.013996623789753027e-02
4.730648761919881151e-02
-4.141050723023637081e-02
5.510965928260287000e-02
-1.540479158397185279e-02
-3.190795144356881607e-01
-2.348250207731733888e-02
4.966223408263360263e-03
-5.233839318420822895e-02
-2.307759948969673527e-02
1.069160850765777868e-02
-3.751554993777285463e-02
-5.315961538715288648e-03
-7.271194982216545866e-03
1.241683210509251789e-01
-1.257819227162736836e-03
-7.741662488531497743e-01
-3.632545500697546142e-02
1.628405576697334878e-01
-7.923526629319370407e-02
2.228636927332547091e-01
-5.058351133629501034e-02
-7.925713281838718538e-02
-3.177874032528443284e-03
3.333581246697783773e-02
-1.139928520928474853e-01
1.033205047858746714e-02
-5.310086419870666680e-02
-2.335078349042575274e-01
-1.347385028016085950e-01
-1.367711805942546932e-01
-6.579044433564865124e-02
8.525481481366629921e-02
2.258625196151780451e-02
-1.131374217677253713e-01
-2.321843044396241021e-02
-1.165987939900137160e-01
-2.602896983345692403e-02
4.372778024325309210e-02
7.719250783675911387e-02
-6.503838439672295080e-02
6.690312692437996173e-03
3.495943767454667839e-02
-1.274358283443412405e-02
5.268950315666149492e-02
-8.178771394328712696e-02
3.125278910732681714e-02
-7.667749932321880901e-02
1.122461821846002059e-04
6.604417952055878505e-02
7.566400902786853122e-02
3.271041200887457590e-02
-6.440450778074217376e-03
2.647965839783646483e-02
4.762608160829499837e-02
1.248353919067721474e-01
-7.461623645765334822e-02
-4.464649257492485368e-02
-1.423374061860435968e-01
-1.336014627732436512e-03
-3.694425787864072941e-01
-1.100029611350251124e-01
5.824471613647216883e-02
3.193477406152519377e-02
1.805172148490388415e-02
-8.037418909961481332e-04
-3.045772906097322930e-02
