-5.369020377521356580e-02 8.830346240471755037e-02 -1.321834994983690503e-01 -6.806200869780683338e-02 3.082837295231539293e-02 -4.688021979354078245e-02 2.643143722658205727e-02 3.441811283327447096e-02 3.261010697204496777e-03 -1.776650261518820384e-01 1.002057050486573897e-02 1.078770578905748068e-02 3.011625572705028953e-01 -3.114305522092699480e-02 -2.168893787769294312e-01 2.776376499856977181e-02 -7.387751861180096545e-03 -6.682884142631581592e-02 1.007260099969716910e-01 1.882077495736871747e-02 5.223932373125187573e-02 1.277870722658274727e-01 4.546504562576118152e-02 1.211134229086045233e-01 -4.652730846260844100e-02 1.188925127547433291e-01 2.162320064753973925e-02 6.605910657926679364e-02 2.503678259776752346e-02 -8.127587650559211022e-03 -2.420651128848744227e-01 -2.198877638667685527e-02 1.540451257251312656e-01 8.183356435787222938e-02 6.164428878321111943e-02 1.414039531730826860e-01 -2.513177173684333007e-02 6.615118324846001874e-02 5.986572567715941345e-02 6.754522302240095755e-02 -1.653655428151548298e-02 1.960887374970466529e-02 2.485538248811555162e-01 -5.222017199122348102e-02 8.265277903718738772e-02 -9.668239355984555028e-02 -1.916482077907958465e-02 -2.591397471559764298e-02 -2.270436098442065245e-02 -1.191299330240695210e-02 -5.502980363769836847e-02 4.671247294320930374e-03 -1.430740847294247053e-01 2.161852064309111587e-01 7.813306946410931986e-02 -3.230387034048424338e-02 -1.140169596089567611e-01 -1.630946680453624828e-02 -5.591022923409155743e-03 -2.254637377434183174e-02 1.572287558933896379e-02 -8.386487146982594260e-03 -2.947194868914790149e-03 1.403467691648102589e-02 3.409975801452495500e-03 -2.338968678164226114e-02 -6.865269762268144671e-02 5.805534393294413398e-02 6.956519903062644006e-02 5.257322360333525901e-02 4.335310368052602836e-02 1.481729249807381132e-01 8.023702617432414141e-02 -2.291918961603051780e-02 -1.545310396702486398e-02 5.086645360291161544e-02 -2.291223464568173732e-02 1.278055385487582296e-02 1.489203654329518678e-01 -1.009335284274142097e-01 -6.703321485340543728e-02 -1.728259300141220811e-01 -4.616420189442115712e-02 -7.341555058726631673e-03 -1.230223187700173054e-01 -5.404500749181567060e-02 7.818419968309724133e-03 -7.212225153396073681e-03 1.751955939791525196e-01 4.189083940845564347e-02 9.398662363966261979e-02 -9.176382696288074015e-02 -7.174948163998610962e-02 -6.860643807937111260e-02 -1.161196059039013434e-01 -2.307909057215861703e-01 4.718683031347258028e-02 3.063234671081929011e-02 1.101494385724706704e-01 -1.978062921172428316e-03 2.651865806325791677e-02 1.225408539942996478e-01 -5.190584097840692662e-02 2.966773818141432706e-02 -6.146675967791051520e-02 8.858222393099245140e-02 -9.867272959353906581e-02 -9.977057496919190804e-02 1.016381765878274224e-01 -1.740987343232440129e-02 1.091587714501762035e-01 2.422160608992085865e-02 -1.029854712218222640e-01 -5.707206225012634998e-02 -7.578925944478294430e-02 -1.329020649443118096e-01 -8.013816083346621266e-02 -9.660828387521422367e-02 2.022884589211718098e-01 5.352258266148783583e-02 -6.564519246467295788e-04 -3.924955785370309175e-02 1.298381254774830795e-01 8.751229011483636910e-02 2.149984180754141785e-02 -8.780024775219298638e-02 -7.992663960781561105e-02 4.138213518697707316e-02 3.461887166215128070e-02 -1.030455446691676824e-01 -1.003903356213557869e-02 4.452778583637218013e-02 -1.185447036126326820e-02 2.158756901537787001e-02 2.021694368131254915e-02 -1.448595391680982704e-02 1.118264077952103863e-01 2.761826320498416559e-02 -2.460705980538945709e-02 4.474817458972684368e-03 -1.568722923572824779e-01 -2.734661234465317059e-01 9.946057218830661739e-02 -8.612332768035736719e-02 1.002570348827166308e-01 8.747308961771102509e-02 5.776680510845557011e-03 1.088411114636595595e-02 -6.833426236906611773e-02 1.557184537465308716e-01 -4.954393161822281955e-02 -1.163324570701020355e-01 3.105671883236406708e-02 -1.439799927766112833e-02 -2.716321770157286222e-02 -5.463907862122183157e-02 -7.610563749646320764e-02 -5.413648374462418783e-02 5.239987641882559895e-03 3.942270084954370424e-02 9.814017030864588195e-03 7.722344047127147060e-02 -1.163947029575619629e-01 -3.052952910098580969e-02 -3.654477407117184828e-02 2.091379682820426189e-01 4.553920079818639041e-03 1.380281283910922766e-02 -7.585328794476423053e-02 -7.476973675883616388e-02 2.488889889711299198e-03 -3.413218131875091210e-02 5.495038814315495596e-02 -8.447381562527524201e-02 -3.734178817265228906e-02 -5.287185094699999033e-02 -1.304816388335006683e-01 -5.576652822939014847e-02 -7.233876840919653550e-03 8.521141889712401107e-02 6.548703386269047466e-02 8.240432303226231936e-02 -1.089600417621807427e-01 -6.885651402164962021e-02 -2.596619010865675037e-02 -4.122670979769244709e-02 5.191610105622419119e-02 1.578243012407375828e-02 -9.475643364807719363e-03 6.226056768098510441e-02 1.141603580704303456e-01 -3.056809475731254999e-02 -3.991530677099772162e-02 -6.557704881811707298e-02 -4.406713373262663436e-03 1.587748173688514680e-03 -6.651248639252044237e-02 2.000437071024754876e-02 8.667874420935645086e-02 2.495489709961016753e-02 -6.575671412159240711e-03 1.015051709166086245e-02 -6.814485586482668319e-03 -7.815476945191023039e-02 -4.776154934768006392e-03 2.576799487460180171e-01 -1.894576209910023290e-02 -3.594736725485264683e-02 -9.524029758663130063e-02 -9.279707934193016927e-02 4.352731521008413457e-02 7.167596102119561108e-02 -1.243325297990399425e-01 -2.011736097776014101e-02 -1.817188405049826316e-01 1.050477599871263434e-01 -4.994600133891444020e-03 -6.063434984658139237e-02 6.788292543298095338e-03 4.150164595140392459e-02 4.665250628194753807e-02 -2.967725616218833476e-02 1.535569796938837384e-01 2.478972552352310538e-02 2.246728748510247106e-02 -4.513131366146281784e-03 2.117557839405347087e-02 2.429367676009405383e-02 -5.402533422931900600e-03 -1.153413622073024419e-01 1.186237224396368833e-01 2.624185188410603151e-02 4.422814621940255458e-02 5.104056548473730887e-02 -4.972680931946903138e-02 1.725258584165788658e-02 7.600812841736444281e-02 -3.877482445325029781e-02 2.703960321738173023e-01 -7.941767937136404165e-02 -1.149087947879821325e-01 -4.859450583370816118e-02 1.093305319428916622e-01 1.093940883921031872e-02 2.358237191255308646e-02 -5.869317211337872486e-02 -8.307479990744869036e-02 -1.748607945296333857e-02 -6.828329858815868070e-02 4.364204364551002580e-02 9.664680725068837408e-02 -3.707415883291249187e-02 2.369717599354259976e-02 -8.733006917827966509e-02 -8.419868329235095927e-02 2.712292859821885047e-02 2.928022671282180800e-02 -2.298993099944004331e-02 2.761353923873188787e-02 -2.586568882236077449e-02 1.886570163033748082e-01 -5.687031311586583648e-02 -1.328142769172757087e-01 1.062255569949798195e-01 3.712567106971036146e-02 7.158874990996597076e-02 -1.143717748689250246e-01 -1.389980491135210834e-02 2.293328086179389873e-03 1.534672584878928325e-01 -2.026003682030213041e-02 -2.831977984840747253e-01 -1.341669452687807018e-01 6.471821938813436710e-03 -7.261541471365536059e-04 1.083616672990447422e-01 -1.016976251986503738e-01 -1.020265973831973629e-02 -6.220173234192907102e-02 8.583769141167162109e-02 -2.174979927712822857e-03 5.213230526341695176e-02 -9.694495605217393064e-02 2.468413079326020956e-02 -9.979945920450178365e-03 1.041264589977272410e-03 -1.085303229896073390e-01 1.581384390014910490e-01 1.863576415708946832e-01 -9.748111273281057088e-02 -5.806062439047866147e-02 -3.387223208488791826e-02 -4.723841095284111308e-02 6.942838102115557464e-02 9.709806877071147993e-03 8.242647537168597272e-02 -1.580347107315561994e-02 5.459209494684421488e-02 2.231119296111151382e-02 -5.652515882766979971e-02 -7.133210840011423338e-03 9.268599667995523761e-02 1.044201204366287591e-03 -4.100829560315175093e-02 -3.502905343878245231e-02 2.872147450644165628e-02 9.306874966335051957e-02 -1.824481684207396592e-01 6.149467237618293225e-02 -1.240647938873096628e-01 9.389533277328634270e-03 1.659399245979240045e-02 -3.898813352585608211e-02 6.658578640619221278e-02 -8.287911841760803658e-03 -2.559211317369824434e-01 -1.476859549401786931e-01 1.419757459884717354e-01 -2.590706624244577469e-02 1.090984393791525654e-02 5.410321559427500038e-02 -4.998131906960102261e-02 -4.655723238052094509e-02 7.966200678891868781e-02 3.562189916527062905e-03 1.555588864836902063e-01 -8.527786002439603080e-03 -4.531574221530628582e-02 -6.741257772786818370e-02 -2.082284537954080805e-02 7.113969301306558024e-02 1.530007755087305910e-01 -8.450198968756815476e-02 -2.683792222925818552e-02 3.315286172772655138e-02 2.852563347769103419e-02 1.049921308996417703e-02 -6.597311577993057730e-02 5.499057665976969655e-02 8.720599636893598683e-02 1.099461758617086005e-01 6.257675549091600009e-02 2.061251612917756049e-01 -1.350181605918551742e-01 4.134558544518966011e-02 -1.629518613987065295e-02 1.390589793229763359e-02 -8.346045211778568840e-02 4.989341196287543773e-02 1.051996088688114395e-01 5.301568707524591945e-02 -3.737161565684097436e-02 -6.397443964727798915e-02 -7.612699758043543763e-02 2.423502746544066097e-02 -2.186536949378573708e-02 6.539061334665445535e-02 1.039134664178080342e-01 2.066396090304018635e-02 -1.672401556894834163e-02 -3.587774106045552719e-02 2.151928380019190942e-02 -4.354440952887204952e-02 -3.071325647253023497e-02 3.857690220758799859e-01 7.487126590476247956e-02 -3.953945970871165089e-03 4.429305878950470787e-02 1.401150028920258306e-01 7.675607176037162194e-02 7.025501223815000529e-02 1.205644265210077670e-01 -6.029175529276255968e-02 1.014774162481080211e-01 1.021982497513793386e-01 4.258348233609252770e-02 5.380463791038425127e-03 -8.324257032983955681e-03 6.008363871421947694e-03 9.552792883442463856e-02 8.878133737373219980e-02 1.805953768453320493e-02 -2.950312887172081011e-02 3.663568236078516144e-02 5.601419787832767616e-02 1.058238726745856922e-01 3.658990388544191424e-02 4.195470833715492232e-02 -6.434413837500757571e-02 -3.777210848239633077e-04 -4.487049363125192314e-02 -4.232249539545131917e-02 -6.802514683002129636e-02 4.675112141988334302e-02 -7.055723187099767479e-02 -5.336788413621022104e-02 -3.292297636217376283e-02 8.451831315864100080e-02 -2.328451543583462749e-02 2.827449034220966273e-02 -3.170090518640902161e-02 2.377249921063481417e-02 2.014898509438641516e-01 -1.917508324251693264e-02 4.019078444208666850e-04 3.122414195009631278e-03 1.270301525261748228e-02 -1.983083259382970309e-01 -1.748249737497166723e-01 1.458462579917475105e-02 -1.438114757396785348e-01 -1.372230173233876006e-02 -8.492979277309120612e-02 1.886412610142907953e-01 1.898384283674961134e-02 7.597961982889596400e-02 -2.836751494331277504e-02 8.798827725824706625e-02 1.412260532204236661e-02 -2.367832506203980045e-02 1.257120353776680077e-01 -1.079610140665824281e-01 8.231818700888843265e-02 3.837164764631685598e-02 -3.040094801775557881e-02 -6.728745254374446372e-02 1.468055671923488292e-01 -5.364951716668360515e-02 1.147757737931131838e-01 2.298293508385293449e-02 7.357153392287314742e-02 1.354685122296191979e-01 1.810626065784227690e-01 -9.062139718364402297e-02 2.581290665777377299e-02 -4.577769379593064902e-02 6.745215870276440040e-02 -2.392665164615937964e-02 -3.919573630884406329e-02 -6.752163163144596358e-02 -3.328172587852708253e-02 4.210158087033387397e-02 1.551724843018149891e-01 -2.970152501391924021e-02 9.844159730488508120e-02 4.645899315139021685e-02 2.617100241325706622e-01 4.802190162210771829e-02 5.943634272347955022e-02 2.530506130902940645e-02 -5.906558572879866409e-02 2.566320912196537029e-03 1.202324042260002196e-01 8.415502666848385591e-03 3.586161847386557661e-02 3.675879035795078659e-02 2.527935526068894947e-02 -1.293942443443296675e-01 -8.717186573525362867e-04 1.630447127218663805e-01 2.450551120841802655e-02 4.780866250713649429e-02 -2.438250480178517574e-02 1.712518470843499563e-01 -2.038865100443706946e-02 1.979065028847078883e-02 4.518461696220506252e-02 -1.551340287062969447e-01 -3.340920231909252219e-02 -9.748534440562710290e-02 -2.409892720902323364e-03 6.729240318876206217e-02 6.282382646407232152e-02 -3.156145724532291585e-02 -3.983703436384523032e-03 -2.625632721995966451e-02 -6.367570981674494646e-02 -5.976583327729852527e-03 -4.826531488691820915e-02 1.081747607879731399e-01 3.218077942849755652e-02 -9.565385790347774586e-02 -2.162553577701654961e-02 4.080662356335134494e-02 1.537063153047781294e-01 6.770663927162355600e-02 4.258657626038339639e-02 -1.020007858299819825e-01 -6.490260125327253216e-02 1.286638844263113535e-01 1.372697427320495045e-01 -8.897570308704580433e-02 -1.963061169696979705e-02 3.362101019332168483e-02 -5.939212756861786402e-02 -3.210714182847682063e-02 -4.524286580178543682e-02 1.442163852270976487e-01 8.814784077302793841e-02 -1.977176876998365182e-02 5.129640531395996544e-02 -5.073126933492123902e-02 -1.741485947311073590e-02 6.694951294233032757e-02 7.485595190639147967e-02 1.162608416117341531e-01 1.633797802784882902e-01 -3.069892380778468932e-01 -3.152890997897035610e-03 -3.439229432123010882e-02 -4.171627414263077982e-02 -1.845681722533782931e-01 1.801832674359790665e-02 -8.435857891865058966e-02 -2.244951803580450336e-02 5.875976959607887712e-02 1.359061546999060788e-01 -8.484533981381686685e-02 -5.428810496567584160e-02 -7.298320887651020550e-02 6.288067746730599539e-02 3.214321172252048581e-02 3.606718453434579197e-02 7.852347495521362630e-03 -1.401853802391506143e-01 7.668530409841774025e-03 1.011097937487692808e-03 1.409412866552819943e-02 -2.270963516093305046e-02 -1.418059759061339742e-01 -5.128011105534137880e-03 3.786428339395672693e-02 5.119597429935793947e-02 -6.928770595444767866e-02 -1.946241605171101369e-02 2.967301755980155525e-02 -1.151390007889607076e-01 -1.794489841804154315e-02 -2.656496120735369129e-02 2.667921178894853695e-01 3.270316736993406775e-02 -2.873583715409766884e-03 9.228905074427413979e-02 -5.669832186013958053e-02 2.238792538703318277e-02 -1.423095981788145281e-01 9.440841823761660090e-02 4.322110386234479830e-03 5.915905183641203408e-02 4.224479756586888707e-02 -1.061677707483796168e-01 -7.196115714544139286e-02 8.783722768880643239e-02 -1.481454330319555146e-01 2.924712929399743769e-02 1.533233832982503798e-02 5.862838452313750420e-02 -2.025248124360232715e-01 -6.954140483836830991e-03 3.345218932611324601e-03 7.831928077086647288e-02 -9.003502165664205303e-02 -1.282940968748076498e-02 -4.261969474078501630e-02 -9.150401382430138619e-02 2.185182423500070872e-02 -1.478945795998668194e-03 1.133376274960879310e-01 5.083073862924251257e-02 4.040591174119365254e-03 4.713350051401705987e-02 3.960540224398986786e-02 -2.194188141993265173e-01 7.271003238449538775e-02 7.808051024339074386e-02 1.110440745579069494e-01 8.851526413705294860e-02 -1.792775724462734172e-02 -1.448369378613953151e-01 -3.002921083787861087e-02 -3.211001521394302866e-02 -3.718259745569685304e-02 3.104617284740455313e-02 1.590773104871312515e-01 8.803292134222920340e-02 4.356441704428641593e-02 -6.127802709717582869e-02 -2.363458004406007382e-02 5.165460228330954334e-02 3.710344465564469757e-02 -8.451476395173464218e-02 -1.544450338073639559e-02 1.263864941380977436e-01 4.888137253447329827e-03 -1.242190887207339361e-01 -4.595259106527362775e-02 3.664626748084616470e-02 -5.260152568290466478e-03 1.755255249647848237e-01 7.163855223666180938e-02 7.025873944862812137e-02 -2.687788158914195674e-02 -1.222723235214686621e-01 -1.239946594787570341e-02 -3.669348130846078557e-04 1.443456649894138133e-01 -9.733373418588585693e-03 -1.600166118664212919e-02 -1.587537790686341464e-03 -1.895606853739851758e-02 -3.583982715955775361e-02 3.103246935224217989e-02 7.255054317384487805e-02 -3.989722582061903944e-02 -4.073115063540683201e-02 -4.290605215849536969e-02 -3.903738863214228916e-02 7.379846251247450251e-02 -3.300702023228753168e-01 6.100664374507035886e-02 -2.574138430621007445e-01 5.265577216596095678e-03 -6.622799192672408630e-02 3.966986341709752110e-03 3.535935304928514156e-02 -1.052443646750347434e-01 -2.591160812968700076e-03 7.272285319542873272e-02 -1.711475980977076802e-02 -8.122384618186845318e-03 1.169854738299139912e-01 -5.577414457799288738e-02 -2.863957233505610642e-02 2.136117123711890955e-02 1.073280410760143848e-02 -3.792507334196400237e-03 7.370828499483124407e-02 -6.426348560255132347e-02 3.288123407761631145e-02 5.784066463803083646e-02 -7.377179580144227478e-02 7.714887115999127798e-02 3.440378834566210769e-02 2.091005346230979112e-01 -1.042006432244052261e-01 -7.629187962026193204e-02 -8.325265434670854614e-02 6.273192439389986552e-02 5.802109358354893241e-03 1.068300509827789790e-01 7.443337324844680192e-02 3.863441931798175522e-02 9.944880715942683302e-02 1.849208005360813284e-02 -1.135215819438619572e-01 -6.036527604069236164e-02 1.024640575834228663e-03 1.006372456289215817e-01 1.184551607416841484e-01 2.416859257501725866e-02 -5.630455836657418528e-02 4.058388470956621891e-02 1.650674537006340259e-01 -7.041975855838512877e-02 3.672891509651672604e-02 -4.537597748335980147e-02 -3.017026355940942775e-02 -3.608171118334246343e-03 4.747443863214631521e-02 -3.275066698842259323e-03 -4.157211574335689663e-02 -2.712491415994604596e-02 4.312890833368970833e-02 5.652543720379694242e-02 -3.823679542058693731e-02 -6.345882162370604374e-02 1.333897870645902872e-01 -4.328945530645761548e-03 1.129770011882718778e-01 -9.244550310096969620e-03 -1.977803534581513284e-02 2.919240397264028647e-02 6.595088257441367174e-02 -3.461819008946010467e-01 -1.100359140296811727e-01 4.109536524720992789e-02 1.071791749764056632e-02 -1.672033564103101722e-01 4.721664359973587466e-02 -1.410443354968464735e-01 -4.407342822564119800e-02 -2.211396635129727062e-01 -1.136143750184702428e-02 1.442904330988519120e-02 -4.563332254531567156e-02 -1.328316542130549283e-01 -1.542447473457124463e-02 3.348876846492575277e-02 -1.019813717974843853e-01 -1.676167324817686433e-01 -6.720672691348448559e-03 1.149253872116000504e-02 -4.214399318290708643e-03 -1.503587512879721588e-01 -1.372581485237671546e-02 -5.196134063412503196e-02 8.847817973363859834e-02 -1.733134476404875682e-02 2.373644896839765747e-02 -2.978330729921019326e-02 -7.674041761959371488e-02 4.817065013442472371e-02 -3.505244757664047889e-02 -9.217821252026504875e-02 1.920229090139914316e-02 -2.558442658673698231e-02 -2.226899903771388800e-01 3.569283560960952173e-02 -6.127141841163529640e-02 7.951609534082777764e-02 -6.663733232970335540e-02 3.677390399115103292e-02 -7.815193770779590987e-02 2.121600001636854416e-01 1.053465886016168723e-01 -5.941485922731661040e-02 3.584709472532879304e-02 -5.795403292828266162e-02 1.218970601897042400e-02 -6.149931134263649651e-02 2.216986257768511354e-02 7.273050279990293798e-02 1.330536002399864415e-01 1.596842565768890332e-01 6.118131416442475212e-02 -8.264881171446777919e-02 -2.290992482806625541e-01 3.536955921631628613e-02 -1.140419574114227667e-02 1.315071867002357703e-02 1.119293222447043379e-01 2.860885473471643306e-02 -2.002066150249579360e-02 2.083131454335037658e-01 7.058408277846120460e-02 4.081239089805090148e-02 -7.196237463686357139e-02 7.976021500606560177e-02 1.363336960410945486e-01 6.477183872706368528e-02 -1.157815419475607260e-02 -9.844314980428171824e-02 -4.554182254005959690e-02 -5.714271418059290591e-02 -1.190760123309794333e-01 -7.815956688935339625e-02 1.087798370563699268e-01 2.600352166342310978e-02 4.192029951664890536e-02 1.944186182551925490e-02 -6.574132127335263753e-02 -6.242724293182862899e-02 -1.143735253585848738e-01 -2.881959514533627767e-02 6.925087256789048962e-02 1.242863968225945970e-01 9.246971164268553978e-02 -3.095175642519256472e-03 3.213206463034081611e-02 -3.855361230657521066e-02 2.945237874643196196e-01 -1.472824925324776602e-01 -1.239299399146824299e-01 6.254965165987760867e-02 -5.573044706989631336e-02 4.896383257919518367e-02 -4.426864147009248324e-02 2.405604471229979280e-01 7.036482923436479520e-02 -1.198731261932444760e-02 5.178026298551152012e-02 -1.229274281442837014e-01 -3.597179697856067726e-02 -8.306414407395815158e-02
4.434957320033751371e-02 -1.678204370418366273e-02 -1.606937545158885483e-01 -8.119876494064080796e-02 -7.862498440324790228e-02 4.323539442942312544e-02 -1.161581957028937490e-01 -1.696770636965062307e-01 -1.077951231774226066e-03 -1.394591271868607547e-02 -2.516477880548400117e-02 -8.047127573644272114e-02 -4.519096435662346006e-02 8.027662107840830008e-02 1.384112613308610962e-01 7.542473680804051561e-02 -1.061281248456489579e-01 -1.819385735763124623e-01 5.194801522548633810e-02 2.533611266233836562e-02 2.158549686082750496e-01 -1.885065025214786860e-01 -8.885994980194718285e-03 2.036071696872348569e-01 6.175075436599048589e-02 -2.472566515187574754e-01 1.539128744236562263e-01 3.290503115759481345e-02 4.772467450773508479e-02 -7.194963426092128300e-02 -6.746921033670805201e-02 -6.130584469116096696e-02 -1.584782929779367522e-01 -1.185243326501176364e-01 -9.345196355397754340e-02 6.043248131443292037e-02 3.896856374834881814e-02 -1.361744592024282108e-01 -3.093435970758406928e-02 8.741568746839029069e-02 1.038820213228297713e-02 3.038789440573407691e-02 3.142689135919766313e-02 -9.739759487712920660e-02 -7.239144607970247891e-02 1.344358136285307426e-01 -1.419747181786857881e-01 -6.033793497881187462e-02 3.182794568588571266e-02 8.979509085375568522e-02 -5.171787866434473385e-02 4.696384068313657484e-02 2.028507964462729629e-01 -3.266878760722228409e-02 -1.065472626543421952e-01 -2.729587734644830024e-02 -4.184128373709518345e-02 6.234577521663279415e-02 -2.058370851460966655e-01 -2.710532055281644065e-02 -1.669393023565100484e-02 7.702110674583141636e-02 -5.952322479459432047e-02 -1.177193180222318135e-02 1.468990964833318848e-02 2.800542988394472133e-02 -2.289622397744273674e-01 1.078475401623823007e-02 8.799126295829451383e-02 -1.108754693443230743e-01 -6.718453169449868645e-02 -4.114935100359752573e-02 -7.544863021125921936e-03 -4.607826535885216172e-03 -1.579832076511171191e-01 5.731741224552115710e-02 4.123160752341211745e-03 9.833765111015009205e-03 -2.049723477982104969e-01 3.109433134101164883e-02 -3.776928915110176754e-02 2.093815509244089657e-01 -7.443589500006798920e-02 1.387735701802290944e-01 -9.644541146670537746e-02 8.953480105300486158e-02 8.686120281805970178e-02 -1.974224222978465323e-02 1.336055243962390726e-01 -5.627006383810298495e-02 -1.206247503244847752e-01 -3.462665120749165715e-02 -1.033963256534917441e-01 6.045667822563367821e-02 -1.525235577403881715e-01 -1.024652602178821176e-01 -3.655072169124526371e-02 6.992455782970692646e-02 1.574600882337737207e-01 2.380159965727666194e-01 1.804757458176592388e-01 -1.474436181016796632e-01 1.139277054679758150e-01 -2.246094695718266546e-02 -1.066241580665778788e-01 9.934272818458721177e-02 -6.599424638629723325e-03 -4.907890061489042499e-02 -1.501928988687209754e-01 2.707401635370269150e-02 -2.717230340965224866e-01 7.591262589063593573e-03 4.685920500057667165e-02 -3.764349693215972986e-02 -1.159241669415579483e-02 -1.619077899134059237e-02 2.202111928227715176e-02 3.698795199565892144e-02 4.270468295883417947e-02 -6.088522514458814816e-02 -4.465612080950676077e-02 -1.846274132128135001e-02 5.815980680071147074e-02 1.115637634606753414e-01 1.097269818164441912e-01 -1.557132443081166995e-01 -7.291928395163553567e-02 -2.213668493053154163e-01 9.729390428042232475e-02 3.515275863046055105e-01 8.013012404507184605e-03 6.730483378826944418e-02 2.178522553251611704e-01 -1.532024245519980794e-02 5.192582855946335091e-02 8.735084667361094068e-02 -1.125415272502794245e-01 -5.255439188291244346e-02 -4.159265611630101611e-02 1.471793340386997051e-01 1.959548579755457723e-02 3.040544184326979520e-03 -1.232026030570652492e-01 -5.327233580259814472e-02 1.000714674328207210e-01 3.620927667199209249e-02 -2.713095219602936273e-02 -6.595178347245980732e-02 4.740482918207498259e-02 -3.820153016129634871e-02 1.682387863870227901e-02 1.140991414772129231e-01 -1.998348661280710883e-02 5.495728499067607624e-03 4.363402990584047680e-02 8.571223617440239251e-02 5.459228694712153773e-02 4.237238383752513909e-02 -1.047517108577292189e-01 7.224771352179695794e-02 4.662258323919030341e-03 6.734597512291023991e-02 1.864724910494752058e-02 -2.258597878056066086e-02 -1.718363338682712127e-01 1.202531542147087656e-01 -8.503227044816653868e-02 -1.319526911456659832e-02 3.871524185566623151e-03 3.579391475190703276e-02 -1.389018514718479425e-01 3.806661693200896063e-02 2.526087157596122457e-01 3.608561963112062038e-02 -2.942849035935189428e-01 -8.607484489336085856e-03 1.485598115060144386e-01 5.516846853367803755e-02 -3.471416224744496015e-02 3.811876632170004692e-02 -2.390949036819124685e-02 1.380794221121591503e-01 -1.623840072391872502e-01 -9.872280925549048458e-02 4.541123894451221110e-02 -8.276494002617255930e-02 -1.323444429516304754e-01 1.382784904464997022e-01 -1.293833345048337746e-01 -8.723445003872457026e-02 -9.900969469827797242e-02 -3.627047702066749785e-02 -1.067975359854389100e-01 -1.649127799024196483e-01 -5.409293741477139844e-02 -4.870680979064580252e-02 1.867365168122480865e-02 -3.963515422690208623e-02 4.257100835001866035e-02 9.150480470127538013e-02 2.568731242420782546e-02 1.210490318545227352e-02 -4.717727457746150044e-02 8.162796028469179732e-02 -5.480473613370524799e-02 -1.291859017200374105e-01 1.338071848696809150e-03 -8.580104064587754098e-02 -1.036677642346115341e-01 8.992230666921836868e-02 2.343591788013852512e-02 -3.560284167310554665e-02 7.653743424626840985e-02 2.678347883918316338e-02 9.385555826355514164e-02 5.737607483387401758e-03 -6.032086237295281039e-02 1.302664426564114075e-01 -1.303633229032968160e-03 2.043577278757777171e-02 -3.511145735279409819e-02 -2.240479689334536409e-02 -4.195288662381058131e-02 3.180187285904956945e-02 -1.164721620740132579e-01 5.611638753446189509e-02 6.393641768716136486e-02 -1.045114691382474786e-01 -3.216530526996153744e-02 8.507663198428719320e-02 -5.802537997317695068e-02 -1.300203422274509857e-01 7.308215977444385003e-02 5.215883471638586150e-02 -8.444284030604065627e-02 -4.552738471269215936e-02 5.619816263617064683e-02 4.334058204693303981e-03 1.214822315872079728e-01 2.273989562009279819e-01 -2.442332347633371578e-02 2.304051739390589396e-02 -1.280726972772583128e-01 1.922461192893620829e-01 6.785133907439587497e-02 1.415656521227120351e-02 6.022749062108231910e-02 -3.866525478201249949e-02 -6.903639357736407467e-02 9.889393915910603405e-02 2.601310920767715279e-02 3.204259544516676467e-02 -1.339119860130598971e-01 7.389132810449178246e-02 1.346752120054356128e-01 -3.897784668707149174e-03 6.722732895166404210e-02 -6.689259404446244728e-02 -3.488733538331587059e-02 -3.002208262243687489e-02 -4.418968263253286732e-02 -7.663215593784833413e-02 2.754118484011845724e-02 -1.399333500863117752e-01 -9.598806486527361459e-02 -8.403197045454825764e-02 -3.389296835520450024e-02 3.275183869168322298e-02 -1.113151828241489873e-02 -6.474973415281456111e-03 1.198307113848225310e-02 9.954064572609205852e-02 -3.702762141161868720e-02 5.552098512009131376e-02 6.065445581823684235e-02 4.625446549436760396e-02 2.007215989986651378e-02 2.511296002759820165e-02 4.588719164137229634e-02 -1.175513764946300305e-01 -8.172837765495503948e-02 -8.022925471664842101e-02 -9.940006230113734853e-02 -6.506809774687655201e-02 -5.353709046082693462e-02 -2.843539693466543700e-02 -6.769549408789550526e-02 -2.069564246180380027e-02 -7.780289984600831377e-02 -2.188645794227002117e-01 1.505246787296908861e-01 -8.317587740673151875e-02 -4.308222280758962353e-02 1.005318955736419356e-01 -2.802812153001610004e-02 -2.705395568868036033e-02 4.339530895406504274e-02 1.159153416212288816e-03 1.476257104234474093e-02 1.065861907288308957e-01 -1.365889177234962670e-01 -4.749747356582303265e-02 2.751693819049634906e-02 -1.061868146678150021e-02 -8.525993455479417837e-02 9.026128567109723000e-02 -3.808698160152434314e-02 -1.995247434529107688e-01 5.270596047279459129e-02 7.761087579915290635e-02 7.041443893528649689e-02 -1.904284702531605991e-02 1.801972511509013497e-01 1.318871905055017391e-01 -8.204568771955193796e-02 1.571090916599228796e-02 6.180855833890721435e-02 1.975755734257784446e-01 -1.756786086407679734e-02 -1.200785117010286576e-02 -1.729321763730823358e-01 -2.564408303756567434e-02 -2.131280748328780769e-04 5.540218546460616567e-02 -1.105720258151848823e-01 1.789469112110872173e-01 -1.885340828682357042e-02 -4.080606741859676631e-03 -6.188815627894574123e-02 7.272676617378725020e-03 -7.848345940042383839e-02 1.056866946142452773e-01 -7.652562846093374782e-02 6.277222077490919594e-02 3.510620230786225954e-02 8.995473144697906098e-02 -9.430048220096005906e-02 -5.999537103042539010e-02 7.836441195106833013e-02 -9.454139068279190927e-02 -3.372183498809443181e-02 -1.141036158756822683e-01 6.056219378675366249e-02 1.208286862046290683e-02 -9.807709930376376506e-02 -4.056438725012502175e-03 -3.920575442396390803e-02 -9.608951408962670970e-02 1.048254966698167479e-01 1.597475234815752265e-01 1.575477051202189664e-03 -4.719804312892658671e-02 -4.659653387632847754e-02 -5.161371896808024384e-02 5.107073872736350023e-02 -5.591896701995558577e-02 5.119338027201537633e-01 4.089703363428867644e-02 -1.354244825325065515e-01 8.267390724604145591e-02 2.486287552393611974e-02 1.340295488629008047e-01 -6.951128707359184589e-02 -2.791278783468828517e-02 1.321168745097512365e-01 9.723644389957751891e-03 4.892818731052304276e-02 1.076154532253173618e-01 -1.606635747606964537e-01 2.009557624588186597e-01 1.151110978524266665e-01 1.559573157192908621e-01 -3.811039516463873844e-02 -2.010160535554567085e-01 -3.151107609470616550e-02 -1.517032807131307726e-01 9.062655659990850876e-02 -3.502075829709765803e-02 5.740878381132083486e-02 4.973104042324136276e-02 6.995928835410715474e-02 6.990142956366379723e-02 -3.291067121144702207e-02 -2.685409629370501955e-02 -1.188720956325641787e-01 -5.700288182027672679e-02 8.489369810893642246e-03 -2.614829414768890525e-01 4.212546333769361800e-02 7.700736815704244120e-02 -1.535930363473315963e-01 6.619477036453344510e-02 9.419438336000425516e-02 -4.774844494865282396e-02 -2.498262284898660618e-02 3.317129135891877523e-02 7.391634438263755547e-02 -7.722766516087078981e-02 -6.630039916377801490e-02 7.890408041674076833e-02 8.610742145327274222e-02 -1.250408988944277976e-03 -9.070917116437343664e-02 9.531345256075803019e-02 4.469159954602020673e-02 -5.631947276776794881e-02 1.174707532196600790e-01 -2.853272445921775993e-02 5.690076298781937547e-02 -5.145421559208761264e-02 -2.025500709820757944e-02 -1.134840531067341229e-01 -4.565123174810021417e-02 7.080736876224466569e-02 4.690945548886709532e-02 7.434155054558624909e-02 -4.042640916425108838e-02 7.256421413365234281e-03 5.006437383062382028e-03 1.087029092719069556e-01 1.178721158594945272e-02 1.222693108214011407e-02 -1.113781753728332463e-01 2.805092930253559949e-02 -7.968498544052395050e-02 1.366229618970491999e-01 -1.427965014827430046e-01 -2.178887302318642527e-02 -1.533104865581445542e-01 -5.530487107182308765e-02 -3.999386649739245653e-02 8.710575430174463674e-02 -2.797782321658416893e-01 -1.399973477513755289e-02 -5.118059371440961125e-02 1.697291628160649615e-02 -6.923619736706725092e-02 -1.660759201637239391e-02 -7.431240852224116344e-02 8.220477656721654480e-02 9.461148966027285723e-02 9.707505864211640745e-02 -6.159637777142906029e-02 -3.338463253260989284e-03 5.226316451300507676e-02 -5.659861378632596168e-03 -1.706947360838553113e-02 -2.646136978198794787e-01 3.479441708052211091e-02 -1.948336946886811138e-02 -5.192701814731213311e-02 -1.606626833124984721e-01 3.142450542983828143e-02 -2.039975620267611006e-02 7.547126081074301274e-02 -9.244806553892587209e-02 3.053794159223644500e-01 -1.297201175157891573e-02 7.914550095202874114e-02 -9.478838632222962024e-02 -1.442478731272708314e-01 -3.340373916684936245e-02 -3.294904443680279904e-02 -1.598785577249500489e-01 3.469712924066279541e-02 -5.198648478536337797e-02 -1.411879061985437112e-01 4.408182471245494088e-02 1.317333383434735224e-02 1.489075663809109537e-02 3.369377905791562378e-02 -1.226775181464403591e-01 7.942671377784041309e-02 1.002659664696961689e-01 1.118561711939698028e-01 4.672580965380726536e-02 -1.307307358051604945e-02 -2.826168584592862049e-02 -7.097684644938093146e-02 -4.258080189618582145e-02 2.824788272102128628e-02 3.201150223468394729e-01 -1.945119757163089533e-03 6.917983390827575629e-02 1.380527586861884926e-01 3.829505510875813590e-02 1.091841689543144971e-02 1.211433831590881353e-02 1.050565386269798895e-01 -1.102255029412822218e-01 3.899912116206782214e-02 1.157968706638158873e-01 1.025559575793453249e-01 -1.121723019878902855e-01 -5.340481355002341113e-02 -7.870114757245209869e-02 8.128304835141147988e-02 3.295524615736797891e-01 -4.678293246987488829e-02 9.039914514004843138e-02 -2.492113589821703598e-02 3.644605670721572099e-02 8.424874540412828627e-02 -5.180016524023707200e-03 1.245757561614992646e-02 1.412972181472488958e-02 9.196650916437300316e-02 1.781114045708914934e-04 -9.164247953167764527e-02 1.778352498880087645e-02 5.409964714613491044e-02 -5.978889485463980032e-03 1.886791168784295383e-02 -3.504698593884488563e-03 1.066440585671099605e-03 5.570189006817299199e-02 5.295300891600008414e-02 7.843964526989717634e-02 -9.233261490941679916e-02 1.092487660458184712e-01 1.120041863632454671e-01 -1.132565560115086356e-01 -1.900855875561953401e-02 -4.633893870109069557e-02 -2.563871329950067127e-02 -2.330432130497197066e-02 1.721356090615257586e-02 8.559381760101965331e-03 1.584595372117701337e-02 -8.141863189273336465e-02 -2.558826990434424908e-02 1.394263114134521378e-02 -9.382758994306555911e-02 5.820382812478113593e-02 -8.764954853442437355e-02 -1.506455550003445998e-01 -5.366818036663275476e-02 4.898255858129493129e-02 9.112385946727934172e-02 -1.483150758234389258e-02 3.541325644806160577e-02 -1.078569892675554087e-01 -8.863521259375617412e-02 4.981348408505770209e-02 -6.398168378625580799e-02 -2.665874574117198526e-01 2.143901654506160659e-01 1.089332959601739537e-01 -2.050110499079453585e-02 3.090553682523112036e-03 -7.859950947187757664e-02 7.391560496285592974e-02 -1.153976164423257539e-01 1.341616690542244694e-01 -4.390245584027357290e-02 1.978077283366795700e-03 6.018664140695040299e-02 -1.061063435711914887e-01 3.237198896406627557e-02 8.125533435510143287e-02 -7.889414424481111521e-02 -6.922622070200719346e-02 8.986399570817178717e-02 -1.402254944057630126e-01 5.273137057796348920e-02 -8.591169816201035814e-02 -5.445972751689397151e-02 -6.442475028229040224e-02 -1.890400477794773326e-01 -5.264230781118111983e-03 5.545307755054614679e-02 -3.917445817205162349e-03 5.854906279221522986e-02 -3.955016238232089698e-02 -4.580082320762483145e-02 -1.298661831295107871e-01 -8.110443293470873116e-02 1.415308590773210404e-02 -7.564480624334396497e-02 1.382377001221002898e-02 -1.846080735698248446e-02 5.097371872262274756e-02 1.985286053248062552e-02 5.341719296892543517e-02 -1.124297555986893266e-01 -1.239591545308556114e-01 8.816182966487443040e-02 1.881894334704146687e-01 -8.422681350528794797e-02 1.694101740697248060e-01 7.770281701812789543e-02 2.144645738832046469e-02 -7.044146348919895495e-02 -2.621556733613450429e-02 -1.288209276812058574e-02 1.264634596080809470e-01 -6.982562002006004187e-02 -7.042530361679678885e-02 -3.580422294531604172e-03 1.060005402861839557e-01 -2.388207517395604315e-02 2.531219923796837121e-02 2.046081503926617737e-02 -3.088491910534028537e-02 -1.062746269168485663e-01 6.407405085401479683e-02 6.029378563533650121e-02 1.726384883498268408e-01 -1.262336603175405469e-01 -2.381230035774526896e-02 1.006480959558192917e-01 1.020508630697103403e-01 3.199989376092584464e-02 6.483782762285032752e-02 1.076002567999266302e-01 9.585793532184557278e-03 8.427734702143628576e-02 1.171814793688877726e-01 2.220803111266036745e-01 -6.490142228181275397e-02 -9.110805009612514549e-02 -1.096707104874027235e-02 -8.571647331130283209e-02 9.155648153997202054e-02 1.533112315735140896e-01 8.528151664017950828e-02 -9.503383663374927182e-02 1.677836102624696013e-01 1.925766370199830102e-01 7.866381573811176420e-02 -1.539837438955261872e-01 -5.943993454370862656e-02 -3.085066608960704282e-02 1.086821993386579699e-01 7.364201659997887672e-02 4.786182729094250882e-02 2.195510613468208347e-02 -4.397167777725198567e-02 -1.097856830420837065e-01 6.725724013542123958e-02 -4.934129802703463019e-02 7.345220330048221613e-02 -9.351682226140406451e-02 -2.529959101307689695e-02 -7.499173590718107019e-02 -1.206688171078390201e-03 3.171553162607569643e-02 -5.085807806237282319e-02 8.933197258370469129e-02 8.572036111618883125e-02 -1.359761587186430684e-02 -1.140072669392756290e-02 -7.626804169262242639e-02 -1.382444227353700761e-01 -8.051941104056753451e-02 -2.391158951870179725e-02 8.571177094460988299e-02 -1.527663098115885909e-01 -1.925182292165966425e-01 -3.480879291648989772e-03 2.180675627043513875e-03 1.060800490818097214e-02 1.136948368907741425e-01 2.027068653081088856e-01 -4.768141362395462296e-02 1.073143362999865597e-02 -5.730159503705990753e-02 -1.371173969500972395e-02 1.074285949288012187e-01 1.062056753959543260e-03 4.740439907020189969e-02 5.646454519469372435e-02 -6.991410957645441404e-02 3.908144382009591175e-03 2.353770596674810076e-02 -3.423865722901099640e-02 1.883852060242848514e-01 -5.090218314652049381e-02 -1.732439025003318367e-01 -1.866517215911750547e-03 -9.600256511371341173e-02 1.772544806343567814e-02 -2.359120964115537372e-02 6.528878867456307244e-02 2.734447763470468709e-02 -1.037592192233842414e-02 6.235010336295289390e-02 3.385686480966933892e-02 -1.040645630558904161e-02 -3.106497027615596693e-02 -6.233359936122533085e-02 -1.788366570492063434e-01 -8.333970195097907888e-03 -5.283727783819038015e-02 -1.267447503404172393e-01 2.269939757074754816e-01 -5.520644909851708804e-02 7.537478235524606995e-02 1.641745692665612724e-02 4.316286873750378034e-02 4.759792122261039676e-02 5.541110077763429509e-02 -8.154112445548575283e-02 1.967119309028343144e-01 1.795871915895850823e-01 -9.149880585998250437e-02 2.469866726109844896e-02 -3.650287829599794392e-02 3.884259323041430734e-02 -1.144273297360203293e-02 -2.196051536459599218e-02 -7.495305843769652088e-02 1.368529884978796074e-02 -8.630014311638725677e-02 -2.753154566488801025e-04 1.089127252321590855e-02 2.139106182170884274e-01 -1.346508504153522134e-01 3.133388074156100850e-02 -8.190587381193881189e-03 1.170964363534234692e-02 -3.228933947771724100e-02 -3.210282841705983797e-02 7.998688060995419111e-03 -1.147399461730343462e-01 -6.241730292723849521e-02 -1.121919479095919159e-01 -4.281658873293630457e-02 1.232298262983119730e-01 -4.986816642639631258e-02 1.015177615146775902e-01 8.765243092883164000e-02 -6.184310207621065980e-02 -4.647461054241833894e-02 -4.475207188827960009e-02 3.302749289676296662e-01 9.697366100735009542e-02 9.418323108824103174e-02 5.509503065673641148e-02 -6.415095978953663791e-02 6.506030193218315105e-02 -5.193407198482937609e-02 6.452002851447553866e-02 8.028650349535812469e-02 -5.619774174855794030e-02 -1.857014452725468806e-02 -5.215506683176369951e-02 4.323408896015339814e-02 1.056566036567527511e-01 -1.938297468657690413e-03 -2.415305680095384058e-02 -5.048475983402154338e-02 2.698127942434663112e-02 1.289238060733433229e-02 5.751391899348371611e-02 4.614256708990172734e-03 7.990332821721068957e-03 -7.861767815594239428e-02 -1.036070934519826708e-01 7.129963902888257488e-02 -1.346044882168085377e-01 -4.156298085787520774e-02 -3.600397233951607018e-02 -1.338498986877414421e-01 -9.874252717870336815e-02 -7.466667987133197848e-02 -1.117644986112962813e-01 2.869238920129085074e-02 -5.201311992932441952e-02 9.316506020208298322e-02 1.271601003893992887e-01 9.601817134502367568e-02 1.748563594585928194e-01 -1.957504122067000273e-03 1.365687168314055899e-01 1.297751431164430591e-01 -6.364799934050752173e-02 -1.326493493722556150e-01 -3.004607492120440343e-02 6.357321907269147809e-02 1.301875529293072820e-01 -7.338880859260273060e-02 -5.448944659923503353e-02 2.699818498020692403e-01
-7.931633656364298068e-02 -5.291744326860002567e-02 -2.678579967949002438e-01 1.157150533587034541e-01 -4.392827175146857971e-02 -8.666768544005065689e-02 1.655364371620604569e-02 2.362428727013492213e-01 2.687415685968574247e-02 -9.407472507950117788e-03 -3.502555812638045302e-02 -4.080202263868884516e-02 4.126151252435403087e-03 -5.065779098694053739e-02 -1.758104529483197065e-01 1.911764298021008390e-01 -4.062042991756368432e-02 -1.297027235656576238e-01 3.270970408167905158e-02 -5.525269586451249382e-02 -2.814477296460583533e-01 2.168838715669963585e-02 1.480878087549760691e-01 1.875724721357346914e-01 1.091141214881052694e-02 8.101179611717798656e-02 -7.002335262438955099e-02 1.182040086108850641e-01 -3.234295391887919455e-04 1.116528156142758132e-01 -1.753860923386913184e-01 1.321521376799000402e-03 3.844992787464602407e-02 1.309217499979676014e-01 6.690095930285382131e-02 5.636925107971532678e-02 -7.094233586918725909e-02 -3.291634302421291708e-02 -9.081734481660508340e-02 9.183678449249674594e-03 3.315711574249134014e-02 5.351908593452110730e-02 -5.790043442823837594e-02 5.218380043931497569e-02 -9.937906411294909759e-02 7.288858014650402561e-02 1.237182228701958764e-01 3.839313767429912427e-02 -5.519780708570336258e-02 4.733741603432063683e-02 4.975149683765933304e-04 -3.273389954475282998e-02 1.282465580150001470e-02 1.560168482423698530e-02 1.540174968982930825e-01 5.597800872947266554e-03 -6.553121101467954124e-02 -2.094558752074943131e-02 -3.796784454502383221e-02 3.299922604621433747e-02 -5.091570741027791336e-02 -7.543057619465121100e-02 -2.523329937045260679e-02 -6.284247771046133635e-02 -7.331334148348060686e-02 -7.592139364364855481e-02 9.697984248692620435e-02 -3.256102467059669714e-02 2.388576005190805318e-01 -6.694600292312537226e-02 2.864915202384123779e-03 -5.676779452219640927e-03 -1.042465285913907330e-01 1.252577010191824047e-01 -6.087099754453048628e-02 -1.102991037877522895e-01 1.389770484310509091e-01 2.416608929262898872e-02 -1.535320153443783253e-01 1.817709397843182348e-02 7.836044051835951152e-02 1.053371104730857905e-01 8.605672490589130752e-02 -1.785539329485674176e-01 4.880679385800729131e-02 -2.272171757015681304e-02 7.859134498314110373e-02 1.355209107860020148e-02 1.456552517008081749e-01 2.117365036125851141e-02 -3.474114587202378757e-02 -1.486797068296607516e-01 -2.910478241415675668e-02 -4.291597694672476954e-02 -2.249941261112544666e-01 3.120324567006420580e-01 2.563314408065751199e-02 -7.500590551849629917e-02 -1.445630530057804251e-02 2.527650136973890183e-01 -1.043065534876638084e-02 -1.844216071810490104e-02 1.999630581301483495e-02 -1.544125375149771606e-01 2.698006482131954167e-02 1.534517990982584568e-01 -8.096366199759608140e-02 5.342489533856192852e-02 1.519372311521416039e-02 -5.019508328957374144e-02 1.253856082171457553e-01 -2.765877392099875057e-02 -9.186068547788263372e-02 -2.441034741169342825e-02 4.624556866604789818e-02 9.095387565219391346e-02 -6.409220151620270700e-02 -2.966209837226483140e-02 1.952526598406245650e-02 -6.424846134939304898e-02 -5.821679041148817429e-02 -2.639409523968500645e-03 -9.275427484942498635e-02 1.734373562280850101e-01 3.014484902140752987e-02 8.602022747683214787e-02 -3.482296431923195823e-02 -2.022078647396860218e-01 -7.693507290920184594e-02 -3.780755332549273762e-01 -7.555799425858282514e-02 -8.682732330038940571e-02 4.837744757650107958e-04 -4.772474277695693684e-02 -1.508914365765464394e-01 4.425495622450222044e-02 3.564685512040518395e-02 2.508194314512477915e-02 3.414325363259960305e-02 -1.035892520027706237e-01 7.476637126742111117e-02 3.038094292254063800e-01 5.029993055606019059e-02 -1.385625652015683440e-01 -5.288483956985343126e-02 5.442041106975870068e-02 -1.397959188272666388e-02 3.203264279428089112e-02 -7.207968829936631239e-02 2.324098903932822133e-02 -1.201950753543799544e-01 6.343842679593066081e-02 -2.764734700477133530e-02 -1.150849744460911150e-01 7.440368709522447721e-02 -7.083331359023013751e-02 -7.028128815893439074e-02 -2.428281801683980848e-02 -3.191367430392140492e-02 -1.331634805700302737e-01 2.249335961390264496e-02 4.715179152510715760e-02 -9.242167009828115842e-02 7.444043473567184266e-02 -5.388464230387308984e-02 5.783607201728712538e-02 2.551198902903790977e-02 -7.459612181404737252e-02 1.971864107843635319e-02 8.024911572653181668e-02 2.546285914039752574e-01 1.007535440363432483e-01 2.031058116572551087e-01 1.792161570252849279e-01 -1.724780626448887966e-01 -4.393632503186258031e-02 -7.156372409249021904e-02 -3.100319692392587353e-02 8.333277855457556227e-02 -1.281100327506097362e-02 -3.267334740118112146e-02 6.358930641032385644e-03 -1.973652580854894922e-01 4.537056555406315805e-02 7.442054243858735318e-02 4.518994224444328189e-02 6.934351064411084509e-02 -5.162278480515485740e-02 -7.512810289937202346e-02 8.486097418610187917e-03 4.022992860655725395e-02 -3.903739217142684209e-02 -1.148517661483251934e-01 3.449133207346694735e-02 5.910023896938974841e-02 1.132541023779846528e-01 8.272739473650234793e-03 -4.532521212520559950e-02 1.245913541255829066e-01 4.729219602184572715e-04 3.502580380649639169e-02 -9.537793422171611177e-03 8.528933543661322558e-02 -5.083647590259096627e-02 -1.997798417461444861e-02 1.671050629594259263e-01 8.241445010516794054e-03 4.108143911021692324e-02 2.457897594255453039e-02 1.189516365121921077e-02 4.256199491649591965e-02 2.454422363390328446e-02 -2.052500106499346721e-01 1.256099869401725889e-02 1.745033666039211562e-01 9.352243667279278028e-02 9.071487658886129291e-02 -2.133171996917257451e-02 -1.372654856365873241e-02 2.534018212017225685e-02 1.045889543242432091e-03 6.127448370158723734e-03 1.453305169717188650e-01 9.558095400712922352e-02 -1.653665913324918468e-01 -3.091313510579236090e-01 -2.872839938697148085e-02 6.189702444448115515e-02 -8.012931688720494961e-04 4.932369435434252186e-02 1.174261049382423761e-01 3.062970962263798953e-03 8.311637443186239982e-02 -4.040458827545972964e-02 -6.328845520022730042e-02 3.570721667873012067e-02 -3.553209988515625833e-02 4.939624946256020860e-02 -1.248502903946946546e-01 7.193996495347590447e-02 9.407773409733712067e-02 8.547324100098191435e-02 -1.170779841825735426e-02 8.971335907905539364e-02 -9.871332955437935042e-02 -1.243536637242567966e-01 -5.041922022816872073e-02 1.200128282131830877e-02 -3.170984379410775322e-02 -6.293418050953287005e-03 1.864478930357483036e-02 4.159013952631541999e-02 -1.182202083188608616e-01 2.730300745856224093e-02 -5.193885782987203714e-02 -1.321566279631068430e-01 -1.179997025697973739e-01 -9.377587636252933748e-03 -7.467147969754375780e-02 -1.119716509033339275e-01 2.814050371855950430e-02 -1.194945990254539792e-01 1.842514298460106448e-01 -1.202741275520507747e-01 1.690189488244085991e-01 -1.211206553923251522e-01 5.662596740282056090e-02 1.154737385986296392e-03 1.391117768217197195e-02 6.303476202075021517e-02 9.770700895279464671e-02 -6.948006353171944094e-02 -1.053321976193440507e-01 -8.816537609836612790e-03 6.891947901021136524e-02 7.833770935326936358e-02 -1.523782751467057661e-01 -7.356822550765561297e-02 8.737220921428760778e-02 7.642974811729915351e-03 -2.671984175109625229e-03 1.102661466023894393e-01 -9.478201138762785971e-02 5.472894856165357730e-02 1.389457967213799001e-02 -9.393432424619646559e-02 4.114053566980956783e-02 -3.391293180350408998e-02 1.059269593069848969e-01 -7.389498803417300643e-02 5.188153008349342260e-02 3.451719453282765110e-02 -2.319515915585236912e-02 1.304298679699977467e-02 5.489190552691076974e-02 6.113968807104780412e-02 1.291645586578091809e-01 6.314758363842613853e-02 1.138482740344756890e-02 -7.574867642948965307e-02 1.504904041412795553e-02 -1.868902991576205930e-01 7.890006486541277508e-02 3.311456504100367820e-02 -5.245553493040749915e-02 -8.854734015583072548e-02 2.495381643085832143e-02 -3.147547146285674113e-01 2.049259099713971188e-01 -1.286816275185955205e-01 4.003391302016802433e-02 5.526486133163941404e-03 -5.491690222459831572e-02 1.717075149833538830e-02 7.402500336757902866e-02 -4.829500748861419862e-02 -4.460831816551550505e-02 8.118662630784162504e-02 -2.536689950312280908e-02 -3.899666769615894174e-02 2.323947455406704526e-02 6.738494764818662996e-02 -8.790275982424619258e-03 3.260602706080512059e-02 -7.815464681914724432e-02 1.649854568109474784e-01 -2.930351586819998633e-02 8.556083757165553264e-03 -1.256380831268573764e-02 1.402803016899573374e-01 4.154948917777583073e-02 2.319755169446545973e-01 -6.578861792877803427e-02 -5.486939519643178886e-02 -1.760329111115717729e-02 -3.319929922114234037e-03 7.029517508563470907e-02 1.009976379692305581e-01 4.683594522737079269e-02 -6.098107350695179674e-02 -4.729931132243572756e-02 6.038360837592449820e-02 -1.346552612354078304e-01 1.069588042957400481e-01 -7.417509222308839301e-02 -5.488722391462037831e-02 8.965406032162342997e-02 -6.616730486240168796e-02 1.462305303893879360e-01 -1.218746807041969499e-01 4.214821086766627062e-02 -2.470581766493408146e-02 2.658017315986897083e-02 5.783829561893993193e-02 3.607992940756426375e-02 3.097417592527384675e-02 2.185380599673314439e-01 1.805258395532107207e-01 -4.057119053753974885e-02 9.587607849116636105e-02 4.329539556837020374e-03 -2.513958062114177508e-02 -8.516109475068653692e-03 -1.400822578730945844e-01 -1.575101664921303990e-01 4.060867741279057530e-02 9.646295255741242636e-02 -7.764549000364137643e-02 6.140262218803328037e-02 5.253277100708780845e-02 4.196949848348943690e-02 -2.938627953359222444e-01 7.967563443712545601e-02 2.517878993750699013e-01 -1.578864168094389620e-01 4.528530015375745177e-02 -7.455336947597382413e-02 2.086497669514077950e-03 3.540947278049394464e-02 1.677608831774837495e-01 -8.604390530689207811e-03 9.461217712240262492e-03 3.530343917714802437e-02 8.581626561443509923e-03 8.212006121966394789e-02 -7.437256472359743929e-03 -7.853087689925946149e-03 3.408322902092388029e-02 -6.126880993418442473e-02 -5.885081622076840380e-02 -4.485678304157042322e-03 -3.361172645132344539e-02 -9.814856792088408333e-02 -1.073230623364195280e-01 3.030173919016228290e-02 -1.381295663103164761e-01 -1.596315877836048391e-01 -7.493918083565175026e-02 1.126952178426205292e-01 1.731423563533198706e-01 2.329398915108947254e-01 -1.495744400094626836e-01 7.746658138424361573e-02 3.560394292682233196e-03 -2.088407564696190440e-03 4.666012975439008843e-03 3.126746519416399167e-02 -5.164088525735411467e-02 6.812373172028315937e-02 4.908160688235673613e-02 -2.515845519433756918e-03 1.115764303578795340e-03 -2.573261286258417962e-02 7.815255556297619199e-02 6.421356848887012359e-02 2.432561677441776593e-01 1.015641810650763366e-01 1.026020543793574602e-01 -2.736479780757055183e-02 8.062264074088502930e-02 4.040587880414325643e-03 -4.847683278351898328e-02 2.797185923580066680e-01 -3.212208728395210544e-02 1.056367412482014517e-01 -4.236693194917719174e-02 5.871244664802365704e-02 -3.197490953687283366e-02 -2.819349371894286360e-02 -1.321293780878314041e-02 8.796620403578224445e-02 -1.472239003858970552e-01 -6.466079704565151631e-02 -2.031359591368830746e-04 1.712117811655671784e-01 -2.972018772457608524e-02 -4.904161250813766915e-02 4.420064246894912091e-03 9.842555593148077930e-02 1.237826528738540377e-01 6.667795256993029607e-02 -8.600692774844631225e-03 1.052003306964762464e-01 1.091649057669707712e-01 -5.854331021609491398e-02 1.353406996345513959e-02 5.238170462553900369e-02 -6.174973913959121152e-02 -2.749864391968780825e-02 -1.067027531193510612e-02 9.213411310794858075e-03 -3.511326429853554171e-02 1.080062909495107908e-02 -9.129675986215947392e-02 3.488567798879116388e-02 9.465949053992332718e-02 1.834513799443982240e-01 7.877762723493787408e-03 1.215119032095403756e-01 -3.481552453123491764e-02 1.260332129738169979e-02 -3.313509744251234932e-04 3.018806993952390452e-02 1.046325557645386012e-01 -1.585263819965305465e-01 -3.274116568743675598e-02 -2.786885893182502669e-02 -6.898634221253182285e-03 -4.969923011143073666e-03 1.940072383923521215e-01 -3.917145566189440820e-02 2.479698538379121811e-02 9.449852269474805222e-02 4.371459845466948470e-03 -1.632049378175685558e-02 6.718961601382751614e-02 -6.121916450762963924e-02 -4.397405087730119067e-02 9.426088365650671635e-04 1.885831881898626314e-02 -5.046893299339959976e-02 -3.889905710086083435e-02 4.388391977334846206e-02 -5.264367927790079144e-02 7.393799572446762896e-04 -1.756812061683113713e-01 2.380497948737207367e-02 9.081442273663908882e-02 -2.494927915186033462e-02 -1.257631698430937764e-02 -1.438068778664187697e-01 8.304228291818248342e-02 -1.249339615699451705e-01 -4.386304870212831553e-02 -9.101673493778808521e-02 4.431630626812016992e-03 1.017572402245139618e-01 4.753227352063892075e-02 3.624902573362923791e-02 1.074099066213260734e-01 6.003800487413291087e-02 1.089667101814231487e-01 -5.913339811500926968e-02 -1.662319777290481235e-02 6.410525641751041448e-02 8.528385609065997075e-02 2.395449919603238192e-02 1.842442038898065293e-01 -2.352703650236662863e-02 -1.397609428959226303e-02 -7.668828491709391015e-02 -4.972838657581508948e-02 -1.054778371913282359e-01 -2.801667025335243325e-03 8.108728411884338905e-02 -3.854484447645981516e-03 -6.402129221808328975e-03 6.698132622896230126e-02 -4.676180213445978173e-02 5.768247042546113118e-02 -3.940542129087801909e-02 -4.496734015862715456e-02 -1.238985396325013519e-02 -5.768657767200657989e-03 1.771661417165660279e-01 -7.866482792487003439e-02 8.006279133355076461e-02 -4.963588719854234582e-02 -6.225193328812143878e-02 -6.135291017632171079e-03 1.092286880247129999e-02 -3.542181971893072247e-03 -2.099851877593863353e-02 -5.375305944298996996e-02 -6.858908449653114414e-02 -1.104262875430229128e-02 -1.209334747292457046e-01 -3.190930255775280278e-02 8.469917783081712392e-02 1.282913679352801553e-02 -3.912639016086220944e-02 3.246659803862134847e-02 3.962959293290840845e-02 6.615535466866173664e-02 6.485694984779770411e-02 -2.801911920241443796e-02 -9.526966450636852046e-02 -1.997805483393963744e-01 -5.926052405410573570e-02 -5.151575601838894597e-02 -1.594292083122057502e-01 -4.668034852757510511e-02 -1.697313549029456567e-02 4.916343733190706167e-02 9.750596918330035889e-02 8.693307245260945004e-02 7.458828711326025152e-02 -1.785392710772726321e-01 -5.892434672160625636e-02 3.260256301661203227e-02 1.277147529036128659e-01 4.397608713325149715e-02 4.140075526372883480e-02 1.028977170467797048e-01 -1.795213307268343078e-02 -3.253483186545206435e-02 -3.565956161832139343e-02 3.700772607728859600e-03 8.318851534224788735e-02 -4.342492393805803819e-02 1.652676559828216429e-01 -2.056693682158181394e-02 -7.192822300763972165e-02 7.765119925715160965e-02 6.008115073555079372e-02 -1.516305177046810802e-02 1.146129151425700522e-02 1.184628176200900468e-02 -4.132144070539424396e-02 4.039181243314709374e-02 -9.175403032466125652e-02 3.073725354372293037e-02 2.830194373773921024e-01 -2.062364851266544341e-01 -1.101832776535964786e-01 2.375514547225543796e-02 -1.778243338562781814e-02 -3.590188153566317708e-02 1.810263136507583304e-01 -1.109694855166453026e-01 2.000407217908687849e-02 -5.495753503528279238e-02 -1.308597148591206794e-01 -7.454301548311098591e-02 2.634076660048830232e-01 9.691478753989550554e-02 6.638064178585482977e-02 -1.419487868959155852e-01 5.164058684702248908e-02 -2.566312149040545290e-02 1.443385792527522027e-01 -3.383959643813969770e-02 1.061916505679787875e-01 -2.012140921984922198e-02 1.192084337581444942e-01 -1.776730187935937622e-02 6.377816963325488300e-04 5.892888915173898762e-02 -5.291395088823711013e-02 8.389042682534599352e-03 -2.248211698190982072e-02 9.547776318159009734e-02 -1.280483747225539572e-02 -9.369329677580244542e-02 9.751065862039749732e-02 1.756012877950616918e-02 -6.139343624259841620e-02 -7.511722029915575416e-02 -8.813149126030631053e-02 -6.533210292143742937e-02 -7.335048909154000263e-02 -2.028767053554430058e-02 -2.047468693212946972e-02 -6.594909657395982283e-02 4.266853386396541855e-04 -2.508072772320673605e-01 -2.708584394996187139e-02 6.179681847835171576e-02 7.037093894208716616e-02 -1.337519203692384348e-02 -1.943839590912659412e-02 5.615255649756353135e-02 3.381401106247249305e-03 3.072202147549809789e-02 1.347330615820497013e-01 -3.866482791880093001e-02 -8.569678587161604078e-02 -1.328072730730311124e-01 -2.058229834082057896e-01 1.012678126266437426e-02 -6.371760971771242565e-02 9.730984229653875939e-02 1.300991021858687591e-01 1.708747979356066704e-01 -3.034278262742607160e-02 -2.133413695940866717e-02 4.282662331342193540e-02 -1.176680357141720173e-01 -5.015229221046135083e-02 1.347227335107000629e-02 -4.431597947690772699e-02 8.641648391143832986e-02 2.689116194124221981e-02 -8.149879054318338867e-02 1.346817211028586703e-01 2.783629803958841131e-02 1.290926836758472633e-02 6.586729594755236228e-02 1.070207131286384089e-01 1.131119211282732850e-01 6.179111218681415663e-02 4.798213621835263620e-02 -8.594594627360024885e-02 7.626773470467999860e-02 -1.005881571427868701e-02 1.117003016453917280e-01 6.976643477623923305e-03 -5.741378325934773201e-03 5.416440869098256006e-02 5.706009349108114720e-02 -8.286382030419719991e-02 2.773549415539398530e-02 6.888050445762169960e-03 -8.348047096535499145e-03 4.259759250495580296e-02 -5.481757869007897188e-02 -3.836635606518653142e-03 9.664950093366889150e-02 -6.592100038005856144e-02 2.137769672288214809e-02 -1.465828887346561915e-01 -1.641160614229769665e-02 1.051873013018102127e-01 9.404899262274325766e-02 1.987548437457904715e-01 9.809770561883558726e-02 2.900474256707142803e-02 1.213151597757342222e-02 -2.238990898106381008e-02 -5.010659457319224797e-02 8.987217145242774874e-02 7.272196619652843141e-02 8.344838634156451218e-02 -6.418092290158100566e-02 9.781393464486760891e-02 -9.696378536520849911e-02 1.820721973024648499e-02 -6.725597899682873859e-02 9.565955126387877538e-02 -1.341544714846185649e-01 3.471095325441821838e-02 -8.253487544875617865e-02 3.867988216601171009e-02 4.225693464364711077e-02 9.104249058668099914e-02 1.827028415180748447e-02 -7.291855418544346268e-02 4.669752112227677082e-02 2.975114813225686935e-03 8.799558155649250812e-02 -1.056124810566512889e-01 5.936629620547989594e-02 -1.075875689042050110e-01 6.412817487571280395e-02 -4.423663521219646511e-02 1.170970689960124655e-01 -5.539948786618918014e-02 7.578849361200465373e-02 -1.301455067670001242e-01 6.331938876731053878e-02 2.661420240148254512e-02 4.934805312090487228e-02 1.261335616116956992e-01 1.314741775405230406e-01 1.950408785366638809e-01 -2.042078239886087054e-01 7.544731812122217052e-02 -1.077405867207736762e-01 1.355335500578445651e-01 1.148324579218316654e-01 -1.244746110693033606e-02 1.192945718953701967e-01 2.091599593909842722e-02 -8.821572226738712275e-02 4.661374099805482007e-02 -2.277205204541974393e-01 -4.217031324204766757e-02 -4.928959989648659668e-02 2.553430781231343788e-02 3.360675063361483889e-02 5.121861982201785651e-02 -1.831563614197593420e-02 2.428416028759221301e-02 1.347764090678023052e-01 -5.999514823374335788e-03 4.639404242943302031e-02 -1.529574639092428356e-01 -7.868074499122945653e-02 -3.599403954372419612e-02 -2.582410827060621986e-02 5.743060799989121307e-02 5.474438497323270980e-02 -4.861033299018317766e-02 1.076009135822132007e-01 1.299461837223470917e-01 3.398362020812087381e-02 7.585464234606831280e-02 -1.178883949811703469e-01 1.234357681019055721e-02 3.139256399773122236e-02 -4.343201821663814077e-02 -1.225391360957956699e-01 -1.194119273507468493e-01 2.184459879809362570e-02 2.391370434417718766e-02 -4.537748825714192635e-03 8.222741079900075523e-02 -7.177235968716474956e-02 3.393622799069746787e-03 3.789367513793446413e-02 -1.494078139265913874e-01 -1.820403475879112803e-02 7.865100791996829099e-03 -6.808422182915405650e-03 -2.341208932170387239e-02 2.168634519850625719e-01 -3.488069908512446415e-02 -3.728688491456823295e-02 6.693962076793945684e-03 6.641218634731888004e-02 1.973854192614099556e-01 -1.230911401662688892e-01 -2.314808712424294979e-01 -1.105372228714905231e-01
-1.233085461985902569e-02 1.448529508519140127e-02 8.238773964761295088e-02 -3.262439551136115390e-01 1.592117930363768086e-01 8.091001370100636345e-03 -4.078649933231553830e-03 9.937491708387727329e-02 -2.416024296133899296e-02 1.344343808590191258e-01 -1.042039836075374197e-02 -8.561656770715161957e-02 -7.414726524625414594e-02 -1.817598446231584149e-03 2.213187311974354754e-01 1.691379941761971817e-01 5.266376773747273587e-02 -1.608765344832686628e-01 2.482477664469512346e-02 -1.222756551792473084e-01 -2.004180922312031876e-01 3.199167952593907627e-01 7.637721076748185678e-02 -3.418206104383630373e-01 -4.466019009973488940e-03 2.266703343807483229e-01 9.768518365120416880e-02 5.676554597377218153e-02 -8.019382285633175345e-03 7.750622074042642917e-02 1.872452592746614020e-01 1.472239346611503574e-02 -4.870910267031085261e-02 2.976483813906494538e-02 3.162721838355809362e-02 -7.976462469400483202e-02 -7.673128808072783580e-02 -9.908212711640285164e-02 -3.646641909245110919e-02 6.137151901428185286e-02 -4.585756240778380600e-03 8.448225083388306855e-02 -2.202983891216252904e-02 2.747144377779488569e-02 1.511826028312758807e-01 4.558363598598523525e-02 1.096999180172336772e-04 9.606888697699381141e-02 -3.114309281881098845e-02 -3.293859887991243407e-02 -1.984658931178145264e-02 -4.586892413818433045e-02 1.281703840800670902e-01 2.519362421238054983e-01 -2.884588594520747992e-02 5.980773134762936566e-02 -4.170530170664014935e-02 -1.284717252002686438e-01 -2.484154691983309765e-02 1.566916619270284500e-02 6.022391796642152795e-02 -1.019018409670408576e-01 4.391639817205018198e-02 -4.091858506484487290e-02 9.154332523196606619e-02 3.489366698882236106e-02 8.159654319340357842e-02 -1.540229547840126813e-02 -2.846856256926723686e-02 -5.463561785992981229e-02 -1.894088805199295455e-02 -3.549698704741677951e-02 1.198545107998042203e-01 8.229410915198553944e-02 6.133713923997476114e-02 3.518511236080892196e-02 -5.135742789642124689e-02 -2.625905462755460940e-02 1.541855479516182903e-01 -8.080494563376207362e-02 -8.518952550583080985e-02 1.526035736728447167e-01 1.271401508790229173e-01 -3.163797508978911932e-02 1.964699657046492798e-01 -2.224048874123588093e-02 3.737698018688850616e-03 -3.527907910913673922e-02 -1.035269159769780373e-01 -9.196691901288836860e-03 2.708416344769100648e-01 7.178726694619010085e-02 9.352166681165094420e-02 -1.752082844379949378e-01 1.822926130858097682e-02 -1.214825647196864228e-01 1.117375999228817501e-01 -6.056689892883607151e-02 6.807426890711047729e-02 -2.601631610119305993e-01 5.253710053186456258e-02 5.504853910244324883e-02 1.191313839797998042e-01 -9.098741022472725537e-02 8.281546604547813939e-02 -1.514502515477511857e-01 1.159543776151480826e-01 -8.895218836890053660e-02 1.424156141511604030e-02 3.287005032761602247e-02 1.197861510843745564e-01 -4.211631750613477332e-02 -2.764895055681967362e-01 -1.105260796546290482e-02 -1.573741826873643543e-02 -5.094190985252960990e-03 -1.077465520813174760e-01 9.689316029003493952e-03 2.935511680891312800e-02 1.097361110268863932e-01 7.505141565304630780e-02 1.652668891200552784e-02 6.296082739865867944e-03 -5.458064610919540621e-02 -5.737621136849052617e-02 6.669456956937856729e-02 1.422320411674921070e-01 -1.766163163012677562e-01 -3.181934799053951629e-02 -2.647807727796417376e-01 2.624599651898790881e-02 -3.017473892585584294e-02 1.574092353985201143e-01 -4.652415543007222543e-02 2.494294721618156921e-03 -7.693222482379624694e-02 -9.627750379458185903e-02 4.608902318966647677e-02 7.083978397860646314e-02 -2.746718850155347239e-02 2.374407160871414013e-02 -3.415742108792214904e-02 2.695465555209567432e-01 3.003716017930743720e-02 -1.401176562083173149e-01 -1.459058272941156920e-01 2.700251517129171816e-02 4.370104423311425498e-03 4.138182802722909642e-02 4.481107798460975955e-02 3.937704528543787413e-02 -5.479347420528212637e-02 2.336599529153460947e-02 6.942082459923243354e-02 -4.462963371823864406e-02 4.474203054710527289e-02 -5.291732822111550223e-03 -1.702393838958187189e-01 -3.443121332698654419e-02 6.835104691660497112e-02 -1.052330715543011996e-01 1.385887930886432751e-02 -1.989928262146520577e-01 1.466900657797267499e-02 -3.897715654802197394e-02 2.794589312741368493e-03 -7.571204041978635280e-02 7.614835834823413530e-02 -8.557130651470576388e-02 -3.445317610939913761e-02 4.509106736306570801e-02 -1.060881162913906578e-01 5.597534777690869878e-02 -9.501513437368822035e-02 1.274462237705726864e-01 1.005146826531741200e-01 -1.803328557302446566e-01 -2.015785038468312085e-01 -1.343053275562071103e-01 -9.209101724073079365e-02 -4.902697371465029874e-02 1.595397186366982051e-02 -1.641159420596270957e-01 -3.372829727504008529e-02 8.941466697623452753e-02 2.341092032054331307e-01 1.538581729746392630e-02 7.421428419068964999e-02 -1.406289666512296546e-02 1.519530055540157382e-02 2.853571986437261065e-01 5.043390401067912587e-02 -9.036318128537830507e-02 7.090289641964375722e-02 1.339034663394060402e-03 -6.666779452044976906e-02 8.925768179356198539e-02 -1.016333147704880611e-02 -9.342436620905568423e-02 1.934338300825944740e-02 -5.637561958569059506e-02 2.694785760801386709e-02 -1.603211837587279198e-01 -9.306379940646365700e-02 -4.515825162951957183e-02 -5.466151844597686577e-02 -3.871552190140938477e-03 -9.661932540809605244e-03 -9.429401721259733637e-02 -2.635621698895986020e-02 -2.329063467087895065e-02 1.663346257937987349e-01 6.287720374956717873e-02 -1.084241308624956865e-03 -3.956510330911111877e-04 -7.873332630863334736e-02 4.740964519320201020e-02 -5.052998095780344284e-02 2.550058223732480367e-01 -6.649596477297265752e-03 5.335845368785251813e-02 -5.618448940878865289e-02 -1.314437833472957839e-01 4.035931218581307982e-03 -5.212444964366426403e-02 7.247641206769812883e-02 1.540008060657617299e-02 6.529397097155391350e-02 -1.134303206075671505e-02 -1.531339700817067329e-01 2.278981454998705442e-02 1.911909338452649210e-01 3.221699253038767807e-02 1.744061277679485877e-02 -3.057981260534841511e-02 3.091125135787595180e-02 -3.572617891124913597e-02 3.455903542926170441e-02 -1.339269385670542600e-01 -5.631390134374993778e-03 4.624396918979776366e-02 -1.926278202479743962e-01 5.990985887216941294e-03 -3.492737985012510371e-02 -1.574026250327515211e-02 5.686965159603227238e-02 1.709615689500621621e-02 -4.471385658067225655e-02 8.906580697125875135e-03 8.288289191140116655e-03 7.951667418681405974e-02 -6.760199376263648433e-03 -5.499390580145682716e-02 -8.354934800930037542e-02 -2.232920346354120567e-01 -9.218957929809522625e-03 -3.329861325415652690e-03 5.627345915559192613e-02 5.049361176121302912e-03 -1.367704245771732829e-01 -4.738316100603802428e-02 -1.412006884438851140e-01 -1.074894085765137064e-01 1.568782681927337608e-01 6.010805975224107339e-02 -4.328789459638861942e-02 -5.157249131449397062e-02 -1.298215930808088447e-01 8.377581488576402169e-02 3.926822262311422534e-02 6.627763418702291645e-03 -2.306316760209051464e-01 -1.665495652062360527e-02 -1.128252787621874392e-02 -1.766087866175126281e-02 -1.063330076059451068e-01 7.248765005977331199e-02 -9.853170174237499065e-03 -3.778535286821353006e-02 -4.344209171282967935e-02 -9.056811968282066361e-02 -1.163030432188342650e-01 -7.890125636218051075e-02 2.104121385853741366e-01 8.154709783817715163e-02 1.470809113304286965e-02 -2.004793092857084791e-01 5.527372859308593567e-02 1.079023301294268211e-01 -1.938533164151369156e-02 6.428071975822015685e-03 6.051481118957861144e-02 -3.095117062171668168e-02 3.017973546765960816e-02 -6.846874681339906732e-02 -2.956777460606672611e-02 5.514919017579716920e-02 3.771813293905911663e-02 -1.048662430105379989e-02 3.000945478411843476e-02 -4.453393357710014322e-02 7.122517701059130624e-02 -3.433546731188526820e-04 -5.376547152375657501e-02 4.315814901753776966e-02 -8.607364743630042947e-02 4.204429664481720147e-02 -1.804700256565052729e-01 -1.564750995302392408e-02 -1.371062127610106485e-01 4.460531069440897695e-02 -1.781368356982172274e-01 2.313761370201115608e-01 -1.226199999287426456e-01 -2.239669739911945290e-02 -2.184499193468404307e-02 4.743862325201147340e-02 1.160730048707914325e-01 -3.587922385649847112e-02 -9.085288072459715703e-03 2.001273710627068242e-02 -9.083414997421730697e-02 -2.660444012770819544e-01 -1.014655576634078959e-01 -6.338965404408615500e-02 5.916467571098844164e-02 1.095496240878307687e-01 7.414515193566260931e-02 -8.420815464608411016e-02 3.596135228975272380e-02 2.344770244327488290e-03 -1.072157184551186249e-01 -4.696759576597534652e-02 4.069052371714161273e-04 2.254544862358732332e-02 2.276017336361577451e-02 -1.057522564806151304e-02 2.459006555338513755e-02 7.300218631600784158e-02 1.446749489611809103e-01 -4.534104918827434015e-03 4.408927919843408372e-02 4.596462188388742570e-02 -1.149665802277809040e-01 -5.938286175957609159e-02 5.462241867732128831e-02 -7.441517471472140766e-02 1.484896734220491135e-03 -6.703190895382338255e-02 1.943648395995886125e-01 -6.430441465294126080e-02 1.579660313994339302e-02 -5.949881897944984260e-02 1.007450574285047480e-02 -1.262813732350638075e-02 4.254920932555693314e-02 1.492932179682656124e-01 -7.824810881763100134e-02 2.349662312435473188e-01 1.762796443892392095e-02 -8.173633278590207440e-02 7.078772096451211270e-03 2.618096018969744976e-01 6.257138473236717457e-02 2.992093455782331990e-01 -2.038690343047801917e-02 2.701540796461554539e-02 5.263188386844571375e-03 4.866330262838430842e-02 4.942263631434618693e-02 -2.515398706388012884e-01 6.827336329833819106e-02 1.172497870501219321e-02 -1.400825781816206761e-01 8.965834692077197243e-02 1.900695149603128520e-01 -5.524543241945527317e-02 1.045091410452521873e-02 2.147043734053974071e-02 9.985591956309543271e-02 4.584734175479102808e-02 -1.307182112095655879e-01 4.300028132570874601e-02 1.138467689482851146e-02 7.986094057172915539e-02 -1.270513805181950062e-01 4.230198917429539573e-02 1.692606915813379964e-01 5.841224443770277885e-02 6.065030798234805759e-02 5.118714113460609560e-02 -1.749731277197269161e-02 -5.343183858861787205e-02 5.015433224329046702e-02 -1.941043533954785183e-02 4.414129028131397181e-02 1.500732509547224834e-02 8.424860759214140848e-02 8.806070792206360798e-02 1.047672550667786834e-01 2.297905122971110881e-01 3.531873514251065299e-02 4.249890435587016374e-02 -2.318626939179855781e-02 -5.523004350799555484e-02 1.848151236341179227e-02 7.934070232639756082e-02 -1.664183758184022421e-01 8.614792533336630698e-02 6.333210235892332285e-02 -1.046625644777474523e-01 -3.529559695590569340e-02 7.020084705286046365e-04 -8.946726442170763183e-02 -5.870987386658108043e-02 -1.145719919378236362e-01 -2.273455422487163577e-02 -1.260550697675195675e-01 1.070365294701675352e-01 -3.557528853805789430e-03 7.464877811063942714e-02 -2.940835656115388039e-02 -9.185479629862337847e-02 -5.366136723645702038e-03 -3.680687007603082594e-02 -2.339094098213550035e-02 -1.132619791383346758e-01 2.705341245127298230e-03 -1.650348642523744719e-02 3.107300665111948149e-02 2.650152512412660144e-01 9.619981599205166059e-03 1.206478240788097789e-01 -5.596722962074573288e-02 1.119275085011025017e-01 4.064177979586527240e-02 1.185560674685288557e-01 2.213302160470284954e-02 5.652510629845322078e-03 1.095933618465831511e-01 1.529253290030956752e-02 1.591724636823526814e-02 2.384300999445572722e-01 -7.323003884225788573e-02 1.706192481779502113e-01 2.499115598141019370e-02 -7.132090255228876186e-02 -6.756301977667004965e-02 -4.292904970257793718e-02 -6.602935702024835540e-02 3.923003684159907106e-03 -7.457671811378840943e-02 -5.337952223200303353e-02 7.116430536122117512e-02 4.349637362207036534e-02 5.113396043468018681e-02 -8.103747510352546368e-02 -1.522229090178390219e-02 3.312852731656761897e-03 -5.368442058406232981e-02 2.115003293419729646e-01 4.745530368412609334e-02 2.604850944758036607e-02 1.552346555770780789e-01 4.001522399454045253e-02 2.371356074232399205e-02 -1.000237264389353398e-01 -1.361002458174218402e-02 7.067097560851849647e-02 3.365910732397744271e-02 -6.578351955874109369e-02 -9.150747063390521352e-02 -2.121772594444701066e-01 -7.363379615954301904e-02 -2.486564075050528080e-02 -3.145370806924020768e-02 -4.751509219352129804e-02 1.855210484967616535e-01 3.897702165176773065e-02 -3.444211193802983184e-02 6.674559718633400751e-02 1.647942219736588804e-02 5.737839699971662016e-03 1.462334992626765084e-01 1.705385578953822201e-01 9.717220582872806989e-02 -3.614985478363239024e-02 -4.067647161202003758e-02 -1.185481794816310719e-01 1.704866629157236746e-01 -1.891376260892383213e-02 -8.104705737503616059e-02 -2.057842272946127093e-01 -6.086700684690276447e-02 1.044237217798212186e-01 -2.723370043592561462e-02 1.007406589690650750e-01 1.683106155825514483e-01 7.612486802280621356e-02 -1.579721368773909229e-01 -1.860588198182136152e-02 1.266363250739706570e-01 1.843653503587197942e-02 -1.220115357289284219e-01 1.234920183797091203e-01 -5.928680175119550866e-02 -9.951759355920335171e-02 9.344022509887840722e-02 2.271780506526916987e-01 -6.110759525822111876e-02 -2.645389895645285788e-02 8.856599538452160358e-02 -1.864539776871650956e-01 -1.516401546542092693e-01 5.280742832725867503e-02 -1.629947843194224505e-02 3.796525481780605588e-02 -5.071444340757228636e-02 2.107484414404255449e-02 -4.626854432294665725e-02 8.438345615909666197e-02 1.093021215865937201e-02 3.698228245930621633e-02 -5.058141090832862091e-02 -4.770171846789803688e-02 1.997290723380470978e-02 -4.899462947393345980e-02 4.774868855223739737e-03 2.042048696631286811e-02 7.619655947762838180e-03 1.489782611015428027e-01 -1.277699834996702706e-02 6.261179981040536358e-02 -3.753337626317961029e-02 -5.690817693753988209e-03 7.583877974845461278e-02 4.235165563168642733e-02 -9.168937369415177969e-04 7.086597442708941763e-02 -5.635486633612954432e-02 -3.471971985941479932e-02 2.413800859720341141e-01 6.979968221560398089e-02 4.390793393002499073e-02 -3.274533201811909155e-02 -1.859026790876741331e-01 2.822823625732378411e-02 -4.950002158432765392e-02 5.322801805083188752e-03 5.127054236256743669e-02 1.996171091891586064e-02 4.049154041124435055e-02 1.886257497434035424e-01 -2.597163158121044146e-01 -2.104049413508301408e-02 5.686682790950400856e-02 3.535748962103793525e-02 1.124226055793810936e-01 -1.292807689567383733e-01 -6.867743099161094378e-02 6.797383800486986316e-02 6.797984002063317543e-02 -2.172354800159769297e-02 7.396594213909239712e-02 1.218504556665007954e-01 -3.845592248109428596e-02 -1.112941552211261786e-01 -5.185195545702201564e-02 1.894474447126345829e-02 -4.482865342742774900e-02 -1.723709266951392871e-01 -6.919716071506644417e-02 5.468942406742606510e-02 -2.287598914484117313e-02 -5.916727867915827499e-02 5.048313745473048675e-02 4.642015666240953409e-02 1.559641558971956721e-02 -1.966163230344327578e-02 8.615901690829563808e-02 -9.094391890076561347e-03 -1.877700848582777859e-02 -9.616511843797020953e-02 1.409306233794845598e-01 -4.618083705469198941e-02 -1.411012621855022020e-01 4.687912636861898963e-02 6.950396629715724361e-02 6.637135349380526850e-02 -2.614462966238974562e-01 1.077396190512338592e-01 6.746106856475256319e-02 2.592961386366796420e-02 2.294501338314000952e-02 -4.901828548097054289e-02 -1.692486087283393004e-01 6.943579911315375663e-02 8.398662799537584545e-02 -3.219570262310230552e-02 -4.733604314427781318e-02 3.175245120196591719e-02 -2.141710696318973040e-01 -1.356412985160714846e-01 3.682168426976682729e-02 7.129930535866758901e-02 1.027606556288147288e-01 5.906639549040301057e-03 5.235540183753591148e-02 9.550917156601097455e-03 -3.563561137480549673e-02 3.477641289464527413e-02 -1.428056689087090457e-02 -5.770534398499727914e-03 3.983456045446192618e-04 -5.677899719911363996e-02 -4.784261518402564695e-02 2.727187886392880289e-02 -1.154255981353207033e-01 1.369310731902661504e-01 1.115470065905617009e-01 2.981758470287538404e-02 -2.829971724852375220e-02 7.771887916881155267e-02 -6.804096154378416750e-02 -4.342584554923113564e-03 5.751268105776140283e-02 8.332264958528760868e-02 7.529452814141881362e-03 -5.454716454551549604e-02 -5.234814983610036609e-02 1.029095195313465272e-01 -1.118313947117705182e-01 -3.064189868445971882e-02 -1.761039054139295831e-02 -5.754571786190695870e-02 -4.471010592211131784e-02 -6.043569367842499540e-02 -6.430772535615768282e-04 8.630745515386052842e-04 6.138426125125508691e-03 -7.935139059318346844e-02 9.882941153131277745e-02 -1.923510080370537667e-01 -1.303379546751325668e-01 3.140486005892478838e-02 -1.338589915480799600e-02 3.462149965255685580e-02 1.115143315164833504e-01 -1.421965894569124644e-01 9.057981243660262471e-02 2.033997353068601466e-01 -1.204804757345764345e-02 -1.080558050953990684e-01 -1.584884977749133894e-01 -1.536573247017571087e-01 3.288514414487451326e-02 1.249900975482832188e-01 2.126897290006544705e-01 -1.149212785066364151e-01 9.032410665671754268e-02 5.149550277783549769e-03 1.455539833190464538e-01 -3.741572890947482410e-02 5.374557122078659627e-02 -6.463138530100740646e-04 2.075232605089358529e-01 -3.986078016965666909e-02 5.015767444829130096e-03 -8.261535127174089721e-02 1.418270596780703552e-01 -4.958104584280632193e-03 -2.233721207706957507e-02 2.026692734487124323e-02 -2.839508374665670673e-02 -5.669187273529706275e-04 9.391406525225812207e-02 -3.101215320489467478e-02 9.112809384484851435e-03 2.462809132354237124e-02 1.390963806631139998e-01 7.434994137860675978e-02 -6.528124800905419842e-03 -2.141236476310648049e-02 1.084991214889307887e-01 -5.130682894103509584e-02 -4.422358722423277294e-02 5.188265026247073503e-02 3.966490324213930996e-02 1.707600816329110649e-02 -7.577368169117044971e-02 -3.654487473337920955e-02 5.190348813420013474e-02 -2.003799890982903460e-03 1.909466873067280565e-02 5.637426997638424891e-02 -2.942083837446280437e-01 1.329163249057462304e-01 -1.380383102515322646e-01 -6.470264279030528420e-02 -8.074193603110306483e-02 -1.481430260157414469e-01 -2.253357935120726130e-01 -1.769020483067590757e-02 8.134978458768984955e-02 1.042607333550300552e-01 7.272067230798016924e-02 5.526128920457752669e-02 8.000092218918058995e-02 -1.575336807215635057e-02 5.508477853414676939e-02 -5.038686245568028965e-02 2.634927275606279706e-01 -2.345103853117195755e-02 3.424323451290748471e-02 -2.175902162533525919e-02 -4.663347676633838867e-02 -2.053410494499994243e-01 2.302883969548363829e-02 8.245979433523589752e-02 3.939178313490617617e-02 3.183592215142475729e-02 1.026174798377596509e-01 1.970621722856173014e-02 -7.172872338558039518e-02 -8.448983713870861223e-02 1.212363297246743382e-01 -8.980341845953816737e-02 -7.218749644752111942e-03 5.765526422355128633e-02 -7.472034480926960376e-02 -4.310095848610014102e-02 3.176177090150543447e-02 -6.608761580069734409e-02 -1.283212284347843291e-01 -2.007936834142846905e-02 1.142987313681878038e-02 3.471881073767658227e-02 1.876948845740008046e-02 7.676496263087088934e-02 -3.443582030028792540e-02 -8.353230169888301027e-03 -1.442220877248318323e-01 -2.072138183460417102e-02 3.007148340580224899e-02 3.106809136919563494e-02 3.468724627941448691e-03 7.715487993487102347e-02 -1.249277087401550780e-02 -4.777266210003270480e-02 -3.794719001386972351e-02 4.260816806254566491e-02 -4.194584261162236094e-02 3.681825505431667728e-02 1.348490640151320946e-02 -8.107734538713352868e-02 7.196957292357454572e-02 -5.778834512887885688e-02 2.332452466768072941e-02 7.292827203407402370e-02 -3.284700508128003682e-02 6.241968209509129312e-02 -1.132808541910283739e-01 -1.019144807282022919e-01 -6.479337150665453147e-03 1.160296216572542262e-02 -7.390774965148259879e-02 -3.833356277973153092e-02 1.329090030855645255e-01 1.459826018881255766e-02 5.968234451148755199e-02 2.917973843013347834e-01 1.449835231951511205e-01 1.759844213060749590e-02 -1.547299454997521891e-03 -6.949286709059215861e-02 2.133763177027563768e-02 2.937744484477404494e-02 -1.482787154654904016e-01 -2.491440413427112657e-02 -1.783643993168367720e-02 -3.162570992271615533e-03 3.057892569704778393e-02 2.870190284007497969e-03 -1.472903885155097958e-01
8.705012858731657477e-02 1.193445563187164743e-01 8.614265328666517729e-02 -9.324787879665945300e-02 -2.036669645436452181e-01 2.829113673730532588e-03 -1.012296401578638427e-01 -9.535928881745692198e-02 -8.450521051467158040e-02 1.317850995136005399e-01 -5.417717277994317515e-02 -1.028881396203764134e-02 -1.768434221028737097e-01 -8.488312227027007550e-02 2.041114813356077473e-01 -1.976746191415581777e-01 -4.055619075395897749e-02 1.292242837369662889e-01 -1.325157346523521927e-02 -2.508724515352454137e-02 -1.509374027056496759e-02 -1.236346097208322475e-01 -2.719997853085662567e-02 -4.001229444116030654e-01 6.097928088524165458e-02 -9.643796850642118168e-02 2.463044963705466814e-02 7.062302890904842423e-02 1.008415551585632730e-01 -1.936300676036034618e-02 6.842268338123332592e-03 9.335792496706605409e-03 1.391311656420583243e-01 -1.419868708447179564e-02 5.285643553774541786e-02 -4.352675649081518688e-02 2.149663982554572347e-02 1.587723210621811154e-01 1.707355388091691961e-01 1.267440415839039269e-01 -3.419426527833720024e-03 -2.480562099146526797e-02 2.974882813304515761e-01 1.578052412779533398e-02 5.388020013868771024e-02 -7.442907584354654937e-02 -4.108931889551529354e-02 -8.321641602230872570e-02 -4.450072542539115772e-02 1.083542648269785191e-01 -5.895444823731023354e-02 -9.691337536300047295e-03 -1.109204751940676692e-01 -3.029634824790611650e-02 1.561588179929885960e-02 8.502501153627356478e-03 5.777091131890641634e-02 -1.268850188851509131e-01 3.408502620347366591e-02 -2.058332733926041339e-02 4.972413634705292323e-02 -1.851589618320761133e-01 5.512296887697370334e-02 -1.825279667698403649e-02 -3.379931838524538601e-02 6.236759395487970897e-02 7.550158814980764688e-02 7.551975445857114951e-03 -7.986073686192491500e-03 -1.164818285559393041e-01 -8.241592699671239364e-02 -1.358446708191930752e-02 1.059696633318066815e-02 -5.301964912265241803e-02 -4.265040658360715747e-02 -6.321355440153249294e-02 -2.293204906898216669e-02 -5.294984318941874102e-02 -1.586812505345293889e-01 -1.053905793488234682e-01 7.012682137945780436e-02 -1.261117112122439043e-01 1.157026178163656216e-01 1.290719959077558932e-01 -6.369848343392096879e-02 -2.893029783354968479e-02 -9.577900665935031380e-03 -9.023187436177082521e-02 -5.462725799718599895e-02 2.605018419259515911e-02 1.229654142635205893e-01 3.314091706760514955e-02 -3.056177552114397455e-02 -8.020110236438389439e-02 -4.127427658293484486e-02 1.182982407053548429e-01 -3.933875333986463357e-02 1.197716070734384658e-01 -2.079631587009416194e-01 1.758198833348508794e-01 4.400368950109553173e-02 -1.438312032929668915e-01 -1.254886749325819784e-01 -2.348706248813415554e-01 -1.003905689830218370e-02 -2.928958854875885476e-01 3.418602306293738041e-02 -5.832440273208700648e-02 -8.293422018465587686e-02 -6.578845023047089069e-02 -1.796393861095877953e-01 -4.986887046148077290e-02 -1.897722263115665664e-01 -1.280402138288422136e-02 -7.268752047581633798e-03 2.628497342574031420e-02 -2.567582237118743588e-02 -4.248646060121461648e-02 5.768048720744221175e-02 -5.173301322938871072e-02 2.261949791157070178e-01 8.605434759794377067e-03 -4.839680063729769055e-02 -3.942027978393736198e-02 2.715220187727353240e-02 -2.470615021348470941e-01 1.368836887242485742e-02 6.972640769852136988e-02 7.548983909565909131e-03 2.008975636782235341e-01 2.917546272645792430e-02 3.934703053954279744e-02 1.886492937898225086e-01 9.572082319912049442e-02 -8.144308892881371720e-02 1.137588921225528155e-01 1.128727903931213972e-01 3.954151481972566391e-03 -5.357743544385912965e-02 2.684704553810096095e-01 -4.978675030852176137e-02 1.433594003479171097e-01 1.719451011482950320e-01 -8.987885750378990860e-03 -2.033519256057504943e-01 -1.574328105425935528e-02 7.472661408803675173e-03 4.882492845030547701e-02 9.779205136427365774e-02 -3.701842490968278165e-02 -7.136928773347661625e-02 8.435754969958089711e-03 -2.977370364015642298e-02 -5.635223611082884609e-02 3.065583134184873826e-02 5.166543621486762577e-02 -7.834485956178763311e-02 -1.413536333255705768e-01 -5.849471625481886088e-03 -8.899115719395156443e-02 -8.147582310392652294e-02 6.292643688873048036e-02 -7.222914515722733686e-02 -1.227055210709320221e-01 -9.418623039003473640e-02 2.127692690363094663e-01 -3.336660311316842764e-02 7.482185739488783280e-03 8.971211466381037725e-02 -1.092157663572415442e-02 -1.034128639921635395e-01 -2.144513524703781440e-02 1.346677046793750554e-01 2.677110958286412629e-02 -2.863553894181746773e-01 -1.523363731307415814e-01 -5.136214503444739427e-02 -2.192703910972365888e-01 -1.225430577905629453e-01 -1.343139918236342378e-01 9.946446681680463919e-02 1.113586373201186086e-01 1.452272997562288094e-02 -9.643197334686220978e-02 7.073748450358556539e-02 1.644386123262295829e-01 2.922663244111692489e-03 -7.574027444128567793e-03 6.192056876345397587e-02 5.752306225694490266e-02 1.413016992799421001e-01 6.959217265343727206e-03 2.966703237585364694e-01 -1.135108289577839713e-01 7.091151520221243565e-02 -9.022854738178930079e-02 7.563078124088040699e-02 8.191256051377045211e-02 -1.944061582042727609e-02 -2.151112707674183305e-02 -4.739210783602456484e-02 1.456147582248173422e-01 -1.422930066257210857e-01 -4.249631479341743623e-02 -5.422115844901420623e-02 2.045310499558204154e-01 -7.812488773097090063e-03 8.322237686390437927e-02 1.161246279465632802e-01 1.010698166308665949e-02 1.547381170789463752e-02 5.323815061546031263e-02 3.774348590465246428e-02 -2.941408900414015787e-02 5.768439936800820456e-02 1.064240209864662223e-01 -2.234643470936139090e-02 -5.761858435566385821e-03 2.302243513360250349e-01 -4.391772423694023653e-02 -1.802611423318638273e-01 -5.524438891106401434e-02 -6.985385608806925217e-02 7.573767798157385323e-02 3.813083723034847439e-01 -2.967195913404624408e-02 6.189672829638081381e-02 -1.783451952380371098e-03 -3.640165199729566113e-03 -9.772492140504617300e-03 2.819054366119840005e-02 2.564805668183140486e-01 -7.803219393170542258e-03 5.094254482996764255e-02 5.315637727288921588e-02 7.337744049187343298e-02 7.551991289380967365e-02 -1.177281116489300034e-01 -2.978325543289899596e-02 1.642581276562802839e-01 -1.043150048197090396e-02 -1.529437935450320418e-01 -5.533955213574972415e-02 -1.143648887062048702e-01 -3.442858025979473463e-02 1.166412732739551955e-01 6.107991253229796622e-03 -6.027644287320905320e-02 8.995388296444470355e-02 1.033573055551407216e-01 5.609596141253630347e-02 2.938197140535251869e-03 1.397989278838933369e-02 -2.095656865209284334e-02 -1.453212608448871124e-01 -4.129651750556943141e-02 1.217196316307715548e-01 2.534659564829776224e-02 3.769066044393833137e-02 -3.098070003860203467e-02 -6.733383363292430167e-05 -1.712725804533269114e-01 8.210948236706630543e-02 7.724265638368392473e-02 4.424602903751323479e-02 -1.865882278078122014e-01 6.162811151803650189e-02 8.113419595182638777e-02 1.732872244168891240e-01 -9.305732648206610502e-02 1.877394910750077028e-02 -1.078028531767757509e-01 2.809666084061002503e-02 2.048725489167138245e-02 1.249393115634297724e-01 -4.991135692943515778e-03 9.618499571965931361e-02 5.376705584592147980e-02 -1.136880537847804462e-01 -5.011548401724903734e-02 5.445059933239702887e-02 2.009158903439035027e-01 3.878567157901625234e-02 1.475589749927817829e-01 -2.390731014333296808e-02 2.045064722264139725e-02 9.726140870727832677e-02 9.226501633467446006e-02 2.522023300692760039e-01 -6.415349939992454065e-02 5.345338435231963142e-02 3.635488579192217018e-02 9.696708876817348999e-02 1.081699011136919020e-01 5.532568644031703869e-02 -2.164257782448078885e-02 -5.360204913528301973e-02 7.434605081733673682e-02 9.438939452952944953e-02 -9.500465361981545731e-02 -1.174454374764130615e-01 2.272608543159771732e-01 3.947682173100207359e-02 1.102647102962331233e-01 -3.170568265897413113e-02 9.544611792554368035e-02 -6.789641794720617518e-02 4.671865814355111862e-02 2.729514508336831902e-02 1.183105560632683254e-02 -3.657338504623763170e-02 -2.599086119055956864e-02 -2.389926274402494888e-01 2.880986146484940461e-02 -7.388070564699401876e-02 -4.393272888198106463e-01 4.855184728321124132e-02 -1.249696116003867069e-01 7.598315769980324525e-04 -2.681061811018162558e-02 -1.828613713797333229e-01 -4.260417571348311394e-02 -1.916458744731441843e-01 -5.727260463992298739e-02 -1.590741973642949836e-01 2.676976044288575940e-01 2.471828724938267968e-02 1.787025269888620482e-01 -2.356011515303659334e-02 -1.186308584165867569e-01 4.086213388292982834e-02 -1.454546608157736287e-02 1.306430904253245429e-01 6.261779952307348907e-02 2.966796612081622903e-02 6.455209544840786150e-03 1.257231454111802926e-01 -3.003548933878446778e-02 -3.807211772199835254e-02 -1.081309592997384550e-01 3.223661179213932471e-02 -1.484318253591854486e-01 4.597649500299177960e-02 -6.209012470304855341e-02 -9.448927055365312355e-02 1.199768379463930501e-01 -8.029107367176946397e-02 -1.366102199023304098e-01 7.347724673793322447e-02 -4.887446661355987487e-02 -1.165784333734931760e-01 -1.626622148392909903e-02 5.131600223766041857e-02 -9.995884452085299077e-02 -2.115698659479816127e-02 7.668059645972033489e-02 -3.792409822550592557e-01 -6.157395416973023700e-02 1.295328685154675252e-01 7.096173664303814799e-02 -5.920092530055615088e-02 2.253466115878704698e-02 1.477477464500878968e-01 6.525704619494158976e-02 -3.256157206224718353e-02 -1.584147940633265708e-02 4.366864160433434755e-02 -1.024840546420086734e-01 5.958596609338998040e-02 -6.042475464460291684e-02 -2.444521276522045317e-01 4.463584674824834508e-02 6.603685562082210747e-02 -9.934098458451591507e-02 -1.129136132167651296e-01 1.368606472722591616e-01 -2.725852159123358723e-02 4.994505501520089992e-03 1.600447959049963731e-02 7.406239929576768910e-02 1.048822953545813647e-01 -7.998145527983319125e-02 -6.713721042569946451e-02 3.134445863496324036e-02 -9.762867210603870527e-02 5.133207950311947237e-02 -2.445342769407308353e-02 9.943162568345370600e-02 -1.409987428549176469e-01 -4.984193111453641412e-02 7.215880188202823675e-02 -1.160459275544000347e-03 7.495952742699638072e-02 -2.142093222382312340e-02 1.137989365087839350e-01 5.237601505546569253e-02 -6.450882939239220570e-02 -5.454999724680421186e-02 1.200083558629736202e-01 -7.804937578711140800e-02 -2.054727972648884016e-01 -1.601403074242284397e-01 -1.134359528471148848e-01 -3.082809902369621630e-02 -5.244918168385993840e-02 1.054450497062437292e-01 -6.207090036148683876e-02 -3.731494481848610795e-02 -1.747306276967618699e-01 3.205551772595658516e-02 6.476100909749039902e-02 1.219090097351940502e-02 -3.510566213662549254e-04 -8.687716733362610411e-02 9.658941679589438944e-02 -1.204393360657741302e-01 -2.548820107431482712e-02 -1.475917927996526213e-01 2.435833648256104274e-03 -1.330467872890290781e-01 -5.593627898225300016e-02 -2.584217756042043665e-02 1.263602088736162921e-01 6.705445059605399938e-02 -2.375295041647785751e-02 9.210362462786229887e-02 -6.057678971395173695e-02 -8.972762197481559676e-02 -1.051433175318510459e-02 -1.310774670848325121e-02 2.223006455453671593e-01 -7.984587822362050613e-02 6.902855624925430039e-04 -3.752769911228336086e-02 3.885532924492007822e-02 -7.993064087475938717e-02 1.142027267535336912e-02 1.453997986551457773e-03 -4.756823766258817116e-02 -9.004850488075710757e-02 -1.497404298129434708e-01 -8.306906638762184825e-02 2.329582371662355933e-01 -9.968563344109096849e-03 2.821703481216967721e-02 -5.797560694445033636e-02 1.893175753265423644e-01 2.623970534028568710e-02 -2.518348693240429759e-02 -6.518462387211908411e-03 -7.952732529299014197e-02 2.382048476884549570e-01 3.318389250341131219e-02 7.032560849624480692e-02 -6.628428518285078841e-02 -2.956698651945707801e-02 1.956647288819399547e-02 -5.408316329106533510e-02 7.301859015046074930e-02 4.925933381442561543e-01 1.102657240049453868e-01 3.708338273977550975e-02 6.494706242108565231e-02 -7.388712895711907480e-02 1.739992216367616806e-01 -1.200321888827308725e-01 -6.385721250474440946e-02 -3.830934367423879244e-02 9.086017385020883630e-02 4.478840998939114665e-02 8.588564152536153073e-02 -2.733354377176402950e-02 8.238207865035736266e-02 1.361480701405154599e-02 3.281844257680886084e-02 8.746811509379737171e-02 1.258323611013588070e-02 1.311943285564041717e-01 5.370965786021113936e-02 -9.662748313515434617e-02 7.603065545611878417e-02 9.474589904712145405e-02 -1.047654810270473580e-01 3.749097923938372184e-02 -1.919634788649121071e-01 2.974703477793772324e-02 1.423453967527429365e-01 2.060067910469500496e-01 -4.164571585197152787e-02 1.632691544497165970e-01 -6.657208208219574097e-02 -8.240262608259991961e-02 -1.843876566969966935e-01 4.846270484274824847e-02 -5.121389741828317327e-02 -1.519094557696120951e-01 7.044385406340700206e-02 2.476741852229110141e-01 3.606862052705273741e-02 -9.395603416911255112e-02 -1.605888271118274535e-01 -8.462534544766772693e-02 8.854529617753618964e-02 -9.071660056426777974e-02 -2.830364812180515693e-03 1.581235676495808540e-01 1.537450974921143222e-02 1.039623742782182780e-01 8.101354055319823222e-02 -6.121241149227091283e-02 7.504806361697675954e-02 1.209812780361143314e-01 9.058966869807137667e-02 -1.255338142165944582e-01 -5.399726083086300171e-02 -5.045869052641403785e-02 1.387114278408683732e-01 -3.331226723125448042e-02 -9.690651968710282949e-02 3.445819285243802155e-02 -4.852217749146307130e-02 -3.652271859473032686e-04 9.271347907282020961e-02 3.506863053447570322e-02 6.307598797278356206e-02 5.926129641716872121e-02 -1.170318959330046184e-02 1.949826764006882401e-02 1.522814479476198093e-02 -9.076515958041808663e-02 6.879116158684286941e-02 -5.430700678144602389e-02 -9.312479154684345783e-02 -8.383452127365899342e-02 6.228002928791830789e-02 -3.233386531374813494e-02 -7.165083034276302498e-02 4.654744814121692525e-02 -1.177920451954706654e-02 -1.271790120556796633e-01 -1.835481929858098424e-02 1.535884513484748470e-01 4.724944560928175802e-02 -1.630762962589216852e-02 2.882786343611293267e-02 5.803181288992819570e-02 1.829744640469406769e-01 1.162161514233476661e-01 1.206800577340493875e-02 -2.862872355576238231e-02 3.673200792502662616e-03 1.138173661550614807e-01 6.959848553830279283e-02 -9.575694966235602512e-02 -5.565808434738877056e-03 -2.784340830628015059e-02 2.181817826137809595e-03 -7.881859987337254403e-02 -6.040171330377152453e-02 -1.758991246625838181e-02 -3.180905494253809251e-02 -2.979373850475402000e-02 -3.028578697711828763e-02 2.824732823587359012e-02 -6.545023974024413715e-02 1.802774031119836265e-02 -1.479534268484344328e-01 5.332791290702373899e-02 3.692434938479460804e-02 -1.101776106910724862e-02 -1.552350257476206412e-02 -1.023114465064677986e-01 -2.434290674334152194e-01 5.045342647905041999e-02 -4.325460319987771418e-02 3.814212463288045585e-02 6.652997502765350957e-02 -3.214782072172450017e-02 -3.328290593338635861e-01 8.949187750600214042e-02 4.482979763454593598e-03 -3.814956863818736582e-02 1.035286601532483738e-02 1.729054745126424875e-01 6.908079981436411436e-03 -5.253062950914996060e-02 -3.721282081939497610e-02 1.211508444515232812e-02 -1.775731893892607549e-01 -2.862888723702672888e-01 1.383634095596055769e-01 -3.393560193616052684e-02 2.039062611084788493e-02 -2.864268404426737608e-02 -1.838532587413673203e-01 9.423927134381815396e-02 -9.215155789189923008e-02 -1.380708867274380025e-01 -4.393353507644209670e-03 3.557877474890521613e-02 2.919947455747086140e-01 1.092585196999036751e-01 -2.331849135487678443e-02 3.437391324632417533e-02 -4.265323093392645731e-02 9.216534373674786784e-02 -1.251695280416214218e-04 -1.490934101087616585e-02 -2.648507446744129135e-02 -3.778253333075889259e-02 8.034105408574977736e-02 6.243036951184786909e-02 -8.911972602549117495e-02 -2.691972756835469063e-02 5.251162909899553116e-02 8.333292032184967668e-02 3.010648882792371639e-02 -1.696662267268738977e-01 -7.719378580044090887e-02 1.304107178604892447e-01 7.952555331747439282e-02 -1.445554427132596763e-02 -6.714488380477646144e-03 8.225751142665886639e-02 3.220619522729958883e-02 5.932781672139462829e-03 3.041622490696049841e-02 9.845119101776150794e-02 8.137193032241744894e-02 1.192520502091023032e-01 -5.824770998085941100e-03 -1.010602009354703013e-01 -5.540343629791271568e-02 -4.162043743830834419e-02 -1.231497889502767007e-01 6.982023835306885862e-02 -5.968319342616538320e-02 -1.023632564962846381e-01 -1.205325506794388130e-01 -8.364818194959876274e-02 1.328920912990169678e-01 4.040133763723313676e-02 -1.541934617045817024e-01 2.116023024239943595e-02 4.860326729384814581e-02 9.359353342801805115e-03 2.144202730538373805e-02 2.799500334853490327e-02 -2.288351749065766216e-01 -7.908066234750286971e-03 1.322524336438152814e-01 1.512551888386259348e-02 2.890368771525450922e-02 -7.389255140165361391e-02 -3.938317956945078940e-02 3.046403392777193367e-02 1.336277899265093383e-01 2.435005605679307628e-01 1.646987825541956080e-02 5.365311241076131665e-02 8.320123988011593474e-02 1.588952119331669133e-01 3.725339402008290834e-01 -7.209383255530037171e-02 -1.174193233573701395e-01 1.018681175785482590e-01 2.319518804288155621e-03 3.210319435196180848e-02 -1.538783199697767601e-03 -8.804875197644413190e-03 3.129770631582248774e-02 -8.620580452734673271e-02 -1.466287849807179980e-02 1.661449829239665388e-01 2.141404700504216316e-02 1.379931802310624955e-01 3.898025457601726057e-02 -7.762302439600021753e-02 -5.805493223588933938e-02 1.384779841929685285e-01 -7.494240900896501599e-03 1.365420614823186461e-02 6.750378136500692627e-02 6.828310648277516326e-02 8.233254846562776397e-02 6.193295266953523226e-02 3.314496292687595796e-02 1.637872554194875693e-02 6.254349473950665539e-02 8.234953410336083579e-02 1.548118082277821599e-02 4.118320456019792380e-02 8.372570166051838958e-02 -1.958300984881168605e-02 5.356365344254086780e-02 -1.052767743158059682e-01 -9.962567382536945126e-03 6.294793097119505410e-02 2.633845098884378400e-02 -2.279653396464259574e-02 -1.324668433077526575e-01 -9.732391914801484523e-02 -1.483165182546287708e-01 -1.467721777514325865e-01 1.058257304548107791e-01 -4.581072169458677568e-02 4.298967603718484992e-02 -2.343671250526115774e-02 -5.117101917174762121e-02 -3.790896411250833931e-02 1.909226476652658641e-02 1.828398728324149292e-01 -6.265489496623785626e-02 -3.211739570010808953e-02 -2.082574925217877196e-02 -6.874177319094705585e-02 -1.641468327411080563e-01 -1.157613346078007659e-03 5.962727743622617260e-02 2.458074264639368428e-02 9.643255192669289433e-02 -1.096162025483257002e-02 -6.908397587569392595e-02 -3.416383766627667518e-02 1.121808236197289477e-01 5.615273752480480496e-02 -4.694425097588688506e-02 -2.731192033313140782e-02 2.286033550253494528e-01 -8.776542257518807344e-02 6.641329062386903959e-02 4.831620426259998491e-02 6.249488057783252754e-02 1.413742409868440526e-02 1.229059282574277226e-02 2.694509917884716638e-02 8.041355588151892497e-02 3.047124632016802448e-02 8.821375670009283521e-03 5.175021035014651383e-02 -3.882738366912718425e-02 -9.432598454624351036e-02 7.061951985010203603e-02 1.774718216683321970e-01 -1.233166940407546402e-02 3.626778793494945391e-02 -6.302915761083147106e-02 2.024943942329947982e-02 3.731929785337494143e-02 -1.349043971332145597e-01 -1.581063015359225566e-03 3.468914764458382038e-02 6.396273864579316015e-02 9.352771829897839340e-02 1.253928441079413085e-02 1.725583415661045492e-02 1.708568208476438643e-01 1.091341522007825832e-01 -9.819474566992930642e-02 1.453856305503432034e-01 5.099318227957638262e-03 -7.830750919805462562e-02 1.711121125581705205e-01 1.305861783449092928e-01 -4.852365487070815775e-02 5.999702498650179294e-02 4.874861795493431842e-03 -3.867624076938784572e-02 -8.348869025715133230e-03 9.024878139854097814e-02 1.232237974560246724e-01 -3.752854952652725368e-02 1.025178234549125739e-01 4.274234695978972043e-02 -1.328857199332686145e-01 4.519114079657630262e-02 1.880248780846654338e-02 -4.587885503079900534e-02 1.186628514612756286e-01 1.165571161609745554e-01 1.023595643061811222e-01 1.925039838999878794e-01 -7.384390332562665304e-02 2.820647232339928978e-01
