1.869539365871442788e-02
2.957475861558956157e-02
1.285358036503136568e-03
-3.799372510882724485e-02
-2.075783791024901626e-02
-3.870852561367334188e-02
1.405608346809888824e-02
2.443901730110592876e-02
3.545313313544007361e-02
1.592821201085684729e-02
8.409046667739326908e-02
-2.827137540522719691e-02
7.110640802963130724e-02
-5.870221624012941265e-03
8.207796948456713704e-02
-2.029014091397806849e-02
8.075063986374446390e-02
-5.996267915081165273e-02
-9.729881721888067672e-03
3.741029374358730009e-02
-3.470788395303240487e-02
-7.946982273157086885e-02
6.817186588380075296e-02
1.686883727903965968e-03
3.329304872186941711e-02
5.479229404248929514e-02
-2.719089147773666101e-02
-4.916760254600077013e-02
-1.969533686406505293e-02
4.893448643633234452e-02
3.829697027830035461e-02
7.870605307356660918e-02
6.178001249984627075e-02
4.984723574215992048e-02
-5.844041583891666086e-02
-8.670123831446183149e-02
2.869108624081062250e-02
1.385527393068354540e-02
-3.200618812757325543e-02
-4.565255561429968495e-02
4.520456752176363335e-02
1.483360492934331781e-02
-7.577876695255003625e-02
-1.609934395809498389e-02
1.784882989623296987e-02
6.974708158375550471e-02
-6.949780843199618655e-03
7.483000153689385592e-02
-2.157742743147218409e-02
2.032249016373186001e-02
-4.542189374336516594e-02
7.108107924628544183e-02
-3.766819292729199631e-03
-8.182200108766675070e-03
1.442792217880466479e-02
-4.973747014034737152e-02
2.034123953317551470e-02
-7.346867501804593692e-02
-2.698477016202783033e-02
-5.598710426588866113e-02
-2.254514809526873137e-02
-4.133720984316742453e-02
-5.755996733073186905e-02
2.912895766432400252e-02
-5.742691210163068660e-02
8.074097508118574518e-02
-6.219307439760093231e-02
5.359525073101890219e-02
-3.177754458167336010e-02
-4.528566710446953886e-02
6.516563491865562385e-02
-7.260967688549328780e-02
-2.509021381995045832e-02
-5.236506504865048872e-02
1.932661111361198706e-03
-6.543163397642480505e-02
-1.655236617148251113e-02
1.202981892240583862e-02
8.259256448659507699e-02
-7.419060440482819208e-02
-1.240435489855010523e-02
-7.093433090867684587e-02
7.287905561039224878e-02
-7.816535191185941533e-02
2.738592291837441475e-02
8.427186694358052010e-02
-8.324567220145263902e-02
-2.052883191377955635e-02
2.473602752579614344e-02
1.371761267916248202e-02
-5.104137840528606002e-02
4.853203411735997064e-02
2.095611419185416241e-02
-1.435069393907424662e-03
-9.540418494761267187e-02
-8.771725882903323723e-02
4.700247105383287272e-02
2.986953295958464163e-02
-8.758813862499711250e-03
-1.678516971435706565e-02
1.567940271039268071e-02
-1.249719789277410446e-02
4.692517636266400199e-02
-2.662133515504476813e-02
-6.976685289509243493e-02
-3.535751337623752738e-02
-8.117404279542714263e-02
-7.687500379466211814e-03
5.258753648641362188e-02
1.790563834997772538e-02
-6.871395454324100149e-02
-3.566817253707445928e-02
1.344582411698675220e-02
-1.141225816132433908e-02
6.886622114528137550e-02
4.395512275876264918e-02
-9.310708742847358110e-02
-8.003050163386106475e-02
-4.992950618337699958e-02
-5.789738992362841730e-02
-1.690939827181218991e-02
-3.338960225182156794e-02
-3.405293681282749174e-02
-1.256305325245803302e-02
2.932013377863486661e-02
6.251600094592330015e-02
1.493165824827172132e-02
-6.041335486820031270e-02
-1.196343794842564395e-02
-3.512442847492783932e-02
-2.532998616843364081e-02
5.876238867143567662e-02
-5.454072531306282390e-02
-2.054926544201265623e-02
-1.838338636116792352e-02
-2.900244563029319433e-02
-4.967665825544301944e-02
2.747233322351071150e-02
-1.674246878084844486e-02
-1.621188737419835060e-02
-7.854103403250300985e-02
-4.436908783687180946e-02
1.825265879798538410e-02
1.615381651239160624e-02
3.322105842566056705e-02
4.508456293731282621e-02
5.502684870689179136e-02
-4.134461177503351986e-02
-2.974856316676891856e-04
-1.878988562306941820e-02
7.001893484484671137e-02
3.571151962743017438e-02
-1.833898140094825102e-02
-8.229557268935032421e-02
3.151035494320213876e-02
-6.942851370812899714e-02
-1.179184617256345824e-02
-1.938068761060547304e-02
-2.731507331045645096e-02
3.282269127321645052e-02
8.540792672277265629e-02
4.064064830756352470e-02
4.339874646357886473e-02
3.103669565886936835e-02
-8.892655708228258335e-03
-5.789760602400089579e-02
1.413179517076287261e-05
2.457692950306560042e-03
5.253584472642620212e-02
6.364913814939665571e-02
-6.724570138724243924e-03
-2.439806090371927916e-02
6.977835699506007572e-02
4.286057178142005375e-02
-2.994076567669416364e-02
5.121313960278586763e-02
-7.314227688931085325e-02
-6.158001007990430986e-02
-2.111024340164790666e-02
-6.177927126001248222e-03
1.783039012335300988e-02
6.135768639309738953e-02
6.902538529684430768e-02
-2.303923103902391981e-02
-4.044866167221567582e-02
-7.431297286057352187e-03
1.128652031160607208e-02
-5.483667690550299983e-02
-4.101112707558395021e-02
2.649719256583037835e-02
1.602851683051722403e-02
2.143319542840439393e-02
-7.168487830218811530e-02
-2.616422476316423561e-03
-7.254819509289953117e-02
-6.241014307102241143e-02
-5.476155037616353000e-02
-2.612773794005812319e-02
5.168546771528646083e-02
-6.488225891682077029e-02
-4.879418967911321875e-02
-5.465705120836554520e-02
-3.785225606563691336e-02
-5.721716810156431132e-02
-3.129100278275055019e-02
3.686197778516954460e-02
3.863269205157059127e-02
-3.704588768882464273e-02
-8.396632343438366342e-02
5.927316500299355945e-02
-4.687171096182900926e-02
2.468269409941850623e-02
-3.336123032667311084e-02
-1.607791380246452809e-02
-1.291179444917459410e-02
-1.481969064940875588e-02
-1.227737910254172483e-02
5.867225246382789389e-02
-7.601490070331530513e-02
3.198038984112345270e-03
3.842846927151389452e-02
8.082902603892559712e-02
-7.378418372142678261e-02
-1.144425286359972496e-02
-5.818921709421269461e-03
1.844718789440742343e-02
-6.934791757812462654e-02
-1.957908978299774047e-02
-6.018126758722901204e-02
7.656733032618864843e-02
-3.303437901850094643e-02
-5.921080949409402577e-02
4.967208639530348857e-02
6.917100661240016546e-03
6.748936963340895767e-02
6.298611735102160880e-02
-8.864184594265184236e-02
-1.125316849941804254e-02
8.876954541507016405e-02
1.682224665301795125e-02
-6.192936684631180494e-02
-3.768576711644885252e-02
3.253456545919546777e-02
-9.731452419187118508e-02
-3.182844205096763135e-02
1.550100177369164584e-02
-7.416415699988551657e-02
6.979575550267324993e-04
2.898197583908692851e-02
-7.238974144623283591e-02
-3.953659334931923508e-02
-4.131980652196126647e-02
-4.289715853712673665e-02
6.650215011913468421e-02
5.856844545436402927e-02
4.921636419781989791e-02
-2.626769027423322966e-02
-6.965862675596673492e-02
-2.206628032409678822e-02
7.742017293764194563e-02
-6.404979934176283085e-02
-3.483069135051320049e-03
-8.504483763884333747e-02
2.424262582072094982e-02
1.785087531422073492e-02
-3.583072065847906634e-02
-6.251689620574975466e-03
-8.147829523847527344e-02
-4.376969066327016100e-02
6.975901573870214867e-02
7.248082198914365670e-02
1.540856237990765633e-02
-2.980518351792036877e-02
-3.449972929441084794e-03
5.849480430675219229e-03
5.214357747823634981e-02
-7.743413742090375640e-02
5.936468134771120259e-02
-3.825474805150786903e-04
3.515084194929173067e-02
6.693569300461824079e-02
-7.580955371429596613e-03
1.065245621358564335e-02
4.470882299382925723e-02
4.914598378853961974e-02
-6.806779484217988230e-02
6.919685187845364682e-02
3.156798464716612657e-02
4.682899105658450134e-02
-4.128444655030395066e-02
-1.041533529669775443e-02
5.742812667543931507e-03
3.475842685684236988e-02
-8.481968669328966703e-02
4.474509748189661046e-02
7.962949152319163948e-02
6.959101906836039075e-02
-4.456025711317654348e-02
7.156653065310541496e-03
-5.003724318428225820e-02
3.081471890354957333e-02
-4.551484359859041262e-02
8.176906583263093484e-03
-7.453266675546128643e-03
-4.100152341665305733e-02
2.050522847732494033e-02
5.824685809105265011e-02
4.763934299465861361e-02
-1.541789534089727312e-02
-6.215195912722361327e-02
2.398102694247877462e-02
5.526227937394232598e-02
5.326810567775661781e-02
-8.447202343693152593e-02
4.702671235130949368e-02
2.022382218110388083e-02
5.426371651435275140e-02
3.254016997767963243e-02
1.987099770995882919e-02
7.869262359839164500e-02
4.432011708931787169e-02
-1.281191867480185008e-02
4.430773774950002436e-02
3.270740181833312055e-02
-8.125754936321305869e-03
6.334187053921025434e-02
-5.822512598229908493e-02
1.789307766797661528e-02
1.394645528223299909e-02
-1.723186263646414931e-02
7.719588838427825749e-03
4.820159812848370806e-02
-1.177468226793428920e-02
1.289186109384068751e-03
6.637823390945363222e-02
-7.066538242515883750e-02
-3.591089943008413804e-02
4.847923832388510712e-02
5.074692634073341840e-02
-6.535041539849943681e-02
-4.160358264533987882e-02
-2.992766629264824105e-02
5.741093624371047116e-02
-3.572306408185517423e-02
-5.548032622159745214e-02
7.693019477824494801e-02
8.508583323418127467e-03
-2.192064456826854288e-02
-7.565495024990773199e-02
-8.317524018948793674e-02
-5.424833866117293596e-02
3.687844316675999157e-02
-8.236596244494943930e-03
-2.551885459529546277e-02
-5.964113704994744580e-02
3.285036567612201891e-03
7.475841575063200961e-02
9.486431160667574761e-03
-1.574061764227385751e-02
-4.345239386131248549e-02
1.751484361246345711e-02
6.570660257010477179e-02
-6.429217264327118445e-03
-5.005327300586449868e-02
-2.178788706415494322e-03
-3.534842535086019782e-02
-6.978160612940809138e-02
-1.201522543506482708e-02
-1.153559238864117903e-02
1.459029090246945562e-02
4.431972123383962070e-02
2.649587260754879270e-02
-4.220226957235788390e-02
-8.229030569357498326e-02
-3.018230464531722682e-02
-2.529767005312211908e-02
-3.143485121018915751e-02
7.806013897888369746e-02
6.357053013861545254e-02
4.300553065338674937e-03
-6.396625303394293249e-02
-5.045541313215218954e-02
-3.870359915978809073e-02
1.725255393691295727e-02
-5.518106150133069571e-02
-6.082399524315770800e-02
6.846157627043322758e-02
-6.089930407038963295e-02
-6.451914867790431440e-02
4.465779886830603673e-02
-5.307019776178985987e-02
-3.122374903897356252e-02
-7.161886526622532334e-02
-3.022129969662353324e-02
-9.366763056240705321e-02
2.780714092974592710e-02
-6.920777946564460326e-02
-6.399319154259830444e-02
3.046796226097873289e-02
3.769200736071204316e-02
2.426660958310761576e-02
7.401592954390640022e-02
3.184027118556727320e-02
6.264686635698392403e-02
6.295178692459330039e-02
-5.340503380383167936e-02
-2.170648894984993083e-02
3.853682931145262919e-02
5.193951617021017736e-02
-3.462151666277728246e-02
7.975080500916502391e-02
5.028396389031965924e-02
-6.139535091400812050e-02
8.092339270528314810e-02
4.452249300906881840e-02
1.335874568349257330e-02
6.934048884050596218e-02
6.333226262104071913e-02
-1.502423018168212374e-02
5.165355518449103733e-02
-4.518950328061129007e-02
6.310310498022998760e-02
-8.273943314866025189e-02
8.332355643524130828e-02
5.754192292348669219e-02
6.531527289319558061e-02
-5.883904758847919095e-03
-3.894322508883392431e-02
-7.120884400475704923e-02
7.491362317433213069e-03
-4.453130015440475570e-02
6.585406804097967970e-02
-6.698941726317601819e-02
-4.492898723415057749e-02
4.485318318789699443e-02
3.802242606731880831e-02
-2.035366031693642067e-02
6.893287400186627611e-02
-4.025536143729949862e-02
-5.965079354064652117e-02
6.216578834168590140e-02
8.449764882491793416e-02
-1.447438092628877118e-03
-3.871259566588176881e-02
5.748758398849074247e-02
-5.708661936808110543e-02
-5.988338877680265265e-02
7.049171194001220553e-02
-5.499549991696798742e-03
2.770727858360247722e-02
-3.916187379886934550e-02
5.674659202385392426e-02
5.777560658760635959e-02
-4.513136016715909443e-02
3.992983372211941079e-02
-4.886281617339784111e-02
3.761866993181169072e-02
8.114191533957890168e-02
-4.347144198184639541e-02
4.160308067534031901e-02
-6.258263501411573393e-02
1.316157763606554641e-02
7.178214150857596676e-02
8.473799994435023131e-02
-3.388670856943456350e-02
4.036097428951944052e-03
6.035012954481372427e-02
2.082924434365257538e-02
4.687939352929727799e-02
4.803062981817077248e-02
4.536617602878306732e-02
1.010690704992777030e-02
-2.138743589950366925e-02
6.973943490449954763e-02
4.841910397368066193e-02
1.819455259353240650e-02
-3.374138677840486655e-02
-5.738345523363754669e-02
6.400624296362426857e-02
-3.165843050786038004e-02
-3.505134547943197093e-02
-4.722666555818194785e-03
-3.882641103739569062e-03
3.796997743900951822e-02
-1.937491508675504232e-03
5.629256315927978760e-02
-6.473470428713458402e-02
-5.848078283518484341e-03
2.896784250524101628e-02
-3.267397963930639138e-02
2.874782410342507921e-02
1.740477036931454419e-02
1.690190638856216634e-02
6.561353993400417806e-02
5.000419653471062723e-03
8.370359863879175966e-02
2.220654479086332789e-02
2.005301914163994115e-02
2.336992482975319349e-02
7.207619842388525433e-03
7.369633990118300282e-02
5.246649920842192533e-02
-1.266919920434774090e-02
2.257348410673624267e-02
7.070946640708536401e-02
7.202449290246626390e-02
-4.407632548085013875e-03
2.761387286721404995e-03
-3.431583480158000021e-02
-6.268921902336448138e-02
1.806589668550782554e-02
-7.218476748247119879e-02
-4.200970372040174761e-02
6.304230922147900651e-02
2.713747335448804532e-02
-6.423121097251560663e-02
-2.303055581730878432e-02
-8.393136132131194527e-02
5.167757522105508039e-02
8.015533009819356125e-02
-7.321147026222757544e-03
2.104570647257813024e-02
2.719143118995920663e-02
-3.883221725180310835e-02
-1.193003185841586510e-02
-6.185986511617076050e-02
6.616149893036711409e-03
-3.420973756439048274e-02
-4.926205084666381018e-02
5.675581700343342723e-02
3.953581461513407114e-02
-1.499410176416157529e-02
-4.669996504572980489e-02
6.160917158064654203e-02
5.529826683609374155e-02
2.697254815048462373e-02
6.344693435513140689e-02
4.305691662160231886e-02
9.073445953823988663e-02
4.448465646883598829e-02
5.169316136579600596e-02
4.147326681619016575e-02
-1.887863267386317555e-03
-1.696864185376308412e-02
2.347067739085506935e-02
-1.128851153272951132e-03
7.365766881598484472e-02
6.932649603112167602e-02
-7.215177161708531683e-02
-1.052143405322851499e-02
-1.542528100155076548e-02
2.261572924767883686e-03
-3.435471884974438533e-02
2.046837585044071137e-02
-7.573116626293099896e-02
-5.904652377006770758e-02
-1.427300019812267331e-03
-8.751081456728036431e-03
8.388155131087754804e-03
-8.899189272001881146e-03
-5.032809064081158329e-02
-5.470021666066118837e-02
-2.776917403270191820e-02
9.152457340439890815e-03
5.590947683703038906e-02
7.898014366938062303e-02
7.445755291151455457e-02
1.875095410778056942e-02
3.688824493743177169e-02
-2.077899681275803892e-02
-1.501706911831074930e-02
-8.057083633486630814e-02
7.706305065975901925e-02
-6.694922004271205984e-02
-1.034581099194442459e-02
4.012862545775702783e-02
5.756782731773176648e-02
-4.230778710861188632e-03
-2.330630090844360014e-02
-7.541806287496680139e-02
-1.555720067191590679e-02
4.526727475313998411e-02
-5.931235972016833669e-02
-1.997435544340688332e-02
-7.711114264404808627e-02
5.728815786401728408e-03
6.038851089448912107e-02
5.449006491436262506e-02
-4.760734239927368744e-02
6.947112488599495317e-02
-3.802978335668858595e-02
-6.773836679799556670e-02
5.120978623317839346e-02
-1.682985876603999495e-02
3.122765975372435599e-03
6.052086503805938211e-02
-8.060335805381577470e-03
4.108693988902640398e-02
2.561900814741398941e-02
4.881354522224325143e-02
9.433101784478040847e-03
6.573885926307238003e-02
5.090857167131273946e-03
4.408078929801799439e-02
-2.837645934976614284e-02
4.457348529866024534e-02
6.961125444016457581e-03
-7.435255739383227203e-02
-6.609084161743203345e-02
-4.668989957552661940e-02
6.795799816782097102e-02
5.347639425474376429e-02
4.655203275664081958e-02
2.522252017578840294e-02
7.714721856246972709e-02
6.847976973056470185e-02
7.053679054188752295e-02
-8.128787921868009525e-02
2.485899893336627337e-02
-7.337315631981794484e-02
-5.586356439036887361e-02
5.129873120053375646e-02
-8.535289589758286721e-02
-4.073476377334453967e-03
7.109820404851044384e-02
-8.104149256995771267e-02
-7.862219397520318898e-02
-5.777547603120560676e-02
3.503087829292598349e-02
-1.397407016714396349e-02
-3.112456330951402991e-02
6.802020812197212551e-02
-1.171417399847986089e-02
6.557350308514590942e-02
-2.594593808519506106e-02
2.364597138867162787e-02
-3.155414381829662468e-02
-8.681282174248100558e-02
6.903163459184430417e-02
5.370766162871916816e-04
-3.595652770064243497e-02
7.293480767885061715e-03
-5.408065027010825615e-02
5.149125376273661070e-02
-8.854171998507608110e-02
1.089823411210660842e-02
-5.391648068816928124e-02
-3.280596715334679891e-02
-1.394334530688965366e-02
9.586874781410471488e-03
9.585372872261991792e-03
4.419927807710966050e-02
-3.097694214640931212e-02
7.422548908574147508e-02
8.479873851204262902e-02
2.786480557925911927e-02
3.662470678421052284e-02
6.924666547726053556e-02
-3.686297738465565271e-02
-2.918022594302885700e-02
3.701524905757658853e-03
5.701796662916641667e-02
-5.183060455457379895e-02
1.534870191985271588e-02
4.416971756310280467e-02
-2.834020875836127523e-02
-2.360893493831564549e-02
-3.183942703018099313e-02
-3.521961069113260789e-02
-3.696221267837168645e-03
4.006646802152979969e-02
-2.737733508326685786e-02
5.412024135478017695e-02
-4.728919943537839010e-02
2.396030694232873653e-02
6.121297175579753364e-02
-2.691734821807871894e-02
-3.735733766538991418e-02
1.488003036152888564e-02
-8.509209946523334234e-02
-2.523148114514978460e-02
5.371037032589571353e-02
-4.923866066154892335e-02
-4.037276063556102107e-02
4.470386799524055793e-02
-2.647894919964966995e-02
2.133206540264623308e-02
7.379347850330571223e-02
2.142805474533681157e-02
5.631529530179386900e-02
-6.773776935308545299e-02
4.517679496060875849e-02
1.760433176203556049e-02
-5.846787358373466137e-02
5.600785992958255688e-02
3.772004326874939945e-02
-6.941023529205131437e-02
-1.025318737881367528e-02
2.922617735079532930e-02
7.935293986108390984e-02
-1.841899768761022863e-02
-4.982563083313078234e-02
-9.049304501366537898e-03
-2.281594704487030154e-02
3.798796480475304799e-02
-2.528392644822662419e-02
5.278370840815881440e-03
5.730721199297554580e-02
1.637068994880800862e-02
-2.632451963116680047e-02
2.028860856249287484e-02
2.282171585448155779e-02
-7.254721519544661545e-02
3.105096144246983006e-02
7.481881731809031377e-02
7.245057138834742894e-02
-5.597624388597299133e-02
-6.963254756617337504e-02
-7.098526155043054751e-04
4.173356530843328610e-02
3.795660538577250165e-02
8.254876160152925177e-03
2.790724474051701175e-03
-8.255227696125569392e-02
-2.142848730962718107e-02
3.979560311756476232e-02
3.809107359478683397e-02
-2.592116118350848777e-02
6.411237814836502624e-02
1.403131021536224883e-02
-3.144310918543817557e-02
1.532933128726108631e-02
2.376388227402602416e-02
2.410767234213724922e-02
6.937543411503118915e-03
-5.895428845003518326e-02
-6.041903911247971382e-02
-6.106379476566311387e-02
1.568486431564501682e-02
-7.724491047731746329e-02
-6.995473185496081658e-02
4.683114155031421061e-02
-3.431886131565432124e-02
2.887834699612714870e-02
-2.527161150605308076e-02
-2.345112842996652626e-04
-2.009344473615180468e-02
5.931737285520093800e-02
-5.045167212378417337e-02
5.518808337458267627e-02
-7.470025290700704756e-02
1.683582918827126670e-02
8.617499590919314167e-03
-8.502628368874086406e-02
2.972804571157293060e-02
3.291853929427311642e-02
-3.360695340940520609e-02
1.885115528721440989e-02
9.518770973917168449e-03
4.267452697391435623e-02
-5.094515089669808539e-02
5.626245847474568851e-02
-3.041339397714833137e-02
-3.893200625687914807e-02
5.786954848054959299e-02
2.439912503336732694e-02
4.050883199470788065e-02
5.469280667299336596e-02
-3.517284084598151089e-02
1.775811927302946985e-02
-1.416430666324743244e-02
4.570497905916816317e-02
-8.264531806836519778e-02
8.064033815394786031e-02
-6.476792621435373265e-02
5.516999905409569749e-02
2.669707072096992595e-02
-6.054222839574003451e-02
-1.634979676161905232e-02
1.647559760970148876e-02
3.336814276476448432e-02
-8.052940419087235846e-02
-5.415337430136085706e-03
4.896391720176595380e-02
