6.216078751828247873e-01 7.548253847832653296e-01 4.871363334406205725e-01 -2.993326592346144399e-01 -4.178325070840132466e-02 -4.138853254476726473e-01 -5.424781712319793892e-01 -5.421612060136258293e-01 -3.072257762538450621e-01 -7.009063562967781102e-01
6.864848089110759943e-01 -5.846003275767224228e-01 -4.387421190784958069e-01 -1.463215708242809610e-01 2.074981726027417400e-02 6.787683729022191415e-01 6.088589825917105625e-01 -3.311318019031220250e-01 5.873824413267395572e-01 -2.100635246550356661e-01
2.942861002347087473e-01 -3.539978517069584246e-02 3.824827970727131543e-01 -2.015012041228605444e-01 -5.166071411369694832e-01 4.762008675226624410e-01 1.000767670113198726e-01 5.203166296425721926e-01 -4.879131829392037156e-01 4.367630432438484034e-01
1.769713256408772528e-02 -1.046958468618865157e-01 -6.495782596897427263e-02 9.135384135858674870e-03 5.786789033224312151e-01 -1.027140050189212644e-01 5.613576347384067189e-01 -2.385018551676165999e-01 -5.855317167270044365e-01 -4.338613788778177272e-01
-5.118889472796710471e-01 2.413570901050373155e-02 -1.863417120609812266e-02 -3.836867765030754773e-01 -1.606595066015085171e-01 -1.200760030332338330e-01 5.777236519153101241e-02 -7.218280177985797463e-01 -5.292702777222297456e-02 -4.744791515502182477e-01
-5.013312470200884663e-01 -7.346611212632472299e-01 7.375524012520523476e-01 3.751274394542446211e-02 -2.473056962748717280e-01 4.319715946591087263e-01 -3.506469934574781844e-01 5.677862418007961764e-01 -3.587032565132839967e-01 6.869875833756742267e-01
4.266224612692532392e-01 3.867478434587144354e-01 -7.008886070030621029e-01 -5.680759680220408558e-01 1.250562633853272709e-01 -5.746963911654912049e-01 -5.382140800042958251e-01 -2.272776014403309341e-01 7.426457434756484899e-01 -9.272941552246057734e-03
4.139377780307793575e-01 -6.538167120454234649e-01 -7.392622595026884236e-01 1.351089009503136928e-01 1.982496681613345451e-03 -2.422000608487301643e-01 2.325051017137887699e-01 -1.418632419844863160e-04 3.547474785798319097e-01 -3.534867399607496408e-01
5.442070121104665148e-01 -3.454251507524156994e-01 -3.722784211290437462e-01 -2.904648115870696046e-01 5.977879707454240021e-01 1.611290864362969685e-02 5.473161770603668375e-01 -7.568749859500190080e-01 -1.811478159001654598e-01 -3.650462295743614471e-01
-4.264543324967686178e-01 4.631220203861043383e-01 1.438135219819154376e-01 1.895580074604449605e-01 -1.891622740283944171e-01 -5.907005034870894677e-01 -7.517160673352614175e-01 1.602345236523068372e-01 -3.986896563482831279e-01 -5.347373915062603178e-01
5.664262654994689505e-02 1.860283339137523695e-01 5.460216192469296015e-01 -2.464664747585360860e-01 -1.869093529213985971e-01 -1.959722300511523296e-01 -2.815238482320526758e-01 3.445603489722987023e-01 -3.034229105246170066e-01 1.255302805519196152e-01
-2.218390729905939940e-01 1.762838152781065005e-03 -3.435510497791655626e-01 -3.639809087954073430e-01 -2.762236578808421328e-01 -6.841052001323034704e-01 2.596317531134673118e-01 2.746812653940619575e-01 -2.063902575189280608e-01 3.097470722321414294e-01
4.781625267752899755e-01 -2.469607209375526413e-01 -4.420697542828083693e-01 -5.305017903698048265e-01 5.125067306117445654e-01 -5.573317506797623722e-01 -4.468554736988731291e-01 6.246422912455521503e-01 7.101485674706397022e-01 2.682740013843342153e-01
5.645592496995845977e-01 -2.379103316602278473e-01 -7.195097559441158142e-01 5.049710928615079586e-02 -1.717108743829646456e-01 4.854898893663981557e-02 4.273255633333697956e-01 -2.845071961704152552e-01 -3.641569722107256823e-01 2.850673577704266881e-01
-1.926888423496812275e-01 5.856043169582188235e-02 -3.090910626428338137e-01 7.086289560858549663e-01 -6.253560628444846392e-01 2.205873921239601479e-02 -4.963140319841253256e-01 -6.528586012735561050e-01 7.387092547939478893e-01 -3.658727834218141795e-04
-3.797564844171104625e-01 6.686979414035809643e-01 4.736228090351441988e-01 -6.935803205222929035e-01 4.816603285616267716e-01 4.739953488336026699e-02 3.744160000109938435e-01 -9.223760054833893274e-02 2.399239968934472611e-01 1.169934961415121100e-01
6.369172973243123481e-01 1.763594608850052592e-01 6.114452183247103267e-01 -6.793928578896881731e-01 3.815236518720823700e-01 4.034311489593114114e-02 2.180263511168999968e-01 -3.121373308183739703e-01 1.489418780001485754e-01 -2.215761367712880958e-01
-6.351728269096695856e-01 -6.640771365387049263e-01 1.714230141375846228e-01 -6.931396215672289696e-01 1.667666384682473524e-01 -3.551956841202802972e-01 3.493277052008408323e-01 6.560356570339695992e-01 5.132420862373706649e-01 -5.929543248018844803e-01
6.063720975404309765e-01 6.373442713027294149e-01 -2.911067571256680253e-01 6.354048967157733818e-01 -4.808501993266782459e-02 1.857420325156937946e-01 4.334595672400426425e-01 -6.513895719770756987e-01 -7.879494548529627496e-01 -1.944811826546809230e-02
-4.093723663562875426e-01 3.079959665389101278e-02 6.308757492638960018e-01 3.428378053623059585e-01 -4.180791292696849348e-01 1.690412842480243415e-03 4.764749046020659851e-01 1.028723211448397956e-01 -7.092610194761034270e-01 -7.062926328602850967e-01
3.502217789195786191e-01 1.642069094321164380e-01 1.429827260562916980e-01 7.160686186650933038e-01 3.860393337622174403e-01 -7.531085993401858136e-01 -4.931669809404411464e-01 -2.800282925940724699e-01 -4.750704565359174514e-01 -6.665013002794090147e-01
-1.683899825713640330e-01 -3.255038300093107684e-01 -1.496932237256901332e-01 6.488376342818137354e-01 1.635723848893439469e-01 -4.280427490966873944e-02 -5.309692616074269261e-02 6.053202806193633823e-01 -1.297409918740174972e-01 -3.288311201671850759e-01
-3.063759226097357430e-02 -7.013999316365878700e-01 -1.124658828264863686e-01 -1.052266139097602221e-01 -5.416183310045427080e-01 7.064417305090617827e-01 -2.790973519504890699e-01 -9.501154489970105310e-02 4.996188879658485654e-02 -2.849430601885369341e-01
4.458815900022078949e-01 4.637848228161415842e-01 -9.204321456979133731e-02 -1.831128747639659271e-01 -1.669694297875218836e-01 1.261693687772472983e-01 -3.387497616035789472e-01 5.500037083849848019e-01 -1.252853288109101459e-01 -7.242899531283452097e-01
-3.753454177318372165e-01 4.409551884570568347e-01 4.480684654118025634e-01 5.794753798320281257e-01 4.241810058569169817e-01 -3.793751565607914600e-01 -7.226427377626752913e-01 3.182021592988728553e-01 4.910636479507766716e-01 -4.740235069369833770e-02
-6.362692412235225747e-01 4.853122019823433164e-01 -6.240171842834687510e-01 6.958838932778365072e-01 -8.230526958073086305e-03 -2.134193760261790807e-01 3.423598515071245574e-01 3.349851939593277705e-02 5.340055863802539715e-01 3.267070272249679164e-01
-7.002075735380208776e-01 1.911680283718613649e-01 1.199362190702895625e-01 -4.851956691890482731e-01 -5.404957171990902864e-01 7.341084310914257616e-01 -4.072196684457729532e-02 -1.048694256405387770e-01 -6.155036389371643102e-01 1.952161527095060967e-01
-4.053617180502592232e-01 -1.088969119680899406e-01 -2.779623535224239328e-01 -6.187960114962475222e-01 -5.513777387762403004e-01 2.572027207741381556e-03 -6.396386842687817875e-01 -1.828235699158495542e-01 -5.375579982194131912e-01 -6.662873459290917788e-01
7.422768539765833840e-01 3.990879411952646949e-01 6.801536891501969162e-01 -2.089387703413526920e-01 -7.237048138711391077e-02 1.936462287337842592e-01 -2.927218831613837557e-01 6.474913534444141083e-01 1.894737107800582854e-01 -3.363128255264118405e-01
-2.083990750022152449e-01 -3.368405272787850513e-01 5.291684387279875779e-01 5.960617838452090256e-01 -3.001609227216270326e-01 -4.250381099086570358e-01 1.224555402629476653e-01 -5.247588050398520609e-01 -5.776792147203738681e-01 -5.754008748060123191e-01
-5.828500902072754064e-01 -4.388682858260049557e-01 -4.177607664044855063e-01 -1.549878742118323237e-02 -1.161620320756797005e-02 -2.366224255228406015e-01 1.457007588687010136e-01 1.701193323145862024e-01 -8.662034400380733135e-02 9.357552077432873538e-02
-3.750694146566556642e-01 2.488354855016364220e-01 -5.612044245238391182e-01 -7.055413381148398777e-01 3.248333827786749617e-01 8.514032592853468251e-02 3.366017212491929644e-01 -2.454937703941351135e-01 6.271635779034849811e-01 -5.649825498249873013e-01
3.565941447914260376e-01 4.583597385230453458e-01 -1.420316675964459208e-01 7.466365256129110506e-01 2.261415120441729043e-01 6.424135774656859477e-01 1.852018079035662457e-01 -4.735991946589090396e-01 4.356038035821191423e-01 -6.534548590080174746e-01
-4.391635611173626552e-01 -7.158700561513997584e-01 2.162657419980807405e-01 -1.554788528313278406e-01 -6.896991161959273864e-01 2.921993842376521822e-01 4.766967157665640831e-01 2.079719783248880904e-01 -6.790785704300515979e-01 -1.190303643633748021e-01
6.174544833005813915e-01 -1.605294989482215495e-01 -1.753515273228966886e-01 -1.883258182602449149e-01 7.014211530088640956e-01 -6.842442009078988363e-01 3.587455282720261596e-01 6.485402721347042210e-01 2.480630806643222830e-01 3.338391453264091258e-01
-2.969841812304460094e-01 5.130385539181028243e-01 -1.439657503780538972e-01 -1.996865918361953873e-01 -7.301286106141280374e-02 -2.157329547609573017e-01 -1.217860588007223244e-01 6.206930440822773232e-01 1.423176876006590486e-01 5.363360496126043930e-01
1.422872578414650646e-01 3.217882607495476388e-01 5.091786158893591985e-01 -6.762434668954682149e-01 5.859676086307104015e-01 -3.050130075891357984e-02 -4.768506151230994528e-01 -3.063809137082122991e-01 6.576591051139729638e-01 -2.567280927803148316e-01
-6.905247349930859757e-01 -5.670522407055533787e-01 -3.809927288763881870e-01 1.579063148966573238e-01 -1.886179000197172329e-01 -1.634931916843008481e-01 -1.426306824674186680e-01 2.020060358230233999e-01 7.193438702629095793e-01 1.394354556537703849e-01
1.977725703002309876e-01 -1.242141717009483115e-01 5.595073618301267260e-01 -5.988963603457656548e-01 7.226630436791000589e-01 -6.383982633964399023e-01 4.292227909531882296e-02 -1.774339046310266857e-02 3.980243502347584617e-01 3.732984330802966433e-01
4.407146201888617054e-01 -5.310649943087334401e-01 -5.624906058515172225e-01 -2.948712359444026765e-01 -2.478659403661737648e-01 3.278703241133036905e-01 7.271215898676217648e-01 6.826642893470211693e-01 2.466582064599179280e-01 7.464363543345142737e-01
6.207762656208795082e-01 3.535125511050159486e-01 1.873688518346020015e-01 1.457765574602775394e-01 3.712976323845302851e-01 -6.589636107649117502e-02 3.266508110917061281e-01 1.865815206242014967e-01 -2.753393707554430136e-01 7.449304312560380836e-01
7.456529939345255542e-01 -2.772271086027345843e-01 1.206872574671392084e-01 -6.847824290546521420e-01 5.731761661715890632e-01 -4.699667880849024981e-01 1.962830193266637269e-01 -3.645694561146675672e-01 6.500950594182808295e-01 2.394810922210852400e-01
-6.720084357425842869e-01 -5.973424484322322758e-01 -2.560941971814670870e-01 -3.374919852009788945e-01 -7.101353797720144634e-01 4.264254660357477689e-01 3.247364451561862014e-02 -2.507781217939107354e-01 3.512659446128632013e-01 1.608005195117581110e-01
-6.777375377925533018e-01 -4.812158380590430551e-01 -3.090447674955634771e-01 -4.822097442909865639e-01 5.275680868160520509e-01 -5.856965554891180314e-01 -2.788915515422658031e-01 1.662567606925975383e-01 -4.669433508200190319e-01 -1.964162569956451054e-01
-2.162902039260044262e-01 2.752397054272787691e-01 1.472730332582598556e-01 -6.432016244711740161e-01 1.034346224316794044e-01 -3.980383199767308922e-01 -9.879432920673640595e-02 -1.135271148670952551e-01 2.233097217021152991e-01 -7.077002722725695971e-01
6.746291060699945996e-01 3.749385061810313613e-01 -5.440808267035526224e-01 5.234660793374186494e-02 1.828532081576953183e-01 -1.252347738939207089e-01 4.872026147644994976e-01 6.268606365396672819e-01 -6.899928673127936340e-02 -7.485711086506999790e-01
-3.714100263345951891e-01 -5.052039605380976850e-01 -5.752166193583884146e-01 7.156014647013614338e-01 -7.271480059496518988e-01 4.455707697167999859e-01 -5.932377277707279184e-01 2.562056321916262869e-01 4.555698219104458054e-04 -7.517185802392097882e-01
-4.602234048070552030e-01 -8.831703043570490741e-02 -6.073820314301748846e-01 -1.836005311745769197e-01 -4.170105491420150190e-01 5.537941310264080652e-01 -3.571126181397397681e-01 -6.140974174676053776e-01 -3.215527043943074426e-01 -5.793442763703611220e-01
-5.377755693168616569e-01 4.937466713887405101e-01 -9.925403297331888974e-02 -8.784968934477350999e-02 2.727763181620275826e-02 -5.136506129051136016e-01 1.924708485179514204e-03 -8.063381855004582432e-02 6.319270445589990626e-01 -1.833326645970834723e-01
-1.173390864467534905e-01 2.334330049866071427e-02 7.399758262882047966e-01 5.345355385565602191e-01 5.985743338447330197e-01 -1.188343881229461524e-01 5.090634716538677829e-01 -3.903616645073540448e-01 -6.806580617290451662e-02 1.869416678138078464e-02
-2.682705304246221223e-01 -1.708513110969454296e-01 -1.050636823415516119e-01 7.228478234030384364e-01 -6.154333098393535151e-01 2.125888692469266039e-01 2.803714025148173680e-02 -6.929203650052757624e-01 -4.810979073922125870e-01 -1.715828001491651877e-01
3.948526170252942835e-01 -3.135835402221132107e-01 -5.463210822728568061e-01 6.322457795177490736e-01 -1.157513738295498362e-01 -3.838249167937188289e-01 -2.825579651462602482e-01 2.869237048411109603e-01 -3.083029153709450632e-01 3.883088564736038029e-01
5.442637633244218343e-01 -6.172449497471892421e-01 6.476375503906296460e-01 -4.318891528036671867e-01 -2.834491432909352349e-01 1.432076646291577937e-01 6.672647074685746915e-01 -6.160126273409965297e-02 5.018196801678294072e-01 -4.349041572633950414e-01
7.119189496506908021e-01 -2.199494333214820352e-01 1.755312549433888647e-01 -1.540067839201545719e-01 1.811486226755811002e-01 3.728764424020347135e-01 4.740693824277378843e-01 7.161084516722857618e-01 -5.263935111536957034e-01 9.359454093005521724e-02
-3.357563283299506707e-01 2.924784332994701530e-01 -8.134634833138846069e-03 -6.950518619735868153e-01 2.416005470988282777e-01 7.525250760508619408e-01 2.536024653537186091e-01 -7.154755888820106824e-01 -5.372113058652673301e-01 7.142701580009335194e-01
-2.384350755506647601e-01 9.401350192779107939e-03 -2.149147665175196176e-01 3.735418672277239227e-01 3.769048411169877433e-01 7.411352664105644861e-01 4.198592581716661942e-01 1.717871246701430793e-02 -4.208497355849097898e-01 -7.449199019899791496e-01
-3.115052543268575502e-01 6.629145008845938047e-01 -2.623241938342954493e-01 2.275656683103373101e-01 -2.167054898606027291e-01 7.272761998833736641e-01 3.756766220900664005e-02 -1.004733943723003647e-01 -6.367159227534916477e-01 4.519749998902481969e-01
1.931532918807033761e-01 -6.441856051175741671e-01 1.839950547530699587e-01 1.758807128421840393e-01 -5.578873940966289774e-02 6.683825355853259542e-02 5.801171221692850155e-01 5.836896689637367103e-02 3.118268026349050315e-01 -4.365627161804975787e-01
5.335093678392335281e-01 3.671972886656587609e-01 -4.994068417175003827e-01 1.140008001880964128e-01 5.281844316971666675e-01 -7.844521891996510121e-02 1.656049446036338968e-01 6.185188984810631174e-01 2.658232759698198611e-01 6.836062425557339894e-01
4.653978292258864058e-01 5.989415921675088628e-01 -1.791810321598560074e-01 -7.009266544389376463e-01 7.413781058140598290e-01 4.159866868167849674e-01 -2.517084779409655693e-01 5.665260136601643071e-01 6.377110258459104397e-01 7.420167252304019634e-01
3.005716684569988972e-01 2.697929196562281473e-01 -1.628376217725640840e-01 -1.029569498867066203e-02 6.940456807748364154e-01 3.748000673818248085e-01 -4.039160279361221351e-01 -5.664492115848647202e-01 -7.191000489118608806e-03 4.532706891813158556e-01
-1.244171917603475314e-01 4.721596988957672547e-01 -4.122817325636264352e-01 1.358541659512468580e-01 5.228704183484444989e-01 -3.049572930297256290e-01 5.421478376674067068e-01 -4.588349687883527817e-01 4.811084207059255213e-01 -4.955185319432786617e-01
-5.725867583425935381e-01 6.990874702188204504e-01 -7.342762240884856961e-01 5.823860811390797476e-01 4.807562457775238496e-01 -4.484258898445210861e-01 -2.010912651130031259e-01 6.369558288104703037e-01 2.993218693023518284e-01 -4.608333152541486122e-01
-1.189662890632614406e-01 -6.455292997773383057e-01 4.524070629485751338e-01 -3.435566514466067423e-01 5.444370617630656800e-02 6.332818367990314945e-01 -6.048879671345541720e-02 3.928978620509925301e-01 -2.679514739885699437e-01 3.088740091815396840e-03
-5.762324861799673625e-01 -7.315521775391738979e-01 6.458010576522009716e-01 -6.416206263210164629e-01 1.235165913839955110e-01 -7.244228222615363144e-01 -5.581965797460395340e-01 4.303634836236299721e-01 1.125661254026193159e-01 -3.857721612107565257e-01
-9.572733148046029539e-02 2.180914999903227347e-01 -6.218305994445042506e-01 2.890671201282751235e-01 6.017494956108164761e-01 -5.842105669957532443e-01 6.634339331451999389e-01 4.011334646923803149e-01 -6.858650895818546589e-01 6.658815274992481159e-01
3.443899650881081936e-02 -8.489710425158142337e-02 4.593905727099913128e-02 -3.568458614482303837e-01 2.350564920602762065e-01 -1.124619451256713976e-01 -1.513219050834949952e-01 5.993674218673334941e-01 7.231011632048459647e-01 6.439399661593246948e-01
3.791005926319085950e-01 2.934239529172537053e-01 -2.061325596956709860e-01 -8.773624803833299235e-02 -3.860494399918386610e-01 -5.101475990275130545e-01 1.140865813725071842e-01 -3.974105336152413681e-01 3.938229990161079552e-01 -1.315011902282423595e-01
-7.793636885360184785e-02 5.399421755922352295e-01 -4.087519317897916893e-01 4.438372393673139377e-02 1.231401603202049305e-01 4.012285721869312538e-01 -3.404532289091932173e-01 -1.241637962941787993e-01 5.848252822077869562e-01 5.852066035904758268e-01
-4.151077720841283014e-01 2.403145031412853294e-01 -3.013641573256352624e-01 -2.726564123738711709e-01 5.178510248175017816e-01 2.083816527444083688e-01 -2.258237324347698027e-01 -1.165061473532473940e-01 -6.266929154923154277e-01 -3.109349678301958075e-01
7.463991967634910907e-01 5.797804931407115614e-01 3.691900350293445543e-01 4.137568785823836914e-01 3.964647162710604467e-01 -6.553076785482705446e-01 6.185149690865896499e-01 -5.114185339484808024e-01 4.606559146505943558e-01 2.125021685377434244e-01
-2.140724438556006748e-01 -1.726695730353018932e-01 4.541224497819468797e-01 4.872769151108943819e-01 2.845568586807379341e-01 1.882944105021155945e-01 -2.168431154194962185e-01 7.574564369011345111e-01 -3.103461173456059652e-01 1.047711606864190209e-01
3.368427122668736229e-01 -5.831232930182215224e-01 6.189883584636984848e-01 4.684967355928181254e-01 -5.451728526012656895e-01 6.290841402836356844e-01 -1.442952075288468639e-01 -5.103439849253076366e-01 4.662372035642108892e-01 3.790608526369998454e-01
-7.300229833874484209e-01 5.304570478802799194e-01 6.538115407327528550e-02 2.527323524131160903e-01 5.188890659354585821e-01 -6.097528672634960900e-01 -5.274764158554735571e-01 -5.440919425380884578e-01 -5.489038358883248092e-01 -7.521937066330985910e-01
-3.023731179844710848e-01 -8.592888511298295284e-02 1.868235743543714411e-01 -1.174682709031236588e-01 7.111031930972727677e-01 -5.746889291584146298e-01 1.944001045069402300e-01 3.215828960499642619e-01 1.275597294138276772e-01 -1.953861983449378947e-01
-5.133940111710414422e-01 2.149051680450439483e-02 9.202017356353256461e-02 -8.342285897766615888e-02 2.966347192153994672e-01 5.594629147633841670e-01 -3.646166362473244882e-01 -1.523231274044656858e-01 4.078580639632887750e-01 1.198085990374027909e-01
-7.037377707103379398e-01 -2.525416196422025084e-01 9.780010787416026918e-02 6.001570024296040140e-01 3.672917058620120412e-02 4.528715581676586721e-01 1.562147853698107602e-01 -5.701091622251837077e-01 -4.378209862251773443e-01 -8.764561518750746058e-03
-4.771683041377529633e-01 -2.957752002518649337e-01 1.095989969359135174e-01 3.888220083634271185e-01 5.812998988139129741e-01 -7.440758648273805287e-01 -1.236435982955760987e-01 4.294453515259691323e-01 4.548616995015846709e-01 -3.843936555237869590e-01
-5.433156107133204488e-02 -3.146177363452720005e-02 -6.231135645020582370e-01 -4.720668224879727704e-01 -5.754310701884794987e-01 -3.019234628838303180e-01 -6.461364338198052337e-01 -4.527948357582138872e-01 -1.343020084635664080e-01 -6.140893045623979640e-01
-7.036673603352090467e-01 4.895352085242446472e-01 6.563261765196142239e-01 -2.728878436513220707e-01 3.310336297096720670e-02 -9.586553738221964939e-04 -3.655933144676972169e-01 2.196848098449115036e-02 -7.317543623594368052e-01 1.764440019094570822e-02
5.692756626429278377e-01 1.703655567076000632e-01 6.480403815688503544e-01 6.334280250227869447e-01 1.690111793223104675e-01 6.474600865842318476e-02 7.144267408214655113e-01 6.449506450535713586e-01 -2.116335685903703023e-01 4.843341405230294772e-01
-4.770647181297890116e-01 4.837000261068506723e-02 -5.717279183629533218e-02 5.325164233992704110e-01 -5.420362578328117298e-01 -5.425048251827019330e-01 5.599988317357778023e-01 2.822172673364605200e-01 -6.104749448324717775e-01 4.536870910434253057e-01
-4.804383311978793203e-01 2.682750730375846326e-01 -6.749901274866628720e-01 -3.154321317269700997e-01 2.248751400632932260e-02 -6.686064969660168167e-01 5.411178851424102154e-01 4.308436827573274841e-01 2.780600032715346837e-01 -5.462382093089225565e-02
-1.662423675668108503e-01 -4.685839810375482806e-01 3.965517019527856069e-02 -1.721051700647323324e-01 6.735718870407093606e-01 2.776098859500518434e-02 -3.136745457179273000e-01 -2.042698237849503995e-01 -5.596739165925966875e-01 5.344639678633230501e-02
7.399260776156751929e-01 -6.630333755435103837e-01 4.696481340397088561e-02 7.457674984162626641e-01 4.144351198183737761e-02 -1.061672436871253511e-01 -2.211007057099448614e-01 -1.532892402603111270e-01 -5.189536164353596437e-01 -5.379410322742635975e-01
6.401884538976527761e-01 -4.578510981619891007e-01 -3.423933831163679109e-01 1.274788574888939263e-01 5.823371526187027802e-01 -4.271414192971760282e-01 5.625457477747805024e-01 -2.919375750913760226e-01 6.481080544336542681e-01 2.585627861618367551e-01
3.463199147092461128e-01 3.098602256548527722e-01 -6.429177235587845152e-01 1.236774907726669037e-02 -3.235417594594180990e-01 4.119472991082140378e-02 -3.562237440433828617e-01 6.405599032927127012e-02 -2.946769915208845986e-02 -3.913076166279108037e-01
5.896372996712072601e-01 -4.545228799837756073e-01 -3.439490550952860048e-01 5.653752162857628161e-01 -6.815754058439389418e-01 -6.457047591763711569e-01 -5.942611340697020461e-01 2.133245962424925590e-01 7.403035307123519981e-01 3.657651544945014210e-01
-3.053717251832258617e-01 -1.874014705880113763e-01 2.859258944851690853e-01 4.536389055778585755e-01 -3.068020951339615540e-02 2.894623881589758474e-01 -4.608639088363229996e-01 9.489013361574880068e-02 -2.565851246857216439e-01 7.282538898291084362e-01
-1.609759454078655561e-01 4.731011786312432355e-01 -5.411863665332565798e-01 1.674873412242882387e-01 2.055367249652327033e-01 -6.484557996800534019e-01 -4.156195430647333655e-01 8.125051424059544225e-02 -2.398767470937685498e-01 -7.039151987998064630e-01
-7.101279682835424101e-01 -5.311449332077675667e-01 8.522174110297377203e-02 5.937670871826939978e-01 3.807085219590352065e-01 7.426489738052199918e-01 3.811552436532672505e-01 -6.256220078238965421e-01 -3.337293835063679381e-01 5.403270829944395448e-01
-4.796862155965919694e-01 2.250484481380283230e-01 -6.050785634585003070e-01 2.974511876763891727e-01 1.400119969159621391e-01 -5.068142427410575745e-01 -4.020399326284834207e-01 -4.045530043068421566e-01 -2.196690537663491608e-02 1.920393303770610016e-01
4.835328896661873488e-01 -5.895967131836140629e-01 1.213419267548683927e-01 8.424747415528548167e-02 -4.461633388295719316e-01 5.696707511847286520e-01 -1.715689675857521579e-01 4.756037846102158240e-02 -6.630344470464391571e-02 -5.888621668673619247e-01
6.639987095024874053e-01 3.477975758594400446e-01 -1.422243981867649110e-01 4.539329813919639189e-01 -3.085597100677093252e-01 1.382211869222855494e-01 6.806485506030182098e-01 -3.759514754609719622e-01 -6.287943865605355453e-02 -2.993250643240004671e-01
4.687928000893211156e-01 -3.562141608653796032e-01 4.697833049750579915e-01 -1.134811033398160640e-01 -1.655223124449253236e-01 4.925662586914917318e-01 -6.684830939251861226e-01 4.034316028983103708e-01 3.197572631472710841e-02 7.933085042347499949e-02
-3.398194552999719287e-01 -5.037858788535808374e-01 7.017995685600624256e-01 2.993414898068018637e-01 7.196272070640628016e-01 -2.947051791586838831e-01 3.804945808308899096e-03 -5.790015478745409450e-01 6.559945349370552847e-01 -4.147336656287011758e-01
3.223034093259747879e-01 -5.127237615525783720e-01 6.934615830765200606e-01 -3.551745040500832729e-01 4.140505264216152725e-01 5.285823291846094563e-01 2.984084821414249578e-01 -1.841576854914137307e-01 -2.386856282290890641e-01 8.660137331690957729e-03
-1.033781785211306675e-01 1.116425749713831211e-01 3.706417059703479566e-01 5.040202834383694652e-01 4.321303161265543924e-02 -5.132162164986325825e-01 -6.783501279089841907e-01 -3.075202083389578789e-01 -1.831121681154354863e-01 -7.384593579402356500e-01
4.773851195113205936e-02 -4.233140140541484797e-01 -5.601560581540774297e-01 2.884566279378212861e-01 1.139812997091600028e-02 6.960721209828374390e-01 -2.365299930312824706e-01 -4.411295001352444900e-01 -2.373213282812043912e-01 -4.423978245773216300e-01
-1.737938484510056225e-01 -2.574148865343731662e-01 4.559759558168774429e-01 6.917174475317386939e-01 4.161205627432641996e-01 2.856363020995195123e-01 -5.335541609889639103e-01 2.331683256743924126e-01 8.727924766223950359e-02 -4.273428286648895402e-01
-3.580319195451996395e-01 6.554673743439627387e-01 7.338470670814273289e-01 4.304067018461050359e-02 3.946350556403663279e-01 -2.806748972109885387e-01 -4.208385238211305723e-01 -5.564046635681869635e-01 2.448046279076930010e-01 1.928370698128258620e-01
-5.425307042644093025e-01 5.546672998726089876e-01 -2.031445683058598628e-01 -6.517574284507493543e-01 -7.565655092103831247e-01 4.174879524945528386e-01 3.442143919823210663e-01 8.714363377533683452e-02 -5.688463594881324470e-01 4.261534267902991613e-01
1.535740958105420995e-01 2.720925370121639042e-01 -5.090928667235596894e-01 2.283744109197191341e-01 -5.564898227701552819e-02 5.958602100294420056e-01 -4.495686205504200172e-01 7.149779078040437996e-01 6.269974009768863876e-01 -6.967836287156615738e-01
2.123698726200414222e-01 4.060901830130032586e-01 -4.939594078467938743e-01 3.946240453980903173e-01 -3.523691380475802992e-01 -4.371881171375321395e-01 -2.275394283217396785e-01 1.480113279795481074e-01 6.996286326505549713e-01 6.784391547029907654e-01
-1.350175383300562110e-02 -2.941471460016970019e-01 -6.739254060073170960e-01 -6.155934034728343524e-02 1.323743170489648929e-02 -3.083564519595856646e-01 4.890080675936027133e-01 -5.498439971375888025e-01 1.938872623925547989e-01 -5.571626637170288276e-01
1.014548224979817809e-01 -4.607260374010685999e-01 -3.062542918767786615e-01 6.947299810979489232e-01 -1.616543764472724853e-01 6.705771480485276381e-01 -2.203229946772435610e-01 -2.588583339817407958e-01 5.825741502124267557e-01 5.909432121953941408e-01
-2.667852066193654448e-01 6.199437724297861968e-02 -1.237531395231582648e-01 -2.613003214058663426e-01 -4.530479741982196967e-02 -2.152862613807571615e-02 3.164537156464524714e-01 -2.406314557279605748e-01 4.742224689271886534e-02 4.169412096308969251e-01
5.725126968524381077e-01 1.707516939346111207e-01 5.863967353447073760e-01 7.454043234109776206e-01 -1.110243544359569706e-01 4.704491632741584772e-01 7.151401234544239038e-01 -1.489349354730535868e-01 3.807160506531836464e-01 2.639819592466389753e-01
6.880084732138527226e-01 6.378351153089664161e-01 -6.884012771191049262e-01 -1.743713570953467074e-01 -4.950656270702086248e-01 7.372062965070990126e-01 4.326786720346920689e-01 4.486746170095547437e-01 -5.782481112924481303e-01 6.839650548602250746e-01
-2.303650572427483056e-01 -4.341046504658202521e-01 3.710599388084091094e-02 4.652273668845768317e-01 -3.005040346575780230e-01 5.639916024416513629e-01 4.868198744351002749e-01 -3.028181585377476628e-02 -3.397246419436364961e-01 -1.243812685897738995e-01
1.996750220418354593e-01 -6.582031759623929723e-02 -1.358773604104094590e-01 3.547558497199024274e-01 6.195104075990948145e-01 2.928704777790306357e-01 6.225254341125106144e-02 -5.605930264218264014e-01 -7.322208559045164655e-01 -3.824892282550508282e-01
2.711848287317222272e-01 -3.174235393721377974e-01 -2.695633841828566357e-01 -6.091719048220716193e-01 -7.291166817761055574e-01 7.012834023804388472e-01 4.888588217567352845e-01 3.628633529507192534e-01 6.838661175280166260e-01 -6.912717068342916216e-02
-4.077027680022428102e-01 -1.479408073136305735e-01 -4.191883851199535438e-01 4.164923292677013555e-01 7.384998447801268684e-01 -6.519857654139963321e-01 -4.055980221648752826e-01 1.937591585102598282e-02 -6.632088645511030611e-01 3.059536987038058431e-01
-4.380185530741019240e-01 -4.640032914474782055e-01 6.451004893017069364e-01 -4.990896153549937569e-02 -1.905840430840873012e-01 1.155804343937532480e-02 -4.280534396805386055e-01 -7.256483548931530470e-01 -3.874690760212911450e-02 5.436925491852501180e-01
4.432454741227414563e-01 5.022554969381981538e-01 -3.325210117331039439e-01 1.472131619697312210e-01 -5.691829350837167567e-01 -1.637937713810883877e-01 6.788416878278200617e-01 8.940971851943972648e-02 4.700104660683949720e-01 -3.768430676856023842e-01
6.865841136585438820e-01 -1.318814015681716960e-02 5.137095128069079086e-01 4.437570631867571169e-01 5.738363443666498753e-01 -4.043713881075707284e-01 -5.516169998027828925e-01 -4.247638087657976125e-01 4.599741383065595879e-01 -3.708197687574357748e-01
3.235706817619549702e-01 4.176875208221039748e-01 8.847963630105887267e-02 3.784728665822026383e-01 -5.040043094752046926e-01 -4.374211476533342857e-01 2.627934408104789510e-01 5.711904492713807402e-01 7.431128875404764411e-01 -7.757642636593484187e-02
5.969007162103608793e-02 -2.408753316859958971e-01 -7.388228857507353475e-03 -7.519623492406630749e-01 -6.428880437323963859e-02 2.180593691542402068e-01 1.301359523933758311e-01 -4.692784693239397398e-01 -3.238220733804303975e-01 -2.312507010653891693e-01
-2.915848989467170749e-01 -5.733105687667968686e-01 3.123320900370740727e-01 -1.916499041660929548e-01 2.522765223978513105e-01 2.502356726628754968e-01 -5.032109486212731353e-01 -6.654099697186766083e-01 -3.267745174761276239e-01 -2.530316500960466120e-01
-1.506045994414131339e-01 6.908131684727396582e-01 -2.974381231508481105e-01 7.011836933013613216e-01 -1.940848102971199363e-01 -5.956370074172829404e-02 3.768476970819511496e-01 -6.669509199788359322e-01 9.928813579221588970e-02 2.362252418749126726e-01
6.170687533240196698e-01 -6.300302644190806101e-01 5.468092870700824032e-02 5.809062308944940023e-01 -3.568900395527722647e-01 3.170595820215657001e-01 2.133510265141683182e-02 2.155817977152241771e-01 6.734582479225117435e-01 6.980981693386543174e-01
1.547950492576253279e-01 7.276152120270877599e-02 5.689228890862185750e-01 1.166602223536526012e-01 -6.893882593539710779e-01 7.050633811559128272e-01 -1.604370009779724493e-01 5.740945330502983390e-01 -1.173534904593117045e-01 -2.608699161239500519e-01
1.265854247029559732e-01 3.379468775781245271e-01 -1.032784094959847410e-02 -7.564408051934127242e-01 -4.791729182308346879e-01 -5.194832286879024208e-01 -5.750164800266079901e-01 -7.052508688199958797e-01 -4.163392035160344284e-01 7.411050173271326313e-01
6.046233418699143991e-01 -1.518526262514446890e-01 -5.078256298223815524e-01 -5.022191985760203481e-02 -1.866840759663693783e-01 7.146150030617257620e-01 7.087865853016711570e-01 -4.245117451853520074e-01 7.964504396789781615e-02 -7.332431648009632985e-01
2.080627965945292257e-01 6.812410289638781702e-01 -4.465458652394563299e-02 -6.404482420397541453e-01 -2.215093427933677028e-01 7.234061810621720268e-01 -2.939884421704416773e-01 -7.157661819019304206e-01 6.021757056981159595e-01 -5.689974235972598132e-02
-2.706638560517246606e-01 -4.168284422270623346e-01 -4.216788040558915873e-01 -4.654677579164956391e-01 -1.055818263489819581e-01 1.984141080921764111e-01 5.598212915081163255e-01 -3.825906633414418168e-01 5.237231056342053215e-01 -5.344321140849922491e-01
5.871036200582008258e-01 -2.767939059546311031e-01 2.387427448013732523e-01 -6.373806487264187526e-01 -1.601865352675554133e-01 4.676139541381500453e-01 4.690984683952388323e-01 6.828840324498958170e-01 -5.851092950090657219e-01 4.949338500692349596e-01
7.473855428909980114e-01 -6.704431713143199634e-01 4.715187444204032574e-01 -6.054500678113547973e-01 3.896624102975931869e-01 7.001152912533484263e-02 -6.047826990199410835e-01 -4.215413599833275349e-01 8.385469237879418850e-03 -2.415301746741820299e-01
6.352675352888141891e-01 1.422754710772051734e-01 5.620078218372004386e-01 -6.520043963830025602e-01 6.839401396512605480e-01 -3.949015375980048925e-01 2.408767451878646992e-01 -2.010664306904763610e-01 -1.364225410902121793e-01 1.116207218755862346e-01
-1.645953580841698349e-01 1.862683837266630726e-02 4.463992398510059911e-01 -6.645341297792570767e-01 5.755220840057997389e-01 7.432888163495634526e-01 2.490862036202271812e-01 -2.257492611772719815e-02 6.527595003532083995e-01 6.450255656401220339e-01
5.390995049156697139e-01 -7.572546899141268106e-01 7.208970518772752634e-01 1.875328562302171209e-02 -1.142728471638803089e-01 -4.837316096958971801e-01 -4.472371722100343394e-01 2.641990934198117369e-01 -5.655403552511695242e-01 -5.080849052256326548e-01
6.151761939524681422e-01 6.476822929125148898e-01 -7.024989308531464083e-01 3.003932464054999141e-01 9.307670122233503707e-02 1.500910251666369988e-01 2.253201762113222484e-01 -3.203915482619033583e-01 1.674266565685308406e-01 -3.292382313046327558e-01
-5.938665398166121934e-01 1.274456532721298940e-01 -2.908737533435125644e-01 5.322216547542777398e-01 -1.080935461297274219e-01 -6.083428623236817323e-01 2.990212886488642363e-01 6.825364702038261289e-01 -1.206879484865275992e-01 -6.400711785416036692e-01
2.869369503846219346e-02 -7.391865505321900676e-01 -6.214329558405731202e-01 -2.133760462110733114e-01 -3.014896004405890895e-01 -5.895461581740051304e-01 2.556918086219118758e-01 2.536728846936984194e-01 -1.935123478654652285e-01 1.904485834415737544e-01
1.932993005133041287e-01 -1.657842175607389945e-01 5.195614812936402149e-01 -6.149694066276288895e-01 4.028876822732337382e-01 -5.939337768272140439e-01 -7.167853863647086765e-01 3.082793672292974962e-01 2.236170316714411466e-01 3.089485387490803654e-03
2.046924739348489619e-01 -6.879607122424054033e-01 5.719855049681892289e-01 7.372850829558149632e-01 5.955244276533837589e-01 -1.824072029653846239e-01 7.497845927787545328e-01 5.899487093528130721e-01 5.597985264926543802e-01 -6.270575105039818964e-02
-3.818926602300492523e-01 6.983481301880765102e-01 4.145289115558121740e-01 1.732762747603035502e-01 -4.242312871397410090e-01 -6.311960449156670538e-01 6.589315062132349021e-02 4.882733667447656245e-01 -7.376295004758745000e-01 -5.516728103423172991e-01
-6.209593635130363776e-01 -5.112195182980172614e-01 -1.763100877496627528e-01 -1.145845905045985158e-01 3.263921763846102109e-01 -6.387507645484248597e-02 -3.610022794541090096e-02 7.097402633223359736e-01 -4.071188785327158888e-01 -1.379342355070568571e-01
1.465162863253172132e-01 -1.672980553493731148e-01 -5.687978332890237798e-01 2.117491406711479590e-02 5.277918125858832576e-01 4.991995911336655767e-01 -5.648017647757691551e-01 -1.934619998844878397e-01 -1.808537454422726176e-01 -5.952844565891466377e-01
6.321164079471139896e-01 -6.296273585628132663e-01 7.577844147388372864e-01 7.864109661697737952e-02 5.257446296242098693e-01 -2.869522979648601035e-01 2.383026953148190963e-01 2.958917909300289306e-01 4.473262414424157840e-01 -1.273061255908021772e-01
4.431807116637150323e-01 -4.696582494390559859e-01 -7.289631144793873307e-02 -6.053951200288621992e-01 7.400273192701815050e-01 -7.422908530517758896e-01 -7.180018682231898985e-01 -4.587038878101230843e-02 -5.964873954339249273e-01 5.272341485368506886e-01
-4.770495697917723210e-01 7.423436716192388651e-02 1.148889111239080746e-01 -4.766460792478226516e-01 1.634303299416380306e-01 -1.529438501285239338e-01 -6.828118377775015402e-01 2.304572696819022770e-01 -1.930050077204149006e-01 6.873416734409215634e-01
1.483722182731076478e-01 5.036192942450044008e-01 7.833664499895647004e-02 -5.216866760680732851e-01 3.096473279302235926e-01 6.583968057683056152e-01 -5.133679674536014703e-01 5.894936141506055272e-01 -5.127361822202631814e-01 1.352094192014315355e-01
6.577327814999239797e-01 5.289595100026730501e-01 5.826522968479721509e-01 -4.668261573894763039e-01 7.538003220570016483e-01 -2.322928978396675559e-01 -7.402578556788343978e-01 2.638624909984386702e-01 -3.394472486025369995e-01 7.282134161289403051e-01
7.266650199869379989e-01 5.770935816732372103e-01 -1.858796717252053643e-01 -2.938593530163882139e-01 7.197422238967814412e-01 -5.862796740596025735e-01 -6.620852006009166901e-01 -4.634209376648754652e-01 -3.331481957786761594e-01 6.390901872673408757e-02
6.103106624015121051e-01 3.564492563729019237e-01 -6.773587277895382064e-01 -3.432363058508995923e-01 -5.818147389588560481e-01 -5.608417927827153981e-01 -4.867418809059725349e-01 4.248884159349241574e-01 1.276196852528996457e-02 -7.165776807735313447e-01
-4.262422762630284079e-01 4.852572247513757819e-01 8.029435325071761220e-02 -1.526666785606021759e-01 5.597034555253359578e-01 1.770249991368791007e-02 5.640816129806466295e-01 -3.567821928322456038e-01 4.076392077762942129e-02 1.926747974096299776e-01
-6.936977636941198400e-01 3.647332568077139153e-02 9.877587066367132795e-02 -2.545257183112087929e-01 1.485765309899729492e-01 4.277712925729711402e-01 3.041253717545549518e-01 -1.478780235679187649e-01 -5.733685618142290996e-02 -1.121571831658610408e-01
1.576021214707855056e-01 -3.534783333927092319e-01 7.463410629477761349e-01 3.245565107209555378e-01 -6.714091571809818193e-01 5.088433463028812359e-02 -4.785403918192651651e-02 4.227467583494979309e-01 3.672997029777196887e-01 7.294065566788827670e-01
2.028708225050392389e-01 -6.395497345516600873e-01 3.540787477661791471e-01 -7.646417967624319356e-02 6.643990317163420700e-01 -5.680504526665259846e-01 4.632139752028088808e-01 -1.953974065955987882e-01 1.032010958973557380e-01 8.660767123217148755e-02
-1.671052500164478538e-01 3.435932200527062608e-01 7.502614338693867069e-01 -1.802095250642868074e-01 -5.746200572136830331e-01 -6.415585160241614737e-01 3.095693753828780981e-01 -4.753622500574997134e-01 4.095232206270277286e-01 -3.143322057186304086e-01
-5.413873451377788637e-01 7.299303355261369530e-01 -2.920980846563874245e-01 -5.030703300159725666e-01 -1.686090551649673530e-01 -4.790316351559002483e-01 3.501697882240911164e-01 1.789000255291495201e-01 -6.173734861861550627e-01 -5.556554563592706053e-01
5.505561472437623394e-01 -4.077763547456695892e-01 -5.014405645829538294e-01 4.500794216478349319e-01 1.490972976691694318e-01 6.018099324807472117e-01 -4.859683094726644503e-01 -5.829814544212766902e-01 -7.358804063685447927e-01 5.423915726068491150e-01
-3.189087377278423396e-01 6.484118181751145071e-01 7.202479706975017937e-01 -2.250773454243465699e-01 -6.646870016968499106e-01 -7.179163440328114598e-01 1.399198246514360700e-01 -1.115844378815240706e-01 2.729878575106793881e-01 -7.473842238151113815e-01
-2.744839210128232065e-01 -4.267986885241145112e-01 -4.286958795781071752e-01 2.900587655922696184e-01 -6.775021063242039343e-01 -2.385008657593379600e-01 -3.533620189961651503e-01 -6.433046126289533317e-01 1.007054628027292675e-01 6.128105698518377942e-01
-1.643889821448575594e-01 3.478351357358578366e-01 7.323021814834376197e-01 6.408203638883409603e-01 3.452647598100089255e-01 4.644876075045332731e-01 -2.853290270940245787e-01 2.383588112203102460e-01 7.404373447500853800e-01 -4.032384850868561688e-01
3.916734128414315896e-01 4.394496107343260349e-01 -3.527427882877039178e-02 -3.014168962681483821e-01 -1.510904028450780479e-01 -5.917880754608005611e-02 -3.289441220992105341e-01 7.484539178376821145e-01 -2.764114179188076337e-01 -5.485226137369225707e-01
-5.501303463477338895e-02 4.881389756682574244e-01 -7.538888348578645093e-01 -2.745441346615437039e-01 1.741606572537245656e-01 4.396011942596176336e-01 1.059933618852863385e-01 6.756824542390374999e-01 3.646796659976884736e-01 -4.688268800371611089e-01
-4.290173018138026539e-01 -9.419793341824510280e-02 8.335463305700602232e-02 5.499957008469027464e-01 5.315263906680161021e-01 6.883632158014234559e-01 -6.381040610049709683e-02 -6.149620140149384406e-01 3.704953680370758756e-02 5.909043239114746687e-02
4.231275728449257478e-01 2.046353804332092519e-01 1.637544447530001335e-01 -7.222877369345667153e-01 2.249753048986405934e-01 6.470939081444850860e-01 -1.199164930912151594e-01 6.634111456026473563e-01 -2.648875283226373445e-01 5.135596737567483805e-01
3.697296923725198470e-01 5.368480245388356220e-01 5.453038237883707229e-01 -6.321229106309605994e-01 -5.318675106368884187e-01 2.404668116658073562e-02 2.054130910639396512e-01 1.547262867166440681e-01 5.340290446055457885e-01 -2.735079208423061292e-01
-5.073282118207190355e-02 -5.824479042688461838e-01 6.144799595065141007e-02 -6.193137741924351625e-01 5.717990471673028985e-01 2.514210594300122503e-01 -4.757523802552316439e-01 5.448266848825681352e-01 4.533637435343041422e-01 -2.134356621843057911e-01
2.279805023038954104e-01 -2.954771063975725753e-01 3.609203758977646559e-01 -5.318084415806132448e-01 -6.597572703367167168e-01 2.148692402907609322e-02 -3.170064754500338117e-02 -2.978913473370760068e-01 7.773470898828588327e-01 -9.659586965820521343e-02
1.477450911014606683e-01 -6.027242256422726818e-01 -3.901864504265517009e-01 -4.810283677592497864e-01 -7.402066182521425119e-01 -3.490323580306290974e-01 3.489887751937768012e-01 3.093078710512178198e-01 -1.503183958082128235e-01 -6.683220774601490721e-02
-6.996020316449013121e-01 -3.169547294143972294e-01 -2.404083828277771007e-01 -5.294976507533970533e-01 -1.656678820946508313e-01 -3.140917287348667930e-01 -2.996371775366091228e-01 7.164447620364362557e-01 3.219174977438133550e-02 3.986713046939082683e-01
-7.019920470130848467e-02 3.475334059101619077e-01 1.565354175706600015e-01 -6.792249930023104287e-01 1.489864710568696293e-01 2.483249280059399988e-01 4.600439333713022827e-01 -6.704353539181381327e-01 -4.428297163307197137e-01 -4.462353147710076406e-01
7.150717018041395923e-01 4.127731037881547937e-01 4.238791605127383844e-01 6.114808846068530146e-01 6.227473416793571914e-01 2.082112800972685807e-01 -6.334439944864446448e-02 1.944385211261636659e-01 2.579391002838529179e-01 5.203996500570673422e-01
7.571618388995385862e-01 -3.894574796626177338e-01 1.273303718018247155e-01 1.877455716179902701e-01 4.404258915406183972e-01 -2.002645171826815118e-01 -1.287802537173829420e-01 -4.238888487387741377e-01 4.008410179157879671e-01 4.984886016353233251e-01
-7.374160428597487105e-01 6.372025760878472500e-01 7.255926217462769223e-01 4.530065965246614090e-01 2.839463488748447118e-01 2.753863806404880932e-01 3.457473484464324009e-01 1.346186765798293439e-01 -9.950970866493203532e-03 -3.543637237694746700e-01
5.898380693689713183e-01 5.174289037295676241e-01 5.525893409568337633e-01 -1.977053988590700140e-01 -5.650147005624192031e-01 5.858738303994128760e-01 -3.908742322117675361e-01 -7.510688918559334237e-02 4.518396997749173361e-01 -3.733779311788210098e-01
8.518550489006311566e-02 -2.226364713878655199e-01 -4.217204052549330395e-01 3.518121463784389946e-01 -2.507482130112720364e-01 -5.141077460902884200e-01 2.563427828365136829e-01 3.616540810902763581e-01 2.485651948570485326e-01 -4.178651125560577384e-01
6.861547228269153642e-01 -1.453493176078172744e-01 -6.625309380950640259e-01 -1.804388115582407082e-01 -3.529580613675428746e-01 3.823052063770858433e-02 -2.314288084929446154e-01 8.672688982045316519e-02 5.164780713418529734e-01 -5.134234043561078931e-01
-2.209334819401801986e-01 -5.011218167502031751e-01 7.374430447030392299e-01 -4.443423457394429232e-01 -3.099661629528908668e-01 3.127891521377092199e-02 1.166495657289445681e-01 2.617512550758329670e-01 -5.658579151301617038e-01 3.277763469912314820e-01
6.202519868321884067e-01 -9.958451840075650818e-02 -5.179242263748252695e-01 -2.731328546198291685e-01 4.892257733688459842e-02 2.190965076354547958e-01 -1.360608088916240022e-01 -2.075557826160591424e-01 7.229447548377997412e-01 -3.645966465738009754e-02
7.156780261879693850e-01 -2.767892372118803401e-02 7.444936772302923611e-01 4.918126890762154479e-01 -5.772925293296945481e-01 -4.605009382448676525e-01 -6.341364368140852692e-01 -7.349730497749917824e-01 4.982179830950654309e-01 -6.219215497669210446e-01
1.377837519469872762e-01 6.528621140732554506e-01 -4.019810306397353372e-01 -2.631430329047071970e-01 -7.188999894915693023e-01 4.009584736987661380e-01 -6.340388088704124181e-01 -7.152954838595335652e-01 1.646403926713468913e-01 6.813616629268981484e-01
-8.017033910486276449e-02 5.247352378383769445e-01 -1.322849544645021413e-01 -3.776841917588549813e-01 -1.341676547271721254e-01 4.441732002946472413e-01 -3.797231249912180057e-02 5.930209206155615531e-01 -6.438600937132809010e-01 4.404888681503126013e-02
-6.907133228965901539e-01 2.039899223821868279e-01 -4.122815888219616975e-01 4.208255933967099821e-02 1.392176445206922963e-01 3.546627723421313938e-01 -5.784652822746467749e-01 -2.526300298258747357e-01 2.042927510009036676e-02 -6.322362905389246057e-01
-6.415337224816405337e-01 1.502129391827706772e-01 -6.415578960514662921e-01 -7.008593355224674859e-01 -4.121863874741302780e-01 -1.759668608144145385e-01 -3.532344243171565978e-02 -7.169657577244369362e-01 5.279460636966987891e-02 9.621117358023810462e-02
-4.038063001427198428e-01 -6.630036235148120127e-01 -8.779337310594333144e-02 -1.210809106993475520e-01 -3.444618661653649494e-01 -3.365177431395536267e-01 6.772153253829521491e-01 -3.851898661983335637e-01 7.560837610744218784e-01 5.866676742453460491e-01
-9.082750104221160026e-02 3.417188295849502705e-02 4.788306995981627123e-01 -5.751121742667605341e-01 6.367419593254944887e-01 -1.142169717912032596e-02 1.286035719065929117e-01 -2.204577262617410660e-01 -3.385399698316073347e-01 5.342655360323739222e-01
7.387956872118808249e-01 -6.633768890036774446e-02 1.707444518520448706e-01 4.281984215393108140e-01 6.479005329016712667e-01 -3.728424489529630348e-01 -5.814438621874968849e-01 2.239033035406040040e-01 -6.078385762978594231e-01 -2.178578737949237454e-01
6.468780973595821271e-01 -5.324790053143162449e-01 3.205277130729830004e-01 -1.321535911733263402e-01 -1.388921533585096013e-01 -1.540458312868280832e-01 -6.063160286334634552e-01 -5.403580643253490245e-02 -4.194427079475293585e-01 -5.828286496654163651e-01
-2.753642076551393245e-02 -7.444015519874904729e-01 6.246079618640252296e-01 -7.130323377070687529e-01 2.765502665275159089e-01 3.126352003105917210e-01 -3.457273072360819155e-01 5.478953587493989169e-02 -6.146584087798822038e-01 4.891832567815597721e-01
-7.416074845195540499e-01 1.217937368695537828e-02 6.660161709731969859e-01 7.355146877295368202e-02 2.678542668697944107e-01 2.726465038430863630e-01 -3.706816774073372622e-01 4.018591845329071988e-01 -2.095756628581599557e-01 -1.900395488221409690e-01
-4.914506042514907858e-01 6.198563868413758948e-01 2.451477601485842484e-01 7.656378042211959833e-01 2.628090403980189449e-01 -5.995455719330939903e-01 2.608240899418975967e-01 1.640758249017913450e-01 -6.588294446583730091e-01 2.206020308870480229e-01
-8.733116557785820799e-02 1.673058550168117498e-01 -4.479031319079626594e-01 3.564920055072055005e-01 -1.722402215474111709e-01 -3.641914351446832732e-01 4.095599809248385847e-01 5.857364255581319901e-01 -7.165526249992700825e-01 5.916863281157496157e-01
2.873567063790907761e-01 6.042811014598049590e-01 -4.696139316977647749e-01 3.553926866395514805e-01 1.868459794036294863e-01 -1.657613441101602192e-01 -3.790342902781665968e-01 -3.508633235802398609e-01 7.265252154583539124e-01 1.361814325414500114e-02
-5.864162589680677051e-01 4.782418111197421773e-01 5.678568561189475394e-01 -4.819467341055920784e-01 1.160271309898662784e-01 -4.908813623083971844e-01 -2.888842515000196176e-01 -7.107880330880392838e-01 4.931719347197248138e-01 7.506888912218448451e-02
1.771836282891624259e-01 5.880022474189121606e-01 4.045856366998724640e-01 1.205084021649589499e-01 3.246927113463616288e-01 5.823765034895809212e-01 2.345125019694673310e-02 -7.035654925726085862e-01 1.040702590248071546e-02 2.371086198775149145e-01
6.270354972673275462e-01 -6.909485210297354740e-01 -1.069904882585308720e-01 -5.726258840751580204e-01 2.916217494786210729e-01 -9.047130261462806022e-02 5.937388429905302717e-02 2.352596596782980942e-01 -1.177188531876923044e-01 -5.933489245857440642e-01
5.668497529312519490e-01 2.714745013841690091e-01 7.318454318352709542e-01 -6.239932717497329584e-01 6.889299233299173153e-01 -5.641425106138800438e-02 -3.658763869776551769e-01 9.463641451386664571e-02 -1.908319507502589385e-01 1.208067772216613323e-01
4.300909031836288032e-01 4.244291134565492118e-01 -2.049654642427737594e-01 1.061675617965292251e-01 2.811264880671697775e-01 -1.428688281808391525e-01 -4.563305287476306371e-01 6.383065909586783659e-01 -7.011028150640037371e-01 -7.408160570552349000e-01
6.688272349108924653e-01 -4.247573136719199338e-01 -2.872645166295556551e-01 -4.301282591172866376e-01 7.184385033963536227e-01 1.009365384258497228e-01 -1.649735313979190654e-01 6.518991174592007054e-01 4.401263002266095348e-01 -1.085175880018861005e-01
-4.963578511206407362e-01 -1.005987603094227745e-01 -2.957553060968226219e-02 4.459294040809401172e-01 2.578876792081464253e-01 -1.789401272516463193e-01 -2.803946620673536394e-01 -4.212787019514491194e-01 2.208003631309306269e-01 -3.045159175264809948e-01
2.506317049648588147e-01 -5.229493363563092467e-01 1.219341894159957362e-01 -6.059042648299933775e-01 8.384217535688320844e-02 7.431040334412146731e-01 6.201670454076632644e-02 4.455487046212106006e-01 -3.690783108001907675e-01 3.849930646965593062e-01
2.144252596113732368e-01 -1.308929071029684976e-01 -3.834160708266326489e-01 1.688425629984072751e-01 -6.295201928253878476e-01 1.295848158853216692e-01 -4.691556046173191996e-01 -4.910627213300594041e-01 5.496509938546219054e-01 -5.100482479821811799e-01
2.273625079129722726e-01 6.430929208866671409e-01 4.695021869486082911e-01 6.712158329528210565e-01 3.593502198002871961e-01 2.426483569913718830e-01 5.318651882135727593e-01 -6.718339783064951609e-01 4.484702548159205659e-01 -5.980282882255130161e-01
-3.612002211397219997e-01 2.167863779799619750e-01 -4.828866120476899004e-01 -7.096381763607571835e-02 1.594705566866945756e-01 -6.448257999163742316e-01 -4.716740666795062320e-01 -4.909081747077527202e-01 -1.930910640278143964e-01 4.172574429919981842e-01
7.162487484826177697e-01 -2.409399857071364837e-01 -1.200208081814615330e-01 -5.828311097856634371e-01 -5.339084937713730605e-01 5.605657171624630619e-01 -2.000219073109417989e-01 6.469000393377234703e-02 3.845850371054131411e-01 5.668521632621036366e-01
-3.105225151424789720e-01 -6.093906754577050888e-01 -3.642814991064480257e-01 4.758968241124159060e-01 2.407771353932098291e-01 7.193120765244626069e-02 6.868945932738388382e-01 4.812289014209014115e-01 -1.510321666460231194e-01 -7.397392665342131801e-01
1.611222062044989078e-01 3.134490970887965910e-01 6.807790055048893452e-01 5.647519715839017795e-01 6.666912448093901267e-01 1.356623372157401142e-01 5.801258857104528710e-01 6.551047432554213401e-01 -5.176367932381951142e-01 4.134667995702434040e-01
8.841725348246985694e-02 3.268919517789190543e-01 6.894065478783846235e-01 2.176862296585131973e-01 -2.306755053748231754e-01 1.167731089480073398e-01 3.761883704941110795e-01 -1.679813686374612425e-01 5.031321776564686710e-01 -4.759250753576640958e-01
-1.592593599189905396e-01 -3.829936418424863542e-01 5.078757112520361217e-01 -2.406007218787485913e-01 7.567810988658944804e-02 -3.736475770562508458e-01 -1.862343658492825460e-01 -5.289377873024574406e-01 -1.308627058622872097e-01 -1.882390636546245610e-01
-1.771133673794731689e-01 7.023202706398664619e-01 -1.022536341297011903e-01 -5.600463706056679758e-01 6.496415285764109981e-01 1.584285222551675143e-01 2.691398333195398340e-01 -1.002707763200067909e-01 -5.277867908362123828e-01 2.276850651288451488e-01
3.172077411520381474e-01 -1.137984902972143386e-01 -5.280196909843893893e-01 -2.916784085453366093e-01 6.798103497629782721e-01 4.525455807796419649e-01 -3.684868331077563175e-01 7.668198784397779744e-02 -7.610779633721843906e-02 -2.650276489026169857e-01
2.621417348790032742e-01 2.482253697184100549e-01 -1.290932914210121130e-01 -6.998424399819102026e-01 -2.052989191010843872e-01 -1.066906436951020332e-01 3.658727494633862709e-01 2.020178464296930043e-01 -1.994358773851256095e-01 5.600745369986125377e-01
-1.773666954843566568e-01 4.213547865138635995e-01 2.828506627084272362e-01 -4.601923169516920487e-01 6.258389698819973868e-01 1.617381416364102042e-01 6.823073578680466378e-02 4.698746005775571999e-01 2.740617123615520234e-01 -4.843528404044890046e-01
-7.396286440326447220e-01 -6.903999318719387102e-01 -5.600546713836463963e-01 6.545476134246019928e-01 -1.666763417647118550e-01 -3.693283573271578524e-01 3.801059966810975133e-01 -7.085358233832159680e-01 2.262613302182825414e-02 -9.822612968315576343e-02
-4.202275776341001245e-01 -5.647450750438002404e-02 -5.985011529241321959e-01 -6.408886360191667908e-01 -4.927573437483513952e-01 6.169393488106547085e-01 3.479518924613966835e-01 6.150173105550157393e-01 5.944437891965509424e-01 -7.323777354280210927e-01
-2.468002990418491360e-02 4.534971357488339905e-01 5.550806318146483953e-01 4.658213214707306316e-01 -3.768202107024695713e-01 -6.048418126213538082e-02 2.673142239605509340e-01 -1.589083406556504041e-01 -2.313502654417941562e-01 6.918033428138558039e-01
-1.849203088037303933e-01 1.898392650800809212e-02 7.175741170964438087e-01 -2.863911817368381407e-01 2.457331162663032587e-01 7.782183558657279534e-04 6.826785867224008028e-03 -7.616457841004065088e-02 6.423311866222831679e-01 -8.699829101024363076e-02
7.301567640589711194e-01 3.421271043136543399e-01 -6.247657937766952774e-01 7.488770419042520832e-01 1.336722796775767219e-01 -2.481398374045707955e-01 -6.484502428798399887e-01 -6.935368214123934782e-01 -3.990401718297428846e-01 -6.300677075936870208e-01
-1.541790256910594292e-01 3.504631217513422548e-01 5.305647101559952672e-01 -2.964723665598286151e-01 -1.177752396420790465e-01 3.413899829903004335e-01 1.808403212659589199e-01 2.857495081291383521e-01 -5.576246005366510827e-01 -2.836974370808202917e-01
3.246567954793950772e-01 6.953774859641434491e-02 -1.888970096282679145e-01 5.131144925634647525e-01 7.520365470951008435e-03 3.763593787084925091e-01 3.251391325081937622e-01 3.704767807768732379e-01 -6.932206122952251359e-01 6.921557544163500220e-01
-5.420681258555239967e-01 -5.452648174996956865e-01 2.010872731802975377e-01 -4.787053049384989434e-01 1.913580645809685177e-01 6.131668752611968420e-01 -4.874716886770024682e-01 -2.683453179933273924e-01 -1.831173368288231962e-01 -4.610720315141408898e-01
4.083469674341095312e-01 6.791100151989640787e-01 -8.009152667622103372e-02 -5.306886695202697179e-01 -1.618193895881379352e-01 3.613802876936871855e-01 -5.596732558362400578e-01 -3.499813456863563599e-01 3.774127825462976205e-01 -4.987626390646855423e-01
-2.509284602938950393e-01 2.441803447442094099e-01 -3.074173249593799562e-01 -1.445811424066768547e-01 7.029674513595409735e-01 -4.720540199595396613e-01 7.402328933971470404e-01 6.317081374127759830e-01 1.015505735012486588e-01 -6.374709573464832912e-01
2.989570090587498896e-01 -1.726355236861261411e-01 5.568034605202180076e-01 -5.138798812857270359e-01 -6.382902837529967899e-01 -2.316245754796232292e-01 2.052166373862904236e-01 -6.169728203215023576e-01 6.972984544917787408e-01 -7.008467554671061750e-01
-2.780757183957129342e-01 -3.750936725612784572e-01 -2.605914917136855080e-01 -6.477035716792364228e-01 5.404041225358261480e-01 -3.711134074571605934e-01 2.332528347136175184e-01 -2.823790727043957727e-01 3.194616781120696285e-03 2.289618775541133744e-01
7.280658200033385263e-01 -2.661905603811987597e-01 4.629399369618997229e-01 5.847861015362179060e-01 5.464597733852056827e-01 5.489822029359398003e-01 -2.962509536778433761e-01 -1.141149037631377788e-01 7.215781076087069978e-01 -2.402703192909925733e-01
2.216390506353327072e-01 -5.067015278209709983e-01 2.669499687821474398e-01 2.218433469075605236e-01 -4.259625197456958778e-01 6.058608533758276238e-01 8.348156966157180975e-03 -6.689555308520381272e-02 -5.933732619210884129e-01 4.651036816554364739e-01
2.104362507600259988e-02 1.982665201335792882e-01 2.854419427871860426e-01 -6.038438254365584568e-01 4.405064257862673638e-01 1.897760711349386620e-01 6.040072017392836973e-02 -7.496469662352961416e-01 -6.880223607790486584e-01 -3.412706795149489936e-01
2.930717641177911850e-02 -3.562547432078654874e-01 5.629743156574316121e-01 1.927377184643490060e-01 -7.359716634362851728e-01 5.955549220242297714e-01 4.833007854858602514e-01 1.768367706962120089e-01 -6.940349347365802890e-01 6.064569914362738512e-01
-6.709595747295200585e-01 4.581867199113918709e-01 -2.625207500983887665e-01 -4.142685118743465178e-02 -3.661074068531819936e-01 -5.175442620530799065e-01 2.644193141896293842e-01 7.322883273655831360e-01 -5.834288164074813432e-01 -5.431870946779906451e-01
-2.571053725144252164e-02 6.548928150090150835e-01 5.204690493743161506e-01 5.727411436640142961e-01 4.010037458404495658e-01 1.757864482370026515e-01 5.103912680139726099e-01 -6.170345385557463036e-01 7.076028678433939900e-01 1.384895421178649055e-01
-2.715189807801585697e-01 4.764797627183113837e-01 -3.730948881594550737e-01 -2.600307220312332857e-01 3.281287831941476218e-01 -6.602874894866352928e-01 5.661693160069377478e-02 5.737600581169702840e-01 -3.084876725947089393e-01 4.034739812157087657e-01
-3.981024449296718948e-01 6.466631071951007836e-01 -2.914886051230848318e-01 4.149326205772551068e-01 7.207280013578333255e-01 6.626425644143206783e-01 -7.512351098629277413e-01 -2.092070538193661552e-02 4.347399357414449272e-01 8.975445162948732236e-02
-3.769716306327762223e-01 2.326086505254998937e-01 4.159847943978230989e-01 -4.076774341917985267e-01 -3.785919103427070054e-01 2.628593717187329148e-01 1.478433542251914902e-02 2.106402602422791648e-01 7.586565227560898572e-01 6.353166264175599820e-02
-6.483054644007971712e-01 5.269035946015929728e-01 -7.469349300703937988e-01 7.440402317463217230e-01 -4.070293043424947910e-01 -1.779925911207732858e-01 -5.084257094251097842e-01 -7.474475353515124265e-01 5.722251441314332165e-01 6.048168760863711357e-01
1.711688604677889525e-01 4.140765134339292053e-01 5.667522472571807635e-01 1.749343887540890929e-01 -6.831423093046746775e-01 -5.824200441271060874e-02 -1.098044952903011184e-01 8.594481644507215301e-02 -5.391750024333787916e-01 -2.532897073295506396e-01
5.999213105315265304e-01 7.585781580671598912e-01 -6.935006792069112747e-01 -6.389923372272278412e-02 -5.278943520872808604e-01 1.752087455562611473e-01 -1.574407054653859384e-01 -4.108194598278459564e-01 -7.257263918557816940e-01 1.040521518191425167e-02
5.771392036795958136e-01 -1.928400580645093509e-01 4.102218858337084995e-01 2.775005658767124017e-01 -4.415403884266314027e-01 -3.160149914283023054e-01 7.429756161944387483e-01 3.452431917419754304e-01 -2.768696358598920493e-01 -6.132835232323768926e-02
1.316028636115088579e-01 -3.429904760429625665e-01 -5.645850732237907982e-02 -1.114630102771838605e-01 2.682117873891060045e-01 -4.557446036356964103e-01 5.722244164540450928e-01 -4.572353550061600269e-02 6.998617923654114614e-01 -5.686357590513221316e-01
2.811657765784424390e-01 -2.879712250685104169e-01 5.397106816542840413e-01 5.278862264897143941e-02 -6.957759864652021120e-01 -1.371813567168095049e-01 -1.862592517805920500e-01 -2.307645843866008156e-02 2.403820580660934458e-01 4.953261456969166310e-01
-2.442883430786994270e-01 3.628932435981450655e-01 -4.873126603756552377e-01 -4.314826702419491955e-01 -6.592935867329298150e-01 6.085433242930516906e-01 2.648984082549259989e-01 -7.179712438602302571e-01 7.633571090552362381e-01 -2.879898669755218688e-01
3.047769453962649866e-01 -1.281815826330282015e-01 -4.879335440337122520e-01 4.193050596481004977e-01 2.228426510785648795e-01 -6.080761503420543113e-01 -4.779011266625041165e-01 -6.741667604436160088e-01 6.900430033891542525e-01 -5.697437048156972494e-01
6.090088297948418328e-01 5.005808111121572840e-02 3.455847474647159023e-01 -2.886217856646627888e-01 -1.566581850051528557e-01 -6.606568823854919170e-02 3.621080128449215008e-01 -3.771513936693421387e-01 4.232297098816447112e-01 5.334222662200599485e-01
-5.123968695835512399e-01 -5.957870511072494990e-01 -2.316796970186204008e-01 -4.132227910830378881e-01 -4.778060160693191616e-01 -6.909375483347705016e-01 1.055056624238130403e-01 5.370242001260409070e-01 6.376545363942365263e-01 -7.437548268937401730e-01
-3.713966967809328446e-01 -1.010068153224487203e-01 3.582053545120096327e-01 -2.612946512004620248e-01 -2.636059098593762084e-01 -6.531824418895784135e-01 6.016955969614122823e-01 2.521121865671539508e-01 -6.373923991291639002e-01 7.337325889588587335e-01
-7.103871852816040500e-02 4.483444769821816334e-02 -6.240711458323350280e-01 7.532186702280143642e-01 -1.758763328887041344e-01 2.344623630082958710e-01 7.158259350825898482e-01 1.707581869990181800e-01 3.299935216257885440e-01 -2.802472085080668918e-01
-3.025217123136589303e-01 -2.619132633111688757e-01 -1.220830909762841698e-01 -3.688354363793924784e-01 -2.268808821416166688e-01 5.620685134865310850e-01 2.408717937205256121e-01 -4.133812614556705012e-01 3.466818268928122393e-01 6.101906610454163049e-01
5.232143182962507577e-01 3.567234393522973335e-01 4.279828428637750259e-01 7.909404179532603107e-02 3.804520056916382842e-01 -1.082283537850739913e-01 4.787741996014842627e-01 -5.343899811936859701e-01 -3.530150091046692640e-01 6.405087722111248993e-01
-3.707298634946121774e-01 6.045863261603022787e-01 -4.345037503009844815e-01 -1.695238279970686102e-01 -4.167605025288474985e-01 1.655624512130251524e-01 -5.033729957549581274e-02 7.522238719186383760e-01 2.394543539687320477e-01 2.228502972017585848e-01
4.477682457544171490e-01 -3.161020365919218755e-01 -7.466429402442602559e-01 -7.149332085203640164e-01 2.824744100037440697e-01 -2.433808859926556989e-01 5.897943002222888476e-01 -6.250252627391537086e-01 -2.045436822565361440e-02 -5.146610169759672226e-01
6.601417971857883593e-01 1.736587980287118693e-01 -1.494119027359896712e-01 5.788683949642506876e-01 7.534525162823855204e-01 4.760184018397683459e-01 2.731423847244109360e-01 -2.454838760881317694e-01 3.287382430245369136e-01 -7.516809864196647428e-01
-6.646562365216813761e-01 -8.317112376673357899e-02 2.046204339037319964e-01 -7.475360603547337446e-02 -5.289701616270349183e-01 3.847319299436601781e-01 5.701036728624903072e-01 -1.563079144354606598e-01 -4.462821212071467480e-02 1.790138959068857949e-01
-1.230348852891334221e-01 -4.502697775811407288e-01 1.825466406420601095e-01 7.516887778258964925e-01 4.615050539322163026e-01 -3.452585985687107728e-01 1.544623553112113301e-01 -2.038696015142459766e-03 2.207204069319397832e-01 3.211184999102001392e-01
4.156492949565471218e-01 -7.456079921559493062e-01 -6.295847900115822959e-01 1.456582890675897080e-01 -1.566940312667205182e-01 -6.781274405144255280e-01 2.252434048828571567e-01 -3.139710698153996282e-01 -1.756526413408139031e-01 -3.195584839742233729e-01
6.831766935141064812e-01 8.927487249705227945e-02 -8.455460578803816740e-02 6.784045725490307488e-01 7.410579060301654142e-01 -5.753053435475990324e-02 7.370682804705686042e-01 -2.072169038559655840e-01 -4.848115461386428016e-01 2.169694070408152153e-01
-3.440518655314544483e-01 1.517162675957481333e-01 5.238537242386971382e-01 4.206917378093098514e-01 -4.468644181693962603e-01 -3.843220750936026109e-01 -1.509618326883615524e-01 6.827586407290953119e-01 -4.823726239214496947e-01 -1.981403540766095983e-01
-5.253211787142645361e-01 1.753002421762485108e-01 -2.525530302712771791e-01 -3.376222727340499330e-01 -7.296278018709416724e-01 -2.067174673231674809e-01 7.427924144990848410e-01 4.442643994953237585e-01 6.648756711413305043e-01 -9.122877850831793978e-02
-5.899156361583584030e-01 5.552551394613182145e-01 1.443392927552545890e-01 -6.938239955180041107e-01 -1.072531798827147838e-02 -5.797188595523963262e-01 -4.215754909363046976e-01 2.401677330756742390e-01 3.128902223768455504e-01 -3.309634433051935054e-01
3.452728662702579943e-01 -6.533399128688031077e-01 7.006489880499250367e-01 -6.594839648197889370e-02 1.778900848575871996e-01 4.032965476521123693e-01 3.462909540014228460e-01 3.675395314700148353e-01 7.406458986489161678e-01 5.740197944931145491e-02
1.393514058174869230e-01 -3.512254369848667457e-01 5.715363093504165493e-01 -1.940935650440018811e-01 4.539821672206746928e-01 9.234238139915548760e-02 -3.882094331563461509e-01 4.721007938779071128e-02 -2.300406824490815738e-01 2.796602121282191697e-02
-2.899000872812306784e-01 5.893387327546897314e-01 -1.737736742571982240e-01 1.562682372575205370e-01 4.226758868741565811e-01 5.367496184341115362e-02 2.319728583251773335e-01 1.325559846388228713e-02 5.906380721415322999e-01 5.648227494343127653e-01
-1.378351738308054020e-01 6.666851617295720400e-01 6.510568646613107413e-02 2.553697526248502880e-01 -2.190354222067504228e-02 6.676001169233404253e-01 3.141895130712374917e-01 -2.063360957236780313e-01 4.644971538324106364e-01 5.871684969510170271e-01
-5.764309295666228961e-01 3.659742733876660686e-02 -5.999808522957827961e-01 8.975686507451403895e-02 -8.846344673489378585e-02 -9.709367672492605350e-02 3.650188824492768824e-01 1.998473526870844508e-01 -4.591437254356543068e-02 -1.400798319553534788e-01
2.625203853355767558e-01 -1.421475517017401768e-01 6.049068213087042123e-01 -5.653904177516772683e-02 -4.481811365378243206e-01 4.787968396649717739e-01 5.094396353650807452e-01 -7.219790579163615218e-01 1.142950595811352416e-01 3.336656345307910665e-01
5.799974294687239018e-01 6.804372727404869314e-01 6.616174382169109913e-01 -3.982880126259482068e-01 -6.040453964306229107e-02 -3.890618741743690628e-02 7.513605381372395753e-01 2.296228832581294343e-01 4.632195462144263372e-03 6.828267982406619474e-01
-4.454025956117237395e-01 4.002193435504228236e-01 3.575110427226855236e-01 -6.310848594780089638e-01 -1.108946132241541427e-01 -6.117308531583208475e-02 5.729810162020966269e-01 -9.230352359325201539e-02 2.527957653563989160e-01 -2.812662190004601159e-01
-2.770310281239525274e-01 5.192810781460527325e-01 -1.252624382612433362e-01 7.274262898115355647e-01 -5.328704045320630245e-01 7.164833963803330930e-01 1.726655672268207209e-01 5.330361638117641077e-01 -6.958001463597762726e-01 -1.513203757390417237e-01
3.417950341090157385e-01 -1.690198759256159033e-01 5.463064243464312714e-02 -1.868829255349330476e-01 2.944275997870406392e-01 -6.330736980189929364e-01 4.632817621288677912e-01 4.266296618776054261e-01 -3.362072319712331447e-01 -5.901029611030776945e-01
3.510903826122386273e-01 -2.741119739096538055e-01 2.110108010723234506e-01 3.668985605308332509e-01 3.025242947955963380e-01 1.899757649779915819e-02 3.455607588761552273e-01 5.625210123420522346e-02 -2.397450347936492532e-01 9.556504067963491125e-03
-7.390591541597731073e-02 -1.027777456048033083e-01 6.573603782623583802e-01 1.828001017133462913e-01 2.350888900723691888e-01 -2.495962268596211009e-01 2.924737135914433073e-01 1.841912561831409445e-01 6.831722591209148376e-01 -2.707857872814180000e-01
-2.491015805814289219e-01 8.808121825711223707e-02 -6.504809822220961602e-01 5.928541623001784000e-01 -2.707596540969244847e-01 3.211340826604541787e-01 -3.738763040370475799e-01 -7.520934179841197720e-01 -3.135952555175547385e-01 -3.449014714706137852e-01
-4.245155762286175194e-01 -2.776352459534017769e-01 3.911928361293618428e-01 6.450109619111094039e-01 1.841446302939542534e-01 2.925596097792931144e-02 -5.431495075867648348e-01 5.368978343348471682e-01 3.323167762384944268e-01 -5.783626554698880762e-01
-3.897094785473543821e-01 -5.315331110899905731e-01 6.434048531972089702e-01 -7.358503451161444442e-01 -2.909870873589459617e-01 -4.336977799540565892e-02 -4.214108912000735230e-01 3.406991325384560176e-01 -7.422373068098189197e-01 3.985733740532906855e-01
-1.102257247598808498e-01 8.858961953085821295e-02 1.443055958353940127e-01 -4.224376419528279025e-01 5.516100669662727940e-01 -2.942542341412961449e-01 2.237961980604424028e-01 -3.149512405933516668e-01 2.732604127412529560e-01 3.526016100277010179e-01
1.908822233892982362e-02 -4.253930736639016663e-02 1.677548330829421036e-02 2.200776854152672046e-01 -5.409064486102258540e-01 3.992513757790164264e-01 -7.057236665413962884e-01 7.259914983869102389e-01 5.970053071150253077e-01 -1.432748623778157815e-01
1.063145186505504713e-01 4.715653072085660424e-01 2.664468901832623415e-01 4.567387564660406185e-01 -5.422425080099654293e-01 6.639177399756840403e-01 1.975163306772721450e-01 -1.473986252231911376e-01 -2.714871612138260448e-01 7.209431706990341304e-01
5.632617409190786573e-01 -7.064861661355223976e-01 2.607455710361045176e-01 -4.594227523029857929e-01 -5.643632783335960079e-01 -1.501531072534331435e-01 4.494022229049055017e-01 -3.341734450107232690e-01 -1.917047769208997943e-01 4.909057330887381387e-01
-5.230806644968631902e-01 2.545441469963512504e-01 -5.682911278720073067e-01 2.349327829856658612e-01 6.585641427722117580e-01 3.338525292888767648e-01 3.606644381951957801e-01 6.341359967689927934e-01 -1.984657756564541242e-01 -2.527953948912063931e-01
-3.569092120297757686e-01 5.896057614826423210e-01 6.452087372757373540e-01 2.438180990043057883e-01 -7.530224745454502377e-01 6.053742349696040748e-01 -1.794942307337010767e-01 -4.985216522461102251e-01 -9.321645137153897198e-02 -1.424610343860936157e-01
-7.106132727487871614e-01 3.957583259719673063e-01 2.527817204642860416e-01 6.348554237064343297e-01 -3.128385490219667275e-01 4.921100868916447602e-01 -3.340630173633283434e-02 -5.277440235591300821e-01 7.086349038454946569e-01 -2.543270860523953458e-01
-4.238414901945924407e-01 2.347424061292144593e-01 8.783558113439797477e-02 -2.519545708355865332e-01 -7.039549236112533359e-01 -3.416671864523953550e-01 2.220802090012121421e-01 4.070264324934387834e-01 5.520427113188401957e-01 -5.883076499911498169e-01
6.198361155724066984e-01 -4.454124063465726424e-01 3.832142053178346219e-01 -2.226477674462692680e-01 -2.102316284617446462e-01 6.156279635481154422e-01 7.544218663251683887e-01 3.961538752532610674e-01 6.047634678917490625e-01 5.601321207194388530e-01
-2.711660049381736659e-01 -9.214856318248448863e-02 -2.312481772935540483e-02 -1.618779097724651339e-01 4.226873117420262838e-01 2.923321669199390183e-01 -1.374809199199661207e-02 5.732398858283812570e-01 -1.177590671973142711e-01 6.390798708944214201e-01
-6.940200519627428566e-01 -1.235341142217344090e-01 4.295487991642668590e-01 6.448331120427723828e-01 5.162567505798911771e-01 -5.086832037414652508e-01 2.703470873380099948e-01 -3.321507165415890084e-01 4.850839799704222133e-02 5.702661920462627210e-01
-2.301176197673963919e-01 6.800391325927125363e-01 6.115491310557726878e-01 -5.410702411037748849e-02 3.426999985223644907e-01 -1.673802964159880891e-01 1.811097563128188578e-02 4.533363425999844543e-01 -5.041944599955843209e-01 5.711603360917058003e-01
1.106170841232894941e-01 -6.287477944523193196e-01 6.939957889914940559e-01 4.782002085617330644e-01 3.800943766651267430e-01 -2.059521008830171862e-01 2.099421601300653639e-01 2.940029453302407947e-01 -6.524302202660016425e-02 -2.529316907371214618e-01
4.876403441493917801e-01 -5.801083873250473949e-02 5.999200994900387718e-01 -3.594137340373150247e-01 5.341809327147171160e-01 -6.798923113306614141e-01 -3.253319485105702347e-01 6.754347914809578635e-01 8.091823955485108466e-02 1.006002341641460268e-01
-3.757414881818451069e-01 4.402351430858627568e-01 -5.103304803285754199e-01 2.092872399912827641e-02 -1.782490724763741152e-01 -4.974918095932483464e-01 3.362753680423338776e-01 -6.254491130256338571e-02 3.806246775019984652e-01 -2.378622334297700591e-01
-4.961382087532157370e-01 -1.319290666427072045e-01 1.714421912081618982e-01 2.405504408038490471e-01 3.581840094644661576e-01 -1.570818491035696762e-01 7.096162550662004076e-01 -4.107451895815693588e-01 1.434449084523666818e-01 8.771301774730715095e-02
-1.070783376338100001e-01 2.902335789877149783e-02 3.619383461819974945e-01 -4.363201183368130565e-01 -5.160686767296807087e-01 -1.609209224886599676e-01 -3.410082367631689926e-01 5.001096171291884440e-01 5.831959800393424764e-01 6.626834008451839564e-01
-6.758178700287117424e-01 3.472302842185451821e-01 -5.151112812480925784e-01 -8.061205032710283547e-02 -3.379558834776615894e-01 -2.894376961483754451e-01 4.889995153018518170e-01 1.622615771787918881e-01 -6.128981330580017817e-01 6.481066160079189675e-01
2.006685511525451437e-01 3.227283510852944071e-01 -4.495920207537310587e-01 -6.829887765056438798e-02 1.024343008360360519e-01 -5.895016901354196426e-01 9.572337489296284252e-02 -5.830211978096428993e-01 -4.777974486050876601e-01 -5.625976663133117617e-01
1.538998078665196056e-01 2.349027699541445247e-01 5.770763957847703518e-02 -2.527894560598125118e-01 2.435190161844623113e-01 -1.399691065146047020e-01 -5.760514654183322980e-01 7.158531848691281896e-01 3.026876472630705694e-01 -5.950877572607127936e-02
3.932274114190101311e-01 -4.526079356815134735e-01 -7.042996876679322726e-01 -5.333040221084329735e-01 -2.441344828694429758e-01 -3.722077656606926355e-01 3.283520219753086056e-01 5.900492930947798254e-01 1.202110681614218177e-02 3.323056236322996515e-01
-5.547447486911508685e-01 6.035895441148148022e-01 9.214488883709572031e-02 1.522718537596042254e-01 4.240978328455389801e-01 5.784372203530437906e-01 5.786040019843806670e-01 7.002416652762661897e-01 -4.617739091732908641e-01 -2.141875776136359655e-01
6.548942357504875522e-01 1.708617086558439080e-01 -6.656114889608886198e-01 -5.667970440297322998e-01 6.549227453397608034e-01 4.568868709527174748e-02 3.931474097655981437e-01 1.276751597468509794e-03 -5.878064935607484331e-01 3.945303124099983072e-01
-2.184576611402172241e-01 5.098366498590159446e-02 -4.460501995313524426e-01 -4.297523121834442295e-01 -2.959260745439418194e-01 -6.318123684810441620e-01 -1.672614145742726821e-01 5.566633229721280607e-01 3.803581131436440527e-02 7.173086354550557431e-01
-7.180487470395358063e-01 -4.546464375131682445e-01 -3.012320098153738468e-01 6.172218975881093028e-01 -6.619106658849506220e-01 3.292596762249398457e-01 -4.197617305071398852e-01 -3.190744772118390693e-01 2.836824121493627393e-01 -1.968174852092259286e-01
-9.125385091261475901e-02 -8.449552029424584054e-02 5.361823829124083840e-01 -5.275517908909432840e-01 -4.944252413828736925e-01 -5.132453986951247549e-01 -7.211609788756152550e-01 6.855383779766810459e-01 8.166397851590685708e-02 2.470677256000411992e-01
-2.157732474561949998e-01 -3.782513961494774479e-01 1.170379863659037484e-01 -6.294896054490737303e-01 5.717796613018191060e-02 3.237868285619946995e-01 1.269908650333530231e-01 -2.736237717912817780e-01 -9.052686973351629918e-02 -1.299292813424840487e-01
-1.666491543755413973e-01 -1.176643231548176460e-01 -1.486144285706670620e-01 6.690101254754372562e-01 5.754358126204108664e-02 -7.937303526460952330e-02 2.978694683500085483e-01 -5.382371986346049519e-01 -4.710713634785233528e-01 6.813068594700451008e-01
5.350059912108857951e-02 -2.934444356817592636e-01 -2.664329900501354320e-01 6.631872096244809667e-01 7.131323543125562825e-01 5.277346928157330419e-01 4.595409161254995212e-01 -5.687748026728919326e-01 5.819767777356092964e-01 -1.972709721069714484e-01
-3.358252731121495471e-01 2.698500271494401748e-01 3.313346770021312615e-01 -5.254794032746050725e-01 -2.486193465368578548e-01 -3.084318379506945651e-01 5.845113798748866607e-01 -1.398472339358974026e-01 -3.435314843939117346e-01 3.501293586979701278e-01
1.233961757237813338e-02 2.252036778998724176e-01 2.410052286552280820e-01 -4.191879225959217470e-01 1.746183813295435205e-01 -3.160455086219005616e-01 4.214486309954885157e-01 7.238361574665611586e-01 -7.983519746813017015e-02 4.566058309552840089e-01
6.956373346037487693e-01 -1.283705748529839763e-01 4.696456327441403400e-01 -5.677931927547981150e-01 4.636216058511006821e-01 5.230068602652903076e-01 2.160853782714581284e-01 -1.627207405072080004e-01 4.906253577584641090e-01 4.131878306598011363e-01
4.885269207804932012e-01 7.246825363602832359e-02 -2.196360218677466947e-01 3.697962972279766336e-01 -1.035794002447596070e-02 -6.383928530680758051e-01 1.772900885028314555e-01 5.266537170200903673e-02 -6.234158960111102488e-01 1.022774548183858455e-02
-2.085204717981685441e-01 2.355446688175522885e-01 4.419913631584587166e-01 -3.181586041095073591e-01 5.711756459966096933e-02 -6.556723972940351475e-01 7.056134791236963189e-01 -6.740763400992304533e-01 -3.492484669075734960e-01 -1.269918992158901028e-01
3.894654954163844218e-01 6.515507387149817031e-01 -2.728124695227155533e-03 -2.351385114864295023e-01 -3.336051650347228170e-01 -2.309535990734551680e-01 -2.736055386611708773e-01 -1.991405388482296868e-01 -9.461894626166519884e-02 -4.239774881448991062e-01
8.468697355582376074e-02 6.190058510385555435e-01 -2.588672847925623244e-01 3.645048548976009828e-01 -8.840691280996035295e-02 1.418666520902813200e-01 -4.725833084206371160e-01 6.499887528575428730e-01 -5.648996355145337045e-01 -2.797573094484187561e-01
1.870504405284250000e-03 -6.301282447193888858e-01 7.161689468160060967e-02 -2.842983846964936556e-01 7.322269613945344702e-01 -4.648136062501094790e-01 -1.705683039784500754e-01 -5.214751932534589240e-01 -5.938792843278244415e-01 -4.723105795431570275e-01
-1.038254204645206180e-01 -7.169115915731009980e-02 -4.554133467135339508e-01 2.030278940065278481e-01 5.249619660821298606e-01 -5.512335494040192935e-02 -6.681776125499191421e-01 4.122434413387191521e-01 -6.280040372784190250e-02 -4.807373676809869600e-01
4.210055203922581923e-01 -3.746486567569249360e-01 6.779364544071626586e-01 6.951263689299250759e-01 -2.448219056969792862e-01 5.510814793031300063e-01 -3.217278099075212561e-01 -1.931247450692722967e-01 2.722996765858194390e-01 8.297810281809692851e-03
-3.728547503408951580e-01 1.754618166428593695e-01 -3.467282232029185174e-01 -7.745078635583743099e-01 4.806354271112446841e-01 7.042014732617374317e-01 -6.348665331681689894e-01 5.232611717209180169e-01 5.647929546164586201e-01 -4.419238230686275970e-01
-5.857428427547555216e-01 -3.186154880110990684e-01 4.705048697827557760e-03 2.236604704112455863e-02 -6.785135695123353239e-01 -4.438672756499268401e-01 3.103598670974080376e-01 5.660774576830303051e-01 -5.859092396025920024e-01 6.032779154711382930e-01
2.221717923637335501e-01 -5.522115062711479005e-01 -3.879073935010463048e-01 -5.466161755772982467e-01 -2.131754434409073584e-02 6.218905122011737507e-01 -3.353521214335901113e-01 5.614259904729064221e-01 -5.142841277941986866e-02 -7.824306990850291021e-02
-5.127706523380745063e-01 -7.357021422008770406e-01 -4.840003706517946869e-01 3.804916461196167221e-01 -2.592821720562550336e-01 5.137508886786386064e-01 3.530806828036832101e-01 2.158882494919678874e-01 3.925698184999379392e-01 -3.752010623355982455e-01
6.318322916309579984e-01 1.857226664418527573e-01 7.524760290979948252e-01 4.957925930786477586e-01 6.561611367784584425e-01 1.458791923844957317e-01 -3.575331619496075475e-01 -6.097900285048964975e-01 -3.809410800151811216e-01 7.516578352729389456e-01
-1.698006187914739007e-01 -9.047851751466710890e-02 6.986302359900690151e-01 3.651797281381159999e-01 4.926819549378422258e-01 -1.892164291235233775e-01 7.406717942424256851e-01 4.494956065949122226e-01 -2.756126831547299760e-01 5.158866803724364569e-01
1.803061966066448196e-01 2.159619144761714404e-01 -2.961332947592539844e-01 -9.154709953301701231e-02 3.593774922709421782e-01 5.983984721342390234e-01 -1.134501847227731702e-01 2.882680303741156913e-01 -4.014770617441398293e-01 3.867821735348692114e-01
5.736059208929661368e-02 7.319656946711576850e-01 -1.810045577959047136e-01 -5.149545828707989825e-01 -2.452197464224188661e-01 -7.538997484090893542e-01 5.228296399476973777e-01 1.290285042608733113e-01 1.108327905498102117e-01 1.137163869466332605e-01
-2.095643491089763111e-01 2.665939433222785371e-01 -6.837219611683071907e-01 -7.258433893298007478e-01 -7.327796376641605436e-01 -4.868070049626643248e-01 -5.332582530434911705e-01 3.720714222389415182e-01 1.187785435769640741e-01 6.044469558715515056e-01
-6.927149319364668267e-01 -5.113098829851180360e-01 7.299742553520662813e-01 5.569116013165490431e-01 -2.689437344153799425e-01 -4.409987602218033431e-01 -7.019305589239800414e-01 6.767657781414252449e-01 -7.041980954500680623e-01 2.222137513049545210e-01
3.845337665001917204e-01 -4.310858631584589817e-01 5.998198305509188089e-01 -5.872251802063429560e-01 -5.069095992331043021e-01 1.830893683740605349e-01 2.954261107830452038e-01 -4.242530151686507156e-01 3.787350504916895955e-01 5.228783819684302836e-01
-6.660231660329948844e-02 -4.953227155018943839e-01 6.630762491353895394e-01 -7.379474790041911092e-01 7.362961964401379955e-01 5.419710619749360525e-01 1.433886826971121076e-01 6.148745411560615493e-01 5.055086907770023341e-01 -3.931837108817125559e-01
-1.691093611200477076e-01 -2.752937138995133481e-01 -1.582203020766199952e-01 -5.452595436796754402e-01 3.419137857012056747e-01 6.735980081955684762e-01 -2.290318675495519318e-01 -1.636696338055781963e-01 1.316460410990911156e-01 3.719332128244468572e-01
-2.307734133287448752e-01 2.192009329274815788e-01 5.800072074246190867e-01 5.036578761285865902e-01 6.998824228599170860e-01 3.782235242437391731e-01 -6.709631164896889821e-01 3.636240565059900010e-01 -6.386938898517081631e-01 -4.168600994781813118e-01
5.365039249957048728e-01 1.286700551950412108e-01 3.659531070668832486e-02 4.349292309372207455e-01 -3.186485816244134534e-03 3.209059967060433338e-02 -1.984957676944454907e-01 -3.777505029876331299e-01 -5.263544304891911718e-01 2.802489779889522081e-01
-2.262200512135049135e-01 -3.897384832980665403e-01 2.512537485079308630e-01 -1.556134792324840033e-01 -2.169718310824930441e-01 9.068834406419527816e-02 7.451006952241816250e-02 -4.779919174648165625e-01 4.134790937898798480e-01 -1.764099948539678275e-01
-2.678485909936287879e-01 -2.559626944547645500e-01 1.807816129414113182e-01 5.562802524471335275e-01 -1.472557228235854727e-02 5.865927046155353652e-01 -6.505565570323035285e-01 -5.478176162569180496e-01 -1.499086017675660132e-01 -3.625253575747603985e-01
-2.821030072129823707e-01 3.047951128284434041e-01 3.281240390538658347e-01 -1.960315959877527159e-01 -4.775520816440228522e-01 -4.750363256528827849e-01 4.146804084284559933e-01 -3.225298904436714898e-03 1.427775929315801551e-01 -7.281881847784841266e-01
5.701069872575640352e-01 -4.439036379019213330e-01 1.710702780131903855e-01 3.104016268744594353e-01 1.741890691968432103e-01 -4.083765420786912292e-01 6.223891826802644411e-01 2.555076561842782312e-01 -1.444408770668856035e-01 -1.312241948423551463e-01
-5.439636065226700623e-01 2.739485736227770252e-01 3.741764383267196514e-01 -6.057816548294586018e-02 1.099561604885381516e-01 -2.194691267025979664e-01 5.620533364633209517e-02 -6.388275761265739261e-01 -3.217904809613041928e-01 5.583706030133507581e-02
-2.756697350314187278e-01 -2.408886110677668779e-01 2.221312176894326140e-01 3.360923148609083477e-01 3.464733643046694622e-01 1.640417537876478205e-01 -3.922902918215858126e-01 -5.305201124585444683e-01 6.757167934376271390e-01 -3.221738715669942854e-01
-2.352830348851887021e-01 4.019298864336729449e-01 -8.035725153692543921e-02 -9.037650643016477414e-02 -1.597362147634156793e-01 -1.931392146438417612e-01 -3.177409883694143344e-01 1.235689826052834700e-01 -5.917139932498364230e-01 -4.439624039489570850e-01
3.827814627098568012e-01 -4.088365854015312828e-01 -6.183262948456255126e-01 -5.928003710820783922e-01 -5.804872213982578133e-01 2.535046948803718614e-01 2.336309593187087252e-01 -1.391166822554844029e-01 1.911689170683572581e-01 2.111968944827053996e-01
4.709458793440675362e-02 5.814311106209346658e-01 -3.006509609682893602e-01 3.152373688341950086e-01 1.253467045731224416e-01 2.002166236461349891e-01 9.027411456856269945e-02 -1.918305923289964354e-01 -2.780070109121551836e-01 6.598880300259329923e-01
4.583398220999683192e-01 -5.751459815574553325e-01 -2.170786383097968730e-01 -1.375172416231901784e-01 -3.758744272577282941e-01 -1.621897145667993215e-02 -5.458190035550698586e-03 3.113126975938061425e-01 -2.281662481608302817e-01 6.332602481013153151e-01
5.228077087646083587e-01 2.308906823500404271e-01 -4.790971891746940298e-02 4.928278623484145804e-01 -5.268372316765330271e-02 3.060773382310489343e-01 2.029378220696501645e-01 -5.182129662308597728e-01 3.667054160623450798e-01 5.168523097899027086e-01
-2.051487799959211822e-01 -1.314048359182294068e-01 -1.763107599277626281e-01 -2.084286241442847853e-01 -7.457876561078059519e-01 4.564110310818565441e-01 7.094216739477672284e-01 8.174519567436122625e-02 -1.923922506449613767e-01 -2.349619759363488769e-01
-5.020399895983146399e-01 -5.387414262428041889e-01 4.506970953537952629e-01 7.270921242668726414e-01 6.708146049612391248e-01 -2.229189164971659975e-01 4.133939034684825931e-01 2.083085392981377237e-01 -5.310441698261814114e-01 -5.277877834425722670e-01
-5.568178635663537657e-01 6.845166495851647825e-01 1.423406741117546614e-01 -6.888164322883653101e-01 -2.029091861634734484e-01 6.258117156941545023e-01 -3.087287855868136588e-01 -4.764263396412574125e-01 -7.514126744832586580e-01 -5.630949621001578587e-01
-6.568075269202541255e-01 1.148863065097211478e-01 -3.198527196244087267e-02 -2.453360505303864569e-01 3.130186965637107854e-01 6.614343817344515708e-01 -2.586358065015861296e-01 -6.769174455779115585e-01 -5.918759117882743670e-01 -2.573974756262101815e-01
2.016289719511838996e-01 4.092597378900126870e-01 6.851305482554967408e-02 1.527560179149326514e-01 5.856136768233830558e-01 -7.104614159983668742e-01 -3.129761759309640512e-01 -7.428778235393833640e-01 -1.263223842144235720e-01 -3.546306986870616518e-01
7.123797451500317734e-01 -6.936222543459132917e-01 -7.744663037145069207e-02 -1.562550102216872516e-02 1.620241969949605676e-01 -6.815053059852279604e-01 -7.093439515680735052e-01 1.559041620171517650e-01 1.046961874174709844e-01 2.794645058255092462e-01
-2.699869137231823979e-01 -2.281915498840318135e-01 -7.282485979413098054e-01 6.315135684893167234e-01 3.333599791832461690e-01 7.200075269800660926e-01 1.382007273609988929e-01 1.802368596679327362e-01 4.131096323504295786e-01 -6.314375993486343042e-01
2.193373916744076335e-01 -1.134199043495556086e-01 3.880825547232876205e-01 6.939880477509817736e-01 4.046776966649541507e-02 -4.293717963734513532e-01 5.108566488203328815e-01 6.579503897740572871e-01 -1.057258543370099557e-01 2.316534792274464651e-03
-8.104415101005107980e-02 3.935423935115830441e-01 4.558453895873677830e-02 3.235013873556953912e-01 1.228086010256805444e-01 -5.186253152040051217e-01 -1.464279357710317545e-02 4.119679671476613181e-01 -6.098823931579746560e-01 -3.399302747369759570e-01
5.450784051648935868e-01 -1.984236475943210454e-01 4.779112597002627139e-01 -4.427629619013444540e-01 -9.303125556133361174e-02 -1.079990713911662681e-01 -6.320521044901529217e-01 6.901680289135367907e-01 6.280908548405406133e-02 4.384353127406644124e-02
-3.784794800305268381e-01 -1.566329388734868377e-01 -8.599129959292077519e-02 -2.349164592527015205e-01 3.446224431134768396e-01 3.978065057309275732e-01 6.796844193935577261e-01 -1.348220807009066213e-01 -4.600818670812517053e-01 2.018882739576395025e-01
4.301543357613357155e-01 2.448967489494937033e-01 6.279621277064624252e-01 -4.698117948170529301e-01 -4.293597366983591956e-01 2.277858189728418081e-01 -3.686777578590694771e-01 6.316263626924835117e-01 6.692103852059477775e-01 3.562749388497285508e-01
-3.592587898126507473e-01 7.139503842541895517e-01 -3.179846829531288166e-01 7.074745152208091747e-01 -3.819798862138873985e-01 -2.923044723631924025e-01 5.583827512313338515e-02 -3.553175820768639248e-01 -2.406796248686382533e-01 -4.439789397861483855e-01
-3.322766804016248909e-01 4.297487511476668631e-01 -5.643176390279114329e-01 -1.484767662078050887e-01 -9.390510808285297550e-02 -3.902716324232848311e-01 -6.845876010786730026e-01 -2.756131741011416114e-01 4.147859262368917554e-01 4.628305103869113091e-01
5.227117978060157322e-01 7.223920616848792386e-01 -2.640426307044330678e-01 -5.876004512175417860e-01 5.785505525310253860e-01 2.514907266324779567e-01 6.947513876493208729e-01 -4.853724434594908210e-01 -6.945733269203103744e-01 -5.996100947234515866e-02
-5.383509333576053102e-01 -7.353668744718636630e-01 -7.148821969902543483e-01 -7.320595936218793343e-01 -3.191390307425950867e-01 4.763523628632034823e-01 5.756006836834770546e-01 1.781094482799252532e-01 -2.435629495186008089e-02 1.819982674376458553e-01
1.278785877506314339e-01 -1.999854035287809695e-01 5.443073526734877321e-01 -6.367153139511223525e-01 -4.039350829333682724e-01 -2.015557599966782409e-01 6.067801405851424024e-01 2.739656256200067447e-02 -6.024353850708491498e-01 6.504058824198361011e-01
-7.891420600589140605e-03 -7.433377470344053606e-01 5.047310553444932513e-01 -1.023161947038270375e-01 3.117469240241703687e-01 2.144744083121945255e-02 -5.685790215484958221e-01 3.412576651848854281e-01 -2.061078203338950754e-02 3.740602189701071612e-01
-3.947951154285356257e-01 -4.823258186386386592e-01 -9.239546664981324042e-02 -5.312950910192000276e-01 -3.399761493063285789e-02 4.919158757469955789e-01 4.935893198536170923e-01 -2.253385432722027626e-01 1.130917434521130777e-01 -2.312638115503957703e-01
8.415951512741587370e-02 -1.750291345879730898e-01 5.549839906241319509e-01 6.305468453796628792e-01 -3.817147615926956838e-01 -3.685647991910552812e-01 -5.828050708832959170e-01 -3.709056747691547029e-01 1.854499450027345953e-01 -1.437429902920212277e-01
-3.381279964145662564e-01 5.004033249018023932e-01 7.523826215197384482e-01 6.554032427278645434e-01 1.322525246478836736e-01 -1.281180921989825416e-01 1.082466436184459785e-01 -2.075417156091644566e-01 -2.834081492207856656e-01 6.160776321206151707e-01
7.239543044608576228e-01 1.773345744924794132e-01 -3.300231874283103273e-01 -6.361915759096274936e-01 5.347019496094057578e-01 -4.933720446050376407e-01 -3.649667957345634761e-01 3.474334343079720777e-01 2.558982540576398845e-01 5.665022134401717091e-01
2.508110971585360005e-01 -6.439624692012306806e-01 3.524387759471707127e-01 5.986373267390978636e-01 -6.710913997194134506e-01 -4.683592586122748980e-01 2.012383006635335148e-01 -2.146934486796170383e-01 6.767579646835489848e-01 8.691041492299133794e-03
4.369786414427498933e-01 -7.792278219420244179e-02 -4.436354438229118125e-01 2.426515971071973032e-01 -3.380784046834215406e-01 -1.451223272043847615e-02 -7.028804035102574899e-01 -6.926194368435438786e-01 -4.737469534512080971e-01 4.746129779348124966e-01
5.719560060182466987e-01 6.535428413164473538e-01 5.747571779954643301e-01 7.091840010841249375e-01 -5.302126895475569590e-01 2.203461927053906866e-01 6.974612663136556812e-01 1.641377243533811148e-01 3.934576224799476996e-01 6.419410393714367613e-01
-2.478577746664921977e-01 -2.667589532799164442e-01 1.432167432116251971e-01 1.911640247245996183e-01 2.430152554560973954e-01 -2.805298343228425639e-01 -2.743801844733073092e-01 2.748026783820136515e-02 7.347716951099261262e-01 -4.310772887490908478e-01
5.404779535127888224e-01 9.852856309846001748e-02 7.333262940032354571e-01 4.840637652340853414e-01 -1.882363866891436088e-01 -5.201309012509806040e-01 3.232485893676624311e-01 6.632114924815212254e-01 1.252506098466842355e-01 -3.753126363068320370e-01
-1.358573545043923469e-01 5.219813996127368322e-02 6.108319259241773436e-01 -6.962360541793299884e-02 3.650965871924743977e-01 1.969609174006644314e-01 -1.028866464958536758e-01 -4.614857242281730221e-01 7.116441768801547163e-02 -3.982510759548858470e-01
2.983024285086993133e-01 -3.941409176531571745e-01 -4.779393150148011915e-01 2.934569423749333605e-01 -4.404299229800478499e-01 -8.398079646900025175e-02 4.984233871201743798e-02 -3.996207525403440708e-01 7.051667654320508127e-01 7.955638267764991722e-02
-5.813644998448546097e-01 -1.927711101404740446e-01 -2.024161692556849523e-01 5.535211530420971471e-01 -5.592033262330128318e-01 -5.846618505608600636e-01 -6.374056580382942983e-01 5.144793406821660531e-01 -3.895033246441316765e-01 1.664361257861467214e-01
4.047666298598960322e-01 -9.106257790068766900e-02 2.386091242681789848e-01 1.075354541046328327e-01 4.590310726964815652e-02 4.782585084449913482e-01 7.216542385288698958e-01 5.628996069995888529e-01 -5.951838450531425906e-01 -5.648860948460179277e-01
4.888331508339813225e-01 7.310604092983480351e-01 2.908571746216512960e-02 4.873370877999269601e-01 2.129083964183472732e-01 5.419700292668065966e-01 -7.158229470530381722e-01 6.161416467126433760e-01 -4.481080909558651793e-01 3.510760739885988024e-01
4.751896730514328926e-01 -6.536207271791202311e-01 3.008503617562203192e-01 -4.626671321535128500e-01 -7.245876933271785392e-01 3.430549513388039123e-02 6.322990601976834490e-01 2.273234961921391517e-01 -4.819205244843018932e-01 -6.751215613870035215e-01
-6.982085346935087422e-01 6.568183965890161957e-02 4.506793731528284108e-01 2.530439977764867843e-01 -3.252691787079479147e-01 -4.925947218527123028e-01 2.151365848851023721e-01 -6.194693042723972143e-01 3.174642888350512338e-02 -5.327083156906347039e-01
-7.475514726714582725e-01 1.386036891414996197e-01 -5.855644939052397913e-01 3.324109384059873995e-01 -3.933761880859122373e-01 5.627659467972696838e-02 3.908306525096099104e-01 -1.766785946784609485e-01 -6.322766315098286016e-01 -6.802788220337100400e-01
-3.422689339818650867e-01 4.688573765315037223e-01 -1.417252118877903276e-02 -2.728353300406013981e-01 -3.151028558950234593e-01 4.749057171980985981e-01 2.853584011172493051e-01 3.551286803998602859e-01 4.554530164444571816e-01 1.284139220633616629e-01
2.869359061987898918e-01 1.898358462008424286e-01 -6.273666434247539003e-01 4.521159868407496618e-01 -3.498271911918431898e-01 -4.229849921417019321e-01 6.812142485249216284e-01 -5.721870753608667703e-01 4.409272300584269333e-01 -2.764834352082550309e-02
5.608024542613559982e-01 1.588061551374568836e-01 1.475010743962484050e-01 1.645734627472499045e-01 4.989487612514572068e-01 -4.121132283672379430e-03 -2.618581061494995033e-01 6.459626281687504967e-01 -7.318553612426851318e-01 2.781474319378576809e-01
-4.749528698368979396e-01 -6.966121666864003581e-01 -1.011123336453067512e-01 -1.658076680373370970e-01 2.323756645753686512e-01 -3.095054672546110330e-01 -4.049883485327624988e-01 6.835321536001334741e-02 4.882297062893433681e-01 7.246874035829435901e-01
-2.760881571242636001e-01 1.595246508322855361e-01 2.373523847983379786e-01 6.160400180380196655e-01 3.939836305616867818e-01 1.813670201838251672e-01 -7.482108332889685354e-01 -6.328221845334319751e-01 -4.033679316066382525e-01 -4.644325290700650477e-01
-7.143750753840520940e-01 -1.732672902906725043e-01 -4.443827695969927993e-01 8.254008085658892657e-02 -7.510454096807021029e-01 6.535037369010063824e-01 1.788079906862904411e-01 1.990403953514855440e-01 6.679453251125424540e-01 -3.381284813666899924e-01
7.751212423773097548e-02 4.633727187629037986e-02 7.043188677154588184e-02 2.145490723273374978e-01 5.532819645250266344e-02 -3.872914872317813062e-01 8.465676989178220341e-03 1.534734972250688112e-01 -2.434510773964587982e-01 5.757594847923273029e-01
-5.003014668818841493e-01 5.139841032158580791e-01 -1.114810155686240395e-01 -6.797864805965835311e-01 3.511568418667967428e-01 -2.735447013799787164e-01 -3.548663873118091394e-01 -1.737467522686521326e-01 -4.205509158681636772e-01 -3.497457175458257850e-01
-1.544281113254172000e-01 -3.393747330500558879e-01 9.482615772348680638e-02 6.624460835375536871e-02 -2.094812720748598922e-01 -2.278859849244412039e-01 -2.338536548238987975e-02 -2.746698560382492826e-01 -5.988273833836444959e-01 -3.359996599334610368e-01
3.824977839488999942e-01 -7.460995802755870931e-02 3.388230315744539811e-01 4.504768934833692784e-01 -1.781601794346455159e-01 -3.603287090547105387e-01 2.656556381444450873e-02 -2.475029467758889934e-01 -2.682989651624915206e-01 -2.528418891865206186e-01
7.297432430621093591e-01 -3.917999030675721750e-01 5.860719480014309202e-01 -2.820092264657714579e-02 -5.182091091884621914e-02 2.200707002565872039e-01 -6.920802984102478739e-01 1.583739592326733614e-01 3.339031846522240166e-01 -3.820232760802975691e-01
6.195016643103126164e-01 -4.012093134123210780e-01 3.978968854808919153e-01 4.409351778276496270e-01 6.207639550748258461e-01 -5.944758144655590826e-01 -4.413268346070373105e-01 6.539299885046296890e-01 -4.593399718448642477e-01 -6.988318943968688801e-01
-4.182397667040330114e-01 -9.587997464371345036e-02 -1.129816255870335073e-01 5.844919025550238123e-01 -2.809122799488286137e-01 7.051237083126018490e-01 4.554774860610441567e-01 -3.592622259828901488e-01 7.144544294594769307e-02 -2.600694371971396524e-01
4.972301864616843203e-01 2.919885320605596912e-01 -3.141803188658456869e-01 -6.411336155006885917e-01 2.588531366380326104e-01 1.847135130418291471e-01 -6.083274276391774649e-01 -3.422237947003787251e-01 4.436239628269200153e-01 3.770513548261386072e-01
-7.404974589090095316e-01 3.976759512503891258e-01 1.601790447799124606e-01 -5.184813408905535326e-01 -7.504903524917969637e-01 3.166292422653443905e-01 2.219485135785842778e-01 -7.035089676613771603e-01 3.586334283294380088e-01 1.253922229275206968e-01
-7.430001887515115255e-01 -6.592659095500453814e-01 -4.598265746326182790e-02 6.309204012677360751e-02 9.992725916084846394e-02 4.419816573133975579e-01 2.604037848402080968e-01 -1.373978022945520350e-01 -1.248130258937220488e-01 2.539203541686842480e-01
-7.315846292050427468e-01 1.014067549156393022e-01 -2.348228561584786434e-03 -5.844345319426191843e-01 -5.056483934981925721e-01 1.853615426311605308e-01 -1.600414242486118965e-01 3.855226083398718417e-01 2.024027502193302408e-01 -7.404128592664809272e-01
-1.045288795879138616e-01 5.765146637252594949e-03 5.635316618097150343e-01 -4.495983195018188328e-01 6.588941231412672739e-01 -5.651637199561009295e-01 1.985175918816808535e-02 4.706549469801360464e-01 1.469893492698977344e-01 -5.296824531784780632e-01
5.284791453199203515e-01 6.433231775707335398e-01 -5.617938753057776236e-01 -2.185354663169055411e-01 6.624393910731841695e-01 4.760492487891150315e-01 -4.828317493798422455e-01 -1.210018644654163450e-01 5.214103536822356499e-01 3.283999407660491698e-01
5.661711392952306632e-01 6.244868548261226504e-01 -5.826200104952355963e-01 6.993963985916151760e-01 6.813886681761902597e-01 -5.219600295827425684e-01 5.922001713900676423e-01 6.896809073010776725e-01 -7.347418661355262781e-01 4.806798155990790050e-02
-1.793117272002497375e-01 8.539936109392776142e-02 -4.456971103441533244e-01 -1.337500777781515382e-01 -2.579960237101929232e-01 4.633607964705620530e-01 -2.098978398526516465e-01 -6.934392826532643772e-01 -4.815565735525077495e-01 -7.488420350558792071e-01
2.167195870271319824e-01 1.929581282105427001e-03 -5.476009954954855763e-01 -6.879411037230008796e-01 6.251878534859486303e-01 -5.351658424440483008e-01 2.766108059355629756e-01 7.586803578929096105e-04 -3.032347818762361480e-01 -1.891126749971464849e-01
7.339586830030493392e-01 2.333507473096274876e-01 -1.646840035165582916e-01 4.902723794834526472e-01 7.051632646854061326e-01 2.336150302048917160e-01 -6.329091071318984629e-02 2.271470561105370656e-01 -7.435267472068161076e-01 -3.837519887466246948e-01
-2.571376870463482622e-01 3.622097640939979102e-01 -4.259807504131513448e-03 8.074824173834922736e-02 4.593459156559297485e-01 -2.078530062787047328e-01 -6.339363600339446014e-01 9.237489947054966510e-02 5.786564135645774209e-01 3.710766452116071729e-02
