-3.741504313045861951e-01
-6.963566197246667810e-03
-1.728542117587194768e-02
9.075574830920239700e-02
9.398408268071350991e-01
-7.906806485024503450e-02
-3.898964572507067627e-01
-2.184292720714794689e-01
2.440802456442393159e-03
1.034339634546853404e+00
1.810559295677421077e-01
-2.094944019067882315e-03
-1.557907117920352691e-01
1.101711715074421560e+00
8.591145506565881496e-01
-8.580030540843426243e-03
-6.191684951299056272e-03
-3.109476138761360815e-03
1.382748250690666592e-01
3.172750388850642533e-01
-6.748288886617062610e-02
2.123213799912533339e-01
-2.766878632198574994e-01
1.197487421099468069e-01
3.029842916635215946e-02
1.983903661582132327e-01
-1.210371299275768593e-02
7.015102913157561515e-02
3.166727723275741813e-02
-7.094840730077995872e-01
-1.546500479528209460e-01
1.043083325960403318e-01
2.271187841525866280e-01
9.647282219031854122e-01
-6.622699361058811407e-01
5.370221573255205133e-02
9.914282465562899993e-02
-1.134856896719995019e-02
1.075838863879464008e-01
3.273703987784039593e-01
1.412620348137181084e-02
-1.489643315476731344e-01
5.136496278546257704e-02
-1.436890191951444296e-01
-9.504209815447755769e-03
5.923124470237896011e-01
5.828497834316340859e-02
-2.815851644324891545e-01
-3.416640094087248780e-01
5.141156702607579260e-02
5.148077130791636757e-02
-2.544549606527884422e-01
-3.588296555444602139e-03
4.599672832227970076e-01
-8.990876362063089655e-03
-2.651575467717275369e-01
-2.288245828750167399e-03
-1.188372682052028229e-01
-5.553434141933312473e-02
-6.418770277526296289e-04
-1.990443793968677266e-01
2.653137909337290740e-02
1.326869946401997014e-02
-1.134088923709508090e-01
-2.368570429044404291e-01
-2.070720781404556191e-02
-2.218424277865615535e-04
-3.815224204818269960e-01
1.650234627210603322e-02
-9.599386094028303229e-02
-3.265557072587214060e-01
1.357531786638540780e-02
-6.581462650465171038e-02
-2.469615349561827822e-01
3.905257750920427817e-01
1.753126358360286741e+00
-4.238323761570257919e-01
3.998503854905723770e-02
3.803187444148213858e-01
8.097162960828239650e-03
9.748186497153297214e-01
-5.295390426790543004e-02
-2.429206380369799412e-01
-1.446694840536788540e-01
1.274276612118466767e+00
4.683269836492369720e-01
-7.944349864867483735e-02
-1.691654688018988037e-02
1.181495570025569153e+00
-2.444673347816193019e-03
4.125097912964217559e-03
-1.595217341820625960e-03
1.507105305095327863e-01
1.702299178734813234e-02
1.128434862024025286e-02
-3.846429964248770372e-01
-1.412968403739564961e-04
5.037114885587633262e-03
2.036967039676154494e-03
-3.828864063290060571e-01
-2.746376278399073056e-01
-2.030465375115444310e-02
1.144553846877051362e-01
1.132130194174269244e-01
5.452577242013624537e-02
5.328983099714646940e-03
-6.237771349703249424e-01
1.656111370803584060e-02
1.325360258926636114e-01
2.217698174664280153e-01
4.949525107861025425e-02
1.184334650025123392e-02
1.603386279211042043e-01
3.756337233477020088e-01
-1.638627979738309023e-02
3.346313692916606970e-03
8.965078876614825110e-02
-2.883271866881506433e-03
-5.433057771584092442e-03
-5.786825776988497871e-01
-9.517129930668775939e-02
6.892610619909966818e-01
-1.894168645532536555e-01
1.849769175743964933e-01
-3.984101265435704281e-02
1.636006402181781061e-01
4.527964080675622727e-02
5.560265754695586926e-01
-1.685806335977442678e-03
-1.796265573784361635e-01
1.471063826862991419e+00
-1.364789601215544122e-02
1.657186319295130827e-01
2.271074344041326687e-01
1.272419153355596744e-01
-4.612942504010977829e-01
-7.140110239303307238e-02
-2.674863730932108830e-01
-1.227803667220382297e-02
7.979115040956902272e-02
1.344753499356210469e-01
1.742629128084966228e-01
-4.540265100856822889e-01
1.295878584193670136e-01
9.535930816593607418e-02
6.805872157044872035e-03
-5.642560181254115959e-01
-5.523003114428721126e-03
7.173446479786042829e-02
-8.889391001919845492e-02
-7.438252904935051257e-02
7.387144044953908306e-02
-3.697061160696938353e-01
1.825414132056807082e-01
-3.475425838066144024e-01
-2.222930954913609480e-01
3.072910489426586844e-01
-3.210022567253290049e-01
-2.717865249575689424e-01
-8.661219949411415320e-03
9.880191014766398494e-02
-5.206256154542108529e-03
-1.756562251440813016e-02
-1.813146688567068288e-01
-7.453552479268947817e-01
2.008805251576842865e-01
-1.994543702766616577e-01
2.316462896837048757e-02
-7.057393202022005374e-01
2.072659293273356254e-03
-1.143230018015482449e-02
-2.160616027887264992e-02
2.012290146663504031e-01
-1.514743260926671720e-01
3.941599305271504816e-01
-4.382510735891983339e-02
4.329875847275461709e-01
1.537096106357267733e-01
-2.787034127486994611e-02
3.467231273334891919e-03
1.868804708358984823e-01
4.966735594461808151e-02
-2.065112792906024231e-01
-8.688431160198750725e-02
-1.067247434702670028e-02
-1.031757992648687283e+00
-9.146269807251074246e-02
4.617035831342524571e-02
-1.323529645488113748e-01
3.828936324750967235e-01
-3.136004036705950515e-01
1.486213670974010359e-01
3.132326456397627537e-03
2.932408513120003390e-01
2.946151586101491623e-02
-3.740937511736527887e-02
-3.483363159651672869e-01
-1.912384821329190523e-04
2.637325777397914531e-02
-8.895964743187416424e-02
-5.641660063988403889e-02
-2.276039146632810942e-02
-2.470749484798407947e-01
-3.032045240599538696e-03
7.849187551150439701e-02
-5.948287887950742814e-02
-3.372180637110389068e-01
5.877336339636710649e-01
-1.504610686730172009e-02
-4.843463327451141831e-02
1.165166664668181636e-03
-3.276859664512073445e-01
-2.028114399357563991e-02
5.029097062291083484e-04
1.690928510506327365e-02
-4.091354177170805628e-02
-6.922960018571049368e-01
4.389272568334177949e-03
-2.419594231672480833e-01
1.183997365039687194e-02
2.990095454077641435e-01
-1.785319110631842232e-01
-1.694351567641217901e-02
-1.227771150542623368e-01
5.515292720010196020e-02
-1.279507817159953979e-02
3.887774913349830719e-01
2.216727333807015365e-01
-4.929755133140973147e-03
-1.485833148416289794e-02
-4.936562820560003173e-01
8.767418282130395868e-01
-3.235381051269497488e-01
3.189758310805078101e-01
9.858742714379522751e-03
-8.559985199663136535e-02
4.858757632031327628e-02
2.020142993807030884e-02
1.136594902860165075e-02
1.587232526318676368e-02
2.296860640108666085e-01
-1.669296143721185344e-01
-3.356488359704944968e-01
-2.849872588636585546e-01
-1.309504101279324595e-01
-7.314491494326404164e-02
5.168116849962172132e-01
1.191996411628523135e-02
-1.358417994415332675e-01
-1.457368084586689594e-01
-6.771850682460006654e-01
-2.266632519951898572e-02
-2.280648043906774447e-01
6.907331580194685759e-03
7.983861299885379459e-02
6.077192730045223590e-02
-5.709619252968978209e-01
-3.598820220606600145e-02
2.154037213689676336e-02
-6.349174322526114633e-02
-1.463183716291818481e-01
3.800611642751418606e-01
4.476756156171692730e-02
1.335133774479842161e+00
-1.368328753602588432e-01
-1.369814918771158126e-03
1.032637842985267146e-01
-4.901750380526822548e-01
-7.495521646464537932e-03
-1.088413724168948715e-01
-3.790883641259315540e-01
9.345830166904327274e-02
-3.344685638985323561e-01
-4.462140949055729000e-01
3.248368553739954673e-03
9.210344188708604607e-01
-1.527488052643919125e-01
-8.917618660211297510e-03
3.595409895733715500e-01
-1.033793996573852958e-01
-8.988805919871478353e-03
-1.626788791591893546e-01
2.314718450326087029e-01
-4.651444318587351079e-01
1.203620414582269732e-01
1.613157865475876029e-01
1.231543210603634579e-02
3.764027878402208538e-01
3.099866792747071192e-02
7.862186853337691517e-01
2.403476991932365359e-01
3.755194967123007960e-02
4.692755968267320332e-03
-2.750808285747358140e-01
5.578040820983595216e-01
1.127683055603291018e-01
-2.174577893685464280e-02
3.717057966539529246e-01
3.245313105841510781e-01
-1.455242099431212632e-01
-8.678291170804117161e-02
1.034612493838862557e+00
4.971487501186341862e-02
1.491006837590696521e-01
-6.611438142022227349e-02
3.575355992553309881e-02
5.183137549109676986e-03
-1.334170271990007574e-02
1.645099213263454263e-01
-2.777799553113954878e-01
2.405822758926007970e-02
-2.078268287273565551e-01
-8.620516577792544100e-01
1.315428749270133313e-01
4.269927072722332247e-03
7.262218942336642891e-02
8.767703040347905527e-03
9.285134974526509932e-01
-1.319439465677035017e-01
8.429510716619192934e-01
-4.531556296885003859e-02
-1.496441884242470525e-03
1.289971205850174163e-01
1.267419480228282498e-02
-1.096846197110237613e-02
2.709189196812632483e-01
-3.471716996684136580e-01
-8.533446656483453796e-02
-2.297367485260053480e-02
-2.869522718314820864e-01
-9.047113001119739817e-01
-5.675922668272904703e-01
-1.390666179810362002e-01
1.186218285772937808e-01
8.893850076105852542e-02
-2.545349379585903904e-02
-2.342664318134749513e-01
6.434179714762418463e-03
-1.525571411224821428e-01
-1.649780186777218341e-02
-1.061321573238169780e+00
1.963123807033184121e-01
-1.417141498726145032e+00
4.617015643928945590e-02
1.321586974297167094e+00
-1.869630350827358456e-01
3.587102099021192148e-01
2.067034285281677819e-01
5.036566879978293925e-05
-1.151525100119453610e-01
-3.049413356394261709e-03
6.424707183318094650e-01
4.902526201789808580e-02
-1.011425814661975203e-01
-9.906829465038466398e-02
3.883971941497800246e-03
-2.012393969421680529e-01
-8.409683502672894717e-02
-1.220772903834937528e+00
9.543747402232770349e-02
-2.563154058331955799e-03
-1.318421934592275274e-03
-9.998679481419961435e-02
-5.277074079061575551e-01
-7.063587509236628204e-02
2.460799330224053560e-01
2.361462236048263164e-01
-1.495940670397888916e-01
-3.031929058986731484e-01
2.381885008444753205e-01
4.977715059008926968e-01
-2.898059179976003596e-02
-1.025381577617959922e-01
4.042370045087425971e-03
2.171290810886928116e-02
2.624337520516260014e-01
-1.329719497118072441e-02
6.010896877817749617e-01
-4.168798918523340946e-01
1.513914476780012577e-02
2.266161908276385917e-02
-5.770757980900644013e-02
-1.274147536046968399e-02
1.664045234607592627e-01
-4.129631986272505051e-01
2.651731837369792899e-01
-6.699514916736463155e-01
-1.869994428931959496e-01
-9.348150237219803038e-02
-2.466150462637783369e-01
3.102134828108749076e-01
-1.799836521609602391e-01
2.159295226020617464e-03
2.633488699601804414e-02
-2.334292508371491326e-01
-2.525925191089054347e-02
3.095513841578354138e-03
-9.730462920499315105e-02
1.035105503199288714e-02
-9.238074152678450723e-02
-7.248555810824466317e-01
1.403757743922764978e-01
1.002326259446450693e-02
7.347729334284254510e-02
6.076983641820996734e-03
7.405905783760866057e-02
2.808917154201263089e-01
-3.008105889544350209e-01
-3.826754757629152737e-01
-2.384967451273191097e-01
4.898040074810240396e-01
-1.065965339540765437e-02
-1.116356787119111710e-01
-1.058906844293918932e-03
1.235866335710690128e-01
-3.521477994230363257e-03
9.306484651716934176e-03
1.830697759890765122e-02
1.730759456060195767e-01
1.320093369159934527e-01
-5.611061571044225760e-01
-1.464581981858991966e-01
-1.592246726815249591e-01
3.333881500095973549e-04
4.895393135551317360e-02
1.572102688670359294e-01
-6.030067277245576562e-01
-1.123426843974886270e-02
5.257806349925234907e-02
-2.792189144521670455e-02
8.138734534358956288e-03
-3.108103686262764231e-01
2.017541642198170393e-01
2.549395920166374618e-01
-1.705592345445701083e-02
-1.244445838746860294e-01
-2.614419598386462096e-01
9.863366562730195575e-02
4.180061739425826230e-04
8.349168991667963585e-03
3.789155855773763126e-01
4.667203757543061937e-01
-1.888244645587847104e-01
-5.679158849981744139e-02
-4.744818952869817585e-01
6.693136020878915904e-01
-7.671072107693525099e-01
-1.576921605815346725e-02
-2.076827161681814859e-01
-7.928335010696410667e-02
-2.126061824941500797e-02
9.778447901545672671e-01
-1.235543886654541179e+00
2.474882325016259099e-01
-4.514293153313054911e-03
2.527977657785688281e-01
9.135521438864668831e-02
-3.211254684664392733e-02
-2.319924792810584280e-01
3.234148908662488608e-01
-2.064055728690562530e-01
2.222415820750226617e-03
-1.213176464061295652e-02
-2.280947816299739098e-02
-4.964377429530945074e-01
-5.722136781647517434e-02
3.075765414589829438e-01
7.256128117595247451e-01
2.562200583496048178e-01
-2.597069144592969656e-02
-1.841160896413216175e-01
1.748532985006226101e-02
-2.481560478181876195e-01
1.670540101219504655e-03
-2.748869503231940459e-01
9.711991245053001875e-03
-5.617604077295637599e-02
-1.101383542258768333e+00
2.032245175916522484e-01
-1.090815768822993304e-01
6.829504996852771292e-02
-2.039545711410567421e-03
-6.557927030520889489e-02
-3.110545934849268113e-01
-3.433326205086510707e-02
-2.531745866327785310e-01
3.307986442034897001e-01
1.948541416691798867e-01
1.902480591170741642e+00
2.090354965772526184e-03
-3.888211748726879552e-02
7.197980733919826513e-01
1.882765845898094065e-02
1.004303148031964084e-03
2.229706723527953571e-01
5.589420460670689421e-03
-1.837557931200006940e-03
2.970488904545713904e-01
-6.194207508592041930e-03
2.578512605748292108e-01
-8.945184970696780369e-02
1.527623449960777494e-03
-5.049495385021468552e-02
1.783691026871619956e-01
-1.698887630814638061e-01
4.686095493710007269e-03
1.207167292685314142e-02
-2.847822971745825327e-02
-4.894041528997436497e-01
6.067494044240993034e-01
3.267281584905382726e-03
9.111682431979933883e-01
5.710817806311305200e-02
-2.239669724439911826e-03
-1.070206159286474223e-02
1.041311745559848727e-02
-5.846063351164135398e-03
-1.030284038489557956e-02
-7.552736329306518337e-02
-1.162412496087984470e+00
-7.680191727410969060e-02
-2.625810662809746621e-01
-3.214086875929934028e-01
2.964328748635625295e-03
-5.840127988811080195e-01
-6.488372941140088668e-02
-1.551413783745840269e-01
9.319056955348518911e-02
5.434232490806533561e-02
2.919359191708917334e-01
-4.471091166463869032e-02
1.617275227051441777e-01
-1.468171323701567867e-02
1.048107437864465308e-01
1.837476065950373050e-01
1.527057512889542883e-02
-6.663663359839765155e-02
-1.764622458769073421e-01
-1.896577605629844523e-02
-7.932861053962897771e-03
3.944256972783945908e-02
1.195895104572161985e-02
-4.554070257500483082e-02
-9.714194923200200615e-02
2.744870392573897817e-03
-4.617587264812203496e-01
2.251039488693468149e-02
1.591801966541857641e-02
4.643211871326123341e-01
2.140671074825784004e-02
1.399219336712112863e-02
-3.891062099932848795e-01
3.087068266635153990e-02
9.773659627680497675e-02
-2.284693719729692998e-02
-7.960539792217083410e-02
-3.338746790710816342e-03
3.710201431465251325e-04
6.513661213113355539e-03
1.531639910438266534e-02
5.469094407710897721e-02
4.077119028388766914e-02
1.260146304139603442e-02
7.536403289923268578e-02
-1.840248176393712021e-02
4.594744874004778705e-03
-1.428041064692382900e+00
6.384991361882059735e-01
-7.309958477670772115e-02
5.045407036187629091e-01
7.496251391385985730e-02
1.726815553869894644e-03
-5.715442886020900559e-01
-5.475049859016084888e-03
6.892460517092036283e-03
7.561717069844288257e-03
3.671420311587656610e-02
-1.030963446172787901e-01
-1.017642149598333656e+00
3.087075004070029272e-02
7.116588219203152654e-01
1.101005196940515324e-01
-2.952256894158917719e-02
-2.904854563865987439e-03
6.035596372081168670e-02
6.009293586996644621e-03
-3.029764910130515743e-01
-2.497259430831026694e-01
4.412115136589075254e-02
1.531613800293842587e-01
1.621290528687591714e-01
-1.991844177831212093e-01
-1.564544635012138085e-01
-3.216077011335379821e-01
6.480804755298093245e-02
-3.513423512000153973e-03
-8.825806955975103174e-02
-4.391591618203621872e-01
-1.412730012951841085e-01
-2.220359053102201052e-01
3.106181096103906025e-01
9.718365900741337063e-03
2.477994838465795990e-01
-4.481596101356730699e-01
5.530993299637772601e-03
2.290809425668637045e-02
8.390532044861526151e-01
1.392444991608134119e-01
4.083663202932722447e-01
-1.456078268788620761e-02
4.921012842781899432e-01
-7.978291710550385052e-02
-1.814285720602978325e-01
2.072409975584698846e-03
2.888488512036834766e-01
-1.447813365694317900e-01
-9.291759506628522250e-03
-3.100015275469983345e-01
-2.689359944149429249e-01
3.712269316181306955e-01
-3.664088860112343360e-01
-2.188371361096689161e-03
1.376133038569785604e-02
-5.105898490899248854e-01
-1.647969575088531757e-01
-2.953834685097550192e-02
-1.026918013865305845e-01
2.029291282715379729e-01
6.004327861444815929e-03
-4.321548618935116409e-02
-3.769748751050566726e-01
5.515977282498170098e-01
-2.391679410350925836e-02
-1.819761320189394738e-01
2.003943162645064613e-01
-1.248900017951689728e-01
4.893442615231380355e-01
5.149043900710545928e-03
-5.004144409702756535e-01
3.651246495283156854e-03
4.959220742837083112e-02
-1.295938708534494499e-01
-5.262482427693806475e-01
-2.706745734217157542e-02
-1.038687407449791628e-01
1.218013197491727984e-01
-1.816997130193254151e-01
5.830212969544024126e-02
-2.183847000897204405e-01
-1.095397817138384911e-01
-3.017130946975635220e-01
-1.922552808962896959e-02
-4.664890858968887694e-02
4.126682349271785788e-01
-3.389770729793625259e-01
1.914012882706163680e-03
8.994994716102761023e-02
-2.984535344987699346e-01
3.948492101601632637e-02
-2.432336899812755429e-02
-2.059135448128361079e-01
-1.700010060069254425e-01
6.315330386822527453e-01
1.402476585993700509e-02
-2.499762458820991434e-02
5.491750980861230813e-01
-1.687287319260034057e-01
-6.538324114534654202e-03
1.247659124957953614e+00
-1.437206205752861454e-01
1.960436072593639278e-01
-2.487008712493141427e-01
2.010321961617927977e-02
-4.602283059468940674e-01
2.399357832247630273e-01
-2.466629346945074450e-02
-3.185023915059747024e-01
-6.857298927653072973e-02
-4.488569170003178788e-01
-2.534888814523830747e-01
8.298381883474918730e-02
8.695017405594097915e-02
-9.621333343457595666e-02
1.649284989540483470e-01
7.299519584397677618e-02
1.555799465467642279e-02
1.414806973221148234e-01
-5.284412427369575282e-02
2.554136389079251276e-03
-2.501154692173899585e-03
-8.380665237653610322e-02
4.740275805999366043e-01
2.850074910406011353e-01
-1.220632510353653194e-01
7.127637787570679784e-01
3.692097090231560158e-03
2.157285206822351017e-02
-2.142013184325253228e-02
-6.532547362572641014e-02
5.072027649863340010e-03
1.423854460208512362e-01
1.621663365126651060e-02
-5.593344034160575573e-01
-1.478341424299228768e-01
5.846878638683341567e-01
-2.526173849029608176e-01
-3.923999126126823112e-01
-1.673174243393909799e-01
-2.795238200707433340e-01
-4.390152802929855880e-01
-7.346077140508647371e-04
1.001159185966809737e-02
2.158865963653027464e-01
1.486681183605131039e-02
1.458587073715555682e-01
-1.265837608220588273e-01
1.064379786398526456e-01
-1.157827041299227089e+00
-3.053978249549476054e-01
-4.780351939257592234e-03
-1.953278361263288965e-01
4.803050148939271013e-02
1.877677459970988200e-02
-2.765235057876691549e-01
1.454120495744608832e-01
-2.979508853442087990e-02
-1.895776466573498645e-02
6.344619806764898937e-03
-7.801374034228054644e-01
7.458769789324418142e-02
1.425073530942333744e-01
1.282395118333308492e-01
-3.327216660804738907e-02
1.183499635850937710e-02
3.017023667944560561e-01
-1.037562626224557277e-01
2.785777901562486170e-01
2.448721799618384654e-01
1.228797979973481752e-01
1.476140433030118104e-01
-3.060233176739494132e-01
-2.106425202339923253e-01
1.426772124616093373e+00
3.279136166808045011e-02
-2.245982138975702036e-01
6.885556036714216878e-03
-4.531688579986635837e-03
9.313926785913074768e-01
4.655729556452857243e-01
8.680839417419904114e-02
-1.940914280576308271e-01
-8.142182929695720439e-01
-1.813877802257063757e-02
2.498342525589851704e-01
-1.229124509564076817e-01
-3.533305162449431464e-02
-1.124235997422410177e-01
1.171215905886613569e-02
8.387014900599550904e-01
4.570809611622464463e-02
-1.193492602232794075e-01
-1.105083303553513696e+00
-9.506520830439444403e-01
-1.641701582714821242e-03
2.710533517707879314e-01
1.930166342982893857e-01
1.813795761123914753e-03
4.659180586123258527e-02
-1.878467510990798617e-02
-4.470426128238357000e-03
1.221152063738237779e-02
-5.144601731934331790e-01
1.972044149709872504e-02
3.289471426642374963e-02
5.359296009859665366e-01
9.173731001517027028e-03
1.656089589198560530e-01
-3.608687170994954729e-01
-2.096999072030179476e-02
-3.031774447756124813e-01
-1.140215903455890079e-01
-1.258677955360311407e-01
-3.372263322878356062e-01
-9.927758159694895224e-02
