8.259405627223700419e-01
3.629831361170137230e-03
-2.543343219105103845e-02
4.650863780087004305e-04
-4.336350336344058642e-01
-7.918455870352246739e-01
7.967222098783126594e-01
-7.110894318436043748e-02
3.039247737893493941e-04
-1.026748503956230074e+00
5.659229023722992316e-04
1.314099628938091291e-01
-1.139370697963402596e-01
-1.834957730767028838e+00
2.878209030374528563e-02
-3.703718795319881352e-01
-1.602065925409454751e-03
-1.173938542115398167e-03
-5.652352833514025926e-02
-2.394116037717615442e-02
-1.548181536471619074e-02
-5.037577088819043813e-02
-1.801631865844902872e-03
-2.502284059512365211e-01
-2.535697739779766979e-01
-1.082627611846626314e-01
-1.695394301303523171e-03
-8.693061861708046845e-01
7.750131866139507719e-03
-8.687529844475726515e-01
2.262774028551387817e-01
-2.115397293967144488e-01
-2.132801558093366523e-01
-4.403088054258501027e-01
1.854388942612834046e-01
-4.341596017497059007e-03
5.448724525441935862e-01
1.114662723030933290e-03
-5.828962439351534908e-01
-1.082579937039130247e+00
7.836082129863326806e-02
6.675838567879263490e-03
6.102022776704570800e-03
-1.285349690332901473e-01
1.417654420892396961e-04
-1.034847817604138465e+00
-2.830744445039272139e-01
9.764674188246302844e-01
1.295033282396993446e-01
4.518059897687661808e-01
5.393577783450046459e-01
2.657204839579480615e-01
7.501109581025274496e-04
2.647312150255381677e-03
-2.106212206281117723e-03
3.231733335587311240e-01
1.110137405354024625e-03
-7.896925459379215695e-02
-5.898773025734499464e-01
5.886669195099507703e-04
2.789379093399282916e-01
-4.767574046232574310e-03
1.551635676674408774e-03
-8.435139595521180464e-03
4.422447195098134221e-01
6.840251955593460581e-04
2.106989158472795734e-03
1.936529740633750885e-02
-3.459021977255602454e-01
-4.628215492826446287e-01
3.227289030693450411e-01
-1.154937383593108210e-03
-1.961439032303757823e-01
-1.126962631295812117e-01
-2.617054877670922930e-01
-7.516256546604640487e-01
9.127635611136736271e-01
-5.673370921199930583e-01
-1.905677864543099120e-01
-1.308443765858471322e-03
-1.811270236720068372e-01
2.867367689949595205e-02
9.374660028063143136e-01
2.238858014069141922e-01
-6.450537251659804738e-01
-5.673885362444918146e-01
-6.506138418368332017e-03
4.646760061252780405e-04
2.301271657154661532e-01
1.450717772363246299e-03
2.036823027069929303e-03
2.143408308948903645e-03
-1.160667231772817054e+00
-3.591189457137737226e-03
1.855844479271736604e-03
1.090992049506270684e-01
-3.948011250012323781e-01
4.276928000688536187e-03
-6.200433402630224286e-04
5.459047033688784606e-02
3.715103107579107999e-01
-1.457432355118573695e-03
-6.664991060260076761e-02
-1.456239487066202445e-02
-1.246299967573519574e+00
-2.541290300190552406e-03
5.819474007217635414e-01
1.985382211259098268e-03
-4.527316791030801535e-01
-4.880233359886026467e-01
4.116868521455720464e-01
-1.203206080551466389e-03
-2.875038848891329525e-03
-3.342195765742742714e-03
-7.163630862439325942e-04
-3.057001350583914926e-03
4.748189104080179079e-02
-9.245677665935945382e-04
1.732674984740182266e-04
9.554552359193708710e-01
1.173721769282230938e-02
-8.793672912735108760e-01
-6.751886644817701316e-03
-1.981827119491038399e-03
5.026874150718725343e-01
5.889122441294767363e-01
-4.066527496640958694e-01
-9.052361619437766516e-01
-2.373572914747908071e-03
3.452334143446046943e-01
-8.930846848785636283e-01
9.558176639832002093e-04
-3.536976649528686401e-01
-6.153811931100379440e-03
2.452290913442337073e-01
7.154896598872115820e-01
-3.896337962531471466e-01
-1.360878906136458663e-02
6.364172048448377139e-02
-8.071038715443491496e-01
2.630213223935504163e-01
-2.196390759009838878e-01
2.264173431691166305e-01
-1.075735459090434859e-01
2.720720348058193114e-02
3.856955913660906174e-04
6.908592585031126942e-01
-1.401289286059389291e-03
-2.142283161283562720e-01
-1.687491304680679982e-01
2.210143751331456602e-03
-3.592645906527250615e-03
5.442733506895675033e-01
-6.591201688565880186e-03
9.402199355222506938e-01
1.037413727777827477e+00
2.394514444537829967e-01
-1.333667982425317715e-03
1.401424721520936820e-03
-4.676620940300271821e-04
-1.943977316182843090e-04
-9.674785879019020748e-03
-3.573991072852695985e-03
-6.767944294745900091e-01
9.513327719045590047e-01
-7.534054664578513846e-03
7.412718978617946226e-04
3.184250386390917176e-01
5.619508320199966267e-01
-3.160330630402881195e-03
-1.098314920968488295e-03
-8.333992126377975929e-03
4.606014453277635875e-04
8.441107616444801232e-03
-2.237407079349833933e-02
3.934957787861114720e-01
8.537627405350929621e-02
-4.787849208254804090e-01
6.005547616782767488e-05
3.599450597229166271e-01
1.230460233422768501e-01
6.382323255180256949e-02
3.435987393081345598e-01
-1.008648471967188209e+00
1.004590934605347190e-03
-3.184238241006041026e-01
-8.381982195702953886e-01
-2.216709939006675234e-03
3.580381607174010217e-01
-5.912290878505377378e-02
5.094906627562940660e-01
-3.522800157938494880e-01
4.018247279117356688e-04
4.316862604742701115e-01
-3.189629543829293045e-03
-1.825779288239969267e-01
4.318552353580391336e-03
-2.147782078531164634e-03
-3.345273459250446835e-01
2.388380792709398903e-01
9.476955033192490108e-01
-2.250948923667837193e-02
5.136905497382047159e-01
-1.351771797223841342e-04
3.526336540840192546e-01
-2.446048339193853671e-01
1.890345358252023544e-01
-4.087231992192643659e-01
1.833439373931711192e-03
-1.600518235723099814e+00
1.674207677544098339e-03
1.425184958888290609e-01
-7.637698817711062980e-04
7.512083742359555467e-04
3.050962605724364396e-01
1.098013663452288569e+00
3.617929853319605260e-01
8.830937061707738170e-04
-1.892420621266874270e-01
-1.159152691242676912e-03
-2.281122322468778774e-01
2.810572134714730153e-03
-4.408343843859653492e-03
1.658247764618841491e-01
-2.103973898103889129e-01
3.277643407041687905e-03
-4.426672430659681634e-01
-4.817892720335416601e-01
-2.168115781906287791e-04
9.149687170208968112e-05
1.207709367313795079e-01
-1.066103043131718442e+00
5.970496912884958318e-01
-1.237103020646319829e+00
2.610225224930025067e-01
2.362636033214871312e-01
1.621316516313479061e-01
-1.775338594214951606e-04
3.302911463147872005e-03
-1.552339495574086257e-02
1.451298891589724305e-01
-4.135698762825652797e-02
2.890223499846402144e-01
5.123919610221209231e-01
5.988266375910792361e-01
5.178111655136308222e-02
-4.037903334115501286e-01
-1.283988699316807869e-01
1.688827238781786533e-01
2.767466918468163839e-01
8.205813231845227040e-01
-7.130809803597495077e-03
3.790397124490115788e-01
1.663481220722457530e-03
-1.422192273724448043e-02
3.759663851377281936e-03
4.136682881602166129e-01
4.834783535794923940e-05
-5.541939442926663295e-04
1.700978176979172155e-02
2.127307757648330133e-01
-6.059179848290401349e-01
-7.534332098259135559e-03
-6.023211805931841800e-01
1.120053636131382729e-01
-8.757233219594217060e-04
-4.225294524151286257e-01
-3.076071248759886800e-01
-3.033327374211031244e-03
4.294480742324714717e-02
3.239793682639775518e-01
-5.844163606794827021e-02
6.502501319004359015e-01
7.253379649970699283e-01
-2.871912146808347933e-03
3.014102078924800199e-01
1.468090031387817539e-02
-2.605583939295655436e-03
-1.252328348476871855e-01
9.253210785308561004e-01
-8.918876130266813456e-04
1.206450390726573896e-01
-1.063548056879672243e+00
1.902064527305157848e-01
5.242821907595546227e-02
-7.947569612304149489e-01
-1.661519843304521890e-03
2.338522809482701525e-01
4.632131596671856810e-01
-6.493365519714859868e-01
-5.294527804242672442e-01
1.977620901941822829e-01
1.121071966501573395e-03
4.873184854260369514e-01
-8.419223242791185058e-01
3.710081148533390660e-01
8.175505671929692453e-04
-1.919178110200588094e-01
-8.372336086494347462e-01
7.301541046261516010e-01
-1.393194048804922936e-03
-5.839028164031815349e-01
-3.982567588032795425e-01
-5.928189251041452446e-01
8.779857056010902105e-02
-7.290961667774178718e-04
-2.912054068670707867e-03
2.620426633036822966e-03
-4.893154652880379318e-01
3.787913151734482731e-01
-3.695161125999993357e-01
1.615051475623688337e-02
-4.428184400769762386e-01
-1.760633321272262186e-01
-2.697932714013184623e-03
1.156904427247610473e-01
-2.565023663766919293e-04
-2.659277970098661292e-01
1.345337548040755615e-01
1.471547686915205839e-03
-2.867776551811724185e-03
3.968143502477665743e-03
-1.913078692122635038e-01
-2.676081428619355579e-03
-2.770144955231374460e-03
7.745249722129594616e-01
8.607335392034949238e-04
-4.037691502423303436e-01
-4.006938434411142403e-04
6.568319068056013288e-01
1.055893136655527531e+00
-1.339888674073292929e-01
-4.163900738619298880e-01
-9.091540595900819977e-01
-6.286499180074071047e-01
-1.664249127755240698e-01
9.142850912025792809e-01
8.549857604722126006e-04
8.243997526932479725e-03
-2.366328342591383221e-02
1.065777538053214624e+00
-1.043294353736712397e-03
8.949095052365628467e-02
-2.214992683833037213e-01
-6.306774305479659892e-01
2.015596724473799235e-03
-1.392079369084663343e-01
9.055710970462006997e-04
7.620512444650263733e-04
9.291144087230457371e-01
2.014329098160332326e-03
-4.987919552883215424e-01
-1.692407399807507873e-02
-7.351276757603356082e-02
-1.873331832368089599e-03
9.640135594182910970e-04
4.406937256094063393e-01
-8.885972890321590656e-01
-1.302039138945510052e-04
-1.326551395397641830e-01
4.142854194297454333e-05
-6.174406572489674061e-03
-5.969812389749121762e-01
1.286865705769245083e-01
3.394671024018909838e-04
-4.289355978509205580e-01
-1.051473377630629813e-01
-1.755542745153348683e-01
5.208580344850073374e-01
-1.298994466976559847e+00
-4.975780949131001774e-01
-8.612325410835657696e-03
3.631999792556816521e-03
3.789108262319722167e-03
4.999924055682251553e-03
-5.846959121346098631e-02
7.412537706428795744e-04
-3.019216490544217660e-02
3.247548615278419426e-01
-8.751390469485269274e-02
-9.084762534773091480e-02
1.225742626210793162e-01
5.666849590132843912e-04
-4.457620545425415859e-01
2.643633250190517703e-02
2.372574741101089388e-02
6.611913089560088608e-01
-4.931896466411151425e-01
-1.428128867147293764e-02
-3.094859685047929854e-01
-1.717674593314462705e-01
4.762112302121752072e-01
-3.379931982527516459e-04
-1.588890954528976787e-02
5.324083355142945617e-01
-4.139751581117070804e-03
1.382650430272694131e-01
4.447423737231686047e-01
2.069979635235175066e-04
8.695685504429376267e-02
-7.384547990086768321e-01
1.407946294794322484e-01
1.620976342513343743e-03
-1.261222992769209759e-02
-2.494464313128105532e-03
9.478444029727817188e-02
-4.710573949607133049e-01
1.084250495474418985e+00
1.072444295026883376e-01
1.765104070175770035e-02
-5.289361540387603755e-01
4.552151234496236605e-03
9.959190018818565859e-02
-1.240216239148969873e-03
3.184487293309883928e-03
-4.915382367210768995e-04
6.581569195953666709e-04
-6.575653391142986803e-02
-2.107210165267326962e-01
6.453557797690068210e-01
4.143748713918168902e-01
1.573130360396765293e-01
-3.203997898639861404e-03
4.109135512122078231e-04
1.980872449572395055e-01
-1.284829862777205622e-01
-3.731223660628230632e-01
2.997316550093111123e-03
-5.466303851603335762e-01
4.815938744254916019e-03
1.020181525659971319e-02
5.828612157508327174e-01
-1.060484877241967716e+00
-1.007576423565082591e+00
-1.257206744226334067e-03
-2.733279254950791715e-01
5.152627077259706034e-01
1.781863530828264597e-01
1.304040420704715656e-03
-1.040340857236169531e-04
-4.931243953069141053e-03
-1.709836337983636767e-01
1.607918864412083704e-01
2.704707880736942904e-01
-7.620360816293191009e-02
-6.306292960134476377e-01
4.222162073816755345e-01
3.362192313000028740e-04
7.641076339181280819e-01
2.154787365057989068e-01
1.801200985262504158e-03
7.816037480777936197e-02
4.763816609240065780e-01
-4.715234782252284984e-01
-4.241583152784890731e-01
-5.047444466782661232e-01
-8.668553189907726164e-01
-3.238221060352442990e-03
1.089425022132278070e-01
-8.108025466074072485e-01
4.567067502709849514e-01
1.893279876988814350e-03
-1.250872072119969380e-03
-7.852938886595195456e-01
2.833528097815395941e-01
6.476226808902714634e-03
9.346142620544376500e-01
4.261555104235888458e-01
-8.303820840135425208e-01
-4.974090092384385597e-01
-5.743213567860314811e-02
-6.073593819811430074e-03
2.214571468838945623e-01
-1.167973459260484128e-03
-5.501526822341089584e-01
1.778045146010940117e-02
1.555550166229899625e-02
1.054781461238068374e+00
-2.302289024625734648e-01
1.833790710476890283e-03
-8.724123971692208934e-02
2.858295850654329374e-03
2.049793419075148556e-03
2.845723705173806017e-01
-3.151902169763209915e-01
1.134093096924367466e-01
-3.384328993708698441e-01
1.808035419938763266e-01
-1.353496129199621145e-01
7.817516866391463828e-04
-3.402034001695939947e-01
-5.245495084384730333e-01
-2.320707424403605987e-03
-7.157008710635848366e-05
2.919158588450607161e-01
9.410382091494363748e-05
5.869639154392018981e-04
5.293910973419948540e-01
-3.737519354548286907e-03
-9.323341296075381424e-01
1.498908455037437915e-01
2.600103521604752756e-03
2.269553977149936161e-03
-7.008512029081551999e-03
-4.869830924004433202e-03
2.723524569430206821e-01
9.297615363214223631e-04
9.959144734450805364e-03
5.238452143747828194e-01
-2.556903890480823893e-01
2.176365803171951274e-01
-1.253179620359608837e+00
-6.270848768939042417e-01
1.822597048099858642e-04
2.215308071217511957e-03
-1.981512879925336965e-03
1.972133151473436704e-03
4.355933990418701246e-03
1.360923728583478542e-01
2.922723107387735775e-01
5.322558349443608401e-03
6.781107487430148954e-03
6.505263443621845942e-01
1.324903352659581330e-03
4.985870224754598498e-04
-6.586123468629609401e-02
1.663099867503387841e-01
7.706804630516745844e-03
-1.312402532736572751e-02
-1.771128043901073687e-02
1.339334822935465130e-01
9.492221176287804485e-02
-5.836287929069317254e-04
-5.280048697990271343e-03
-3.824759584085335451e-01
2.552667742540740050e-03
2.765777835329875090e-01
8.891216750237941335e-01
8.665606223061183416e-03
-1.068621592832206786e-03
-2.401105110797194502e-03
-1.701566054111904741e-04
-7.154813497809821010e-01
1.423783045685961170e-03
2.075188502360599246e-03
1.897314827670835502e-03
1.044044561830535789e-01
1.279681948385273660e-01
-6.278007615751659554e-01
7.632627345632123517e-04
2.005501478352184931e-03
-2.547130337448774012e-02
-1.167711755025549053e-01
6.684896264230096863e-01
1.659746795099959751e-03
5.332980588461201377e-01
-1.296537567777252681e-03
5.608801794276099600e-04
2.374655386621290359e-03
1.104985596949776454e-03
8.370387977042150762e-01
1.226926611789650942e-02
-2.781979516268902157e-03
5.242669843129078577e-01
1.650652024084544311e-01
-1.195356382763555292e-03
3.691056002656410984e-01
-7.372912766581295463e-01
-1.249709516257159481e-01
-6.734313736857771016e-01
-2.051649309366719853e-01
2.290487346210833182e-04
3.670793558839860471e-01
-1.043199622826044507e-03
-2.982851407830355295e-01
1.879059975117785110e-03
-5.007145043575421672e-01
4.164472254286107761e-02
5.576462694242898532e-01
-1.511002317006360923e-02
1.055245463377842696e-01
3.466592347676096253e-01
1.902493973027201239e-03
-2.900877050112811960e-03
-8.577393050395876184e-01
2.462901008387844981e-01
2.795870572845804425e-01
5.044725583384401801e-01
-4.288920147194596466e-01
7.471070234059201676e-02
-3.903397745601968043e-03
-2.940183202296133263e-03
6.357169786187270529e-05
6.629636738820151587e-01
-2.808991246094945105e-01
6.919134543637527057e-02
2.016217357320354286e-01
-5.577728256748827329e-01
-2.594799100190082423e-03
2.145373487164698671e-03
-9.445843135018022751e-01
1.323079363106949248e-03
2.358959911027968745e-02
3.234564398580268563e-01
-7.154316786241997628e-01
-3.436009684897323169e-03
-2.163653277321889168e-01
-1.888733979659146245e-01
-8.689331716469760325e-01
6.656043120334850750e-04
-2.230113084066568663e-01
4.371335376661882322e-01
3.032447106038058116e-01
4.944547211260980372e-04
-5.836446315508668770e-01
4.587507215832851808e-03
-4.302493535791943589e-04
4.931719890196100201e-03
3.043226772005064862e-01
-4.368811317779789927e-01
-8.732185876606657349e-01
-7.438689389271778696e-01
8.006081496802996923e-04
1.258215078176028005e-02
3.665599113393675380e-03
-3.619777951974623709e-01
-4.164077283196129385e-04
4.290239855215760567e-01
-6.662737191489870314e-01
-5.403048927154109615e-02
7.393635956311086499e-01
3.330084193291192318e-01
6.959590371364202110e-02
6.955189791311515435e-02
1.129513034705993679e-03
-3.585805075277122556e-01
-9.371003686190119975e-02
-3.570575344433372933e-02
3.451688420414372738e-01
-5.805892513043391379e-01
-2.223847836111107756e-02
7.260116118201442870e-01
-2.916384881303157872e-01
3.551341658673041191e-01
3.263954604058231235e-01
-2.665457090383495653e-01
2.860994099877398836e-03
1.532968046360098924e-01
5.409204023112047510e-01
-1.615132420740632985e-02
5.400295606418316005e-03
1.466334565853421321e-03
7.283985911704595750e-01
-2.770581455843017515e-01
6.806304023584319740e-01
-5.246942403204184332e-04
9.691191410327672923e-03
3.516838641168373164e-02
9.153476268277571659e-01
-1.093082156320678150e-01
1.355504831816058131e-01
-5.097832854011434822e-01
-5.585685945901563976e-02
-1.622540777983690497e-03
1.878718524416509925e-03
-2.011923804926067094e-01
2.586558246104181946e-01
-3.185205440457276508e-05
-6.209619159866817117e-01
-2.291542301536128035e-01
-3.548209010417206766e-02
4.995149236819975691e-01
1.760076046903199165e-03
-2.898455477796570978e-01
-6.250784838609810823e-01
-2.602504734964077859e-01
1.525537657095424049e-01
-1.247738419339378948e-03
1.634553701606525355e-01
2.968718746675123032e-01
1.208770125590374611e-01
8.099756870384727803e-02
-3.006918199714609784e-03
1.713446634088051646e-01
6.869904209933104522e-02
1.446352423126356793e-03
1.425303804079398884e-01
5.167585651049004802e-01
9.232150913282721099e-04
5.547793038071900532e-04
-5.702129779117385416e-02
-6.120744773159542129e-01
-4.159135656162832317e-01
-3.937288331181538203e-01
-7.282812022806938179e-01
8.511937222985052208e-06
-1.226626426572986111e-03
-2.680577536518281585e-04
6.539092816298797128e-01
-2.401164438241353265e-03
9.276854551323031328e-02
-1.184156745069907691e-03
2.126327381247195558e-01
-9.189271596180569046e-02
-8.353619084879984058e-01
7.225762312801581322e-01
1.816518315057099112e-02
3.586236162590408392e-04
-8.386754457017104453e-03
-3.848956120845746787e-01
2.318073560553797745e-03
3.007981814032713915e-03
-2.205975036064638517e-01
1.250101517908836250e-03
-5.333104702674724695e-01
7.000810228779538735e-02
6.453344407739747268e-02
8.774959038072989159e-01
3.397430452222098638e-03
5.502504763795370126e-04
2.847587119275575840e-01
3.536839756542083379e-01
-2.104284870562419754e-05
2.344454840881975144e-01
-9.339696941369906025e-01
-4.371358611842163407e-03
2.965564167628982921e-04
-2.317243332483302906e-04
6.906456659567385969e-01
1.009942537430275483e-01
-2.954623937426320013e-01
-8.584748809403202063e-01
4.141952953064900397e-03
1.403964337769575063e-03
-1.212633333916016132e-01
8.102569301403809154e-01
-2.132173598200875486e-01
-7.455299931009455594e-02
-7.714581579156943409e-04
7.373940368272553780e-02
2.110809747166510209e-01
-5.625256715598741381e-02
-2.057206913928841807e-01
-2.796126331532657328e-01
7.570081308847961517e-04
5.976124350877061757e-04
-8.587381177362005735e-06
4.628485717288324114e-02
-4.381008749306298244e-01
-8.580001277646654989e-01
-4.928704637682201212e-03
8.913628408804700198e-01
1.207525837011214553e-03
1.921775196204359966e-03
-3.656165276756422750e-03
1.049577198032099288e-03
2.739871324935576336e-03
2.284174889447647405e-03
-5.559667130870944440e-01
-2.635853799753987148e-01
2.377823886237078951e-02
4.123623197728408241e-01
-2.961398605208019966e-02
-4.784663128009553623e-01
-1.567343920162686810e-01
-3.706828323016742033e-01
-3.401645895831975457e-03
-6.057742115965053520e-01
3.221274729364761447e-01
-8.123584938777599811e-04
-1.178064885122725265e-03
7.268763394589617954e-01
6.743967447670047534e-04
1.453641773576987714e-03
-6.124564130549867702e-01
-1.401939729911419116e-03
3.451730542980252503e-01
3.567499307093018879e-01
1.630399546375342346e-01
1.974106054214316286e-01
3.118836743287324229e-02
9.786168315311979948e-02
-4.359258553587599949e-01
3.676975727028387597e-01
