-2.462612152935396773e-02
-8.689955213706880566e-02
-2.713087828430808118e-02
3.072165518037048640e-02
6.348562704779370236e-02
-3.182885777636530744e-02
-4.895851760763992450e-02
5.688253013930104351e-02
-7.728627420984615637e-02
6.814505585509397778e-02
-9.703890958868678640e-03
7.455413155150879701e-04
-1.252523612207810839e-02
1.983887512451476889e-02
-4.877296418317702414e-02
-7.414003879762137705e-02
5.492472680770907334e-02
4.923544091520870580e-02
4.759740843739910555e-03
-9.141022809956533823e-02
7.902267451238040308e-02
5.784688295617801141e-04
1.878290355574091172e-02
-3.274785132601809590e-02
3.989715258585293384e-03
-1.966437339934844208e-02
-8.550164928142094112e-02
7.780125744552388034e-02
5.175767423909236227e-03
4.078026189176870570e-02
3.782189042740274898e-02
4.236710009680327155e-03
2.595171627835237554e-02
-6.909555913190068566e-02
-8.574479231174328420e-02
-2.507281193455736593e-02
6.679806869553896187e-02
-5.030870635968488075e-02
4.066082908890587821e-02
5.877901874232763224e-02
-4.836515640720786408e-02
-2.673927920724637058e-02
7.490010971998899147e-02
1.302885691186168524e-02
4.267286427502148933e-04
1.722282656828996034e-02
2.467990063957856139e-02
-4.031757195322450277e-02
-1.766092031332397319e-03
-1.370923358577726472e-02
-8.078226617178634050e-02
6.836693473554639189e-02
1.773802259428150160e-02
-5.484661217139012723e-02
5.974426289547226168e-03
1.677142641322208749e-02
-7.435857370191431559e-02
-2.318561514423993913e-02
-7.602509991731880301e-02
-3.533651046352246500e-02
-9.110825475308181876e-02
-3.508405483902794775e-02
-3.716494503676775335e-02
1.571589851940215828e-03
-5.523268776127649576e-02
2.449528305031309361e-02
2.748853547392184418e-02
-6.905481004383430543e-02
-8.171362359023104371e-03
9.664599743884920435e-02
-3.503145269104270682e-02
-5.363857756533942089e-02
-5.371235081490668972e-02
-7.844841281626628235e-03
5.337828113424269300e-02
5.263329457972845682e-02
-7.784615129220416596e-02
9.827119585279063541e-03
5.058916150391584710e-03
4.929592754749712036e-02
-6.309666285018013243e-02
-7.941026052971203453e-02
-2.115207585461147122e-02
-5.588729079980515012e-03
-5.989921881312611912e-02
7.465079542575377147e-02
-2.027641489453742632e-02
-7.116445947916517911e-02
6.328844865525386221e-02
-2.406806879962286941e-02
-1.471328812937428010e-02
1.945284157074048462e-02
8.973782625104863298e-03
1.574130646711148843e-02
-5.392990220430084886e-02
-7.142633931454049623e-02
-4.613136515198435622e-02
-8.522597167851796163e-02
-7.231994718302986458e-02
-6.894499052309888132e-02
-2.591722506808996282e-02
7.603514469427812006e-02
2.941047395269435344e-02
3.713598299917965362e-02
-4.654096487454709163e-02
-1.470298608260110079e-02
1.648043181628508144e-02
-7.983397382636069073e-02
-8.892170298159148001e-02
-7.573402552796155984e-02
-6.214288452128902823e-02
-2.734341513566453455e-02
-1.002165202614864296e-02
8.662011063838923053e-02
3.930279745008392889e-02
-7.986402537704770377e-02
-7.756089411075550721e-02
5.360662863533596778e-02
4.887466952248120666e-02
6.086547599034185241e-02
-6.149690948002888707e-02
-3.603419960778903725e-02
-6.111147017790630187e-02
-5.486550703953520930e-02
5.107278114866448809e-02
-2.576945357524677155e-02
1.678968920451767710e-02
5.744678978717563528e-02
3.277250202800061768e-02
9.856186593974797586e-03
7.429952510312878844e-03
-4.556784074503331117e-02
-2.643738127053268244e-02
4.968159638224159402e-02
4.561828315894148750e-02
1.302083468088053447e-02
-6.982824401043701001e-02
3.230189537284323953e-02
-4.238422107113651999e-02
5.469040715758748811e-02
-8.087083353857295320e-02
5.208694623258885298e-02
-4.905289348566745089e-02
-7.474699297795174557e-02
-3.471540477340804426e-03
3.260599033076965608e-02
2.195151284986241944e-02
-7.523101096216577854e-02
3.796497062387526461e-02
5.753395991841964846e-02
-1.030937072161855657e-02
5.792707467585658798e-02
-3.269945834127628570e-02
-1.663699260208827829e-02
2.877245713772877411e-02
-3.151130250959504470e-02
-1.506277505314164433e-02
-1.527718761447040448e-02
-6.404905973698574173e-02
-4.786807535337549852e-02
-1.771160790808007368e-02
-8.119892426035674182e-02
2.453687690021955428e-02
-7.783580768791363048e-03
4.414234319764309689e-02
-7.403556633746349869e-02
1.502452149205424012e-02
1.663925416669647913e-03
6.459554284378687949e-02
-2.627077105933089268e-02
6.602001211063679431e-02
-4.851494580797687667e-02
-2.021278218538525087e-02
4.506483390078776241e-02
2.674858518377806402e-02
-9.170780389247039366e-02
-9.255630715769454231e-02
-1.699945806754399324e-02
-5.192108708226550462e-02
5.679266562415875852e-02
1.739687119717662350e-02
5.144491306798516100e-02
-5.378333736848682489e-02
-2.008655124113330886e-02
2.649438797632082052e-02
4.017180842854289370e-03
2.274228088451927740e-02
2.847126456838549105e-02
-7.575021412884758165e-02
-3.192474694762280352e-02
-2.165257391398216213e-02
-3.646445128873076341e-02
-8.025151817603486115e-02
-5.982954104317118188e-02
4.137669099311119814e-02
3.153029136412718869e-02
6.180612522733915093e-02
7.723078784972007074e-03
8.547663276592165627e-02
5.958996005354336156e-02
-1.667225612470772667e-02
-3.023198550380072624e-02
5.903490499484454618e-02
-7.807241245765916826e-02
-2.546950002798316348e-02
1.344955880189198892e-02
-4.180181420872242093e-02
2.962789634398519875e-02
5.600933392190467208e-02
8.020895073959455335e-02
2.559276215429316312e-02
-3.780087289841713161e-02
-4.777377680405207883e-02
-7.969776988203743084e-02
-6.419340058894487666e-02
-6.990668569157104661e-02
1.763136195826885480e-02
5.652286476018022164e-03
2.166554051990330146e-02
7.317506172156175437e-02
2.714413652280298940e-03
6.479883124107566755e-03
-8.154121372331447903e-02
5.506616451594822936e-03
6.464047183531307361e-02
-4.633490577614801653e-02
7.465943408801942183e-02
5.094576485841824376e-02
-9.359949536617189272e-03
-1.622064363277208807e-02
-4.815047555102460602e-02
6.365347263752749174e-02
5.673189496062457961e-03
-8.265278910556328462e-02
3.330471881470994933e-02
-8.002986561044990454e-02
-6.284681303341730502e-03
3.061983397410222504e-02
-2.043357322459345236e-03
5.456855058248890472e-02
2.481526285288472924e-02
6.063252661898000523e-02
2.874240243323917740e-02
-2.576988718215226723e-02
-3.793045502227831295e-02
2.639757965692964350e-02
-3.249034570504627517e-02
6.145679260614333311e-02
2.893797365492645560e-02
-1.770093009399735864e-02
9.544864125204458039e-03
2.089480557431784569e-02
6.560243198238058238e-02
2.058205136282473605e-02
5.578409901356476408e-02
3.609516942321655542e-02
5.554709849208584217e-03
-5.982401480568031588e-02
-1.185688440274616437e-02
-9.160542593579149018e-02
6.755557057893872563e-02
-2.138689663400821991e-02
-2.342532662098687282e-02
-3.804705055008183318e-02
6.436924746969736877e-02
6.374780659292063334e-02
-7.772907094790773574e-02
2.615883025472212978e-02
2.056431418012795442e-02
-4.589567277410468160e-02
8.473150262335880922e-03
-6.251325609493542379e-02
1.242548998976790268e-02
1.511060376388554012e-02
4.517316921766004190e-02
6.283887343181047969e-02
5.027002855239422890e-02
-1.191202706710594054e-03
-3.423338027320836641e-02
2.276481033588692235e-02
-2.411338635453882245e-02
2.281506430381483042e-02
4.395226172698844108e-02
-5.592023126862695481e-02
-1.580827302142112298e-02
6.249528176357275339e-02
7.500168776883020527e-02
4.386799041366967744e-02
4.240099883768230771e-02
-6.543451585830956097e-02
-2.384930732381545029e-02
6.322420761876412776e-02
6.061338506308740041e-03
3.553921393854621302e-02
-9.207796798135844951e-02
-5.645793968182798162e-02
-6.955121993683206771e-02
1.432002691458790500e-02
-4.733168532374949777e-02
-8.468785387073576865e-02
-6.792745274396574939e-02
-8.331181833204984177e-02
-1.182007585326607692e-02
-8.640902082672408113e-02
-1.502943585725746408e-03
-5.672248993628963010e-02
3.337497265640516908e-02
1.226801894533110886e-02
-1.849506449753600054e-02
-7.574798263613882233e-03
-3.661664086291030462e-02
6.459853657807508587e-02
-7.233021827106546342e-02
3.223462686703260083e-02
-8.673888823329147305e-03
3.665896754998708602e-03
6.541402136387657051e-02
2.315393953576490998e-02
-7.221198854142049650e-02
3.462088315074355466e-02
3.289608993224036465e-02
3.189170502577366034e-02
-5.816832030610068205e-02
2.923986968453602415e-03
-4.613870115470679323e-02
-2.870986588075882112e-02
-7.922955538999024161e-02
-1.007999116581194225e-02
-6.204332299485627866e-02
9.446903866957236454e-03
7.070593039041461747e-02
-2.003067512519923071e-02
5.542626087195472867e-02
2.820968732294364470e-02
7.517326386121619963e-02
7.319873651904729162e-02
-4.822217838132254741e-02
8.069042245931974666e-02
6.977809946532403419e-03
-1.511825018608172443e-02
-8.238908264441624496e-02
-6.847200377753359657e-02
3.158627129158318725e-02
7.541530482908424815e-02
-7.399773929071605527e-02
-3.405137185458342181e-02
-2.414825808344864266e-02
8.629386289897748863e-02
6.664827658129448412e-03
-3.581155363629433958e-02
-9.386929108826838619e-02
3.723306889017002907e-02
3.064661194398244498e-02
5.974521047816733210e-02
4.032064875261844733e-02
-4.711705487258446845e-02
-3.152811153039385833e-02
3.536832283811380817e-02
5.039206025860710342e-02
-4.932126498739717452e-02
4.590886644559780821e-02
-5.577121799869097507e-02
1.075723485170562189e-02
3.348333921358312426e-02
-4.450164494908685764e-02
-4.958768698371161798e-02
-3.883558982887126698e-02
-8.907618418661689130e-02
-4.373751026135525716e-02
2.797874505086430166e-02
-5.400192864368912049e-02
-4.374875254443690020e-02
4.031213284733446527e-03
-6.650715435169624046e-02
1.581833341324168085e-02
-3.619710185785497691e-02
-8.096831529866957422e-02
1.251221958157441860e-02
5.282248807221504028e-02
6.110354154257223447e-02
-2.603304814219429761e-02
-2.275815304740472222e-02
7.509673855445729573e-02
2.062751519320545068e-02
-4.759730228741788916e-02
-8.003636157481426594e-02
-6.319936931420840065e-02
6.160697006639382321e-04
6.552202262691537993e-02
-2.867299838823071309e-02
-5.045697937704805847e-02
-1.822479914905746328e-03
4.746994230263596598e-02
5.206888178632723685e-02
6.721131187827085463e-02
-5.427452877022422018e-02
2.446621730092736827e-02
-4.791293198440282897e-02
-4.875421035148078813e-02
-5.681090330851686770e-02
5.456877998017469616e-02
-4.232711016377336405e-02
-1.293146261054109979e-02
1.259038914326009520e-02
-7.136540466651888383e-03
-8.070564122830217735e-02
3.847669169933331385e-02
-7.104938063848215135e-02
5.820725449792849698e-02
-2.424113918094572204e-02
-3.641879624416564931e-02
6.314358908884028232e-02
-2.482289357253067777e-02
-2.852593690251552239e-02
7.149799790241409547e-02
-4.134651772557286498e-02
-6.502920376968235328e-02
1.312935693056577202e-02
-6.142393057343443347e-02
-1.632559120045625270e-02
-3.580989442397387174e-02
6.351898360678813471e-02
7.959278809607410465e-02
1.253453854217532505e-03
-3.359029888057354224e-02
-1.199866043785079855e-02
5.751680880791101153e-02
-6.606266426841780892e-02
5.159004009483329767e-02
-5.433038068550071278e-03
-5.435344495772089640e-02
3.410293647039860931e-02
-6.353706155324861937e-02
3.517387491337825578e-02
-7.380189937439034231e-02
3.919467228271752979e-02
-3.466798950544330155e-02
-3.628113438663577855e-02
4.053587469497881013e-02
-5.895223328021611392e-02
-8.440072057797015290e-03
-7.808826150554608325e-02
2.244620556527702690e-02
-6.588903620629703306e-02
-5.902074225803399798e-02
3.916799221730729585e-02
6.546030592957192973e-02
2.582198503124857880e-02
8.457347770166105672e-02
4.568247422588295886e-02
7.977967440325715864e-02
-7.208811616288855750e-02
-3.631775674476757365e-02
-3.114210853095454243e-02
-3.087618181672672005e-02
-7.393772488206058757e-03
-5.962445179315926241e-02
4.072911126783648056e-02
6.690797182233175489e-02
-2.441484035415476470e-02
4.203669482617326120e-02
-3.666473850770576859e-02
8.850338300655810272e-03
6.605371007668980887e-02
-4.770403137803262694e-02
-1.217231986933111146e-02
-2.543434964479749337e-03
6.391119435058342790e-02
4.656406649979667051e-02
-6.065035512478709340e-02
4.470133126969932230e-02
7.301865900368814666e-02
5.375587446764334282e-02
-1.880830367322154639e-02
3.856466598798712064e-02
5.298567697790484282e-02
-8.812227028620404912e-02
-1.132007686377115366e-02
-4.341684337051656545e-02
-6.994355605966363909e-02
-1.765658168262976280e-02
-5.075465126570641999e-02
-2.410111103074598273e-03
1.109076735182929971e-02
2.231632296574588559e-02
-5.663532282610526242e-02
-4.865195958320863573e-02
-1.902660603361900835e-02
-4.659235105390303888e-02
-7.575389428501531908e-02
6.389536933376196992e-02
1.243334965659340097e-02
4.581970968409175560e-02
-9.710963971397822830e-03
-6.154176419230729042e-03
-2.854268051450950527e-02
-7.674543034731949598e-02
-3.743479751281468537e-02
-7.682969977511285020e-02
2.958570050148866953e-02
-4.483463985842031652e-02
-8.805551693248225842e-02
4.339357019788128017e-02
-2.835040052975848490e-02
8.162490115144038771e-02
-1.622754404365635283e-02
7.348329325894582820e-02
-5.868962010887892461e-02
-6.402949384395492660e-02
3.241316095006934600e-02
-3.182969725135911115e-02
8.754025869484097916e-03
1.886950772618988664e-02
2.492779601297261463e-02
2.132617880460480064e-02
-5.033562106972216260e-02
-5.207340323616962974e-02
-7.739172417137386850e-02
2.612279432345544078e-02
-7.263801565000745086e-02
-7.087779326214548037e-02
-4.159587336983387729e-02
6.193142866303517208e-02
-5.898952043457875161e-03
7.156686946694690299e-02
6.655332951125911278e-02
3.516097981131803552e-02
6.724322948815571188e-02
6.694841923391864347e-02
-5.088785575926632609e-02
4.931782497069967658e-02
8.396787793580155757e-02
-7.744405356178446498e-02
4.538123845108945481e-02
7.789640187878428546e-02
-8.134122377837510465e-02
-8.978104044085061242e-02
-4.936391605799460985e-02
-3.115661668903347073e-02
-4.591422013229880250e-02
-8.165863825539429466e-02
6.785823056233417083e-02
4.863153867623044163e-02
2.876352100980610407e-02
-7.995529655073148334e-02
-4.767467376481666907e-02
-1.907227498955527470e-02
-7.454095619289814734e-02
8.762991078611696849e-02
3.641812184186835749e-02
2.463908373992881873e-02
-8.826205579609081031e-02
3.410584255202035731e-02
-3.558119839528179479e-02
-2.414742202733327972e-02
-4.732733786403663795e-02
-3.358234090699515478e-02
6.507061898952792856e-02
-4.200555398940959695e-02
7.061132939007241927e-02
2.443082729346079604e-02
4.059418694501598646e-02
2.246637639539829021e-02
-1.214978329464407383e-02
-8.851001750501416923e-03
-8.864537872421879294e-02
9.662691414811262758e-03
-3.451608885151535161e-02
-3.286354344346996414e-02
7.040855916694285788e-02
6.794896372191358558e-02
-2.451353266556888840e-04
-6.726188454933140770e-02
4.783786319459188557e-02
-2.761006958696390554e-02
4.430617751012104477e-02
-3.067153128967657280e-02
-8.857571138133008004e-02
-6.255849084081679945e-02
-9.717148416839352376e-02
3.992470992827740206e-02
-5.464204922390694663e-02
-7.195258176317356758e-02
-8.032405550443599829e-03
-3.930105073873992744e-02
5.940088002060617267e-02
-5.157517926084207935e-03
6.964063049451313381e-02
6.699273517142346687e-03
7.523124573174952423e-02
-7.852785293623447405e-02
4.767313119100041741e-02
-3.808602616910381627e-02
-8.842039109879013328e-03
-5.254039693814692435e-02
-2.892750536628309679e-02
-6.291973510260079339e-02
-4.803055757655418784e-02
7.807626296661585030e-02
5.610047835739436634e-02
-3.302688047372760033e-02
3.058256171996398542e-02
7.558484031386461521e-02
-1.528618456998329447e-02
-7.568737417895536612e-02
-4.365667803421022231e-02
6.741113922843464112e-02
1.971616878337712278e-03
-4.096372425809523959e-02
5.774437228103417724e-02
-5.673882862391481895e-03
-4.709105999157414679e-03
-9.038928322121402015e-02
-7.887616312724278489e-02
-7.926585708274383468e-02
-9.664756335250046515e-03
5.755581639474845190e-02
-5.080576208758542933e-02
3.680751140422278524e-04
3.533528721446051180e-02
-5.846650534598205745e-02
5.236048522778390807e-02
6.607992615725128902e-04
-6.397277096131256426e-03
2.870271227786157578e-02
2.211126804253939378e-03
2.144497626091753859e-02
-5.607137515146327911e-02
-6.556096523531218523e-02
2.800755555084205942e-02
5.043648619271243888e-02
-1.302321190479788574e-02
-8.584367050880541139e-02
-4.354219815029904822e-02
-6.222866205234592329e-02
5.276676090959406262e-02
8.028836357700622510e-04
-8.865418933722901684e-02
7.948956769562959268e-02
-3.982815369948165818e-02
-1.493930122761234248e-02
2.081742385160196412e-02
-4.717429184253112140e-02
7.949621813814850002e-02
4.077493723747396825e-02
2.028819125100587636e-02
3.144469988729674259e-02
-4.768281714116343051e-02
-4.154486419226373350e-02
7.879266614885004072e-02
-2.755492081350553388e-02
7.602014025726812341e-02
3.818903224752458886e-02
6.569885839470175626e-02
-1.249626007919865840e-02
-4.434974746715063948e-02
-8.286442482018763211e-02
8.682693858726709540e-03
-4.736770501614617074e-02
-4.683475347394266963e-02
5.517392500193327165e-02
-2.983714388915419471e-02
-4.465651302610806200e-02
-2.682272325333134172e-02
5.761472061072570733e-02
-2.368193798960349303e-02
-4.393111818611628028e-02
3.350000257079936011e-02
-5.856205968377421744e-02
-5.469838222313596482e-02
-4.402668300451954841e-02
-4.991298354318667203e-03
5.614266854632295189e-02
-7.375887875726554188e-02
6.961544215855555717e-03
4.452965276814348922e-02
-4.939587256252536002e-02
-1.574796591120239744e-02
-6.615060223532602535e-02
-4.641155259318793802e-02
2.782424353855395341e-02
-2.678774145059529405e-02
-3.432368283689606753e-02
-2.479633830922099019e-02
-2.101840861305878660e-02
-6.774360170265121550e-02
4.977205313030293177e-02
-6.321276662864241946e-02
-2.249987013331163424e-02
-9.742710848481947808e-03
4.608870647169260176e-02
7.207798006150181735e-02
-2.905555883430248343e-02
-6.967802246121822252e-02
2.013314771687087917e-02
3.413507521928221822e-02
2.564524413460494284e-02
2.078410177563454544e-02
6.730048605028569886e-02
-7.990374400921569642e-02
-4.973265265303501020e-02
3.942681764518465165e-02
1.575889502691226948e-02
-2.531870583670164584e-02
-4.217592816790274868e-02
-6.053107242503773244e-02
-5.302606499344732216e-02
1.022465435827294988e-01
-8.178888401637209038e-02
1.845757818399746883e-02
7.518585318176543297e-02
-2.440980866037000332e-02
8.645735484155285533e-02
6.096283580814278701e-03
1.522358222367697217e-02
-4.460503151946421108e-02
5.487051701309540036e-02
2.843042199589718849e-02
6.617585643891928104e-02
3.305434559488696494e-02
6.130181709512212695e-02
-4.668000576410838431e-02
-5.988384286569441856e-02
-4.722004819015922922e-02
-8.664120212522549713e-02
-2.448326059777537062e-02
-3.493006442731147465e-02
-2.388564315628584692e-02
-6.162543822945702049e-02
-4.666061468584689620e-02
5.428694024621712882e-02
-2.071906849209604815e-02
1.465238817762623373e-02
2.030500490426482771e-02
1.389400960783856824e-02
-5.487800233676110029e-02
1.652129539524195209e-02
-9.548557703512724690e-03
5.622824688950978783e-02
-5.928166719778299454e-02
4.435430998517485290e-02
-4.148144994072237857e-02
-6.160266727592926192e-03
5.892244013039556194e-02
7.911735289558628759e-02
-3.242875916291652200e-02
4.513071109847036771e-02
2.975547675499561062e-02
-1.489247442189345350e-02
8.162997712542735540e-02
7.432542284063779758e-02
6.402448884936362550e-02
-4.844682612785064513e-02
2.832580748695137998e-02
5.944339122794704139e-02
2.081735226227709665e-02
7.469950484864029683e-02
-9.585021335333104159e-03
6.120343120141964049e-02
-1.843568188167991548e-02
-3.148929525910412752e-02
5.115352983790317359e-02
3.867157867947465522e-02
-5.513367376279952603e-02
3.414382671324823343e-02
-5.024496868519465198e-02
-6.275980765673304373e-02
5.058602994973613459e-02
7.997189390776693330e-02
-7.095570937223723285e-02
8.708486764641565347e-02
-8.565952125532776129e-02
5.391933556407021814e-03
-5.679467903897352649e-02
2.832907280085731130e-02
-7.883420290832991728e-02
-3.893881268622531588e-02
-1.086180859348380955e-02
5.359962227023086501e-02
4.312541189178522444e-02
9.868456935306288424e-03
-6.400843526003885398e-02
-6.189887020663336487e-02
-2.049938168413945397e-02
