-5.449181326165668943e-02
7.669873940975500959e-02
2.742762013767675866e-02
3.270987401055331506e-02
-7.865105666933328021e-02
-5.326138776532603203e-02
6.600383874658431738e-02
-3.380526739882716569e-02
-9.005046733144927984e-02
-4.545550326897140198e-02
6.791707826432515430e-03
5.251077871358118820e-02
-3.446727264444099381e-02
-3.355035198795712492e-02
7.297913352127825826e-02
-7.473646649059430269e-02
-2.982504351584781485e-02
-5.181778197144652764e-02
-7.151481298852629953e-02
5.251892132678259023e-02
-4.556850696828635555e-02
3.405627381173455259e-02
7.369738606424956068e-03
-7.648555042768762080e-02
-5.585219308484176345e-03
-4.062256720238683477e-02
-2.252868034413833473e-02
-5.993412114862939344e-02
2.796275594548833579e-02
-3.039417844805593349e-02
-3.555569793247007320e-03
-4.945580354391733435e-02
-5.434824860059751100e-02
-4.372006813867664043e-02
3.068226201996178057e-02
3.834313035502553285e-02
6.537323396907479545e-02
2.741240071380529955e-02
2.775193745960790465e-02
-6.288249508888874711e-03
-5.852317860111418135e-02
3.099023808733172348e-04
-6.195866603505417736e-02
-3.927136320402177527e-02
7.655770532871959688e-02
-2.502926730464486230e-02
-6.975918587304376361e-02
-3.098487226172823295e-02
-1.049724452257296209e-03
8.992223559420065016e-02
-2.594522538957600918e-02
-3.198283297350949794e-02
-7.737748437949387714e-02
-3.036412397009042793e-02
-2.036070205384815993e-02
-2.882095152378308378e-02
-1.634363586201570059e-02
-7.100088051484466922e-02
5.103975469972794193e-02
9.003645722185020517e-02
-6.423496658388487546e-02
-2.076737326679250692e-02
-2.413033423117695239e-02
-2.354295267941095005e-02
7.598526004204547712e-02
-3.037672003989641545e-02
-4.563715266732119857e-02
-1.995179519343987656e-02
2.377164763258225039e-02
-3.516110301481433636e-02
-1.477589117071975364e-02
9.870469611444667238e-03
2.772406222330243888e-03
-7.485102970423310187e-02
-7.158886569064312755e-02
-5.488101818059630023e-03
1.029903948222705111e-02
2.209030650557188349e-02
6.507717292893376582e-02
1.564371001712806450e-02
8.160404923735367633e-02
6.860051331738956093e-02
3.314088480487873550e-02
6.824407710516153247e-02
5.904812061618067154e-02
-8.176301751512932148e-02
-7.806600088938039916e-02
-1.686925940736300894e-02
-7.209274497240958368e-02
1.679305122245486337e-02
4.625531968414141326e-02
-7.883175152764201540e-03
-2.285867769471454369e-02
5.577126357928121475e-02
-4.396382253738578827e-02
-8.990009440807494867e-02
-2.046309738545420628e-02
6.745175753578028233e-02
7.700671379654400184e-02
-6.165175314851729926e-02
5.780364851218913053e-02
3.061201818926389054e-02
-6.079856927791851134e-02
-6.189709952114121755e-02
4.534053603385570369e-02
-8.649550660719186601e-02
6.128132443567615995e-02
-4.405656229759956355e-02
7.419851140893844732e-02
-8.754974480533833647e-02
-3.211811217719073158e-02
5.284613209975352888e-02
-6.083260108334472005e-02
4.660307351660822328e-02
-3.503167182028926827e-03
1.117097704734594348e-02
4.551410337953979562e-02
-3.017662224695814854e-02
-1.605408988305781406e-04
2.376068819518077375e-03
-3.250316687037813068e-02
-1.570000570736926684e-02
-6.460101361577150376e-03
-9.451619662802619726e-03
6.277354664518337672e-03
-4.094863666393976781e-02
6.901702105920065611e-02
-1.473967700717211107e-03
-3.215720303343640868e-02
3.480446156932056473e-02
-1.577247738283524270e-02
-5.450795166656928308e-04
2.897398657908849262e-02
-4.374732956394941641e-02
4.941799983520690082e-02
-3.466699160612279201e-02
6.884276864613655955e-02
4.355805629014593283e-02
-7.636519264120943118e-02
-8.070810308330352012e-02
4.013058849756315910e-02
-4.647793089187161886e-02
-7.144996937753544941e-02
-3.913189555952799326e-02
-9.135110463606023468e-02
2.105502965770693347e-02
-2.964051599484800181e-02
-1.467054469943931787e-02
-5.397208949004834305e-02
7.234295245692307086e-02
5.147437870410597610e-02
5.030647957119593200e-02
-3.767468006311237155e-02
6.135928295185890530e-02
1.003390400052913030e-02
-2.205393751582675546e-02
-5.710613492404378183e-02
-4.388864832754795636e-02
-7.251960739788017307e-03
2.810831142349955181e-02
6.167161084332787452e-02
3.711084669711685324e-02
-5.279071041129402425e-02
7.698185425649835267e-02
5.407726431474260687e-02
3.916237024103397940e-02
-4.841633907480334675e-02
1.147842081286149646e-02
-4.089123609937807269e-02
2.287473878749157058e-02
3.206015448205416091e-02
7.542168365555933229e-02
1.485423270277964024e-02
7.998217458631258145e-03
6.399264911644314546e-02
-3.283510766239942490e-03
4.648603122484824129e-02
8.656051408762100233e-03
6.541557996577085365e-02
8.144623161915269527e-02
-7.064272030723370288e-02
2.045807903816634910e-02
4.120819125990779486e-02
3.372683440095806950e-02
-7.642064890868001392e-02
-8.218456514760705267e-02
3.400981156589057836e-02
2.569822135993446097e-02
1.220403172936549048e-02
2.338635292465037277e-02
-7.447561673561839402e-02
7.259089187184255762e-03
-1.329610923213951114e-02
7.845141054427468008e-02
-7.907571251333660178e-02
7.709808887506590380e-02
7.795093602728296600e-02
-6.368167782704729774e-02
4.197637361598638428e-02
3.561900036242947321e-02
-2.064462522486040785e-02
7.565876420206887540e-03
9.174700032520560766e-02
-1.734380659645149564e-02
5.297018508698699175e-03
4.728920121528083775e-02
5.332440347731119690e-02
7.208763705808474143e-02
-3.388464547870302657e-02
2.470324762806715840e-02
-3.047809505795503332e-02
-1.876864996650584941e-02
-6.170727367384850476e-02
8.521275361410775295e-02
7.346066373910299652e-02
-5.100161063101944781e-02
-4.185529980540230593e-02
-3.992511304985076753e-02
1.757275627856453790e-02
-4.160121507690198867e-02
5.698701475615589040e-02
6.046599224021870916e-02
-7.189054596659762153e-02
-5.459446455867015408e-02
-9.566353106245760116e-03
-8.585452804578500019e-02
-3.709870507217257612e-02
7.852117313421818484e-03
-7.138175606023926256e-02
7.703681284803313989e-02
-2.345217395977818031e-02
-2.713642573094205562e-02
-4.023283815895598026e-02
2.230798817311340290e-02
6.326780312144963947e-02
-6.511627871403863344e-02
-5.901067540345623919e-02
-5.853006601338006307e-03
-4.891926200785186307e-02
3.039578865561824023e-02
-9.195603860696628662e-02
4.603838127219547251e-03
-5.644016681263073348e-02
1.027932423071946932e-01
2.239466441854617157e-02
7.360717436412539394e-02
-7.882445268730961518e-02
-8.333797666701003859e-02
-2.539368178374006024e-02
-2.703780654408296374e-02
3.058089934837266224e-02
-8.977716046977630981e-02
2.999437144766891271e-04
-6.323535125857805694e-02
-3.802255102348800486e-02
-4.620667328142286784e-02
3.805771867977432443e-02
2.305844590451272547e-02
4.185426589301224909e-02
-7.180233896643551349e-03
5.876141342111691063e-02
4.633422409042908807e-03
6.631836243180061485e-02
4.318968931578299336e-02
5.293290177478371383e-02
-4.564469429270339579e-02
-4.609350994565909743e-02
2.850192756682961778e-02
7.692508425292092500e-02
2.333169205167966165e-02
-3.155807359553660513e-02
8.922268747793106469e-02
6.316026579153359577e-02
5.891141821272300079e-03
-4.624416755351091340e-02
2.077447489190179745e-03
1.212397869624178351e-02
-5.781380937542105608e-02
-7.210301231424225132e-02
-4.228185671091660297e-02
-2.067764348816845607e-02
-8.190814332174738144e-02
-6.281820794135519956e-03
8.023996486756317797e-03
-1.742525290538710081e-02
7.706977778724667487e-03
8.840108364910867489e-02
-5.112968533701793550e-02
9.792315406058440565e-04
7.200454228977927473e-02
3.596813187459164257e-02
-5.925059018339547644e-03
-5.136045094103052627e-02
-7.846637717615050078e-02
-1.995010920156647591e-02
6.539406583482627877e-02
1.403535870741814962e-02
-4.777241537040036179e-02
-8.562627550205877125e-02
5.157550499390164966e-02
5.834875601608016660e-02
-4.828588908911764233e-02
5.878036233678554656e-02
-8.638467914641978496e-02
2.461682746737425473e-02
-1.772264962781183728e-02
5.555851841539463654e-02
-2.901543503766191093e-02
7.711148400532399916e-02
-3.095934900808149787e-02
-6.243731995042534066e-02
6.627253286586855252e-02
-1.145338111587099889e-02
6.275102129423992814e-02
7.348425136153768911e-02
1.792835637633596879e-02
5.740243007793639080e-02
4.537099821724657756e-02
-8.600278573561745410e-02
-2.376890776451254933e-02
5.708422306295274189e-03
1.207673724220744392e-02
8.322343964155186347e-02
8.432403693726988822e-03
-4.131568520226443914e-03
-4.015129942882243730e-02
3.574423864524335637e-02
6.062358783581656141e-02
-5.454578537027232436e-03
-4.537388579318193255e-02
5.766866189249053587e-02
9.456646022698751708e-02
-3.348682917815356402e-02
5.807817374676942090e-02
-6.976250332343884863e-03
-4.208688191680884372e-02
-2.188365208247881888e-02
-6.057491381062334729e-02
-4.415370481771865863e-02
-3.105444676778783275e-02
1.940566717962167662e-02
-6.656648713163861031e-02
3.792279745230920512e-02
-9.248507124715308822e-03
4.631037523344724849e-02
2.357423337321661733e-02
6.250429382723435290e-02
-4.955139348044856201e-02
3.906625474222918948e-02
-5.618468271700111788e-02
-1.289757162180236831e-02
7.458262768162753076e-02
3.609835464365735141e-03
4.799168151145511568e-02
-7.918500433508419978e-02
-2.824242728078994041e-02
8.817725447462165800e-02
-3.494960116916062676e-02
7.184294206519301063e-02
1.317938189299962606e-02
1.515648116779657467e-02
7.566908231170538235e-02
-6.547150073605524645e-02
-9.199352364504644053e-02
8.232259399324527716e-02
8.757800112393939254e-03
9.862891003679981339e-02
-2.354833654976856011e-02
7.560959925548910165e-02
2.684405382782901334e-02
-5.744758708704324895e-02
-4.449581356261452653e-02
-5.221755128333979701e-02
-2.453641326969824288e-02
-5.933081605361845146e-02
4.846144050072646696e-03
2.642252628981847391e-03
6.679243788617349187e-02
6.878018004612187000e-03
-3.664539260195430470e-02
-8.135211720761133247e-02
2.443302946906599285e-02
2.310883914193484490e-02
8.597429502405989910e-02
4.442243125192546493e-02
-2.151020076258389202e-02
-1.367818551529573906e-02
-2.030142373544263981e-02
-7.736985279501354396e-02
-6.716969944747554211e-02
3.113139357661665052e-02
1.106131826690699184e-02
1.721902329846445798e-02
4.965728583044587419e-02
-8.000706621901157445e-02
-4.024121892634673764e-02
-8.883824416641339285e-04
-2.396665111934368972e-02
-3.154152379258545746e-02
6.211148336465995706e-02
6.089627417243901469e-02
-6.924339077898365724e-02
8.056334786149979554e-02
8.942153757711666928e-02
3.853714436464148602e-02
7.552806872164194441e-02
2.799174950562289405e-02
-5.063475957361337348e-02
5.924973235708428515e-03
-5.432460382532758314e-02
7.938379873782426543e-02
-1.691042614901199642e-02
-1.051467022602468535e-02
-2.570407842408751684e-02
4.598599857581597145e-02
-1.627532946484842521e-02
6.314369894876947775e-02
4.075576459167288418e-02
5.049879194882642142e-02
6.727211402374444482e-02
-2.522206384636405466e-02
-6.717021726481174626e-02
-4.747141318241591273e-02
-7.282930187037139902e-02
5.614759088344795437e-03
-8.478288446988409277e-02
4.533738237879061874e-04
-9.158756006033762220e-02
-8.319392667935164576e-02
6.420131302159534648e-02
-5.709564505697180617e-03
-3.544914667807198133e-02
-7.611669375315247010e-02
2.155342992487358986e-02
-2.839750787870864296e-03
1.230338675910818552e-02
8.052767827036429182e-02
1.421831401211370166e-02
-1.242344222207833991e-02
-4.586999535738776196e-02
2.111895637589036867e-02
7.737392912560463187e-02
6.766872082149207046e-02
3.960909511039412134e-02
-8.450890909275850238e-02
4.245647844210470589e-02
4.314510257187369885e-02
4.178480152410381926e-02
8.555630626828807095e-02
7.948031479249471204e-03
3.511249807600520800e-02
-1.718863641781007839e-02
7.743956500918248997e-02
-5.355601771879401479e-02
-5.135375299119116638e-02
1.950294739520223473e-03
-7.238546149874405811e-02
9.871444501911411096e-02
-7.734184529180943013e-02
6.344763304691730665e-02
7.716041636996349984e-02
-7.427418383055162110e-02
7.558732142844794277e-02
-6.041943573598365647e-02
-5.720554565865914459e-02
-8.467755602925795821e-02
6.814281534963022302e-02
7.466816323284750090e-02
5.436087716892294003e-02
6.067485742542188393e-02
-4.487736023592453494e-04
4.820361663467970237e-02
7.315808638783380391e-02
-3.240325439320790313e-02
-7.690430614901336281e-03
-1.368516504073476713e-02
-7.825100635162722529e-02
-5.619221876592214726e-02
-2.700458570143647596e-02
7.939564296802667509e-02
1.506119030900680139e-02
9.662247242005930770e-02
2.213564091556063582e-02
-4.092834251487037500e-02
9.078915604510041926e-02
1.339044077849445812e-02
-7.411245380174992514e-02
-5.033320540539625715e-02
-3.985553304586911261e-02
4.454356698114014974e-03
-7.056252677520254146e-02
7.756088009532059735e-02
-6.781367392171898378e-02
-6.526016720611854671e-02
2.686864331392499819e-02
8.822154406883732369e-02
-8.532788082060979024e-03
4.246285697987056684e-02
5.324896491045047475e-02
-1.050740812890411588e-02
-6.147741296947890899e-02
1.691243259129023013e-02
-6.104523325224571473e-02
-3.647219243940735822e-02
6.924707963747905870e-02
-1.780284708115144679e-02
6.580537413476990512e-03
8.921615687702937059e-02
4.474940133674065040e-02
3.305387196209310513e-02
-5.586208776405676701e-02
5.490402978599483869e-02
-7.808464160408995491e-02
-1.768298844568571074e-02
2.442631551227979897e-02
3.018666900197859021e-02
4.324181146680456528e-02
-3.293696869710374675e-02
7.192399995739859331e-02
-7.595760603649776010e-02
8.007702897715796020e-02
7.023817919617497685e-02
-5.974714273174592388e-02
-7.577319717948352573e-02
3.380162270657500329e-02
-9.093492928660318678e-03
1.012083563877430870e-01
4.032953270854688910e-02
4.389109789188669342e-02
-6.694913600841533030e-02
1.590920853626504733e-02
-6.560121321969676102e-03
2.159047315115751597e-02
-1.223573514518737707e-02
4.317937965968233344e-02
-1.707409374864576196e-02
-3.560692022685073982e-02
-1.725001812413057278e-02
3.949292034909310245e-02
5.235519882866246366e-02
6.100774380505638583e-02
5.562452870300992752e-02
-3.548507797032752348e-02
-8.477709668889926720e-02
-4.307487884338950107e-02
-4.956616963234877771e-02
1.022275793225394386e-01
-6.629652788437978561e-02
-4.396446688369001071e-02
8.772946365673991304e-03
5.839313346920888687e-02
-4.062939062105948296e-02
4.384123206936432066e-02
4.477010384740121723e-02
-2.574911674015160565e-02
1.627161128953654584e-02
-4.628781544988601337e-02
2.830735296429812142e-02
5.315083728365236140e-03
7.960899528913659151e-02
-5.300042703581351461e-02
-1.227281406058399610e-02
7.937700623538074263e-02
7.325895916649952100e-02
1.027279486850391811e-02
-8.025615130945823461e-02
3.861932031009533261e-03
7.748981423283728132e-02
6.792399447825514525e-02
6.847417217355405983e-02
-1.759230351768476669e-02
-5.410059096542680496e-02
-9.059885015296562094e-02
3.550695539355619434e-02
4.094406242793470485e-02
-4.461342087563716086e-02
-3.509015472560832183e-02
-2.499551413008557765e-02
-1.643177939930268172e-02
-4.925783525394941686e-02
5.239827061004014019e-02
5.512027174782836714e-02
2.644454293306357923e-02
-1.927454019428833515e-02
5.114506820072520915e-02
6.038653483735637040e-02
2.671538909826894417e-02
-3.048971890024031531e-02
-5.662070474713192664e-02
2.155791514093488917e-02
-4.969135705518946955e-02
-4.701068038931999205e-02
-5.007856081246249424e-02
1.787368934106089643e-02
-6.434176078416910249e-02
-9.387910138402840582e-03
8.745559141976137763e-02
2.261127754712395979e-02
-8.898783730735748687e-02
8.272413507469407457e-02
-9.182404390072367029e-02
4.197581050042910322e-02
2.908564617905396929e-02
7.536178659907782906e-02
-6.508705541285704499e-02
3.241091680695380728e-02
-2.340130915689949548e-02
1.029060022336093262e-02
7.669157275794445672e-02
-6.447462256199630593e-02
-7.500652552725632638e-02
-2.091002511284587723e-02
-8.561416996854061268e-02
-7.937846319554588137e-02
-1.002307813028165432e-03
-7.277844819008713606e-02
8.879718585929192998e-02
-9.371993231763234289e-02
-7.079357249400480834e-02
-7.144705099597321862e-02
-1.268994649848438107e-02
-9.004019096922551146e-02
3.046835395080952236e-03
-2.411719028875574516e-02
1.822440221830982227e-02
-4.904003883311180284e-02
-4.211986489065429329e-02
-7.883807653836902643e-03
7.302275565121946199e-02
8.876348935507889781e-02
-3.796154383621313383e-02
-2.815867085406125250e-02
-2.541524371431775134e-02
6.786242722479726708e-02
-2.362497055346263544e-02
-5.916026299788327419e-02
1.459340633122350843e-02
5.599047177340801817e-02
2.588759339273078580e-02
-3.347588856361068815e-02
6.450662098372708653e-02
4.451553472441895781e-02
1.040741636151457650e-01
-7.720124979477875626e-02
-7.965296822250994557e-02
-9.766958073476095931e-03
-7.691418398289584513e-02
-5.562034468261352338e-02
-6.562885908189870776e-02
2.615539798568388904e-02
6.702170806226663037e-03
6.876865830524774015e-02
7.803318453293307810e-02
8.214484667896289338e-02
-7.297919744677916487e-02
-2.875898710405386857e-03
2.701958005725812323e-02
-4.780341553907940799e-02
2.697175298475113642e-02
9.092100908917252755e-02
-1.588756774729765779e-03
-3.997962235730723873e-02
7.945419883845654396e-02
4.115203291686057863e-02
-7.171079570937043124e-02
-5.802450796350892837e-02
-1.662515778051836543e-03
4.362110708838737305e-02
-6.092930591184999439e-02
-3.560726206750578632e-02
5.867003443945124214e-02
5.206435265162168841e-03
1.013945523669732562e-01
1.543320355222424153e-02
-5.232687037175264011e-02
6.815231809350812131e-02
-6.237171047781309152e-02
-2.650069130636870801e-02
6.306089122752885079e-02
-4.685462751270935006e-02
3.747182286478655845e-03
-4.788409079620479375e-02
8.165247693037089305e-02
-5.720784539636276228e-02
-2.634741805675768281e-02
-7.545294911552931361e-02
1.317391844912379865e-02
-5.689652943109411304e-02
-2.305242527339287570e-02
-3.928427145696278266e-02
3.983265885214268276e-02
-7.696059679195388359e-02
1.858970269697237526e-02
4.996106986613485512e-02
-5.793286502429575296e-02
-8.546997834340423761e-02
-5.065576133309655088e-02
-2.144993212148708916e-02
1.690340435065553967e-02
-8.368682624640756337e-03
-1.983300854738743665e-03
6.617375470910050184e-02
-1.045549420205348599e-02
6.323983989687145812e-02
5.562353899277824171e-02
-2.044536782627145652e-02
-1.740966269079154138e-02
3.019518535738446169e-02
5.099855511122493995e-02
4.137558114497413841e-02
1.223110033565882838e-03
1.806864013417936593e-02
-7.820988420594572610e-02
6.279130966472087905e-02
4.860870940144436381e-02
-1.082645520919859987e-02
-3.347389500662705658e-02
8.774068264436397924e-02
-7.684421811258490553e-02
6.679672428467732515e-02
2.040860794446267695e-03
2.263241963994479244e-02
-9.999726362641334076e-03
-2.978496856504937382e-02
6.967202415382026115e-02
8.495378953200805050e-02
7.025226748402492449e-02
-4.113903841533442240e-02
-3.001836734553653060e-02
-6.945599062694397807e-02
-1.130440516249221587e-02
-4.977932262873735469e-02
-8.982108910040807748e-02
6.793662834526309480e-02
3.469218001200310292e-02
-5.427018678415414937e-02
1.180057955739511819e-02
2.498587692616529785e-02
5.820488923451060809e-02
-5.111677377798252292e-02
-8.367007936825443526e-02
4.166663147481013130e-02
6.713784273428095861e-02
-5.503917283555689877e-02
3.374433323578362315e-02
7.615508320729316716e-02
-5.053200845409435912e-03
-4.686591665101969006e-02
-2.010357290664635185e-02
7.839708885988504183e-02
5.147407479675872310e-02
4.596175648139486786e-02
-7.070172289438070301e-02
4.698117289329844376e-02
7.946874325104333336e-02
2.783394334493813002e-02
2.510000442505914975e-02
2.092829082850150395e-03
-9.387682189725255312e-04
-7.648628862676065676e-02
8.360180210886793140e-02
-5.013927388271871566e-02
-4.185210322729109034e-03
3.977218880980788740e-02
7.061036787342141186e-02
1.135400142182913831e-02
-5.168299489322741164e-02
1.414574015500526076e-02
-4.743229900541950234e-02
-8.644591782791309631e-02
-2.131490216011407320e-03
-7.641829411972766994e-02
6.045897500142279751e-02
7.769042943281521951e-02
-2.869474738268534483e-02
1.540279484895249601e-02
-4.126937670051768203e-02
-6.192418833713897452e-02
5.484211445421698777e-02
-6.075241922213675538e-02
-5.013188034428622125e-02
-1.943500492208368596e-04
4.356438442599178118e-02
-8.788447453498647588e-02
