-1.252350834464695771e-02
-1.192377168492538692e-02
-9.699557406361610304e-03
-1.707135135668054124e-02
1.939225570481571638e-03
8.672906944951461888e-03
-7.060842600259977786e-01
-2.607057939334053720e-02
-2.142639522915660861e-03
-5.500215090808816543e-01
-3.544966210595852478e-03
-9.542918285888123131e-02
-4.482706197862851294e-01
-2.461781187625528347e-02
2.385328342881288394e-03
2.082078775544305566e-02
-1.244846651011958724e-02
-4.233383691619356792e-01
-3.916172452645741431e-02
1.232922055544831592e-02
-2.030348490596774358e+00
-4.813200480821560744e-04
-2.951008236189802889e-02
-5.143332283394390012e-03
-2.831838970493948116e-02
-2.202592701058224064e-02
-1.648881492840715834e+00
-3.521020683526727285e-02
1.535342153407277420e-03
2.487067014389659006e-02
-6.857716735776854186e-03
-3.383896948425593049e-02
-3.453211434707662009e-02
-4.881347159562843263e-01
5.849638022026956707e-02
-8.801327863556787090e-01
-3.278235345069330231e-02
-3.247397126680685170e-02
-2.958225027408879423e-02
-1.772063657524737199e-02
1.228785542563413657e-01
-1.650278501342673093e-02
-4.745534927033069894e-01
8.854800713604179131e-04
-4.522262293318083347e-03
3.195546461288941709e-01
6.194118316721636090e-03
-3.195842516226585217e-02
-3.166205956680288869e-02
-1.896668255433328953e+00
-2.055048395215890861e-02
2.035957990225198064e-02
-8.467357888756464265e-03
-1.131518191714137034e+00
1.205455188574664632e-01
-1.017793878183315792e+00
-1.129270323793358122e+00
1.470048066990178382e-04
6.675073460596474273e-02
-6.937096225125337356e-02
-3.010868997276489392e-02
-5.178104941750517193e-02
-1.158671662419818310e-02
-9.837414029212197819e-02
9.449069193736106542e-02
-2.222226857585293536e-01
-3.561000415428445393e-02
-1.908129222581911658e-02
9.295657898008232722e-01
2.104171610479781476e-03
-1.622392189176738164e-01
-3.147200501144743479e-01
-4.366892760590895817e-02
-2.621504292784366738e-02
1.284908280376244327e-02
-4.033824077965363353e-01
-3.563403231521145575e-01
-3.940634526683751138e-01
1.954808444878847890e-02
-3.958906416033047132e-02
-2.223489099920485101e-02
-1.962926613141289384e-02
-3.929890236310924941e-03
-5.243414977217083573e-04
-6.211120948390951302e-01
-6.542271070399226706e-04
-2.410135164422203338e-02
-8.927419224585710078e-02
-4.085574165797683371e-02
-3.867771283959405004e-02
7.450093702670305268e-03
-7.843491741883897861e-01
-7.247402339436591623e-01
-3.328260171066591694e-02
-1.480319902775203110e-02
-2.474928761580611619e-02
1.469309220882578787e-02
-2.466410890332510972e-02
-7.514941102660769312e-01
2.248475467323022767e-02
-8.376690965325527633e-04
-1.593364626489276181e-01
-3.583068321238493809e-02
-2.853809660927279432e-02
-6.909466072273043880e-01
-2.504419226908034118e-02
1.213060447943949257e-03
-2.688601904098124329e-02
2.853662786113609490e-02
-5.931084709058809246e-01
-9.274829877831475278e-01
4.835952159657568861e-01
7.433038397186032646e-03
-1.833191569947396557e-02
-2.349397295702436959e-03
-1.124381844437527186e-02
-3.423021963412915900e-04
-3.851365955155024168e-02
-6.756274967384068297e-01
-1.184153063268705619e+00
-2.767744447941896530e-02
-1.375761541647767955e-02
-1.955588216357880688e-03
-2.188983387804638997e-02
-2.155367961225577444e-01
-4.652411769016456811e-02
-2.531038571639628032e-02
1.303241781393623018e-02
-5.337339046347153726e-01
-2.939493803111582412e-02
4.055406382909890750e-01
-1.247671651931928638e+00
2.290544865853292450e-02
1.939673171537622046e-02
3.481488427633591762e-03
-9.219361994112001968e-01
-2.601720881025612261e-02
2.280694990982838066e-01
4.433813431598035947e-03
-2.166882243178562373e+00
2.808728952682258955e-03
1.350446099818737198e-03
-6.040465574411808536e-01
-5.775597058919229587e-01
-3.050471749577358255e-02
-2.525467395061012366e-02
-1.784091214852015841e-02
-2.070548562896221967e-01
-3.496106384032185432e-02
9.566670790641359015e-03
-1.450616159988561520e-02
-8.604591205668343443e-03
-4.051589338480496988e-02
-3.002954581969546552e-02
-3.442455952245505185e-02
-1.534575357592175837e-02
-3.678110955711382246e-01
-1.330605407454365396e+00
-3.303382476216446678e-02
-3.456200737488662571e-03
3.508582405383587483e-03
-1.290674515586919036e+00
-3.389229809591426390e-02
-1.277867653631035473e-02
-1.007486879967657567e-02
2.828232807425828596e-02
-8.355340363877855614e-01
-3.737101101651685298e-02
-4.208682086190167898e-03
-1.993576386744681517e-01
-9.031700074926163335e-01
-1.965771464493916376e+00
1.278719520657765618e-01
-1.394850741841705162e-02
-3.955004911963304615e-01
-1.245315535353983316e+00
1.711300732885978268e-02
2.364333853621448684e-04
-4.039197924673729873e-02
2.491922252600593246e-01
-1.969102707806410704e-05
-8.007063692878457761e-03
7.567479011313565159e-05
-3.640398560024951102e-01
-4.628520369366377341e-01
-2.794032396041948862e-01
3.385424502016680381e-02
-2.482731241618792856e-03
-2.241471539280733699e-02
2.483882791560991423e-03
-1.658788612785783989e-01
-1.532643607041882065e-02
-5.366425809292294825e-03
-3.875987300181359813e-02
-1.391393605462183825e+00
-6.600137535693938462e-01
1.977679377244491096e-02
1.391970256924723870e-02
-4.382156508015570828e-02
-1.172531999375016759e-01
-7.966820363586726850e-02
-5.405643291906202519e-01
-9.172426976676532201e-03
-3.844373641931967539e-02
-1.256058766825573825e+00
-6.441550362243972372e-02
-3.910322762219769349e-02
1.696608924379918587e-02
4.617588817688041136e-03
-1.294966224004687749e-01
-2.892170280640187774e-01
3.998952076404046346e-03
1.559799908980081737e-02
-3.596422844892036008e-02
-1.583227793584676343e-02
-2.410945819760874909e-02
3.870799750981641085e-01
-3.779092850305734164e-01
1.884794924492258147e-02
1.982442371198557887e-02
2.560305745132571142e-02
1.133089724950745933e-02
-1.228958500387739537e-02
-9.194354111363536308e-01
-3.709308135840462539e-02
-7.130887551807994947e-03
-9.168744360186956710e-01
-1.083298586397141161e+00
-2.497011562349423786e-01
-1.121157019786187981e+00
1.187349625477326365e-01
-2.515989403548633471e-02
-1.736312354581961981e-02
5.744225412183993212e-02
2.095101937641564993e-02
-1.934077512897105500e-01
-3.631658054117577195e-02
-7.746165085702294562e-01
-3.052276008314069519e-02
-3.158597885056713822e-02
1.912934061928977386e-02
-4.425339242865767853e-01
-7.926020570903231574e-03
-1.331769086246224365e+00
7.359049738336513775e-03
1.366437014023596901e-02
-1.426234275826919126e-02
-1.740534585474362572e-01
-2.859751758496031221e-02
-1.894117497572716732e-02
1.369798216129294562e-03
9.127348990497380701e-03
-1.253693672935028008e-02
4.846697844700076883e-03
-8.869210325304439646e-01
1.026251100175200187e-01
-4.597098530722096288e-01
-3.873823352404993647e-01
-7.969365662166597031e-02
-1.598541014332386934e-01
-7.138247571897653708e-04
-3.239431833760680890e-02
-3.643846873016406279e-02
2.659745239571299075e-02
-1.476159832188826515e+00
-3.930311973532935738e-02
1.154299132553721768e-02
-9.109077400739583608e-01
4.384655757555364630e-01
7.287839083673227150e-03
1.287595522451698456e-02
-1.936949443665160822e-02
-8.863829297303863972e-03
-1.792727158943401844e-01
-1.342796957045621631e-01
-3.526067641450839618e-01
-2.447768059146076744e-02
-7.123305304755863654e-01
-4.330405591474234886e-03
9.706803996028280646e-03
-8.137259735882773973e-03
1.061226419276277144e-01
8.122003470229743199e-03
1.297585645371161500e-01
4.537589935171313510e-03
-1.289060665853838383e+00
-4.297769047568081313e-02
-1.833290063114089596e+00
1.615974581573584312e-02
1.233287252999064158e-02
-5.943117017745445096e-01
-9.398680124460609756e-03
6.094972094085528147e-03
-2.373819017968395451e-01
-2.233798228595064786e-02
9.254402664490258071e-03
1.648484099871246750e-02
-8.071869576292262788e-03
6.344230856577155742e-02
-1.419425735631137629e-02
-7.482401518907155769e-01
-1.545152469371093018e-01
-2.533450489746534931e-02
-8.184923275166993140e-01
-2.000142083219368094e-02
-1.354407357142652257e+00
-1.672618773901618158e-02
-1.721516220128491148e-01
1.277638938394820220e-02
-1.877443275204470491e-02
-1.439137310153963289e+00
1.372752007063324786e-01
-2.769428362780632091e-02
-3.851913109076496311e-02
2.471237754051051547e-02
-3.607899381284701557e-01
-4.986880216487009632e-01
-2.164542453105975164e-02
-2.483602936404967140e-02
7.315140606817023272e-01
-5.803128386704345942e-01
-3.195503799205389600e-02
1.763786016979373983e-02
-5.375134568395979473e-01
-1.964576793779678268e-02
-3.387958353957031266e-01
-1.254573599933161802e-02
1.324344422145651116e-02
5.655540759139980611e-03
-4.963013147554620058e-03
-1.291197788796676571e+00
-7.293641235831483938e-01
2.495528544134972132e-02
-1.602075681785143590e+00
-2.064907203324892540e-02
-1.307591030049521557e-03
1.058109787571247240e-02
-2.369046641927906871e-01
-1.394794722441491594e-02
-1.010073867982837041e-02
-1.951422603314909299e-01
-9.957815936824325753e-01
2.687821068938748073e-02
1.760900196726894115e-02
-2.819764331118555442e-02
-2.727622857896853659e-01
-3.532587563601752995e-02
1.076713930304564956e-02
-1.579108273332078927e+00
1.496821649373944463e-02
-6.506514020655198571e-01
-1.008134147939052962e-02
-3.005274542587576397e-02
-3.325961003616245432e-03
-5.551342999615576090e-01
-2.381409998442781187e-02
-1.287896603591399236e+00
-2.838584976865126189e-02
-2.291726329311061586e-02
-2.181738211376292244e-02
-1.751369834540761894e-01
2.072964387204355094e-02
-1.593727123192059669e-02
-8.255551333963635496e-01
2.066257264296992874e-03
-1.312346933214822153e-01
-2.869461002066150609e-02
-1.172600828291675334e+00
-3.425252916233145761e-02
2.659367270688974272e-01
2.657941742720995593e-02
2.697890934457372950e-02
-2.638544627243375254e-02
-8.889035606420832014e-01
-1.216729965177397628e-02
1.265816282662803917e-02
-2.141727414522838491e-02
2.723998464619910020e-01
-7.562909836559443821e-01
-8.884754023914673837e-01
-1.578238356689883742e-02
-2.454337886684109307e-02
1.409130340530730108e-02
1.716160308906907947e-02
-3.482501040659162772e-01
8.738939909112916279e-03
-3.670376538054140325e-02
-6.174561756017177272e-01
-2.391315401326851720e-02
-2.844972361646987136e-02
-2.101901487016626824e+00
1.843330833824608980e-02
1.921427707475561672e-02
1.226324790250090530e-02
7.382593692830854981e-03
3.155042465145438055e-03
-2.926921302950582018e-03
-2.099753777278807673e-02
-1.001344244647093262e+00
-2.907157821251211971e-02
3.495164916705356412e-03
-1.109834806510949345e+00
-1.043769612921847445e+00
-4.770909072566419280e-03
-3.353800108807374752e-02
-1.820558532645641728e-02
-3.604088958824035183e-02
-1.456162593998429733e+00
1.729493180887198972e-02
1.366942554204354787e-02
-1.897942214079801487e-02
1.386889117399641574e-02
1.214228062882006555e-02
-7.533791352995903960e-03
2.720010991073256931e-02
5.091641846252227196e-03
-1.443366877325747907e-02
-6.714404712382141538e-01
-5.829470369259144302e-01
-8.802658746546451196e-01
1.728640125073128975e-02
2.968677093164628911e-02
-2.946180495988581435e-02
1.373413128764074641e-02
-6.877360373438468066e-02
-2.784951544610898555e-01
2.319212296727547751e-02
2.393231456216630276e-02
-5.931634173932408965e-02
9.113980951441348274e-03
-2.142147105665480333e-02
-3.503007460407091961e-02
-1.501647158393885906e-01
-1.457281123630655350e-03
-2.965388347972217065e-02
-4.137955239793730811e-02
-2.319540814589795760e-02
3.358322611069204378e-01
-4.391665760168447785e-01
-4.594658442971456119e-02
9.971151626338155098e-04
-5.150201117832803321e-01
-5.433239057282716195e-02
-2.918901458189513548e-02
-1.387131627752358730e-02
1.244143837654380219e-01
6.444374794808404965e-03
6.533681532747110943e-01
2.053111842491103095e-02
-1.957777260177758286e-02
-1.310224327704836877e+00
1.040988594325790578e-01
-5.855680580531544971e-03
-8.779888193052950429e-01
-5.046954146287042919e-02
-4.254488447245053512e-02
-3.727861737092085653e-02
1.220686956559999953e-01
-2.878440122636791859e-02
7.696858613209793705e-03
-9.455535060584899232e-03
-1.730627312185224493e-03
2.908935061885196266e-03
-7.723124517573864978e-01
-8.019724972005127794e-01
-1.313507973465340498e-02
-2.721473577779612209e-03
-1.862292967450697390e+00
-4.529029796640048067e-02
-2.103350074855005539e-02
-5.592739143772161858e-01
7.696023249148874028e-03
-1.376871848555215605e+00
-3.948006474400293092e-02
-3.264588570184127070e-01
-1.131226000338180111e-02
-9.346203671675330782e-03
-1.808004574333574865e+00
-1.181205100236247363e+00
-4.156930848412271340e-02
9.057578149286350799e-03
-2.672529970696337423e-02
-3.945497000392899495e-02
4.443264084565959858e-03
-2.918139810724281955e-02
-7.409003856707728356e-04
-3.683788174619814781e-01
-1.579162086814913865e-02
4.802459073306122872e-01
-2.986083603268613676e-02
-3.900100004842733253e-02
3.971747499586579001e-03
-3.837415453679482447e-02
-8.636777802932311954e-02
-1.089821877304703035e+00
-4.474213591085587916e-03
-6.290386973594475073e-02
2.094966141305592416e-02
8.758239002796574732e-03
-9.930565619982508613e-03
-9.805015584666965101e-01
-3.811850556016934625e-03
-9.519023892249102448e-02
-1.566082645946758126e-02
-5.070138730909199420e-01
-3.110442570053412528e-02
-1.064817672552307748e+00
-1.240380221303259090e+00
-3.078174355199846807e-02
1.821968999068204753e-02
1.032300089741582279e-02
-4.195772060252030145e-02
-2.418894511488579174e-02
2.479273897144666783e-02
-1.218055814135379430e-02
-7.502997965711500315e-03
-1.356311330618154183e-02
7.668112012646699158e-03
-1.535134415312386889e-02
9.556140304286017684e-03
-9.976063407049963194e-01
-1.854283609785268780e-02
-3.586838666799204572e-02
-2.212236906186549126e-02
-1.103576200904268001e+00
1.750178915058923229e-02
-3.350311220093398629e-02
-1.320650358487841070e+00
8.875292407513089843e-02
1.541520775767279104e-02
-2.958298457770429032e-02
-8.711636370410046348e-01
5.385108293284642661e-03
2.677788747163193511e-02
-3.061130618483444768e-02
-9.789725368797618232e-01
-5.989384135432574974e-01
-4.123808180254269484e-03
-1.559959578167572081e-01
1.504052942743131470e-02
-1.475588173942338210e+00
-2.982116375994837629e-02
2.330115857756147671e-02
1.730013918367710041e-02
-2.695069511317967764e-02
1.305620191866747014e-02
2.482272751528065771e-02
1.677599311417562328e-02
4.276538525428772997e-01
2.422279190682017080e-01
2.574911062989510002e-02
1.308762684371211349e-01
-7.398114507539592655e-01
-2.024061329056615552e-02
-3.114501345495470502e-02
-4.158416746110773360e-02
-1.005981295650448526e-01
1.324048338937142133e-02
-2.836025733075375060e-02
-2.713832840437792604e-01
8.717941444934805550e-02
-1.622069851113880468e+00
-1.205377208844469507e-02
1.404666084541822228e-02
-4.102156831277405341e-04
1.802204556369079586e-02
-1.452389709037475996e+00
-2.198462467151886257e-02
1.216963893931961513e-02
-4.009883931872413459e-02
6.889215967692892580e-03
-2.760106398125218921e-02
-1.729628295140512445e-02
-2.266898996121815002e-01
-2.840149935944810689e-01
2.903864623798211309e-01
-1.915138681756009209e+00
-1.699735588970047867e-02
6.898553756811203960e-03
-1.195167816672627392e+00
-1.865278838837740533e-03
-8.617599795689342632e-03
-1.865466098403929449e-02
-1.411720021886417875e-01
-6.858267536384334007e-03
-1.617597288620667428e-01
-3.332948858173876566e-02
-1.071255296724501926e+00
1.407242315853876047e-01
-4.209305248410608741e-02
-1.035399183775619569e+00
-4.193439646254942116e-03
-2.678846701392962812e-02
1.039181366140539547e-01
-1.470083592956046015e-01
-2.944769293937849960e-02
-6.314121418696019283e-01
-9.371254937320644407e-01
8.703144915732775964e-04
-2.767418073483104979e-01
-9.537240428866230468e-01
1.854768043995615526e-02
-3.820096212286339804e-02
-1.432051718588206284e-02
1.976582552088955447e-02
-1.980707364720867350e-02
-7.497100550897521642e-02
-9.767774738980686822e-01
4.643307276175871398e-03
2.677831189802875114e-02
-3.454153529174779080e-02
-3.224823563267670834e-01
-1.375506901353682920e+00
-3.427857108368850825e-02
-7.090671652358704335e-01
2.555754692246105242e-02
-1.355708486469570312e-03
-5.481664000101271750e-02
7.517208047059145692e-03
4.275636754182882832e-02
-4.641469087813918093e-01
-1.958382453355530031e-02
9.697370324628026145e-03
4.859499931224997051e-03
-4.261100712910828037e-01
1.006523887255223772e-03
-3.124830037520950898e-01
-4.539745556571149754e-01
-2.383270871387541817e-02
2.248330281605919346e-03
-4.286741719829871566e-02
-1.489646817497210923e-02
-4.003426050177280593e-02
-1.089225399131088685e-02
-3.766357706067237354e-02
-2.489321886942605366e-02
-8.864856246861643196e-01
1.611477746676029735e-02
1.117963199858896823e-03
-2.780044194585257547e-02
-4.682408497317840784e-02
-6.177701096837199257e-01
2.315192718269888650e-02
3.943278494036229764e-01
2.084021872538744866e-02
-4.437549495843317194e-04
-3.886718248672907938e-01
-3.544337547144735950e-02
-1.129014384353526079e+00
-7.239791748861616576e-03
-1.156910747770459498e-02
1.605538262313793013e-02
1.655433375304453522e-03
2.136199920835969018e-02
8.974615686299880490e-01
-8.657421343266709091e-01
-3.330123767642342164e-02
1.405709147488412025e-01
8.966287879247697087e-04
-2.624806252571885712e-01
-1.662972088655553099e-02
-2.019172338530879698e-02
5.372777381472962910e-01
-1.355988449273844765e+00
-3.003324989105231324e-02
-1.368420851246256002e-02
-1.302556480169962888e-03
-2.267145874815070239e-01
-9.515722702458760951e-01
-2.853541812296732649e-01
-2.606757095780051769e-02
-5.500558293065227478e-01
-3.781101239296641436e-02
-1.017466557756012135e-01
-2.264901459942749926e-02
-1.037240254815921414e+00
1.619804207792799669e-02
-9.344465023574656248e-01
-2.662301836408402789e-01
-9.645254542921474512e-04
-5.066226806404495742e-01
-9.583492982043529951e-01
-2.230912237520921160e-03
3.364678617025127633e-02
-1.506786641094785828e-02
-1.500962917661496747e-02
-1.272534462342807954e-02
6.221469138738339871e-02
-1.717564821466873171e-01
-3.671649449146360128e-02
-1.678480620023992398e-01
-3.239347736066786054e-01
-3.952956883533239457e-02
-2.980901469068045467e-03
2.295587482684623426e-01
-1.323717846238132934e+00
1.825450531859005091e-02
-1.836290651933543752e-02
-1.256669441580055557e-01
-4.215003968009332080e-01
-9.071083349414874389e-03
1.030434556748865103e-02
-3.072479247177927614e-02
-4.072638082593908748e-02
-5.499788868706744632e-02
-1.052321088346315214e+00
6.423113505612290108e-01
-4.811469310887149520e-02
-8.406895379900760634e-01
-4.999483023100086410e-01
-1.953317252367569035e+00
2.407791009087100961e-02
-2.743280697047647057e-02
1.694489059420111604e-02
-8.597563814967694798e-03
-2.810854997783677686e-02
2.756513779301989625e-02
-4.261180460525290092e-01
8.399528701334695313e-01
-8.247017428154329588e-01
3.555165099828062059e-01
-2.742172141008712011e-02
-9.254462083400164518e-01
-6.560901915166005016e-02
-3.820801153124237654e-03
-3.881136853247945662e-01
-3.621526932577459937e-04
-1.044036415050322297e-01
-3.685481464259578455e-01
9.574554934710974297e-03
-1.353482295646396723e-02
2.221039536102852388e-02
-4.063670075730228121e-02
-2.649005891982897029e-02
-2.342368834402959107e-02
-1.185453555264744052e+00
-1.457542221099600993e-02
-1.077989734489722240e+00
6.671042959347396953e-03
-4.071564264648555587e-02
-9.751674299556507552e-01
-2.562462095487098857e-02
-6.128747073369511522e-01
-7.605904451602941707e-01
-1.675302787921746986e-02
-4.258961267914813248e-02
-3.092643597173541908e-03
3.005754860316778559e-03
-1.041044170913456801e+00
-7.586285871593199427e-03
6.547934579070974160e-04
-5.398824916811880703e-01
-6.370676032811299627e-02
-7.807455251167235918e-03
-2.418859093995280249e-02
-3.205595756823029913e-02
-6.608507848712157420e-03
-4.838788791445005066e-01
-1.607812258199095901e+00
-1.685491423435815816e+00
-1.037617140690448414e+00
-5.410061754709127868e-02
-1.535195431463196383e-02
2.548415249638293079e-02
-9.054974928483100483e-01
-3.764229741456410205e-01
-5.245520948368037617e-01
2.965209997312682338e-02
3.532749925008075303e-02
5.354155578311810965e-03
3.371693204229641583e-01
-2.815804010258594545e-02
-3.093562028099367534e-01
-4.066256161514119477e-02
-2.365214609609508564e-02
3.037502100760973156e-01
-1.102361697365993543e+00
-1.408188022007234898e-02
-4.250681385005901369e-02
-6.484252345244966298e-01
-3.269516652390751926e-02
-3.511139401574818464e-02
-5.266967156930024707e-01
-9.737500208630848119e-04
