1.103004063406072717e-02
-3.412206552962503137e-03
2.551836271649035939e-02
4.036929039542291181e-03
1.464553157121209134e-02
5.332489311697246291e-03
-2.347001545871006678e-02
-3.464495393181118293e-02
6.578932088263962988e-03
1.585985998980361106e-02
3.896799974250860811e-03
3.796035854756994472e-03
1.835570108388548741e-02
-2.558191194261923845e-02
1.906691184983592968e-02
-1.227292296480128478e-03
5.095526346196398854e-02
6.134143078461549645e-03
7.018765186499200358e-03
-1.465476191595088511e-02
-1.138219649621648871e-02
-2.681792634299165826e-02
3.149094494243427720e-03
3.730306981158475720e-04
-3.067949895715882044e-02
-1.242441599683109538e-03
-3.796755874314546725e-02
-1.287001221075626846e-02
-1.214524491621396876e-02
7.043854968189341634e-04
1.970561073627683651e-02
-3.516743543564562757e-02
-1.258925894812914018e-02
4.805632163957083806e-03
5.004886612810096995e-03
3.188353235696333651e-03
3.047048134676603667e-02
-1.926514708947846440e-03
1.377330739623600434e-02
-1.379770569385531734e-02
-2.264254517221113774e-02
1.050742272623573365e-01
-1.112087914108843409e-03
6.756988136421525348e-02
1.243922291680251563e-02
1.257930822401647289e-02
-2.113786063022156381e-02
6.946457003563949982e-03
1.567957289085052585e-03
-6.490663876089202734e-03
1.576221283964939629e-02
1.251770092221825281e-02
1.968412450565630925e-03
-1.428978594525045186e-02
-2.523392706603538871e-02
-1.776554052674416198e-02
-8.898492705283710807e-03
5.567411212754066509e-03
-2.488699632407710347e-02
-1.578195781574400283e-02
1.555937525952670250e-02
-1.476153892478068545e-02
-1.176500915562564160e-03
3.252462397783629621e-03
-4.545806392379039135e-02
-2.727916575088321430e-02
-5.864037079346161481e-03
-3.368956861932796698e-02
-1.385088996474864720e-02
5.314486385676809449e-02
4.067269039968220840e-02
4.586765250931092164e-02
-3.414641092417213669e-02
-1.178468076010942382e-02
-1.985442539724122449e-02
-2.287434809251423853e-02
4.944792369086750683e-03
-2.611036241940632371e-02
-1.316503819847218877e-03
-2.133118192333344210e-02
-3.402912704563732654e-02
2.113127169425154869e-02
-2.255811283927505392e-02
5.884056465282420370e-04
-9.222947239000779673e-03
1.546367545194154113e-02
-1.631140550708255689e-04
1.093959113699819082e-02
-4.058467208999634590e-02
-1.042126175397186869e-02
9.345655779544818909e-03
-7.367139137741146593e-03
-6.327000150260352063e-03
-3.959993058394092186e-02
-2.575911731156317955e-03
-1.347715219243312938e-03
-1.245513732935959496e-03
9.095175332961568521e-03
5.122190131879339470e-02
-2.292772776639306551e-02
-2.717826640754270051e-02
-2.613596897467602639e-02
-4.352803895903191618e-03
-7.259287918630869842e-03
-3.945199223664973840e-04
6.640668521740306952e-03
1.387102653102634947e-02
-3.203463918903734498e-02
-1.839324156251557693e-02
6.690565713308549260e-03
-2.013760492101746361e-02
-1.986449747569418722e-02
1.746727860439033220e-02
-2.524020302578604963e-02
-5.686740995008183509e-03
1.452061116124258103e-02
-3.189750203839068765e-03
-1.629158172145549546e-02
1.826123333851352448e-02
-7.920093101275655842e-03
2.214178917490921064e-02
-4.218615561217831100e-02
-2.005452929937516851e-02
-2.294763492294925669e-02
-1.688219885513512694e-02
1.865170560739693589e-02
-1.848154909973964352e-02
1.700561883618979808e-02
-3.598720561974431964e-02
1.352173192843602548e-03
-1.476774340256185522e-02
-1.703958829021982521e-02
-1.269808299327573539e-02
6.318884131095145245e-04
9.874069773665516275e-03
-2.187094527406512230e-03
9.658269232304853014e-03
-1.604136774516702960e-02
-2.100320936979786811e-04
-1.229339759380108574e-02
1.203391969801320335e-02
3.182803182825894028e-02
-2.368271210379556055e-02
2.470065887312740752e-02
-8.079275539382339485e-03
-5.282940368928414759e-02
-2.321297392530357467e-02
-1.843756531576947258e-02
-1.836675254477183883e-02
-1.242912863437799047e-02
-8.793661846620788591e-03
-1.584274000363914076e-03
-3.843915217435488890e-02
2.579276205652904219e-02
9.542558801122766679e-04
4.014803740386883694e-03
-5.911780883064319744e-03
-1.538173728295998653e-02
1.215515965542876380e-02
-2.754363423314019899e-02
-8.758170695191849417e-03
4.369885675949346160e-06
9.374883652520957927e-03
7.092905426709887953e-03
3.743287763200985052e-02
-2.044017279970570394e-02
1.854333548437598483e-02
-8.268096882564567388e-03
-2.285064249039878495e-02
9.705206397509432564e-03
2.165837272082542578e-02
8.814472559990672168e-03
-3.724319865156424519e-02
1.701833286359897071e-02
-1.522809308788684521e-02
-3.425980779556958566e-02
-4.578132149821043800e-02
-8.299843668588722037e-03
-1.248711515330361461e-02
-2.273367078635803867e-02
-2.360932509823888276e-02
2.694943587960061879e-02
1.022471593824871364e-02
-8.981278653241962784e-03
-7.785819751024730499e-03
-1.360980553224312717e-02
-4.621926465045900212e-02
-1.303545452440407542e-03
-2.353142892977073269e-02
-2.279181328256789721e-03
-1.947910698139223781e-02
2.123044625859484696e-02
3.020663925588855381e-03
-5.835887303330904337e-03
2.836304293442813013e-02
-7.075571276138969447e-03
-2.287606791675980602e-03
1.178549304184944033e-03
8.137526443673144191e-03
-1.075023361716966400e-02
-3.538521908374695629e-02
7.161830339175801266e-03
-6.131635886963055816e-03
6.797721862644627230e-03
3.752683773363901711e-03
-1.692909257300984419e-02
-1.528832667942190901e-02
1.062296333862295696e-02
-2.259786901235557449e-02
8.172261910146706373e-03
-6.959014580018406046e-03
-1.432124964850120009e-02
-3.662709333960642577e-02
-1.233351305360865131e-02
-3.541602056403997823e-03
4.084914492075716365e-03
-1.167768747927279763e-02
7.006888148736472970e-03
-2.378602850148859790e-02
-3.456469469138979608e-03
3.895004383962680748e-03
-3.908681102166162991e-02
6.534668414135782512e-03
1.422107027783470548e-02
-3.392027937706361407e-02
-1.158053040269683628e-02
-5.522652720808301141e-04
-2.089961844719995937e-02
-3.001337915703346237e-02
-5.609591347220602847e-02
-8.570904127707158066e-03
-1.006817876006285521e-02
-1.605617742069410936e-02
-1.335389339965280080e-02
-1.055303878921094165e-03
-1.686964993118802991e-02
-1.603166383507691542e-02
-6.389010966850358110e-03
-6.053696372178975042e-03
4.232713971037690287e-02
-2.511719424892165306e-02
-3.500338989052697442e-02
-2.287335116407723801e-02
6.307082586874991625e-03
-2.068775522177429549e-02
2.069020208799618194e-03
1.801588347006574664e-02
-6.002613454715715127e-03
1.969800535703255390e-02
-1.531295426528988353e-03
-6.554858592677974619e-03
-2.480599900447880493e-02
-2.213466827616028532e-02
9.344551032586885866e-03
-2.806128842374114307e-02
-1.453058007841404563e-02
-1.593072997356922917e-04
-1.940202073575273550e-02
-2.290760111761348458e-02
-2.023219196258679853e-02
1.707877985766810200e-02
4.520761414261885956e-03
1.908364953170137504e-02
9.436427294399541907e-03
-1.553301119996943792e-03
-2.238076418064057632e-02
2.079042890097688653e-02
5.629409183057353799e-02
2.398375099506237784e-02
9.811905349854583777e-03
7.619226039933892775e-03
2.455813752904671340e-02
-6.529247336791534941e-03
-1.329593910161087217e-02
-2.715426616038008750e-02
1.605784004420410943e-02
-2.102281793209834215e-02
2.168342345002817473e-02
-8.154916292876034090e-03
-8.706374882736964485e-03
-9.932387370453535022e-03
-1.826276879405049069e-02
7.819076621642859909e-03
-4.911173883789766992e-02
-2.686322099887631168e-02
-2.526420272302688438e-02
-8.955335757707526961e-03
7.085383078565845455e-03
-5.447158362542432394e-03
-2.843945935733769095e-02
3.334658801201766110e-02
-7.032183835028385857e-03
2.215377830049557531e-02
-3.679386500024963477e-03
2.515244257200391353e-02
-1.765234723535276905e-03
-1.671510067298489707e-02
-1.739584901960989152e-02
-1.719602081172389579e-02
-2.809207062963867390e-03
-2.680468250883482912e-03
-2.804830175822970242e-03
-2.597745122299596168e-04
1.192930992578097177e-02
2.706018032924231622e-03
5.408611405630584477e-03
1.787607191677873311e-02
-4.931799519896641311e-04
-3.101120684473750860e-02
1.356939993027652530e-02
-1.738466277926429063e-02
-9.548059113525983119e-03
-4.315478117169747191e-03
6.116261116093386213e-03
-1.855374020848231040e-02
-1.718285233260549499e-03
4.154304902235304853e-02
3.417254192028277432e-02
1.729321702147515114e-02
4.194566843448301052e-02
1.090007405434535726e-02
-1.315924586787846871e-02
3.437129211893966835e-02
-5.967146699111881879e-04
2.669950132939553911e-02
3.194608088578811123e-02
2.549561095390941515e-02
6.442038552662524876e-03
1.569130239260952200e-02
-9.289006910268935574e-03
-7.283804622176448876e-03
5.221137811023442155e-02
4.688338435779371843e-02
4.688651370104094523e-02
1.138487275840211962e-02
-3.362522217535882096e-02
1.888599219344810898e-02
1.372051454941031721e-02
1.161803436717013735e-02
-2.743491924040352553e-02
-5.963888250369318682e-03
1.735031734446728507e-02
2.978784738160148576e-02
3.932480123400981104e-02
3.446947582892623957e-02
-1.270959093895748055e-03
8.595553497817667865e-03
3.097985013483588873e-02
1.963439715815942094e-03
2.255989808090019810e-02
-1.008295219534965578e-02
1.286847322292931917e-02
3.196564144134211860e-02
2.001733353933217094e-02
5.156481285140664117e-02
4.207927911397562476e-02
-1.963672313013146639e-02
-5.776076281559533064e-04
-2.728825952220166953e-02
-2.989586122246451916e-03
-2.681295086761141880e-02
2.317022948476838567e-02
3.322893197658399137e-03
-1.181786768737659241e-02
1.408883696084936750e-02
1.405532796104942000e-02
-3.110360081236462210e-02
2.619011036350268537e-02
-6.864035524734845954e-03
1.294665972802400231e-03
-3.211440695467418505e-02
-7.522320580886227015e-03
-7.276802996724414559e-03
1.208842060437177041e-02
1.421880709562543810e-02
-1.311978858416844480e-02
1.706221678439396108e-02
-1.874464625362264394e-02
3.468229243502633091e-02
-1.885155975511176168e-02
2.420371005272597964e-02
-3.260348866109865490e-02
3.455818396550575100e-02
-3.145453796390813156e-02
1.819631913843841250e-02
1.067396728599202815e-02
3.222846094838772296e-02
2.441306355428180322e-02
-3.455821899803991626e-02
-2.431346301580117678e-02
3.676201058764755358e-04
3.623363274803376166e-02
2.852996996830094861e-02
-1.562713218965055065e-02
1.908986985289274838e-02
-1.469584004018796575e-02
-3.791004445520178637e-03
1.230383265417431607e-02
-1.694602404957000139e-02
1.028247730998205385e-02
7.145428215666029849e-03
1.646245009657383573e-02
-1.363336418567523585e-02
2.819193358442923306e-02
3.855419133120958387e-03
3.269246491547334738e-02
2.615728153312882245e-04
3.815985397621902975e-02
5.525060094307635006e-02
1.713670415703064456e-02
-8.925608016055609772e-03
-1.182251114107903730e-03
3.700555866496863661e-02
2.805994133412626976e-02
2.632590834946264488e-02
-4.860143256313995130e-03
-3.474374844935852052e-02
1.898728665479076927e-02
3.693441392395001993e-02
4.417574126013085016e-03
-1.426247934575680318e-02
-1.712502732982277426e-02
-3.493700774343359849e-02
1.323003610807479274e-02
-4.005532386643523637e-03
3.332431490553314397e-03
-2.045350652574124892e-02
-1.821178100689423499e-02
2.230828578639895005e-02
-1.641188422595633639e-03
1.550198862655315958e-02
2.891114319628487403e-02
2.152774351032717137e-02
-7.724428737644490825e-03
4.038944895667657964e-02
1.139762828273005457e-02
4.383410815765769603e-02
1.729242116840675999e-03
3.712652989278384785e-03
3.337267947953602432e-02
3.101651282157926598e-02
3.497287510124969662e-02
-2.373880780238434018e-02
5.518207687872227511e-04
1.479596475387216434e-02
7.087358515598239650e-02
1.300698553370834704e-02
-1.486622010518087039e-02
-5.732264099636103123e-03
-2.628105619636263504e-02
6.340126235316683422e-03
-1.940598877023575267e-02
1.074900102064392168e-02
3.047079459806726134e-02
6.927599657655453269e-02
-3.660084562905587674e-02
-3.187662535577190956e-04
3.183259006290220863e-03
1.766755635574300228e-04
-1.590708056518040994e-02
3.488418827091219893e-02
3.527992163409404691e-02
-1.892295272028541100e-02
8.121279933744524754e-03
3.568194533682524094e-02
5.710265324047346380e-02
-3.797463502538812700e-03
5.315684437494365422e-02
2.717056242948652153e-02
2.384893209082320290e-02
4.263698880128839741e-02
-2.767446446447303920e-02
-6.494394229876066654e-03
-2.320477970161632930e-02
-1.172192116315317299e-02
2.345917187421298067e-02
2.847149458771934538e-02
-1.401852143347559129e-02
1.348121744522756335e-02
-2.480068570950610951e-02
-5.870550488412356119e-03
-3.270582123199974878e-02
1.388698673328913951e-03
2.049581817674308443e-02
-1.440439709627939525e-02
-9.470612688117271277e-03
2.775472733009679352e-02
-1.123988909613688261e-02
-1.730378900988651519e-02
-1.280156069507603321e-02
1.955716852539706591e-02
4.564110925374452975e-03
4.883043435712178248e-03
4.224286859302554126e-02
4.631014190370934952e-02
3.870600768973234823e-02
1.871919350006015850e-02
1.543459565359859426e-02
-4.749820535147220024e-03
2.714202237872433837e-02
2.399930223204423466e-02
1.438107461068313317e-02
2.440181590937410064e-02
-1.371549858836403415e-02
1.421744531079264726e-02
3.470785105118039116e-02
2.983418904033597122e-02
-3.376979796159081115e-02
-1.567944799742033643e-02
-1.038461768976056731e-03
3.807571910926733222e-02
9.182337328249461951e-04
-1.460933573838881991e-02
3.310117308867990653e-03
2.804669204835010671e-02
2.828948044964578034e-03
-1.727167782537487872e-02
-5.572832614392666736e-03
-1.286526996745407207e-02
2.741758663615946959e-02
1.031990975199634578e-03
3.124993217633332751e-02
-1.096932172418512916e-02
5.553769003505168445e-03
-9.896527770478084560e-03
1.665514115625600991e-02
1.569958643214747554e-02
1.921832785487027212e-02
4.214353661432614084e-02
1.383611849925165879e-02
4.175347365653267473e-03
2.752619797544764157e-02
-3.016658873898735572e-04
3.258641785315912615e-02
-2.715103843691054133e-02
2.191456980993222031e-03
-3.732500677016367587e-03
-1.126564444673020839e-02
-8.345092614845679713e-03
-2.048814981095165022e-02
-3.267720932440346115e-02
1.417181621380825263e-02
-2.717845846059472811e-02
-4.261073499885597096e-03
3.167182298415847919e-02
-3.053107842111166606e-02
2.647783728020974489e-02
1.995330286512953313e-02
4.633074666530020286e-02
4.763597271947534427e-03
3.297674606987969353e-02
1.020577197377860092e-03
9.052300768684332435e-03
-7.115602097302337579e-03
-1.904499210266498779e-02
1.298371236667488805e-02
-1.510175525687921030e-02
-1.138051671200618169e-02
1.929797625516668086e-02
-3.376085327122353014e-02
3.565270128523207599e-02
2.836043941207091329e-02
1.735545359296086429e-02
-2.131343382807654452e-02
-1.942552419250929627e-02
-3.728128266349479969e-02
-4.723553979037509176e-03
4.410964213432112119e-02
2.662892153742924678e-02
2.229072735643576608e-02
-2.333639948884278208e-03
8.004822964613390879e-03
2.065237399728192189e-02
-2.707894272409835240e-02
-8.107234821265954169e-03
-2.507249703457690299e-02
-8.973208566915805845e-04
-2.094794998987255935e-02
1.178832942155116914e-02
8.242101698925649936e-03
-1.650222444895762045e-02
2.049279042711523585e-02
-2.126047300585312202e-02
5.759864337131412153e-03
-6.226345697035562399e-03
-2.208501690268906484e-02
-1.120898348895575485e-02
-9.250351931021959587e-03
-1.401705169511642535e-02
2.235603558013421477e-02
1.514814654980281387e-02
-2.140660453223741655e-02
-8.153152123526925116e-03
-4.012816762537535498e-03
6.556986687453673739e-03
-1.774805531015156285e-02
-1.698209892522045336e-02
3.094173673046664644e-02
-3.026686132300743584e-02
2.427069342994257403e-02
-1.751527663629121392e-02
-7.585090683467095481e-03
1.342795974765846612e-02
1.865567527448133353e-02
1.898228511855523659e-02
9.932882410418201677e-03
-2.488289114008786912e-02
-2.503013676014074693e-02
-1.214769507971223336e-02
1.863859431292760232e-03
-2.449640712602457748e-02
-2.263902499092383322e-02
1.238478035484012058e-02
1.413472122390999714e-03
-9.383452687256035527e-03
-3.154863754974047974e-02
1.973176729814970706e-02
2.022431948893309989e-02
-4.667774435594364280e-02
-3.031829129354613600e-03
-8.805600803565705528e-03
6.160023106954530016e-03
2.963225931631243912e-02
2.532052054076327358e-02
8.014311914328277678e-03
1.997727188515684496e-02
1.100484271881751672e-02
-1.504521295500712598e-02
3.126465060046743072e-02
2.914717531864168334e-02
1.305425457111006630e-03
-2.217400779882874060e-04
-7.584961195879607113e-03
-1.695976019675242072e-02
-2.158071393737095653e-02
-6.608009367857384068e-03
9.019997251973331173e-03
7.007229826377452814e-03
-3.169003658561283295e-03
3.570324456531436073e-03
-2.212265879980099270e-02
1.119007552255010460e-02
-1.566112086398272624e-02
6.631781977728238436e-03
-2.726974357731282161e-04
3.853727622653102536e-02
1.188600486989235469e-02
5.049197983066783420e-03
-1.589083559013128311e-02
-5.274231828063678101e-02
1.434479571961995784e-02
-8.470237131975537738e-04
-3.564576591531535416e-02
-8.580719820603150208e-03
1.939086471384338442e-02
-1.369644294428569442e-02
3.226978171765794434e-02
1.817471237575046111e-02
2.817617028797843662e-02
1.588880675508781010e-02
-5.256973371225485102e-03
-3.620310238361708344e-02
-2.470848938163726013e-02
-1.143047673897959471e-02
-2.138321859377406708e-02
-2.469772614654788812e-02
4.871796627179987051e-03
-2.071873047553535185e-02
4.375101284427477394e-03
-8.409074752746381609e-03
-3.834026684235188748e-02
-5.698205866609054072e-03
-2.841624539706185618e-03
-6.691477476248110755e-03
1.684118893349226959e-02
-2.367175247992763659e-02
-2.354159605907806679e-02
2.250620120273116864e-02
3.799398610167467605e-02
2.093373263155927713e-02
3.361624818305779597e-03
3.961970536489739514e-02
1.842272657935731554e-03
-5.036077491843866764e-03
-1.683777936235795331e-02
-2.804564338904408025e-02
2.324400732365331651e-02
1.667333831715270276e-02
2.253090273151766784e-02
-1.611458946540468909e-02
-2.950102724210049588e-03
-2.206716742709354667e-02
-1.549439382916145864e-02
-1.480771369226574138e-02
-8.763071829892206052e-03
-3.380682465052607666e-02
-2.454102713199685093e-02
-3.320916690080902289e-02
3.124085777586579904e-02
2.876304975604608571e-02
5.294780742617568800e-03
-2.270029320517480409e-02
-1.408032471108293848e-04
-1.124985284619317225e-02
-3.266461047868111228e-02
-3.197352236041799828e-02
2.913508265563211422e-02
4.154684255431663302e-03
-1.796704144820779683e-02
-2.181235348352281514e-02
4.049674792229374792e-02
3.788683932424768280e-02
4.769921753315742134e-03
3.544372671339862235e-03
-9.211511245527414724e-03
2.228753409705054589e-02
2.006716042987465379e-02
-2.107629855786998657e-02
-2.342427397264552555e-02
-5.557817461426821717e-03
6.170370481832444277e-03
2.709313591149379533e-03
-1.305495097458086139e-02
-7.643537673829105955e-03
-9.100505327566583286e-03
1.379570671751455431e-02
-1.359329731447998443e-02
1.461670618131260223e-02
-6.236397975917028907e-03
-1.119977675864256700e-02
-3.253135456492466104e-02
-2.648755788416356713e-02
9.368603826750794214e-03
1.246704987684235481e-02
3.212697763089560066e-02
3.601856490102005315e-02
6.038173256897457278e-03
-1.399861475786615475e-02
4.856751614076024182e-02
2.249502445108519932e-02
3.500782760619394057e-02
3.452474350108143686e-02
4.958112053788304519e-04
-2.426395694274120773e-02
1.372666731650401019e-02
8.141450779256289433e-03
-1.989199388744585222e-03
-1.955731412209682496e-02
-2.155611446467334876e-03
1.101883599616505088e-02
-2.143971681661987691e-02
-6.521461707479905487e-03
2.049880180740466448e-02
-2.056003153445794089e-03
-3.442965374887804048e-02
-1.395968199441879366e-02
1.142851724622292141e-02
-2.406015699536999397e-02
-2.042867127079467729e-02
4.023794685349609337e-03
-3.483509529152710449e-02
1.400310227017329727e-03
8.977542670523405710e-03
1.055111787130911041e-02
1.790760504906655079e-03
2.217489561251216948e-02
1.641795262574056655e-02
2.323423605767548430e-02
2.544066641580030111e-02
2.108499820509760966e-02
1.905651160484230638e-02
-8.096569272152805358e-04
2.802735571912379556e-02
-3.684931385989034802e-03
-2.029831625889346597e-02
-3.096835687551316094e-02
-9.349604355012785736e-03
2.224163774231268167e-02
-1.533934194883681927e-02
-3.199891339082971270e-02
-1.322217521299400705e-02
1.597354355944366824e-02
-2.884641528733365018e-02
5.992862147263548420e-03
