-2.061655808803276035e-01
-8.791221187118251901e-02
-2.527972814576867969e-02
1.132419510880371301e-02
-1.231143006174210824e-01
6.823893311780102056e-02
-1.372698557646113704e-01
1.891959980577096745e-01
-2.826846655896998461e-01
-2.369788393306970775e-02
-2.621948927647811955e-01
2.417628150583561453e-01
2.913004987652911271e-01
-2.412945134956467896e-01
1.158441862810071499e-01
9.711604204679187557e-02
-3.083571210333171386e-01
-1.049515022419380134e-01
-1.408545895139848569e-01
-4.899145857501845808e-02
-1.202828738592396085e-01
-2.619517198486998044e-01
2.733742861714396621e-01
-2.581538817986313533e-04
9.657093744146427738e-02
-4.369145635079016432e-02
3.130328482445165483e-01
3.129479398520921829e-01
2.399111963298153072e-01
-3.985219461048039591e-02
-6.332976687334000709e-02
-2.675839972727289129e-01
1.727043777540880898e-01
-2.792499517748809890e-01
-3.693222717546943562e-02
-2.785176503542660664e-01
-1.945887980062579736e-01
-2.982651414824928349e-01
-3.159646101679062791e-01
-2.631752159607597119e-01
2.440465820939843600e-01
2.412821569615495321e-01
1.316059119591941606e-01
-7.927970254006361239e-02
1.194190232189354661e-01
1.074249175272344453e-01
-7.970126118624436262e-02
1.693718199817411951e-01
1.900249129867589426e-01
2.283863448203428403e-01
-2.909091635765024830e-01
4.874625513944998156e-02
-2.457308628111019300e-01
3.159867850526134614e-01
2.106754394965964783e-01
-4.756712465472360402e-02
2.025637747301351765e-01
-4.978285595048634327e-02
-1.748984243678863501e-02
-8.596598067310777525e-02
2.105906424729478699e-01
2.563186288285005388e-01
-1.778641769845956677e-01
2.670166711216572231e-01
-1.329161871515149029e-01
-2.538858606188129641e-01
-1.386897019428646738e-01
1.939266637668874901e-02
2.571853337609438239e-01
1.986843529713722412e-01
-6.906280894207841858e-02
-1.353450685900816630e-01
1.275393850246105965e-01
2.573219668302783592e-01
1.471487729457882920e-01
2.199165040989229103e-01
-1.330758900941873303e-02
-2.630701332890375554e-01
-2.543940090919195596e-01
2.063568140951981267e-01
2.240934104648884331e-02
-1.929415626615234025e-01
9.432668194363785438e-03
1.157503364356157055e-01
2.215032956924460894e-01
2.884854493076692838e-01
-3.311332738711458834e-02
2.193126981303662182e-01
2.534406770096177541e-01
-6.117547250713077645e-02
-1.922955031886338095e-01
-1.517124557277452213e-01
1.833569534689069025e-01
-1.849585674135017510e-01
-8.155214553635085906e-02
-1.381547799338286031e-01
-1.620297535230298680e-01
1.101808501393531509e-01
-1.963635081726146092e-01
-1.302204983035733232e-01
7.525085145122280272e-02
-3.161834725109876620e-01
-1.418429690228701356e-01
1.739684840739890714e-01
-1.419589984028156275e-02
-2.919989297097185244e-01
2.694716417346930681e-01
5.989405327212305591e-02
3.187680101444613778e-01
-1.922346987421926223e-01
2.187301319541163844e-02
2.219190228459207159e-01
-2.621549882427428035e-01
2.297353723226812916e-01
2.390888344691538825e-01
-5.497324312620703590e-02
-2.544127413099111501e-01
3.777107307970831163e-02
-2.689989686617638709e-01
-1.110714674299223548e-01
-6.109348537788428929e-02
-7.016380104051135602e-02
-2.074482099167791749e-01
-1.751487713678827329e-02
-2.736140674422818941e-01
-3.155982340789550283e-02
6.053959469721326841e-02
-1.724861873338846274e-01
-8.617432192500926180e-02
3.001195769330183283e-01
-1.751574934306256714e-01
-1.762413874565644245e-01
-1.644329894658786428e-01
-2.954702436722441705e-01
7.047230068413241899e-02
-7.328245193900226329e-02
-4.003464336823315400e-02
-1.404137943470599725e-01
2.569332884016743354e-02
-2.542708425246083537e-01
-1.821072718153720627e-01
-1.032571179594232898e-02
-7.603435057176660683e-02
-1.602093204484671130e-01
1.833397573636087463e-01
-3.118452953487851897e-01
-1.449779626367116991e-01
-1.221400990091644073e-01
-2.095254118703717694e-01
2.421137342167551387e-01
-4.887584318773027098e-02
1.518025452608043335e-01
1.214707590874970211e-01
-2.206133862136384627e-01
8.537732181905513529e-02
-1.958137571090746709e-01
-1.486505615990931228e-01
-2.293523486258768063e-02
1.421396238352512775e-01
4.538328611385879230e-02
-2.863971314006010238e-01
1.947352113223335957e-01
-2.832348467422523552e-01
3.409886533763076266e-02
-1.123200303650504356e-01
-2.140224032029224288e-01
1.141817358155730877e-01
-3.653003183553967664e-02
1.110648694414635845e-01
-2.923972917126455018e-01
1.594070698763980221e-01
-1.561351676023892410e-01
1.456934078074892391e-01
-1.817693855201300002e-01
-2.774624154721375691e-01
2.517350836900372757e-01
-1.118642887347989084e-01
2.482532583198272524e-01
-2.848796618123158875e-01
-1.081259629324963084e-01
-5.485537614322265332e-03
2.103304703978898793e-01
-4.696652564362029277e-03
3.226935106632662364e-01
-2.122938827297497777e-01
-8.955466321523357365e-02
-7.553488836225522030e-02
-2.570546342067938639e-01
2.802241157729890020e-01
-1.501302623543830372e-01
1.868075085359921783e-01
9.163630405450432642e-03
2.589470136162763114e-01
-2.217708619091109390e-01
3.086042880007805120e-02
-1.922723598606246032e-01
-1.103089831053704756e-01
2.570089920582762089e-01
2.587538871470890789e-01
-6.325363056386502925e-02
8.357525042226345013e-02
2.667429445748301653e-01
6.941438599632136774e-02
1.943594253494188018e-01
5.099521320409891416e-03
-6.230064145924828212e-03
-2.336100613924565195e-01
-1.699176051497328921e-01
-2.734718915464007805e-01
-1.872278102425372071e-01
1.861576869328406270e-01
-2.477060030610133690e-01
-6.231009524715522274e-02
-2.122444722536060424e-01
2.864795755775291497e-02
-1.529449200633243022e-01
-2.020519805650687062e-01
-2.836703124325704040e-01
3.095689562679572737e-01
-2.370149999739307178e-01
-7.531117462278358321e-02
3.141479539112648212e-01
-2.857233467344796329e-01
2.373802687990175520e-01
1.737107482698941607e-01
-9.223984213119602871e-02
-2.545549512689539995e-01
-3.075134090863167469e-01
2.140424822972673558e-01
2.152794342543101203e-01
2.512532276540233034e-01
1.785924393328790771e-01
1.950678107468184208e-01
-2.325901820136710985e-01
2.920111918307555787e-01
6.824906724702967109e-02
1.480530817583562420e-01
1.031707990646733852e-01
2.957075900795030909e-01
-1.353456259687029761e-01
2.018596157229796406e-01
-1.219286815915995720e-01
1.980531368091523747e-01
-2.926076874492229973e-01
-2.317854497682823867e-01
-1.932978522221420470e-01
-1.868209261150639566e-01
-2.439537817013075482e-01
6.752794773098042512e-03
4.111870171838954979e-02
1.296266143407531213e-01
6.942006382644788642e-02
-1.922164875669061246e-01
-2.649783762232433282e-01
-6.833906903841494018e-02
1.145270075784486641e-01
-1.063140123561066436e-01
-2.995742558169662839e-01
-2.646256241963771544e-03
-1.159587635268376077e-01
-2.638943775750878795e-01
1.956328665958867175e-01
2.079762282763127912e-01
3.675557213021240360e-02
2.744355577723341377e-01
-1.028580061071100310e-01
-2.867407458033368606e-01
3.105609185021733498e-02
2.643623000283461533e-01
1.447279999103803505e-01
1.775751635533433515e-01
-1.201492138424549265e-02
1.147416173061727440e-01
2.820193894902199294e-01
2.541406851252948074e-01
9.973100886859119496e-02
1.441026444627427072e-01
-1.245623978334560039e-01
1.313864399438110717e-02
1.889116207191831598e-01
2.004606432895870288e-02
3.031213113312888896e-01
2.201432855408269260e-02
-2.588459501452534117e-01
-4.263187594776072370e-02
-2.577143450824624371e-01
-1.602707269020789763e-02
-7.525885675035381972e-02
2.162513626367538744e-01
-1.865696116688254913e-02
3.050355109444386481e-01
-1.670937312434278843e-01
2.547887952966408354e-01
1.837215856530027280e-01
-5.567065801971012549e-03
3.175311346537815910e-02
-2.992673608912050920e-01
2.629247453694893433e-01
-1.090446359866229231e-01
1.495837929858562787e-01
-1.319473656087222779e-01
2.710146022184867914e-02
-1.958107534949406203e-01
4.364934863277316474e-02
1.232620721333030495e-01
-3.849358805734028749e-02
1.804038198237979396e-01
7.987481796572069859e-02
9.214391296313478863e-02
-3.577231500654524249e-02
-1.065297190931268623e-01
-1.035801585063782781e-01
-1.388545757084228005e-01
-8.083694100788935133e-02
-2.144063695584013385e-01
-2.442121834006779624e-01
2.291620768212611903e-01
-2.057355726498642512e-01
-2.158173431839492395e-01
-9.565124836838778677e-02
1.803326402806528506e-01
-2.686221011019013782e-01
-2.132520205636272148e-01
1.598953904254150626e-01
-6.653752050187990152e-02
4.569364654496904654e-02
-2.762030834629212173e-01
1.704615496787708143e-02
2.860329192052010749e-01
-2.321753795070972681e-01
2.150075978849068092e-01
2.278730909982559505e-01
-2.441933169428423256e-01
1.390807782724940156e-01
-1.465358140043400981e-01
2.637458913094984925e-01
-1.480353772098359222e-01
-3.063965820925850791e-01
-2.539704094355959008e-01
2.032614481755947167e-01
-2.898481219249183782e-01
3.072402287776926921e-01
-2.391106905711314901e-01
-1.397573512393722461e-01
-2.544530255276529762e-01
2.963633215818142208e-01
-2.728751575634220106e-01
3.715299052211669482e-03
-2.305767770869448230e-01
2.611362754217195353e-02
3.022225846805384752e-01
1.543095765310731060e-01
-3.166013999116972788e-01
3.059516528943475588e-01
4.585094007580371028e-02
1.023967789365265585e-01
2.336274438140323040e-01
-2.614161574851382452e-01
1.690855012820334791e-01
-1.972748176825706579e-01
-2.313771257763830580e-01
2.253959613258933459e-01
-3.151465447574603451e-01
1.005088404460717511e-01
-7.566280233037020117e-03
1.470191126232068234e-02
-5.289970708319242237e-02
-3.010339486124633535e-01
5.705617644170167535e-02
-1.495342654290447160e-01
-9.277438429589560109e-02
1.161325789936987346e-01
1.835323245230490730e-01
2.586476729855391454e-02
1.897805776517109688e-01
2.113508955048081644e-02
2.535552416074201565e-01
-2.853711142941274259e-01
-9.257189336766816212e-02
2.556662105266079843e-01
-6.401450708206144272e-03
-1.083626113315537681e-01
-9.646473809659719678e-02
3.027931889066274862e-01
-2.149093803254178148e-01
-2.279890941243680469e-01
2.509543780758244358e-01
1.788089837391677525e-02
2.823842071034249890e-01
1.341158000778790438e-01
-2.791401261083074070e-01
3.091779738299557101e-01
-2.950523040504733907e-01
2.395259017028908421e-01
2.303380206563414301e-02
6.622787483746325754e-02
-2.919582929458534593e-01
-2.634120984932516452e-01
-2.215257270848901561e-01
1.146206968293975031e-01
-3.018115346228950058e-02
-1.526670470186196893e-01
2.619779414447688803e-01
-2.692686922565686869e-01
-5.044523103830808597e-02
1.384900168838197332e-01
-2.320923353533412004e-01
-3.119874557961042627e-01
1.696245729311585404e-01
2.134207027590136474e-01
4.489397041878298578e-02
8.352658761733001980e-02
4.875150753409304705e-02
-1.887884535983619938e-01
-7.531416427166937044e-02
1.510308435342568867e-01
1.049692686997748398e-01
-2.697213353659606017e-01
9.802040512288803797e-02
1.670909389389585789e-02
-1.116233802801252784e-01
-1.395258899506747752e-01
1.571825231200653372e-01
1.832629843004194570e-01
2.356667530166125513e-01
7.193463174075029332e-02
-1.928237209228337024e-01
2.133432400536009466e-01
2.939306740555936437e-01
8.445028112437219514e-02
1.928616138671197244e-01
-2.899664006617946321e-01
-7.682395203506867110e-02
9.774549045048058771e-02
-5.287147591366753857e-02
-2.121641998462912848e-02
3.189159035894097993e-01
1.821479034248286721e-01
-2.353976530091148878e-01
1.785397944069606890e-01
4.682800049917793667e-02
2.684414906317955651e-01
6.778842092727915825e-02
1.587285727582932182e-01
3.080438674801511123e-01
1.689252306478380983e-01
1.296678504940084187e-01
-7.799892992924829793e-02
2.243937850208435614e-01
2.998183762497269589e-01
-1.352430907773456981e-01
-2.421019154055102096e-01
-1.550793945595940471e-01
-2.832647606661736206e-01
5.245252335534836274e-02
1.575068873126664881e-01
4.088885699859943351e-02
1.625930164812799672e-01
7.360634885578792863e-02
7.155940774630514811e-02
-2.635570211887479641e-01
7.598168671296504084e-02
2.779465990658585572e-01
2.849340492676806780e-01
-2.695456991518032086e-01
1.059802275470752703e-01
-1.373408158043353811e-01
1.061737126528786990e-01
2.152282684747755248e-01
2.078764736759997345e-01
2.169666139797565493e-02
-2.872219304112198501e-01
2.852409684868504117e-02
-1.104541566606353636e-01
7.657603866687523464e-02
-2.898790618692807519e-01
1.789022498381073467e-01
-2.995080742817660679e-01
1.484028511435331321e-01
2.065295233697005406e-01
-3.063484764769224822e-01
-2.489988121122686249e-01
1.257271700036752538e-01
3.044891068751274243e-01
1.385699681117455728e-01
1.546320668455840319e-02
-3.070631276401523113e-01
-6.641372770206727116e-02
1.504397959816961006e-01
-1.238468704435716078e-01
1.385318392169987978e-01
1.429194533686212187e-02
-1.813037859064028576e-02
2.029200752627179083e-01
3.137002917184179007e-01
-6.610384703230831605e-02
-2.405381905544071441e-01
-1.157683236269925345e-03
1.771569503821485148e-01
2.597740037896887899e-01
-8.595832962737375016e-02
-3.143053158359776500e-01
-2.874465720211358821e-01
-2.723247527165921222e-01
6.093563432327955137e-02
1.375381947650326266e-02
-2.026603799139162776e-01
1.263602173548207253e-01
2.319342919265294234e-01
-1.638668044334680163e-01
4.325473261825094062e-02
8.955622049360810466e-02
-1.036117682501136172e-01
-1.679195419837707093e-01
1.530764599794245395e-01
-9.189178750641557869e-02
-1.334056561978322342e-01
2.578629462117466575e-01
3.077259858603190734e-01
1.291879182267873238e-01
1.883390557994469028e-01
2.958274247228032117e-01
-6.288667467189666682e-03
-4.387515225765933891e-02
2.020330727014610639e-01
-5.159315235736997018e-02
2.672613463940341771e-02
3.055674422469790152e-01
3.128627161644360055e-01
2.769934261620018434e-01
-2.366891111458105934e-01
1.700608267861325740e-01
-2.360060955370458236e-01
-2.231890917493125348e-01
2.077052081675850870e-01
2.018133054553907513e-01
-1.601019946815068484e-01
1.715613854720054177e-01
-5.829151543506950334e-02
-1.971520900385659858e-01
6.642933735653047678e-02
-2.376611410408883962e-01
2.160094884089034939e-01
2.076859706465991606e-01
-2.197526256008509038e-01
3.742162372265394471e-02
3.120263256999517010e-01
-3.095702930753133630e-01
-4.593806902831252398e-02
1.305068634685937756e-01
-3.317260606311917687e-02
-1.985417418707061399e-01
-2.428057251890867463e-01
1.022981627973644503e-01
2.337848515984521647e-01
2.731492345490786899e-01
1.718450306899311220e-01
-5.427419627148322850e-02
6.802714976188393992e-02
1.481920495299619833e-01
-7.153488237437044539e-02
1.500183083386985028e-01
9.580486886343167474e-02
-1.699746868016821233e-01
2.736857483618524989e-01
-9.177891737129846572e-02
1.437446188923543200e-01
1.291840818281830283e-01
1.580546974982980080e-01
5.561490008673868057e-02
3.112111290571724642e-01
7.233534036557821845e-02
1.259446801795979787e-01
-2.553548506595909040e-01
2.942801942162459605e-01
-2.177905401038684741e-01
6.155763169266424001e-02
-4.420447252956653805e-02
3.174711535627119940e-01
-2.230438130789063611e-01
2.446747789307225918e-01
1.610662477909696744e-01
-1.585211111756854585e-01
-2.538186366522559578e-01
2.844877080588332774e-01
2.269238711492618521e-01
-2.769436698618135684e-01
2.504951826199026607e-02
-2.460605014925748846e-01
-1.258349307462648392e-01
-3.712767524019300325e-02
1.253473129705716671e-01
2.830215315082156291e-01
-1.182502613524573920e-01
7.734310310310174574e-02
-1.871689754716445719e-01
1.867545313605822321e-01
1.089658800832360858e-01
4.913359147866722294e-03
-2.464347741481598963e-01
-2.232559455065469822e-01
-1.760991273840118582e-02
1.272572679077002000e-01
-1.791158391947267892e-01
-1.079938171622627785e-01
-2.810143578053834190e-01
-7.654045601451536784e-02
-7.327694640130452686e-02
-9.867153158763757037e-02
2.525719180887859849e-01
-4.322079642410452810e-02
7.481735964212349321e-02
2.609678881015200513e-01
1.691211768955207528e-01
1.433334111473854589e-01
2.083755241591967178e-01
2.070515142135446740e-01
2.649109375080611062e-01
2.224180740796392053e-01
-7.847253143270874198e-02
-6.731539265435551589e-02
-2.085498189034393213e-01
2.278683786441552117e-01
3.140380249289624337e-01
3.019163788824838837e-03
1.451104633048699577e-01
-9.348338727857960495e-02
-1.284536472619960124e-01
-2.082047097509334352e-02
-4.045540369350852927e-02
2.940016365107348539e-01
1.230239958025710761e-01
9.403597395476592791e-02
1.616610797693018853e-02
-5.481307486380718186e-02
-1.240103989717244864e-01
-2.724930990135392417e-01
3.038727290483795307e-01
2.994507884325146030e-01
-1.417833893635913889e-01
-2.547312934332960355e-01
2.889540226024570058e-01
1.642192658540315708e-01
-1.494034023178558990e-01
6.952513935947407520e-02
1.267992275673395230e-01
-1.737594454665932148e-03
3.365200558197459224e-02
-6.987352192193857503e-02
1.539621854390172406e-01
1.243260340487133409e-01
-2.013720912535769680e-01
-2.155621773157795351e-01
-2.532987613379645286e-01
2.425742933519587363e-01
1.575739541942708100e-01
2.418847870032641845e-01
-7.686022815502156769e-02
1.359546117976805600e-02
1.024642761006063219e-01
8.340320930926906073e-02
-1.664766524198209030e-01
-1.282533968392192969e-01
-1.246490642861607656e-01
3.088709243993647546e-01
2.371686700635282363e-01
9.345592530295450395e-02
2.822107675045774644e-01
8.344288399990528599e-03
1.736926565665641298e-01
-2.877541359969452150e-01
-1.864011867743169126e-01
1.510136006369110773e-01
3.536369113699365518e-02
5.049834884786324335e-02
-1.540100620240155982e-01
-6.546057468633076359e-02
2.827486997427660076e-01
-1.789978039121422893e-01
-2.382221576964220489e-01
-2.263857320421899799e-01
-2.090128182277277147e-01
2.258071394580548619e-01
-3.101307121324945251e-02
1.302808577688705782e-01
-2.301444043698540332e-02
2.792647505198475599e-01
3.105469241317493356e-01
1.396613513435099319e-01
2.372809807491551015e-01
2.468966285135010541e-01
5.361927211829369683e-02
-1.671807939090545481e-01
1.138326884485725277e-01
-1.558761745629087814e-01
-1.047184363328290541e-01
1.788917669793656517e-01
-1.036335187770855287e-01
3.021503535293727505e-01
2.337817355402441455e-01
-1.608830759436021551e-01
-1.797034256138120289e-01
-2.787008919868259604e-01
1.100126071660926796e-01
-1.715229238016871549e-01
2.604540276383688902e-01
1.601020155141157364e-01
1.907262533662055504e-01
9.757669667876647801e-02
-9.226905875485474917e-02
2.053915345618768096e-01
2.264857273744519135e-03
-4.319756867905952301e-04
2.314699191760629382e-01
-1.803330768507020454e-01
-4.056188578009580631e-02
-9.640481612859684579e-02
-1.244493055569572543e-01
1.770615352637648632e-01
-1.711659027459390692e-01
2.618130395682998282e-03
1.476216770615252083e-01
1.154155962197100371e-01
3.501931131845859718e-02
1.825371965056122037e-01
1.676076728987118680e-01
-2.460015743837629387e-01
-1.947424872946381114e-01
-2.334684249978347115e-02
-8.710648129135650786e-02
-2.407611466435295722e-01
-2.762935757892561739e-01
3.102280762710696860e-01
2.773598076187348480e-03
-2.966895536617215057e-01
1.156115327145041394e-01
1.129019257704417939e-01
1.485395481251409744e-01
2.553084511981600913e-01
-2.256945628573142348e-01
1.811232345379751862e-01
1.130786344361603413e-02
-1.098347609672715441e-01
-1.027375024940622023e-01
-2.672150265113446346e-02
-2.615516012118300204e-01
-4.968285648119118852e-02
3.132800921272138606e-02
1.473138913471918054e-01
-1.580406150725590514e-02
1.357288046696991934e-01
-1.872712763220348020e-02
2.693753115859077729e-01
1.025422739230935215e-01
-2.296897368563083353e-01
1.484931462593928886e-01
1.650027675842669073e-02
1.992477418200666595e-01
1.852590805366458038e-01
-1.362529029821551718e-01
-1.776964422036971247e-01
-7.444806938993593637e-02
-2.100862769721150922e-02
4.227775338077753575e-02
6.036387884317684360e-02
-2.048103329831277020e-01
2.708762235094350768e-01
-1.665856855470548292e-01
3.067617166634739045e-01
-6.727052972667035835e-02
-8.447810560182336670e-02
2.006188542900132210e-01
-6.595916317634767378e-02
2.634176366106318057e-02
-2.721800667417141883e-01
-2.624643975743350954e-01
-2.151989076559431835e-01
1.525392858909933591e-01
-3.009726537706077232e-01
-2.846080718557686962e-01
9.985934039733386849e-03
-1.649605488360790240e-01
2.081886893453697429e-01
-9.955815042520181624e-02
