5.476537347474048634e-01 -1.372348268129303221e+02 -1.657173478630328134e+02 -1.500678153761845879e+00 3.708611392971420950e-01 -8.256598405551024422e-01 -2.086691828439751761e-01 -7.380302132089851253e-02 -4.873592476414032038e-01 9.133790688988855377e-01
-1.086129891136625725e-01 -3.237622906595154948e+00 -3.708547528260647819e-01 3.301974150508985018e-01 -2.580386991104948735e-01 -1.577251901345921858e-01 4.914554818514338397e-01 -1.419663082247419328e-01 9.353284721532198476e-02 1.745273628571050728e-02
1.525963177199566090e+00 1.109862036448899358e+00 -3.106151096568017351e+02 1.633489482031025508e+00 9.477981669305289847e-01 7.997060605718109283e-01 1.258571055207382550e+00 -1.566774827014516758e+00 -1.024295185467662295e+00 -4.266723779670263950e-01
6.164930775209446212e-01 3.548593358131384434e+00 1.055211276532679543e+00 5.898338169532143516e-01 -8.027019783828996946e-01 -4.590940337927556514e-01 -4.079968833136479844e+00 -8.531182082336346006e-01 -6.279147145241966710e-01 -1.844071520449071244e-01
1.400489869998471915e-01 -4.695706104311844764e-01 6.253634847163509151e-04 1.038510835975215291e-01 3.553636222621952331e-03 -8.351266995502044932e-03 -1.650697500655542863e-03 -1.283161185298132834e-01 -1.586533850219928096e-03 -6.050351072913644560e-04
-8.483617359801793115e-03 2.090950513320789295e+00 -4.491281564336400273e-02 1.164875013244918156e+00 5.805046317172166126e-02 4.314011270050745139e+00 -8.410877032042275714e-02 6.264624783509693644e-03 -4.954090021728076165e-02 3.734712953276841940e-01
-9.508766825181082183e+00 -3.984620822930767803e-01 -4.879576622224118254e-01 -1.245035025780051874e-01 1.294051471095359229e+00 -6.871702240577266807e-02 2.566824716209991503e-02 -3.146574002207714466e-02 -2.126268679571232667e+00 2.929187133077534311e-01
5.469000831761917647e-01 1.158246982571974559e+00 2.172070780462021844e+00 8.009447413468329113e-01 3.165535291053175992e+00 7.901365017507051558e-01 -1.675288231191479627e+00 -1.091596962270158233e+00 4.792720909744663804e-01 -1.645331168858129800e+01
4.567869872553010357e-01 -5.057651402408296359e-01 2.519866982121715063e-03 -6.373949315567720708e-01 5.042717505638973780e-03 -1.114114768614765938e-01 -4.593600058325081510e-03 -5.010955449760720049e-01 -5.601263398223939489e-03 1.812824410274729153e-02
5.966810840683199890e-01 8.058334800070605652e-01 -1.018507041049062367e-01 3.552403742475501724e-01 -1.841254395115017872e-01 2.072363727099368003e+00 7.374335331107958469e-01 2.486244227532562745e-01 6.557452663875027454e-01 -5.853208381498498980e+00
1.844185183547167317e-01 -1.042242973275004231e-01 -8.809651256464360106e-03 -7.674106513251566231e-02 -3.065282585506534218e-03 -2.777874410212653356e+00 2.324875211841662820e-02 4.697132625119497529e-02 5.988483906056779604e-01 -7.605992107375202094e-02
2.968520758576306484e+00 3.360616973506088900e+00 -2.415050469160936331e+01 2.989104591326229521e+00 2.918193839039374016e+00 -1.083747798256319061e+00 -2.966635691663911167e+00 -3.178217084212450860e+00 -1.983465432669399675e+00 3.128166811882032494e+00
3.698279452432836845e+00 4.364675621135508443e+00 2.144207584148453094e+01 4.226121745561767895e+00 3.385562620559794400e+00 1.261931952699919757e+00 -4.752983575182173404e+00 -4.398644296277478993e+00 -3.092080582976154179e+00 3.129213766765549298e+00
1.698065204350375890e+00 5.101099864507756543e-01 1.942648403162764215e+00 2.176011328447454485e+00 -1.927490232390098202e+00 1.440850586221481322e+00 1.680510922338585900e+00 -1.566810569815458631e+00 1.034787521354215922e+00 6.828068689353376186e+00
-5.761411853037780306e-02 2.194260684154453467e-01 -1.634936137572786958e-03 1.076734284081559273e-01 -1.815163933659138726e-04 -9.888529347836738648e-02 3.268259507974589830e-03 3.304665931111244181e-01 2.613655222932597180e-02 -9.276776109973239315e-03
-3.442648865368248545e-01 -7.433538651065167702e-02 -8.672278234654385853e-01 5.075035290733794779e-01 7.290608825533095860e-01 -2.801165197618025321e-02 7.956210826330886166e-01 -5.500198802808390575e+00 1.399889937544063656e+00 -7.815785348216091499e+00
-1.146712280858978583e-01 6.424384388793699108e-01 -2.425902258028774674e-05 -2.924856175236511049e-02 -4.390664038279478397e-03 1.604833925496832181e-01 2.939602927771697502e-03 5.898194858167455923e-01 -3.247510955333128557e-02 -4.185774466971958242e-03
-3.071653174819921617e-01 1.758771131072153437e+01 -5.218582188051669180e-01 2.041336791895384528e-01 4.706062107301441783e-02 -1.835208953445167379e-01 5.457242847348633852e+00 1.086581116060829771e-01 2.042395891771419392e-01 2.139632694408817037e-01
4.348240876462629578e-01 3.122193763730669591e-01 8.355926680300130097e-03 1.361020706793266144e-01 -4.623781494586543146e-03 6.170799285915513216e-02 8.658642891935261141e-03 1.935910830400683125e+00 -3.320928039496849615e-02 -2.097598294858917314e-02
4.356418529983652754e-01 -4.067700131483715231e-01 3.587757373612156415e-03 -3.650570646087840099e-01 3.080632135802751671e-03 -1.110890442249272692e-01 -1.174944796855276891e-03 3.255747257097790087e-02 -2.097005935889150558e-04 6.995498883971785695e-03
-1.004593403652122019e-01 1.367234559487398693e+00 4.029679765988801177e-01 1.748035393706445673e+00 8.362478416359825362e-01 -7.036127970189673952e-01 -6.831167098634075785e+00 -1.233398776791299722e+00 -4.179396738125308319e-01 5.180053064457637024e-01
1.224291942428637370e+00 1.345815361421541345e+00 5.851018109190355698e-01 9.993386722144926848e-01 1.124633402992675446e+00 -6.409261739529940050e-01 1.518103236925350252e+01 -1.234665814991150468e+00 3.988079362473043732e-01 -6.465295627016924840e+00
-9.929071141019344023e-04 -1.578140584676142311e-04 -1.086417594611810287e-04 -1.900814979109337029e-03 1.046766861313119893e-04 -3.552387937800767503e-02 2.083538272881284802e-04 -8.641315131484351292e-03 7.940152597914454727e-03 -3.041121934032591108e-04
-2.632774845628146551e-03 -5.934612753974120164e-02 -2.196566150935080951e-04 4.500007000886651481e-02 5.788761059358155450e-04 -1.165069134583209161e-02 -1.650880196942964618e-04 -2.273855259179891758e-02 3.975892671124033918e-03 -7.226502241506473989e-04
-1.170288244986649601e-01 -9.750634324662444952e-01 -5.952519655358159967e-03 1.276278800715383854e-01 8.672437344064243964e-03 4.842551398868206319e-02 -9.708697382208923005e-03 -1.573068671719103362e+00 -1.092472514397428013e-03 1.634957946483599212e-02
6.689260098491279782e-01 -8.411682998501360253e-02 7.734195148841838292e-03 -7.975561033310097914e-01 1.903996361355108843e-03 -1.735904697804734331e-01 1.093923798860616881e-03 4.661333796306680877e-01 -3.897287505725369715e-03 1.086818015005384420e-02
-1.770840822130228809e-01 -2.232650093566833013e-02 -4.028320006610450199e-02 6.947190555302565906e-01 -4.426848393077208177e-02 -1.776305982462773048e-01 1.420956169771695789e-02 -8.946281372119273267e-03 4.354630390714893662e-01 -1.741122408484912176e+00
2.032155904040488181e+00 -9.342152471278981629e-01 -2.090093201377399637e-02 2.503555668217953922e+01 -2.505382518388849511e-01 3.623154207223335987e+01 1.138608840884201445e+00 -8.871704653287206810e+00 -3.505453854623682974e-01 3.834708006725912810e+01
1.293717253005611523e-01 1.250440591318512928e-01 1.262800238059551827e-01 9.962306483928008438e-01 3.532251520453371096e-01 -5.645694467128112848e-01 5.776467343043029112e-01 2.690774536196423128e+01 -4.360686170953876339e-01 1.726757493427340862e+00
-6.279948757496667429e-03 4.822051390392413650e-02 -5.610094848779643940e-04 -1.969813757014770572e-01 2.422599551103470257e-04 6.971316584536240563e-03 -1.521635573361482772e-03 -2.689506635506286325e-01 -4.321888462874936589e-03 7.926047490436001139e-03
7.423674397510433565e-01 8.133579582402463704e-01 5.233812833111474161e-01 6.338482057129524172e-01 1.436567494584699123e+00 -1.353926109300198077e-01 -1.084090726206454081e+00 -1.599137276802947261e+00 2.664042882990874617e+01 1.438942462884319484e+00
1.344330370680956732e-01 5.442350817917819050e+00 2.702502746226494779e+00 -7.178952016530870152e-03 3.248927039648100146e-01 2.592003032304342369e+00 -1.194672618104058115e+00 1.316915831881077414e+00 5.345154809715055994e-02 9.094099992459755422e-01
-1.480463726134588320e+00 3.434095628461559357e+00 5.697751558762250562e-02 1.253156596423895319e+00 -1.292071207310410974e-01 8.556246970717089617e-01 2.493162102311963668e+00 -1.715308791474037697e+00 -6.306080548930895757e-01 -1.654015593320059263e-01
-6.693676209900528695e-01 -2.286062127311619396e-01 -1.515260817853778252e-01 -1.380791019354869809e+00 9.099553337787975871e-02 3.561394155754793456e-01 3.443403565175926495e-01 6.968322862303297782e-01 -1.983116147853894728e-01 2.025114400159881534e+00
-1.234396826292834736e-03 -6.108596163502180709e-02 -5.588401661869580846e-04 7.374324962908316260e-03 -9.510572291071404298e-04 6.635532035244855892e-05 -5.956495332421033210e-04 -8.422754702405096938e-02 -3.063461433900685200e-04 -6.401729628663253499e-04
-1.184276566404668940e-01 4.478614430116993894e-01 -1.281740380708659439e-03 -2.144817856540920942e-01 -4.971119172773382812e-03 1.171785072667366583e-02 3.473964896126850092e-04 -2.522113948666657515e-02 -2.158815336781153872e-03 1.159873359242651969e-03
2.483107580054205066e+00 2.981997418397978272e+00 1.380345784332560832e+00 2.935333412457722169e+00 6.370920312443474343e-01 1.376010144706277805e+00 -9.270249441161907411e-01 -3.958567117135251667e+00 1.890778830915497588e+00 -1.842916642785643333e+01
1.165532644795239381e-01 -1.331830746005307348e-02 1.982972106871294382e-01 3.683447748281004075e-01 -3.606158352451869775e-01 -1.005161005328837343e+00 2.524736393860667061e-01 -1.225957059873735711e+00 -1.688963471064023336e+00 6.765717910674982905e-02
7.388793833644901055e-01 -2.259870047390341585e-01 -4.137198833346005800e-01 -2.292771058613853052e-01 8.418328137535467659e-02 -2.254831582443398208e+00 -2.641421006990321563e-02 -3.237076715222911294e-02 1.674653885569561629e+00 -9.263943803894149065e-01
-1.537128696749274681e+01 -3.531941889917896565e-02 1.445535415695372139e+00 4.330912342862476561e-02 -1.615931374266488252e-01 -5.609291747414515417e-01 -9.090075402838315721e-02 1.751129108011879043e-01 6.291687245319910193e-01 -1.276801507332206154e-01
1.056783922527973818e+00 6.664065052036480807e-01 1.706527150798776982e-01 1.082998130413130033e-01 1.166824837531462745e-02 3.081412104261800899e-01 2.056953411010675747e-01 -1.000991172394496198e+00 -2.307322195091617623e+00 -1.184046216199656776e-01
1.238407719122357059e-01 1.976024344285015888e-01 1.654368664230077279e-01 6.177465024970915097e-01 -1.822494958443619806e-02 8.286324983333084523e-03 -6.763397469059125033e-02 -1.041794818289475677e-01 -5.068381903667734667e-01 -1.519581587031362258e-01
-7.034754351216659929e-01 -8.156681863748498351e-01 -2.057871829617914650e-02 -6.094993573988337632e-01 1.485420882978048286e-02 4.114914709172158847e-01 -2.609343281861308331e-02 -4.201112274454797735e+00 -7.069703839743902984e-02 6.291519000630271807e-02
2.146559816737449722e-01 1.880185209300031524e-01 2.889149099743879706e-02 8.624915079368324911e+00 1.954469189771941728e+00 -5.126275000496560708e-01 -1.717035525944581864e-01 -4.177918366430697361e-01 -3.159611836486191372e-01 -1.882779185274451761e+00
-3.064590544835009700e-01 -9.145833719038287679e-01 -9.524529900243400987e-03 6.486480937859094853e-01 1.047906841274521758e-02 4.044207102325346748e-01 -9.999355676608869328e-03 -1.148496694356941017e+00 -6.616749267385596545e-02 7.813537717676863640e-04
2.405378858250478924e+00 7.989069350937311187e-01 -1.110623097838836948e+00 2.464725653064474553e+00 -2.720291088084709208e-01 -1.610544272919553765e-01 1.725336485857480728e-01 8.659741494944206419e-01 -8.016923970751674289e-02 2.065499158583342376e-01
-2.185534837457112078e-02 -3.398669117151261188e-01 -2.497571403690037641e-03 2.010617519452740920e-01 2.824548010727579491e-03 3.559271640749962495e-01 -5.269685520993515337e-03 -2.164444358289655812e-01 -7.812290501872402870e-02 5.623531835790666032e-03
7.469878436710006842e-01 8.548572592458848263e+00 6.835341511451545893e-01 1.501047528792925044e-02 -3.799171809035178926e-01 2.434001113870026245e+01 3.522543284187986123e-01 4.070753833200512206e-01 4.232075583623542414e-01 -8.025700867583464015e-01
-5.533514566817632208e+00 3.224751497310396342e-01 1.804770344830082529e-01 -8.448078560424854277e-01 1.628918807476300301e-01 2.762514594451547789e-01 8.807912555403970556e-01 -5.401925825637806655e-01 -7.661484950330599286e-01 -9.456620888690716598e-01
-2.213995335389834507e-02 -1.909918848023690607e-01 -3.635245697642702344e-03 -4.083543282538317221e-01 1.613468676360708389e-03 -1.005078689430766864e-01 -5.213214395497000470e-03 -1.026609960885775497e+00 1.805022637376016773e-02 1.858460117037260759e-02
-2.571868222855573129e-03 -6.815474295617768297e-01 -1.991618809602537475e-03 3.447310523013833450e-01 4.670893849100660189e-03 -5.584778969489116035e-02 -2.658637887103233472e-03 -4.605054607689239576e-01 2.069299755456420822e-02 -3.460403271903545169e-03
-6.979757508754208528e-02 -7.670807958280927430e-01 -7.684727628950323818e-03 -7.180412891363127104e-01 9.777846095843640076e-03 -6.942118978096457893e-02 -1.426314625092960781e-02 -2.525723282009270765e+00 9.931817826771537419e-03 4.539095362570451375e-02
-1.347362858269669506e+00 -6.495122637448530467e-01 2.863359426317505507e-01 5.530148778206044335e-01 -3.511791428182238217e-01 -3.200146590598004215e-01 -9.304089949726261910e-01 3.362069707276442720e-01 2.217620101042996894e-01 4.844121024512559187e-02
5.331497477568730367e-03 4.768629691880179461e-02 8.331197822502330042e-02 2.825182304075288947e-02 -2.128544571154566967e-01 3.960998106254041973e-02 -7.498055419682903011e-02 9.974897626384178650e+00 -1.556686799246922298e-02 -3.280211099209637271e-01
2.274369138863464312e-01 -1.712615268481874342e-01 -9.236359899301006537e-01 4.059424283392943922e-01 2.671335773837864580e-01 -1.861145036756148174e+00 -1.722209688138825467e-01 1.539710542651299419e-01 -1.383215035991610664e-01 3.150266429611119356e-01
5.032437103504862286e+00 -3.512059649317131327e-01 1.419861125592634332e+00 -8.030578826558087968e-02 -1.311174822458413436e+00 -2.728780580109889664e-01 -2.959435268398855001e+01 -6.129268516133358213e-01 2.879038181565762855e-01 -2.683383290797567988e-01
-6.000777957155702946e-01 4.901023272434587019e-01 -5.447285340955674779e-03 6.279349522649124715e-01 -5.139703082914449418e-03 1.333722559761780224e-01 2.305359706722688497e-03 5.365784777131498567e-02 6.300535888709038988e-03 -1.365266844537208965e-02
2.572599408058308564e-03 3.849985005965049223e-01 -2.302059022789069531e-04 -5.464293780071644013e-01 -1.588228415914619707e-03 -4.749925364463807725e-02 -1.254321928660282002e-03 -3.201258707010007365e-01 7.983826133018454398e-04 1.527470264682097983e-02
1.225281704978733899e+00 3.710607377387066808e-01 -9.253404434683435431e-01 8.845543589938242857e-02 7.747462146161920860e-01 -2.554532155462891581e+02 -8.562327892995542644e-01 -6.135779018974752974e-01 -5.253083857151755742e-01 3.979676755622471029e-01
-3.625911646078688322e-01 -2.195742018005399920e-01 -6.393564197587641579e-03 1.532684748408000841e-01 2.245365618820674425e-03 7.170021487503507041e-02 -5.518723259873580672e-03 -1.106372635403029214e+00 2.983764737011861123e-03 9.941248620416381215e-03
-3.696132419187278528e-02 -1.097904564540714389e+00 -2.229627751433720887e-03 8.217680655022961966e-01 7.224072649585703589e-03 7.064554262168633303e-02 -3.338633623556342116e-03 -3.856855217239546496e-01 1.099314661060472528e-03 -1.323893097329370723e-02
3.402892043079867868e-02 9.158064751712569063e-02 3.591229988735311538e-08 -1.095080673859991222e-01 -2.562084449311606213e-03 -3.445312710852006018e-03 3.729536830948013506e-04 5.100057588031125383e-02 -3.444989322354578224e-03 4.224428211227635658e-04
1.068214577946799526e+00 9.918390245082887580e-01 1.030137833012962467e+00 -1.161036233949318097e+00 -1.440328530720003997e+00 1.135211938292983058e+00 -1.600859131441374927e+00 9.002480771938921045e-01 1.936951971897024061e+00 5.126256651365268091e+00
-6.085131150399554212e-01 6.954341651098107091e-01 -2.546060989244391644e-04 1.356460103490871649e+00 3.988630460396124233e-01 4.016841389765332115e-01 3.417532867265227758e-01 -3.950918617431640634e+00 -3.798317372238650513e+00 1.020054048498629129e+00
-5.691739863037628133e-01 -1.090773407125139149e+00 -1.319260333828865123e-02 2.839012516623139692e+00 -3.845997222778572370e-03 -2.149932678330674474e+00 2.752666829851704161e-02 1.251543894613632579e+00 5.441700667138978931e-01 -1.568106698837214985e-01
4.568233543793912693e-02 3.268066195270882268e+00 4.763223612663696205e-01 8.959453602118488957e-01 -2.304942443772473482e+00 4.090783181916105016e-02 2.102160791786127636e-01 -4.142105237230453429e-02 -4.265008792486598144e-01 -4.059706187491964741e-02
-2.081236111444042993e-03 -1.126104635720782607e-02 -1.579428447240929312e-03 -6.637677910147674054e-02 2.858444063705529049e-03 4.893931555596567895e-01 -5.583853840975653432e-03 -1.003960402534248009e-01 -1.138764411692970435e-01 7.436963525518078266e-03
1.221324979065054883e-01 -3.733988533751954608e-01 2.764422880108479585e+00 1.209846987082059816e-01 -5.797957893050276895e-02 -2.410269195843271373e+00 5.335669564673798382e-01 -6.389974119532946588e+02 1.755316022881591165e-01 -1.425870163814151326e-01
8.377803292275292080e-01 -1.172194653057267111e+00 4.058054951023322421e-02 8.617299125872326382e-01 -4.812613401935991742e-02 -3.791068507006907229e-01 1.417010031232420086e+00 -6.449957113672283304e-01 -2.448314194372778474e-01 -1.255372118117792646e-01
6.648023818065011969e-01 1.625375750808184971e+00 -9.952726059032015460e-01 1.522649105892651400e-01 1.262634333720158653e+00 -2.297059298039597852e+00 -1.292687020000955700e+00 -2.435937032973580496e-01 1.501363933099293835e+00 -1.065666945597828930e+00
-8.503220268994772235e-01 -1.779832683798735005e+01 5.716658891082952998e-01 -3.434724901766668670e-01 -7.930605282914605647e-01 4.287805624008028116e-01 -5.900956139233327624e-01 -3.273871224881422931e-02 -5.918295980073313700e-01 2.930257635721600917e-01
1.910535366284188186e+01 -1.183525714017296782e+00 -1.714225040428892233e-01 1.443953192132344243e-01 -5.168853794017566061e-01 -4.429888431552063133e-01 -6.615374201575618507e+00 -9.968132897254013483e-03 -1.079730108830795343e+00 4.873925878524023148e+00
3.135938820023419504e-01 2.341747358310918514e+00 9.772185615539912273e-01 2.454200032468869530e+00 2.362066925265780881e+00 -2.698725600535084590e-01 -2.710131375273625132e+00 -1.341903584051922227e+00 -1.617653433120777917e+00 1.595590462402288745e-01
6.858770790569030940e-01 -1.179634628921325153e-02 7.745209649675470764e-01 -1.874434139335583172e-02 -4.058628180723037326e-01 2.556479341531782690e-01 -6.059303895061520645e-02 -7.699341488931118471e-01 -3.212981643288106426e-01 1.624070463016558330e+00
1.576725639372275958e-02 2.792531037175751685e-01 -1.263024535106490492e-04 1.906336910983664340e-02 -1.798712984054782376e-03 2.903699140024881831e-01 -3.759687700800761118e-04 5.079596585345945714e-01 -6.567082731192908085e-02 -1.301315963447248567e-03
5.279658231274532376e+00 2.756870386937444906e+00 -4.202609167284911962e-01 3.525273204574473684e+00 -3.411025469715005531e-01 -9.512628794984056002e-01 1.436597828033376523e+01 -3.691343827919877807e+00 4.429557603419763123e-01 5.500914619360388613e-01
5.645483956563522199e+00 -1.510770840540976434e-01 1.840151373306236626e-01 -3.245921423423184793e-01 1.649939344708381828e-01 -3.351727620849710432e-01 -3.602120654392491073e-01 1.253457973224350874e-01 8.071047708359517514e-02 -1.091771226775815617e-01
3.018857681010764498e-03 1.013019285905625466e+01 -7.146676648856175040e-01 7.038957901840191544e-01 -3.436382492518990084e-01 4.576205848936838044e-02 -2.690259787959086601e+00 2.483602749638470081e-02 4.668478220439870041e-01 -8.438182374502203320e-01
-1.606701691806790011e-01 3.518592320226803793e-01 -1.786995860270868637e-03 -3.869076606979820945e-03 -5.636591130576691644e-03 -4.435764779952035275e-02 1.442208343417101775e-03 5.266718676308004138e-02 1.887565136815251912e-02 -1.787347150320978215e-03
2.292954788672002753e+00 -6.535641445564330798e-01 -2.851295446314320081e+00 -9.723055339617060477e-01 -3.742505036397353879e-01 -5.884488329302709486e-01 -5.271594656047746685e-01 1.113426269825255194e-01 9.959507037126889006e-01 1.127299406634671569e-01
-3.333300832306659855e-01 1.946172301160377538e+00 -4.813068909658967933e-04 -9.253492274828123421e-01 -1.452683545743465102e-02 -1.531393201365447709e-01 6.760599847891121846e-03 4.129715586828504037e-01 3.228752614012615763e-02 1.407400456701051600e-02
-2.387984295029362339e-02 -6.694611439812491183e-01 -3.844018324087683600e-03 -3.871623842736597598e-02 5.808291260001969755e-03 -1.636339164534338086e-02 -6.750598557298716738e-03 -1.130323954426239119e+00 7.369330044270878087e-03 1.556679442754610454e-02
-1.647065561616424881e-02 -2.927771761320574484e-01 -1.500245682277910695e-03 3.144774235333375884e-02 2.335631380044948108e-03 -3.321608692409885270e-03 -2.590806245458546469e-03 -4.319519569604841625e-01 3.653037374639573308e-03 4.593590523357385033e-03
4.773903905730396691e-01 7.647443145672035980e-01 -1.667579747210896857e+00 6.328217855905874378e-01 -5.639312628269885774e-01 -1.179547442615945130e+00 2.768707367214146675e+00 -8.878731623010438501e-01 6.411751213311779329e-01 3.540173643036426676e-01
-4.538336638094663256e-01 -3.911895423475871159e+00 -8.061013226491955952e-02 -1.736477116690090250e-01 5.185826200930083729e-01 -1.833089216823491441e+01 8.426655988308459286e-03 1.417104597121448784e+01 -2.044693915316485899e+01 -5.802963120694298871e-01
-8.951084910204887279e-02 1.139516461322735452e+01 5.021743238539917442e-01 1.960657155804437480e+03 2.152349878743549660e-01 -2.556536701420425994e-01 2.525017815808646149e-01 -7.995530506780750279e-01 3.153309410850748229e+00 6.204647779569265609e-01
7.139273624674910557e-02 -1.631026941222570026e-01 -1.300148814194222180e-01 -7.627124109089925552e-01 -1.696891188259783412e-01 1.167540096003648387e+00 -5.222339333592830313e-01 -9.172327625292178155e-01 1.227368493415949224e+01 2.352255798785093432e+01
1.077788650486860567e-02 3.349600983169768731e-01 1.254327920957371304e-03 -1.512881586890389152e-01 -2.604110747083889302e-03 -3.980776529459258140e-02 2.156014591415606526e-03 2.786577045910227923e-01 4.797368575540640091e-03 -1.052651939980258928e-03
-1.490073492447953285e+00 2.279924703498245275e+00 -1.272814374345349400e-02 5.254885440177733402e-01 -2.007818489750557225e-02 1.972289850085940932e-01 7.002978665101669033e-03 8.118898734429801090e-03 2.583374035947644948e-02 -1.258302886054107200e-02
-3.345345551736612633e-01 -8.212991219659312447e-01 -6.350403538596258862e-03 8.700065917653524439e-01 2.201172583386890383e-03 2.620228084553729020e-01 -5.526378651842759650e-03 -7.351859533707797434e-01 -2.771308771628537213e-02 -1.048901292662060558e-02
1.458253909166688400e+00 5.545766295450765826e-01 5.800944607781584494e+00 1.839525994468272474e+00 -3.685859980684536019e-01 2.068765090092114178e+00 -1.289285174088008690e+00 -2.098924047547955141e+00 9.584255507884393843e-01 1.436475169920195860e+00
2.690048697752968621e-01 -2.013168416525187576e-01 -2.792573577176230004e-03 1.159642890632041692e-02 -3.325115933922123679e-03 -1.718694501756367732e+00 1.569578668632388291e-02 3.606732446130535008e-01 3.686995538278070583e-01 -6.792000739364323358e-02
-8.060928244836228496e-01 3.225939722022757583e-01 -8.428471191982978006e-03 9.279760316130443165e-01 -4.406367518021310319e-03 4.236329175822415305e-01 -1.815571576044002627e-03 -2.776394572340408207e-01 -4.275312252683623887e-02 -2.806651117565187384e-02
4.412325257403382217e-01 -4.239391221630890438e-01 -1.113203895952962652e+00 2.463228799960273385e-01 -1.964075278468009611e-01 -1.828620052718983313e-01 4.800134740254196619e-01 -7.850736215495847325e+00 -7.504703468793691989e-01 -7.777863314905865411e-02
-7.302672253148023707e-01 -1.048604139223485165e-01 -1.669777593690030537e+00 3.287932360115141783e+00 -1.138079848551373785e-02 8.771273349315301671e-01 -2.735697438135359927e-01 3.068157040960750037e-01 1.373378615434243999e+00 3.906660239316967487e-01
-2.007612839313117070e-01 -5.295749627641033186e-02 -3.881897213076811442e-03 3.534788011879752556e-01 3.206131470799958999e-03 5.075478573098058943e-01 -4.660253686036421733e-03 -4.063911382577917869e-02 -1.007484446156825808e-01 -5.515491482826386915e-04
-1.870116919572425290e-02 -6.704306183417005904e-01 -8.547075290151201358e-04 1.006424512015335893e+00 6.464334753802493047e-03 5.601383987016592680e-01 -2.532906404791026352e-03 6.371869800648948257e-01 -1.086809395799916422e-01 -2.289719519038753079e-02
3.320387712185072449e+00 3.596493043364815012e+00 2.056165112469609202e+00 3.428955797645724335e+00 2.350585355449985592e+00 -1.018789748906253179e+00 -2.651567215133738742e+01 -3.070638210804859547e+00 -2.233694458198081378e-01 1.167175112247726521e+00
-2.148659439938014337e+00 2.164026191368529639e-01 -8.313399891118258833e-02 1.029518772108953684e+01 -9.637641913901968949e-02 2.240568171073862025e-01 3.174879104814830322e-02 -2.505950890589785018e+01 -3.456827374790977236e-01 -1.061786346304992024e-01
-1.324187814563947477e-02 -2.675785469780916359e-01 -2.445476267181907921e-03 1.743757334489793864e-01 4.971457189069178155e-03 4.288465908469823451e-01 -5.658857283664352200e-03 -1.240712368116768938e-01 -9.156208630932165249e-02 4.561241261600504013e-03
8.113857250983323999e-01 -1.135738887120721685e+00 3.466753855917195093e-01 1.214531092310408456e+00 -9.640065853749567593e-01 -5.624250710886991717e-02 5.855599763647614253e-01 -1.770679065748917758e+00 8.506360762888899585e-02 3.054499789214324412e+00
1.720560234515347287e-01 -1.497547812378746990e+01 1.186335019958893455e-01 2.408753024753322869e-01 -9.628680625398805537e-02 2.077868172036010375e-01 -2.679948118160912704e-02 -6.991362026102122817e-02 2.278510384188031090e-01 -7.341700038684449758e+00
8.388864546139459533e-01 1.490783181483829489e+00 2.587390843499454696e-01 6.219213257798631433e-01 1.198932330701387161e-01 6.979783012101356543e-02 -2.485397774037487184e-01 -9.543390124471406999e-01 -3.912609947640483532e-01 -4.432048513262117240e+00
-4.821890796381058109e-01 1.971166477247143778e-01 -8.878361497033439992e-03 -1.980226669281271723e-01 -5.853222712719416410e-04 2.422137363008265709e-01 -8.894214059109733714e-03 -1.400215674817074207e+00 -3.150547521664247980e-02 1.699601758466424972e-02
2.094602149719440476e+00 1.860850268160736620e+00 1.006853409528778998e-01 1.931225321470696032e+00 -1.157558549379687385e+01 1.319480790561302908e-01 1.873704766415880685e-01 -1.986543665905498468e+00 -5.841620157853775683e-03 -2.577514173031305589e-01
5.456729135445082673e-03 3.178536890740204512e-01 -1.197126098603479728e-03 -6.489733609235402989e-01 -3.995143463058951037e-03 6.807180407181548376e-02 -4.618218395206811176e-03 -5.781944920985321312e-01 -1.976668647399429379e-02 1.597259835292191496e-02
6.487103029590738368e-01 5.411032034802670809e-01 1.864374645361447647e-01 3.830508638995356319e-01 -1.222444982228775290e-01 -2.162437127730315878e-01 -1.765914552808132143e+00 -4.665836198426994152e-01 1.261135504908111448e-03 -4.138513425540558677e-01
3.997517103845049102e-01 -6.461896219244177564e-01 2.506310286863337213e-03 -2.634834715885967515e-01 2.954743361561030374e-03 -1.396892026450959889e-01 -2.971817411036779561e-03 -2.623684997679257558e-01 1.370903403986891041e-02 9.373060397517849265e-03
-6.445385907522773739e-01 -3.171642880685983101e+00 3.248007555986997391e-02 1.156269662766480633e-01 -1.135374975845877821e-01 1.700497816445169974e+01 -6.818199107969359352e-01 -3.857186822150365790e-02 -5.788393655849341513e-02 2.835425535861580415e-01
-1.584987182198947520e-01 -4.597461152313779564e+01 -2.389169427914559496e-01 3.875630219680994883e-03 -6.900637050074312495e-02 3.482586761118955931e-01 -2.013151214342963069e-01 5.223730125982046779e-01 -5.249753414035707166e-01 6.358809110124168384e-01
-1.306132796929491578e-03 -9.060001807069642532e-02 2.286558349033043682e-04 1.664805057247761011e-01 -4.595734098291363520e-04 -2.469713162178699406e-03 9.403503851652726762e-04 1.341810113498757839e-01 4.907942108976381945e-03 -4.628859482245700763e-03
-2.052709754564988887e-01 6.832603685893737788e-01 -4.434441659326435799e-04 -2.238463396927796792e-02 -5.711508735207531696e-03 8.685117284420054359e-03 3.642797416729474849e-03 3.938595904239535206e-01 5.804059164502710366e-03 -4.204834862170915566e-03
-2.395563489147986402e+01 -1.320152184983773624e+00 9.356458640465437071e-01 2.993208902702205743e-01 1.660806307145343386e+00 9.632579839563412127e-01 5.658196849468680734e-01 2.439876152677248611e-01 1.080428130568399370e-01 -4.735473915108434073e-01
2.394583942613977834e-01 -3.806425908500509214e-01 3.496074747674122758e-04 -5.820849384969567497e-01 4.679804947046758805e-03 -6.225722571842871866e-02 -5.672108482520633183e-03 -8.421723972622903176e-01 -5.414479538117670035e-03 2.215377051092940960e-02
-3.260710351270328378e-01 2.632865808856386658e-01 -2.954526405985773499e-03 2.367816476506283130e-01 -2.696707956111977795e-03 6.738201060112807006e-02 3.396761850099486776e-04 -1.475282283883678769e-01 2.731935685597349731e-03 -3.563252529377097105e-03
9.162601460608039705e-01 1.528318839889990510e-01 1.796979658094272070e-01 -2.861179424423147544e-01 -7.373713606950124677e-02 -1.786380280815805133e+00 1.038902055940709168e-01 -7.244799922174082196e-01 -5.306850912121360841e-02 8.997247011648126236e-01
6.958281257326499880e-02 3.777352132634829163e-01 1.047874787870275385e-03 -4.192572918018406258e-01 -4.205655062836735798e-03 2.548032529483893784e-03 2.933301025651372765e-04 7.016390078257950247e-02 -1.268192854228143880e-02 7.199506637910091551e-03
-1.364563545783781598e-02 -5.289190533695840024e-01 -8.241289919065557332e-04 4.614550528500929727e-01 -1.467971573345604977e-04 2.963448485187383241e-01 -3.165261472268808204e-03 -5.160783973354379078e-02 -5.533594904178992108e-02 -1.094018011592564656e-02
1.255324878670349031e+00 -2.902136835893222688e+00 8.409603977447355563e-03 1.272719792121323745e-01 2.128687895085435572e-02 2.407610975554300425e-01 -1.296865071047519080e-02 -5.097684951109243690e-01 -9.571508920202380366e-02 -2.214437423050515715e-03
2.472541079196698965e-01 -2.315202804614133303e+00 3.103150999993966371e-03 1.612001000556976482e+00 6.907682169325711496e-03 -4.878948397073305798e-02 1.836506090027322791e-01 -4.596906570990722529e-01 -2.730114991087528517e-03 -7.109498417837206707e-02
-4.186532808832079677e-01 6.792260428847330722e+00 7.697844582642131284e-02 -3.922809641164912708e-01 -9.722998764177183395e-02 2.605328512055099521e-01 4.452480703825622554e-01 3.998569679583541259e+00 1.171369100814546593e+00 1.613354004025435162e-01
-3.112343166807736705e-01 -3.658942230701986098e+00 -8.491591599529876855e-02 -2.366109951224339147e-01 -1.054618941897716988e-02 -6.512623530065464461e-02 -3.355070909970999660e-01 5.718514338390138230e-01 3.788114656347544296e-01 2.633863910654547502e-01
6.054036141950021044e-01 1.196332496831190806e+00 -1.283667743335745071e+00 1.123284170254598813e+00 2.003444784183263383e-01 -4.764638396605653248e-01 -2.108692787770362731e+00 -1.344128724678257170e+00 2.044900114643507294e+00 -6.926868779617606497e-01
-1.237357625407280518e-02 -5.271020351063431253e-01 -1.697777744361713250e-03 6.633666793751828994e-01 5.359509120058428625e-03 5.568302602905003118e-01 -4.489145766517637498e-03 3.033891370212616900e-01 -1.138123116895201486e-01 -1.138448842995238089e-02
-3.213831863144101224e-03 -1.035205662511599206e-01 -1.171194658786228228e-03 1.264505917401774204e-01 3.608568595686599371e-03 5.347931073312214290e-01 -5.578574393630454827e-03 7.836347739732617279e-02 -1.197197970902966341e-01 2.831032766458553562e-03
2.510338196550922218e-03 6.025098869799744294e-01 5.895062583286448943e-01 2.038249405989052132e+00 -2.694429592235855764e-01 -4.191215116574701582e+00 -2.019518646894951641e-01 -2.836198851896941098e-01 -1.335200991696686490e+00 6.806276458952810471e-02
-6.103080702595300305e-02 -2.246861293271542326e-01 -2.085775368436041440e-03 2.189380172159604843e-01 4.163729029274303162e-03 5.935115807919320030e-01 -7.404204886921926694e-03 -1.128330669578475887e-01 -1.258945230943582794e-01 6.211763799857431510e-03
-1.524857830628812728e-02 -5.800027937799804301e-01 -1.158300174564707869e-03 6.873496139870399757e-01 5.855071705502237246e-03 5.944405687812044370e-01 -5.478663336728612811e-03 2.591565336491802873e-01 -1.182226801412928768e-01 -6.482900693329814341e-03
-1.615328745887771936e-02 -2.744002071083914696e-01 -3.144418574367771613e-03 -5.283038874804975998e-02 4.768613951465428685e-03 4.253754392432820830e-01 -8.571673758878633684e-03 -5.155056496831385004e-01 -9.207752694512179314e-02 1.712341931950337598e-02
1.166124739785252551e+00 9.271923277681013431e-01 -2.252453870712209483e+00 1.008280533407607260e+00 -2.320406468584508275e-01 -6.979733137516842545e-01 -5.184307959840532831e-01 -1.712470619462995447e-01 8.120235768878121263e+00 1.297625224837730684e-01
-4.274427930544967280e-01 2.057593602131350119e-01 -7.291158851202803395e-03 1.919580401192795827e-01 -7.413095853101025774e-04 3.861063308550871653e-01 -6.099737226871911056e-03 -5.800886697725020635e-01 -6.019147562819518460e-02 9.281589887965992214e-03
-9.344859407969761111e-01 -9.434753898378566567e-03 -3.496931377883859943e-04 2.413668044509773014e-02 -5.031125466696071413e-01 -1.276388750081691725e+00 -1.429964327724090545e+00 3.531218181641554654e+00 -6.036334900580777457e-02 6.858533728764838744e-02
-2.940026974773899196e-02 3.314006821949813109e+00 3.455244234826304606e+00 6.402282051161580778e-01 -1.501874937505448315e+00 1.224372811828734919e+00 7.255269925338002635e-01 -4.014847720191453639e+00 -2.744362136778081274e-01 7.174060986247541294e+00
1.048054980794612678e+00 1.151760382617964762e+00 3.555659827034211684e+00 1.097901402599035237e+00 2.373014932859209558e-01 5.719951264743321495e-01 -6.101730646722246520e-01 -9.117717772274128718e-01 -4.790839514250087583e-01 -2.450203374030829329e-02
5.497960418745896582e+00 6.332628011413939717e+00 3.407275809557086887e+01 5.701201754947142319e+00 1.657483739350974483e+00 5.082164256432787575e+00 -5.157982348798798355e+00 -5.058572746068461967e+00 -2.942171299143359953e+00 2.201336278844898686e+00
2.873415251699984463e+00 -1.724387363152539709e+00 1.004984732921579749e+00 2.414586941543519050e+00 -3.826459426099946270e-01 -3.394445617471026355e-01 -2.816242039607238512e-01 -1.687333406104541522e+00 3.408088590324064171e+01 1.888940507193158869e+00
1.656638792424318662e+00 1.904402082178930256e+00 8.129161289875719287e-01 -8.463441464167317241e-01 4.697532530917983840e-01 6.181347216444379455e-01 -2.819172445231108526e+01 -1.068761896928440702e+00 -4.960499715712335944e-01 9.842957047445196617e-01
-1.079327559045884823e-02 -4.739602617388141703e-01 -3.803109615477527714e-03 -1.956750110206458559e-01 4.177080494420384524e-03 -1.314998847779910024e-02 -6.617935239961780618e-03 -1.059143061851501866e+00 5.367981886687253970e-03 1.940196434414088317e-02
2.310697025835198315e-01 -3.423226678308414206e-01 1.237618881620273972e-03 -2.072661290707232540e-01 2.936078843645074325e-03 -3.422143174323075826e-02 -2.147013220961363055e-03 -1.927101960592060015e-01 -3.129188890473343261e-03 8.268648808190845814e-03
-8.298600225681701525e-01 2.447087251511232686e-01 -9.419971569069410591e-03 8.659988763969865833e-01 -3.237654191299945902e-03 1.996269162893919979e-01 -1.003740708186395304e-03 -5.734366150373494397e-01 7.050525731290999305e-03 -1.033533291769370491e-02
3.697421481241663366e-01 8.334045596015568491e-02 7.237235248439751259e-03 1.308031699045767160e-01 -2.259774723026138511e-03 -6.159037095828409636e-02 7.085340334790512888e-03 1.391651287707897477e+00 -9.508237762220115262e-04 -1.996825921329396444e-02
1.661482256597305307e-01 -5.601971676599251992e+00 -3.327147049485791319e-01 1.537013079989943409e-02 2.976055467454092329e-01 9.972414339400656469e-02 3.341240853117525278e-01 1.623846932403339161e-01 1.036066412587746344e+00 7.352033156438377848e-01
6.032891359918422791e-02 -2.321785947757983026e-01 1.423465107045728678e-03 2.864399181466266708e-01 6.543212610402406645e-04 2.787502586582294578e-02 1.138632029078336626e-03 2.989543334602666746e-01 -4.314483269261220125e-03 -1.031143036180808166e-02
3.367299123025253027e-01 -6.134673273155165640e-01 3.803903420946398370e-03 2.346544884219478322e-01 3.219465118558586039e-03 -4.493240818519485605e-03 5.891050584325359689e-04 4.332705807822262445e-01 -1.009907785520172512e-02 -1.062517090605184962e-02
6.361102150801412947e+00 4.947931239964156624e+00 1.029960371768486205e+00 3.974970829556407903e+00 8.092060459059445066e+01 2.489183702178102031e+00 -4.694226192580968515e+00 -4.600201291805663395e+00 -1.243210084858782816e+00 3.110271421437871719e+00
1.053551644012301836e+00 1.224339380011769451e+00 5.171040982199484048e-01 -2.220490461487769629e+00 -9.229874624807619110e-01 -4.796622811077677184e+00 2.479400623582014018e-01 -1.090431209000233048e+00 1.016225567592500045e+00 7.043967481629517802e-02
-7.922919937806290058e-02 1.029143274295895027e-01 -3.709732080178239138e-04 8.957401592664850087e-02 -2.437165479662721252e-03 3.401713295674727577e-01 -1.709838569984596613e-03 9.071783792383796008e-02 -6.409243364576766577e-02 -1.425163228454602408e-02
-2.668537469911773027e-02 -5.373071576996446552e-01 -2.719778326786753426e-03 1.355431901942039108e-01 4.187683567653942285e-03 1.181562113384776180e-01 -5.091193466069270784e-03 -6.526455739282854829e-01 -1.748348624327219700e-02 -1.676220197793355793e-02
-9.191428808455954710e-03 -1.133029739504934005e-02 -1.380042398772642238e-03 5.548708710763997423e-03 3.117221155750370706e-04 6.097515526978861122e-02 -1.383498229328543935e-03 -3.601937064701859342e-02 -1.321509671468159251e-02 -2.083203703510715446e-02
2.163888524676454428e-01 -4.024696128980293497e-01 7.467964415257234093e-04 -2.083225723395148998e-02 4.907169599831846807e-03 3.323321242096511363e-01 -4.967686600952410901e-03 3.983469329859422661e-03 -8.642502588735954949e-02 -3.804458478031831278e-03
9.289038966435320122e-01 2.927271649252140562e-01 1.051165888248147828e+00 2.312510567104933690e-01 -1.132096607386492426e-01 -3.191336884576035260e+00 6.364074860817701129e-01 7.182276371042330132e-02 -8.165117677358518788e-01 1.949693336432039847e-01
3.804346465668875799e-01 1.169082895693570046e-01 4.851000443643501553e-02 2.181837346041664460e+00 7.256640554929439935e-01 -1.411227065622291832e+00 8.087669538411369485e-01 -4.533554205404359272e-01 1.857137527841944968e-01 3.678774451482381136e-01
1.982960235572142974e-02 9.079546721410224341e-01 -2.003845344557218452e-02 8.861238378309500840e-02 -1.569426169264350954e-02 -6.254474238611962278e+00 6.043048915877055616e-02 1.102951362681587222e+00 1.367425230935710445e+00 -1.974940406515747759e-01
4.458752788548121515e-01 -3.452855923144071415e-01 -4.460188766898859902e-01 8.165873417990882066e-01 -1.599861151501568921e-02 7.666868201592657028e-01 -1.190442165620634457e-02 2.532084154105388937e-02 2.409931156189511814e+00 -1.906206276896803997e+00
8.706441865788622225e-01 1.265928923802986494e+00 7.241535821460119982e-01 1.160248804101309927e+00 -1.185938274493279376e+00 4.844234710417572920e+00 2.212935538889438114e-01 -1.007300995303988200e+00 -1.323503870474004884e+01 5.100481597070598561e-01
1.378304238531272430e-01 1.565056643405907888e+00 8.345815169205275108e-01 1.182777513131655134e+00 -9.106153885426243599e-01 -4.195640678775591215e-01 -1.018986158268508080e-01 -1.323773874233015402e+00 -1.114657963622090620e+01 -8.007998859390040580e-02
2.810204317763891346e-01 3.767153361756164220e-01 6.219072886611168305e-02 1.744253664819858107e+00 -9.805943606124374601e-02 -8.769228377493808457e-01 2.362724122351688827e+00 -2.824983763344827148e-01 -2.768660296523506870e-01 -2.118352875751730591e-01
-1.002704663563729559e+00 9.236156064248199904e-01 -1.071356467270816702e-02 6.608167302890451955e-01 -6.260705826605558397e-03 5.595520682653708500e-01 -3.464281244823288423e-03 -3.714725155333016282e-01 -6.765446561733137743e-02 5.863071183954874472e-05
-1.411832230223143414e-01 -1.918006120835324402e-01 4.400623180277099230e-04 1.143985953459373262e+00 -9.074841315608210080e-04 4.673154540107181676e-01 1.685668753660300159e-03 1.216641218140974257e+00 -7.440155527307554251e-02 -3.051746642967670398e-02
9.117245500048750673e-01 4.610311369870957066e+01 -7.421213465382133778e-01 2.947737684318130560e-02 7.780522924147835473e-02 1.755635534025261346e-01 2.021787317963122277e+00 -1.951668959418838556e+00 -1.435081302975979023e-01 1.340792089151982447e+00
6.417134100972569755e+00 -2.539529157433721984e-01 -7.172387131820188166e-01 4.792159425092661768e-02 1.841481918427715636e-01 -2.911048036605613509e-01 -5.077787565225881927e-01 1.441256733733955187e-01 1.564972908328450540e-01 -1.759088535547780885e-01
9.067188698885604234e-03 2.886120676863663803e-01 2.489260560781879458e-04 -3.675346907962292464e-01 -2.836904113840387105e-03 6.737343310238302907e-02 -2.650483075614515870e-03 -1.512640474025191417e-01 -7.981451808011467280e-03 -1.913003056964372164e-03
1.148024877848306119e-01 -6.214352002888787890e-02 2.228205481475278513e-03 -7.314565474577189308e-02 -2.977091726578633482e-03 2.990612869171302424e-01 -3.792679546207059806e-03 1.305286630921983215e-01 -6.065503723390103935e-02 2.262973055058904639e-03
9.435023099693163884e-01 -5.687815399187309273e-01 4.719960287425486456e-01 8.119207070065314724e+00 9.773255233946092080e-01 1.914470025767475292e+01 -5.194214193021295944e-01 -1.998921429509825209e+00 -2.381518910330056582e-01 1.703008374727528751e-01
8.075680510066524098e-02 -1.859529632908953067e-01 9.651108933440932878e-04 5.986677354424416869e-02 -1.184500258806771159e-03 1.224048808722036537e-03 -1.176804291559790244e-03 5.189203967051628230e-02 2.584423420207717769e-03 1.883415404737603504e-03
-7.229341076751144568e-02 -4.393269803218486508e-02 2.536375311904748233e-04 3.894289170743009398e-01 -1.675121194083119052e-03 5.464645775935350613e-02 1.491714320595245334e-03 3.706571073084641288e-01 2.133767649950971037e-03 -9.640894959889524315e-03
1.105715446153861942e-01 2.864826048817761817e-01 6.052972933273179645e-01 -2.299038974476063923e-01 -1.575005901142159770e+00 1.712422592623899398e+00 1.332293427527655727e-01 4.205458471723093616e-01 -5.375072574282552251e-01 4.653188537905063527e+01
-2.424347652947096698e-01 -1.918766448216477727e+01 -5.106353474884682553e-02 -2.700164340464536808e-02 -2.372956586989127814e-01 1.248819805408505568e+00 -1.328673414617687065e-01 1.408431317178869546e-01 -1.542574808159409561e-01 -2.643374527156563403e-01
2.929391564598367650e-02 -7.675154312393740463e-01 -2.233320671658272413e-03 1.419542699918830420e-01 6.097176179421274871e-03 3.680143615720431194e-02 -5.644309166026792272e-03 -8.231827084216748469e-01 -5.462098293826451317e-03 6.814755509860681917e-03
7.195513786418805680e-02 5.190977022923615181e-01 2.479011897272429682e-03 -2.686899849444683297e-01 -4.323703773635139379e-03 -2.465755446171655554e-02 3.385836864024698283e-03 5.355787651950100203e-01 -3.781513487544508039e-03 -1.716038446046966098e-03
7.952300276697584991e+00 -3.695977832978774025e-01 -2.614806881895018753e-01 -6.206082224748610265e-02 1.750325885568641882e+00 2.361311339411847676e+00 -5.652750957097428808e-01 -5.208835344522619870e-01 1.550732804526659958e-01 1.412232626843250793e+00
-2.372327767780993302e+00 2.310097859812322074e+00 3.464254482402379272e-03 2.121360350830989727e+00 -7.006978042978313781e-02 -2.823509431750485521e-01 1.178270291641848821e+00 -2.097285535951368018e+00 -5.166239922102147664e-02 -1.235829138957793838e-01
-2.076553485939126517e-02 1.279477451998178583e-01 1.017609575221793043e-04 -6.134072245844732207e-02 -4.586227277269427048e-03 2.137501694766622551e-01 -1.318768140168251899e-03 4.130112917818766494e-02 -5.030871280586660804e-02 -2.850134573404282000e-04
1.669966852020887335e-02 1.184521357958208572e-02 1.253781571196072031e-03 5.705540666490475921e-02 -3.198568872137051104e-03 4.221728620815778377e-01 -2.517956757042796954e-03 1.827608815732623682e-01 -8.987341067234393133e-02 -8.176839492290850428e-03
9.557127879210321197e-03 -2.066199108570770005e-04 1.534315839647238527e-03 2.799856327917416565e-01 -1.989640970171326941e-03 3.053287176081492249e-01 4.394329113293981930e-04 5.001472806187264863e-01 -5.663548992522306896e-02 -2.766091150630062626e-02
2.261832030272887539e-01 -7.393673909710986314e-02 6.775763536668109714e-05 -7.339609692520111528e-01 2.246473272453548137e-03 -7.035952531154472667e-02 -4.608787820212270972e-03 -6.818135514614032111e-01 -2.148075644999331013e-03 -3.226297897453795673e-03
1.306318206024574380e+00 1.973503598067276377e+00 1.359712818056560524e+00 2.797182945644118401e+00 -6.945211132880855232e+00 -1.408525549213239525e-01 -1.283629195356574160e+00 -1.385914433276908664e+00 -1.161543381985986390e+00 8.353007185304234250e-01
-3.166152442139730239e-02 -9.301937816417728266e-02 -7.474501112250954123e-04 2.729891378355303044e-01 1.592766114872911547e-03 3.856289857938530741e-01 -2.933328864273425200e-03 2.406275800831090550e-01 -8.325424031405098679e-02 -1.346348924984555086e-02
2.987397884392612446e-01 -9.462300683065909268e-02 3.876165504212780166e-01 4.051827356644580824e+00 -2.218366971556251788e-01 5.443927319031984791e-01 -4.188558653639741225e-01 -8.743135638222561123e-01 4.098728048586687267e-01 3.328145427579412008e-01
6.874186140739448891e-01 -3.378567336387885978e-01 8.381658639253414256e-03 -1.866919517866259259e-01 5.015959322555159187e-03 3.983342772407105770e-01 -1.205477936774108092e-03 1.180323565921587381e+00 -1.264960317863285388e-01 -6.030610972189958362e-03
1.486225382027808628e+00 1.112050771997801224e+00 4.568652730907224679e+00 1.441911026435342524e+00 4.994068128568038833e-01 -4.123434101811079833e-01 -1.145650618677021004e+00 -1.541762302172264176e+00 -8.138728642915864508e-01 8.734265382768032770e-01
3.402799370961003267e-01 3.531307282565559480e-01 7.663880701086568381e-01 1.363211749405584872e+00 8.715846789372947434e-01 -1.480652735835455314e+00 3.647347183401604132e-01 -8.902187864812003415e-01 7.834425319410451283e-02 4.724899618569051718e+00
6.635007992341137140e+00 9.907239715192233120e+00 5.633864387796073459e+00 6.101537499503026929e+00 3.494378876672431744e+00 1.721164288397732207e+02 -4.711671429269191691e+00 -6.005913686854120748e+00 -3.581697031706880363e+00 4.444961732530792631e+00
-2.737562894252130175e+00 -3.528542070870123726e-01 -4.386755540509204576e-02 -4.760873029743689817e-03 1.470841958033966557e-02 -2.262751132775074892e-01 -4.801668705420547578e-01 -3.102824282185659421e-02 3.196348211065596634e-01 5.369289315658777317e-01
-1.044931940462389720e-02 -1.692894504846466919e-01 3.293766829589649201e-04 8.917856161616738442e-02 3.694425536952697896e-03 5.865028041984392537e-01 -7.941148690840933375e-03 -9.612781211171785023e-02 -1.274555654225217605e-01 1.310169558508350249e-02
1.852597561143017602e-01 4.223664408129095271e-01 -4.504035881076367542e-01 2.997171551648447618e+00 -3.547313673893996988e-01 2.436231532770440356e-01 -1.032079359105805977e-01 -4.812989483181116523e-01 -5.891920904228671318e-01 2.121940377253880294e-01
-2.175121604121319496e-01 3.406285802564358312e-01 6.107429357589654875e-05 4.002171305380909927e-01 -2.647008420472554951e-03 3.807230972020843041e-01 -8.126682703260378190e-04 5.659292689579438207e-01 -6.591761902023737796e-02 -9.288056165126595820e-03
5.131554639048848676e-01 7.271476254867191846e-01 2.859805926899956947e-03 9.623624472703070643e-01 -1.703628094046906460e-02 -3.616344643020616090e+00 5.010925886468318297e-02 3.866340418305540538e+00 7.906677808078059755e-01 -1.766021459715632069e-01
2.242133110663391715e+00 2.383823717826702993e+00 1.618319217222889295e+00 2.329565238996784249e+00 8.164973176192217963e+00 9.047308689725706010e-01 1.080299129092320953e+00 -2.749461017297818000e+00 -6.915508268441353801e-01 5.925530960670274183e+00
-3.776432166922159550e-01 -8.454795300440240968e-01 -1.346743436254146248e-02 7.598787460005477223e-01 2.009729819583590694e-03 -1.865777246560793801e+00 8.663122704800914342e-03 -1.232434409134063547e+00 4.543460177156170010e-01 -7.447354897323323064e-02
-1.207952951045130355e-04 5.877018300142516916e-02 2.360559710340429194e-03 -6.262067301407084341e-02 -3.365611771996883644e-03 3.489987699496602813e-01 -4.509553536472098861e-03 1.773636697305510301e-03 -6.560595781833393481e-02 9.194892829240871581e-04
1.540809845466292391e-02 9.304545071062714223e-01 2.441196343218391719e-03 -1.041203289361150031e+00 -9.465360013242727147e-03 1.913207472595584435e-01 -4.034735168141774173e-03 -2.711750382558815176e-01 -5.523853238986396047e-02 3.093969455484352551e-02
5.128579714375871568e-01 5.951898373931433506e-01 5.622038947605565405e-03 -1.950366789087928154e+00 -2.733138491636067334e-03 -1.777476187532364971e-01 -6.881840616601605891e-03 -8.636005165702852482e-01 -1.225238087496251758e-02 5.429577298857364565e-02
4.904159388188895907e-02 8.434724803698406825e-02 2.517748611536019948e-03 -4.101389183961993284e-02 -1.498675749286928821e-03 2.902324747748886991e-02 -1.108443709811993849e-04 2.001853329234537515e-01 -5.973781876979079690e-03 1.043807037391581262e-03
1.455103848901060648e-01 -4.105624637375558383e-01 1.648869801222437861e-03 7.024838155574904264e-02 2.609810027082923745e-03 5.704338161150762643e-02 -2.349548130875679132e-03 -7.611617387167188276e-02 -1.568176690237872359e-02 8.455866373209947572e-04
9.965390109788875572e-02 -1.076670602340529291e-03 1.787064085736013441e-03 -9.683767011017871537e-04 -5.239935010796788846e-04 6.721212242029491997e-04 1.219280278158056587e-03 2.816782562889884600e-01 -4.557859141532940792e-03 -3.556485350219250156e-03
-5.847296510148779491e-01 2.365701214939042729e-01 -6.229774633692885914e-03 5.669468366222977229e-01 -2.744973607939626536e-03 1.459570456498973101e-01 -5.465717641881086622e-04 -3.792497201927744754e-01 2.247563667538297373e-03 -7.347829737876106736e-03
2.424287146218150404e-02 3.876150139607581480e-01 3.640777990779601580e-03 3.137198925091173041e-01 -4.831776471691661724e-03 2.646992410566371967e-02 6.709852453853522129e-03 1.162906268278062427e+00 -3.693538324316544656e-03 -2.109555641394747841e-02
3.084640913944061147e-01 6.538855944844157442e-01 4.801193529382487106e-03 -9.969046972549377994e-01 -3.474474318338521741e-03 -9.529625070663971798e-02 1.147465507470217180e-03 2.103718013812252707e-01 -1.187192802703202973e-02 1.773129063782597284e-02
-8.023265707318974135e-03 9.669448795474207270e-02 8.270480626134700595e-05 -6.355050532441626487e-02 -2.798354462348665722e-03 6.998473770328991761e-02 -3.727062060198871774e-04 1.908279133518548526e-02 -1.909573173545766472e-02 -3.647574474308452538e-04
7.949992777246430720e+00 9.208778472049163000e+00 7.615262130274316199e+00 8.956995292739303949e+00 3.795437116672766287e+00 2.626734710432431896e+00 -4.154200251210594885e+00 -9.756191398785109214e+00 2.302895835483028577e+02 5.372812745551641456e+00
2.287192507031394761e+00 2.545345689620699847e+00 3.983486508830285100e-01 1.747750700238830612e+00 3.893847202956222109e+00 -6.566027049505255286e-01 1.001961591639835225e+00 2.113990144777023517e+00 5.929244981337338238e-01 1.859098670092063088e+00
1.265061993755559167e+00 -4.529100283118233650e-01 6.924825634747093506e-02 5.156349868587101204e-01 -8.996482403140010353e-02 -1.103006004983059007e+00 2.215241607190718831e+00 -4.716602786204482367e-01 -2.573957023209926254e-01 -2.232003833614608634e-01
-2.238117642007538266e-01 3.452945345592677850e-01 -2.302005561782067677e-03 8.526248779674991396e-02 -3.361988861560858462e-03 2.837357971943416796e-02 7.538616726808850454e-04 6.151509403517932059e-03 8.440197948350422474e-03 -3.180597100065659516e-02
-1.289702260256087862e-01 1.595556667416041796e-01 -1.734701993036875554e-03 2.006529863129064006e-01 -1.779141243398616075e-03 5.692472837678746317e-02 4.176091251311301678e-04 1.944695888292246044e-01 -5.382886449203549278e-03 -3.178099711951367506e-02
-5.012090036090275508e-02 -6.318546756953966614e-01 -3.510025532275895619e-03 3.140622899743903962e-01 5.961374522317510610e-03 4.160102030648200611e-01 -7.725306046667925960e-03 -5.440691134042964228e-01 -8.722086377466692353e-02 -5.726381273567459490e-03
5.724371111184893834e-01 9.082734038887607664e-01 3.179906071780914945e-02 1.427457570055012726e+00 -5.055931635426641257e+00 -4.415123858379059740e-01 8.280769110561815582e-02 -7.946524952877416226e-01 1.082648998388772155e-01 -1.309393171857889671e-01
3.765798246288490359e-01 5.458983262665160346e-02 -5.704769373362630347e-01 2.850551288057863175e-01 8.402634751212935404e-02 -7.078494364352589940e-01 -4.142398889616192431e-02 -2.174262038121479168e-01 2.037773096140618190e+00 -1.057091408663271226e+00
-9.075432851908294962e-01 2.752193998182351109e+00 -9.629621489797897393e-02 2.708601270379841885e+00 -1.344881838343071068e-01 3.196616248409069327e-01 5.039917196409095246e-02 3.005436455848291555e-01 1.096591353882104408e-01 -2.036794133160127751e-01
-3.210548287273456425e-01 1.373878124628064690e+00 1.124717045310315910e+00 2.267617980519264886e+00 -4.784014081939387819e-01 1.019959965968782883e-01 -5.175684772959315144e-02 -2.300635833032925515e+00 3.265307061066277328e+00 -6.267936844211449143e-01
1.348494536949756961e-01 5.195788085779261323e+00 4.020313316180491869e-02 3.363050007303762245e-01 3.655758016837221125e-02 -4.371353371383488451e+00 -4.303881729658349253e-01 -1.316030439859847134e-01 -3.539995627293831548e-01 -2.837309770377147711e-01
1.290722783999845413e+00 -1.155255967396487060e+00 -2.822744177285492206e+00 -2.126573943796521704e-01 -5.541718916646027893e-01 -6.080935241816489700e-01 -1.375056090766177963e+00 -1.345700715307975948e+01 1.011027799373103386e+00 -1.351864450055608291e+00
5.100336195208944545e+00 3.913390171720372734e+00 3.403400828411320411e+00 2.773181126869769475e+00 3.766353389913700833e-01 2.289635565262305494e+00 -1.160199275024567456e+01 -5.593737060997938215e+00 -1.105714981474201331e+00 3.050915534777878246e+00
-3.396263557099803154e-02 -5.372912201245270969e-02 4.533540972493095133e-04 -2.711270040540307846e-01 4.004153730851655116e-03 4.679791395194574100e-01 -9.566666113916183489e-03 -5.905117376600103052e-01 -1.066392020214210062e-01 2.361794424572401588e-02
4.915410854467111568e-01 -2.179297609742504027e-01 1.280407709594803128e-02 8.595659989201714923e-01 -6.244326463024651736e-04 3.475223370104084109e-01 7.059490794929884801e-03 2.514120894827665875e+00 -8.324809810675193322e-02 -4.194872931851243575e-02
2.754205870912207477e+00 2.781590519874806766e+00 1.066153052291129377e+01 2.320499830778332662e+00 1.768098330331057344e+00 5.764272392949124857e+00 -2.536948413236636668e+00 -1.741272698256916218e+00 -1.736655128241612278e+00 1.572495522857732198e+00
-9.189478979564532635e-01 2.643246000082532632e+00 -6.928330859486127036e-01 1.583581828140164793e+00 -4.480990833945505125e-01 4.979842197976595136e-03 7.916609875469036162e-01 -1.875675611730238446e+00 9.193276218488735663e-02 6.536184944963400190e-01
5.327885366046247739e+00 5.132997035928324792e+00 3.905984762688164746e+00 7.140229908135878212e+00 2.156056923383209423e+00 4.472209847512710112e+00 -3.393607827562521351e+01 -5.712587185650972899e+00 -2.180227676820392535e+00 4.331865594078570858e+00
1.190225906570925973e+00 9.595118262297001044e-01 -5.105919185788261316e-01 9.793687677653145629e-01 5.355739966046361294e-02 3.139950787575254698e-01 -1.504185511542159182e+00 -1.782178648882589034e+00 4.459314482052356698e-01 1.168341154730856868e+00
2.500036969414946686e+00 -4.110314673951610764e+00 6.571200811883966264e-02 2.604069854983729115e+00 -6.706102433392600481e+00 5.433539269936915606e-01 8.226687496773438246e-02 -2.726164589652342762e+00 -2.267149066322772244e-01 -9.337732751689624411e-02
-3.085123139289204786e-01 5.976680991619613970e-01 3.044025412366624796e-04 9.153355795832446296e-02 -8.014267879159899660e-03 1.653840336562652225e-01 -1.246252869668959995e-04 1.676136604590203472e-01 -1.955334268406589207e-02 4.677382185547835237e-04
2.179590896939630901e-02 -1.366762878312407503e-01 1.700949200170770795e-03 -6.107413552199897344e-02 5.713436051284606675e-04 6.075165656154383337e-02 -3.113832868310569251e-03 -2.381346418882439586e-01 -1.234807149077873749e-02 7.100429998109733000e-03
-2.255068765402977807e-02 6.234111416040942488e-02 -1.005997642241816164e-03 -5.167086985375148878e-01 8.203972608663614432e-04 4.803045909459933288e-02 -5.444784838130109841e-03 -8.174047154764199075e-01 -1.734688405584400295e-02 2.220886236377090511e-02
-4.163157909172315874e-01 -6.742335238431585998e-01 1.640073136233774820e+00 1.098877239083240198e-01 -1.589100348246708094e+00 -9.437102050897404337e-02 5.873161578212615641e-02 -1.508682712651008284e+00 -2.211562404853175678e+01 -4.596379102695151708e-01
4.815398681565473686e-04 -3.645231859733414487e-02 7.595057695938790213e-04 1.505314797552636252e-01 -3.319666809389884088e-04 2.440193088199753974e-02 1.037854299241915915e-03 1.961047931774969610e-01 -3.288646947868264885e-03 -5.555183481387427312e-03
-2.141905029370456126e-01 8.802957289400417107e-01 7.865114270928954925e-04 1.085015892328942966e-01 -8.158150871153246192e-03 4.852535542960064591e-02 6.382096074961356863e-03 8.783102585990932853e-01 -2.558685285141009107e-03 -1.337394892608683404e-02
1.228009859681073124e+00 9.586516410458432169e-01 3.435740878229707335e-02 2.592620734696650109e-01 -6.454322124875684630e-02 -1.787410503485730162e+00 2.951567030898512023e-01 -1.755183660741027607e-02 1.350210820648672971e+01 3.417306708728828912e-01
3.593560710900356447e-01 2.720878322579617370e-01 4.733319756602335192e-03 -6.486783614602960046e-01 -3.633832075331334521e-03 -9.383018206431217520e-03 7.137674339199457903e-04 3.646920858375685137e-01 -2.844340125479886960e-02 7.485421943390403038e-03
5.165382646687638690e+00 3.984742681551593169e+00 2.249771311248727645e+00 6.544228629945200382e+00 2.742545868963536915e+00 -4.157039498381011526e+02 -4.413327795486333471e+00 -4.383674708308798351e+00 1.475904945752821051e+00 1.977201384282884167e+00
-2.193683783505849527e-02 1.066448192800567435e-01 4.679167133318849585e-03 8.515932910550823021e-01 -5.687237268403734503e-03 4.716875740739424061e-01 5.323512694793177714e-03 1.519761501265995074e+00 -8.458448965009790488e-02 -4.393793849848995348e-02
-3.873188930681752129e-02 -9.112140908223962388e-01 -2.705924108593973833e-03 4.952254934497867800e-01 5.712935913813520228e-03 2.384647021256121879e-01 -5.589455006960629239e-03 -6.467813851757497901e-01 -3.380565832128758913e-02 -2.425883186870010991e-02
-3.292613617855906227e-01 1.052027272656261170e+00 -2.290057384878112744e-03 -3.336635595298718671e-01 -8.272984522338166363e-03 -1.285892691860526620e-02 2.517135743130962788e-03 6.565401861292763375e-02 1.323915453815387167e-02 -2.554529101491607307e-02
3.409345475091653532e-01 -7.673085077656857655e-02 6.534442498134306922e-03 -3.133402911511411482e-01 -5.616542035293961010e-01 2.200963019172163804e-01 3.516266114868810740e-03 -3.219906657045051301e-01 -7.794382927372300873e-02 -4.522811313581177883e-02
-2.071713215074454106e-01 -4.552652175859528416e-01 -5.126364344854672170e-03 4.823568792976539732e-01 3.982434367762868743e-03 4.174571297842298856e-01 -6.161865720703638138e-03 -4.545686884129610528e-01 -7.787111759574513736e-02 -1.096650399111708495e-02
8.840905055755474695e-01 5.677737705331341589e-01 6.980265219386482256e-01 9.492719881714738461e-01 1.487299208382029600e-02 3.718456412795563715e+00 1.426098229014302055e+00 -6.868061419717539362e-01 7.081889403146892636e-01 5.315385538134479448e-01
-5.620671940027501812e-01 3.015375552154260230e-01 -5.845672278138254289e-03 7.674611761753575845e-01 -1.406855757478572312e-03 6.910709502485177236e-01 -3.354312547470674616e-03 1.461742214751773905e-01 -1.226223868112612109e-01 -1.337542840900065970e-02
-5.045658618958059026e-03 2.130269686323239142e+01 -3.915105116185838563e-01 1.433977770950513042e+00 -8.810844712518507704e-02 6.382328647001522803e-01 -3.285694097193012642e-01 1.856086855150888143e-02 5.937765721196688329e-01 6.245968678448278188e-01
1.871216890781336462e+00 -6.310658805540490801e-02 -3.865282780422075321e-03 1.211719324797877695e+00 -3.616612264341220739e-01 7.345558740059678071e-02 -1.016964703432447353e-01 7.394650123684323173e-01 -2.647067623227779276e-02 4.662160253816229893e-01
2.829864295332403135e+00 3.281788382827281580e+00 -3.420065376587813955e+00 2.276031164351325131e+00 -1.393477738657040499e+00 2.284902950293916213e+00 -1.860031947862009483e-01 -4.848421861626547980e+00 9.499386411308939904e-01 1.967763045231076147e+00
9.783702653371264546e-01 1.610762134110407695e+00 1.120618356775673563e+00 6.783038403207838352e-01 9.534594829421738291e-03 1.466122628213637258e+00 1.004135956184097067e-01 -1.389348272379054672e+00 -1.725902126597048003e+00 -6.639667298467479384e+00
7.463743003301595569e-02 5.937304455013647786e-01 1.486348525357770178e+00 1.510319312760745269e+00 -1.452515151500283874e+00 1.805932501480538299e-01 -1.057798276064438880e+00 -2.056036500161899205e+00 -1.613710566331300056e+00 4.573203479023678630e-01
8.857443639043394157e-01 -5.210244477327055090e-01 -1.121249469053005599e-01 3.798395890782629847e-01 8.501634055498963338e-02 1.024902316007020531e+00 2.172374475630004242e-01 -2.563291653800736203e+00 5.531055357808726258e-01 1.822608954921436097e-01
1.421113053368669554e+00 1.553910946236817914e+00 -6.653101496832917183e-01 1.151465807940674102e+00 -1.011507315881376323e+00 6.410111411246567359e-01 2.045046845059511842e+00 -1.917662320308782142e+00 9.317986433501238563e-01 1.140473398317594311e+00
3.453370520582243475e-01 3.049017913701790317e-01 6.183262590782211410e-01 7.805781614642277599e-01 -2.979293146910224066e-01 -9.742655489369020927e-01 -4.022912892289770004e-01 -3.228212742829759119e+00 6.592705570043344565e-02 -2.119058127573021644e-01
-7.369947340026111737e-01 -9.526930346259426807e-02 -2.959183271986128277e-03 1.848351287929833164e+00 -4.212448674950696609e-03 2.208487148849211101e-01 3.896736202399032466e-03 7.927503167809715201e-01 2.207520558596896137e-02 -6.897959960091762377e-02
1.332245671652853292e-01 -5.312758037242593795e-02 4.378464875965188720e-03 -1.530717950790255466e-01 -1.512737387932918700e-04 1.921049442825505105e-02 -2.471081334872902383e-03 4.333648944217967369e-02 -1.579542925852659048e-03 -1.677654409787078874e-02
-1.164829365864879396e+00 3.494804206241873268e-01 -1.152563021345261347e-02 8.253273353220687003e-01 -4.330949508689601463e-03 5.288178212619548679e-01 -8.826983540395532193e-03 -1.426233076578525827e+00 -4.011087892866582044e-02 -6.570679327684605421e-03
1.204138121367193337e+00 1.122175988596459062e+00 1.246484775458530682e-02 -4.274125737293814176e+00 -2.241842787233912573e-03 -1.235772213767828559e-01 -1.647029015283784162e-02 -1.917456356088709901e+00 -9.101624430132740362e-02 1.194094640160009435e-01
1.129981240590978597e+00 -1.385052898154687795e-01 2.873697275671232079e-02 -4.661033233194815106e-01 -1.813361053350439844e+00 4.757695196571660734e-01 2.152531616005581849e-02 1.233620724645256572e-01 -1.863940559055131396e-01 7.734840503755105977e-03
2.129583298699419536e-01 4.152822086905174626e-01 1.229643702901080382e-01 5.211821322163590064e-01 -1.340806004259388895e-01 -9.896784053582766694e-01 1.757671341536572729e-01 5.446259146941035550e-02 1.290914269274944459e+00 8.238053337093301787e-01
7.229551867364837348e-01 2.845448444826067291e+00 -1.712502586413843009e+00 8.569078508715658460e-01 1.084393941209914856e-02 -1.873384786619351206e-01 5.982398662663151664e-03 -5.122349215808669420e+00 -2.748887248045822629e-01 6.802159163711039014e-01
-1.447776030954473492e-01 6.392517768762921715e-02 5.721077336546119725e-04 5.765636313511610656e-01 -2.427716366135682438e-03 8.963798932158446864e-02 3.681370985202316211e-03 6.338874368448738084e-01 -4.801331928616879401e-03 -1.985163429523010073e-02
-1.895944468966241289e-02 -2.229214604546904399e-02 -1.363869659943773649e-03 -3.501038678743922383e-01 1.259975179324021761e-03 -7.336514608057323819e-03 -3.546795559531760057e-03 -6.627137223118082510e-01 -3.597499283567150326e-03 1.508320170277915873e-02
-4.883819041310637488e-01 -2.356271444628165845e+00 -2.218878108231558954e-01 -2.377678745595476484e-01 -1.674343337658825148e-01 -8.343615354918221261e-01 -1.096412521635016860e-02 2.155120365742267730e+00 -3.909412976487528724e+00 1.801635933371895648e-01
-7.368620679357204550e-02 -6.854903308582269844e-03 -5.821626145136704188e-04 1.980095253822930779e-01 -1.412407471761960298e-03 7.990295742908896937e-02 3.759284587344880412e-04 1.086550855501576263e-01 -1.352653030359518387e-02 -6.117341407587420510e-03
1.944357705637789202e+00 2.467825921840107295e+00 2.839761073159694948e+00 1.903423123359469393e+00 -3.087945576831105376e-01 2.437692164847654386e+00 -2.485486265908513293e+00 -1.887317199636422416e+00 -3.744640526748779052e+01 -2.383907348817789984e+00
-6.120641823970651707e-01 -9.233091901395049206e+00 8.968345282670076024e-02 -1.770132814024069301e+00 -8.342553810838859718e-01 1.974334244319849940e+00 2.390632613285746666e-01 1.132004256306498036e+00 7.805596366757350246e-01 5.525426981818098993e-01
6.639330489963317650e-01 -2.494956223072879453e-01 1.461027888608250856e-02 9.452025111317097217e-01 -4.373009310574314280e-03 3.114174084972001766e-01 1.276687123312834557e-02 3.092953353199758837e+00 -7.659144628314261405e-02 -6.684353173036049200e-02
-4.116709705872458880e-01 5.448366856787740353e+00 -1.918780034542012791e-01 -7.624678368506502268e-01 -4.239705133272582138e-01 1.529436675490535025e-01 -9.382610307728408983e-02 -3.433959111017502175e-01 -2.483512991035908002e-01 2.895510780005988161e-01
-3.980547988809106097e-01 -4.137805917555206769e-01 -1.078954213996646122e-02 -3.480263455019532159e-01 5.332591249014627735e-03 -1.147717323193254112e-02 -1.181863900921315338e-02 -2.336320727223809790e+00 2.027229034860799153e-02 1.051806153134229437e-03
1.623133428225723929e+00 2.143345370158785457e+00 1.675981270169474513e+00 1.742971077770583355e+00 -1.186455474002600513e-02 -3.986552982006145163e-01 -5.493607420587229839e+00 -1.245905954356202772e+00 7.177825524831024095e-01 6.314267420041427270e-01
-2.846681517028160947e-03 1.262162311163051442e-01 -2.006706837405724652e-03 -2.160007161990973867e-01 -9.481218853923979593e-06 2.358094679744937028e-01 -3.475202659951125150e-03 -1.649108629256123282e-01 -5.929521206055345106e-02 -2.437315097808138552e-03
1.461215329991607526e-01 4.848842866866299728e-01 3.368426795965314691e-01 2.500960784255069624e-01 -5.026575731462734620e-01 8.937650626617246186e-01 -2.181794992589457249e-01 -3.562311596534923908e+00 6.947117601440100029e-03 7.284848070235659667e-02
1.337461077693023470e-01 1.650743929963460532e+00 -3.760109307540444035e-01 1.062801140417451107e+00 -9.629378512037217730e-01 -2.974251976675602593e-01 -1.151416277376572372e+00 -1.039688811982593553e+00 -9.889291714752149742e-01 2.562078911213760968e-01
-1.143466963388911628e-01 1.536156799601463008e-01 3.605155451625224709e-03 1.135312177557487257e+00 -3.324176700348499113e-03 7.486309144307060626e-01 3.214659600152542165e-03 1.815758822385379556e+00 -1.493675168959062993e-01 -3.615536267902349360e-02
1.137228934917481782e+00 1.491839871471253964e+00 9.117885766093759559e-01 -3.195094889016306117e-01 -5.998752746972365602e-01 -3.189399692322075208e-01 -1.503115667490010354e+00 -6.710071496226402976e-01 -7.675096219822700183e-01 1.565770500360676554e+00
4.280665347839439860e+00 7.730981528972351580e-01 -7.211492181266897228e-03 -4.766053290241781953e-02 -9.228573382714265472e-02 -2.194698306920670472e+00 -1.113267006026759931e-01 2.622428321858769062e-01 -2.084123079198216377e+00 7.183697056960877125e-01
3.756511704689822206e-01 2.802429128756643184e+00 8.454064132486238670e-01 6.166361014975100252e-01 2.565302397818995939e+00 -2.416110409636834377e-01 -3.963425579501609480e-03 -1.000135278491761426e+00 -1.932050205363208123e-02 1.516127324767596596e+00
-1.043749293547359229e-04 7.663320798197104274e-03 -9.826446037468383743e-02 3.367550572077351867e-01 -1.971305115583469048e-01 6.420845737753723415e-02 1.025550793812443212e-01 -4.704487557415423238e-01 2.964428810460291164e-01 1.619717893646150042e+00
6.082086287044052852e-01 1.869326708273137072e+00 1.109776836001754141e+00 2.724290350353097523e+00 -6.964612915328733944e-01 -5.003345954682027891e-02 -1.806495331098477042e+00 -1.496132603301950414e+00 -4.316377375538095751e-01 1.419116223226146278e+00
-6.035277283569543544e-02 -3.726901048163331898e-01 4.820593865339975860e-04 2.834128618490730500e-01 3.479320940795062669e-03 4.194772403996144816e-01 -6.818902379988131188e-03 -2.353180304015693725e-01 -8.776755406767143552e-02 5.665450349184907378e-03
7.003148657764668439e-01 1.589425130149686227e+00 4.714647508335514381e+00 1.208350543826432366e+00 3.767845001683975403e-01 6.890118891145685653e-01 -1.929333536954518369e+00 -1.041108645845046032e+00 5.636177242136820864e-02 -1.031932748420789192e+00
7.256477339387101821e-01 4.812969551563418547e-01 2.235352215492083516e-01 1.021944288605526774e+00 7.964599587722944740e-01 -1.955005426069342578e+00 2.241961752056486623e-01 -5.431129416466325965e-01 4.439116456107491393e-01 -5.414096152346232343e-02
3.102771073325372719e-01 4.114175911934747076e-01 -1.326716531509660457e-01 1.453546850435271931e-01 2.730336421643768663e-01 -1.750346434485205327e+00 5.450828070379244439e-01 -4.910177700299894199e-01 9.659600655233095967e-01 2.297405463397850511e-01
2.728174217322710260e-01 4.423187115044134865e-01 -9.719714591326786279e-02 3.975946222551111631e-01 2.509913842618695101e-01 2.443847682471318450e-01 5.990696499104191108e-01 -3.357843908802599642e-01 6.567553447622831442e-01 -4.891589289335503965e-01
6.766225071815406444e+00 3.966942999511151147e+00 3.759211475100624700e+00 5.223297778767292066e+00 3.009954510519058601e+00 -6.201241799237794394e-01 -3.956221669079142966e+00 -3.437210478871517871e+00 -3.139702111271283513e+00 5.776036461174171563e+02
1.294967683371738010e-01 1.806306325179839189e-01 5.560807394380231673e-03 -3.755247092736190284e-01 -4.012469015736248520e-03 1.893906984273387439e-01 -2.901545649230702351e-03 3.365477096762996972e-02 -5.479270496688211367e-02 1.585516162167452739e-02
-7.447885958309499177e-01 8.461172214464475205e-01 -4.468420600108076804e-03 1.022220654385602029e-01 -7.796068977845215138e-03 2.263724743020523733e-01 -2.840211878735918270e-03 -6.873163124367699384e-01 -1.790055055678691290e-02 1.268195188563479327e-02
-9.341475452184599959e-02 9.656042579510659696e-01 3.742142721218703200e-03 -1.151595253160186405e-01 -8.899264012250426847e-03 7.781593958742757944e-02 6.154851271293285825e-03 9.855473437863343511e-01 -1.915548909534594765e-02 -6.656009332645298517e-03
-2.994729131912633457e-01 -4.357408025473435309e+00 -4.840442260271180519e-01 -1.202678786144295853e-01 -1.880689505812574713e-01 8.771914042933037781e-03 -6.133031831450331817e-01 1.011177580080605543e-01 -8.306814919446562362e-01 1.783447406524842460e+00
1.216127341675621532e+00 1.018634119762828472e-01 2.994014224230294174e-01 6.261645321075766379e-02 3.256897802059007807e-01 -6.692490459790641222e-02 8.758507027069725726e-02 7.830521582322233498e-02 3.733364190718219122e-01 9.712937790145156347e-01
-1.122971029639528773e+00 7.442410559800914926e-01 -1.128294074867858959e-02 1.088066769518731380e+00 -8.287196990462422294e-03 2.870789098421632768e-01 1.743908635270841100e-03 -2.975875811967038098e-01 8.268863448076689462e-04 -1.966929932994317815e-02
2.653028098055976614e+00 -2.490117729913358113e-01 9.644871439173208216e-01 2.679083503597094462e-01 2.172938462238983792e+00 2.146466431825274843e-02 1.278149040421630023e-01 1.699589368406972945e-02 -7.847678220079619127e-01 -9.956971423953807632e-01
8.682733007117336699e-02 3.714524525476835537e-01 2.245191804453771506e-03 -2.833980201117454190e-01 -5.622471057566331455e-03 9.944533172465833126e-02 1.457907197058588454e-03 3.402307027103965709e-01 -3.347037008822540544e-02 3.021060731974813552e-03
-7.878062567315831377e-03 1.362698524656919263e-01 -1.621687615878054033e-04 -3.422353304566150278e-01 -3.531707266345700518e-03 3.145268508937718588e-01 -3.853259659156454617e-03 -3.636411004775317868e-01 -7.360256301144890712e-02 1.289155457096828085e-02
8.072406922574981714e-01 1.560431719491434110e+00 -1.667911203274716550e-02 7.132971167444221994e-01 -1.472745437183330675e-01 4.988076996674581487e+00 3.785506664849406788e-01 4.385602268092942402e-01 -7.270635050048149806e-01 -4.834460087447506327e-01
3.684906587700306074e-02 6.823289406927849354e-01 2.019261263318629027e-02 6.344981207612760965e-01 -1.249107176419902654e+00 2.457376317016911060e-01 4.020105147947739543e-01 -1.234799332811431852e-02 -1.408986520988682600e-01 -6.024863299684533186e-02
-8.049433835950392177e-03 9.647918102377620042e-02 -8.140819696203507264e-04 -4.043699531364414873e-02 -5.938689822941109605e-04 -1.794321168898359298e-01 2.358644687240557883e-03 3.099320080680708495e-02 4.558612959579849688e-02 -3.451811291895927336e-02
-6.481967799357103016e-03 3.108970697739845551e-02 -1.483984867051132538e-03 5.245875425136520276e-02 -7.077723756289865326e-04 -1.176484474707847477e-01 1.626427485671453526e-03 9.738624728549331866e-02 2.686638223693487912e-02 -3.084548186014626769e-02
6.965614692042716438e-01 1.267076206457104837e+00 5.343568775872923997e-03 -2.613230877022755472e+00 -4.077414432630434640e-03 -1.945452942718326195e-01 -3.537368253620444460e-03 -4.326818866821059428e-01 -3.639694546779369960e-02 4.806680031182567620e-02
3.783086179818954342e+00 4.503302695091100816e+00 3.525289872809090674e+00 3.833967033382277290e+00 2.139780275578132829e-01 2.173413172003347160e+00 -1.332842665147740746e+01 -4.217355431989524561e+00 -1.819384960595227696e+00 8.954423745868119511e+00
2.241028588475730832e+00 1.954384668794173274e+00 1.263022683919790445e+00 1.774955835579055119e+00 -9.691392041214459852e+00 1.563605549160603125e+00 -4.356278676372945524e-01 -2.151612010597732993e+00 -1.090382653854024220e+01 2.603754591776176852e+00
-5.640685867526331609e-01 1.050899649970719052e+00 2.960510872379195756e-03 5.437373310216085665e-02 -2.457818076706387231e-02 6.245209347926700127e-02 4.471243213211598677e-01 -8.003775513828583765e-01 -9.316698555772040535e-02 -1.796336453791221033e-02
2.062993433157420953e-01 2.496233460361422518e-01 1.197049373053346620e-03 -1.098242932040654596e+00 2.128368891277542061e-03 4.664283574544438316e-01 -9.876122941083451817e-03 -8.107512471281301814e-01 -1.395702768591215448e-01 4.532755167480791159e-02
7.586282941490437581e-01 1.066657789677028179e+00 -5.651085502492990686e-01 1.221291844348234346e+00 -4.926474401085685906e-01 1.448111724138020140e+00 3.475747150622077730e-01 -9.071690161572131261e-01 7.340587163691132677e-02 2.275398025406779878e-01
5.937258093583366314e-01 5.357463220777168855e-01 1.153239906925979108e+00 1.315707741908823891e+00 -4.195222395114610592e+00 -1.053778796116345617e+00 -3.818566990092175928e-01 -2.531350809610730224e+00 -7.048948286655163376e-01 2.311835097436936159e-01
8.932432825891156725e+00 1.293119043891116782e+01 7.468966651466476492e+01 1.248673502941385394e+01 9.627692717033225378e+00 7.886189413451467622e+00 -1.173419420397514656e+01 -1.233666257302739311e+01 -1.182656509404705858e+01 1.220243910991989900e+01
1.879863867193233790e-04 5.276705701331274589e+00 -1.798124209937035367e-01 2.210303257237967056e+00 -1.808821979964383875e+00 -3.283414345981957028e-01 -9.208399105993657352e-03 1.080640635692190710e+00 -1.802805280136141053e-01 3.555095578430274017e-01
2.055324106244675875e+00 1.931988401063118754e+00 6.692801915782194966e-01 1.825790279525030257e+00 -9.541704255738943097e-01 -2.444485917686664234e+00 7.447228102680223394e-01 7.579961011225217149e+00 -1.372935438389093710e+00 1.056748972126690056e+00
3.647946640525358220e+00 1.503615962640784343e+00 -4.308219025103198874e+00 7.659058603937944909e+00 -1.434418724512350529e+00 9.526651205008234147e-01 3.111069347978868693e-01 -3.387266607476581814e+00 -5.473822050826222529e-01 5.096024072429470309e-01
-2.916703465297994402e+00 2.997836315855105571e+00 1.272875341263521864e+00 3.385092231661244622e+00 5.519414691530437345e-02 -3.822012655702297090e-01 -4.406117662431441317e-01 -3.671978564141313850e+00 3.349599193055161767e-02 7.859957668313386492e-01
1.072959447104585795e+00 6.223938396741049983e-01 3.580593879851416417e-01 -8.705317560095190976e-02 -2.450560396688205023e-01 3.749907962595628308e-01 -2.344825242009817845e-01 -7.096328989154666589e-01 -2.997949480938456035e-01 2.947625979975938559e-01
-1.207939660712443845e-02 4.248158585611915006e-02 3.423775281876990494e-03 -3.479137120727485849e-02 -1.376258204817454008e-03 9.740153167965356906e-02 -1.575372515901354419e-03 -3.038566483568376150e-02 -1.157572272923756973e-02 -9.057339353509927249e-03
2.819133837573177370e+00 -5.313184868902677271e-01 7.812089813967497243e+00 2.512215948102108243e+00 4.995796792543466536e-01 2.583508652306304665e+00 -1.330577026295060916e+00 -2.779170842980967837e+00 -3.357482365926547918e-01 1.951972490395530446e+00
8.264071768725175238e-01 8.331638232044881187e-01 -4.734880414653280245e-01 3.534251766389730903e-02 -1.291441489939989307e+00 2.299551013668108990e+00 4.929137102470634302e-01 -1.642962240593074386e+00 7.254948247011712148e-01 7.071793611103102117e-01
4.573724416090588996e+00 5.592431251689321536e-01 -1.915571002945420098e-01 8.685883176204961531e-01 -3.671100145443456642e-01 5.627648784644673219e-01 -1.076828711200494393e+00 -5.273773066907760931e-01 -6.295372055339492068e-01 7.905683688044684576e-01
2.543846946271394405e+00 1.339798268839190731e+00 4.918009620212480115e-01 1.839464452074213163e-02 -1.577000154413391031e-01 -9.771483368433409727e-03 1.680389760753465134e-01 -3.492600073805265937e-02 -2.819100091899740868e+00 -5.339415412999757748e+00
-4.160588574224128422e+00 1.086728307949067940e+00 -4.208512283284851496e-02 5.878576816214549083e+00 -2.063730713809817582e-02 1.076659442196772565e+00 8.061913889973078284e-03 -5.528445429254478238e-01 3.998839051315385140e-02 -1.156737256286416854e-01
5.072402621238800702e-01 -9.826580546577493580e-01 1.084417819273537420e+00 1.245100017702737372e+00 9.914246225432826520e+00 1.165012262097626428e+00 2.854745725900237341e-02 -1.161026443013516873e+00 -3.226825683393625410e-01 -8.356702254228605131e-01
-5.138737758493735694e-03 6.939088125946285893e-03 7.946789158474486031e-04 1.594145848535283849e-01 -1.288213165278743891e-03 7.028190289276289859e-02 1.172928074568604928e-03 2.614086257461270546e-01 -1.485450032359284835e-02 -6.673892162375217284e-03
-3.373348950764603060e-01 1.808297506504774166e+00 5.861580290328768754e-03 -2.043263935962122413e-01 -7.669154763831788069e-01 2.120795493577248558e-01 1.631914182130431851e-02 5.135170898071552692e-01 -6.047186465999718208e-02 -3.070166320525632118e-03
-5.572494009100673225e-03 5.379024277230982920e-02 2.463989131814943922e-04 6.727484729505786879e-04 -2.807721229233909634e-03 1.428537142461947518e-01 -1.034270469833406639e-04 7.260479680363526866e-02 -3.260671729121886186e-02 2.008962386313283867e-03
8.968772178295841835e-01 7.685975598761540795e-01 2.775056587403541483e-02 5.652979838676099877e-01 -3.630199387210545581e+00 -3.711026209043247981e+00 1.580990734287999744e-01 -1.350245632660141970e+00 4.287514413382548462e+00 -3.123347897580212515e-02
4.787209970283542226e+00 6.716472349745788994e-02 1.981724952258762384e-01 -1.921117643621687243e+00 1.052793776867054110e+00 8.839075315976450131e-01 6.131727441530679945e-01 -8.564325040699274916e-02 9.591033727173814416e-02 -2.243006039236728755e-01
-1.928183212399379662e-02 -2.044581014406354202e-01 -3.091574819102603164e-03 -1.182490963353861751e-01 2.364782217374529136e-03 -2.117890428357797894e-01 -1.274822758547729437e-05 -5.783180168740877924e-01 5.612273574945509519e-02 -1.792655974096801427e-02
-9.034299349839895743e-03 1.782197105901321410e-01 -2.216324494948083371e-03 -2.906102862040333967e-01 2.110016209074413421e-04 -3.441410106325820673e-01 2.365671238082977124e-03 -2.722247466482208278e-01 7.879188919709535777e-02 -2.481077261180532345e-02
-2.566589699812606498e-02 2.436232278709720145e-01 1.318603053019091163e-02 4.674748294555079453e-01 -2.990894232654659965e-02 -5.339378305639498334e-01 6.223032194128969019e-01 -1.521310676506761883e-01 -1.137014011175150469e-02 -9.037384918389741728e-02
4.181409378944217492e-01 2.316563171589251791e-01 5.407112128297496545e-01 1.025906715915247291e+00 4.165547191010281480e-01 2.632027363425731847e-01 -4.733018762475258434e-01 -9.474298314340602323e-01 -6.668474306002661889e-01 3.151406469400230316e-03
3.699191341394238997e+00 4.179777785160355918e+00 -5.068674342245428344e-01 -8.796598001443496351e-01 3.077143499745567667e-01 8.643352242457790213e-01 2.923194413216642751e+00 6.354622857806079272e-01 -3.666861291673633172e-01 -2.360264531687937262e-01
-1.717355486400810927e+00 2.389575571128248199e-01 1.570066253720218574e+00 7.970305322284353622e+00 -1.964459122971488336e-01 2.814546054183533208e-01 -8.278354035527002441e-01 -1.703816308005816071e-01 9.750737364856832956e-01 -1.950634537856364148e-01
9.779995867581241953e+00 1.604700801972308577e+00 8.097581477995461352e-01 -1.586571075670172304e+00 -2.026633716320566103e-01 -1.169217639846291457e+00 9.110049034110750954e-02 7.692097018933723163e-02 -4.658636929491805079e-01 1.671727528868042656e+00
-4.204050846906781103e-01 8.152262536414689009e+00 5.539119899319278062e-01 -4.060562154205175217e-02 2.665791083864624267e-01 1.148750133357998582e+00 7.283429530603968693e-02 5.732592517947121546e-01 -7.921183544612961369e-02 -9.868830242103752981e-02
1.112163851211093935e+01 9.274943054440415446e-01 1.774201895305790089e+01 2.010139128924929963e+00 1.256342711704331538e+00 7.984222129773104193e-01 -1.524538554959056880e+00 -1.271269227380921851e+00 -1.523747610141460429e+00 8.394677599019331193e-01
1.137985406777525466e+00 1.090680790261131738e+00 5.491520392714706045e-01 9.030520438206568468e-02 -4.223638772075161696e-01 -7.450826277088844485e-01 -1.162664714938188293e-01 -1.937244130599464487e-01 1.466343186693976230e+00 1.366025119955232847e-01
9.735068227097273263e-01 2.660447982574581705e+00 -2.324951465039701293e-01 1.331125697525912699e+00 -7.566252201512604358e-01 -1.866504696435491162e-01 -1.021057049710442088e+00 -9.835863816517272928e-01 -3.597331916455295819e-02 1.078357128263011555e+00
1.565923632601334248e+01 1.527600549434852262e+01 1.420814025856027385e+01 1.533066717566509674e+01 3.188716879622969600e+02 8.993855981440733061e+00 -5.005644914360264153e+00 -1.524139508841707347e+01 -1.528244221187354768e+01 1.450800031236542154e+01
1.156699103961107866e+00 1.077890367628695723e+00 2.735165220147303788e+00 1.516899923390901739e+00 1.041160154816236583e+00 1.046928737896076322e+00 7.183664752531186970e-01 -1.336399131731212941e+00 -6.615548310945849053e-01 8.350515119090312632e-01
2.097140661304017217e-01 5.493950563654387276e-01 3.039641044476588255e-03 -1.069412150745586043e+00 -5.450723361644252939e-03 -1.856346634361524250e-01 -1.576954986534767058e-03 -3.593681832532375497e-01 6.471334000111317666e-03 2.099771939207912413e-02
2.239176811357840580e-01 -8.226613529503870481e+00 3.582423441399450459e-01 9.059940269301017257e-02 1.731496317323838185e-01 -8.056737669175970673e-01 -4.995267084268675273e-01 -1.016293160464057724e-02 6.304553766083719202e-01 -6.733198709189346376e-01
-2.119049712521536399e+00 2.142776625206540775e+00 -1.922524534333833884e-02 9.582156159512020821e-01 -1.833125284966493837e-02 2.009420175127768493e-01 2.271554221556697749e-03 -1.292372933834351700e+00 6.925487966889729008e-02 -2.067596998015621551e-02
-6.927359628401458247e-01 6.906138351117107055e-01 1.489240759071122980e-03 1.751712487036665711e-01 -1.652256149928142681e-02 -1.968197398910075113e-01 2.952372151834039005e-01 -1.246624755877749013e+00 2.746171335702837779e-02 -2.301907943846013757e-02
8.364475092837165837e-01 2.885786857692261287e-01 -6.681111947100356607e-01 1.347887267076322892e+00 -5.756290956757107447e-01 -9.074229136489619929e-01 3.431035777329077829e-01 -5.407026285287519496e-01 -1.202097350050850277e+00 1.429335814569683727e+00
-4.556754593607696413e-01 1.906104937773968333e-01 -8.144789089670678370e-05 6.198446551987182307e-01 -5.751195121883541199e-03 4.350293472173356046e-01 -8.945023581141050293e-04 2.557062113394359057e-02 -6.723440508589703657e-02 3.920590544086294954e-03
6.904763207794547553e-01 7.677022005610316668e-01 1.049104310937716500e+00 4.744915796859815460e-01 1.228763037945196857e+01 -9.207167109468844535e-02 1.746796886627124679e-01 -2.527422917858070761e+01 -8.680802892355768963e-01 5.939338765703299217e-01
7.838310621987093496e-01 5.003485690164535260e-01 4.040274116938738835e+00 3.143998699246692285e-01 -1.573421185162822145e+00 8.002716667558704700e-01 1.934703758419517028e-01 -8.563553881741740037e-01 -1.340407542310106770e+01 2.755927957152874974e+00
4.615299535811931420e-01 -5.242411675021121376e+00 -9.009549074854511508e-02 5.217502877985117360e-01 3.067511645051708147e-01 -5.296873171209701137e-02 -3.640653000494187275e-01 5.107081956719322413e+00 2.668991205741388928e-02 -3.671664809850448963e-01
-6.182537527911422526e-01 1.892549681633786562e+00 -2.733096709547700506e-03 -3.265138313397996650e-01 -1.462230968340054969e-02 5.413693977693659343e-02 6.774773577997786345e-03 5.163622670464732556e-01 5.743873789051112677e-03 5.975066084707748859e-04
1.016113691604764391e+00 1.554007921488295363e+00 6.541908497742813244e-01 1.166217547694612389e+00 1.462993867703050177e-01 1.144196977975632912e+00 3.646933760142706316e+00 -9.134969143623293819e-01 -4.129383761425815536e+00 -6.947008914587154749e+00
2.271850786129227945e-02 -2.302806820309743485e-01 3.970001746987356756e-04 2.021668403878527365e-01 3.820006664803404957e-04 8.644578133835588429e-02 -4.627588014403100211e-04 5.896881335919686856e-02 -1.756679792370460791e-02 -3.255724693399493844e-03
-4.860697726569227612e-04 3.702784862833753687e-02 6.198263023181297023e-04 1.210377551688900100e-01 -2.696654937001323471e-03 1.401065972158857531e-01 1.200174593671822672e-03 2.597688256297754905e-01 -2.966036629306896544e-02 -2.127252739401893494e-03
1.164611932603314276e-01 3.887342933069559692e-02 2.674714841367535016e-04 -5.495283768760672594e-01 -3.544697906882398686e-04 1.594544921474842225e-01 -3.200162775524645255e-03 -5.050081411071530857e-01 -4.400689359282736884e-02 1.975796244275161359e-02
3.766271412224489641e-03 -9.579696441646794181e-03 1.430942754682981786e-04 8.322344905149500760e-02 3.501073752580465340e-04 3.419822441939036027e-03 2.952640265058713558e-03 1.236540938082547336e-01 1.104951847777624341e-02 -1.530385318897148003e-02
-2.813902404684191505e-01 1.452162542585189842e+00 -2.917470181696110547e-03 -8.496387022561664448e-01 -8.893746958467363753e-03 -4.354125862186036255e-01 7.814972509874383924e-03 -7.848556385264382484e-02 1.015003208554588338e-01 -8.534266818568151183e-03
1.390641276973278551e+00 1.823631720036532622e+00 3.785050278080075992e-01 2.254368115402449302e+00 -5.399675208150435113e-01 -1.969489329885454887e-01 1.552571208936865288e+00 5.613719916155840650e+00 1.534316533673476091e+00 1.620196675710723344e+00
4.445789186917789237e+00 4.711680981847778504e+00 8.687115239323764726e+00 2.374209852379070895e+00 -1.148946032368416692e-01 2.188421897132893257e+00 -4.895743846772840691e+00 -5.364326432981500581e+00 -2.029192656532837091e+00 1.074244716821101520e+01
-7.959728418992818577e-01 1.173816556770309738e+01 2.992953674115951812e-01 4.273365209831751499e-01 4.740891050380003670e-03 1.941317977457533317e+00 -2.304000698794877178e-01 4.202510679686050077e-01 1.627636446795641956e-01 -4.267744488713310913e-01
2.135097389336605644e+00 2.458926165781827877e-01 2.945846108245884776e-01 2.154598511222826362e-01 -8.088290497516419375e-01 2.415073454845537704e-01 1.096641199242009534e+00 -5.838747191734999120e+00 -1.315518112846592591e-01 -2.926255788705310334e-01
8.515450193907259546e+00 1.056975303827616131e+01 4.724627102305212212e+00 1.020150154261192021e+01 2.173844738760199125e+00 6.574084652442417465e+00 3.028845502297261660e+01 -1.076187101593456497e+01 -5.331112586223197836e-01 8.293797992118134843e+00
1.083519490119055018e+00 1.162185517351849207e+01 1.189558170410439875e+00 1.680696499716757719e+00 1.768070442086080218e+00 -1.222712382299677991e-01 -1.099514454074951852e-01 -4.762911589593672446e-01 -1.319605108636770219e-01 6.537552024819136420e+01
9.393476123460734462e-01 2.567727381751249149e-01 7.598030358163014586e-02 -1.686980319856901459e-02 -2.371845418353640600e+00 -7.696543679341914801e-02 6.516553271185482332e-01 -4.410857645221127221e+00 -1.376215197956387297e-02 3.202897520869957271e-01
-1.448214366740062931e-01 -1.650718225734210953e-01 6.555052127427866233e-04 3.717354437387716537e-01 8.568517666491844023e-04 2.993291951666812722e-01 -2.410715086212288083e-03 -3.252120297528849485e-02 -6.184189086905999416e-02 -3.640634386825691935e-03
4.470705077153410478e+00 5.299585098657851212e+00 1.775747256919517980e+01 4.828456656156580706e+00 4.790832320401397837e+00 3.395611023447185683e+00 -2.061544682824936192e+00 -4.578482591698604942e+00 -3.859016259021827988e+00 3.743655148842579994e+00
1.570246791457696078e+00 1.858516843141827524e+00 3.037914887873823577e+00 1.116667847146228576e+00 -1.860154909403039514e-01 1.689032102169907956e+00 2.741582253449426632e-01 -1.383529755306325937e+00 4.775807313016267486e+00 2.996725920589999870e+00
1.455006413859745784e+01 1.524984731238688163e+01 1.459400482426664070e+01 1.512641617896301227e+01 6.639292228131898899e-01 1.358267685783431844e+01 -7.271901926376074243e+01 -1.528687169075523400e+01 -1.395305359863727901e+01 1.479366887436336420e+01
-3.191136649436320805e-01 1.992000591709496560e-01 -1.780814865482470552e-03 3.846408348255074827e-01 -2.925547241657239922e-03 3.379654091866749477e-01 -1.298378043989281824e-03 3.522079399900503865e-02 -6.607337234645092872e-02 3.383143182530285072e-03
-5.756473935468150449e-01 5.575320000441645885e-01 -9.533493176215912523e-01 4.844889567443995126e+00 -5.621120980966157754e-01 -3.102193098934203919e-01 2.571898335952535475e-01 -6.623422550605229109e-01 -1.500683223810225231e-01 5.820028958936829255e-01
1.846901855206024123e+01 3.298601095664094318e-02 2.190515720496734597e-01 8.882352447318093702e-01 -7.636940530180664766e-01 -2.290828392962313220e+00 -3.187104362438610283e-01 -7.797356994149747811e-01 -6.836381020104631556e-02 -5.368685703747039240e-01
4.702377671442013463e-01 6.282428417881520399e-01 6.865598842848904537e-01 5.027919090809341851e-01 3.484265612021751335e-01 5.370116164291871552e-01 -4.290872799133182980e-02 -1.041144257511689375e+00 2.474441268994084786e-01 -2.469814758402169463e+00
4.272472550297667482e+00 -2.393680671714824904e+00 -3.232409558445650810e-01 5.044208223392974144e-01 -8.862844385891893717e-01 -1.954720803561803277e-01 1.347623325400872485e+00 -8.748497644406754148e-01 -4.820337956299582225e-04 -3.742524520844315639e+00
-4.571072837091931795e+00 -1.588111093802536367e+01 3.737419213812744750e-02 7.464402518729873481e-01 3.067939412782419772e+00 1.488403161405166264e-01 -3.008239581559732922e-01 1.628313577971407522e-01 3.299868015868899218e-01 1.996888933786983567e-01
-9.796508013923703739e-01 8.793759551024389332e-01 -7.894381878798704608e-03 -4.082830522644928517e-02 -7.806700676009567519e-03 4.717503561608150653e-01 -6.964188367502000682e-03 -1.530271760194096053e+00 -6.325578903382785001e-02 3.972198499658797372e-02
2.831351837130385851e-01 2.925866413760467855e-01 4.267175094041237432e-02 5.990763988792909833e-01 -5.973671309538091528e-02 -6.468073738664145145e-01 1.369382852791266370e+00 -3.976466658884261762e-01 -1.394348581302937151e-01 -1.122570491636191020e-01
4.209895308040081940e-01 1.237799265405947757e+00 -5.986006160591235137e-01 1.727894449937080523e+00 -7.832522259835260625e-01 8.394309893394491517e-01 5.103871836865881972e-01 -4.666756355473055673e-01 -5.523094145385790688e-01 1.155089501276467034e+00
-2.305186699296348993e-02 -6.191029720021205135e-02 -2.455511908478055002e-03 -6.811338505755523132e-01 2.695506119694617356e-03 3.164919119029500905e-02 -7.514991387057506217e-03 -1.274537524693643675e+00 -1.796416265939617882e-02 3.214892534902088345e-02
2.872933984912414696e-01 3.230473461174812513e-03 3.938990423678405579e-03 -3.180646169591770378e-01 3.395859011848890237e-04 -4.611333951095757111e-02 7.552093854309753973e-04 3.007613479104645493e-01 -8.474617320144844923e-03 2.864280790538377246e-03
-3.104336823748015672e-01 8.330215058588620325e-01 -2.238984929559186855e-03 -3.254152386616169790e-01 -6.477622795634332444e-03 8.771301824154800753e-02 4.657743120398055779e-04 -1.771265622922674199e-01 -1.371133838210801016e-02 9.529025039049640253e-03
4.713799946384983897e-01 -3.743908050421139166e-01 3.771905557325347380e-01 1.083587064180424386e+00 -5.117099309952436448e-01 3.715514362268023674e-01 1.940542121612103543e-01 -7.216145667674945807e-01 -2.684691845481672168e+00 1.830424067705536340e+00
4.731901115500963151e+00 -1.447834214533361141e-02 1.102018582221559878e-01 -1.000408400866080960e+00 -7.708415118357027751e+00 -7.582462253959669773e-01 1.333844393234691339e-01 2.582945345843112861e+00 -1.222918576213228026e-01 -1.087689221725613858e-01
5.593690052039465010e-01 -2.431524585041207609e-01 1.489443529722885365e-02 2.782559037361809762e-01 -1.042218243543550527e+00 3.165109328411236933e-01 1.467368650057852657e-02 4.696062497546316106e-01 -1.077486936742497875e-01 -1.393604846809767470e-02
-4.317878674785317616e-01 4.743862384751710293e-01 -3.998876015006876117e-03 4.539850958191593566e-01 -4.331732607252147468e-03 1.910165028404028171e-03 6.556291549544786094e-03 2.066057952600061642e-01 3.397961722255283395e-02 -2.317635112132300848e-02
3.461956873253266842e-01 -9.319203395971253912e-01 3.980197161643628592e-03 1.105393003969161292e+00 5.078875256572758755e-03 -4.357057873914453316e-01 1.262848409655463119e-02 1.376363899685584480e+00 1.081464511659462197e-01 -6.591168607821774883e-02
-8.134902940323515685e-02 3.487648761985263857e+00 -8.205784092754092596e-01 3.420667627110633546e+00 1.497795741944708270e-01 -1.748294654808033866e-01 -2.146945952414812953e-01 -1.001030947942947447e-01 -2.688921703252694639e-01 -3.426013457871197043e-01
2.396234394740002216e+00 -8.543139795878262888e-01 2.550505829775409072e+00 2.334413244671726062e+00 -1.023352881632135780e+00 -3.970072112723305224e+01 8.534685452724142252e-01 -2.911583250812931567e+00 9.219851126053768553e-01 8.577730804136889375e+00
4.789632988779510825e+00 2.475868259396358795e+00 -5.352904550161055042e+00 5.210303857288050011e+00 -2.519341365636375674e+00 2.158657793531643332e+00 2.329142424907251208e+00 -4.964990068457955097e+00 1.039639480740909949e+00 3.374584296922435112e+00
2.561980887013408092e-01 1.191764082015926186e-02 3.961580507628886111e-02 5.266757508198790516e-01 -6.188180024093853371e-01 -4.273419492019396304e-01 3.106400572751225608e-01 -3.857040616136282463e-01 -4.389612236199876838e-01 8.443251579026607168e-01
4.321943922734886034e-01 -5.652106810889141741e-02 -5.147987885975623124e-02 -1.781963150129350637e-01 2.638673466847691329e-01 9.627544485198286095e-01 5.132929416477410856e-01 -6.197478576633643765e-01 -1.008830003982708057e+00 -6.576213287045001854e-01
1.076643979607592172e+00 8.249025703058876502e-01 1.091024339292210321e+00 1.714751715970070922e+00 1.882881149953132827e-01 1.733660171994469423e-01 2.391365812062856033e+00 -6.623942411851886369e-01 6.602365065265832778e-01 2.807334375276628324e-01
3.508773358020326860e+00 4.627011774957734969e-01 4.234703513024973831e-01 1.733045514333245718e+00 4.301091651481155687e+00 2.578712565885615121e-02 1.586136353273598365e+00 -7.424279313852776285e-01 -1.730820416517879837e-02 1.744792673978859954e+00
4.655585173315724967e-01 -2.223877724826502436e-02 1.270042756433236164e-01 -3.374910764906041138e-01 8.144746126315890677e+00 8.544033319538645033e-02 -1.056002443957453352e+00 1.867024992051004872e+01 1.995800399859382068e-01 2.180960058469162688e-01
-7.154051595115222817e+00 1.467083847833791665e+01 -2.503682884303301548e-01 6.322014923335663727e-01 6.119567273728498957e-01 1.710587307491340248e+00 -2.588626110736022001e-01 -1.079494387692640611e+00 3.551596919047281808e-01 -1.409976557213781304e-02
7.620272516741556368e-01 -7.032299377178265198e-02 2.161368361728272999e-02 -6.089441224130699437e-01 -1.503215389332255777e-02 -1.732197948606392923e-01 4.903848686540133173e-01 1.331585844946802377e-01 -1.268426659008254354e-01 -1.067112117837329746e-02
-1.149813791309727828e-01 2.411689147331094851e+00 4.322072705367401291e-01 -2.833713808974611670e-01 2.438919605277905800e-01 -3.367292984420428570e-01 -8.830237179523302152e-04 -3.238951916791642516e-01 -3.135540682092314291e-01 -5.024208269362949453e-02
-1.114927606546091132e+00 1.649499560614433813e+00 2.381909517146595379e-01 2.210353071671456782e+00 -2.601140414478099183e-01 1.403612265995227149e-01 4.044421546222556341e-01 -6.023612830961655451e-01 6.616946263123261174e-01 2.914260716105019355e+00
8.175256357274615637e-02 6.715731208507599304e-01 -3.485784146265858419e-01 3.747945008008540246e-01 -5.369292998491799196e-01 7.634511411083214627e-01 5.115022334680556781e-01 -8.498557813299981722e-01 -8.860624769907194942e-01 1.334838866164014037e+00
1.819820915083644408e+00 3.519599504740968943e-01 -1.202557767971329863e-02 -3.764103638295776544e-01 -6.304958568084627346e-02 -5.976269608374815689e-01 2.518066065828563627e-01 2.030487686920322554e-01 -1.516136156983639571e-01 4.805286009744000331e-01
1.555250515243473908e+00 -2.132684973188972322e+00 3.877651718023212846e-01 1.106147777505679386e+00 -1.145738180129235034e-01 1.573519547243674932e+00 9.469223419023934385e-01 -5.956924528806211150e-01 -9.964559780335495720e-01 2.474745736479111724e-01
6.783132585073038401e-01 2.511786730100798781e+00 3.510482587292633461e-02 2.242655782654848551e+00 -3.246135065896531280e-02 -3.183781683779222105e-01 5.764662426248204352e-02 9.326043970811982220e+00 7.907929311912183235e-02 -1.678934597769239367e-01
1.447175769719245657e-02 1.131345864488710051e-01 5.432180424786631212e-03 -8.313670024346921095e-02 -2.032828114708855674e-03 2.772669230157266407e-01 -4.858402775545881693e-04 8.559004805522311965e-02 -5.431366778390035732e-02 1.796647491150569348e-02
5.731632569037677927e-01 -1.971163744142543583e+00 7.382494184295514475e-03 5.834664125241871835e-01 1.234435141877506491e-02 3.261396236612478239e-01 -7.955925834221453177e-03 -3.179279141083380389e-01 -8.255846942107517017e-02 1.373628090262504070e-02
-2.113237371467368231e+00 1.773172773316082362e-01 6.232586803127664332e-01 4.072652906655504523e+01 3.750338926408013918e-01 1.644400869915566998e+00 4.901685833774610361e-03 -2.080795030832180426e-01 2.395784515508995738e-01 4.231592446624083403e-01
2.143467635857247422e-01 2.535840019786312349e-01 8.286446388469554530e-03 -2.907826893824873027e-01 -3.157630946567725489e-03 1.663585607542420741e-01 8.651283697843019762e-04 5.241846032997079519e-01 -5.690825873537764396e-02 1.265540026148940199e-02
5.535328771347090004e+00 4.540670289140598115e-01 -2.773239594760565363e-01 2.484019502761428133e-01 4.576369129302831906e-01 4.580143019104661595e-01 -3.533113024615709002e-02 6.516748977352376793e-01 2.071675218257896245e-01 7.349250105540883204e-02
