4.956645329627852870e-01
-1.846751480783605404e+00
1.637216977783079397e+00
9.946378859214294321e-01
-2.459674368405804668e+00
-1.537409903195789962e+00
1.706379675638610260e+00
1.947475397645627604e+00
3.819522353557726069e-01
-5.444217392635365416e-01
-3.210247205913599355e+00
-1.532372861701858602e+00
1.750366383907715928e+00
-1.752808267122909713e+00
-1.969741001437829597e+00
4.941737662008858778e-01
-1.173811094599437110e+00
3.379702299948742716e+00
-1.580114582350034880e+00
-1.738578193197482413e+00
-1.532375911528538914e+00
1.588850520741112160e-01
2.540490723981173038e-02
1.534464775008261839e-01
1.017517162680379617e+00
1.727328012464159235e+00
1.539555940711063720e-01
2.578816504288302447e+00
8.379180052942886148e-01
1.130106624173000229e+00
1.266787427895623153e-01
1.269737483785962295e+00
-6.969360266374211021e-02
1.960347231195006090e+00
1.164770984586154912e+00
-1.902971756132426195e+00
-1.214000334320250341e+00
-6.275616671171057037e-01
-9.803506208000851707e-01
-6.381664347011182237e-01
-3.140493191875107559e+00
3.472514429816706105e+00
1.116070194981362285e+00
2.972463025123789904e-01
-2.470554043302978897e+00
1.579593359321274315e+00
-1.167792456519745281e+00
2.132835727594453612e+00
-2.169874286418107090e+00
-2.987034872007028330e+00
3.616426509402831946e-01
-9.457218899104060661e-01
-1.608964152332186259e+00
-1.492329031224933544e+00
1.687736318674564640e+00
-2.241042693878955439e-01
1.049851435872756061e-01
5.078376756771244560e-01
-5.548566810606359034e-01
-1.399291451145057374e+00
6.666748615489579421e-01
-8.523773421253226790e-01
2.903940066830034139e-01
1.221432021441092086e+00
-3.468998100691220166e-01
-1.160964463379716038e+00
-1.250535752938935818e+00
-1.443208101168588886e+00
-2.441330434861988419e+00
4.484057372959237564e-01
-2.748970899764381137e+00
2.939035936995021192e+00
-4.707433493935266888e-01
2.473838238632656950e+00
-2.415500886538284320e+00
-2.854438774949099589e-01
-5.440652520786921631e-01
-8.424876959595948289e-01
-1.065968530518330848e+00
-8.962804650080312685e-01
3.498089978990394644e-01
-5.857968068125862793e-01
-1.889558860799974704e+00
6.733582004593235970e-01
-8.806009302988415666e-01
-1.211868269629328809e+00
2.751870958966160075e+00
3.097759172180478693e-01
-1.786536706817212883e+00
2.367928694327212646e+00
2.453879369593880977e-01
1.841464979464421670e-01
5.360103875120571237e-02
-1.278133288571843496e+00
2.983835030703046454e-01
2.050122066323949444e+00
3.119488949339088713e+00
2.589033992591206701e+00
-6.201738283268336260e-02
-7.382035056902236381e-01
2.604725817594048198e+00
-4.486616450672074596e-01
-2.002195308524408190e+00
-2.329152911817804483e+00
6.414613078200988028e-01
6.311391561982667708e-01
6.070199027936485497e-02
-9.094204460838620774e-01
-1.378945453605813887e+00
1.493546437170551577e+00
1.447285823007850913e+00
-3.339903085071546318e+00
-1.955857165990708413e-01
3.778853345185240187e+00
-1.428874424250335284e+00
7.084064477879045141e-01
-1.893291227718954195e+00
-1.432331140049613455e-02
-1.795479728677590758e+00
-1.211967160108013974e+00
-2.863405720696041712e+00
-1.211041044469267414e+00
1.404605792051631497e+00
-2.124090278047437330e+00
-1.142586157089779730e+00
1.355494657792660318e+00
9.209132025836713753e-01
2.101259421465388133e+00
1.756157874608511804e+00
1.009297053987969095e+00
3.232997702284912567e+00
-9.114513674240548591e-01
1.821429360456240598e+00
7.695556310694365854e-01
-1.416082392413431812e+00
-1.114162692548977152e+00
1.848397629121039554e+00
4.221416426405982802e-01
-1.015089345141070298e+00
-2.228941680715411877e+00
3.516418686202083421e+00
-3.101533430087225970e-02
-1.625424179668522928e+00
6.617956510592820640e-01
7.249800821097465708e-02
-1.971342360233294011e+00
-3.959258451006656965e-01
-3.231130292873812593e+00
-2.248066377070987887e+00
-7.207606740394347788e-01
2.512517458713173224e-01
7.166166494494696781e-01
8.780465736684157640e-01
-1.176512974326206162e+00
1.717645562627594602e+00
4.869784273205765568e-01
2.513203318589996016e+00
1.044440806835055024e+00
-1.067336313495311773e+00
-3.352543987409323800e-01
2.038716177946285679e+00
-1.360623472648560872e+00
-1.067645488745728732e+00
-1.418151141322791631e+00
1.935224562870132559e+00
-6.836800106386538012e-01
-9.493266887558412526e-01
-6.469513673080199423e-01
-2.906624351283833896e+00
1.404209589800612390e+00
-7.501897398101853298e-01
1.409121446367636477e+00
5.041124554939015179e-02
1.547879299570511291e+00
-1.831877807721927764e+00
1.789670721673421561e+00
-1.760625140702220204e+00
-5.767115438656464921e-01
-1.556662669235185481e+00
-2.929515297427187193e+00
-1.155331813083021020e+00
-1.153015838734485987e+00
1.539531182675569987e+00
-2.208625240182027910e-02
3.713598625139462039e-01
-1.915441397444933358e+00
-7.302306609072189980e-01
-1.030566134480770168e+00
7.097144396033688851e-01
-1.138064565220908486e+00
-1.461103270560696776e+00
3.045343912782768614e-01
-1.571744872125456771e+00
1.083731357308290733e+00
1.425604721365635985e+00
-1.459482056661820737e+00
-1.232743183578232093e+00
1.056379210834936799e+00
7.473175790012073216e-01
1.955935407055290787e+00
1.089748818664202590e+00
-1.975532252410050704e+00
-1.624917844838438707e+00
-1.024452258179793462e+00
-5.818732357878554362e-01
-1.539516721510336472e+00
2.246298334427637489e+00
1.677472505384232537e+00
-6.548177074494284655e-01
-9.201912151086986125e-01
2.517433118959907734e+00
-1.100413937979460632e+00
-9.050814048035774606e-01
8.644097579863558867e-01
1.927297948772059843e+00
1.296029234568629951e+00
-1.026363190541175641e+00
-2.030484803834540664e+00
-8.752059992400769151e-01
3.353743347726806379e-01
1.878480757754423358e+00
-2.222330233001566846e+00
-8.617765610967595968e-01
5.245926849649966694e-01
-3.086811557187071550e-02
-2.085302193963437301e+00
1.226114128989176821e+00
2.878549414144122576e-01
-1.180607808287020388e+00
-2.117681892748472183e+00
-1.601926190605642120e+00
2.521322669284725482e+00
-1.163907041575313217e+00
-5.654633524568417613e-01
-2.431189062031404280e+00
-1.245015743465720526e+00
-5.905002210326879553e-01
9.747276411944127972e-01
-8.322554668187415183e-01
9.742976824239024669e-01
-4.803692527262024003e-01
2.019453212048849977e+00
1.435513597112627382e+00
9.658195281756910555e-01
5.626310300738119469e-02
-1.488435508112149197e+00
-1.685002083797796923e-01
1.548802859446184524e-03
1.312091968932715069e+00
-2.578630592652485731e+00
-6.207793493553007830e-02
-5.355119339529045286e-01
-7.900833053389098859e-02
-6.163233613972517455e-01
1.592525616790552601e+00
-3.921456931013642122e-01
1.402450862400147713e+00
-9.430218790005923113e-01
1.004361910577791006e+00
2.304432709721784267e+00
1.637901390505440036e+00
1.470407755643030834e+00
-1.574990312705110584e+00
-1.550462224489210339e+00
6.520269853880373834e-01
2.754939476232665108e+00
1.886768646345841738e+00
-7.563662937151381938e-01
-1.380225675572656352e-01
2.471498920071019789e+00
1.239080394377616079e+00
-1.157164493379308601e+00
5.065417748648499696e-01
-2.382720590144177919e+00
-3.207835770483221660e-01
-6.785663585339549338e-03
1.048278217618468178e+00
-1.660941836622359835e+00
-7.222836743342242460e-01
-4.461168336227424036e-01
-1.264821333033467887e+00
-2.125551438233046042e+00
-1.320963811896439077e+00
3.246232902915572982e+00
1.258019253821785588e+00
2.619526408683432894e+00
1.256584991283216102e-01
1.878707909716801572e+00
-4.789694565230313561e-01
1.880599805765805765e+00
4.765439204193422373e-01
-1.092928676891352646e+00
1.958731181113208542e-01
-1.432948995895175104e+00
-4.208792755879702252e-01
-2.854201087390599856e-01
-3.839687704243718164e-02
1.959441188810072121e-01
3.804694761612082976e-01
2.061710260922532623e+00
1.391808118086926616e+00
2.226679225766921288e-01
-1.167797738158734999e+00
3.351951228477131339e-01
6.348842896994581764e-02
-1.392826825103407495e+00
1.933868559073791626e+00
1.733711763528963390e-01
1.353368265813260862e+00
-6.472362818569575849e-01
1.275216172186934172e+00
3.013206609490688970e-01
-4.725566004314692425e-01
1.295025918239819163e+00
-2.162883720436950874e+00
-2.287510413036184076e+00
-6.362850717873504980e-01
-4.345093244442944647e-01
1.186299226029863263e+00
-1.564724837067237972e+00
-5.360879433174711162e-01
1.039852474652009501e-01
1.959661826821227582e+00
-2.940626143334750697e+00
-7.311986429391177378e-01
-3.352188338461791761e-01
3.184449788055790709e+00
1.498900157521328325e+00
1.446109158257951943e+00
1.580992572869631241e+00
9.111073850624952231e-01
-1.890293191454325061e+00
-1.204507750470948713e+00
-9.919952866487741217e-01
-5.631459469579456201e-01
-1.590410405502656666e+00
-1.084334065980960132e-01
4.295489499914194043e-01
1.540462776616330798e+00
-2.594311304964494469e-01
-1.742405834590498914e+00
6.405582664629420053e-01
3.136482535422936646e+00
-1.586627980206080757e+00
4.295596430506356533e-01
5.606010997425688869e-01
-2.024550512085117937e+00
-1.444381023749097936e+00
-8.634628364984028304e-01
-1.630750215903325362e+00
1.455596891409863369e+00
-1.287390628685371130e+00
4.992528659828061044e-01
1.900877597911191375e+00
-1.102638989634876499e+00
-1.669581268521166617e+00
-1.360115221604336178e+00
-2.605962466346498640e+00
-2.915436881028953930e+00
-5.058297750010330995e-01
-1.096769268811063736e+00
-5.049380115028054838e-01
8.125315474569424490e-01
-1.446565521842241075e+00
-1.943768773045521980e+00
-1.892923275625300272e+00
-8.443431137128420971e-01
-1.965189144586405590e+00
3.311084801466923189e+00
7.633673034100620924e-01
1.035687327086139531e+00
-3.719775908920295443e-02
2.644894329318075776e+00
-1.707259390006208855e-01
-1.526178419625184413e+00
-7.679910243033692963e-01
1.621422106660927565e+00
-1.680336217625844508e+00
3.047686305966840759e-01
3.418664686188058965e+00
-1.095158910051576839e+00
5.424650779030955050e+00
1.408555829246731728e+00
2.544662245003859624e+00
1.765395595682211161e+00
-2.051915887347009360e+00
-4.839484161388910799e+00
-3.648064666671179790e+00
-2.788511226121894726e-01
-2.263216337883012130e+00
1.067110995583670174e+00
-2.251713590296285705e+00
7.761567634386996595e-01
-4.359880966220935211e-02
-9.221629879009226594e-01
5.455486923025772983e-01
2.306566890512135259e+00
1.190995807732515788e+00
2.082190875908028094e+00
2.132539998250842839e+00
1.004562423591467857e+00
1.441503059280894172e+00
2.196244759981695327e-01
-2.684704002734680017e+00
9.330995885181706528e-01
-1.812263211828764264e+00
-1.055471864842867591e+00
-7.268740027776907642e-01
7.057347380578882223e-01
-1.274204471455774312e+00
8.343108660296792711e-02
4.340919222519245002e-01
-1.770224831395812437e+00
-2.983477636524700105e-01
7.899794661718996247e-01
-6.616684872112136295e-01
-1.424460216952111669e+00
1.132696113181451691e+00
3.106793152262121716e+00
-8.181941915840407198e-01
-6.449219576200432291e-01
1.494202375197527966e+00
-1.340959268467942334e+00
-1.477962895378535091e+00
3.226934990985734775e-01
-3.970890803176040595e+00
-3.205399810743801980e-01
-2.387946310752754542e+00
1.483223633829305887e+00
-1.969800456257882804e+00
8.174696413439480613e-01
-7.627538867482483997e-01
1.765645649101729386e+00
-2.559485107550385052e+00
-1.221030927087990436e+00
-9.007967622310389944e-01
2.601777201539718365e-01
7.727109432098407948e-01
1.952031710837729195e+00
-1.423945708859187365e+00
3.666087156631206434e-01
-1.076662699301104559e-01
7.217479143510926454e-01
1.553866051874734922e+00
-1.572674965070660180e+00
1.065356987754563445e+00
-5.971712773162440868e-01
5.307749992980732578e-01
6.659976752721052939e-01
-1.914215558500771186e+00
-2.603358740770634672e+00
1.578765582641537213e+00
-2.742850940728103204e+00
-2.146941108316621882e+00
-6.511844772286046190e-01
5.820106450776282303e-01
-3.917632039703117797e-01
-1.787258589765922390e-01
1.374330238249777070e+00
6.924904929674217113e-01
1.398896603455355991e-01
-6.453915746110806539e-01
-1.030658600531389801e+00
-5.180991539324646400e-01
-1.502742389240745213e+00
5.491139984926701051e-02
-2.509771649399340276e+00
2.143507381395314049e+00
1.401906789935587205e-01
2.388085760262057100e+00
1.697700767707412739e+00
2.822682160541508001e+00
8.018645635571886032e-01
3.124378688707039053e+00
1.913118881926652914e+00
-3.179355717513335122e+00
9.806017610510926463e-01
-7.726378940953162466e-01
6.926557773807803242e-01
2.328376419534781139e+00
1.450544730850869435e+00
-1.639479538793024549e+00
-2.141191387887498632e+00
1.482184150762668740e-01
1.424048807373794023e+00
-7.445679622766712136e-01
1.576104641505838178e+00
4.697139858732210516e-01
6.628681761582012610e-01
1.555185988345803683e+00
7.955862668950810512e-01
7.082299499492710204e-01
-1.856279323290194405e+00
-1.107371443647864551e+00
-3.415714986771642980e+00
-1.333105844304358190e+00
1.485912070300939858e+00
-1.860241974630898243e+00
3.606667814383793136e+00
1.304526716816133636e+00
3.234362929941883569e-01
-1.827730439175606181e+00
-4.142229132687669235e-01
6.999048215104877180e-01
-1.940833351042871469e+00
-1.273698923251034065e+00
-1.918771881139571533e+00
-2.590479912754111158e+00
1.200545284887829522e+00
-2.142949643676626881e+00
2.592716774386475187e+00
-1.432888828450021856e+00
-2.747781884082109549e+00
-2.436835593299091052e+00
2.304393240008152932e-01
3.773764503401029646e+00
5.377164590194185578e-01
2.318320353809562473e+00
2.146837561003965611e+00
9.824921547358849150e-01
-3.224439580458832721e-01
8.227717104816671956e-01
2.117044622021755640e-01
-3.143565470436930465e+00
2.771363521369673233e+00
-1.045058073654953290e+00
-2.253563356491712355e+00
-1.248783661549694779e+00
-9.704088998726022597e-01
-8.513485672789438130e-01
-9.677075433503025126e-01
-1.955459430472520355e-01
2.147302288783812241e+00
-3.048040650127721740e+00
7.579603590575835215e-01
2.304768357559351610e+00
6.841122893380249259e-01
2.659687008859342505e+00
-2.584533588081136646e+00
1.270648635370820401e+00
1.502956191440880440e+00
1.090271300939300358e+00
-7.274495766444160072e-01
-7.745158336844003566e-01
1.292806547432273634e+00
-4.952220755649978656e-01
-4.259285592091810457e-01
-2.000046931082040125e+00
1.628357042547575517e+00
-1.315231653086251340e+00
-1.025128274320306287e+00
3.099902747883799048e+00
6.555206861716442734e-01
1.584445898246445994e+00
-2.566774733035829481e+00
-1.856598981612260779e+00
2.376813499250260087e+00
-2.274399874687894840e+00
1.693865327516471897e+00
3.800441381949137276e-01
-1.425982524321145917e+00
1.837504838168934285e+00
-2.538604324281846569e+00
-1.841791627574095536e+00
-1.813138988982661237e+00
-3.207712355014498140e-01
3.444977131944487736e-01
4.756769053544918635e-01
1.018979079967287982e+00
-1.420738436739589883e+00
3.960424559765191033e-01
2.541530150452421033e+00
-2.900797166650109560e+00
2.228799974752736279e+00
-6.946682680498763585e-01
1.499462156481842667e+00
-1.258998343789044627e+00
8.934276293248171186e-01
-3.740999281217494588e+00
-1.120530952402947422e+00
9.157344089437604584e-01
9.299803892445529518e-02
2.076160427750195936e+00
1.855471134598476457e-01
-1.130121222967497063e+00
-7.940783125078045845e-01
2.556488048644769417e+00
1.881754538931644571e+00
-3.941699646092617498e-02
-5.719324395823184304e-01
6.448330289001903415e-01
4.113851737139170850e-01
2.662887601419093642e+00
1.460988456239224131e+00
-2.357129332480618622e+00
-3.541100333264840749e+00
-1.560337533463938664e+00
1.651742866428333567e+00
1.410097114031686694e+00
1.923728850184521111e+00
-3.533250013360862973e-01
1.769898145636602749e+00
7.161220118947074775e-01
3.068257143957352495e-01
1.013504716600562405e+00
-1.545940492014307388e+00
2.105679552389602360e+00
9.822275508997688753e-01
-3.030260898545872550e+00
9.489570851755041447e-01
-1.846712721515956224e+00
7.015079662128615411e-03
1.667189506476542071e+00
-1.484748951520227900e+00
-9.844397080202359485e-01
1.803965220623503951e+00
2.921541464142755617e-01
2.407487899064337800e+00
8.500299710364336292e-01
1.552203162004745618e+00
7.169284173608425625e-01
4.257712464611713266e+00
-1.099019026935380561e+00
-1.056267129719413500e+00
-2.607110675519508369e+00
-4.232189776097954770e+00
-9.206500963787979108e-01
2.650482017413133828e+00
9.762190677341214817e-01
-1.269274448558545210e+00
2.285182468191459204e+00
1.306243168113850661e+00
2.501121930100087543e+00
2.435221389420346938e+00
1.115547485147604823e+00
6.226571254846080539e-02
-1.175712532087915818e+00
1.739832066056029802e+00
-1.641901253275397377e+00
-9.814542539133443988e-01
-4.223997795466160610e-01
2.961608308576969772e+00
-2.958781600282590629e-01
-7.947261213900335131e-01
2.009111701794996929e-01
5.030987542072093976e-01
-1.953849985455569649e-01
1.894932929582699099e+00
-9.651884204753736762e-01
-1.219036352076476648e+00
2.142105692023906105e+00
-2.437561343820755511e+00
1.193403495278854559e-02
6.627966676706543991e-03
2.358274125484681516e+00
3.477793838530349291e+00
-1.010156050651811910e+00
-2.170459594594000841e+00
1.020951452440143736e+00
2.460005563613948121e-01
-9.437445626240332786e-01
-2.636742136290859961e-01
1.061406480607534952e+00
-2.329169661503298905e-01
-3.670999156630198712e+00
-8.097511588086244716e-01
-1.612273732878902466e-01
-2.106059423832467914e+00
-6.773630740275767836e-01
4.081985581399239504e-01
-2.881650471776019962e-01
1.809913932110960522e+00
-2.518810906630163604e+00
-9.526586571628314903e-02
-7.736559072008890592e-01
-3.891740461715048838e+00
6.026834485595075064e-01
3.427745244842801686e-02
1.017929425507261287e+00
-1.047993802279471476e+00
-1.537781883320261667e+00
3.211263090246149421e+00
2.383008343574728904e+00
1.329188573891578296e+00
9.385091472275566282e-01
4.850042274513086116e-02
2.089934344254821275e-01
-1.225693652233807107e+00
-3.054778501674246804e+00
-1.213955467834216595e+00
-1.383222964105279784e+00
-4.331134825969257807e-01
-2.707285698528174578e-01
-1.577554388716322142e+00
-7.914145162478622986e-01
-1.327998885806628726e+00
-1.907372609207285352e+00
-2.750171548899807750e+00
-3.483532791377933480e-01
-2.338019595393961758e+00
-1.964134922333844457e+00
1.551837279986421736e+00
2.425710565014347619e-01
-1.156891875558193838e+00
-1.155927401438263669e+00
-1.244080670491214624e+00
-4.067842104882817694e-02
8.429430563291637757e-01
-2.133784181251709988e+00
-3.941276386715295565e-01
2.011486222107866872e+00
9.218167624392327175e-01
-2.547449754764841146e+00
-1.533395560275307545e+00
3.224379167395472479e-01
3.749332274022417200e-01
-2.533153355555132880e+00
-2.073824633357020719e+00
-1.839022586028699502e+00
6.435297389023140191e-01
-8.353095410382285202e-01
1.801758165739237416e+00
1.820241376198944439e+00
-2.103314410203448670e+00
6.935902834021498986e-01
-2.087909384622659292e+00
2.616843667503407911e+00
-8.985172531744586855e-02
-1.621667392682220266e+00
2.199767804394002102e+00
2.874997560264972218e+00
1.520629441242573598e+00
-2.256743360104849494e-01
-2.149150316892572965e-01
-4.667972129460629671e-01
2.960362607730251602e-02
2.952413853657475773e+00
3.031382253879103678e-02
-1.717604585303959874e+00
-1.776062688100729092e+00
-2.130249646725641544e+00
-7.947592962228074986e-01
1.448255610089268286e+00
3.905775209025536543e-01
2.321656782991990131e-01
4.534101210810354665e+00
-1.553114491603098335e+00
1.348868572068358418e+00
-7.734480899359854611e-01
-2.033745307610223207e+00
2.301738825156975032e+00
1.079412488078300258e+00
-7.373959345365025397e-01
1.382162180881029379e+00
-1.098707901824465261e-01
-1.607201084200971630e+00
-1.119382957940418422e+00
1.098390296496748242e+00
-7.864426748638950748e-01
-1.615771400790295909e+00
-7.643901231867299487e-03
-5.138507192809235180e-01
1.030157062457952799e+00
-1.086052353006286726e-02
-5.179021123871411225e-01
-3.406164812554536847e-01
-1.992949083090746809e+00
1.105298956125723597e+00
1.313301729046661315e+00
4.623598740299635912e-01
-1.755370112138773697e+00
-1.527270780814868445e+00
-7.108566322644962465e-01
-9.860477390448575408e-01
-2.864872452226811528e-01
4.452476268004499499e-02
-2.079717411299660146e+00
-1.011969589923102264e+00
8.383076955473897085e-01
-1.737257103779241696e+00
1.629707860053263291e+00
9.451102207509344266e-01
2.189862073310273605e+00
2.672165328273514717e+00
