-8.686089621303318964e-01
-1.449864775883762835e+00
-1.136548586661152660e+00
1.668089092281524577e+00
9.171264673089987163e-01
2.379064388729203561e+00
4.091767850872980450e-01
-7.133373582472245511e-01
3.954539164663208872e-01
-1.941280196844246575e+00
5.442004177227959261e-01
1.082032813744456146e+00
-3.753176948886410291e-01
-4.322443395009363254e-01
-5.039469021394929804e+00
-2.156917525366927713e+00
-2.944239339504015618e-01
4.356910698943590732e-01
1.486157101161782013e+00
4.430408341988254506e+00
-2.635902893603011332e+00
-1.614472736530593089e+00
-8.955368812619332042e-01
-1.119307442952839127e+00
-5.701421100900244454e+00
-1.334890880035485505e+00
1.844151223325456002e+00
3.557019641034873669e-01
-5.018663947675909398e+00
-1.267209796742773120e+00
-5.801354451114649757e-01
1.586166310193657392e+00
2.526427493351297127e+00
-2.252676528253159116e-01
1.543134482900252902e+00
3.386398914674908917e-02
3.658324946713227277e+00
-2.040362272891645123e-01
4.789690638109033394e+00
3.277662257376445343e+00
-1.948854393401633578e+00
-4.147382165453269293e-02
1.425624798621755840e+00
3.700176221012725364e+00
4.223067049923581173e+00
-9.951231200909316232e-01
-2.796075690374633660e-01
-4.537866495517639542e+00
-6.841731737695355697e-01
-1.825717164810840343e+00
-3.317378347701802621e+00
-4.641099282024469197e+00
-3.345440716400500225e+00
1.871926933830793394e-01
2.696083303193629099e+00
5.066312321427510756e-01
2.192501426820281374e+00
2.621136926453346838e+00
1.449526484595552167e-01
2.462456419567201849e+00
1.605455089798216051e+00
8.054228839196363454e-01
-3.059945424241524714e-01
-5.835122516225064615e+00
6.056027582701982048e+00
-2.061800591884183076e-01
-1.496790276935616948e+00
-7.167691535902347422e-01
-1.652397264400108812e+00
1.344389834143119966e+00
2.221245387214480171e+00
-2.353320989822448028e-01
8.448742990999620339e-01
-7.525311675535402145e-01
-4.216049132147587919e-01
-5.563479811039743872e+00
3.826548038704325472e-01
-7.677616068719155251e-01
-1.984973138805158355e-01
5.760786915413442788e-01
-1.791304211452852346e+00
-3.026425481329380940e+00
5.355938613902253564e+00
1.755669202049153554e+00
-1.312952446068652579e+00
6.766969654020131841e-01
2.193427996497490540e+00
1.279639255005758036e+00
-1.738939649166434620e+00
2.704953961895614878e+00
4.239240307660947948e+00
1.906685281862159353e-01
-5.178493789778368939e-01
-4.950731883271711986e+00
3.354667068510695099e-02
-3.115407071252269122e-01
8.119586076714500888e-02
-1.255543453240013596e+00
1.709249960241054911e+00
-8.064770376534997620e-01
5.548536328936025441e+00
-1.629067734371802745e+00
-6.485369093949709951e-01
4.463596841595401932e-01
4.715462922933341794e+00
-6.148404648586554444e+00
-4.133234621749922511e+00
2.630184008995172018e+00
-1.701217778618585585e+00
6.265097190492529590e-03
2.445196484518259439e+00
6.718763234229236936e-01
-6.593875486612532644e-01
-5.510058375765291422e-02
-2.305439449672169072e+00
-1.900880421524424380e+00
3.113618081681201466e-01
7.823767154375019794e-01
9.409822987153743101e-02
-1.931090611175956262e-01
3.518604207627587521e-01
1.521861437263770434e+00
4.094031829743242312e+00
1.776927305325961548e-01
-2.901606454776188282e-01
-7.229147783336880018e-01
1.500499955807822916e+00
-9.650860716295150965e-02
-3.171579629166047798e-02
-5.456422435281880645e+00
3.898484307782434238e-02
-1.122462750243226282e+00
-1.560799732351986213e+00
-1.742228605598792113e+00
-1.886575731084939589e-01
2.685513329813103756e+00
5.737446450960308475e-01
-1.962227570539602506e-01
1.156560826596502611e+00
-1.360508839769955625e+00
-5.240259510462051296e+00
2.070843046277990318e-01
-4.190310609795647068e+00
-6.498211645867888464e-01
1.393071028352420804e+00
8.269839618914482937e-01
-5.144458859300373277e+00
-1.634289484446333818e+00
-1.338431971831542056e+00
5.661525313617500110e+00
4.607974157347591304e-02
8.113400140403287386e-01
1.673606483771004516e+00
2.099015352405516344e-01
-9.684136051217367980e-01
4.707033694220750242e-01
1.304106153082630559e+00
-2.750379633711258265e+00
1.468276914816225354e+00
4.316335854802873406e+00
-3.035207628672776714e+00
-1.440853407794435159e-01
-1.865179268415704028e+00
1.065212152943787904e+00
1.734221786939982579e-01
1.070437075973625252e+00
-2.577915964563477491e-01
4.797595514597130517e-01
-3.279140124314877447e+00
-3.619339578709761085e+00
4.049748553671707607e-01
5.303343645106659565e-01
1.584190584762079357e-01
3.766413397291171750e-01
-4.561736270596588483e+00
7.901409687108893465e-01
4.330957692654922475e+00
4.573973660422687715e+00
-3.574263378045668738e+00
-6.722528718052379615e-01
4.724778383855263164e-01
5.622150620921706476e+00
2.069157351392159505e+00
1.462621723367763638e+00
4.993821548772631402e+00
1.498168985574113821e+00
5.060421579944367032e+00
-1.324162223952917161e+00
-6.163205189404448170e-01
4.255135340847338021e-01
-1.239132511955331584e+00
-2.395100793207864120e-01
-5.522553226288203554e+00
5.662622954411683729e+00
6.026487396998437829e-01
-1.701737725803541990e+00
6.884683619008078459e-01
3.572483391694216137e-01
-1.518010381644219198e+00
-4.024705899693787337e-01
2.132958494999975141e+00
-9.801563038552252305e-02
-4.561039615595992913e+00
-1.074530042236961025e+00
7.965317928237778400e-01
-1.755946670140989374e+00
-1.625278913272959480e-01
-1.943490649353531552e+00
-6.278676780858479800e-01
-1.169073070934698366e+00
4.466945299465702734e-01
5.290455395550021755e+00
-7.445887246147270266e-01
-1.076318514600021148e+00
-2.575519217299790942e-01
6.451196621249556173e+00
4.497128948937788806e+00
1.192590600502378750e+00
9.681185828444019981e-01
-1.720870275930371507e-01
7.595434022539606644e-01
-1.022447506423884489e+00
-2.179075492656585400e+00
-9.514271803469094291e-01
-1.008305678591199239e+00
-3.832075564388419675e-01
1.818242794639164606e+00
2.178454844777120147e+00
-7.646799648540468786e-01
-4.640253293516395927e-01
-1.495967295329806712e-01
3.003813448542543174e+00
4.941954662916343999e+00
-1.366588469701119912e+00
1.488814136074914751e+00
-1.656270254871712755e+00
5.393634132232815181e-01
1.387523098722991177e+00
7.035062426937240820e-01
3.336783038824871817e+00
1.270948263811780832e+00
1.918757515683011672e+00
2.233249559157276798e-01
-1.097580199898559927e+00
-1.446715197715881529e-01
8.463820645759786987e-02
-1.670224803450493400e+00
2.615447212852874515e+00
-1.537268600733519230e+00
-3.009954797644912361e+00
-1.022858152862241438e-01
-2.520796210007149263e+00
-2.711032739581650031e+00
-5.929927380773338808e-01
6.471580367358936714e-01
-1.157736887162082784e+00
4.826691764150661257e-01
-2.247628451954334139e+00
2.461668016532968295e+00
-1.193771871905173754e-01
9.654944770556350697e-02
-2.569502884793881226e+00
-1.928993779276003240e+00
4.439241802573902773e-01
-2.796988804522673178e-01
6.098802070227721250e-01
-7.785563461543588692e-01
-8.794931333200094459e-01
6.739220958772622616e-01
-5.191306118251016732e-01
-1.568532817050980910e+00
2.268202078515229481e+00
3.042103329966515668e-01
6.541833879209589808e-01
-1.815783784534656942e+00
-1.959479292898856029e+00
-2.976477849346683136e-01
4.987321625721934937e-01
1.115347510358502436e+00
1.259533944600277622e-01
-1.926541939960648431e-01
3.579202999884679492e+00
3.011540453339188184e-01
3.860818304561900449e-01
5.374278156537804385e+00
-6.047443226631196822e+00
3.664729750201550784e-01
6.155317653616905194e-01
2.305968341421987533e-01
6.792447672147670090e-01
1.401951534371159713e+00
-5.392967857422119593e+00
-2.707107618587062947e-01
-4.550339662704867560e-01
2.490860379236149225e+00
-8.621372630330431663e-01
-1.682954075317243614e+00
-1.736874403448111170e+00
1.789620163042599188e+00
-6.337516259829140131e-01
2.551756623505484267e+00
1.206717118430671726e-01
1.292174259070407949e+00
4.928782898993520512e+00
-1.806712351534015326e+00
4.443409500577475413e-01
3.584847578861307671e+00
1.004600428447125271e+00
-9.454929770781608234e-01
-4.698630734443160484e-01
4.735133628731475142e+00
-1.369398109444959433e+00
1.125109224627394822e+00
4.014867204167289066e-02
9.665111116116892331e-01
9.829379272148562885e-01
-3.328091560932509574e-01
-4.937323074542297796e+00
-5.375347836077021491e+00
-2.700672491008603515e+00
6.561800518979377550e+00
1.104978103710802628e+00
3.656496316490017717e-01
4.210972312724690081e-01
1.063503898094994904e+00
-5.532055107769758173e+00
5.101521823994262794e-01
1.392394760101205997e-01
2.523411367758788271e-01
6.562464841741723065e-01
1.899398427921365151e+00
9.489486344321836908e-01
7.492342405152510043e-01
-1.183282214393254345e-01
-1.740321649183782515e+00
-1.481470023883165954e+00
-3.686272476177796520e+00
-7.603091084906455910e-01
1.042672826490436133e+00
4.815714694353619763e+00
-1.816613807276802883e-01
2.929026583944904338e+00
4.311698067682049107e+00
1.958820657364727102e-01
-7.896311549267395202e-01
5.547957289614028342e-01
-3.664086073813631050e-01
-2.436132685809565768e+00
2.379538587803684990e+00
7.326307819929709364e-01
1.130331456865308892e+00
6.478178893588262266e-01
-1.683703170817050232e+00
-5.152570454527877208e-01
6.684054329092630198e-01
-8.589197500085977710e-01
-3.830801745984240281e-01
-5.000563923097883112e+00
-1.066908805061513865e+00
-2.694232872613457341e-01
-4.428650962557822424e-01
-8.654632074387931251e-01
1.021763567377368620e+00
4.119564218968280178e-01
-3.285368122722272521e-01
-1.006573760544711593e+00
-1.290601956737850720e-01
2.957202880919329147e+00
2.731955250751365027e-01
1.273814491769071355e-01
-2.948231614701620540e+00
2.750672659561975708e-01
3.012665696637110369e+00
7.930210861993108873e-01
3.313632575207134057e+00
6.703108620289760511e-01
-2.942725736153967375e+00
7.725408234325293888e-01
4.511431790295639677e-01
-4.482637950124190418e+00
-5.379445003038119566e+00
-1.539059111610798114e+00
7.524138362244219280e-01
-5.429402985143157778e+00
-4.872022365463907212e-01
-3.263045160229239294e-01
-3.395480366729658472e-01
3.125415424839900203e-01
1.447378793287752652e+00
-1.467049398247674885e+00
-1.248221889902459747e+00
-1.879685012681360234e-01
-3.311593896594967834e+00
8.692911559998546256e-01
-7.348731504818806215e-01
7.650105649783514039e-01
-4.034977746408127675e-01
8.811972671220559550e-02
-1.815272521340473899e+00
4.882864566373931181e-01
1.028122004537462830e+00
-2.805941634827505693e-01
7.577397060825210584e-01
-2.224258823921939410e+00
-6.113703402391070796e-01
2.518711611542766016e-01
-2.231215140461307589e-01
1.256824527604448516e+00
-6.777865063001060619e-01
7.298444784598676627e-01
1.234732608358282357e+00
8.349120605405923046e-01
6.733997214977850421e-01
-4.550973268543073935e+00
4.644368322681055261e+00
-3.319101056845025211e-02
-4.228765321946863498e-01
-8.339090197010406991e-01
-3.081447837509292409e+00
-1.683629790287850536e+00
-4.797213155065558787e+00
4.563319598685746659e-01
-4.017007040090610492e-01
-2.674413853011676778e+00
-5.195212199504271045e-01
-5.032815804434357609e+00
-4.376951759968005007e+00
8.824924434835677012e-01
4.912548617970974085e+00
-3.929105385672070572e+00
-3.895166516874767115e+00
-6.970790033590501533e-01
-3.912000942786412194e-01
-3.962832044094020678e-01
-5.035752407225004390e+00
2.986269348893455522e-02
-9.630925200721186519e-01
-2.421947849978791645e+00
3.044423956479023197e+00
-1.324693827680123448e+00
-3.384671146927614060e+00
-9.530447680073158567e-01
1.557731408632738512e+00
1.212407963856746845e-01
2.557496426248515031e-01
4.734510285030526511e+00
-2.034886928718039556e+00
-4.769790394073011086e+00
-4.082190444488728032e-01
2.200714188828042595e+00
2.269641433064556679e+00
5.535930674941181850e-01
1.652087804533708626e+00
-5.819301406878507610e-01
-1.949554399927447834e+00
1.424023941014951611e-01
7.759957686607935057e-02
7.699793087069626285e-01
4.886242404839610032e+00
-4.975247148281872533e+00
1.104229593129440801e+00
1.935840475900136193e+00
-5.205739229284499281e+00
-3.579261476786830265e+00
-1.068570962297000215e-01
-7.404854007921617409e-01
1.281518488542329470e-01
1.876844408664793074e+00
2.890323045132880520e+00
-1.718425421466788020e-02
1.295908879051490104e+00
5.076257817920844850e+00
4.037695405820182160e+00
-4.965902485419555923e+00
-1.407645511142832540e+00
5.123803915001443166e+00
-4.467829698749174128e+00
2.527996043013136074e+00
-4.657997183280047970e+00
1.516352163828590394e+00
3.095827438862695402e+00
-4.693179855598724082e+00
2.332078551567184022e+00
-5.124150931755150351e-01
5.123431525865218106e+00
-1.180817005239957584e+00
5.277115353011871512e+00
5.081051315708791094e+00
6.611117138745965516e-01
-9.600797105206171356e-01
5.792749571622871629e-01
-3.991256887635915018e-01
-5.577798100932166436e-01
-6.631080649423678475e-01
-2.007832093622874403e+00
-9.539577204979672598e-02
-1.073187290198021948e+00
2.084992187440942946e+00
-5.751330090482574819e-01
-1.801018409591063518e+00
-1.579598200846543676e-02
-5.468267045176811170e-02
-7.767583391504115919e-01
-4.582799519533122812e-01
-6.337398459214259594e-01
1.558621733382964836e+00
7.976014253242897922e-01
-1.687454910800837982e-01
5.683798624633311647e-01
-3.638776004197828762e+00
-1.531827946040795529e+00
4.019656799176653195e+00
-1.038729090425708712e+00
2.467122787106463377e+00
1.361467149563433954e-01
6.287428025585731772e-01
1.364712798971063235e+00
-3.400696246287991720e+00
3.800794809114889650e-01
5.956670735905474245e+00
-1.455400979772500492e+00
1.514417363874257960e+00
-2.119107299069201700e-01
1.641878769100888702e+00
-9.617590296944605877e-01
-6.003776598304773060e-01
1.412760075827529160e+00
4.991643014431883074e+00
3.347469124648878580e-01
2.930883404952101312e+00
4.892102566781653117e+00
1.576229073238592404e+00
3.565236419630462894e+00
4.085405698496202276e-01
-2.607322916383244538e-01
1.142590308947699640e+00
1.298796581906686898e+00
3.645679972253216938e+00
4.170977221563502702e-01
1.138844030443215694e+00
6.087211798356547021e+00
-2.433697769266088828e-01
1.186678924560169879e+00
-1.220767868459929906e+00
4.345803299832795119e+00
-8.904422002383155510e-02
1.718988040830938147e+00
-9.121625409620987002e-01
7.875835268328162941e-02
-8.377089488934121031e-02
4.415234638595194605e-01
-5.914482059040012674e-01
2.179646618509851752e-01
4.074869872785762959e-01
4.714963842976221287e+00
-1.817101891860742446e+00
1.197614033557148572e+00
-1.684312589819825234e-01
1.727681951744233779e-01
5.901410723364358679e-01
-2.417549016793062722e-01
-6.630133652026127811e-01
3.322987035526719701e+00
3.320768037287951113e-01
3.766358232162092534e-01
-1.809759463654916134e+00
9.680331455755800674e-01
1.207597314419686318e+00
-9.206858330632814447e-01
-9.646560663841570460e-02
-1.639168755506841046e+00
4.982406339076970170e+00
6.204235183327067027e-01
-3.704234994192658448e+00
-1.009664035736895227e-01
3.954565892362744278e-02
3.889203397309778154e+00
1.139490551620593095e+00
-2.693465391148394672e-01
1.169987255479450594e+00
-2.171103703771790183e+00
-7.487593872761195701e-01
1.572077005623715884e+00
-3.100267505194008066e+00
-6.717593229231776375e-01
-7.279117765013877195e-01
1.336701304324611428e+00
2.206378168010302065e+00
-2.011963320962578461e+00
3.427337245294541368e-02
1.892473515572942855e+00
-1.613355482748480174e+00
-5.463787697788822229e-01
-2.248806777079114472e+00
5.653218892331238088e+00
4.218416389735363481e+00
-5.587984853481772285e-04
-6.004419613032777825e+00
-6.854575560071304308e-01
-2.210790114415326357e+00
-2.976315172439843337e+00
-4.184065487043863163e-01
6.304939154141514512e-01
5.561139840745772389e-01
-1.274734551601917509e+00
9.380127152059128948e-01
8.070742050269860135e-01
6.496990922411616243e-02
1.303311345278236777e+00
-7.210805229677789974e-02
-1.266107657572565159e+00
-2.057675456760563182e-02
1.760167658803245994e+00
9.332029573884331741e-01
5.279245865112484282e+00
6.808652704888350504e-01
-1.043956614598040122e+00
-1.713540100470238303e-01
2.353375477905398361e-01
-3.847793426649309123e-01
-1.330071788044157932e+00
-3.636236971218025776e-02
-5.172044165875836264e+00
-1.228185444512405411e+00
4.858425322090406340e+00
1.347207293454886490e-01
-2.421889480923939963e+00
-4.544667427261969705e-01
3.671013445823152921e+00
9.517612682019156445e-01
2.094141313266160154e+00
-2.103020160725890542e-01
1.986753157787721769e+00
1.267746393418633266e+00
-1.089646098945926678e+00
-8.342491148116280009e-01
2.076946760808985548e+00
-9.787100869775178236e-01
2.351789170866307899e+00
-2.716292870572740714e-01
-1.485362158481084299e-02
-1.183396352165983378e+00
5.698048344225027373e-01
1.177007567333535842e+00
3.544241888224852310e+00
9.690086524109863264e-01
1.137478240984637123e+00
6.158083293502164324e+00
5.866413530229232620e+00
-7.936028745206560320e-01
2.049172777113471344e+00
2.015707366033623327e+00
4.051363186309657749e+00
-5.043563246060853267e+00
-1.320155731085237649e+00
-2.336063036151144467e-01
-1.688442992572110279e+00
7.978326664662895862e-01
-5.515905492459839410e-01
2.516078241967457441e+00
-4.425491544712610192e+00
-1.149010969492047396e+00
4.445399641007320435e-01
1.456636521450660471e+00
1.080602984049148368e-01
-3.074592630184015629e+00
1.134397078801885117e+00
-5.251460606990481228e-01
1.830435531577883079e-01
3.477287616671464465e-01
-2.238641541165131976e-01
-1.134972108721479661e-01
-4.350905931954050843e+00
6.284783728874282493e-01
-2.297531190306169313e-02
-1.006024274155796983e+00
-1.271649615085941321e+00
-7.545988042577811937e-03
-3.878092050091704657e+00
1.156775138746739762e+00
2.027136374588029144e-01
1.779920938141735354e+00
-2.199503825366597859e-02
1.622462339224586714e+00
4.293619877246818706e-01
-1.938681231597541466e+00
-9.196425628972759725e-01
-8.004270935578814417e-01
1.189465795373493284e+00
-2.719360882128826873e+00
-3.803676716295961158e-01
8.442780750872179441e-02
-1.108632925124768825e-01
-8.329038977085773121e-02
5.526936301156100129e+00
3.745043329370271179e-01
1.591805799072796956e+00
2.200554938322162979e+00
-5.545092444486526162e+00
1.644995544783943497e+00
-1.404400107947393117e+00
1.468537773858894058e+00
7.518959852860820914e-02
-4.173343375581075598e+00
6.792494379316232900e-01
-7.456649990532683570e-02
-4.097260116102702909e+00
-1.076215322250690276e+00
-6.529909616952640494e-01
6.120378121693209605e-01
6.543417366637607202e-01
4.454471932652901423e-01
4.461208987183007402e+00
-4.498894159615087318e+00
4.869459255066025949e-01
-2.626675862819925489e-01
1.389245736518154084e+00
1.571139474648429513e+00
9.640105397931463260e-01
5.418184658464703318e+00
1.956032803258378194e-01
-7.428502418404868690e-01
-1.603746575577664313e+00
1.076873637840114695e+00
-1.659286724212466702e+00
2.592515215952984065e-01
8.501241606796787753e-01
9.463740962983326899e-01
6.281197461258165582e+00
-1.133253670831665394e+00
-2.040483791640120281e-01
-1.171686221345364709e+00
5.186973100161533345e+00
8.129121890333320666e-01
-1.530109834804425972e+00
1.438723670860089676e+00
-2.889755676378330751e+00
1.292819191858826766e+00
-1.823418792774962771e+00
5.721216493671157366e-01
-8.461968099339874927e-01
1.289721701756916250e+00
7.655769657968086728e-01
4.298225367746011383e-01
-1.828318752954938509e+00
7.380916155474943618e-01
9.888242868087547544e-02
1.015112919572834782e+00
1.445224861541924755e+00
-1.598306306991553072e+00
-1.816106026483675029e+00
-4.524832212444270141e+00
-1.226704253130656674e+00
4.030769061754797100e+00
-1.730449628527074735e+00
2.270406357977536427e+00
-9.632686964295010534e-02
-6.014249241580751359e-01
9.036479823190081140e-01
1.904440829520598621e-01
-8.464740606077060248e-01
1.203227625452781391e+00
-3.835328827924931461e-01
-3.910286501633512546e-01
-1.859996422984516729e+00
5.374344781821240424e+00
4.712493996167062882e+00
8.496089877849518635e-01
-2.039157686041010997e+00
-2.523623357787250221e+00
6.384094656280632218e-01
4.087185581573885784e+00
4.561108796924694175e+00
-4.007001205437006330e-01
-5.946348571161389485e-01
9.452518905667111060e-01
-4.755509922984970661e-01
7.995116240224421356e-01
2.581268581770032711e+00
-4.440742744187050839e+00
-1.257043188871067585e+00
1.635255121084347785e+00
-7.013182706817252532e-01
-2.713544973649343883e-01
