-7.324365932811403856e-02
-1.341447574860886276e-03
5.757912832027844291e-02
-6.685723841819177227e-02
5.184370614605970234e-02
4.234854452257710150e-02
8.385947818515616936e-02
3.469879719482130143e-02
5.523218832430181607e-02
-1.218725534920667370e-03
-2.433069120963788842e-02
2.297268128244555480e-03
1.314421871861451950e-02
-3.282741176813138567e-02
-7.989142415053208934e-02
7.448681341079833873e-02
-1.232090768502903076e-02
-6.994684677400192507e-02
8.769500335268709534e-02
1.235495928252541148e-02
-6.579013790062882006e-02
-6.944222641942224272e-02
7.235734405188982976e-02
3.385581125773099581e-02
4.411668904781616135e-02
-5.400140627190050391e-02
8.642507438501806707e-03
-3.615473363043502936e-03
6.870302953026537207e-02
6.925933431302766508e-02
8.647791974646535512e-03
5.245426196260730839e-02
5.792127206961046604e-02
-5.346230865960414219e-02
-2.244690536602145237e-02
-3.101535745483179063e-02
-3.662454197368203435e-02
-4.731728144513009521e-02
-3.425236158736370828e-02
-6.642872779488334656e-02
-5.060802832504614213e-02
-7.035890822309541145e-03
-7.475982094845341590e-03
3.164525754123195811e-03
8.343984983822900353e-03
-3.736844630543562692e-03
9.425179464796587525e-02
-3.859820738368444944e-05
7.135877499379468525e-02
-3.049954280108420346e-02
-1.600054607504604667e-02
1.474455988880187321e-02
-5.809511932216844532e-02
-7.219531788958032104e-02
4.902668738544681964e-02
7.799294867665268471e-02
6.054922955713464700e-02
6.125380872811148764e-02
2.185681588377292716e-03
2.158394656158987152e-02
-7.673418073622793878e-02
-2.987440561721215956e-02
7.360182419075465832e-02
-2.361721495997982229e-02
1.355485639250158039e-02
-6.607428520881133971e-02
-1.150153469497037194e-02
-5.557959821107687215e-02
-1.204720710845804885e-02
-7.271391998776141619e-02
7.045046341437406767e-02
3.423675292908293089e-02
-2.909378454685610654e-02
1.683853929853453349e-02
7.283141451923475992e-03
-5.616066250353656669e-02
-1.383227120235015241e-02
6.858517170700248466e-02
3.616041720760401756e-02
8.362205539721352665e-02
-1.558288182383289582e-02
1.053469624853597617e-02
6.264120511753804021e-02
-2.148209914883331129e-02
2.179652989491840526e-02
-7.020102013475149061e-02
6.067622040897215074e-02
-3.340610139566091430e-02
6.300037235260243229e-02
5.693501497296624830e-02
5.267400088632379074e-02
-4.672594749478951870e-02
-5.193833556735234780e-02
-1.007750408826154666e-02
6.817396217026552852e-02
-5.042978567940256673e-02
2.223435995017736255e-02
6.142303752472616507e-02
-2.469617623218168384e-02
1.684655668111018773e-02
-6.768839388606408269e-02
-4.547386638877093379e-02
3.302256760978004163e-02
2.142595115206244114e-02
1.208607850888411030e-02
1.224970513127224270e-02
6.040432538722220052e-02
-7.224819730523962535e-02
-6.238583919378488940e-02
9.020284066661928002e-02
5.640354395062531501e-02
8.957622626758228457e-02
-7.701793762306534397e-02
1.633754715899142507e-02
-6.827386626353602883e-02
7.068118965966992129e-02
6.122714931582705356e-02
-6.367158955977325618e-02
-5.543314504758641015e-02
-7.564549657166280000e-03
8.001434332198255339e-02
5.472174702936159069e-02
-5.978557238034513249e-02
-7.333917348960500597e-04
-1.606004882734254208e-02
-6.134970543062410325e-02
-1.496438866707271165e-03
1.679722016831620979e-02
-4.133803773493483630e-02
4.735947723427340328e-02
6.146232548073651131e-02
1.673968027888316943e-03
-2.408655970796128726e-02
-7.706963565568937524e-02
8.591877913273386624e-02
3.354451895184547977e-02
-7.981754658568498972e-02
3.317301454013840689e-02
4.095756982373779942e-02
-4.982548516956480933e-02
6.269790756271342858e-02
3.909311200052239393e-02
6.527242940577988872e-02
-1.785178783180384372e-03
-3.765009975367092365e-02
-1.378350218096253965e-02
8.133953701771073908e-02
2.876241486699666894e-02
-3.860157193898651473e-02
5.397798542250791670e-02
1.562782345566035222e-02
7.643223108276538114e-03
-4.729124325290329917e-02
-2.322645295032229034e-03
-7.140444095246634149e-02
8.754862823268355632e-02
1.114591864950906751e-02
9.352753774262650976e-02
-2.303420351917562572e-02
7.383742369285296869e-02
8.743454791220639510e-02
3.390022692628221618e-02
4.746619104490619467e-02
-1.177586014212941151e-02
-5.510439210044631997e-02
-1.023826059047355276e-02
-7.604503222552239095e-02
-3.976984344513603657e-03
7.369349629643248689e-02
-5.607217148747375285e-02
-3.893667723708007372e-02
-5.190939155987116249e-02
-4.392593863377181052e-02
4.278603269942986981e-02
-5.844631596069160828e-02
3.142434696314964221e-02
2.949394413750043575e-02
1.441541036343730979e-02
-7.219315384917675271e-02
8.841707180863089821e-02
8.921789013554722730e-03
-2.970296789389438585e-02
-6.306537243342066890e-02
4.902337542156862127e-02
-7.184714530113214814e-02
-5.836055254091591926e-02
-6.006006656666533494e-02
2.780541949840984253e-02
8.180978189643882403e-02
9.981927911325011449e-02
-4.160204145844146467e-02
-4.493855008557184200e-02
9.262337120578174876e-02
-1.155672746139970418e-02
6.178464845157644221e-03
1.482637991752468014e-02
-8.535605107745440623e-02
-4.927194474226394283e-02
7.112573049305338097e-03
9.248888860416032420e-02
-2.713321604525181438e-02
7.968568844640369631e-02
-5.933818047346828273e-02
7.041036934581850794e-03
5.235860709590728357e-02
-3.890864829663882862e-02
4.582153984314635969e-02
-3.224796229488790383e-02
-6.612318881149319150e-02
-8.961388240735924937e-02
-5.354085458129114600e-02
-5.342176897668562269e-02
3.664435181001739900e-02
-4.999312612082102564e-02
-5.996929908732132053e-02
1.156670938026136417e-03
1.681459210165955898e-02
-2.909844478259020553e-02
6.958779839598508432e-02
9.190304709681712536e-02
1.012062757681609498e-02
8.452290446001176072e-02
-5.429138031134091852e-02
6.213881935215804196e-03
6.198481243984934469e-02
-3.890824190752632111e-02
-2.035999002328657548e-02
-1.572053785545976480e-03
4.129881485101015437e-02
3.709889520119903639e-02
-8.008579289923449876e-03
-4.539004485293834240e-02
-6.007531111786974798e-02
-3.180051009496043940e-02
-1.031825025500530436e-02
-6.542061065010443266e-03
3.483882185229116718e-02
6.745019633940316228e-02
-4.140045182901758852e-02
-6.355761686985755832e-02
-1.002174702102275571e-02
-5.895328278727812038e-02
-6.338650938425341268e-03
1.489121171381686468e-02
6.257445215614225453e-02
-7.404603658142552836e-02
6.685789874487726991e-02
8.770884207873835825e-02
1.782149703419784459e-02
7.759849071310352675e-02
-4.258228282779707996e-02
-4.792946305227699377e-02
1.048258205628069088e-02
3.700249722010028747e-02
4.877556026845981246e-02
-3.312033530928193414e-02
1.686360086255784402e-02
-3.823004284321516490e-03
4.181586142559334286e-03
-1.143344572950171292e-02
-5.542223485830248542e-02
5.881985111046246495e-02
3.056146501447438990e-02
-7.744632424035798220e-04
3.234622179749547383e-02
-2.864658403016682488e-03
3.526416269523214436e-02
-3.234207952197461211e-02
-5.717957283323969742e-02
3.801596370113203508e-03
-7.104252956364633109e-02
-8.189321900317013403e-02
3.459673820933083926e-02
-4.151191998608687317e-02
3.533397310127686652e-02
6.717894935114299658e-03
-3.637520901548236662e-03
-2.027133547361936131e-03
-5.281898744512752292e-02
-1.089114219999340327e-02
-3.838775062838840901e-02
2.959561498847795152e-02
3.071784200065216450e-02
6.419049870912039990e-02
2.450322698523983017e-02
-1.902223248422289792e-02
-3.438940046396264660e-02
1.110708125052857660e-02
-2.405397953832612637e-02
6.664040394054991656e-02
5.803664119900743545e-02
3.378746096952994771e-02
-4.889319868317357903e-02
-7.209895479000211216e-02
-4.784119828800659224e-02
2.369954152568329656e-02
6.625473832132125485e-02
8.554963470471090015e-02
1.913939263941913729e-02
-3.954773999802591380e-03
-3.146841632563306904e-03
-5.204745111241364935e-02
-3.705861911288791527e-02
-5.968876855508906815e-02
9.102329604802113228e-02
-9.913796131438027889e-03
9.180653823190723650e-02
6.665279680339086799e-02
7.453504180470932328e-02
-4.716672959305678869e-02
-7.187588330990830887e-02
5.238310644094854203e-03
2.127819699421676716e-02
8.121765190825459141e-03
-5.869069936015305217e-02
-2.906793099152682122e-02
6.685601916450787004e-03
7.716716861161516949e-02
-1.761163276352743431e-02
-5.108570297533266899e-03
-6.339046856513001760e-02
3.329285527499407232e-02
8.995980823730946943e-03
-5.675067804403834820e-02
8.411843885821650157e-02
4.750683461421431608e-02
4.543523151049308484e-02
-2.787340059184888544e-02
-4.114001588156533662e-02
-1.634947874980508323e-02
4.895021293165850718e-02
-1.084277949542480739e-02
-5.966205243154518167e-02
9.370473875946869202e-02
2.215192736679854127e-02
-6.981636605887830971e-02
6.024709385914694959e-02
8.100744721260427772e-02
4.788337297469743431e-02
7.874828383479155758e-02
5.388564141464664836e-02
3.702286036610809294e-02
2.561067185508228081e-02
4.541364973375385493e-03
4.824353104635786815e-02
-2.092583544922950109e-02
5.166966775268107270e-02
4.040873667210942151e-04
2.486121468323883137e-03
-7.861367676771738311e-02
-1.100180481104017990e-02
8.353233785309230330e-02
5.880524662293649257e-02
8.037016607327583662e-02
-4.383350746834882572e-02
2.573747871465305662e-03
6.212137010191947500e-02
5.291056522061294426e-02
1.227247015066082643e-02
1.086144227630012320e-03
-1.676948807725233857e-03
-4.740787573861904303e-02
2.908599554545460153e-02
8.010746451479336394e-02
-2.189340928685338042e-02
4.331779731717068371e-02
-7.005133881304262400e-02
5.563291054888570841e-02
4.649723211970051284e-02
-6.288363499126961575e-02
-2.517009656158422648e-02
-6.776148021597523663e-02
2.823103060795809430e-02
-1.461147803308721592e-02
5.584742003167893210e-02
8.749859826274912489e-02
-3.735918470305363281e-02
-4.408932207181808990e-03
6.364655633780584576e-02
7.994882862973611004e-02
1.310109635245697290e-02
3.864419612092204886e-02
-5.754886296138553986e-02
9.476508655604888587e-02
-7.035688370298352756e-02
3.709644835612741637e-02
-2.841842353375879926e-02
4.095183744876249726e-02
1.460138228771767389e-02
8.573553931710464759e-02
2.797795442819613759e-02
1.469795941409477932e-02
4.828094981188379292e-02
-5.195859531541783399e-02
3.993499752739693154e-02
8.889352854664160641e-02
-4.792881371400022419e-03
6.941849415651603350e-02
4.083887303759058812e-02
7.038845023806356016e-02
-1.450285390942138326e-02
-5.660289301113730770e-02
-6.940192752035546919e-02
5.718476162071926133e-02
4.851817692660233272e-02
4.199046072083996439e-02
2.711843918902726285e-03
5.893348898034871802e-02
4.704299734216886575e-02
-7.291189606607899332e-02
-4.287004017127481886e-02
5.927383153454775927e-02
-3.136741364479074534e-02
-3.913123220020342519e-02
-4.748038364146512508e-02
1.032242144873595502e-01
5.820551648689074875e-02
5.476542642050864079e-02
-1.364590329329831188e-02
3.076459743065151214e-02
-3.366789388960064050e-02
1.934649753873059555e-02
7.021132680712438567e-02
4.994040894733754038e-02
7.943633639829573989e-02
-3.484313059574963706e-02
7.417327840899569369e-02
-5.601403576852986843e-02
-1.373884834974236843e-02
-7.825033842502721049e-02
-2.711402850463592168e-02
-4.533065721358957301e-02
3.173483940910722112e-02
-2.694356543970346032e-02
-6.190674528334921128e-02
3.282928054987321181e-02
1.728522094078053378e-02
-1.496215135773466300e-02
-3.545933455607153117e-02
-4.370994259015255866e-03
6.922671547161146632e-02
-2.002967535085958817e-02
-5.788581854156119727e-02
2.507609128376250135e-02
-6.441523761687897864e-02
-5.538202708688811510e-02
4.444884353401778315e-02
-4.462886779202564214e-02
-1.638942493099737607e-02
4.510712750890985730e-03
1.437528214523845502e-03
-6.894310953327104086e-02
-4.147479875389308707e-02
-7.655866971829937417e-02
4.151946991345564775e-02
4.572886469240850654e-02
-4.072036475247867160e-02
-6.301914150754518718e-02
4.320576252806495460e-02
9.798959673623335032e-02
9.083295374698248381e-02
-3.524857875131438140e-02
-8.284058264393485971e-02
-4.265735508897800649e-02
5.179442459457542919e-02
6.803366833197786734e-02
-2.616145923676592433e-02
-2.402731543974793993e-03
3.161197984826683710e-02
7.553062903315296839e-02
-5.343122435399611653e-02
-9.373671650150808277e-03
-2.190131269723005758e-02
7.019192516763650413e-02
5.971949425451986149e-02
-3.621918292111360460e-02
-8.378575283869933721e-02
8.053023963495646587e-02
-7.317947964158004297e-03
-2.457477772031726668e-02
7.678320383642674163e-02
-1.005842283510725507e-02
7.037986066572317345e-02
-6.759074004877418940e-02
-4.696887104819164743e-02
8.995245071433266570e-02
8.929700054225143957e-02
-2.112489003151243189e-02
8.019740546351618316e-02
8.739652494119574955e-02
2.750472725779199920e-02
3.402229466616697208e-03
-7.951062894328481991e-04
-1.293069745087712698e-02
3.551518095695723604e-02
-9.265950828242339524e-03
6.649064811415307530e-02
-1.940520354709728348e-02
9.210081921413462713e-02
-3.616125188043627092e-02
-8.113058223121636867e-03
2.502799236904087662e-02
4.679491980028895048e-02
3.178557695432534386e-02
4.590027513903190137e-02
-5.930476563897974646e-02
-3.923795559569870361e-02
2.436241504433485014e-02
-3.607924508549667508e-02
2.145418713514259806e-02
-5.169568069755952483e-02
7.958283606170679647e-02
3.224693431566684476e-02
7.062215796819736047e-02
2.770248725911364160e-02
-5.155300539565703562e-03
9.081902552871271017e-02
5.300614747648906000e-02
1.573388891724418134e-02
8.273249271908540703e-02
6.772880873738774954e-02
-5.686296571472520406e-02
6.453977191465923476e-03
8.796647659988696133e-02
-1.682243817776800723e-02
-7.502755082953363464e-02
1.425397274318624535e-02
-3.671377144491233622e-03
6.699754174399311091e-02
8.056704560875665999e-02
4.869028401443845078e-02
4.641186201657257482e-02
5.313857059614379708e-02
7.032843286401535554e-02
8.283735785815773967e-02
-3.833098535099711129e-02
6.147933042124988784e-02
5.888536975476505592e-02
-2.362058455445601585e-02
3.922251069044627170e-02
7.769570260748866197e-02
7.986382443127101882e-02
-4.457435165251032866e-02
-1.741157779855928914e-02
-5.424226821562973949e-02
-3.528115024923182685e-02
-6.105421188450955300e-02
6.213185456286644121e-02
9.652940752557706561e-02
8.831460230164957237e-02
-3.329627183166653220e-03
2.240827046393216448e-02
-5.268685402747812913e-03
4.366565918305026495e-02
6.258076079734632702e-02
7.593350033605494875e-02
2.973888162134676397e-02
5.810284216965336951e-02
7.867066117502506672e-02
5.023301063329183719e-02
-9.083585364024499703e-03
3.015327373104032330e-02
4.540867508380422302e-02
3.535957899108595898e-02
-5.951966666209913825e-02
7.560274067497077533e-02
-6.891156493018633575e-03
3.941164810178628131e-02
8.439381533662707697e-04
7.749737837195688761e-02
6.929864951889315623e-03
-4.098046650367760668e-02
5.698195701933679580e-02
-5.881782508872959725e-02
6.992198940975653809e-02
9.368763297343955798e-02
1.785726838038028189e-02
2.808348919818200520e-02
2.087336975978008879e-02
-6.832948260556838405e-02
-6.746005334680225951e-02
-1.324139291367456596e-02
-1.313948958660593642e-02
8.689588924071911524e-02
-5.106509735217308610e-02
3.725183172786633579e-02
1.367315540578413480e-02
-4.241601261148670449e-02
3.131291713562030232e-02
-7.476840558177437479e-02
-7.469449739490388596e-02
-5.637983696702773134e-02
-7.183736978485352753e-02
7.631103392817129016e-02
4.869748683334402389e-02
-3.135938834958833937e-02
-2.625555278599490255e-02
5.638465196211629726e-02
6.848666778367176744e-02
9.602492852462314599e-02
2.762041029181962204e-02
-1.217896725238744489e-02
-4.068283083149883128e-02
-2.548651868788492578e-02
-6.622896888224730216e-02
7.848290129078325239e-02
-5.081805740763355173e-02
5.516219483505686166e-02
4.280058046085770396e-02
-4.163098623959708006e-02
4.995981324529055051e-02
-5.530954698180117618e-02
1.673212196544940703e-02
-2.678762581577951926e-02
-6.452888569655257367e-03
6.859947822869162659e-02
-1.579192305498756596e-02
4.742480847284628181e-02
-8.781969923524067523e-02
1.644384661921190205e-02
2.921649145810516907e-02
-5.874420333107076980e-02
-2.124649031962369539e-02
-5.224041845688456864e-02
-5.517261756313780047e-02
-2.106011481531372062e-02
3.818579435889586648e-02
-1.249826626632528914e-02
1.770902102846882292e-02
8.556506844042738313e-02
-5.412857366672733234e-02
2.406252291594524265e-02
7.044283379069729567e-02
-5.644807644253587581e-02
-4.751246959429550332e-02
-2.052440621521142705e-03
9.367272678124051455e-02
-5.692368606100946249e-02
-1.670523276205290730e-02
7.633825057217257307e-03
8.428547961586303761e-02
-3.896968466075758503e-03
-6.361135052622099439e-02
-1.421276461817896908e-02
-5.797428409874132854e-02
7.853229419226173680e-02
-1.414342418807942175e-02
2.985841265742979547e-02
-7.143307906247668704e-02
1.356255170772184722e-02
7.675758026001718026e-02
-8.102850393115852354e-03
6.763925808646431559e-02
2.242350057184463660e-02
-2.185337072645654813e-02
1.634984649149552605e-02
7.067721631410403549e-02
2.480335590137715610e-02
-3.132364855582158575e-02
-7.555692976012673423e-02
-3.262743351267865383e-02
1.526212485413018863e-02
-6.307665544327667462e-02
-2.497312878092134564e-02
-7.255304320615509062e-02
2.857280417092141270e-02
6.474979238786207625e-02
7.684177450914085085e-03
2.522698617324260414e-02
8.664415301906235045e-02
3.221134926280871252e-02
7.056011581294925616e-02
2.092405857346190182e-02
-6.939026406386616941e-02
4.748369273360717596e-02
1.317259964804159099e-02
3.633647254782366998e-02
3.568367351307959873e-02
9.342292019671941117e-02
1.796764621055432082e-02
2.632730028938701054e-03
9.426404938446010517e-02
8.459032148604149481e-02
2.115212461955727138e-02
-7.814990467636169502e-02
-3.601661500687693140e-02
-7.969635884679344973e-02
1.778212291230164138e-02
3.811064239242911017e-02
-4.542022197259844296e-02
3.810593676710694738e-02
1.628917971709561291e-02
8.349770135073603106e-02
-8.973037393814468909e-02
-5.652142585637470046e-02
7.370972254147656333e-02
-7.024410150544070641e-02
-1.641076331628481960e-02
-4.512762920953395512e-02
-7.558298256315647279e-02
3.348612143316356815e-02
-6.393728414801452820e-02
6.455540470567709688e-02
7.145026273795967303e-03
-1.430544804180544638e-02
-7.777724375516932402e-03
-6.049195652991634642e-02
-4.105295815168170936e-02
4.648182313087801526e-02
-5.528440947211920448e-02
-4.312068172659985071e-02
-6.317666890870958507e-02
-2.810779323453685072e-03
5.714289293269136233e-02
9.126266159461096650e-02
-2.720776023856789558e-02
6.594061615286275768e-02
8.159521671932437603e-02
4.600851599447704221e-02
-2.008837397789223558e-02
2.951883145564480199e-02
4.946504264398304124e-02
7.107524305289143751e-02
2.044076721610190578e-02
1.893196914331497782e-02
6.600043903619853825e-02
-7.015340796240363908e-04
-4.685133193676143532e-02
4.901591136413932515e-02
-6.688363583980313012e-03
-2.384459903871358200e-02
5.554187434556452641e-02
6.501711129257593813e-02
-1.176946438581786755e-02
2.207020267501598812e-02
1.029194100360680299e-02
8.656941493361285447e-03
3.297402729610008493e-02
5.376653889309897932e-02
7.614226060216428005e-02
-5.251090739274348607e-02
8.953304208231276096e-02
9.865618922136628818e-03
-2.338293612284648992e-02
-1.239526107948367602e-02
7.616026010313328709e-02
6.627628384368747239e-02
5.290279663493597379e-02
4.506885358708764833e-02
-7.805815586783218518e-02
-3.501886422005441590e-02
8.116971991550228638e-02
-6.680822011153572312e-03
8.294001461339284287e-02
1.868592206306870021e-02
-2.038752314030933474e-02
8.503487247767543833e-02
-6.269950287389776389e-02
6.136483921153249727e-02
6.334988841524770431e-02
-1.968637452827177309e-02
3.836477779841708513e-02
-6.151549924916885348e-02
4.641977532661768074e-02
-1.406076174992549471e-02
-3.286385051887982800e-02
-4.504277432729865936e-03
1.606245251249706699e-02
1.492394048486507183e-02
7.140459729029217939e-02
-6.382682848477184978e-02
6.881204534520583838e-02
-7.327747519799382436e-02
-1.198694111153585790e-02
-1.383605549069854765e-02
-6.871081247863522479e-02
-1.957640607594944571e-02
6.595997159647969121e-02
-4.096458842478722939e-03
5.217180037950522320e-02
-5.680478974261034958e-02
6.015388120502749257e-03
-5.667743955346337542e-02
-4.654997050859930458e-02
