7.621704870479933946e-02
-1.948109259293941478e-02
7.056618691344626604e-02
-2.666237750636930338e-03
2.748271703152623674e-02
-8.500621829627347248e-02
7.412546680087046813e-02
3.457340941966712683e-02
-5.479943338637890439e-03
-3.924276413301940741e-02
-4.062499811676981848e-02
3.329641907049965543e-02
-7.941663190732037303e-02
2.161680360169248097e-02
4.417605288197460484e-02
7.837057095216226621e-02
4.460449705314979696e-02
8.185348232628679443e-02
-8.017905317745692428e-02
-5.166993300177196574e-02
5.741721919802713486e-02
-8.181896987894404782e-02
-3.259296684015283718e-02
-3.233174933278634006e-02
2.237492634870966862e-02
-6.009756864771676615e-02
-5.215599982816820912e-02
3.303036100877503045e-02
9.011001084769784675e-02
-2.922203043854957466e-02
4.344368743335823985e-02
6.990348415262244430e-02
-1.957802064056462371e-02
-1.208623929660799026e-02
6.772977243280121906e-02
1.700031887605567282e-02
8.327255607549455263e-02
5.096383502059383119e-02
-5.129605266754964921e-02
3.667393946866324972e-02
6.576366268991440389e-02
7.388648145976527137e-02
-3.882585188868333762e-03
-1.174205263046591841e-02
3.497811650244315312e-02
-6.671791295138215783e-02
-3.738429974495999925e-02
-5.314852001674194582e-02
8.231935586834281116e-02
-2.412582487929556749e-02
5.078607247938273644e-02
6.674700330222523015e-02
-1.567884578553549110e-02
2.435567606627307702e-02
7.166916403385620304e-02
5.502504738749572355e-02
2.771223887173991304e-02
5.697397988443221595e-02
-3.718163695389060247e-02
4.447752366921580922e-03
-9.690165628188043834e-03
1.350296887065508336e-02
-5.809684178389565301e-02
8.222019185282364306e-02
-7.821208356305590914e-02
-4.411875179937994190e-02
2.493207748823006442e-02
6.089887759053591587e-02
3.317858363953093276e-03
6.294254862106857251e-02
-1.440244730850031608e-02
2.210637683968968287e-02
-4.522792993195743488e-02
7.970331646800581094e-02
8.575546258578568837e-02
-6.632733396358923145e-03
1.220731965454840626e-02
6.903401222477113797e-02
-3.098404788579685407e-03
-6.097558976774799383e-02
2.194846322487437051e-02
-6.678095530500516297e-02
-4.732189253498966103e-02
-7.825887971935471810e-02
-8.217816135690435286e-02
-7.966078386802567107e-03
5.589280081982461908e-03
-2.382315321856321583e-02
-2.535351500659777796e-02
-4.386583013792010044e-02
-4.846055075024186670e-02
5.248867543948908254e-02
7.885817838272340952e-02
-5.104262306903568913e-02
8.831926548372996677e-02
4.387179416692835177e-02
1.465225637454243592e-02
-1.130778143872939422e-02
7.937674636238489789e-02
5.781718354459330911e-02
1.815326777823970950e-02
6.894265550802644582e-02
-1.939209165625799258e-02
-4.809317838453620181e-02
-6.140910837679672968e-02
-4.516702114089865550e-02
3.503774858924441765e-02
5.623273281242940208e-02
8.616123590844608493e-02
-2.609085435538319175e-02
4.377472145150684141e-02
-4.040111628100962610e-02
-4.313684788200605746e-02
4.187839393348129907e-02
1.461649697189715442e-02
-4.190409694977668270e-02
-8.992831648164223424e-02
-4.166873484378078724e-02
-7.760442926012330045e-02
-6.818293761850376111e-02
-6.341664780060765616e-02
2.061859866949794506e-02
-6.182692401076677474e-02
-4.033922025483663992e-02
-9.341480885100899786e-03
-7.400803071897130159e-02
-1.977483942412608386e-02
-7.963684403308110560e-02
-2.738791053971685249e-02
-5.762828803943071537e-02
-2.539915381058193214e-02
3.783512607562364988e-02
4.818506401248007220e-02
1.476761238372423755e-02
7.475162496649844770e-04
9.120289954962225790e-03
-2.904630116532477824e-02
-1.008931092152178660e-02
-5.752567426677668988e-02
6.407629905560859040e-02
-6.122435919972391699e-02
2.190535580639533728e-02
2.582170755862672404e-02
6.529349439867275506e-02
-2.733419672680170373e-02
5.700308661454515230e-02
8.241215576535920739e-02
1.899166166979460169e-02
9.643952398194008055e-03
-3.267897676034405702e-02
7.435032749847156341e-02
8.117238257300181392e-02
-5.992766132695511588e-02
4.966516601633928080e-02
6.985417785896676224e-02
5.808844000151536235e-02
-2.526031359716626474e-03
1.660354127608942507e-02
-4.709507202858969482e-02
-7.607648894610762047e-02
-3.927639190836219873e-02
-5.459437727914765587e-02
-6.440793889018173179e-02
8.359065645374146036e-02
-1.191969018422750319e-02
8.982828428450440050e-03
5.697174477651360813e-02
-4.034799310770949970e-02
-1.890506925859998522e-02
5.800750126653125144e-02
1.512102069296944636e-02
6.230231142916978909e-02
-2.116596547504307618e-02
8.559183644767701105e-02
4.826113544712005987e-02
-7.382549718647503367e-02
8.138442997681619162e-02
-3.492176857011086016e-02
-2.976734485011334891e-02
-2.614888441907785646e-02
4.493425839522594131e-04
-1.186649147975613397e-02
2.571737356918237308e-02
-8.272049575441145497e-02
8.255446838225351247e-02
-1.324922340604345154e-02
-3.533279196438679493e-02
-5.800476035421253673e-02
3.830871051368152369e-02
5.974849484119440501e-02
1.683872690138419476e-02
-3.352299162559036535e-03
7.115278078071808621e-02
-5.723224837635668139e-02
2.211021593287514075e-02
5.952553945507003952e-02
3.636266669279031999e-02
4.877299814749471579e-02
2.035588667191891646e-02
-7.855932679513391581e-02
7.020917835195186751e-02
-6.854900494003052236e-02
2.385637415870600631e-02
7.757240532081172146e-02
-4.565396896118507908e-02
8.159819314913266397e-02
-2.904396373278282997e-02
-7.541404231238060807e-02
6.771319172010779874e-02
-1.068993703107809674e-02
-6.549847449767970398e-02
2.240083846695500869e-02
-4.961832535493129054e-02
1.453335933343608173e-02
6.102630376956186264e-02
-6.584942759909884202e-02
7.766261704129083510e-02
-2.629285975157608091e-02
-3.562564431184903069e-02
2.474027102590366060e-03
4.374274273430271698e-02
-2.604014093033282795e-02
-6.355408323521738456e-02
7.115257133995801786e-02
-2.454824187371118863e-02
-4.220404837220259608e-02
-4.313393977573930921e-02
6.017021695994846653e-02
3.756299465686847427e-03
-7.476934485401483255e-02
2.884134599416876554e-02
7.085113707013548923e-02
-3.214813973540246034e-02
9.694506529755973767e-02
-4.319335434476681730e-03
2.002038552759443507e-02
-3.498839097886597554e-02
5.430970942883464256e-03
5.126418096615148814e-03
6.577367584605242623e-02
6.599654005480663777e-02
1.584515938146835706e-03
4.561515438494587876e-02
4.970662568764309952e-02
-3.059532643955530096e-02
2.721537836131195966e-03
6.929152293473123114e-02
1.976856462762592494e-03
-7.668678731102064605e-02
1.985534702688880604e-02
-5.437949687886333566e-02
-7.978027813371671439e-02
-2.289336902227872422e-02
4.129507744549239245e-02
6.731844181921949055e-02
-7.226294732382143593e-02
-5.103941088435227230e-02
6.684975380361887765e-02
-7.485213258687899163e-02
9.769522367231312301e-04
3.072793060946800783e-02
7.716229448760796028e-02
3.125984501988535863e-02
-1.424589380810392832e-02
-5.971420303275449398e-02
3.289977294027611465e-02
-3.139337148822909235e-02
-8.022986935274015186e-02
2.019726160998061570e-02
8.328217456445857758e-02
-1.121216051657702127e-02
-6.497689623062122277e-02
5.032727559899542041e-02
8.249889662840982629e-02
5.122286441137577362e-02
-8.619521237709266981e-02
-4.605735264321374374e-03
-4.339041669775783178e-02
2.471327493093054828e-02
8.685702668235246657e-03
4.504462341113420198e-02
-2.700851552554627694e-02
-8.218656579202229112e-03
-2.539408615618419379e-02
-8.161879787552817067e-02
5.572063021781859665e-02
7.666093824468200868e-02
-3.508516183012716505e-02
-4.036666947555656026e-02
-8.725243291636261556e-02
5.746321483400794461e-02
2.950227606819704439e-03
-8.107268122652765141e-02
4.235022939249860618e-02
7.886092853094989197e-02
4.012294957136728485e-02
9.423393573777692767e-02
-5.911138584243220973e-02
1.525844434180827040e-02
4.371725318327576021e-02
8.799550530627869849e-02
6.364236523273006374e-02
-7.840706398670972688e-02
-5.120081487739160109e-02
8.165480790812970624e-02
8.978811527614614929e-02
-5.714483361733474487e-02
7.913891934958555696e-02
2.645198622104103642e-02
-5.057429655687526587e-02
-3.379900319602653636e-02
7.228494445350303055e-02
1.704453023849406695e-02
4.354342057837218283e-02
6.665682073532816498e-02
4.693296141060920856e-02
1.893314972016492057e-02
1.545384290895233416e-02
2.733520145907507998e-02
3.867703051971690953e-02
6.118263736870886010e-02
8.195191043597604974e-02
-6.834098235104314745e-02
-6.209513618155297621e-02
4.772557936666166345e-02
-7.173083712691433189e-02
-6.654421411420782806e-02
4.669799624791869108e-02
6.930618410291475295e-02
2.861167846195589257e-03
8.364514843290581092e-02
-4.534796294216517781e-02
-1.665326777474236859e-03
6.719801158664980012e-02
-6.083348230540605583e-02
-2.012125445878562915e-02
3.311800598194174911e-02
-7.191825181326966243e-02
2.169963064408087991e-02
-5.405922430221167529e-02
-7.450521002910989732e-02
-2.277132773192410559e-02
2.284240698604330169e-02
3.098528405188648999e-02
1.266784288846358429e-02
1.279121892026549058e-02
4.552256472857606207e-02
5.190494529229332590e-03
4.041880660406271634e-03
-5.990586370773103020e-02
-3.563002204953207019e-02
-1.397876358421311013e-02
-5.398060832491549665e-02
5.960705003051574441e-02
3.570804571800809731e-03
5.314471410882615210e-02
7.301758044947830040e-02
1.618280553712970679e-02
-3.843612678809267547e-02
5.723783127885917477e-02
-8.018651036113176589e-02
7.931006540736895705e-02
8.920023887388174588e-02
6.417427010029969070e-02
1.282124831584854560e-02
-4.883957704813691320e-02
-2.829132126855924897e-02
-7.231022430635165865e-02
9.256054131117352757e-02
7.379277518272782388e-02
-2.526529822187347733e-03
-6.975356466916995957e-02
3.169170201923892510e-02
5.000531495429538092e-02
6.389183788710112166e-02
-3.249796989182028584e-02
-3.336116530781765843e-03
9.043525909407908181e-02
7.751437009072618955e-02
-4.871231020141833512e-02
-3.833907520942329145e-02
3.751981771577282687e-02
-4.262114032140047054e-02
-5.800262349079716995e-02
-2.564149340629906168e-02
1.544462059077637492e-02
-7.386897844093790431e-03
-5.371212018546645678e-02
7.002034759157868549e-02
7.975466995727219233e-02
-2.283757027983738391e-02
-2.280501322253988133e-02
-8.062406514916396760e-02
1.389872107293845199e-04
-3.014838691514059449e-02
1.600230059512992853e-02
6.484685962008618181e-04
6.741245783006673264e-02
4.902358309697724126e-02
3.655370811604566339e-02
7.016792059691497052e-02
-2.158855156186245336e-02
-6.566285539450632258e-02
-2.332041556760914083e-02
3.927377872894751570e-02
8.937656450299445721e-02
4.203724378608639928e-02
4.897204765059619269e-02
4.986429006312554507e-02
1.208332621280808379e-02
4.701590047404943101e-02
8.861784044411290251e-02
1.668969256723818254e-02
-2.047808336793957573e-02
-1.057819507502256139e-02
4.643323416443762008e-02
-1.002859326959362751e-02
-3.399223429427896542e-02
7.720351096166692961e-02
7.804298449394524162e-02
-4.599831416046730459e-02
4.477517351494721826e-02
-3.715348069132986403e-02
-1.974889466696028682e-03
7.800304061056520522e-02
2.847997334833321861e-02
2.863602494799852641e-02
9.212581648824968994e-02
2.431913810435095552e-02
3.826087540896251117e-03
-4.968064499533756534e-02
4.982905702057788960e-02
-4.279107969253298505e-02
-7.006580570701386422e-03
6.318365197151558366e-02
7.633055362522621345e-02
-2.335193035414691309e-02
6.798310574290060415e-02
-2.265096339384305678e-03
6.190140936735606669e-02
-7.968175567651221425e-02
9.592672730668782427e-03
-7.721135165030132419e-02
-6.867984600071831702e-02
8.551740762412282648e-02
2.145957289267749063e-02
-3.542829397286991616e-02
-4.598455724510153858e-02
-3.983135955461090255e-02
-1.678406489672506358e-02
-8.459214356126926182e-02
4.409331459917498197e-02
-4.406274694605333969e-02
-7.022717522600326057e-02
-2.788578525523470117e-02
-6.169319020217981647e-02
-1.124375284273607285e-02
-3.438925818338771541e-03
-4.930229385294430944e-02
-2.229240314892980135e-02
6.080845878608043265e-02
5.061419351215577789e-02
6.372726830257403885e-02
-6.751841123931726085e-02
8.314780931675798490e-04
6.841557424218333572e-02
9.120474790059970860e-02
8.425058570614263331e-02
6.502018852404270466e-02
-6.887190715093632898e-02
-4.570722387373740009e-02
7.913224935451206032e-02
5.753534879922252848e-02
-3.598408228892398947e-02
-8.190587695702691851e-02
8.783562449774380554e-02
-7.706528050350172632e-02
-3.100552627272585085e-02
-5.418351529228549596e-02
7.647365962463618938e-02
8.098993138464914698e-02
4.221472148317543388e-02
3.928693901328077914e-02
1.177647554905585613e-02
5.405029434945290978e-02
-2.460904669689396862e-02
-1.459979578463478124e-02
7.481751419101426159e-02
-7.568659800113296254e-02
-5.682296914024369955e-02
3.299546382787780369e-02
3.064200123020534988e-02
2.130918868504073915e-02
4.738843396720764795e-02
9.208319384450827649e-02
6.354782515011508925e-02
7.546075688984659434e-03
-3.387158354087773521e-02
5.591672658890806114e-02
-1.837516837883761134e-02
-6.978154267297294322e-02
-2.463893873295125089e-02
2.950630524796732639e-03
-5.078242682410726710e-02
-2.715820807588666466e-02
-1.225551565060862234e-02
-1.686515986489333990e-03
5.967704920379575395e-02
5.578803103640270905e-02
3.206689668529991155e-02
-6.715800818494596647e-02
-4.920856890277520296e-02
2.047039819350564629e-02
-7.654263483679618618e-02
8.825752278317170602e-03
-6.928180014663035124e-02
-6.430943497912317008e-02
1.367939308055148191e-02
-6.653566462731261288e-02
8.864257655609793229e-02
-1.743808931844215496e-02
8.873635318367378844e-02
-1.675331109281047795e-02
-2.627055971014322002e-03
3.922506006466495825e-03
2.206003895557684391e-02
5.727560453025522941e-02
-3.342336133718727675e-02
-2.257301752510383619e-02
-3.354965458958884816e-02
6.775457540426671477e-02
6.970254312061652247e-02
2.295120725821075264e-02
2.417723077557187503e-02
-7.031784223617855434e-02
-3.798809984440892212e-02
-1.117054738359366840e-02
3.614982923640423090e-02
2.983741531546021605e-02
4.929140338860430598e-02
3.162865448508187655e-02
-1.160345236870955789e-02
-2.597088678156940153e-02
-7.718073644033068836e-02
6.511501371551323136e-02
7.816696269812158440e-03
4.995027492196905949e-02
2.328404265761697435e-03
-6.832678802321856537e-02
1.534608753885829653e-03
-1.039092773541780770e-02
1.675959097682652721e-02
3.388906274233100674e-02
5.412683276734563814e-02
4.952352350060858915e-02
-4.731055924545845420e-02
3.825421135147605983e-02
2.104706511823085675e-03
-7.712021378842943975e-02
-7.406031984727365607e-04
5.693904418981203530e-02
-6.875975711535646517e-02
7.493546986662712184e-02
-2.583414975545246864e-02
5.259010114746224401e-02
-2.964542412301243018e-02
6.760516465216923065e-02
-3.079451847478825374e-03
3.061280401128030348e-02
-2.853414477168953259e-02
2.325757420850867868e-02
9.592957029905766278e-03
7.280518155192547414e-02
1.000528442366520852e-02
-5.724689059799042273e-02
-6.137578071539424862e-02
-2.917112122676941352e-02
8.310011969306739521e-02
-7.826042077702968780e-02
-5.944242221579845026e-02
3.280815186367296021e-02
-5.500338218056751577e-02
-8.200419784526467859e-02
-2.361472139333320799e-02
-3.550207601791009748e-02
-5.902759829337175107e-02
-8.229879860811362136e-02
-6.977750907788488055e-02
2.551699351161814885e-02
3.798172590606004040e-02
-6.559565441012714382e-02
7.582852765207438728e-02
3.741423361800937791e-02
7.223603727237136451e-02
-6.701524275620755755e-02
6.533512675722259744e-02
6.180002967485027227e-02
7.439044189956786624e-02
3.132310063767363567e-02
-1.284247369530618771e-02
4.249468649206023657e-02
-2.627486225317463009e-02
2.428730137783839324e-02
6.208948504728612622e-02
-3.115550582015139125e-02
-3.112542798754748541e-02
-1.780250289231578853e-02
3.659883500334670803e-02
6.720362897461844981e-03
-7.350236737113867436e-02
-9.717414980585016571e-03
2.164818268796453449e-02
5.807876415468002373e-02
2.949360361071754269e-02
-4.957974394954912239e-02
-8.957120067572335587e-02
8.602752553785292244e-02
-5.910683345230861863e-02
8.596150751327542860e-02
-4.256520887860967134e-02
-4.490138667083315438e-02
-3.895696290100960496e-02
4.404991431281628234e-02
1.771711847611812107e-02
-1.822256851345807269e-02
-2.558502842918565848e-02
5.683618147279126398e-02
3.569087702599106626e-02
4.670564128030572221e-02
-7.739467854982086392e-02
-3.846453892028536825e-02
-2.542428447272345945e-02
-7.775734658288582790e-02
3.978248683327139518e-02
-7.466574478716055119e-02
3.828360767217323796e-02
-8.131476647728334839e-02
4.696681312478252074e-02
-2.591054567379730191e-03
-7.267178796171093469e-02
5.664886812869976418e-02
9.304358988017279175e-02
-4.772121270436605056e-02
7.661523803376521502e-02
6.940406252248071395e-02
-5.531097905042629825e-02
-4.818308576313065639e-02
-7.578006540984805195e-02
-6.643967031248201871e-02
-1.323791594489402007e-02
-5.909889504337013932e-02
-3.399872104557052216e-02
-1.085703891591759465e-02
8.904722943156712089e-02
5.335528828640531684e-02
-3.782022673576193855e-03
-3.457305507968434083e-02
1.789855633389426937e-02
3.126613445321380774e-02
-2.441284654706012136e-02
-5.430428586979154683e-03
-5.290850399158074369e-03
2.991236988762415588e-02
-3.396040272380312919e-02
7.565809311038430851e-02
-4.110604358667843683e-02
-2.810425453303700902e-02
1.864747332261687540e-02
7.633184608346102983e-03
5.848776542506903264e-02
4.326011155440877276e-02
-3.609571391917555661e-02
-4.195134124283522031e-02
-4.482870935439128152e-02
1.144607548448987530e-02
1.017164064197817117e-02
4.455102107837147218e-02
7.647448903121481512e-02
-3.213907964427369091e-02
-1.747307630241676929e-02
-2.445289900326285543e-02
7.616301109003605074e-02
-6.162504689944537511e-02
-3.085994160123980284e-02
9.247494517331707187e-03
-2.521838612879575767e-02
-1.226315660305968107e-02
-4.473460418180289638e-02
8.086987106822046689e-02
-8.628077765195189819e-02
-7.854113306883971080e-02
6.993289974325040542e-03
-7.534374797355947173e-02
2.451901199185318320e-02
-6.775125554042958631e-02
8.116954174178050985e-02
6.427450804097309400e-02
2.197971161662916340e-02
4.076088947294049386e-02
-7.688432840702496586e-03
6.228007028117448635e-02
2.123847296114363473e-02
5.631097395961515845e-02
6.009318874024564827e-02
-7.111321673692776180e-02
5.065226827031910073e-02
-3.615482063246576450e-02
2.701498489231522748e-02
-1.531896815380451348e-03
-4.236104753233829734e-02
5.843319491118541265e-02
-1.777618499170381672e-02
-2.965552990212057954e-03
-6.451754981190521709e-02
-2.767286492295912420e-02
1.840532753366742186e-02
-7.884617127797220737e-02
8.358234156529865955e-02
-1.697890423482099551e-02
1.958318181277329123e-02
-6.524410585960185860e-02
-1.551129586567058516e-02
-2.534307915131591218e-02
1.629311972853820373e-02
6.796736355685385755e-02
-6.952849633919963579e-02
2.153043848851524805e-02
-8.223669221896369452e-02
8.703946420134389683e-02
1.916538585925316174e-02
-2.237240560884831350e-02
-8.609246818523833000e-02
-6.203767782066971909e-02
6.933057506047320649e-03
-6.761454204653012667e-02
-2.352518084070675392e-02
6.082398140570152018e-02
-4.173855889270330216e-02
-2.815381315651390576e-02
-3.198179446662535036e-02
7.447992589976486222e-02
4.208671344982019974e-02
5.721089532234446134e-02
-5.416090706555735067e-03
-6.276963828032047776e-02
3.706788837325199898e-02
4.621309314036365495e-02
4.412159268682876861e-02
-4.574885680208941319e-02
-1.582699322950604712e-02
-8.307667915324652708e-02
-8.816511768833738827e-02
5.515843748095466959e-02
-7.233065061573276666e-02
-2.768960815232894904e-02
8.548341567831413412e-02
-6.472994460729387944e-02
-8.878894815640220317e-02
-2.207423091890919897e-02
-4.950747483595802773e-02
-5.781594477753361494e-02
4.737613945678087468e-02
-4.057211837936867960e-02
3.704125180729257727e-02
-8.012669864683161225e-02
-8.010803713258254910e-02
3.673107940630795237e-02
6.519776320901703170e-02
-3.577928942895131775e-02
-2.899716183454113458e-02
6.605654720690351533e-02
-8.779197211154445013e-02
2.390389452666811729e-02
3.181972321674791243e-02
3.979031782201078449e-02
-5.850180395577651848e-02
-4.852626419057250867e-02
-2.965040214080494341e-02
1.369765204771400922e-02
-6.482428979152206339e-02
-2.229744138044131505e-02
-1.186978544027898937e-02
-1.181855905112166871e-02
8.456828478066190369e-02
