-1.493755966322880824e-02
-1.104865875029769316e-02
2.452793565467653591e-02
3.861309682713031776e-03
-2.506861496435371442e-02
2.147598932791247237e-02
3.051145105250504391e-02
-1.033346527689738871e-02
-2.351846586121832117e-02
3.615429031623089429e-02
3.284754031643143807e-02
-1.619119048614993048e-02
-7.777001086848430757e-03
-2.751164733778134128e-03
1.525885779810677665e-03
-3.051315124128016476e-02
7.952939651808654808e-03
1.557909256897599664e-03
1.393978629202987513e-02
-2.545686882093237124e-02
-2.531932956809490598e-02
1.710555328259935962e-02
-4.551336700161478718e-03
1.969440449065460938e-02
2.692520857681841503e-02
-2.044170068723400943e-02
2.353481018849331793e-02
2.811559040557749453e-02
9.923569294457588660e-03
3.446904779196399704e-02
3.149927226702517458e-02
-6.916851193026363892e-03
2.228993314278368207e-02
-1.656304456382815676e-02
1.173077196242437682e-03
8.505539774209359277e-03
9.929944890129171337e-03
-1.970127219284178305e-02
-2.015479392292164953e-02
-2.442053614443092865e-02
3.238669795955448349e-02
1.771618277126852173e-02
3.572598578320313606e-02
-4.080158732788391994e-03
1.344019709652891775e-02
-3.135984439486041303e-02
-1.874511676288001180e-02
-1.913512422246987921e-02
1.346022430129877566e-02
2.333183187893925203e-02
2.069596969130938283e-02
-2.551653488926920732e-02
-2.993839807317287549e-02
3.056040109703386104e-02
3.235330704206073466e-02
3.013163919645798008e-02
-2.158269967424158303e-02
3.409135571315147217e-02
-2.291517031235192764e-02
-4.517305956548334570e-03
2.486534478320521699e-02
6.151513986960133358e-03
-1.715577104738125538e-02
-2.567470190718086284e-02
5.428248063562976164e-03
3.501329709563638648e-02
-2.764650143501059393e-02
2.107890847526047023e-02
-9.412189415932657732e-03
2.874933811263456068e-02
-4.460322158432511105e-03
6.927969803116522905e-03
2.056997233697605704e-02
-1.647833879277422683e-02
1.773219073226961831e-02
-1.334608937278425160e-03
-3.849022789345650161e-03
3.018511951310006661e-03
-1.424503670561314515e-02
-1.729939570607490207e-02
3.127306021465053182e-02
-5.218402887289172280e-03
-2.953867296039065782e-02
2.176287239115109670e-02
1.215705761554103891e-02
3.113115351176657525e-02
8.222476781768996157e-03
1.282141134152815472e-03
-4.858929534088883041e-03
8.295795554661474641e-03
1.501605492650493444e-02
-1.202953991501046031e-02
-3.014932903312065801e-02
2.604729765567972283e-02
2.925979550732509069e-03
-1.309539530392161456e-02
-1.227223261070953080e-02
-1.639637867565042068e-02
-1.076522368647002577e-02
2.483127565989169325e-02
-1.242453399891205353e-02
-5.631652589051018912e-03
-1.454897286543637216e-02
1.650276003610471470e-02
3.122714739066007137e-03
2.644030192183634623e-02
1.108540331520053469e-02
2.414461509812289644e-02
1.277898258456451087e-02
-1.936197686175646429e-02
3.251037030342671108e-02
-1.230333137159524831e-02
1.524631575869775033e-02
2.563861685313795213e-02
3.087972416907820705e-02
-1.354073978723040021e-03
3.176627393732121829e-02
-7.016838204828219558e-03
-3.613161102328346641e-02
1.706009674690439279e-02
1.630574920846221756e-02
1.093781508895902421e-02
2.177642106593198623e-02
-3.046612393759862147e-02
1.761062258321261301e-02
4.059020138821180235e-02
3.162653466525578577e-02
-1.968104811008385135e-02
-2.110138755497072485e-02
-3.437835247122905669e-02
2.087881310923615091e-02
2.094457339818947550e-02
-5.357614714297835416e-03
-1.765099915114419493e-02
4.096225620683325436e-02
-2.462383399497486414e-02
2.849813416119971032e-03
3.237406132192173838e-03
-1.320199559119287352e-02
1.748542987225520234e-02
1.922327025590911051e-02
-2.544818068415134749e-02
4.799250624752431776e-03
-3.082958579167043717e-02
-1.702285924920463739e-02
-5.144684398260477827e-04
-1.484448996360123244e-02
-1.887900757686476055e-02
-1.350081702848245687e-03
3.098872713963602907e-02
3.772088064962644469e-03
-1.952291772703915488e-03
2.377016062214793585e-02
2.135733890568374677e-02
1.058919291007369076e-02
1.823191476927907631e-02
-6.503440815412950791e-03
-3.369790107241133186e-03
1.099979859596554154e-03
4.850152382602226746e-03
1.360025398212474576e-02
1.540979813734595812e-03
2.748953544488504357e-03
-3.387559797716709759e-02
3.676227649831030619e-02
5.663724515142677836e-03
3.560980653296843407e-02
3.068192464891226351e-02
-3.146746299535058133e-02
3.197113353125380364e-02
5.572110389837147716e-03
2.981325162287457725e-02
2.699298226768808914e-02
-4.170294963157123455e-04
3.586789609571825604e-02
-4.124759334056478204e-03
4.864270733100241502e-03
-2.830937219635898741e-02
-3.336460931695991311e-02
3.155306968438917250e-03
1.818335252209236919e-02
-9.584167765343445944e-03
-8.963536305594524758e-03
-3.275959455806324444e-02
1.630916750613301339e-02
2.071194795353982834e-02
-3.258368373641602755e-02
2.535684578637718498e-02
3.491699192483545960e-02
-1.877598626326316619e-02
2.045341141291596304e-02
-1.454510248707768794e-02
-2.039081706410478950e-02
3.158124558616338257e-02
3.312586009408734211e-02
2.703030768168584660e-02
-2.775285604689395075e-03
-1.804376744828851964e-02
2.279922316341103858e-02
4.084510291325182257e-02
-2.148240463913183088e-02
-1.535209297451477564e-02
-2.359151569347685273e-02
1.676910394194031789e-02
-3.072924058653650134e-02
-1.353778183617454500e-02
-3.487896285049573580e-02
-1.424366064792254374e-02
-2.030243279747406121e-02
-2.183179906721758462e-02
2.748766915989234172e-02
-1.331237223198699152e-02
-1.469858659083824078e-02
7.871861631036218901e-03
-3.907752365550454937e-03
1.122638905457566671e-02
-3.003544071323900611e-02
-2.670857642039839788e-02
-2.138411491007498680e-02
2.340850122802639113e-02
4.999960373305155359e-03
3.369563767248725389e-02
2.796796758547866191e-02
-6.552894560053672897e-05
2.207391592083216177e-03
1.730559746600460278e-03
-2.480722735055519018e-02
-1.624332957209095873e-02
1.169010073880018957e-02
1.109576027886200605e-02
1.480733150848681338e-03
2.678564398016987022e-02
-1.906460560284560513e-02
1.861078344001215051e-02
-1.390870394628152332e-02
1.120807463574583461e-02
3.508883667826729474e-02
2.134399919706151880e-02
-1.682094994620681253e-02
2.677048668110793006e-02
3.266857796636195993e-02
2.416092143143042104e-02
-6.641612918720966353e-03
-9.910958869577586247e-03
-1.403682764872603989e-02
8.948298207507919197e-03
1.829092479115227918e-02
1.786234610663162484e-02
-3.200193073477677116e-03
9.344966768927133460e-03
5.525258516994435015e-03
-8.525155674941126832e-03
-8.239722207242894392e-03
-3.440744218917304170e-02
-3.112826206375953961e-02
2.299906858062356063e-02
1.769961177796835691e-02
3.112803047798002459e-02
3.086632093467727572e-02
2.131008068739745701e-02
1.079608707855094808e-02
-3.028604456802879916e-02
-3.662160919371201806e-02
1.342285217076027992e-02
5.702103507990639170e-03
1.051473257431050079e-02
-2.205113904096779945e-02
-1.254308963557086536e-03
2.551800682931856107e-02
-1.488333959746950159e-02
2.387642859485957815e-03
-2.494617562288185819e-02
2.782139820487411486e-02
-3.020113871920288018e-02
-1.589946042076310906e-02
3.339395211565689831e-02
3.901151611617654363e-02
1.590216911331862951e-02
5.204636992983367738e-03
-2.378902673485518843e-02
2.844926136902133432e-02
-1.908896804598456121e-02
-1.127690230185888348e-02
-3.405547916574269696e-02
4.594436101205811446e-03
-8.680884796536720086e-03
-7.195308143536085013e-03
1.856066947625754568e-02
-2.120267035552039422e-02
1.933966417143080652e-02
-1.350908231912098306e-03
4.141723642444666842e-03
2.161351057173534554e-02
1.406272278423435600e-02
-2.704743233200024993e-02
-1.194818964064791114e-02
-3.320963616505638594e-02
-1.544257674155617363e-02
1.859406329927414808e-02
-3.846168677376157752e-02
4.877851020904135949e-03
2.403468641263728847e-02
7.942050571651036381e-03
9.614151383295053283e-03
3.313872199152156223e-02
-2.964586699296005087e-02
-2.373750110075231040e-02
2.431440148947078966e-02
-8.470652546804912503e-03
-1.809163537498464230e-02
5.429967585739272143e-03
-3.446308983939899012e-02
2.491884857927011143e-02
5.391978490365059717e-03
3.434389202482251990e-02
-2.706173138815116605e-02
2.647847509259781962e-03
1.981066219559382210e-02
-6.029427988537434599e-03
1.013696845596662871e-02
-3.444828941044979220e-02
2.988833553603469084e-02
1.464840309317764350e-02
4.074929524816753301e-02
2.526486266307705758e-02
-1.982596429155445913e-02
1.947228039828218307e-02
-3.336820061762013623e-02
-3.187278667254585252e-02
-2.710877157306436358e-02
-2.975608539212231882e-02
1.110893304953668864e-02
-3.305878208443564087e-02
-1.269573497765463105e-02
-1.238358527808838122e-02
1.813394415721126737e-02
2.244723035588367527e-02
-2.654947884736093798e-03
-1.584547106330281771e-02
-2.807731901350467990e-02
-1.565210006777978391e-02
6.253108261846660951e-03
5.315468178514801308e-03
-2.235379714011347108e-02
1.771837564956262392e-02
3.246433428300975893e-02
2.501910809645599421e-02
-7.116921528115659722e-03
-2.295028398376440515e-02
-7.205637372278078136e-03
-4.019421340323126902e-03
-2.233913690228834029e-02
3.532224815060532042e-02
-8.731560106046861586e-03
-1.517172434351308531e-02
2.919755664285827307e-02
-2.795385665039579453e-03
-3.042633712575415830e-02
-6.742957005228886712e-03
-6.923428225667176486e-03
-7.886340943715302015e-04
4.564825633287028831e-05
2.463527965830827286e-03
2.755374906247013561e-02
1.953380449227276692e-03
-2.729855518460475722e-02
1.527810010492105380e-02
3.338183876982206422e-02
1.613037024834417660e-02
1.451090370315972176e-02
1.346829856297546840e-02
-3.323314279239433788e-02
1.616612596199260010e-02
9.846141686549406830e-03
1.180255607039115001e-02
1.411292932704480245e-02
2.475748764087033066e-02
-2.147084687922965959e-02
-3.423401998138119601e-02
-1.246432630277590457e-02
2.007572733519020006e-02
2.925344447162401412e-02
-6.099703374194574354e-04
1.748145100201261778e-02
5.740075963179988756e-03
-3.797411735213201966e-02
-3.013816476015303975e-02
-3.102774061067550479e-02
-7.731462373199778949e-03
-1.778414378419758716e-03
1.716907477965926021e-02
2.428633194782596136e-02
8.777031309504752798e-03
-1.667120895661164046e-02
-3.561016418937801992e-02
-1.625885812866730701e-02
2.919506947019694099e-03
2.231845968298787819e-04
-1.815995150243271058e-02
6.444432558631869867e-03
1.663010770176636538e-02
3.040550749004038156e-02
-2.269674574843200815e-02
2.995886114658191310e-02
1.238615168161962335e-02
2.280202811373590807e-02
-2.984972923778495338e-02
6.538677954062632400e-03
1.285560385559692854e-02
-2.453851143192593495e-02
-2.767388446110017122e-02
-1.409284706023526505e-02
-2.517129678466004800e-02
-4.272222197060744457e-03
-2.103668552194212435e-02
3.063055246385331526e-02
9.843806191884584694e-03
-1.986033854280627731e-02
-1.860911775599342552e-02
-1.382743931941241011e-02
2.034091881948897965e-02
-2.715911797980330444e-02
-3.372976793494684294e-02
3.349532438424511482e-02
-1.034403385283777857e-02
-1.850350339541743591e-02
-9.767205754759641229e-03
1.048450255539891580e-02
8.122903904347892473e-03
1.675766228454246901e-02
3.605972336611227430e-03
3.133376608591687679e-02
-3.296250508557303782e-02
1.597287445939810438e-02
-1.908166681061487444e-02
3.471332177571716249e-02
-3.166421635566501330e-02
9.606163584110039011e-03
-4.206261062582444528e-04
-2.310222406868748038e-02
3.201154184164482080e-02
-7.099535738572739993e-03
-1.105257993668791981e-02
2.564041172933336464e-03
-1.467243180933544035e-02
-1.031971557011102623e-02
-1.371917199155344054e-02
-2.443313315244457617e-03
-1.945597251404655378e-02
1.878685102701447554e-03
1.412964776161144964e-02
1.449960775128961155e-02
-3.252883455723893551e-04
-1.772769178723914221e-02
-1.936706422974803637e-02
-1.864044061864737409e-02
-6.568759307656886481e-03
-2.071111672853222230e-02
5.969475348450515098e-03
-1.240991859937998947e-03
-2.015639197408744879e-02
7.943167652754196291e-04
1.602754561917290460e-02
-1.323644132784732724e-02
-2.980329054371077049e-02
8.719234378707068495e-03
-7.368656257838827016e-03
-1.555756053775428534e-02
-7.329018191077008026e-03
-1.382819091711167021e-02
-7.301250540042379319e-03
-4.081238059198197612e-03
8.413868761512009395e-03
1.343509897231217817e-02
6.212675697183414267e-03
-9.056728108406212827e-03
4.240121205289831482e-03
3.285135712756424159e-02
-5.617642710778977290e-03
2.104755985909903537e-02
1.574939063906465736e-02
1.547266426378049453e-02
1.847292012831262126e-02
3.500182345779247889e-02
1.350955881523109060e-02
-2.450131794062478108e-02
1.667692145497207123e-02
1.937299084142523470e-02
-3.321649006536915843e-03
9.076579614839905968e-03
-2.341303964116337941e-02
-7.131564276493597074e-03
-2.239544855796792022e-02
-2.520111239396203434e-02
-9.781600168024909628e-03
3.379638989064152887e-02
-2.939871431965909720e-02
2.903986061250878742e-02
-3.253196532246218492e-02
-7.642301976176879563e-03
-1.087062369071943244e-02
4.861759483508896335e-03
2.132112923939438048e-02
-2.365319717640295208e-02
3.274716896446414061e-02
-3.040673671614586675e-03
-3.089624498767166993e-02
1.783298887576049291e-02
2.516409526745245345e-02
1.906912713094269587e-02
-2.388899161703586863e-02
3.003300826896524583e-02
1.823875610954371271e-02
-2.819314984843077770e-02
-3.655413495204696411e-03
8.068932337332074614e-03
-2.840875927910938362e-02
2.601689406697919871e-02
2.992091661424982341e-02
2.712795517366932072e-02
-3.909523700896600017e-04
2.366922901150777733e-02
4.165832546086504530e-03
3.504956521655130941e-02
8.980918959180673317e-03
2.114262704559628780e-02
-2.368001103303220799e-03
6.008178492304632043e-04
1.737674529434015888e-02
3.523392071341751447e-02
2.695739588694622685e-02
5.612020826135858190e-03
3.159698790844501365e-02
-4.377909583433840443e-03
9.550935085813054559e-03
-2.787213740864401268e-03
-1.221089895666060271e-02
3.073607506092721972e-02
2.361913215288286971e-03
7.509937307890609225e-03
-2.454899933909009124e-02
1.539361077857344211e-03
-1.668140667687239946e-03
-5.930728532193969144e-03
-1.295287788548968831e-02
1.260043491237497915e-03
8.599302722272054306e-03
-2.223195786115172989e-02
8.273350490488459372e-03
2.854595582180540977e-02
-1.389056856203250111e-02
1.370587102334103712e-02
3.319654981647406772e-02
-2.138569099297680035e-02
-2.273072433943057816e-02
-2.584621734584191186e-02
-3.214040850545477404e-03
2.520705651565249145e-02
-2.949211800571821182e-02
-1.778987195211203381e-02
5.090910740650776527e-03
1.356845333720633692e-02
9.487695595508577329e-03
2.008675336982328544e-02
-1.723410806189359587e-02
2.817789441506970277e-02
-2.691613631409447288e-02
2.888689204709208799e-02
-6.991038508433158188e-03
-2.010395643225759699e-02
-1.875671234872500204e-02
1.250899464264394051e-02
3.664652999555741142e-02
-2.284999638430371127e-02
-2.684618480282290054e-02
7.766684387173274605e-03
1.496127290607065629e-03
1.313641186878653118e-02
-2.210319702277781587e-02
-3.342704831929622922e-02
-2.153947944305298692e-02
3.048793119842139673e-02
-1.876002972913593100e-03
-2.302393241476926103e-02
4.237934790984053401e-02
1.124362664461658542e-02
2.619876687775384971e-03
-1.727447900345780232e-02
-2.793607262084783077e-02
2.607460182390471462e-02
-2.609735462543127590e-02
1.841555955227645121e-04
6.709282774139806518e-03
3.027686494597837952e-02
-8.823618047612414098e-03
-3.041808914303135991e-02
3.714242154988651318e-02
1.988440183689107327e-02
-2.531165762619404930e-02
1.342712129618359174e-02
-3.756307175385406680e-03
2.432010334033328849e-02
5.835296419542324725e-03
-7.549903473668937576e-03
1.243988816798166121e-02
-2.167970380706331704e-02
2.703592983496990940e-02
2.210370696345049721e-02
-1.328804302283917958e-02
1.502861378753272449e-02
-2.967023374010781256e-02
-1.340047995320845821e-02
-3.392306243081912726e-02
3.272963842253542172e-02
-3.239155324744327075e-02
-1.233220954269104684e-02
1.074788653757498269e-02
2.759561974591739561e-02
-9.520928181160692033e-03
3.249723303462234009e-02
-2.116628986755216338e-02
9.134244013030765399e-03
-7.902541667171423048e-03
5.628135302553876305e-03
-3.539811586711125169e-02
-6.839826984407483719e-03
-2.131505228708205010e-02
2.597434340412736395e-02
1.485453564286033819e-02
3.115772961254493351e-02
2.841023970242110425e-03
-2.068191136451919248e-03
-2.257944241035233710e-02
-4.986955381965635717e-03
-2.922828902048190194e-02
8.489730640860322078e-04
-8.770394451431885730e-03
3.572273676709268857e-03
-3.407243947309349097e-02
-7.942459146563102604e-03
-4.750235990615245436e-03
9.213584146212846007e-03
2.912161842462316144e-02
2.528235294424288973e-02
-2.086255938660383155e-02
-3.161797899306843102e-02
-1.943604833317161620e-02
2.240382379951589772e-02
3.330744153514755140e-02
3.151849581607905904e-02
1.844348659218436604e-02
2.025914607044746948e-02
-3.131341639401670485e-02
2.985751941062715631e-02
-2.526193803779653094e-02
-7.190455036624258424e-03
-3.711381832908504895e-03
2.916889202753865026e-02
1.684958958499662568e-02
1.834989170414586673e-02
-4.257067757715352063e-03
3.133531133555568504e-02
-2.209027807174480246e-02
2.074696637374774319e-02
2.059094827029131491e-02
-2.187862240393610366e-02
-2.482167525139221745e-02
-2.477322264447436723e-03
-8.208447009412155743e-03
-2.874199869078920486e-02
-1.603257932063801433e-02
1.535988845108516264e-02
7.126404398445306508e-03
2.765888642925991986e-02
1.493157209835728992e-02
1.291362758388413939e-02
-1.417175085903399703e-02
-1.442015593933725082e-02
-1.002610060787128762e-02
-2.063553719838286127e-04
-3.452228364475178751e-02
-3.930428309052469080e-03
-8.478628196679181828e-03
-7.415039359843365180e-03
8.525688188241065113e-03
-2.880352307481358343e-02
8.454471508396396023e-03
2.091033994552016217e-02
-1.818107637800036452e-02
2.411396319513762002e-02
2.724154161129833246e-02
-1.203575422296621240e-02
-2.390975957212885736e-02
-2.947026861117017782e-02
-6.249634222893351784e-03
8.894120455047144214e-03
9.810246827989879681e-04
-2.574833310694555483e-02
2.631350291523246177e-02
-1.476466138428868778e-02
-1.502928946453475044e-02
1.164885120421779155e-03
2.762834977198291853e-02
-1.516531719357643981e-03
2.599756130915276825e-02
1.568637429844759595e-02
2.061674451024962315e-02
-2.839101033047144312e-02
-2.423156394513965167e-02
2.964145725897225636e-03
-6.010380647643762467e-03
3.273565721217765873e-02
2.974801638818043437e-02
-1.035559735375789388e-02
3.013230420595228165e-02
2.556844884510710639e-02
2.476169877478556422e-02
-2.301747983664440694e-02
-7.371495001064552570e-03
1.153444940360105926e-02
1.651583564429110612e-02
-1.815573492106678857e-02
1.785216312415851062e-02
-3.378673488085366661e-02
-1.572527681549442877e-02
-5.214762034549585805e-03
2.637166671714629568e-02
1.427145812350988190e-02
-1.006303845201688731e-02
-1.218579902181651797e-02
-1.999448770183406485e-02
-2.346193936758171963e-02
-2.095939285906789698e-02
1.904167345817201970e-02
5.527732892478308749e-03
-2.174772617382473780e-02
1.454938885400727973e-02
-3.177889489919036997e-02
-2.447417232131693030e-02
2.732471001602326463e-02
4.629958748044243726e-03
3.123323119105826315e-02
-2.996292819113849024e-02
1.834783839322267837e-02
2.456810209026955363e-02
-2.573106662958882240e-02
-6.357970696213102041e-03
2.027053294798498648e-02
3.450865320320372492e-02
-1.378709405619885217e-03
1.898605526190012480e-02
-6.419333583186414248e-03
9.002491038948921831e-03
-1.598649294756419740e-03
3.510023140284430042e-03
-3.740371255902887569e-03
-1.962050078345023776e-02
-5.481077642272211975e-03
-2.430522040403296224e-02
7.853040390760367140e-03
1.800888415213670185e-02
-2.009991687425797049e-02
-2.843795903352724919e-02
2.145162623441990504e-02
1.262130535738340172e-02
-3.581106846836381533e-03
-1.362517175779704923e-02
1.194055347325823253e-02
-1.980489501499949415e-02
1.890156910553458108e-02
-8.038772073329512186e-03
1.657994789820586498e-02
3.775972142344947297e-02
-7.096956480754173201e-03
1.175510773425071306e-02
-2.847561797909271830e-02
-2.139746148668494191e-02
-9.544372886361151762e-03
-1.424028638030890893e-02
3.328878146746901134e-02
2.271025477306835502e-02
2.312951953436612890e-02
1.941793976400811583e-02
-1.161976587770837364e-02
