-2.119749459573236697e-02
-3.174549761619375327e-02
-3.202802895827818602e-02
-1.304251249550062927e-02
1.529874022445602486e-02
1.641846864854929963e-02
1.073879348284528627e-03
1.787866937030170578e-02
7.731877462294398790e-03
4.039985552732619500e-02
-6.647438367516276397e-03
3.776013342144866891e-02
4.094577075598612725e-02
1.765848421386147574e-02
4.572922536214218264e-02
1.010487632763884536e-02
4.834336150021140144e-02
3.702587148391646432e-02
2.990066278384992393e-02
1.068468479087118610e-02
1.297894945758528915e-02
1.411707155293543889e-02
-1.848752003487758033e-02
-7.758037271289914757e-03
1.361638025875859179e-02
1.577698980170024780e-03
-2.824900849243502585e-02
-1.049801006508740454e-02
2.380046678741635016e-02
-2.903234873722777051e-03
-3.518136739124474999e-02
2.536885595798676549e-02
2.010656029426589192e-02
-2.581594225036988599e-02
-2.664644709379173845e-02
3.130469970008899205e-02
3.125810008460858450e-03
1.466293490690787765e-02
1.812954075166528858e-02
4.507474692446451769e-03
7.397271294067540859e-02
6.884754826282836471e-02
4.864317852316071833e-02
4.594385338023029147e-02
1.122266815212305882e-02
-2.453289765315749566e-03
-3.725721788428072029e-02
-2.507064784827877507e-02
-2.907477622432110692e-02
-1.607593394471394828e-03
-1.837018707236301798e-02
-2.778546404334819933e-02
-6.063608980762373070e-03
-8.799238204143807569e-04
8.130689587951593633e-03
-2.286390797344144479e-02
-2.078371792887530670e-02
-3.136407629985200896e-02
7.489763028094945617e-03
-3.013587233297183171e-02
-1.097870174082742935e-02
1.777683132635317700e-02
-3.411573052807394951e-02
-3.111582936954339351e-02
-4.375090746367726185e-03
-2.056199454696391177e-02
-3.177350387230351569e-02
1.119995606424144079e-02
3.011460348920846561e-02
6.489905856626045078e-02
7.740291858268676106e-02
1.728897600564434020e-02
1.150759383864930450e-02
-1.153594359112713151e-02
2.419801892384791306e-02
-6.377894147865363454e-03
-1.805072185763558282e-02
-1.498172997729207111e-02
7.538550924170694598e-03
-2.182538764364533312e-02
-2.648435092640920654e-02
-1.486257878176749057e-02
-2.873292825285437765e-02
-2.897762420512586118e-02
8.126119639363757474e-03
-1.558126933703584717e-02
-1.762112290487565999e-02
-2.012168404848054676e-02
1.184094074364575380e-02
-1.224964935664761730e-02
-9.732441150303444699e-03
-1.576447482166906796e-03
-2.896258069212269762e-02
-2.120954989588507214e-02
-2.958261041514303330e-02
-1.007809250666747217e-02
-7.310171853796292203e-03
2.161009705962952873e-02
2.909736170819611500e-02
-1.114657517452395837e-02
-2.122307688188409397e-02
-1.363060002000819268e-02
-2.684228568076859126e-02
-5.956742888367687686e-03
-1.223803218211074254e-02
-3.114067487877564613e-02
1.981484277631722496e-02
8.920843144584689188e-03
-2.322718402512572930e-02
-2.988364168684552735e-02
-2.279230060647245704e-02
2.728138260630038475e-02
-3.941202189461278510e-02
2.848883302765435957e-02
-1.313011111798814343e-02
-1.843958988275476094e-02
2.283107042372615764e-03
-1.825769077049401931e-02
5.249976124931514734e-03
-2.942005865957387969e-03
-2.006630742682642687e-02
-3.040591429360602060e-02
-1.065921185283607783e-02
-1.093162914966766715e-02
1.445734820331338183e-02
-1.754166644431441255e-02
2.186159088041611520e-02
1.527732898163911869e-02
2.312297374258782956e-02
-1.971691041675009692e-02
-3.768271717523233311e-02
-3.777267343742660155e-02
-3.624174718254873778e-02
-7.639726652043231370e-03
2.583436605633126701e-02
-3.664369208995717220e-02
-2.641085796582381962e-02
2.425762703645347948e-02
-2.611265603059759188e-02
-1.471872610684338799e-02
-1.561111058309998766e-02
-2.811601293756551406e-02
-4.905273939855626410e-03
-2.568242745930072318e-02
1.706434456571882113e-02
-3.636318843446522536e-02
2.200246207059036903e-03
-2.087551694364080763e-04
-3.201283855248869548e-02
-3.997088442362298211e-02
-3.485727890859515593e-02
-2.058091195439426882e-02
-9.143411079382846376e-03
-1.300191947408505140e-02
5.633717062117029294e-03
-2.759915289301285643e-02
-2.540213949132138355e-02
8.542565092894881251e-03
-3.779306921561638444e-02
-3.200647653747507038e-02
-2.151325728920867181e-02
1.655204615745048055e-02
-3.127951735700656988e-02
-1.043987062496050736e-02
1.336049804992360014e-02
-3.462333337988179709e-03
-2.500075168000297221e-02
-2.281027886669440702e-02
-1.295336405223439756e-02
-1.374350000835637686e-02
9.872748965980823743e-03
2.476908196662078342e-05
-1.552515431471738344e-02
-3.797448721136311572e-02
-1.734611259820261278e-02
-2.933589007467957491e-02
-3.930191502242887103e-02
-1.894142439421229313e-02
1.772826246117218882e-02
-7.388257968418005146e-03
-1.831992526390032600e-02
2.172252910363649606e-02
-2.965200013974534504e-02
-3.262455225123719188e-02
-1.850405714172164220e-02
-6.682344248539535958e-03
-2.071402096408530430e-02
1.303769511601305699e-02
3.223946953400769460e-03
-1.347231689646554917e-02
-4.861288302931042471e-02
9.417308145671012681e-03
-3.456850108405582628e-02
2.158110090668140940e-02
2.771621926199520445e-03
-2.243605959263180599e-02
-3.487195389339298873e-02
-3.617024802571306569e-02
-3.742581506783319856e-02
-1.551316063038456726e-02
-1.764829190916077789e-02
-3.110208674288477901e-02
5.390003801094817200e-03
-1.896182780958908035e-02
1.578865823835912813e-02
-2.113676417699926480e-02
-2.015599181461284056e-02
6.282770615448415343e-03
-3.531607691706859647e-02
3.832944058430663541e-03
3.394835899061270090e-02
2.063576093522040064e-02
-4.431133880407298574e-03
-3.533197993774182116e-02
-2.308566400125812434e-02
-2.887897597581792417e-02
-3.244599762583746288e-04
-1.922619996766101319e-02
3.385889288756919416e-03
9.540239458927112946e-04
-3.676024932083830216e-02
-9.641472559571654527e-03
-2.970071503901184143e-03
-1.934052488793971611e-02
1.624143245003033600e-02
-1.761742122359310353e-02
-2.733387358072938630e-02
-2.053614236898992657e-03
-3.636642203190206240e-03
1.635253533901607700e-02
-2.451477148575892384e-02
-1.363410942964742197e-02
-2.545665522232418848e-02
-4.526380650828794598e-04
-6.825410804428370774e-03
3.662674293018374199e-03
-1.192029662404327749e-02
1.453222238508042677e-02
1.700979778706827872e-02
2.171424669465174193e-02
-1.392404940421129549e-02
-2.251344849024555783e-02
-8.393540552706474887e-04
-2.825298694127013899e-02
8.218089070427888818e-03
-2.845325145588645938e-02
-2.002518048956709873e-02
9.240914347247747296e-03
9.547070563210302563e-03
-2.128200467626750747e-02
-8.962765188764161561e-03
-3.420947826980784770e-03
2.598901614313759226e-02
5.024343871215856960e-03
-2.353219288596859401e-02
-2.295184847361363481e-02
-1.130760204236618341e-02
-6.165091550596332043e-02
1.252320977409629270e-03
-2.883491252674909994e-02
-8.137775481278669565e-03
-1.101215263324811094e-02
-1.601196898614285977e-02
1.895469324553891374e-02
1.695866814918376569e-02
-7.098867483397546842e-03
1.991735369451110363e-02
2.354734786607555821e-02
7.224969822953388951e-03
-2.366398744386677411e-02
1.811828009450037243e-03
-5.296474231308055843e-03
-2.789989678801134756e-03
1.405678100486754817e-03
1.032590644418850991e-02
7.054302594990246450e-03
2.706665193805778136e-02
-1.533110959285093056e-02
9.670002901262015130e-03
1.388908724453249283e-02
2.602267628136931132e-02
-1.299782783190812918e-02
-3.441034678290820492e-02
-2.423743169563684699e-02
-4.924953537130502546e-02
1.259182992100049431e-03
-3.659743935295488304e-02
-1.853785612980608441e-02
-1.560927854327634132e-02
3.676696878676354030e-02
8.749051655649686329e-03
9.405881012825918763e-03
-1.377026300950161437e-02
-3.267348773331842093e-02
-2.238562239644230692e-02
-1.065025012820140261e-02
3.355608693967758460e-02
3.363283493014600917e-02
-1.414603032697199676e-02
3.922374815217062431e-03
3.509867967342909789e-02
1.604108167763764262e-02
-2.732222116975816309e-02
-2.842353155008055937e-02
3.791823286464388043e-02
-2.453830565350864374e-03
3.265599116772154031e-02
3.336223710342527821e-02
2.652391439249465049e-02
-3.230686790578607328e-03
-3.000908558389611680e-02
3.199742235184353800e-02
-8.898691754480790583e-03
-5.374426706823218214e-02
-2.127973732345476293e-02
3.949661942039272428e-02
-9.644572800726317410e-03
3.044711408067326402e-02
3.530737497910863693e-02
4.559058151726616548e-02
2.695478921817231685e-02
2.388916763634500035e-02
1.448754040460390087e-02
5.159292393144995076e-02
-1.812301425048698858e-02
1.738913646341063270e-03
2.425638373790780025e-02
2.550489343291320252e-02
2.366745805884728701e-02
2.646448696639364714e-03
2.081198357052639874e-03
4.035885055039481993e-03
3.988681330580891304e-02
7.407069827355732168e-03
5.308679621471256577e-02
8.526025307538777007e-03
3.079753055334806533e-02
1.506198304494383092e-03
-2.394174296819980355e-02
-1.565885003070105475e-02
2.199234026402712219e-02
-2.909797357732999031e-03
1.660824020227205655e-02
3.234929666938012732e-02
-7.212045479339898764e-03
3.387765302465919892e-02
9.406300501733034711e-03
4.426126963639826634e-02
9.180210478388588355e-04
3.585047428517069978e-02
2.099612244298115077e-02
4.467220189496663024e-02
-2.739151956627403767e-02
2.489179592386344536e-02
-2.422126967818533788e-02
6.360451974550010434e-02
4.884827243917237022e-02
4.772791467544940450e-03
6.155673642977008836e-02
4.324472496572743380e-02
3.005231473367043701e-02
2.584646770109336449e-03
1.662549161680452331e-02
1.310721939485697679e-02
2.399234521653214464e-02
2.272707099077465875e-02
1.921811908048122464e-02
-2.894113827690244015e-02
-1.216455258992470232e-03
-9.481184298005630728e-03
1.818198714072415817e-02
5.233784084200174269e-02
2.473444713239653439e-02
-2.101418748141544585e-02
-1.278110251701294019e-02
5.132702920337509599e-03
1.484797043782998434e-02
1.167857106252247548e-02
-1.090678573353657047e-02
-1.817170941901257233e-02
-5.761179985246944746e-03
1.983005541481427242e-02
3.378208672967279030e-02
5.874806235415386962e-02
5.890909366649697138e-02
5.564492911617700127e-02
-1.320558210879933629e-02
-1.560979014923088125e-02
4.879494959429768464e-02
-2.212441514175432500e-02
-1.555947252454709800e-02
-2.038505058098409595e-02
2.055381824294272991e-02
-6.398953591480222199e-03
3.490302575938321328e-02
2.996657830846256171e-02
-3.316749371199420593e-02
-6.272208328259143428e-03
-3.266932322920508558e-02
5.323656172375904744e-02
3.119792076042160814e-02
-7.722123420729146842e-04
1.586753054536783891e-02
9.435959521587052035e-03
1.546194522153419328e-02
4.162843577285316177e-02
-2.561761362564483717e-03
2.961480377020840257e-02
2.899246155026390104e-02
2.851391889117577128e-02
7.224050768401557576e-02
4.570696429399329769e-02
1.510181823546090894e-02
-6.489371043839416327e-03
2.999540020664547696e-02
3.050102119105098895e-03
4.174956938500973963e-02
-3.555539738664912903e-04
-2.424975374704604371e-03
2.194259291861739777e-02
-1.532780603526489281e-02
-1.196513770839321110e-02
1.062654634991738907e-02
-2.546434949587025529e-02
-3.171278418009160910e-02
-2.049873515881723424e-03
-2.111509512566773356e-02
1.945598288805537243e-02
5.152397106143572630e-02
3.709628693960931312e-02
1.026317782518603068e-02
-1.950488086422603323e-02
-1.269114877093952161e-02
2.815145210380521484e-02
1.476281175672434186e-02
-2.244535702746043408e-03
3.610988519836861449e-02
-2.718701755329281169e-02
5.830763531828365293e-02
9.030193892811729656e-03
7.025532092178779497e-02
1.473422504290980428e-02
2.930103986372383992e-02
7.023727646897937570e-03
4.973009743611628460e-03
-2.672085976682033945e-02
2.634983119612222674e-02
-1.466869764815440305e-02
-2.354989497702706172e-02
1.232713152240582678e-02
-9.058622615914691976e-04
4.513705898445423761e-03
-3.395366666252198212e-02
-7.272679242665201944e-03
-2.203877503738173316e-02
4.785885017851471829e-02
1.525101892762970729e-02
-6.101549179067175532e-03
5.547383239899489338e-02
-6.536147869338382495e-03
-9.975182279667963239e-03
2.927692777982062594e-02
2.321188683650169879e-02
1.214019674630876892e-02
-2.493689331740714648e-03
4.924442843592800011e-03
-6.658851704257109580e-03
-2.569916332133964643e-02
2.350587421676831809e-02
-1.869015461082776256e-03
1.135112657949900912e-03
2.373889087411056725e-02
2.346687581521612193e-02
-1.173941524447722623e-02
3.717211529383913915e-02
3.125218498697492769e-02
-2.164018468301052642e-02
1.892441414832741337e-02
8.329823757585756369e-03
-1.599968711350615094e-02
-2.805716895232434130e-02
4.255437557429777619e-03
1.694596791881856565e-02
3.095545776461932491e-02
2.491256344766885032e-03
5.382475558764953510e-02
3.564861024801671552e-02
-1.785742080707528393e-02
1.981562691227747516e-02
6.922976089538641908e-02
-2.646173913500492886e-02
1.188747502549981558e-02
4.220312713518536291e-03
2.958427789809646435e-02
3.244592114041818659e-02
4.375916379259896585e-03
4.494288097492257078e-02
4.440438164010600958e-02
5.301463818652806664e-02
2.152072923408435839e-02
1.593294247619367592e-03
5.047408968949461394e-02
2.700356138527867239e-02
2.601573220719627030e-02
2.896214808478824246e-02
5.738999087957582027e-03
2.319293718132248508e-02
2.841392458456687767e-02
-2.852918274268601700e-02
7.447021877350983379e-03
-3.202901579790422282e-02
3.257150271960076744e-03
2.868610479338291885e-02
4.027099012645750375e-02
-1.413565733371491967e-02
-6.056558968325563910e-03
1.413891214015170796e-02
-8.563617142161890697e-03
-6.686987705284030102e-03
-2.704451075063617205e-02
4.566953820449228679e-02
3.013245657404891448e-02
2.525756982846517548e-02
1.496215468298709578e-02
1.609223035017450648e-02
4.070950810616673354e-02
1.436031456042537700e-02
2.964858354234917517e-02
4.074371734476953458e-03
2.600961209674665375e-02
-7.394744261438247757e-03
-3.148484291763292003e-02
-2.237116653869013552e-03
-3.227888651603126602e-02
4.231101898219018394e-03
-1.399037082221256563e-02
2.746928946177906727e-02
-3.247681679291713249e-03
1.420379906355804904e-02
2.587713067570687059e-03
3.499791179381113448e-02
9.936328503302751386e-03
1.475789962126389330e-03
-2.366943523072060490e-02
-1.916218008784978041e-02
1.192493855967443651e-02
-6.751006604962032226e-03
-1.524995679652909296e-02
2.391464843006223598e-02
2.583889979355388777e-02
3.662926867320322188e-02
5.976547426431185958e-03
-3.522946256146191474e-02
1.786844088072455858e-02
3.616209677569878073e-02
7.099569970678850685e-03
2.372087193069383204e-02
-2.021615634805488948e-02
-2.388730818423558111e-02
1.845184344152384082e-02
1.382520091892860438e-03
-1.498535321437376687e-02
-2.776923027077487713e-02
-2.026721028823299728e-02
3.608443674002315138e-03
-4.124387053586402174e-02
-1.252965160070516025e-02
1.345801171609924997e-02
-8.716850279666682119e-03
-2.347867946354025015e-02
4.131227536192188209e-03
-1.519233475138975255e-02
-2.758842384475577308e-03
3.467985136996126760e-02
-2.000186489659586467e-03
-1.595815274685986884e-02
3.270455166371773886e-02
-2.288123487005262399e-02
-1.008416908935467864e-02
-5.461714276876012894e-04
-2.184303794617178593e-02
2.518779678792027864e-03
3.254210963898050788e-03
-2.180704730408051725e-02
2.642595556103443429e-03
1.563996740796235602e-02
-2.942446018268345120e-02
2.146858217166077928e-02
1.141479226486866172e-02
2.226544877997633023e-02
-1.056357128775503411e-02
-3.829482244243771760e-02
-1.218061262274683365e-02
1.143781863381117779e-02
-1.153011233960036684e-03
2.860943553831444067e-02
2.168854583976200651e-02
1.764598994177939834e-02
1.419665386256784186e-02
-5.648003439083916326e-03
2.438480366835111060e-02
2.901020383488856630e-02
3.412795177733352926e-03
3.290919586607878727e-02
-2.561423243699711624e-03
-7.042523391728346994e-03
-1.426072092567269231e-02
-2.200504613213799532e-02
-7.820410175423078702e-03
-1.832463486700278837e-02
-8.980844180994944706e-03
-1.833841823685435427e-02
1.358865970539707702e-02
-2.949876506388968492e-02
-1.469566849528659153e-02
5.885824947424175141e-03
2.636648672342928670e-02
-1.683651433585771698e-02
3.273233119068795494e-02
-8.711923654509852455e-03
2.803977897527985992e-03
-1.964412420867386530e-02
-2.456624235940198589e-02
1.416097374986816787e-02
-2.902349607719469787e-02
-1.529724554314675078e-02
2.144316556882207639e-02
3.434288430936031922e-02
-2.491981567147207380e-02
-2.032446847927997513e-02
2.230650759271482833e-02
1.227069318291307103e-02
1.606472456123566803e-02
-2.815743955130273896e-02
-1.423880621890091271e-03
-2.811138498563464649e-02
1.926469718220173320e-03
-3.002238667650048570e-02
-2.032211296646809981e-02
-2.909494752657134850e-02
2.506778809365990766e-03
6.093762821511917484e-03
-1.589521011401851674e-02
-2.397384092925456192e-02
2.148589291764552850e-02
1.363001656713081107e-02
-2.495217191057009717e-02
1.168129795006090516e-02
-2.678301274819652050e-02
2.774914360494092069e-02
2.744348402659909508e-02
2.372104591748003602e-02
1.815565085995096695e-02
-1.539036496876273509e-02
6.630014573422746832e-03
-1.273326949647808626e-02
-1.320989193699461002e-02
4.212903616692494774e-02
9.365430838450870474e-03
2.790051146125088408e-02
2.505740103618835785e-02
-4.210737493022541182e-03
-6.107541315495700063e-03
-7.762896148872763108e-03
6.560642134804356256e-03
8.583363732442443605e-03
8.925765571983610216e-03
-4.999530671469035181e-04
-3.061975602550635542e-02
-2.723048110316804091e-02
-3.876599173752290003e-03
-2.178788866618138267e-02
-2.375107236660608731e-02
-3.054455338133363340e-02
-1.202579676128067918e-02
-3.317674726150725284e-02
-9.179632807965959831e-03
-1.840971362394437405e-05
2.344701656359547692e-02
-5.024464960189275499e-03
2.433815202743238801e-02
2.765699004954354223e-02
-2.865544301999037660e-02
2.597352057187156046e-02
1.557731525106063886e-02
5.365485673750365093e-03
2.454538586080614801e-02
-5.793311838134104427e-03
-8.010166319898297943e-03
3.503879423198229259e-02
-3.547694999592490572e-02
-2.178854472275264242e-02
6.674431416951836539e-03
1.025216237761182071e-02
1.544997297543241992e-03
-7.473215161699416076e-03
-2.661275861461542477e-02
3.622967589246529115e-03
-3.092673279367551611e-02
-6.274205388858779308e-04
-2.583868342037224861e-02
2.385662437044123313e-02
-1.803286043521467458e-02
3.131304903476407955e-03
-1.900404156008419013e-02
-1.503071222055557717e-02
-1.644846309903469361e-02
-1.095354243132213440e-02
-2.315845357072900124e-02
-1.707685040199053914e-02
-1.146981426325046662e-02
2.408077578628879320e-02
9.737692877143613868e-03
3.771342722566742561e-03
2.202557512380310528e-02
2.781274384406597511e-03
-1.970337638660166549e-02
-1.763654192707955412e-02
-1.617939925077934576e-02
1.502823701548271045e-02
4.934176631174368166e-03
-2.016611660418782259e-02
4.232934318210828176e-03
-1.333611514259127988e-02
5.745986480774479925e-03
8.913990771395626303e-03
1.804898584393332950e-02
2.655300598152293082e-03
2.809173087317430248e-02
-2.530518735577561712e-02
-2.873627737425652612e-02
9.586249330654184400e-03
-1.933474103482113460e-02
3.259104386261809077e-03
-3.643997910302223305e-03
2.788091328563420401e-02
-9.578144786680271514e-03
-1.689510183598932555e-02
4.752946773647185458e-02
2.288330123148928780e-02
-3.871064167272365679e-03
4.997346252849272502e-02
2.988291208915737698e-02
3.309198756979983558e-02
-9.174627210427372011e-04
1.052844629068203780e-02
-4.024570654683407196e-03
-2.108442001438241148e-02
2.784503166353953507e-02
-2.906045486684602497e-02
2.907089589665836499e-02
1.105119617300234433e-02
-3.077160916737823465e-02
-2.880966786057090681e-02
-3.489236689642070954e-02
-3.275735561870921769e-02
6.467622727149631434e-03
-2.965651961879494161e-03
-3.093333130880530565e-02
-3.006961413989989694e-03
1.434958868882231162e-02
-3.207053426171652816e-02
3.501311574647734265e-02
-1.413470068555890309e-02
2.145354024245155894e-02
-7.435591673482446970e-03
3.956682690779648320e-02
3.386625050923701419e-02
4.752491422434550195e-02
-1.613479384580501774e-02
2.388546935089414652e-02
8.242891309429099117e-03
4.134314382485057560e-02
-4.926375170133837772e-03
2.509216113417571045e-02
-1.026291137725893546e-02
-2.900023239589655244e-02
1.351682058558453282e-02
-1.762175854658441093e-02
1.948856154021363224e-02
3.457867734933267340e-03
-3.286957397375334794e-02
-2.982161798968291019e-02
2.970716299495705778e-04
