-6.018107570185459582e-02
-9.104563088392967837e-03
-1.414914496918471404e-03
-2.298301289318447141e-02
-2.506289636204770809e-03
-1.927388583124659341e-02
-9.617468561585239273e-02
-8.386311507646287966e-02
2.120558238185571431e-02
-8.189704567512559596e-02
1.273935773056924514e-01
1.807840996733622863e-01
2.074258904054275543e-01
2.010129803177224117e-01
2.001247801045008545e-01
2.144102978192486686e-01
2.026595472382533569e-01
1.579670552395245342e-01
-5.607199498203897792e-02
-2.358012597317267131e-02
-1.016650547325304021e-01
-7.278067841519310355e-02
-2.894592022304946170e-03
-5.894084555629801325e-02
-3.546517622823835286e-02
-2.405399203542503070e-02
-9.437500117123653887e-02
-1.327818043471413675e-03
-4.583079543545468611e-04
-1.426246600376113345e-02
-3.548610729110105583e-02
-6.725562395732803331e-03
-1.941373701464132583e-03
-4.225044899050364733e-02
-5.138694174153112665e-02
-1.023139908442703173e-02
1.273430960470842144e-01
2.111772769457495869e-01
3.159258766104730554e-01
3.951638692057702906e-01
-8.040888457974910974e-02
4.407612252589809820e-01
4.336451403910003832e-01
4.532099687526435772e-01
4.351519772624733995e-01
-3.121673550909108766e-02
2.832517704319771901e-01
1.788038814148852351e-01
1.020658379622929324e-01
5.271485446913670020e-02
2.322608503670604840e-02
-1.751017576540727858e-02
8.707257389613441700e-03
-6.762594544342830603e-03
-5.176737950992972570e-02
-1.327792967433434786e-02
-3.201993008433838030e-03
-1.517066264262096481e-02
-1.461143580107870411e-02
-1.815221903505439757e-02
-6.524739766353021553e-02
-5.945412040070213733e-02
9.302579560685513005e-02
1.414192185543272084e-01
1.988483662298447252e-01
2.809609840643658707e-01
3.678690901736728081e-01
4.005068499126083759e-01
4.148363965714247370e-01
-5.825430215717731369e-02
4.250085702916596153e-01
4.283291294803847071e-01
4.135297358117415722e-01
3.923412170573521429e-01
3.539154462474692342e-01
2.589758068318208095e-01
-4.504856952748950705e-02
1.311736477620893682e-01
-8.785890551550713801e-02
3.492823704154651016e-02
-1.005938642328162297e-01
1.365006548667405291e-02
-1.083786567589653874e-02
-3.202792286545017627e-03
-1.757047050184531653e-02
-1.011461477143510597e-02
-1.936790018982706765e-02
-1.308968684748068774e-02
-8.029954532045614768e-02
7.846203683099964299e-02
1.414535820905744035e-01
1.967099712581175108e-01
2.562495071719988471e-01
3.321106237174217823e-01
3.935100533645132237e-01
4.034015488662190951e-01
-2.818965668431993449e-02
4.178581656758628138e-01
4.200105867327598719e-01
4.228896793288590694e-01
4.201934514599284243e-01
-1.406779828825987025e-02
-5.985467528279551919e-02
3.301346676287673643e-01
2.518137901115429234e-01
1.892942078218568802e-01
1.301204897276445616e-01
6.978850741856425233e-02
-2.883994050528714340e-02
2.021181605934342998e-02
-1.472408139925179479e-02
-1.860839102127773495e-02
-1.109816384458454583e-02
-3.541478587831182849e-03
-3.142178366509076155e-04
1.055758111699523979e-02
-2.053083943068344588e-02
1.166029002067336395e-01
-9.940732454958727676e-03
2.416297758789791861e-01
2.847898411430687671e-01
3.519815449831640852e-01
3.996350459796381704e-01
4.031224778637614858e-01
4.092631050651885927e-01
4.197548168622984854e-01
4.275061263905489684e-01
-6.337402806798193844e-02
4.319990577990989178e-01
4.267547690856457465e-01
4.149071428484678581e-01
3.638823486554253472e-01
3.011741510700355340e-01
2.519533881228985805e-01
1.839239325213762877e-01
-1.962276864861700262e-02
5.946888546114136725e-02
3.499535040728677521e-02
-5.299250411888876272e-02
-8.825174248555242573e-02
-1.380785092029498083e-02
-2.129931555256618734e-03
-2.585520565391807510e-02
-1.014183164348614330e-02
-1.244288752107107834e-02
1.526282609226210785e-01
2.229465612826999898e-01
2.646434416727079797e-01
3.041216997400486566e-01
3.676023613492291897e-01
4.048704036250718730e-01
4.039093857812670052e-01
4.073060335131815646e-01
4.189251148167108529e-01
4.345326259324905904e-01
4.391273267518902568e-01
4.473618890679331717e-01
4.487127056355784127e-01
4.369697416950109603e-01
3.954420955946548188e-01
3.373989113301489318e-01
2.942300823297094858e-01
2.348598302811915894e-01
1.517688282621976747e-01
9.177644843871327063e-02
-6.798637264237092359e-02
-1.790827412101533844e-02
9.742613076846843786e-03
-1.775673132854528949e-02
-5.314723440514567028e-03
1.507491781794847822e-02
3.519536207434737635e-02
9.601984885056716323e-02
1.798135948723073030e-01
2.481683433765449476e-01
-5.733509103618356778e-02
3.200322557550520086e-01
3.762809800101266089e-01
4.068903662705307123e-01
4.088275184874324841e-01
4.131962151229563451e-01
4.281616471412853508e-01
4.485012024009306653e-01
4.577590028278121226e-01
4.698935468322737452e-01
-7.712000347615023677e-02
-3.594555235584681683e-03
4.241773329688708905e-01
3.667123228024991022e-01
3.292121663758088013e-01
2.775874711239861847e-01
1.920422142390524334e-01
1.260382023194568935e-01
8.050103962329499541e-02
4.513443679620172955e-02
-8.951105843561378561e-02
-2.985586508293824187e-02
1.368767754062561598e-02
2.115164265673003322e-02
5.078106941522020357e-02
-5.051963811618441491e-02
2.014147136151681616e-01
2.672537862751953597e-01
3.045968047419325697e-01
3.319614597717017168e-01
3.804606624511056023e-01
4.098565213108870675e-01
4.166767473700635493e-01
4.216293119238679887e-01
-5.628500171478266478e-02
4.587777822653875681e-01
4.818723858383529568e-01
4.947250430069063398e-01
4.969159598637223341e-01
4.821353964758639532e-01
4.488679565305489505e-01
3.991106586957800517e-01
-6.505769773763621366e-02
3.148201959208667966e-01
2.288834702753688166e-01
1.590785058845045341e-01
1.077805127093284659e-01
-7.643820147891920887e-03
-6.088783270258411179e-02
-4.769475939483969196e-02
1.672507946827182443e-02
-1.207528613388487299e-02
6.360073733338700297e-02
1.293914650718128445e-01
2.193702325360862571e-01
2.800332626540391057e-01
-8.634838352029168551e-02
-6.362470918845619661e-02
3.819633619320202400e-01
4.136851381468383271e-01
4.233356358620883886e-01
4.349006308676396371e-01
4.499421341410835828e-01
-4.081657556685923394e-02
5.138766504722047657e-01
5.292115868525378852e-01
5.283463702043843524e-01
-8.100426032992653902e-02
4.692557291936106378e-01
-6.649157281087622606e-02
3.994343116944267802e-01
3.483903194424547434e-01
-3.266080269270810882e-02
1.868978457593766240e-01
1.361996760053856281e-01
-6.792292249050063679e-02
1.208953538538640703e-02
-1.098683252610294092e-02
-4.387299801150764539e-02
-9.626596862761280238e-03
-3.333321466995269738e-02
1.415243907835072035e-01
2.340302394940916575e-01
2.909115038484756943e-01
3.336518992982590581e-01
3.523078838329977147e-01
3.862918076761000519e-01
4.239378106858709416e-01
4.359646673022083974e-01
-2.492667599691495220e-02
4.712450226299371159e-01
4.835247919374958681e-01
5.569711902779146406e-01
5.713864732080797815e-01
5.648180748368828441e-01
-3.132117145129827140e-02
4.864537871829503479e-01
4.605721152823634146e-01
4.239859901743687765e-01
3.735488564528303690e-01
2.923138795539793056e-01
2.179824005174577917e-01
1.711163458840020690e-01
-7.320618930579360362e-02
-7.138053024187902829e-02
-1.020051731372938024e-02
-9.977327358931407930e-02
3.722366591731516433e-02
-4.469427883271853003e-02
1.432700169447897742e-01
2.380676928427167272e-01
-7.096871500680161648e-02
3.339885922211327518e-01
3.571646880129990542e-01
3.909392221088683894e-01
4.370468100368889441e-01
4.553139682022832591e-01
4.802293158307722742e-01
4.991488039261727794e-01
5.098973132420939747e-01
5.836870332446949527e-01
5.909763483338263956e-01
5.902198261665106971e-01
-3.235392123262550990e-02
4.970603425635916617e-01
4.722828671509710086e-01
4.350068734066948051e-01
3.914315616101833872e-01
3.170119791018737865e-01
2.423990115369053511e-01
1.994353926866175297e-01
1.126682250630393206e-01
-4.641866885021135591e-02
-5.737904005941426439e-02
2.918104354644096218e-02
-4.430231326082106208e-02
7.109723410893561968e-02
-3.648765065293807248e-03
2.357137116211288352e-01
-1.771666819787547087e-02
3.307636120283455328e-01
-7.579038234645874006e-02
4.033702727914077468e-01
4.625221936437361459e-01
4.918626430350919176e-01
5.226757924488639739e-01
5.278019223819022665e-01
5.272592513383868029e-01
-4.339068960483658671e-02
5.997861694668908950e-01
6.006417294807251395e-01
5.784712547341693822e-01
-5.512286577363705725e-02
4.898788114508941249e-01
4.494090948073918290e-01
4.092285432906809794e-01
-5.004509237241176051e-02
2.560024313103464455e-01
2.166574847624448130e-01
1.360751373726649116e-01
2.879337514113378821e-02
9.574795449605124492e-03
-1.068342488653888263e-02
4.045226003703376871e-02
7.264999571146162072e-02
1.429149540051124212e-01
2.335748093333529507e-01
-4.715260543309254815e-02
3.318213549998899059e-01
3.780520890403261114e-01
4.358652360468706632e-01
5.043118699314921294e-01
5.234509504098099342e-01
5.466917690913246641e-01
5.413764738996509340e-01
5.356143107914290713e-01
6.022891338375203629e-01
6.094325144471207656e-01
6.083706948294160810e-01
5.923290402292696877e-01
5.316242884609778674e-01
5.076162728534875379e-01
4.658529472193188581e-01
4.241421157354123284e-01
3.536773998267317975e-01
2.689095287160056524e-01
-2.450120583884815226e-02
-9.777652189764886315e-02
-2.908939950181923390e-02
-4.381537899127996294e-02
-1.486134944147962135e-02
-5.545299113014436759e-02
7.958699167456655121e-02
-8.885291874560129199e-02
-2.908793708249511351e-03
3.037264884061372516e-01
3.509109268073389853e-01
4.021419270678637803e-01
4.634517359164202488e-01
5.241262703339628626e-01
5.431835158105234873e-01
-3.315382686212216268e-02
-9.166389137766325912e-02
5.434821822332180918e-01
6.057965898651661574e-01
6.162609867867575586e-01
6.114229042303133133e-01
5.978722603432174987e-01
5.302247203748677862e-01
5.056848673168841124e-01
4.701582842087828618e-01
4.331686077449544148e-01
3.647169621262066896e-01
2.751206937815119380e-01
2.274625735950274730e-01
1.733792948690464908e-01
3.996882268011420214e-02
1.529393706406318755e-02
-5.198771932401413665e-02
6.252325080677016700e-02
1.022785070547421460e-01
1.876833559812484953e-01
2.828994328513754763e-01
3.295227819736480379e-01
3.674662372231599639e-01
4.084825512509280832e-01
4.826668369374013112e-01
5.430287161006297492e-01
-3.740873790562414952e-02
5.827217964193104338e-01
5.611419830882491411e-01
5.478374788800491890e-01
6.052503000768320041e-01
6.188580021067607850e-01
6.135541268244766311e-01
6.047265327738116092e-01
5.287046519785176812e-01
4.941850282634382974e-01
4.690907865382362707e-01
4.341150040487078421e-01
3.701311468043730901e-01
2.792561395191279217e-01
2.321107122066075334e-01
-6.222475604210202238e-02
4.565915555342699855e-02
-9.414422604427501173e-02
7.238639631157173238e-02
8.683412361639218646e-02
1.285679493247452732e-01
2.169097164489524332e-01
3.036617367784448240e-01
3.452666589663928587e-01
3.756162472172338007e-01
-8.148771763379597521e-02
5.091928801688251349e-01
5.679704281842157254e-01
5.904159741257981597e-01
5.974714085889891724e-01
5.705358982611050678e-01
5.529136265863706656e-01
6.068530882863683029e-01
6.258325694497735014e-01
6.240317156876795668e-01
6.146299174552213307e-01
5.376586883608058809e-01
4.910538534529031995e-01
4.712172558655530752e-01
4.361825815796366856e-01
3.763259822122597131e-01
-4.264893085085514485e-02
2.385457757961152447e-01
2.042652452663286100e-01
-3.419766944843948692e-02
-4.522244323232343238e-02
9.026463347888946664e-02
-7.513617124080344822e-02
1.482925954086528886e-01
2.384329966883446394e-01
-8.652385884489623147e-02
-9.141049936774527096e-02
3.892488338113357926e-01
4.400797270922220950e-01
5.358895975096841235e-01
5.882241801362330103e-01
-4.318183461584713945e-02
6.096134864599094261e-01
5.831429951176214654e-01
5.647369468678243853e-01
6.139564048282674102e-01
6.386909584915044791e-01
6.342156235021624289e-01
6.198313484839870213e-01
5.433099261350656795e-01
4.836470448457418914e-01
-2.063502940163609162e-02
4.346666919602233947e-01
3.790269189941990469e-01
-8.738839850133120479e-02
2.402103100361012988e-01
2.082699574016840527e-01
-2.537179391684734470e-02
-8.164359474057027166e-02
-4.182315516522287085e-02
1.201185513967750196e-01
-4.700931609089440549e-02
2.603473753157429793e-01
3.373375826983172621e-01
3.807320532134438329e-01
4.016265844983026856e-01
4.557478374465083193e-01
5.506094502452708594e-01
6.006179875099814103e-01
6.161493279316380134e-01
6.135040229622461538e-01
5.819851864931285812e-01
5.642491638963951228e-01
6.102657434150668969e-01
6.339716356098303862e-01
6.265065836149562584e-01
6.061422863752269352e-01
5.280420665803479130e-01
4.575326235081736970e-01
-4.332089377637715621e-02
4.178572702617978640e-01
3.677330175388747180e-01
2.835464487492059815e-01
2.284452597741934987e-01
-3.302514339292651757e-02
5.233033440323817814e-02
-1.980149266543704614e-02
9.659049114664172708e-02
-4.230559391804437214e-02
1.737497597700957963e-01
2.661861964872586639e-01
3.396231086511773412e-01
3.817640890354968564e-01
3.988325134318898568e-01
4.593215703931183280e-01
5.538512174940615207e-01
-2.240308252361436492e-02
6.117228508833391087e-01
6.060670669139787137e-01
5.672418969982134795e-01
5.518456496647713427e-01
5.936571054626142985e-01
6.201756073535162894e-01
-5.919728949273458940e-02
5.854727501629971576e-01
5.100342879753201331e-01
4.336096258274503290e-01
-4.893534081672461927e-02
4.024796278756995194e-01
3.566998144063898701e-01
-5.384038615885276824e-02
2.172058695214869606e-01
-4.699968952413911827e-02
4.914252419769869068e-02
-7.654031191563694103e-02
8.835441264517759907e-02
-7.266059807828291472e-02
-1.475934025083569696e-02
2.631710948767245761e-01
3.318658036173127157e-01
-8.061956213968786422e-02
3.872694854384599039e-01
4.549482482830610741e-01
5.399890533670546056e-01
5.847093682615940313e-01
6.009333099735918449e-01
5.987296204033812907e-01
5.575471440279718971e-01
-6.455125820737141196e-02
5.784536872022689735e-01
6.051059111670920032e-01
5.940739717591551061e-01
5.632453087851496676e-01
4.899532870086287795e-01
4.118141264246287792e-01
4.031236489882617513e-01
-7.673641454586264954e-02
-6.523962230540893137e-02
2.642269441201338664e-01
2.031719200544854775e-01
-7.140828145807188998e-02
3.917280028788838048e-02
-5.971049380232836684e-02
-5.543784557446263667e-02
-1.105115678956893749e-02
1.634505594303636289e-01
-8.260173635330238240e-02
3.221638688216519331e-01
3.610724808548285703e-01
3.735606230576369313e-01
4.449545672881668468e-01
5.230474061830709953e-01
5.690550815586613576e-01
5.850781390366495138e-01
5.836164654399399465e-01
5.412912575031638696e-01
5.202312604956776942e-01
5.550526001032085599e-01
5.778620752265456462e-01
5.632353668646424838e-01
5.291592625472318900e-01
4.613669208209217887e-01
3.805243635769410271e-01
-5.505805114458410532e-02
-1.517578373997523211e-02
3.153345387117711951e-01
2.374698581776112094e-01
-3.529357404375844248e-02
1.325092030623881145e-01
-4.546053225329127478e-02
-7.144665141413743259e-02
7.344359602492844807e-02
1.007341758597795761e-01
1.528005209075790072e-01
2.435419843907156157e-01
3.077074888604513503e-01
3.442326602524112822e-01
3.546598808197498620e-01
4.324063664584382738e-01
5.025905120889724298e-01
5.478515468860045701e-01
5.651412046791537414e-01
5.613730487339581021e-01
5.201556651868952663e-01
4.950239672287774506e-01
-3.580990654085064451e-02
5.452774604194144947e-01
5.281084114891746450e-01
4.888300179059131279e-01
4.278738234082425373e-01
-5.915315556438414946e-02
3.357779642280017129e-01
3.312945566512228712e-01
-3.219056840840129469e-02
2.149996290316629755e-01
1.542194693194850752e-01
1.117217447471048064e-01
2.471677328539005278e-02
-2.391616701730862188e-02
-5.168140610807602647e-02
8.630522374035010102e-02
1.350599776158150356e-01
2.219657041182855617e-01
2.833830839113746225e-01
-4.933087097520802433e-02
3.234722486168656319e-01
4.077383333118448361e-01
4.740050237181553383e-01
-4.805069540813323298e-02
5.356645154477505111e-01
5.308488475804319373e-01
4.908640265972729622e-01
4.634726828239931207e-01
4.862756493454584161e-01
5.057335976863913674e-01
4.887739310195147735e-01
4.494276012345624904e-01
3.962323880924402686e-01
3.176230155814830924e-01
3.034668307339826732e-01
3.031484481083508986e-01
2.634099804224092067e-01
1.897415010958409809e-01
1.281645464280241620e-01
8.795002858715358918e-02
-1.035134073426364903e-01
-5.590520553729989676e-03
4.404699119918624450e-02
-7.171611375562512991e-02
1.174846735870913872e-01
2.031301228778668033e-01
2.621006278981365956e-01
2.916645996161162935e-01
2.941875638030583273e-01
3.768730589235555484e-01
4.377729605570698790e-01
4.827874225738049696e-01
5.043973134922640211e-01
5.002794196214576106e-01
4.604148531751645623e-01
4.309480686036571417e-01
4.476601098345139862e-01
4.676438595851670210e-01
4.530323313504238114e-01
-1.517264795399956255e-02
3.645095971850692562e-01
2.861650586628800008e-01
2.697071624882314000e-01
2.735669262026749760e-01
2.340966713947643663e-01
1.616102171761345796e-01
-7.530350323986471917e-02
6.354545552667489883e-02
-1.002929946014961410e-01
9.082900557264806871e-03
-8.334708841685999070e-02
-6.219699522773056155e-03
9.524140960738411432e-02
1.773214139777053167e-01
-6.088199471575075905e-02
2.607511257633426949e-01
2.598131839652313424e-01
3.391626451720790580e-01
3.957281843779400510e-01
4.418672637643121792e-01
4.664361984898849900e-01
4.627343506772188531e-01
4.222767715618936935e-01
3.907786497836771566e-01
4.084336780607018547e-01
4.286733615896943239e-01
4.189111640302801143e-01
3.795809620797228612e-01
3.304499321519269728e-01
2.561716016765271386e-01
-2.700683583789401446e-02
-3.265975531348142002e-02
2.092359107153954345e-01
1.383095107330005458e-01
8.080905510365647693e-02
-3.913644232873165346e-02
-4.493648975891574582e-02
-1.342564900928927898e-02
-1.902990606296296044e-02
-2.888046309587867858e-02
7.619465506348563344e-02
-2.866650781120132913e-02
2.107399819413766640e-01
-5.895333164459163472e-02
-1.190368065510188228e-02
-4.441587987293090650e-02
3.487853247848098359e-01
3.906605037317487095e-01
4.171323919183965723e-01
4.144013047406004957e-01
3.750649218832436405e-01
3.458956416745671558e-01
3.620883187651254831e-01
3.860248437792321852e-01
3.799958736411079840e-01
3.412939780464203099e-01
2.923511487000635123e-01
2.182954591782235720e-01
2.062153388888993411e-01
2.181679103212370019e-01
-2.215628543356560481e-02
-9.994326724551319541e-02
-2.123198503303184992e-02
-3.459063521763258708e-02
-7.301058263468369891e-02
-1.868543361265727343e-02
-4.497450459713674131e-02
1.938702901789135166e-02
5.577248685795273275e-02
1.288897202082036064e-01
-7.345832377217538511e-02
2.010522345337239225e-01
1.879685212249626314e-01
2.385812514025429931e-01
3.001252830372401759e-01
3.541295088272745084e-01
3.843246678149088158e-01
3.826513444061331870e-01
3.460714542429663143e-01
3.157981763546978682e-01
3.344678334278197718e-01
3.606493689787114154e-01
3.543918963271964762e-01
3.091724029799250428e-01
-5.602130234422813410e-02
1.781316654495445906e-01
-8.324938146560688368e-02
-9.382515047119201201e-02
1.550337232280877831e-01
-9.138613354527631849e-02
-3.967186256150773138e-02
-4.511390846639778268e-02
-1.748457412035853489e-02
-6.095515324810692886e-02
-2.369728297043658879e-02
-4.808020737274182332e-02
-6.328193746355223470e-02
4.811222014151084886e-02
8.435662635546251065e-02
8.492882310429132608e-02
6.817544768884803430e-02
-8.431204686910656609e-02
-3.004497128784961932e-02
-1.214488848678956824e-02
2.011085327098580677e-01
2.068341627665719051e-01
1.835751661898066267e-01
1.687526280855502769e-01
1.776312867210315949e-01
1.958399441284730536e-01
1.813625350172230755e-01
1.332708804035087347e-01
8.747573152067443514e-02
6.071993616883569062e-02
7.353290472617211859e-02
-8.104006785101353083e-02
6.942030354575176587e-02
3.091195245908484948e-02
-2.878877776805477753e-02
-4.375176280040337512e-02
-6.194563649869816099e-03
