-1.146519033111592506e-01
1.111325961028136007e-03
-1.091857923519888030e-01
3.633826050770488370e-01
2.495715170258351046e-01
-4.421123630493468959e-02
-1.074490069460072583e-01
-1.150576691327169915e-01
-1.144332261684103194e-02
-2.661292577274337184e-02
8.143872120419720986e-03
-1.857067864291299109e-01
3.113928426901439450e-01
3.908416194574566155e-03
6.512864186850033654e-01
2.967379441952540386e-02
-6.679801054438611052e-02
-1.171986605632009855e-02
-1.941848123256813274e-01
-2.665520405044335406e-01
-3.841907181655866439e-03
-3.541972518818775062e-01
-5.857989753170544933e-01
4.999619395249744677e-03
-8.098889565851932759e-02
-1.896905989967222206e-01
7.818861956318903794e-02
2.522601767355615587e-01
-2.900960181361451201e-02
4.004604689414738294e-02
-1.555891176914584763e-02
9.809180824911722940e-01
-4.612741985300076834e-03
-1.760992086266133239e-01
1.743394765391420020e-01
1.452143220679984470e-01
-3.624219148992297024e-01
-8.724022209979666580e-04
-1.471484572862593154e+00
-8.773004668393511452e-01
-1.116822799276962971e-02
7.193301551177638288e-03
5.885585800151663660e-01
7.482533925531391350e-02
-1.489971504754959361e-02
-2.147689878140881733e-02
1.365909528510930726e-01
-1.455115442124884917e-01
-1.606477272253613864e-01
5.075432117343468830e-02
-2.421378654988211032e-01
-1.304480680665775494e-01
3.392135430739510321e-02
-1.061895504313196958e-02
7.529428678949778853e-02
1.030872022872182159e+00
5.466219564573147061e-01
3.006021950774043772e-01
1.625087257563710974e-01
-2.363443528139955729e-01
-9.113112288265888539e-02
-1.918097452038692793e-02
1.263168181593720893e-02
-3.800455975964709410e-01
2.185456877805166120e-01
3.380089880073501862e-01
4.256016307490533002e-02
3.583272230335055042e-01
6.800161753150647803e-02
-2.227891788307234666e-01
4.964120200540109717e-01
-9.131775387308543879e-01
-3.226936703852398280e-01
-4.304046752345692256e-02
9.288134886816002550e-03
2.396548494647492492e-02
-6.311381473269256706e-03
-1.630268994249984837e-01
2.428703790692211262e-01
-6.237187071468192762e-02
4.428063283291167745e-02
2.097552613030701646e-03
-1.446164643944740716e-02
-6.655186289335261740e-02
1.233062937032647494e-01
-1.458551315278194815e-02
-6.433604050551278153e-02
3.915229969399854904e-01
-3.894880310237910370e-01
-1.190315318995136123e-01
5.177140044113179990e-02
3.089300177798769420e-01
-2.140886157506210752e-01
1.057151415470919398e-01
-3.253766612920739321e-01
9.821021156182867251e-02
-3.011583450487429967e-02
6.603658290159050148e-01
-5.871593625338090289e-02
-2.872867622711766100e-01
1.091902252078790908e-01
2.275264303902674312e-02
-1.846351212625399196e-01
-1.048782992275308468e+00
-5.606709756941180567e-01
3.523998762600602519e-02
-2.054289962027633643e-01
-1.336282854408582244e-01
-1.086111075141605285e-02
-1.113083833228488001e-01
-1.253762290029511624e-02
-2.512092119495899500e-01
5.527464242484210200e-01
4.414306189881663130e-03
9.289731621695033418e-04
-1.418188488319208629e-01
1.914605027579850127e-01
-1.064829432428006234e-01
-6.268690342897140777e-01
-6.084295597237068809e-03
-3.634052298508221642e-03
2.771342475175937736e-02
7.918809129789553536e-01
8.659963207539941518e-03
-4.108070352586352114e-01
-3.503245414245814149e-01
5.901046124159302353e-02
-1.771150005136308200e-02
3.104059206558461570e-01
1.645567050604482828e-01
1.339130222423586328e-02
-1.256429406985480057e-01
8.472020374836925632e-03
8.916913488457132997e-02
-4.621333540143858498e-03
-1.459259920852749248e+00
1.971478687235461158e-01
3.284694173918988741e-02
-1.105243160866564364e-02
-1.215284690522488859e-01
-3.917540341916835728e-02
-5.302243284781401472e-03
-2.178699775686437218e-02
-4.622112617153492642e-02
-2.441477562284421199e-01
8.004330684006357235e-03
3.041314187038130501e-01
3.460124573977955195e-03
-1.235401349129360837e-01
7.694345329890855956e-02
4.866491233793613924e-01
-2.365983812034943082e-03
-1.919516546731241946e-01
6.076632844747895112e-02
9.628818660766429172e-02
-1.027547303990510863e-01
-1.151340682849334718e-02
1.780338681760826412e-03
4.041996837771146822e-01
1.048208087575218522e-01
-2.203586239751716414e-01
1.943465986746095164e-01
-1.352768858339727709e+00
1.478083057242293441e-01
-7.592423464959982549e-02
-9.012415449890372188e-02
-2.059919394548529459e-01
-4.927434141756084629e-02
-2.741809067678624423e-01
2.750644057950129076e-02
-1.301350557838748230e-03
-1.264938785706980207e-02
-1.131997271753147453e-02
-5.580332187250592879e-01
1.379952394445150277e-01
7.431454308418655730e-03
5.046312293452642067e-02
-3.487479437631735030e-03
2.665412693791937432e-02
1.169099085583943515e-01
-6.157791239106598369e-03
1.228781474521037226e-01
2.126739546905584075e-03
-1.808393484025851428e-01
7.944291524317381725e-01
-3.434691582250776754e-01
-1.711477541754921616e-01
-6.673746862950848124e-02
2.093828001310963915e-01
-2.696971307507164961e-01
2.145490307157994492e-01
1.531400312149587828e-01
8.760112214918704954e-01
5.021102551246955578e-03
4.278552008198438505e-01
9.111717121864290614e-02
-1.257495610810632422e-02
1.209809419282508181e-01
-1.700918638927858802e-03
-5.009538400495532756e-02
1.733407802234487524e-02
-7.885006361670452227e-03
3.041552090173218481e-01
-3.200028500905829215e-02
6.527838509888228558e-02
-4.632232796945233710e-01
2.729030055142561695e-02
-1.979252471847800787e-01
-4.629152506011062485e-02
1.549600269860847319e-02
4.131028196276705367e-01
9.881428332624693500e-02
-9.577160793596704857e-02
4.736137438351490508e-02
-1.670516004418983250e-02
1.585882537667296088e-01
2.038622087440517816e-01
-1.697112445863520336e-02
1.024438504783778514e+00
-1.151069792779810946e-01
-2.568736602861874108e-01
-1.214485702551474089e-01
1.482965091313154238e-02
-1.075621830849712336e-02
4.621661693739854693e-01
9.666993457807405987e-02
-7.077426243764414759e-02
-1.977387463202519846e-01
-6.025833860379132823e-01
-7.961166953786166789e-02
-3.836640618944150982e-02
-7.277642216243053810e-03
-1.996494613182767108e-02
-2.503790379251116804e-01
-9.903104950481611546e-01
2.014165102503217286e-01
-5.711206924133261156e-03
-9.638877902136890885e-01
4.813034728708456833e-01
-1.217805192087237504e-01
1.208086768178326054e+00
4.353134561714171180e-02
-7.144424056623284967e-03
2.606517519084950996e-01
-1.821832794673906158e-02
-1.617047044743512352e+00
-3.335401348456856208e-01
-1.149267492192313833e+00
-2.379824458958234579e-01
-1.831296060008504034e-01
-1.021407872473297646e-01
-1.123730353908016788e-01
5.072003102981814671e-01
-1.618330874381129639e-03
-1.848037885354459064e-01
1.244158605697774228e-01
2.387254570677314336e-01
1.995403367360689961e-01
8.001662292921010167e-01
-3.912481917744479176e-01
-2.099879406760176981e-01
1.403151495395543957e+00
-2.324340710050249115e+00
-3.604757529278441921e-03
-2.707419712102193156e-03
-1.094930578608702687e+00
-1.301871456329714849e-01
1.529895888821626625e-03
2.137703310873150797e-01
-3.218454672815214135e-01
-3.905606516591411115e-01
1.350712310447489961e-01
1.604337015297890578e-01
3.124596522938425380e-01
2.437285610588050579e-03
-5.263088462129015266e-01
-1.996072907302947619e-01
-5.777957127213229072e-01
-1.793346447302446856e-01
5.219151102612766546e-02
9.612835798329022810e-03
1.492865738009786867e-03
-1.922962625516557167e-01
-1.588407686589037027e-02
7.477158052559548795e-02
-6.984560242454983248e-02
1.285526788859627789e-01
3.812708255439125615e-01
-1.422044238069319066e-01
-1.005161414526443586e+00
1.622742104593559997e-01
-3.914147282965436681e-01
-1.099390784315328329e+00
1.821416409346199999e-02
2.691321684479480725e-01
-6.377138736783464212e-01
-1.528722864252166636e-01
-1.208660704073674985e+00
-9.915351618620088514e-01
7.967790961938724104e-02
-7.484591122262750779e-03
7.443901973403395378e-02
-1.289025573280127845e-01
1.203073961267886460e-02
-4.955793648631497961e-01
-1.009398716871025004e-01
-1.715278516651335405e-01
-2.169260189542568384e-01
-2.035195892573885279e-01
-8.265510980255628970e-02
-3.983286478219354443e-01
-1.028733966361331312e-02
1.163061154869666353e-02
-2.907041629823055306e-02
-1.471487021470229417e-01
-1.469548851702356107e-01
8.029850390589002296e-02
-8.084269992158768514e-02
-3.923408164305076107e-01
1.146418407472148820e-01
-2.556085705518599312e-03
8.769671246757054783e-01
-7.054536548985479438e-02
2.901649141117880748e-01
-7.966394077021259068e-02
-9.377601696078502469e-02
-1.907266268291841482e-01
2.835845465200632562e-02
-3.900544737043453170e-01
7.121512549735060406e-03
5.149224563355697670e-02
-1.330285808122812219e-01
1.691889074447244234e-01
-1.264929665621077615e-01
-6.814933971512740496e-02
4.847677476908553856e-02
2.066844880064918066e-01
-1.656759132794459466e-01
4.609585479171494082e-01
-1.672584678948282888e-02
9.431159817130104622e-03
-2.646388316950697428e-01
1.583177608598056868e-02
2.047072033481033282e-01
2.754007102062257240e-02
-1.503281456939770111e-02
3.244222114027752596e-02
-3.145209361322770514e-01
-7.569274207408062914e-03
8.826267101898509215e-02
-8.611962109059003723e-01
-4.708555084725402073e-02
3.460114533362756289e-02
-6.011587316825951488e-01
-9.546735569078090844e-02
3.172808485181063398e-01
8.506912145081692300e-02
1.281571000241298885e-01
-3.437475763946456347e-02
4.207268067993965577e-01
1.667073553015017279e-02
4.998501338105127041e-03
-4.955574557270158165e-01
1.357843622482634571e-01
5.167563353187597519e-01
2.559961006206232063e-03
1.164889121849611110e-05
-3.598934986731556086e-03
-2.113986295482830347e-01
-1.017556140973165241e-01
1.666088876649632908e-03
-3.689982261014572874e-03
1.162228791246269211e+00
5.159464140342544525e-01
7.917801568641669174e-02
6.746574548686515849e-01
-2.098114230035026933e-03
7.920409498664908454e-02
-2.405731083988831009e-02
-2.859126190638527909e-01
2.338629862825435807e-02
-9.763410481877741196e-04
-9.332826324092385883e-01
-1.743697812459365226e-01
1.456215813837863082e-01
-9.730905339254133229e-03
6.406790124722142044e-02
-2.520611505903363331e-03
-7.726292651694324776e-02
-5.883518070918232479e-02
-1.133707138269214765e+00
3.040860335515193150e-03
2.149248369027423611e-01
2.702971905902301283e-02
2.206489723612014078e-02
1.838753664061753557e-01
2.835977621162843673e-02
-4.860635704217706153e-03
1.710057681501531979e-01
2.561399581548307047e-01
1.104447908910446453e-02
1.596393933230951356e+00
-5.053762459409539762e-03
6.643857134675672238e-02
8.996489180562993251e-03
-5.593273148239185852e-03
4.708743866161022029e-02
2.012654534352120717e-01
-1.989406552338498224e-01
-2.076113859571300947e-03
-1.079466401190215946e-01
-1.990507140697991562e-01
-9.934648631997107515e-02
-1.920428941760581598e-01
-1.497655067508158865e-03
1.377857382420023466e-02
3.857921656231182508e-03
1.959978442676084953e-01
-1.423117801685004347e-01
3.710324135313827210e-01
-1.389582403543045408e-01
3.798198514409628079e-01
-9.189201679790497124e-02
9.519106341388487713e-02
-3.986084262137511852e-02
-1.678628778754882034e-01
1.945556849380328940e-02
-1.086610506681111865e-01
-5.356873805535340531e-03
1.393901130033985830e-02
-1.070743359726283178e-01
-9.181140340192585347e-02
-6.715984780707573432e-02
2.641759080120483771e-01
-1.521378332382503995e-03
-1.404015468870797693e-02
-4.354630284366837190e-01
2.682938158259375316e-01
-1.749612519736537808e-01
-3.211913660082822419e-01
-1.211296913061257405e-03
3.587906330336330246e-02
-1.536086180338122720e+00
4.917061483566552427e-02
1.882746972078961634e-01
9.208574403044797463e-02
1.670247476599029737e-02
6.004254674890391504e-03
1.033844239241560603e-01
1.575230009147172289e-02
-1.968530562809554622e-03
-1.190428947847478602e-01
4.184534503799806626e-01
4.258084238400857563e-02
-1.460614677709065265e-02
-2.438401438476995586e-01
-1.233297578974113518e-01
-3.673907311210961729e-02
1.240209394285547717e-01
-9.160696862080655034e-01
1.057418437448046200e+00
1.743564827620269764e-02
6.873703951516776378e-01
-3.548434567479460400e-01
-4.774497950865289053e-02
-1.429143428855207953e-01
-7.645802758461937854e-02
-6.677110395660849906e-02
-2.013302974370773935e-01
-1.577335628885419838e-01
-3.001737267146422500e-02
-1.346358256514637031e-01
1.081713804272040752e-01
-2.406462269228958062e-01
8.010939033536507159e-02
7.683777880038601682e-02
-7.531744731491045409e-04
-8.181277573593293342e-03
-2.153489560864408070e-01
4.667931329832903375e-01
4.376095941837546827e-02
7.083498823722639282e-02
-6.369825402887369092e-02
-1.044194434343162170e+00
-2.788852537637792617e-01
3.938397812256170041e-03
1.986799148983145191e-01
-7.338775654842320806e-02
5.228053503295415627e-03
-1.255380001859921713e+00
1.275530065555446728e-02
-3.630936783046110894e-01
9.138525208547847167e-03
-6.257773922413072121e-02
1.997402392702716731e-02
5.677030857515284051e-03
-5.240570244139068634e-02
-5.753243287555946835e-03
9.178796637871257380e-02
6.984717577796958343e-01
2.588165305990536846e-01
1.037430871853279625e-02
4.890521392143361290e-02
1.811910470719280478e-02
1.672540144965590180e-04
5.249467234932917586e-02
-2.737370820229705348e-01
6.286662799800887824e-02
6.758023471728759335e-02
-2.895206926032524164e-01
-2.293772098222638389e-01
2.079834330205588000e-01
-3.207989454044862104e-03
-2.796561933436929673e-03
2.174239807942059677e-01
1.112880114699578600e-02
3.315434969777499297e-01
1.464905149979674193e-01
-2.925997298327942531e-01
-2.389874697526941233e-02
1.973833917775905666e-01
-1.375128211084424013e-01
2.098643222569117617e-01
-8.715009033286997414e-03
-1.243432397042177201e-01
1.128614180926546640e+00
-2.499460778300395883e-02
-4.182918319607702856e-02
-3.701559725386264765e-01
1.183757302644617149e-01
1.236299407821233487e+00
5.471523966464127142e-02
2.275992203579926265e-01
2.395384918874545188e-01
-1.582779806419300217e-01
-2.940347225596415259e-01
4.810085649170016131e-01
8.511487580963747468e-03
4.665759032854826516e-01
-2.654393518231354387e-01
9.347212353093276027e-01
-4.017219864167444476e-01
3.561952110251337313e-03
-1.096522668876173251e-01
-2.625177676418811307e-02
-6.748382465764585225e-02
-2.388931836859541635e-01
1.529128303683604390e-02
-1.784732196298365603e-01
-1.397637191128899004e-02
3.625158304629655381e-02
2.257561038664881448e-01
1.376252435010045794e-01
2.738976235619058897e-01
-2.239296402368227967e-01
-1.018148237397915878e-01
7.907406760317679546e-04
1.446878344058103727e-01
9.517813097015631607e-01
-2.893418276918245657e-02
-8.349608113189130876e-01
-2.244654159376340274e-01
4.937507380089881277e-03
2.819311124573831411e-03
2.947634228488056340e-01
3.343844991693630253e-01
-1.270206810143846392e-02
-7.148927392510379467e-04
-1.421154889322059911e-01
8.745700124478360260e-02
-2.007728038075979604e-01
1.185301454294934026e-01
7.606843692349223029e-02
-8.502305106716007491e-03
-1.895331286209506194e-01
4.238764630970770497e-01
-1.215102662976684372e-01
-2.552953952403423377e-01
1.920420135461937267e-02
-3.320890430310710628e-02
-5.478311333031635894e-02
2.248142147722583667e-02
-1.726556431584765072e-01
1.090815894770989641e-01
-4.310723411505083119e-02
8.626054129415905436e-01
3.345090481561516227e-01
-5.963157157979916828e-02
-1.110573853816489293e-01
3.732787362322532217e-03
-1.241428912519813160e-02
-6.954200311656518092e-03
-2.169521856495590928e-01
-7.445371086081398193e-02
3.573034932606537675e-03
-2.208299334968428021e-02
9.162842213000760294e-03
-1.934783522542355416e-01
-4.579437363326719496e-02
5.809669858671646647e-01
-2.783618258972344467e-02
-1.356136258136521056e-01
-6.166816509280167308e-02
-6.664735627990230060e-02
-1.478146165374340237e-02
1.971845223075507567e-02
-1.011664781615894543e-01
-1.449900840440924987e-01
3.022377956447960812e-01
-2.876860501192893271e-01
8.639435270432031799e-03
3.996681578010182617e-02
2.447101882541974638e-01
-1.170859690755906429e-01
-1.121829887667137454e-01
4.531647060275089678e-01
-3.784616995955384922e-01
9.573749395889173675e-02
-1.794686245855226792e-01
-2.127733012316636030e-01
1.807719653892692069e-01
9.560887946763366174e-02
7.113195069330223719e-01
-6.134456045055776408e-02
-1.714508207604483608e-02
1.854885470101391431e-01
-2.025830869031398571e-02
-1.226721115487307452e-02
-3.302441904421585250e-01
-2.741669781973984366e-01
2.701832401514631665e-01
1.079544319726003648e-02
-6.545891949958934086e-01
1.171035635067491087e+00
2.480648815269038132e-01
5.524230888873698370e-03
-1.462388085534715998e-01
8.730044416783461214e-02
-3.523677865408634396e-02
-1.804812786139832134e-02
1.282817903012379579e-01
6.519746017183173370e-01
2.205337222729534391e-03
-4.949329459513002877e-03
3.350474626814518575e-01
1.114667913920111969e-01
2.951798875188144100e-01
-1.551380346546005554e-02
-2.137104550822138960e-01
1.487725707957125200e-02
1.979002971825998825e-01
2.956148938007202576e-01
-1.608273357352395794e-01
-7.643834359135365242e-02
-3.424057463563130038e-02
-1.186334533618765702e-01
6.340154510855080215e-03
-7.513695070858987524e-02
-2.062996071450173274e-01
3.048130750303797432e-01
2.881960720494374240e-01
5.243813589191501645e-01
-8.398128981786712188e-02
-5.015485197328720113e-02
-2.238913841831162866e-03
1.209707135673938616e-01
-9.571421843244215522e-02
-4.389978539103686628e-02
-1.093754612424442489e-02
-1.242841395679388297e-02
-3.510781732872464977e-01
-5.378693628579254149e-01
1.205033064343041804e+00
-7.637710452977040931e-02
1.081217759435449954e-01
-1.160339870025478733e-02
-1.670911627479170769e-01
1.885318008075339766e-02
1.860057491970149302e-01
3.531019857556380037e-01
1.287524970436634440e-03
-2.798521118578773392e-01
3.400796540863892936e-02
3.809408174154259030e-01
-1.979675630837123695e-02
-3.722625056443681565e-03
6.310607540391779957e-02
5.699121332825787117e-02
2.815759937629174099e-03
-6.955188203599482061e-03
8.956271238297328074e-02
-5.444872035212099635e-03
3.280666158200742227e-02
1.219893697185508441e-01
4.241726865973239474e-02
1.697742792507351411e-02
2.374302575607857568e-01
-1.940084327033912703e-02
-1.630032725886351730e-01
3.354240311451575640e-01
1.563340010819428416e-01
4.865994042229276201e-02
-1.152115705053744721e+00
-1.259083132558526941e-01
1.217952901653214931e-01
7.300222287683496569e-01
1.683842379482585611e-03
1.303207648555951281e-02
2.206844340853120201e-01
-1.224925051560183005e-02
7.801074072993362252e-02
-1.439775549012052092e-03
-2.373339926484591134e-02
-1.556669710259379023e-02
-1.215999165943223818e-02
1.038617796597367970e+00
1.642744438345499214e-01
9.553260745051993241e-02
-4.030106666477381583e-01
2.310421008422961289e-02
-5.107900296311594646e-02
-4.292578358256250032e-02
3.932785186574139225e-01
2.965155307419047384e-03
3.332188224900520801e-01
-1.532080281556577050e-01
-7.606660507240919737e-03
-7.392673385904388085e-03
3.214250872653836872e-03
3.877767321690456237e-02
-8.743580542084940233e-02
-1.132728765514617597e-01
-8.266571588477256843e-03
-9.616732232533946323e-02
3.518627542549855880e-01
-7.177852128580608157e-03
-5.165967907471314957e-01
1.175927604950230540e-03
2.722656973107357228e-02
1.762176524508004410e-02
2.574373405210154120e-01
-1.075619101919019979e-02
-3.484420429282646808e-02
2.791521676041753275e-01
6.178121116183987044e-02
-1.034180386452250994e-01
4.258873123777654479e-01
-3.291179845720425094e-03
-1.825544017224218496e-01
4.707333034998494037e-02
-4.358193770825135455e-02
-7.632030630892075278e-03
3.532894385240477938e-03
7.206268013503243364e-02
3.054701843393207161e-01
2.137966337818494530e-02
5.033835962824742549e-02
-2.133879893008819861e-01
2.640436319347113647e-01
2.197091452325188043e-01
2.482643873343574059e-01
-1.192068046243231066e-01
-8.003353812510896614e-02
-7.875298698572136963e-03
3.499239438867878804e-01
-3.296874367067376826e-02
1.016162270506742321e-02
3.528841389585231081e-01
-8.825568638839332847e-01
6.351210508881598160e-02
-4.289177805523412546e-01
-8.910058345608011879e-05
7.834258877394915110e-01
-2.718241472526627782e-03
2.898822270167664139e-01
5.317369016466736431e-01
7.846846165032962672e-02
1.474510174892082210e-03
1.091531975973085954e-02
1.338886899597460101e-01
3.155288726188470484e-03
5.924796287396789235e-02
2.001552549927617386e-01
-4.408676224544442745e-01
