-4.090845509298383753e+00
8.435410098666128176e-02
6.847277599590059438e+00
-1.693715067926054862e+00
-2.287764508727761381e+00
-1.376502514980566978e-02
1.579929808341383080e+00
-4.903151794493093796e+00
5.942676820358244738e-01
-1.050271179087401530e+00
-3.017994684031673723e-03
8.829950259311870608e-01
1.003496025521097845e+00
5.102862456744483133e+00
-4.446613137877901245e+00
9.348538129136542141e-01
6.493934501889374600e-01
3.287255696332954617e-03
2.307057330669388229e+00
-1.402917102960989926e+00
1.264830842201760536e-02
1.519906372971135733e+00
-8.280158643050699041e-01
5.224457933138135779e+00
5.021212889043808580e+00
-3.979285408447332806e+00
-1.151674090632438308e+00
-3.803527153310387821e+00
1.506643296488369144e-02
-1.288728056253468646e-01
-1.918893567413349627e-02
1.448851031683729751e+00
6.038388029947899110e-02
9.255246584570056001e-01
2.972877822283301441e+00
2.642194599430183644e+00
2.168245164638479050e+00
4.201675378898173802e-02
6.231821083440388653e-01
5.939651569911865714e-01
-1.957872117471951279e-01
9.817034843568411828e-01
5.505849883702123027e-01
-8.905979104768770860e-01
-4.417284922099204772e-03
1.833392929675893568e-01
-3.374999059998073037e+00
3.483486285917318237e-01
2.760548335334209291e+00
-1.044962958164273648e+00
1.517340831291110081e+00
-4.095396309586873507e+00
2.839198856456946363e+00
1.231497897737309222e+00
-2.004197844203802870e+00
2.042194376982382042e+00
1.036292316084216382e-02
-3.880605599957104079e+00
-4.585089985862597750e+00
-4.386297520720209286e-01
-1.540437930425310631e+00
1.752116088449611753e-01
-1.053568694295974051e-01
5.596982148787383454e-02
-2.526483914028187172e+00
4.883305022601392764e+00
-1.724120564376933507e+00
-1.752774118483958476e+00
-2.921073615621131436e-01
3.915630775336552460e+00
-4.816813443827026586e-01
6.652099976199358222e-01
1.492999512360839720e+00
1.784281521189491793e+00
-2.178429741954507337e-01
1.375064547531360981e+00
-2.451418338363438656e-02
9.648854810109426250e-01
6.071953628017096039e-01
2.434806124544060424e+00
-1.185773479013274567e+00
-1.299603248571335745e-01
-6.542586092875676829e-02
5.082446030365785461e+00
5.509245490398130052e+00
-3.618281993052885892e-01
3.344321635244898339e+00
4.317944194653083656e+00
3.784140580456514802e-01
-1.788860104032776510e+00
4.218455213670026183e+00
-4.486938149791813935e+00
3.358985058314001293e+00
2.067107290928138497e+00
1.506964622106625962e+00
-2.792692979841487344e-01
5.178307481690112013e+00
-1.573223876391430576e+00
-3.288576872688770969e-01
-2.721126863168091159e+00
-1.476144412131801809e-01
2.765903714002596381e+00
-5.481499960061908538e-02
2.659578717768252609e+00
1.748564257032131808e+00
-2.883301890745884055e+00
-6.204733606100526488e-01
-1.918252179526006129e+00
-8.121252134439913006e-03
-3.167268305318819976e+00
2.475755227204142206e-01
2.046361757470413156e+00
-3.288048356465648747e-01
3.946661322797438753e+00
-4.030521545101805714e+00
-2.075932523312014055e+00
4.223740227745562681e-01
-1.224641615198013733e+00
-2.971524459428693810e+00
1.532480159614718174e+00
-3.855751021461439443e+00
-6.693874777564712275e-01
-2.194675211851320640e+00
-2.001673277147971997e-01
-7.277787074458498262e-01
1.888941512770035525e+00
9.490499296828919240e-01
-2.449731223135795943e-01
-1.680992591929495239e+00
-4.387797478099378701e+00
1.269397547002483195e+00
2.046380517358664886e+00
1.752381316251718779e-01
-4.019656980440768912e-01
1.450414753932793843e-02
-8.620838468448073222e-01
-1.159742180418141366e+00
-2.311995930006427724e-01
1.061451528508403630e+00
5.377266839375288932e+00
2.428920734530523706e+00
-4.426306627467943566e-02
1.923508585556437334e+00
-4.031961998773917699e+00
2.297926696900716603e+00
-5.627421699855367443e+00
-3.483537432647736409e+00
9.730705648563761634e-02
5.413518663743061010e-01
7.807380616799843853e-01
4.457703767293912378e+00
-2.558023668739219381e-01
2.203714977373633754e+00
5.701842803380869906e-01
2.550011948844324028e+00
-2.742101010773071668e+00
1.929395537422004883e-02
-2.210051135415517898e+00
1.712608679614196383e+00
4.404674820961709258e+00
1.171835091262466433e+00
1.300287417188774608e+00
2.859463748076811029e+00
-1.395346274595978597e+00
-3.979910052241134810e+00
2.384451774863038942e+00
-2.269467602043990784e+00
-2.190060302855689311e+00
4.140926104237140137e+00
-1.202396262280445161e+00
6.113529613231234033e-02
1.205967980951978991e+00
2.275252306994974758e-02
5.051035168452694180e+00
5.647235236399323455e+00
1.055961144689521319e-01
-4.031522297145550660e+00
2.600630518602107255e+00
-1.787997980337700632e+00
-8.403625936891593318e-01
1.560186060044192469e-01
3.718057793020280499e+00
-1.774900803373735125e-01
2.849510999187856441e-01
-1.436324676887354546e+00
-5.122720442198051671e+00
4.149220573220212316e+00
3.100869131232388387e+00
-5.972549855736073887e+00
-7.647436186785301349e-01
-1.674941594427251434e+00
-4.254736897403558871e+00
-3.468528314341528418e+00
4.979350289276353259e+00
-1.683224626397823442e+00
1.666440193774944234e+00
-1.604344134208782968e+00
-3.069280794998902717e+00
2.099340072040163652e-01
3.887671635427847328e+00
-1.370055789413383296e-01
-1.026593897379143583e-01
4.968728787723348361e+00
4.453881758878686092e+00
8.404020301111950753e-01
1.212109615312030597e-01
2.112209833433154049e+00
-4.650395620884186343e+00
9.126104423709954228e-01
-1.537078248558090832e-01
-1.351274549418179927e-01
4.159028243994458585e+00
1.539051357047712898e+00
-1.303175826587170683e+00
-1.420909039380193048e-03
-1.442759780776948109e+00
-6.585065950269918922e+00
4.329288320725647843e+00
-1.113529476970515297e+00
5.461285122529881519e+00
-5.949995267368589857e+00
-4.480514605248290816e-01
-4.954375347396182128e-01
-1.493134400217847046e-01
2.865107933672944363e+00
1.738276849469840402e+00
4.028889380094713424e+00
-2.070533293061043167e+00
4.219589105723690198e-02
-2.605268287489313828e+00
-1.773568410823138874e+00
-2.469485856781213351e-01
-2.980980322466311727e-01
5.066123692333647455e+00
9.985935753182612062e-01
-4.439966401658981709e+00
-1.803069362264561604e-01
4.551200420136864988e-01
-5.977148032521429899e-01
-4.498613664273658053e+00
-1.590155254523030193e+00
8.356176072377445863e-01
-3.197932780539984310e-01
1.694716564734782271e-01
-5.144340677730390610e+00
4.357024869963367131e+00
1.405744232455672149e+00
-1.746654791975350562e-01
-9.767392825302275705e-01
-1.269671222652975828e+00
2.381962504980239537e+00
2.571278419087243972e+00
-1.267032083904928275e+00
7.609489735670043643e-03
2.050586709018346276e+00
-8.190128541486946245e-01
4.766965985422981333e+00
-1.812807824315963018e-02
-3.531129876857948879e+00
2.327001852482417199e+00
2.045591097318776086e+00
5.750896218867306703e-02
4.095675142793734125e+00
2.026861487245556342e-02
8.522633935531179206e-02
-3.163224009320394270e+00
1.000010599199641498e-01
-2.440008684518870652e-01
-4.891194440035041002e-01
-4.274998178104555957e-01
5.813524749043633477e+00
-5.856100772398400878e+00
-9.743822703859918999e-01
-3.827658913114607708e-01
-8.942509501966883212e-02
4.512384874164613535e+00
5.311165440500155377e+00
-1.398309173779795356e-01
3.161711445484715277e+00
-6.905996627927121212e-01
-9.561487452730077496e-02
-1.106621246250216462e-01
-3.529731401887581388e-01
1.368104164731001271e+00
-3.363899362113177638e+00
9.051528407011342203e-01
-4.257525523127903000e+00
-1.844944461832250138e+00
3.558267951511083549e+00
2.159066629569144358e-01
-5.645870649950159859e+00
3.701369772055315810e+00
-2.511300114126976624e+00
5.012509604889356041e+00
-8.959019806708538036e-01
-4.341263151538599985e+00
-3.068137557060504061e+00
-1.481145826065383975e-01
4.776475596385612477e+00
-5.973121022386719270e-01
-1.688501236761496826e-01
-4.721355976258594822e+00
3.242965134970545726e-01
-3.331754775632324250e+00
-4.257920780894562718e+00
-2.754529109015051436e+00
3.194755217676068071e+00
3.234707394171644435e+00
-2.827835838322210638e+00
-4.586370637660682092e+00
3.622879003130690556e+00
-1.966520679966226592e-01
-2.514777395244735536e-01
1.622072582237605198e+00
1.120419731426646637e+00
-2.030815131379280825e+00
-3.954408195835978912e+00
6.504525667552080170e-01
1.033540027337289002e+00
7.010551083904347891e+00
-1.516154719677561991e+00
-1.268248181087226811e+00
-1.992381155362022094e+00
-2.328063992617595002e+00
5.057630774663862683e-01
2.957145437786600883e+00
1.133986238910992039e+00
-1.635771008760361633e-01
3.613345274176278821e+00
8.175181803823124149e-02
-3.651231342705420158e+00
5.366116470575752473e+00
1.771293015258871062e+00
4.332835385312239773e-01
4.932347947436354296e+00
9.697617846130347496e-01
-2.529045416355343967e+00
6.084992299067199184e+00
4.713579075413198538e+00
-2.494007703155003697e-01
-2.531703611921152022e-02
8.540395256023908255e-02
-9.633348846688269962e-01
-3.879298885628635674e+00
1.256049874208779338e+00
4.193807112211040550e-02
-5.074145798455814038e+00
2.355206402372624908e-01
3.041879677741786414e-02
-5.203869002087468942e-01
-2.524027425804460378e+00
3.126620406918712014e+00
-5.149819215592227328e-01
-2.391791703786617429e+00
-8.276209629504241994e-01
3.772173600951267858e+00
-3.753756842068042499e+00
4.118672722966388200e+00
2.308840842870308663e+00
-1.545566576553517368e+00
1.826377845716129211e-01
-3.534819242755982138e+00
-1.819325666307363143e+00
-3.947858336069510976e+00
-1.179095667695294752e-01
-1.202847815708922297e-01
5.000323205967143192e-01
-6.247465411550731651e-02
-2.417324850675364178e+00
-3.797030358476871204e+00
-8.530088034694445845e-05
1.171902787352070430e-01
2.948720061600964115e+00
-8.236070745010514171e-01
-5.042366399043034519e+00
-4.867010936877633753e+00
-1.024961087425638739e+00
5.330627534870349571e+00
4.208801228691749219e-01
3.460165184067443001e+00
-4.155057668607386567e+00
-7.016384318300492029e-02
5.395057019314958957e+00
-3.436575016060428034e+00
-7.908304300992569091e-01
-3.791879978836218412e-02
4.382146982200750607e+00
-3.277599977401791653e-01
-2.112917273662057394e+00
-4.038755049842333023e+00
4.489073365096604706e-02
-2.065843679575401826e+00
-4.556902325851972080e+00
-2.097992880564636051e-02
1.436914338657377388e-01
6.603951784366712818e-01
1.552981387676855562e-01
-9.068316367854670212e-02
-6.082204531370851569e-02
-9.787294135361537251e-01
-4.384846150349501759e-01
-5.007569176151350776e-01
-3.692889972300879564e-01
-9.186873426672887977e-01
-1.547255817545756251e+00
1.248541981373549464e-01
2.550938705481516355e-01
-2.585548569609713354e+00
1.729648900349354479e+00
1.028783325606578702e-01
-4.006856682621386945e-01
-2.007395857235271475e+00
-5.470065886486374929e-01
4.607202047709903603e+00
-3.166822141381378519e-02
1.736812985335768111e+00
9.627633198216402344e-02
-2.508764079177091322e+00
2.997533218990517501e+00
-1.008883842081883975e+00
5.171033297940599738e+00
-3.668774030356025229e+00
5.159893583488524005e-01
2.873794565421913028e+00
3.923066219494479423e+00
-2.972162033763730449e+00
-5.287425480463354283e-02
-5.100885081733813609e-02
-3.710494363159196757e-02
1.611032590447976309e+00
-3.817187814438692151e+00
-7.186933902048855405e-01
7.527477881373396684e-01
-5.680772724727566114e+00
4.334923656976585327e-01
-1.018983739957742163e+00
4.184247653213371443e+00
-1.849301869598643622e+00
3.271253738739949846e+00
3.227641220065591288e+00
6.601122479882588594e-03
2.556987408246684357e+00
8.325212399340456981e-01
2.882249608326997947e+00
-3.426507812176684986e+00
4.986254898428067683e+00
-1.864788738946334956e-01
-3.497382612722598760e-01
-1.066833218262219551e+00
1.639867856748669750e+00
2.308191242685034561e-01
8.913859947552593699e-01
-4.295844807723842251e+00
4.573989752471179671e+00
2.254653072134445768e+00
9.524042979375050288e-01
-3.984480770488116441e+00
-1.394694659232623424e-01
-2.709365057241218899e+00
1.019315360888021438e+00
9.615292425464700976e-01
-1.190502965137133495e+00
-1.709405637002076261e+00
8.687493019147940476e-01
-3.217150850215658053e+00
4.436707571951533424e+00
4.808601281639486302e+00
2.843663563324218213e+00
-5.508234989070178500e+00
5.886733210679029327e-01
3.498709050203450577e+00
4.920030265019893490e-01
-3.804088444985315731e-01
3.187458168314372564e+00
2.163181851643926734e+00
3.432575778266401256e-01
-6.168572693434667409e-01
5.665090861652408272e+00
1.848812086885336381e+00
5.007103366368117037e+00
-9.455123638299527122e-02
-4.079983086307515272e+00
3.191371386505430063e+00
-1.428224139127815429e+00
2.896719831426540548e+00
3.191784994807524145e-02
-1.304476872849590352e-01
-1.385338068900335839e+00
-1.897054805194807736e+00
-2.192393725716565100e+00
-4.410235714887257075e+00
-1.154111649987941357e+00
1.858413488083196508e-01
-2.413366302378889550e-01
-5.967963529662783095e+00
2.931194322863630783e-02
1.254538554185346655e+00
-1.233127969915436134e-01
8.784300608992917647e-01
3.958376024472662458e+00
-3.208935064260657999e+00
1.750510139008511823e+00
-1.592556642144572043e+00
-3.151913545261033622e-01
-2.390482415343289646e-02
3.828247117804786992e+00
-2.008309680905928207e+00
-1.962103969732508890e+00
4.174749119619353827e-02
-2.522854318037599963e+00
-1.205059858903024361e+00
-1.353468021454876880e+00
9.379111457718021516e-02
4.335472217299189412e-01
-1.819878654248306971e-01
-4.398240596454162876e+00
4.656799026334633163e-01
3.328871247235456021e+00
2.456788749589628562e+00
3.528000151933040396e+00
3.510535834466645966e+00
2.279966558704859647e+00
9.339031911515930373e-01
-3.382479030116410379e-01
-2.567365184793233279e+00
5.907869522461510314e+00
-2.581838162389225588e-01
-8.719937000814019790e-01
3.816776583682204738e+00
-1.869228628518697644e+00
1.164888128118610755e+00
-4.544515856214822236e+00
-1.017842368770654371e+00
-1.319880289901502524e+00
-4.837959332821725411e+00
2.604640628879938635e+00
-5.628340103554906326e-01
4.748728944369502714e-02
-2.914862713762081947e-01
2.426766816946929417e+00
4.939687541146626226e-01
-1.309913187175609263e-02
1.437630438853551851e-01
-3.865998835430803027e+00
-2.792819089842417668e+00
5.244574150359257558e+00
-3.467959865062957281e-01
-1.849546801138453045e-01
-1.380310908920893587e+00
-3.155232187956969608e-02
2.986218015163371486e+00
3.499070192972679294e+00
-1.807916544537533143e+00
-3.022301931155113142e+00
8.217986340820505609e-01
9.848823023948685140e-01
2.597153128828536689e-02
-2.672916691228328201e+00
-1.002441634545691462e+00
5.402602622953274203e-01
-3.462346015310311387e+00
-3.974313745985035951e+00
-9.748070298067008643e-01
-2.625747634939911146e-01
-4.240863893566815257e+00
4.809885702014087827e-01
1.364184542988436721e+00
-2.183466479027633689e-01
4.989929357257622655e+00
-1.067974223856652749e+00
1.928465817996549259e+00
5.927617598907374941e+00
1.062512348254493588e+00
-4.642582534890252188e-01
-4.589431432304154512e+00
-3.034125242110714549e+00
3.713621754711282641e+00
5.078240920736047659e-02
6.579722042299308349e+00
1.302550345841184898e+00
-3.958647237130618723e+00
1.106165797418050788e-02
-1.506448312114894605e+00
3.787113839664818293e+00
1.140302495529226690e+00
-2.701403616728162760e+00
-4.737442826517484495e-01
-2.651319636070903041e+00
9.546850570459750607e-01
1.925307946428172212e-01
-1.229467627263527985e-01
-7.827450055298657006e-02
-3.920194887754224755e+00
-1.601699610276965835e+00
9.364771423251488924e-02
1.987682283186714971e-01
5.899899380217346872e-04
-1.087571650856286265e+00
1.474478222281303319e+00
-2.398898456934455692e-01
1.689302710044172207e+00
2.648944121018411035e+00
5.053387160089281238e+00
-1.178114642645030630e+00
2.241495693704965708e-01
-4.494724108547498154e-01
-2.949688352374975508e+00
-2.969200234782466641e+00
9.927060532083451516e-01
-1.900008145419308514e+00
-5.557000688870671112e+00
-1.184302513633611609e+00
-2.927634841617131833e+00
2.453727270519063364e+00
3.752534345775353941e+00
-4.130089964404887737e-01
4.974681846582082123e+00
4.643596430324366531e-01
-1.009501288140101760e+00
3.237403838440633397e-01
-1.631993487526324005e+00
-7.040472786315815412e+00
-8.066239060951747586e-01
-7.432700740920873406e-01
-3.553339867715628042e+00
-3.873009495596607454e+00
-8.273761217388810874e-01
1.656387158000589555e-01
3.497413321938251940e+00
-1.325861210943612090e+00
2.060206220051890913e+00
-8.047058662180889277e-01
-1.632766121678909776e+00
-4.352166153549481997e+00
-3.124963438812956795e+00
-1.737361892357275783e+00
5.141365436597570060e+00
-4.970255924587370977e+00
-6.503648055186760368e-01
-1.094293510075718956e+00
1.908420392770683538e+00
1.100770712977443111e+00
-5.631483518273251027e-02
-6.210083900198964280e+00
-3.102049457142399991e+00
-8.533526694724461459e-01
-5.228273461424149282e+00
5.134762205374143740e-01
2.656235576438751078e+00
1.994565679166120598e+00
-1.055110522131931239e+00
3.966928785241830013e-01
-3.675294294459746869e+00
1.327927480409005101e+00
3.966941946834707355e+00
-3.281796732568657671e+00
-2.410924582245425885e-01
-3.723438518614017312e+00
2.129124105454243132e+00
7.834806629189992044e-01
-6.270904212975293213e+00
-3.424980968259109027e+00
2.427334895065923259e+00
-3.717150569659703585e+00
1.438957524387830811e-01
2.149716302795798006e-01
-1.779374684832270681e+00
6.888803611612468458e-01
-1.442051307037082453e-01
3.168552199239297318e-01
-2.725162303807301609e-02
2.772798267554684504e+00
1.608375733952941700e-01
-1.595533131794914850e+00
3.129435906913706489e-02
3.357168254598267065e+00
4.566014102148718834e+00
2.670004404335574399e+00
-2.094576605546261128e+00
3.120868636935357099e+00
-2.988270570886093491e-01
1.776173050069676407e+00
-3.234641606522966839e+00
-5.055895884502227489e+00
2.223721381277993903e+00
-2.467044977345843881e-01
-1.573772552246668899e-01
3.038300569649508454e+00
5.332153393341058228e-02
1.345220162528391716e+00
-8.259042709334251109e-01
-3.287703678502118532e-01
-4.778058171147044342e-01
-2.283881800863543532e+00
-5.406779691776621988e-01
4.442645643100466835e+00
-2.484310474647430655e-01
3.915415976133228781e+00
3.344224664331108432e+00
1.481313210735305308e+00
-1.168286431159667016e+00
-6.450289387920262740e+00
-8.172176196225819922e-01
6.445748362738163095e+00
-3.140915059888004457e+00
-2.447252922488266869e+00
-1.606249540153709687e-01
-5.135041232733054094e-03
-2.784682567845211398e+00
1.382628777339954151e+00
1.420261675312073812e+00
-3.544079892124293085e+00
2.845134931342643836e-01
-8.984882849222380896e-01
4.211498455970072108e+00
-6.455415654643669177e-01
1.225431729442436835e+00
-1.912656313180527201e+00
5.598656206818634296e+00
1.624954238891744618e+00
-2.388860418011228059e+00
-9.711179694215586744e-02
-1.203586649563045397e+00
6.210083035707799487e-02
2.560825902884920069e-01
-2.207981811953162232e+00
2.784103214915277236e-01
1.643958542738369610e-01
-4.731702460572652646e-01
2.711212575783376599e-01
-9.932366760456879939e-01
-3.611168306629977121e+00
1.317788199649327641e-01
1.110198892932684478e+00
-3.360829420964368985e+00
1.638204394187363355e-01
1.391348770982869132e+00
-3.184685041616516776e-01
-3.989887976345576792e+00
4.805474354854896823e+00
-1.902658181658261505e+00
9.224758296611008934e-02
-2.208116565969948653e+00
-3.287590394792053061e+00
-3.488823206945778743e+00
2.481412596850652630e+00
1.438817738200868002e+00
-1.057510640826687942e-01
1.012589085990642124e+00
-2.100530603164035170e+00
-4.753275708551158996e-01
2.198874031572417564e+00
9.131917730552624457e-02
4.279869402710789750e+00
1.014342502245098920e+00
-7.838529575186167220e-01
-1.078176926529219370e+00
6.531642541074279329e+00
-3.763330548252021401e+00
7.553681743894827272e-02
-5.500579348063157070e+00
-1.528720666277348927e+00
1.588526678443385798e+00
6.548104619978039297e-03
2.807113011257431623e-01
2.684138989780181728e+00
-3.729696553002102150e-02
-4.048546836540194427e+00
-9.135672869094043635e-01
-5.747995621773381636e+00
-4.957558196141977014e+00
-4.406374709195286232e-02
-3.094692413906845463e+00
4.355548114207324351e-01
2.177883526935263880e+00
2.205008976332411552e-01
-7.084269565231706700e-01
-2.539963794380831974e+00
3.205987178321029803e-03
1.675256651132791319e+00
-1.310107038852657002e+00
-1.881651698145859752e+00
-1.307797644235066503e+00
-3.372591408879757502e+00
