-3.369318145096349810e-05 4.322429920090228929e-06 -4.189622072865688745e-07 -1.466793148775890697e-05 2.176176260992268734e-05 4.152509217721597371e-05 3.215681845220270068e-05 4.713404610706301180e-05 -8.906074124408817804e-06 -8.152688232949365258e-05
3.008743951654398394e-05 1.040142095182771011e-04 -6.195440801989687796e-05 1.066376801401005463e-04 2.626146392141646824e-05 -1.062626201192709764e-04 -1.790502740120533242e-04 -1.098706729286663523e-04 -1.122630984197967729e-04 9.913679834476644200e-05
-1.642870642930521860e-04 -8.193893044931929324e-04 4.345887246281077013e-04 6.294871473109099700e-05 1.308951744081794807e-04 1.064873367807548532e-04 -4.442969139179651266e-04 -7.390952194605159193e-05 4.641010220117814159e-05 -1.267250814295634270e-04
3.389730174795165950e-04 3.756288597028035233e-05 4.023437298346343983e-04 9.085131817061335182e-05 -1.140278244667006918e-03 -1.204178416097408647e-04 -2.070901806487379041e-03 -1.093128053171328086e-03 7.540314843485113082e-05 3.518210200496636351e-04
-1.903447177587179451e-04 -3.235423655162713002e-03 5.370041230845650632e-03 8.247714443422878125e-05 -3.455714413322887989e-03 3.378565156481293675e-03 -4.033160341429720477e-03 -3.614439311854698422e-03 -3.887920920118352174e-04 -1.259966404590110714e-03
7.950469411352401516e-04 -7.508756472407593190e-03 9.805576323788599974e-03 1.241242289029809674e-03 -6.648027635831259968e-03 7.325230431500284571e-03 -4.268689629638458549e-03 -8.067846492090540236e-03 -3.116372794311804764e-04 -4.921827843799743765e-03
9.038243419936210429e-03 -1.333969710135040308e-02 1.232599447487729358e-02 4.807688778692454333e-03 -9.917289596510557234e-03 7.022978433375125749e-03 -4.906522286553245508e-03 -1.019548016352276286e-02 4.249471975902414760e-03 -2.422054748964157060e-03
1.776844775982788435e-02 -2.592264629161353945e-02 2.882523216992421630e-02 9.298179413088469847e-03 -2.024977026085077181e-02 8.072832958882567370e-03 -1.359435051701217770e-02 -1.846734766504050732e-02 1.510233622796661526e-02 -4.050533814369500912e-03
5.024743341163487309e-02 -7.070109674933319766e-02 6.286527831367648422e-02 1.095830631013952096e-02 -3.557514748401920807e-02 1.160892279879064716e-02 -1.152500948029569830e-02 -2.076081480236620022e-02 4.455665884608826788e-02 -8.903576491082209471e-03
1.151835358857930258e-01 -1.612108467558892866e-01 9.893163342418384576e-02 -6.295678887242052435e-02 -2.422681596820353001e-02 2.892387098055375361e-02 1.194844674978415427e-01 -6.588220038434604124e-03 9.877784888795991536e-02 -2.611572463314690631e-02
1.813432177198574247e-01 -2.808339815628296821e-01 1.114055239321304763e-01 -4.451447714399563438e-01 7.918640950519710564e-02 6.463245799148381598e-02 6.541341496260558719e-01 1.342724200998190488e-02 1.608382332286339422e-01 -3.845015130236154564e-03
2.463878459643814856e-01 -3.044619936920562875e-01 -2.153932351267541859e-03 -5.224891578278885174e-01 1.228568608939430012e-01 6.367029669615428822e-02 8.763942704830461894e-01 -1.587157756886626095e-02 1.986222661949855750e-01 5.359285508523996266e-02
2.987649549312977881e-01 -1.217923028993554979e-01 -2.103193836341527290e-01 -4.438961876779886628e-01 1.371741591698001639e-02 -3.127587328566828334e-02 8.010794935160205910e-01 -1.144291077679906593e-01 1.691309998258221370e-01 8.970873483126207137e-02
3.068828705456343453e-01 6.936224282107011311e-04 -2.044445725637082378e-01 -4.891589121043008470e-01 -1.020493430614802938e-01 -9.111534999752236852e-02 7.802969007405131663e-01 -1.392696578505565330e-01 1.405778922278109466e-01 -2.382498037834644700e-02
3.147639250398436284e-01 2.346129040791392062e-02 -1.940408877613338245e-01 -4.536645961098281221e-01 -1.284115357927128609e-01 -9.633312285341204262e-02 7.679893459600179995e-01 -1.415775406792724178e-01 1.305483558446035308e-01 -9.850650969812335678e-02
3.197251506512637786e-01 -4.021740505868790644e-02 -2.180805042401075533e-01 -4.507422934036045548e-01 -6.115011430403578113e-02 -6.967145486463199866e-02 8.247816737224541450e-01 -1.552491685810192812e-01 1.265630199862807226e-01 -2.182890508740619254e-02
2.959607351202986902e-01 -2.598076390758708443e-01 -1.093082135130331312e-01 -4.182043835326167969e-01 5.817187492356256512e-02 8.769120715965304444e-03 8.557876499537513393e-01 -8.966272175285311397e-02 1.293277802210598959e-01 1.729592983072794285e-02
2.252485336633896773e-01 -3.602421169649002164e-01 9.071614183977605439e-02 -4.846998492039650830e-01 8.267262964359065047e-02 3.663058583741345131e-02 7.998459821777880174e-01 -2.350985945343489827e-02 1.114585963796019680e-01 -4.853303170727316616e-03
1.526246145842780899e-01 -2.723135838448618173e-01 1.358388640863852637e-01 -4.413872269887086364e-01 -1.915000931754240118e-02 5.610355196898487128e-03 5.514408906845729152e-01 -1.323279659843035368e-02 6.730348475176063661e-02 -1.480451782890026061e-02
8.473550196335480345e-02 -1.343777975438965600e-01 9.204920416707315645e-02 -7.447727375381775483e-02 -6.559744507655271284e-02 -2.444913103616944139e-02 8.559637187079910392e-02 -3.448286083078506287e-02 7.487137704316275920e-03 -2.149085811114852598e-02
2.952590552181922137e-02 -5.813496314363637146e-02 3.936612160764903917e-02 9.720470470271750513e-03 -3.094395875556724476e-02 -1.480734726181920716e-02 7.072233202711037878e-03 -4.502850429735479748e-02 -3.119902408615744110e-02 -8.407168123416667097e-03
7.662598612292777743e-03 -3.304786081561770367e-02 1.366917540061389318e-02 7.206840400473825924e-03 -1.591779181378212907e-02 -6.600467911404082899e-03 1.510967359576025071e-02 -3.878889562571857796e-02 -4.640194716189369878e-02 -5.576802075603577713e-03
-3.866654510767194349e-03 -2.090132964057944687e-02 7.201250747830792269e-03 6.496998795976881118e-03 -6.128034363955921909e-03 -1.358703416507322939e-03 1.585978307086124625e-02 -3.368613945126845005e-02 -4.471274538750298622e-02 -5.486894992543207318e-03
-5.120991543274750792e-03 -1.742869511872805963e-02 8.098051481020654072e-03 6.615320555195348950e-03 -5.263835593488789925e-03 5.132352815660495707e-04 1.167171015414471963e-02 -3.065078921014127711e-02 -3.798381736257731150e-02 -8.652970649693473779e-03
-4.428002595915781457e-03 -9.658559936508331542e-03 5.880909070075937377e-03 4.040494147138773764e-03 -9.543765610815545340e-04 -2.151788121479519984e-03 4.956889379464686149e-03 -2.291083333449600579e-02 -3.059646526461376817e-02 -6.832870789962101378e-03
-5.079024690670212554e-03 -6.179911642779071027e-03 2.893355347222450677e-03 4.059964028516363857e-03 -7.462992896854851992e-04 -2.937162926461545608e-03 3.745758281104956226e-03 -1.603198075757124308e-02 -2.032203577332910779e-02 -2.202817355745183454e-03
-1.591686742855912559e-03 -2.748692279796713205e-03 4.960154781969393356e-04 9.291406836198046020e-04 7.107680737122736665e-04 -9.652195928261672955e-04 2.331414435482616516e-03 -5.008593528239753574e-03 -8.263982095583278717e-03 -1.099324410955759704e-03
8.191307167016808038e-04 6.559559588704399211e-04 -3.849765173159480354e-04 -6.709991520486206871e-04 6.892822633574328039e-04 1.402918999350469308e-03 3.926111263181771764e-04 3.918026828453859351e-04 -7.284559733690503230e-04 1.139187579554181828e-03
-5.395583486622141040e-05 -1.342108296028128455e-05 1.144222625405677058e-04 4.926708444545274744e-05 2.783492999562883276e-06 1.657724306713895127e-04 -7.141571665264316177e-06 -7.848917319867497954e-05 8.991702911229871253e-05 -5.192311733836691871e-05
1.150578798931894302e-04 -1.398213744626962755e-05 9.095690366123975129e-05 2.073769215054603661e-05 -2.779902647473260244e-05 5.878085454461488260e-05 -9.402006335160092768e-07 -3.673157834450084145e-05 2.545672336872711913e-05 -3.176920029055401953e-05
-3.424203823625970064e-04 -1.746876155132053758e-04 5.816813316580233270e-04 7.233770391135388336e-05 -6.544258849097143354e-04 -1.185070593075005361e-05 -2.353456382794589293e-03 -1.008573490401959514e-03 3.712794994501061174e-05 1.174744299247249511e-04
-5.273255084466334664e-04 -2.651905807411700407e-03 8.091209379467466378e-03 -1.327150674751357250e-03 -3.855625577124778634e-03 2.945856120063114134e-03 -8.387242892961945320e-03 -9.303361333956681328e-03 -4.623815718457510802e-04 -1.440570861873649502e-04
-2.186882992811659075e-03 -1.289158531210736480e-02 1.968184539814812894e-02 2.597942521079572072e-03 -1.088794517587164147e-02 1.233588674794709218e-02 -1.091618874444777280e-02 -2.051549555983507231e-02 -7.372892355034735149e-04 -5.739331919150342069e-03
6.200179989905504029e-03 -3.939710439045418511e-02 4.442818549308932136e-02 1.592209389100777972e-02 -2.615965370487835159e-02 2.754484100527488863e-02 -2.367829564669729145e-02 -3.697103137257810868e-02 1.101784104621040573e-02 -8.079641170368370706e-03
5.696883905714575369e-02 -1.504470303448735835e-01 1.039263876110222418e-01 7.473364796587476933e-02 -3.721941977331102297e-02 6.157222741046262937e-02 -4.431058429166152141e-02 -5.042177291675295492e-02 6.208866193236992764e-02 -1.910974463811505528e-02
1.641977913189997251e-01 -3.420715001826105106e-01 1.475813232822522636e-01 1.983339017222218725e-01 -3.276872416192886522e-02 1.019483256739391330e-01 -6.591472572270314079e-02 -4.412785360979844251e-02 1.477694362035474607e-01 -1.072276676506483950e-02
3.045892284482727974e-01 -5.227910164412411520e-01 2.011286083252349921e-01 3.460564148014227404e-01 3.111358152766745960e-02 9.942208817014386302e-02 -7.166455254220165105e-02 -5.367737032147926191e-02 2.487119659237869429e-01 3.293243932855687700e-02
4.369117415968271079e-01 -6.296357133274917972e-01 2.286909790959263944e-01 2.164639152914100695e-01 1.320249271318170992e-01 6.918657730060114031e-02 2.290665137159932641e-01 -8.596201377135768984e-02 3.514017077485949714e-01 9.005630581511733790e-02
5.125674463663750791e-01 -6.093479201163155556e-01 1.889366423349922441e-01 -8.892429689286038830e-01 1.527138565477889898e-01 4.756555240450042327e-02 1.399305084537505905e+00 -1.499013658292669693e-01 4.326153254932756931e-01 1.845736166278711676e-01
6.579830184371507906e-01 -4.996538378919259116e-01 -1.192889461679422919e-01 -1.012281663738925142e+00 1.811388910373651906e-01 -2.171938932928670074e-03 1.814067273173012973e+00 -2.812674989649738833e-01 4.651709945236011667e-01 2.779260973188897865e-01
8.309205968919746166e-01 -3.897884569349994166e-01 -4.439122176480879700e-01 -9.231697726365358792e-01 1.251649896488348235e-01 -9.757436232545518839e-02 1.991159063391706674e+00 -4.061060345869234034e-01 4.444675686139154536e-01 2.832056246473564354e-01
7.938188637344674170e-01 -3.560905620323647769e-01 -4.256006004989968949e-01 -1.038475126587165231e+00 3.517106004612086806e-02 -1.369481405006737484e-01 1.998479375001974923e+00 -4.352046922365899184e-01 3.672097802918437015e-01 2.689948476521067389e-01
7.587578622057082889e-01 -3.795520687792128256e-01 -4.287746022458485129e-01 -1.024891103097852696e+00 2.557696865102109321e-02 -1.320885168513295516e-01 1.955803733236200603e+00 -4.651108580941650805e-01 3.191289479007002328e-01 3.200085778203943798e-01
8.314878129675445928e-01 -4.331794734860752727e-01 -4.713380312847633147e-01 -9.037622450531767049e-01 8.770155467663891258e-02 -1.274670735648227582e-01 2.026063675412896448e+00 -4.823862807507728334e-01 3.336842595458649474e-01 2.745701930525318302e-01
7.685779788400934898e-01 -5.419842350784590534e-01 -3.102495250134814087e-01 -8.630134390446739800e-01 1.358814631184517008e-01 -7.489801687175622058e-02 1.965074930138570819e+00 -4.267970383293665515e-01 3.081291297779172877e-01 2.132565786141255304e-01
5.698570916589877910e-01 -6.287141827507283232e-01 1.093959558911129920e-01 -9.748563708995265920e-01 1.137105239060135914e-01 -4.260231223055956779e-02 1.707158441603500831e+00 -3.006704533132437129e-01 2.537947978557553164e-01 1.278283054827168419e-01
4.606443604470432662e-01 -7.306966694436564103e-01 2.667337276515486799e-01 -5.676293011499887742e-01 1.019673955977821039e-01 2.132023058661071098e-04 1.117270723143017896e+00 -1.937250263566876185e-01 2.031050408227588477e-01 9.299467114925960565e-02
3.719863003748771213e-01 -7.011309887503939242e-01 2.528226097909280212e-01 2.392207248203064296e-01 3.014649075570523251e-02 6.837062992414957158e-03 1.793462791357135766e-01 -1.448035401587462745e-01 1.149056653550882129e-01 4.333456375468022065e-02
2.154655588885587558e-01 -5.131405699171996959e-01 1.818023566541616676e-01 2.755233834447933794e-01 -4.083914256225988637e-02 3.045989211178822681e-02 -4.697807323195632608e-03 -1.408667456108092519e-01 -2.884211502823605475e-03 -1.530412073777838618e-02
7.843218116086266012e-02 -2.863581996475532132e-01 1.402950973287272196e-01 1.343083228345344493e-01 -6.385094043748718029e-02 8.989257187222049125e-03 2.518313095070817860e-03 -1.574055737088245754e-01 -9.993959989471117022e-02 -3.582564759917099273e-02
-2.201512760821097020e-05 -1.216621407985168796e-01 6.755896653751691794e-02 5.080319164370953461e-02 -4.770013343976345355e-02 -1.546673844251908632e-02 2.729472789377811182e-02 -1.465410666006404516e-01 -1.509180994635635764e-01 -2.432997166956906918e-02
-2.626370855595099377e-02 -6.739658300688387838e-02 3.475228106626559316e-02 3.304812188582908344e-02 -2.512881791036567294e-02 -1.595233327575723559e-02 4.557176126261767296e-02 -1.249535673788832596e-01 -1.483071370646691645e-01 -1.938045088861934870e-02
-2.803299932724001922e-02 -4.481842218713518594e-02 2.791416066012365402e-02 2.423819592600370484e-02 -1.422065203594489839e-02 -1.056278320335955756e-02 3.689326252778876714e-02 -9.702793022366462683e-02 -1.203707088138861597e-01 -1.308168844757424086e-02
-1.961163688109279074e-02 -2.450558596511871051e-02 1.619617930271736311e-02 1.458560042071377350e-02 -1.025989673681298314e-02 -6.040173473861124194e-03 2.120833368561917190e-02 -5.877877093985531265e-02 -7.123292759987272238e-02 -8.143265879635630186e-03
-9.176478342838873675e-03 -1.073729000294670194e-02 5.786853318671163031e-03 5.231014772865836410e-03 -5.329023962994789386e-03 -3.041051452144325797e-03 8.582718311445984918e-03 -2.182357547529160252e-02 -2.394319928280214810e-02 -6.396833289741559077e-03
-2.441404328761109799e-03 -2.218951851515277816e-03 1.597843789092904783e-03 1.858896253759722726e-03 -2.093799002169273362e-03 -3.081889879022206569e-03 2.424634518387659352e-03 -2.999258694129332877e-03 -3.489594527406374158e-03 -3.676464495151477059e-03
1.076307325974262699e-04 9.342011429508095106e-05 3.509236576595325193e-04 -1.020040165796314881e-04 6.847861177784121309e-05 1.824547599400769564e-04 -3.759709396093039303e-04 -6.807067927439118538e-04 4.901694907423821853e-05 -8.016108857855441068e-06
-2.183059610207919131e-03 3.466089189921153562e-04 2.912249148104130089e-03 -1.454263435524908040e-04 -2.919946300400702555e-04 2.858149069779704517e-03 -2.472648969582012801e-03 -4.168012507762199927e-03 9.033882753318475765e-04 -1.722395731353284186e-03
-4.930742191447656450e-03 3.696343212620707436e-03 7.635573799927176247e-03 2.873801839355585950e-03 -4.443064912377396765e-03 6.692149245245623823e-03 -7.833440116129426062e-03 -1.322121587229489921e-02 3.088274240227764124e-03 2.177037348728505864e-03
-1.302109351273818966e-02 -6.027863923528202321e-03 2.500753442236348933e-02 6.674862027008847572e-03 -1.558659055549323040e-02 1.834937832972706809e-02 -1.681258923903432290e-02 -3.165482628125357301e-02 3.469800639524166577e-03 8.557845108881958476e-04
-5.550047886513640935e-03 -3.046178914003425803e-02 5.460588813264788399e-02 1.735724171387089190e-02 -3.370556009402252834e-02 3.084736291249954784e-02 -4.025728600336909990e-02 -5.379888253868755216e-02 9.338190685950081144e-03 -3.385782103223069356e-03
5.504193799241708512e-02 -2.106349164532742013e-01 1.689889997779598363e-01 1.247386671642346373e-01 -4.327866256042085108e-02 1.009824692870212454e-01 -1.008272059651567493e-01 -8.498020418302869305e-02 9.288278175960548722e-02 -1.402365907144033016e-02
1.942343078949364255e-01 -5.272076449030389522e-01 1.911639551471267517e-01 3.593174835458999294e-01 2.060587678510105228e-02 1.899042736825151401e-01 -1.037682048366420640e-01 -6.487634856315659115e-02 2.132877125233523241e-01 1.879615911089970934e-02
3.215562302296361974e-01 -6.642717888244762392e-01 1.541893275488935289e-01 5.320394844756155539e-01 5.499390579657383038e-02 1.815190041029949297e-01 -1.386511749845561192e-01 -7.790663225258548374e-02 2.870058991614491406e-01 9.223582729340794317e-02
4.466300366213691309e-01 -6.888560241208173673e-01 1.385296964376058204e-01 6.609746082032763592e-01 1.326842355210602342e-01 1.137722429325953161e-01 -1.483415521503412826e-01 -1.373838140719373102e-01 3.518436859608114475e-01 1.785625648430885504e-01
5.388276001584059172e-01 -5.940332605841451841e-01 4.861070162170769843e-02 2.958340346305434743e-01 1.395201964766975278e-01 3.636862502450854268e-02 2.837588645901654161e-01 -2.341573332598926582e-01 4.030789027633626675e-01 2.568371372225433658e-01
5.894551382502241088e-01 -4.301922105485203041e-01 -7.199386132798814286e-02 -6.611957581254971350e-01 1.580573925878406838e-01 -2.877572894385368660e-02 1.332059795120282164e+00 -3.352428763146116930e-01 4.219298430051147131e-01 3.105529770823188818e-01
6.271873846953104348e-01 -2.557472605971393143e-01 -2.289575658720326146e-01 -5.856591609806057752e-01 1.957714623017628996e-01 -7.950930134037620389e-02 1.456282669824393583e+00 -4.312990202089868608e-01 3.772134906221393802e-01 2.627518520860484541e-01
6.557582741795943138e-01 -2.421065770190446720e-01 -2.992678328609086891e-01 -5.572316709878193386e-01 1.977973946006877926e-01 -1.139201581165278782e-01 1.505137327830444294e+00 -4.808419063263724147e-01 3.266015249095160500e-01 2.626425333263858186e-01
6.619071763642021544e-01 -3.380549997514107896e-01 -3.828395595999015688e-01 -6.520044550327648292e-01 1.587274379075938602e-01 -1.215976251808667252e-01 1.610443242976105527e+00 -5.443642514270647936e-01 2.469314608625108876e-01 3.893955758799939049e-01
6.403313058578449235e-01 -3.856043109030256044e-01 -4.276986284064565047e-01 -6.379443096280523751e-01 1.682416605351115257e-01 -1.230074248338206000e-01 1.651126085377414787e+00 -5.922745972672655013e-01 1.728020537729025863e-01 4.470808499895959631e-01
6.281079833363369946e-01 -3.767932187327491245e-01 -3.731523914685356824e-01 -4.520582706618100910e-01 1.984894898117471884e-01 -1.457223750435470144e-01 1.548072991168958579e+00 -6.155295563030515060e-01 1.363131733845486526e-01 3.568258887463972018e-01
5.724058833915375288e-01 -3.467564900702886921e-01 -2.670089299027386120e-01 -4.457750898999502387e-01 1.896127086709104848e-01 -1.582583968733503044e-01 1.502694074422117332e+00 -6.004584404181075863e-01 9.211378889827108452e-02 2.494516164720523010e-01
5.467767304002949524e-01 -4.474972596771772948e-01 -1.402458475140992700e-01 -5.028823326805136329e-01 1.512702778252248137e-01 -1.308618027562791497e-01 1.462118757177547357e+00 -5.470773583149027841e-01 9.594314697709463435e-02 2.170695970427879706e-01
5.178012049569452602e-01 -6.538246141997869909e-01 2.421184407723371915e-02 -3.639508410506722136e-01 9.010692832846668721e-02 -7.388345521325123677e-02 1.167131423926607958e+00 -4.527231617939242447e-01 1.118668196222682293e-01 2.153467782873117742e-01
4.567586111224149481e-01 -8.244369127790148744e-01 1.572093028801961057e-01 4.546304907314454025e-01 8.021885682980585408e-02 -2.436384531119462071e-02 2.456047735220144856e-01 -3.515514989355770226e-01 6.584470687146924683e-02 1.736351765326739904e-01
3.292081448262518806e-01 -8.190947227024135691e-01 1.816313646164749718e-01 6.418625552016454794e-01 5.349566724909727428e-02 4.783281346335440526e-02 -4.205180120472273853e-02 -2.791893785898144631e-01 -6.148197863587567119e-04 9.781420800387921610e-02
1.914768828094168263e-01 -7.160534269940379559e-01 2.062603038221816620e-01 4.895719955743928486e-01 7.183135676823697129e-03 9.830958341863861583e-02 -1.579140618170242830e-02 -2.640124854513142827e-01 -6.785944981296937462e-02 2.080238594457297849e-02
4.088848464524053039e-02 -4.244769881270303857e-01 2.274329297444531994e-01 2.509483898022571435e-01 -6.690652943273306397e-02 3.337631848878024748e-02 -2.493016341534952038e-02 -2.870888418600870962e-01 -1.772450523781706200e-01 -2.871813249349661895e-02
-5.919882677574717089e-02 -1.516247869439755480e-01 1.154789336967727009e-01 8.566377702232336189e-02 -7.258267258512214604e-02 -2.412405396881268926e-02 2.925130942471722631e-02 -2.703382000478630753e-01 -2.515952667849351010e-01 -2.135559953117486739e-02
-7.591524150983916530e-02 -6.916482446804765594e-02 5.136895546531181772e-02 5.202131388509033394e-02 -3.633416163681938565e-02 -2.720903400635521496e-02 5.993864515425065265e-02 -2.094023872123211838e-01 -2.284614888791059450e-01 -8.877987681091719860e-03
-5.834732767094474165e-02 -4.219621693059085604e-02 3.328158920663912973e-02 3.414616945290607775e-02 -2.827268313369464894e-02 -2.096852236184342660e-02 4.471807896934579946e-02 -1.306633204113911706e-01 -1.440331485439718950e-01 -5.979821914253119139e-03
-2.595614643682319159e-02 -1.303440191109061022e-02 1.489270430765330527e-02 1.255894439508787284e-02 -1.690286783033091711e-02 -4.592461157105756295e-03 1.742067321859349163e-02 -5.289898654903125996e-02 -4.610038738364535121e-02 -1.104653234849102203e-02
-6.218008768474374975e-03 -4.620053198444861939e-03 4.996620904393100568e-03 4.320833007689258570e-03 -4.840813798870654758e-03 -1.006292148916163032e-03 2.929048756667086261e-03 -8.989453516292909147e-03 -6.300407336659550987e-03 -5.344192347876965295e-03
-1.100774291760985056e-03 3.709124751143806067e-04 1.055412125130355226e-03 5.852500849355906200e-04 -1.159390644549365213e-03 5.444756902904325556e-04 -1.231745045711932305e-03 -2.116020790872804452e-03 -3.094061121184363597e-04 9.434151065174424826e-05
-1.152179172588698244e-02 3.692518741329532152e-03 8.909511835814105593e-03 3.238695586577613941e-03 -3.574034024866403012e-03 9.394698135036917350e-03 -1.030177599279166918e-02 -1.527888429879736658e-02 4.356345070316618162e-03 2.644419644238372568e-03
-1.728479654465762266e-02 4.929971633567061667e-03 1.877854185219459543e-02 7.038580668164393615e-03 -1.179729966924789215e-02 1.706947251779885460e-02 -1.754532465440370587e-02 -2.854908884527062457e-02 7.280437099227998927e-03 6.949683468834803347e-03
-2.063423725034753062e-02 -8.825130198111694191e-03 4.359334313047798920e-02 1.287142546588410791e-02 -2.891378417849150770e-02 2.797230864840678441e-02 -3.795704885722660238e-02 -5.471350858938388989e-02 8.539082804398903312e-03 4.632779547976960746e-03
2.824908832766212432e-03 -1.055865145918401943e-01 1.472775916020372111e-01 7.120011635203600531e-02 -6.104923527631296587e-02 7.204419235381431807e-02 -1.196383884770034350e-01 -1.086618009030051457e-01 5.686941810904813654e-02 1.156370769132559172e-03
1.168220042720847923e-01 -4.487880692110542968e-01 2.550381299192917561e-01 3.333089696017925152e-01 1.087128205471099736e-02 2.034301494824841960e-01 -1.634815033823169839e-01 -1.137796808281278105e-01 2.052416760470303914e-01 1.231696825718479882e-02
2.657376214992556718e-01 -6.960280130736833382e-01 8.678604727952796138e-02 6.012061464560800594e-01 1.095094230635337007e-01 2.926909597329850898e-01 -8.490346331548016823e-02 -9.327920126236192988e-02 2.978613021076880196e-01 9.989542029061702910e-02
4.157661163994320064e-01 -7.085512018296086234e-01 -7.389994104328749536e-02 7.682670627499854632e-01 1.220959020422175967e-01 2.256502741771533871e-01 -1.054257315407677031e-01 -1.556714375315684518e-01 3.384846703977821281e-01 2.026013062851103608e-01
5.374119853976202510e-01 -6.184243148891823694e-01 -1.253913402740609306e-01 8.388912122887638434e-01 1.134800285858250934e-01 8.775799225900923761e-02 -1.646576450601460184e-01 -2.845470601423753521e-01 3.832651630036593704e-01 3.233815490829434758e-01
5.921373582517559520e-01 -4.217353444633631376e-01 -1.639125750587669961e-01 2.296574447819094700e-01 4.163219258782469012e-02 -3.399333909820648203e-02 3.692604185298918318e-01 -4.132686284157512935e-01 4.125987973486293092e-01 3.767442424428827374e-01
5.905240171846855013e-01 -2.479173569798960586e-01 -1.795955931882203538e-01 -6.161047174247119562e-01 1.052433306574217103e-01 -8.558739976312461362e-02 1.305411413087345540e+00 -4.861474928099467352e-01 4.064076823752895695e-01 3.522420710510975050e-01
5.618939851913025141e-01 -1.599137488949000097e-01 -2.346187958680756025e-01 -4.669836325443020297e-01 2.470720188503860992e-01 -8.461065664665640140e-02 1.359555406940927913e+00 -5.169921141201457848e-01 3.420124006976117959e-01 2.981962645562113434e-01
5.561935806864440890e-01 -1.683374313864849647e-01 -2.789880991047460346e-01 -4.346486429683891761e-01 2.986003893039209101e-01 -1.139622022691409026e-01 1.389281171527463110e+00 -5.593671250603368117e-01 2.760184229082145446e-01 3.558598554115708912e-01
5.426682898305806857e-01 -2.501934133412818673e-01 -3.465453520233222617e-01 -5.008351095001722930e-01 2.555527827262293883e-01 -1.374133838076915526e-01 1.465371760123839406e+00 -6.469741154097014002e-01 1.675685150625106090e-01 4.859284944563423414e-01
4.982020579130838067e-01 -2.896606844840545203e-01 -3.748457483991692873e-01 -4.379042064645669585e-01 2.635997384453693804e-01 -1.613541173813377583e-01 1.467036831953371090e+00 -7.159203233858155713e-01 5.593609334604283251e-02 5.265810720085083441e-01
4.623811564309343591e-01 -2.797633211701942568e-01 -3.302373913488130253e-01 -2.971018332098325776e-01 2.853808691479483017e-01 -1.990422992093603960e-01 1.398114051695522164e+00 -7.617713714078682141e-01 -1.412113093710883234e-02 4.644117788485784271e-01
4.421980670087269916e-01 -2.800340895537757890e-01 -2.623276592344594982e-01 -2.625918094950564496e-01 2.662457466118516858e-01 -2.081594235424123196e-01 1.387308046591044342e+00 -7.547741413679879274e-01 -3.866492026375195623e-02 3.475641932115219879e-01
4.363953722580922179e-01 -3.268113885452522682e-01 -2.022266644937247837e-01 -3.209049626201217476e-01 1.656426954851528965e-01 -2.012722220499282288e-01 1.358877163701718294e+00 -7.547601219687284368e-01 -4.325087993952018983e-02 3.043411527921220938e-01
4.696745394274460805e-01 -4.851876167888894975e-01 -1.581236892951062289e-01 -2.815367348397110892e-01 1.409153573947528361e-02 -1.785824679784461244e-01 1.197742135559988652e+00 -7.207269570153539417e-01 -2.200981048779539553e-02 3.121830963708520090e-01
4.708513647975263727e-01 -7.411319147375358130e-01 -8.865833370062012331e-02 5.040823056864246476e-01 5.352500777085262944e-03 -1.012664827718462585e-01 3.955703453926007751e-01 -6.263638935890386561e-01 -3.501705594374631553e-02 3.052665647835434704e-01
3.731164156437359325e-01 -8.720822976358706402e-01 -5.889455688917661497e-02 9.042971611235485208e-01 7.395979759656129415e-02 2.499893591839583845e-02 3.823252200712969756e-02 -4.964173260301564805e-01 -8.678312922140644925e-02 2.185324969208739809e-01
2.008284272143374405e-01 -8.682129321524347798e-01 4.898287409292631511e-02 7.582971875807913431e-01 7.504596163042395740e-02 1.346479039959871948e-01 7.168645009913689192e-02 -4.138547408269176997e-01 -1.468370099211097346e-01 1.088377793860735576e-01
4.059982532553058077e-02 -6.910130248189066959e-01 2.597499782903758825e-01 5.246835714192711331e-01 1.723067536150114107e-03 1.034793468887088702e-01 -8.166642111189394496e-03 -4.210588400726439362e-01 -2.081822478424551204e-01 1.804874688593932630e-02
-9.452969990912166165e-02 -3.221276350461350635e-01 2.516385624663532994e-01 2.227975042768571001e-01 -1.102066857164193392e-01 -1.578405660619316281e-02 -3.934180361862156527e-02 -4.269097411489903848e-01 -3.021436109276535720e-01 -5.994343813191076176e-03
-1.457268428710435104e-01 -9.638519485075323912e-02 9.964675317881983851e-02 8.516620001234834203e-02 -7.583199543335439330e-02 -4.030141934165164253e-02 5.098571612595069469e-02 -3.294489675335049439e-01 -3.098745710324347091e-01 -1.665905251844029432e-03
-1.063529741928707778e-01 -4.434731441604233826e-02 4.963333849745639459e-02 4.853090055772252276e-02 -4.721752167711219805e-02 -3.346658583047117108e-02 5.049945817462083569e-02 -1.914364452915651715e-01 -1.846219964094183985e-01 -1.732617961430668900e-03
-5.857295823240573490e-02 -1.564136767974769540e-02 2.499095397412956499e-02 2.074526643101365364e-02 -3.121251795850449318e-02 -1.075213070354183106e-02 2.609242059473790287e-02 -8.370421497415311829e-02 -6.207217024899459173e-02 -7.746735341092249316e-03
-1.552153684928963412e-02 -3.679943388452811340e-03 1.004269847792533046e-02 5.686974991597292146e-03 -9.272088291203628430e-03 2.609561708183431861e-03 3.146183348218094863e-03 -1.883086182446766510e-02 -8.497520757631282090e-03 -1.968188735553632381e-03
-3.702905191204715948e-03 1.997119522271266490e-03 4.340361471352768494e-03 1.784041882839678631e-03 -1.362148822467827225e-03 2.342030631642446400e-03 -6.151056364124774835e-03 -8.143451490628911965e-03 1.736366490419198995e-03 3.557466724449490428e-03
-2.820335934388319699e-02 1.013445022907136402e-02 1.985650748174582272e-02 5.256128761467041867e-03 -1.022652068105978085e-02 2.036373779372074519e-02 -1.873661951738258766e-02 -2.901811392347703258e-02 1.208041909113232934e-02 1.082799735713079782e-02
-4.085115957787556484e-02 1.175385703348884141e-02 3.894791993036554600e-02 9.951712615148768440e-03 -2.356326942271438213e-02 3.270696496437568851e-02 -3.989174638059583139e-02 -5.572238935749777161e-02 1.810537527058859314e-02 1.760015267911147624e-02
-4.712415152566140630e-02 -6.541019011218429310e-03 8.761100667884919035e-02 2.600432612298789192e-02 -5.419269210138953630e-02 5.366600464458719244e-02 -8.791849970973075745e-02 -1.025328239273372855e-01 3.262461323548137421e-02 2.491973733191175586e-02
9.371246241796781125e-04 -2.070035736572252427e-01 2.577405271797008623e-01 1.702584713298916363e-01 -6.929974845849791454e-02 1.333334773734958512e-01 -2.186881932116124250e-01 -1.673168059389685824e-01 1.402019086419583893e-01 3.376545548923785833e-02
1.308942369868056621e-01 -5.868281747186944175e-01 2.360288508897861182e-01 5.253505256494298559e-01 8.819714437597489520e-02 3.171844673774545376e-01 -1.691173790338563743e-01 -1.501271834302285446e-01 2.991756322602369123e-01 6.960130705306466492e-02
3.101206182001502443e-01 -7.232097240628875268e-01 -1.356436164099392994e-01 7.949902735362466277e-01 1.640608187782184313e-01 3.810393309316765231e-01 -1.801361602065368675e-02 -1.663691917475091653e-01 3.519163398079618310e-01 1.832994434546583173e-01
4.683452887519118368e-01 -5.960155683756075407e-01 -2.991922713688835445e-01 8.791278516603683313e-01 4.762137173822195840e-02 1.990892272571305466e-01 -1.417862752918080671e-01 -3.090245220040993557e-01 3.745490785271292644e-01 3.267740440550422898e-01
5.423947974787517445e-01 -4.138638099722549701e-01 -2.046947670956784371e-01 8.096126212032775937e-01 -5.575800007585191009e-02 -1.026474259918915520e-02 -3.025138304483210860e-01 -4.652526882099498606e-01 4.162899503299171688e-01 4.422224412489052514e-01
5.561831922215437762e-01 -2.495776129741243687e-01 -1.240688918621895842e-01 7.220428235507740655e-02 -9.753170664818010260e-02 -9.865671423656667549e-02 3.427189002713155186e-01 -5.532671768433340409e-01 4.517089090862997369e-01 4.309555096690300680e-01
5.235137446061483013e-01 -1.248897849444012137e-01 -1.209016297899740411e-01 -5.737619841653339714e-01 7.600169906183767976e-02 -9.286285269602045922e-02 1.198771451840086488e+00 -5.724069085679874824e-01 4.293812449013414412e-01 3.661366949565800777e-01
4.788270074158267886e-01 -6.725128397392640678e-02 -1.959823529995232128e-01 -3.338840701567998837e-01 2.656802103849877916e-01 -8.216619859310221596e-02 1.179462568405498013e+00 -5.860800544790986111e-01 3.531669536170717327e-01 3.569421849776623912e-01
4.486672781380539599e-01 -8.663191214209241264e-02 -2.520609049719600980e-01 -2.804936902472854876e-01 3.621798911711139324e-01 -1.051587356014156288e-01 1.216510628095452073e+00 -6.403661265145846881e-01 2.659983214048315947e-01 4.570814657072977405e-01
4.109187319694656004e-01 -1.645152914228007746e-01 -2.818011976828184717e-01 -3.370068214884386348e-01 3.477356058032324282e-01 -1.467904488924418049e-01 1.304867613640227519e+00 -7.530379469878532017e-01 1.340955777685844397e-01 5.830023381546632910e-01
3.477708231027228925e-01 -2.091353205666597881e-01 -2.839932738624356134e-01 -2.948728830725151351e-01 3.535669937641916505e-01 -1.955329166101866800e-01 1.352831643629810010e+00 -8.430551735241533784e-01 -3.655631877554829483e-03 6.192347397377386820e-01
2.795195594323471311e-01 -2.062818328226286024e-01 -2.846301510505251375e-01 -1.408050856084255287e-01 3.583092071880439877e-01 -2.400789870407986082e-01 1.294907713627649448e+00 -8.897615965337043464e-01 -1.026892853977966896e-01 5.811654173902270903e-01
2.570486890838594163e-01 -2.054248529178682448e-01 -2.368894169788416937e-01 -8.211939057807719766e-02 3.123920916825062566e-01 -2.758903398362618220e-01 1.285296051207224233e+00 -8.842012674411665607e-01 -1.270425672735741307e-01 4.578539988910662051e-01
2.481058127120578660e-01 -2.340732113361490008e-01 -1.717504291890131207e-01 -1.434416945514765951e-01 1.646280074630055157e-01 -2.920430210666253301e-01 1.235423224139124310e+00 -9.025148887908565065e-01 -1.327456591199231706e-01 4.010279963943228498e-01
2.976122677308772335e-01 -3.353771864250852386e-01 -1.223506586689389053e-01 -2.222945614354819854e-01 -8.742966808007619772e-02 -3.016746016659816454e-01 1.090336379439050818e+00 -9.114682326825251923e-01 -1.118285014721482895e-01 3.994575121587848332e-01
3.371524902864768136e-01 -5.226298384707698252e-01 -1.302249063228252679e-01 3.951607299777001314e-01 -1.927168750490558524e-01 -2.656750163358625461e-01 3.960087812391494544e-01 -8.752334175915951198e-01 -1.267008762028189739e-01 4.121349928157722053e-01
2.992565825696870685e-01 -7.198581636160367170e-01 -2.216157677113446967e-01 9.809905079858262100e-01 -8.134339819074765110e-02 -1.193760343180698957e-01 1.105200983041870234e-02 -7.595871251262276136e-01 -1.773178142282448022e-01 3.653474843366791291e-01
1.565117690810970408e-01 -8.772104316602781227e-01 -1.904532255282595787e-01 9.723276573598563788e-01 5.026927424748271755e-02 1.103086168049748350e-01 1.869675848146527819e-01 -6.188306026032378560e-01 -2.293267413739989435e-01 2.192949734447309784e-01
-4.029211739746964976e-02 -8.308676270563691846e-01 1.615317051078391797e-01 7.648144148742455073e-01 6.514719402347581012e-02 1.511135362996827436e-01 1.082062521408310579e-01 -5.629916653143937078e-01 -2.746935916609533623e-01 9.334305171865790729e-02
-1.941405793482061382e-01 -4.704759763223417268e-01 3.508812080934389233e-01 3.977782341042011005e-01 -1.135304437099862312e-01 -5.843132294070842343e-03 -6.105051186398577356e-02 -5.631526617034054993e-01 -3.375527585587128065e-01 4.757752246972551946e-02
-2.680781017964691260e-01 -1.482046070928333958e-01 1.859612134986831922e-01 1.524328944269136843e-01 -1.356216105796780591e-01 -7.120824818163881686e-02 2.802285983078568743e-02 -4.571723524018036500e-01 -3.709401887039930901e-01 3.943329576292440436e-02
-2.111993510022061038e-01 -4.674879178753691550e-02 8.470940890249341326e-02 7.488375227678151225e-02 -8.552122314358118205e-02 -5.831124932738081940e-02 5.874616492461395834e-02 -2.643295959361707803e-01 -2.208438217303634599e-01 2.371163295849444339e-02
-1.177820568797570966e-01 -1.222374753519192038e-02 3.916763194645662277e-02 3.073826030345879270e-02 -4.969763942597099637e-02 -2.553909146230732771e-02 3.521006658589279775e-02 -9.769781493612818279e-02 -5.581188745241242449e-02 7.350056440940667436e-03
-3.544290444487380176e-02 -6.950484166563430412e-03 1.285080296360145875e-02 1.179659538122630053e-02 -1.695754442462073242e-02 -9.326501184857029919e-03 1.028103397690442733e-02 -1.671338899727018226e-02 -5.347018942357750250e-03 1.458281184631771317e-03
-1.611119689734288526e-02 7.028965447351080524e-03 1.182592845892342648e-02 3.378027595329313217e-03 -6.144906796128666790e-03 1.146313821191126230e-02 -1.032754370171104670e-02 -1.559019032634958134e-02 8.378952990637504594e-03 8.411079042778081549e-03
-5.139914099943369147e-02 2.614219054122903646e-02 3.986901552877959720e-02 1.275251645194445602e-02 -2.553874428171664865e-02 3.799489165608264246e-02 -3.390208902541850394e-02 -4.931341645738239465e-02 2.993825699789271627e-02 2.603366973232901921e-02
-7.742181266853336019e-02 3.433886978969401954e-02 7.276007517064597696e-02 1.681802242561684924e-02 -4.718565735683895312e-02 5.875848979390140697e-02 -7.572587492505468421e-02 -8.535238738887465648e-02 4.634688229146348426e-02 4.362624993187472211e-02
-9.120453719686719141e-02 -4.462681870752587682e-03 1.664135025921080757e-01 5.068736365329249566e-02 -9.299660349992035224e-02 9.399631264766503125e-02 -1.727217047738008049e-01 -1.576887977280231057e-01 9.265084401199769060e-02 6.536282565019607693e-02
-3.626984271118303960e-02 -2.741096588047103877e-01 3.611860459369346521e-01 2.794535253712560618e-01 -7.134739608900210472e-02 2.153584272259742860e-01 -3.134684793975371364e-01 -2.192047593007906969e-01 2.545365447963617300e-01 9.313753585961960513e-02
1.063562461933880571e-01 -6.294040175971749029e-01 1.742526347674075160e-01 6.933588802073908930e-01 1.411600540957438921e-01 4.480949203777914169e-01 -1.532489270383083357e-01 -1.972737046792190918e-01 4.052899040321392699e-01 1.439619582586056101e-01
3.076452883631833335e-01 -6.494921365073039743e-01 -2.868933671617308612e-01 8.751906584984748827e-01 9.203518947423389163e-02 4.294294980521440319e-01 -3.265490726917504027e-02 -2.807794166107556721e-01 4.302932492203304093e-01 2.874585560831923736e-01
4.396234004752905822e-01 -4.271066915134683062e-01 -3.171881151308879043e-01 8.692333587624119229e-01 -1.102463071791160987e-01 1.493546873984107626e-01 -3.100246601266044566e-01 -4.593996547617466564e-01 4.529462182681874283e-01 4.501000479082723493e-01
4.979088873253244008e-01 -2.368273740375376468e-01 -1.474562086246130332e-01 7.555534521129777525e-01 -2.284734777802344408e-01 -7.037078739687460671e-02 -4.837517975727040342e-01 -6.165206090676119688e-01 5.023009117952714764e-01 5.508045498083546931e-01
4.836788543216466452e-01 -1.167720758162714839e-01 -4.207262750868368678e-02 -2.927133579854859433e-02 -2.052227592681724611e-01 -9.360327752584662875e-02 2.996494687471187857e-01 -6.572432603127399409e-01 5.321459608284184739e-01 4.910468402975436408e-01
4.242827824860974095e-01 -8.546294995686085083e-03 -4.808932523094271855e-02 -4.894898116065231064e-01 4.875902656749024622e-02 -5.799760310369388161e-02 1.034273389426701328e+00 -6.528615691863911552e-01 4.935880539134508416e-01 4.254471588983766983e-01
3.700821180904067531e-01 4.412104086504495259e-02 -1.272359282252149837e-01 -2.289458877256702607e-01 2.629150689154544640e-01 -5.807901415517217891e-02 9.873968195853339846e-01 -6.569634459805708815e-01 4.054124671100485244e-01 4.424737743049859673e-01
3.097256577522052856e-01 2.335823617170072405e-02 -1.626336516661976150e-01 -1.958676811287774211e-01 3.858210715924682011e-01 -8.414892329259614223e-02 1.038794584918410369e+00 -7.212763232574578298e-01 2.982274271013493072e-01 5.675469317336895303e-01
2.522858903090012261e-01 -5.106277129892125566e-02 -2.021625551079075656e-01 -2.210896438155559585e-01 3.861942171163768589e-01 -1.235818194718446839e-01 1.133387938752990598e+00 -8.386194822729997611e-01 1.473011203983175532e-01 6.889564814213773314e-01
1.738786733081587876e-01 -9.068802560799107959e-02 -2.167244119251025558e-01 -1.805846064152197283e-01 3.903105485603823310e-01 -2.060258148301791492e-01 1.225057177178930923e+00 -9.319991098270719032e-01 -1.198980704994300883e-03 7.314987347764457803e-01
5.987973930265532568e-02 -9.591671159518869172e-02 -2.026347920930786639e-01 -5.750265650419864039e-02 3.893698612548736060e-01 -2.853253652048499678e-01 1.216766214607861274e+00 -9.582024240473936416e-01 -1.044473164130467202e-01 7.169652609779493257e-01
2.128752842501307335e-02 -9.332711414186406484e-02 -1.653650491937738165e-01 1.995185513406203329e-02 3.058778454951919246e-01 -3.554925250315089102e-01 1.212115953565605420e+00 -9.281776273416333378e-01 -1.173728476638673662e-01 6.066642507858973632e-01
2.900506561718364101e-02 -1.346996717020772227e-01 -1.199864098098235438e-01 -3.148894072438065267e-02 1.369599194441461221e-01 -3.852040210175837198e-01 1.190841642837147774e+00 -9.221704024783720088e-01 -9.836636516268836006e-02 5.255182190968951117e-01
8.009086029293559228e-02 -2.412448381561215216e-01 -6.835466686790764301e-02 -1.476672490023841489e-01 -1.617352970165573667e-01 -3.958320846792842129e-01 1.035268098935990144e+00 -9.600329926299241423e-01 -8.516850526638153340e-02 5.252515413363489927e-01
1.444028389776792209e-01 -3.658878024148309871e-01 -7.640785751374315482e-02 3.326349153769876388e-01 -3.863683255546057627e-01 -4.082432942729193881e-01 3.644250549357980207e-01 -1.011236550236410681e+00 -1.071076603953103057e-01 5.410947143981293950e-01
1.383558960691306794e-01 -5.233795421540390347e-01 -2.063607179340460618e-01 9.746060852915940931e-01 -3.073591249483418331e-01 -2.943772844101213981e-01 -1.128681994587233811e-01 -9.372046670448767047e-01 -1.661957648572562063e-01 5.225998588618416818e-01
2.137472196705831121e-02 -7.444648960110913372e-01 -2.854138400838602818e-01 1.040467357878810173e+00 -1.035477036358118524e-01 -4.000312304459575398e-03 1.574562439752597853e-01 -7.764657043112368484e-01 -2.242495312186923162e-01 3.813600835013318813e-01
-1.827132033334119832e-01 -8.713200833367374942e-01 3.901306634703616272e-02 9.559415113796754238e-01 6.447832945288954620e-02 1.690508637791447999e-01 2.303330366944009999e-01 -6.625586972595517432e-01 -2.708344681155847589e-01 2.063210342823637855e-01
-3.615524283256220661e-01 -5.755020020831327354e-01 4.102865343840404466e-01 5.756010394150602449e-01 -1.002721746630801797e-01 1.823184814745328758e-02 -2.232676078676832168e-02 -6.439928418358029649e-01 -3.151821473842156274e-01 1.351037128008471533e-01
-4.332807115742495219e-01 -2.022706427849934596e-01 3.040026300940698589e-01 2.442765561027288590e-01 -1.968308252979929229e-01 -1.000410039039440202e-01 -2.306911580637572776e-03 -5.373695130059323866e-01 -3.471815161361244684e-01 1.165340292262876942e-01
-3.665627231264970698e-01 -3.758414361155324596e-02 1.354075399641142541e-01 1.092619809615134746e-01 -1.301047197271421318e-01 -8.224207575319862629e-02 7.378575749421653618e-02 -2.948078086137325693e-01 -1.993308621494149224e-01 8.489264728951530226e-02
-2.152434806352124530e-01 3.771582435524102779e-03 6.921327416094655294e-02 4.356606584510598623e-02 -7.790338913559284595e-02 -2.919739924007671780e-02 4.416011229128426196e-02 -8.830648979821117961e-02 -3.587673662433955987e-04 4.626337388211841650e-02
-5.640184699990230532e-02 1.544489142214326271e-03 2.114626127343867054e-02 1.387567002843502484e-02 -2.203307910900779987e-02 -3.704076715727142640e-03 1.241870524006616523e-02 -1.194851477920527358e-02 1.447325716193638076e-02 1.217482688895373671e-02
-2.492618633323706243e-02 1.431249592074487938e-02 1.869087777560073799e-02 5.055894998434879058e-03 -1.137574348459901089e-02 1.907101591451097061e-02 -1.334366979951569047e-02 -2.000248110592173223e-02 1.592156928820814485e-02 1.192711602181279959e-02
-7.914128149576993287e-02 4.581168419530388253e-02 6.148322973026783961e-02 1.467609882748120535e-02 -3.766975177333951874e-02 5.737310348682628236e-02 -5.477083468344130096e-02 -6.358995190850004475e-02 5.479785272156298404e-02 4.460773872475784496e-02
-1.160323635157877592e-01 5.582439555149634053e-02 1.140909381621457996e-01 2.227785437639352370e-02 -7.019616759977533038e-02 8.835169993287028678e-02 -1.194596853239624501e-01 -1.140841128112192043e-01 8.689628576552181627e-02 7.245549789690228226e-02
-1.412636826234169862e-01 -4.580463418403501845e-03 2.633199639913317291e-01 8.884031878734356680e-02 -1.333107034063339691e-01 1.471362159891174415e-01 -2.658012805322619854e-01 -2.033991352684232090e-01 1.794532176125766820e-01 1.105049730405290309e-01
-8.064069880298223303e-02 -3.269340979653714285e-01 4.371070969519238458e-01 3.857478160998210059e-01 -5.044299804417155114e-02 3.196985900086756205e-01 -3.633118164951033013e-01 -2.486465052668623832e-01 3.744239079503853262e-01 1.458842415191113351e-01
7.563032085612700350e-02 -6.215236950519714698e-01 1.085634157968345392e-01 7.940767066209994951e-01 1.552533757472288056e-01 5.603584029717831871e-01 -1.283055551314255527e-01 -2.378479347019082646e-01 5.020807160951061832e-01 2.092994937880160167e-01
2.927560809778822493e-01 -5.595897055233414186e-01 -3.257189998419084964e-01 9.052131634139382044e-01 -8.744482624029686901e-03 4.497027328714429673e-01 -1.039691849569782389e-01 -3.715495189851665270e-01 5.267174595200553311e-01 3.774627368411645478e-01
4.087441482971109208e-01 -3.031804183070067604e-01 -2.841448797243327773e-01 8.838701342104564596e-01 -2.391462251801436956e-01 1.300955858990317793e-01 -4.697920758410683573e-01 -5.669997475713588475e-01 5.518575182162595016e-01 5.589024194691004643e-01
4.496221273511729066e-01 -1.186047257346150435e-01 -7.499102347037324423e-02 7.377842095522179067e-01 -3.576587924604469060e-01 -6.795367725753187482e-02 -6.212688761245903635e-01 -7.133989426616292873e-01 6.075080325838586592e-01 6.372046298276179410e-01
4.053415479740201111e-01 -2.734358006435502059e-02 4.961935499655777126e-02 -8.541707570235934632e-02 -3.071798854104449972e-01 -5.162506610918950190e-02 2.185046638444302358e-01 -7.252371120910264812e-01 6.297835106277517303e-01 5.528252847139958348e-01
3.316060512116364434e-01 8.255455138420894623e-02 2.559113721175365272e-02 -4.367803028592720516e-01 -6.599990618505841185e-03 -6.685158000908444399e-03 8.905862517168269266e-01 -6.954550247871120749e-01 5.731208960262581531e-01 4.720826553441793694e-01
2.729411631091162582e-01 1.418217713609547792e-01 -5.852267698649959993e-02 -1.374237513668153943e-01 2.674516362610143139e-01 -1.886941916814822290e-02 8.462582714426254427e-01 -7.055393270015900553e-01 4.745115665368170865e-01 5.172131119327139093e-01
1.990167981462968028e-01 1.152985042832032209e-01 -8.723344013023777432e-02 -1.168843117777902396e-01 3.991173817228986787e-01 -5.268627321207992875e-02 9.023170509222222524e-01 -7.867958377726865793e-01 3.560809919363296383e-01 6.759595813174129608e-01
1.137282267533985675e-01 6.088683369266958967e-02 -1.152726215265965498e-01 -1.427062006201963995e-01 4.073369886318912170e-01 -9.954123228495100062e-02 1.019771169648209019e+00 -9.037733039621606013e-01 1.997439883476151146e-01 7.918520870183224369e-01
1.577298507785632534e-02 3.367827321943699104e-02 -1.269065874898016033e-01 -1.163072123847149753e-01 4.051532250831627602e-01 -1.967406321113133461e-01 1.143402482767446271e+00 -9.757357276887774766e-01 6.699714747215353150e-02 8.438294009092222048e-01
-1.193297495083142090e-01 4.794030205715150116e-03 -1.270349687925309279e-01 -2.376319710777186414e-02 4.045076145435890225e-01 -2.959677705897568178e-01 1.213465917904694935e+00 -9.492529788076887742e-01 -1.866891056238669661e-02 8.485519234648726261e-01
-1.709548000338715901e-01 -1.486451245559629319e-02 -1.116767194675530595e-01 9.006863503428337581e-02 3.066479026782132911e-01 -4.000746681765067758e-01 1.223329217828578397e+00 -8.441987651458576769e-01 -1.143325661406459186e-02 7.485692166992460317e-01
-1.608658665380729991e-01 -6.221125408839289772e-02 -7.417178711632479993e-02 4.727713609274921541e-02 9.927155639536570930e-02 -4.503071897549985048e-01 1.211782533937136641e+00 -7.629360629060992771e-01 3.705992614305602534e-02 6.415821146470187530e-01
-1.082922845977965787e-01 -1.629327360206025976e-01 -1.574224023620092450e-02 -1.032059643412761990e-01 -2.713424368129194186e-01 -4.654980462047049183e-01 1.024330029851451274e+00 -8.195357003027461396e-01 6.819739489654946807e-02 6.447185481898454196e-01
-3.421006078980988463e-02 -2.655073789660424288e-01 -1.735758970266649062e-02 3.347853911823117645e-01 -5.262431512969586445e-01 -4.924655884679919327e-01 3.564451798602213950e-01 -9.404766191413116427e-01 3.948299475753888621e-02 6.730883857827996142e-01
-1.659030560358932746e-02 -3.966130266505897284e-01 -1.727847358022939761e-01 9.882976298293586481e-01 -4.585087545155779321e-01 -4.044881106620902833e-01 -1.680232975032050213e-01 -9.214049801424847308e-01 -3.459425444149785006e-02 6.651012602384764882e-01
-1.085568806035219491e-01 -6.319229568615435388e-01 -3.113501837740043632e-01 1.066925807069708076e+00 -2.470713180483218863e-01 -1.138747648908043503e-01 1.193119777404266502e-01 -7.580252786533209219e-01 -9.395367435937150569e-02 5.360234314048797355e-01
-3.107568849560081725e-01 -8.469392661192738370e-01 -5.252447459094895799e-02 1.054571393082493369e+00 1.673199664007355911e-02 1.656037641591822929e-01 3.329549126455747521e-01 -6.090019592215368816e-01 -1.351246734655927595e-01 3.257788852068093655e-01
-5.125847451607654648e-01 -6.400483814588169285e-01 4.179199530302700749e-01 7.198688458507280785e-01 -7.732978472612134224e-02 6.390098047450447349e-02 8.825910059789807138e-02 -5.606441935151754707e-01 -1.794650345860857310e-01 2.181547291742961803e-01
-5.839893602828371000e-01 -2.519524403813991897e-01 4.030577614215761217e-01 3.355857845183918275e-01 -2.416157051136172684e-01 -1.143200318050474618e-01 1.955024704020663986e-02 -4.688037229534532391e-01 -2.190471881323823589e-01 2.010308999460953261e-01
-5.135299155422902162e-01 -3.577996478181148798e-02 1.987167532597682584e-01 1.475263342954993284e-01 -1.796549623782490446e-01 -1.038666137919416754e-01 1.181715676596456210e-01 -2.235070940272039508e-01 -1.093137307824219723e-01 1.580747314048280561e-01
-3.050895785058020393e-01 2.825073721967837417e-02 1.141551264289447642e-01 5.549357285548690150e-02 -1.075897429815704381e-01 -1.339042294193627108e-02 5.965915353506229257e-02 -4.786668242606715445e-02 7.648151739003530847e-02 9.583127309388637938e-02
-7.410693808650167802e-02 1.576129341744003307e-02 3.556395686970387215e-02 1.492690600029034781e-02 -2.946282857014218340e-02 1.243439264079299750e-02 5.667207964208221356e-04 -1.188077550478391746e-02 3.924700592839441837e-02 2.598792268389232482e-02
-3.503128639973883407e-02 2.141176577590971769e-02 2.454048074522932957e-02 5.946560083988455120e-03 -1.530511267314365632e-02 2.408212043882985987e-02 -2.172406414431205662e-02 -2.378123868146957143e-02 2.297872839065201456e-02 1.856486392319300904e-02
-1.044084848121813180e-01 6.190802790251848792e-02 8.669537954608919073e-02 1.669451381836342327e-02 -5.028694507327186730e-02 7.814191250916323328e-02 -7.963972281682135668e-02 -7.963904265796198367e-02 7.982906916774192008e-02 6.005208862637862605e-02
-1.469312259806903886e-01 7.355844677599944481e-02 1.613736032293744682e-01 2.733623426996583186e-02 -9.298531484878649889e-02 1.199894208686957814e-01 -1.581474684155891319e-01 -1.348326880134701200e-01 1.300551751686758462e-01 9.406735099853576199e-02
-1.640673827717945010e-01 -2.921566461415629062e-02 3.539883195767181134e-01 1.331273305531271711e-01 -1.590505360108716293e-01 1.922173567764725310e-01 -3.316216624621009523e-01 -2.349755395506927524e-01 2.534597304456014388e-01 1.364833575580617353e-01
-1.171745664067853354e-01 -3.561108226901527063e-01 4.718811479198714576e-01 4.684678466805937136e-01 -2.048829123905828234e-02 4.298683339248233204e-01 -3.569410463401675448e-01 -2.660715312170155999e-01 4.646262063797927389e-01 1.647552433276860406e-01
5.337830569674532899e-02 -5.879546855779065329e-01 3.276121225039150403e-02 8.498658790697286580e-01 1.431537268669775542e-01 6.506339154813138848e-01 -8.599989734761390170e-02 -2.776101328692756054e-01 5.755039478154851951e-01 2.537547032500509503e-01
2.736387066594929141e-01 -4.843676759604041981e-01 -3.230544819468921802e-01 9.265286618275195840e-01 -9.256960489762762478e-02 4.789540371639423588e-01 -1.664139345215559507e-01 -4.441737898924694727e-01 6.107859997423744636e-01 4.373838563356295950e-01
3.889709988294954846e-01 -2.496108763566018685e-01 -2.563794233647553322e-01 9.347831541680654555e-01 -3.144128761683842033e-01 1.691702311645486845e-01 -5.578612691957928194e-01 -6.393364931489436964e-01 6.440888852672571607e-01 6.276528564800605281e-01
4.028560207362091306e-01 -5.241843994878986335e-02 -1.533263930570648130e-02 7.438803825875033304e-01 -4.439237014592971042e-01 -1.921446126136896679e-02 -7.001856550564807824e-01 -7.771086496424697287e-01 6.977673400764532463e-01 6.872156564332880802e-01
3.452491667398847608e-01 3.615842741262711296e-02 1.223209009645752632e-01 -1.143232189282811090e-01 -4.183379732587776401e-01 2.843196518118155675e-03 1.371119726984321996e-01 -7.698123860442688260e-01 7.161835321837713986e-01 5.877353033734658005e-01
2.731720137442950613e-01 1.355998691110256449e-01 8.291133063215075372e-02 -4.030771335758399077e-01 -7.127817924204762901e-02 5.548935248177200297e-02 8.128717861039355119e-01 -7.157492521162639454e-01 6.453253856453613491e-01 4.785571072889824307e-01
1.948384956279211877e-01 2.103342541120564735e-01 2.475332087320219858e-04 -4.012578361474119365e-02 2.774982550109872381e-01 3.779783113871973410e-02 7.516187338303758070e-01 -7.464358683590369692e-01 5.319036823716732920e-01 5.740245528057186242e-01
1.036130399013338588e-01 1.894187124044793835e-01 -2.892597927633113949e-02 -2.967805196303661616e-02 4.068436084020939925e-01 -7.812950926782727097e-04 8.146402713356378777e-01 -8.373045806264217683e-01 3.997653378035018745e-01 7.543680281965740031e-01
1.303602691740980701e-02 1.416453855663510342e-01 -4.610573475953416711e-02 -2.750192745312494275e-02 4.091633959259234898e-01 -5.165988785346344730e-02 9.158480885965916141e-01 -9.393830788427033340e-01 2.456312282932056890e-01 8.568557873657117741e-01
-9.230903621549579885e-02 1.153147762432166767e-01 -5.323792108750749486e-02 1.015098327135968703e-01 3.910195961135733977e-01 -1.544992490906591520e-01 9.525146103050937674e-01 -9.802584437059975730e-01 1.350998551167264805e-01 9.058154043042226933e-01
-2.352821330272051314e-01 8.529293926984037044e-02 -6.410220908298824849e-02 -1.422638312629380397e-02 4.037797369136173486e-01 -2.734975692524153068e-01 1.287451291285227173e+00 -8.736307427721005103e-01 8.594661434779664322e-02 9.467943711492027292e-01
-2.949667178860683192e-01 3.834122529230506171e-02 -6.619130547955728860e-02 1.468322289725468854e-01 3.126530418642408105e-01 -3.984020196351737431e-01 1.313864065590446994e+00 -6.549331613544626673e-01 1.126690200539311459e-01 8.649122780741592686e-01
-2.674609692484494761e-01 -3.181535407833970680e-02 -3.831430938118250695e-02 8.778054029718525275e-02 6.390751441550619749e-02 -4.570740431455556640e-01 1.340627911753399903e+00 -4.944731273250285164e-01 1.862350785321534308e-01 7.206120129235866756e-01
-2.252032645976923542e-01 -1.268787213104215772e-01 3.275177365182663225e-02 -1.002870004748875887e-01 -3.853341836183500346e-01 -4.900945445472477124e-01 1.124497807127899929e+00 -5.498867632760371382e-01 2.499469212326090317e-01 7.060589886138859406e-01
-1.669701054112790739e-01 -2.025170779146868716e-01 2.032243096211499428e-02 3.698641433484965435e-01 -6.269115341649713624e-01 -5.385093084816926501e-01 4.141442187764070582e-01 -7.296446501869359169e-01 2.179712875160399466e-01 7.728769204213964406e-01
-1.428081246471671062e-01 -3.519723234050297633e-01 -1.679462567823156727e-01 1.040250719568917459e+00 -5.509112408721957843e-01 -4.595826873884210073e-01 -8.235552022238681880e-02 -7.351253050802222244e-01 1.466166151117185845e-01 7.656771389818438633e-01
-2.061612828241766171e-01 -5.767965072218977918e-01 -3.245636132408672436e-01 1.108903858823930833e+00 -3.497516741088471659e-01 -1.841988167547820021e-01 1.794324293005590820e-01 -5.924037818802824207e-01 9.712572157813352536e-02 6.446078139999902312e-01
-3.879123425829614225e-01 -8.027940908320642110e-01 -1.421598420807142493e-01 1.095563544423086455e+00 -5.312286659924522758e-02 1.362350715305715443e-01 4.623326825788091066e-01 -4.261029902850055895e-01 5.381400639170791367e-02 4.204425328728061406e-01
-6.267043432728555130e-01 -6.817543390174612972e-01 3.864700506015014136e-01 8.240257499307335198e-01 -4.867603764028909791e-02 1.067213869073380672e-01 2.763273477468666806e-01 -3.550643227009732672e-01 -8.780481275637276595e-03 2.736024234786091913e-01
-6.992469230376185951e-01 -3.002463882940352713e-01 4.802941119148091409e-01 4.157013753023077185e-01 -2.623777146890587386e-01 -1.107932581552149159e-01 1.146372131234201647e-01 -2.891170058224752926e-01 -5.780938145832022895e-02 2.641828317714995933e-01
-6.192987865081550636e-01 -5.991780119926906623e-02 2.682391214617383945e-01 1.848079892333800434e-01 -2.216587564766394070e-01 -1.239326911041916252e-01 2.003129865752047434e-01 -8.801528100825338485e-02 -1.218687847353218910e-02 2.144632735977165250e-01
-3.575046615253448801e-01 4.772274043483648587e-02 1.634426581178640703e-01 6.141781066093585095e-02 -1.320978763887084573e-01 1.292872228205354385e-02 7.081408033935310264e-02 -2.384808242741789583e-02 1.162759900579149602e-01 1.278083548077541265e-01
-8.295026170423829004e-02 3.234437143334773640e-02 5.078403918546010171e-02 1.207109918432867045e-02 -3.513755114693906806e-02 3.328364742834222234e-02 -1.870555890597526416e-02 -2.047711923507147119e-02 5.378273735321619647e-02 4.321185389001946237e-02
-3.690586810914438243e-02 2.593873511352647737e-02 2.880650082881243412e-02 7.637383112845697389e-03 -1.751818814890111417e-02 2.598522086284657182e-02 -3.045639267779939180e-02 -2.534007920288292373e-02 2.674922613896695348e-02 2.319494560497304195e-02
-1.183725704399080786e-01 7.538150190516960947e-02 1.080125515288592186e-01 1.743681354255540231e-02 -6.143888576407103425e-02 9.561776194857546374e-02 -9.773220640408204762e-02 -9.163323845205453844e-02 9.636208951831230773e-02 7.123409073515642176e-02
-1.673581162407166700e-01 8.390853647224465195e-02 2.113148756853076848e-01 4.015756124748183498e-02 -1.183811667566604803e-01 1.480359328495818583e-01 -1.967071048720145376e-01 -1.613963342837065329e-01 1.678462392647477319e-01 1.060127352404340861e-01
-1.819376837542499570e-01 -4.285580762680163414e-02 4.223158662799795793e-01 1.732757422414534787e-01 -1.694659502782412952e-01 2.447531829434896611e-01 -3.655140953563949524e-01 -2.544131469312287952e-01 3.086417312552237613e-01 1.480697994189167921e-01
-1.534674761361810857e-01 -3.578206309224378212e-01 4.685649684219336808e-01 5.171055874948674580e-01 6.958443889195854888e-03 5.414414255286950084e-01 -2.947945750385998487e-01 -2.743619685791232055e-01 5.193899002035314849e-01 1.593720467656820350e-01
4.935078222582683222e-02 -5.319188016677439679e-01 -6.106985542192275990e-02 8.632854378584908783e-01 1.074572862162922193e-01 7.142084753604589498e-01 -7.371378680473631047e-03 -3.142305885064092807e-01 6.112091694475106918e-01 2.582069351542740643e-01
2.605434124598601242e-01 -3.983276757487165254e-01 -3.159995830175398868e-01 9.165886077907750007e-01 -1.768165647321089662e-01 5.002956819764667884e-01 -1.926127881645847140e-01 -5.064023809271872567e-01 6.563800105517210159e-01 4.481843202786536806e-01
3.833973083236013046e-01 -2.061414701246849779e-01 -2.575556863051265966e-01 9.775910917632796293e-01 -3.775381658786985395e-01 2.346429758134817301e-01 -5.722131231088655179e-01 -7.037983636279273592e-01 7.170009537697310531e-01 6.447983997064141715e-01
3.894625595883381419e-01 1.763094445602565036e-02 6.295827219808235349e-03 7.276248562759745075e-01 -5.506595158903709875e-01 1.132243349442144456e-02 -7.395537146039118381e-01 -8.445562974996709826e-01 7.564383092455331248e-01 7.030705540445429946e-01
3.185653822725734163e-01 7.029851735644147837e-02 1.764772306513889555e-01 -1.135891235737595956e-01 -5.073457484941408246e-01 5.878987031694634519e-02 8.879562446477490267e-02 -7.888422236978585023e-01 7.711863727470951169e-01 5.618375587133391802e-01
2.424427481570602949e-01 1.644308210983497220e-01 1.224733001474875016e-01 -3.661773140479591127e-01 -9.865802656760520872e-02 1.181616495815938778e-01 7.917148894986241192e-01 -7.200483503047659939e-01 6.837464739235150635e-01 4.514978525470036974e-01
1.486552980938231905e-01 2.532724397744553491e-01 3.138234712663112019e-02 4.629624490910404233e-02 3.121901933423930631e-01 8.914032086257446530e-02 7.106469749451601592e-01 -7.766713527169993858e-01 5.504528374733818064e-01 5.993838028666940154e-01
5.573356327157219514e-02 2.360247280788824176e-01 2.056939751448068690e-02 2.998277132454565692e-03 3.895649002288035234e-01 5.854074926368010162e-02 8.056669525721602554e-01 -8.808073455743914426e-01 4.267527466129161229e-01 7.918042907404896358e-01
-4.049054197096129543e-02 2.205343043003757664e-01 4.408606882523931347e-03 9.725651037858282222e-02 3.891857411895442431e-01 -3.384539131284277497e-03 8.405998514098999008e-01 -9.559838545096587259e-01 2.563176897991781833e-01 8.859897970396085620e-01
-1.397431985574545676e-01 2.112941010961878197e-01 -8.416386829107322387e-03 6.148800371446632163e-01 3.545786436466197844e-01 -1.180272946533634515e-01 5.092357901631193728e-01 -9.669741451698254942e-01 1.411823228072326408e-01 9.325239388453049338e-01
-2.581742468894478448e-01 1.423388375165736686e-01 1.223637719300590954e-03 -6.160158914644228191e-03 3.590932085273764729e-01 -2.267290863109883425e-01 1.412593541962618549e+00 -7.527032543651258623e-01 1.103756649136741902e-01 1.014805121694663415e+00
-2.801359092043805288e-01 6.533905136728117291e-02 5.980132249267165051e-03 1.625384031038026866e-01 2.808253251661292360e-01 -3.529089382933924268e-01 1.484416358637545619e+00 -4.640625537167548109e-01 1.075548807110420224e-01 9.429733015809830254e-01
-2.331761481650135304e-01 -1.995731795014123178e-02 3.689671289492092027e-02 1.310951689057788805e-01 2.464180217898016487e-02 -4.111629372236529356e-01 1.492738152697946630e+00 -2.658575782373793217e-01 1.843811872430605181e-01 7.791742617597779974e-01
-2.463698869638589195e-01 -1.289502643228786494e-01 9.324982706370676944e-02 -1.061276177075927557e-01 -4.738353362426579451e-01 -4.706157247693724677e-01 1.276421981103207148e+00 -2.966620179050575290e-01 3.490288514003447862e-01 7.183465936243131900e-01
-2.330721035035460409e-01 -1.622123349509261014e-01 2.919126853268629029e-02 4.132559508247772850e-01 -7.304819769193867662e-01 -5.822288567053346409e-01 5.063772247437995366e-01 -4.901239498517240278e-01 3.510851210948720547e-01 8.128108131888240884e-01
-2.061888895832183211e-01 -3.315137207286871779e-01 -2.140738979705934797e-01 1.096188495235278060e+00 -6.355115972944352931e-01 -5.058571099230814161e-01 9.531498080376669957e-02 -4.982441743871183215e-01 2.944269773951255220e-01 8.487877927600541161e-01
-2.702790332029105791e-01 -5.613453929929534958e-01 -3.410107276404070187e-01 1.157662392838092913e+00 -4.197048902464072806e-01 -2.414395338868478014e-01 3.470655715280048792e-01 -3.371700872524664994e-01 2.595597951279675075e-01 6.996459413201079336e-01
-4.318078314600414247e-01 -7.436258624469260781e-01 -2.366790667403289583e-01 1.101260645814285510e+00 -1.357796976505071807e-01 7.295627297201026651e-02 6.696779136813393318e-01 -1.589049034981874498e-01 1.974033108759661037e-01 4.802056645568353321e-01
-6.835719932890551576e-01 -7.091857089763806687e-01 3.146038794819970841e-01 8.865473903734178984e-01 -2.885040805119833823e-02 1.504091239709549610e-01 5.559418139122486169e-01 -8.815595680173250737e-02 1.125706169716605420e-01 2.950375035709563165e-01
-7.584007127243224122e-01 -3.348387233196127299e-01 5.269854712930620577e-01 4.724586375041377462e-01 -2.636605494976834163e-01 -8.305457908306429493e-02 2.803294191573617034e-01 -7.725682809346198776e-02 3.687191763828829433e-02 2.909403960410134049e-01
-6.672355762434694082e-01 -8.833542438818677012e-02 3.455483224069529347e-01 2.277001018864503734e-01 -2.579450022578041457e-01 -1.250684345850273382e-01 3.013357671887909595e-01 3.998792917258112839e-02 2.287957929068493157e-02 2.546584535102148772e-01
-3.865598425606330268e-01 6.748343896316970347e-02 2.252957995118905210e-01 6.452470216072782316e-02 -1.572710001674901825e-01 5.637703532300541304e-02 7.918238236517732842e-02 -3.542551246756187738e-02 1.067028471818395746e-01 1.548664329634492076e-01
-9.473537051009087162e-02 4.074151876760118834e-02 6.813634285844280547e-02 6.716678300829126598e-03 -4.005563556370996675e-02 5.224694862717188526e-02 -2.984430462984767607e-02 -4.535130582195420756e-02 5.128035842185616616e-02 4.830587009329526116e-02
-4.002199688106865966e-02 3.121772999201503224e-02 3.416514374272391907e-02 9.256940494272518707e-03 -2.044080913540018141e-02 3.245717937326698249e-02 -2.935540443829024945e-02 -2.445810817449369998e-02 3.053898665486188060e-02 2.712602185726602569e-02
-1.385518370896967333e-01 9.173525623644623872e-02 1.354874597333939890e-01 1.904971853528529893e-02 -7.491020164704743911e-02 1.193073393897387952e-01 -1.137054506533872189e-01 -1.052250093942963677e-01 1.175539430323120776e-01 8.097275637997206066e-02
-1.861445047541357145e-01 9.305589027601313123e-02 2.496983279396260413e-01 5.070394470814541810e-02 -1.347451287068316128e-01 1.788649214288218492e-01 -2.122599501970494906e-01 -1.758797670975873195e-01 1.922919203269853328e-01 1.109832396960605955e-01
-1.970055091781898193e-01 -4.439689503939851095e-02 4.559550973559756692e-01 1.946038991443710120e-01 -1.610416715257282916e-01 2.977580290132459395e-01 -3.507838385894119226e-01 -2.687126612326686259e-01 3.377989404816983399e-01 1.358294085403487506e-01
-1.879542373554704271e-01 -3.301110373036994505e-01 4.432716465237561687e-01 5.384593643123387618e-01 2.675343922802909599e-02 6.412942242439071405e-01 -1.996677269754327244e-01 -2.865327008629434125e-01 5.519475582193651420e-01 1.306703132447114279e-01
4.052050085945064356e-02 -4.437365793389118074e-01 -1.482432843058704708e-01 8.398822032991207776e-01 5.345960807247967378e-02 7.664015017377544536e-01 9.017943601222777605e-02 -3.552643982780351872e-01 6.257292119137649600e-01 2.342775939836584109e-01
2.383564207699769288e-01 -2.881910215006202036e-01 -3.200197536434564172e-01 8.826406784704139419e-01 -2.521882407164525719e-01 5.268297053660262463e-01 -1.645272397161703370e-01 -5.585711052055479797e-01 6.784539818701926794e-01 4.241257821152037422e-01
3.704245973626955069e-01 -1.001265102468549689e-01 -2.900315199966246316e-01 9.586128440317105426e-01 -4.487216477586365437e-01 2.752505603322206174e-01 -5.290774555803708923e-01 -7.618895818520174945e-01 7.433057479071807361e-01 6.274690689470168170e-01
3.882396432193455094e-01 1.249206599544712276e-01 2.617367081376118301e-02 6.748713345208037229e-01 -6.794683072994907036e-01 1.825989575506857185e-02 -7.670292986155039516e-01 -9.131421664515240177e-01 7.862300809088736964e-01 6.791325425791973069e-01
3.127304135797912554e-01 8.442216222963117023e-02 2.392416551271867586e-01 -6.004851356660520501e-02 -5.699385905078547809e-01 1.206391901296130637e-01 4.459373087462624452e-02 -8.049760465831460321e-01 8.189062359269092539e-01 4.963368319978010978e-01
2.293734780554713137e-01 1.946317871783740105e-01 1.712140220961718695e-01 -3.133258956167009335e-01 -1.065973547457309267e-01 1.692703708370839888e-01 7.889826527029909498e-01 -7.440863884493911229e-01 7.075085069779725178e-01 4.138536049459485278e-01
1.151090065083366365e-01 3.205454501282791746e-01 7.555592175661161869e-02 1.242816822376562741e-01 3.300759992427512723e-01 1.369327130941605797e-01 6.987279222245955657e-01 -8.263002692203990085e-01 5.543691312331278098e-01 5.968100573533781095e-01
1.339133519415506082e-02 3.108115205536372549e-01 9.201803125712833265e-02 8.771771348411082359e-03 3.661889472322332195e-01 1.250445995300938085e-01 8.486471289551905661e-01 -9.303235457520819818e-01 4.157548307539665755e-01 8.002482819553684568e-01
-5.274419372765639519e-02 3.092977360983438229e-01 7.345992922581091877e-02 2.838043617060043156e-01 3.793778444869958522e-01 6.600587115670338012e-02 7.687501553493081285e-01 -9.856413664458676394e-01 2.002986420563749592e-01 9.043724386501502677e-01
-8.264073736768855205e-02 3.149799657050491586e-01 8.606662809792739455e-02 1.053772672855705084e+00 3.163782576698298543e-01 -3.941505159694681099e-02 2.454303422570834059e-01 -9.421887729032250025e-01 1.570024304753043706e-02 9.736908499578438292e-01
-1.331591694528411196e-01 2.173407295599913136e-01 1.248755954526876433e-01 3.016383613905095767e-02 3.076774856189550267e-01 -1.495970288479521182e-01 1.579764183142531975e+00 -6.243914784803090701e-01 -6.878867564798830936e-02 1.058202325304520519e+00
-1.218105096178805358e-01 1.318571449068637047e-01 1.421503779474954099e-01 1.886821327919614433e-01 2.360563274462141869e-01 -2.595163992387138352e-01 1.657265746636054304e+00 -3.384052232900038870e-01 -9.776190430346601290e-02 9.981121244952585458e-01
-8.658331714464508055e-02 4.641004972981763177e-02 1.628243315400396130e-01 1.864518401390252433e-01 2.596249524455924561e-03 -3.170612348411090409e-01 1.608189177056523755e+00 -1.652528087248103517e-01 2.320160598879951810e-02 8.027275476831181589e-01
-1.747391394219149630e-01 -1.303481962295266749e-01 1.915773051716772590e-01 -1.085624790405290974e-01 -5.430307956353251919e-01 -3.916542380640697929e-01 1.416248566584273449e+00 -1.370957212207547238e-01 3.268186326073477810e-01 6.820937450248577560e-01
-2.513038565748320630e-01 -1.068607557470721003e-01 7.590417245709467353e-02 4.619829188605977799e-01 -8.457857941366165866e-01 -5.890622259557009022e-01 5.444463474896363842e-01 -3.427407277452816370e-01 4.169686782515714119e-01 8.141801324572653931e-01
-2.269742553444323296e-01 -2.370651111235788366e-01 -2.822151811673899169e-01 1.092408124224583776e+00 -7.430428454895751100e-01 -5.288550927086582698e-01 2.447606831628927615e-01 -3.607431005301435789e-01 3.702136126044323627e-01 8.830667874879800650e-01
-3.127686158391342341e-01 -4.839991403439905526e-01 -3.745130684474496374e-01 1.152529075718509821e+00 -4.807936502187254435e-01 -2.387351543147545885e-01 5.414357205485929025e-01 -1.586139477551801735e-01 3.350898175184083838e-01 7.149812550142701228e-01
-4.372035164586058342e-01 -6.491690538492738138e-01 -3.136623265044849451e-01 1.066125270843389261e+00 -2.214984249186442433e-01 4.869242457876056529e-02 8.707092011257203668e-01 1.867592931758186442e-02 2.468926067460846252e-01 4.949072380185746689e-01
-6.753578794099472926e-01 -6.865303478776741963e-01 2.364715223351646078e-01 9.051693749471714234e-01 -2.623589542982266223e-02 2.228366218067696358e-01 8.362420778589295667e-01 9.671879069950377328e-02 1.294403940882589144e-01 2.762139423847724817e-01
-7.399911921742159393e-01 -3.266457142821012627e-01 5.822645257341194647e-01 5.113921492859032636e-01 -2.699109043289769083e-01 3.275553598573230536e-03 4.719185835765011272e-01 6.189653185807029306e-02 7.684968359330567392e-03 2.992917006091427856e-01
-6.385496350970346624e-01 -7.727031704032037707e-02 4.479616296808073272e-01 2.614590730579264277e-01 -3.041828751558201538e-01 -6.315691467117096058e-02 4.311086305050476630e-01 1.132091103643135394e-01 -7.135378753204082991e-02 2.877295979496546918e-01
-3.861349737056608555e-01 9.112950009440189125e-02 3.039544557071475750e-01 7.495037461092653175e-02 -1.918034217552360421e-01 1.086301900866677578e-01 1.060055059501538444e-01 -6.633237587368061294e-02 3.222918706723108123e-02 1.857596879761869157e-01
-1.075468132956335227e-01 5.129973298091014544e-02 8.726404663465314737e-02 4.203034850762692523e-03 -4.825071871202109980e-02 6.814767565935707372e-02 -2.702601800128847515e-02 -6.530135609228730764e-02 3.608445678014533115e-02 5.036951167909082400e-02
-4.191734478110070022e-02 3.473227813402096631e-02 4.163186500999246226e-02 9.521723869716074498e-03 -2.421433847655618185e-02 3.824492176036412699e-02 -3.369178527513239790e-02 -2.828673125821890358e-02 3.433241900885865977e-02 3.006552393604465176e-02
-1.590761358726589803e-01 1.093537011927364494e-01 1.566758385968822498e-01 2.213218209659401081e-02 -8.386096006445875606e-02 1.428513029411652702e-01 -1.227542625338394200e-01 -1.192842127198398411e-01 1.337261297962022422e-01 9.012091120398259270e-02
-1.975037044731286218e-01 1.050601770741953211e-01 2.616733192062780655e-01 4.575811637997719700e-02 -1.365739606320144905e-01 2.057806677367289838e-01 -1.921276146261165774e-01 -1.840095026332926043e-01 1.958619340392525054e-01 9.856037484225542433e-02
-2.357478083957648962e-01 -1.764536478783583018e-03 4.421902605433002953e-01 1.759824528709039992e-01 -1.484610635877159079e-01 3.648453298836559222e-01 -2.642647692956932026e-01 -2.735557636816170479e-01 3.376822135302775529e-01 1.021883862260491993e-01
-2.301505090976830870e-01 -2.524356219220088016e-01 3.553430357695943620e-01 4.979473630744886692e-01 4.608977352250887005e-02 7.320433527059256873e-01 -3.238120612712799828e-02 -2.808886691357934118e-01 5.393953283941045340e-01 6.591061526940653059e-02
2.765565133418958904e-02 -3.120071191000110544e-01 -2.618050389462274197e-01 7.652229938892708416e-01 3.392217850722894796e-03 7.966318059464307932e-01 2.320949991918287436e-01 -3.709486555699188504e-01 5.991502487031072910e-01 1.706926164060163509e-01
2.119153248744823359e-01 -1.409162691242901722e-01 -3.895071145413254166e-01 7.920452301015411534e-01 -3.122689022105514800e-01 5.394334133092502093e-01 -5.711684362227246320e-02 -5.774768282225030136e-01 6.526287556040767379e-01 3.601892290604953306e-01
3.565660894771096601e-01 8.835564314840728406e-02 -3.909182673779670325e-01 8.326533412888603713e-01 -5.504867391170565893e-01 2.547586420480312808e-01 -4.373333051948138928e-01 -7.958980209753080404e-01 6.963967352364349717e-01 5.726647879786523898e-01
3.912284225892933565e-01 2.377729283595063359e-01 6.510011861987899384e-02 5.933069065597205149e-01 -8.046824548520167264e-01 6.555373551230246100e-03 -7.693762329858954141e-01 -9.587886934499735281e-01 7.925986878327073715e-01 5.986620718887732950e-01
3.276912876269305608e-01 1.032737400720143278e-01 2.753920147614029590e-01 1.616544423522438961e-02 -6.153380854821896007e-01 1.671843323972489748e-01 1.819441537126951364e-02 -8.034728183359932663e-01 8.421213404595747631e-01 4.011632791189473357e-01
2.376385980101035911e-01 2.457173588536432363e-01 1.767485126924769612e-01 -2.408229829439194336e-01 -8.797094647842496062e-02 2.114504699154370060e-01 8.081002107864722062e-01 -7.629531212502924653e-01 6.944989158359902159e-01 3.863179862421176614e-01
1.197662768158036795e-01 3.970145758076398246e-01 1.259642881873123954e-01 1.838225851298269375e-01 3.318253956704576568e-01 1.933609027470996888e-01 7.202718863151441608e-01 -8.755660376104842380e-01 4.992664992631835053e-01 6.034018204310245270e-01
5.522511746175362557e-02 4.155809583631351334e-01 1.826734379138617859e-01 1.708801079123328098e-02 3.355812874439732529e-01 2.134690172253845275e-01 9.407807342123500893e-01 -9.818384600494685088e-01 2.759076825334554894e-01 8.120314712897798159e-01
8.170036756799212152e-02 4.085135996889364129e-01 1.508817794989193717e-01 5.601387046686523430e-01 3.774459724106734027e-01 1.503601634803669040e-01 7.092053598526522062e-01 -9.688850868807497019e-01 -7.166577885092041689e-02 9.223211549616598948e-01
1.039856356190072412e-01 3.712902162651435245e-01 1.780940052609590318e-01 1.295022550337953327e+00 2.797897614935022648e-01 1.649115199298621312e-02 2.563061968384104383e-01 -8.169711708659230798e-01 -2.576754234641353558e-01 9.657374895876817966e-01
3.317002134538619973e-02 2.435294914735338934e-01 1.790728451966582258e-01 1.264395648107890513e-01 2.978960234183115618e-01 -1.166601573806199527e-01 1.743133401162602292e+00 -4.678754391394898682e-01 -2.800414041071528359e-01 1.024918732023159196e+00
1.000632279491472714e-03 1.570680853897382656e-01 1.794546311441876929e-01 2.172617543693751707e-01 2.216911510641087768e-01 -2.103800909322651180e-01 1.787710915303837966e+00 -2.600211453664820760e-01 -2.385893203447278510e-01 9.627832932834456958e-01
4.070199095907594405e-02 1.025740613939750967e-01 1.990475297634564655e-01 2.811446826129302412e-01 3.525576523248961924e-02 -2.532692878124080393e-01 1.719616520041226782e+00 -1.033457700206798779e-01 -1.343269041444072887e-01 7.923166998607620304e-01
2.667441650751083658e-03 -1.109290821105249070e-01 2.455887746861331045e-01 -6.198981248243368852e-02 -5.692500421897590535e-01 -3.182275506064240478e-01 1.558814842588006844e+00 1.495821056707613908e-02 2.009337628647820395e-01 6.345195708376033528e-01
-1.600301571257808919e-01 -4.695306714406721066e-02 1.639067875257696483e-01 4.852762261881363726e-01 -9.454285528034664932e-01 -5.585894433954837757e-01 5.301694412301732884e-01 -2.514265465788841913e-01 3.795371268764548001e-01 7.627611974977056564e-01
-1.862117121729348623e-01 -5.098928614789201286e-02 -3.326462787648883368e-01 9.806199967320746724e-01 -8.909902412277963535e-01 -5.675977668612596228e-01 3.272737653148274917e-01 -3.064422005267177784e-01 3.347186000086095348e-01 8.638041884931250136e-01
-3.040525894682061803e-01 -3.175022719603940446e-01 -4.645701019418574385e-01 1.057591729336551767e+00 -5.456791581795786827e-01 -2.034757993187516212e-01 7.292176634971930804e-01 -5.780302466812933110e-02 3.140308137878874417e-01 6.802328906897606720e-01
-3.918756149282134338e-01 -4.853856227909258414e-01 -3.896166817690667750e-01 9.774906260783384759e-01 -3.093325994461756934e-01 7.385561819205169187e-02 1.045456772444091298e+00 1.079219821427772619e-01 2.036312478520116709e-01 4.650847238404617334e-01
-6.101893839501962846e-01 -5.782350951153206742e-01 1.493820637699189990e-01 8.544766930383218551e-01 -4.781104007710758330e-02 3.262268905698908483e-01 1.120307337238239276e+00 2.088177135515572880e-01 3.534774785322429558e-02 2.175913726479961896e-01
-6.784670198241674610e-01 -2.547332190792352402e-01 6.048208964343116945e-01 4.951572866186251254e-01 -2.762451391257331190e-01 1.218888131458060881e-01 6.991104004554752338e-01 1.203642776540534698e-01 -1.454004961647967775e-01 2.687770330984776690e-01
-5.523985311517739527e-01 -3.228945668260276014e-02 5.292201538734138122e-01 2.631215562383373840e-01 -3.386410086348779491e-01 2.722741260997727994e-02 6.002963847925558705e-01 1.405048938870789021e-01 -2.946045217756822487e-01 2.984527004792384419e-01
-3.603080609160464465e-01 1.295507347415236488e-01 3.831358061316407770e-01 8.067368264647105380e-02 -2.292262290215838771e-01 1.681059161267135504e-01 1.723546407901172250e-01 -1.192253647233390695e-01 -1.340619081808218371e-01 2.158213112482102736e-01
-1.161707407435920159e-01 5.497371239983521451e-02 1.024158408190402741e-01 4.596361149178111033e-03 -5.673938540388153567e-02 7.274607369039083615e-02 -1.861540568534327672e-02 -8.673638178763595774e-02 7.668788511153899756e-03 4.995563229774051262e-02
-4.812554281555115471e-02 4.008144167432995536e-02 4.903053255980020092e-02 1.133824727863805282e-02 -2.836521360595934543e-02 4.540481710666013915e-02 -3.579542960413573116e-02 -3.377497932106623274e-02 3.924655316721439857e-02 3.154953389987697615e-02
-1.785016141941572765e-01 1.279825593972680475e-01 1.750566867262812187e-01 2.244230869961566163e-02 -9.385005820590616721e-02 1.684423374098175386e-01 -1.175527172489581745e-01 -1.274946022073858154e-01 1.472329172982079493e-01 9.489712302049257975e-02
-2.084218096769804018e-01 1.319705791047868504e-01 2.579552947702621335e-01 2.365974363748171022e-02 -1.353544894312230240e-01 2.350310122742245433e-01 -1.395039295966902793e-01 -1.844821402207960093e-01 1.864056745437562002e-01 7.332365939639963470e-02
-2.640558373227661626e-01 6.839069259728865202e-02 3.917724638855992203e-01 1.152629470385168053e-01 -1.368745858537660232e-01 4.291315525471740555e-01 -1.171201340831398985e-01 -2.591640921041144519e-01 3.091026654821627528e-01 3.123009772246688673e-02
-2.551199116860619620e-01 -1.232470495192250631e-01 2.252132646392577264e-01 3.905722321377975703e-01 4.023085254692787549e-02 7.999702977488359901e-01 2.086928900770302076e-01 -2.576309515710759612e-01 4.816681213082006918e-01 -4.857071004779887208e-02
2.000776507875415972e-02 -1.220550154054374226e-01 -4.096049776639731355e-01 6.158991275577077040e-01 -6.962734151123538273e-02 7.978474725852398031e-01 4.308092858903022071e-01 -3.681150356035881033e-01 5.222242238380007118e-01 5.884487668849960190e-02
1.984806285440463836e-01 7.351297316375828006e-02 -5.237173903415985876e-01 6.408096202279669473e-01 -3.769907807631107111e-01 5.303372712010254730e-01 1.270275172561088906e-01 -5.674046083756241199e-01 5.684812723657074462e-01 2.456040507157891961e-01
3.668156838474756487e-01 3.327919622246545139e-01 -4.886589007174486077e-01 6.513576678136233644e-01 -6.934324425294906558e-01 1.965127330559147678e-01 -3.272174724539381185e-01 -8.160367553300413856e-01 6.085144350149422898e-01 4.671873311677670060e-01
4.073179351788572267e-01 3.429759993862732670e-01 1.636278578534486050e-01 5.199622525641800497e-01 -9.048911266661344710e-01 2.563715226539584405e-02 -7.389786125236301739e-01 -9.680090371652897430e-01 7.787095911357952982e-01 4.747794927520796460e-01
3.623164102425662780e-01 1.484792097896329710e-01 3.508861815324258449e-01 1.055445073557566144e-01 -6.387867834391991462e-01 2.574333998891138453e-01 1.855568235030011920e-02 -8.001023984835918812e-01 8.223873407005606317e-01 3.194238119287500233e-01
2.896322136652735857e-01 3.625454115407069633e-01 2.489878696052527374e-01 -1.574898271028701002e-01 -5.433457860137474310e-02 2.875718730221514252e-01 8.444357958490394944e-01 -8.052280695664295607e-01 5.795261272886779169e-01 3.878928006450754196e-01
2.397090315203431743e-01 5.120376578846909110e-01 2.550652402795328677e-01 2.101836869426583765e-01 2.747396649946428626e-01 3.078113075560026668e-01 7.993870277416664782e-01 -9.279007868428548189e-01 2.787517604599584198e-01 6.254293938718770152e-01
2.261176583318120770e-01 5.084820937042919820e-01 3.076970893311426480e-01 7.795643595673056037e-02 3.058962182899014892e-01 3.074665869031315002e-01 1.096861117186345824e+00 -9.645262537095006250e-01 -1.679422281132720088e-02 8.078112569992919045e-01
2.453829702037443050e-01 4.502489940838449445e-01 1.855563357394898749e-01 8.620275396933442247e-01 3.820126865985019604e-01 1.636654730940045044e-01 7.357603276379645063e-01 -8.291299489065397932e-01 -3.255357497123902433e-01 8.830229863440196558e-01
1.939017713238915808e-01 3.670811992071831287e-01 1.715558383418960275e-01 1.441340551574276319e+00 2.641029454080164318e-01 -2.062593655646070834e-02 3.909307518807974002e-01 -5.890534663288745643e-01 -3.324415633100882839e-01 8.720823276051625772e-01
7.657041254076388248e-02 2.667507408920584688e-01 1.770779968271782301e-01 2.868552873851824003e-01 3.162564038137551936e-01 -1.217042255835964343e-01 1.790209808652954093e+00 -3.457312269681615535e-01 -3.033060327051512739e-01 9.254608972978557446e-01
8.429628356023899372e-02 1.902112291582675196e-01 1.911171921005363483e-01 2.335967435908917755e-01 2.236227609115455373e-01 -1.807937782092992607e-01 1.886812906715551241e+00 -1.867642803166060794e-01 -2.762692992180795781e-01 8.682076945418154557e-01
1.344937620766430419e-01 1.608915357930170709e-01 2.002223779006918614e-01 3.424963446629239461e-01 8.658257922278665697e-02 -2.157916534659332919e-01 1.809972084002261949e+00 -5.781115250201073613e-02 -2.335802276449019110e-01 7.390154625155581636e-01
2.094429343371168872e-01 -8.457581664767456486e-02 2.753082932954852291e-01 2.142181531611182452e-02 -5.177868295905150298e-01 -2.457834579682867948e-01 1.707805140162247826e+00 1.270726850738820024e-01 1.132833592513735922e-02 5.703998151073800260e-01
8.062070021975245582e-02 -1.600678645753994198e-02 3.174003989271423354e-01 5.300543524374347060e-01 -9.945277533820012783e-01 -4.471914526722582939e-01 5.878425198847611055e-01 -1.533501523344843465e-01 1.535478609915611747e-01 6.570827445115754450e-01
-1.648698930849567873e-03 1.671099723030153583e-01 -2.753957830167870213e-01 8.182412445240410115e-01 -1.062387368305239610e+00 -5.541725895980311734e-01 4.146206705599157494e-01 -2.795277989208496128e-01 1.122694212774325573e-01 7.851236408674745482e-01
-1.727121625468752697e-01 -5.546871330734746974e-02 -5.530596517765759002e-01 8.812634400336578633e-01 -6.586822152809330699e-01 -1.421175338973745539e-01 9.711735966619561289e-01 -1.131708585189549442e-02 9.146017502399868271e-02 5.904269746528288954e-01
-2.846839320632799097e-01 -2.429935750985396103e-01 -4.428297050087567355e-01 8.085971438364250030e-01 -4.257137314024923569e-01 1.479544104108059255e-01 1.290777498168252269e+00 1.183769444353551387e-01 -2.604294241687817382e-02 3.688797049099329373e-01
-5.160930752864498761e-01 -3.915754922852964226e-01 7.469297776078706597e-02 7.166092000914747739e-01 -1.188011433598346323e-01 4.543774498771000481e-01 1.449884711867428955e+00 1.995232671382211886e-01 -2.329331873808995756e-01 1.033505010777663741e-01
-6.213158838877553825e-01 -1.315623501598213174e-01 5.977974120361866373e-01 4.142785582807736455e-01 -3.051146869547425311e-01 2.610470573529020122e-01 9.775283973728510212e-01 1.017964678494209241e-01 -4.001055745856861301e-01 1.795857613054389346e-01
-4.853173950281762239e-01 2.647323946163055927e-02 5.693344176136858614e-01 2.387227312018679881e-01 -3.591588755158150459e-01 1.124787843533184700e-01 7.917771363428134368e-01 1.523445983320105557e-01 -5.088547478413141256e-01 2.660169896927238042e-01
-3.178116127659760815e-01 1.624962759435186199e-01 4.569244202875423211e-01 8.811609508274342861e-02 -2.618113525761410765e-01 2.275984028734037712e-01 2.752340612450432933e-01 -1.497399469531806582e-01 -3.326933825633081598e-01 2.395757137429070094e-01
-1.178092512073781600e-01 6.329769195683616900e-02 1.182260392200832899e-01 8.901878229539472720e-03 -6.512207109956028028e-02 8.119386808276174428e-02 -1.044288751372492207e-03 -9.958449517393824779e-02 -2.769068984739814915e-02 5.528837120287764112e-02
-5.985002334104059379e-02 4.497112503276001066e-02 5.440769309833561052e-02 9.585112848155954990e-03 -2.958403804469269399e-02 5.054255364145455315e-02 -3.940581687898871144e-02 -3.638859320320658036e-02 4.800732670354618259e-02 3.625557321341346673e-02
-1.915176117582544357e-01 1.406924161899724968e-01 1.889543047043537038e-01 1.572742925928493143e-02 -1.004005086751875858e-01 1.864412616133575840e-01 -1.104493611393443930e-01 -1.355696809117539203e-01 1.554012909196940961e-01 8.827788468064408367e-02
-2.070786318105936885e-01 1.422148669228406881e-01 2.638404015824402093e-01 8.447536839113872417e-03 -1.370430086421386418e-01 2.597379057977003969e-01 -8.712062714163910926e-02 -1.839973250388896864e-01 1.797066210787879870e-01 3.177871764823824580e-02
-2.659121959468825347e-01 1.005161104350691531e-01 3.584853108727860116e-01 7.565935704913263893e-02 -1.240373132012743546e-01 4.787515910626732873e-01 1.675209473965516560e-02 -2.407442745920484184e-01 2.899546833978441929e-01 -4.339645793834496362e-02
-2.357163708937311808e-01 -4.106159325523879577e-02 1.087636341161198617e-01 3.053408919066129545e-01 3.195242242262519294e-02 8.439945631828819073e-01 4.369584839599635617e-01 -2.202240543083557045e-01 4.283798209116287947e-01 -1.772137574482794686e-01
4.649636075232538995e-02 4.092537023552221542e-02 -5.149690842742451480e-01 4.662126084252458669e-01 -1.430058255419665580e-01 7.935376749759224246e-01 6.332347092756857032e-01 -3.478930765373611234e-01 4.376322302327764757e-01 -7.809326938124173945e-02
2.335506726843195879e-01 2.802360518488203334e-01 -6.296800070445875974e-01 4.734260855126971590e-01 -4.620600031191330892e-01 5.353947353769026307e-01 3.481271351146149606e-01 -5.480218771051756921e-01 4.534517378466290660e-01 1.036338249045755805e-01
4.363271778957214520e-01 5.799879863557042547e-01 -4.848198858846788362e-01 4.495828631568324907e-01 -8.714024418805623728e-01 1.387164157599821424e-01 -2.281801881872429216e-01 -8.294860411275689627e-01 4.766130592432088475e-01 3.344834763189717397e-01
4.796518486896918509e-01 4.464760616873738042e-01 3.496074395259469170e-01 4.440212256623901066e-01 -1.003040977939612333e+00 1.067371358767534861e-01 -6.758002955454869287e-01 -9.578859226657885362e-01 6.759191706441207703e-01 3.520804651464638502e-01
5.051816130159951790e-01 2.211950287781531133e-01 5.194042262800080412e-01 2.073468236020877820e-01 -6.546397043226689361e-01 4.013476359734214349e-01 8.683683096418304270e-02 -7.807864022489803268e-01 6.552633307827159248e-01 2.567853396195169391e-01
4.703648577526134966e-01 4.821371193648310016e-01 3.717470231433367966e-01 -5.479253102085675925e-02 -2.403739093040739225e-02 3.735426499982993920e-01 9.609668008599403510e-01 -7.751496012679804926e-01 3.150928302813322257e-01 3.934156377564897999e-01
3.922545602831062350e-01 5.608285868471177826e-01 3.365516503124312830e-01 2.339404318149339856e-01 2.639910730233420155e-01 3.553955480628016583e-01 1.004533034069494901e+00 -8.279028620227668611e-01 6.340865901342440658e-02 5.768932828971045090e-01
3.354709899347816382e-01 5.103978428312245796e-01 3.117562031137214862e-01 2.220023839920491626e-01 3.572251840469633510e-01 2.656198238036430181e-01 1.264799801917185107e+00 -7.798810559456993419e-01 -1.548747223838805309e-01 7.358285110330250456e-01
2.766784010987187736e-01 4.236408669016200057e-01 1.223316514257116877e-01 1.083208317301785018e+00 4.317592526695862576e-01 7.105900393287885308e-02 8.442464242332856639e-01 -5.947571815299894649e-01 -3.436882799021671042e-01 7.728022411929902358e-01
2.046691832057894178e-01 3.544723333550833244e-01 1.201084467894096147e-01 1.526029841062344294e+00 2.740347577402438284e-01 -8.453407361832003530e-02 5.603884299106334232e-01 -3.938869767662290799e-01 -3.116806834187009212e-01 7.068638615758370269e-01
1.197719724261285396e-01 3.071078259354487194e-01 1.603239317651894424e-01 4.775414326176752322e-01 3.576290964519994731e-01 -1.407684094472601011e-01 1.778374170414213529e+00 -2.871069863510922748e-01 -3.483464122983015998e-01 7.870396881905430408e-01
1.730859915119541959e-01 2.343296024944010181e-01 2.042341419274552872e-01 2.753061011562936700e-01 2.438193573900380995e-01 -1.651567620987300922e-01 1.972583676128939478e+00 -1.406199569492296020e-01 -3.309227318361994130e-01 7.451440356237887253e-01
2.184415405057924253e-01 2.028075646383228625e-01 2.104086694039058458e-01 3.909094460037311758e-01 1.244669377923160597e-01 -1.998968322040173551e-01 1.878145615340250263e+00 -3.654918648863239583e-02 -3.102571795214633110e-01 6.596260682487480320e-01
3.358492836052056618e-01 -5.999878004962332090e-02 2.898973863268843321e-01 1.422768606475281472e-01 -4.105598685138170945e-01 -2.251768816808508156e-01 1.824346567449270262e+00 2.080168165464836294e-01 -1.259016815943983791e-01 4.909660242348508619e-01
3.097926984597129674e-01 -2.503876340151884802e-02 4.701097171461053326e-01 5.913231494689251688e-01 -9.812973726553814169e-01 -3.333682248209406951e-01 7.422752878748767325e-01 -2.309729714006458073e-02 -1.060001693616511864e-01 5.133417357206309095e-01
2.848734332948058001e-01 3.217018039651239336e-01 -1.007882321289334665e-01 6.715455378622307014e-01 -1.211649527439834007e+00 -5.001373145190362024e-01 5.799573529300146024e-01 -2.448505268786493327e-01 -2.797172976876118877e-01 6.291086442958856439e-01
9.517530375777498441e-02 1.634984029911901449e-01 -5.323697298299638891e-01 6.906859279262301810e-01 -7.941011668094556386e-01 -6.686163560709530718e-02 1.281531274640813400e+00 5.564528862462196288e-03 -3.358533946915949198e-01 4.227619706690393109e-01
-9.516152443253686477e-02 -3.777115271916040712e-02 -4.214196223975719691e-01 6.457020375956903369e-01 -5.414702306310640312e-01 2.429825269843436941e-01 1.604733378876496142e+00 9.755097961462955158e-02 -4.115713495985703907e-01 2.059528120702434351e-01
-3.905716793302058676e-01 -2.521965665496368469e-01 4.796866102744398730e-02 6.100764785709354987e-01 -2.014445307299660426e-01 5.546828491834764341e-01 1.791189556476673328e+00 1.792716228355444863e-01 -5.521492319115742786e-01 -3.949417080044719669e-02
-5.788026767475996648e-01 -6.791656392952626076e-02 5.936343245409426705e-01 3.683649790030763538e-01 -3.272856010920899283e-01 3.506328445449558573e-01 1.228133234586578970e+00 8.329394991865593512e-02 -5.987403813405901554e-01 8.539895507240391481e-02
-4.968189193289071492e-01 5.025722681970256484e-02 5.853578360072461129e-01 2.263101000277775721e-01 -3.679750007249860122e-01 1.455831742757446312e-01 9.361479388225856235e-01 1.559643825252724492e-01 -5.996122495621376558e-01 2.179846655646606735e-01
-2.877755778725010205e-01 1.666099354089934925e-01 5.081509668079550179e-01 1.014250451031652039e-01 -2.809851551965526495e-01 2.495854271563026361e-01 4.137835617110734443e-01 -1.108647712718497380e-01 -4.863223276833012476e-01 2.579428753629994797e-01
-1.071607587923555233e-01 6.537199118217759675e-02 1.269993231148599244e-01 1.010650951702361106e-02 -6.531653487405195135e-02 8.272549606959286872e-02 1.795951193575318419e-02 -9.961216832272654087e-02 -7.075047401892521626e-02 6.946962178049707892e-02
-6.877386052578576825e-02 5.410593532255535132e-02 6.387804558976400982e-02 1.072522594113504459e-02 -3.492695150593114195e-02 6.026542508240395613e-02 -4.199940559652115546e-02 -4.046070583409050458e-02 5.521897210208571299e-02 3.982459977065801182e-02
-1.917702345297522537e-01 1.521060160156003649e-01 2.099285314465772767e-01 8.942756714855518152e-03 -1.095718777353768131e-01 2.104671415441059235e-01 -9.988748380154344186e-02 -1.497857029470132662e-01 1.479776556135263543e-01 8.195455514608937508e-02
-1.853453058929669661e-01 1.559228615697456355e-01 2.833131294465418004e-01 -1.539219847654226198e-03 -1.436138510252999434e-01 2.898184636567486261e-01 -4.636469031081118936e-02 -1.869778657345119166e-01 1.490843741386543297e-01 1.075200515102708865e-02
-2.445797452273768824e-01 1.196429795033890769e-01 3.609041140900272615e-01 6.264954842663214563e-02 -1.200694153619182580e-01 5.361605585547295494e-01 1.081354893854064164e-01 -2.299475898773297167e-01 2.588962233041131045e-01 -9.513314519524052049e-02
-1.776853069607938207e-01 3.306864378312309501e-03 6.414127907499167502e-02 2.786359388677198679e-01 1.636825056656568758e-02 8.994536550123325425e-01 5.831845099173162961e-01 -2.021633131182777599e-01 3.661165480971047548e-01 -2.453288964864664690e-01
1.307889589422280840e-01 1.378465479547501538e-01 -5.113040171580419679e-01 4.032861636417732765e-01 -2.095546997452222837e-01 8.491318179485427553e-01 7.706702371372484706e-01 -3.422229868225591387e-01 3.289639057243954334e-01 -1.531072135426531644e-01
3.604195850911044441e-01 4.080741279594558013e-01 -6.033207965093454472e-01 3.874596157370440164e-01 -5.455916118169078510e-01 5.980575977360838014e-01 5.167923625608387139e-01 -5.236941185562132839e-01 2.782456879375638237e-01 1.878589163448618135e-02
6.057206895702729188e-01 7.475284340912343728e-01 -3.224240976378873746e-01 3.076235111123974963e-01 -1.040381317745615819e+00 1.540320907313653676e-01 -1.456243728285951111e-01 -8.001655495995543266e-01 2.441068572451382257e-01 2.552059818831665106e-01
6.263343698096184298e-01 4.979839642699545044e-01 5.911223476950480116e-01 3.994450788286341147e-01 -1.058518882410680373e+00 2.599498422701263523e-01 -5.078301653088147516e-01 -8.489813293921688597e-01 4.730965390674145010e-01 2.415141326084521978e-01
6.581380415850165422e-01 2.370675809387990385e-01 6.073950886114349856e-01 3.320886293899912300e-01 -5.823718452076054319e-01 4.943067317195227739e-01 2.572170005314723951e-01 -6.411557686093714015e-01 5.105463065308696313e-01 1.661945878290468637e-01
5.484174836289128496e-01 4.956399228795066447e-01 3.930215104608163479e-01 4.970604051985483968e-02 1.447616624282847993e-02 3.608670789659179090e-01 1.067362289830277255e+00 -6.392502064970602138e-01 2.254594114890532963e-01 3.726827945126545139e-01
4.241268739293019285e-01 5.335850659951832942e-01 3.330507920305391112e-01 2.808560266778723502e-01 2.897382034228055403e-01 2.981997150467367574e-01 1.199588587943461793e+00 -6.367397393893236002e-01 1.275526755251229008e-02 5.437114930156859982e-01
3.392411677713966789e-01 4.594666022413714246e-01 2.569161113359375026e-01 3.864849983691568402e-01 4.084140183026810367e-01 1.555735002024451197e-01 1.424632533265789425e+00 -5.258698603394007520e-01 -1.606231937244501917e-01 6.581628434279250817e-01
2.670148110487486903e-01 3.868029146793789952e-01 6.829127327384798551e-02 1.225539012428726870e+00 4.535574438662915431e-01 -4.102772815883530544e-02 1.008018236172584015e+00 -3.636835787341601289e-01 -3.204716304068744304e-01 6.525698387921967658e-01
2.057482973163214657e-01 3.431292775236701176e-01 8.966145170198355774e-02 1.584111612779057987e+00 2.808168057200849388e-01 -1.429033575335706407e-01 6.859509300061862325e-01 -2.936612551916613079e-01 -3.035298481571974683e-01 5.629222499307685590e-01
1.493259285185453422e-01 3.306661316727086963e-01 1.468961238476097775e-01 6.530921887873483156e-01 4.006431328214877241e-01 -1.455216223062968661e-01 1.742434318496554502e+00 -2.626372855635250025e-01 -3.694558818619487206e-01 6.687973095731439832e-01
2.134313402308401497e-01 2.502119501000140134e-01 2.116291073157707536e-01 3.230337095170270900e-01 2.791272439331400901e-01 -1.656349816602317448e-01 2.030302849658440767e+00 -1.156709999816069451e-01 -3.334544485045556339e-01 6.253014685421918184e-01
2.429674382026587864e-01 2.149449031777192765e-01 2.192976152458085970e-01 4.256874143957878887e-01 1.412095654688204360e-01 -1.912576116377925906e-01 1.911497695050062839e+00 -1.814097466424802532e-02 -3.099055648208273173e-01 5.724608737160453709e-01
3.533249810533998225e-01 -2.921321632651010386e-02 2.802639242118049601e-01 2.738004123466122319e-01 -3.030187693363051715e-01 -2.206850164590049290e-01 1.860543627717018644e+00 2.263050029450364986e-01 -1.487653428041038617e-01 4.021854449167063250e-01
3.446489588521186032e-01 -7.145075181958694677e-02 5.313283490830678080e-01 6.575611974516876179e-01 -9.141201835012054966e-01 -2.892342355089997930e-01 8.677441727393432336e-01 8.327110531146894590e-02 -1.416179216288257214e-01 3.456252891831630980e-01
3.418182013396454111e-01 3.944375380175819124e-01 4.538105018309580851e-02 5.796904588704835382e-01 -1.291547231029588350e+00 -4.908152824331971642e-01 6.551134572038790349e-01 -2.290006567017760786e-01 -4.060021667355587782e-01 4.829112120402138664e-01
2.086311137708385943e-01 2.780780321372005592e-01 -5.331486857273715074e-01 5.925536614900167587e-01 -8.757600207005674653e-01 -5.730834767581113876e-02 1.476019703212291923e+00 1.567176776126149099e-02 -5.248282626695957021e-01 2.865805005941794992e-01
-2.975327564489066087e-02 4.509235543549518915e-02 -4.237119579996058705e-01 5.816311641791592768e-01 -6.009415773466237898e-01 2.813440924949511812e-01 1.831180583496013980e+00 8.811190346112576788e-02 -5.811252884650681683e-01 6.933638409460651797e-02
-3.473518180182840198e-01 -2.096713973062554748e-01 -7.275054287369840146e-03 5.775045868361344814e-01 -2.360944865033078599e-01 5.768287488634270543e-01 1.985849716537806176e+00 1.842364635782702265e-01 -6.526544786748124105e-01 -1.341185175875214963e-01
-5.903759821288828702e-01 -6.729159068994222670e-02 5.612189861873214669e-01 3.606468680822562112e-01 -3.156339565774674560e-01 3.861512926660463085e-01 1.388290583093182873e+00 8.138955510987570807e-02 -6.500633626333196524e-01 5.112646553582164688e-03
-5.415996914563052655e-01 4.890134874577108104e-02 5.818625832158361710e-01 2.222985900319568164e-01 -3.657867434027157194e-01 1.481298217541624496e-01 1.034659388213011288e+00 1.476459755662150042e-01 -6.198088258281869711e-01 1.618273008894364762e-01
-2.883221324739901892e-01 1.473315877306087540e-01 5.242709775184982712e-01 1.180816990094806368e-01 -2.941397413431823815e-01 2.270118419127396259e-01 5.670384477745292751e-01 -1.394205105364203917e-02 -5.662562461895318533e-01 2.608373854669174818e-01
-8.596015645415137907e-02 6.366038375619909040e-02 1.407194757496574855e-01 1.871882658549098646e-02 -7.276511015606283717e-02 8.143918944811173732e-02 4.885873740978021601e-02 -8.874245905156732950e-02 -1.190295742491729314e-01 8.053478952674014701e-02
-6.569657436349327084e-02 6.828385783574340839e-02 8.094354018787310034e-02 9.956555900992092312e-03 -4.262731044530860408e-02 8.008640415109152810e-02 -4.199231736031404372e-02 -4.996595587836209079e-02 4.419659294710507474e-02 4.610010332425473062e-02
