-3.881080334597811476e-05 1.607158330910414261e-05 2.388084251935184297e-06 -3.578495248002280636e-05 4.764376943101800881e-05 8.036112306422569894e-06 3.330209164322033645e-05 6.197665532523663934e-05 -9.271557734546875473e-06 -5.909958992113091753e-05
2.628349066372125503e-06 1.262517554738742357e-04 -1.170838914911831246e-04 9.351443762183598543e-05 3.801629370157794038e-05 -8.682175727465494457e-05 -1.601793428740462251e-04 -8.268430456137854112e-05 -1.383525667920399306e-04 9.880463897908086724e-05
-2.250365546816098254e-04 -7.814213255660639335e-04 5.613744831694312317e-04 4.113623057462562982e-05 6.849236742640327517e-05 8.191007135416170830e-05 -3.873670892325396580e-04 -9.009532697867273871e-06 -1.398136003219556842e-05 -1.748690681983005181e-04
3.130964034525286679e-04 3.879057225793820644e-05 3.296017152567535147e-04 -2.220315448815518951e-05 -1.217982014936801411e-03 -1.573061402686799597e-04 -1.689883581158754030e-03 -8.602030349810094395e-04 -2.594875632896661159e-05 2.277096654437459891e-04
-7.130903920666625470e-04 -3.296201866818015708e-03 5.465115734848296353e-03 -1.614362552008851272e-04 -4.133120555665559248e-03 2.962217815453380230e-03 -2.705308007713324789e-03 -2.988055170909146088e-03 -6.389289809460524470e-04 -1.649427676595694586e-03
-2.239560740818005306e-05 -7.412411841037231872e-03 1.011918173195387564e-02 8.576716644169048035e-04 -7.485741409572498062e-03 6.651229346169861695e-03 -1.857813339948790081e-03 -7.052607434560510639e-03 -6.097344764525694689e-04 -6.115419430397959002e-03
8.052618902500981168e-03 -1.318619633143940616e-02 1.285204735193612967e-02 3.719395119468109356e-03 -1.122319340733791970e-02 6.388037403354614521e-03 -1.493668488336912653e-03 -8.555486740547105576e-03 3.738787778848659104e-03 -4.282795966857710912e-03
1.576205927173246132e-02 -2.570940306789620822e-02 2.934808063762291835e-02 7.371443360859344235e-03 -2.360023703944257381e-02 6.506340200722627101e-03 -5.677333509033698558e-03 -1.518715625804114254e-02 1.444079600662142443e-02 -9.485725824454284763e-03
4.585461310386380884e-02 -7.040044796998166932e-02 6.304559054731986856e-02 6.476191928083663805e-03 -4.264299053014947855e-02 7.850758079166152148e-03 7.246406855957615925e-03 -1.258996963594976280e-02 4.291881741916715731e-02 -2.120437805121709943e-02
1.064521060656719725e-01 -1.601116563354925415e-01 9.834649553199908967e-02 -6.842234054603807403e-02 -3.255565462377330022e-02 2.263603840684269217e-02 1.554489640261794425e-01 1.117489379534016870e-02 9.532530920537461705e-02 -5.062068354081263738e-02
1.654125965738098281e-01 -2.790613783512974622e-01 1.094325373548378638e-01 -4.408865410608569513e-01 8.467442685092196886e-02 5.792436019239998596e-02 7.065552623853310621e-01 4.460387976078415695e-02 1.558793743860234782e-01 -4.321002315637911817e-02
2.385940261759346148e-01 -3.042165121871535649e-01 2.377523993757630748e-03 -5.191828637921489520e-01 1.391023734842998516e-01 6.568814987448001741e-02 9.204328232890661710e-01 1.527149317225139254e-02 1.978100987350453199e-01 1.934340197399362846e-02
3.072338505104533768e-01 -1.200604119251145463e-01 -2.040532259150945327e-01 -4.485550373640915800e-01 4.316591336198053602e-02 -1.004486071203505512e-02 8.180485129028005620e-01 -9.586209759407188225e-02 1.734624681220454101e-01 8.265215365256831093e-02
3.096490399738029975e-01 9.931317557453725811e-03 -2.137081422756061388e-01 -4.945791132740073315e-01 -6.755880865624082354e-02 -6.627191014470742991e-02 8.002556383874638302e-01 -1.206780373661964917e-01 1.401953386954414016e-01 -2.310446064946702210e-02
3.149146753943007360e-01 3.594432747499844844e-02 -2.093890319976848824e-01 -4.609105402294527698e-01 -9.395309420200545492e-02 -7.118117269310600403e-02 7.911771856711995454e-01 -1.213631026765135124e-01 1.280239011195642151e-01 -9.550239813052247007e-02
3.246907376983904081e-01 -3.208063547936843701e-02 -2.241697710070564842e-01 -4.579259978742478143e-01 -2.689992107598975293e-02 -4.432900625554653251e-02 8.454263438466279590e-01 -1.350727384546285548e-01 1.273157519161998430e-01 -2.202887085356817001e-02
2.967693018753457257e-01 -2.569219661536865096e-01 -1.081729649475322574e-01 -4.236204562341441271e-01 8.045350432285811038e-02 2.115236947027320652e-02 8.906106326849679844e-01 -6.226124786343153333e-02 1.302673014239481841e-01 -3.323973731784441669e-03
2.109178527917608403e-01 -3.570908218940677115e-01 8.601552114323836318e-02 -4.825112021320041022e-01 9.148232730202492113e-02 3.236615867437713651e-02 8.569552693182477254e-01 1.028074409181947355e-02 1.069352713075967937e-01 -4.671909772648936282e-02
1.345086495155973783e-01 -2.680170816545653367e-01 1.249283719507197354e-01 -4.385081923717084607e-01 -1.471833280615120372e-02 -1.341570461712086795e-03 6.065435367978883052e-01 1.428720470695912619e-02 6.059203398638041138e-02 -5.228660963791909727e-02
7.708151858880765706e-02 -1.318319305977822820e-01 8.614297535492329572e-02 -7.931630023304615806e-02 -7.169578942500651197e-02 -2.909614882400468616e-02 1.169474567372859736e-01 -2.184842378439594626e-02 4.049821517001869590e-03 -4.075016177593431682e-02
2.744289797479690374e-02 -5.706733432724622745e-02 3.749484784312462349e-02 6.112963066612847086e-03 -3.480552772075327234e-02 -1.644673835488117547e-02 1.952620036838025042e-02 -4.073124980402094419e-02 -3.219343071337610329e-02 -1.524224160309667342e-02
7.128763699037444883e-03 -3.249509613737463359e-02 1.271764212229848159e-02 5.154369113765790850e-03 -1.667987666674953379e-02 -6.736743913938020648e-03 2.057777361859791654e-02 -3.713323929751288083e-02 -4.668317265648373737e-02 -7.954959195589904677e-03
-4.081769012388330661e-03 -2.059644888648181835e-02 6.618284848146793568e-03 5.304967923753592558e-03 -6.196700913239990872e-03 -1.302014072027546246e-03 1.894644108742150543e-02 -3.279242096611489909e-02 -4.482035261098847589e-02 -6.167154012059502914e-03
-5.623311290734804048e-03 -1.706992064247810775e-02 7.253424919010927757e-03 5.754107254329907453e-03 -5.757929326088967632e-03 3.337332629108274518e-04 1.427278077056214761e-02 -2.993514961151715406e-02 -3.812386652206219140e-02 -9.360836815154685922e-03
-4.838374585259133144e-03 -9.523579223645569844e-03 4.830472225922488767e-03 3.616712984687721344e-03 -1.815929702794660990e-03 -2.300350111532756172e-03 6.830065311295244537e-03 -2.255240241113879232e-02 -3.069611996633361470e-02 -7.523481777592946028e-03
-5.103817104367228477e-03 -6.074214369779816665e-03 1.499583023101712029e-03 3.823611426555332485e-03 -9.892487110755424952e-04 -3.012694811294988877e-03 4.725418748401685569e-03 -1.594592559137206211e-02 -2.029584772913675325e-02 -2.509666576179803328e-03
-1.713429534935364488e-03 -2.634746750560120008e-03 -3.702627936285342146e-05 9.407502443558746902e-04 6.339648501258405905e-04 -1.089163379534222823e-03 2.677700777135428364e-03 -4.983151504616100541e-03 -8.254812536028999226e-03 -9.312089777487603118e-04
8.852166948516146990e-04 5.061713144428309609e-04 -2.941030671346892868e-04 -7.418309790763360275e-04 6.386715323545349640e-04 1.481440952110924924e-03 4.260934574275280400e-04 3.149005170018087793e-04 -5.289828896515693171e-04 1.154943259735653196e-03
-7.758830991396772870e-05 -1.694237079497052477e-05 9.640085286222357778e-05 5.053000519674700987e-05 -1.459020619653651714e-05 1.449466207183726341e-04 4.802742738932326211e-06 -7.269303688238026428e-05 9.014133369160169738e-05 -6.134767586617575000e-05
1.043623583984034449e-04 -2.435176653265052265e-05 7.987044959099167979e-05 1.541978540875568781e-05 -4.098520414840897420e-05 5.956989206744845952e-05 1.616787561391699806e-05 -2.727743152578223645e-05 2.973247616516461596e-05 -5.765068965148886928e-05
-3.284711665329054057e-04 -9.314454232198706991e-05 6.066524108795864900e-04 1.731497705886321278e-05 -6.582181717630153969e-04 -6.738414733744759854e-05 -2.040261203086862242e-03 -9.139215865637418529e-04 4.178998720936741767e-05 -1.653893180719343356e-05
-1.269357800249898069e-03 -2.726628278139814603e-03 8.206075965495692251e-03 -1.671996033314416359e-03 -4.953870763186316202e-03 2.406551932249667482e-03 -6.184642758113869168e-03 -8.429113017457662282e-03 -7.190726723413666793e-04 -1.370279266004058695e-03
-3.933339772391975138e-03 -1.281783859229024443e-02 2.042208463515457137e-02 1.838744746373123257e-03 -1.273602454515419119e-02 1.117627861826640638e-02 -6.291098004766901459e-03 -1.855962383339368471e-02 -1.337995746152049028e-03 -8.468401949314842414e-03
2.900863437861266395e-03 -3.945030966264442829e-02 4.556814356341756800e-02 1.373849512641630265e-02 -3.069446487928356032e-02 2.469287473171228459e-02 -1.259506588867093969e-02 -3.232596556784547714e-02 1.013283189750400354e-02 -1.544928711015521039e-02
5.067188131741509616e-02 -1.512177392479110150e-01 1.069458726329924614e-01 6.631416595178024620e-02 -5.034084002291083076e-02 5.387743690068893393e-02 -1.460720566559527318e-02 -3.661642211039738831e-02 6.039658424067406717e-02 -3.988509549582808927e-02
1.580378355952659630e-01 -3.451534279499072211e-01 1.576247284568673412e-01 1.788812275075322145e-01 -5.878665896556679871e-02 8.918373523597533659e-02 -1.325824428123874126e-02 -1.815426370908591186e-02 1.465324877111817137e-01 -4.875494776762822474e-02
3.018270855282691456e-01 -5.284815958527063762e-01 2.223859048587207010e-01 3.163627391019662172e-01 -1.268482163032915756e-02 8.076778522880447009e-02 4.473295403341276573e-03 -1.619233038681769724e-02 2.492509355232048196e-01 -2.586933742056150148e-02
4.341627454800498498e-01 -6.356786253577989543e-01 2.555221444358788951e-01 1.864735662772196989e-01 8.603842841425914101e-02 4.922431795875523847e-02 3.257286570532471615e-01 -3.611739848371941369e-02 3.526295614490724817e-01 1.269556335926825402e-02
4.914907396236787296e-01 -6.097326783179521925e-01 2.001083035117381670e-01 -8.895393613849935655e-01 1.571484678946545865e-01 3.866969721501300333e-02 1.519649181089246737e+00 -8.134950014042495459e-02 4.289099494933014678e-01 9.297574988154935771e-02
6.580566541089342136e-01 -5.007042433568025253e-01 -1.000345448354209021e-01 -1.018288625222821375e+00 2.140222656718130390e-01 1.605287862262529813e-02 1.910614513919749236e+00 -2.160850505158109225e-01 4.699147035428226094e-01 2.111136784549824397e-01
8.554787971177454375e-01 -3.885015069796057818e-01 -4.208333061303946576e-01 -9.444306976234994044e-01 1.809133167969829148e-01 -5.021089193832305869e-02 2.060363976717271228e+00 -3.483641623394083120e-01 4.568630949998006563e-01 2.482148399126572758e-01
8.136014283443770978e-01 -3.520000531286653356e-01 -4.116992769050769052e-01 -1.056826682614926849e+00 9.663939399498125415e-02 -8.869013912930438781e-02 2.070594724539819520e+00 -3.792857041737832668e-01 3.771189096609700031e-01 2.358756541436947685e-01
7.804385462430762921e-01 -3.778251818339783963e-01 -4.118990955423023070e-01 -1.043171816018048981e+00 8.662708244191059948e-02 -8.403040720534082908e-02 2.024191026412617500e+00 -4.123960351830849858e-01 3.307347123968133462e-01 2.874097156934571351e-01
8.586520713585881204e-01 -4.308679956406660239e-01 -4.520781522467147151e-01 -9.293143714574247927e-01 1.469434153202344440e-01 -7.659028358160531458e-02 2.097237223623558577e+00 -4.249434253989432531e-01 3.467617133674863461e-01 2.428331306885112562e-01
7.841810812907932249e-01 -5.393055009970946223e-01 -2.962452683214132354e-01 -8.857433565699697198e-01 1.820145415345866824e-01 -3.860420521891648471e-02 2.053812263324358067e+00 -3.625277715875638296e-01 3.166308265122192434e-01 1.652593639718818175e-01
5.519826003004678627e-01 -6.232771032953117185e-01 1.063924688921408512e-01 -9.795795902006929623e-01 1.326099979473694401e-01 -4.019953403511814655e-02 1.833144731754349444e+00 -2.288967830794996217e-01 2.493913951010950925e-01 4.381896957415357119e-02
4.398813162055448811e-01 -7.289519925952052670e-01 2.676965711430993045e-01 -5.794258332103352505e-01 9.043718664712337152e-02 -1.509848506154534871e-02 1.245132258562942518e+00 -1.278159767916940970e-01 1.975119227788014464e-01 8.471795145473143577e-04
3.669708659711460874e-01 -7.040124951265366304e-01 2.646679772797962404e-01 2.061346893124574031e-01 -1.383253444143858063e-02 -1.315656704323021897e-02 2.798159542778661524e-01 -9.874195881553875231e-02 1.138081662474297873e-01 -3.047692586038547660e-02
2.114829712615316215e-01 -5.147788776460942017e-01 1.869693135685674412e-01 2.475290496763807579e-01 -7.309690756589358462e-02 1.626916446112803075e-02 6.524709508740289543e-02 -1.099728585333783898e-01 -4.144752536111264568e-03 -6.296067630445834062e-02
7.258347298342088250e-02 -2.854767389705367142e-01 1.372128448415877999e-01 1.186347609041410456e-01 -8.116509125098940458e-02 2.516275637210597222e-04 4.753910779389505792e-02 -1.393013789917587897e-01 -1.020947731546945486e-01 -6.310891337488640229e-02
-2.879085992749108158e-03 -1.201885345266493627e-01 6.176446663144583016e-02 4.370193487006734240e-02 -5.313115881502531584e-02 -1.821040764208694748e-02 4.893160006809706836e-02 -1.395015589758723529e-01 -1.520722765942133237e-01 -3.399624494661838275e-02
-2.723528649728542209e-02 -6.625433184437173884e-02 2.962146846193998082e-02 2.939879802526122396e-02 -2.650796805464411543e-02 -1.656939136945957680e-02 5.607377811436222576e-02 -1.224912556450097612e-01 -1.485800547161858221e-01 -2.266407035425895347e-02
-2.898534154880160613e-02 -4.416059932366384055e-02 2.475578891120173639e-02 2.189829540673769379e-02 -1.528194379824039835e-02 -1.092746013987687219e-02 4.393030098016621060e-02 -9.564363099140961444e-02 -1.204358249935289088e-01 -1.493079801999547089e-02
-2.019433375899622879e-02 -2.400539869389317973e-02 1.341637868286674889e-02 1.321338196755919223e-02 -1.093141333732852542e-02 -6.285023714542005251e-03 2.536865160527038143e-02 -5.807786943766140436e-02 -7.128937954007075195e-02 -8.901933455229549264e-03
-9.368866115218308852e-03 -1.043635159352531913e-02 4.704023350398416764e-03 4.846842534029717660e-03 -5.427721163108864891e-03 -3.238274311776029226e-03 1.012315083612425060e-02 -2.155112807089148638e-02 -2.390983768368178108e-02 -6.678672380567763148e-03
-2.581403774447455293e-03 -2.042926318553188198e-03 -3.038369752004842043e-04 1.877293282507146079e-03 -2.029307658863683823e-03 -3.169864047850078602e-03 2.713245285931050951e-03 -2.919476688096779484e-03 -3.566250884190315992e-03 -3.643301320112769890e-03
3.098537696243367569e-05 1.051297218398255590e-04 3.804223304931210405e-04 -1.113166150262998158e-04 9.885636048292745765e-06 1.717857814306966626e-04 -3.236434313153459382e-04 -6.445625031849569172e-04 2.984364308929079906e-05 -4.716151983843766787e-05
-2.636336471467962735e-03 2.359020588119386012e-04 3.415584504855522559e-03 -1.155112472116266161e-04 -5.687760513502604191e-04 2.666687079572815401e-03 -2.082034501118067149e-03 -3.942451116133354264e-03 7.442641931192746016e-04 -1.958903510943506374e-03
-5.626116289990759287e-03 3.390676022172070623e-03 8.278519554121547067e-03 2.557236040115614013e-03 -5.159584420043091500e-03 6.269601617614688205e-03 -6.432330607837264888e-03 -1.275307719749726662e-02 2.952809839029186222e-03 1.167010975029212109e-03
-1.501082467519697719e-02 -6.455894915636705561e-03 2.636010378831118647e-02 6.055692615020182024e-03 -1.771662374364937204e-02 1.694527335342366214e-02 -1.177047388016927085e-02 -2.996006492944820743e-02 3.157329464475451541e-03 -2.425647740740063864e-03
-9.498589846174340656e-03 -3.079311102562961450e-02 5.593045632244440790e-02 1.520816670685009968e-02 -3.889918512306589360e-02 2.752888444429326190e-02 -2.770603644352483824e-02 -4.902413859937974211e-02 8.517174248870280906e-03 -1.169922103005998151e-02
4.534553807208489828e-02 -2.128181529931786331e-01 1.744915364150902148e-01 1.132008391500406164e-01 -6.455147396543063631e-02 8.786277665994166042e-02 -5.716931024805860934e-02 -6.504933484128991306e-02 9.070039488719068566e-02 -4.515036483049404692e-02
1.894004340448260104e-01 -5.352385422176374474e-01 2.122787696821619441e-01 3.312527796289296278e-01 -1.790226950808624512e-02 1.706210581907281476e-01 -3.679907467200405763e-02 -3.004897183175073150e-02 2.144010318594028464e-01 -3.368651710825279477e-02
3.269117872367052202e-01 -6.762784612694335840e-01 1.887054798214488627e-01 4.922412265492387973e-01 6.060578671888253860e-03 1.631345546157884352e-01 -6.410594773704343663e-02 -3.859722511788548499e-02 2.926952520807055702e-01 3.085799390897734848e-02
4.617943105034827411e-01 -7.030410622064665604e-01 1.855733257199290442e-01 6.136578912820438436e-01 7.193387438448659021e-02 9.646021336134773250e-02 -6.655806944805936487e-02 -9.484799979247883484e-02 3.614011553635372298e-01 1.096111105067461428e-01
5.560621770564283528e-01 -6.057292219859491400e-01 9.459199430467145342e-02 2.547367081339208528e-01 9.864543707196637978e-02 3.057807170994867804e-02 3.680163416089831108e-01 -1.874238629654960964e-01 4.138377204231379891e-01 1.891388581778761790e-01
5.957763542560142733e-01 -4.346114343347361464e-01 -4.235246695482550866e-02 -6.758689563245601217e-01 1.700780432791355601e-01 -1.636989323095246543e-02 1.422024690522777579e+00 -2.789308765042124993e-01 4.295040831299671846e-01 2.472938263682323279e-01
6.450000535753632747e-01 -2.565465076289230595e-01 -2.032228695325684065e-01 -6.026777263261317019e-01 2.208049091429334365e-01 -5.163046067105565851e-02 1.524197840519058822e+00 -3.812379785382462027e-01 3.875268941292046576e-01 2.226613105354513233e-01
6.799324643825308545e-01 -2.420615189837921066e-01 -2.726313036230844644e-01 -5.782485802761015981e-01 2.283376915411570729e-01 -7.974586664427556204e-02 1.567959559407421155e+00 -4.326691435752924586e-01 3.387562703188984337e-01 2.302095214819829816e-01
6.936000228449880067e-01 -3.427226073551588592e-01 -3.499841727218701015e-01 -6.750479617025286760e-01 1.987705865279998929e-01 -8.089016633566925574e-02 1.668395355547036329e+00 -4.994734653194831675e-01 2.637375117495928678e-01 3.586722913828430115e-01
6.775154735091364344e-01 -3.931805235395875453e-01 -3.921468365267327116e-01 -6.627124082249857828e-01 2.118678645718341802e-01 -7.924995158622888392e-02 1.703070806878800747e+00 -5.505048902900916419e-01 1.926866353865118175e-01 4.196670487973584440e-01
6.637528127857704741e-01 -3.811712107594596444e-01 -3.444567876541459461e-01 -4.811043842889460853e-01 2.312845938383194799e-01 -1.062487752483523284e-01 1.605557533128932901e+00 -5.719604345196281914e-01 1.542452940702630504e-01 3.283883928776769601e-01
5.980012354223034343e-01 -3.460384036635784089e-01 -2.498088920866201601e-01 -4.712950730917533915e-01 2.172048771476917384e-01 -1.262034344596111579e-01 1.569248685061470638e+00 -5.546781776185667479e-01 1.046776611987953048e-01 2.175099066816834070e-01
5.610185413451567182e-01 -4.465962406553194985e-01 -1.274504445748523840e-01 -5.271309399286558950e-01 1.713476641418123503e-01 -1.092661016194829554e-01 1.548192343019688888e+00 -4.946454797840589279e-01 1.043054805923959438e-01 1.695751624500131116e-01
5.228706671939603590e-01 -6.557697525054958509e-01 3.768962985299577351e-02 -3.930335421533047713e-01 8.815910232546809999e-02 -6.856215877929176805e-02 1.274527872356183700e+00 -3.952103019180565613e-01 1.172296085057317611e-01 1.462073305004114032e-01
4.695603188557637697e-01 -8.328126738586183464e-01 1.839506641726192937e-01 4.048091895748173741e-01 3.082475895996279400e-02 -3.752403745785576339e-02 3.504314560488469010e-01 -3.025132608771397003e-01 7.333719988230778808e-02 9.821531551643510050e-02
3.398512394281645865e-01 -8.287776618633031500e-01 2.059796683209655921e-01 5.916130939771432340e-01 1.616913222584752429e-04 3.011423739062285901e-02 4.881267092584053169e-02 -2.377527564071470201e-01 5.913668548039818784e-03 3.157623109718835780e-02
1.921242123806586044e-01 -7.229511772251193680e-01 2.194469098286901121e-01 4.497343316962322812e-01 -3.480865414780420081e-02 7.978457462286205060e-02 6.638506730375838549e-02 -2.265990231522346521e-01 -6.515868840680620611e-02 -3.601154913319934425e-02
3.248585745691555393e-02 -4.252662597482917972e-01 2.236437266217683462e-01 2.275480141650530197e-01 -9.482470068532422580e-02 1.781499925907708420e-02 4.209077374416437395e-02 -2.607875209760425750e-01 -1.792056680189511586e-01 -6.881906568968683413e-02
-6.410077108769959842e-02 -1.499957741966173597e-01 1.058100151877989781e-01 7.580368377203147712e-02 -8.056280010752737974e-02 -2.917378510959467777e-02 6.096766289939763162e-02 -2.612763268967762120e-01 -2.529291918591026200e-01 -3.436781150230007464e-02
-7.719093312879922453e-02 -6.811366568749130379e-02 4.423242441544969483e-02 4.675121035846408618e-02 -3.721830096230260149e-02 -2.802878646132500248e-02 7.358637551110799868e-02 -2.070634518310454919e-01 -2.284728239797822746e-01 -1.149322145719276593e-02
-5.925201523187090952e-02 -4.146993641898318733e-02 2.797798734247422536e-02 3.125983905440181398e-02 -2.848002704222235212e-02 -2.148633714383590965e-02 5.274042781589800832e-02 -1.297335113199847567e-01 -1.440944133093892687e-01 -7.257737029430437470e-03
-2.673975018441317533e-02 -1.243826416001475067e-02 1.287442707023350730e-02 1.138660173078881802e-02 -1.702262353797284050e-02 -4.859088768022080083e-03 2.096554122509351747e-02 -5.233095492987498848e-02 -4.629734356143436896e-02 -1.175909007432376745e-02
-6.517032835083952369e-03 -4.495257494298835269e-03 2.818653001668865957e-03 4.235220960787137827e-03 -5.028595730035519303e-03 -1.144442249664727332e-03 3.404502963516873280e-03 -8.911930499311333798e-03 -6.355841609708099207e-03 -5.655036151644649532e-03
-1.279172411224128178e-03 3.684232923306282300e-04 8.228518795917755951e-04 4.882937045794424197e-04 -1.161331516258789663e-03 4.341307888435352175e-04 -1.021981254761613429e-03 -1.929952788766740694e-03 -4.326454618127411537e-04 -3.904923034654322276e-05
-1.236704935463823520e-02 3.148883898343964646e-03 1.018405347047478260e-02 3.001520510913798390e-03 -4.307353833480347116e-03 8.799738456711834675e-03 -9.083532864752079036e-03 -1.491213114413146926e-02 4.307478225210619252e-03 1.535901783843971607e-03
-1.873925601001813490e-02 4.109033333473763143e-03 2.009534909677796605e-02 6.601773712398396367e-03 -1.328244761549991944e-02 1.597270828609879262e-02 -1.430020878565217354e-02 -2.752452289265969881e-02 7.169529833290673448e-03 4.834400878824318855e-03
-2.382422265055179553e-02 -9.511727874537568433e-03 4.495338318992649074e-02 1.164249569324947095e-02 -3.264976482033473543e-02 2.545403517901502488e-02 -2.895725363669420654e-02 -5.152914990756240349e-02 8.069807715335514803e-03 -1.146714456961619652e-03
-6.253943232016833352e-03 -1.072062714549857770e-01 1.506143164713939775e-01 6.420946150030873434e-02 -7.733914954588497204e-02 6.163471550632768775e-02 -8.532887912259996821e-02 -9.466033034743563668e-02 5.491723230902625930e-02 -2.196957413718337443e-02
1.066069248936698799e-01 -4.565024084203586630e-01 2.733954486464344469e-01 3.092605020954445338e-01 -2.962489303621572076e-02 1.802574496562628914e-01 -9.292777790056497289e-02 -7.905148930693298159e-02 2.047483981726890834e-01 -4.178918471301514698e-02
2.752633635889367714e-01 -7.123901266114808228e-01 1.285083631954080929e-01 5.590677171963210901e-01 6.636834007209206632e-02 2.768460312139187085e-01 -2.170788847923729378e-02 -5.440437701999888825e-02 3.068897344302525254e-01 4.591637840538904947e-02
4.451791597315094551e-01 -7.279315606631021618e-01 -1.684911064643419137e-02 7.129441553249822316e-01 7.836512852712040900e-02 2.220303678050574991e-01 -5.370414904288570157e-02 -1.202257078193200296e-01 3.551974664834841589e-01 1.563212442253561762e-01
5.784964100940191978e-01 -6.383939815316075350e-01 -5.874896004987811143e-02 7.770128883221288918e-01 6.197824610859964389e-02 9.049628483303154280e-02 -1.094709190695629802e-01 -2.505748522523681965e-01 4.042087772679551771e-01 2.763111096296073099e-01
6.252101046993659983e-01 -4.344646779731076158e-01 -1.101446797834258334e-01 1.829358619970977429e-01 1.863165070211457441e-02 -1.970540138641945979e-02 4.344828449935157488e-01 -3.743505771979980801e-01 4.303310559186870887e-01 3.300031035238085164e-01
6.062474889892015550e-01 -2.512845189757407782e-01 -1.484006136736089609e-01 -6.338981996177486256e-01 1.242194754812460944e-01 -6.163140775022518669e-02 1.380879996515871344e+00 -4.369666704869423768e-01 4.174302002767920072e-01 3.052494453253936091e-01
5.846833457781358545e-01 -1.625289986539779630e-01 -2.027890684478151906e-01 -4.840638877232618653e-01 2.683613520184970347e-01 -5.667466980064555376e-02 1.418460006762565895e+00 -4.722339161874670177e-01 3.549477024356598731e-01 2.645447290941089213e-01
5.861053785254659587e-01 -1.732085442970043576e-01 -2.412056148288925228e-01 -4.527150246526959187e-01 3.212063219419692972e-01 -8.327845138919383328e-02 1.440851908295275763e+00 -5.186810394142616909e-01 2.923285492209745096e-01 3.263665515144716922e-01
5.799173427458733654e-01 -2.595150156324465551e-01 -3.040746291125666634e-01 -5.212117149188226772e-01 2.855267469429175753e-01 -1.009368030935289123e-01 1.512328030672977608e+00 -6.106115720935696434e-01 1.883816134460505609e-01 4.581820424747787279e-01
5.407857594233342891e-01 -3.010305394951153235e-01 -3.319935335295526868e-01 -4.617401192752935146e-01 2.947820875315848022e-01 -1.231012769436922172e-01 1.509859013740049827e+00 -6.832104815820021493e-01 7.945799689523957987e-02 5.028477616466447975e-01
5.042686545769127227e-01 -2.882424986709031800e-01 -2.936500089200904107e-01 -3.235545819880377150e-01 3.091810791108782763e-01 -1.641591361175504249e-01 1.443807438810029931e+00 -7.298619828535912735e-01 8.124832570139012625e-03 4.412946203074944451e-01
4.766599039394579518e-01 -2.832888430309893346e-01 -2.368663644517474964e-01 -2.896056222097066479e-01 2.868282228251412547e-01 -1.776721151774585672e-01 1.442300464057473475e+00 -7.191632664286017329e-01 -2.080863526311593076e-02 3.223680041775092153e-01
4.628936060624446736e-01 -3.279525748873269309e-01 -1.847840608620504033e-01 -3.497119369752393903e-01 1.850544709680194688e-01 -1.742057940631556723e-01 1.428933861809877470e+00 -7.142894301962652293e-01 -2.881942524349124027e-02 2.720574012555296295e-01
4.919553431189984671e-01 -4.876222101191779457e-01 -1.428462656565085143e-01 -3.201655772131448696e-01 2.586998746403518581e-02 -1.555488279106446159e-01 1.285321865753385140e+00 -6.751123565734781229e-01 -9.014689689243599036e-03 2.682852314568724972e-01
5.049419129942533946e-01 -7.520223241741166298e-01 -5.542180825671400024e-02 4.413937623672979926e-01 -2.591614996236405941e-02 -9.242798310864079603e-02 4.818333676706779145e-01 -5.854502686027540648e-01 -1.761599874038656185e-02 2.535236762828889656e-01
4.101974740755536253e-01 -8.875741120034630338e-01 -1.972631681361059278e-02 8.346405321761061202e-01 2.843788669182309783e-02 2.481633944565600144e-02 1.103435153950364234e-01 -4.607462105113148132e-01 -6.830574249190897451e-02 1.710025295880772955e-01
2.214428336088685445e-01 -8.821043927935057205e-01 7.598937690790240340e-02 7.004649996901093356e-01 3.561549535387791704e-02 1.250518604546422274e-01 1.442765672766303520e-01 -3.773898015668317729e-01 -1.342733558359184842e-01 6.076814255443847845e-02
3.836489347323784882e-02 -6.980272083524349247e-01 2.663833091358109306e-01 4.847150214449668648e-01 -4.010920260869942772e-02 8.199399542597296531e-02 7.878416132438455233e-02 -3.846280168894439799e-01 -2.052683493775751267e-01 -3.717102671097181898e-02
-1.044422666761383595e-01 -3.217947837053886095e-01 2.405043788313339648e-01 2.023020501515541969e-01 -1.346249980427411119e-01 -3.107528901691343146e-02 2.578206878913599440e-02 -4.065194454284329351e-01 -3.039727951492977587e-01 -3.964743892601842873e-02
-1.492941826102345271e-01 -9.502186604538054304e-02 8.765574773947985843e-02 7.622394529441221811e-02 -7.940545260140627337e-02 -4.404971587164653590e-02 7.656358393765552717e-02 -3.249315693754010748e-01 -3.102209900029216927e-01 -7.831764771285651405e-03
-1.079606598560482883e-01 -4.327577306856531664e-02 4.123360588113503949e-02 4.398249054927450691e-02 -4.735943324476669242e-02 -3.500242017214715007e-02 6.243928583925317799e-02 -1.905579353305495993e-01 -1.847463630859332573e-01 -3.014923209497271175e-03
-5.988716008382347078e-02 -1.487096291762104137e-02 2.086720593819283570e-02 1.870157811834181893e-02 -3.085682886885812021e-02 -1.167143451765174401e-02 3.171361360643395327e-02 -8.326931202512795338e-02 -6.240846343084168607e-02 -8.482924705638826210e-03
-1.619613286427020599e-02 -3.829820772431758585e-03 8.951239123530005393e-03 5.365057269624655401e-03 -9.602491361077212725e-03 2.322170231187240929e-03 4.157962893850883357e-03 -1.872481934134670109e-02 -8.581424872404864318e-03 -2.569864416176270358e-03
-4.051971227964589611e-03 1.909541688901175531e-03 4.567535812806803805e-03 1.726355844682607010e-03 -1.951044296017113468e-03 2.149360912883508268e-03 -5.445458166990839802e-03 -8.022995940357803557e-03 1.883890590832022673e-03 3.106001036056329524e-03
-2.959343159103640375e-02 8.935364358145816283e-03 2.160292672131080768e-02 5.094855499508152419e-03 -1.155201479544049406e-02 1.901077927235405446e-02 -1.600903140688977877e-02 -2.817318956640206193e-02 1.195821239141667443e-02 9.090091321644226674e-03
-4.357541147556951572e-02 1.039854255624275865e-02 4.074378851832753667e-02 9.382240864906566530e-03 -2.644640605406679834e-02 3.012651743950318581e-02 -3.322285530449538282e-02 -5.352836049611527786e-02 1.785782011454434964e-02 1.375681756236065562e-02
-5.307338304536571294e-02 -8.278902576433969443e-03 8.956710779300093572e-02 2.354321019451773717e-02 -6.171517247880306534e-02 4.789902486890873501e-02 -7.002090542303272824e-02 -9.610980067226244927e-02 3.187107664485018532e-02 1.417607873979070954e-02
-1.311500013298389986e-02 -2.118456293782210731e-01 2.668113192108135245e-01 1.569400976050168151e-01 -1.002155608291459415e-01 1.134030329702623435e-01 -1.599233172673956427e-01 -1.428419900163285516e-01 1.379169684690600695e-01 -7.596343192862782361e-03
1.267946882761531724e-01 -6.015509805029141122e-01 2.701410443169571240e-01 4.915387592205808232e-01 3.987910855043536734e-02 2.914785790021148237e-01 -9.342468172921178371e-02 -1.089163868937484125e-01 3.034947643848610599e-01 8.645206586490674500e-03
3.400822523674765230e-01 -7.464956768760830919e-01 -7.423775295723929191e-02 7.388699007242937045e-01 1.303928242933296844e-01 3.793735493542511605e-01 2.192854495988916935e-02 -1.307020821103274111e-01 3.710255006977690173e-01 1.464550979353382021e-01
5.177117579521502977e-01 -6.191617474005344235e-01 -2.280023072138321616e-01 8.124762698020847607e-01 1.456643377411416876e-02 2.136994125653613463e-01 -1.121083611626486343e-01 -2.818296052849605937e-01 4.002710844279917524e-01 3.016251910066213293e-01
5.905343255759054610e-01 -4.333222488438666642e-01 -1.350668423559499010e-01 7.441548418800031373e-01 -1.031939116224789288e-01 2.693170954543248636e-03 -2.514837512699690802e-01 -4.380298012751849268e-01 4.404961847310350231e-01 4.053849638347006290e-01
5.835997932431786772e-01 -2.593963695713770168e-01 -7.654355480106574128e-02 2.882513473597136944e-02 -1.182836387428768954e-01 -8.282574000878915876e-02 4.196270283007960122e-01 -5.139100622226283610e-01 4.675200896043189558e-01 3.828595137814030935e-01
5.358605285863641265e-01 -1.277045982768120758e-01 -9.157322194755666833e-02 -5.915168345481828238e-01 8.969906881158808132e-02 -7.196364871625741955e-02 1.279533326542975358e+00 -5.234961221146636756e-01 4.395144455873083444e-01 3.186869425360823183e-01
5.036101148056846277e-01 -7.258702498656760538e-02 -1.576733897132524820e-01 -3.519947358354143518e-01 2.777848685817249086e-01 -5.823134011994282599e-02 1.236230592008314533e+00 -5.453441872202430263e-01 3.679559225002628220e-01 3.244932323648847539e-01
4.836745976520290813e-01 -9.658093242932624944e-02 -2.044723396599379128e-01 -2.983478903380712421e-01 3.756133938107677483e-01 -7.846849580508138966e-02 1.260332100435601621e+00 -6.061068134778678784e-01 2.860036090285352772e-01 4.294755949671222317e-01
4.514041040309867969e-01 -1.784846013996135017e-01 -2.303988620084954642e-01 -3.557736917685954681e-01 3.657161189568446380e-01 -1.171765442002475899e-01 1.347095279006107704e+00 -7.228831080720263813e-01 1.581212352668777688e-01 5.550371339730666431e-01
3.915313749425483603e-01 -2.238247444019161592e-01 -2.357786792600743975e-01 -3.159171568006317599e-01 3.727039052099675454e-01 -1.655277116027021322e-01 1.395024100114267362e+00 -8.161718501328892872e-01 2.222605765340043837e-02 5.932950721417299400e-01
3.260729648431413552e-01 -2.193432309904630728e-01 -2.432515315997161587e-01 -1.668637701947967289e-01 3.745530107663562758e-01 -2.108701766161527880e-01 1.334537649291119177e+00 -8.670595291186430353e-01 -7.642111752137668856e-02 5.613265004560642479e-01
2.976452935804898559e-01 -2.124189635367517981e-01 -2.102304896926388833e-01 -1.107919786712356358e-01 3.264716330252803722e-01 -2.493324344353603228e-01 1.333931421242529280e+00 -8.591090302056476613e-01 -1.049754202988017193e-01 4.381210120821496523e-01
2.797451137556470346e-01 -2.371506870520805610e-01 -1.570862748034871914e-01 -1.749391516352718501e-01 1.776233411072358215e-01 -2.685684202152986422e-01 1.302067153259429011e+00 -8.725863218805429700e-01 -1.151484824122325085e-01 3.749003356309294488e-01
3.209090086767048544e-01 -3.367123130239461082e-01 -1.157897311253864581e-01 -2.623491452361293996e-01 -7.755742740215959552e-02 -2.796237539464718758e-01 1.180906761616124623e+00 -8.748417454739824128e-01 -9.772841907437854192e-02 3.619966605116503588e-01
3.731833460343043640e-01 -5.303686199923767219e-01 -1.094894748371080112e-01 3.314212442676335857e-01 -2.131204602004367898e-01 -2.485572188463290866e-01 4.830934246042936087e-01 -8.437977799522928812e-01 -1.078876981639151633e-01 3.733897583459612202e-01
3.523758994974459102e-01 -7.361310283125674925e-01 -1.835981169768175492e-01 9.012697529317252876e-01 -1.153675485691355862e-01 -1.039861349388091910e-01 6.951198854796176996e-02 -7.366787624796710121e-01 -1.514619238162689951e-01 3.393273281578236822e-01
2.001909169640005981e-01 -8.956882842947033740e-01 -1.561081206507629604e-01 8.982093579928708271e-01 2.524443568859731021e-02 1.180989351612047600e-01 2.373181901803201321e-01 -5.915266632147390125e-01 -2.060078456237110223e-01 1.949662323542653841e-01
-2.878640291474864402e-02 -8.442146203560058071e-01 1.766496352729155783e-01 7.103653883031750826e-01 2.627943095866598633e-02 1.334833398108285496e-01 1.899915271267415273e-01 -5.274696428157736872e-01 -2.638582670789051954e-01 4.488990605365267283e-02
-2.054787675350325526e-01 -4.736316959071381616e-01 3.390077410356465704e-01 3.675651786389986242e-01 -1.506808419437996038e-01 -3.036694642791833154e-02 2.760115623960800180e-02 -5.363655861480145504e-01 -3.376845013663631323e-01 -4.073880166284724806e-04
-2.753347857800587661e-01 -1.474915087547666592e-01 1.654265264477612907e-01 1.390739658087143393e-01 -1.452098750771536884e-01 -8.158161086920800997e-02 7.184907186636847742e-02 -4.504297630396527641e-01 -3.714381636105079654e-01 2.559038037585854158e-02
-2.145182152037166945e-01 -4.577946229680596169e-02 6.871300014505545006e-02 6.889837629316848677e-02 -8.598868835251075038e-02 -6.281037048636667341e-02 7.719539156428734117e-02 -2.645479451732748455e-01 -2.208629165024356689e-01 2.175182462319208421e-02
-1.205325206608186539e-01 -1.151948269543459462e-02 3.062201594453379042e-02 2.811629628856172208e-02 -4.916740777361405801e-02 -2.815544380967488491e-02 4.336456442488353935e-02 -9.822683369044990509e-02 -5.625684908862285671e-02 6.613414565496874772e-03
-3.601116434647181480e-02 -6.777257267893383764e-03 6.866841167808565051e-03 1.154110502814250337e-02 -1.678582453013269596e-02 -1.017170247056936767e-02 1.191557564524686232e-02 -1.726806814868221338e-02 -5.508604013081964609e-03 1.646135018802034975e-03
-1.702177864694163698e-02 6.315858388269557713e-03 1.274190628100030885e-02 3.238487855264654200e-03 -6.942650323173885953e-03 1.065249039493207893e-02 -8.985714509430243330e-03 -1.520879798898630737e-02 8.298136553843296973e-03 7.312811035844367195e-03
-5.378972270418774793e-02 2.448711136703462382e-02 4.167284015855644147e-02 1.262885040169727836e-02 -2.781296643246822242e-02 3.541696592356083362e-02 -2.815170203183767206e-02 -4.754279413818753713e-02 2.986391980321453227e-02 2.306454168428473395e-02
-8.241158786123964353e-02 3.193249747988296389e-02 7.525647162801077372e-02 1.612278155827567144e-02 -5.211521075791467755e-02 5.380491947802915759e-02 -6.326300785803247451e-02 -8.126341557735500265e-02 4.599639859074241416e-02 3.700435123451498859e-02
-1.022120494428220283e-01 -8.393075107983602803e-03 1.708074032583852819e-01 4.629250651519657006e-02 -1.078015669541269872e-01 8.232858737358704493e-02 -1.398254631529955716e-01 -1.461237253115713619e-01 9.131915456605109449e-02 4.514103011480306155e-02
-5.491801607925658052e-02 -2.838106061011033687e-01 3.782508241410825200e-01 2.609391574654284507e-01 -1.158349140868661642e-01 1.859498159514719751e-01 -2.337551987269079756e-01 -1.858277159479097829e-01 2.527696026582300082e-01 3.580152353966543216e-02
1.097104166344296805e-01 -6.516131252027823617e-01 2.239466185166353041e-01 6.506613536267018549e-01 9.175279024135950257e-02 4.240434764441340376e-01 -8.034938690666025563e-02 -1.527357871522394550e-01 4.153298727873023233e-01 8.444254497293980644e-02
3.495090622973347494e-01 -6.775821143962549309e-01 -2.129036110467742993e-01 8.097306205884601260e-01 6.721629954854908828e-02 4.392531909558139436e-01 -4.603616288731330122e-03 -2.484845053021950134e-01 4.559735370261438492e-01 2.639906996729043387e-01
4.913149540821121763e-01 -4.519548281711190940e-01 -2.415899419816460170e-01 7.987729319432665953e-01 -1.437006475241421055e-01 1.683364609390809175e-01 -2.760190910342624204e-01 -4.351290575495010970e-01 4.807834642176178619e-01 4.280085040182419198e-01
5.422482118046250132e-01 -2.564807638334886120e-01 -7.797402778320519645e-02 6.889218367167206925e-01 -2.803431350495215746e-01 -5.782722064411329604e-02 -4.183745654638260647e-01 -5.893825772897284265e-01 5.260794839165319203e-01 5.099201558602342033e-01
5.025405347387299493e-01 -1.266822184310417432e-01 2.074431329762910833e-03 -7.028915868757544538e-02 -2.275452035854659549e-01 -8.111443891998201816e-02 3.926446302861152926e-01 -6.143768649127077097e-01 5.459426862366830724e-01 4.365402230274056383e-01
4.334356512859884325e-01 -1.425869333093879657e-02 -1.356576921389655160e-02 -5.078093648690894524e-01 5.390620928238959442e-02 -4.273295550278446292e-02 1.121602238517438010e+00 -6.041013944175059880e-01 5.041662898856651420e-01 3.752491450635391801e-01
3.937868853747917286e-01 3.473915779556995681e-02 -8.124568280854602143e-02 -2.473149387752941186e-01 2.652205433710975724e-01 -4.033218419021804280e-02 1.046797350102796953e+00 -6.188774991381601476e-01 4.216938899384698458e-01 4.077364623711169367e-01
3.428477770440559458e-01 8.409230454680840031e-03 -1.065612251062693222e-01 -2.110128235158099941e-01 3.885009910331240213e-01 -6.555078325572692710e-02 1.084507441967901054e+00 -6.907611995083728917e-01 3.199829089994716269e-01 5.362635183004785810e-01
2.922815501296530116e-01 -7.008436604272136328e-02 -1.442947765708846308e-01 -2.378567326701787887e-01 3.941729960200739402e-01 -1.018662858803183885e-01 1.176492503208050211e+00 -8.127232486007880397e-01 1.732866080609310466e-01 6.595737757451661798e-01
2.183298583154649475e-01 -1.095106833928532891e-01 -1.647988717727986163e-01 -1.993528086238285091e-01 4.012904030663173027e-01 -1.831385343833581703e-01 1.267161745794838978e+00 -9.112035939777891613e-01 2.685088987836590363e-02 7.063274937972794376e-01
1.058211395450807807e-01 -1.132729309873358597e-01 -1.608389450318735980e-01 -7.950379039457683428e-02 3.990164068762101501e-01 -2.650218052329294527e-01 1.257165408123784411e+00 -9.441528990551220080e-01 -7.626361627705387225e-02 6.968972220641128645e-01
6.154586685180621353e-02 -1.042121352951243529e-01 -1.417924631832507554e-01 -6.682180149579820989e-03 3.143465899161649868e-01 -3.373067702504681242e-01 1.260579689895944933e+00 -9.138990225796935762e-01 -9.344770214088946036e-02 5.883497967351982716e-01
6.043826546174253800e-02 -1.404417019044003068e-01 -1.096157452586441899e-01 -6.320392876443874097e-02 1.462157899661030991e-01 -3.687881406238417425e-01 1.257653475271428789e+00 -9.026066835677073463e-01 -7.922667529520766028e-02 5.023241137405138890e-01
1.021870429795693341e-01 -2.442845585352506343e-01 -6.837056397351413961e-02 -1.884560056687794027e-01 -1.544652244875859559e-01 -3.805201046638211348e-01 1.130270731802340833e+00 -9.328924092588710693e-01 -7.002903475765630270e-02 4.895234131064456484e-01
1.759472154192667503e-01 -3.721046064060086755e-01 -6.897059082630968563e-02 2.683879981822624439e-01 -4.039970599082592373e-01 -3.935360616667850642e-01 4.646273137899538108e-01 -9.870597459908160287e-01 -8.875154851389989441e-02 5.037659184613096919e-01
1.917560465517662571e-01 -5.389412649598394056e-01 -1.794704201881237859e-01 8.918199176841710152e-01 -3.399547891087709162e-01 -2.771154526838310872e-01 -4.592378123674391299e-02 -9.242864631918380480e-01 -1.390658333956668047e-01 5.017543201125649333e-01
7.445668006213201906e-02 -7.654850966591536521e-01 -2.537105787182861727e-01 9.592813220138924901e-01 -1.205668241857462131e-01 1.206091874549457439e-02 2.012448723642477622e-01 -7.607852763498209603e-01 -1.953377205617612689e-01 3.711923408450326645e-01
-1.588345702653051195e-01 -8.908092208419142732e-01 5.796333365387708325e-02 8.900794709948646188e-01 3.384231579089778952e-02 1.569296934104521535e-01 3.027012285685942716e-01 -6.331076465132202680e-01 -2.524914707212135845e-01 1.700919297612899228e-01
-3.727495815519698552e-01 -5.839397054334092285e-01 3.991712060890093006e-01 5.368510995703521527e-01 -1.438000767456062701e-01 -1.470757028432659146e-02 8.079385943277361815e-02 -6.153167591314063767e-01 -3.123822677785331181e-01 7.951924041902373730e-02
-4.464801586409755108e-01 -2.036813363750509809e-01 2.775633437820643756e-01 2.262776342056321000e-01 -2.156016333330654233e-01 -1.211068998543965852e-01 6.394384380047883620e-02 -5.286052794570428315e-01 -3.478339308222854198e-01 9.058515837401176496e-02
-3.735409970960906212e-01 -3.810314100505492879e-02 1.128075683717435357e-01 1.020136081614688439e-01 -1.314449417017078126e-01 -9.244236272170462676e-02 1.013572998407989284e-01 -2.971202068733606039e-01 -1.992969029577906226e-01 8.042124854497958997e-02
-2.209553150807490318e-01 3.326867004962388418e-03 5.723743689234209869e-02 4.096454015456910819e-02 -7.735184464043763641e-02 -3.587122542611564935e-02 5.726644493518941170e-02 -9.002571453229253617e-02 -9.822688377864742092e-04 4.382689473572443789e-02
-5.796876924759838262e-02 1.195005949932766414e-03 1.722936619347437831e-02 1.380419096322313584e-02 -2.207582120767093495e-02 -5.591344297220873609e-03 1.534904567611153001e-02 -1.258515291266929306e-02 1.437326807673048462e-02 1.158960045182364992e-02
-2.625860172200884801e-02 1.352678484006650077e-02 1.967295162709536971e-02 5.134127232946209679e-03 -1.248121828981822896e-02 1.781928972650404647e-02 -1.097450701073232268e-02 -1.930388181790861080e-02 1.583620986530951194e-02 1.054671121206849499e-02
-8.326471616785882657e-02 4.338371117179747050e-02 6.392015578690389555e-02 1.468140397583151888e-02 -4.116761981941033377e-02 5.313218524100189050e-02 -4.555673829202348812e-02 -6.074852841295889233e-02 5.465837107368058667e-02 3.980017939219503142e-02
-1.243147456756375641e-01 5.180890322048575108e-02 1.178027188565534955e-01 2.135561051633173835e-02 -7.808687815687037626e-02 8.031121660292363240e-02 -9.990160972824128904e-02 -1.078500665329134578e-01 8.629246181669014693e-02 6.152919715238604204e-02
-1.585776236958793273e-01 -1.130412676789172184e-02 2.707386765629561931e-01 8.239362090480083223e-02 -1.573558999708195572e-01 1.279569162288936579e-01 -2.148016018383859249e-01 -1.857420754805703955e-01 1.773798525702300344e-01 7.784593931765508568e-02
-1.028616732566404041e-01 -3.419391130971535242e-01 4.635827836563950477e-01 3.629473785615268122e-01 -1.053958211636963349e-01 2.824844557281760427e-01 -2.684297426876185444e-01 -2.079450186842000392e-01 3.738234184715655828e-01 7.600351121322314329e-02
8.428396745746989660e-02 -6.493771502929148731e-01 1.701560115791457828e-01 7.445973501540552597e-01 1.087933697098411728e-01 5.393475019487921074e-01 -5.968755063118433291e-02 -1.917079856571468344e-01 5.165563134518835753e-01 1.537600626290592520e-01
3.375890853536352432e-01 -5.906093916470676053e-01 -2.454389490675421004e-01 8.343816170985981495e-01 -3.167103240059838259e-02 4.636818961371255710e-01 -7.375755680477881493e-02 -3.394784419793718810e-01 5.550133128383228920e-01 3.566856699124116847e-01
4.591826311829520502e-01 -3.303250913154601176e-01 -2.046813596374376931e-01 8.101987285120988425e-01 -2.776895607987115433e-01 1.488109732724105794e-01 -4.248330442699239096e-01 -5.424648060234512625e-01 5.806285568013240805e-01 5.329354090364943897e-01
4.881945646990766274e-01 -1.397089866800833302e-01 -4.462898324273184558e-03 6.696806898303959699e-01 -4.149970078514928495e-01 -5.858493613528184540e-02 -5.399897667151309921e-01 -6.837814406970932346e-01 6.304759231950642917e-01 5.892466439866107519e-01
4.149399344374821719e-01 -3.909926232195834461e-02 9.407781342878257513e-02 -1.258066616341457222e-01 -3.330108372110980319e-01 -4.468359735793033666e-02 3.284949657535102818e-01 -6.782140781959414833e-01 6.416646883216957642e-01 4.898908682790468205e-01
3.351908232201037952e-01 7.427037407270699332e-02 6.304046450979650107e-02 -4.556591704880020854e-01 -7.639189897815705683e-03 2.725517136790723497e-03 9.871257219639207880e-01 -6.455552024315706072e-01 5.829155407212323059e-01 4.178275109120923037e-01
2.942781807804014105e-01 1.285439990093089624e-01 -7.042334557533069979e-03 -1.551393849670928970e-01 2.613076557357493779e-01 -7.132064541755727544e-03 9.097136603430715507e-01 -6.685829921479365945e-01 4.915148646597694571e-01 4.789003660323948863e-01
2.304741188744466041e-01 9.537557425214181206e-02 -2.351927472289545851e-02 -1.309875094224187131e-01 3.931156841155518111e-01 -4.074610610287994483e-02 9.519275608463230176e-01 -7.584736827050693186e-01 3.793942448429857839e-01 6.399152737905950961e-01
1.512155689840826434e-01 3.744113728233724320e-02 -5.125385007123726966e-02 -1.572297335958224851e-01 4.071152493430284514e-01 -8.558750707207980757e-02 1.067218723026026606e+00 -8.805137045641581173e-01 2.268297272094625949e-01 7.588351631231654570e-01
5.681791589391569502e-02 1.071011324077158523e-02 -7.195225792722839686e-02 -1.320839829898660389e-01 4.092894930548815480e-01 -1.820728950087226461e-01 1.189926143664565839e+00 -9.586631707018440363e-01 9.568745318555887946e-02 8.152436981674521244e-01
-7.660768712796474367e-02 -1.693320732904812081e-02 -8.468587949344949517e-02 -4.182912576114811848e-02 4.106662967011003862e-01 -2.841477917369608086e-01 1.257451544270742350e+00 -9.408242246226329319e-01 1.010583501848557469e-02 8.256130958655525376e-01
-1.323985772847162123e-01 -3.008745594269201032e-02 -9.047061166692067780e-02 6.565149301610090360e-02 3.126518730093440501e-01 -3.905386786813117017e-01 1.273298105225165067e+00 -8.391307811983245157e-01 1.311678786180378760e-02 7.295278657566774960e-01
-1.326256709111008625e-01 -7.050970062545193484e-02 -7.345764694712400567e-02 1.685368667715610863e-02 1.072381818177631785e-01 -4.426001459502653113e-01 1.280818692020785576e+00 -7.534831657782751213e-01 5.537198135097468749e-02 6.191179124400699729e-01
-9.175896557495466510e-02 -1.682509709823648003e-01 -2.691808510232186064e-02 -1.441836788726619245e-01 -2.643630670212412936e-01 -4.583833954665677002e-01 1.126365431808141970e+00 -8.012414153116419469e-01 8.168226335416631234e-02 6.081983164658057994e-01
-8.822328537864050982e-03 -2.732237326362693675e-01 -1.995021192540050864e-02 2.703424757215548979e-01 -5.439971231513706096e-01 -4.849212465834449315e-01 4.675128822144979934e-01 -9.237738774058197322e-01 5.632221271731261553e-02 6.335519708472076017e-01
3.380176273221823652e-02 -4.134349455872602941e-01 -1.525879730510522891e-01 9.037581002892265403e-01 -4.917879497050309801e-01 -3.914422943728926296e-01 -9.234533123771940244e-02 -9.169627722647935020e-01 -7.482187255053286169e-03 6.440869196484667603e-01
-5.367743462735865417e-02 -6.552925095575286019e-01 -2.833945788620565454e-01 9.821838711376695841e-01 -2.607324743505687326e-01 -9.772250849321512112e-02 1.647767268165179488e-01 -7.522668546852587790e-01 -6.309192371095717622e-02 5.304697744925065406e-01
-2.806454671841632220e-01 -8.712716210367111858e-01 -3.280279644300151953e-02 9.822788091163776603e-01 -5.203792411976605227e-03 1.560602874303789189e-01 3.979887152167901343e-01 -5.871142100407699127e-01 -1.124089695335103167e-01 2.988439859362834738e-01
-5.235121628053517329e-01 -6.540245778713578151e-01 4.076125165869705635e-01 6.754819580540852852e-01 -1.211350601194271376e-01 2.449338735044778378e-02 1.958509720333719561e-01 -5.335719343988105656e-01 -1.742147179962312553e-01 1.602628169956852866e-01
-6.037542636229126236e-01 -2.564296707981902346e-01 3.704651189616648410e-01 3.141419403337761262e-01 -2.674112624099836411e-01 -1.468338478784001200e-01 1.044119167783992691e-01 -4.594248673088242585e-01 -2.205346011212741542e-01 1.634469929045977432e-01
-5.262487154206576534e-01 -3.824590584171934371e-02 1.688775529383059471e-01 1.392595998485050834e-01 -1.824059134777480662e-01 -1.220673802520183537e-01 1.571161319346660590e-01 -2.278871179818395820e-01 -1.103509948795409618e-01 1.490320124517791056e-01
-3.149509728447791312e-01 2.575279833140758576e-02 1.006915421617623069e-01 5.350465450003392270e-02 -1.076555480184935437e-01 -2.513297089369825876e-02 7.944432592593303477e-02 -4.997781095922081140e-02 7.520302729185077140e-02 9.048721852473533278e-02
-7.684967688584672107e-02 1.473823961218068829e-02 3.281250179286818863e-02 1.495510805779482096e-02 -3.005965893626441621e-02 9.095213365269780997e-03 5.885180302627505793e-03 -1.172016081813157667e-02 3.898702345618296899e-02 2.402919480135901759e-02
-3.664648805533703840e-02 2.037940885360684309e-02 2.542614284293131729e-02 6.081775765667384731e-03 -1.662824349132223378e-02 2.226840210539909187e-02 -1.814953198915899082e-02 -2.278571685892643445e-02 2.290493200961510323e-02 1.684305844580214970e-02
-1.108047826253930890e-01 5.845964953201044506e-02 8.965522928972899375e-02 1.675906810222006771e-02 -5.553241799641692872e-02 7.200734063831033815e-02 -6.617034120793581498e-02 -7.551739141768513963e-02 7.942038091082068152e-02 5.258158336634587843e-02
-1.591889591392066372e-01 6.814396860839114223e-02 1.658565445693671592e-01 2.603124320504109079e-02 -1.041819630203067309e-01 1.083457385165877696e-01 -1.301293625748734251e-01 -1.258075796035683924e-01 1.288191542197349160e-01 7.782408882103060421e-02
-1.871788169759938114e-01 -3.804046502635801547e-02 3.640540007487887419e-01 1.246596324272454259e-01 -1.923265478560816644e-01 1.660648997399926108e-01 -2.635528413034801121e-01 -2.110490799207969670e-01 2.503172827470602768e-01 9.135816699685793407e-02
-1.420377752909395275e-01 -3.752388135614633802e-01 5.053241640228833820e-01 4.419687692298249759e-01 -7.976784239722223280e-02 3.883654575870949532e-01 -2.533419317713295760e-01 -2.193678575035316047e-01 4.648257056785076724e-01 8.844628919866479033e-02
6.646222380830146825e-02 -6.197425855798079919e-01 1.029862404721297170e-01 7.947483148223885019e-01 1.029108112458398117e-01 6.344766374703086909e-01 -2.307642857236837444e-02 -2.310407326491078495e-01 5.932559801701258184e-01 2.046394795160842994e-01
3.176755299070953553e-01 -5.175795900955691975e-01 -2.383297444370328644e-01 8.517040099825281541e-01 -1.161343415118204075e-01 4.940394749315840661e-01 -1.295878815757989244e-01 -4.103290847992638324e-01 6.399313773231047886e-01 4.154522207847587412e-01
4.379348319397579625e-01 -2.797410984624065788e-01 -1.717142586567022011e-01 8.562513891805850763e-01 -3.571906036847011801e-01 1.867233215297594284e-01 -5.019931125618222190e-01 -6.116569108132209331e-01 6.736959786395860794e-01 5.966742179419799452e-01
4.357620414369288153e-01 -7.562118869868776627e-02 5.680841895345190712e-02 6.733836610011901813e-01 -5.051670636253532409e-01 -1.303483329338424486e-02 -6.048077208886700751e-01 -7.435767272106805770e-01 7.199119461295298006e-01 6.324922615360605294e-01
3.464789574569381858e-01 2.294762987184967643e-02 1.659406208022595475e-01 -1.558561065838413306e-01 -4.466279902287352277e-01 5.636994697335371944e-03 2.625956034722942700e-01 -7.186636819995182446e-01 7.259798532976302621e-01 5.181398515902742030e-01
2.705768254653532212e-01 1.260600784552010079e-01 1.195644453950066993e-01 -4.235366850583120457e-01 -7.557804345272443880e-02 6.113098179434886537e-02 9.195877302600602432e-01 -6.628857205797008545e-01 6.534551968088971874e-01 4.202568250041603393e-01
2.141102888263279602e-01 1.932088400011918450e-01 5.734254047813346078e-02 -5.839950414073567797e-02 2.640590914262077038e-01 4.468241289391885335e-02 8.198271652718041036e-01 -7.093372854240477254e-01 5.495805537042409705e-01 5.322089209897018502e-01
1.333955374916959147e-01 1.649310499470791058e-01 4.059665709232545411e-02 -4.377271867842075226e-02 3.944516331838109346e-01 6.099709365915660653e-03 8.688917884671092384e-01 -8.095710479925681824e-01 4.240780390027454327e-01 7.154931355457683217e-01
4.787203241486953642e-02 1.141823703798726386e-01 2.293800637813402099e-02 -4.291028015909136711e-02 4.013230552904958337e-01 -4.369798529290372380e-02 9.684600903140715422e-01 -9.171422152671185879e-01 2.730451888163951124e-01 8.208908537653319959e-01
-5.292413073016142416e-02 8.806823706680205754e-02 7.332088377545347910e-03 8.115877225429478370e-02 3.831377511690869930e-01 -1.471966050422157946e-01 1.003996913679817027e+00 -9.660754627787323523e-01 1.640663251021150792e-01 8.748857976158602723e-01
-1.979472293496818969e-01 5.969703571504113987e-02 -2.146865737229433288e-02 -2.953851613129138132e-02 4.088018511161015112e-01 -2.684984493368864911e-01 1.338175456853733181e+00 -8.677957912541819363e-01 1.136133606475563523e-01 9.200807874561031108e-01
-2.604819489792422615e-01 1.834382363578438910e-02 -4.673307782056480841e-02 1.237726464802947762e-01 3.175510504549240443e-01 -3.967109546170937695e-01 1.367135748753479207e+00 -6.562452444929965933e-01 1.359036795743543136e-01 8.439128351395261962e-01
-2.456236978800007409e-01 -4.283174571905053185e-02 -4.491395184561024212e-02 5.786352483418642778e-02 7.348576671813661365e-02 -4.567596361212198919e-01 1.414274191083383148e+00 -4.915275541670142689e-01 2.013210955594214591e-01 6.967421565082116963e-01
-2.184254357280294434e-01 -1.332543805045264540e-01 8.370962267395427869e-03 -1.412859145763454283e-01 -3.753926293270351544e-01 -4.904441327214865698e-01 1.235633334772069603e+00 -5.371158859878847336e-01 2.587189805812113996e-01 6.672056808544193363e-01
-1.476204305562490438e-01 -2.123607722765157857e-01 8.046332818176427440e-03 3.047285163766281224e-01 -6.431445487628751900e-01 -5.378404237950075162e-01 5.318733889573750151e-01 -7.204440141742087800e-01 2.320091664648569196e-01 7.322513694339599644e-01
-9.535151871021703418e-02 -3.707916704100326921e-01 -1.573871016099583631e-01 9.534184221455545005e-01 -5.810903613532671930e-01 -4.515813486334157023e-01 -1.477673846166470536e-03 -7.381735322910965014e-01 1.721764640057464046e-01 7.454324642132016399e-01
-1.524145780852443621e-01 -6.020911529828253395e-01 -3.038501181171977539e-01 1.021490313346859802e+00 -3.601695406061113935e-01 -1.710669894849873029e-01 2.283246491738892547e-01 -5.942574445570661945e-01 1.272613905967544257e-01 6.404037576310848134e-01
-3.545149916520198841e-01 -8.298630736311776168e-01 -1.257052851138352467e-01 1.019525694596573162e+00 -6.505919216573466390e-02 1.287961662372366645e-01 5.195999883944083519e-01 -4.129577460119498444e-01 7.774129439128080188e-02 4.022061826233775395e-01
-6.375536227101712416e-01 -6.998445562139942178e-01 3.736296174243866064e-01 7.757957120666819639e-01 -8.684571935078606864e-02 6.292679600253359151e-02 3.822312985267187768e-01 -3.314695105645369955e-01 -2.967343006261255293e-03 2.184050541995952721e-01
-7.258780468216738946e-01 -3.075621740510113278e-01 4.416852482240310462e-01 3.919523168307395000e-01 -2.922111550419608239e-01 -1.540355122308442459e-01 2.136557853034868892e-01 -2.802800927451470914e-01 -6.145107045450154404e-02 2.173339499706299915e-01
-6.387392935901750057e-01 -6.396108557068601319e-02 2.306878375846642404e-01 1.753261361023769060e-01 -2.264515729116815812e-01 -1.507269876494023719e-01 2.525388498443007501e-01 -9.376644768977780708e-02 -1.562971107952058555e-02 1.986395945532064555e-01
-3.720754270906160288e-01 4.362893758690222085e-02 1.481250082910655907e-01 5.951194089389903047e-02 -1.338222159216081175e-01 -3.123651866057521997e-03 9.932201673821496046e-02 -2.463456927052958337e-02 1.135624644391303312e-01 1.180939112202112617e-01
-8.714745368840186301e-02 3.041610584004363071e-02 5.042668701951027316e-02 1.196756605183389374e-02 -3.684825334731058749e-02 2.888422273897332457e-02 -1.052739896282542907e-02 -1.920849467778456415e-02 5.345426410247748616e-02 3.947312083827764911e-02
-3.901097152611611441e-02 2.477171653515622407e-02 2.961719635310644180e-02 7.697633144223626697e-03 -1.919283419961622522e-02 2.375981731243273151e-02 -2.591905452055228570e-02 -2.405699859289004219e-02 2.667514915502225761e-02 2.100143050159787236e-02
-1.267833524789631905e-01 7.115736089906554707e-02 1.112725352041903787e-01 1.731732465706858903e-02 -6.773508918249249167e-02 8.793110485771073181e-02 -8.027869741567604522e-02 -8.609021830379749718e-02 9.555412984458686032e-02 6.158423137975680556e-02
-1.834665421528853257e-01 7.753738232929033303e-02 2.166427144101461810e-01 3.804712042608811989e-02 -1.334663429488990860e-01 1.330128755044210076e-01 -1.593815522494837766e-01 -1.490723470926584582e-01 1.657266768362851139e-01 8.387310264819286543e-02
-2.098037328469052332e-01 -5.349006504618174229e-02 4.350197354189676568e-01 1.629914977726840131e-01 -2.092739851331931467e-01 2.133006225012920309e-01 -2.845510775956325289e-01 -2.249896290027960377e-01 3.045957498827873144e-01 9.425672221030277631e-02
-1.799246403006430073e-01 -3.798040761204227733e-01 5.065721387619206428e-01 4.881444549249466802e-01 -5.049998789096946106e-02 4.990701976909436843e-01 -1.892635031112026578e-01 -2.233858182608036147e-01 5.202761088797851485e-01 8.343459859434872172e-02
6.649057214459036524e-02 -5.649424127066885459e-01 1.286875904234299761e-02 8.040517491566365749e-01 7.749517197881559960e-02 7.056223332804888448e-01 4.692287713534669391e-02 -2.684651413015546884e-01 6.310858225394671006e-01 2.195587674081065366e-01
3.017446229991725959e-01 -4.313013741501934284e-01 -2.319455591680373852e-01 8.397003432796531497e-01 -1.987856493163246974e-01 5.171079695544853472e-01 -1.498870011044280415e-01 -4.708216419077694281e-01 6.848488908220801141e-01 4.268406326380452809e-01
4.307418618874634952e-01 -2.380186477275348378e-01 -1.692706714439931870e-01 8.935756020153611257e-01 -4.200180727905367672e-01 2.535113591049454329e-01 -5.083474518451412960e-01 -6.716869316548153002e-01 7.470201311949488110e-01 6.129785828094049815e-01
4.180320976593455695e-01 -5.617554330097669982e-03 7.763068098014937191e-02 6.540668023287993238e-01 -6.113502459148034696e-01 1.830450589987882987e-02 -6.339365827259860753e-01 -8.075999208539005325e-01 7.774794827716930978e-01 6.461060200755831540e-01
3.120564362519444024e-01 5.753582352028566160e-02 2.164054936831003861e-01 -1.577803348155330521e-01 -5.372826851789114233e-01 5.885501959225899332e-02 2.276955463668791924e-01 -7.322239792794351665e-01 7.781157218216581128e-01 4.876563448245496146e-01
2.347732245637438042e-01 1.542976385925551308e-01 1.585477826435664761e-01 -3.889270605054154784e-01 -1.045628211759436349e-01 1.211637680048674170e-01 9.066764543646838037e-01 -6.631226434641693812e-01 6.900526254299779172e-01 3.912615541424029897e-01
1.672816327184438456e-01 2.333567845283165965e-01 9.405755462086239083e-02 2.663124585963550645e-02 2.944539874021254167e-01 9.306386967173932434e-02 7.811059334376337926e-01 -7.387712451135700631e-01 5.686956766429976939e-01 5.566413496648990877e-01
8.146058340538711584e-02 2.091585177308884214e-01 9.249812368931822903e-02 -1.205461776973079484e-02 3.740660626718957937e-01 6.228495025544939639e-02 8.683671356340857406e-01 -8.504152555219531839e-01 4.504793858976299248e-01 7.494570926609389616e-01
-8.532321151828154912e-03 1.907822114209774822e-01 7.526156471722014740e-02 7.891747003942409244e-02 3.753187077003138361e-01 1.156672828796828558e-03 8.987543023454716007e-01 -9.338973156166572309e-01 2.829701135274410029e-01 8.495506237529445448e-01
-9.489053457575348516e-02 1.792833568113802456e-01 6.230185701013858657e-02 5.796689896461528768e-01 3.241816361359683429e-01 -1.162018245611854544e-01 5.589954822398386369e-01 -9.597840831738284617e-01 1.713991160289398408e-01 9.063364447421967673e-01
-2.284216065197533230e-01 1.139560649480819560e-01 4.215412482681635264e-02 -2.212696409720977739e-02 3.640014376957952380e-01 -2.262399296771520352e-01 1.475311890883126642e+00 -7.465351119138501357e-01 1.341931676844282106e-01 9.836350988273584450e-01
-2.536222228756304098e-01 4.177814843745421974e-02 2.533600565890031450e-02 1.385718972081455558e-01 2.850429289159501223e-01 -3.564071571132454430e-01 1.550995608394850400e+00 -4.658646295586497121e-01 1.257012087237436015e-01 9.154976871797170235e-01
-2.196454560356699282e-01 -3.392960383077621433e-02 2.947314030936516380e-02 9.888479388113169399e-02 3.235484450372558968e-02 -4.166351325944390727e-01 1.580621438763114117e+00 -2.630254649823428048e-01 1.936121083521082920e-01 7.483612410532641812e-01
-2.502085746016029510e-01 -1.351998427238752243e-01 5.898262923331091395e-02 -1.486385633320592703e-01 -4.612515764034633148e-01 -4.773505275238747458e-01 1.401914115365469726e+00 -2.836497994478085483e-01 3.513799223305226760e-01 6.742910243487623134e-01
-2.191784541999291513e-01 -1.720130528780946799e-01 5.073740693286522135e-03 3.457461952930014903e-01 -7.428705683154852579e-01 -5.852483051835555283e-01 6.290199886482412683e-01 -4.873295300727134571e-01 3.610738062950600291e-01 7.735671326177685492e-01
-1.594579973861074695e-01 -3.520397665857766811e-01 -2.114208996652666706e-01 1.005320304527190789e+00 -6.574576726155588746e-01 -4.984490015666547813e-01 1.750113699183439009e-01 -5.096418286238979523e-01 3.185120416785950370e-01 8.339298657903877476e-01
-2.194344489338940218e-01 -5.869194373758799266e-01 -3.310210604421174319e-01 1.067140719383854908e+00 -4.244842583394198288e-01 -2.317983864310008968e-01 3.995181952329751596e-01 -3.458753564330129260e-01 2.868767137330082706e-01 6.976758981242721092e-01
-3.970453179155228884e-01 -7.708953169001094841e-01 -2.299756972814258893e-01 1.022805283758662975e+00 -1.339085819624168394e-01 6.873101625292446504e-02 7.181547653512805329e-01 -1.564868051075385680e-01 2.198840303892728998e-01 4.735659545443148821e-01
-6.943514468603376733e-01 -7.298369595101326102e-01 2.973086561754592072e-01 8.347927319097379062e-01 -5.541177145156431227e-02 1.064257541200505364e-01 6.557456880272414246e-01 -6.983977566718077568e-02 1.172619471264216562e-01 2.476725245098158890e-01
-7.914046315520957275e-01 -3.442164583973532643e-01 4.835138513592984189e-01 4.464380974290412807e-01 -2.936004741398530182e-01 -1.334851342033958332e-01 3.902364106632878471e-01 -6.935926611943368791e-02 2.986094200501036161e-02 2.382740436706920206e-01
-6.935949711305946508e-01 -9.386015720221661807e-02 3.030002680643651414e-01 2.160742413055036226e-01 -2.658945666656930551e-01 -1.591499372714742788e-01 3.688248327723696596e-01 3.421430169245897462e-02 1.592405980533819279e-02 2.301193879692575439e-01
-4.065666975687082241e-01 6.153114098016295580e-02 2.106144519407569249e-01 6.179865273222188982e-02 -1.618724918754153586e-01 3.642603047684436768e-02 1.196706692361565738e-01 -3.333676283532554380e-02 1.022108026899478939e-01 1.391598624636912751e-01
-1.007009414378172707e-01 3.810179660520109785e-02 6.918688379793562493e-02 6.552943769175679188e-03 -4.284732801280482367e-02 4.689020234508349538e-02 -1.839611485205978197e-02 -4.296642392618778977e-02 5.062875600396960635e-02 4.264967953370181475e-02
-4.258135139421551779e-02 2.978801272771423175e-02 3.531810305566789043e-02 9.355142576262917911e-03 -2.224628411054858229e-02 3.002866067580381090e-02 -2.426537084588725746e-02 -2.292828085358578072e-02 3.043382272802258245e-02 2.468932716493070847e-02
-1.494693379894046215e-01 8.675813232345304382e-02 1.394921434432594143e-01 1.892711238684838260e-02 -8.274686707160397448e-02 1.096813782377558388e-01 -9.166162687770118556e-02 -9.806068921578178776e-02 1.162612422096668402e-01 6.882340137623292609e-02
-2.054255090160974628e-01 8.588081960774884838e-02 2.556913522216889834e-01 4.819532321954224374e-02 -1.524182456219711768e-01 1.612354914150073981e-01 -1.679764726901021854e-01 -1.607753357813513639e-01 1.894458160458050988e-01 8.511814748695462063e-02
-2.282829739167326621e-01 -5.600045521181341163e-02 4.694809837874303060e-01 1.832655755055853930e-01 -2.028251455640943113e-01 2.637006984270396925e-01 -2.634674767528898398e-01 -2.353598335898749172e-01 3.330754425674993802e-01 7.806754660243700461e-02
-2.157161875769816883e-01 -3.536664520667899270e-01 4.832937581121086179e-01 5.079390765379576678e-01 -2.495207768557596364e-02 6.007163558492206734e-01 -9.654447276975494652e-02 -2.327506373989089994e-01 5.531425391862256902e-01 5.929545948960678742e-02
5.948831424731806927e-02 -4.763773770425289156e-01 -7.518759217043512189e-02 7.782171464530657223e-01 3.581461337232757364e-02 7.662460646733653125e-01 1.363670553739970426e-01 -3.102450727776427386e-01 6.463713673356598077e-01 2.076978127520482387e-01
2.758601428984088222e-01 -3.197437318085140645e-01 -2.398336683983957884e-01 8.054289683651491005e-01 -2.686033268097646198e-01 5.469132590363015023e-01 -1.192086255744628925e-01 -5.216704320472935752e-01 7.053726014467820438e-01 4.075058446290005798e-01
4.161230552434482255e-01 -1.313996154879731593e-01 -2.038003962608080921e-01 8.724248715356978101e-01 -4.835679561364442103e-01 2.995391132744831264e-01 -4.655011261071947959e-01 -7.285580562109856828e-01 7.728537643262197721e-01 6.023148974824025226e-01
4.108931599243946242e-01 1.038804153631704974e-01 9.273979258520856361e-02 5.990209602655395260e-01 -7.371148842024914938e-01 2.765520566788062101e-02 -6.511281486338010849e-01 -8.726774669391390571e-01 8.047952655855458159e-01 6.230097518124940725e-01
2.987724155456842889e-01 7.279437801904763139e-02 2.757369705670086324e-01 -1.082782376919635275e-01 -6.037804032901308293e-01 1.174107056179865272e-01 1.979419255433721714e-01 -7.413695407451658115e-01 8.227976195684342242e-01 4.172246051638116016e-01
2.169247158931232045e-01 1.845785757400734417e-01 2.065991883544818497e-01 -3.380838755712313182e-01 -1.157405234655763115e-01 1.698207239235522137e-01 9.123683480957330838e-01 -6.825093743364010201e-01 7.120179146348024624e-01 3.508657664234907103e-01
1.311794708452673763e-01 2.993051164408142006e-01 1.406499859588976886e-01 1.034433183225759445e-01 3.085081858282878731e-01 1.386841355701003142e-01 7.741314561785860304e-01 -7.860536997304592433e-01 5.719215694605488398e-01 5.530818451186965135e-01
3.226316601117521637e-02 2.826036742968396909e-01 1.642798666509521499e-01 -6.738375571583501457e-03 3.494523625237409559e-01 1.257107667301275433e-01 9.230640587644816097e-01 -8.956114791668694508e-01 4.371702676084943118e-01 7.541820526246345580e-01
-2.332873515966909020e-02 2.765914627401960257e-01 1.498437477838431009e-01 2.598892223831744119e-01 3.571536419085336589e-01 6.740736705370189985e-02 8.350996831084329663e-01 -9.626866400755138553e-01 2.250920759928187187e-01 8.664555770093714804e-01
-3.713935677538759278e-02 2.775371380383373499e-01 1.679078068728721007e-01 1.004324121371281020e+00 2.647689177477330902e-01 -4.207570851669355932e-02 3.053602920974676782e-01 -9.368575017984549502e-01 4.317912493730285961e-02 9.458460989301595845e-01
-1.143183949456248183e-01 1.860927969634640355e-01 1.675876808429536680e-01 1.014601091316720029e-02 3.074587048566514991e-01 -1.521600893964971113e-01 1.665818711112630357e+00 -6.138234036483377620e-01 -5.369040902148458638e-02 1.017154471534491789e+00
-1.066634235311393897e-01 1.046283684199808828e-01 1.660469171422785661e-01 1.609388677044133187e-01 2.336415491494173435e-01 -2.661217175446367600e-01 1.749789250886068626e+00 -3.342122654728371112e-01 -8.872097659003644332e-02 9.580462693215728853e-01
-8.323526500995316602e-02 2.946088368893455198e-02 1.600250428880217735e-01 1.505808050059495584e-01 2.360617251133353446e-03 -3.255433516176094444e-01 1.718607285383777938e+00 -1.560175257475706345e-01 2.436330933491386366e-02 7.604550633439683960e-01
-1.911714803045949929e-01 -1.364774854134719884e-01 1.520357139262324409e-01 -1.542707014826211198e-01 -5.322777424690932069e-01 -4.030309237984657789e-01 1.563814080805697726e+00 -1.170400694444277412e-01 3.212415969968709928e-01 6.282583130968771856e-01
-2.449445321273879816e-01 -1.154785620527678802e-01 4.207629834578113098e-02 3.911917907483706269e-01 -8.578839059870636552e-01 -5.956836813038414169e-01 6.785641405895568301e-01 -3.405552862124217040e-01 4.219796843326439340e-01 7.740476969629489501e-01
-1.811176808425370155e-01 -2.575943547736440076e-01 -2.867647961928456724e-01 9.983541451666124722e-01 -7.527992809175629851e-01 -5.164463875669397241e-01 3.208559993044265424e-01 -3.777813402484234140e-01 3.927054214992291015e-01 8.787592950929593583e-01
-2.658638045999329180e-01 -5.094112460209191395e-01 -3.732104659568979965e-01 1.061098322009075501e+00 -4.748284733985962403e-01 -2.279220856556873620e-01 5.924508006563901086e-01 -1.717049804932705703e-01 3.595471728995172644e-01 7.209791866305784724e-01
-4.036875851937026249e-01 -6.754041852011096747e-01 -3.153484791080463645e-01 9.861710967423893415e-01 -2.055279446413566802e-01 5.002184750418943449e-02 9.127620950176088543e-01 1.427253800361082126e-02 2.667826960059140329e-01 5.001444768669657259e-01
-6.870050329529497901e-01 -7.085064153014599686e-01 2.163789511901451079e-01 8.504175205620769784e-01 -3.922906268808136476e-02 1.834869740375865699e-01 9.293969886099929800e-01 1.123983944695182979e-01 1.319589412167697928e-01 2.389868480425360875e-01
-7.808619109097987288e-01 -3.384975698054043525e-01 5.377439223155017212e-01 4.826747728795731662e-01 -2.989511024954462082e-01 -5.039129011294460336e-02 5.940599248745814798e-01 7.272854945437108587e-02 -4.022790204610026017e-03 2.425863149389027307e-01
-6.742143602932387791e-01 -8.506559575746394652e-02 4.036235229516751954e-01 2.466216919033822341e-01 -3.157957961693839133e-01 -1.019548406678524033e-01 5.186858193611864065e-01 1.114947246033864275e-01 -8.371923052367002960e-02 2.536944501491365522e-01
-4.122157476661902353e-01 8.319505455992430576e-02 2.910653447524921833e-01 7.066649217290463247e-02 -2.001984434198889606e-01 8.524951586308000817e-02 1.608660377606477287e-01 -6.047809153601903936e-02 2.522425536260569645e-02 1.631711484165924153e-01
-1.152237035711937835e-01 4.822627658661145927e-02 8.841069730377207336e-02 3.969676550753426479e-03 -5.155380656702708564e-02 6.172522731232515936e-02 -1.196561597044501837e-02 -6.171326090766839773e-02 3.481955418615161751e-02 4.356232482591511357e-02
-4.511565602307762018e-02 3.309701960978949503e-02 4.298663168477703106e-02 9.519968263235053726e-03 -2.642381350602046597e-02 3.536113804988123832e-02 -2.726223521822952744e-02 -2.627886131352433555e-02 3.408011349616909408e-02 2.684325995076126958e-02
-1.720675477318047986e-01 1.034690227617085928e-01 1.613551818135227633e-01 2.193690557154467924e-02 -9.260940727595538824e-02 1.318512737638166399e-01 -9.729724928209962376e-02 -1.107774880728456396e-01 1.319878841476176401e-01 7.626078282222825688e-02
-2.189551284954344423e-01 9.768975119988716760e-02 2.670525297959826516e-01 4.335420561220827695e-02 -1.536997138161557142e-01 1.876846233781754303e-01 -1.456228351981824209e-01 -1.673536359791709949e-01 1.922636799803046082e-01 7.195334104301888412e-02
-2.692957753904745011e-01 -1.366703418029535828e-02 4.550192485579110935e-01 1.656174055202737083e-01 -1.842604491259234312e-01 3.321945160845762302e-01 -1.799030916491170806e-01 -2.391564314751707110e-01 3.323830309249430348e-01 4.939744492924040553e-02
-2.576049987064127356e-01 -2.754987083315761365e-01 3.939183004311755387e-01 4.682135413533444201e-01 9.905310887872002118e-03 6.982730372124930085e-01 5.776179027869159793e-02 -2.277100394664980654e-01 5.405358205345767164e-01 9.908110020591354497e-03
4.824851407788226243e-02 -3.419224013033685949e-01 -1.941944431876505561e-01 7.039477386536191483e-01 4.173657431552961657e-03 8.075615047184776518e-01 2.633410075989883747e-01 -3.291829547942609624e-01 6.193854542435269783e-01 1.630918186481042920e-01
2.480169817658882392e-01 -1.688807713288310308e-01 -3.169592138447644980e-01 7.173720499663359673e-01 -3.135644062117003972e-01 5.677434432477188597e-01 -2.235762850595989989e-02 -5.436495696998767668e-01 6.778065847007955780e-01 3.589085746395854204e-01
4.023349183630710590e-01 6.163277777235746935e-02 -3.135608615331190729e-01 7.492922146587089882e-01 -5.667410214285497627e-01 2.908998664385218924e-01 -3.879377110052426580e-01 -7.682009548672349419e-01 7.244602699955363656e-01 5.670325043828560174e-01
4.051502147028910872e-01 2.222815879251284488e-01 1.203046432604303051e-01 5.176547609560597785e-01 -8.585980987308973189e-01 1.722789400829746742e-02 -6.418354069168953346e-01 -9.144924293385083836e-01 8.063066105445987342e-01 5.441464288395260196e-01
3.082954535878080771e-01 9.421078209581537632e-02 3.064549335736759805e-01 -3.655313611020132719e-02 -6.516957467510864355e-01 1.626315977913326827e-01 1.818333017676532493e-01 -7.338829829117550219e-01 8.428136545470803487e-01 3.210234178725580034e-01
2.245470442342885342e-01 2.356665187640556991e-01 2.133999079682230571e-01 -2.678943630191317204e-01 -9.815151262534503596e-02 2.125802664170078904e-01 9.331386021453207391e-01 -6.993723441330911283e-01 6.982838622755275226e-01 3.256998334853734578e-01
1.325282860860450829e-01 3.743805695933801192e-01 1.947327850462032828e-01 1.611904621802176807e-01 3.068415721149850284e-01 1.937295377321957002e-01 8.042062492791998141e-01 -8.324638679971937405e-01 5.150125899611315283e-01 5.579467576856453892e-01
6.595938783252269788e-02 3.854199579810196896e-01 2.572642273442173888e-01 -2.276546608684094073e-04 3.159738472091521144e-01 2.127736666055674575e-01 1.033722079738668143e+00 -9.412731627949881830e-01 2.923203831542872111e-01 7.604232855603392238e-01
1.103733977886560275e-01 3.714584966143891775e-01 2.379377548970010026e-01 5.258994919962007852e-01 3.420885301191641803e-01 1.517481056489682900e-01 7.878334430864315507e-01 -9.452673235485885561e-01 -5.204378762037441264e-02 8.829545478899635258e-01
1.453790856835396050e-01 3.314198699248038782e-01 2.648206482728559519e-01 1.234974960070265748e+00 2.153921711900446401e-01 1.291032203733880925e-02 3.354707516268611855e-01 -8.101680123883818752e-01 -2.385776127577537986e-01 9.322944053024124766e-01
4.689161134308651724e-02 2.123514202821281116e-01 2.210750034485126914e-01 9.999075063370832517e-02 2.938776153746596176e-01 -1.186974856864608102e-01 1.844052909069463508e+00 -4.554107982973719659e-01 -2.729762659221051657e-01 9.804588268795511041e-01
1.119102860910717312e-02 1.300718771153560882e-01 2.029768712682558929e-01 1.855157777045999545e-01 2.183792341739025922e-01 -2.156552906805830616e-01 1.892321923659653571e+00 -2.519536749748784721e-01 -2.355198374930809468e-01 9.198534527495799695e-01
4.217041680702341561e-02 8.449902004050582893e-02 2.011970377516383579e-01 2.416594243116500507e-01 3.179252560175883230e-02 -2.602681912480108717e-01 1.836553137020521698e+00 -9.157886418770946890e-02 -1.376633109186681247e-01 7.494849882348663117e-01
-2.085342358007353722e-02 -1.164546428141181866e-01 2.059556047082919950e-01 -1.126780735584267112e-01 -5.601997690507093397e-01 -3.291009032937265433e-01 1.720363458567214066e+00 4.111291650932834274e-02 1.879632559597607111e-01 5.766261929156913935e-01
-1.637038635996736213e-01 -5.339343875784374749e-02 1.258777353011447664e-01 4.105569546140864223e-01 -9.626357101449866116e-01 -5.679050235308517047e-01 6.830535332383920188e-01 -2.440716482438127777e-01 3.773930552640732405e-01 7.161547424608561974e-01
-1.441306691029067000e-01 -6.779096759326777577e-02 -3.457741162240536292e-01 8.869339882644369233e-01 -8.871012973056200401e-01 -5.463711281200068770e-01 4.007873758771732242e-01 -3.273799101266212097e-01 3.529088949216322435e-01 8.718393064718285013e-01
-2.592691888505698206e-01 -3.409516802533784086e-01 -4.690003814062536081e-01 9.679659512032408042e-01 -5.215404902515714536e-01 -1.834803488738702137e-01 7.683963871545842483e-01 -7.547557404101340461e-02 3.353164384051474101e-01 7.034765309822166302e-01
-3.609053833769389485e-01 -5.093220270264187111e-01 -3.977052959393961862e-01 8.979553174980864361e-01 -2.768855084592093951e-01 8.454194840066223127e-02 1.079821605544491581e+00 1.000945941015459473e-01 2.194796530229526643e-01 4.854275626829572254e-01
-6.240416466844547205e-01 -5.994311187134340191e-01 1.262751143833828749e-01 7.985440349627606071e-01 -4.264420290721666895e-02 2.965003028674918495e-01 1.204384787239565435e+00 2.237640518492430841e-01 3.404664791735270007e-02 1.957782652316721883e-01
-7.262819789193921682e-01 -2.677691746631477021e-01 5.601834706279463783e-01 4.648795246993456809e-01 -2.978974665124914933e-01 7.098953293899411265e-02 8.280332721311961519e-01 1.348895853452807547e-01 -1.624799908236233825e-01 2.151250309055779963e-01
-5.963069086337732250e-01 -4.202567956531479132e-02 4.858537649482752574e-01 2.451762732737631234e-01 -3.502697616868026276e-01 -1.180934902072717195e-02 7.052682390063516049e-01 1.436401909917494890e-01 -3.133946681222350983e-01 2.596255892074207372e-01
-3.925961408245172701e-01 1.195777260313063556e-01 3.710000637370441945e-01 7.405787748158722261e-02 -2.402295855872647878e-01 1.433551623978064071e-01 2.431417352790084530e-01 -1.093563334598233183e-01 -1.448846947526915008e-01 1.874855173832404021e-01
-1.249919106188553813e-01 5.193099861112408788e-02 1.024273826324424985e-01 3.981779814515212616e-03 -6.006667178339603758e-02 6.583783503037923812e-02 -7.035053857611327753e-04 -8.236494386433793058e-02 5.952029122842444724e-03 4.245702419549581691e-02
-5.197106566151313278e-02 3.826293787284130998e-02 5.038875988194332911e-02 1.124576848436120366e-02 -3.077489821390401795e-02 4.211159545100657403e-02 -2.821889112963529497e-02 -3.130696546654356677e-02 3.879150428248470672e-02 2.774894265513619743e-02
-1.934443961610137763e-01 1.214107234430660126e-01 1.801907796877570689e-01 2.232285948779242843e-02 -1.027149365568836847e-01 1.563904351182604513e-01 -8.901456962345018209e-02 -1.176684151209220763e-01 1.451389984165367131e-01 8.015356282101561425e-02
-2.318786178788515839e-01 1.250045275072302620e-01 2.617800275841773439e-01 2.175754819035920565e-02 -1.488833876446358506e-01 2.178842599081666498e-01 -9.335504228647123481e-02 -1.668851654200148860e-01 1.819093816656483786e-01 4.924288526473907107e-02
-2.999468378706699467e-01 5.822768377221601566e-02 4.000014617993984944e-01 1.070096371494778792e-01 -1.600303294686157840e-01 4.014166105397911632e-01 -4.109702783146342020e-02 -2.246992683803040458e-01 3.022744307023683130e-01 -1.022118182103073578e-02
-2.822737903043964214e-01 -1.424377305553079787e-01 2.553198647265945143e-01 3.641935195302020145e-01 2.808664704855740393e-02 7.781918617069114585e-01 2.780922729258971104e-01 -2.077007306138115017e-01 4.812920827410885338e-01 -8.140672517915702178e-02
4.147057102211949148e-02 -1.457875950792645037e-01 -3.545536278895529692e-01 5.586419465320825450e-01 -4.280916662829882535e-02 8.243962582561572550e-01 4.402714038913819738e-01 -3.326151364098031138e-01 5.403160336498395999e-01 7.794308069535461903e-02
2.346443243258073130e-01 5.210943446384696393e-02 -4.649697614913740340e-01 5.714982739148090074e-01 -3.533617077681845409e-01 5.731709755880838308e-01 1.397264753068471754e-01 -5.405099920451080786e-01 5.910579745368782500e-01 2.709262701481849334e-01
4.099243875829023387e-01 3.142037143841771574e-01 -4.277163496545349775e-01 5.731198091361586755e-01 -6.879110145050175706e-01 2.466727837865512196e-01 -2.917472188028583102e-01 -7.944575034059888630e-01 6.323924910264684396e-01 4.843307748038240823e-01
4.072847308092810148e-01 3.338965503699747317e-01 2.040429785679250263e-01 4.457211252083921327e-01 -9.587237599770070950e-01 3.359172914981898433e-02 -5.922904981789087753e-01 -9.160688374200214312e-01 7.846845583392014767e-01 4.168401202787977988e-01
3.350138696477722999e-01 1.404163994049689723e-01 3.796033724619778948e-01 4.896964069864428309e-02 -6.804929413117433157e-01 2.497937224204971884e-01 1.977080678300177641e-01 -7.225718641118463736e-01 8.184345182856265222e-01 2.349617602019693774e-01
2.726253710513866224e-01 3.505650984652831648e-01 2.910614580553281816e-01 -1.861920476931621105e-01 -7.048120887167366733e-02 2.873296132716572360e-01 9.804405560111070228e-01 -7.376781963655683061e-01 5.796237453946267992e-01 3.242751483919644184e-01
2.422232666484866737e-01 4.868039413618056588e-01 3.274313481616016874e-01 1.839693132275924958e-01 2.430408241514120660e-01 3.069695947058218022e-01 9.099199461359054331e-01 -8.760118009937181149e-01 2.865684543536046736e-01 5.699645884965244269e-01
2.274031464013520909e-01 4.766494230148698441e-01 3.832227565569312766e-01 5.529505957744328126e-02 2.799537704945200267e-01 3.066950903753895008e-01 1.215785411902343460e+00 -9.159804961875358531e-01 -1.031328745977158796e-02 7.471410225754886447e-01
2.753651423793252451e-01 4.127598081113449946e-01 2.729566924702822583e-01 8.165491046131285735e-01 3.370815615474714866e-01 1.667926454232878108e-01 8.206817895740669000e-01 -8.077427608444077700e-01 -3.121089983782404653e-01 8.464348492725116690e-01
2.334839113841425395e-01 3.309392137822678714e-01 2.472006806490124609e-01 1.375052868810321849e+00 2.006064510567111825e-01 -2.343274275966465703e-02 4.724326467655841633e-01 -5.845628239512941082e-01 -3.193380909395299727e-01 8.441411873777469044e-01
8.943759983778962197e-02 2.386582176949485212e-01 2.113539050954875154e-01 2.553695869891351999e-01 3.107583474434345572e-01 -1.235123739292228462e-01 1.890813826215738791e+00 -3.337784118951606094e-01 -2.999007095799497979e-01 8.861364182128553812e-01
9.057371578620410091e-02 1.662344055065663739e-01 2.097077280692070944e-01 2.004487069308755476e-01 2.217598348523558138e-01 -1.844488998296922033e-01 1.996273856590583318e+00 -1.749228864104614700e-01 -2.778708450491783055e-01 8.262206705928413220e-01
1.356648420128916954e-01 1.432687332415583659e-01 2.035099761656015971e-01 3.012771594888069004e-01 8.281546211688513293e-02 -2.198108164253136654e-01 1.927649927208014313e+00 -4.448328070427069042e-02 -2.401423118592213302e-01 6.987390392904094805e-01
1.829858492036683659e-01 -8.991127828122469356e-02 2.396756654231034511e-01 -3.353814703738210168e-02 -5.119719822870071324e-01 -2.536185759696857889e-01 1.877371838293623307e+00 1.580228289653214102e-01 -8.120176167418875421e-03 5.105127571905045958e-01
6.288129522579599673e-02 -2.032226012848549479e-02 2.786726318714377038e-01 4.505232419432562696e-01 -1.022716644445602396e+00 -4.595719145271286443e-01 7.697767359840310686e-01 -1.333703223473275690e-01 1.395636504858335791e-01 5.962503946472800243e-01
2.821962948007582586e-02 1.563446525090271821e-01 -2.973817294464561334e-01 7.258119913502051324e-01 -1.052017540076169766e+00 -5.250969192316474743e-01 5.026637585323843194e-01 -2.966115974294967206e-01 1.195761937985658496e-01 7.949426041549062516e-01
-1.327761584070410728e-01 -7.399955610516185944e-02 -5.651019131525306660e-01 7.945823780300821371e-01 -6.111656751015948075e-01 -1.053702250114493255e-01 9.993859662150181844e-01 -3.169255003167355950e-02 1.056355714535423679e-01 6.344174198281615773e-01
-2.609825389837265308e-01 -2.619742295792399367e-01 -4.601063318705873040e-01 7.314085611838887502e-01 -3.722423673015915480e-01 1.727404562157729973e-01 1.321682321972245111e+00 1.104221906448872442e-01 -1.798958150651002938e-02 4.066102946854481259e-01
-5.357851260665147386e-01 -4.091184050416860063e-01 4.474691753172200387e-02 6.609106907377775286e-01 -8.982525898384237373e-02 4.394057235320993349e-01 1.528992770574528981e+00 2.161807415382223097e-01 -2.411381870600026456e-01 1.005563997731177828e-01
-6.769438247250834095e-01 -1.431191924018714867e-01 5.487378249638853456e-01 3.836323162675951415e-01 -3.116290678881390441e-01 2.179128251928390270e-01 1.109316520053269528e+00 1.205579086898486557e-01 -4.234937669879662581e-01 1.358927174038049579e-01
-5.361757049211541837e-01 1.673820397312257569e-02 5.245002161250885697e-01 2.188289913483686677e-01 -3.658786569370848230e-01 7.600836703524642413e-02 9.067988263616267863e-01 1.591893784892376706e-01 -5.334235408943338586e-01 2.280397639803985466e-01
-3.562664533738112427e-01 1.506065457365045601e-01 4.456826833097351503e-01 7.837393237282301584e-02 -2.744343908310474256e-01 2.021923677294696631e-01 3.619351377575527051e-01 -1.360125300081014288e-01 -3.481992898420381843e-01 2.058856021544827053e-01
-1.279008204209961252e-01 6.013953754736862944e-02 1.173148938211023562e-01 7.884492206484936677e-03 -6.874791850980276064e-02 7.404006776145172219e-02 1.933442789009255647e-02 -9.455538103448385412e-02 -3.010568285133952138e-02 4.712057731633126356e-02
-6.405109034535060031e-02 4.268042272929065822e-02 5.602283354152787220e-02 9.517131951686515906e-03 -3.215623055880790365e-02 4.669318733793065279e-02 -3.071703544944599448e-02 -3.366351450858964811e-02 4.744277727621060148e-02 3.187265830727818022e-02
-2.084244773335263978e-01 1.341373826140898895e-01 1.933025339025014333e-01 1.574046353474160484e-02 -1.092142547448693851e-01 1.735205476139571601e-01 -7.896418395263235523e-02 -1.244679979343582960e-01 1.526507973302457799e-01 7.250887250266982442e-02
-2.331661066320928899e-01 1.365404895918370387e-01 2.651074192716122990e-01 6.736786548804983045e-03 -1.483159763702871503e-01 2.428648887512773191e-01 -3.907187189483773276e-02 -1.644327089866201297e-01 1.737476246651604439e-01 8.542012727840350358e-03
-3.040762912119667205e-01 9.227605294176473294e-02 3.627736558447031134e-01 6.808333469224316092e-02 -1.382467262985434264e-01 4.546275543577967260e-01 8.883805066172811848e-02 -2.047043616193925386e-01 2.814429482334690480e-01 -7.747817466964117272e-02
-2.627894296076132563e-01 -5.561615895230932749e-02 1.294336858480876207e-01 2.797709773810385658e-01 4.011240182835587587e-02 8.335332761987709338e-01 4.913510871370881938e-01 -1.714649718178676008e-01 4.260223236735414254e-01 -1.911177036365848958e-01
6.546192242393947258e-02 2.450978802337370685e-02 -4.747076232449972122e-01 4.119354878157971966e-01 -9.367154244871594981e-02 8.332913462259420312e-01 6.293781358871944898e-01 -3.151925225726152080e-01 4.518500865683598988e-01 -3.758203879913058626e-02
2.662502965420568968e-01 2.664882155610824310e-01 -5.861995391259139376e-01 4.079221760385659534e-01 -4.139595035805765377e-01 5.927431564467238179e-01 3.465590959652648517e-01 -5.242776558799364661e-01 4.711602150233620834e-01 1.525298299781339406e-01
4.687154848559983988e-01 5.712440966710800039e-01 -4.441745435483829829e-01 3.754592893681452659e-01 -8.508876022599606292e-01 1.984532224997755390e-01 -1.879901644284381612e-01 -8.076811381246540300e-01 4.913942507619691868e-01 3.641739781833204237e-01
4.587109420081447730e-01 4.421542501975522232e-01 3.787883868868473503e-01 3.706694720057174264e-01 -1.062522271460387691e+00 1.079919286454748967e-01 -4.954277343227533326e-01 -8.927885709035109363e-01 6.698695736077031615e-01 2.818724773563384134e-01
4.640286022253641285e-01 2.123274786538685288e-01 5.513597971788902763e-01 1.450842925306461417e-01 -7.079487211754063036e-01 3.878357140627910482e-01 2.975646179084371901e-01 -6.897003397502634581e-01 6.412085495656827394e-01 1.595304846546568289e-01
4.465723182929360879e-01 4.680807766377598766e-01 4.203506538157952832e-01 -8.762333819639492316e-02 -4.953226994167819752e-02 3.722087872605377989e-01 1.117363377358813192e+00 -7.009094195206475586e-01 3.067098564580494902e-01 3.224075491070296229e-01
3.861891846878016121e-01 5.366716838600746886e-01 4.037243224338231684e-01 2.040287642132043722e-01 2.309454322022581330e-01 3.550098447160739967e-01 1.133678602085749887e+00 -7.699886340222132919e-01 6.212908541372282739e-02 5.166442386867670100e-01
3.366000248286212249e-01 4.815275698314391839e-01 3.823175658464748605e-01 1.946141934573996923e-01 3.301360948100087178e-01 2.656944827253444052e-01 1.385229730617086430e+00 -7.339481380176579028e-01 -1.534269346328022698e-01 6.795698240180630956e-01
3.112372103938974011e-01 3.908939052916129420e-01 1.982101498623318747e-01 1.031042083328824077e+00 3.885235005594874780e-01 7.577815685356709130e-02 9.191644672792154136e-01 -5.810149596612551592e-01 -3.328618552550916543e-01 7.485684060472187484e-01
2.428786344541147557e-01 3.257017846337616485e-01 1.763261108526135712e-01 1.455703023269067753e+00 2.176590555099698898e-01 -8.545385522798545908e-02 6.375994217642069195e-01 -3.917156212716337849e-01 -3.032592262294128704e-01 6.894674253066165326e-01
1.340657086434244583e-01 2.836954647808681562e-01 1.869105521090209387e-01 4.404928623386754061e-01 3.493384321981756746e-01 -1.408622003325976924e-01 1.875574888166413823e+00 -2.753637963484499296e-01 -3.479500533965380060e-01 7.560147131630676753e-01
1.759400042595918867e-01 2.150886736917669295e-01 2.157226608748375740e-01 2.402287756874086910e-01 2.423481982750570474e-01 -1.671425248873715241e-01 2.086823325493880166e+00 -1.238703334850619342e-01 -3.369433176704021982e-01 7.058441094862666354e-01
2.181330629155587009e-01 1.878522867043461997e-01 2.124295432300959963e-01 3.478971874140553422e-01 1.197894002105052841e-01 -2.021634619135023736e-01 1.998874431051831824e+00 -2.021213958817118933e-02 -3.201642442262178645e-01 6.212119681357232137e-01
3.097669604988834702e-01 -6.402794211272747060e-02 2.560617184818430592e-01 8.463128949566288417e-02 -4.090093337798261230e-01 -2.315459335882438519e-01 1.995076456274629262e+00 2.406460212720958891e-01 -1.494729809377308982e-01 4.321512242399532244e-01
2.778503683946438874e-01 -2.643806318371766384e-02 4.292679254991851878e-01 5.068541231545699022e-01 -1.018872197079293107e+00 -3.497309660303429268e-01 9.522031113350197806e-01 9.690600944426962585e-03 -1.324562285010986440e-01 4.400610169950471828e-01
2.941587446413886364e-01 3.193151075322448462e-01 -1.355371131275816543e-01 5.783649563915470582e-01 -1.202742110055734281e+00 -4.682817444428248321e-01 7.038203144430051905e-01 -2.492418130860873382e-01 -2.898018992288426965e-01 6.293922716863658007e-01
1.222716203874297802e-01 1.529671664629570216e-01 -5.564290662925976960e-01 6.036938400861675547e-01 -7.299454302222588842e-01 -1.480957110488120669e-02 1.323332050133145810e+00 -8.275775241118145387e-03 -3.358018121248092513e-01 4.753375932249135905e-01
-8.444404424968572631e-02 -4.945619813955699079e-02 -4.510485429636981736e-01 5.679171467753432179e-01 -4.711478473139250056e-01 2.809296819712961968e-01 1.648679759500797815e+00 9.646829409348620099e-02 -4.158745893368621660e-01 2.536382610059794152e-01
-4.185342117544526563e-01 -2.641888255674995079e-01 6.578495780218053535e-03 5.516488015260775368e-01 -1.531713212228866527e-01 5.522138205328219751e-01 1.875742467993365858e+00 2.012894138796268995e-01 -5.689631418178624500e-01 -2.883612276094232874e-02
-6.403325488420410494e-01 -7.695901243479874587e-02 5.370507663778044671e-01 3.360276162495292596e-01 -3.219010081193419137e-01 3.136275931260329997e-01 1.364120945769334403e+00 1.065418135357374674e-01 -6.271992834436509456e-01 4.913865577310974619e-02
-5.523346494777826576e-01 4.205236531956690199e-02 5.344133366103933636e-01 2.052566547523536900e-01 -3.694598189039851044e-01 1.099708559140450959e-01 1.056690752201073336e+00 1.648829387546760228e-01 -6.273149943932119221e-01 1.823124861891128046e-01
-3.309584971311117507e-01 1.537817229997638924e-01 4.954961451714565701e-01 8.920210129445971248e-02 -2.935560494547860277e-01 2.231693158818520706e-01 5.115826205398351645e-01 -9.620235495877706156e-02 -5.057444132100634704e-01 2.210315368475049558e-01
-1.174191829098619466e-01 6.152644196715766761e-02 1.272633017202552674e-01 8.402134287625756884e-03 -6.926990058413233509e-02 7.554900676203639420e-02 4.084882900108124243e-02 -9.454197516067221196e-02 -7.386154633186191310e-02 6.040763182184237523e-02
-7.395983922078190609e-02 5.156415329496620570e-02 6.558649885972626936e-02 1.069163549363988906e-02 -3.777533297218509806e-02 5.576851767551778416e-02 -3.178040438884131152e-02 -3.718799135902028929e-02 5.447402336183122806e-02 3.485511959108358870e-02
-2.111276938027506767e-01 1.453541356292943620e-01 2.145325991447264158e-01 8.780764709496513554e-03 -1.189705413870485728e-01 1.968360441977355935e-01 -6.456381648177932087e-02 -1.370632540490489826e-01 1.442817639138338215e-01 6.437092774818335694e-02
-2.141754761245956151e-01 1.506766731363201883e-01 2.846949729459137268e-01 -3.532058099634067302e-03 -1.543054654933523895e-01 2.729433262459870502e-01 5.779631447442112359e-03 -1.649678845555268281e-01 1.415400423228506954e-01 -1.310821029712415028e-02
-2.859553130498181939e-01 1.123484619636721943e-01 3.638394481281539972e-01 5.462283673201220879e-02 -1.306043861128021455e-01 5.132293151799470765e-01 1.824890534446598489e-01 -1.907537629320924244e-01 2.483073126015721277e-01 -1.274144198705782771e-01
-2.061405970630642293e-01 -9.307711809794443070e-03 8.239715058918055390e-02 2.512204181410356840e-01 3.349633780467495964e-02 8.951515595265847614e-01 6.352515117015776758e-01 -1.512529278537769473e-01 3.614461805712395615e-01 -2.517636972355443703e-01
1.433956899513747496e-01 1.245794548611215691e-01 -4.759992496573621779e-01 3.475453253974993273e-01 -1.524833576671737190e-01 8.943854973537689323e-01 7.731323880429222806e-01 -3.052555282261113501e-01 3.377838407360450601e-01 -1.079839658574349159e-01
3.842534701788855034e-01 3.980040392095777757e-01 -5.665647415093670869e-01 3.208536870608221236e-01 -4.893415964166266119e-01 6.616452162483679178e-01 5.263360775839504013e-01 -4.946855518870857948e-01 2.878118585511785232e-01 7.146417111366765162e-02
6.193665931881462416e-01 7.445585228023838820e-01 -2.940221163527693138e-01 2.345506892069815497e-01 -1.021757663687657969e+00 2.132873180566423332e-01 -7.360870702490358852e-02 -7.698739656208111182e-01 2.448474980268374179e-01 2.765693910290672464e-01
5.807664776187034805e-01 4.953750615489876385e-01 6.139298770949058737e-01 3.256680064225921378e-01 -1.126816970099660864e+00 2.510633442656813874e-01 -2.860920548610865199e-01 -7.671175483941728990e-01 4.516338429432392720e-01 1.524688101737225465e-01
6.094827834948086664e-01 2.285536588592328444e-01 6.405332863846011637e-01 2.653368619737392353e-01 -6.419762899441260329e-01 4.778848705329313828e-01 4.831791455722703743e-01 -5.422151084186078718e-01 4.883851094203414123e-01 6.345099843196810863e-02
5.235711385954976427e-01 4.822038276166433213e-01 4.393624698898140890e-01 1.409804264606675378e-02 -1.377926294286800635e-02 3.589496127707837436e-01 1.226698250270443769e+00 -5.662341620583307700e-01 2.131771215173766110e-01 3.027478215999228062e-01
4.168033669248298323e-01 5.117218790393461836e-01 3.927054974728743098e-01 2.489500998664778697e-01 2.605680245063118350e-01 2.970247566466200917e-01 1.329569971476130208e+00 -5.822923446153216442e-01 7.759490192811432582e-03 4.871763188837064940e-01
3.439731229075390639e-01 4.347867815728749252e-01 3.153952473422818037e-01 3.541190070946573232e-01 3.852744392255760264e-01 1.557263265039711686e-01 1.536817135349074492e+00 -4.881424048832566087e-01 -1.614985768156043111e-01 6.124050642680552992e-01
3.030509793431386267e-01 3.605781270512856129e-01 1.250501625103838110e-01 1.168731541122726147e+00 4.157060700464256797e-01 -3.584447752269141751e-02 1.075723637805858557e+00 -3.560443193127073580e-01 -3.129519577905575667e-01 6.400785886752329290e-01
2.424978655833973096e-01 3.213231114500725294e-01 1.293956028814705894e-01 1.511446508080155571e+00 2.297206738927285996e-01 -1.423846540672252525e-01 7.614225165094402614e-01 -2.919810697596953997e-01 -2.984954092537202008e-01 5.534344690109507248e-01
1.653646735057156536e-01 3.110371233391060475e-01 1.691217361925992924e-01 6.112146398280078330e-01 3.894912283561089983e-01 -1.446680843224164292e-01 1.836132391910686668e+00 -2.501314662316360682e-01 -3.705544262340753070e-01 6.450488958802597095e-01
2.138855330649804265e-01 2.357094087508926072e-01 2.174580746002319209e-01 2.864893431448772843e-01 2.781409949790448755e-01 -1.673607357641490323e-01 2.146630979478019174e+00 -9.507216737639952175e-02 -3.425481881046398835e-01 5.887107670404907456e-01
2.401286257650686318e-01 2.033268606658753808e-01 2.168152865313424937e-01 3.814755895527787155e-01 1.363854096119256065e-01 -1.938183543557572275e-01 2.035273881208549795e+00 1.525436998130387392e-03 -3.221297924592030348e-01 5.358108696147878547e-01
3.296930724536072388e-01 -3.092795851786040578e-02 2.459397263647964127e-01 2.151677960558044389e-01 -3.038902007153060914e-01 -2.269084124674737302e-01 2.025686077738929392e+00 2.589873232128241387e-01 -1.727195014383203775e-01 3.489096314695191992e-01
3.047601698596903441e-01 -6.821197414009981530e-02 4.811218976757258847e-01 5.719311293484369285e-01 -9.539443647274155058e-01 -3.102458880982308376e-01 1.087134641292018644e+00 1.227361690237805114e-01 -1.741858341457804271e-01 2.701749903167291467e-01
3.339405690944729499e-01 4.000025700411889429e-01 -5.508315962940654904e-03 4.883609858315595131e-01 -1.285298291834056528e+00 -4.637903303755807616e-01 8.035930927269817614e-01 -2.246637729206771295e-01 -4.268220804179351235e-01 4.763833453928146833e-01
2.278864914704794575e-01 2.745806422877262731e-01 -5.701438889752572514e-01 5.042319664618323261e-01 -8.003160570043418298e-01 3.180919009676664785e-03 1.525834225279451228e+00 5.958092827737077567e-03 -5.326473867602345980e-01 3.473482289275721113e-01
-2.635854631789195587e-02 3.933995395084850105e-02 -4.663618879740203393e-01 5.019553484473633365e-01 -5.187562243598726752e-01 3.263115709075495863e-01 1.882229240123430625e+00 9.166817925802456246e-02 -5.918708993409365071e-01 1.250530661492051110e-01
-3.768265755037271680e-01 -2.176581747731551886e-01 -5.738380912440817216e-02 5.161167874292369451e-01 -1.754521342684490504e-01 5.820690422602334824e-01 2.068886211316760537e+00 2.077484756928086040e-01 -6.724983939005493294e-01 -1.129925200226454124e-01
-6.533749623498537051e-01 -7.393914504873548565e-02 4.981316749971315128e-01 3.267664461273562804e-01 -3.016640148185372738e-01 3.523907423486088986e-01 1.523033190003484805e+00 1.067639882093696507e-01 -6.799625800363174877e-01 -2.449442967176333405e-02
-5.994068751294637787e-01 4.298860998694169905e-02 5.233621908613719231e-01 2.008000090035159113e-01 -3.626579189452417973e-01 1.127116786912317620e-01 1.156871709771446488e+00 1.573499725950490702e-01 -6.486087268854329180e-01 1.289521710832007839e-01
-3.340554708597114897e-01 1.349836455407342206e-01 5.051748877411719185e-01 1.042200904758057156e-01 -3.040375548548741036e-01 1.996431161867140980e-01 6.696745890517801225e-01 -1.680505658237889648e-03 -5.885308622542524404e-01 2.241723750383627367e-01
-9.671208608181423860e-02 5.943114436696353420e-02 1.402135780645685781e-01 1.630981642536993154e-02 -7.727690060597365573e-02 7.429372879657422657e-02 7.485017349788671004e-02 -8.370616121433097079e-02 -1.233653899944301413e-01 7.006862071562895700e-02
