-1.999114223673916294e-02 5.941019801848147069e-02 2.259813785405102513e-02 4.619854617563477761e-02 -4.647238293857632041e-02 3.129010489053272309e-02 -4.974469288444582048e-03 -1.883823973110544669e-02 -1.401595990498132049e-02 -4.286791593900138135e-03 1.332254772853565814e-04 4.662433815789050577e-03 5.901575283170613744e-03 1.095535977121978380e-02 -1.301927297449146075e-03 2.589486254499107770e-03 6.411992418529067345e-03 -8.114047496842797689e-04 9.349927145158535430e-03 -5.649453196432566854e-03 -1.371933284157588091e-02 1.140126066709142710e-02 -9.742926405689718641e-03 -3.310596015921681793e-03 1.859341782882548491e-02 -2.109591213931057488e-02 5.197246089027392907e-02 -1.640140426309270654e-03 -7.606800822719393847e-03 -4.561986412951946068e-02 -1.132669332399637019e-02 2.113124182666058920e-02 -3.512230837707578952e-03 2.121097254043959220e-03 1.059352118799652617e-02 7.291975852769849546e-03 7.145392066990967003e-03 8.974939019194359130e-03 6.042535091738444886e-03 5.512778694690927475e-03 3.161481745939077274e-03 5.912476219073876070e-03 -2.090339507419462003e-03 6.002348853178493364e-03 5.282758049100861643e-03 1.071195107186138570e-02 1.017078935175134632e-02 9.101597167089640200e-03 1.076049636903372853e-02 1.019022866170179054e-03 -5.013441069437549885e-04 6.072879099002263630e-03 -8.484560756734515694e-03 2.178978674043895863e-02 -3.783250740425229963e-02 -1.760747966065152881e-02 6.433692648570367087e-03 5.018875320333095191e-02 1.804410777412980213e-02 1.285212953151675282e-02 -4.990697140817855308e-03 9.010118249926795525e-03 4.434171276581949823e-03 1.103667139809292978e-02 1.168699645954307358e-02 1.339044928695153763e-02 3.475420611387982240e-03 1.279035495556705287e-02 9.274761448817241474e-03 6.033094938261790441e-03 -3.625191077650024695e-03 6.314479943365661208e-03 1.190756351524390431e-02 9.020318576261093790e-03 1.327469626460734548e-02 1.463375794712246103e-02 1.219727690988694872e-02 -6.219692496557680580e-04 2.233309802389947616e-03 -4.865380825397827222e-03 -5.786674636422416184e-04 -8.198654448820662591e-03 3.818494258670935334e-03 1.379740830086964229e-02 4.703423245677756763e-03 4.334322963668884210e-04 2.945283667929833940e-02 1.028255324439548979e-02 1.546839564011352232e-02 4.274009655321351492e-03 1.355188326261185308e-02 1.818265628455961389e-02 5.612941556981308928e-03 8.075219841153809600e-03 1.072309210926992648e-02 7.406093571902779352e-03 5.794030208339561241e-03 4.927812799749288659e-03 4.074741576862039687e-03 3.643834955519840643e-03 3.796611957178349251e-03 8.049983938177881007e-03 7.082038903937131445e-03 2.526061149933829693e-03 7.056353069802656294e-03 3.419823804911834020e-03 6.201575345102205462e-03 1.479045327484717199e-04 -7.892197364343930127e-03 -2.233756101476664507e-02 -2.047921637142505538e-02 -1.223607222124915850e-02 -1.879778982716185515e-02 8.779712770341929415e-03 -1.164026499425405668e-02 -1.261689791534029333e-02 -1.841994518069995333e-03 8.495280698074925791e-04 1.917343601779804762e-03 7.760076884690443599e-03 1.499057109642727877e-02 3.600414498629463805e-03 7.074492064692078017e-03 3.101793837572941817e-03 8.434125318865320214e-03 2.963896536890545195e-03 -3.027508890816620925e-03 1.663658347247975100e-03 -1.080516486380088664e-03 -2.068507137500664311e-03 3.328463054255953717e-03 3.752840687864876946e-03 5.057437481103077212e-03 2.918967675395849667e-03 -5.434577137983977006e-03 -1.165146104482732322e-04 -8.272455788299869564e-03 -4.086724673863844845e-03 -2.361408200885458525e-02 -1.007303196973660317e-02 -1.663147991453897733e-03 -1.558962237070436047e-02 -1.955485792144103646e-03 -1.650471539286581246e-02 2.587066982327161733e-03 -3.106441605828941851e-03 -3.689172410028190765e-03 1.050963935629229025e-02 -3.115479843944651134e-03 4.163679779909309868e-03 3.914762105250445311e-04 2.983510178386143945e-03 5.122184972865140989e-03 -4.669406149740516613e-04 -4.747795991663388525e-03 8.040210001828028614e-05 -4.357391032899999954e-03 -4.213415083961380252e-03 -6.434535468776161893e-03 5.936809335364645699e-04 -1.721642316580700681e-03 -4.009869071070875854e-03 -4.761189533923211072e-03 -8.210118357879962400e-03 -8.214080426575733410e-03 -1.021548957852594190e-02 -1.270837388673926732e-02 -1.697194597798988569e-02 5.697420648728713025e-03 -4.163116054557542203e-03 -7.882285917788408799e-03 -1.599785059928093139e-02 -3.257956265741728322e-03 -1.982017363155845653e-03 2.568543598084574876e-03 1.412766574166688348e-03 6.971816212153556479e-03 -6.250556691124391868e-04 -5.013261658206918849e-04 -3.203764010004751372e-03 -2.022511459914653944e-03 -4.674441776117041827e-03 -4.592352132010302929e-03 -4.279307206486501064e-03 -8.309228961452218287e-03 -7.928748876608097962e-03 -2.310213490660077869e-03 -6.591023723529745339e-03 -8.798520160593610671e-04 -2.397185928026834226e-03 -9.358115922242289664e-03 -8.739957158513471033e-03 -1.096496954746309545e-02 -1.043525854135332782e-02 -1.558016685598540702e-02 -4.371663604733982099e-03 1.051277014691593716e-02 -1.033220070108481839e-02 -2.128330423571848928e-03 1.552265315568045808e-03 -9.073220916543056570e-05 -6.578203359190050448e-03 -8.465933422293181465e-03 -9.037803016907256480e-04 -2.220961040653068614e-03 9.361761804102236963e-04 -2.963842382716164268e-03 -7.895240343089353352e-03 -2.068703322918316514e-03 -3.940483339385684319e-03 -1.199047408471222952e-02 -3.217237715649096368e-03 -5.142289580487944579e-03 -4.634609811313740620e-03 -6.961807235414559786e-03 -2.522505360961272997e-03 -2.683324435838613849e-03 -4.676508347283947487e-03 -1.629056619154424165e-03 -1.141612958291787078e-02 -1.113729476118308082e-02 -7.396194829832442377e-03 -7.075102236931916574e-03 -2.287182087796547393e-03 4.024858602321495712e-03 -7.625411259951859859e-03 -8.301998623277113618e-03 -4.967952379105592710e-03 7.537583656727735171e-04 7.764993602750008524e-04 2.023897209636869746e-04 -4.103470679905039074e-03 -4.029362268436843808e-03 1.449259017436584996e-03 4.295105904942824577e-04 -6.014328202017744972e-04 -1.053313498165038033e-02 -4.739484355262757985e-03 -8.435232521217297594e-03 -7.937601529910739279e-03 -5.317504562965877715e-03 -3.058979966897755736e-03 -4.443096273042961182e-03 -5.459740947440733759e-03 -3.390002589325030215e-03 -1.158722750297109432e-03 -6.632744268147301551e-03 -8.078680745246289568e-03 -1.138967828373138418e-02 -1.189845974101483468e-02 -5.831684436747611340e-03 -2.770630499620470918e-03 5.155191012836650086e-03 4.310629638095903222e-03 -1.008885331832881996e-02 -5.927893574737978614e-03 -4.953161405821080061e-03 -1.947204921231669630e-03 4.305024219804038862e-03 -1.891414036650909637e-03 -2.210123237370519543e-03 8.592190680114300799e-04 2.108009939083803005e-03 -3.558844343244165973e-03 -1.621545218499311587e-03 -8.889270332131922123e-03 -5.522094959482383263e-03 1.954378836292878423e-04 -5.721271389184212196e-04 -4.670611312020198601e-03 -1.710553437978634770e-03 -4.135266868998651105e-03 -8.061041656139298836e-03 -1.830024538306521727e-03 1.881418291771424015e-03 -8.661878313344674452e-03 -8.028065648550125957e-03 -6.480431157998534433e-03 -5.651632462528456691e-03 -4.543462202388610059e-03 -8.020728414749076635e-03 -6.221683172106980131e-03 -1.051690487488464096e-02 -1.067866418314481446e-02 -1.511991168236601416e-02 8.339189398995043925e-03 4.195076915793755773e-03 -1.730372839596341005e-03 2.508744715954344239e-03 4.898371413287318753e-03 9.637431916941035213e-05 1.523137166939287626e-03 -1.472045218345583101e-03 4.188524691667347422e-03 -2.119784042565324520e-03 -3.733088543870412539e-03 -2.519273482044679605e-03 -5.965466301878124059e-04 2.544506253261924651e-03 -2.544809688016633556e-03 -4.942685442394933668e-03 -4.026867860266748408e-03 -4.954551522801162351e-03 -7.338903669972010949e-03 -7.101223821379301637e-03 -1.452172218700209473e-03 -7.899676070182265822e-03 5.902860249011813998e-03 -1.377414644615585285e-02 -9.694682967758039976e-03 -1.115439952083437103e-02 -1.122464535302524803e-02 -9.128244006658146892e-03 6.292768036180207934e-03 4.538720280316974921e-03 -1.968000794827221966e-03 1.055985586815974021e-03 -8.186474199811917887e-04 -1.798250154548537748e-03 -5.553408033735735905e-04 6.032926717371417565e-03 4.420319292273503821e-03 4.309125345846885440e-03 -8.396959192604448946e-04 2.453427713598892428e-03 4.349422422205259284e-04 7.391213658533794979e-03 6.030698204396942215e-03 1.686477849916471214e-03 -4.944439967430025104e-03 -1.057480405264682672e-03 -4.551805287736357224e-03 -1.123456478240776255e-02 -6.010159179632689960e-03 -2.548432239969214744e-04 4.378652109179089619e-03 8.032211483619633094e-03 -1.669322370694867590e-03 3.601966411397704705e-04 -2.281280030428185692e-03 5.339501608300394400e-04 1.483896599977330838e-02 -5.033387594481755767e-03 6.281396073447808020e-04 2.878100688469631321e-03 1.687045938927672455e-03 1.115642130282479489e-03 4.238778485498772598e-03 7.672829505556892291e-03 6.375870944155173810e-03 3.949638419941273702e-03 1.432953159284755572e-03 6.137591686808455994e-03 2.855992754378507050e-03 7.702384960918302013e-03 5.909563388297634119e-03 8.055465165926953969e-03 2.807501294050981054e-03 7.293940863346721863e-03 -3.939604620114953615e-04 -6.952030486999914022e-03 -6.907130911507133701e-03 -2.638966352483954319e-03 -4.733801269178220666e-03 3.401373788949479254e-02 1.379169591912734940e-03 2.357228380425913702e-03 -7.365671176156862385e-03 7.537790999693210967e-03 2.053244113908690716e-04 2.829789002155012369e-03 7.518787116299515023e-03 3.124722734320231274e-03 6.545368520830617542e-03 4.212100788408374048e-03 7.730797254980067632e-03 1.299503614009327353e-02 3.658642850126335791e-03 5.329207274934686864e-03 3.974154453000060781e-03 4.972649478940642347e-03 4.544903924026271608e-03 1.049615244259148074e-02 8.470130909084737370e-03 4.737171941137596765e-03 9.107122553476327750e-03 1.286203056384612343e-03 2.474853758597876305e-03 -9.953561327234487430e-03 2.258383080156997017e-03 7.136158015002833262e-03 -5.027415408150263942e-03 -1.096325128169369119e-02 -1.151110148060801620e-02 6.214552842493492428e-03 7.029767276021778484e-03 1.830420332035131081e-03 -1.018905444212328234e-03 8.039049745520695026e-03 9.783719809097715658e-03 8.390449820086102670e-03 1.003180932454644965e-02 1.040929933629685007e-02 8.826368355830558829e-03 1.013863477087873118e-02 4.356911081170724426e-03 2.564600878565138388e-03 3.223805578304901089e-03 6.028594346962561079e-03 3.423137702503453120e-03 7.607306660463613798e-03 9.184295751846040592e-03 8.416236442945132512e-03 8.857951556361941953e-03 9.500972994139333244e-03 -1.142920532821486951e-04 -3.748479620846756691e-03 -2.586514280973273121e-03 6.608723051402079149e-03 1.955934715634303871e-03 -7.552564481764725661e-03 1.573275855009631302e-03 -1.104852820852704086e-03 5.634988420965572793e-03 3.336244091629277011e-03 6.031272803470118411e-04 8.638084118802806868e-03 9.606201700258970577e-03 1.516338406378006133e-02 1.151800334898052565e-02 8.195449190964329902e-03 6.821466008744109591e-03 4.125233010468526071e-03 3.262692534250731091e-03 5.708619681655801963e-03 7.618371772811506062e-04 4.243731054488292069e-03 3.302136543839896948e-03 2.329064850159899558e-03 9.929812952778163324e-03 3.781744728236459928e-03 8.118195751920872713e-03 6.586774432221407204e-03 5.181833816533577136e-03 -5.551644807378425077e-03 -1.693630818757632661e-03 -2.129394692550691005e-03 -9.088308686753079554e-03 -1.156793321530814357e-02 6.047586446467771368e-03 1.034828154368466931e-02 3.184208612865197831e-03 8.140588091773925949e-03 1.434252008729366631e-03 8.480595261124403844e-03 1.530479850721999484e-02 1.056629418329281533e-02 9.576884729245638619e-03 4.579547351180330260e-03 2.891911084381848344e-03 2.648435457538591089e-04 4.660202072051176231e-03 4.666375583054663094e-03 3.842339339391878054e-03 6.973007553773538127e-03 6.512478496406144853e-03 5.709431447273392857e-03 8.103005608127584677e-03 9.041195577553068005e-03 2.262737351939748953e-03 7.966328163525760592e-03 3.306626430209650899e-03 -1.926397204269014512e-03 -7.381130548580723885e-03 1.063288164666159738e-03 -4.568826718237604598e-03 -1.560616476358640987e-02 -6.837552564323814887e-04 2.892049236869740237e-03 6.348571886070729711e-03 7.862178987686855094e-03 1.047660371853923258e-02 9.767183693582108875e-03 9.421364197491928841e-03 5.872666364279450699e-03 5.844449435044956481e-03 1.255788707145421516e-03 6.124143643330292111e-03 -3.075909821016585706e-04 5.470637327093040569e-03 1.238513968983518537e-03 1.271783439172106305e-03 3.758317285898486911e-03 5.081591442814822022e-03 9.735460937886814686e-03 7.086046470716233711e-03 7.475866746817279307e-03 4.616992227925731558e-03 6.721258148585505798e-03 4.297640184294301315e-03 -7.948318903275493688e-03 -9.917566979345787681e-03 -4.490002306944738605e-03 -4.795522953804740897e-03 -1.219560976962505254e-02 1.080564561835378138e-03 -1.303126303484622352e-03 -1.070312364787690635e-03 2.422591859758199510e-03 1.069560318704514991e-02 1.053506583089205972e-02 5.777602433210640709e-03 3.557427844770139416e-03 -1.713160641771808903e-03 1.339619269033303023e-03 -3.443742954340301516e-04 5.338466468216654728e-03 -2.399128737835018715e-03 1.662140120129518197e-03 -4.004266113882232019e-04 5.575013310349977678e-03 2.712360466346661406e-03 7.078154577255462744e-03 1.027057754071413614e-02 3.353031773019526235e-03 2.078184091156272915e-03 -1.859506766035472387e-03 -4.410425823636551800e-04 -7.231744085954802323e-03 -8.342595194823011415e-03 -9.813169332008604695e-03 -4.056891163888885071e-03 1.043209808779469415e-02 -4.429083563888156112e-03 -1.489423177371383689e-02 -1.147631556640747383e-02 -2.426860904905305287e-04 1.833176405505977050e-03 -9.228162298433841481e-04 -1.752574723803433003e-03 -4.830882768118070769e-03 3.526517632486148371e-03 -2.220477518766354741e-03 -5.045254903493135877e-04 -4.004117373219061304e-03 -6.177464344532639096e-03 -3.284893819179065394e-03 -2.451330501369766712e-03 4.154856098477269048e-03 -7.739593186767505231e-04 2.598381182656202965e-03 7.821885880957666834e-03 6.013170112100170266e-03 -1.297366324037873891e-03 -1.986378130344030289e-03 -8.902174468433696891e-03 -8.967892145773991713e-03 -1.327947592999900728e-02 -5.625007354948400110e-03 -7.290976389948380021e-04 1.125567186029404095e-02 -1.208649024288342352e-02 -2.015634121728689804e-02 -1.541320060932891735e-02 -1.336145260222753629e-02 -8.577068859547942997e-04 -8.388150335153008027e-04 -8.175560700375058415e-03 -6.468380554830696280e-03 -5.425073753957736396e-03 -3.719980151103184987e-03 -6.763017910589147995e-03 -7.918381861161383466e-04 -1.492588843548703359e-02 -1.231753343141204615e-03 -6.550002956084229229e-03 -1.049011335487069416e-03 -4.162559841947244266e-03 -3.308590673544752232e-03 2.365931557976398529e-03 2.339391317492206263e-03 -2.124987999667485620e-04 -8.212843479444682793e-03 -1.021960539080774086e-03 -1.810881613699227843e-02 -1.536298195813070103e-02 -1.098096592764369848e-02 1.476718332690510338e-02 -1.792236137278034646e-03 -9.194325735061252905e-03 -1.539299968445708051e-02 -1.918716798956295391e-02 -1.590559242032551016e-02 -6.615016389220190404e-03 -5.945172842664215619e-03 -1.004885873568623494e-02 -6.484047580552353314e-03 -4.883538944821378888e-03 -5.363969381176245631e-03 -9.517351463669937797e-03 -1.199220169883641503e-02 -1.225332643830103797e-02 -9.177844986063972768e-03 -8.862171831066021840e-03 -1.151883666965873750e-02 -6.105978388611004240e-03 -4.247698966920619365e-03 -3.262206569330517976e-04 -3.420424221708402539e-03 -6.556650615544942079e-03 -3.199939263469527614e-03 -1.361110022377917672e-02 -4.236189481050940848e-03 -1.768027577367770400e-02 -5.428689650310020674e-03 -4.916850635964223511e-03 -1.607413503503979726e-02 -1.856178993454665749e-03 -1.892596660860178942e-02 -2.186818200895575964e-02 -1.378425170382008465e-02 -5.962820793181112557e-03 -1.102853139845592391e-02 -8.777545362729021611e-03 -5.534104905605551246e-03 -4.204195045237494287e-03 -6.936604136107723043e-03 -8.411303040582407409e-03 -7.252084552510339351e-03 -9.443823792679460760e-03 -1.131623922370366027e-02 -1.323729719979893117e-02 -1.096827982343365031e-02 -4.332734521980786263e-03 -3.362767065188101024e-03 -6.997774961616881834e-04 -5.578376693877611960e-03 -2.813802973110531187e-03 -7.469545742104807470e-03 -6.153369240086748772e-03 -2.017934926856443031e-02 -2.812750172463362314e-03 -1.281070717699412699e-02 -7.790352744110163631e-03 4.430533474395917035e-03 -1.223336938613244808e-02 -1.221784064907667153e-02 -9.292051764428871721e-03 -1.162301124344121417e-02 -9.026325019129444530e-03 1.635601573358156074e-03 -9.642138247364553938e-03 -3.221718660994779895e-03 -2.582442353328059850e-03 -5.178260710087608139e-03 -3.308388239703192839e-03 -2.763582598421877260e-03 -2.501322695677133789e-03 -8.976642038969761400e-03 -6.962375631225140547e-03 -4.056212477198382384e-03 2.087170759964839927e-03 2.315932697228432688e-03 3.492848569519961793e-03 5.391314546846767003e-03 -7.993751360850072374e-03 -2.446504690445889651e-03 -5.672228272811960167e-03 7.916796603064924203e-04 -1.402450541367706617e-02 -1.939982282774077929e-02 -5.571316018429758356e-04 -1.135174184271403337e-03 -8.397742269036426524e-03 -9.908445058179116138e-03 -1.400954737599155453e-02 7.798685519736320466e-03 1.916024740438988664e-03 2.196271748914952263e-03 1.880875492857271873e-03 3.651602087959684127e-03 -5.263946113480093411e-04 4.436955906107402023e-03 -6.031681620508662790e-04 -4.209510843184977209e-03 -1.937125426893264489e-03 -2.259692249201929268e-03 1.697663666599092845e-03 8.566192887433843675e-03 4.848892776731580576e-03 1.150978364728402412e-02 4.601927741157496934e-03 -4.131143004580504910e-04 4.603110019981149215e-03 1.815540407817392522e-03 2.307379830418188667e-03 -9.522736193499086940e-03 1.692924869142088109e-03 -1.042290897241231369e-02 1.564423869263816425e-03 -4.179121827586690201e-03 4.374359296424138246e-03 2.402530790218750621e-03 3.374452098567199982e-03 1.915082222832229799e-04 4.538854360342096592e-03 -3.653575714859712492e-04 5.719264111438886709e-03 4.424253438178708982e-03 2.182861953582502373e-03 4.695175536857644494e-03 3.676498519651898601e-03 -1.416604040843237123e-03 5.824662422853649213e-03 3.585308040206160608e-03 3.633368062106162762e-03 5.952089659929137196e-03 1.054950101258735930e-02 1.115243096731585032e-02 1.697606470684008204e-02 9.018532991511089489e-03 5.113446829634620348e-07 4.291589468249371736e-03 2.989780259380101640e-03 -1.113717232695358821e-03 -1.325523439702216977e-02 1.559665332435925585e-03 -1.327600447114701560e-03 3.378771088154464142e-02 -4.885157321328207312e-03 9.690789149421522681e-04 -4.543174342849277698e-04 7.279663778935760096e-03 1.374489209300413378e-03 2.921935887281268494e-03 5.601253012014098531e-03 4.335104113041147837e-03 6.137231659709477087e-03 4.684852205864896077e-03 7.098525565702774182e-03 1.077713695561058165e-02 3.932126438920754107e-03 7.768133234229907154e-03 3.405527295540583099e-03 6.323214161521878082e-03 6.783616015739596383e-03 8.893810330973720910e-03 1.572460180330130519e-02 1.294347109572240549e-02 1.255255209062394219e-02 1.040769321877544652e-02 3.191958745328747019e-03 2.791814600803001201e-03 -4.500631430444174824e-03 6.382863955210515625e-03 -1.311685053105555651e-02 2.825408518460156143e-02 -5.392442557435925439e-03 5.674424069546104947e-03 -6.616421953879547332e-03 1.202235893521259869e-03 7.234363514660490171e-03 -4.091390577774648742e-03 -2.342350583246925137e-03 1.445532158155249033e-02 4.581526685507665217e-03 8.683830105713384248e-03 3.978183166981160606e-04 4.169919832451548895e-03 1.008032933342859665e-03 1.997349944407112669e-03 2.287653841057572281e-03 1.555407005902745060e-03 4.490013238300999757e-03 8.614141897918719051e-03 1.423106598164548993e-02 1.864803174784859796e-02 1.862914166998996682e-03 1.536377160008709419e-03 1.149375717080831048e-02 -6.196883357349624970e-03 -7.097785688679938282e-03 5.571438505424994130e-03 2.868677419137309528e-03
-2.617337133089661649e-02 -6.319550332859249879e-03 -5.798585013770840568e-02 1.987600889494077136e-02 -1.632608278318156692e-02 -6.986220396010074662e-02 4.567207992483716950e-02 5.916358673957832067e-04 6.346408460435756793e-03 -8.530129952212320288e-04 2.433767092626643697e-04 -8.519379949898195359e-03 -1.113129043963644906e-02 -7.528179069825293411e-03 -1.009305533887528208e-02 -8.018716194374213291e-03 -7.825324828513027103e-03 -1.560530059923965693e-02 -8.990251284824817696e-03 -5.809011751097247975e-03 2.907411402873126723e-03 -8.292627717844945276e-03 1.560845676921996175e-02 -8.426013759302671728e-04 1.733635526299228194e-02 1.668619999043078478e-02 1.167427736124605764e-02 -5.972592365483246624e-03 -6.140665811169193633e-02 4.997083934405007616e-02 -8.339769700483626313e-03 2.004286518517581217e-02 -3.955142583645604448e-02 -2.346025020432573535e-02 2.521631152273707405e-04 -6.015497094072150101e-03 -2.195178880811540778e-02 -1.895079893127285878e-02 -2.185718226936928313e-02 -8.290333273860701901e-03 -2.125830710314624214e-02 -1.478789355344176798e-02 -3.818525194316991882e-03 -2.199290909088792711e-02 -1.020761652416176703e-02 -2.170514711704931224e-02 -3.214361120717302428e-02 -2.777861658719922577e-02 -2.585064242680694749e-02 1.642294742331872710e-03 -1.802631683299916879e-04 2.252284178707637460e-02 -1.589866140684624563e-02 -2.858474891736619700e-02 -8.170618239269775152e-03 -5.365678184076938528e-02 8.775087832211173056e-02 -1.809098137016437995e-03 -2.604715304133468478e-03 5.801840212127814395e-03 1.846307048857134467e-02 -1.666072032432905359e-02 -2.588972689673077129e-02 -3.361167044144021399e-02 -1.230796829785324627e-02 -1.050008727534341123e-02 -2.078068431802813920e-02 -1.148031660110985196e-02 -9.658818285885290705e-03 -1.869847712632559736e-02 -8.088699746818504149e-03 -7.677737630631488452e-03 -2.812493840082807249e-03 -1.196396474871271563e-02 -2.288289618004999207e-02 -1.840881698539380967e-02 -1.839014273050087328e-02 -2.521059369234246797e-02 -1.680186672186220406e-02 2.194627576067668603e-03 2.484883444644760912e-03 -6.503520451002775538e-03 -2.212597033239178945e-03 2.360040564019253231e-02 -4.929596730053333042e-02 3.321516795973172148e-02 3.432125060245315440e-02 3.831612551271816255e-03 -9.009678026681554666e-03 -1.988479259721218431e-02 -3.866808661825291843e-02 -2.553272825642509750e-02 -2.535551894800738837e-02 -1.511027248017499276e-02 -5.660562106875514574e-03 -5.869538542314406589e-03 -1.383462255577848875e-02 -7.847952319674686081e-03 -1.228981054121626795e-02 -5.646073165416484914e-03 -7.445901536123138501e-03 -9.692477622125186994e-04 -8.798000527836333934e-03 -1.713748379037431310e-02 -1.903418294189730686e-02 -1.995838839290399805e-02 -2.618146438707638635e-02 -1.559747488115314010e-02 -7.414796643214228815e-03 -9.384159192494582330e-03 6.495241788314772523e-03 -6.242290652052095642e-03 -8.790282536336584129e-02 -3.044153970176078500e-02 1.787590429504686083e-03 1.197341100668982382e-02 -1.203084159466713370e-03 -1.433816920345902697e-02 -1.591805198846370922e-02 -1.255243745939121566e-02 1.467664670710166173e-02 -1.221039666419442568e-04 -1.340149206807944582e-03 -5.978617763685947252e-03 -2.350719238127026156e-03 -4.991563852410160762e-03 -6.895728432405575162e-03 -3.155163498166843172e-03 -6.133069493285013205e-03 -8.003531777684302516e-04 -9.423802448699128420e-03 -2.583556620652874888e-03 -1.466902548478125727e-02 -2.618753819934167490e-02 -2.091968286540886804e-02 -1.815560491440765603e-02 -1.796856712137916232e-03 -4.846791780777664344e-03 -6.322459411873301849e-03 1.653726132629683779e-02 2.822707864064958813e-02 2.960848291459506135e-03 4.774996491736092051e-03 -2.444343263719090265e-03 -1.164052581884662298e-02 -6.131851526353401631e-03 -1.635283018418089845e-02 -4.216982452076245558e-03 -6.170534031602591292e-03 2.968098995079860702e-03 3.174686000753876476e-03 2.939257821985215811e-03 5.666663677483884699e-03 -1.480658552794461829e-03 -2.119149017295304371e-03 2.647186367321814615e-04 -2.831590170359615886e-03 -4.610551361762080420e-04 -3.695666123450111907e-03 -7.261882791744353992e-03 -8.159950212294020053e-03 -1.152439787781095112e-02 -2.265840847451465814e-02 -1.942034043691315270e-02 -5.916311814912319535e-03 -3.460825433430125830e-03 5.288961387327381115e-03 1.646124859256237671e-03 6.644898043554735984e-03 6.236285770037310223e-03 -4.798632627018508887e-03 9.991717035158612786e-03 -1.419951111368465517e-02 -1.072689416894674272e-02 3.162824907912166190e-04 -5.227666363977794472e-04 1.320293886373212489e-02 -1.893010294290082629e-03 7.685227225522789666e-04 1.498324963569909636e-02 5.172137788658972592e-03 5.816264893832437562e-03 -1.690384447274643608e-03 5.859445516110068329e-03 -4.347512593894972688e-03 4.606736305594344265e-03 -5.935786812653927845e-03 -7.370564175511629991e-03 -3.743040353169278106e-03 -1.468155439602286845e-02 -1.973439976027254253e-02 -1.354984646175577678e-02 -6.185258728993241542e-03 -6.961342131756891776e-04 -1.878184032624314031e-03 -2.945996558929167368e-04 1.316627946320211504e-02 4.934021515828827809e-03 5.442245153808632566e-03 -6.068063981351607891e-03 -4.450068663988252134e-03 -4.709329973424362763e-03 -6.240565605858079852e-03 -4.768603545118574143e-03 -2.709500843615274962e-03 1.622114136010718985e-03 5.608225387778086220e-03 4.044284359534572673e-03 9.234578577971429628e-03 9.904539628510188737e-03 -7.195183443621481090e-04 2.121830329983464061e-03 2.690254018447191687e-03 -1.992330221923957836e-04 -5.576989416705040344e-03 -8.381531888644971201e-03 -1.495834501230987627e-03 -8.156499076922620398e-03 -1.535003330647428423e-02 -2.006169224764695405e-02 -8.051562957694942402e-03 3.962028052984697935e-04 3.734244892665678633e-03 -1.540215427857137467e-03 -2.213474688361265902e-02 -8.114379332215116217e-03 1.553982851543569098e-02 2.965907373660856428e-03 -1.414880637119448475e-02 -4.680083182530704773e-03 2.281799196618418315e-03 5.361675991998912476e-03 3.850134686647393306e-03 -2.625444934667346773e-03 6.927363413335574718e-03 1.063778104749174558e-02 8.260028315826097034e-03 7.124096150471226525e-03 5.784186136016725849e-03 8.661605323615393336e-04 -1.943366038219734426e-03 5.018409413312776950e-03 -1.057172282881258668e-02 -1.331822338682859836e-03 -5.127552247896443455e-03 -4.710492973841858000e-03 -1.501268899108870042e-02 -1.577432931616112172e-02 -4.489759450092225060e-03 -3.358908952702019130e-03 5.851937648321939300e-03 -6.372482319569802538e-03 3.910300702336728072e-03 2.849888282279753682e-04 6.465823348732461194e-03 -6.701037315215809149e-03 -3.268772913914536581e-03 -1.477839137195623501e-02 1.966049024892166115e-03 -4.446401388001538775e-04 4.032848301337128329e-03 1.274354715745672044e-03 8.777163602497981346e-03 9.599023773861042885e-03 1.729288589574327559e-02 6.811972927650175764e-03 1.205530688009118744e-02 5.599731694600928143e-03 1.490566149534182155e-03 3.666765807018809741e-04 -6.586567134849951287e-03 -7.293481301431393830e-03 -1.420701798765112121e-03 -5.874725966030505502e-03 -1.177348007523801657e-02 -2.029436049916949480e-02 -4.779544233353366298e-03 8.566933444999689487e-05 2.672161355595666782e-03 1.160560133590074483e-02 1.188998241289272381e-02 1.742538116192712480e-04 -2.750531813042308895e-03 -3.346175352044736197e-04 -1.256844871408036197e-02 -1.000900427399433433e-02 3.150618568018753556e-03 9.881226509212597334e-03 9.868272415752273735e-03 1.092896755412881438e-03 7.294175194134048211e-03 1.462580501079535113e-02 1.251702088073100225e-02 1.385176806590438653e-02 1.229097520535973355e-02 2.774805514806191146e-03 2.580821613909701790e-03 3.474439273569738217e-03 -6.941366157830117060e-03 -4.516938674326868505e-03 -1.307781325765684441e-04 -3.097015587859081130e-03 -1.185761658276389061e-02 -1.385882467367023294e-02 -5.232827917285749753e-03 -3.281474497628110096e-03 -1.067496936477702269e-03 4.109480482125427679e-03 -3.681507165503190154e-02 6.490772671218242133e-03 5.892251150217551331e-03 1.087106702591162342e-02 -5.892868317547442225e-03 4.523637003013938548e-03 1.262797761363188605e-03 1.178007117243703473e-02 4.869728170728500165e-03 -1.071535627780386031e-04 2.184713113272368067e-03 1.431091991595678792e-02 1.298119932546487783e-02 1.116418861645678516e-02 1.331905308584303491e-02 2.605374981401949435e-03 5.786938514658381168e-03 3.834409718552508287e-03 -7.296566229082587091e-03 -1.814634811843366527e-05 1.842312659304909958e-03 -9.444265265206728188e-04 -6.829313093884084584e-03 -8.914124055054579651e-03 -5.126293150063211505e-03 2.112500180074143325e-03 3.993247403365081036e-03 1.198423844698933522e-03 -7.203319401857061210e-03 8.218246077541726743e-03 2.272706861643245674e-02 1.411883067120403568e-02 6.341109987420000087e-03 1.672663877801279508e-02 5.567693976259191838e-03 1.065458619704276813e-02 8.046649726182013296e-03 -4.502455446741169490e-04 9.373877642898533966e-03 1.175554240004325103e-02 8.899363339460536482e-03 1.310605786489104328e-02 1.047880526831224991e-02 7.787886097059293702e-03 2.311808611048048797e-03 4.730718393117343441e-03 -7.078892866000482086e-03 -4.770842705753658604e-03 3.497335950724833348e-03 3.435994436869705283e-03 -2.902489564058182391e-03 -6.719075083920751992e-03 -2.706118978704100814e-03 -1.493376247436778567e-03 3.900670271102896387e-03 -2.116859387290874299e-03 1.067098892917381532e-02 1.376458108908506020e-02 9.217515384970261308e-03 4.615006964845251927e-03 8.749851141800371254e-03 5.483710082190200973e-03 1.041524617821158911e-02 1.709198418625068952e-02 8.350134342804646156e-03 2.885597572108813177e-03 6.903142862276990394e-03 1.424594923323447421e-02 5.904244396133609754e-03 1.053804427666673107e-02 1.102965480904936034e-02 5.665545489558057417e-03 -6.731629035331312787e-04 3.941646397617733916e-03 -1.285767793087930341e-03 -7.506160611553796755e-03 6.187027331331021972e-03 1.247181186713598559e-03 -4.688061450652425302e-04 -4.376495178454166586e-03 -5.777981528991153574e-03 2.961479149968824186e-03 1.992955268768388435e-03 -1.837555158958686756e-03 -2.121801969768764146e-02 6.372430744769575980e-04 1.423541702275521459e-02 8.276707615560222053e-03 8.516893893651213132e-03 1.780290617705579089e-03 1.159628778968788652e-02 1.398542724681491739e-02 5.944295189404358130e-03 2.440333653262075336e-03 1.098643911046096912e-02 9.259235934482504607e-03 4.426102446221793357e-03 1.262906474948103513e-02 9.668013439360785208e-03 7.726102897919773574e-03 -4.924730120409514600e-04 1.064864632868038575e-03 -3.459355594457218155e-03 -3.208867398805144953e-03 3.652012453707293251e-04 4.494202556129965956e-03 3.531509972826768311e-03 -8.104831098230257103e-03 -1.441180684162853996e-03 1.085688709078799601e-03 2.636051509679286121e-03 -1.659836389721085952e-03 -6.440655967772726531e-03 2.142099072170614276e-03 1.099898124018866899e-02 2.418957598332983645e-03 4.083348139578981718e-03 3.837043498455223003e-04 8.649602928540034083e-03 1.720456735477310373e-02 6.665720702276201580e-03 1.659766384922171630e-03 8.550719283132087248e-03 5.276824842756848086e-03 2.998243756406180141e-03 1.101530870224671707e-02 8.001688113544057693e-03 7.393610475755545315e-03 -3.591713608369631432e-03 3.579721586054934301e-03 -3.639765253684680135e-03 -8.067833676815050134e-03 2.636302628500335633e-03 2.474772647963279469e-03 2.397892976801769237e-03 -1.985808294204231220e-03 -4.632389204423344349e-03 2.556886273490295916e-03 -3.544993464644309762e-03 -1.326121139280047549e-03 -2.710947107448838898e-03 9.684115254454738614e-03 5.497852144075120878e-03 4.883089987325176006e-04 4.807300706600016807e-03 3.379756256567095513e-03 6.522094291178385204e-03 1.208921503620699264e-02 7.693864274775697766e-03 -6.058246317069472688e-05 9.419959241468990954e-03 -1.399912458369404671e-04 6.915544281220519993e-03 7.987870800871791840e-03 8.775992213761067695e-03 5.951051961304656274e-03 -8.812467612462903136e-04 1.007032935617972139e-03 -1.967807395983487122e-03 -7.369689257750624244e-03 5.527394948255932687e-03 3.399549950154937775e-04 1.580547060940626749e-03 -7.303736932562957321e-03 -3.757803120659204080e-03 -9.424099027505966706e-04 -2.885708632265565707e-03 -1.225122354950087481e-03 -4.048930081788139693e-03 4.552107669694966698e-03 1.457912169774077619e-03 1.452945644490263432e-03 5.884467695370162489e-03 4.496496542318885979e-03 6.657218995508920427e-03 1.459112293443268725e-02 2.362173897626430234e-04 3.149147115440432097e-03 1.565145895563736008e-03 -1.555110801714128851e-03 9.276774052865821964e-04 1.041325748649610423e-02 6.077020463896888602e-03 7.598491953009853944e-03 -3.362998025244172060e-03 -6.161763398154553604e-04 -3.392967546891074841e-04 -7.023682213967202305e-03 9.365200670015277375e-04 3.038017362869641514e-03 -3.402824943710041575e-03 1.486276770394091753e-03 -8.509721613921756786e-03 -3.696047900973119943e-03 -4.194792611301683891e-03 -4.670447870900000867e-03 -4.309231079800335783e-03 -1.369306703590011812e-03 -4.751030906944972085e-04 1.320470338495425720e-04 4.553230902730756265e-04 6.191716330208059567e-03 5.607252166341106757e-03 1.180109579585624652e-02 6.382524063740248853e-04 -1.249901601724950559e-03 1.156493513778183817e-03 -1.705819140163419845e-03 -8.524463961941697331e-05 9.386131200934809404e-03 8.299710436173248634e-03 1.025270279622872080e-02 -4.059761830379814661e-03 -1.072454125931035160e-03 2.357383222791148598e-03 -1.083948105000911467e-02 -6.754820171203409877e-03 2.343232086606441417e-03 -3.448862996576312055e-05 -8.138088197866596291e-03 -1.641675150574332942e-03 -4.311585647249784742e-03 -1.552281637559978743e-03 -5.056677350928242068e-03 3.390331632612591118e-03 -4.475202976288585413e-04 -1.749627721926488117e-03 -1.081577910501604900e-03 2.655319967478671130e-03 -2.560528560355577327e-03 7.351802295276595872e-03 1.101364362006280150e-02 -2.460943890022356754e-03 2.630280754182709899e-05 5.025141075148148884e-04 -1.524135052089098689e-03 1.771515629584110088e-03 9.242551189598366412e-03 9.658810523714304874e-03 7.799564425753238370e-03 4.485494079286790267e-04 1.134438085000104160e-03 -8.692305202972084449e-04 -8.640079386273535889e-03 -6.640582668788990242e-03 7.342797307411375735e-03 -6.564010266625370550e-03 4.646334376286655708e-03 -5.165829869512295752e-03 -6.191095998929604591e-03 6.578383833500771587e-04 -6.506602332730611945e-04 -1.375241388648965144e-03 -2.979794197456173068e-04 -2.716423618394433895e-04 -3.759990166475426707e-03 4.296978658627391358e-04 8.622508191256974533e-04 7.762091347454545646e-03 1.001989483249940069e-02 -1.315859972479255062e-03 -2.188623399194334924e-03 4.497926148250950759e-03 -2.119934240188805878e-03 2.381392422190317833e-03 7.207025487773437676e-03 1.726495068623414356e-02 1.001822526134950493e-02 4.078208314268459179e-03 -1.564410608110805220e-03 1.173668021781936171e-03 -6.192275716893942336e-03 -3.554735515585532874e-03 5.682316326511821676e-03 5.277937689656841090e-03 -1.121608504538576696e-02 -3.760918545606886307e-03 -6.370363743778344016e-04 -4.731841562918883901e-03 -7.924002400245859978e-04 1.009924745906739391e-02 2.388754899594986922e-03 2.353689718837618779e-04 2.087056216096725640e-04 -7.711194828838509319e-03 4.797727169750729860e-03 6.099774658127668329e-03 5.106716663181129663e-03 -6.411262831639908451e-04 4.740279894003648908e-03 -1.309279644290434804e-03 4.900793700001897018e-04 3.181065661953797613e-03 1.135867380749690930e-02 1.069451585587262617e-02 7.549503840819062755e-03 1.001676828944633810e-03 5.472570182132418040e-03 1.908992412423918348e-03 -1.448746250109459940e-03 -4.339234011563714369e-03 4.788661608780917650e-03 7.168099478922438858e-03 -1.075837974494508846e-02 -1.178844866729529192e-02 3.609927756721407512e-03 -1.362884635365118127e-03 -1.779982004158430376e-03 1.148602181775246200e-03 1.809974255898890404e-03 -7.891523437122767784e-03 -6.251263343259820700e-03 1.996692474892423127e-03 1.135293986065830226e-03 -1.118466834516373927e-04 7.127032426716553744e-03 -3.359567385631807238e-03 -1.469064722444751551e-03 8.073509665428305754e-03 7.749919522920309780e-04 7.090829854087654649e-03 1.078098553963080172e-02 1.225152732333397582e-02 1.003297435242225810e-02 -2.654976066457504619e-04 4.162203134244252603e-03 3.148546698874679813e-03 1.221091147747121715e-03 -1.006781634057307738e-03 8.143783643254416020e-04 -2.844337663263240504e-03 2.983350662496912862e-03 -4.626156118067352094e-03 -8.401743052521708915e-03 -2.263291328530129490e-03 3.896414812707000284e-04 2.539718483191373468e-03 2.357077156342160691e-04 2.094547017463614744e-03 -7.100701561420940180e-03 2.984717758203426271e-03 -7.351034482231332337e-03 7.330827628567813947e-03 -5.219841548542131227e-03 -9.933889531683213949e-04 1.033803682369899800e-02 -3.053350064929846903e-03 -1.029878400354355484e-04 5.632056225779286628e-03 1.073035380437292567e-02 9.048271057712343676e-03 1.672578508539001099e-02 5.083913220971210747e-03 7.003647204671849128e-04 7.131502394070856309e-03 -2.254204633555257839e-03 -7.661693568460839834e-03 6.935200356283835639e-03 1.500144426984869467e-03 -4.577343534629883109e-03 7.572830207129550937e-04 -9.975998792777957674e-03 -7.652670491443422721e-04 -1.829902322797085073e-03 -3.132798757735823746e-03 -4.956239689825945802e-03 -1.220089564254583751e-03 9.224056951059456241e-04 -4.194462849809783671e-03 1.267637231792450529e-03 5.047567781775595848e-03 -2.692326076145083822e-03 -4.365505829374132299e-03 4.159386419071728000e-03 -3.896605478327716445e-03 5.158098923268599118e-05 -3.618526064974157946e-03 1.268602239554247543e-02 9.776525118582863466e-03 1.240547039912918460e-02 6.507022334165846363e-03 8.439460067777993912e-04 1.188998601440810054e-03 -4.670766099139392682e-03 -3.167698683911505161e-03 4.599138001636096651e-03 -7.546828005196587301e-03 3.606496222333498668e-03 -1.837553456787013179e-03 -2.466436794772717926e-03 -2.763891564832228389e-03 -2.894195943214618837e-03 -3.458797598493924125e-02 1.698212119141825904e-02 7.836345808335732537e-04 -2.037759311875326444e-03 4.423789975147230345e-03 8.052514962879364982e-03 -3.644574160900287269e-03 1.338943806975383208e-03 -1.090419320006138018e-02 -8.941839585984604627e-03 1.121678207832386281e-02 -3.873179623541839721e-03 4.666442281769006377e-03 5.201893319743749675e-04 2.782298604305848307e-03 1.479262553253102123e-02 6.598202540629538593e-03 4.340860786576993847e-03 2.415334601665059238e-03 3.981271841589273733e-03 -1.200602475008592795e-02 -8.510005197550461081e-05 -3.245614170766354472e-04 -1.312341345542085772e-02 -6.062716920103605397e-03 3.100212103605960376e-03 -7.614213182306525662e-03 -3.767014617536457253e-03 -7.697125995297954271e-03 6.903794841647249714e-03 6.856899431618198280e-03 2.376910579153316324e-03 -2.533884462822253748e-03 -6.810925101481714317e-03 8.100807656599517612e-03 -4.017329170298345777e-03 -4.844631700774182891e-03 -1.282064813859123834e-03 -1.353220362501675322e-02 -2.568538112294448139e-04 -2.527251848438381073e-03 4.308956014907191004e-03 1.239911051024905619e-02 5.437127476782871796e-03 1.593326441503363326e-03 -1.212398464013339679e-02 -1.330669303217003538e-02 -2.150308796198941060e-03 -2.695770105482362105e-03 1.598680728394699267e-03 -4.079456562288897269e-03 9.966490240890407172e-04 -1.392745421971579300e-02 -4.539096450155474805e-03 6.844199063617338423e-04 9.054351696216303771e-03 1.713655593187859288e-02 2.975760361658729564e-02 4.913873641001003170e-03 -1.626840767800154589e-02 -9.090457125038116717e-03 7.778994406440532285e-03 -2.742027575781550656e-03 8.751395795813706737e-04 6.472427154684621230e-03 -1.920222335862753699e-03 -2.910864427764376424e-03 -8.760243476725259118e-03 -9.481856176611276913e-04 -7.224716894664939305e-03 5.633917595276533366e-03 -3.527490568271474027e-03 -2.938721100193607792e-03 -9.842035779522483735e-03 -1.673908316591220941e-02 -7.685695960440576228e-03 -1.646726773479538150e-02 -3.666663462721288062e-03 6.655140668586582292e-03 -1.336349211962515986e-02 -1.868404645046550794e-02 -1.078071842790166539e-02 -7.802216616708551253e-03 3.258494372379326393e-03
-9.108463562090221566e-02 -3.712031321854068755e-02 -1.142270963955070023e-01 -6.608431077298985989e-02 1.800556073483277827e-02 2.116051632447647768e-02 -1.542876674162137890e-02 -1.191336136818270733e-02 -4.711032035611063123e-03 -7.546759277891978252e-05 1.075159136036940620e-03 5.801898292173347793e-03 -1.714625817369518426e-03 -5.008676591471225180e-04 -3.541262050347434437e-03 3.737328235441292595e-03 -4.442291782972502059e-03 3.203085497721283180e-04 -6.596869157887937964e-04 -6.233524169045427665e-03 -1.394752440247165950e-03 -7.937318385817206806e-03 3.594188437209617365e-02 -8.024337438177535364e-03 -1.147995612817446186e-02 1.259216808543182388e-02 -4.062390020750379638e-02 -1.141477550070133656e-02 -4.317106429049191035e-02 -3.998768558781470861e-02 3.717984968848032923e-02 -4.154306052317119358e-03 -7.936900933197565434e-04 -4.222813503530073280e-03 1.770603585606080055e-02 1.724126294881416985e-02 1.326759817591333969e-02 8.575731846499184616e-03 1.067072365272316026e-02 -2.891427481031792323e-03 -9.595555643844466860e-04 -2.512409955026374993e-03 -1.075964147413602766e-02 2.586798528467449884e-03 -4.191598707194202009e-03 1.855001053554845240e-03 6.894184681209004385e-03 8.185401820389993921e-03 3.845968081086929662e-03 6.386642890767276664e-04 1.678943270852877034e-03 3.259634493789813695e-03 7.571600809301904517e-03 -6.707613674684655657e-03 2.465595693166064591e-03 1.943501800011436173e-02 -7.798848774295707997e-02 3.266214207887600113e-02 -5.190394767610033433e-02 4.128419587620596465e-02 -1.715462902393117411e-02 -9.981809619666893660e-03 1.101302546562071610e-03 2.631100482121330637e-03 -1.715605705538958024e-03 4.277311930492861368e-03 -2.949778335646303842e-04 3.752529134489886349e-03 -2.945233092824876050e-03 -2.111743941229964321e-03 -2.257484237349670440e-03 -3.549258806143976673e-04 -3.820082131238532880e-03 3.839429010771171387e-03 4.356055194118856576e-03 3.320254077786288175e-03 6.064796604720595766e-04 2.901984173394243872e-04 2.771713634948974234e-04 5.302398665430537329e-04 8.672497842051332673e-03 1.671673344351752230e-02 -6.893478269812641605e-03 -2.135352723880346720e-02 5.277000830925222125e-02 -5.419173617999030641e-03 -1.440790712671700079e-02 -2.389845522405262268e-02 8.799095932928352459e-03 -1.493203699550878184e-03 -8.134905005225220864e-03 2.145358117656735795e-04 -1.656341662036922872e-03 -1.150749630820666926e-03 3.836071026395748360e-03 -1.792729737318566946e-03 -4.160774841617775367e-03 1.392310497287864597e-04 -3.833972268288396868e-03 -2.599917976190420799e-03 -3.417864072361228613e-03 2.100415527791300255e-03 2.823224958384881050e-03 -3.256888514024679042e-03 -1.491133950140228603e-03 3.656843991858148464e-04 3.523958633430783732e-03 8.876161436428086846e-03 9.465896472074356071e-04 1.530072753974776219e-03 7.991915638400824001e-03 -7.032848666299445703e-03 -4.873823780308026571e-02 1.673560226500631076e-02 -2.752205071702522581e-03 -2.784206543123683621e-03 8.490344762362229264e-03 -5.237739707360590177e-03 -3.050562115892082107e-03 -1.272674710883110738e-02 -9.532710101691446725e-03 -4.173008612923663832e-03 -4.413062998165082421e-03 -2.431675195796649622e-03 -3.457598034612482680e-03 -5.303521786894867251e-03 -1.591993866755758193e-03 -4.914416769096971449e-03 5.193393836374072788e-04 9.284289304568180612e-04 -3.864863046953595049e-04 -6.546836166538373475e-04 -8.548175228519682214e-03 -2.932030170456276230e-03 2.968866802353386115e-03 9.912838139986154817e-03 4.148069503952020627e-03 -1.315258089178320358e-04 4.431528927474425936e-03 -1.163303389315044909e-03 6.147072035547973545e-02 1.209614782904115150e-03 5.382197714401102534e-03 9.065378449739911783e-05 9.213993745788680995e-03 -3.944923254994311609e-03 -1.302889863730726308e-02 -7.325158452085778552e-03 -8.129151833287157417e-03 -1.910511210400937928e-03 1.547528678015271586e-03 -3.043133430938339216e-03 -4.166224610986103347e-03 -5.102789209761605591e-03 -4.529574320973111558e-03 -3.413652131124194928e-03 -3.623406670987050233e-03 2.836501448940725693e-03 3.464569091963281850e-03 -4.537267616180029844e-04 -2.839043931495726768e-03 -9.243163249768220416e-03 5.383197377851473952e-05 1.092408157286121374e-02 8.338616511789164951e-03 5.514386328665326319e-03 3.795456757257223510e-03 6.263667210771714858e-03 -1.739889295361778804e-02 5.460026267969429400e-03 -1.285570313532281720e-03 7.410069979902937469e-03 2.427130918096156390e-03 -2.923269318141847976e-03 -6.979289604779951445e-03 -4.698295169255920813e-03 -1.065996801659149697e-03 -3.949084871868327267e-04 -2.525249782237390991e-03 -2.690590502160250964e-03 -4.211868988778197896e-03 -1.970188523871255941e-04 -8.956758397946322373e-04 -1.445777834685188458e-03 -1.602784381865975365e-03 1.418731841096203868e-04 9.777948650961927439e-04 3.451410174129292607e-04 -2.043908775991840326e-03 -3.583656457488943597e-03 -3.920722595180003989e-03 8.820024227254311816e-03 9.305477441975551142e-03 -6.524092142404464088e-04 1.114327042640911834e-02 -1.543320849648602494e-03 8.268582236977302380e-03 -1.513578115391682466e-02 -2.274160957032903777e-03 1.887505997471737237e-02 1.246629749110321136e-02 -1.235053196091713719e-02 -1.030368832611309321e-02 -2.977374236782330801e-03 -5.274888766787002962e-03 -1.466060013949086827e-03 1.053892573888877133e-04 -2.904236501857759053e-03 4.131440024542934420e-04 -1.047467450086182359e-03 -3.473929232131245815e-03 1.419939394456713549e-04 -4.967684235204645462e-04 2.329150626135043870e-03 1.904221694256844066e-03 2.571145647260049752e-03 -2.886482942142745874e-03 -5.301527032069220866e-03 -1.718431716738868208e-03 4.723037924904536014e-03 8.129156598810423351e-03 8.861321015994468031e-03 8.115451731292279642e-04 2.277151082501539456e-02 -5.505062165471010828e-03 7.231550187769898372e-03 9.639629115409793086e-03 8.749820095855303029e-03 7.589624705130806719e-03 -2.721289432906353993e-03 -6.263203889655864776e-03 -6.548103457635858458e-03 -3.304365859016639585e-03 2.049367113788775566e-03 5.835414463162315497e-03 -1.810688252637032572e-03 -4.932476571899956953e-03 2.965033147943330928e-03 -2.768077399380861146e-03 1.807480146064450663e-04 2.339702201087650799e-03 6.175831782815721649e-03 4.997032337527111505e-03 3.184758571183249668e-04 1.389882501912853563e-03 -5.995684725006192491e-03 -8.537267127587462590e-03 4.532954011681683028e-03 1.149168149601915642e-02 1.894482846750434810e-03 6.159881403354080902e-03 -2.448472902267876121e-04 3.624678797669004734e-03 5.360622569496788919e-03 3.915484119361264254e-03 1.273282303742544717e-02 9.697844662078887110e-03 -4.240570358337230478e-03 -1.409841909298811119e-02 -5.783387182128368886e-03 5.361904200374339319e-03 4.010346652863750611e-03 5.162605329224730609e-03 -3.827898476230664430e-03 3.534180289389946081e-03 -4.827458045003225721e-03 1.292262622508786023e-03 1.466692451973672590e-03 4.470990132215121871e-03 3.154778895733421147e-04 4.119590166664509681e-03 6.979974360526150284e-04 -3.693179413394283642e-03 -9.210151901010264416e-03 -2.527691774783010631e-03 8.644153748648585522e-04 1.392364604838619568e-02 8.947595949277275737e-03 8.723731082867952277e-03 -1.521712450013531148e-03 -6.612878510882196775e-03 1.631605619579599813e-03 9.580276106763247965e-03 1.437718932732083045e-02 4.765272073217701083e-03 -1.034583771862883535e-02 -9.848718217623956411e-03 -9.362076742280482297e-03 2.885572473873089950e-03 5.781964951400511872e-03 3.176854894315309964e-03 -1.106383332430749223e-03 1.580041467331084982e-03 3.435971051581379263e-03 2.005966017614172793e-03 2.129502340214158192e-03 2.081655884790347289e-03 2.666836429151235501e-03 7.656029364344093049e-03 5.504303628730701503e-03 -1.260914443049991358e-03 -1.203778086365516094e-02 -5.024024327552734266e-03 1.682443828518310862e-04 1.917060325013229122e-02 9.593696926603766453e-03 4.586727899118056562e-03 -3.171157493423045013e-03 -1.186793290415345987e-02 -3.047558751579603365e-03 8.513123786532135473e-03 1.253233884974358850e-02 5.403254281578021012e-03 -1.151280076495719146e-02 -1.109056483736642167e-02 -8.498807698676256323e-03 4.135060898486057554e-03 3.106396062403874586e-03 3.203846501494148936e-03 -7.866877138811501557e-04 5.654195038238504258e-03 1.040500843912278792e-03 7.039273682735332216e-04 -3.451931620303712030e-04 8.919709184122918142e-04 4.185603950564342930e-03 7.128895323475633108e-03 6.942947432943058668e-03 -4.547424934695646942e-04 -9.128014193374243967e-03 -7.983832861379738105e-03 -1.167379968767578166e-03 1.093210337354791166e-02 8.853969619123531684e-03 1.290153354076306949e-02 -3.740380790342040258e-03 2.076523979303777218e-03 2.146913758347149953e-02 8.337363177317220347e-03 1.921467445913877664e-02 1.412325106365985763e-03 -2.695708532483222664e-03 -1.402917713152254664e-02 -4.732737142197542685e-03 2.368644756708085993e-03 7.522686053622496850e-03 2.319111764767560046e-03 3.136751884187915281e-03 4.920275034365007363e-03 6.367051114170508208e-04 1.666535827420064831e-04 -6.150090898995530997e-04 3.594726640446435379e-03 2.561235689347503806e-03 7.398666849157626083e-03 4.310423459905744423e-03 4.375697408267249441e-03 -4.457649729054984945e-03 -1.548966744113275699e-03 -6.580007578055323790e-03 1.473878318852843081e-02 8.056161441673989967e-03 9.098110475919213291e-03 4.151169676130968614e-03 2.547271498168862669e-02 1.992868211377621032e-02 1.189224740147352966e-02 6.245130220597255519e-03 3.660421193649153210e-03 -6.316622012580676987e-03 -1.106207992556434982e-02 -1.385748925003733997e-03 6.339843599087482268e-03 6.523964151934794758e-03 1.158511946131838763e-03 8.289132500955209010e-03 3.870169590210026378e-03 1.224772679968109436e-03 -9.353840649884669067e-04 4.864399611374057978e-04 3.865244446343562255e-03 4.484770075962207780e-03 6.709533612651774961e-03 7.738845496921451309e-03 1.581055158851782903e-03 -3.191993695764143088e-03 -5.866253165623279940e-03 -2.243937067842089253e-03 1.453066227544438753e-02 1.829473294050668747e-02 1.255312580519163043e-02 -9.136817542736539940e-03 -1.563091201429764321e-02 3.695949666223372499e-03 1.346667185366691270e-02 1.427797179834055033e-02 -2.276790001161219015e-03 -6.266939053689619607e-03 -4.443385925726853029e-03 -3.058559616753247622e-03 8.654193403521115088e-03 8.153337680111253857e-03 6.302413611720569797e-03 8.380902092553878593e-03 3.118411683141867913e-03 -8.533969286637951412e-04 -3.974069277057182097e-03 1.050207475253214220e-03 4.022715358294741590e-03 4.438664484112801213e-03 4.793042958771196946e-03 1.156686649790868680e-02 3.607979139005044762e-03 -4.276558271095540729e-03 -2.898585406970854549e-03 -7.994606953169816968e-03 1.229018316875245265e-02 1.208156475530727803e-02 1.545953433984455748e-02 9.324763107460748435e-03 3.747761325181261428e-04 3.078680141885728732e-03 1.111027136808253636e-02 1.029136544364250665e-02 2.361758370500815184e-03 -1.019641628975420308e-02 -4.298860669473998641e-03 1.444436782952393354e-03 1.396443929091291218e-02 7.666535488270332516e-03 6.604940679653515875e-03 5.624864536309562117e-03 7.116423370348655799e-04 -1.316968338994811347e-03 -2.274152748837261068e-03 2.168798301532857704e-03 8.231571293710473287e-04 3.731977628467602216e-03 1.149036872881115893e-03 9.524159171230069110e-03 3.733825941441752758e-03 -4.208748608681274657e-03 -1.357041417825149716e-03 -2.736091192669942457e-03 7.101879497707680802e-03 1.607750068229352527e-02 6.237681061751944832e-03 5.020388033512784105e-04 -4.054030229282011913e-03 1.014268527437370976e-02 1.677050806376132949e-02 7.663655756767642595e-03 8.985024937161038318e-04 -8.658315585937007008e-03 -7.465725543250046822e-03 4.459389696418555003e-03 1.285002510398005129e-02 5.500222435187039974e-03 5.729920993662093905e-03 3.244022233133231521e-03 5.966025932493492813e-04 -1.968653573081911249e-03 -1.525844077410935893e-03 3.138663194040468784e-04 2.257572298232091591e-03 5.886512912922582143e-03 3.974245760319791015e-03 5.228111096427909624e-03 7.664660280835162640e-03 -6.758304457738593257e-03 -3.486157996973982248e-03 -3.674629168703897643e-03 1.256941523474921531e-02 3.264152616684625006e-03 7.856190489918590814e-03 1.360637799900614540e-03 -7.429045715959915926e-03 1.342607330959356624e-02 7.377425724551159476e-03 1.239978702964072629e-02 -4.935061885372917477e-03 -5.038221546932254540e-03 -8.976249591028306538e-03 5.327441881695408991e-03 1.279945424115984387e-02 7.350786189664107115e-03 4.280149560722391715e-03 2.336169772006531538e-03 -7.524668431791797178e-04 -3.340364977440688464e-03 -3.884748021786551663e-03 -7.231143263082653091e-04 2.922402703082511316e-04 1.284787139049513348e-03 1.679498260790365837e-03 4.722123888780679207e-03 8.659739681528893715e-03 -4.982858735885799077e-03 -3.060467194017350238e-03 -2.698326181236782549e-03 2.600095088255361970e-03 8.456428789101392077e-03 6.994894805927731433e-03 -4.715519894984831518e-03 -9.680790878897338469e-03 3.896611269356836226e-03 9.008216515865972648e-03 2.204021729405021644e-03 -3.406966911708992143e-03 -1.083650182790888566e-02 -7.466711700988850307e-03 2.815006367061970334e-03 1.091722575804526633e-02 4.864813280790469818e-03 2.218311357395423306e-03 1.379698311413753674e-03 2.580619689935348578e-03 -3.095572537024502552e-03 -2.515535958758619971e-03 -3.024590276582872668e-03 -1.403662264768458859e-03 -1.314480527101382539e-03 1.322519824004551522e-03 4.949960342614930994e-03 7.372012172777064193e-03 -6.824120646768960796e-03 -1.231312000052960272e-02 -5.602983308989758875e-03 2.534989218226232736e-03 9.999903523607845540e-03 6.645912619677898751e-03 -1.635122365039007623e-03 -5.830629130773979686e-03 5.104128803803995029e-03 3.028453327167871748e-03 7.910174311115887895e-04 -6.245914071467684181e-03 -9.112927192165574952e-03 -8.647278746688172660e-03 4.528464968604127734e-03 8.798072486921109867e-03 4.447648172787904870e-03 2.103630147147997776e-03 4.266047485525482040e-03 -1.494887895979838364e-03 -1.931359567137062687e-03 -8.469475059994716407e-03 -3.046625425244519139e-03 -2.349620328019723977e-03 5.428984335450867584e-04 3.554641598795160035e-03 3.439001103508018686e-03 9.829387188768355307e-03 -1.000134177574039246e-02 -1.255944628530806725e-02 -8.394529292705463566e-03 7.337758121881757072e-03 7.440640253994416746e-04 9.454119484908742044e-03 -1.938339282346692328e-03 3.143097648816835839e-03 1.154660329064004188e-03 9.093992330197238003e-03 1.696417729728154616e-03 -9.564016731809180799e-03 -1.059168476677440143e-02 -5.221035396853802163e-03 6.756443185498312888e-03 3.074116866838976902e-03 3.157931497715176904e-03 5.741406507368177316e-04 1.412584447010812412e-03 -9.763578242765362037e-04 -3.544872471146718121e-03 -1.840104519156595926e-03 -6.492915616045723259e-03 5.533142048272512515e-04 -2.014769683845197504e-03 2.394225478916626234e-03 4.904531032599975188e-04 4.796715149903311992e-03 -2.090013380445097674e-03 -9.641439891718098579e-03 -6.874218982668133145e-03 -2.687318342904052981e-03 3.422749667187153285e-03 4.688472334282776759e-03 5.825254449121967243e-03 -2.227915526761408381e-03 4.195438254358935075e-03 9.241033793575470154e-03 1.110331703116471938e-03 -1.096560998654737100e-02 -1.005863244024680393e-02 -8.291679419573648110e-03 4.676551181268106573e-03 5.361516072031733207e-03 -1.079922324806702454e-03 2.542392543628383718e-03 -4.461869934599622771e-03 6.586152212989637277e-04 -8.496598162359233000e-03 -4.059677491501045843e-03 -1.593018574688320017e-03 -2.367317395836194410e-03 -1.707458222917017496e-04 1.276157145949291592e-04 -1.629010924222093568e-03 2.635032185336903853e-04 1.356750090062268724e-03 -1.280710430560999709e-02 -9.188134480086866673e-03 9.621918235377489989e-04 9.413168624018414601e-03 3.490744170944993455e-03 6.233094228979384720e-03 1.210592707190686571e-03 4.283084201686587940e-03 8.470752769343748226e-03 1.424295037961778154e-03 -9.375938828840925041e-03 -1.103455230745028701e-02 -1.099123927742049443e-02 1.210547196312756167e-02 6.398652839042017620e-03 3.113438273126271656e-03 -9.263059031148397366e-04 2.534543452612078671e-03 -3.372399295954258813e-03 -5.003680848098796853e-03 -6.923123604879628801e-03 -5.273570833914906740e-03 -2.087027871093250896e-03 8.572976449617464734e-04 -2.605968094989502982e-03 -5.340027656070165003e-03 9.017195774553746213e-03 -6.636035021861580452e-03 -8.442501839800213570e-03 -1.343792627484759368e-02 -5.258243570382317017e-03 6.394836170980978604e-03 5.886474032363535509e-03 8.337229273743531569e-04 8.773253057934464472e-03 6.189887570840693978e-03 6.417623403492114624e-03 6.584886513318304177e-04 -1.245603546497910628e-02 -1.399168176326941355e-02 -8.974036933737083652e-03 1.224399435771949055e-02 3.319026131557754802e-03 2.971482887064648415e-03 2.498909732806011731e-03 3.083015167497757999e-03 -2.057432674157685503e-03 -3.531555031612450962e-03 -2.531495177953422757e-03 -6.258545104587790592e-03 -2.312521667585610598e-03 5.247535019647087129e-04 1.852695990663654748e-03 -2.677537900934479163e-03 5.244492997806315992e-04 3.307540173281714804e-03 -1.153732050451584945e-02 -1.439608905467321467e-02 -1.977578011604451142e-03 -3.108778326837819913e-04 5.645470783455936933e-03 1.100033099338347531e-02 -2.132932357183177710e-03 6.615374288922747092e-03 5.351585264596956173e-03 -7.846188827255556192e-03 -1.907322584305945826e-02 -1.621721248531060589e-02 -9.124060665974525336e-03 9.642332844200620853e-03 7.639681598729804179e-03 9.027999423188069750e-03 3.519941575261054025e-03 3.943733169859822002e-03 1.650020901897272015e-03 4.148081400195726895e-03 -2.460885274142981215e-03 -4.522943558622876878e-03 -7.600312601384582884e-04 -3.954691175543288109e-04 3.405893890613057810e-03 3.230984843912623489e-03 1.055067655788810566e-02 -5.723537463458502374e-03 -1.428299915778995059e-02 -3.544327127593093971e-03 -1.207544979560956112e-02 -2.018123555130960003e-03 1.092970427801716153e-02 -1.468998038992831918e-04 -1.280985783511790800e-02 -6.433573270424445580e-03 1.511041413806130931e-03 -6.375953666267501416e-03 -8.138198655861423464e-03 -1.905316699819594589e-02 -9.128019493199322765e-03 9.522169963750928487e-03 1.678413850030289339e-02 8.098727025484220646e-03 8.159342881073686216e-03 6.542150920865465527e-03 1.066351114265080835e-02 7.447051308500762367e-04 6.273629921940848285e-04 3.803749188295380956e-03 1.242457166712556543e-02 6.470995676459389591e-03 1.271499745050234421e-02 1.795430988260667687e-02 1.282130048476310541e-02 -6.501378462944764486e-03 -6.161462019344721500e-03 -1.682843145680823146e-02 -4.655100187838580317e-03 6.342208878375115919e-03 -6.132444355642312390e-03 2.490562277560713286e-02 -2.664569910796065963e-02 -3.834018049205350533e-03 -2.241038537700357214e-02 -2.406355859877711131e-04 -1.657383717799474840e-02 -9.756890642931854291e-03 -1.029456634030881737e-02 1.377105317518109891e-02 1.279367290937017190e-02 1.257460539838940392e-02 1.218385050815722764e-02 1.062038323966423871e-02 8.262907912441982972e-03 1.095624564919235253e-02 9.399964830424616460e-03 1.226533711378723773e-02 9.239982706689601685e-03 1.465201817522786276e-02 1.449310620952043091e-02 2.024504837265747245e-02 1.150889914477144782e-02 8.145916901457061349e-03 -1.584097136251911078e-02 -1.331996206756308129e-02 -1.348032439126278272e-02 -2.109539080001983022e-03 1.000475459872421542e-02 8.559080045073186663e-03 -4.595580379830088019e-02 1.183334406081650372e-02 1.546311859660321440e-02 -2.162644055711093315e-03 -1.243706551559565186e-02 -8.573430568536221513e-03 -3.579871977640785370e-04 2.278915429726701553e-03 2.488501245495757658e-02 1.059773344073854616e-02 5.659731219645840888e-03 5.881934666627867394e-04 5.516386959567093178e-03 -2.979385767426348574e-04 8.206988615101379683e-03 5.128567599928728765e-03 4.057885087838555664e-03 3.509372870878633283e-03 1.489878611704276894e-03 1.895766409057177485e-02 1.919887899114115781e-02 -3.614200779286555996e-04 1.137692917362682389e-03 -3.390034992883718401e-02 1.604493587449615927e-02 7.300894071480257090e-03 -2.122835294911366508e-02 7.377113848145741559e-02
2.092823278025689182e-02 5.791681896181902905e-03 1.945340637554486204e-02 -3.654350257756733278e-02 3.748022892764896023e-03 -3.384072141910455384e-02 1.378640264529916275e-02 -7.893741849932307819e-03 4.044545049544378558e-04 -3.464029831297986482e-04 -1.414253896173076151e-03 -7.294079881411760606e-03 -1.173019486922257520e-02 -9.052674847409026768e-03 -3.511791540503993343e-03 -9.657921640208967304e-03 -9.688752911421138342e-03 -8.832708515050692946e-03 -8.377362266682788008e-03 -6.088862422110188390e-03 3.424546478304381445e-03 -9.646967049871698133e-03 -3.540948830889541557e-03 -7.745896742913841934e-03 1.480706539995084491e-03 1.519137661091417638e-02 -4.783105316182778566e-02 2.432587675241160846e-02 2.485991665256523722e-02 2.348230151982566918e-02 -1.680402083152525775e-02 1.060054802626576517e-02 2.126736557947107517e-02 5.950177610390849046e-03 -2.414954962020173998e-03 2.216198108074051397e-03 -3.518659531193927322e-03 -1.008159520689772687e-02 -1.597957113213921421e-02 -1.669372634204575184e-02 -1.754650651575278414e-02 -1.431222522691126368e-02 -1.138554140670975344e-02 -1.817385940958854418e-02 -1.616121256178200752e-02 -1.251781401695378944e-02 -1.581942940684603199e-02 -4.888070126487143244e-03 2.230196372936489677e-03 1.183675742957700054e-03 6.079602269530946096e-03 -1.709361976497987242e-03 2.168754367288199675e-02 1.895731253080907772e-02 8.226979268426521177e-03 -4.770836610086837820e-02 -1.125949684274298729e-01 -2.791730254795103672e-02 -3.354791503256434465e-02 6.041093658395654126e-02 -2.012579747712135714e-03 8.555493749819714083e-04 -4.410425130981665554e-03 6.441406817337746310e-03 9.868215008377229092e-03 -2.166554264036694207e-03 -1.364806245611951963e-02 -9.664992357340083592e-03 -8.230103494418612720e-03 -7.728096387374982189e-03 -1.553981965582853370e-02 -4.970072839908691066e-03 -3.114760948227905321e-03 -3.210027404113134728e-03 -8.866795616618386791e-03 2.085719553694912604e-03 1.059433874990150029e-02 1.770475032398335620e-03 4.052865820525379525e-03 -1.421762694284290024e-03 2.844628557005063254e-03 1.935643161274123655e-02 -6.259566740315426411e-03 -1.958527966555487221e-02 7.039518523307393416e-02 4.990634891621546776e-02 -2.185374910701159620e-02 -9.261640874902115836e-03 1.436278580833944864e-02 2.804994407123612057e-03 6.247976637416260970e-03 3.786304876467705156e-03 1.718168190260450196e-04 -6.026680231617989950e-03 9.715301656214761321e-04 -7.248611437794247325e-03 -9.800984287672046338e-03 -5.407213417854860212e-03 -6.246119565825169334e-03 -6.176165664802957429e-03 -5.654468004836881063e-03 -1.837291836814475146e-03 -5.040050523824605132e-03 2.189628092904904251e-04 3.555119828758990935e-03 9.747876511842867506e-03 8.598704241568158255e-03 8.795157067571926848e-04 4.385900653668198430e-03 2.949814112718849267e-03 4.631019765558755386e-03 -5.404862660831830090e-03 -6.544188456203367532e-02 1.405521380710554775e-02 -7.039101009053306580e-03 8.985022784859335570e-04 5.304614759465199093e-03 6.803938228185580500e-03 6.235314119703512341e-03 1.307396307337615332e-02 1.629101860454172657e-02 1.463000966190738852e-03 -1.669885794880805133e-03 -9.418752874958205568e-03 -4.150468412470987960e-03 -5.627902685731942314e-03 -4.564163613126210814e-03 -3.534106252927485346e-03 -6.490429180932085970e-03 2.672719722390591948e-04 -2.299646275830670612e-03 8.923165306204736526e-04 6.351439993197849007e-03 2.542974690755356489e-03 -1.051771982408035086e-03 7.497482931337506873e-03 3.581839213610704502e-03 1.374047710798432034e-03 1.698057253364354015e-03 4.780826003247677473e-03 3.344382313987696864e-02 -1.521497315297612452e-02 -1.514377827190865845e-03 -8.820577046033587984e-03 3.821695240188861917e-04 9.783368623411376960e-03 7.575716356534210709e-03 1.034465596839111851e-02 2.118064587521375532e-03 9.954119169334196826e-04 -2.927695591491562017e-03 -3.220581075271888253e-03 -2.317765766537406742e-03 -6.434528934014601027e-03 -2.278483490005324495e-03 8.435133014524938801e-04 -8.313062867748307423e-04 -1.310317047751562549e-03 -5.971509710816211292e-03 -4.800025572114783798e-03 5.695015903283923674e-03 1.065057855567193637e-02 4.616767119886582352e-03 1.589452685782006365e-03 9.858466507084199474e-04 -5.011084294452786006e-04 -5.250132892926593145e-03 3.456331865459361281e-03 -1.734245352599801280e-03 6.973533599040654396e-03 -2.495267776727973404e-03 4.528334410841080735e-04 4.027530977708942105e-03 -4.119951319472688923e-03 4.074822970303042420e-03 7.216123410094386036e-03 9.697700862449519857e-03 -4.214015916864754900e-03 -4.025896100495698730e-03 -2.720914860797656520e-04 -2.965313030177041224e-03 -3.780014551798668333e-03 -2.498301102117671604e-03 1.131928501368394347e-04 -4.076073002558611678e-03 -1.328652075197911419e-04 -6.696898512472251007e-03 -4.370101803095776012e-03 1.036322132726067054e-02 4.908687863873790330e-03 7.784939766618632559e-03 5.858058446156678631e-03 8.846001647141874197e-04 -3.743257242728002029e-03 5.352781286110731493e-03 -9.926278850687936944e-03 2.898880392110122009e-02 -6.063283906452028062e-03 -1.622426698950714744e-02 9.754327736819671385e-03 3.826062321023724830e-03 1.021998467316522809e-02 -3.823546726713924863e-03 6.326342495047936228e-03 3.515148842345573559e-03 -7.892581002505413487e-03 -5.799456210303465323e-03 -4.597379717918087354e-03 -1.164079844593522012e-03 -2.893056253279000824e-03 -5.088714667177773139e-04 -1.261303478779771440e-04 4.878393169296665953e-04 -7.471704268291323855e-04 -7.101216775845077024e-03 -3.942773339515754163e-03 8.219331991846514501e-03 6.745856585756082255e-03 6.746269430147032627e-03 5.091944196369614303e-03 -4.227438984411392492e-04 6.040031366734678608e-03 -3.662590562132124125e-03 -4.930285167411234577e-03 -2.629226131466347489e-03 3.318319690832939595e-03 8.191744534702189579e-03 2.116804843115997065e-03 1.065237068531668663e-02 6.434046620185053175e-03 3.789068630147624222e-03 3.433490163241415156e-03 5.616049145798798943e-03 -2.863928526240899775e-03 -6.178141395280728129e-03 2.285969278765853175e-04 -4.229607187324234928e-03 -3.121557684522534206e-03 3.486506843635683774e-03 -7.378144313236078460e-04 -1.614268815535425082e-03 1.429057162941177331e-03 -8.211395791755648696e-03 -1.352275896051902170e-04 6.750539252093930645e-03 7.585640775898202723e-03 5.239871265226133702e-03 2.774404004611839402e-03 2.854207009150614392e-03 -2.192410023482846415e-03 -1.514789736822992052e-03 3.276170183920457113e-03 -2.195606051060476280e-03 -2.424180371863347578e-03 -2.725734450766018752e-03 -3.540141393026716328e-03 5.633618126219138399e-03 6.187264088230504111e-03 7.128327412141919825e-03 4.463443226591513012e-03 8.149185083280916647e-03 -4.686698706445638525e-03 -2.783900058136873964e-03 -2.919105822684096158e-03 -5.222400973754594625e-04 -3.400054172849523767e-03 4.033937074758606883e-03 2.760774698816423692e-03 -4.889868740755793009e-05 6.069690452251431381e-04 -6.825826682628943938e-03 -1.683311070038575252e-03 1.995602043171111183e-03 6.361365028462169155e-03 1.112336753876705560e-02 4.343214445588898000e-03 1.830414395972269339e-03 7.945261724197925706e-04 -1.731049683999720057e-03 -5.097192502445578588e-03 -1.870073497600918330e-02 -2.612708655920636860e-03 -6.844266579932690303e-03 6.972767176066521980e-03 -3.697119440244212192e-03 1.379874590895587352e-02 1.268715587336650442e-02 4.634504674815487571e-03 3.137613023276036514e-03 -5.060737281606371082e-03 -6.131268366926667483e-03 -1.969669267726252039e-03 -3.952296629843433592e-03 2.596910100751957141e-03 9.046827338468576424e-03 3.379008789774856376e-03 -1.962978085580758397e-03 1.785946157917762858e-04 -4.306508703498890776e-03 6.412771913199713601e-04 2.522764872870290626e-03 4.238334234631844187e-03 3.966832478902972831e-03 8.627479405085554040e-03 4.081213023282110816e-04 3.840507868397292392e-03 -6.085202992438464367e-03 -9.414942719508798824e-03 -1.133334664809334050e-02 -6.818518143150810625e-03 -7.243867834114827743e-03 -7.982702414128304072e-03 -9.351263539750507593e-04 1.144503515590913206e-02 1.023039069222907160e-02 2.474919746945184428e-03 1.793494250190660584e-03 -8.323931108807454057e-03 -3.582783680712789062e-03 -4.230335661075386271e-03 -1.043902469342972020e-03 5.734807465434387831e-03 1.034025833075274438e-02 2.868094062408688312e-03 -1.375620717378695217e-03 3.313873279253422201e-03 -4.868322953039302438e-03 3.549024881186903409e-03 3.702689670208502305e-03 2.559633152046767064e-03 2.990537818577281622e-03 3.559506351508216673e-03 -2.535827246281055654e-05 -2.358092770486811506e-03 9.976370054687335419e-04 -1.309918489620203082e-02 -1.538223136709706597e-02 -3.001410923895181208e-03 7.865943443160007846e-04 -4.072981836801812562e-03 -2.660771085062314974e-03 1.357188863556627566e-02 5.949234347797762237e-03 6.362890857086352363e-04 3.226336438882191661e-03 -6.433362162746701293e-03 -2.732181678797909567e-03 -4.310004564588061290e-03 2.190174730225969563e-03 8.019801331824815901e-03 1.365834112018858050e-02 1.847136013439526709e-03 4.252198363424476170e-04 2.326583365624751518e-03 -3.279916595004418907e-03 1.999752037370239918e-04 4.315771921326654222e-03 2.611836222903358290e-03 4.412749773612095923e-03 1.925651531098253278e-03 -2.644066151243336035e-03 -2.208103017408298216e-03 -3.723595452196276634e-03 -2.399626683248827497e-03 6.625808218080439516e-03 -3.724614089751011967e-03 -4.268114945482047624e-03 -5.616762734923516111e-03 6.337833802539134288e-03 5.628942227526821662e-04 3.058498921781219702e-03 3.108618263303144103e-03 -9.111602190250604012e-04 -2.915583333048680018e-03 -5.791165592092063774e-03 -2.662413641633203359e-04 4.293934344759445070e-03 8.854630200948033006e-03 1.105359745477213496e-02 3.597248286690417438e-03 3.185319573541870071e-03 1.839986115363857408e-03 2.349023271220768497e-03 1.129021574597209728e-04 2.350224427676773052e-03 3.830778849698404480e-03 1.997831382789943665e-03 6.050197373074594001e-03 -1.969222806196338927e-03 -9.766741638988158183e-04 1.374540629697896090e-03 -6.031933115681924716e-03 1.186728321400065808e-03 -2.881670884468713351e-03 -4.059087019932838651e-03 4.760011779152865247e-03 1.671902537644630923e-03 3.094435890289903222e-05 4.563132575533740583e-03 4.522581510398889621e-04 -1.151930902696943681e-03 -2.658055955444823832e-03 -3.676512019636459828e-04 5.208388716935668378e-03 1.404493653629478598e-03 9.519941167554547140e-03 1.352900992960509585e-02 3.670243220439961106e-03 1.654648131116501653e-03 4.161752845263786598e-04 -1.429634736453403625e-03 2.778150409081806688e-03 6.434863527316638356e-04 4.668045823273391307e-03 3.497378560594412676e-03 -7.810801020369768726e-05 4.412940187204623943e-03 3.097112064910478423e-04 4.818129484296967860e-04 6.313655767831012795e-03 -7.860039710994087478e-03 -1.179261296479332212e-03 -5.018241514255702149e-04 -3.842738714166447390e-03 1.378549549006661060e-03 -3.297576518577254468e-03 2.031720644832030968e-03 1.134822219242219172e-03 -5.586725575586627256e-04 -2.493181286219995534e-04 1.519879343130236485e-03 4.546236601218636882e-03 1.981832286338787094e-03 8.246855173115115109e-03 1.199436249513417645e-02 6.693660992458828375e-03 -1.770016993319989320e-03 -1.262890536493333285e-03 -2.385019939567840572e-03 2.299653172722069747e-03 1.655940926557665288e-03 -1.869174649559964116e-03 4.757135927731617232e-03 -4.665436690452655680e-04 1.278718426741771779e-03 7.887983040993437481e-04 -1.010155735330397694e-03 2.572488254827338429e-03 -1.942886669584781073e-03 2.188042832116627191e-03 1.947428234892399765e-03 -1.611137224269963610e-03 1.929880565222838939e-03 -1.671045955139014447e-03 -7.749140977859137261e-04 -1.561917320634937777e-03 1.072958891286698033e-03 2.543896584253749465e-03 4.328502913508233164e-03 2.315923801867100177e-03 1.203134267809713009e-03 8.685943316614633605e-03 1.500959496933663637e-02 4.158939895740765801e-03 -1.961461376515052056e-03 -5.330476324904765860e-04 -2.271699356862731060e-03 1.678544793862997821e-03 3.641196686777842684e-03 1.111047417609225835e-03 -6.843976063243775330e-04 1.326906627368478874e-03 -2.106677215006849560e-04 -5.576645477317866521e-03 2.096844430496616271e-03 -1.956735213713897952e-03 -1.074994429590828658e-02 -3.014677742140016003e-03 1.340068691949507327e-04 2.893349072690981627e-03 1.678666436496199527e-04 -8.930799723139882130e-05 7.048635659712472077e-04 -1.950712942956818810e-03 1.359363501663480656e-03 4.177154329855378885e-03 2.620079241900184763e-03 1.705180987783168345e-03 1.521681857638905845e-03 1.301547880557877256e-02 1.118060554887388702e-02 6.200617649867476086e-03 -3.340111572277645511e-04 -3.520133069212074816e-03 -1.748168716743395894e-04 2.357226659666051844e-03 4.197342977201591954e-03 2.729425640720659855e-03 9.000228842024364170e-03 4.494410702201783597e-03 -2.038552665435292271e-03 -7.268016017685532265e-03 -4.380700275813574304e-04 -6.533147116661110892e-03 -8.545421933577981508e-03 -9.918853501404410224e-04 -4.998635415142749575e-04 3.302131050519182404e-03 5.288277279427145566e-03 -2.298549560069896268e-03 6.166629728706736957e-04 5.794190088666546605e-04 2.619531712077821217e-03 4.587912779662402761e-03 3.080022890700597014e-03 -2.287777894032182874e-03 2.022970977364878069e-03 1.362660703137935463e-02 1.562376578163107710e-02 6.267659450837671960e-03 7.225137273482431979e-04 -3.348933051084756335e-03 -3.873889741328343916e-03 8.602823134413569578e-03 1.906457057826187271e-03 6.568548533989153684e-03 2.600277480215319129e-03 2.701582639643970433e-05 -3.539198890736572952e-03 -1.927142909314690780e-03 -1.872987710962765008e-03 -3.839254917475981750e-03 -1.112387677538014680e-02 1.187545113711881845e-03 -9.741493777118148418e-04 -4.241672292295461857e-04 3.767002543571951970e-03 4.207161900905751969e-03 -3.457442627726351175e-03 -8.424309129008998630e-04 3.905855546774454883e-03 4.187475189537155466e-03 1.983060357408938847e-03 1.020463912391331423e-03 7.090777383963004984e-04 1.149322775790714846e-02 1.360654529026096050e-02 7.455860674812075060e-03 -2.918145752126178206e-03 -2.291751815463522520e-03 7.585115322904375460e-05 1.025758979538752766e-02 5.844707062254014644e-03 -2.085221673280249644e-03 3.509169349650177326e-04 2.534480016834185067e-03 -8.227253577507906424e-04 -6.502878450446708709e-03 -2.879445590085560717e-04 -3.436465950867354999e-03 -2.415680698611589062e-04 -1.867256138931221209e-03 1.689197793070423489e-03 -2.069781727585493728e-03 -8.000730001361762217e-04 -2.777591015149763107e-04 4.860247641761401664e-03 -3.337202983729543188e-03 4.006442992098990449e-03 2.148294263958156359e-03 1.107660173018463817e-03 -1.358101487175026895e-03 -2.575424204687089096e-03 9.336812811969925213e-03 1.470088274171319626e-02 6.626986647115906508e-03 1.970468887971789373e-03 3.782645592575325025e-03 6.159806131888293781e-04 7.326331716334700921e-03 -1.527667920054862072e-03 1.344938369333392378e-03 3.692714344338744736e-03 4.454939063730489410e-03 -7.700589672216038781e-03 -4.811530661468824653e-03 -5.480092534060453623e-03 -2.907981973394957540e-03 4.525033415506350166e-03 -2.946971609210328070e-03 -3.763061369380166915e-03 4.928131340458613216e-03 -7.238933176372174157e-03 4.864300746257055504e-03 -7.446989687630399014e-03 1.747691314224488011e-03 2.262087106536242367e-03 4.988780899042843595e-03 -3.040137076907436630e-03 -3.673072554668485611e-04 -5.033659099852839328e-04 9.655726656042376566e-03 7.913081464624703923e-03 8.847958999074478914e-03 -4.548003655957645955e-03 -3.864838970422477941e-04 3.789311828296656592e-03 4.730279479166693730e-03 7.172174644642024784e-04 -6.785134826752704665e-04 -1.845644577404205629e-04 -3.081544442759940987e-03 5.397213621359230225e-03 -2.316079342365600247e-03 2.207435140453448564e-03 4.630595123819888741e-03 -1.894092961522204736e-03 -8.469646324444331589e-03 -2.422788977465520788e-03 -6.081532786242650583e-03 2.882816067147349164e-03 1.716213306960288638e-03 -1.668052651991837419e-03 -5.173825510763862580e-03 3.685413307395162506e-03 2.970500519511955640e-03 9.210294252557808597e-04 -1.432438288982726708e-03 -2.478004166058265893e-03 1.127281861327527474e-02 7.686114331229446615e-03 6.290455437559521953e-03 -4.434858349728152543e-03 3.547775899081374862e-03 -5.694273464317205040e-03 4.693389385324635982e-03 4.774448243260549438e-03 2.824101052335726441e-04 -4.472678261790822424e-03 7.150181968125123716e-03 -8.946576989558962037e-03 1.230691601414544425e-04 -1.194559857425828294e-04 4.896747915322310039e-03 -7.362404308221782642e-04 4.149199740412314909e-04 -4.265407765618058240e-03 -8.410081014688824616e-03 4.672789568945227845e-03 -5.245214839755782702e-04 -1.991308943911203767e-03 -6.564987817714911834e-03 -1.676568001963291561e-05 7.631537859832680619e-03 -3.823510725086437089e-03 -3.034883184281143668e-03 9.683485087068639113e-04 6.391720364741327459e-03 1.075182167029987458e-02 1.251142415791372045e-02 -2.525697314259927901e-03 -7.328914998793630876e-03 -1.586420205821820802e-04 4.866618651181779144e-03 -2.329666067985438445e-04 -3.253728726065928303e-03 3.471403945757934283e-03 -4.450531656472337186e-03 1.677529195417519275e-03 -1.795198199115545252e-03 1.030286202389924096e-03 -9.841407288839363818e-03 -6.716647399470948576e-03 2.446812513167156370e-03 -3.186604245318271772e-03 7.102377949173192080e-04 -3.373469525402826856e-04 4.147423984968294551e-04 2.874228787904794190e-04 -8.204008257110961475e-03 6.832233398723783701e-05 4.819060068278933733e-03 -4.832686075855257071e-03 -8.704376530073030388e-03 -1.365421594646484523e-03 8.406269191598604237e-03 1.269808590625524404e-02 6.299528068439834080e-03 5.358823467710921613e-03 -3.791682061820384961e-03 4.889543294731639152e-04 4.653891297314587290e-03 1.697546863730929308e-03 2.033579017761810021e-03 4.950474006795717481e-03 2.138666056904037042e-03 2.178507241659877105e-03 -2.533345131157842614e-03 -2.215848043752605568e-03 -2.920840927088614713e-03 -1.017810822768004837e-02 -2.126335553647374938e-03 3.026372818308800759e-03 -6.209606015282715524e-03 5.574045478142389091e-04 2.109698530246242876e-03 -4.075804599261996074e-04 -1.149963011373300462e-03 -1.535584304047986869e-03 1.191028643329673830e-03 2.563431075714558884e-03 -6.841839925574890770e-03 -1.604027044430064068e-03 3.506951643154986639e-03 7.000968870135355904e-03 8.048185492007260688e-03 5.250335020710996357e-03 1.450978930312452411e-03 5.026341343743493013e-03 9.773164529497590722e-03 3.500788659988384268e-04 -9.382930281116263344e-03 1.311926873484139770e-03 1.054225914039166705e-02 5.912877421224009208e-03 4.674804755397438463e-03 -1.229896043323888601e-03 4.072147612696019707e-03 -4.186839522732980351e-02 8.648454530670195151e-03 -5.408837882440419020e-03 6.048447284726316073e-04 -5.280165077333199598e-03 6.538295687926683241e-04 2.901402631967247604e-03 8.596198585855788785e-04 6.671333017262537531e-03 5.088922662274314446e-03 -8.938574134839253824e-03 2.959065036105972685e-03 1.274029798712546062e-03 7.289133304493445806e-03 1.509575045810120260e-02 1.677135123347963178e-02 1.611030576592687715e-03 -5.989285940388577346e-03 -3.617905798045479779e-03 5.653173881464378103e-03 3.409583951259071832e-03 5.771772414114097714e-03 4.348152845469696950e-03 3.028774880100004296e-03 3.309208475119830312e-03 1.578670332914414469e-03 4.674154768567586986e-03 4.629024935338791474e-03 -4.000172990297818504e-02 1.592365856339023229e-03 1.392777200324766575e-02 -4.639385177453307467e-03 5.620666744751385419e-03 -4.098313972259988794e-04 -6.780943916207349785e-03 8.764432697270674311e-03 2.795781999748838190e-03 -6.386935979752093526e-03 4.223402617651514368e-03 -4.427004791492460123e-03 2.782231115440051642e-03 -4.593550973666118932e-04 1.870777303137985425e-04 7.449259485642388892e-03 4.642375396131690618e-03 -3.759445511608405961e-03 -6.263886918092633795e-03 -1.355737227241788408e-03 5.652611597389830406e-03 -3.114990538904426932e-03 -7.195546068840154644e-03 1.184861646458567654e-02 -3.318704867544570482e-03 -4.768332701386900942e-03 -4.189406361148156205e-03 -1.837286148729254734e-02
7.674363879416376544e-02 1.686126571095460103e-01 1.480293990891222433e-01 3.049608587447802388e-02 1.373818947384234171e-02 -2.263550501795210876e-02 -2.222519074678418541e-02 4.957124996244763153e-03 -5.394606815063338577e-04 -7.632038754180568534e-03 2.249885251462965981e-03 -2.160565086989856432e-03 -1.182415175394544403e-02 2.881265001614201801e-05 -1.180313906693062839e-02 4.365924973286606885e-03 -9.546988945274141256e-03 1.246137671574010838e-03 9.588105338268256700e-04 -4.778630394387934494e-03 8.759488879466439297e-04 -4.962393988271573790e-03 -7.303944237146232921e-03 7.140944481496849100e-03 1.706964630630386157e-02 1.832187537790849058e-02 4.798390437957925775e-02 -5.701410092432375454e-02 -3.339889754406146893e-03 -2.262017400326783376e-02 -6.755925537333918977e-03 -2.166538437147481205e-02 -3.516026149430455210e-03 1.018815603104325333e-02 -1.023164865539006284e-02 8.140956511083194402e-03 -5.352599599480155172e-03 -2.147875062527478465e-03 -1.883196893380136103e-03 -4.811658033135162056e-03 -2.283084159789992764e-03 -1.033746009879093347e-02 -2.831171734156593973e-03 4.478721888714196813e-04 -2.708604010528417854e-03 -2.004324431972538938e-03 2.946169786016770119e-03 -6.979813309544825178e-03 -2.045601890845267969e-03 -3.873310110194566180e-03 -6.240484262043235336e-03 7.116068537861122527e-03 -2.756553859407967141e-02 -1.773061595027500270e-02 1.485505411037174595e-03 -2.654089227235141221e-02 7.013622793014514037e-03 -3.916525956569894169e-03 2.372464121245579025e-02 -1.702796002313266416e-02 -1.322350826022404037e-02 -1.189755663430135503e-03 2.812226792541777133e-03 -1.055344281312719200e-02 5.618946417687410797e-04 2.303593536634174210e-03 5.254769295425893230e-03 -4.401918990245015650e-03 -4.054005403439734159e-03 1.503084159755033004e-03 6.054061064294810699e-04 1.873151043790191291e-03 -7.500609070565206551e-03 -7.063109796908539732e-03 1.246722985346355094e-03 5.857130148541084703e-04 -8.193765964158685605e-03 1.339126599035872067e-03 -7.293466912743488614e-03 -4.809878551153797151e-03 -5.251257064469297582e-03 -1.711696050135843097e-02 9.369627810576708349e-03 3.565610107442961779e-02 1.372255309173538163e-02 -3.871982031243848682e-02 1.348013977383863936e-02 -1.597296878907439885e-04 3.341361255577570116e-03 3.322750450811500725e-03 -5.468232836909938874e-03 1.571065018052670214e-03 1.028924758806350551e-02 3.974553777834967903e-03 -9.094894910227743941e-04 -2.778582163392603194e-03 3.301553478256254517e-03 6.471158330661681054e-04 3.598669702045195502e-03 6.306179723270823306e-05 4.002824385185720438e-03 -1.266727591579276712e-03 -3.550177673099654419e-03 -2.038367422207965334e-03 6.756946275182221413e-03 -1.088054190824244011e-02 -4.592984394562360691e-03 -9.575004517619828751e-03 -3.328219371488934115e-03 -1.285212394219418033e-02 -1.425917038852719289e-02 -3.667502632528152253e-03 6.754511238336648182e-02 -5.125063015753287578e-04 2.073669858210620831e-03 8.319285447631342631e-03 3.037947961715200141e-03 -3.053212116134242440e-03 8.047645232152641701e-03 -1.096609374818520747e-03 -5.161529655936386574e-04 7.187101628771998436e-03 -3.705895610858618312e-03 2.872480659957034072e-04 2.705230543297461581e-03 3.206250779815556212e-03 -3.304578673291607652e-03 2.611575306319097785e-03 1.468746131894847415e-03 5.619924548568694909e-03 -8.252194699846256490e-03 -5.504796051838284701e-03 -9.497095270729203264e-04 1.925955278878748898e-03 -3.356831529525857848e-03 -4.527559014648777427e-03 -7.319333566683510796e-03 -1.148931461417014750e-02 -1.328522584133996071e-02 8.357176379491052312e-03 -1.728985721705923392e-02 8.659577025930375802e-03 7.538631005551503332e-03 -8.338290595281884487e-03 5.595613386010288390e-05 6.171040025375972189e-03 8.077649123251474245e-03 -9.601540228287210738e-03 2.289792803337911947e-03 -4.537463806765852301e-03 -1.812855961326703506e-03 4.980030012792905497e-03 5.921023117520488217e-03 5.285687356198988558e-03 5.841742960389930371e-03 2.134911359911294097e-03 5.477856088884070808e-03 5.403772345001783481e-03 -1.033754218431834349e-02 -6.563415498370146761e-03 -1.063664680628209971e-02 -8.526520709733917359e-04 3.258939694278914934e-03 -6.055440735804616496e-03 -9.216048297699907382e-03 -3.412705447205235335e-03 3.242422856257169022e-04 7.777217601255574306e-04 3.358304768960429509e-03 -1.231534240649835056e-02 4.598633316219758360e-04 -1.398061497817392265e-03 -4.039301728398171989e-03 8.768087552269487883e-03 -5.655036188357429050e-03 2.992098107089194176e-04 1.147422194147503785e-03 -3.310238238941675109e-03 -5.855750571807737288e-03 9.305266647767576962e-03 5.507772715423840150e-03 5.911738214941330942e-03 3.511835762545606563e-03 5.927218448442675945e-03 2.067544490286088357e-03 3.941227894731523518e-03 -6.204684478762672976e-03 -1.009000627041967656e-02 -7.004798275459496806e-03 -1.200706775409356164e-02 2.366967600147228123e-03 -4.977821675007255281e-03 -5.058922907180308940e-04 -2.736730029590307353e-03 -1.093545412657703254e-02 7.433197870433779636e-03 -2.980088836573440824e-03 1.375588399964952462e-02 7.113336812027603630e-03 -7.944376415243717404e-03 -2.042357735536928093e-03 7.566122332898634652e-03 6.375039662277669976e-05 -9.392734830033005675e-04 -3.057755685129281206e-06 -1.495978064984495670e-03 -2.675188437860042279e-03 3.735643356839706084e-03 1.053623402323732722e-02 1.000265134547243667e-02 3.661942615251450976e-03 4.267242308329532996e-03 7.127124188124126826e-03 3.234517429815114611e-03 -5.222479503419931099e-03 -9.046420433824470600e-03 -3.725399557093076863e-03 -7.928906392768067524e-03 -3.056243507291736983e-03 5.098690102717206825e-04 -5.886752458084225370e-03 -5.057616920309089374e-03 2.281287548198932097e-05 -2.303757485755167887e-03 -5.329418907904038237e-03 4.409547449278536022e-03 -1.113099540194890588e-02 -7.964859593772239191e-03 -1.201205379645885370e-02 6.766723315378297791e-03 -4.094520913105429739e-03 -3.269108883558120068e-03 -2.263389682398520703e-03 -9.721980876004515312e-03 6.641049617295040168e-03 5.395196217303432733e-03 8.946514276144684405e-03 7.605293521575942975e-03 6.057349893375433593e-03 5.028046773827466072e-03 8.400476011973157962e-04 3.687750590230568903e-03 -7.308334429375790663e-03 -7.388573294158373717e-03 -4.880100889623345539e-03 -7.032944645858308849e-03 -2.005006041606115837e-03 2.416681430585974812e-03 -1.056516791186152366e-03 -4.169086224985011323e-03 -1.788725893165469009e-03 1.160073378727329843e-03 2.990387899173483233e-03 -1.018905182360523368e-02 -1.146827592641241032e-02 -5.615021934671554117e-03 1.106741730249600868e-03 2.400937653739103773e-03 -1.653508077570123649e-03 -3.683317302669091801e-03 -3.334353469510231011e-03 -1.231578241420624650e-02 -2.215825264380944914e-03 3.726298239830341200e-03 7.707814622705000743e-03 8.685236201949199375e-03 5.283886770661651473e-03 5.173829454143145847e-04 -3.088869393823863007e-04 2.575915919216446685e-03 -4.707819728130700938e-03 -1.141442886620318287e-02 6.068437222966973103e-04 -6.992496184754167649e-03 -4.645821411455561094e-03 2.737260070915104124e-03 -5.879461671293085244e-03 -6.284037500469329303e-03 -2.170968366311443101e-03 7.313389299660248873e-03 1.105334543222216519e-02 4.530007495488110568e-03 -2.359575800930227563e-03 -5.636031973577039847e-03 3.399923291395895268e-03 -3.606152043853531132e-05 -1.126324933790153957e-02 -3.138593648544324107e-04 -7.492637774625937087e-03 -9.653793748677650180e-03 4.660476261856894876e-03 5.392005117635332960e-03 5.959856472494872576e-03 4.422292803751803371e-03 5.282534892201821292e-03 -1.546535320574408522e-03 4.141346100526205158e-03 5.657681897269814346e-03 -1.022067281769534382e-02 -9.632714243813813443e-03 -6.271763426768506462e-03 -3.245899817270499112e-03 -4.243545328289623393e-03 1.861149942521044215e-04 -5.145259249941935321e-03 -4.694172549641022728e-03 9.492652110614387519e-04 6.283734677612569375e-03 1.777131535400386028e-02 -7.264266351021493790e-05 1.907592455957885002e-03 -5.335906215702104251e-03 1.238342377831600470e-02 -4.490745197325003539e-03 -9.686096611147635912e-03 -6.512744368246569521e-03 -1.171446446052082369e-02 -4.954998591843066263e-03 -1.880724098230447281e-03 6.023581637565079798e-03 3.027889004111684705e-03 6.439882716720828591e-03 5.506386096424796366e-03 -2.589630541931116185e-03 -2.409018812568468573e-05 3.715478289578311773e-03 -5.285972935106181617e-03 -1.300689337851461055e-02 -7.116885441740937110e-03 -4.103209477153868415e-04 -6.468983544452312426e-03 2.184638914287792208e-03 -3.535168386821341008e-03 -5.298517618246539017e-03 -5.129042171906436458e-03 1.055399135120602475e-02 1.423423654499024818e-02 1.575118681112422023e-03 -2.000612370248680896e-02 1.759197222680607998e-03 1.348386692357859224e-03 -7.435178970393506621e-03 -3.759773196154763113e-03 -3.885945526207147324e-03 -1.286792390553325068e-02 -6.188224294468091385e-03 2.848179357454825016e-03 2.898974851562291944e-03 1.919507454187392541e-03 4.990070022142678412e-03 3.621750796410599764e-03 8.295599012463404729e-04 -2.909330284619520996e-03 5.703344804276470892e-03 -4.423264974292877814e-03 -9.841960335866564019e-03 -1.069060623494563073e-02 -5.135110462017180612e-03 -8.570515062800470457e-03 2.464116127422730056e-03 -2.509697421380223219e-03 -5.827553790642570584e-03 -5.762140808355787486e-03 5.172999926791659216e-03 -1.372664330681304563e-02 -9.440817304896700554e-03 -7.558948123232201582e-03 4.052833750216372141e-03 -1.720465344970936109e-04 6.198511594337052094e-04 -3.205002369772859665e-03 -1.240871123507689307e-02 -8.057229121835807889e-03 -5.830127321082988374e-03 4.408689160872645424e-03 4.260402689107954666e-03 8.753103153069884113e-05 5.809215876006463934e-03 7.250080021165346278e-03 1.943479551025020661e-03 -1.801580969808765087e-03 -3.208694220053886896e-04 -4.298427482044137851e-04 -1.183701776085789407e-02 -1.388971122973425322e-02 -5.373676321512400877e-03 -6.417138886473286452e-03 -1.212234017901360483e-03 -2.540793371840234776e-03 -1.517255561035308654e-02 -4.787717740522953215e-03 7.553331270050817579e-03 8.229394743448751465e-03 3.402812872922572618e-03 -1.117069721311152522e-02 -5.063076200890672708e-03 1.903647236081412947e-03 6.180796497829555260e-04 -6.322336632237589987e-03 -1.221854592315840642e-02 -1.147343926433508875e-02 -4.297150376808524935e-03 2.367335191762652124e-03 2.577857637804388440e-05 1.823004909694307327e-03 7.704214203301940414e-03 1.085584819965638038e-03 5.176348999394753472e-03 -5.640247807890634742e-03 5.372542981460427802e-03 -6.631829679056940778e-04 -8.009225105068247530e-03 -1.386505118656978716e-02 -1.217669322568868187e-02 -4.645801729893307003e-03 -7.040692373970819568e-05 -6.750455529214139348e-03 -1.079805090901779854e-02 -9.718665615071744868e-03 -4.971978917910713745e-03 4.215857495648654002e-03 -1.412986001820636713e-03 -3.207446218584639620e-03 -2.917743594814467198e-03 -7.988629147743214060e-04 1.973423583412216731e-03 -5.117516436918703379e-03 -9.854531767551025917e-03 -1.260886892543875218e-02 -1.248261985845415143e-03 8.110169249512994873e-04 2.489118389591551527e-03 1.742099046344467534e-03 8.067297041292015997e-03 2.015802441834900396e-03 3.882065069810591417e-03 -4.355881104909605991e-03 5.236323414173445732e-03 2.427670117713467707e-03 -5.453485472489026306e-03 -1.343942148937975721e-02 -3.966994918428387758e-03 -8.794198332389428080e-03 -8.386118185010621321e-04 -1.272116146121038448e-03 -1.208962149463529978e-02 -1.445628728281573953e-03 -1.247297341823664285e-03 2.889465420492977159e-03 -9.387549823754210918e-03 -1.166703551228177871e-02 -5.561017579388427990e-04 -9.672797308415168960e-04 8.400962878978739719e-05 -1.038663050860571396e-03 -1.466918720281000857e-02 -6.420942033772286846e-03 -3.038263404235890235e-03 3.182645312898279774e-03 -5.134409232824640361e-04 3.081348694552018142e-03 1.096774679674769951e-02 1.646331827331303952e-03 2.549187389727813457e-03 1.713139545811588659e-03 1.891213728026619337e-03 2.619641670467999939e-03 3.111730255532795821e-04 -1.546286862502760200e-02 -8.032621356384281666e-03 -2.932226556946359707e-03 -1.921662334836976268e-03 -2.169471286209644599e-03 -1.487213622807884291e-03 -1.027352779325557512e-02 -2.261674887286299531e-03 6.115086198887619527e-03 -3.950730812078525472e-03 -3.829456872963193231e-03 -5.715900362727225313e-03 4.134965153748114929e-03 -3.319776244214466335e-03 -4.116646198366022240e-03 -8.669880627184253785e-03 -8.380826698269640967e-03 8.177350478532674537e-04 -7.414245626451717404e-04 1.161721465077846785e-03 1.251253205272762460e-03 6.977157547710656667e-03 7.134240076672614464e-03 7.756568645063960724e-03 1.440017500620917584e-03 1.876242184480260899e-03 4.590529944280067644e-03 -1.669312134657023649e-03 -1.443778059510413513e-02 -1.037554081464525831e-02 -1.216070853700536476e-02 1.258093687790330173e-03 2.748699284251375323e-03 -2.745258673441621465e-03 -2.501235668252310782e-03 4.951871750165819271e-03 6.231034619366409601e-03 -3.984223511005366772e-03 -3.500659974044050861e-03 2.469498850174520286e-03 -2.386318817651437996e-03 1.815404006096475384e-03 -4.315972716407341821e-03 -1.385464832954608552e-02 -4.605222488355704795e-03 -6.906292438046412476e-06 2.887998469167330981e-03 2.055190400665122749e-03 3.066329546417345415e-03 7.522491335656824457e-03 7.950023500959461920e-03 4.411657957898810871e-03 3.396538405357516811e-03 3.119179507145728759e-03 8.452086408412811530e-03 -4.471691970551200900e-03 -1.556831537479301530e-02 -9.344509191412015553e-03 -4.182113470150067638e-03 -4.675746325945902694e-04 1.415266172215027922e-03 -7.117104003194694474e-03 -2.329373148922351047e-03 2.864737408340485136e-03 7.747002253816730015e-03 -4.288794819239748375e-03 -5.857451598695183364e-05 1.149948532246074717e-03 2.828209802913878653e-04 -4.038313159757961172e-03 -5.472380106162196868e-03 -1.157119242844451869e-02 -6.936594496647100969e-03 4.594124270640644221e-03 -9.306388650713599397e-04 7.103032396071962996e-04 4.059511131818925589e-03 1.053010656768512548e-02 1.292237788793557801e-02 8.268703867264770926e-03 -1.072027081406591023e-03 4.642417674425166133e-03 1.411750263018861709e-03 -7.013733553156373431e-03 -1.518159923654528558e-02 -6.017355160638901759e-03 -1.633087221298557250e-03 -2.496809104677090354e-03 9.132689678935373024e-04 1.290503843249152282e-03 -5.939116284388812339e-03 4.433406334700361155e-03 2.946636632463483368e-03 -3.525363858673228549e-03 -8.593625227189221998e-04 1.068807330825179277e-03 3.305963590345316772e-03 -5.937972044269942441e-03 -7.919619566306695252e-03 -1.017463577872707720e-02 -4.540087637893288480e-03 1.533548806353746390e-03 3.460193820907143340e-03 -3.544771434295979767e-03 8.702180805071655506e-03 7.135953237641658523e-03 1.373460101857888749e-02 7.864555712141379357e-03 2.816590591274809388e-03 -5.975814945045973200e-03 1.501187817221975168e-03 -4.054434441605150007e-03 -1.277472033261390152e-02 -1.244887940405594272e-02 -2.738908291339911148e-04 -6.284886086001365696e-03 6.984131185051525512e-03 2.084982263555423506e-04 2.167458033921244431e-03 1.242168459313701314e-03 1.906185485981118323e-03 -7.667774837138791912e-03 -4.047859743046677145e-03 4.273819752631958374e-03 2.487347569933739521e-03 -7.912605313721050512e-03 -6.539382769766087511e-03 -1.164062943877483200e-02 -5.704013717496931625e-03 3.258769428222270479e-03 4.186502379327569287e-03 -2.378846615966807507e-03 5.918477142034914325e-03 5.227665070893843142e-03 1.710206106682538724e-02 5.190062012005448346e-03 4.973704088472870322e-03 -5.896219122111042051e-04 5.242734065005467785e-04 -5.175086601921868867e-03 -8.995445967876578713e-03 -4.650195694904304435e-03 -8.307540134628621162e-03 4.667547525747114436e-03 -6.551341555015752563e-03 -1.039532382144446425e-02 -3.223498084648374670e-03 -3.236219378896303036e-03 3.250253701982824556e-04 -1.885542285475089348e-03 1.496260582518274627e-03 3.355180339342882061e-03 -1.835498128189101555e-03 -8.636081752953760418e-03 -8.698780985929093282e-03 -1.058997482147052208e-02 -4.838892364434352263e-05 -3.789322561579749199e-03 2.893161287755761923e-03 -2.994328748685333007e-03 1.001566963948686932e-02 7.074281017981944898e-03 7.143947609330409364e-03 1.008753959144564200e-02 2.352457943228199178e-03 -7.114330488883785107e-04 1.865813059017581857e-03 4.004450274544227306e-03 -1.377882774741579983e-02 -1.646014743558533652e-02 -1.531145230790643356e-03 -6.787069326569420552e-03 1.262293529839103633e-03 2.224341745915875412e-03 -6.433012029876564002e-03 -9.510999730650060435e-03 3.097179969254236151e-03 -4.047251174871281491e-03 -3.318261295663666160e-03 9.258094115159229073e-03 -1.996826904203946249e-03 -3.571201839765743031e-03 -1.135191915230700233e-02 -1.946728684585025473e-02 3.858496409609576478e-05 -1.304075732037937455e-03 7.516508161628555895e-04 2.483018949046076566e-03 5.020182141021716643e-03 1.399778384654205669e-02 7.431116113946354719e-03 8.836967157231033140e-03 2.925731835139228163e-03 8.484686869225393016e-03 1.800978007033069176e-03 1.204116301023814900e-03 -8.586139218039674434e-03 -1.094612239457532984e-02 -1.311484255192042411e-02 -1.896042481109090790e-05 -1.185689379822219220e-03 -9.019261755623597318e-03 -5.933320522203190152e-03 -1.869914150516083836e-04 -2.846804574853471770e-03 -6.400044901587763346e-03 4.405171734083690796e-03 1.147426634643157256e-03 -1.243656360319151137e-03 -5.053499270786455250e-03 -7.544530164871486068e-03 -1.195368852609231779e-02 -3.742413505484261643e-03 4.653094205761318554e-03 -1.540725432213645900e-03 1.077190654982418394e-02 1.244986966555291326e-03 1.067386350545468897e-02 1.217499985077834419e-02 1.732032743636956543e-02 8.726259873189590177e-03 -2.088679431583586113e-03 1.318775737598011860e-03 -1.898969589784894017e-03 -9.646451595026956857e-03 -2.383092248680669309e-02 -4.216097974426305517e-03 -2.165322564330996249e-02 -5.976741925101230471e-04 3.667096277731188205e-03 -9.958774847507125341e-03 -1.254200043587965982e-02 2.161216303729098301e-02 7.532528247796867367e-03 -1.619031494739097202e-02 1.382787751533585919e-03 4.790284192802310263e-03 -3.987608111587855400e-03 -7.113928008974830693e-03 -1.775892254442271168e-02 2.646283796749863276e-03 -2.635902097630799684e-04 1.551475990007841060e-02 1.834732270937564210e-03 6.393829295634358319e-03 4.994825771571191099e-03 1.103387659349985145e-02 9.873942524796543163e-03 1.540800761800727343e-02 8.496973809820772619e-03 6.817709247799012134e-03 7.230315516681439132e-03 -5.818618860251804914e-03 -1.739873415419565181e-02 -1.546527508424804138e-02 4.917578736333730674e-03 -1.074857993624764654e-02 -1.003414460306641803e-02 -1.790960736263957562e-02 8.198670430874303167e-03 2.962998582216216231e-02 -3.303716376376709257e-03 -8.662191603839283771e-03 2.971037770079674230e-03 1.916281651392406525e-03 -1.370405406852228010e-02 -6.114279218912600962e-03 -1.140587510767470357e-02 -1.468280980603967360e-03 8.792159979482202722e-03 -7.560818465338872869e-03 5.852800645717108272e-03 1.094574862127164691e-02 1.322903763169229301e-02 1.994755192018565076e-02 1.468365820159579435e-02 8.766691848610765059e-03 3.182968823160704959e-03 4.633774992905562683e-03 9.868129759657279579e-03 8.475392125654411784e-04 -5.354571348815560447e-03 -2.349709664158679615e-03 -9.121988341347789589e-03 8.157923420686679153e-03 4.760187180698522043e-03 4.208949565209076614e-03 -2.928519926513589028e-02 7.835584744649916333e-02 -4.133865073381895461e-02 5.846849352511425749e-03 4.171065206118088585e-03 -2.360385742359321585e-03 -8.537260112523582106e-03 -1.437353809027184376e-02 -4.849187302948500082e-03 1.458766245851967486e-02 -6.600519449427877730e-03 3.807726294668019144e-03 1.678173053963276590e-03 -1.465903514155452326e-03 5.716019031814961390e-03 1.904175771305891690e-02 2.986664043522936109e-03 -4.482444028580981690e-03 3.481024488571950789e-03 -8.976703563037107328e-03 6.583237955668951556e-03 7.848180233970885808e-03 -1.203204309656511796e-02 1.727428747187249392e-03 -2.968307484727193170e-03 1.440576090665327165e-02 1.675495252268483642e-02 5.202638072927832924e-03 2.408699653896205148e-02
