3.011978506756864981e-05 6.499464721278056965e-05 -3.608932457132917022e-05 -7.659437768372776326e-05 5.060201843517828459e-05 -9.094906481159500088e-05 3.919156045805289684e-06 8.334173127531814594e-05 7.883120008953480967e-06 -7.853560552046436589e-07
-7.921788418522439661e-05 4.962023544868990533e-05 -9.453576931343358385e-05 1.380094506812354132e-04 3.253869004263148672e-05 6.346280805539654445e-05 -6.642269489521597644e-05 -2.780958800943176542e-05 -1.026036543930203558e-04 6.956334334680485635e-05
-4.628590122775756385e-05 -6.403365765337363635e-04 5.537669643363701127e-04 -1.344997515569440667e-04 -4.592446755143129669e-05 -6.806975145716167533e-05 -2.452046377059420405e-04 8.627044788813996963e-06 -1.526782795658582334e-04 -4.061008006301157036e-04
-3.683077935024006233e-05 8.314688731038953436e-06 2.684677454990564110e-04 -5.087756515147552790e-04 -1.156309915205033616e-03 1.204409805955925785e-04 -1.405284689697340931e-04 -5.444233512825652531e-04 -3.458929800341210099e-04 -3.094401042133283070e-05
-2.047206732372369546e-03 -2.153018492474240240e-03 4.607406732487576324e-03 -1.706844844005550241e-03 -4.168979569809741666e-03 2.333229728278663102e-03 1.955369113698343913e-03 -2.584849166022843217e-03 -2.204202783169134736e-03 -2.940979060668445777e-03
-2.471570730772449254e-03 -4.555877768435114862e-03 8.937202727645407463e-03 -2.067714964314648542e-03 -6.607283592431139121e-03 5.980997945149025934e-03 5.910046130209676771e-03 -5.953924860325647724e-03 -3.144091310973908850e-03 -8.863917503506622483e-03
5.458015774705431838e-03 -8.425674475637757663e-03 1.211802181924662332e-02 -1.789458994180014202e-03 -1.133542088441886336e-02 6.796836504984758547e-03 1.032353031771797956e-02 -6.100648505559608248e-03 -6.765213350929058121e-04 -1.102873347430320672e-02
1.063361793978010415e-02 -1.737890047878082669e-02 2.569123646670512864e-02 -4.360698231322068796e-03 -2.600993817717690143e-02 7.648387278406353074e-03 2.236659363414363749e-02 -9.028598296814354870e-03 5.350042174511283194e-03 -2.744266085792963772e-02
3.887193786853601618e-02 -5.006938058905921474e-02 5.425838798065595742e-02 -2.368341267558694840e-02 -4.776301222407196984e-02 1.130307610935869789e-02 7.539122225169293812e-02 2.935483065115027101e-03 1.966490281539865978e-02 -6.335200879159740006e-02
9.955364592583224037e-02 -1.140341909209446197e-01 8.459705307427402288e-02 -1.222723067336890374e-01 -3.066393873805623935e-02 3.090717800030576279e-02 2.811785365959338923e-01 4.289470066764673739e-02 4.687402944210321276e-02 -1.219600880049029196e-01
1.614409711077880727e-01 -1.969490555548219224e-01 1.028985885927456018e-01 -4.852299910395648230e-01 1.342330389412254021e-01 6.565029492500293329e-02 8.637301119424464213e-01 8.695021124511093102e-02 8.337368314062007513e-02 -1.341896696181937576e-01
2.719913935740243538e-01 -2.239979618691573249e-01 3.917535988804294461e-02 -5.543578732209127891e-01 1.952615920059911914e-01 8.787881920237980427e-02 1.052222780362629839e+00 5.948510354578938342e-02 1.252748002683189699e-01 -6.882341797275817741e-02
3.760199610365143053e-01 -6.863878883228809180e-02 -1.289508304628025070e-01 -4.495984762049836658e-01 9.438088821187920474e-02 3.877671302353230542e-02 8.677051501014676482e-01 -5.454958684862842161e-02 1.237709859687735198e-01 6.119704290061579732e-02
3.411774368821291481e-01 7.520668754073002449e-02 -1.897277345070279841e-01 -4.763966266629734436e-01 6.945045302219152866e-03 -1.402409144193253812e-02 8.359863698500290541e-01 -7.074398832815259608e-02 9.039016285068070256e-02 6.619284576204178573e-03
3.309099701725269904e-01 1.107761777647228579e-01 -2.109211867218298564e-01 -4.462349088356768467e-01 -1.389924678070701518e-02 -1.793804472606080891e-02 8.285518764735756436e-01 -6.435673146275977530e-02 7.496503913665802932e-02 -4.750593186397920886e-02
3.663707338082256570e-01 3.393645816731386683e-02 -1.908652920221942662e-01 -4.498922761652500713e-01 4.360332464102471828e-02 8.488237068606217101e-03 8.874871103538987116e-01 -8.112690879635871266e-02 7.550840412397705204e-02 3.271055020751978295e-04
3.491824704375382504e-01 -1.812371028798227535e-01 -6.645883933809761113e-02 -4.631520954835680048e-01 1.343252017022776301e-01 5.898775903525483449e-02 9.962424700404207689e-01 -7.863411257626727949e-03 6.468228236960298083e-02 -5.595753848995788787e-02
2.211557245596683097e-01 -2.609797517808196687e-01 8.050218392153979385e-02 -5.417935725487860177e-01 1.485955718645829426e-01 4.426620637585512025e-02 1.028914617475263915e+00 6.173981572907174392e-02 3.079731147098923802e-02 -1.477417140200273371e-01
1.185483280635213355e-01 -1.855132049288714668e-01 9.264402372721901313e-02 -4.901854411680522938e-01 4.069539858051176434e-02 3.101905339329595092e-03 7.714762449629951613e-01 5.325407193816506651e-02 -3.111314270383093092e-03 -1.348611397653646515e-01
6.821140966670780070e-02 -9.206338682004888696e-02 6.132791096616289211e-02 -1.258460088767068830e-01 -6.450054788328657418e-02 -2.472822865616096377e-02 2.246122683449095492e-01 3.436071229629739879e-03 -2.994737358827048029e-02 -9.485311637709131771e-02
2.449497860486318790e-02 -4.226994533974595680e-02 2.601009430945681530e-02 -1.606352107637507021e-02 -3.522410062419108895e-02 -1.619340407343668187e-02 6.384256149363309873e-02 -2.974075682695423439e-02 -4.252942899913820379e-02 -3.869152803981173311e-02
6.413266532345548651e-03 -2.614869543223516044e-02 6.713840639906314134e-03 -6.107057498542961191e-03 -1.423782627971221029e-02 -7.648061439944276590e-03 3.916311385016234964e-02 -3.219883519821255952e-02 -4.858797547509272063e-02 -1.564380562911498254e-02
-4.262664495621629884e-03 -1.772010886756966025e-02 3.053087100682383773e-03 -1.338302819144074384e-03 -2.205138820670546861e-03 -3.478831123866692448e-03 2.875100679673294260e-02 -3.015101015686074207e-02 -4.446299815113631537e-02 -7.084438400940175351e-03
-7.300738371798722211e-03 -1.419555614866167131e-02 4.292358410577944497e-03 7.456040995542467624e-04 -2.532322290624670642e-03 -2.188216741936996421e-03 2.204700206735084669e-02 -2.813243450728912867e-02 -3.781144903035423693e-02 -9.196499758639368680e-03
-6.374090506123903863e-03 -7.966129137425313061e-03 5.054237076482456271e-03 9.878710876215189562e-04 -5.721174328496719287e-04 -4.580483299668797366e-03 1.268165906577211656e-02 -2.113355599968875370e-02 -3.040382616969962426e-02 -6.873298710778205298e-03
-5.396011135134247579e-03 -5.552189171896942770e-03 1.080960690338532816e-03 2.087169293914154997e-03 8.695987672757741300e-04 -4.565500320357038753e-03 7.387041671507887063e-03 -1.490260822511812674e-02 -1.991951600459907282e-02 -2.680278040029010402e-03
-1.948517115453258803e-03 -1.847365448734454010e-03 3.328798632054789475e-04 6.064521378172558173e-04 1.718643656159459833e-03 -1.938178792764881555e-03 3.384503452070858689e-03 -4.924029754366710497e-03 -7.570458741240961367e-03 -2.823964300448142915e-04
4.731745478763916949e-05 1.565161846110336172e-04 2.314860163754061978e-04 -5.398100947655667557e-04 -2.397021969040432851e-04 1.856316616408909374e-03 5.336206535504486263e-04 4.352949395145683806e-04 -3.885503977537907178e-04 1.161670434369253737e-03
-1.068040295238436725e-04 3.335747252365307163e-05 7.567540632392167591e-05 1.315462923906627449e-05 5.719251133578998460e-05 3.729304463137974522e-05 1.064983228089793484e-05 -3.923344076902501317e-05 6.553338011814316313e-05 -5.112366576807773742e-05
4.278770175407998501e-05 4.320899569639869380e-05 7.703263365333468137e-05 -2.573214856184891246e-05 -1.673925052223987196e-05 6.024461395626732382e-05 5.765996719532876218e-05 -9.504346151621530770e-06 -8.702893354100643146e-06 -1.197246128269900624e-04
-3.437673608923989496e-04 1.952925921434510664e-04 3.330502727088130422e-04 -2.234640875051368311e-04 -4.612428725325005692e-04 -8.435902914669046943e-05 -1.011364104214095092e-03 -7.810486540263114142e-04 -2.360749092582610333e-06 -4.187829243430851766e-04
-4.359942158851700354e-03 -1.124234388895488509e-03 6.721201292077045274e-03 -3.990569980116659074e-03 -5.220467324769264769e-03 1.742438394819666126e-03 8.609976788031047188e-04 -8.041905785123334635e-03 -2.727946680700044698e-03 -3.811061326492424378e-03
-9.315375919210675329e-03 -8.191441021167185019e-03 1.814239952657867999e-02 -3.328309385947159863e-03 -1.161677725374030481e-02 9.770419266524091664e-03 7.848526167267487821e-03 -1.645789773352636029e-02 -5.946057586613090820e-03 -1.473266912456819289e-02
-6.324134613748035386e-03 -2.972115580052797634e-02 3.990929037349497110e-02 -1.361652146115844338e-03 -3.072735756081911712e-02 2.364994928882964767e-02 2.448787928794945654e-02 -2.603447226635517697e-02 -6.699935357209660901e-04 -3.727013093219809503e-02
4.282692152995169060e-02 -1.211427377638634728e-01 9.648070460163987727e-02 8.076460000097271733e-03 -5.986073547745248552e-02 5.711438975303467086e-02 9.575674401232091293e-02 -1.418857970154138726e-02 2.545513548418687835e-02 -1.114598967019954090e-01
1.744984793003813150e-01 -2.904350829348721352e-01 1.619676583284752613e-01 5.062351017941003894e-02 -9.575099769992595489e-02 1.038043644648135866e-01 2.009234713596488309e-01 3.002845269146071916e-02 7.504963340965062346e-02 -1.962905160108566194e-01
3.523720137916810935e-01 -4.502057587067454514e-01 2.528229408690993996e-01 1.269910870795986357e-01 -9.693306309437839385e-02 1.030173485472474781e-01 3.289681479347170701e-01 6.306926865315276576e-02 1.406807050692075733e-01 -2.682873636188770061e-01
5.063808720830907939e-01 -5.265361275256291718e-01 3.081651020496803395e-01 -1.389983838185506436e-02 -4.202809612443369515e-03 7.597154583119342108e-02 7.187270288660028150e-01 6.847308906557804387e-02 2.130333327544709221e-01 -2.942267510335350722e-01
5.340010579903177179e-01 -4.394521615067958908e-01 2.505459207481143813e-01 -9.806464916971063817e-01 2.238604964989715784e-01 6.804707834421119816e-02 1.901300370361473258e+00 2.464353785621297560e-02 2.648198675158492943e-01 -1.770470215550080384e-01
7.713875017886063779e-01 -3.449146463602448254e-01 3.270499042279695345e-02 -1.068531963930629436e+00 3.004096020027602343e-01 8.342574763037904906e-02 2.210178606936025414e+00 -1.012620328932179598e-01 3.145498873846170884e-01 5.110332714178230859e-03
1.043937560177717661e+00 -2.456570256155723164e-01 -2.272353071802797608e-01 -9.825226588602044009e-01 2.677296644130447434e-01 6.471674807412203245e-02 2.282504275768634017e+00 -2.152317615208753088e-01 3.111276155811619759e-01 1.217368353125951874e-01
9.811122072446764042e-01 -2.044635743638161252e-01 -2.428174632753895001e-01 -1.086449656964004529e+00 2.094459505838962565e-01 2.187231595034927131e-02 2.290841883455790651e+00 -2.523121638989647697e-01 2.380513525544085129e-01 1.309873642826692719e-01
9.547826865652075945e-01 -2.413049188543004708e-01 -2.312242260696452667e-01 -1.076528749569042542e+00 1.969212840468235748e-01 2.389579047405008400e-02 2.239247950488298944e+00 -2.951636939126547898e-01 2.013684921871431166e-01 1.734098685074815238e-01
1.056382308226317512e+00 -2.845299664260552142e-01 -2.635785287984439007e-01 -9.846584619904117375e-01 2.424527406160628118e-01 4.000370430109165265e-02 2.325233688798611809e+00 -2.878528747130612575e-01 2.064807002209617659e-01 1.255317803494712947e-01
9.472271634090917436e-01 -3.768027059667339307e-01 -1.492538308094350508e-01 -9.697124614036560786e-01 2.742231701571691826e-01 5.573295131655806728e-02 2.332545226311409703e+00 -2.226608846812312970e-01 1.664788707120686828e-01 7.932359426886293613e-03
6.021095322714457021e-01 -4.337481863040544283e-01 1.341234153656598316e-01 -1.073747123557398986e+00 2.347599502515152481e-01 -2.909094446858398030e-03 2.209588775517491666e+00 -1.032730438203312145e-01 9.035450508121087299e-02 -1.848750928686549722e-01
4.773523547155539837e-01 -5.582265253893088364e-01 2.690287139601439947e-01 -7.408711850076914462e-01 1.298422074444330054e-01 1.976530412738277797e-03 1.670163455482296611e+00 -1.265270024951455421e-02 4.475185391722429074e-02 -2.808333279534804272e-01
4.297965679944437123e-01 -5.926165031591917876e-01 2.745748549437120323e-01 -2.487507790632322371e-02 -8.399899096985265212e-02 5.624168514604704905e-03 6.824732964040441940e-01 3.014685625202419370e-03 -8.410869298969803412e-03 -3.167394189446496311e-01
2.482633859889692429e-01 -4.406272185242370298e-01 1.783715547412085822e-01 6.477063520825770970e-02 -1.185445992123860259e-01 2.861033449274839185e-02 3.486544888194624825e-01 -4.059800187355609713e-02 -8.326015391558053147e-02 -2.505554134894793505e-01
7.394952872632404306e-02 -2.396549876690906855e-01 1.072342312467179787e-01 1.507043153090865950e-02 -9.063300867042398123e-02 -4.324171048140779258e-04 2.140797294960612718e-01 -1.005330180294354142e-01 -1.401407628124690941e-01 -1.600679248180669756e-01
-9.779447518391539904e-03 -1.014742023759008238e-01 3.527060079452799118e-02 8.846553763981791513e-04 -4.574911926403819190e-02 -2.485145910203554950e-02 1.195069477110769635e-01 -1.231547681196024230e-01 -1.584654768093782529e-01 -6.366564116163875298e-02
-3.244608454124763008e-02 -5.846788245652765476e-02 7.997529309178998125e-03 9.137831735993164756e-03 -1.608223893600002272e-02 -2.504865089106127207e-02 8.451173336511463852e-02 -1.157440727597800478e-01 -1.433912675327128905e-01 -2.974681938638682951e-02
-3.362999030411651519e-02 -3.999128282118224326e-02 8.185121716920451887e-03 9.322960360092743745e-03 -6.794556211907163898e-03 -1.918877825133272902e-02 6.164487643890727286e-02 -9.202202094805067567e-02 -1.145956661051457937e-01 -1.713435614845177160e-02
-2.304948778968589351e-02 -2.160331677387850383e-02 4.446100377823032981e-03 5.758504831535440557e-03 -5.297544635281868294e-03 -1.156858815865014628e-02 3.520175740950605425e-02 -5.610414928008927715e-02 -6.761003800669115882e-02 -9.055115911564970074e-03
-9.708148569065103844e-03 -8.601730511326776199e-03 7.588891194370483908e-05 1.730095934203097112e-03 -1.866603911015264844e-03 -5.459346214631252345e-03 1.292656467090323898e-02 -2.112649453914234449e-02 -2.275975064693642677e-02 -6.397510586829697164e-03
-3.043320143216557937e-03 -1.954105302068402227e-03 -2.359900163186099895e-03 1.464073294475773390e-03 -1.241805092490591263e-03 -3.185519562858033556e-03 3.211864221931939878e-03 -2.933927534281789186e-03 -3.371890305806428140e-03 -3.007646895894875317e-03
-2.811733992249317721e-04 1.335135850093398333e-04 1.759186667799108315e-04 -1.049680969470471803e-04 -1.212368655425150674e-05 1.290184987774045547e-04 -1.707840325551687895e-04 -6.392943725345887843e-04 -5.095146306003800067e-05 -1.334799669430368301e-04
-3.641890871902289141e-03 1.149492393095138693e-03 3.883358312455400477e-03 4.515108763353379331e-05 -3.068493627595700389e-04 2.144664853410102254e-03 -1.236332404934852936e-03 -3.629986114777150000e-03 -1.373534058776863028e-05 -2.178349658620693137e-03
-8.572874386851512055e-03 3.452773679969138414e-03 7.583942043501228428e-03 1.766937792275409232e-03 -4.972877046902770409e-03 5.422474837779431810e-03 -2.329813136916698921e-03 -1.260355551766945310e-02 1.607606690297038203e-03 -2.196196588014035118e-03
-2.131412473369322103e-02 -4.338515301550073359e-03 2.396581232651339224e-02 2.409941220504444211e-03 -1.708458414467040401e-02 1.453247661651607681e-02 3.188411050063207422e-03 -2.898607304132739051e-02 -4.823210426671472326e-04 -1.212531605717669450e-02
-2.209691719341097191e-02 -2.216235616818934898e-02 4.855719858256279248e-02 1.537942583853307756e-03 -3.843548500568302884e-02 2.503668372466762160e-02 1.316584342648675389e-02 -4.338710030179335903e-02 -1.679179488753174045e-03 -3.551125612299829010e-02
3.117445080335819879e-02 -1.748993312502666320e-01 1.589659863140532592e-01 3.059404599408681660e-02 -8.167233667314220680e-02 8.762499001261173093e-02 1.042890573471247223e-01 -3.528731128008407575e-02 4.320173597664999504e-02 -1.529811573876447839e-01
2.303726427395071386e-01 -4.730250636652640894e-01 2.403307998047547744e-01 1.433177724266623265e-01 -8.108652058252210915e-02 1.872754911144959011e-01 2.471420775746261678e-01 2.937573975787675581e-02 1.234765131115726083e-01 -2.532884526022368132e-01
4.214614815198302056e-01 -6.095752266050408208e-01 2.651800114885925486e-01 2.545191852576778602e-01 -1.026520504629875735e-01 1.960223752603446612e-01 2.836040531798568187e-01 4.156968632100813826e-02 1.793100131583691415e-01 -2.570157961846477046e-01
5.937960359029170743e-01 -6.343412977724476320e-01 3.026404489384416641e-01 3.629165862869863646e-01 -8.740535185086016623e-02 1.357816093989065720e-01 3.307199099766431893e-01 8.217282885613019783e-03 2.316187601519464623e-01 -2.334797124661137091e-01
6.988841901371359855e-01 -5.229914864171030242e-01 2.372313057303124251e-01 6.241714177561644844e-02 -1.930492260255679479e-02 8.041555343642349529e-02 7.465585505267839928e-01 -7.475199935533759221e-02 2.774622475691956858e-01 -1.332828295649500505e-01
7.103069978200816648e-01 -3.126222634900704400e-01 9.754007699649483443e-02 -7.361100669037440314e-01 1.974435218529445313e-01 3.875569614235647303e-02 1.726295885928692320e+00 -1.691772490070550528e-01 2.921443030228781379e-01 1.985507376242835048e-02
7.723237488711800491e-01 -1.490238003976002701e-01 -5.679170868653863474e-02 -6.182120457362207944e-01 2.531588449369954752e-01 1.690948224594403249e-02 1.737160214573429950e+00 -2.662884726097471400e-01 2.717511760925769293e-01 7.422466236267380446e-02
8.257164964594546630e-01 -1.371999706973746902e-01 -1.135504850905739854e-01 -5.923146864364582376e-01 2.631207579281520936e-01 -4.294163746731634139e-03 1.763518855979740341e+00 -3.129296097977929403e-01 2.290093228741386377e-01 1.027937433496086683e-01
8.816545789362466579e-01 -2.490221046667305260e-01 -1.446532765933437881e-01 -7.043347820905756507e-01 2.457814942764131316e-01 4.220008498962912573e-03 1.865286215032724515e+00 -3.903116901676897399e-01 1.619313693546357014e-01 2.156007897264888840e-01
8.889219119113107581e-01 -3.125113541530927241e-01 -1.672875680506516749e-01 -7.012400832738641121e-01 2.606438431435998959e-01 7.065032368294712171e-03 1.889039400648165667e+00 -4.486170137337149866e-01 1.022951406115886197e-01 2.748213019978478777e-01
8.581128628337987285e-01 -2.956643950682054656e-01 -1.568420497144793480e-01 -5.330830814917790761e-01 2.594783709155856766e-01 -2.916725691889344996e-02 1.801726485779158393e+00 -4.583959979462755574e-01 6.553136708144846612e-02 1.855952310662759008e-01
7.469643124912993537e-01 -2.465472455733896950e-01 -1.195323295374383921e-01 -5.182913059960079227e-01 2.551052314553035605e-01 -6.612980931080952862e-02 1.772112355787114124e+00 -4.378299552664279282e-01 1.692622720323319965e-02 8.822972683610728895e-02
6.834875648041940366e-01 -3.283616388765729366e-01 -2.796294868015274798e-02 -6.056847257395510109e-01 2.157913332173126975e-01 -6.031295594227704254e-02 1.815813185445440681e+00 -3.748692035619669571e-01 4.090408439548393364e-04 8.119435616461003705e-04
6.350720912867194867e-01 -5.244303389433500051e-01 1.149540821523229589e-01 -5.493984455244458331e-01 1.044380115830627759e-01 -2.876042906205002539e-02 1.646469837917488910e+00 -2.741771899801151990e-01 -8.283210574379321067e-03 -1.077845190402855341e-01
6.035762351959407246e-01 -7.338348411547327421e-01 2.580342374835519204e-01 1.300811132486431043e-01 -7.842545622868644928e-02 -7.896962490633695556e-03 7.956476153112550520e-01 -1.807768760754167314e-01 -4.976439746274587128e-02 -2.431600004857142894e-01
4.562469092651471603e-01 -7.520714519109961138e-01 2.577648047877393878e-01 3.019440854127854457e-01 -1.123091833905382753e-01 5.181810465615219879e-02 4.525281540905309874e-01 -1.372162558822745959e-01 -9.616036057331947551e-02 -2.807370429471681694e-01
2.596393957916920403e-01 -6.522342458445176128e-01 2.297039889191328788e-01 1.994809103008995943e-01 -9.831116654261010113e-02 8.841337263861979989e-02 4.058526562684006689e-01 -1.499642921735603873e-01 -1.450868567191629932e-01 -2.821502773634990135e-01
3.294916987555886190e-02 -3.724392075510285505e-01 1.781137160421686072e-01 7.214647887229473644e-02 -1.093178147933823452e-01 6.478588469240793325e-03 2.832044235277831334e-01 -2.115793691055774806e-01 -2.219830309337705032e-01 -2.139952731044340861e-01
-8.160741340690885748e-02 -1.329424327562865327e-01 6.040906688988277595e-02 1.948950428669872156e-02 -6.458941510752069792e-02 -4.668384880730335612e-02 1.537760496969836632e-01 -2.451166476835666685e-01 -2.499774673589580665e-01 -7.286606288150236643e-02
-8.786544778574069403e-02 -6.682616252330031426e-02 1.162511924208212664e-02 2.299669093741962475e-02 -1.924948552380548530e-02 -4.376230965437950121e-02 1.032006105680769864e-01 -2.032442358071481492e-01 -2.120742612288650797e-01 -1.561674071603464178e-02
-6.482667477555495439e-02 -4.222163808801657203e-02 3.227164337853108151e-03 1.725900662869547450e-02 -1.540707227833067530e-02 -3.259265910450928616e-02 6.767633835572298140e-02 -1.293178714200945156e-01 -1.318213450015563726e-01 -7.610603769857637348e-03
-3.054267134121313107e-02 -1.193170733486636180e-02 -2.224391631326462287e-04 5.602421547972735554e-03 -1.129703720306332940e-02 -8.897250246472544408e-03 2.623191883187371912e-02 -5.184873371341141429e-02 -4.198932786879731177e-02 -1.121107871244760718e-02
-7.582984830764967314e-03 -4.168630562247514597e-03 -1.742330590324987511e-03 3.657303802429911783e-03 -4.074219538320104222e-03 -1.916051593373912284e-03 4.179378810691300634e-03 -9.006525239397581220e-03 -6.290942636786966795e-03 -6.152302200351464703e-03
-1.907011546984434648e-03 7.400964815403364514e-04 1.339142410688188298e-03 1.893152891817611780e-04 -3.468263144319423457e-04 3.344357486029218450e-04 -8.478224292139835026e-04 -1.829391181927900352e-03 -5.060921777691024769e-04 -1.056586579928725332e-04
-1.533471008487084439e-02 2.705375305920135458e-03 1.095765055936384624e-02 3.249636652579037874e-03 -4.195724831609981033e-03 7.306282158280428575e-03 -6.215256895828124954e-03 -1.518948286353456051e-02 3.523377371345995466e-03 -2.257482343539388234e-03
-2.393191350756589467e-02 2.415096989978385983e-03 1.858811468700469205e-02 5.992583100997653060e-03 -1.281951325137148032e-02 1.374967589303863376e-02 -5.255805479771369013e-03 -2.758444571987439878e-02 5.651643623858801889e-03 -3.024679077955574457e-03
-3.495817792667481327e-02 -6.454694306904272365e-03 3.902101055675927938e-02 5.531754684352965627e-03 -3.125508392249993356e-02 2.217381427195841068e-02 -2.125090777417159345e-03 -4.963476558627862717e-02 2.578896860411568175e-03 -1.847498659195833531e-02
-3.022196552963548125e-02 -8.426503280137055685e-02 1.323179591378510489e-01 1.684948229955118490e-02 -8.461626536247215946e-02 5.649589210949809009e-02 3.321498630698086624e-02 -7.703573305267764904e-02 2.469494085151273388e-02 -9.613166093785495414e-02
1.167520376342264937e-01 -4.009973795219705095e-01 2.787183896516652881e-01 1.432244801830387104e-01 -8.322287744924719566e-02 1.837132101770830306e-01 1.863486998947914974e-01 -2.696211002864859832e-02 1.219325368144832805e-01 -2.546673620470883970e-01
3.865950975211494001e-01 -6.652628436767433762e-01 2.311559395598773159e-01 3.148134965335391278e-01 -3.532357731014311442e-02 3.120694900223131008e-01 2.875217656328927784e-01 1.456427851537597622e-02 2.044137082644435222e-01 -2.265926204224776863e-01
6.302030337544235472e-01 -6.935081340677966555e-01 1.587286413044198263e-01 4.520704999263803758e-01 -6.855953969397404757e-02 2.852954447248419734e-01 2.581841195663809874e-01 -3.384437201333822393e-02 2.461054616705382891e-01 -1.386137625786554861e-01
7.950396004830776464e-01 -6.110099821242489515e-01 1.593391863094074934e-01 5.336618101894710087e-01 -1.289243870984271012e-01 1.637530670931880983e-01 2.326350021843688332e-01 -1.452231875517071003e-01 2.890023611325231445e-01 -5.021587337057516892e-02
8.085088160523677958e-01 -3.786951255695452656e-01 9.399547981474971892e-02 3.758505031761506104e-02 -8.700371590852078174e-02 5.693722457192044312e-02 7.500076053314782554e-01 -2.653716459205890943e-01 3.120279314953555705e-01 5.469744142567278811e-02
7.285917818577897220e-01 -1.522557979673072048e-01 8.820847536450409851e-03 -6.503993230361405642e-01 1.517818249912124828e-01 3.377053487989918525e-03 1.629068858544058918e+00 -3.305166621504873614e-01 3.005557183821421785e-01 1.216628000126101228e-01
7.104608430666273788e-01 -8.026879705188981473e-02 -4.672526181419087155e-02 -4.710992074213862790e-01 2.851925861268529983e-01 6.951742878923987314e-04 1.594847457109138222e+00 -3.654916967665475802e-01 2.605927667982914087e-01 1.283032086813955530e-01
7.363294510231126466e-01 -1.041097708773175978e-01 -6.061473696022173091e-02 -4.353407207984323346e-01 3.290800583741583796e-01 -2.735725258375767965e-02 1.599508878352873698e+00 -4.155564751599143958e-01 2.107643819025925014e-01 1.916313268410498316e-01
7.677365038720526114e-01 -2.055323396838865668e-01 -8.521230423997322445e-02 -5.168402065783257449e-01 3.024638344908789911e-01 -3.939031531011347176e-02 1.670823675739244507e+00 -5.188916670529198916e-01 1.204415800364378591e-01 3.074287385717936472e-01
7.479341408127420099e-01 -2.628623237583607719e-01 -1.037658735178876857e-01 -4.704991985453603198e-01 3.098315441746392618e-01 -6.572459417364823198e-02 1.659543676142650970e+00 -5.975975358570360108e-01 2.924937774090745693e-02 3.541325510671963217e-01
6.966016797241088021e-01 -2.492337356004189486e-01 -9.724739726931251604e-02 -3.396802364151415010e-01 3.120735667961046511e-01 -1.184915516371456978e-01 1.590592518938701572e+00 -6.409841475830467816e-01 -3.222857072708750631e-02 2.993283476831506418e-01
6.372529608797831147e-01 -2.261804207364990493e-01 -9.160452717720453386e-02 -3.167025369558023606e-01 2.993650090281764764e-01 -1.398491442536019813e-01 1.601253769976681118e+00 -6.221032865325826222e-01 -6.466795581288206640e-02 1.942695106185058362e-01
6.013344817151593524e-01 -2.538889734985271263e-01 -6.757401675525007145e-02 -4.016231227778267465e-01 2.140053018604009816e-01 -1.363010250591484562e-01 1.633583498372558562e+00 -6.123965666946963315e-01 -8.457865365996847240e-02 1.305035831769651711e-01
6.370212588029194878e-01 -3.992127870543081269e-01 -2.811257894834410728e-02 -4.426495383134894102e-01 4.852747533476706177e-02 -1.053052191853608155e-01 1.576593595312162588e+00 -5.668884327686403157e-01 -8.752552015915528172e-02 7.437120655293612270e-02
7.025998774407550274e-01 -6.905615185551442492e-01 8.609613413702402185e-02 1.818694500365459488e-01 -1.264308611250767045e-01 -3.811886437472591926e-02 8.629506728078005784e-01 -4.682758285859232594e-01 -1.059341867508682006e-01 -4.534169779953853285e-02
6.204708226256713255e-01 -8.499930113370799400e-01 1.171084518785863587e-01 5.134158658131070530e-01 -1.113489618266285675e-01 7.170365119555709155e-02 4.768164389722037155e-01 -3.552507068855577654e-01 -1.453360995139674483e-01 -1.370093868076178723e-01
3.700579458991001824e-01 -8.415992838057773096e-01 1.540556551139435904e-01 3.943404875782651198e-01 -5.309369534708699434e-02 1.477126720997057885e-01 4.749962630773397199e-01 -2.963475907923217578e-01 -1.970592994443638724e-01 -2.065065752961562917e-01
8.279442170936469891e-02 -6.445463654254126595e-01 2.468104953639148891e-01 2.376977346825562276e-01 -8.452453202893674133e-02 6.925004197284340135e-02 4.054431528004752705e-01 -3.202209414633631068e-01 -2.554827167149247291e-01 -2.694120475223804045e-01
-1.277640578213361799e-01 -2.901707979481721877e-01 1.716666255925127504e-01 7.710196500760357896e-02 -1.296148941117896414e-01 -6.007532277037756080e-02 2.291501473188930493e-01 -3.760316243965121097e-01 -3.114748252880159551e-01 -1.548693061665213644e-01
-1.696743781944786977e-01 -9.665599593720203275e-02 3.812288742125492791e-02 3.485529300635784034e-02 -5.212197328801545376e-02 -7.016464778568037852e-02 1.312850536675150559e-01 -3.231575420017139266e-01 -2.834871787094381257e-01 -2.133243460121144255e-02
-1.188213716522738134e-01 -4.888806297609576273e-02 6.279948880286503887e-03 2.449898952608528871e-02 -2.775433344525419718e-02 -5.142284266344788329e-02 7.860665504361366573e-02 -1.945297505674409011e-01 -1.618704233445200646e-01 -2.745225217247895897e-03
-6.636690965388998553e-02 -1.767584194495543104e-02 -9.969959669908015371e-04 9.471421775486299141e-03 -2.035070855721158450e-02 -1.868037935450597015e-02 3.565991231237185255e-02 -8.668827870619000286e-02 -5.147270598643629430e-02 -7.513411031906517580e-03
-1.820149415587572414e-02 -3.960155837218244310e-03 2.059461623168816306e-03 4.109443809108406093e-03 -7.411339716508476977e-03 8.854306416331108036e-05 5.238164890724864541e-03 -1.977616801696938792e-02 -7.029911612361222292e-03 -3.279379564395831087e-03
-6.198840426637709268e-03 2.600045943124017732e-03 2.219159189619430896e-03 2.142758574334365906e-03 -2.145070967181123174e-03 1.458439671746408241e-03 -4.115174958957781327e-03 -9.059637019028505059e-03 2.405093577836566431e-03 1.312577816358469641e-03
-3.434039245280944702e-02 4.174808358991144441e-03 2.120183105001847979e-02 6.506106017461667744e-03 -1.077078308316740431e-02 1.583540704327745380e-02 -9.870001031654718551e-03 -2.968139993270663829e-02 1.175842419902643418e-02 2.366063364469543368e-03
-5.455058963563658853e-02 6.278704561654554865e-03 3.706088829430079917e-02 9.417185341744061661e-03 -2.391507097933849232e-02 2.511113532328635572e-02 -1.648982829118182669e-02 -5.573919595996144200e-02 1.656152920054753883e-02 1.212762015709460900e-03
-7.563197424394094148e-02 -6.569970280585109464e-03 7.772048108730694738e-02 1.259242120527542461e-02 -5.851279241504665080e-02 4.066581132721034525e-02 -1.686223119060772241e-02 -9.486859045153353542e-02 2.339786031701601363e-02 -2.024911771116397197e-02
-4.401903433689598188e-02 -1.793324166001509790e-01 2.464321941630024937e-01 6.719140493841653516e-02 -1.242043230964327144e-01 1.032967493407848381e-01 4.759520261024185322e-02 -1.154144777240155018e-01 8.650115023851477625e-02 -1.544756937502969329e-01
1.731898690751192960e-01 -5.562424507872458790e-01 3.210274988473702518e-01 2.797371386444026387e-01 -4.097644908138556308e-02 3.007502465083685683e-01 2.225306252075157920e-01 -5.269013177481309679e-02 2.094963706374230739e-01 -2.592060335426228379e-01
5.264155492218903776e-01 -7.327107872053156834e-01 1.163297062237988316e-01 4.774146439194298930e-01 9.594334054505814294e-03 4.424034691393512464e-01 2.796272036108194414e-01 -6.362079182318763904e-02 2.766890007045441080e-01 -1.146140623465518593e-01
7.617726659087454832e-01 -6.213428666011973078e-01 2.501497137037862403e-02 5.718404934686679431e-01 -1.459153537012487789e-01 3.073170805097893421e-01 1.446771056056013194e-01 -1.997502324690587638e-01 3.072474129939708476e-01 3.619503895277251942e-02
8.110191957998401646e-01 -4.287169899020982777e-01 1.098102357922391414e-01 5.480161232317346531e-01 -2.945268716471789450e-01 8.825458456785965911e-02 7.243162010721684863e-02 -3.395768978563616924e-01 3.387726724040404092e-01 9.710049857857862288e-02
7.306032233940482623e-01 -2.053085074022187595e-01 1.082232718135509586e-01 -7.039780824891800348e-02 -2.005719996514297165e-01 -9.712280536558069027e-03 7.473471869993753014e-01 -4.099626096718681501e-01 3.528667030241316449e-01 1.179826129574609167e-01
6.268474584182108789e-01 -4.053302680154016041e-02 4.463948382079135219e-02 -5.835461802772019535e-01 1.158857821257053278e-01 -1.874764589698053180e-02 1.527131353633377930e+00 -4.227518168750447058e-01 3.323838623310788609e-01 1.394625876304080858e-01
6.198780485862830369e-01 -1.667603010323786758e-02 4.415941041390353435e-03 -3.214465184532833697e-01 2.731531267738672719e-01 -1.401562918211512326e-02 1.403327642221483984e+00 -4.503607922332026336e-01 2.902085653557557321e-01 1.815751060227829838e-01
6.351094393677032546e-01 -6.588050869403677678e-02 -3.311509747010497103e-03 -2.593175567663165704e-01 3.568102224947982126e-01 -3.971872474272042375e-02 1.394392298930043683e+00 -5.214350158515782541e-01 2.302112323733429000e-01 2.815020230509060473e-01
6.316586625740371330e-01 -1.629088502943933092e-01 -2.738194257112239269e-03 -3.252013547081662459e-01 3.544140556265473196e-01 -8.184560736218252086e-02 1.483131153673180824e+00 -6.499569351836560482e-01 1.209319163894524568e-01 3.871765685843843730e-01
5.836492202731884404e-01 -2.204318082030016779e-01 -1.321367873439678771e-02 -2.973352975839768098e-01 3.648806763277540610e-01 -1.398452907447914617e-01 1.525295327705398662e+00 -7.504815330176890509e-01 7.350915580045497277e-03 4.265677114432078199e-01
5.186930138315156702e-01 -2.276591750038483297e-01 -4.112186254577560734e-02 -1.630796059707913526e-01 3.589722806925984555e-01 -1.947395361836136707e-01 1.444243560449695929e+00 -8.068380729303147314e-01 -6.984612744871845913e-02 4.137124384762376206e-01
4.650010942549329118e-01 -2.054601376122560108e-01 -6.237732373711950273e-02 -1.248714428204383553e-01 3.204948102894180084e-01 -2.363914534889406394e-01 1.452023379118104973e+00 -7.921574244648780239e-01 -9.829499898142683711e-02 3.103717333409273249e-01
4.206549139543349636e-01 -2.107833499864140148e-01 -4.867648575584794524e-02 -2.146288348417069725e-01 1.934203195438315981e-01 -2.547173242806030635e-01 1.470968373899459003e+00 -7.998528479678197467e-01 -1.206496016401683163e-01 2.408453197612896446e-01
4.495868549609445819e-01 -2.851288828683141152e-01 -2.459483973126249529e-02 -3.569746452343254273e-01 -4.817164673580895395e-02 -2.492204408473767396e-01 1.445776627923906821e+00 -7.921962453484892031e-01 -1.304325446588305015e-01 1.879179101933137197e-01
5.552624598346049822e-01 -5.006294304698453157e-01 1.703472906118487853e-02 1.233821586527289738e-01 -2.795267826902262387e-01 -1.999616207890523856e-01 8.204760839853503240e-01 -7.514159213613839094e-01 -1.505209952671253681e-01 1.231984760187362221e-01
6.017448377312831775e-01 -7.461682804690937809e-01 -1.278014504847780307e-02 6.060053730208263545e-01 -2.491430204681865379e-01 -4.475796053918659756e-02 3.739228970243815287e-01 -6.513978575177958863e-01 -1.804078118185122592e-01 7.340556417316916604e-02
4.290051064249982282e-01 -9.048878473965782376e-01 -1.350104174752411561e-02 5.736565907981490131e-01 -6.602687979096391602e-02 1.623318559965191421e-01 4.962230228242908714e-01 -5.240544010094705385e-01 -2.277416157182756973e-01 -3.926823105277704729e-02
7.458895624609089559e-02 -8.244234314385553430e-01 1.988740443028384763e-01 4.126584434895892994e-01 -2.737839684375757698e-02 1.228037180519092469e-01 4.986622683590273830e-01 -4.728770928897588766e-01 -2.864509539531388538e-01 -2.016656111804420448e-01
-2.208411850805485910e-01 -4.505349558251664499e-01 2.572565317668518703e-01 1.825825517011900878e-01 -1.571362752620321934e-01 -7.446164933838765598e-02 3.004228033363945394e-01 -5.079260939514025353e-01 -3.369449279737994907e-01 -1.787326956239913833e-01
-3.053505565757346774e-01 -1.609807267685234300e-01 8.701483916874054592e-02 7.021055621696838112e-02 -1.109672793856238682e-01 -1.240094707280701425e-01 1.658697401393316728e-01 -4.584457772274959653e-01 -3.284981569435922455e-01 -1.489365545021695963e-02
-2.316406256025095034e-01 -6.597214088221120543e-02 1.530067647973537386e-02 4.206898218245230109e-02 -5.575822842710802946e-02 -9.043373382412094041e-02 9.337479771609373536e-02 -2.820627032793341371e-01 -1.796916670301630936e-01 2.200284015092373452e-02
-1.298296790512161181e-01 -2.316498411377724415e-02 1.265740128675725681e-03 1.551142028677556309e-02 -3.327700199438720502e-02 -4.006310686657887921e-02 4.266744997630147335e-02 -1.119561185172554402e-01 -3.458431302759073372e-02 9.515584532798923578e-03
-3.751512936599470799e-02 -1.107175356195007690e-02 -5.560843787196918103e-03 9.220809729403985078e-03 -1.244833203600236027e-02 -1.326685826645366412e-02 1.001485732888887301e-02 -2.150392969146123004e-02 6.557041533655538811e-04 2.911375310652099431e-03
-2.054530322588479091e-02 2.744787085006274423e-03 1.267149592382663288e-02 4.364455586824559155e-03 -6.792398695263777812e-03 8.662025079269249431e-03 -6.064411222628384064e-03 -1.690236411253950854e-02 8.540829883228812786e-03 2.895643250464342237e-03
-6.437752881997449439e-02 1.511542749700753308e-02 3.914127840650759305e-02 1.575957168886754980e-02 -2.517790369525410230e-02 3.015892545442270048e-02 -1.608301186076532829e-02 -5.197771802649845535e-02 3.062649260692365538e-02 1.307761405492037336e-02
-1.041475766000429515e-01 2.287284919635546726e-02 6.975876449514525901e-02 1.823983796467905372e-02 -4.711756642393473415e-02 4.513777325577466443e-02 -3.364922258974185204e-02 -8.803694788613401767e-02 4.537831652220283146e-02 1.606678639235040867e-02
-1.424634776883945131e-01 -8.981856783961232604e-03 1.540434318750334430e-01 2.612028753635681211e-02 -1.066932344501254348e-01 6.853341772199218751e-02 -4.242427752514873335e-02 -1.472685338021923196e-01 7.587278581123148291e-02 -2.221993402351602268e-02
-9.405444728858571024e-02 -2.550477331147688043e-01 3.639234642158429289e-01 1.391274203622974714e-01 -1.575719472291181589e-01 1.690124245638845446e-01 4.541443968401312481e-02 -1.579263203021112894e-01 1.868910824773679091e-01 -1.792563985545787275e-01
1.878837058413024563e-01 -6.320757904273891503e-01 3.259512703061904215e-01 4.155051817701599370e-01 -5.399391432320353040e-03 4.416937219007018300e-01 2.354331167993438945e-01 -1.024203882616766259e-01 3.207435353027608960e-01 -2.067591083674374386e-01
5.730017188830794916e-01 -6.962188235479267462e-01 3.852083885078454173e-02 5.574707503338773851e-01 -5.412870388668190869e-02 5.241387880745257410e-01 2.197352698478994837e-01 -1.914820870678406173e-01 3.707197617729693362e-01 1.872366669423012123e-02
7.287452732568620029e-01 -4.784124770736642440e-01 3.271744143898518142e-02 5.914398955434759797e-01 -3.057866048266135173e-01 2.682614386702567577e-01 -1.170205655175915460e-02 -3.626909108076337152e-01 3.944378361243561781e-01 1.586898712892497176e-01
7.337126804277701586e-01 -2.666201434922350622e-01 1.634766856607755003e-01 5.277575188117172855e-01 -4.693451029260338192e-01 2.542391335010946857e-02 -6.202119826658240853e-02 -4.983191069834003173e-01 4.256439503402523750e-01 1.848689712338421332e-01
6.083718827966616560e-01 -7.969940277110650062e-02 1.672911866067743059e-01 -1.394336318473861636e-01 -2.921762739861617497e-01 -1.710202560364450231e-02 7.470596456438036714e-01 -5.193339149490922013e-01 4.305860483294764451e-01 1.621257345281131579e-01
4.974856036350721045e-01 5.036701545087109849e-02 1.202134810011559335e-01 -4.806109455630269145e-01 6.986904684436044677e-02 -4.136692690800495772e-03 1.378090829027855069e+00 -5.163345699061683280e-01 4.059426891120359593e-01 1.840736012446894110e-01
4.900098562272691138e-01 6.065514535236986998e-02 8.715462809776763908e-02 -1.962077056176005085e-01 2.429530690000780979e-01 -1.273558935384373585e-02 1.214041691063714401e+00 -5.416400793080279330e-01 3.587282986926054185e-01 2.471628807756158230e-01
4.722805463167846218e-01 3.711081973357649010e-03 1.003136992319366844e-01 -1.436171201184685275e-01 3.515142432898714087e-01 -5.090040411324640857e-02 1.215206262699417783e+00 -6.287865327511253932e-01 2.845457674957912464e-01 3.656740250491551381e-01
4.533724861453822808e-01 -9.502398135911307997e-02 8.936439550962710365e-02 -1.814085559416167281e-01 3.660955818930632932e-01 -9.253916167040296403e-02 1.301872079696717588e+00 -7.637214857044133387e-01 1.621704756328672115e-01 4.767610697119737395e-01
3.960939892167390508e-01 -1.506044077976713969e-01 6.141369014436245943e-02 -1.531359681900222036e-01 3.797209763081182965e-01 -1.837086134747334398e-01 1.375183706521663218e+00 -8.732407337616242549e-01 4.558253877471104415e-02 5.317757618859849655e-01
2.859244079946240413e-01 -1.731205342682905213e-01 3.654129083105771281e-02 -4.813163104090833339e-02 3.759223868409549141e-01 -2.809439381978605099e-01 1.337516755317277317e+00 -9.226477878463892335e-01 -2.588800010704044724e-02 5.404357290426556881e-01
2.213763539664502511e-01 -1.555356690470807157e-01 -5.482741649726710111e-03 -4.003392689380483619e-04 2.997115670284856703e-01 -3.543889225076999328e-01 1.344199971230433999e+00 -8.911014748025353205e-01 -3.604160138026816368e-02 4.549333968709979303e-01
1.987036647402375955e-01 -1.673253943343123162e-01 -1.528068472520170695e-02 -9.118561452681066271e-02 1.545975820307997073e-01 -3.785701401945715250e-01 1.390339594325910033e+00 -8.721832862131508879e-01 -3.623940702779446243e-02 3.682983077705045405e-01
2.258214195466581309e-01 -2.406291629812893351e-01 7.129874524648222890e-03 -2.737994571763769924e-01 -1.236075744537969145e-01 -3.720037164948523656e-01 1.370432009203704116e+00 -8.915186684053079125e-01 -5.755234300652636165e-02 3.135776094776603351e-01
3.362980155855494480e-01 -3.785557465080512940e-01 2.770936492938657833e-02 8.636230684605292196e-02 -4.460290855184827485e-01 -3.606341085612446706e-01 7.930809766773815328e-01 -9.300655953603788051e-01 -9.132192402168275158e-02 2.616882715452841790e-01
4.295650700160276725e-01 -5.932641552843230803e-01 -2.418301029375210728e-02 6.284833237072113832e-01 -4.637791650302276469e-01 -2.256393509723811641e-01 2.460604158641294115e-01 -8.717526516815647941e-01 -1.264017060401743386e-01 2.441872640645002535e-01
3.311201989248138688e-01 -8.287476574076405589e-01 -8.820649814519705700e-02 6.522508489593268344e-01 -2.057470275998761478e-01 6.142768064087771734e-02 4.114595761467608748e-01 -7.270162244535214313e-01 -1.704383594049468376e-01 1.602529857819605108e-01
-1.678843878473587885e-03 -9.238304414594505909e-01 1.197766347795493347e-01 5.638833865046466443e-01 -1.893515648074290195e-02 1.502739675825580656e-01 5.613792838577240651e-01 -6.082762742280450885e-01 -2.341592371290809049e-01 -6.741193581683378733e-02
-3.720144396371114492e-01 -5.913660130466306120e-01 3.159314146164338699e-01 3.029740191140936623e-01 -1.553636313311626826e-01 -7.469811547445238953e-02 3.783170086741868277e-01 -6.088043770445682457e-01 -2.872771505439426498e-01 -1.428961968724596909e-01
-4.866139165675892886e-01 -2.368861012616604589e-01 1.727331150405755633e-01 1.232516208407987979e-01 -1.804764884963798999e-01 -1.832609501142578590e-01 2.018595405382642427e-01 -5.580236971421325132e-01 -2.850009780052591424e-01 4.927812440482017345e-03
-3.976963971891921412e-01 -8.440892998872039088e-02 4.317003472378996148e-02 6.507426234999479087e-02 -9.147769545034549477e-02 -1.344578993777738873e-01 1.161119417592220704e-01 -3.408545481269823485e-01 -1.332003574667073864e-01 7.355897059813523708e-02
-2.353933481628490976e-01 -2.534257605129087987e-02 1.965358028102034971e-02 2.490804722843129385e-02 -5.487982749743736816e-02 -5.504993752781178751e-02 5.230828133120361823e-02 -1.222664296558255981e-01 3.367468733471364745e-02 4.197425406244086055e-02
-6.136223238487014536e-02 -7.919734199250372600e-03 3.770786648170402263e-03 1.147757893595844139e-02 -1.651596732677203250e-02 -1.043232671067277281e-02 1.304013071829562657e-02 -2.144299935982893132e-02 2.314483436942033068e-02 1.095572013493792581e-02
-3.185858858402032534e-02 8.295970734812654901e-03 1.856738719407703686e-02 7.463646919967414743e-03 -1.192698464596448661e-02 1.520637779069717796e-02 -6.154989739015233156e-03 -2.189274211054220362e-02 1.635922438798523976e-02 5.649237291189607678e-03
-1.020194825563037200e-01 3.044948483366503866e-02 6.002415304111571870e-02 2.036533767162282405e-02 -3.667608485606946994e-02 4.503348921720547182e-02 -2.711174100378301033e-02 -6.949952265583339561e-02 5.598978715257949684e-02 2.469924766062945448e-02
-1.597564580021474112e-01 3.694661239425738736e-02 1.088675813009083865e-01 2.528365946463024400e-02 -7.132820933754632775e-02 6.690922745593287646e-02 -5.367353988162538309e-02 -1.202242643655988125e-01 8.449950946329323753e-02 2.683580718097701434e-02
-2.200846756187863906e-01 -1.545198496226037055e-02 2.465353558855265526e-01 4.974540233282773866e-02 -1.611870447124498784e-01 1.064414867851655039e-01 -6.287623921318896691e-02 -1.897441167406707929e-01 1.521941872192231482e-01 -3.216888807352921709e-02
-1.479520273670742458e-01 -3.215472171800338175e-01 4.612375678427410586e-01 2.166070429171092770e-01 -1.619474197924049841e-01 2.599299685797053505e-01 6.030232333477966722e-02 -1.837702975998969090e-01 2.968499830387161809e-01 -1.936454913466879868e-01
1.810210126676171372e-01 -6.530192489767863151e-01 3.129771625017128134e-01 5.024123849342824188e-01 8.585219930521630072e-03 5.656755695538662199e-01 2.426479438037250358e-01 -1.512616105243948239e-01 4.235044499108562288e-01 -1.425722839375852813e-01
5.644189490483950689e-01 -6.290626600548071545e-01 3.262642660021257413e-02 5.942816842676699185e-01 -1.519505315024442249e-01 5.593274054425212416e-01 1.549481218648497971e-01 -2.908128622160623955e-01 4.706415883211317319e-01 1.056393845707608581e-01
6.809412234385064933e-01 -3.747210352655748755e-01 7.995691907087673633e-02 6.222508067655857511e-01 -4.470978137122774698e-01 2.501505686873683465e-01 -1.305284254782188291e-01 -4.777746829347691571e-01 4.933612362442226229e-01 2.392853131198230954e-01
6.487488175657695200e-01 -1.608171351863643406e-01 2.321124863932538807e-01 5.268654592135660897e-01 -6.018900388096249943e-01 2.121785642666892263e-02 -1.449982245038950179e-01 -6.010303081024506167e-01 5.265638972817298091e-01 2.388127621511422216e-01
4.810922349925064179e-01 -9.313530250169719995e-04 2.469865971719611697e-01 -1.793601262570215238e-01 -3.848698830109117952e-01 1.078381258058959229e-02 7.182016429334391328e-01 -5.952870214424337281e-01 5.225956310363976121e-01 1.944534087988172011e-01
3.683797424597776704e-01 1.202858162886511068e-01 1.907038368885021762e-01 -4.158243075893675589e-01 6.601945426923339251e-03 3.111438876085510785e-02 1.259769774443384449e+00 -5.717909360780879524e-01 4.881245098622034040e-01 2.134138493193477315e-01
3.693229943180689756e-01 1.280305133958152264e-01 1.630044979230676205e-01 -8.538644352956634154e-02 2.244379305383193135e-01 6.018520826424351988e-03 1.081150079088408322e+00 -6.069999485075089352e-01 4.381621342121201357e-01 2.995054718391165216e-01
3.405748902710363790e-01 6.003988776264017335e-02 1.913476896429612273e-01 -4.452900800442684964e-02 3.409529653499594470e-01 -4.369162183755485179e-02 1.086916713049257410e+00 -7.169086303386442705e-01 3.584886919664006522e-01 4.429702721060417847e-01
2.891530429329327023e-01 -2.176972614816652385e-02 1.822206110137230550e-01 -7.571449447848857539e-02 3.678042104959006187e-01 -9.844704400430411007e-02 1.190068176493190411e+00 -8.543848299254370726e-01 2.349923222352090779e-01 5.580016948107739960e-01
2.100763124389033454e-01 -6.878703816410884631e-02 1.471613978473739481e-01 -5.892164188041045664e-02 3.795998075936497518e-01 -2.068078454912689879e-01 1.288984034284324176e+00 -9.490411218702632379e-01 1.376182553716059909e-01 6.258606924445053732e-01
8.874966604886549981e-02 -1.208597181328929654e-01 1.086954193543822889e-01 1.202984715306375241e-02 3.849811308816331601e-01 -3.233966970189817158e-01 1.319015413093971523e+00 -9.563524250433680374e-01 8.985497174484172178e-02 6.550275320752765307e-01
2.636230354126241002e-02 -1.331799788858849809e-01 4.452937126848272031e-02 8.188057472806635484e-02 2.900662747104931771e-01 -4.283742810964039083e-01 1.329233969109239855e+00 -8.619053998578266595e-01 1.059296828131178481e-01 5.842778714013935337e-01
5.030923377981220621e-03 -1.485366903788339632e-01 5.863348679237213347e-03 -1.152681074101843256e-02 1.099319051931043345e-01 -4.681801762476057172e-01 1.385483021093799172e+00 -7.701544340324875115e-01 1.326838101738861686e-01 4.810760857791356870e-01
2.549799271076663015e-02 -2.125949209727097666e-01 2.844816375128714214e-02 -2.345007870332735112e-01 -2.311898323499125829e-01 -4.613741405255760153e-01 1.354558050166944305e+00 -8.061707084256169997e-01 1.243633397643682109e-01 4.249808307654597272e-01
1.388515476884363276e-01 -3.222058024081460026e-01 5.810938469819595248e-02 9.375450638058291375e-02 -5.793945440652431556e-01 -4.633758495887109752e-01 7.910945679969566546e-01 -9.099129959883970331e-01 8.319504214858543245e-02 3.807721440299095539e-01
2.652318392582287410e-01 -5.078390768954624823e-01 -4.100757607287800789e-03 6.523203178072989328e-01 -6.150961289248769726e-01 -3.477168914121671617e-01 1.904728419580583310e-01 -9.037781516209758559e-01 3.572565531546930545e-02 3.773850638005077918e-01
2.160613485258439381e-01 -7.636139443638925162e-01 -1.048891805510396569e-01 6.853721676919942718e-01 -3.459852946816704411e-01 -4.691984584705716915e-02 3.497624983473847649e-01 -7.577941640120053890e-01 -6.011510740385178804e-03 3.182915123398410429e-01
-8.716070433945222184e-02 -9.533881085801990674e-01 5.926181697386259661e-02 6.445988123652908186e-01 -5.477182453947134627e-02 1.568984195230470613e-01 6.069463023914203337e-01 -6.007310266196740356e-01 -6.228537773246946296e-02 7.019530997005322959e-02
-5.010790082818538105e-01 -6.991213780822079782e-01 3.342734515119289429e-01 4.052549158036676813e-01 -1.378048987832062311e-01 -4.257815589650312121e-02 4.820816191303120557e-01 -5.595024866645655903e-01 -1.266987826143713414e-01 -8.618783336182750388e-02
-6.475223310119339049e-01 -3.151298986210153696e-01 2.454093584521803983e-01 1.746710354494868389e-01 -2.368630647208494755e-01 -2.226419556352540741e-01 2.750847340211630687e-01 -5.173124412878412626e-01 -1.427241734316121446e-01 3.349749866346677513e-02
-5.575076867904524835e-01 -1.122233017974983565e-01 8.155485145589776164e-02 8.537006356255413819e-02 -1.369284706253238448e-01 -1.766355068180162080e-01 1.778381153210913668e-01 -3.016438924460791982e-01 -2.413284226699041399e-02 1.268776209437653679e-01
-3.389155235005978928e-01 -2.218791926820463944e-02 5.444714390341978683e-02 3.571225585743726533e-02 -7.987706832628577169e-02 -5.221407407307449705e-02 7.762376230224454776e-02 -1.006140077170846608e-01 1.186770111204499822e-01 7.983520567353219466e-02
-8.518867647440792057e-02 1.295406905995190793e-03 2.085326073581250314e-02 1.371203349653385938e-02 -2.334668114924022542e-02 2.521562723660232628e-03 8.113722141339483815e-03 -2.362434065727965840e-02 4.718430739111899308e-02 1.903294286593678816e-02
-4.448841942250668369e-02 1.356744382847442643e-02 2.358490268003144222e-02 9.190116219623086988e-03 -1.479208936786321864e-02 1.879330449465999031e-02 -1.123357305175035764e-02 -2.696385797660645969e-02 2.400804402509829072e-02 1.148193449846805422e-02
-1.394868489452297522e-01 4.222292153700914902e-02 8.245253218961086372e-02 2.480344960473170740e-02 -4.944236837798965389e-02 6.079747964138940836e-02 -3.846114049883576219e-02 -8.806638700311142376e-02 8.010235824495581802e-02 2.971314247157064853e-02
-2.117842712528131000e-01 4.991803892795962372e-02 1.508567637516941840e-01 2.954098563715469583e-02 -9.527738547150288451e-02 9.038026485858542680e-02 -6.237554556593964683e-02 -1.422516008230532147e-01 1.235643236809333967e-01 2.736036662779982656e-02
-2.671951999587275361e-01 -4.046317179554246440e-02 3.320107051127583198e-01 7.720594773423374024e-02 -2.032374790345786164e-01 1.387259914463379040e-01 -5.864978746521627012e-02 -2.144005667878537968e-01 2.131073599218363535e-01 -6.220668825826679987e-02
-1.939869857674039466e-01 -3.619379580242976790e-01 5.116373868038271988e-01 2.796262870987735738e-01 -1.397069665664029958e-01 3.634400722566591413e-01 1.001727094220788428e-01 -1.982405159031954689e-01 3.794371490413662729e-01 -2.080892157867469117e-01
1.756313814405039975e-01 -6.430894782004549226e-01 2.785994238471555806e-01 5.545800524946574717e-01 8.491149875909381403e-03 6.708716979355024979e-01 2.576315027073649566e-01 -1.991279924684176694e-01 5.022672771017187010e-01 -8.244203995476120927e-02
5.349707813205062390e-01 -5.690349422767174703e-01 5.074975574442382870e-02 6.204421070138088634e-01 -2.348351667683915844e-01 5.946447874703679748e-01 1.156818422482200626e-01 -3.662011719918396024e-01 5.522633357194711712e-01 1.530638052437371388e-01
6.490638851054919556e-01 -3.357292973370586409e-01 1.243113915258532154e-01 6.681719726059203168e-01 -5.316368636755524069e-01 2.904794711384791617e-01 -1.745275241469647631e-01 -5.504140436178711626e-01 5.797880782121220822e-01 2.755870539615808967e-01
5.704429473121014338e-01 -1.047384391656401570e-01 2.893272935279203040e-01 5.347510179929967356e-01 -6.876243661010735808e-01 6.446135768557988144e-02 -1.744914565694828390e-01 -6.673167540829646471e-01 6.092390940559073709e-01 2.592491211293013187e-01
3.776969779619754330e-01 5.623770785066962985e-02 3.055265086733778834e-01 -2.052125039721730271e-01 -4.844546390260721647e-01 5.797111685676527987e-02 6.876187721724583701e-01 -6.451587720738148901e-01 6.004631382624646685e-01 2.070379050670285159e-01
2.755330583495433916e-01 1.649629227938008980e-01 2.325147841328693288e-01 -3.837243631271594069e-01 -5.529066142383882998e-02 8.590473466175561901e-02 1.213317169006464358e+00 -5.963797536093395912e-01 5.544455106282563106e-01 2.067777731994447088e-01
2.710976867980028349e-01 1.716090888268548276e-01 2.280658746639195600e-01 1.936045357167023515e-02 2.142951500841873969e-01 4.662288512062206375e-02 1.000421503742479290e+00 -6.591501412592052356e-01 5.020991845033309087e-01 3.349610919129056286e-01
2.270216299803212434e-01 1.023258528573495058e-01 2.600837437261884766e-01 5.493519958796492381e-02 3.314096574907578474e-01 -1.048425679840336508e-02 1.011444910877526748e+00 -7.823491791307233267e-01 4.131321254699323320e-01 5.013835692889148099e-01
1.641447353618837868e-01 2.775534545853169943e-02 2.542512842837570952e-01 4.819029300161990770e-02 3.481309168759051387e-01 -7.166763580522705901e-02 1.098570876666579377e+00 -9.056680722401477812e-01 2.918181244596563251e-01 6.039486092851257260e-01
8.120484707120269319e-02 -2.429068474706582575e-02 2.226586735897946867e-01 1.500545743475469040e-01 3.253556759752808114e-01 -1.860340327915482872e-01 1.114110163532109787e+00 -9.735742244247779231e-01 2.181398227999871153e-01 6.638818065758479436e-01
-5.102027839553507915e-02 -7.468182732304334825e-02 1.680667641843330840e-01 3.776382879143640181e-02 3.830442708562774023e-01 -3.222772818779617299e-01 1.398284431356742186e+00 -9.097499043523621376e-01 2.071335721378950445e-01 7.380519067631947649e-01
-1.057919249424873476e-01 -1.267315566688223538e-01 8.877171175022562088e-02 1.397084044048857721e-01 2.837549822059730609e-01 -4.482066306356496943e-01 1.415569948944525924e+00 -7.127137488868848791e-01 2.466474119276272359e-01 6.866118147895438062e-01
-1.127863807741068536e-01 -1.561869323872584481e-01 2.251275525664869423e-02 1.664805421821890369e-02 7.212300128848864178e-02 -4.898527167547120920e-01 1.512787731747268438e+00 -5.421744191148171188e-01 2.909895434805913617e-01 5.540904168060919455e-01
-1.149118549218912239e-01 -2.082061703955604137e-01 3.522426093686092941e-02 -2.499886733051384646e-01 -3.343303999660241499e-01 -4.963482415004380477e-01 1.465913940882338728e+00 -5.783827404794535942e-01 3.111780430288419441e-01 4.811732993924902613e-01
-4.949117155296858112e-03 -3.008482725358774257e-01 6.972335728074149919e-02 1.186988893384650773e-01 -6.780949735774680631e-01 -5.215489692189231308e-01 8.486695218509731076e-01 -7.468120760715244444e-01 2.761956457638171103e-01 4.730914640375202818e-01
1.452474494766181901e-01 -5.068259395047199911e-01 -1.678371305124943397e-02 6.883159768293650727e-01 -7.040665204418904422e-01 -4.096012708463059870e-01 2.704139103048169845e-01 -7.634491708300508161e-01 2.349924944205316335e-01 4.745362610885660581e-01
1.319294575669061609e-01 -7.495424376514155940e-01 -1.260077792267527974e-01 7.164166116362551406e-01 -4.486003568817900078e-01 -1.169051589914034822e-01 4.008702957039933512e-01 -6.345469417746949503e-01 2.016123683466052030e-01 4.224577026320565087e-01
-1.299282494117481868e-01 -9.533640817047650540e-01 -1.260462003912950907e-02 6.754707222124318733e-01 -1.124481116063160702e-01 1.416990693509403709e-01 6.835927742234443327e-01 -4.612445177184073541e-01 1.475717079651842900e-01 1.885235180706132108e-01
-5.913430846255280926e-01 -7.825589881739137832e-01 3.091493385556194351e-01 4.761913743296341539e-01 -1.026445841703589601e-01 -4.479098934417208473e-03 6.404027329519084155e-01 -3.889342474819900142e-01 6.095473618414459088e-02 -2.834263958011809872e-02
-7.709912624495541822e-01 -3.905964565318283954e-01 2.993746654487644543e-01 2.174671943664541196e-01 -2.673069568820675146e-01 -2.398027465118595658e-01 4.076438727050252231e-01 -3.650757632091045091e-01 2.392620725661759318e-02 5.342315330965039660e-02
-6.773699080469025580e-01 -1.579812558242365550e-01 1.229503726493072907e-01 9.772038297872898127e-02 -1.795781456382593566e-01 -2.157432169152157519e-01 2.933731222741792211e-01 -1.914767896469714570e-01 8.069539735030879790e-02 1.542987536116414427e-01
-4.122556221001986709e-01 -1.404080000396505830e-02 9.382346742504336923e-02 3.975218235761437263e-02 -1.016469749044473792e-01 -3.697004693199942849e-02 1.152539338878675462e-01 -8.405805427107007621e-02 1.574330256949041107e-01 9.623573546233650522e-02
-1.035373418029647136e-01 1.592248909154336811e-02 4.315439147307613410e-02 1.318570146521191692e-02 -3.031598936258122004e-02 2.101432314165440143e-02 -4.229929023840518320e-04 -3.313723200780203243e-02 6.010659041180076850e-02 2.883815169916857657e-02
-5.007943577812739439e-02 1.821888241671168474e-02 2.720891886498795834e-02 1.117931614523039532e-02 -1.705170034772931359e-02 1.978954602884825179e-02 -1.704062290616353142e-02 -2.923150996903028584e-02 2.798449761923890375e-02 1.420162207560843846e-02
-1.658486068739311037e-01 5.292976912776901910e-02 1.017902501375704399e-01 2.676748812833860611e-02 -5.881327710288333094e-02 7.471576968553175768e-02 -4.356339142877943549e-02 -1.010200494676900401e-01 9.525001100798612119e-02 3.299821698156718552e-02
-2.514738571823979529e-01 5.953976280016546468e-02 1.944011409680165836e-01 3.824674859941682575e-02 -1.241914903182010921e-01 1.113887863286462110e-01 -6.524181077659657602e-02 -1.654949464047210939e-01 1.545705007363869787e-01 1.564083058327075948e-02
-3.060794253433042900e-01 -5.383924946761586838e-02 3.970164692030954678e-01 1.037649917909799352e-01 -2.245166088636758317e-01 1.812186487158133075e-01 -3.975795909873831163e-02 -2.262811600417509728e-01 2.572877346018764277e-01 -8.891303717994042399e-02
-2.387566071928138578e-01 -3.746600363176179616e-01 5.195420772678829291e-01 3.202672465906778454e-01 -1.026564767588510896e-01 4.733910758731042501e-01 1.622880186301962901e-01 -2.054898601273974224e-01 4.319999513876580099e-01 -2.113746885064857195e-01
1.834730010713999937e-01 -6.011127000398078790e-01 2.086967008571742055e-01 5.747713411735881905e-01 -1.702528434120218533e-03 7.540593209907674455e-01 2.921715334180967627e-01 -2.413727615910856716e-01 5.436454381754901588e-01 -3.741565725053684621e-02
4.989837625843815405e-01 -4.865567680982438858e-01 5.006092460727176729e-02 6.224347247108635850e-01 -3.071027764735128063e-01 6.208312241305369295e-01 1.028199303977827272e-01 -4.281354374818137076e-01 5.943015920460109625e-01 1.694878467092011121e-01
6.314626072528374268e-01 -2.989054853591227023e-01 1.325416412367600716e-01 7.023979620856237727e-01 -5.891122609345367245e-01 3.631132086930724534e-01 -1.598774295969845050e-01 -6.087437565226545555e-01 6.446910833336539914e-01 2.859614212865951299e-01
5.298929498287581197e-01 -3.617825998889744737e-02 3.017808726374095474e-01 5.216115632801971991e-01 -7.818932305592068976e-01 9.980364623389587075e-02 -1.802762133248655418e-01 -7.317023717388603243e-01 6.595365679473098597e-01 2.684939506495922501e-01
3.113919512904594344e-01 9.500618811721230073e-02 3.329787458162595803e-01 -2.131317985403722581e-01 -5.612776581588567737e-01 1.113241840121161064e-01 6.850086064091556182e-01 -6.573891161808109729e-01 6.414232746674738417e-01 1.722631682599176095e-01
2.169167257241507440e-01 1.926602942920986328e-01 2.565701775662508344e-01 -3.541034074739922155e-01 -7.667872042418913403e-02 1.430001075691918755e-01 1.218065222185842567e+00 -5.957551389665298736e-01 5.846704429699401961e-01 1.792587677158850867e-01
2.123277649139280188e-01 1.975312152363798146e-01 2.686345747671635142e-01 1.097882126640479516e-01 2.357825609941271716e-01 8.580664791176410844e-02 9.646942531589176584e-01 -6.927086664325085019e-01 5.254262025340844522e-01 3.523850954065494423e-01
1.525003999931495713e-01 1.363641948915494395e-01 3.093281184935867123e-01 9.317041592999929234e-02 3.121365892298685885e-01 3.751820502289750919e-02 1.028621418832087686e+00 -8.281634381128052391e-01 4.399876732220858733e-01 5.245247986403012153e-01
8.240268760707157580e-02 8.626947555193892336e-02 2.968537605284350955e-01 1.737130430952020244e-01 3.106652467614737789e-01 -3.648630667389331228e-02 1.041669645568202185e+00 -9.279942475806918223e-01 3.059957022462786447e-01 6.288264818080221419e-01
3.168581876196968627e-02 2.605838367846136441e-02 2.818449051740518074e-01 6.187748179051402175e-01 1.945646954446096644e-01 -1.620346297709437111e-01 6.907903026544465197e-01 -9.695640849828476293e-01 2.341161137660054126e-01 6.744151079093883006e-01
-1.130801228626748117e-01 -3.660867474204928390e-02 2.197754410883012710e-01 4.670678070046222624e-02 3.393924492587307440e-01 -2.889620875636367270e-01 1.567051160328070347e+00 -7.968091936974743827e-01 2.234508343026624100e-01 7.921524171705595085e-01
-1.289836860022850473e-01 -1.175027209995530286e-01 1.532306290561994688e-01 1.469721143254650586e-01 2.461425516813681713e-01 -4.165179266939737501e-01 1.645818630412802186e+00 -5.271554793643136172e-01 2.253910641939321502e-01 7.391551265511657753e-01
-1.172048757379468426e-01 -1.582601896290539434e-01 8.529921753731621592e-02 4.276229747589780500e-02 2.176741563764266960e-02 -4.560279409544635842e-01 1.732992851207907359e+00 -3.147430672444210820e-01 2.681740341630561297e-01 5.854557008671484875e-01
-1.716308328167124864e-01 -2.180788285251058500e-01 5.547716818810447675e-02 -2.808449676284308083e-01 -4.097942380943173091e-01 -4.837359628690982571e-01 1.666951289394622115e+00 -3.368728076347378142e-01 3.940767760477942305e-01 4.822877507196290936e-01
-8.129275951957476432e-02 -2.878735334964332981e-01 4.423443993487990306e-02 1.431161972911484115e-01 -7.752556457212486096e-01 -5.670102055912640271e-01 9.424451735012354670e-01 -5.396741357446159792e-01 4.133389885338323300e-01 5.202587402064914324e-01
9.977187930144561234e-02 -5.252921081127503999e-01 -7.238922347666441881e-02 7.210332413834319443e-01 -7.784179566461441047e-01 -4.498624309731841242e-01 4.251224827231134262e-01 -5.659094701926467019e-01 3.961316382561567706e-01 5.710273722607963620e-01
7.699856803254381821e-02 -7.641061644184168333e-01 -1.661600052338019495e-01 7.412884735412573756e-01 -5.118521323896005892e-01 -1.742644603822792182e-01 5.616081047966244855e-01 -4.147466249176969266e-01 3.719971194072328458e-01 4.849783880056512952e-01
-1.487252936096686018e-01 -9.303252539823506639e-01 -1.134675601065925216e-01 6.753041613827225342e-01 -1.726059734207981700e-01 9.418234383044528368e-02 8.332139218088298049e-01 -2.360486175676657361e-01 3.070989495211944309e-01 2.944226239985638371e-01
-6.270521063155840569e-01 -8.419138729424743284e-01 2.396965075471423345e-01 5.118507912752122690e-01 -6.270989059942884414e-02 4.418805225870424402e-02 8.761079185143211268e-01 -1.532532888657085757e-01 1.912270154463952820e-01 2.487208771966647330e-02
-8.427647394392983049e-01 -4.421237809893145410e-01 3.264538624387267052e-01 2.435142907009197055e-01 -2.698473043882931854e-01 -2.255723393340870464e-01 6.051375900803225294e-01 -1.711734583058015235e-01 1.147095241975744362e-01 5.823781894967905437e-02
-7.464949407238911094e-01 -1.980660216029513088e-01 1.747507721690588767e-01 1.143909528459276237e-01 -2.211892706880391746e-01 -2.336549374553924807e-01 4.494581015054970874e-01 -7.394595639278438159e-02 1.107965095719366244e-01 1.598719222762179371e-01
-4.708128221234563204e-01 1.574764753353730725e-03 1.492324172254621828e-01 3.943459461785858711e-02 -1.251889753958095319e-01 -5.751599238433827838e-03 1.696925299737986337e-01 -9.388565460134946916e-02 1.405845645390979559e-01 1.017764418786558517e-01
-1.256011681631285792e-01 2.439203550688580704e-02 6.230919285519040396e-02 9.463313253371822761e-03 -3.417595783461441911e-02 3.607494242029311848e-02 9.579380497920118517e-05 -5.753028740097752836e-02 5.553979151373969469e-02 2.729582012787047651e-02
-5.580950352539756215e-02 2.219167353513243693e-02 3.296713511053577655e-02 1.368091890985738066e-02 -2.014013836769877608e-02 2.555707118547778309e-02 -1.434106170260576567e-02 -2.844588109189880379e-02 3.166063960798264770e-02 1.716687893740660720e-02
-2.002406094809491555e-01 6.622998406683504313e-02 1.270430235966898136e-01 3.060566500160981362e-02 -7.176847316273511634e-02 9.329566943439218663e-02 -4.472066856646324945e-02 -1.153243736167797184e-01 1.145561186644924317e-01 3.398492163041089142e-02
-2.854240726342936463e-01 6.774439360045622638e-02 2.276214284848816771e-01 4.632451758906223210e-02 -1.424718623230097903e-01 1.364435135271592214e-01 -5.467711989067767370e-02 -1.766232320173503068e-01 1.742774249701951050e-01 6.245938024623556156e-03
-3.395141619849058601e-01 -5.499043391071570253e-02 4.241462668324043062e-01 1.197717930803956360e-01 -2.147418135967220643e-01 2.287060715100059649e-01 -4.203658907798299947e-03 -2.356869489090470116e-01 2.806099244833336059e-01 -1.146763454485352496e-01
-2.845136500001722579e-01 -3.559871749701952193e-01 4.977737110772843532e-01 3.445276975621012761e-01 -6.172268904079932644e-02 5.762063141213533690e-01 2.332262448505260655e-01 -2.180064878940698170e-01 4.659054008551558046e-01 -2.149173676357140905e-01
1.717493940504878358e-01 -5.218898109963482357e-01 1.262107442681129066e-01 5.687956887853613530e-01 -1.912312411527260572e-02 8.258735507890545557e-01 3.389769062579223169e-01 -2.871459610577629662e-01 5.643599066839358747e-01 -4.240404300476474132e-03
4.455832644240258489e-01 -3.781955406011316967e-01 2.597311630504115995e-02 6.108837333359654620e-01 -3.574876683478638295e-01 6.524840790971409010e-01 1.208850779458227470e-01 -4.802729434640361506e-01 6.160961653444536612e-01 1.776604753562787409e-01
5.972359073519840633e-01 -1.984939841270462191e-01 8.955816669997147816e-02 6.997422981881789017e-01 -6.325080313613485883e-01 4.156213740599333240e-01 -1.350353111957588170e-01 -6.669462642254641027e-01 6.715320266125396342e-01 3.059509641063582475e-01
4.888689102015597587e-01 7.877827081029055434e-02 2.952056705339676790e-01 4.808964738793782834e-01 -8.873900569276956807e-01 1.134015431847512079e-01 -1.794878053660826367e-01 -7.920895707759652016e-01 6.793727853799357286e-01 2.621605336506319106e-01
2.667585650307247591e-01 1.215535754014799019e-01 3.614551297735335567e-01 -1.793817987968934491e-01 -6.198165773904438236e-01 1.698857231080974639e-01 6.931003193715097321e-01 -6.574546993048927535e-01 6.709691516122101573e-01 9.708421086670038225e-02
1.742175441641062306e-01 2.266268431087453961e-01 2.827683581089051601e-01 -3.059704198681979515e-01 -8.548574532314340280e-02 1.873389421176935576e-01 1.242491016562928596e+00 -6.093027642696933199e-01 5.994103355506503750e-01 1.385917754024838522e-01
1.523206850391349843e-01 2.550547020300816814e-01 3.024116462411638451e-01 1.973780403903087899e-01 2.453471229635509343e-01 1.224273455421553830e-01 9.644307448820409467e-01 -7.383227384551617201e-01 5.295397719875969411e-01 3.494702240979129515e-01
6.397752418383018114e-02 2.046592642763353231e-01 3.599340163462189657e-01 1.106490845600553163e-01 2.978936895044814737e-01 8.908093663054628131e-02 1.105813648615490585e+00 -8.722275780747457130e-01 4.237828782484627799e-01 5.291203753574255098e-01
3.149973500987046648e-02 1.574957783476718665e-01 3.585356477091534155e-01 3.578161486005770886e-01 2.719040267740260863e-01 1.803474086924780617e-02 1.008432426399279436e+00 -9.504438772117047574e-01 2.458276820291107889e-01 6.374886934517569603e-01
4.894471250141803342e-02 9.843870981356510341e-02 3.835666550394384866e-01 1.023056594126628527e+00 6.937003771134328534e-02 -9.785254172037688436e-02 5.097343559431467552e-01 -9.265580502251248296e-01 9.404674747613694930e-02 6.821762837558376091e-01
-6.701482683359881454e-02 3.971027446262213184e-02 3.221466725439975365e-01 8.123111258010638769e-02 2.698639142279576353e-01 -2.262140039198450858e-01 1.858760101316166535e+00 -6.357048476594235886e-01 2.928374597579599600e-03 8.043315178439006674e-01
-5.281560765666832441e-02 -4.570020001815076893e-02 2.764850649288921325e-01 1.710589895137017702e-01 1.779875579169287736e-01 -3.372964240617659093e-01 1.965133083643901601e+00 -3.597605112898263902e-01 -2.974774043855604733e-02 7.505363317153080915e-01
-4.726535962421384018e-02 -8.431019829596281268e-02 1.965864351347859362e-01 9.646523900357004133e-02 -2.733739154081409051e-02 -3.743940504960120430e-01 1.975590289620108964e+00 -1.730141859975886653e-01 5.993469209370991257e-02 5.696404929723980493e-01
-1.612308368432844585e-01 -2.034848904086800081e-01 1.129780104195960977e-01 -3.060115393640371328e-01 -4.751286843197191079e-01 -4.116236657902453966e-01 1.908080450202727985e+00 -1.526060386297731220e-01 3.314863767883586276e-01 4.225586332355542596e-01
-1.339373378909788914e-01 -2.421828425832112386e-01 4.915094032312949252e-02 1.769492042719931213e-01 -8.864319171775819628e-01 -5.777861508976992466e-01 1.019374622855733881e+00 -3.984213798075205148e-01 4.697715681758418693e-01 5.253192317437135328e-01
7.880713129159470920e-02 -4.573119612577916104e-01 -1.515403626149242067e-01 7.198321864459378272e-01 -8.586754641646119346e-01 -4.576743251443201044e-01 5.423642069216636497e-01 -4.503336955281911358e-01 4.794207185360275236e-01 6.533960252440181860e-01
2.192719865752961947e-02 -7.115725038272918690e-01 -2.227116603027108344e-01 7.400781903312497745e-01 -5.463557210786974538e-01 -1.681360293602401912e-01 7.264630241393091881e-01 -2.584178224478207442e-01 4.541856992355608469e-01 5.441565978659667069e-01
-1.566048015942084204e-01 -8.566344608484635081e-01 -2.040449703334601128e-01 6.507036607944034490e-01 -2.266631741692163859e-01 8.526034436912678649e-02 9.879491497995721572e-01 -8.054484639289920256e-02 3.627560535359207750e-01 3.682088692064079405e-01
-6.195315763240373252e-01 -8.367304472895751299e-01 1.617181671087856154e-01 5.230675449017967438e-01 -3.017957846203243172e-02 1.290609202668289990e-01 1.118037173121577244e+00 2.185036324498104351e-02 2.059937121074970345e-01 5.629993550108137318e-02
-8.639250012101796772e-01 -4.419713704356156847e-01 3.655738358216656936e-01 2.673010355533270155e-01 -2.721132498254317245e-01 -1.485284577605416045e-01 8.484864471253786844e-01 -2.438520576676012075e-02 6.717521008256008286e-02 5.707319201820013066e-02
-7.708354483846944216e-01 -1.905172004313541168e-01 2.519479751874013074e-01 1.325140026534686322e-01 -2.722548910637306308e-01 -1.874125145014616522e-01 6.714765462842805510e-01 1.398259361604507409e-02 -5.792124547339729153e-03 1.595761867669675538e-01
-5.110833665023795103e-01 2.302338037254448438e-02 2.179430404509535568e-01 4.861971342824104869e-02 -1.610891339551993318e-01 3.276538875652178218e-02 2.588874572580265321e-01 -1.151276361896102080e-01 5.556445691677729115e-02 1.076532596290914190e-01
-1.490022469518682835e-01 3.386107520270899979e-02 7.817552943662907372e-02 8.565674708031640813e-03 -3.924515506230370765e-02 4.722029204785927609e-02 1.528124083693536972e-02 -7.548437706643132405e-02 3.903244116342834830e-02 2.703326035747596195e-02
-6.177609540689885104e-02 2.559649771288530565e-02 3.981243498718859547e-02 1.450801521786882972e-02 -2.362828252349700661e-02 3.033951105405182508e-02 -1.420411592309945951e-02 -3.231600129954220052e-02 3.489233808537806070e-02 1.741672987682488585e-02
-2.325640178824125714e-01 7.953762829915597687e-02 1.461897895946929760e-01 3.604139188121689708e-02 -7.919133038586664841e-02 1.128839337994880371e-01 -4.358654767353329490e-02 -1.297245548689805739e-01 1.291949029115571357e-01 3.749072745996262501e-02
-3.097048299705909002e-01 7.986944320260047636e-02 2.331138128229894024e-01 4.429195381898381328e-02 -1.381932056341529658e-01 1.614936277186469760e-01 -3.109638211595956020e-02 -1.832593928178617437e-01 1.753096461769683423e-01 -4.561554348814601118e-03
-3.954049302593636850e-01 -1.834349511462861695e-02 4.036104149306343203e-01 1.153532972529900669e-01 -1.789928362023144315e-01 2.949908257772160258e-01 5.399855612927613457e-02 -2.435692685417717440e-01 2.837986967830690710e-01 -1.166618447205406001e-01
-3.362921206716314448e-01 -2.880329523745345233e-01 4.086656635888591960e-01 3.294440490814254385e-01 6.575252086693178857e-03 6.776949514776396954e-01 3.212877164425049781e-01 -2.193308551278195517e-01 4.634507833933209642e-01 -1.976835103833858576e-01
1.492341527183295158e-01 -3.956064230063589537e-01 3.334597803527294523e-03 5.312926019877258765e-01 -1.386167119575225024e-02 8.776949530456631399e-01 3.921843399422961784e-01 -3.105310488160412663e-01 5.494876476089191053e-01 3.062649165050649810e-02
3.933646758121180365e-01 -2.328873722780067101e-01 -6.710174378806314788e-02 5.654465116166159655e-01 -3.672709329130579015e-01 6.778287913892423466e-01 1.527572215965864455e-01 -5.080838883531125783e-01 6.005414463458453866e-01 2.006074586737297549e-01
5.605931990648236329e-01 -1.228878721019943838e-02 -3.444819734035937248e-02 6.305827818019716924e-01 -6.754205461299312985e-01 4.161592597946333072e-01 -1.333118724215122675e-01 -7.136039900660166024e-01 6.386821629736131323e-01 3.583970295615179213e-01
4.357842065864993009e-01 2.130204323198679750e-01 2.786866672866348260e-01 4.187973005982683627e-01 -9.800120307905254569e-01 1.045352817629368464e-01 -1.573861347301986624e-01 -8.258822962741352303e-01 6.730708101380856734e-01 2.161533251403469913e-01
2.487747918786844536e-01 1.559081356630043491e-01 3.609304127629736070e-01 -1.215814813314460008e-01 -6.623854810278816396e-01 2.176868644715453660e-01 7.011739581328010340e-01 -6.365442665237659448e-01 6.779398773059199801e-01 1.073259046861122293e-02
1.646530614989252794e-01 2.754112784256095847e-01 2.835309601162836479e-01 -2.278193848593100812e-01 -7.171644065179924588e-02 2.280113147137237117e-01 1.261966194243451245e+00 -6.195099066608744653e-01 5.838581711483337155e-01 1.251615710441336404e-01
1.201957336302022505e-01 3.263966947038696165e-01 3.487853934945412959e-01 2.705219487018599156e-01 2.399065049036014641e-01 1.679963284066208207e-01 1.017556012535973720e+00 -7.764907564357383940e-01 4.677929543813412194e-01 3.552179015319115174e-01
3.616764732391019449e-02 3.103150760669780017e-01 4.354124659832023791e-01 1.390297383936992814e-01 2.690493270188178965e-01 1.632064343422423291e-01 1.276426247227413713e+00 -8.984400525231450718e-01 2.616695458437200417e-01 5.335311691603821238e-01
1.134174890924301293e-01 2.454764269656081188e-01 4.470570641436814041e-01 6.238918878813565216e-01 2.126775776395819495e-01 9.145251455321654066e-02 1.043742035669640078e+00 -8.963803693644666337e-01 -5.390214189351166807e-02 6.417886066810050139e-01
1.775181684596779663e-01 1.568373168021859332e-01 4.679470609639262424e-01 1.237305285205404504e+00 -2.471152338053336436e-02 -4.863984946376170154e-02 6.520906222082010206e-01 -7.561649220261168480e-01 -2.236343673808635635e-01 6.492794269086119563e-01
5.204631843464935237e-02 7.965475260975626859e-02 3.589840409683739408e-01 1.610614145982260381e-01 2.362841211633180949e-01 -1.954323888360348371e-01 2.113416900106044327e+00 -4.427776724967709132e-01 -2.467953679564505454e-01 7.669098870775713506e-01
2.872865570128010221e-02 -6.590675845083678215e-03 3.016152763851636109e-01 1.937906929381038312e-01 1.570920039019067238e-01 -2.872044661065802917e-01 2.164654500210921650e+00 -2.495431170229269746e-01 -2.029935706463114609e-01 7.150490763152351770e-01
4.374757908864968653e-02 -2.394784945020129660e-02 2.337275904479251820e-01 1.960078612613048166e-01 -1.577938626398513525e-02 -3.137578402764713004e-01 2.138463216107683973e+00 -7.933788062329283353e-02 -1.238191820435484147e-01 5.620994373939894873e-01
-3.647526818188426972e-02 -1.625870050983554416e-01 1.480904356438909331e-01 -2.750982347841366416e-01 -5.112626284947126010e-01 -3.351255997765843486e-01 2.137577570901914470e+00 4.214039192365643532e-02 1.601750921995805654e-01 3.708356397515258918e-01
-1.048732107769353300e-01 -1.615827245069229312e-01 9.866487455902396564e-02 1.902822969526204167e-01 -9.932726277751221522e-01 -5.495499274221026242e-01 1.095525142222289139e+00 -2.794198274666760962e-01 3.947115351657456417e-01 4.630200968918814497e-01
8.125726112278883195e-02 -2.723267681383096384e-01 -2.273512245258114961e-01 6.501589556857451102e-01 -9.647444512584090193e-01 -4.779381924657978287e-01 5.970872058749334688e-01 -3.988578276091884756e-01 4.393407681246240815e-01 7.080849741681468634e-01
3.056540951542297165e-03 -5.568640859614460981e-01 -3.242343983294863619e-01 6.898692809663684589e-01 -5.608146334489605422e-01 -1.158187619983011563e-01 8.418309059305388864e-01 -1.685371656025162201e-01 4.353345817984150545e-01 6.054505177379373437e-01
-1.437711941113085090e-01 -6.988411997052362823e-01 -2.958954645576026277e-01 6.018514511829015090e-01 -2.686412471550151948e-01 1.288161796910485823e-01 1.115244898955374042e+00 6.337341274154926866e-03 3.127469740169843693e-01 4.238660878723501391e-01
-5.847183806213261947e-01 -7.324638178946973888e-01 6.694828777547484622e-02 4.980535678978034730e-01 -2.654084787538552297e-03 2.503101711448607603e-01 1.357174355866763715e+00 1.418660339830672412e-01 1.003598638095097861e-01 8.500862208712252344e-02
-8.583543914908110528e-01 -3.700410168867815375e-01 3.719474368308963719e-01 2.639930985363134752e-01 -2.513414311336943929e-01 -3.141196774833440036e-02 1.107145537554478532e+00 5.531526421103104274e-02 -1.073712749297185409e-01 5.754213305297939396e-02
-7.491557907581436471e-01 -1.412505313558866660e-01 3.157106929859102573e-01 1.350372246355966144e-01 -3.000758253961615107e-01 -1.077327737371511635e-01 9.321154379806331214e-01 7.149130978256491853e-02 -2.584238407307841712e-01 1.627606897071202929e-01
-5.352598282312692746e-01 5.965868383917208306e-02 2.843099119794960106e-01 5.719539222750898849e-02 -1.965947284300217646e-01 7.938607424431569359e-02 4.010041932330911107e-01 -1.493182590316239622e-01 -1.260522057149504327e-01 1.211113596481392801e-01
-1.657002754185873394e-01 3.798002568418182290e-02 8.493569944123002813e-02 8.224431415813021964e-03 -4.364347352490922233e-02 4.846737474999446987e-02 3.332119373281198366e-02 -9.504935991163078468e-02 1.092159828716138432e-02 2.627281186691708334e-02
-7.156508866596537899e-02 3.022919724473566508e-02 4.532743186863669171e-02 1.655921573938679350e-02 -2.665584598434570657e-02 3.646098991673139139e-02 -1.287664525239621063e-02 -3.746054272156202486e-02 3.903144924497527202e-02 1.725303641995186779e-02
-2.629628489803294555e-01 9.464299898305723879e-02 1.620775894182430454e-01 3.901606652168605749e-02 -8.590586429219491948e-02 1.350731383276348452e-01 -3.046888380110581926e-02 -1.380325613146815844e-01 1.418002748169109040e-01 4.135447154260504798e-02
-3.345554798481182868e-01 1.070526615319329355e-01 2.205084394342757270e-01 3.000731882287473520e-02 -1.219262051771834304e-01 1.907828912304005697e-01 1.096020242570428481e-02 -1.829243573792957434e-01 1.649861920560630746e-01 -1.066473434754276750e-02
-4.448063334968485605e-01 5.132435199936093151e-02 3.356404700691821841e-01 7.959597319821570816e-02 -1.223660985571664722e-01 3.655758392924681743e-01 1.440085681473906587e-01 -2.317675243661329598e-01 2.594142873276939487e-01 -1.186741365132489845e-01
-3.777913750261046588e-01 -1.599321586124948513e-01 2.550752062304811885e-01 2.688932382523753772e-01 7.666192276692694596e-02 7.664779657729203777e-01 4.417933774672040403e-01 -2.047109481405373077e-01 4.182629601910011763e-01 -1.829586289484968209e-01
1.214839018089519662e-01 -2.033448187514636241e-01 -1.766258595060235803e-01 4.451069622368342693e-01 -6.842089799192990415e-03 9.078285410420878776e-01 4.630252140499028779e-01 -3.189710417082600724e-01 4.885188529593194051e-01 6.563945988089567307e-02
3.521321996929372977e-01 -1.714437359119766122e-02 -2.408062535525704317e-01 4.851931226154683197e-01 -3.548689545829392111e-01 6.931573701986347702e-01 2.060540140888467986e-01 -5.106584077833136170e-01 5.339322281219160971e-01 2.357430188751615252e-01
5.271112144270807542e-01 2.425425070823288842e-01 -1.856524121450783549e-01 5.238015536576969833e-01 -7.458670800579365601e-01 3.825555946195909329e-01 -1.181802715487177413e-01 -7.401858495224649115e-01 5.610740179484203782e-01 3.892266850632279951e-01
3.686073963305896428e-01 3.512013508625332903e-01 2.941696680712087009e-01 3.610226313288793509e-01 -1.050933161939257676e+00 1.161738245610397513e-01 -7.063334274084366593e-02 -8.109541526740600137e-01 6.338835641298138368e-01 1.168703412010318188e-01
2.291899098828270032e-01 2.151404369826444007e-01 4.003016321188713755e-01 -4.190465357694206361e-02 -6.907926214844172241e-01 3.007754777081502184e-01 7.642296629540920039e-01 -6.051941187388528709e-01 6.330259272874900756e-01 -7.273028751470451969e-02
1.644960587427402587e-01 3.889475865232638330e-01 3.515116230066668845e-01 -1.197755339942292857e-01 -5.722676430349817045e-02 2.893648878467169894e-01 1.352025443838590801e+00 -6.363833848707923790e-01 4.516801938805283800e-01 1.235366788603945026e-01
1.492706403316659547e-01 4.497687632371275002e-01 4.619937427985139067e-01 3.137257392160070490e-01 1.728212745536717165e-01 2.684509109372434366e-01 1.229607232253381532e+00 -7.823745721622179516e-01 2.053541591538423361e-01 3.508917879758230995e-01
1.180528958901519987e-01 4.178507589754417717e-01 5.342551790577698689e-01 2.046642159901939928e-01 2.242631849403992905e-01 2.457316418184020967e-01 1.572027916530881253e+00 -8.247968735881181512e-01 -7.946685836994518692e-02 5.089939785196984090e-01
2.490997433218166413e-01 2.850322600627041014e-01 4.638638922545902377e-01 8.914281070744930480e-01 1.617450687814867838e-01 1.043561700335800813e-01 1.139898793231697738e+00 -7.212425880378767751e-01 -3.346771871265424303e-01 6.087407059217831984e-01
2.550835652972404666e-01 1.599505822410964007e-01 4.141339548700265216e-01 1.348546284028062425e+00 -5.290553276316169173e-02 -8.058686553476016035e-02 8.038956550683820090e-01 -5.144190220200524077e-01 -3.149419722180901160e-01 5.875713216085725055e-01
8.266544420133078996e-02 1.077504135022125109e-01 3.172442180009599211e-01 3.004740695701212383e-01 2.417195933727192270e-01 -1.989588369468061058e-01 2.157579131654914217e+00 -3.085299514192225701e-01 -2.795072279977817153e-01 6.985714868087272711e-01
8.288808263467278836e-02 4.784463799483030383e-02 2.827236295518251175e-01 2.099626979053916820e-01 1.650460073339658218e-01 -2.530323702908114369e-01 2.285421036666919647e+00 -1.515191553215753939e-01 -2.648681149169557769e-01 6.419967040408633974e-01
1.162479041518506562e-01 4.213799026955493410e-02 2.283381213447834013e-01 2.669847843084932615e-01 2.597457512402818330e-02 -2.738224716712311380e-01 2.244089631284262421e+00 -8.973490618739130009e-03 -2.423339326501915136e-01 5.291099630715728752e-01
1.300666248537336589e-01 -1.134440934049824601e-01 1.717569154204963144e-01 -1.964439972946909474e-01 -4.825389881719477914e-01 -2.573625791993635614e-01 2.357929638538228456e+00 2.036274855531644834e-01 -7.382322584198464099e-02 3.093293739917503671e-01
3.420462077380433813e-02 -8.170443185616511894e-02 2.038276361876474596e-01 2.190451471609395906e-01 -1.066110457680323753e+00 -4.445908912404727964e-01 1.321644616063900601e+00 -1.073304976473663935e-01 9.430550552658618912e-02 3.231815685454602072e-01
1.615787026923496683e-01 -1.612932521069418423e-02 -2.264209434812842481e-01 5.410410463780007673e-01 -1.104211873910952546e+00 -4.521972370490780491e-01 7.579561775360318387e-01 -3.274859083165816420e-01 1.697441673167530696e-01 6.798872316915351988e-01
6.167547022288122349e-02 -2.811201008676877944e-01 -4.423149163771472603e-01 5.921099507868207157e-01 -6.041878805294369492e-01 -2.598337699713907864e-02 1.030830101234259999e+00 -1.037451426274933197e-01 1.941077458618042650e-01 6.467881602643795746e-01
-1.200274655918315420e-01 -4.399540474681793434e-01 -3.905644083065821226e-01 5.041188750653295969e-01 -3.142571006412816503e-01 2.236347978006370529e-01 1.333748903073416203e+00 3.807685653636622841e-02 6.198990071983411648e-02 4.453763190980744580e-01
-5.643555445727600484e-01 -5.319198337734243331e-01 -4.172748230463055319e-02 4.158257692847979747e-01 7.706908459274085937e-03 3.995509055466666681e-01 1.654281545386445451e+00 1.578023142050809235e-01 -1.872721252866253183e-01 9.389048421588422344e-02
-8.758993324659725133e-01 -2.360999805287199160e-01 3.305588348380637531e-01 2.169460660504328453e-01 -2.200447129643171296e-01 1.117416058611882673e-01 1.391598600061039859e+00 6.359442013636595892e-02 -3.814429238907903197e-01 4.752640618169562403e-02
-7.403861201551849014e-01 -7.333044367094516958e-02 3.329843920676887614e-01 1.198994878024914196e-01 -2.976028782939617590e-01 -2.669252327035605277e-02 1.172443004290307567e+00 1.087246670062567838e-01 -4.947602432055582256e-01 1.552530825968943262e-01
-5.423492450616239635e-01 9.298040999180104405e-02 3.455747281695426554e-01 6.284821902052802056e-02 -2.265449162796270843e-01 1.274086437598866139e-01 5.839654034844701247e-01 -1.563149983414547639e-01 -3.440868739003384302e-01 1.315467910208774627e-01
-1.777895402521360579e-01 4.471260657267284860e-02 9.339408917753284911e-02 1.307991184375043373e-02 -5.076868595579978050e-02 5.387579653191693074e-02 6.146805737166528838e-02 -1.052431773407188492e-01 -2.512976572067572231e-02 3.087517718061083549e-02
-8.466412405771654714e-02 3.205212973806842447e-02 5.113354086102957219e-02 1.602567965774106054e-02 -2.723178702928250386e-02 4.021621333022774858e-02 -1.392821903525109234e-02 -4.116985288683908117e-02 4.766632140821097652e-02 1.992239513630953557e-02
-2.869742913869511303e-01 1.080037489602396206e-01 1.691183737807793186e-01 3.440075468232315498e-02 -8.756102400910754924e-02 1.503458446292303130e-01 -1.574892299136499210e-02 -1.456190876910088972e-01 1.477499763560168045e-01 3.418026929350139603e-02
-3.481931695260946924e-01 1.247725802228585729e-01 2.111843902542833717e-01 1.727268354246656520e-02 -1.108921934604536058e-01 2.154203192972832526e-01 6.347592275638953840e-02 -1.771251248175020332e-01 1.534943104254672119e-01 -3.930544968625995783e-02
-4.635000700351036840e-01 9.008553838387807489e-02 2.848611945175931193e-01 5.112505644092768531e-02 -7.674011670846751787e-02 4.214450045447764581e-01 2.442511390528234461e-01 -2.097948599414400928e-01 2.386678293734614820e-01 -1.450080923356864004e-01
-3.706747798093456003e-01 -6.694004519662667685e-02 1.110014162450914110e-01 2.090331617041456258e-01 1.319721157039716319e-01 8.346798728430323555e-01 5.822992195199275800e-01 -1.651503132506613181e-01 3.677329606688669039e-01 -2.022293126752007231e-01
1.133973973560309795e-01 -2.435231945273737264e-02 -3.305389650796627388e-01 3.450114759451295421e-01 -6.045706738502347466e-03 9.288603580883801891e-01 5.765904270457324898e-01 -2.970407095341586756e-01 4.068646256623477120e-01 5.862711585953449961e-02
3.392680104325643264e-01 2.056144635527394349e-01 -3.992316816230094267e-01 3.808368210521352881e-01 -3.597628928710095986e-01 7.236642525116300240e-01 3.327304077847121899e-01 -4.881532416227911120e-01 4.205428506241910003e-01 2.386341379022310361e-01
5.086489408117765842e-01 5.227404796811785381e-01 -2.684789525103830066e-01 3.873296675112021803e-01 -8.590016292464216496e-01 3.400307994344442530e-01 -2.833806851763668103e-02 -7.342175957806384989e-01 4.126290791565226934e-01 3.605259251891883565e-01
3.150672023056218518e-01 4.968827419976359350e-01 3.911787357958239064e-01 2.993186758542991099e-01 -1.131413050950345944e+00 1.774201388846625982e-01 1.258704542277979399e-01 -7.533251219331797977e-01 4.806654042970532892e-01 -1.177916737415879607e-02
2.690659579483456465e-01 3.127427180022197550e-01 5.329836271650564283e-01 5.408920218035217359e-02 -7.298101592353261058e-01 4.249391419938905456e-01 9.862297772032112553e-01 -5.246772621038910955e-01 4.096665813606855111e-01 -1.667172874636055069e-01
2.636136536382704953e-01 5.190120718465598415e-01 4.647145712267197748e-01 -5.590951965160735008e-04 -6.105783605202067671e-02 3.594487803537186332e-01 1.587152121818855344e+00 -5.523520905138915582e-01 1.435721373210829821e-01 1.114392038791880146e-01
2.341264585503056717e-01 5.187278590104956733e-01 5.050094515772400872e-01 3.344830209273034760e-01 1.593948008786075232e-01 3.108193267925445369e-01 1.532890215405374956e+00 -6.367678135584952104e-01 -5.106953491331983619e-02 3.037562816116290976e-01
2.160004578203328363e-01 4.312821925883215113e-01 5.086845763902297923e-01 3.291026971459090622e-01 2.540446946531698669e-01 2.020945565037871039e-01 1.756840755488498385e+00 -6.218295152099870826e-01 -2.301149994610081351e-01 4.631776988509246351e-01
3.087401667977974218e-01 2.573892059830565349e-01 3.615673970555110528e-01 1.071316834986089761e+00 1.914306087347439067e-01 1.898829560924686008e-02 1.201183966660361202e+00 -4.923360450066371352e-01 -3.457894839981087709e-01 5.511361239563671299e-01
2.694343423952328953e-01 1.625113914464967335e-01 2.941754623184604234e-01 1.403058565059954299e+00 -2.785647682204956191e-02 -1.344245749091681763e-01 9.331006128122021348e-01 -3.173141849674826487e-01 -2.959492096727403543e-01 4.897650975558864861e-01
1.180630766344240024e-01 1.592977706532515136e-01 2.610922714400503164e-01 4.753328557634185492e-01 2.650835655783693734e-01 -2.145075972256432761e-01 2.128741385134321540e+00 -2.315556671962067659e-01 -3.305284515920984822e-01 6.058941861372999504e-01
1.395914637809070047e-01 1.186837220583333297e-01 2.548966614720075685e-01 2.519884750953870212e-01 1.889209921949134563e-01 -2.338144806442194468e-01 2.388751099000482991e+00 -7.437340345976158063e-02 -3.409298457523234349e-01 5.512542979770647111e-01
1.762510443831201423e-01 1.032066265473410016e-01 2.203620241192006668e-01 3.205740556073715664e-01 5.897332643740130220e-02 -2.568329982025635561e-01 2.328888057023109415e+00 3.787538075272952470e-02 -3.366600330530142293e-01 4.705097303007667597e-01
2.375159784737886637e-01 -7.339153475130852367e-02 1.757897320110200501e-01 -7.578805533987408027e-02 -4.038323942465781302e-01 -2.387525797731178401e-01 2.498115293964795924e+00 3.175553535318761944e-01 -2.347920036958717482e-01 2.439477635363129226e-01
1.664057654880946313e-01 -3.825954926274071494e-02 3.009721996250830367e-01 2.556238803377702262e-01 -1.072899554101209185e+00 -3.429183947555060619e-01 1.633537372531941312e+00 9.877046305101146173e-02 -2.374116384170412708e-01 1.568821189180606701e-01
2.921716645880822472e-01 2.118067568680361834e-01 -1.496754299403022792e-01 4.236605527648675262e-01 -1.231250280201711567e+00 -4.017441859184129882e-01 1.105373238183158247e+00 -2.047447061405058555e-01 -3.071197962726872066e-01 5.416641557919666949e-01
2.014277229146197445e-01 -5.836883263275970644e-03 -4.928510945968083701e-01 4.586447369222737547e-01 -6.752709919820865103e-01 7.076730153015073355e-02 1.411614357283324628e+00 -1.825709897168345530e-02 -2.949642584614614593e-01 5.767707286321415161e-01
-5.394015033578232476e-02 -1.881631529881867548e-01 -4.414123829416524147e-01 3.923655843379248997e-01 -3.603296004648193218e-01 3.338117924405488157e-01 1.702014832040712689e+00 7.451416677651963305e-02 -3.716161938376320584e-01 3.828990177909376569e-01
-5.244731547013796735e-01 -3.628301637614778641e-01 -1.263131880687730635e-01 3.398993314809303778e-01 -1.695339185123451425e-03 5.167264997537025506e-01 2.011807597138036030e+00 1.789843735042138395e-01 -5.356096514692109123e-01 5.377674686377498930e-02
-8.875288506500542685e-01 -1.591365270888867034e-01 2.858216801595430123e-01 1.844220756241944648e-01 -1.937910832392844007e-01 2.059518036886632542e-01 1.650392596042081106e+00 6.857460535672457724e-02 -5.945300617232865958e-01 1.435284919866363328e-02
-7.829460446759827219e-01 -4.534122931105540738e-02 3.178273428372735410e-01 1.075595430294838534e-01 -2.809224527467293897e-01 1.931872735875662115e-03 1.327373865232959194e+00 1.194904284056603760e-01 -5.894505718692419904e-01 1.347638284178373780e-01
-5.453113739079624711e-01 9.649303203675783924e-02 3.812237078141295088e-01 6.838372854741729678e-02 -2.431030186458075504e-01 1.388683126123305134e-01 7.755521328434910044e-01 -1.068812229541545589e-01 -5.080628595638373435e-01 1.435952915796261664e-01
-1.713332305300191150e-01 4.498343598692209483e-02 1.067457465512688247e-01 1.376079974604837476e-02 -5.273549742131540541e-02 5.372917793064667380e-02 9.469497366715409759e-02 -1.023741094124285822e-01 -7.040252066211635795e-02 4.097501666262477749e-02
-9.933905837020115537e-02 3.992063926390658490e-02 5.870093253133364802e-02 1.829868937451928357e-02 -3.146601207071436646e-02 4.800460046804085057e-02 -1.210267413238823309e-02 -4.573177825604269470e-02 5.472600538989906560e-02 2.184540819630855987e-02
-3.015394005892955698e-01 1.218358380388233908e-01 1.838097845649057926e-01 2.983132085035484354e-02 -9.434303652358778935e-02 1.715246001324450542e-01 9.629982361374486363e-03 -1.560925460619611016e-01 1.350763808257650356e-01 2.352601859377205507e-02
-3.458886629976854477e-01 1.453715583614620110e-01 2.230505942275262943e-01 1.006091474938282555e-02 -1.113364946354164775e-01 2.439766519576121728e-01 1.208125052631305735e-01 -1.711822180269801097e-01 1.153623264498034040e-01 -5.629466558554528655e-02
-4.644836602761214239e-01 1.182693361220109735e-01 2.733396891630143211e-01 4.151222121280849497e-02 -5.590025449022971438e-02 4.800071910078612669e-01 3.411728476989877024e-01 -1.876559470452863199e-01 1.976925714054000860e-01 -1.764652234245097928e-01
-3.323934138384551096e-01 -1.111261675995659816e-02 5.508985691566377352e-02 1.907919814929762148e-01 1.440217571334455882e-01 9.036346583855153769e-01 7.149586111690175994e-01 -1.323710276457995272e-01 2.944877194067027082e-01 -2.235482569296895761e-01
1.432055373212100802e-01 9.289110420066561125e-02 -3.571319223265420062e-01 3.010925281031753831e-01 -4.080840281727600438e-02 9.936146767957015902e-01 7.369928479571252744e-01 -2.654169807115017155e-01 2.753684980627256751e-01 2.844239193115593103e-02
3.899767422631665315e-01 3.602437474901956094e-01 -4.145425535057159494e-01 3.207924245568957167e-01 -4.086268358198366091e-01 7.957719925619832768e-01 5.506352547131752040e-01 -4.263109633422460520e-01 2.112170843598284165e-01 2.026116707684022245e-01
5.468785116611156738e-01 7.364157906053711011e-01 -1.872781413135724271e-01 2.785199639924897386e-01 -1.009256726332705245e+00 3.472017195099463827e-01 1.983061164462573411e-01 -6.499434175521787704e-01 1.228420586071436449e-01 2.880079605126938946e-01
3.127041586719528365e-01 5.944412789174398082e-01 5.510951368148097052e-01 2.510654070888069245e-01 -1.181688170472857236e+00 3.013404307262046444e-01 4.817719520646840392e-01 -5.778081655487640189e-01 2.046915487277916890e-01 -1.562983764244008367e-01
3.615739100033498188e-01 3.493902992278448694e-01 5.937610448543682029e-01 1.629341754209066573e-01 -6.818991915789877067e-01 5.085184835701739292e-01 1.243542404068552543e+00 -3.363073524224246547e-01 2.213483933732736941e-01 -2.632882769845238391e-01
3.269249579533334282e-01 5.321704942065919042e-01 4.711456076476830401e-01 9.412527266689996175e-02 -4.410219472826469589e-02 3.427758796655951956e-01 1.718987388845637287e+00 -4.015051055988503870e-01 4.115415450913940260e-02 9.823545252956739082e-02
2.674370501220363905e-01 4.924477981672436555e-01 4.745179957405430415e-01 3.607117565887791866e-01 1.874799383838472444e-01 2.508300546613829729e-01 1.727595382948594604e+00 -4.457667215034646357e-01 -1.033599654200955675e-01 2.929893142212204316e-01
2.521390559765226969e-01 3.756405505410397305e-01 4.160589035135699998e-01 4.512258004296149649e-01 2.950180129616509772e-01 9.491073688585650869e-02 1.871684515013887440e+00 -3.808269384829894300e-01 -2.239739899407405255e-01 4.305228924560827175e-01
3.198493731256886741e-01 2.224618387185684776e-01 2.450085205848532011e-01 1.175071378329178184e+00 2.142677345784981535e-01 -8.790404822446874766e-02 1.311867854403842237e+00 -2.727705289290611734e-01 -3.104453707615577596e-01 4.916203079240510365e-01
2.676966553218863565e-01 1.685165285206768615e-01 2.025558117294594951e-01 1.443021567726201937e+00 -5.344583856141275902e-03 -1.875100537849402893e-01 1.026529856616834602e+00 -2.131319083430798234e-01 -2.871805324592105468e-01 3.994149557574156462e-01
1.437074898366649256e-01 1.913426156913565490e-01 2.185121409774977153e-01 6.375281191991516438e-01 2.921454065334947447e-01 -2.176235880198909844e-01 2.074023729157717266e+00 -1.906624658363536007e-01 -3.541576511567220420e-01 5.246456358030237022e-01
1.621276075405950201e-01 1.570628651062201953e-01 2.258326467475932076e-01 2.973509283419629723e-01 2.293082501763215320e-01 -2.338117038208970544e-01 2.443993030830641455e+00 -2.875411063298602063e-02 -3.552459588607405072e-01 4.601515144081559927e-01
1.841774430850502409e-01 1.312863701319702814e-01 2.017644237994964951e-01 3.515074787334024897e-01 7.971380134554202634e-02 -2.485502635659893322e-01 2.366481714552924664e+00 7.162009312222271384e-02 -3.454695939819461548e-01 4.041492433033975207e-01
2.545400277377697917e-01 -3.744897657268046048e-02 1.507467387000946402e-01 5.929879934460464269e-02 -3.123475195051751974e-01 -2.398170575614042288e-01 2.503531180461930461e+00 3.471417517948325870e-01 -2.558190255021555171e-01 1.860145154861345129e-01
1.634368969011255890e-01 -5.420174482835713597e-02 3.013946362741344309e-01 2.979675502838425305e-01 -1.002513155893935304e+00 -3.100454740178955615e-01 1.790989376948632028e+00 2.327841248312741695e-01 -2.970993250196632407e-01 6.210069913925336804e-03
2.472200493145129685e-01 3.324608090656387960e-01 -1.007310588028280940e-01 3.426141596488329610e-01 -1.287243778687492846e+00 -4.098604528139924152e-01 1.270998785615581772e+00 -1.511473328822678652e-01 -4.707363318652987849e-01 4.092501491978944306e-01
2.479223279949010206e-01 1.447257282088423858e-01 -5.546666559598758539e-01 3.819842704882814299e-01 -7.107583480565671241e-01 9.426556342364771079e-02 1.629431761160231362e+00 2.701755115013465200e-02 -5.114843527205222840e-01 5.139253184274282793e-01
-4.913478745106100026e-02 -7.695230422223266198e-02 -5.051458864939445403e-01 3.403789544529555178e-01 -3.690969906546687773e-01 3.818103975059249922e-01 1.940916609960944061e+00 9.297294086749531561e-02 -5.605157873807271596e-01 3.164645214958003994e-01
-5.020262590025486027e-01 -3.064772226745725026e-01 -2.129078773008323822e-01 3.105713478878565637e-01 4.786498142900720912e-03 5.542762503636093907e-01 2.186600548543627731e+00 1.973771249943343797e-01 -6.426967258627033219e-01 2.473388624872123465e-02
-9.111446582217415102e-01 -1.518280369542712172e-01 2.267892154877028388e-01 1.735195737973429519e-01 -1.498581770039210670e-01 2.459623217686966734e-01 1.788171097810492549e+00 7.197011853281802540e-02 -6.449516245422015626e-01 -2.238564021313821026e-02
-8.383573122774977682e-01 -4.252342352528169778e-02 2.833290306639426603e-01 9.912244098111402946e-02 -2.556119667588522271e-01 2.194204768003783345e-03 1.412988543304903200e+00 1.088239638301134182e-01 -6.030995513915407003e-01 1.029443974268739875e-01
-5.556341447849560966e-01 7.397312943069001001e-02 3.736340322186358920e-01 7.011820486160139088e-02 -2.499013365200828396e-01 1.100956429017556082e-01 9.459465538881487445e-01 -1.396429880761770707e-02 -5.872427504465137504e-01 1.525019137296141358e-01
-1.552071412936876227e-01 4.216628361404527181e-02 1.160495007481279345e-01 1.956855514543562324e-02 -6.315200695019261568e-02 5.120452165466167493e-02 1.458243303215207287e-01 -8.581541527175857997e-02 -1.241162099242634625e-01 4.549102250042211942e-02
-1.077695808102903524e-01 5.361481171988984051e-02 7.507972648979330255e-02 2.003497623697319055e-02 -3.999973843336978446e-02 6.530447515441269168e-02 1.973081173271927415e-03 -5.212102657110261744e-02 3.952737257666263937e-02 2.299550988450285022e-02
