7.267653610468975678e-02
1.963128978759887469e-02
3.507301596858297676e-02
-8.400996046828258790e-02
-8.473790106989070869e-02
7.221078316351298154e-02
5.964337157347887608e-02
4.990859507263018663e-02
3.675138394347995247e-02
2.811519566863895231e-02
-6.847767211731382864e-02
3.155500786187363099e-02
-3.527168255807582031e-02
4.004039537757115436e-02
4.058568006941244699e-02
2.581895382599384836e-02
-6.616270312491037697e-02
-8.993427129253506180e-02
6.460227731753603875e-02
-1.862104615306700919e-02
-7.195730795305746441e-02
-9.897723802739582036e-03
-1.862717079190079339e-02
-4.561603655570344723e-02
-8.729883602751242755e-02
3.325907181591282458e-02
-1.234421271602696582e-03
1.095043202929332597e-03
5.644696238952897488e-02
-3.273468881521619106e-02
7.295513103242559638e-02
-6.299880065042692823e-02
-3.532914422699586637e-02
6.245449967116988021e-02
-4.406447457412118740e-02
-3.410746060984284900e-02
5.851843393388526417e-03
-1.346631003010424418e-02
-1.959225796605964555e-03
6.255041129029092345e-03
6.943506782419241186e-02
-5.749256862950387348e-02
1.001592222776869351e-01
-6.641650013166289918e-03
5.847951335666855960e-02
2.824844533744441839e-03
-4.330530553677139349e-02
2.631749391945506847e-02
7.143871059395755230e-03
6.128355695891115479e-02
-5.923425003430339564e-02
-2.590129861799250408e-02
3.974255648334124036e-02
-6.464612483566464785e-02
4.561494897530708054e-02
-2.894597268669205428e-02
-5.415154162995450271e-02
-4.378076961672370399e-02
-8.014120630005634738e-02
-7.609825786306043116e-02
-7.862949150165217393e-02
6.521198034760046502e-02
-1.246012212165138050e-02
4.490225661071899077e-02
-2.404963064872314704e-02
-5.204669868672944649e-02
1.475725107842290086e-02
4.047348557784676698e-02
5.189856403823472214e-02
-4.718466612735108812e-02
-8.573611890363562471e-02
-7.347417105678335190e-03
2.976739688611674400e-02
7.899728664923709454e-02
-1.110202436742800496e-02
6.608111583250575460e-02
-3.113972698472628267e-02
4.799518893353438287e-02
4.650542543554342378e-02
4.523953784548339491e-02
-5.630439668555195683e-03
-8.843288039168442638e-02
1.577979025499866295e-02
2.247813050894850034e-02
-1.845937748884264248e-02
5.344601778144113247e-02
5.536061350783789275e-03
7.543671229315684901e-02
8.084013739327844741e-03
-2.761403333888750797e-02
-5.602548257715007918e-02
6.495180569459327313e-02
4.478380171509636909e-02
-3.911393952055085971e-02
-5.427431336319434724e-02
4.061917828890716786e-02
-8.665850659821931756e-02
3.943453924302976060e-02
6.165347933368905443e-03
2.929629707698966010e-02
-4.717678453021634938e-02
-2.109052890239137071e-02
5.941856916292609370e-02
-1.375168737835057858e-02
-6.626124530862861906e-02
-3.668408574325945914e-02
4.810869246307171443e-02
-8.146324880014418901e-02
3.536085846328324706e-02
-6.671702457596138947e-02
-3.674621615287196330e-02
5.738688048092904781e-02
7.194381813109525584e-03
2.563698483620400342e-02
3.805743566667620092e-02
7.641404066378471027e-02
1.626715055701055679e-02
4.510080938557262109e-02
-5.083675210316090931e-02
7.388877319829327377e-03
4.869063587222754660e-03
3.042134331656684045e-03
-6.683462062427882044e-02
-9.147537561709179199e-02
2.995646640065622104e-02
4.150405086605274407e-02
-7.526013581028428989e-02
-3.394184604340261258e-02
2.989132325410743390e-02
7.309654487463652928e-02
9.216962979647939035e-05
-8.072407249809142316e-02
4.063815451365810488e-02
3.796071643952056429e-02
-7.321136595602897867e-02
1.557023091145131634e-02
1.899036047439938259e-03
2.215953039469521421e-02
9.770277252774642318e-03
-1.684828130303997126e-02
4.006102356662946673e-02
-6.307856055241042870e-02
5.961512711642603241e-02
-6.338688845950274375e-02
6.206705644369917008e-02
-5.848366519974111666e-02
-8.026170453126745333e-03
-9.161416853703786833e-02
1.712960816053199151e-02
-6.555806353921365959e-02
-2.214407762721634643e-02
-4.269272016161021477e-02
2.958146125290735118e-02
-1.086760611677315986e-03
-4.832753767510748755e-02
-6.056627963303712336e-02
5.467830852618078830e-02
7.818500888593617193e-02
-4.410171232251685475e-02
-4.359347386726328266e-02
-6.755088308937481911e-02
7.834807349057606660e-03
-7.731962192956365505e-03
-3.079479334988896588e-02
-6.393785332190318749e-02
1.328619409843186799e-02
-7.046930750654757658e-02
-9.517486068078489375e-03
-8.161972405560044552e-02
-1.539200836674097482e-02
-6.028819633194502231e-02
1.283230747399709964e-02
-5.829013226097885109e-02
7.030308093676730652e-02
5.621828317513796053e-02
-6.379466374998629674e-02
2.091779492989131323e-02
1.857569071827405369e-02
-3.215988440492713318e-02
-6.176713162361395504e-02
-3.264896919014107640e-02
5.886053263681917391e-02
-3.511902461062754721e-02
-6.483522178373186950e-02
-8.587921355462690975e-02
-8.065939839364411057e-02
-7.430671954015644065e-02
-2.651678317172872015e-02
-6.385086643765758296e-02
-1.889900920609452473e-02
-4.852213441338126820e-02
-6.254653061431969530e-02
-6.189497844170523816e-02
-2.191280132021417373e-02
3.492180722893863803e-02
-8.957377797819937593e-02
6.323184078038278366e-02
-9.031987395940575813e-02
3.657042835179227097e-02
-3.530190184745797544e-02
1.105581410183476389e-03
-3.573225881988247032e-02
-5.516441319313188096e-02
-1.002912731198372931e-01
2.222649708131239563e-02
-3.325341824486401782e-02
-7.520040889220333535e-02
-7.252171292020941074e-02
-2.490075978459887693e-02
7.203936409790971662e-02
8.369939380391623607e-02
2.534070888653436673e-03
-4.000240309708939443e-03
5.758499268363352630e-02
-5.049636120692453656e-02
-7.372825842740188262e-02
-2.482356482874951281e-02
1.276237781100356822e-02
5.774145447050067770e-02
-4.479064146996724477e-02
9.861882557960851767e-03
-3.586423596045261453e-02
3.359737748853036665e-02
8.349480850165925949e-02
1.312785736896639015e-02
8.695424189748042487e-02
3.356918264496550064e-02
-4.430252017726270947e-03
-8.656184976261141473e-02
6.108210150623716306e-02
4.961826308919115719e-02
-7.399186591897788379e-02
-4.869538888520290841e-03
-1.382765142400180225e-02
-1.814595689938811734e-02
-2.779138202688541046e-02
-2.321811894093398724e-03
2.352361682522209618e-02
7.528436115453941702e-02
4.872865185407026373e-02
-4.252867303983454139e-02
-6.122560009338116893e-02
-2.541961504089159177e-02
4.009328571939776292e-02
-5.668191785456809517e-02
-1.201988180461626386e-02
-6.327115644372935388e-02
3.931613862100923062e-02
5.774231011082512494e-02
-3.266920406721769005e-02
-3.975904411206614836e-02
5.419604845338816396e-02
3.794992865005375471e-02
-1.992121335181980951e-02
6.263770124654743920e-02
3.024243218633867678e-02
5.019503747398556398e-02
6.293415209116073883e-02
4.311703395130265376e-02
-6.995316743974869245e-02
-2.748522545630858842e-03
-8.691042964256346162e-03
-7.961679097051040099e-02
-9.856427603429447626e-02
4.885185726726937183e-02
-6.016713768795917128e-02
-6.044669427981973903e-02
1.712020687419565229e-02
-8.077787077322935716e-02
1.324805758052170594e-02
5.485259979042771822e-02
-4.750243710425330890e-03
-1.209836968157979899e-02
8.022537492074550969e-02
-6.302842055037594093e-02
-5.071428773990168531e-02
7.548333936403305022e-02
2.649870275247719412e-02
-8.464906123148220607e-02
5.450853908457323205e-02
5.970845069639817149e-02
-5.732437080614088487e-04
-4.110429348171694419e-02
-7.818881422587960206e-02
1.528947093401497072e-02
5.029078825372781947e-02
3.076719336928692219e-02
8.571808329403712845e-03
-1.986883464669872423e-02
-9.150887350243909523e-04
-3.029305668857792955e-02
5.163963934851444754e-02
-5.425869750709964509e-03
-6.425118896177500760e-03
-4.255798146593279922e-04
6.661517913683666359e-02
-2.177721602147726990e-02
-1.365576695982522945e-02
8.692466760005351442e-03
2.768367092770309974e-03
-2.750503514717642269e-03
7.406799692877870378e-02
-3.015020697843205991e-02
-1.290299799456963480e-03
-5.358140642680030846e-02
6.731198526460194231e-02
7.929215596778192710e-02
1.919560919024625514e-02
-5.912495842710502325e-02
8.023767401426722123e-02
-8.916810894153449907e-03
-4.637467285093745117e-02
8.319766098647932151e-02
3.472931998890528300e-04
-4.888978753805590938e-02
1.151110620988353135e-04
-2.998199868120236811e-02
1.631048547139762536e-02
-7.261620423711986905e-02
6.337692010101796114e-02
6.158727233781503135e-02
-8.000831250505183179e-02
5.742699777902460917e-02
2.580704327545766882e-02
-2.943112088654865899e-02
-1.109144880562060349e-02
-5.118544671401949880e-02
-8.213165803201923076e-02
6.565011070312557796e-03
-2.767360028017213508e-02
-1.070634965546779505e-02
-3.791800081821819490e-02
5.343464449934447191e-02
-8.877845949319103369e-02
4.906614630091093304e-02
-3.809764073278833207e-02
-5.796490571650642770e-02
-6.747720034221696417e-02
-4.418847193594716699e-02
1.465475649174317364e-02
3.349396913370117357e-02
-5.241717467704249539e-02
-4.087680780498521849e-02
-6.646486354664657425e-02
-5.191903113927689647e-03
-2.489623277204547000e-02
-5.714138546776635630e-02
-5.054929530177632024e-02
1.160051350049929979e-02
4.664974561825900590e-02
3.364618951956473147e-02
-4.634071346310687789e-02
-8.136205287080779808e-03
1.228243315099764033e-02
-1.905005704681497422e-02
6.876875114730804373e-02
-1.457093564501465294e-02
-3.778711858535178242e-02
-6.497584938359433904e-02
9.549301040110031238e-03
2.302549625966381422e-02
4.258900495302894024e-02
-6.851156957704986061e-02
2.487639684001396664e-02
2.077874769910185646e-02
-9.338433246358122941e-02
5.002313313432517339e-02
6.005559605691500324e-02
2.973302707223961228e-02
3.308174040686021056e-02
-8.074186824549631214e-02
-7.497728499135579427e-02
5.174064379675849534e-02
-4.884159264508454446e-02
-5.676596181822444326e-02
-1.240518818001871623e-02
-8.982364264857040440e-03
2.055689332888773271e-02
6.024646235886241263e-02
3.406466965890431794e-03
-1.699857946667628419e-02
-7.590043516450725725e-02
6.194160090079955938e-02
-4.163982649338938968e-02
-6.484932654453057221e-02
5.384642624040676673e-02
-9.372171976475959787e-02
-1.024606180750232617e-02
-2.129295754341336069e-02
4.384958458388624192e-02
-6.007244388133314156e-02
5.205208786900004936e-02
-2.426759207201361485e-02
-8.131537841227205743e-02
4.009249268088470319e-02
5.429289077674917530e-02
3.780232255735656408e-04
-8.107912535226505235e-02
9.034041827988710527e-02
-3.656635523570066215e-02
3.750738232566986491e-02
6.705299119536936581e-02
-6.285685142674900597e-03
-2.832065766515428837e-02
-1.281934781351344935e-02
-3.922082658504234126e-02
-5.574717269514473800e-02
-5.271303559837008795e-02
2.235860655190216248e-02
-2.911742019082244962e-02
-3.527647785546290243e-02
-7.801838058366569739e-02
1.565365110905026641e-02
7.665338144074718141e-02
3.595686201246900415e-02
-2.763437061923590399e-02
-6.747402247160685929e-02
3.523945110116432494e-02
7.358250299475126155e-02
-7.362041902843452501e-02
-5.096913222136538468e-02
-2.567258856341753451e-02
-4.163716871125344200e-03
-2.609032090172687737e-02
-4.847518342598690355e-02
2.959238938946406536e-02
7.113927872597354540e-02
-8.510329015702534916e-02
8.926851098323963785e-02
-1.923762445439246987e-02
-7.690360483791792989e-02
-5.761724109548373857e-02
3.984125663924185240e-02
-6.792431687572697378e-03
-8.127847956493298998e-02
-3.563881145200328837e-02
-6.881366065625621475e-02
-7.042744247431012572e-02
3.011545923623971943e-02
5.466486980034366422e-02
4.346273191583660718e-03
4.435482903094866564e-02
-4.316558492573187300e-02
2.698063565940301070e-02
1.345770832667059561e-02
-1.116658580392373978e-02
-2.727490660109984852e-02
-8.162555681957500697e-02
4.549161972638274265e-02
-2.775143278045002007e-02
2.875218635477215165e-02
9.042699792927355248e-03
1.725238322689817347e-02
-3.265008735467298667e-02
-5.335715093094969136e-02
-2.787347753994725771e-02
-8.414506589184504726e-02
-1.483050140101609127e-02
1.169781246483198728e-02
3.864899121069120119e-02
-8.000902282857220993e-02
6.570073231386210078e-02
-3.234868655811640875e-02
5.131128455586286136e-02
8.600322025827689468e-03
2.470442606081993744e-02
-3.614292934238304972e-02
8.066726189019336746e-02
-5.718329857522787968e-02
-4.809085946117101773e-02
5.347726966125562059e-02
7.252483672808547610e-02
-4.301040231751098591e-02
-5.297326633744082374e-04
-2.836653347961060750e-02
-6.534337669692748263e-02
4.235293228335876292e-02
3.941258807424206922e-02
7.803487545469871278e-02
-1.241779235192557417e-02
3.811429449984266721e-02
-6.830870344760268942e-02
-1.439761936583947889e-02
7.244149935326042733e-02
4.533678452643852969e-02
-3.251714039518716765e-02
4.936069137625662823e-02
-9.369990974822949015e-02
-6.617477400421011013e-02
-4.429549687787628920e-02
1.574589308461913501e-02
-4.509762366699358177e-02
2.856393815266238326e-02
3.504130855354286450e-02
-5.101357256928923389e-02
9.877692833207519021e-03
4.280808068712212144e-02
3.193097542037948156e-02
6.997473837169596034e-02
7.226498297844677343e-02
1.750030066918442651e-02
3.492501039244012145e-02
3.289059898515116036e-03
-3.004448757188070071e-02
3.112512101482304422e-02
6.000939296796729133e-02
-2.784315278463418697e-02
-8.595968152944705176e-02
7.978253124990554446e-02
-6.838918253204394337e-02
-5.265413213214122784e-02
4.379586272720735300e-03
5.060798066921502747e-02
-4.295957619676857991e-02
5.433349266829246016e-02
5.241408641417465847e-02
7.800938095715599652e-02
-7.139943033632929759e-02
2.479168524720444522e-02
-6.146329054674834480e-02
-1.568403091719134876e-02
-3.205499174806623885e-02
2.537886192733790000e-02
7.380554976102988475e-03
1.437103490577863046e-02
-7.627635693924976479e-02
-6.931261152576225285e-03
-3.038507411718646689e-02
2.299930393052453115e-02
-6.593708106824565374e-02
6.529632780077786192e-02
-2.840453296148832962e-02
4.565205865491349380e-02
-4.552612426930459366e-02
1.568391562183671340e-04
-5.094300111124457769e-02
6.429782069120765220e-02
-2.179111710457518059e-02
-3.757711431038584116e-04
4.409277127428148924e-02
5.296553571554715734e-02
6.364943124250610484e-02
6.110662398346641822e-02
3.485557788536861740e-02
1.157658876135869187e-02
-6.107538068770226175e-02
-5.871228898673553145e-03
-6.202058790131497606e-02
-2.542347928766040127e-03
-7.255897105639476374e-02
-4.122111866577989059e-02
-7.092408144048491236e-02
-8.503712269495948550e-02
-1.958673926862981515e-02
-1.404708132261688232e-02
2.862878426849572305e-02
-7.517400163602340479e-02
-2.828932383553691213e-02
-8.315236669741657427e-02
6.696510303108449413e-02
-5.538356376580893387e-02
5.988496604254166938e-02
-3.480545408018794612e-02
-1.758554495851662874e-02
-7.000578200010171281e-02
-8.399063656709539194e-02
-1.719972670888009203e-02
-3.454236906127727824e-02
-7.628887486230663539e-02
6.147211612953652760e-02
-7.153716170268132994e-03
4.407999078682118405e-02
-3.912269010299750105e-02
6.558384837754657748e-02
9.822905506059928168e-03
3.143563558970120797e-02
4.081237534577322225e-03
-5.866567392321015567e-02
2.957791147630673204e-02
-5.790816589606467141e-02
-4.199649505734188992e-02
7.771485289483565095e-02
-3.830440482373648030e-03
1.341993133686202912e-02
-1.272715557461131033e-02
-2.322186636270296908e-02
3.938904933887712296e-04
1.775084391498947881e-02
-2.899888358580151107e-02
-3.509475920726196074e-02
4.506363184725468984e-02
-1.495197275988217195e-02
-3.394878768197951563e-02
-5.706868268919073478e-02
3.983321915970075566e-02
-2.721750733266144542e-02
-5.353268392322020619e-02
-6.125527012381391453e-03
6.868886885102612472e-02
3.236370927017177563e-03
-5.183874756836134856e-02
5.973183580932179410e-02
6.462888619618315823e-03
1.763357080537289456e-02
-4.777150309146311474e-02
1.029627677676407671e-02
8.323763142063712872e-03
2.313246168601438418e-02
-2.143153903250585510e-02
-5.938356588416102838e-03
4.112890987350079769e-02
6.472632198074562693e-02
-1.222304249666076800e-02
3.351326122421614817e-02
5.012009633447740697e-02
6.818194350598816116e-03
-6.821047592085624500e-02
5.836072356201292555e-02
6.423789945803828894e-02
1.611547234990873398e-03
4.794282061887317897e-02
3.174727847969438521e-02
-4.383184951515417538e-02
-7.982465543511644765e-03
-5.560656601931230313e-03
-6.326771121945050369e-02
-2.749956660307254636e-02
-2.916397034970243107e-02
-7.278743134792639569e-02
-7.346260957652325785e-02
-3.750582380531563426e-02
4.656506284217250269e-02
2.267385624242686595e-02
-9.994749008939416736e-04
-1.088166875452621120e-02
-7.034387768237705674e-02
-7.262958774563266218e-02
-8.949120948167921252e-02
-2.023840524664024740e-02
-3.147552534376991257e-02
3.849276654009752691e-02
-4.161121237200860606e-02
-6.101304799371225565e-03
3.010825380188278041e-02
-4.068573381278952554e-04
-1.113953283985394047e-02
-9.052589924316577913e-03
5.718283127853979186e-02
-5.673653590481315262e-02
6.424348618641237407e-02
1.199960272347045179e-02
-1.402477636961306333e-02
6.868875576920226156e-02
-8.332270088054614943e-02
-1.174118594123754918e-02
3.830124981853684496e-02
-4.639849438000712839e-02
7.083508448533713808e-02
3.932958613458070740e-02
3.469184521971171997e-02
1.319374319465309309e-02
-9.245258872416137197e-02
-2.053703618017323901e-02
-5.331385175231116713e-02
4.705511485510117942e-02
-8.670262800874606324e-02
7.652811265534065210e-02
2.055532339633869485e-02
3.004603261509802836e-02
1.358710018630380177e-02
3.626652021506437257e-02
-7.510223510891825272e-02
6.684536016714455464e-02
-3.573265824734999513e-02
-8.418186122928439374e-02
-2.357744633673226464e-03
-2.738359046038072592e-02
7.081140089024753892e-02
-9.571967456491356496e-02
3.516526695471860336e-02
-4.118291320826478891e-02
-6.750517473292116932e-02
-4.089144237538439031e-02
-7.923002728004123474e-02
-6.951883491749553945e-02
9.456552060365966362e-04
-9.132515953577023671e-02
2.728308596232004168e-02
-4.147939042403808729e-02
5.200897872818655010e-02
2.490660378365612201e-02
-1.481608296293373053e-02
2.240262494834190099e-02
-1.877847562878511706e-02
3.073084801001880334e-02
7.036235340260062199e-02
-3.960194917503749579e-02
-8.782258962693799409e-02
6.458467254818188452e-02
7.519483476689044210e-02
-7.353556027342569856e-02
-4.832079536990860347e-02
7.893804303668089384e-02
1.511208338386904257e-02
8.193386474556568766e-02
-4.286698729155096789e-03
6.381649291582280892e-02
-8.678093692611793530e-02
5.656731830440964170e-02
2.237177503636165327e-02
4.073748733753543988e-02
2.712515855764592587e-02
-2.528666432965224684e-02
2.758987389665284919e-03
-1.861269336785559975e-02
3.526371730431605150e-02
-2.438546210560075742e-02
2.605891335936804873e-02
-3.762539994044206138e-02
3.333864656683683397e-02
-2.045808215296136129e-02
-5.201205466875177125e-02
-6.812669040845235890e-02
-5.571594091271134773e-03
1.731434080196392680e-02
-8.567686107403360563e-02
8.071163903244948923e-02
8.276348441085484842e-02
-4.651725592969066514e-02
-4.817266152407614216e-02
-8.997473720048590820e-03
8.288460886310728901e-03
-3.071865741681402417e-02
-5.387324958206253511e-02
5.468946450538669096e-02
-8.326100052670491747e-02
5.024530221658341650e-02
-5.206137733879005747e-02
-2.785713100925324946e-03
-4.576851521966468495e-02
6.748527813795002217e-02
5.775355564193983965e-02
2.410759269007987579e-02
1.765555456769117570e-02
-5.477412228564988023e-02
-3.975588892171290356e-03
4.207575780043912306e-02
4.927998534065062414e-02
-4.069954926770693454e-02
3.723490645670558125e-02
-8.185219722099575101e-02
5.769637138970567375e-02
4.589105515696470516e-02
5.577198773350678512e-02
1.900203684544655297e-02
5.075766946465973956e-02
3.834035425827458932e-02
7.452543753411450256e-02
5.873113135575779714e-02
-2.621976942026844892e-02
-3.339658720939508996e-02
-5.723872329402543424e-02
6.756858229668623317e-02
-4.679773986570133493e-02
-3.643095400249104360e-02
5.323099110398064188e-02
-7.690908945229585347e-02
-4.290850180759582522e-02
-6.108378406031574059e-02
-8.918767926758379427e-03
-3.611380525090335941e-02
-5.564550683357631644e-02
3.594586217057486877e-02
-3.096377592311819887e-02
-2.544080840542265452e-04
-7.588123941405454376e-02
7.908668735886775769e-02
2.529005424391158122e-02
-4.203490019833952540e-02
-6.214190585635818304e-02
4.486560863899480603e-04
-4.490541306897027213e-02
1.737165536957280612e-02
6.617194502272580325e-02
