1.388270775079762567e-03 -2.763106786324744883e-03 6.268529063843274532e-03 -4.303677281461804061e-03 1.148150335698497858e-02 8.872063876038073157e-03 1.679708536935606983e-02 -4.180880565556959437e-03 9.741961838023878092e-03 -1.770078843747800723e-02 -1.625406014623009430e-04 -3.318157760887737655e-04 -6.334116967838707493e-03 1.183826881328742947e-02 1.188565808799446621e-03 -2.352942598275999109e-02 -1.177013420989896780e-02 3.676739446670825376e-03 7.463867920165016129e-03 -2.555427227774834109e-02 -1.628170619141075179e-02 2.228364373197014563e-03 1.159205740970917393e-02 1.133947483298418596e-03 -1.409401821727912724e-03 3.195106658343009089e-03 -6.378360295790879222e-03 -4.937700300383014197e-03 1.952722519568809252e-03 5.248689759278694564e-03 3.516883602247428305e-03 1.133277942248854921e-03 -2.421556788501507199e-03 5.923907909101211802e-03 2.067914185312660566e-02 5.803249135006420013e-03 4.858125706050292480e-03 8.818010547470778388e-04 5.399782538735787207e-04 -1.765807089139956321e-02 -7.061749623715481150e-03 1.248459658914533336e-03 -1.352065614750253518e-02 -4.367474927632325650e-03 -5.804769205807218911e-03 1.348456825975624489e-02 -1.265396478680626616e-03 -1.411145893241856457e-02 1.167360165850275973e-02 -8.096047463611720507e-03 5.105303333056865345e-03 -5.488528382064305437e-04 6.156450594389654626e-03 -1.004940755490537317e-02 6.100166815590148985e-03 -1.282949641136949676e-02 -8.251359616403044703e-03 7.514511222282030216e-03 5.007309001531182885e-03 7.645261552807631686e-03 -5.677547535168588067e-03 1.596647867325596409e-02 -6.463358670881471681e-03 -1.361547295955781167e-02 -1.171842323225241907e-03 5.992014954192207386e-03 -5.188718588345372570e-03 -6.825374018157764726e-03 -2.113186917570954518e-03 -3.852093966512683265e-03 6.046031092213225225e-03 -9.813927740745527484e-03 6.782275930344496689e-03 -3.329864128281383000e-03 2.061449877374744825e-03 4.563851931705940543e-03 -2.057556097253841580e-03 -3.652050913879422225e-03 -1.172399764467428433e-02 1.514065496728408400e-01 -5.514969918887271602e-03 1.489165823559653913e-02 6.909916479463889052e-03 1.364483816412890779e-02 3.560947358017529322e-03 5.535053858072149641e-03 1.528988870180537397e-02 2.366307625336503719e-03 -5.708355145193235065e-03 1.255725037307599615e-02 6.478913572580419916e-03 2.767421922969662881e-03 1.405011560447640183e-03 -3.922753728019462600e-03 8.252877284373677513e-02 1.171852483082734021e-02 5.728982733519785361e-03 -2.339728741375250373e-02 -2.739945264181587771e-03 6.448031823138702066e-03 -2.344736471928879264e-03 -1.030762741574312025e-02 -5.027707918643225041e-03 1.266243872334363481e-02 5.040393353223374812e-03 -6.117849199284892264e-03 -5.179201762191104966e-03 1.519219225083591300e-02 -6.730792803916008614e-03 1.745562093127511110e-03 -7.415972382954564603e-03 1.375858225625702091e-02 -6.096206851640732175e-04 6.576460173641254488e-04 -7.063745717024237473e-04 3.986723086975159890e-03 8.520201626818381738e-03 4.126209440916480883e-03 -8.061351066555047518e-03 8.752340128590102922e-03 -4.301659712221294306e-03 -3.933986659202639950e-03 9.026884767842587032e-03 5.694662048689977905e-03 -5.512138981286684482e-03 1.799862878154665294e-02 2.724038833950733277e-02 -4.225540722451887228e-03 2.282772461889456556e-03 7.496968531845743348e-03 -6.017387164449793970e-03 8.379046551445082976e-04 1.302792375807487399e-02 6.523669594102905929e-03 7.455415803543659521e-03 -6.149521742835343391e-03 -8.640444160884669031e-03 -2.265625511478566376e-03 1.925032517477739610e-03 -3.671376521328789124e-04 -4.977808669583660452e-03 5.466329607151601370e-03 -1.634440962725053348e-02 -5.598787408442924699e-04 1.561689280574771535e-02 4.843943276773628182e-03 1.047357526745938162e-03 5.127619192252524808e-04 5.793536537009406732e-03 4.542930319181584520e-03 8.773116580164504403e-04 3.872669213534546406e-03 3.021653865788629170e-03 1.318119250295105883e-02 -4.538352912738846147e-03 -4.571427676974059578e-03 3.633344979422771341e-03 -5.684302748908250102e-03 1.993059768334403889e-02 3.553096322170437409e-03 -1.735578455010279575e-02 -2.049390389697610770e-04 -4.816572941921264811e-03 -1.252769488699786299e-02 -3.156146127548884080e-03 8.492554776893411830e-03 9.488702813852011508e-04 2.736116724452923241e-03 1.179466759674711266e-03 1.041858702682139232e-02 -6.583707071169235710e-03 1.361849325878580893e-03 6.461048962693066375e-03 -1.419866491499145516e-03 -2.203415449132853973e-03 3.285013793455602259e-03 9.242478646660197764e-03 -2.932583688948242964e-03 -2.373462712399025849e-03 5.132060584908434975e-03 4.279240501955655120e-03 -9.391573914993759861e-03 -9.178446746089346381e-03 2.102099451899109780e-02 9.944557045272008067e-03 5.009361172323195145e-03 1.075601291143777477e-02 -2.693124222714483873e-02 2.345116612353580123e-03 5.263040850294175427e-03 3.480511849408226416e-03 2.110066950918488421e-02 -1.461297933356332443e-02 -5.307737731731328179e-03 7.657872555398261699e-03 6.258788082822937249e-03 2.406576799627876181e-03 4.240270681519289764e-04 -2.614174389219428313e-03 6.903457057647538649e-03 -3.352969102355467333e-03 1.007081045268215166e-02 1.672813290256915716e-03 1.303187179458656711e-02 3.537353008067948678e-03 -7.631658019491672530e-03 6.223586459564086140e-03 -1.031720377274505072e-02 -2.799635390053241413e-03 9.617053221774484600e-03 -4.981650022637570431e-03 3.939215172039915551e-03 1.176837702366165112e-01 1.537322994011920338e-02 2.139805605733091642e-02 1.012557433623184969e-02 -9.832947888194967095e-04 -4.932812602999149705e-03 -7.068382002775947665e-03 8.184690835260993724e-03 6.561886109258160092e-03 -5.827791266298907973e-03 7.677108144385248745e-03 7.188302004694742571e-03 -2.095864322375860615e-03 -3.784059311497371941e-03 1.168135251476119796e-02 5.101307941530734691e-03 -1.823250308478155130e-03 -2.696857967070753759e-03 1.394082929061654305e-02 -1.088468796626561666e-02 4.936832616630232491e-03 2.840314597571570602e-04 -9.453007915163430530e-03 3.920914548824651694e-03 -5.142751205367675216e-03 -3.870141712670953729e-04 -5.205074161182134769e-04 1.855116571756325848e-03 8.399859842814369482e-03 2.170759616057926430e-03 1.078472059126169176e-02 -4.492515943506218343e-03 -8.437162121641498744e-03 1.405260456657569370e-03 -6.364956379573511250e-03 -2.798705748267207860e-01 8.190305352020902166e-03 -9.767209017607811697e-03 8.630201646517886641e-03 5.183509552299050450e-03 4.591974076959336876e-03 -3.310546108342731636e-03 1.342550909276828174e-03 9.960443746090591466e-03 -7.194002329015320482e-05 6.619002203613539789e-03 1.223215560772430326e-04 -5.492236534597444604e-03 -5.648820139770150892e-03 -6.708820987658350825e-03 4.361730176433145298e-03 1.774978825509800420e-02 -6.335611799216554589e-03 1.645061345900963000e-03 3.016813616530636573e-03 1.143266929684479995e-02 9.188004545003132517e-03 -2.046903535820129155e-02 3.838931358496373066e-03 5.298382027134181105e-03 -8.916269190439205308e-03 1.898331673153617200e-02 9.064530468989208042e-03 -3.823688612329427181e-03 -8.514448868328881870e-03 -4.893368607138830033e-03 -1.996484997528711475e-02 -1.315828423016900464e-02 -4.921587682863059338e-03 -9.010423983651939459e-03 -2.847299373914625314e-02 -4.170444207656268630e-03 5.787861978956909507e-03 1.682509913916496952e-03 4.208516229166830297e-03 -1.026231542384692342e-03 1.237845410205224046e-02 -4.486275408284256735e-03 -3.092318912830025694e-03 -9.809000391946915906e-03 -3.442026651590929590e-03 6.726295189713011984e-03 -3.082991385439055876e-02 3.147755252484913530e-03 -8.401996817276291898e-03 9.162111874612520121e-03 7.585687730443572627e-03 8.871188159687064256e-03 -2.111954729287620833e-02 -2.059190041417364135e-03 -2.568699227674602504e-03 8.952397352675724521e-03 -1.279049027221997731e-02 2.002546205717069955e-02 -1.180757081262187036e-01 1.111952915892018036e-02 -5.817891424763515541e-03 9.906726890671518123e-04 -4.287343672481781082e-04 1.523954996324020268e-02 -5.968827244625203240e-03 1.278331338344493827e-02 2.070922077946053472e-03 -1.669924485191766252e-03 9.300507720209896453e-03 2.223860245833783958e-02 9.408318997425398067e-03 9.013803509717241425e-03 -2.169654487510726260e-03 -1.854136362605455363e-02 -4.219596764533915280e-03 1.806092158961656799e-03 -5.705189310281096222e-03 5.975681335034303300e-03 -8.628795270092892364e-03 -3.505353396023140177e-03 -2.635033465552403219e-03 -1.226502573999626276e-02 3.966748323588537017e-03 5.144570110276270106e-03 -9.949068231745691361e-04 -8.846841501130412594e-03 9.189529246162122036e-03 4.809566034855580589e-03 3.355988642563608078e-03 7.353450699748743415e-03 -8.250283686903834776e-03 6.467642604741394123e-03 3.480501162992092473e-03 1.341679141453089134e-02 5.186406885835405638e-04 -2.895982994798789855e-03 -4.371923264468686315e-03 -3.123393782965073334e-03 5.175904775079374215e-03 7.988859257275719022e-03 -8.862022750824136586e-04 -9.033167271199535851e-04 3.864394314087879972e-05 -1.641114436599385926e-02 7.407134905245476783e-03 -8.065400578749279750e-03 -8.067280122246143353e-03 -6.932989792392488942e-03 5.163882060313535263e-03 6.173321879443306216e-03 6.603976511271113237e-03 8.130927946727119909e-03 7.312907963909458763e-03 9.896347956153916242e-03 2.259747431743247895e-02 -5.355131857351445868e-03 3.057454018931852861e-03 -3.489975135766822025e-03 8.051943437449792310e-03 9.848151260056385581e-03 3.977537669631437539e-02 6.342365922520963248e-03 7.898923709843739746e-03 -1.057447411326001979e-02 -2.809681932900174803e-02 3.601424275612961912e-03 6.374463607238143800e-03 2.588526261714417347e-03 1.080287225696945942e-02 3.049602001302918926e-03 2.854118254997623817e-03 7.562454967077923522e-03 3.329567219258348313e-03 4.773811203171456422e-03 9.261684772508506011e-03 -6.410433581680220587e-03 1.330050436180938225e-02 1.542347031564706740e-02 -5.845791852876264759e-03 -1.493170177892719740e-02 -6.100308545419238018e-03 5.289578815195362244e-03 -9.303035363853710479e-03 -1.557241160152061108e-03 -7.302522873994964276e-05 1.517353178430166580e-02 6.517934624397206216e-03 -1.879694541903537347e-03 -1.760939947025694230e-02 1.277888107087483786e-02 -9.395322390334268168e-04 -6.338986776488260855e-04 -1.314548830834437725e-03 1.340532632019098003e-02 1.588773309358606708e-02 1.065923952519428307e-02 -7.792674917737593687e-03 2.831514780083446009e-02 -7.532080654233362822e-03 -5.220285233921446305e-03 -2.176228347666225339e-03 3.432453338990580204e-03 1.061810833230806238e-02 -6.732272386020651724e-04 -2.233770685336033523e-03 -1.353833170412675540e-03 -5.636372838048782016e-03 4.424177673881307150e-03 -2.382775585383164856e-03 -8.141132820172003806e-03 3.128211328334480363e-03 -1.695786431451358489e-02 1.126159086216112562e-02 1.310074742469666959e-02 1.505404713596939122e-02 -8.841542906278749073e-03 -6.145428779444067971e-03 2.786432939478008120e-03 -1.601017953555534945e-02 7.172618494630740409e-03 -7.591293588124897566e-03 1.989884099951231416e-02 1.492442701012080706e-03 7.100135335139913691e-03 5.473654165378631468e-03 7.291300327332004075e-03 -4.894609843930673027e-03 1.430811684637871631e-02 -7.713215318163736504e-03 -2.362497217183102526e-03 -2.322274258922526254e-03 -1.929748251846678114e-02 -6.205878067333458863e-03 -2.038878462637849949e-03 -6.507725931956365173e-03 -2.171345702899625529e-02 1.201680250094640245e-02 -9.208308518126189640e-03 -1.761954751593737892e-02 4.397014983285798574e-03 -1.315455333451701764e-02 3.905452179923574966e-03 7.312999364858769648e-03 1.029277821223283790e-01 8.516195169772174459e-03 -1.896901092139680533e-03 1.564840472923332941e-03 5.040685474423699589e-03 5.593453468893117009e-03 1.049013438453160960e-02 9.621075633952664435e-03 2.107441529121332948e-03 3.188908425380190988e-03 -1.787272786324270576e-03 -7.299673567445548461e-03 3.148157944683619910e-03 -7.951336869873070964e-03 6.720454346981035755e-03 -3.287504256468587373e-03 -4.705987510371784782e-03 7.621714087062713729e-03 7.834405869990061777e-03 -1.436864065591375930e-02 -8.539800340142233992e-03 -8.174998070952220822e-03 6.251722780905972186e-03 -1.190289624581773384e-02 3.541819594938194066e-03 1.002154674636932842e-02 -2.273142925283349203e-03 2.037577916378492237e-03 3.682770804155689227e-03 -4.916309194760779336e-03 -1.238546887974754755e-02 -3.810152596958864095e-03 -4.488190383437964948e-03 -5.406383773902814077e-03 9.195868539631149932e-03 -9.721551853013613020e-03 7.422362907643561929e-03 -2.193902765307798215e-03 8.619663935198798241e-03 1.191844682709911236e-02 2.080151946295610583e-03 4.901426332467475168e-04 -1.162786620050879072e-02 -5.550708482758272277e-03 -6.916507072109777041e-03 -4.817579622687955671e-03 -9.725099052227147156e-03 1.147818148895489963e-02 -1.821035675336446849e-03 -1.447580041417731965e-02 8.290506665586306126e-03 -6.460280559557615189e-03 5.510097244316959283e-03 4.382199075728170296e-04 1.083020632393976758e-02 -5.978968732145694201e-03 2.507304130284922564e-02 -2.349886952724708142e-02 -5.195663510667000761e-04 -2.074006581299731207e-03 1.622020735270573218e-03 1.460912173100538045e-02 -3.714595720656081474e-03 9.724449705313756645e-03 4.719930715125008475e-03 1.508897380339184013e-04 -4.051228975646998555e-03 -1.887139748311697030e-03 2.040417264818377829e-03 4.109335409811911387e-03 6.096831780097693512e-03 5.348443808957950574e-03 -1.032383039217621944e-02 3.042343917370728297e-03 4.669248792232764608e-03 -1.362911880576945893e-02 3.357909351877718870e-03 -3.953731084511355638e-03 7.544761497660494934e-03 1.799321568337302821e-02 2.955263849864789849e-01 -1.673614083981478373e-02 6.156352202143800315e-03 1.014048384032925632e-02 9.901142072486879275e-03 -1.123782283321648340e-02 -4.566666429686954028e-03 -1.474002363223319255e-02 5.715542689980728473e-03 -4.644462685795283652e-03 4.166298729131840545e-03 7.742469053174204710e-03 -1.615568992021670491e-03 -3.354175970274668375e-03 5.983715310742741995e-03 3.886493008073234334e-03 1.109955123738302516e-03 -7.434625401107372404e-03 1.421957409413738974e-03 7.172359542586491041e-03 1.374089222287211203e-03 -1.333030979441815998e-02 3.920308102235366826e-03 2.189774247999800791e-02 -5.744253784859737477e-03 4.220624216942032991e-03 4.129161813288609317e-03 -1.469522445119438069e-03 1.912792357592585715e-03 9.020439690655728676e-03 -4.577387315164886845e-03 -1.258459314354814368e-02 -1.187489326266350474e-02 1.965652944494565048e-03 -1.166859446882621484e-02 -4.983178500158318841e-03 1.145705059153395537e-02 -1.147588070738339745e-02 8.517823534040161806e-03 4.849190357353556219e-03 1.375823955774740578e-03 1.428452948030725297e-02 7.920095731616293849e-03 7.063252778382597859e-03 -2.369420671541145728e-03 2.119435420712474649e-03 -1.067207296824823105e-02 -9.005986098750752913e-03 4.575888090639273174e-03 -7.828361140285873890e-03 -5.723139505077565192e-03 2.623896574594965919e-03 4.243318666102198836e-03 1.944665501052537503e-03 -7.823340895892910447e-04 -2.289973902218825699e-02 5.581867784994399249e-03 9.360336634671621164e-03 5.733384247445822736e-03 1.563950552650148970e-02 6.895792511722011534e-03 -5.146483134766241009e-03 -2.754152229835223065e-03 -6.974233646623767373e-03 -1.167432309847534497e-03 1.150562321077093671e-02 -3.552658321134148124e-03 5.511375871103585747e-03 -5.693870383620867892e-03 4.891326933629832827e-03 5.618352285069737849e-03 1.206234904342385304e-03 1.497540606271288016e-02 -1.563021974395349071e-03 -1.379355620013714059e-03 7.579121075796580245e-03 1.498343266472964945e-02 -2.096740575523644082e-02 1.404120793769927412e-03 3.556790466501697726e-03 -8.244638746359249024e-03 3.761713012316690932e-03 -9.067063476410229181e-03 1.093275257619568709e-02 4.773245804882100818e-03 6.721055712390794010e-03 -7.152511907673572006e-03 -4.871820795631439868e-03 -2.328514051297616444e-04 5.630265563289145979e-03 4.907867220028681908e-04 9.595219730650536918e-03 -1.643668918981189362e-03 -1.111988187316154944e-03 -7.607120282336877169e-03 -5.817568278329704294e-03 8.928500715222180764e-03 6.276866599944186213e-03 1.571812496492192707e-02 1.026450202051641111e-04 -7.980622331154091711e-03 -3.048362566978917582e-03 1.526610302370853128e-02 9.976235688753602726e-03 -4.980634231954226068e-03 -1.267165729056323126e-03 9.639587878017859615e-03 1.825658357900145686e-03 1.758674963552925297e-02 -1.152852367979506285e-02 6.621611198964491921e-03 -3.240284813435823866e-03 1.074124427437771027e-03 5.046641342255425537e-03 -7.155215647861421120e-03 -1.038939455019874739e-02 -9.342545370623001749e-03 -1.477272167339792374e-03 5.815725846641090456e-03 -1.856306029531568785e-02 5.188254589192402115e-03 9.692041847453267481e-03 1.551600112423012724e-03 -8.730143443106512524e-03 -9.086303542978637314e-04 -1.461674972961344611e-02 -3.309364582173048019e-03 1.389497383824151670e-03 -4.670962121405552135e-03 5.722018836719273450e-03 -3.254060494697024039e-04 2.438484671130580206e-01 1.961817608137003677e-03 4.269519801753838932e-03 9.033624068936103868e-03 7.683062691676673453e-03 -1.380492111498679043e-02 2.476163493360496962e-03 9.328218974089962437e-03 1.583378849834145416e-03 2.171360056565136906e-03 -1.979387728492416204e-02 1.293701844418206764e-03 -6.631279121774797183e-04 2.696343554083792220e-03 4.709642735646647760e-03 -3.744143981346169815e-03 -3.516683123698404433e-03 7.470055188951258904e-03 -4.673702854219461723e-03 -3.565304081417717662e-03 -4.304316645502713652e-03 5.739293592323982743e-03 -8.909294312987413658e-03 1.265901199380693037e-02 4.640167945798649198e-03 1.901071252149716742e-02 1.088946639584862514e-02 4.560354899936648718e-04 7.125541064450493546e-03 3.991552761715021561e-03 2.012789258220878605e-02 -7.915312406768305539e-03 -5.453469111824395081e-03 -1.236553075930696584e-02 -7.198541203047240621e-03 -5.232167643897268211e-03 6.535189352326897100e-03 6.960271609674551808e-03 8.594226790987655532e-03 2.046339233745717717e-02 -1.117960612233618450e-02 5.444237793288334536e-03 8.772673355181407652e-04 6.910284889866419311e-03 3.063763763945034566e-03 3.783081524794752997e-03 -6.511443668763461715e-03 -2.529106207335385936e-01 1.358966329191091740e-02 -1.602561857004726198e-01 2.291998221265893754e-01 -1.559476887312930861e-02 1.138066278692878401e-02 9.957743481339547884e-03 5.450049639756443520e-02 -4.734565263628884822e-03 1.534458776620933711e-02 1.155668186953673869e-02 -1.407366291897779384e-02 -8.821579613040617801e-03 4.502890015701067027e-03 1.367123708883334274e-02 2.998346537179534185e-03 -4.065438452569236638e-03 7.137329930321661270e-03 2.821359198664150081e-03 -1.613619106101756235e-03 5.007197957522014926e-04 1.546760278412807194e-02 -1.040153185756427685e-02 1.503636556409546597e-02 1.402843128340941145e-02 1.322985305968101162e-03 -3.630177052155454057e-03 -3.277014167813397938e-01 4.399881403157679567e-03 -1.752389456206025764e-02 -6.907657389139313861e-03 1.083207730245853984e-02 7.992322838073958810e-03 5.307935879550744473e-03 -2.740639656108133110e-03 -2.448765039908278388e-03 6.566891242697233885e-03 -2.139746189444169736e-02 -1.132503653933671431e-02 -8.369293660709405461e-03 -1.765094298235892964e-02 -2.603396064704606092e-02 4.076205249931040065e-05 1.215395565508249794e-02 7.389384302137157016e-03 1.039605255540626289e-03 3.622146924119940426e-03 -4.052992467949457014e-03 -4.798628515335994459e-03 1.245890310207027792e-02 -1.525462882932838602e-03 -2.843469222918439294e-03 4.999040682031954085e-03 6.101608535280597309e-03 -9.778193345952564466e-04 -1.169628311810562253e-02 5.639044257768920966e-03 -9.837228788777988009e-02 7.016570420420662445e-03 4.607096063058307468e-03 1.487524043730547793e-02 1.568787521145579775e-02 1.046669762943329592e-02 1.441554699740186206e-03 -7.998600492498121953e-03 1.192893307491788187e-02 4.166577258265706865e-03 -7.619632880026679447e-03 -1.943280763475191755e-02 8.294916761461098437e-03 3.830146225509565433e-03 -3.417492975994550642e-03 1.256024200142177340e-02 -4.532862321869211321e-03 -7.606153828133396973e-03
6.884846167539554300e-03 1.089073529511940669e-03 -1.217127696041592341e-03 2.497788815964295615e-03 3.666862998853531470e-03 1.058985301504759488e-02 6.266099939244989744e-03 2.955047594262969271e-03 1.329482621941055183e-03 -2.491375656219989906e-03 3.083393897351846286e-03 -5.667851096902555216e-03 -4.931071163517688517e-03 -1.500576325573054620e-03 1.948836978664788113e-03 -5.029504131784864884e-03 -4.089383602028508029e-03 -4.596962079050608517e-03 1.376240873612532287e-03 1.191478672633796256e-03 -7.633312662574425617e-03 -7.728391431872109509e-03 -1.201365638126484408e-03 5.393126752508910909e-03 3.807018331856163655e-04 -3.103864576504619232e-03 -1.076838847932205887e-03 -9.430841849868518145e-03 5.381158902043045112e-04 7.846792459478772741e-03 2.928026486175081770e-03 -1.199092554031468486e-02 2.823678935023607515e-04 5.851605462112286979e-03 -3.243677976172715943e-03 1.754478907083643078e-03 -4.288829636216453731e-03 5.055502060360626999e-03 3.633543071245051020e-03 4.790361698679346074e-03 -5.559848336278746216e-03 1.322772260025119155e-02 1.159698763750062131e-03 -2.762578222923046684e-03 -1.218048031408958121e-03 4.386226094898390538e-05 -3.578269900970354987e-03 -2.901160655042576021e-04 3.412775380059266880e-03 3.453054048100597396e-03 2.279169235945492037e-03 -2.219536071677978475e-03 5.044428934651403254e-03 -2.038783330857375960e-03 1.122465802184359962e-03 -1.806773082267251838e-03 7.139601834701872485e-03 -3.173080436007790200e-03 -4.588185931778519626e-03 1.360250380538318002e-03 6.682964580443878731e-04 2.776938142327558439e-04 -1.152372393567594779e-03 -8.041933857998733066e-04 2.374548395519009668e-03 1.631722155562683775e-03 2.287785783188851958e-03 2.456919089063655439e-03 1.903745541776327883e-03 -6.002251587351643131e-03 6.715916086185351117e-03 -8.862822555915331364e-04 -2.098781566957930340e-03 -3.922423745385582652e-03 -4.166021944803687330e-03 -1.493589725057780119e-03 1.031277848765308782e-04 3.975689653275668069e-03 2.063273528049313493e-03 -8.004960065926446100e-02 6.112658317413191197e-03 5.341170361868104177e-03 -6.650132841947193826e-03 2.137719538298553899e-03 1.139817110405877583e-03 5.127150856880190524e-03 1.939530533010052184e-03 4.412342923271707004e-03 9.142746597013041640e-03 2.245795154303540080e-03 8.172527604493629320e-05 -4.147126428266386007e-03 -2.461261828896230044e-03 1.515624884758416679e-04 -1.796983333846465525e-01 -3.053106513696717417e-03 2.843690640655864577e-03 -2.525292504600632707e-03 6.298231767829429867e-03 -8.101583860625042460e-03 -5.772769367464295615e-03 -1.141170272981755635e-03 5.735761150141122436e-03 -4.366789290453608474e-03 1.352569010166191970e-03 -3.742539551860069383e-03 -2.876806214161957680e-03 -1.197810684406790289e-02 2.485064848911035153e-03 7.802769747626651757e-03 8.705704965073744750e-04 7.130510983741434293e-03 -5.420092108071731737e-03 -6.455209103169299223e-04 2.872795326062823913e-03 6.911046744025852763e-03 3.318310134550207877e-03 1.626831116148842521e-03 5.489980692907961684e-04 1.722642397752841437e-03 -2.352380625540197168e-03 -2.065778203278158080e-03 1.299684940317918534e-03 -1.797506501240584071e-04 -3.663027185673430747e-03 3.823374637474159874e-03 8.476843621726409470e-03 -9.623228526594414939e-03 2.597439493768790610e-03 6.595307336707395378e-03 -1.128545210975103082e-02 -3.501398560458392119e-03 8.555698557436159767e-04 1.164567431507341176e-03 7.607607846831404867e-05 -5.654408825896436834e-04 2.739354441476613347e-03 8.257129864254347112e-03 7.176973337193008878e-04 -1.649078950384018230e-03 -9.407462728187928475e-04 9.378408831080025515e-03 5.140262592578845845e-04 -4.210315968030542075e-03 1.920932868215619168e-03 4.638833687096543049e-03 -2.105037171488500624e-03 -2.740385837762716100e-03 5.062878490514202212e-04 5.667949604115378633e-03 3.087790840293099838e-03 6.002535080165259012e-04 1.748490639145628680e-03 8.684888762918410070e-04 2.142630600099018623e-03 -1.011250542161732865e-02 1.089944347604986270e-02 5.968358462779529755e-04 -9.205158102630188813e-03 1.662718884439425438e-03 -1.509878825305702665e-04 4.514741776953294303e-03 3.140853230364808266e-03 -9.544878781442237003e-03 -5.687171594300465807e-04 3.953161761671242745e-03 -5.447913012363736311e-03 -6.195129191213566422e-03 1.267617900024832142e-02 1.811196508856999883e-03 -1.646070479151718821e-02 -8.876708981843516727e-03 -1.911259053551589166e-03 2.773512513212810036e-03 7.104794312868410646e-04 1.208134440611871585e-02 2.121340193363472140e-03 7.340698173989408486e-03 3.371116551596209203e-03 -2.122609399816963865e-02 -1.193361554457916807e-02 7.959800488993272471e-03 2.218922011357400605e-03 -1.148227725361932665e-04 -5.899891006517123636e-03 5.549520716570935895e-03 -6.775779443673257858e-03 -7.980020241039666520e-03 -1.539292830199854613e-02 8.592244145466693128e-03 -3.513767630718414667e-03 -5.410511921142051534e-04 3.355663047565810714e-03 4.186494309449022093e-04 1.446436583074734274e-03 -3.583929595649118591e-03 1.088833861040244648e-02 -5.349146796108494167e-03 -8.556389292643249225e-03 -6.248378785545385429e-03 3.965218396321770929e-03 3.590971577517713866e-03 1.990139366206270313e-03 -1.282766685146144751e-03 -7.817020731815662801e-03 6.900773448218660774e-03 -7.820656519007809435e-03 -2.298627705306076265e-03 -4.461520499308752399e-03 3.330862007211944013e-04 5.311600229579325691e-03 -8.832968512783879447e-04 -1.095314315945298406e-01 3.428334399965462663e-04 -5.897635340259448251e-03 1.850612040303338968e-03 9.681095933187215674e-03 -2.404555980282230016e-03 8.259952578037105253e-03 -8.677418331896984399e-04 1.592950008913757631e-03 4.799561425308298927e-03 -3.138750407321664292e-03 -1.144299701677800135e-04 -1.031694271923059951e-02 -5.706963518158263485e-03 1.279614939009426217e-02 2.991470008440764994e-03 1.987231165015634730e-03 7.173951390659369896e-03 -9.077369492851545228e-04 -7.206191998110437862e-03 2.570769507718699207e-03 -4.770776910704582069e-03 2.183663148494164631e-03 -1.608789985608676280e-03 -2.907580060666516944e-04 9.872910746771034265e-04 -9.325615108017788497e-04 -1.465369720740305548e-03 -2.306127765627851746e-03 1.565092842240760123e-03 -4.209686662705021745e-03 -4.607478934192991114e-03 -5.045776056273372110e-04 -4.280744376387306260e-03 9.029560648272788592e-03 -5.318967287702587587e-02 4.103074439859975440e-04 -9.489679156396457413e-03 -1.367179455812746755e-03 7.927639759248898774e-04 5.355142534723732542e-03 4.417574599462345064e-04 -3.448996402029375682e-03 -6.454049001404523964e-03 1.163745177817568713e-02 -7.180637359872793155e-03 5.608180781835639351e-04 3.242383580994286259e-03 -4.299123759962745692e-03 -9.089056003595036466e-04 -7.125929823553214804e-03 7.976810791906444043e-03 1.340328915681981417e-03 -2.360872175071107321e-03 2.474389865055486026e-03 -4.673941850784773394e-03 -1.184630610731945153e-03 1.086742248943932052e-02 -3.109160396271878728e-03 5.736271426262212411e-03 -2.434788480852860797e-03 1.111651245711138027e-03 -3.762618492483374086e-03 8.876784205135666026e-04 -2.008951674841353945e-03 2.019398756354409165e-03 -1.100759049413020316e-03 -2.969739273068478088e-04 -5.894790646167671032e-03 -3.535367252216745082e-03 -6.759367741948610342e-02 4.078903546186668852e-03 2.287765108659744594e-03 3.872667730450363600e-03 5.080350313211637152e-03 1.836746421324026335e-04 -4.838005058966324268e-03 -8.275682357605304226e-03 4.870018610329027164e-03 5.521356711996524939e-03 -8.291155901340018387e-04 6.552928714529706851e-04 2.691207054133791022e-04 -7.943169223060347894e-03 6.566627319869650092e-03 8.961808197011474769e-03 7.186529009069290118e-03 -5.793748751647277012e-04 -9.248722403644944745e-03 5.949932041350448030e-03 -5.582700351567594817e-04 -3.398922035596827537e-03 4.303430877370746817e-03 6.621514148697715818e-03 -7.995943178013683802e-03 5.760527302801911678e-03 7.534746241709142436e-03 1.159841741287015796e-02 3.863617129592779829e-04 9.772980019662235503e-04 3.273947161391896950e-03 3.468852721390438838e-03 2.792727072405973201e-03 3.127728526024445440e-04 1.386409889500923170e-02 2.299977008466525582e-03 -7.567867407818347492e-03 -8.677838114232644395e-03 6.405792644985101349e-03 -4.032913794553318054e-03 7.031240624027648364e-03 -1.175206350081050557e-03 -3.596637829269794945e-03 2.759840441870886618e-03 2.917715157112229889e-03 1.046102742840089063e-02 -6.071696340636331332e-03 3.509541103183352623e-03 -3.123693286484180865e-03 -5.410860733531971251e-03 5.084684432944361907e-04 2.038720971582082524e-03 1.126602915507046460e-03 -6.704363443869555336e-03 -1.017771759997158389e-02 4.658582501380578202e-03 5.576666748196953266e-03 3.325557377527218941e-03 1.068570279571793256e-03 -3.765243613488949460e-03 6.738302396139699869e-03 -1.624791918887507096e-03 1.715183830016413409e-04 -7.940660112173517646e-04 7.502759380909591533e-03 1.998598145952588262e-04 -2.178677029019245731e-03 1.532227423672624699e-03 -2.644106239209674330e-04 2.166426870503971799e-03 -8.888108081937447528e-04 4.540989707388740949e-03 -4.492598399636914264e-03 -1.608183306690207093e-02 1.100445763330294702e-02 2.766081250263472367e-03 -1.631383450547612595e-03 -2.451951595286651093e-03 1.280353923469969681e-03 4.916060766872416138e-03 3.264371883626139993e-03 -2.984633331588826700e-03 9.580816605317061044e-03 -1.085325787755679790e-02 1.662356918697942135e-04 -6.985107828101583781e-03 6.646503738594515542e-02 -8.295583267033668218e-03 3.088831614942090086e-03 -3.685557911841363162e-03 -9.016610107058924128e-02 6.008883165733131665e-03 3.522934664978714589e-03 -4.167635286850935629e-03 -8.455388418142412502e-03 4.869425174669862050e-03 2.715762267422727663e-03 -2.439316895302262415e-03 4.744917736357328816e-03 -9.840395525441985106e-03 -5.332393416497834644e-04 5.547858073447733268e-03 -1.401281337343622969e-03 1.597056791160722175e-02 8.651175461562283717e-03 -6.950333901358193324e-03 -1.083524798528184147e-02 -1.409901785434414852e-03 1.602281692255180150e-03 2.651794717647518087e-03 -5.445133138554670779e-03 -5.106806246516310162e-03 -3.216714229981390560e-03 9.915941162407578002e-03 -5.339831883700795444e-03 2.079641956475407252e-03 1.178737441777271463e-03 -3.665570774615960724e-03 -6.185840438332774333e-03 1.082066470979518207e-03 5.912947363357582732e-03 7.730455151547342175e-03 3.649937138034040594e-03 8.950291460510738026e-03 -6.206183800459094560e-05 -4.978075456998516495e-03 7.530991468099429128e-04 -2.923620378168317012e-03 9.796416432157580619e-04 -1.270921688839772405e-02 1.555151016627486227e-01 1.605566083801821062e-03 5.711714239910181679e-04 4.833649093236013286e-03 -3.992020615172901972e-03 -3.988436734349746528e-03 3.074363259098830594e-03 -8.757639112971917633e-03 -3.659397645707145410e-04 1.038131718755886919e-03 2.551197815581545715e-03 6.894842033568242788e-03 1.615162139766744629e-04 -9.910715645288487963e-05 -9.053790352574347250e-03 1.345502852419844285e-03 3.046593641896225627e-03 -1.143363009527363595e-03 1.902144954398498483e-02 3.861986207550491094e-03 -1.470643148112335541e-03 3.727565274147353214e-03 -1.430701610667640305e-03 2.320957942820363676e-03 -8.811504250243970028e-04 -1.419961932847130020e-03 -7.561911414317903056e-03 -2.320474965919354805e-03 3.859769926561064726e-03 -2.812724919021660809e-03 -9.782185348143436487e-03 -6.089056411096133506e-03 4.282417490592069741e-03 1.114128284291835726e-02 1.028148465953368767e-03 -1.693082399778804512e-03 -5.591567508679707275e-03 5.376495415921858818e-04 -2.262631459209670046e-03 -2.749654583960817189e-02 7.411307242310568102e-03 2.207552994209254198e-03 -6.033240139032844743e-03 -1.441964951917517257e-03 6.917333939395936375e-03 -5.575429384796578083e-03 1.156415788090638585e-03 6.883791588798205720e-04 3.334241602702304238e-03 -5.812356359333970207e-04 1.361910851598073990e-03 5.429868128636635219e-03 8.253189837476611682e-03 -3.470503584587645868e-03 -2.837578701887861089e-03 -4.816895793775278871e-03 -1.221630507096751680e-02 -2.821039483841224042e-03 3.672337843076068937e-03 5.047720300446687826e-03 1.619238450577825759e-03 1.202634721994885574e-02 -5.617487837189739409e-03 1.279300136700122111e-02 2.382903950977564508e-03 -4.330152020404163041e-03 6.483761467789122754e-03 -5.630012279800249153e-03 8.839809319340237968e-04 8.677728726833146625e-03 2.739860697890776197e-03 3.760505202199971968e-03 3.240885992925536269e-03 -1.214318131170692401e-03 -7.865135921456756912e-03 1.618832370516990252e-05 -2.772155579657932870e-03 2.478517528122605503e-03 6.003093703569785042e-03 -2.350142772609964230e-03 3.672928253465974988e-03 6.727135248139911802e-03 -4.311527901937889720e-03 1.124607749476368330e-02 1.120719562287800404e-02 -4.364431808419489550e-04 7.250624562831125240e-03 -1.991103998517586900e-03 -7.172440943738365646e-03 1.246138170703283213e-02 8.440116911289760777e-04 3.268578083991979886e-03 2.001755036675906697e-03 5.069456758903077842e-02 -8.611813495420799283e-03 -1.318497340260353385e-03 -6.019978214123518009e-03 3.747986965088437577e-03 -3.785122111506516616e-04 9.233019952814239695e-04 -1.779873569644980016e-03 4.665002860736605812e-03 3.012236866336624568e-03 6.895641630177283717e-03 -2.927851091549356615e-03 4.644836008952401597e-03 6.157552654690269175e-03 1.096940912256072660e-02 -4.960527544986908198e-03 1.813074927004444583e-03 1.500679328706938480e-02 -2.697228580154092600e-03 3.005161168561058457e-03 9.460881259004405575e-03 -1.311424155036825835e-02 1.138917110136863095e-03 1.134948486369810518e-03 -1.236554600924861472e-03 -4.383094891497621957e-03 3.724711673645652588e-01 4.511698196486971409e-03 1.663183500998149152e-03 2.431673134428806167e-04 9.909951831715479650e-03 2.720265269787613179e-03 -1.218082071471594981e-02 -1.492739292429488048e-03 -9.551325202697998409e-03 4.969366684800347956e-04 1.188290598868135470e-03 -2.829816498442893485e-03 -3.394108748120193680e-03 1.067845329876861279e-03 5.741911391244022139e-03 -5.769865623878456381e-04 -4.755888070959641591e-04 1.412656342706775786e-02 3.049082886336510530e-03 2.321493237776018920e-03 -6.441785108302408060e-03 2.826012537797325044e-03 4.459566283687570491e-04 4.406288001134793606e-04 2.263300029502258483e-03 -2.969640436273979570e-03 2.062401257136327153e-03 -7.540527442070369020e-03 -1.786956841647456074e-03 -8.797673129206687662e-03 4.294062329691170597e-03 -6.788661631127848421e-03 1.821670894489863641e-04 3.494254902747415039e-03 -4.570319293336636002e-03 3.302570052722672914e-03 -1.249446172941900144e-03 2.390654391458762844e-03 -1.874289681010678091e-03 -7.851776172245639174e-03 -1.990172238970768209e-03 3.561728753536559655e-03 -3.969767189751725531e-03 1.577385734703790066e-02 3.239160878195932250e-03 -2.348837225020260992e-03 4.028582148164949230e-03 -1.643728050447438097e-02 1.159594792586119902e-03 -2.567174864484515089e-05 4.172499676348070084e-03 1.342914799900835629e-03 -4.487038886285667303e-04 5.906932987598880217e-04 -8.956395314996765675e-04 -3.365413984939625777e-03 2.471996017109129393e-03 3.924822602132673269e-03 3.288378893197357444e-03 -7.035624744603027544e-03 3.872257976650211701e-03 6.454223792219234042e-03 6.452748937639743096e-03 5.954486784281428149e-03 -2.925759962325904726e-03 -1.819668757096590478e-03 6.004965316139499257e-03 -2.759661994532748314e-03 3.208645370662552287e-03 -2.324064991769252912e-03 -2.325015044580486159e-03 1.984744515007609567e-03 -2.675386642558710750e-03 2.287647091572761384e-03 -1.570854910621942869e-03 7.746519653364373342e-03 1.239613890178769065e-02 1.892356084935810433e-04 7.026692801894543787e-04 -3.496969787607534692e-03 -3.747718341260579400e-03 -1.263320636696201472e-03 4.725567816355496185e-03 -2.638869056664231751e-03 -1.515294600168548252e-03 1.467636078087331984e-04 -4.361451172381242657e-03 -7.295981545781522401e-03 3.278153783529226539e-03 -3.727782120396633866e-03 -3.082354269427151853e-03 -3.881436733393845481e-03 5.941143494955091961e-03 4.121667469417795299e-03 4.296333724547543760e-03 2.469844943727808693e-03 -4.220348208448000682e-03 -2.845178670213276226e-03 1.250504480515905650e-03 1.201418104304625371e-03 1.333109490495368787e-03 4.245450832332574830e-03 7.244937209735505777e-03 -2.384474841160401457e-03 5.131601835375512862e-04 -9.791356047134810135e-04 5.437539779320825451e-04 3.409917142778925558e-03 -2.902964386445374897e-03 9.277692340257760045e-03 1.058571234677634868e-03 -6.108674230819337303e-03 3.501883921638831564e-03 4.987073793903695242e-03 -1.177791878654051074e-03 -9.458905468381295645e-03 -6.694657411179304705e-03 -7.212099461714822218e-03 7.063203513567271712e-03 -9.663477836303934268e-03 8.034561358299193226e-03 9.469222045604403296e-03 2.081518588949028952e-03 -3.762250288774680353e-03 7.711058547901785375e-03 -8.116903883220566961e-04 4.514950301578659828e-03 -5.425009851862700773e-03 2.166450577547939915e-03 -2.778634261615537922e-04 -2.487262894893137524e-03 -8.006039362641098611e-02 1.193831648074949320e-02 -6.768489154498418328e-03 2.142631193293817460e-03 8.261745947309027038e-05 -7.106209818469553033e-03 7.450486958542635110e-03 2.073589663779559777e-03 -6.816380209449073024e-03 3.049130830175581213e-03 -5.858788545090909232e-03 5.788597845471309643e-03 6.240871874590042147e-03 -5.832848597803900852e-03 9.780028628154545378e-03 -1.007113742074333858e-03 -1.797137357752991811e-03 -7.977363095703380452e-03 -2.416831539303498921e-03 -1.251301152301227421e-03 -2.591848712612097698e-03 1.009408383754797911e-02 -5.467900738409605527e-03 7.406474002639279117e-03 1.634256074696933047e-03 2.430380203447890693e-03 -1.212878494911125019e-03 -6.423505864390073768e-03 1.362682593862787547e-03 8.772351516114723288e-03 -1.824686036987357898e-03 1.153093352942574472e-03 3.249383396280162116e-03 -6.016051483466909426e-03 -8.704809724146101574e-03 3.023770922004587539e-03 2.107718050627213971e-03 -1.108609084206609767e-03 4.760212228361165691e-03 1.579871884719629208e-02 -1.024579123030349001e-03 -1.711167422116170777e-03 7.020510421225054608e-03 1.160437416066658484e-02 2.195253638078207767e-03 7.951910784620333517e-03 3.740686382947453707e-03 1.185363760348464093e-02 2.454977254178576304e-03 -3.442170487928660760e-01 2.019762661920778968e-01 6.699172602453252849e-03 -1.078997644532081294e-02 -4.797852585555217181e-03 1.574825989686147176e-01 2.679911062092007416e-03 -3.945401610901919619e-03 -3.701948825266059093e-03 -1.195270600121249149e-03 -9.034613054555690193e-03 -4.252979478464802114e-03 6.599290259703652524e-04 1.496810493588828991e-02 7.102195750414361242e-04 6.018843286240352884e-03 -1.323399912390006705e-02 -6.182703718747054392e-03 4.439676228325221616e-03 2.768354490213217455e-03 -5.249400561241707175e-03 7.004616108273417109e-03 9.453515933267429491e-03 7.343125965563610446e-04 -3.114068484434434625e-03 -5.210025212161428776e-02 9.835619109615377845e-03 -1.646895509312491703e-03 -6.148643536286683975e-03 -4.091701051294346317e-05 1.061111462327640233e-02 -8.483540272597120142e-04 7.883527842045479767e-03 -8.958481136607479578e-03 2.468681640348533660e-03 -2.177444516735660505e-03 5.606862777285557750e-03 -4.349136862925889573e-03 1.118513851787710043e-03 4.405089466236001249e-03 1.173978248574168888e-02 -4.015693719701057297e-03 1.039977535809731091e-03 -3.215400087087147158e-03 -6.190428977288678358e-03 -5.137165211924372976e-03 -1.630004529627311844e-03 1.966295154395027427e-03 2.200357736980535633e-03 1.234230606529222035e-02 -4.108668658763631534e-03 1.207901755302046021e-02 -3.941961136786996563e-03 -9.442304749417834969e-05 -2.459078864605792735e-03 -2.209904713794498821e-01 1.311751084078207827e-03 5.984786809302411730e-04 1.053125695333478537e-03 3.077120664449172795e-03 6.688517677477883415e-03 -5.512793841343394466e-03 -3.628826995492619254e-03 -2.798374166513851059e-03 7.485769132472778597e-04 2.014436513817446147e-03 9.342855319823916219e-03 -7.693637985212978606e-03 -4.142795721696263846e-03 -8.311583464323060028e-03 5.086315288641110252e-03 3.148753266579353439e-03 -5.017087257235257770e-04
-2.675210530266759409e-02 5.765209319882012677e-03 -7.551578154360218120e-02 -4.699377367974171341e-03 -1.473243955058428471e-02 -3.123958070607530876e-02 -3.266696860309596662e-02 3.241609012219344443e-02 5.930329910859329784e-02 2.047940447748957185e-02 -3.013881244054908773e-02 7.372861520032240878e-03 2.005043028972212926e-02 -9.268805417865982887e-02 -7.045366763775334773e-02 5.558955159689089182e-02 -8.550105023978536722e-02 -4.919936032308516033e-02 1.944792246993634968e-02 4.438797645510275669e-02 -1.655711810372453296e-01 2.680114714756568969e-02 -5.174694190383211795e-02 3.963807479521914978e-02 -3.134133016102757380e-02 -4.256702178755656513e-02 -2.999456514798961096e-02 9.911698466873513844e-03 4.880021386134532346e-02 -4.396474520202229425e-02 6.943722094307138749e-03 -2.374929624416043800e-02 1.779529945536049984e-02 -3.305874958519330192e-02 -2.655045723527635348e-02 8.537708327868123726e-02 3.384847287965549872e-02 6.041874187971875421e-02 -5.761720187745435900e-02 -8.764287285260963234e-03 -2.050822440149547427e-02 3.709568460852443600e-02 8.046371209176547690e-02 4.219803516232099871e-02 -8.393283105375576314e-02 -2.786520460410179742e-02 -7.356299944387197955e-03 -1.180176905155031798e-02 2.934482504773873717e-03 3.569992536588526694e-02 -1.897010693170136583e-02 1.379514225663128549e-02 5.277547608971584585e-03 2.508152111038028029e-02 9.745339506208146318e-02 -1.272797379236906626e-02 1.054389640909285907e-03 4.208715488496718449e-02 -3.177688501155146589e-02 5.562108117069795854e-02 -2.537513491021650691e-02 3.102393534378857995e-02 4.533816624577471227e-02 -3.109104720888506215e-02 -7.307462538638381973e-03 2.482397254068678324e-02 1.148818687014510204e-01 -1.431056728698725522e-01 -2.599504974456109951e-02 -4.676191492827952434e-02 -4.075002525984990076e-02 1.075532777610385855e-02 5.041925219060457153e-02 -6.558666378186552709e-03 6.286694275970299006e-02 1.897293988548710147e-02 -3.211872199835892616e-02 2.164812572014656461e-02 -3.207134063607339214e-02 1.230281716547603627e-02 2.431355273231902009e-02 8.912001640357318510e-02 4.587409279408159041e-02 -7.826552540457891449e-02 3.852754200907727855e-02 3.738833113398756097e-02 1.065821353520225029e-01 3.586792354570615682e-02 -5.412531598332611521e-02 3.420305487614237056e-02 5.375668613827437603e-02 2.467144728893577027e-02 -7.241542901021627565e-02 -1.361535462579412381e-01 6.965733903504213453e-02 -5.635105191816906778e-02 -6.107327114869034318e-02 6.309463995376671241e-02 -6.002171916375468458e-02 5.183530759999255277e-02 2.835270267595429994e-02 4.444491974557390757e-02 -3.633974360019243816e-02 -3.345145863956349493e-03 1.062621687852196295e-01 4.192726173655836330e-02 -3.659146623343209614e-02 -7.779062029259818656e-02 -3.866115038218787686e-02 3.140173325377228902e-02 -9.792326379476396989e-03 2.213611441382727987e-02 6.658460083926290990e-03 3.685512994201291248e-02 3.299609668542042434e-02 -1.656006629222536025e-02 6.717130941717887327e-02 -6.121240633784035684e-02 -6.500940676184413340e-03 -2.791309062186117518e-02 9.744100467816936562e-03 -4.899286621276519038e-02 5.030270995868526412e-02 2.480390801587638999e-02 8.764135733046764243e-02 3.150871613255071257e-02 1.297657714573892569e-02 -7.544981900560189525e-02 8.566696177686049241e-02 -6.868349712870437662e-02 -8.949715589344073990e-03 2.358104036549583254e-02 -3.200234983064639827e-02 1.868831307059665159e-02 3.418667008495498982e-02 -8.482477816244021751e-02 8.264099396321492041e-02 4.325654883335693091e-02 1.417657371676048217e-01 8.940118562168013205e-02 -4.906263308890023572e-02 -8.323125592268471040e-02 -9.443647216669487365e-02 -2.216251716747820802e-02 5.866478658210072528e-02 6.595063992906689820e-02 -4.095956981917611012e-02 -8.548560550474700037e-02 -5.330774462449226411e-03 -1.462920871174561675e-02 -4.350022951978945590e-02 -2.653443885761785220e-02 4.941940602165811186e-02 -4.853169900622965154e-03 -6.292294467211778652e-02 1.621161648904141314e-02 8.464184711008426731e-02 5.266435956076966768e-02 8.182101885755443818e-04 -4.724761890757262633e-02 2.570346065680068418e-02 -1.385391247331294387e-02 -9.764279738718040572e-03 4.119362702257112208e-02 -4.047514878626511797e-02 9.151311445890942739e-03 -1.061447092011977809e-02 -3.007782340504780785e-02 5.345613891687740760e-02 3.654648628922124026e-02 7.310327026477549117e-02 7.965631254640519188e-02 5.133090798372913488e-02 -8.986222925332747191e-02 -4.788507427347691442e-02 6.330435908409418055e-02 6.627481492922365769e-02 2.087473454638506809e-02 9.607923669924696430e-02 6.420283102049880418e-03 -8.506016437673466490e-02 4.042582718734581693e-03 -1.435239740097489156e-02 -6.253751717808276895e-04 -3.115930145999504935e-02 2.556104283590459117e-02 -6.107304206729224222e-02 -1.695203989365788935e-02 1.169306997686269944e-01 -3.924099103166938871e-03 4.802320182232086565e-02 -5.637728032060401739e-02 -2.185371628297992294e-02 -3.942754660852652859e-02 8.869266460587084747e-03 8.471688632738482924e-03 7.191614437165730345e-02 -7.630232434093377376e-03 9.462530649119239509e-03 9.564285527418033006e-02 -5.234215496671107415e-02 -2.490711313814612457e-02 2.517033359356186592e-02 4.137131187607306221e-02 -6.155762298626550610e-02 7.408068137031039585e-03 -1.232402035446626166e-02 7.273327898663481395e-02 -3.009634453668412479e-02 -1.012133709348166655e-01 3.647976825252250473e-03 4.196086384735116248e-02 4.506232631472990857e-02 -8.723668795527400599e-02 3.870812928353315613e-03 -1.029342709119459714e-01 -4.608877980133211510e-02 -1.244865088521587282e-01 7.141774778332415918e-02 -3.677352213246821988e-02 -6.113842472759226099e-02 -3.407106597250000174e-02 7.288805118054314525e-02 8.485906133781376259e-02 7.322224162454402108e-02 5.028755658491401020e-02 -1.389046831675032562e-03 5.309440188027532426e-02 3.362871072268090733e-02 1.767466229851555326e-02 3.906746058624195606e-02 5.580568423423350362e-03 -1.029132463846018503e-02 -8.160799113712900038e-03 1.772504706323956708e-02 1.342917630508879967e-01 -2.905970550769889846e-02 6.305990278625235590e-02 -2.418404669877686347e-02 -4.692986421839299982e-02 -1.040389769658642445e-03 -1.588397695456367220e-02 7.898882846044702477e-02 -1.642606849284120258e-03 1.490226951314931048e-01 -1.600341150144783675e-02 2.876511698799196631e-02 2.790917679925221384e-02 -1.201639697860672901e-01 8.716402470620140952e-02 3.600636071231684554e-02 1.039281679135206221e-01 -2.036555033896911542e-03 2.945153791504065421e-02 -7.957283363352279926e-02 6.668207579567789201e-02 -1.722555717242619383e-02 1.760122530028595741e-02 -3.220917162506934522e-02 -7.585060762117379340e-02 -6.268070653892152122e-02 5.991867447479117675e-02 -4.487650598411972030e-02 -3.939892175599703228e-02 1.236547773345665234e-03 -4.064773109952121016e-02 -2.019083396728113544e-02 -4.045107203954153435e-02 -3.903582380487437969e-02 1.341487877877892421e-01 3.894996222502786903e-02 -1.215738633444768402e-02 -3.932507750013593956e-02 -4.925882775150451642e-02 3.730433820766690389e-02 -6.592427604249002926e-02 1.824727675135144264e-02 1.990484097005567818e-02 4.987763850666187410e-02 6.155872950950420225e-02 4.929164535237099418e-04 5.852214045801912290e-02 5.271833944311152265e-02 -6.382568820512871111e-02 -5.721304988154541499e-02 7.554181657079385437e-02 -7.847918375749197983e-02 1.013912582809367441e-01 3.469865272293039954e-02 -1.173479650534949362e-02 -1.891111373809751736e-02 2.119537574530255125e-02 -4.329819966802958553e-02 6.806015088899274555e-04 1.733133671893033467e-02 -6.073649958528073989e-02 3.754703391323115785e-02 -2.357327136098893300e-02 1.783032315057499553e-02 -1.593512868310813513e-01 -9.890430284698258079e-02 9.761764982299724058e-02 5.108324581209201104e-02 8.506292406240151260e-02 -1.614825798038479338e-02 5.765821037612161443e-02 -1.449993998901049144e-02 2.800413146803197931e-02 4.642585845620149365e-02 2.702650833679515197e-02 -4.760192606899897594e-02 3.890500228106907182e-02 6.371869017125450507e-02 1.310043602546731058e-02 -3.124406711984713605e-02 6.528205500555228635e-02 -1.399749577378432142e-01 1.092229805819015520e-01 -4.685237940245864235e-02 4.449239219186296862e-02 3.115054320951801334e-02 4.526455121036774762e-03 2.057067338971801593e-02 -6.061342503054813896e-02 9.938686047494238451e-02 1.967601470429426042e-02 1.152736259241758238e-01 3.866166260879082966e-02 -3.933461841831494693e-02 -1.136927445678056064e-01 3.729086894597952867e-02 -6.214803530108132384e-02 -7.516081668594219722e-02 4.427371867065232197e-02 -1.238481595689184742e-02 -1.428693907902918100e-02 -4.723280026778343271e-02 -6.592838548859189518e-02 -3.848177660724001487e-03 1.058461715282817128e-01 6.022305113959505740e-02 2.951730640708260037e-02 1.743918491565058524e-03 1.066711800268243734e-02 -3.651793634387647675e-02 -2.683245988967447940e-02 -5.720648376312548189e-02 -5.731761710504280211e-02 -1.878148379173821521e-03 1.621294930943049332e-03 8.932376270477581856e-03 -1.063104498935042858e-01 -2.785893060935547630e-02 -5.247851241059266897e-02 -6.067738581162679390e-02 2.248129907240297709e-01 1.234921780528997620e-02 1.607249096688190704e-03 -1.112748060071614142e-01 -4.810432058486786844e-02 4.168631602960545107e-03 -1.930968556836962224e-02 1.039628649880645211e-01 -6.816891652866260976e-02 -3.994978437856359921e-02 -8.151628943365475666e-02 -5.858669011064972232e-03 -6.443794659475926556e-02 6.705533579014785750e-02 9.714540264922735813e-02 3.529248375006311181e-03 6.330308229815587162e-02 2.414068572404232810e-02 -1.517734880265319067e-02 -3.866816631359162870e-02 -5.016200115760218597e-02 9.589714467460186409e-02 3.636816086241005663e-02 -2.512296093022891794e-02 4.070194994018559373e-03 3.448525876672286355e-02 2.758203721247448961e-02 6.403580035628493594e-02 2.188670727171051350e-02 -6.891080731334403575e-02 -4.602427565807667986e-02 -1.523593029336640405e-02 8.260429251403286766e-02 -3.023591210512420469e-02 -1.640983868918671762e-02 1.007091308986875766e-01 -9.185422369396312181e-02 -3.227255782413982615e-02 -1.142638727392942220e-02 3.083683603280197583e-02 -8.474470222006413866e-02 1.355936493337692172e-02 1.077236858990542924e-02 -1.238520121147584224e-01 1.258393616241826607e-01 -8.120768135670884680e-02 -1.064969157028180097e-01 -6.930761289136257164e-03 -3.041509582745102747e-02 -9.082118023201307330e-03 2.720222521039064589e-02 7.473677142472165413e-02 -1.681585477142828189e-01 2.224996295490391449e-02 -3.133461162929138816e-02 1.072803479312875730e-01 -5.134207877621566746e-02 1.865746028540891943e-01 -3.328088857983621529e-02 -1.494944119185074791e-02 2.185418745219871658e-02 -1.408883185390834942e-03 -8.838986480642840871e-02 2.598110210331890102e-02 1.299143324923044546e-02 -2.665566631672190712e-02 2.446814971874224608e-03 6.886876547371902080e-02 -2.361250979716325495e-03 -2.250676485241963690e-02 -1.796249224770500932e-02 -1.617678269541048264e-01 5.328130829253917983e-02 4.503615001035703863e-02 -9.420329850409819850e-02 -2.921830990344446467e-03 -3.894062073224884013e-02 1.458541845344013370e-02 6.382621291907791816e-02 -6.385785828684991229e-04 -6.077966017690952100e-02 1.657595615415935865e-03 -3.844396342115211085e-02 -7.050354004583785084e-02 -7.439803658354234885e-03 6.837499836900261252e-02 -8.359689792652471446e-03 -5.753417647543039581e-02 -1.990216282393375211e-02 2.334814876922669535e-02 7.537491857533991368e-02 -5.542033041110800556e-02 2.702427644223022452e-02 7.165729889951663600e-02 4.265717368853875341e-02 -6.464132324053036005e-02 -1.745578191751258551e-03 -3.379294061832246315e-02 -6.913840516377078860e-02 4.718748318883542008e-03 3.330052452755672548e-02 6.482050775186837949e-03 -8.173015129395848691e-03 -6.231501000394893287e-04 -3.909717820948390571e-02 5.843087141186231043e-02 -2.019843167888880561e-02 -9.375485563468682892e-02 -8.617335940166268027e-02 6.014405946230947514e-02 2.459160874408520756e-02 5.215277056835459016e-03 1.109003870097844263e-01 9.156812373412867578e-02 -4.113013426120210730e-02 -1.036157579702066400e-01 -3.684925123153131449e-02 -8.936273345786470423e-02 -6.838404129413022670e-02 2.947120852218308024e-02 2.279568254248307002e-02 3.726273645916323984e-02 -6.903077651483999211e-02 -6.076418237244061299e-02 -1.016517951820555543e-01 -2.968222746301544049e-02 -3.708623835643803934e-02 -5.372958711889893463e-02 5.724555764180949691e-02 1.493766983813493536e-02 3.004333792019113145e-02 -9.113263156955504762e-02 -3.591681499084179580e-03 -2.368191242626129303e-02 8.880335910763242913e-02 1.235170791091457594e-03 -3.624613101864213038e-02 1.437761875909249754e-01 1.914347736074261189e-02 -4.125191656808820106e-02 -5.925363503147827726e-02 2.835705593488017841e-03 -3.403016472490136279e-02 5.154048850426764389e-02 2.398304729195758003e-02 9.084446454706746055e-02 -1.634867904049881531e-03 1.270590411882544235e-01 -4.473287409075766413e-02 4.419157438241297364e-03 -2.512288208020650726e-02 -2.775193488974890543e-03 -3.355544792392019249e-02 -4.940554213326921185e-02 -5.205369362596763694e-02 -4.092328870744382785e-02 -6.661648555382912451e-02 6.125076728284527955e-02 -9.700897796714527677e-03 8.235571753083020807e-02 -2.954629113588069442e-02 4.310801937449025567e-02 5.479393841314383895e-02 7.226526542999654745e-02 4.636696174754210975e-02 -5.175882652571490300e-02 -5.949183826428330185e-02 -3.545819896027033874e-02 1.645331885015141604e-02 7.294069307755463027e-02 -6.964101707611254632e-02 3.545640137943316395e-02 -9.786625185634621749e-02 7.676944019010702169e-02 -2.814881230256356670e-02 -6.624841002990607131e-02 1.421001710604630486e-01 9.680089291721066802e-02 -4.050188536888618684e-02 2.943468867125596106e-02 -3.799904377226916846e-02 -8.084550372262547246e-02 -2.685251587017943586e-02 7.021669046653941475e-03 -1.901073699078898935e-02 5.405320445937293605e-02 -1.264416384087244799e-02 -9.768827793568300721e-02 4.123555849956700436e-02 -6.604715117205514630e-02 -8.604260960202591776e-03 -4.694174428818431721e-02 -8.790018056928131096e-02 4.251807619358930618e-02 -1.132958916088726634e-02 4.084215420444285705e-02 -7.032095976135316340e-02 6.063878599941664033e-03 -3.496185772467723385e-02 3.346159835759669743e-02 4.121554301921247915e-02 3.754921595307918886e-02 -4.058710624232492181e-03 -3.776031866834449885e-02 -3.267270606599016747e-02 -1.899535341395565749e-02 -8.449103590417267329e-02 -5.153364823694677604e-02 -5.330566711018989989e-02 3.318897815722431349e-03 4.896315729698157843e-03 -5.109213805879307549e-04 6.168389515925846306e-02 4.096781330838260987e-02 9.947005548880809289e-02 3.326992711897654859e-02 -1.035570443651111228e-01 2.743348193254018658e-02 8.891449166464694687e-02 -8.581027276673612592e-03 -4.579995102959136949e-02 1.103823656154807598e-01 -1.234732518541489243e-01 5.387961291133157651e-03 9.509472994116791034e-02 1.850197970832540006e-02 -1.364802091055959121e-01 2.777190538533453809e-02 -1.072636417221813597e-02 1.004712400507890568e-01 -8.853708137495752695e-02 3.369673772389644023e-02 -8.989495582956341657e-02 1.322762597501676287e-04 -5.081407813726696726e-03 5.947794891514315667e-03 5.939705550739670520e-02 -7.672367491432127880e-03 -4.193947134741784349e-02 1.787116798160435366e-02 -2.183647417961350271e-02 -3.304897325869889796e-02 -2.320204724333055357e-02 1.968106326527104682e-02 -1.887964640977771863e-02 -1.052380592370797813e-01 7.316949153390570060e-02 1.955305187893968677e-02 -6.504386408513945783e-02 5.719085522140432420e-02 1.033560272352129494e-01 -7.764292954825191551e-02 6.050259691036691256e-02 3.489421541277673566e-02 -6.319456339047473115e-02 2.458427136231009641e-02 -4.255036485484637448e-02 2.596284242605962841e-02 -1.285743482383566033e-02 -1.564508407089751016e-02 -2.043272247336550343e-02 8.668164140514389090e-03 -9.682638183738571935e-02 -5.526566654149833724e-02 -4.076976597919845791e-02 -7.330674619739957487e-02 -6.483973028573289388e-02 3.291014784640788416e-04 -4.566774130001709231e-02 -1.532289294962149544e-02 6.209318937879471784e-02 -3.558945673329036441e-02 -7.816794458974926640e-02 2.593680085238918645e-02 5.460465365159021534e-02 -5.287505875313742998e-02 -3.962824463756722815e-02 -3.343605311423587800e-03 5.108827503795668884e-02 6.968460090762111474e-03 -1.292914937730761660e-01 -6.534380650891825904e-02 -4.085456577408123902e-02 1.355063674993758627e-01 3.287388487445486868e-02 -3.647729972653837582e-02 1.012458722607313677e-01 -3.081959559039186905e-02 7.925970609183544124e-02 -8.654467211140846883e-02 -3.368446347879140712e-02 4.416149617546178546e-02 -1.186065661043552710e-01 4.774456723573537731e-02 -3.393990053057855359e-03 -2.897852969594673714e-02 4.190847006971865074e-02 -1.065157228608218203e-02 2.270311379528258677e-02 3.970087620987384353e-02 -3.177453782637108121e-02 4.828200529876846767e-03 -8.202713293433494882e-03 -5.289795743133135497e-02 -3.659856207617015467e-02 -2.890734342978276694e-05 1.629505979440576402e-02 6.680013149392733697e-03 -4.914625844422595979e-02 -4.698783778034533454e-02 -2.896949934268920612e-02 -1.064759446126150588e-01 1.456835365546037264e-01 8.504003719598945965e-02 3.262579487136451489e-02 -2.480249178321915215e-02 -3.372980655937386080e-02 3.001624583669356902e-02 -6.758214443037081909e-02 1.622038847969081796e-03 6.589462170408713626e-02 -2.390092345009686356e-02 -6.911712543502920858e-02 7.144020399460354609e-02 -3.445131100330402901e-02 7.730269278978840752e-02 -3.043914394563988074e-02 1.471794453475652048e-02 3.973932385969594183e-04 3.222230212106894781e-02 3.367207627915922569e-02 -7.904413757452266598e-03 -2.560830684637366295e-02 -3.102723318466714744e-02 -4.315420396857157226e-02 5.837426488714789891e-02 1.028454683168579173e-02 1.343549883189665284e-02 5.206830590300642533e-03 4.098265545093775220e-02 -2.101112509556171681e-02 -7.958538643057747053e-02 -6.000871998779638145e-02 1.921753959134567605e-02 -3.582811394943051508e-02 1.056826726190146157e-02 1.533590412743646332e-02 3.599419125954550491e-02 3.526200227574952800e-02 8.876706397694644757e-02 -5.090799470642713709e-02 -1.572069300788117574e-01 -4.453024545284234303e-03 -7.485548470652889086e-02 4.426098501865958351e-02 -1.348296088516118089e-02 -3.354423056989577767e-02 2.468816759649513637e-01 -6.790570416896252182e-02 9.825448347877495381e-02 -9.488138984616466612e-03 -9.539265022692694843e-03 1.899628302321878376e-02 1.118619203899815992e-02 1.115690642738322719e-02 -2.761384493536109264e-02 5.422176958502621102e-02 1.235481685763576559e-02 -2.776007803761015250e-03 7.484845814808589737e-02 7.746846217714394023e-02 4.732220132274908564e-03 -5.950655387509167643e-02 -6.550339707228923503e-02 -3.450649876959597379e-02 -8.246527641842836542e-02 1.025738994720873029e-02 8.558037081804818758e-02 1.534182060554681315e-02 -4.858910459391835301e-02 4.655274136307558167e-03 -6.615527145152644284e-02 -1.267318728149292029e-01 4.914340642182263297e-02 -9.490136954905517563e-02 -2.356376404633007959e-02 6.461674263614430869e-02 -8.212668450193199784e-03 -1.093710282656032845e-01 -1.077812833668200521e-01 -1.908180276506798653e-02 -1.130178268528481134e-02 1.649579300721988259e-02 9.135079978883385576e-02 1.102977963569137382e-01 -8.393958140757908082e-02 -2.832653687617490632e-02 8.880212753214396237e-02 6.342553926530516972e-02 -4.697484924411222951e-02 -5.154949389424030165e-03 -4.626154132875071046e-02 -2.835599149608165892e-02 -5.846156579725291349e-04 5.771670854911218479e-02 -3.131563435196503152e-04 1.311711729462367373e-03 2.164276661068451416e-02 -3.447509641690289783e-02 -5.752999438379457695e-03 -4.554964336799158242e-02 -4.419010773807687670e-02 7.683556324681947713e-02 -2.630734125092239195e-02 3.130269284927073015e-02 -6.990971032029284771e-02 8.947682094015549370e-02 -5.014773873855267461e-02 2.271523513565192401e-02 7.258889102255453030e-02 -1.203321118154400751e-02 -5.329360034668863960e-02 1.075194368004177142e-01 6.200497573712686339e-02 5.658814481458281087e-02 3.381437098611221777e-03 2.546341084778697486e-02 5.349023690412867127e-02 -3.715707095224134865e-02
-5.669267902973050685e-04 -3.939600010257632984e-04 2.824510259540720641e-03 1.434777837482368917e-04 -8.237474934271641442e-04 -3.055343444254662432e-03 1.679038089220237636e-03 4.838463428014949967e-04 -1.453083454429250285e-03 -5.577110517140444106e-04 -1.049539375864763082e-04 1.401800878008920481e-04 2.590536918220678799e-03 3.033625509769072195e-04 9.473113800872629301e-04 1.067371561678321376e-03 1.789179945869692149e-03 1.080609277465442936e-04 -4.667961263327909702e-04 -9.487460118876367486e-05 1.427068605334635585e-03 2.104005579371800907e-03 -1.167165018001788601e-03 -2.966803943822327212e-03 -5.861094493397309190e-04 1.309462323827192444e-03 -7.638021853878066173e-04 1.195198495220833922e-03 -9.256797816684912174e-04 -1.301590228967916497e-03 -2.043757610063033777e-04 -4.738565814847171728e-05 5.123910386974511212e-04 -2.263743000542976173e-03 2.439729149843422140e-04 8.525716823174916709e-04 7.125586431140153469e-04 1.940123155276594511e-03 5.864252054054954659e-04 -1.246438153772962999e-04 1.165777374350541237e-03 -1.142541708786589706e-03 -2.792360945578623022e-03 -4.768380063823133560e-05 1.752483503547286542e-04 -9.899227938079643071e-04 -9.199314125659855236e-04 9.685382427901464020e-04 -5.959044660036674768e-04 -1.280089639035159954e-03 -1.003987315028149639e-03 9.226604237836268487e-04 1.445025706607116957e-03 7.250853411737710795e-04 7.270140530628224759e-04 -7.967350837427204617e-04 -3.844360161005137616e-04 1.256450385246397601e-03 8.092157488145408206e-04 7.343303929783213230e-05 4.133886619376889540e-05 -3.881953270565636680e-04 6.780864740158298962e-04 1.310047874615637891e-03 1.584678583892348705e-03 -2.486925566207022313e-04 -8.645678615858714460e-04 -1.368722871778503937e-03 1.757943466826941779e-03 2.405210766459285870e-04 -2.675856154479485955e-03 7.961223008045475221e-04 1.807167315558827697e-03 3.458988569215409154e-04 -2.843753952492162913e-04 -1.604356308796853030e-03 -1.259802426410012739e-03 -1.329378685244106937e-04 -3.316661347792088793e-03 -3.794516358613684442e-02 -1.361180033787425143e-03 -9.283969434641757687e-04 -5.767609611713250405e-05 -1.453539801286068099e-03 -1.868721816559301349e-03 -9.454308638944082998e-04 6.415185557865590209e-04 4.641724045977189896e-04 -2.028866258865864771e-03 -2.098194861059545120e-03 -1.695091480262003530e-04 -1.020659937030833256e-04 4.889013389204595415e-04 -3.191262583275970323e-03 5.202619704065877988e-03 8.203911112438162009e-04 -1.009694719506070825e-03 2.855593421643864592e-04 1.702607795668192869e-03 1.362746040957841685e-03 8.728707908436225595e-04 -1.412588771021293247e-03 -1.789195554974739276e-03 5.912002631835726503e-04 6.502874893810843115e-04 1.690477544137394556e-03 7.515634735300115487e-04 -4.329688652720352750e-04 -1.868501988630458807e-03 -2.554400887508693455e-04 1.974637314163900630e-04 5.059433692103918780e-04 7.660018293041160340e-04 -1.302390860438315491e-04 -5.112730181447348692e-04 -3.805765658061903162e-03 2.318550487530594405e-03 -2.879576181605529995e-04 1.104570495397653269e-03 -4.286793340476946230e-04 -4.729056734722651245e-04 -4.142210040668989753e-05 -9.986925053862959895e-04 -1.328709578458795804e-03 -7.987730360408051237e-04 -2.059605649955764933e-03 -2.167088157187943825e-03 6.479701172199260313e-04 4.014196335456315110e-04 -1.442395124485624895e-03 1.834212437568819498e-03 1.841048805726016582e-03 -4.262167270045842324e-04 2.464763810833035069e-04 -8.327927126321947419e-04 3.396364956022783314e-04 -6.970528051065182171e-04 7.799914056896529394e-04 1.667742386756904333e-03 5.523845970984313019e-04 -4.912758744693126778e-05 -2.457555434387719093e-03 -1.409751767947745862e-03 9.099055751539070550e-04 -3.163536523732988180e-03 1.422740891450647487e-03 7.135152308101493828e-04 -1.653737925569619713e-04 -1.402986275399361899e-03 -1.877753249086533101e-03 -3.027888308289551286e-04 7.134865267936860850e-04 5.714283198996243868e-04 -1.624873258551351321e-03 -1.419722571511997501e-04 1.437227548797584539e-03 -3.323303450519153341e-03 -4.769085879280050627e-04 -2.675233126192060550e-04 1.861706066812165907e-03 2.144893655246843476e-03 -1.238437451044046081e-03 -1.804025218897217960e-03 1.331581156380324789e-03 -6.780623346062477665e-04 -2.113709815423879534e-03 1.856082301771057579e-03 -2.656760755920131267e-04 -2.196583605827042828e-03 -2.362560316360477839e-03 2.605165777465279654e-03 -4.640508930507640127e-04 -7.787113155614565688e-05 8.404780678702826078e-05 3.226050701213440124e-04 -1.074706451398482103e-03 -2.352821098169385547e-03 -3.630759799304173309e-04 -1.005556274930471949e-03 3.080694479582522707e-03 2.083974214987617708e-03 -2.789709260796667707e-03 -1.166369364802559904e-03 -3.521111549361088141e-04 1.518228523605461011e-03 -1.465381885924467009e-03 -1.595386665700278392e-03 2.269762485966560651e-03 1.204564495187452657e-03 -2.181804756739891098e-03 1.779599754779420586e-03 6.960912918194704169e-04 -4.224784395225082896e-04 -1.262151441145620506e-04 -5.590646035258827655e-04 6.879102212610326266e-04 -1.346929876419241832e-03 3.063801748052690866e-04 7.687008818094696102e-04 1.613327007664479415e-03 -1.215562678292229134e-03 9.395307603725675883e-04 -5.057964629287318948e-04 4.356982808681533759e-04 2.516948624651015130e-03 2.623151938263273823e-04 3.537898317636033836e-04 6.079037556295063778e-05 1.099969524142124788e-03 -1.515865014548600093e-03 -1.334347342022734403e-03 7.167111195391757342e-04 -9.181015050293389601e-02 -3.461112669048723020e-04 -1.140496515602786986e-03 -4.808845899394681520e-04 -3.617833045726198422e-03 7.632902667565542561e-04 3.294213922298889650e-04 -5.077032553646723071e-04 -1.263714223385681464e-03 -3.200145203667230809e-03 2.668465922867634707e-04 -1.614213715106574409e-04 9.059382614001167339e-04 6.351799579369512639e-04 -1.186574651194822593e-03 -1.857319442161276413e-03 8.209215918318057406e-04 -1.296154156063679223e-03 6.157678819658355708e-04 1.901377161295489436e-03 7.968291527943923563e-04 -8.299290937266068542e-04 5.798092560689942741e-04 4.061413092603896493e-04 -5.515947534079563338e-04 2.538825540144807550e-03 -1.586044379680793528e-04 7.990684010519201897e-04 1.618399084046878581e-03 -7.047377604281761417e-04 -5.019814999447861758e-04 8.507573609853420413e-04 2.109628244786387885e-03 -5.528263206539104019e-04 -1.628554447748066373e-04 -5.086956058588489038e-02 2.549824745782222016e-03 9.063346904346655623e-04 8.656045463925292728e-04 -1.735829678531882522e-03 -2.303377352543546988e-03 6.033684030162438181e-04 2.364326252160665540e-03 1.591207885052196326e-03 -2.940256704254283395e-03 2.382152304788092995e-03 7.200832585025690111e-04 -8.228406251536068625e-04 5.612791323831009321e-04 2.433919898629251623e-04 -2.591806838980199976e-04 -8.188896940372409261e-04 1.276280066790572067e-03 2.149770029051294423e-03 2.033391414235383794e-04 1.097405485734665462e-03 -3.900132192740404747e-04 1.658858169044685835e-03 -1.821366918554264433e-04 -3.480864978891770991e-04 2.519102218223154450e-04 -2.438317574774805509e-04 -7.918607406490098125e-04 8.663027749772318027e-04 7.435991637596273390e-04 3.566522918873207913e-04 -2.408969487807165275e-04 4.050282031634073066e-04 1.984153868285802418e-03 -1.184507867437263520e-04 6.669746848065415123e-02 7.859234060877046991e-04 8.819917403873296169e-04 -1.292948244256541786e-03 -2.305699037948375375e-03 9.448318660221526792e-04 -1.328654538746078695e-04 3.747530049307386192e-04 -2.161952522387265360e-03 -3.470184732198840043e-03 1.207292065236344972e-03 -5.286147737758558392e-04 1.859218732427006407e-04 -1.327580005940218882e-03 -1.234157248774271631e-03 9.688166685778795304e-05 -8.417753999541786186e-04 -7.618911333020464850e-04 2.319219812882365121e-03 -1.243242269674137276e-03 9.174864887796769066e-05 1.690707191458788988e-03 1.339084910744832999e-03 -1.304178431899502295e-03 -1.397779195682036513e-01 -2.892254455939155490e-04 3.567588139636139466e-04 -3.261813964001046649e-03 7.678266121590591109e-04 -4.873316424911395959e-05 -4.968253863856501472e-04 1.528339294297056687e-05 -1.059090985925027978e-03 -2.589927979490250741e-03 -1.711970006190039091e-03 -1.782059388140734297e-03 1.619833226318141521e-03 3.275202973799610454e-03 -1.227724991338581886e-03 9.951036833451241959e-04 -2.597115793190524213e-03 -1.078711211188208624e-03 -8.011551149352231593e-05 -1.059203930871122036e-03 7.174434632544991721e-06 -1.035643156768164142e-03 -5.096237612414723740e-04 -2.464384105473578241e-03 1.339032626151402195e-03 2.196500848406411578e-04 2.744952843282053826e-04 -2.582877117220268022e-04 -9.404697917981344208e-04 7.106805337263503259e-04 3.782267457266063411e-04 -2.561067869350467686e-03 8.506980463703566571e-04 -1.042642253212975635e-03 -1.678056150575980973e-04 1.212011448280101225e-03 -3.025239741663376860e-03 2.366294021996288594e-03 -5.535267347753952986e-04 -1.042771766086630827e-04 -4.847902807736576046e-04 -2.924628544655108638e-03 -5.956170727247195838e-04 2.908434425878023992e-05 -5.972241364279795225e-04 -6.954843889453626903e-04 -1.290196693227692011e-03 -1.591303148675331670e-03 2.083932558197925094e-03 2.056641222662971072e-03 -1.593869241750994151e-03 1.892910710900587673e-05 4.180705231724448299e-06 3.935812983248398187e-04 -1.403267421695474906e-03 1.850758703933697230e-04 -1.399828370613151376e-03 3.378223583791306172e-04 -2.819677833569280909e-03 2.131550265662790229e-03 -7.381490712229611326e-04 9.200279421160363538e-04 -8.581507413032941900e-02 1.652250264519512487e-03 1.853790394718820471e-03 3.715037993925932280e-05 -6.599611893943514718e-02 1.036722496375770252e-03 -2.721281488627530672e-03 1.026843660485477015e-03 1.824724088007703129e-03 -1.029340622989819137e-03 -5.280404140347775112e-04 9.327342946451557719e-04 -2.973624572923991684e-04 1.381869892369886731e-03 -2.622472253305378666e-03 -1.434237445356817279e-03 -7.789165737574899181e-04 -1.067196676227995114e-03 -1.938495241269174709e-03 9.586644878725502153e-04 7.857004436217130024e-04 7.151284710327296271e-04 -1.876931191032678043e-03 -2.856387003838185140e-03 1.644352755784736627e-03 -1.074978157209824240e-03 -6.718204112853700749e-04 -1.235155403486282730e-03 1.843667121021579482e-03 1.443697113779360362e-03 -6.785694223293049516e-05 1.801934788145152186e-05 -3.459951761487513409e-03 -1.455790786916478531e-04 5.937609651549740562e-06 -1.158520373459462263e-03 1.579884534613122747e-04 -2.071502288156181013e-03 -2.905607619956403426e-04 9.597453669231590864e-04 1.403257712782813227e-04 9.312281147526002805e-05 -1.167750709373638123e-03 1.071728548289026250e-03 -2.586689021772217711e-02 -7.237440273991270360e-04 -1.961050765380722982e-03 -5.746136387753090103e-05 2.153304729932680253e-03 -6.952822725623615443e-04 -1.083948141888862148e-03 8.003185604837928990e-04 -4.183836655492888940e-04 9.684893844415317808e-04 -4.006472994086372752e-04 -1.172110019857678494e-05 -1.120979162950358395e-04 -1.534637823553250489e-03 2.596011804704458515e-03 -2.440794861748724065e-05 7.720796248249522540e-04 -2.212863586700639540e-04 -2.312277308525987046e-03 -5.933747410635725143e-04 6.781252251296531093e-04 -1.890841984246627652e-03 -9.060206418055680036e-04 -1.200134250285052502e-03 4.470358498882956227e-04 1.484324817896522184e-04 1.230504885554932980e-04 -2.730971595887949559e-04 -1.648432868001911038e-03 1.467144524767825201e-03 1.999600005301331238e-03 2.128218164604632739e-03 -2.603743990894856562e-03 -4.605708896866674809e-04 -8.246059431186473707e-04 -1.029510145199505821e-03 1.242358223906298714e-03 -1.139620888825632495e-03 1.136348853875333203e-03 -7.847067730800029450e-02 6.843746449530478540e-04 -1.248217987632367848e-03 -1.157532890408651503e-04 -3.513820007748889331e-05 2.335224844515976846e-04 7.039833916235791996e-04 5.448965919380293634e-05 1.689450205857577852e-05 -3.067244654802896207e-05 1.695325529711771322e-03 -9.460519862789527673e-04 -7.465367982075355596e-04 1.114501650255823309e-03 3.394561362697715327e-04 5.350020379686984146e-04 -3.811154697591233776e-04 2.637896457427242169e-03 -7.300009286397220491e-04 7.986610822675190664e-04 -5.180725315952980532e-03 -4.243314949493197158e-04 -2.182484826679283348e-03 3.395255516294409505e-05 -1.590373510122748473e-03 -7.468492025833591095e-04 3.595887016220803540e-04 -4.706949106292801152e-04 3.968229254053099071e-03 -5.405451619499227606e-05 -1.629058324681339608e-03 -6.400061354944072906e-04 -1.163018416588014773e-03 2.640610418313139710e-04 5.402657534152450732e-04 1.578409444027065785e-03 7.007350824260907655e-04 2.237766810688534506e-03 -4.097693197289166683e-04 1.018474939305073291e-03 1.137594715109146965e-04 -9.696320487963907588e-04 -7.035150483645034175e-04 1.086826627139586944e-03 -4.607303623908015622e-03 -1.581419441784403905e-03 -9.707617553336626121e-05 -2.340100595009959178e-03 1.638434271450319064e-04 6.113455940688185611e-04 -7.253397352033424082e-04 -9.976096152357462419e-04 3.743917496520066633e-04 -5.578537677508525576e-04 1.478861695219250982e-01 3.870843568283530481e-04 -1.941954324691714997e-03 1.068458398033433898e-03 3.986411831178699686e-04 -2.200634836644624597e-03 3.231726317067686971e-04 6.201727875552830302e-04 -6.545766588285947905e-04 -7.001131993981738995e-04 -5.736370427063954914e-04 -9.005365799162553826e-04 -1.294250110577723238e-03 -1.075865817297084462e-03 -1.681510422788733920e-03 1.138315338750100873e-03 -1.105060230584190136e-03 -2.053454385166571076e-03 4.676864140214744741e-04 -1.547451907581482008e-03 -1.352387094618278307e-03 3.186817783093137853e-03 -3.947271627679794235e-04 -2.302898674241270780e-04 -9.317252531041706528e-04 1.002026125453009788e-03 2.219845098753035068e-02 7.340687633083901745e-04 -4.864962664074412991e-04 -1.395951415831091441e-03 -1.880024532295774403e-03 -4.509334916772792814e-04 8.206372192741496563e-04 7.919887084450692987e-04 -1.518873105566792678e-04 6.159824211589272575e-05 1.225547709285903239e-03 8.287557303154700211e-04 2.886828759093776689e-03 2.638760579344462572e-03 -1.055208288923817567e-03 -1.847890571097614981e-03 8.219392478443184654e-04 -3.425126761780739743e-03 8.336223311833256726e-04 -1.492960526721588644e-03 2.484016322545602121e-03 -2.379840417497208066e-03 -4.268080412723980260e-04 -2.506632464459684646e-03 -1.565877601622234260e-03 -6.250616856241181327e-04 -6.762272702063062523e-05 2.128602881251534691e-03 -2.722014779012103228e-04 1.404250498286424825e-03 -2.888299061335413732e-03 1.557470444454242759e-03 -4.529322671024061308e-04 -4.537030346192735017e-04 -5.269879268403523248e-04 -1.194456872304853340e-03 1.353542466391941673e-04 -1.792423488751761955e-03 -3.451945406543807508e-04 1.720447719874276023e-03 2.049821776491590492e-03 1.546654700331874478e-03 1.355955500434195002e-03 -2.250332679073252778e-03 -1.965429675479195455e-03 1.819938695210411052e-03 -8.861521809133320266e-04 2.623193940332607145e-03 5.746706897904208531e-04 9.260818287447010510e-04 3.425887122461694395e-04 1.440673870892134186e-03 1.473388194734027903e-03 -4.323010656668979787e-04 8.760360426395988418e-04 1.062347214352680298e-03 -1.424019804547376096e-03 -3.406542352036048783e-04 -1.943741576157730598e-04 5.594674112998460850e-04 -5.148284051840201634e-05 -2.388055370871723182e-04 -7.463711684030653777e-04 -1.023095148505890868e-03 1.457677720420137712e-03 8.122932451753292135e-04 -9.526344954173769902e-04 3.620176822047849186e-04 7.704224648218176369e-04 1.951052195394338724e-03 -1.232810420719437352e-03 1.162711931347672244e-04 -1.643715965623394415e-03 -1.140997881707510103e-03 -3.622937266848529937e-04 -6.766527348417803334e-04 -1.121016306977914078e-03 2.432834149721737379e-04 1.646037311966715795e-04 1.486306304974391182e-03 2.089614427582515510e-04 1.050599803344126615e-03 -3.409434741591382736e-03 -1.045448655954314774e-03 1.507125549180120001e-03 1.285415574538578210e-03 -7.794274466489535709e-04 -3.595320308019189846e-04 8.444574678963052061e-04 1.931599304388004808e-04 2.622762632792941147e-03 1.096982741154174960e-03 -1.660328892019780934e-03 2.197893491232495895e-03 -3.596507517084570238e-05 -2.079048747996924823e-03 2.636709244531428194e-03 -6.568812582981458943e-04 -1.182492021388773613e-03 -9.745390953369057569e-04 3.253300805142586756e-05 -1.802363234462791815e-03 -6.871973711756838984e-05 -1.401104491678303290e-04 5.929653831939273121e-04 1.673051064736400537e-03 -1.683590592471954255e-04 -1.900031638778248121e-03 -8.048765455454664911e-05 -1.171449231872336840e-03 3.470772888023236603e-05 9.246128753911330659e-04 -7.885333732094490294e-04 -2.531935273643587739e-03 1.835196258235457253e-04 2.394925136004933449e-03 9.468540589479419170e-04 6.021110207847126103e-04 -1.215007309273549415e-03 1.476288050469828395e-05 -1.066005070097551539e-03 -1.109599751127615143e-03 -6.487444027582171119e-04 9.114144151275736317e-04 -6.381872727351039446e-05 4.549673713586916508e-04 -5.223008245233058157e-04 2.861666178722058976e-03 2.580373808138103050e-05 -5.304022775352317974e-04 -7.902232541422411598e-04 5.410644982578365764e-02 -2.486616043159567153e-03 2.508484001619813719e-03 -1.211632092934137629e-03 -1.032957487088216478e-03 -1.006231687528767217e-03 -2.029689414140935840e-03 -1.681397413189103431e-03 9.548815781088666396e-04 -2.699017178995207281e-03 9.642873827648318526e-04 -1.627246408406709003e-03 1.113043649812487323e-04 1.329646788751071701e-03 -1.162022829496927060e-03 1.351974661484257705e-03 -3.810079345537592424e-04 1.147663879415157604e-03 -6.259421636080765138e-04 1.149302167708468256e-03 1.237515553967916473e-03 -1.222751819804050819e-03 1.005053535638025580e-03 -1.313852404320375259e-03 -5.217761388916332746e-04 4.127540882647394698e-04 1.233938129266299666e-03 -9.100081074065190278e-04 1.404795581317992573e-03 -4.940084582665811401e-04 2.705074962446905938e-04 -1.528688304567021611e-03 -1.238714183513376559e-04 -1.057215227326317330e-05 7.291374461357670372e-04 6.176022197292487664e-04 -7.046416151544633837e-04 -4.055762585902020884e-04 -6.238169868697492418e-04 -2.999994700486145836e-03 -9.496999883562643732e-04 3.339173600254700513e-03 2.568633374087462683e-03 -1.950961666135866924e-03 -1.587201663083116733e-03 -2.481338594566134641e-03 1.170314306563326824e-04 -1.057242474935374786e-02 -5.747918152621732607e-05 -1.568343427665867540e-01 -1.475728182298453872e-01 -1.420317187612404712e-03 7.443307637747669262e-04 1.698566565452301613e-03 -2.305111163845936437e-02 -2.461122542907424361e-03 -3.107027835810032999e-04 9.442250725339101187e-04 -5.703160753967862325e-05 5.594415536588474326e-04 2.239629721010771805e-05 -9.052496133244166505e-04 -1.494287956243190926e-03 -1.105898687158038277e-03 -2.915904575454592810e-03 1.779873562971313839e-03 1.662505242992381419e-04 -2.636814854892038148e-03 -3.595059544478910909e-04 1.087431614131179779e-04 -1.582631470331089972e-03 -1.376004206832259769e-03 -1.492620608910528177e-03 -2.563062584801791775e-05 9.247973215515889467e-02 -3.304428219719082651e-03 4.470094462991152881e-04 1.880315027896829402e-03 7.754233150587111273e-04 -1.545085876889237732e-03 9.435921376762998729e-04 -1.740673274028607838e-03 2.369774119783019280e-03 7.353993835135363283e-04 1.331347994219864292e-04 -1.847017809548563662e-03 1.997342475140096579e-03 -7.037008635369905321e-04 1.783573346984893015e-04 -2.360991020343399492e-03 2.813919908565726572e-04 -1.813143266766533855e-04 1.749145077252592959e-04 2.940125683509010814e-04 6.728417363073685691e-04 -2.195297684389364325e-03 -3.224982554564272260e-04 -3.984274051812046404e-04 -2.129358848006677931e-03 -3.558753871747310680e-05 -3.396235591958558613e-03 1.796014256251447653e-03 1.520750814886192074e-04 2.436871959711336348e-04 -9.844831356524008648e-02 -1.029224203927703199e-04 3.236213027403792714e-04 -8.715885793648922878e-04 3.551593473803494726e-03 -1.372240056891068510e-03 1.732980089632721885e-03 -7.201412862465684291e-04 2.536994104584018844e-03 -1.172198077459653005e-03 5.501944907399057951e-04 -1.857127738093098876e-03 1.501340805499634754e-03 7.880422043712762784e-04 1.849781534142588228e-03 -1.230920908480462013e-03 -2.751744829691661707e-03 5.793355079961051918e-04
-1.230386585400033549e-04 -9.965550315853260316e-04 -4.401233921148514291e-03 -8.402633266214366587e-04 -1.145921339293235093e-02 -2.663038112906772684e-02 -7.629227871463972743e-03 -5.656019352619465722e-03 -2.771594262456990657e-03 5.445193831139354471e-03 -3.159647135452545684e-03 6.709037634839496236e-03 7.068930073973169132e-04 -1.023394567209394944e-02 -5.629483199714711145e-03 1.723593684739356188e-02 -1.461331939932826191e-03 1.533656119509847759e-02 -6.872153663385519029e-03 9.727761665503703928e-03 -2.261111385358306573e-03 -1.035771299406457960e-03 2.110177901862029474e-03 -1.015717772489048605e-02 7.423298567607763791e-03 3.715553198344938475e-03 1.885204558726292958e-04 1.041848676714594163e-02 -2.870682127949236977e-03 -6.287498490907720596e-03 -3.728943775626383187e-03 5.667214656866912054e-04 -7.983960164528623379e-04 -8.343567161835803089e-03 -2.942321226221410440e-03 -9.421584093850831829e-03 -3.030052353706923652e-03 -7.503847249705814307e-03 3.820057088625434649e-05 2.470322219196466589e-03 4.907654815165596492e-03 -1.047278806325261866e-02 -2.151300298990894630e-03 3.283778563025168372e-03 4.757603188295811240e-03 -3.912516681358725948e-03 -4.759244434492595696e-03 1.053777955764374948e-02 -2.568081963112842786e-03 5.684987847264219574e-03 -4.643775672917808441e-03 9.746204677560592333e-03 -8.261239708654130251e-03 -9.516509431867568869e-03 1.522973449261304105e-03 8.631782017649242481e-03 -1.042516683843938696e-02 -2.914488843644436338e-04 -4.371397304869756675e-04 5.881841886358583384e-03 2.991581841797494225e-03 8.366061620238840479e-03 3.637172558958473730e-04 7.940210966156515532e-03 6.150736080897127069e-03 -7.139210652055956972e-03 1.510319354703736636e-03 6.207992572366287029e-03 -1.185030024542808001e-02 9.232138920973975010e-03 -6.956746195510654304e-03 -1.017581536303177429e-02 8.929810508483042395e-04 -4.080919762096625082e-03 2.428176035121137107e-03 1.240969817573894449e-02 -1.160833507098041730e-03 -6.416126896982838994e-03 -1.812728540503519975e-02 -1.693655811628755614e-01 -6.314844698432089953e-03 -7.177712393018702806e-03 7.636493735126545848e-03 2.232722564344316422e-03 8.333797648194773674e-04 3.353943652874274463e-03 -7.048924653752152054e-03 -1.302947903787897953e-02 -1.748119703742936210e-02 -3.661298802724016060e-03 -2.882722586396419158e-03 1.156989820762715799e-03 1.389763866784414839e-02 9.257764912609853930e-03 -2.683397480934250345e-01 9.571658742884727941e-03 -6.759487693693048971e-03 1.559406206571701398e-02 -9.988386231507316929e-03 1.133683954362646809e-02 1.240939047417704763e-02 4.227016628526379487e-03 -4.409512144318552748e-03 -3.362487594288658156e-03 -4.071148086979464557e-03 7.832073413164230419e-03 2.622510148692261834e-03 8.414131148683187331e-03 6.134191635316848384e-03 -1.278739614636430731e-02 7.900264435311712616e-03 -7.812583564549602927e-03 6.748338342416304071e-03 6.218841283114636895e-03 9.360611951457412441e-03 -2.079645496636082017e-02 -1.532000049223925485e-02 -1.541420712127264218e-02 -6.017124662665270310e-03 2.886967525997829326e-03 1.374863016693077429e-02 1.170751088678047107e-02 -2.448027400355778233e-03 2.243020002756205070e-03 1.242852166672218407e-02 3.858743956010590118e-03 -2.244669168242745608e-02 1.260409494110483614e-02 4.483982883229896952e-04 -8.138666088767893339e-03 1.301210083906437047e-02 -8.450097519074943565e-05 2.388304749690333198e-03 -6.406867116198437274e-03 2.679356580125583781e-03 -7.922603079260803066e-03 -4.341008890327435407e-03 -8.790273004148835279e-03 4.895957003481984059e-03 3.773537599559623288e-03 1.441110861775245396e-02 -5.535988426805982417e-03 -4.431620984431909084e-03 6.263643921353412563e-04 -1.565405366265404732e-02 -5.530152805375663713e-03 -6.468964908035214519e-03 3.102842438758974218e-03 9.437248402031607952e-04 -6.621843398789209207e-04 -6.383161438120048964e-03 -3.068351726082272409e-03 9.594322865049926402e-03 5.805903635737661578e-03 1.445952604203380905e-02 1.090904245192129106e-02 -1.212581530632465300e-02 -8.566763620769432194e-03 3.155368711017902516e-03 -8.303861333887743029e-03 -3.294556252004852016e-03 -6.211043150962814591e-03 1.647952520378002895e-03 1.780038907736579412e-02 -1.370698187939795075e-03 1.517019977668879107e-03 1.239779568659170848e-02 1.589411041177877029e-02 -1.504451090542614777e-02 4.234861740373813827e-03 1.051638329057521561e-02 2.413412462785814640e-03 1.045928580734171304e-02 -6.509900850564756536e-03 6.984982717456927025e-03 -2.599140534684272552e-04 -3.156784606150399557e-03 -3.080371610908652809e-03 3.441514019996882740e-03 3.320138914128413629e-04 9.834333647969687245e-03 -7.804895317543887080e-03 -4.735629031624792942e-03 -1.914429609724617844e-03 4.085786520165715294e-03 -3.107531285181148410e-03 -2.241804494981674591e-03 2.436111758683950218e-02 1.492732759469010163e-02 -3.968402394444066165e-03 -3.922650923432867247e-03 4.105633471716686571e-04 3.238125014504387989e-05 -1.589586098340885559e-02 1.146141358269920068e-03 6.825082872543472914e-03 -1.190927730045293620e-02 5.564558032413451961e-03 2.439823306009985399e-03 5.316718874028261883e-03 -1.024287064459400431e-02 -2.226403133249437588e-03 -8.347310493935425693e-03 -8.069780912665111376e-04 -3.954197502503172326e-03 -6.429693413490217974e-03 2.571012135824986972e-02 1.663657318998988492e-03 1.588896123887925671e-02 2.599714382863666049e-03 5.158332203771542890e-04 9.768461989477355070e-03 -5.309108829855796463e-02 -2.643789463105912681e-03 -4.269363738089551261e-03 -4.548685823411568324e-03 -1.274418558517554853e-02 7.043949308540323369e-03 -1.335999673772493394e-02 1.115890168467565660e-03 7.208776468097415936e-03 -1.454071868044290233e-03 8.511322853902533736e-03 -5.510858374551861304e-03 1.526277511370319716e-02 1.168592638403211613e-02 -1.570178611510445951e-02 4.392133255994612115e-03 -1.833125017033019818e-02 5.600543827333772599e-04 -8.235155307929630008e-04 4.095878307576634146e-03 -1.967377618079903592e-02 6.649801915061869483e-03 -8.089399303652404158e-03 -5.721517590820069700e-03 -1.691152978540333071e-02 -1.010860615978667436e-02 3.804237073803937597e-03 -1.091793769774026396e-02 -6.959502865990545772e-04 8.527859225927799519e-03 -4.699602869258924162e-03 -4.244436129530199803e-03 -1.367124480106465161e-03 -2.315964804559855154e-03 -3.341181227061942958e-03 -1.050958834059804725e-01 -1.676038541755841063e-02 1.544110657660013007e-02 2.662152498890631592e-03 9.197279086098644751e-03 -1.661939883500095083e-02 3.158997133814347817e-03 6.722107858065907993e-03 8.131297403817535838e-03 -8.977781037401100228e-03 1.547240660709300929e-03 8.532947287661716423e-03 5.094874772161686258e-03 1.906414379090828762e-03 7.802038919108077696e-03 1.346273451994204305e-02 -9.833249105274532650e-03 -4.980484221296116280e-03 1.292769084080769293e-02 -1.061372622353506413e-02 1.232781027008280662e-03 1.474422926417275764e-03 -2.033342328691478684e-02 5.459638744783541428e-03 5.832080934473135060e-03 1.342274129530031911e-02 -6.354881460149153748e-03 -8.873571619422534118e-04 -9.674700751055252332e-03 -1.873021339863697402e-03 -2.859769924191396008e-03 -5.063812052522533198e-03 8.650830128771868147e-03 -1.140883235836740763e-02 2.748515233604031938e-04 -1.780903016160993169e-01 -1.398904933111735742e-02 2.983514754670404771e-03 4.067730819949746967e-04 1.219507216924562180e-03 -1.055748816616543066e-02 8.103568541711249004e-03 1.062121361805942049e-02 5.466604127425468522e-03 -3.772349482666074137e-03 -1.373435572899153571e-02 1.531794303664867941e-02 1.074073582846715204e-02 3.580068177076488941e-03 -1.714382351683795339e-03 -1.468116975872444524e-02 -3.071097233970719164e-03 -3.142856682886134220e-03 1.508459583812304765e-02 -1.201085632096083808e-02 8.291235120134507475e-03 2.978500050653492496e-03 -7.888823043872393234e-03 -2.002345377884443001e-02 -2.818999817354496742e-02 -1.505067630227245080e-02 -1.318844745111804641e-02 -2.789683368370649355e-03 -8.354511818718326653e-04 6.299935283082491039e-03 -1.101223193623059211e-02 -5.903220515793742608e-03 1.242483705112659709e-02 -8.875581855884089955e-04 -1.127602700527316482e-02 -3.895184409562173124e-03 1.037197794345710855e-03 1.340195144946071740e-02 -4.549693775963628908e-03 -1.220269657502703713e-02 8.087686673597762818e-03 8.728179300180653744e-03 1.526077628019335310e-02 3.543152473832569902e-03 8.678214986990158072e-03 -9.089510757631086638e-03 1.071580144634524077e-02 -7.374260350631570322e-04 -7.061954576544708304e-03 4.638726535702945679e-03 8.613594060045968656e-03 1.982451204002330745e-04 -7.265155545103667203e-04 -2.794876483317079458e-03 9.352471564740297283e-03 -1.040612727033370620e-02 -1.026233002185574471e-02 -1.334684776691983168e-02 8.390528193527132432e-04 1.589927425259310759e-02 -5.685161483982565170e-03 -3.736383883152944677e-03 3.334193379800078592e-03 1.648828521876674006e-03 -5.548677151743167633e-03 1.011251335296343631e-02 1.390011489202430759e-03 -2.072718169638651086e-03 -3.366884741110009408e-03 -5.820366659542801878e-03 1.402268848828172598e-02 -2.001013341826095911e-03 3.517327997221396819e-03 9.911600776470611343e-03 -3.084177609662120713e-03 -2.155503354449677961e-03 2.381336486441061433e-03 1.672849087681158031e-03 -6.210199939140834124e-03 -6.947444689079365285e-03 -1.538201010579966395e-02 7.562072102290318121e-03 -8.428460171648295002e-03 2.284591445221106389e-03 2.842010048749611835e-03 9.198274554878673598e-03 2.068026643784453278e-01 1.210365222463415276e-02 -1.017406065081032139e-03 1.228755761835888206e-03 5.699564778942886600e-02 -1.789798630620061462e-02 -1.156208229400015712e-02 6.794250085541904231e-03 7.127250551720008126e-03 -4.544540342730061036e-03 -6.346354346025432497e-03 -1.514379305105593120e-02 -2.172689341381838814e-03 1.369615754260874313e-02 1.308966784354418864e-02 -3.651162106554750597e-03 1.024895760392384100e-03 -1.317151295532444782e-02 -7.127667951629615244e-03 1.374601089211399327e-02 7.203878266879099046e-03 4.162918125367735984e-03 -2.055232278626257202e-03 4.961054140622055998e-03 7.438076418242212627e-03 -2.480923738856447708e-02 -1.981296118242531392e-04 -1.524110010121400641e-02 5.137153558458607688e-03 2.941807518413478220e-03 2.811400753331486091e-03 -3.100675131648251656e-04 7.352552171475909906e-03 -1.485291296557607159e-03 -1.203685687833037921e-02 -4.986393773950971442e-03 -7.995549221042905566e-03 -1.802349253887038094e-02 -9.700399314671238893e-03 1.330741505081173628e-02 -6.834260092210788472e-03 -6.597657999133814573e-03 2.748991128286048125e-03 -2.849597031165050621e-04 7.353511728332809416e-02 4.994979144575906888e-03 6.286086136223894769e-03 -6.429771763812278974e-03 5.155439013063655568e-03 4.041037151737332696e-03 -4.228701029244725206e-03 1.659554043724579750e-02 3.852006152537427834e-03 -1.247491945574867589e-02 1.042368302566257536e-03 -4.732180547001856898e-03 -5.911310510949079403e-03 4.148663817526964878e-03 3.559361682135320486e-03 -2.338502496491285700e-03 -1.198908818002271653e-03 4.576544619230840313e-03 -2.398644628306172144e-02 -1.855072058272953447e-03 -2.070270994147741482e-03 -5.224418401087148507e-03 -5.550064891875650976e-03 4.828632664051007994e-03 -4.288022722765452363e-03 8.415069543069756547e-03 5.277915327334715100e-03 2.558860041715444074e-03 -7.861203524506480550e-03 -8.636715898056646946e-04 7.941262983373143045e-04 1.661408669256201828e-02 -4.225790129528201634e-03 -4.307140941983840857e-03 2.893991855372322290e-03 1.649494714096566908e-02 -2.632449288090631459e-03 6.558491243501823366e-03 3.975545454093233969e-03 7.298074964779113771e-02 -1.784731966089724703e-02 6.667411596356784959e-03 -1.715076679017281261e-03 -5.070965041916938865e-03 -2.026194492428446195e-02 1.568455495341570236e-04 -1.172394557739466370e-03 -1.598516166886987042e-02 -8.951788940618962947e-04 4.390104632664760566e-03 -3.511296819150288087e-03 -5.200372568757967787e-03 1.516563393446422158e-04 3.304783533895989424e-03 1.195431207505583820e-02 1.308763785615345808e-02 1.666849739232254338e-02 -2.183821480946785288e-03 6.854280949910248905e-04 1.863202374901169137e-03 1.635565258102949018e-03 -1.643032632218607153e-02 9.316839619388691748e-03 -2.595680354806106926e-02 -5.384045783058981002e-03 -3.228064174497458257e-03 -9.037340894391215212e-03 5.553229818675764137e-03 1.739385116198884085e-02 -6.948674686020653649e-03 -1.438221916543691234e-02 3.183605597192369283e-03 -1.101525921440509037e-02 -1.104042695594362015e-02 8.279778053669037755e-03 5.649269928243840465e-03 1.129368486035930421e-03 1.113535082764310295e-03 2.802237900220727780e-03 -7.513823211480670852e-03 -1.215517390387057563e-02 -3.664794844734551704e-03 1.345424251073780106e-04 -5.549140056594777624e-03 -1.562131596987929513e-02 4.548236275701486586e-03 -2.727109790151196881e-04 4.259482066570279002e-03 6.424467050382789632e-03 -9.399089431010856574e-03 -6.885641308579535692e-03 1.682736606953840613e-02 -5.273664054784439094e-03 1.600640287088611613e-01 5.514420682969860266e-03 -9.161183865017954661e-03 1.782750706881155653e-02 8.704084791779070213e-03 -1.073424382422804961e-02 9.945143689051836461e-03 -2.510579509534073550e-03 -8.769983715110991548e-04 -6.125132142168569598e-03 4.593956856041015693e-04 4.905115474458683102e-03 -2.408371374847574718e-03 -5.048356677270929814e-03 -7.621857238339252091e-03 2.598591033016356172e-04 6.041988060968119315e-03 -1.413113376311176880e-02 2.103554011717434502e-02 -1.553751090979550199e-03 1.791956702118912637e-03 -1.395106193310321216e-03 5.389043660102321373e-03 -9.831569268087105105e-04 1.112444654112575496e-03 2.995669197739952733e-03 3.422357666551853472e-01 8.620285028897094887e-03 -4.005318034431446308e-03 7.598997832243834308e-03 4.763967388756986700e-03 -1.470355685532085191e-02 1.122892528519171818e-02 1.178182519068786405e-02 6.078633409495549401e-03 -5.954106812779782522e-03 -6.473387549811657725e-03 3.658731716479532523e-03 5.780230456243110699e-04 -1.504138998956343560e-03 -7.650516143529626986e-03 1.659898854046546954e-02 6.195516429891812123e-03 -1.747135335407399778e-02 3.808941234778426450e-03 1.882349191650926424e-03 1.319409692260809343e-03 -1.927113094919767622e-02 1.987463562064633194e-03 6.841403451976434819e-03 -1.197694297260593239e-02 3.733975452733546887e-03 -8.056425553271311449e-03 8.146558457865970757e-03 7.637627113570085759e-03 1.501171903485249565e-02 2.780562919096788137e-03 1.694302604977965254e-02 1.238653636839815841e-03 -1.294066119753769888e-02 1.014012136696578956e-02 -5.192799129886003541e-03 8.297645305288524689e-03 4.750735161158148312e-03 4.948157426611625269e-03 7.269263966585514519e-03 -4.595537675872043461e-03 -1.845193287067127194e-02 -1.056002168214623636e-02 -1.380739797032265459e-02 -1.101355159000644984e-02 5.326738935378365174e-03 -8.675829204896115185e-03 1.874958751868684159e-02 2.223646432726509269e-03 -1.530010748521159385e-03 -8.308507015500872853e-03 -5.212751224242999012e-03 -9.664145286149965772e-04 -8.644938246791699504e-03 -3.840613579641743557e-03 9.471522458267080113e-03 -1.248367529096267373e-02 -1.563906276258571551e-02 -1.434691730497846852e-02 9.217689313307859955e-03 5.627292386488018557e-03 2.915259386555178397e-03 -4.072065941733205886e-03 1.693101020522579103e-03 8.835469913977061010e-03 6.304615630964047895e-03 -5.287955430589879290e-03 -2.448878783905865671e-05 -4.231656686518090078e-03 -1.560005053862219748e-03 1.984193430806579714e-02 5.550687603527533834e-03 2.475197506373422174e-02 -1.356078105200666899e-02 7.531962961526334800e-03 -9.421999179733128033e-03 -1.407643707802993908e-02 7.367191409021906986e-03 9.973023266100049244e-03 6.727255486053445232e-04 8.583780519505881945e-03 7.701203978952213779e-03 -6.656850217083413492e-05 8.918280082057559316e-03 -2.504417493321258728e-04 6.713094168653331063e-03 1.010887315026553872e-02 1.109291562609771367e-02 5.443592380700568861e-03 8.593377017044809274e-03 1.009564032064397959e-02 4.013208783625946130e-03 -3.736002097622865507e-03 -1.337467922018854664e-02 1.938781329596280271e-03 -1.080962215396988335e-02 9.669033915247956038e-03 6.675792866100269465e-03 -1.363676200683036806e-02 4.456266439788345891e-03 1.045600456737984935e-03 -4.546022996715748388e-03 -2.104635085019789312e-02 8.394959432591237586e-03 -5.966570314663023102e-03 -2.067582916664363005e-03 -2.910862413068563033e-03 -2.393714825468069244e-03 1.916705016957774219e-02 1.353670303201283485e-03 -5.304862173864647971e-03 2.320945547489383729e-03 -2.073777343436364535e-04 2.345746869504912197e-03 4.561826040963476263e-03 1.678412089557882250e-02 1.538300463626590285e-03 1.117535717807164285e-02 -7.781489554669064092e-03 1.320227137093677762e-02 -7.111035769845289872e-03 -6.540054290015982590e-03 -1.093574341616212683e-02 2.467997715125225949e-03 -7.809112731281021846e-03 6.238556344086010688e-03 -4.048485349435715711e-03 4.691454564788350053e-03 8.196692014864328732e-03 -3.249526822200712439e-03 7.719701308263594158e-03 2.103673552571342087e-01 1.364931169502258367e-03 1.104463004079618386e-02 1.547285238407026349e-03 -4.962999321910453211e-03 1.820782374891475805e-02 -8.973822054309674168e-03 -8.004981130382804802e-03 -1.208891379018532143e-02 -1.947119066904236034e-03 1.530536851715121049e-02 -5.169384051143378987e-04 -1.345798445857003707e-02 9.382204299126466543e-03 -5.122564834266111512e-03 8.711942240351304477e-04 -3.511122390377176966e-03 7.592091151543835237e-03 1.706667787224165232e-03 -4.390770528352108161e-03 2.895965198756426592e-03 -3.730640377547326213e-03 -6.732366360021005023e-04 4.671181038308830011e-03 -7.638064776528327715e-03 -9.420181498439254137e-05 -7.311227097432462275e-04 1.872212747003978994e-02 2.213383702132779626e-03 -1.015033599841341089e-02 2.958765745524301392e-04 -3.457106544384358059e-03 -9.801112443941077321e-03 6.788297782626878663e-03 1.434363230439965504e-02 -1.214361895016054932e-02 -6.540931284115904243e-03 2.323886606110872263e-03 -9.715830889986207947e-03 -2.062432374898258425e-02 5.104990792735028884e-03 -2.738820669070400528e-03 1.039800982115828172e-02 -1.738031265872272760e-02 -3.524641822076576749e-03 9.717639310509650031e-04 -9.806508884880807755e-03 4.111504153768941877e-02 4.223787587502953085e-03 -1.987235502322816719e-02 3.269050774830105088e-01 -1.236512684760752469e-02 8.168990665663801096e-03 6.769921059471118276e-04 2.472093854758283527e-01 9.568036882256689829e-03 4.554679017287398789e-03 9.961918085612281315e-03 1.273220319823294144e-02 1.745649949285331057e-02 1.670038478594673432e-03 2.174980121823932421e-03 -1.027769895374121278e-02 9.503563384493702746e-04 -2.946187154865730334e-03 1.052765699698591595e-03 1.015576944569327421e-02 5.442830465165477381e-03 1.527205799145458587e-03 8.697773833097503099e-03 -1.166219877934969278e-02 -2.532453168222758774e-02 1.441832548452380396e-02 5.209854802829848482e-03 2.326003089688093717e-01 -3.044666484196362211e-02 3.448086178575553704e-04 1.447765981417822607e-03 9.550981758423495935e-03 -2.449054407851345566e-02 7.272869643074248748e-04 -5.175416072350798487e-03 2.323520247157132013e-02 -5.700672301552748428e-03 1.420176195404896334e-02 -1.931094807849783115e-03 9.918360977491866293e-03 -3.188240755477393055e-03 1.444350316915399800e-02 -4.694087379965321792e-03 -1.765732935030451048e-02 -1.254972739651756021e-02 6.067652482110753864e-03 2.170685356084266996e-03 1.403765369291083524e-02 -1.384080682091101688e-02 2.439547016836615678e-02 3.793301600269706128e-03 -8.967346842119272923e-03 1.070259928045636140e-02 -8.556031127406272998e-04 -1.555635329684892237e-02 1.105233268603379347e-04 6.358002890531415721e-03 -7.230516409150798685e-02 -5.517732442987124432e-03 2.703759796439190229e-03 -4.785014532060738977e-03 6.169355649196543376e-04 -4.306234816924360553e-03 1.565485228409825222e-02 -2.740220036796460652e-03 -8.243018501910082466e-03 4.905885555815193803e-03 1.322646394557716381e-03 -1.319761664922912761e-02 1.352695398097310611e-02 1.012942580591894882e-02 1.221224958209861204e-02 1.751251663041813783e-04 1.028943037998118412e-02 -3.148919544002040487e-03
