-1.708375741328694436e-02
5.775524796013862261e-01
1.170931530764125206e-01
-2.580991375708730634e-02
-2.623902050540335984e-02
-2.983806021276067671e-02
2.261350841686214641e-02
-3.769549948542038481e-02
3.165697514870080997e+00
1.693798571185979540e+00
-2.072160660362228068e-02
1.034683729090992044e+00
1.864060327449518911e-02
1.114307501577151083e+00
4.505937765068825929e-01
-3.714077378487123677e-03
2.305760801941899620e-03
7.262910363018571826e-03
8.699186020757452287e-01
1.886406671142036584e-01
-5.105039951756748517e-02
5.904362749471638860e-01
9.629177386797366234e-01
2.116677538884923770e-01
-3.604391299095500711e-01
1.903587715756852039e-01
1.004155550899540783e+00
9.506681658733232140e-04
-3.358556050852820607e-02
-4.015256889469108192e-01
5.379104606286304602e-01
5.374981030102848889e-01
1.790711504739351256e-01
6.729806337058032994e-01
6.783150809106147650e-01
3.830636677868427299e-03
2.117849339606849568e-01
2.506177939584300907e-01
-2.950948611667149335e-02
1.662697518953353687e-02
5.591483368266109144e-01
-5.458774698707631323e-01
-1.041831450217516920e-02
7.053583933584514076e-01
1.086875770814293318e+00
2.098984501756247581e-02
-9.445077748110878441e-03
9.235259912625735090e-01
-1.704875398931712110e-02
-2.300905345817073899e-02
2.700719931048765204e-02
1.969452450094291984e-01
5.263941722423865800e-03
-3.713989068798743964e-02
4.160737916684904558e-01
1.470595657059801331e+00
2.249103200432936087e-02
4.961467614829528361e-01
2.785404839658109713e-02
4.499396037731765996e-01
1.514106436332941230e-01
6.792387685356248150e-01
-3.565349943402036648e-02
1.506404805497859808e-02
6.331905562289781228e-03
2.296686660915246703e-02
1.233508779541049760e+00
9.149103827153071133e-01
8.556267502954826298e-01
5.603918091243966781e-01
1.597325415877582158e-02
8.232252135121586045e-01
6.976830049346470775e-01
1.186656518833564301e-02
-1.832193989671076703e-02
1.339246521033087278e+00
1.237595161887927731e-02
-6.647843307088020792e-02
-1.176926858598848283e-02
6.319768394290754543e-01
1.706995016248473995e-01
-1.855503189598843583e-02
-1.522063956633463999e-02
-1.691227665706496533e-02
2.618810481603338625e-01
4.326191186185931459e-01
2.122209630073950207e-02
-4.485869046614153477e-02
3.866467851365064656e-01
-1.528742120308298688e-02
1.444565986130647017e+00
4.333364742057300156e-01
-3.199533512115828454e-02
-3.080053163368217523e-02
8.562662577017000551e-03
1.182074747724831454e+00
6.194506566700931360e-01
1.150749361848923735e+00
-2.451228960491019793e-02
9.626570110487369103e-01
-9.990511531401136125e-01
2.672178125123603754e-01
4.397941414984033459e-01
-2.853712844802086188e-02
7.192349865028656586e-01
-8.719983107763661437e-03
6.751528154134426307e-01
-5.838755211779889792e-03
-4.182743712647123135e-02
1.066927660686869395e+00
2.274727213244874535e-01
-1.891491676639192598e-02
2.563108193490978154e-02
8.836167925524359701e-01
-1.164531456718259361e-01
1.366780976892488120e+00
3.535074677797576670e-01
-5.588277290958835151e-03
4.385169455088462898e-01
3.444333236139550392e-02
-2.731499239347474906e-02
-2.983200035209972872e-02
1.823514679067909372e-01
-1.499014624390791195e-01
-1.048457555755714747e-02
-1.943609353043596402e-02
1.125503437557077602e+00
1.000248812301622214e+00
-3.979711845744755838e-02
2.963477034702193813e-01
-1.745792346468678577e-02
1.054889702375017132e-03
-4.090133620275961807e-02
-7.269017341692178037e-03
1.190909434459334025e-02
-1.447419408971722422e-02
2.374597930373912799e-02
-3.474741934484498751e-02
8.016531940914818355e-01
-1.704032663968719358e-02
3.591573204749068937e-01
1.468671740769129430e+00
2.772867164528752260e-01
-1.497795017494387565e-02
1.015476874191444390e+00
9.627097016518839645e-01
5.431967288920910297e-01
8.465253718279773798e-01
-1.477355261851490478e-02
1.119199091878795738e+00
-1.900150982363663088e-02
3.028624538488560586e-02
2.163397641999352181e-02
6.631617238779284780e-03
1.033631908728153359e+00
-2.793486232542128148e-02
-8.689872337788279166e-01
-5.351104867275947863e-03
-1.621383212266197527e-02
-5.551424281559370622e-01
7.274688533404374269e-01
1.171714374586536184e-02
7.325991702598382699e-03
-2.049697194255990090e-02
5.566116246005855528e-01
9.842179994271786914e-01
-1.240117220041168228e-01
-4.219667806982224656e-01
1.178388131081355428e-01
8.970888295228017784e-01
8.186085937120618494e-01
-1.226204709011841781e-02
3.855800725853881783e-01
-1.538764354098381276e-02
-2.527037265911294406e-02
2.265835802332530347e-01
1.801151186831837281e+00
-8.087636278133143730e-02
6.603306167528272264e-01
8.321648327171277115e-01
6.370434196906394897e-01
6.529617143792375289e-03
4.954671412991800694e-01
