-6.620934544481104278e-04
3.193623695071088394e-03
8.915644560776807281e-03
-4.296786117595888244e-01
-1.696329380588969260e-01
5.917900752967539812e-01
5.277963012272837151e-01
-3.415419324232382529e-03
6.832453715732030863e-01
-8.905350725323639416e-02
1.294074777067822290e-03
1.385459608503327236e-02
-5.069175059131590944e-01
4.066302071225745725e-03
-2.960369939149655183e-01
-5.967620429076744143e-02
2.481923337816615560e-01
-1.051809020688581394e-03
2.865083990215745446e-01
2.833867325028579902e-03
1.130110468451508412e-03
4.868403840279127981e-01
4.146342058049121704e-01
1.653948834640572851e-02
-6.960684603650149627e-02
9.892523994138520058e-03
-5.546848563362934970e-01
-4.076561497519322064e-01
-1.418269472511266222e-03
-2.422477306249028878e-02
1.448032061891002444e-03
-1.086482841196520388e+00
-5.669520892514735236e-04
-1.963481569555988460e-01
-2.829117442716654884e-01
1.037139399373666893e-01
4.672366597781526520e-01
-2.531167314086860110e-04
5.348520548894585280e-01
5.539418882041674541e-01
-1.427826241759931614e-01
-1.046057312503554477e-03
-4.626670740642884194e-01
8.897179515807905571e-04
2.181095117014888313e-03
5.121396071059067766e-04
-2.398897323946809143e-02
5.620756348295129490e-01
-2.580413371062330319e-03
-7.779619897919336745e-03
1.342709332852251025e-01
-9.175906360967325814e-02
1.849491320893834490e-03
2.958018816487423437e-03
-4.872611987720732452e-01
-5.434276184448446623e-01
-9.388400209784103501e-01
-6.968880994855836120e-02
-3.361327446433918370e-03
4.948170450885970573e-02
1.391878801468883486e-01
-1.525443696217858780e-04
-9.903842557193206879e-04
3.673744478875496933e-01
1.253918630324480366e-01
-5.148201564463624758e-01
-5.226722474600137454e-03
-4.700767631558348536e-01
1.344545620746844028e+00
2.461750067622207883e-01
-1.305827178497645791e-01
8.468549653054118220e-01
1.959203441232952869e-01
1.713098427005034117e-03
1.508442969924566257e-03
-2.866570263261665214e-03
-7.276495109536611110e-06
6.531957216982986481e-02
-7.707157627991242932e-02
-1.381718991798265572e-01
4.413533796117284913e-01
7.421643637095000356e-04
-1.552258534405923530e-03
-8.935101978011500412e-02
-1.540301418545782786e-01
-1.751731267651776688e-03
-3.469291581239878925e-03
-4.048434430511649307e-01
1.456810498488812500e-01
6.743508175086697365e-03
-6.511669068828305207e-01
-4.283477010431723242e-01
4.976793625524533748e-01
-5.272081063633329290e-01
6.286583802203944416e-01
-5.577394668201824876e-03
-2.476656801245001940e-02
-1.270544252527528561e+00
9.573689163305206806e-01
5.545007396307145564e-01
7.792186182296960417e-02
-7.344800216371803574e-05
1.088146125898232119e+00
8.883686305520556159e-01
2.785677025730260662e-03
3.473854559547512322e-01
5.550731626500662319e-01
-6.245740211913803908e-01
-2.707258379601301494e-03
5.400602633999119773e-01
9.820517429744099209e-04
8.055338385733208373e-01
-1.889261621556879989e-01
3.518434969294225584e-03
-1.651668249806170774e-01
1.542535738409824830e-01
-5.303672973133415763e-02
-2.432626090855694312e-01
2.945260014060868681e-03
-5.216186274747944274e-03
3.708713014917053852e-01
-1.279018485149567563e-01
-1.320801848413310609e+00
8.754459379955018862e-04
6.205237048193699145e-01
6.615344800357632060e-01
-2.730780618041012825e-03
-7.005666504316846550e-05
7.778769537506567688e-02
-3.155125702100586849e-01
9.041403120850129973e-04
2.847598732604452593e-02
-2.375369466761782875e-03
-2.233946671518924777e-03
-3.514673732802125247e-03
6.882596170018170367e-01
-1.073524889903319512e-01
4.832379338258014842e-04
6.080298924711621256e-01
9.085091552249694447e-01
7.701744763496307794e-03
3.130213069857696738e-05
6.030200169465987567e-03
6.377590902927304795e-01
4.798955307275300404e-03
-1.193891868062551403e-02
-1.418791698105499044e-01
2.593789424658380065e-03
2.844231614030759414e-01
-6.928704330692562899e-04
-4.661317642973145103e-01
4.115418222432319661e-04
4.848957468952255767e-01
-5.899280529101621484e-01
-2.490189149679722467e-03
7.957358995228813736e-01
-9.840943596792807446e-04
-3.995823218549528211e-03
-2.509642764387204905e-01
2.890838804505661483e-03
3.589129941550646685e-01
2.778482738245372508e-01
1.619376116562991630e+00
-1.118487350026839758e-02
-3.517357850286539911e-01
2.437300572299389012e-01
-4.610055517957707960e-01
1.430213293374256586e-03
1.858212386658850968e-01
8.212912063880946703e-03
1.074443934749269320e-03
-6.163154993233160156e-02
1.612860761600015506e-03
9.618201749466628314e-01
2.470565092711015098e-01
2.677857808146329329e-04
9.613081090307303012e-02
2.064943734612682269e-01
3.278643134925895986e-01
-1.395817162543145674e-02
-1.841802298534820801e-03
-4.715886079337719972e-01
-1.243278360179818701e-03
-3.009648696406797552e-01
-6.412414722036575698e-01
6.400383736218707709e-01
7.255837384701256942e-01
6.675541465530789031e-02
-6.920447766571069526e-01
9.949604201855571234e-03
-2.257231113434145509e-01
1.481801027219029586e-02
-3.314525475161332613e-03
3.567289999719477737e-03
-7.777665380221440161e-01
2.117997721814225409e-01
1.913352151994377479e-03
-3.467061992243204438e-01
-4.127433600394395346e-04
1.344362555335371079e-01
-1.293667980865683244e-03
1.620153752812439384e-03
1.213735371151378056e-01
2.468035912123410589e-03
3.158210921515959731e-03
3.672518388242276832e-01
-3.256494812465120930e-02
1.923506185141410085e-01
-9.630035614797941013e-02
1.057272450279797332e-03
-3.632411175996870245e-01
-8.809268388447761833e-01
1.599629587826646437e-01
1.043664620557079167e-03
1.915722682872310475e-03
-1.442950604544138149e-01
-4.683320832412005141e-01
6.172068618677034255e-04
-1.054177747403676424e+00
3.472676759221768883e-01
-4.337284648404307087e-03
3.332557404270325430e-01
-3.239042057995601080e-03
-1.896195621682311358e-03
-6.457499844840015601e-01
-3.003510276639120291e-01
6.588585346971478560e-03
7.568105867886503434e-04
1.131573640871376130e+00
-3.998067127923950951e-04
-8.482121789724930139e-01
1.569819586225318798e-04
-2.411452290586456500e-03
2.798548749441738259e-01
1.141243801269932634e+00
-4.261113795335906285e-01
3.247654252640552242e-04
7.936987204071214164e-01
-8.800175621669183990e-01
1.361029226717163920e-01
-7.722418795839034455e-01
2.136475821772878744e-02
-4.030817007695804838e-03
-2.069131171267448444e-01
-5.623074282714613480e-03
1.022196103090825092e+00
2.998946236570207424e-01
2.352035442952513933e-01
2.093666131859423241e-01
4.309027282197555597e-01
-4.703052962032743499e-03
2.847711924242541937e-01
-3.310115530882514201e-01
-6.621694476197815410e-05
6.281149145294648902e-04
-6.495638673038360913e-03
-2.294159581763878797e-01
-4.573309909570544840e-01
-9.017685714946382936e-01
1.552113398540444777e-01
1.603101172807589458e-01
-6.499486956692783757e-01
-3.419208885456435087e-01
-1.318359047107987717e-03
4.323587632208266904e-03
9.470002448343430856e-01
-9.418886116273738479e-03
-3.540907465786224300e-04
-9.665833602473622443e-01
3.027050443391463008e-01
3.043386521921856436e-01
-1.311667614275343827e-02
-2.533062514062983661e-01
3.652696340372258432e-01
-2.211009483824449037e-04
1.100076894135633247e-02
9.202945934692196017e-01
-7.632441601166351300e-03
3.829808165369954498e-01
7.681061255172773328e-02
3.552849969685327220e-04
6.347537974788064604e-04
4.841773868023923066e-01
8.224393012129566430e-03
-8.156849223552024852e-02
1.531916377206238022e-01
-9.287848287337502340e-03
-5.341395978557401669e-01
1.163796148291817815e-02
4.989857909050459117e-01
-6.846884421214667338e-01
4.211983723583585526e-01
7.880406454363694246e-01
1.985549761353473941e-01
-5.928705085439135436e-01
8.181835268025091645e-01
-3.804035012949150696e-01
1.278595586348971525e+00
8.911046544260118329e-01
-3.161661649048777903e-03
-9.581671909370714953e-04
2.412797333072804525e-03
1.205546593150341322e-01
-1.901389078111074106e-03
-4.042990710731478310e-01
-6.017489211635139446e-02
4.825690161320654870e-01
1.589366665563670955e-01
1.728126739103856280e-01
-1.475002976934014368e-03
5.938873998453096936e-01
-1.985440775851278396e-03
1.129483253576186037e-04
2.788970479667648907e-03
7.247509887713390331e-01
1.246112199852908109e+00
1.396227355209428700e-01
1.984284409207559552e-02
8.867300099055539508e-01
4.734673209535539967e-03
-3.344472128706117622e-03
-9.508512338667084451e-01
-1.956132761548548815e-01
-1.973754454295731098e-01
2.866735798112660105e-01
5.901583511464919551e-01
5.098565412512310324e-01
4.407931184723891671e-01
5.844143715619397605e-01
-4.969101474013224145e-04
2.863885086054492324e-01
4.597467576870033490e-01
-2.828086880732429420e-01
-3.370665732255432867e-01
5.812745845737370409e-01
-9.267824231008037206e-02
-7.669581992791182357e-01
2.259844546112032004e-01
5.942809019910489932e-01
-1.575202692455854314e-03
-1.506547129158702187e-03
8.180684712779929812e-01
-2.291854660898712259e-01
-8.752888550221865627e-01
-4.054250961788481884e-03
-3.871876502557579217e-04
-3.594315992126789761e-01
7.778496739893736578e-01
-1.201021679599111611e-03
3.917872651353854763e-01
1.246159598232956078e+00
6.627275922180400070e-01
-7.882898665909707095e-04
5.708885307286112321e-01
3.589786645089638184e-01
-1.227287088765968565e-01
-3.414444760306478144e-01
8.966133726769488499e-01
-7.770133888976500647e-02
-1.912349546603778205e-01
8.816461004801923445e-04
-4.350610680687269118e-03
3.233304095093471053e-01
-8.018805462982303914e-03
-2.165756887412124410e-01
2.490040169205764205e-04
-6.513100788573503719e-01
2.333824810607306507e-03
1.263432727979479087e-01
-3.209424297551062844e-01
-5.287284250560889695e-04
-1.342578245824331898e-03
-1.013805065106645475e+00
-5.290866193054681865e-01
-4.425608127053924368e-01
-6.671870076713325437e-01
-6.372218993640563081e-04
6.023266535993827657e-03
-4.635730633757982333e-01
2.501468027124887916e-01
-3.495180526136290600e-01
1.504482040234654712e-03
8.345317842247750306e-01
3.619950130901228857e-01
-2.184919039410142538e-01
1.410318694621020457e-04
3.280321748698225570e-01
1.729074990501302533e-01
-3.820642219220216629e-01
-2.551545515387816741e-03
9.500098614056720070e-01
-4.377232485315447875e-04
-2.822507142213061780e-03
3.469291609029639652e-04
4.314981860113449390e-04
-1.582054238404468349e-01
1.560607575247086876e-01
1.440634054594822685e-03
3.024097752246350801e-01
-1.991660885356857924e-01
-2.546955412918386168e-03
-1.084378295296632988e+00
1.883597105734517805e-03
4.957793894298374165e-02
4.059026640346444781e-01
-1.132669293603753066e-03
-4.779510062036061990e-01
-5.661062434615506955e-01
2.379941827541336985e-01
-5.468866619385209316e-05
5.762602757383696039e-02
2.582265437957028884e-02
1.246229738156972300e-01
3.714371577521093370e-01
9.082645422803303304e-04
8.966153884368469051e-02
-1.041981116148860262e-03
-3.050958902818943219e-01
3.869776650821078468e-01
-2.761812146029114512e-01
1.154133918944749260e+00
-6.588017673762137649e-01
1.737776215183261808e-01
-8.280867699898629419e-02
-3.819078314091273185e-01
4.698070349928901157e-01
2.103226978308463894e-03
4.734654421393389989e-01
1.045080156369426619e-03
1.373494430937785083e-04
-1.707756859563426457e-03
-1.725431568310313579e-01
6.978846403440888135e-01
-5.963394107364810015e-01
2.575636497080826225e-03
-2.633638513573956508e-01
7.726131605145859504e-01
-7.440813865884480238e-01
1.152444558965224214e-01
3.040184050191310217e-01
-7.186654052454287444e-04
-8.669479760945164593e-02
8.243082003504345057e-01
3.561276611702867984e-03
-7.973245424778857560e-01
2.239253201359131529e-02
-8.186276564811264525e-04
-1.116556856391824962e-03
-3.079740751722715442e-01
3.672795360701149037e-03
2.375658310852179610e-03
2.983853919137549604e-01
-1.693126086006235820e+00
3.887381379885005567e-02
1.222574339106893967e-03
5.998143673776640261e-01
-1.772695220285605642e-03
5.805847514741587292e-03
-3.243250851614191133e-01
9.512039969493439884e-01
-1.076137114261526362e+00
-3.248247305916164476e-03
-6.790854350873391787e-02
7.276820121635632077e-01
-1.055556773799216789e-03
4.925110632619237871e-01
-1.598869999155304034e-01
1.942979397492500997e-03
-5.567422845337603558e-03
1.518728195017810716e-03
1.775234297928894589e-01
9.307557069195394606e-01
-7.673094976899136332e-02
4.214049923863900649e-01
1.336131774083663348e+00
-1.884571913447426472e-01
-2.898592586011457641e-04
1.412379243597993231e-02
7.298191687641311098e-01
-5.964615948170718385e-01
-2.939911824339720529e-03
-6.666251978260701039e-02
-5.724116923896023224e-01
6.216466285208238629e-01
1.125628380264351414e+00
-4.136837067064071290e-04
-9.666837895540579817e-01
-1.368570477498036175e-01
7.210748681689128870e-05
7.499717773294922729e-01
2.872213098962958467e-04
3.218088698539315340e-01
1.151330934380317798e-03
2.815437462434583482e-01
-2.753687095407060179e-03
1.423475448310081333e-03
1.704463009731650410e-03
-1.331852905195501360e-03
-3.676035859203939382e-01
3.022831231007250784e-03
-3.323061126086040429e-01
-1.454316806285342514e-03
-4.526072804428691310e-01
-4.419984427057825800e-03
-3.237528179692506143e-04
-5.599257193581489225e-03
3.053474545367492743e-01
9.312345144152767151e-02
-1.012718653756154552e+00
3.306287087755701015e-01
5.254812339743686334e-01
-6.124037940839890393e-01
2.753302524348051096e-03
-1.273731423059113257e-02
-7.884976065307993665e-01
-7.046249834844618871e-03
-6.625413555278361066e-01
8.005256263121134780e-03
7.224662664217089691e-01
4.969945241488692676e-03
-3.533485491390195854e-01
1.529582702085511836e-01
-7.364447548487439432e-01
5.517547820787618894e-04
-6.391325270611786236e-01
1.228873432030557433e+00
2.430026734699147484e-01
4.979845198094112399e-03
4.325014915841530749e-01
7.008317461676512317e-02
-8.027567565988209530e-01
-7.186892689055221495e-02
-3.229476970230024113e-01
-6.319069490097647401e-01
2.080994955928038015e-01
7.699308035596241773e-01
-9.560528429708269327e-01
5.940441536356034320e-04
-5.135323986847085687e-01
4.256164572059809581e-01
-8.327777843541658287e-01
1.085957128667582650e+00
-4.759005339838458769e-04
1.100854123428820636e-01
-1.992864026994742820e-03
2.103755493636586538e-01
1.720340992441823577e-02
-1.276924935203756044e-03
-4.435856324287903996e-01
-5.728838979322701912e-03
2.191887818272654064e-03
-1.990428294369450957e-01
4.048501017274303559e-01
-3.721604436410420602e-01
2.930259363058050348e-01
-2.802265297258095811e-01
1.251016259342371774e-03
-1.449108389238381311e-01
-6.622765686495376558e-01
-1.989971344642564588e-03
1.048876390141795678e+00
1.425397691647030340e+00
-8.264216590402141682e-03
1.178625086221217868e-03
-4.768716024825621624e-01
-5.129392759083674092e-01
2.819964442716637980e-03
-1.771122150826925359e-04
2.688230737442619533e-01
8.807249688994416709e-03
4.482375470210695489e-01
-4.592490006146266292e-04
-1.367820677927356621e-01
-2.213964312828999969e-04
4.948284370681766964e-01
-7.430398348446973777e-01
2.877536271970753123e-01
6.496413274497051527e-01
1.845943342040750126e-02
1.412742963567217153e-03
3.939227210719931788e-02
8.034389101820747781e-02
-2.711021533946665341e-01
8.162568655814993468e-01
3.694062829148369882e-03
-6.912366859766373439e-01
-1.111657564853701707e+00
-4.161679301191847369e-01
-3.307832454122166532e-01
4.915901936362244333e-04
-8.425324499970321802e-05
-1.397428819993990715e-03
4.494248980107168889e-01
-5.679410148115370260e-01
-7.736177385702608746e-05
2.245699319288065043e-03
-2.010036572204046716e-04
2.973376606020309287e-01
1.966733701735749393e-03
-3.789975616239634748e-01
3.209026934542387292e-03
4.684497160927902359e-01
2.579285708269336147e-03
-3.023866269684431091e-02
-1.480504049880332828e-04
-1.974339657734416279e-03
-6.811510048133165643e-03
4.144983360096999858e-01
3.398098017259834069e-01
6.081679853688876786e-02
6.853481186650536849e-02
-1.344878945305674200e-01
-3.739500620368649275e-02
6.304059552147727175e-01
4.007399843720402810e-01
9.789600144811394511e-02
1.185926191277764281e-02
1.234434270033939601e-01
9.068133818717491468e-02
7.520953925579864086e-01
-5.017605020586891895e-02
-6.830190080440870851e-03
-1.032947399947870881e+00
-8.897680723954953796e-02
1.948028053757194511e-01
-5.255906564980363793e-01
-3.397465264870882292e-05
-1.945434975279816984e-03
-4.242233361576696477e-02
-2.261974343922507902e-01
4.941291225601326942e-01
-1.864372466371815289e-03
1.103883570620284971e+00
-1.450898526384312603e+00
-1.226328669113125214e+00
2.147983580010122406e-01
-1.690460699163266745e-03
-8.671309996940619602e-02
-3.902208401875783845e-03
8.752523870188506439e-04
-1.476882800114985295e-01
-3.017407795157012740e-01
1.985748759819208707e-03
-5.267890031683966114e-03
-2.022681487368673536e-01
-9.664103669195091284e-02
-5.662569932067628153e-01
-8.054084574227695541e-04
2.213538864733347392e-02
3.293330665847293282e-01
-2.683578815453779853e-01
-4.203648882907408124e-01
4.041342995457023468e-01
4.346101795321288819e-02
2.879337684233508887e-01
5.533671671468587405e-02
-1.767753271215840097e-03
2.542533886625398809e-01
4.932330763105634980e-02
-2.370761378439184830e-01
-5.532419626772342447e-01
-6.225381410240713453e-01
2.815775519867380061e-01
-3.046862136079502292e-01
-8.289129431064775786e-04
-1.088000906334040362e-02
1.206587254321786207e-01
1.503038810690980331e-01
1.011640907255598404e-03
2.145740061775694082e-03
4.355759603395012447e-01
-7.210878977897015041e-01
-1.215003047454308982e+00
-1.179453465693451053e-01
1.988938841581906530e-04
-3.063146371973846354e-03
1.297879347679871676e-01
2.119090358363782348e-03
-1.304946180099439239e-02
-1.126695237707097341e+00
-5.949020008238190037e-04
4.612230694425634159e-01
-3.429669449094502678e-03
-5.740811279959313618e-01
-1.551647469820153450e-03
-1.335658412771962211e-05
-9.722294484186759789e-01
2.116970929783441313e-01
-2.117167635748879538e-05
5.378239198581087344e-01
-1.737443953397471361e-02
3.097431978116578066e-04
5.879852323395676856e-04
-2.442237275877515434e-01
1.095669012487408530e-03
5.333030009596249031e-03
-1.486523378478885049e-01
2.786403262321782148e-01
5.996746524643334353e-02
-1.146915169309413063e+00
-2.456363249071530919e-01
-6.499549008398742070e-03
1.439667668217323282e+00
3.480071679594034378e-02
-2.177892361653789577e-01
-3.505542238722394455e-01
-9.218744221856391401e-04
-7.955130984713949631e-04
-1.380128219923986432e-01
-1.445961451760930938e-01
4.415953269817330523e-02
1.244421378401244505e-01
-6.790174315147154416e-02
3.194702952108397498e-01
1.100146959922398710e-03
-8.426394835100142755e-01
-1.255226781680794379e-01
-1.412732908364649218e-03
6.026772117466200340e-01
1.562451907384113450e-03
-5.120533679891292600e-02
-1.416232412666062340e-02
-8.659163909418078342e-01
-9.939062631678632822e-04
-1.866844234510887934e-01
5.351836502267482976e-01
1.738046933996170587e-03
1.064589583822062805e-04
-1.777887817070723494e-03
5.041123173972202965e-04
-6.763573982788208825e-04
8.661666988179232973e-01
-1.029183513830519503e-03
6.982322474827143965e-01
-1.441548331181193021e-01
-1.679850269903558147e-03
1.056623034743017601e-02
-1.468166734300244440e-03
-3.258558696799583685e-03
4.422132451192384295e-02
-7.210212250482713747e-01
1.031953102299572843e-03
7.836165988626997425e-02
-2.156862031248295286e-01
8.765736368182586169e-01
2.884713883110093247e-01
3.203796324887095981e-01
2.290446306213109737e-04
2.721541587638851012e-01
-3.967028532985995837e-02
-1.050838923733638658e-02
8.916442052156408433e-04
4.729988704492324686e-04
-1.782744217363925410e+00
-2.020563465203868703e-01
8.689901671590691788e-04
-5.350014994319015615e-01
1.779181759397040555e-02
-2.688543182268434903e-02
-8.587680832223711924e-01
-2.734962322498249998e-01
2.168820549132766673e-01
-9.532722139784406690e-03
-7.745798339133757020e-04
-1.279190793396810077e+00
1.429453504018657894e-01
5.365348866821953281e-05
-6.386109728317670431e-01
8.028909242398982737e-01
-1.038073551783609723e-02
5.140449266751239213e-03
-1.341743231310807589e-03
-1.184551937787891029e+00
1.924407009580820236e-03
-4.085318605582005103e-01
-5.023857568226510750e-01
-3.276966192344838436e-01
-3.469169994317020111e-02
4.860470316919781740e-04
-1.564068903027584223e-01
-4.764569546744738641e-03
-6.703007375752919605e-01
-3.344258540368177934e-01
-4.342443960611816521e-04
