-2.665876533535511128e-01
-4.115340064631177741e-01
-5.246607601223108874e-01
4.641002453712745335e-01
-1.157798324337674517e-01
-9.258276482092554771e-02
8.669092557494191553e-02
-6.288032422173868170e-04
-1.037814920784728701e-01
-4.045877790082109682e-01
6.849504308257461926e-02
3.126475764648679601e-01
3.786655000705886898e-01
-4.536824306862229927e-01
2.581277044263925735e-02
3.416919006279656723e-01
-3.369822986111063040e-02
5.779556150591261959e-02
-2.239752545997393540e-01
-2.505403510751333385e-01
2.201435271646543790e-01
-8.795760786229098183e-02
-3.553235826012987597e-02
-2.569449090497294974e-01
6.335130802836405062e-01
-1.681824282570454632e-01
8.716793096852003264e-02
4.332698540913727109e-02
-2.348586290619615324e-01
-1.499359147638119893e-01
-3.931128889491819489e-01
-4.747724763927881342e-01
-2.130079772471835942e-01
2.494613377089106299e-01
1.589431550405026594e-01
-5.330393481558847180e-01
-4.581433183228533768e-01
6.445966281308720403e-01
-9.206863594375933046e-02
-1.125849886397296482e-02
-2.012253364466891625e-01
1.309152180090787099e-01
-2.821159554314686679e-01
2.365590890732888474e-01
-3.315213285088564749e-02
2.331289790599049006e-01
9.253713882318417849e-02
-3.942797155712506330e-01
5.058998021352421048e-01
-5.909849795729414934e-01
-4.200115451075569495e-01
-2.874320809458226766e-01
7.371939411465519565e-02
2.210888023690354975e-01
2.891239259803902173e-01
-3.020185538511216405e-01
-3.126907282614442285e-01
1.378675872941853009e-01
1.067820242779024265e-01
-4.242507798996629671e-03
-2.563740318984216726e-01
-1.582553723497698572e-01
2.627343410603169560e-01
5.372655494264908516e-01
2.086846931081893508e-01
-4.411727161779896433e-01
1.363914077764836474e-01
1.998097626312802244e-01
3.656903379895780071e-01
-1.079825589365848160e-01
3.443996045628016645e-01
-1.830690186365934724e-01
-2.299297097195870665e-01
2.432506647615690354e-01
-2.562350918841358946e-02
-4.415336256533148873e-01
5.399946355153113497e-01
2.941475092971265193e-01
2.098249822593717673e-01
-5.058939791771075584e-02
1.247424018000493628e-01
-2.638377624776363506e-01
7.593398071710988351e-02
1.517982379227865615e-02
1.489143108857328979e-01
2.470388900340046712e-01
-3.717020712872560195e-01
-4.225158971240893235e-01
-1.688713676118223372e-01
1.891485798219653958e-01
-1.692784493328517714e-01
-3.825585567660911290e-01
4.217594645783317997e-01
-2.208560575153954708e-01
-7.687424492605298143e-01
-2.827057827852610949e-01
2.121387818976106787e-01
-3.390811207628116608e-02
-5.422629524938992196e-01
2.460666472942439342e-01
1.470810279026221190e-01
-4.607620620969361536e-01
1.220246168378655849e-01
6.825375468642178034e-02
1.515393248660951431e-01
6.056402599203489778e-01
9.524969316446578460e-02
-4.030363164378847340e-02
1.734390467158427804e-02
-4.137558182733118151e-01
-6.552532805330395227e-02
1.387948614700834915e-01
3.669044766865781071e-01
-4.275410875816844369e-02
2.251820329648137053e-01
6.040626427454153236e-01
1.784794398168537966e-01
-4.994245640296183231e-01
-9.773525406607089239e-02
-4.049974222036311078e-01
-7.535965353850592185e-01
-5.183513753594606865e-02
1.642239619727108302e-01
3.968812063116570199e-01
-3.244444865235978498e-02
6.015108112349640823e-01
4.858522026786133985e-01
-3.581308258306294956e-01
2.438689308008747114e-01
5.092721379050518110e-02
-5.765153280938970504e-01
4.458891325987271448e-01
9.086413295799974921e-02
-1.280289241602751982e-01
2.417855437014018449e-01
1.191818177693571568e-01
-9.044769888266010471e-02
1.037128584077407212e-01
-1.081886547047913871e-01
-1.047210898804606494e+00
-1.551985489788091643e-01
-5.696825223984373077e-01
2.142640694045465644e-01
2.740846484962440321e-01
6.264783525261057029e-02
3.707790318699016874e-01
5.144754760602782140e-01
-1.232686495463597570e-01
3.600309269973260284e-01
-8.113055745448543021e-01
1.955005614553503163e-02
-4.053331515575582245e-01
-1.064162542582858917e+00
-6.194507564058403526e-01
-4.435692384738882943e-01
-1.944719193836907667e-01
-2.742947397171335844e-01
-2.769255518461179524e-02
1.795773581585995982e-01
-5.083422331007374506e-01
-1.910547060650030493e-01
3.452342414960269945e-01
-1.287327910193581948e-01
-2.815633340241954774e-01
3.671157123885242513e-01
-2.974871379730175125e-01
-1.476597003029508637e-01
3.255285291503438594e-01
-2.763951212508408140e-01
4.928942182048170473e-01
-2.338288116398446748e-01
-3.921391087516374330e-01
-4.304244513263056904e-01
-5.504609359909031774e-01
8.594847440412526351e-01
-3.223435393644656366e-01
1.556807870599646593e-01
1.659561848908108761e-01
-1.904895856127166998e-01
-6.536638919520921798e-01
1.123030880561933231e-01
-5.130457104260178758e-01
3.426284538212303610e-01
1.900390398375837731e-01
2.006268900978203373e-01
-4.145681114470537998e-01
-4.219233678231199686e-02
3.804137153569343149e-02
-5.406223937322764961e-01
-1.833199108345429651e-01
3.086588404722910225e-02
1.527238397365583422e-01
-3.098909567024230594e-01
-3.943501246953038941e-01
7.856277215459829544e-02
2.839816858547883349e-01
5.740676311831346967e-02
3.930278535087958214e-01
9.651418580467394648e-01
-1.432928200724221668e-01
1.285193886014800689e-02
2.022726373017440238e-01
-8.809777686527166252e-02
-2.284622042060326375e-01
-4.962675700220599562e-01
-5.277751297738485503e-01
3.970681373547167992e-01
-3.405120923237275887e-01
1.024034257272940784e-01
-1.669245026929268294e-01
-1.553851180362992579e-01
2.176579312816053213e-01
3.835299969435789214e-01
-1.680249784195557150e-01
2.927924184097341898e-01
-6.729483904937039185e-02
-3.038983060467356223e-01
1.882428738200561669e-02
2.205415443135964604e-01
2.025147549006672543e-01
-2.735074239625689962e-01
-3.260077695319467672e-01
-1.887281641476742655e-01
1.082541664061617559e-01
2.620145316004116598e-01
-3.447939650922898225e-01
-1.908197847747674369e-01
1.504312836880986048e-01
5.096573980233993773e-01
-2.205965154567486319e-01
7.935648799496158867e-02
1.198352560863582966e-01
8.074963915648368865e-03
-1.385966867473405750e-01
-4.750430348394399926e-01
7.776227336466708107e-02
-6.113087243088054512e-01
-1.622116284521695762e-01
4.381149102722036726e-01
-1.968262568539402291e-01
3.695117568642553030e-02
2.083034827942962242e-01
-5.410381996950778261e-01
4.089923545844609265e-01
2.435269695824139879e-01
2.210699249341085970e-01
-9.418719679312752280e-02
-2.464447684793780458e-01
-7.207042625939561464e-01
2.407873953275316281e-01
-2.345021572853240033e-01
-9.277048666569505733e-03
1.484115126567478330e-03
-9.813236047402994211e-02
8.041937149345226854e-02
-6.704809465452261641e-01
-7.070628232510236533e-01
5.960307669320863422e-02
5.278886841678705893e-02
2.612032795353265158e-01
8.048909671307097335e-02
7.529828602474743227e-02
2.819895127971586701e-01
-4.954354008841344026e-01
4.579930654316062277e-01
1.729603254257268963e-01
1.685346893716435646e-01
2.699250370258953202e-01
-2.521640704076429929e-01
1.955469723730668408e-01
-1.553808712023365124e-01
-6.406721572523788044e-01
4.936392629847973779e-01
-1.851208895725239001e-01
4.801713351752003311e-01
-5.371469679519917939e-01
-1.413291828947254580e-01
4.001225141778176342e-01
-2.883171575468551073e-01
-2.731971554834471960e-01
-1.736597304775700235e-01
5.074907716988171780e-01
4.271860465166232301e-01
2.231761733827352934e-01
-1.935091727857015942e-01
4.244229287965413655e-01
-1.913919411336209575e-02
3.034343954385805842e-01
2.012583665181972292e-01
3.073854425896231299e-02
4.647608870316648488e-01
6.457171047475736003e-01
-6.673897473534843305e-01
2.947636379750161462e-01
-1.607958295334926124e-01
8.593943396715388039e-02
-1.357783169165816817e-01
-1.571770874127176587e-01
-3.107033287299629798e-01
5.789586436261970337e-03
5.618959538410115417e-01
-1.369388870208483877e-01
-1.589156328758673242e-01
-8.043190776145654475e-01
2.462238963618207377e-01
-1.507515461106779808e-01
3.628964327543031387e-02
3.050663312966876428e-01
-7.209349872606948817e-02
6.552582292950589471e-01
5.309009592729684313e-01
-1.246368259658121314e-01
4.824543161777235523e-01
-4.456876507903378415e-01
-1.803311928551503962e-01
-3.920233433553409474e-01
-3.414586261507888687e-01
2.101270133275855989e-01
3.013829595389350691e-01
9.992594970245528840e-02
6.488530467610079122e-02
3.425731407272304962e-01
4.322253558695524078e-01
3.715336843461874983e-02
7.687607662666311459e-01
-4.580954309032862770e-02
5.713651140797572359e-02
1.993009196526655535e-01
-1.801897210827765328e-01
2.156645850464331549e-01
6.065285893443955051e-02
-3.619671852097960420e-03
2.547988345716600822e-01
4.069516239514763822e-01
-2.830086207545980115e-02
-6.684109261929852552e-01
6.257231298791397778e-02
9.938862093445535728e-02
-1.581732149216160677e-01
7.312399785847270572e-02
-3.265367470236438252e-01
-4.414738616344462407e-01
-1.963406461115966839e-01
-5.394446073112652007e-01
1.365674944078701103e-01
-2.092148439073380217e-01
-6.547514158230356429e-01
-3.127961071818168293e-01
2.067217209909217868e-01
2.259605741381995880e-01
-3.398513086230265379e-01
-1.946825110890159916e-01
3.317245634307598445e-01
-3.714993654941635692e-01
3.110744232039107660e-01
-5.254247949129400297e-01
4.093898624236388256e-02
-2.080098863562922229e-01
2.387027400570301827e-02
3.879420440967114581e-01
3.178095101399889266e-01
-6.203088177207857212e-01
-3.744568453891908288e-01
7.535334668256065127e-01
-2.844916381310838224e-02
1.982008501892263130e-01
3.993037268166930889e-04
-6.059354406286246997e-01
-1.901403576578966081e-01
3.033548468629626571e-01
4.701758942597614732e-01
-4.499280737488380866e-01
-2.813472250887879555e-01
1.119496119281917085e-01
-1.892657211715046417e-01
2.841515652455821606e-01
-3.010512558584496623e-01
-6.089753406890735521e-01
1.762473523630593841e-01
-4.132682360039211661e-02
3.647347385907593886e-01
-1.783655660277696231e-01
2.849448136071733306e-01
-1.947685079436885791e-01
3.331215650710107057e-01
-1.531165170275587961e-01
-9.515866660487122541e-02
5.949334349485886353e-01
-5.227094014484409690e-02
4.600616716521999661e-01
2.039607231427653378e-01
4.245573367983691004e-01
-7.893281461657823961e-01
-8.697183089242815912e-02
2.712090844384529298e-01
-1.436669676281018826e-01
-7.803745330027889171e-02
-3.646094039502525974e-01
-7.606480807312846482e-01
-1.023057373492176625e-01
-1.736130619755278104e-01
1.394575005049243366e-01
-7.882116106978911407e-01
-3.222627922772987596e-01
-1.626488092739168390e-01
-1.647385435757033056e-01
-5.054828572383594093e-02
-3.486437442819717014e-01
-2.621296749139848115e-01
2.707162206573636709e-01
-6.662023030742988960e-02
1.906365677095279432e-01
3.556732379888950107e-04
-1.335066747015223321e-01
-1.724392246305207210e-01
-2.320215295162397495e-01
1.197665155154729183e-01
1.516083338849773809e-01
4.703434044854659102e-01
2.668526036727026929e-01
-2.703329056335677105e-01
-3.111341731747988559e-01
-5.343511246848500207e-01
6.973627124354842000e-02
1.301889929006857516e-01
4.073228368964920687e-01
4.753276051001219527e-01
-5.584709686560591635e-01
2.600340435630089098e-01
-6.942956508539622866e-03
-7.269487600212651279e-02
-6.198449363006803409e-02
1.991657729159751825e-02
-2.157400853407075714e-01
-1.556586010745517890e-01
-5.003502244153150702e-01
5.512911095772007330e-01
4.856427857380543611e-01
3.182825857364121047e-01
3.115283219657839497e-01
4.204298496798399287e-01
2.399551865405825379e-01
1.933848673153118203e-01
-1.372154515207414938e-01
2.337649388316679067e-01
-3.833076518102113833e-02
-2.065875293692127079e-01
-2.957792027179226291e-02
2.837841994332161999e-01
2.535553189735574309e-01
6.528152869331751429e-01
1.425492393525609747e-01
4.041938594728979040e-02
-8.766742383123393365e-03
-3.929328862787285770e-01
1.751010544564197968e-01
1.215133982357302633e-01
4.383142095759786638e-01
-1.788647839656571648e-01
2.656443130444096634e-01
-8.893236528781481298e-02
2.770761844601440371e-01
-2.303757689143186016e-01
-7.822933672162085683e-01
1.297378821242100855e-01
-2.104022899863918494e-01
4.971542795381266727e-02
-3.262064567364387352e-02
-2.283237536190482475e-01
6.950580182330029499e-02
-1.565909103507313882e-01
3.558240125196335257e-01
3.363250789854891898e-01
3.733627422252064343e-01
7.176702249862260130e-01
3.581758968072482063e-01
2.850614013685138781e-01
9.356790826033992148e-02
3.187012897034354753e-01
3.876840862034005575e-01
2.394134558547578173e-01
2.324201746263146184e-01
-2.883523472291790735e-01
-1.591691407859979479e-01
5.934041262429039509e-01
-2.367116406925879601e-01
-4.427668662386369247e-01
6.318018168857616468e-01
-6.332494295754201863e-01
-9.387435959056243673e-03
-4.785364715741911579e-01
1.742471561570508032e-01
3.209466821601495434e-01
-3.376933196532587167e-01
2.124575184626263658e-01
-6.743166316334527899e-01
4.860295465333818177e-01
2.242076863697025149e-02
1.255489934894245818e-01
1.310502843110226134e-01
1.865664748886403657e-01
-2.060666991427466746e-02
-4.546160015326205506e-01
5.641555677280530624e-03
1.759354176636931943e-01
1.517832599663924420e-01
4.154725302764770145e-01
6.828961523100963715e-01
-5.500688749443483766e-02
3.037839650123866919e-01
-1.368818419760750582e-01
3.262083232708125613e-01
-6.605505492875032858e-02
-7.466891800111399857e-02
-1.541632505740139214e-01
-1.267405412597990555e-01
3.992937319957590159e-01
4.852122292574281293e-01
1.384216425212657642e-01
5.203447940487611056e-01
-2.177188880080263844e-01
-2.218747590726954377e-01
2.881105688736769754e-01
1.484724950153749334e-01
-5.933136141044065281e-01
3.101199264111789700e-01
1.703929884742097223e-01
-4.883232100622902916e-02
-6.480130241611500308e-01
7.098284966304881094e-02
1.939847418712093430e-01
-1.098591154237794493e-01
-6.341190871824785302e-02
1.725713241957635702e-01
4.392042605476376843e-02
-4.131337634332059583e-01
3.478461945933582489e-01
-1.545303715189918214e-01
-1.952184379256033941e-01
1.562837619079514018e-01
-4.256462255139368822e-01
5.928768478755630511e-01
-5.297603366950942583e-02
-6.038652879755317393e-01
-1.525549466281858613e-01
1.104075296792543376e-01
5.239617890285822588e-01
-2.313657019113166680e-01
-1.433682906087241915e-01
-2.374138405076095526e-01
6.027143037158138039e-01
3.132784242174335154e-01
5.618734220062758522e-02
-4.364926946244132022e-01
-3.603148134314987372e-01
-2.969017138422716529e-01
2.609438533120505554e-01
-1.583189698546604851e-01
3.380628807450350437e-01
-4.589451416794519401e-01
3.379657070431545812e-02
-3.376671600012197128e-01
3.243782021358097012e-01
1.624338495825020101e-02
-2.812400443630464486e-01
2.077532395610367233e-01
-2.372504439585334732e-02
3.210683271079417533e-01
2.714609165894320553e-01
-2.825653662977908528e-02
-6.105381383341713236e-02
2.671278793176605215e-01
2.976418653704457004e-02
2.106664778047824260e-01
-1.947599812432826150e-01
-2.005851835971849961e-01
-1.874752887451964778e-01
-1.306373028263863034e-01
-1.536736652786175050e-01
1.713408967181531128e-01
1.705826973829038529e-01
3.675589143490074796e-03
5.651507592730436839e-03
1.187094730231857548e-01
8.343697674672219400e-02
1.064938876276929763e-01
1.856790764285329853e-01
-3.649072069155430572e-04
-9.100184153850891799e-02
6.909095687108918193e-01
7.273174096959972301e-01
-8.360895019186842525e-02
-5.976829814156001675e-01
-4.811461291731143897e-01
-6.837670322031971781e-02
-6.862566187807330742e-01
-3.567444207557325386e-01
3.386476565955933576e-02
-1.255414804186853472e-01
-1.758437389810347251e-01
-6.186108168168612774e-03
-8.296313638282564185e-01
-5.954724935099161426e-02
-1.344281464982014229e-01
-7.817128354159466053e-01
-1.648921727687948091e-01
3.453678009052686959e-01
3.093524070930490644e-01
-5.823268025077923266e-02
4.012193781086600616e-03
-5.952933105584972129e-01
-8.286195381332112087e-02
1.315957682794852701e-01
9.111232029380883501e-03
-3.741059121853920755e-01
8.118474833753108744e-01
6.205318202958785834e-02
3.676150529725730198e-01
-4.754934899110078161e-01
5.013645316172896625e-03
-1.109148754881298382e-01
-5.844646419460707287e-01
3.551938946005844810e-01
5.035241533183496543e-01
3.481005004470736353e-01
2.405105802929612957e-01
6.478918076002553317e-01
-2.661722929403237403e-01
-2.465386082218531671e-01
-1.132360522293221206e-01
3.346318879052503914e-01
3.976832673788945893e-01
6.424715778060428872e-02
2.714545884316360569e-01
-2.081798175223451564e-01
3.209334621850671310e-01
-2.361584078649625051e-01
-1.947348020620115472e-01
-2.090957320755326698e-01
3.137815626049705875e-01
3.043828181047709691e-01
6.640393999772461475e-01
-7.372007166494637387e-01
4.695793416148929533e-01
-1.813088376328353402e-01
-6.570702488140992004e-02
-3.223337134728774256e-01
3.214987085117470555e-01
-4.682355624492065549e-02
-3.290085011044446839e-01
-1.633407820395433030e-01
2.311004664771160455e-01
-2.148614803412902396e-01
-5.356549815868695275e-01
-5.525698975343897867e-01
6.167566303700642433e-02
-8.297844006227286795e-02
2.373773974088324440e-02
2.651402765959151031e-01
3.631084515701619164e-01
-6.840152804013482912e-02
-4.197799238936094635e-01
3.787066091926274414e-01
2.590288948048030671e-01
6.896193874010621283e-02
-2.058732097214839296e-01
7.388781824316583702e-01
4.779436444316607635e-01
2.047402444303622615e-01
1.882423725567207162e-01
3.978805783006206243e-01
-7.443919558644674916e-01
-8.030056975475638459e-02
-2.780999752581289064e-01
-4.108060383940462246e-01
5.312751659977554830e-01
-1.669481531979256361e-01
2.151934064372169053e-01
-4.245159349691201567e-01
-9.670268346995899988e-02
3.060201754514809136e-01
3.397925774167415841e-02
1.428113880306456918e-01
-2.818331279364364450e-01
3.667222011712925611e-01
-1.478548061815174175e-01
3.154104357207416220e-01
-2.375715574240123140e-01
-1.207372472781115084e-02
-1.735233421981483004e-01
-3.069815668018094357e-01
-5.280047459075198901e-01
-1.350657224395090117e-01
-1.132505535460926610e-01
4.049812159171735648e-01
1.779743952971122312e-01
-3.037922085622621338e-01
-3.090529196954868718e-01
2.354138923147179596e-02
7.159631745199653008e-02
-1.391214253602699180e-01
2.291491299138219140e-01
3.886775963591151961e-01
-2.356081827696271669e-01
4.119026040610881956e-01
2.560919211676763729e-01
-1.118528620371068150e-01
-1.255416164899423315e-01
8.294377140018092953e-02
-1.183515655116359477e-01
-4.524220898849425909e-01
3.909685447692773375e-01
5.405255341697891985e-02
4.104343918916691925e-01
3.272289303551577100e-01
1.998550182869705261e-01
-1.981816367887964114e-01
-3.258677483860380770e-03
-9.228338051093855354e-02
-1.215809157663629153e-01
3.245502109741327246e-01
-9.465824671960906822e-02
3.524185052768979975e-01
5.464354572925549103e-02
-3.157041729959869647e-01
-1.846639335675652471e-01
-4.053417278932746060e-01
-4.828042699966577644e-01
-4.633395929263910418e-01
3.774552994713539777e-01
-1.269407072748934828e-01
-4.731477436226628197e-01
3.861865896314031765e-01
-2.292457388232403970e-01
2.477431765042307776e-01
3.657439070577311879e-01
3.526616335968686955e-01
-2.004149485871263292e-01
-1.993135790976297561e-01
6.782319289302024545e-01
-2.309407851520322089e-02
-1.239467214378407733e-01
-6.847866497185042256e-01
-7.051175999334862061e-03
-1.894477628985772599e-01
-7.338226456806579145e-01
-2.803223431218908601e-01
1.762271610634498775e-01
-1.278573298217200449e-01
-2.339605570987008179e-02
2.386396189267867840e-01
-3.481058812144491865e-01
-3.659485669362217558e-02
-1.461450113862131361e-01
2.131098989123732523e-01
9.777255024813944484e-01
2.245173092184957475e-01
-2.106604397953288355e-01
-1.813672479562217499e-01
2.910513540042784508e-01
-2.152472001389552914e-01
3.156259181355269838e-01
2.967296423406152930e-03
1.800455836698468814e-01
3.998529995846962504e-02
3.226441839166648839e-01
-5.838278811618272668e-01
-3.120853254004154476e-01
1.705085627817560720e-02
1.433520607093671517e-01
3.699766180420893669e-01
4.823287506312602668e-02
1.488318065760199371e-01
3.558111943969878045e-03
2.209460554377014885e-01
5.257717326194033536e-01
-2.367163028163209171e-01
-6.830617834951483447e-01
-8.866709526829642807e-02
-2.829058946084453963e-01
1.676343523308519712e-01
4.131170641275394018e-01
-1.859457533753437752e-01
-2.237806289091099632e-01
