5.576291382273939057e-01
-6.666396408367665227e-01
-5.273335454387032550e-01
2.319502009495196804e-01
-2.648653376864789633e-01
-1.162749785905353161e-01
5.360973826896994199e-01
-2.303382220818414317e-01
-2.286165292321244158e-01
-6.179422310270219626e-02
3.792198241655742735e-02
-1.485448394569084118e-01
2.938954935628392828e-01
5.911921428251792898e-01
-1.555296970704668491e-01
2.995392402585932423e-01
-3.198677040845296360e-01
-4.307984837344313450e-02
1.739616848105669062e-03
1.177301447585583638e-01
3.771942484038656729e-01
-1.287632934484573832e-01
3.332001879155761515e-01
2.516815614802476175e-01
-3.380292068090475777e-01
-8.469656047922466402e-02
-2.612733883832831904e-03
2.825149518938258053e-01
2.817999492302193376e-01
5.661214589789696078e-02
-5.516200905947030719e-01
-5.392646428621714616e-01
5.490497756145706898e-01
-3.876057693157959616e-02
3.338968708445422262e-01
2.486356850590225754e-03
-3.035983509776767342e-01
-1.813506449535423060e-01
4.914392033660963111e-01
-3.189100987185046476e-02
-2.796178641100193207e-01
-4.024129955878840703e-01
-1.696945328866323113e-02
-4.090252625805042008e-01
6.424899268852011236e-01
-5.064164514910547421e-01
-6.157282267738307668e-01
-5.325309060930285554e-01
-2.666617985661539625e-01
3.111001516920163246e-01
-2.204844176573011461e-01
-7.938298046990345247e-01
5.655529883679633052e-01
3.277769845753982780e-01
2.976828095185783396e-01
-1.301513459770706205e-01
-1.237699979758459662e-01
-2.318639775709246398e-01
-2.963146769102644740e-01
-1.542980338221892622e-01
-2.058147609787797268e-03
4.398227385439346104e-01
-1.741386119565642432e-01
-8.159112060783234588e-01
3.352359019453721722e-01
2.276525868612333248e-01
6.544080636646700810e-01
-2.942868026904710832e-01
3.160469844905429704e-01
3.762239873533256840e-01
-6.087469894386857150e-02
1.905574686824055078e-02
1.259929325954505797e-01
-4.383561195965048340e-01
2.457157991767410787e-01
6.039263723783426796e-01
6.989194651079565501e-01
-2.446944707109316164e-01
-2.693733452783380611e-01
5.938638242771877573e-01
-4.202255418267415027e-02
3.552200999171764573e-01
-3.139006719518218358e-02
6.229427283841175722e-01
5.979594617048623606e-01
-5.077183730795237215e-02
4.104655447039072813e-01
1.455284742014016364e-01
6.713339897502451636e-02
-1.817312443159080360e-01
-1.688446541045452443e-01
-8.236829162242356728e-02
-8.187249779275183881e-02
-5.426959657100521861e-01
-4.058515499199059212e-03
1.932583719400033651e-01
2.541903811624051102e-01
-7.529976850189604165e-02
-1.086489496971316908e-02
-5.764748217514633621e-01
3.282450744303371665e-02
-7.105989829099017552e-01
1.042702002534970501e-01
-4.833055134051330026e-01
7.048703636630306024e-02
-1.378161868001712420e-01
-3.239390430667590803e-02
-2.620851289276635576e-01
2.914777551890700424e-01
2.637524257831967613e-03
-1.077903685313222684e-02
2.616112877699900974e-01
2.182769395950077129e-01
-1.791377690870111783e-01
2.609534000047879498e-01
-2.662021047583646993e-01
6.654907534481930842e-01
-5.408972331561939795e-01
-1.952189470744211952e-01
4.046260695671292651e-01
3.027045644936464663e-01
-2.544812369024777032e-01
2.413710868555653533e-01
-3.087610680656545092e-01
4.805649425035735112e-01
-2.902929233567556055e-01
-8.769463802602689428e-02
-1.887541278355036323e-01
-3.563022300737834214e-01
1.325739626408706684e+00
5.011502510141239985e-02
-8.078164455307457192e-02
2.832484830200851511e-02
-3.301852888861089297e-01
4.204842500251683157e-01
1.154835079901924133e-01
1.614851555293829177e-01
3.984826438424953210e-01
-4.416025946992550577e-01
-1.415414531495667871e-01
-5.470925270854685163e-01
3.392153467122920318e-01
5.993454231565780166e-01
-2.508563513732967598e-01
2.846789448863741301e-01
4.438381448677824470e-01
-5.226474192644950945e-01
-1.923398663668211273e-01
-1.865773275502429773e-01
2.105407666512162657e-01
-8.702663971507704210e-02
-1.491264846137945743e-01
-4.932662429609572380e-02
-4.582971456811411881e-02
2.101770239236253890e-01
9.318222461719113392e-01
-4.406189032478675660e-01
2.003101370002024206e-01
-4.239902249845796389e-02
4.609103042834067354e-01
1.510657307397430815e-01
-1.827884422742880044e-01
1.154924789284350189e-01
-5.252928015390930794e-01
5.519540990358044047e-02
4.668031918466791219e-01
4.135529636370948170e-01
-1.267816433706888124e-01
-5.130073309152086841e-02
1.984437742562974449e-01
3.652096450951536344e-01
6.822424343792876655e-02
5.173600078778592959e-01
-7.639219773700554883e-02
2.960953276471275583e-02
4.750179962363171859e-01
2.149613170325724576e-01
-4.356979592619200092e-01
4.051081980815673944e-01
-2.293287830222645943e-02
-1.835178902709047322e-01
2.618675921923357408e-01
-2.273129155263986234e-01
-6.276630500381147337e-01
-4.962658300543967838e-01
-2.776926612781610570e-01
-1.538336932125292933e-01
3.558657396656108030e-01
4.649917902248782431e-01
5.026396409308619279e-02
3.793086972452509587e-01
-1.419026923849069435e-02
-2.134858053618749751e-01
3.082854609052912420e-01
-2.830993146611724409e-01
-7.556578900934662890e-02
-5.068910094342853334e-01
-2.277816336830960076e-01
3.044468766001993676e-01
-6.804155219579234304e-01
5.137887016884838953e-01
-2.532438869384865954e-01
-2.159128569801309350e-01
-3.111969323632082784e-01
-1.327183898140774365e-01
2.758153324164826503e-01
4.326194689662267445e-02
-1.683635597331860356e-01
2.392216725603017735e-01
-1.497776507277822633e-01
2.558745272838222062e-01
-3.650505566341341601e-01
-2.105252724622201921e-01
2.966697863742168151e-01
-6.803589166209569883e-02
-1.179554987459367349e-01
-1.363596690854385618e-01
6.620933956264352105e-01
3.472097018667527069e-01
2.716295481853807092e-01
2.905830360644449661e-01
-7.372131711891851680e-01
5.488692950859876962e-01
-9.735029910850233337e-02
-3.551876659733143593e-01
-2.862917329945188771e-02
2.257963083406976101e-01
-5.376740782627398990e-02
-1.351234654697187898e-01
-7.752771852409255648e-02
6.675458138007768216e-01
3.668779703322087582e-01
1.348780791322765349e-01
-2.803308503874859525e-01
-4.218393377474354278e-01
-4.135201157459779120e-01
1.931173866120599325e-01
-6.632354903700812265e-01
-1.933966257978894931e-01
6.524786945171978311e-03
9.818065422729794767e-01
-2.962595460126677543e-02
3.103669192827279710e-01
2.937408895434266420e-01
2.171426956810376674e-01
3.454736218652911250e-01
3.339503685511670539e-01
2.222881893589850610e-01
3.197054377269324954e-01
-5.897553930081554929e-01
-6.462562794511993447e-01
1.742347816803805141e-02
2.242972585438688660e-01
-1.522440001811162236e-01
1.301373620555257016e-01
7.885065791421960180e-01
-1.758782103580163458e-01
8.742911872245827665e-01
6.148789711999989166e-02
1.726135282670730464e-01
-2.598945878302379997e-01
4.209235437270874569e-01
-3.601741514665114940e-01
1.391722985808907520e-01
1.682246360001134755e-01
5.826780151695118981e-01
-8.025775142047537544e-03
-5.378479753932087215e-01
-2.932548708821744454e-01
-3.274804625932264401e-01
-7.994942350458957014e-02
3.890292972282283213e-01
-3.240719758704663778e-01
-5.429792399484726362e-01
-2.909845722695462711e-01
7.970826193383744040e-02
-2.325585330752224789e-01
-8.802795330314440447e-02
-1.610561844194053072e-01
-3.364480964007648955e-01
-2.681605999332163370e-01
-1.358259868411880733e-01
4.458030252848814712e-01
-2.730602717107334376e-01
4.116860073788428109e-01
-6.107627314593432333e-01
1.475945792765505082e-01
1.872523897509768553e-01
-1.496558039563707088e-01
-6.314595563047858962e-02
-4.146748993391778659e-02
4.650135987798988124e-02
1.115581552811670679e-01
1.027237662675816454e-01
-2.983531265049047324e-02
-6.446144781106662169e-02
2.581917075680296159e-01
4.779776653879112824e-02
5.715904085542646840e-01
-6.623811669881527475e-01
-1.958884855370009170e-01
3.550124125611301973e-01
-6.918183567006497281e-02
5.462140999334712255e-02
-7.744535301801676319e-02
4.607043344004443930e-01
3.633188430878624975e-01
4.693325458025431884e-01
-5.064432132020344479e-01
5.154779326469571821e-01
2.063794858586604497e-01
1.117540418256274953e-01
-6.593081456451564681e-02
-6.179790436895572503e-01
9.038404453438261821e-02
-4.619778091227186995e-02
-2.769621785526868440e-01
-3.327792991274781675e-01
3.351590386305414726e-01
2.473071248802675981e-01
-7.235392453957686376e-01
-1.776492475903259927e-01
-1.029053994032058383e-01
1.264005317549581064e-01
1.335945423614557648e-01
-1.786534546237105170e-01
-3.591908118707311526e-01
-2.309456505821288475e-01
-6.328211491573842995e-01
8.129666785012849839e-02
-3.087403999154147982e-01
3.571708440737418888e-01
-3.959337900583949632e-01
4.565561394405365236e-01
-8.643271116431167078e-02
1.050261268924376351e-01
-2.849497826655458255e-01
-5.995873049972687274e-02
-1.620025519952448534e-01
3.068851865677617585e-01
1.830156451521227357e-01
-4.997888683371785185e-02
2.675710267906299400e-01
-3.348838785340946811e-01
3.112466530234831667e-03
-4.713690765895604540e-01
1.555613384750276773e-01
-1.998179669395310637e-02
-2.012597868690396696e-01
-1.006875333994656785e-01
1.770245996666919008e-01
1.298242960990309836e-01
-2.224139295147158635e-01
9.769389819557111609e-02
-1.330864315105870777e-01
-2.806831011452599056e-01
3.096801114481025907e-01
2.351981262577661214e-01
-7.354129664257319510e-02
2.831152661657127534e-01
3.684334062371872331e-01
4.149066487898269706e-01
1.442164786834538096e-02
2.439006614586749222e-01
-1.352930961121406594e-01
-2.036816940141018273e-01
-9.735409411043534356e-02
-5.877372429959990541e-01
-3.487755926646626814e-01
4.172626903441962326e-02
2.221658143887940418e-01
-2.948508061320530282e-02
-2.141039902583379353e-02
5.573168136602739686e-01
-6.579116704640707303e-01
4.665159546123558432e-01
-8.210370852686420251e-02
1.191730441931576900e-01
-2.819613869876395618e-01
9.885730684084181874e-02
1.900062559891080027e-01
1.946789413315161421e-01
6.138946519868985346e-02
1.593835523451835046e-01
-4.886820450156842410e-02
1.193555748874009642e-01
1.946541189007288675e-01
9.903598242413177641e-03
-2.383321726157373588e-01
-1.653486451490322195e-01
2.137704345539397643e-01
-6.822233457857420635e-01
3.936800475691485529e-02
-1.884193244255349398e-01
1.468273784302004392e-01
2.093774032230987792e-01
-2.544826818308158489e-01
2.179534465606465521e-01
7.625808372865300333e-01
-5.791125599833720772e-01
2.598694847751395129e-02
-3.350314500862605627e-01
3.755002837745950450e-01
-3.920989158133922348e-01
-1.937635626024304947e-01
1.537717702932659691e-01
4.814461664401556429e-02
4.339224541811569913e-01
-1.366893335680026411e-01
8.372198764439569008e-01
-8.962165776788103555e-01
7.256240584493730550e-01
2.931927266122479059e-02
2.180666688078918836e-01
5.143996169361201298e-01
-5.528710004583282656e-01
7.210714884367512567e-02
-1.320505291565969019e-01
1.069223419119181701e-01
-5.340047915784996990e-03
-2.398841731684246414e-01
2.963218775915586467e-01
1.124235681363818101e-01
-2.084714383100331192e-01
-6.021970613811498257e-02
-5.729413902010525028e-01
4.555932134788355792e-01
-3.173298750945110491e-01
4.177644834618302605e-01
2.664827076093765901e-01
-3.912636521029006498e-01
-1.576949113202479741e-02
3.085117688993023188e-01
1.852254178875522850e-01
-2.459833286979492828e-01
-4.765433243318707435e-01
-6.798802924979894247e-01
1.330737923375986953e-01
-9.939325346850845788e-01
-3.112480359221851400e-01
9.526254041282390325e-03
2.931763619624753407e-03
4.297174298357377825e-02
5.278698662042765610e-01
1.806155166266058820e-01
1.403094598598043918e-01
3.533719545934808637e-01
-1.362140710883660713e-03
1.358759848073141929e-01
-2.904993071173991859e-01
2.887554631551207396e-01
1.684394393268069945e-01
-1.141857551802774942e-03
2.179061131428616793e-01
-2.492798460049027928e-02
-3.312663685889408183e-01
2.632139547387344139e-02
4.112069613417015934e-02
-1.192960522116447153e-01
5.005018669924368169e-01
2.567734848751316856e-01
1.887908598264325388e-01
3.418783404510397084e-01
-5.948709225146666668e-01
-2.404665388420841876e-01
-1.626908799490494467e-02
3.158103775243577549e-01
1.304340471151874958e-01
5.963170471088256042e-01
-1.712193830320396792e-01
-2.783997487815342287e-01
-6.991615044078550723e-01
1.706870474038039709e-01
-2.892835648104995216e-02
-3.848492955285104378e-01
3.495084611803454533e-01
2.900365950311181162e-01
1.166488909986532346e-01
1.327477299531421850e-01
6.034959694655871176e-02
3.255011208729332028e-01
-3.493544112763491416e-01
1.407237025858915080e-01
-4.710178491569343429e-01
1.046662797173237985e-01
-8.874610253898639334e-01
-4.648301179463187882e-01
-2.481455076480204580e-01
-2.382235112589854431e-01
1.858176624959394507e-01
-4.455663905266443181e-01
-1.424669629805199768e-02
2.921494776688147166e-01
-1.563950732358117546e-01
-4.544843397879802516e-01
1.326748964557882271e-01
3.399950708304849689e-01
3.660425217960726063e-01
5.406432969283412326e-01
-1.623552674224669201e-01
-3.672922304659214654e-01
1.240745170774715106e-01
-1.085805057736232218e-02
-1.082965607794393326e-01
-4.173046482991173978e-01
6.214705425793691784e-01
6.915379214181296974e-03
5.534228289932858758e-01
1.572966471886993456e-01
-5.377362542290672898e-02
3.580497496318971185e-01
-3.279191799282600850e-01
3.197549870479582945e-01
-6.514261485190783185e-01
4.024306679614257920e-01
2.319871802565871832e-01
2.040614304562927139e-01
-5.433534579931628139e-01
-2.549286851278961819e-01
-1.878421608119444919e-01
6.533081816016708676e-02
-7.978031817599537945e-01
-3.460552318116508763e-01
-9.005274129853689177e-03
1.505123368689726404e-01
-3.572410937893311655e-01
7.821659795986599106e-02
5.621452450444778259e-01
-9.407435607834020719e-02
1.248917750622003803e-01
4.182799228026656269e-01
-3.422397289893428646e-02
-6.562590967838732858e-02
-2.651937033939550936e-01
-2.038500386142599874e-01
-2.391406990973888591e-01
-2.231883792687547885e-01
-2.953402258496123922e-01
-5.335174977741487246e-02
2.362824328923534833e-01
-6.249028085740525318e-02
1.108654099661099957e-01
7.027470558231410092e-01
3.597301688393002572e-01
2.047075966641055955e-01
-3.815863654006149130e-02
-1.568238890014496678e-01
-2.512711264358745145e-01
2.957121895303933545e-01
-5.171236237921865708e-01
-5.184686853310729177e-02
-2.126640849462725913e-01
6.341203453243482446e-01
9.538133161109070279e-01
-3.850790131129958049e-02
1.514098807539666913e-01
-3.127416564390336773e-02
5.394168585685863576e-02
4.613030112287406781e-01
-5.328028795361487990e-01
4.205562472567186960e-01
-2.608909651534519480e-01
3.148756353235480088e-01
1.057190526864325852e-01
-5.498978778873598872e-01
8.425874827908285125e-01
1.384263164631884813e-01
9.128893416805025640e-02
6.038677268595059600e-01
1.610065929408776020e-01
2.157541643474353288e-01
2.362399326652407094e-01
-4.760161072013165406e-01
1.588487665634685242e-01
5.290274707472506499e-01
-2.901410475659970678e-01
-4.901545504278455589e-01
1.598552323486390481e-01
-1.284663311261985130e-01
6.340836995400336851e-02
4.290844959981019446e-01
1.737820914106888437e-02
2.497201338595553544e-01
-2.741641253273520151e-01
2.726773353567632507e-01
-9.624764113135662880e-02
-3.788098825199245900e-01
-6.343140128004051692e-02
-1.546217237891916174e-01
2.631844629199866503e-01
-6.048034111461827456e-01
-1.368942909806447894e-01
1.245290526948994447e-01
-1.067895781928421828e-01
9.444958792369669009e-02
-2.656671919644140734e-01
-2.340680734462923795e-01
1.117457134099422017e-01
-1.423297090025790745e-01
1.067768342228822380e-02
-1.113991707160355699e-01
2.981612536032807875e-02
-6.253803847437274799e-01
-1.358203145798193012e-01
8.082926996891621751e-01
-1.283924461150783014e-01
3.895810616019546035e-02
7.983710713925983304e-01
2.735597880360588485e-01
9.153749904169427021e-01
-5.414802627269720281e-01
2.724719855994952034e-01
-9.952751837724298223e-02
2.095275218109361182e-01
2.031809184514194178e-01
-3.604413857767858886e-02
1.546593430368184974e-01
2.391727819514918585e-01
1.251877543220467071e-01
3.860645101740062812e-01
-7.721842519603987209e-02
4.457848126072340156e-01
1.338049997539351998e-02
-3.210175169264319339e-01
6.910900331337666014e-02
5.033287591947515072e-01
2.474421313102233011e-01
1.670170600558468776e-01
-4.039970632967266884e-01
5.539639396216611278e-01
6.458077978028792243e-01
1.122399879506840448e-01
1.027534869644077947e-01
-4.171855187861249203e-01
-1.603821841852665422e-02
6.749440439943510395e-01
-1.326685957507384162e-01
-1.640889999192584464e-02
-6.327669676852535341e-01
8.981589372242228253e-02
-1.536587409897444412e-01
-1.702638267513300052e-01
3.971408748509413500e-01
-7.669357371880624052e-01
-2.575771336671654477e-01
1.919127376778815286e-01
-5.530244613157010436e-01
5.728344043567361599e-01
-4.001894285328670003e-02
4.612673382038899872e-01
-1.740317690483540736e-01
2.685446858222458877e-01
2.715436225658857672e-01
-8.646388782450588339e-02
3.172416581589458384e-01
-7.779060567152317196e-01
2.082185444416673539e-02
3.240533361249939986e-02
-4.120198607566361720e-02
5.485591060204764169e-01
-5.104441617984780688e-01
2.902224535118209936e-02
-8.187319056203921919e-02
1.756379545889532046e-01
-9.757030090996068883e-02
-4.570726533848651352e-02
1.403225032083515178e-01
2.982693101095792998e-01
-5.140075779755747254e-01
-3.312452352145532353e-01
-2.400091100821861653e-02
2.868184836548302030e-01
4.338114483773053420e-01
-2.804139263124312831e-01
-3.256613346307913881e-01
1.839500757819625687e-01
3.760060888131375872e-02
-2.585289190929898617e-01
-6.468870050662947624e-02
-3.382647653269671428e-01
4.361422363353417708e-01
-1.349764764068902834e-01
3.320083152100374302e-01
2.115451509048278111e-01
-1.861945529702167257e-01
-5.583110210847480603e-01
3.633467978610732674e-01
-2.210772323435536979e-01
7.086811748141609579e-02
-3.013937441559028096e-01
2.369643127284739859e-01
6.696833598088718364e-01
3.535098047151885581e-01
1.332169038218149748e-01
2.224508534377694635e-01
1.843934255177642201e-01
4.875979903665270676e-01
-5.191554352677876620e-03
-1.368446162782051834e-01
6.304535746879070812e-01
4.818746024759389956e-01
1.363421945875876173e-01
-6.205054532847728566e-02
-1.230193346139041438e-01
4.099931435433648019e-01
2.475007433494514630e-01
1.013612188744623249e-01
1.785531975956807238e-01
-7.923965998892735785e-01
8.407336455479867965e-01
3.234613860208821468e-01
-1.056187237813105834e-01
1.338749436026571982e-01
-2.557935948339981058e-01
1.192069923199995662e-01
-6.801147502789220978e-01
-3.418416206337032137e-01
3.085318208896575820e-01
5.538817137977541938e-01
-9.469487274334216220e-01
-3.075433433228116908e-01
1.368191328366089310e-01
3.784832874915043388e-01
-4.022819610076223684e-01
-2.310416564512297183e-02
-1.587888239295903725e-01
-8.781726295448235575e-01
1.839739366317461045e-01
-2.782666122398216868e-01
-4.031834087729802008e-01
6.248346564983484064e-02
-5.830696212792957356e-01
2.731239749392869731e-01
-1.057294139263136451e-01
-5.008509235324477560e-01
1.322410152959658802e-01
-6.201785418254240900e-01
4.789583211062438672e-01
-2.007010990300872044e-01
6.740970239587477930e-02
4.628301303817475287e-01
1.149892946796627902e-01
-3.240811007601420712e-01
3.380246074359951058e-01
6.114833189955546366e-01
6.749913217825070921e-01
-2.065404699608860140e-01
3.301573965526919396e-01
2.134932941203457613e-01
-2.665965035413832007e-01
3.628882346332282238e-01
-4.928400286070331315e-01
-2.493767467598499155e-01
-5.291025867848480474e-02
-1.312395033643838915e-01
6.272789159671696702e-01
3.279240301275661573e-01
1.554971223626340215e-01
5.402999013576731402e-01
-2.218099393724305146e-01
2.083670017393780827e-01
7.032583292041423573e-02
-4.875210381431361317e-01
-1.419655928993033278e-01
5.637937641592727367e-02
-1.590441211505710661e-01
-1.698550451737981803e-01
8.065320940187494791e-01
1.701779046023708664e-01
1.269148559655050024e-01
4.097652089045597523e-02
-4.268707236061592969e-01
-3.602379327518933083e-01
-3.669651636652623283e-01
6.638628144187785907e-01
5.613890097968956550e-01
9.136919632172421091e-01
1.018460321797822615e-02
-1.142201283516469656e-01
6.089855687578280552e-01
2.183095326733863750e-01
3.193713095354596548e-02
-2.565714589295175485e-01
6.727779853852433600e-01
